-4.244502
-0.083882
-0.294075
-5.170517
-2.092006
-2.366620
-3.117209
1.452941
1.367478
0.636371
3.030179
2.911480
-1.472907
-0.803530
-2.075194
-2.944167
-0.580431
0.078881
-1.409023
-1.492522
3.212416
3.023570
-0.045118
-0.349731
0.944464
-0.642878
-0.738097
-1.662275
2.554408
2.736184
3.396442
2.191655
-2.004967
-3.751149
-1.610984
-0.761226
0.964286
0.587505
-0.987880
2.454239
2.109095
-0.932304
0.869910
-3.202741
-0.156543
2.387377
-1.996729
-2.261580
2.189871
0.302897
0.609149
-3.728102
-2.599210
0.807747
-1.036792
2.526799
2.414746
-0.809741
-3.557548
-1.993489
-1.194477
1.643956
-2.409858
-0.372330
-2.409355
-0.382848
2.705430
-1.135914
-1.015420
1.185892
2.127512
1.749549
4.588603
1.980704
0.602410
1.056617
-2.598158
-0.007856
1.554716
3.624302
-2.818378
1.390923
2.016626
-1.226978
-2.581276
-0.869759
1.147712
3.936806
-0.846056
1.045045
-1.163671
3.355597
1.154764
-1.022423
-0.704930
0.698377
-3.629698
-2.775459
2.848666
-0.307268
0.662192
0.067024
2.001968
2.254386
2.881968
0.003224
0.894375
-0.190334
-0.676607
1.733794
-0.116809
1.765646
0.021302
0.360492
0.492542
-0.458102
2.146860
1.425123
0.288201
2.850646
0.874402
-2.763126
3.018031
-1.679803
-0.937529
0.438367
-0.710435
-1.097955
0.457680
-2.027855
2.026057
0.778715
-0.369700
-0.017165
-1.113344
-3.331851
-0.612499
-5.549759
2.774188
2.398212
-1.002935
2.669915
1.675669
-3.385405
-2.259086
-0.320568
-1.555648
-1.013376
1.596852
-0.250385
0.341159
-1.450520
-2.605090
2.785677
0.099035
-2.864162
1.150223
-0.302816
0.461739
-1.127893
-0.782403
-2.521419
-0.018015
-0.388653
0.161326
0.027757
-3.826616
1.365763
-0.773037
-0.824583
-2.212703
0.150704
1.940114
2.217391
0.851308
2.217238
0.739203
2.305781
0.341223
0.621284
-0.498965
1.651256
1.934530
-0.553625
1.710426
1.603797
-0.042151
3.121916
0.836776
1.118216
-0.073681
2.543604
4.757716
1.126551
-0.522138
-2.189054
1.535063
0.652707
-0.571892
-1.428723
-1.375797
0.362490
-2.333293
-3.867463
1.340154
-1.059849
-1.631493
-1.600695
-0.310914
-1.497567
0.285635
0.876007
0.328410
0.662277
-1.987046
0.480411
1.319703
-1.603211
1.127207
1.150845
1.384175
-0.680928
1.668267
-0.728681
-2.063968
-0.925382
1.711423
-0.618562
2.543598
3.577597
-0.789657
1.470992
-0.813281
3.702232
0.280268
-0.000146
-1.625002
0.397785
-1.338777
-2.050704
-0.100686
-0.902440
-0.003419
-0.689404
1.230271
-2.175748
-0.348654
0.766432
-1.373615
-2.662411
-2.179239
-1.857590
-3.333004
1.174955
2.018751
0.868332
-0.321937
1.046534
1.467017
-5.033983
0.972468
-0.131753
-1.740000
2.505236
-2.265633
2.755373
-4.521021
3.453272
0.419044
-3.871142
-0.627139
2.598607
-2.287580
0.835087
-0.160935
-0.892662
0.608877
-0.487291
-2.861502
-0.784741
1.548501
-0.276080
1.011227
1.438144
-1.307137
2.559103
2.247760
-3.005800
-1.117441
1.718386
-2.414382
0.860774
-0.438320
1.643842
1.774189
2.569830
1.119862
0.671148
-1.247312
-0.160651
-0.047210
0.369271
2.078443
-0.522765
-0.418950
-3.573375
1.571732
1.535580
0.371356
-1.772769
-1.693371
-2.935805
0.835047
0.725639
0.182451
-0.990377
-3.125961
0.952454
-0.572914
-2.147525
0.191787
2.994587
-0.134656
0.518446
-0.321529
3.458341
-1.648585
-0.397864
0.905101
0.386006
-2.217602
-0.214580
-1.387855
1.256976
0.718592
0.331510
-1.005083
-1.527372
-2.655926
0.519386
0.209693
-0.007202
3.934897
-0.702719
-1.286093
4.744048
-1.859771
-1.015312
-1.267847
1.269718
-0.336247
1.792609
-0.480237
-1.654034
1.075737
-2.794124
3.394314
-0.087970
4.026769
0.702327
1.443248
-3.271484
3.344076
0.956873
1.241054
-2.232774
-0.835940
-3.910869
-0.490032
-1.253933
-1.321264
-0.215702
3.290129
-0.617836
0.752247
-4.452307
0.326328
1.042770
-0.980067
0.976324
-2.260206
-3.455142
1.636525
-0.231122
2.200437
1.012375
1.754779
0.626526
-1.288538
0.685523
0.932786
-1.684195
1.392520
3.409221
0.424607
1.046618
-0.685804
-1.092105
1.797846
0.237781
2.686579
-0.199892
1.384690
2.018228
-0.916645
-0.065613
-5.379077
-1.831021
1.617427
-1.148650
0.046592
0.063333
-1.679490
0.202342
2.686595
-1.221977
-0.999797
-1.128748
2.882649
2.943192
0.611242
-0.815635
1.396998
0.178709
1.097814
-0.884298
-1.516496
0.125268
0.084229
0.012601
0.879486
2.044374
-1.209579
0.531173
4.936802
0.619755
1.443238
-0.445258
-1.339985
0.909233
0.730554
1.023110
4.195540
0.862926
-0.172900
-2.962062
0.274577
-0.434940
0.978387
3.295836
1.214758
0.270491
-0.032351
-2.542315
-2.765067
1.132108
2.609470
-1.387894
2.338970
-0.306297
0.736297
2.785736
0.082566
0.489839
-1.239827
2.102930
2.622877
0.653191
2.760549
-0.594282
-0.564074
3.110025
-0.137042
-1.370306
3.814948
0.319323
0.275352
-0.865995
0.490080
-1.885983
-2.937854
-1.385601
-0.063204
1.529498
-3.817253
1.314793
-2.442123
1.079244
-1.145739
-1.791645
2.074793
-0.224229
-0.697283
0.157278
-0.406878
0.901740
0.967979
-2.066415
-2.166296
-3.031713
-1.843911
-1.845781
-0.134228
1.733884
0.729521
-1.213566
-0.187465
-1.305050
1.436227
0.255735
-1.798377
1.299087
-1.050020
-4.093488
-3.213808
1.618054
-3.372654
-1.159800
-2.160708
0.618651
-1.289183
-0.037450
-2.412106
1.964083
-0.098022
-0.506127
0.223114
1.137608
1.122615
-0.012511
1.515817
-1.374368
-0.202138
-1.058006
1.941330
-1.358305
-1.599874
2.186274
1.292283
-0.529888
-2.415742
0.136076
1.864792
0.331548
-0.206560
1.969911
-2.128401
2.184179
-0.508444
-0.514418
2.412131
-1.264414
1.915908
0.336393
1.215094
1.261131
0.196361
1.064772
1.225273
0.831355
1.539920
-1.032604
0.465590
2.330831
2.494317
1.730359
2.748231
1.114795
0.284543
-1.288083
-0.666608
-3.703036
1.096605
-0.689037
0.959903
0.226476
-0.686270
0.677519
-0.096489
2.774914
-2.235771
-1.129693
-2.525937
0.173179
-0.080588
0.720715
-0.097147
0.401331
2.208078
3.155020
0.738862
3.197335
-1.885269
0.409002
-2.729297
-1.198466
-0.307319
0.083226
0.440147
-1.039205
2.542327
-0.129324
1.433378
-0.423085
-4.738892
-2.974546
-0.833175
-0.826111
0.427344
-2.885487
-2.164400
1.180021
-0.326918
-0.089693
2.426397
1.323090
2.517907
-0.292635
-0.165693
0.892647
-0.538553
-0.562471
0.248949
-0.756176
1.845151
1.790466
0.559090
-0.781624
2.101940
-0.940251
1.191080
0.216980
-5.171490
-2.233404
1.513042
1.880031
-0.222349
1.135112
0.205751
1.015955
-0.369104
3.623001
0.844759
0.326429
-0.461572
-0.551783
1.332042
1.959532
1.058817
0.592792
-1.687773
-0.381612
2.347787
-1.576042
4.623268
0.934266
2.238232
0.342014
-2.695230
0.691751
-0.216524
0.618459
1.662117
2.588321
3.474966
-3.013954
0.057534
-0.685605
0.304368
-3.789094
-0.230078
0.798799
-0.636000
0.767210
-2.899604
2.051215
1.478027
3.764307
-1.616983
2.187616
-1.250257
1.844044
3.300204
-0.590963
-0.879773
1.121991
1.959887
1.547077
-0.248380
0.976024
0.552361
-0.966987
1.371149
-1.646139
-3.011205
0.162955
-0.507585
1.436445
3.911523
1.750346
-1.438218
-1.007679
-0.943315
-2.306568
-0.013039
0.942502
-0.051924
-1.987622
-5.691964
1.190760
-0.300727
-1.440366
-0.855267
-0.026852
1.342848
-1.335003
-0.245065
-0.895019
-0.209904
-0.346075
1.864472
0.562491
1.449516
-0.146595
-0.939662
-1.626478
0.533114
2.879761
-3.911685
1.985167
-2.799770
3.839795
-2.425517
-2.441629
1.907686
2.364504
-1.392977
-0.278578
-3.599942
-2.794035
-2.893948
-1.400866
-2.829584
1.281913
2.955361
-1.173564
-0.569499
-0.069467
1.217134
2.951439
-1.166546
2.253976
-2.131864
0.255814
-2.464179
2.152603
-1.226937
1.768421
-3.019503
0.647737
-0.728429
-2.530813
-1.051414
-0.979787
-1.442556
4.098794
0.436790
-0.823197
2.867607
1.563333
-2.678656
2.697735
0.053877
1.578264
-0.091157
6.132864
0.604436
3.187636
-1.552611
-0.726820
0.456758
3.224885
0.230459
-1.960731
-0.947243
-2.740773
-0.507810
0.819087
-1.244276
-0.115685
-3.567397
-1.661753
-2.071030
-1.172243
-0.276357
1.448740
0.867753
-7.074134
1.994180
0.182478
-3.262644
1.585425
0.772876
2.116555
-2.941083
0.819859
-1.913328
-0.958796
-3.052910
1.441348
-2.814802
-0.428406
2.152445
2.297654
-1.062224
-3.495772
-0.458445
-2.152208
-2.307830
0.912426
-1.301822
-1.698956
1.922152
-1.737158
1.843215
2.764114
-0.178137
-0.850886
-1.846338
-0.101329
-0.771851
0.091064
-2.403629
-3.161868
0.483683
0.849396
-0.364609
-0.048310
-1.739383
1.427917
1.129393
-0.776118
-1.168115
1.318922
-2.145617
-3.217472
2.615797
0.150180
0.684168
-0.940347
-1.125997
-2.947279
-0.521900
0.269897
0.691690
0.595038
1.948244
-1.649545
-2.116585
1.043674
0.490272
-1.547380
-1.333461
1.027118
-1.670600
0.119349
1.380974
-2.524780
1.719011
0.526634
-0.401297
-3.457556
-1.425484
-0.415320
0.269909
-4.156105
-0.978525
0.730997
-0.181647
-0.819789
-1.468194
2.033414
-0.171465
1.443682
0.120358
1.083993
-2.021775
0.201946
5.414097
-0.307034
-0.180584
1.503606
-1.174622
2.424458
-0.566121
3.150657
-1.183130
1.416397
2.109359
-3.076198
0.137703
0.506208
0.069684
-0.254674
1.247368
1.117751
-1.721101
-1.571030
0.220501
-1.516819
0.201975
0.655980
0.037865
-2.443218
3.007560
3.323574
2.454778
-1.281868
-0.959862
2.425930
0.905054
0.312991
1.792364
2.018127
1.020394
0.981118
-0.731697
2.362545
0.877462
0.844169
-0.459018
-1.565476
-2.645961
2.193896
-0.820205
-1.376356
-1.780868
2.295016
2.495822
1.253703
-0.588276
2.270401
-0.267798
-2.287297
0.068471
0.333279
1.199866
0.008371
-1.009135
-3.906129
0.719615
-1.056910
-1.276113
-0.409019
1.410043
-0.276593
1.882346
-2.329133
2.219591
-0.193667
-4.317997
1.290955
-1.323770
2.822632
2.615203
3.329985
-0.091097
-0.091662
-1.485545
-0.439633
1.134416
0.574435
1.944779
-0.072544
-0.773527
-1.200195
-0.989743
-0.546384
2.718799
0.394089
0.808967
0.340070
-1.585038
-0.152680
-0.221776
-2.797179
-0.924488
1.909914
0.563602
1.061292
-0.972828
0.176951
0.913015
1.563093
0.670529
0.621847
-1.538214
1.304523
-0.168178
2.851894
1.306519
-2.345484
2.209027
0.977385
2.576802
0.896584
-2.134789
-3.011562
-4.252649
-1.027926
0.642791
1.561409
-3.173055
-0.676361
-0.219088
-0.966722
1.876896
-1.052468
-3.700333
-0.220719
0.114257
-0.725192
0.379873
-1.462292
-0.653799
1.111529
-0.142748
1.480549
-3.737008
-5.393147
0.088987
-2.284442
4.059159
-3.301981
-1.741304
-3.183395
-2.142466
-0.674700
-1.690105
-3.837954
-1.902693
0.196496
-2.541898
-2.950750
-2.184488
2.156032
2.659999
0.583100
0.176717
1.505682
-0.334300
2.403946
-2.131821
-0.992007
0.614405
-0.838826
2.602491
0.514193
0.619455
4.292815
1.849325
-3.597104
1.290054
-0.043138
-2.192181
0.974142
-0.641341
-2.983978
-1.815701
2.413727
-1.544244
0.661630
1.483131
2.901924
2.808441
2.796208
1.421406
3.178283
1.731639
1.070606
-0.102450
2.287897
0.536333
1.908100
0.128467
-0.029487
-1.226933
-4.410320
-1.806342
0.328558
0.784708
-2.708710
-0.024059
-2.814620
1.285366
1.672329
1.823662
-1.198263
-1.767483
-2.895193
2.932170
2.320604
2.689994
-0.380873
0.384374
-0.375954
-0.021330
-3.091721
1.136821
0.471499
0.692218
0.660626
1.448613
2.707340
-0.370321
1.022799
-1.826063
-0.079734
-0.318301
0.459489
1.706352
2.214901
-1.791251
-0.691478
1.064887
-1.588207
1.370585
-2.752853
-0.982261
1.329542
0.953026
1.981094
-1.009553
-0.196087
-0.356610
0.949592
0.641437
-1.794072
1.099226
0.618565
-0.788558
-2.783443
-1.322487
1.549568
-2.878470
3.217329
-0.536849
-0.730304
-0.864789
-2.543859
0.583655
0.253829
1.140683
0.648059
-0.131139
-3.771293
1.172506
-0.004682
0.443643
0.242530
0.965490
0.467266
-0.666444
-4.128367
3.157786
-1.473807
0.751763
0.694890
3.641021
-0.053651
-2.077272
-2.324262
-7.042692
1.379030
0.692275
0.770490
3.484956
-3.155454
0.737373
-1.914765
0.299348
-0.612784
1.489397
0.610941
-0.770314
-0.906627
-1.163219
0.588694
0.363198
0.285615
1.896168
0.047247
0.405188
0.490285
0.530946
-1.576315
-1.437123
0.921111
1.699431
-1.905950
-0.717514
-0.111496
-3.259762
-0.128880
-0.240389
1.868210
-0.197092
1.222644
-3.049228
0.414249
-1.201581
-1.748825
-0.252525
0.949694
-2.094886
-0.147511
-0.276974
2.037074
-1.563179
-1.693693
3.518219
-1.452778
4.271137
-0.650186
-1.230090
1.443580
-0.945138
-1.207697
2.206198
2.718611
0.531445
0.613662
1.783356
-0.796837
-0.226506
1.219515
-0.127297
-1.470548
-1.678809
-0.175755
0.961245
-2.750270
1.229029
4.045351
-1.862798
-0.606748
0.003376
-2.346128
0.809787
1.061366
2.851408
-1.891143
-0.348358
1.802532
-1.235139
2.519384
-3.381383
0.185273
1.572992
-4.510745
-1.577778
-0.213357
-3.972561
2.376441
-1.504272
-0.211817
-2.894599
2.183240
0.588049
2.338495
1.155565
1.464732
0.124176
-2.909900
0.100499
1.726383
4.382719
-1.948651
-0.728763
-0.028723
-0.564517
-1.691083
1.676067
-2.250528
3.179546
1.398775
-1.111055
3.028712
-1.625531
4.274051
1.792234
-0.811820
-0.326997
-0.798065
0.683798
3.927872
2.333716
-0.762269
-0.103142
-1.521114
1.275714
0.716091
-0.195285
-2.690015
-2.274961
-0.168091
-0.251067
-0.228822
0.156684
1.792846
-0.441904
0.387769
0.078168
-0.850673
0.537084
-2.049276
-1.668423
1.233635
-0.102488
-0.449955
-0.020575
-0.549659
-2.447769
1.128395
0.113208
-1.409190
-0.091385
-1.248250
1.027654
-0.173246
1.830188
-2.945011
0.810828
2.041524
-0.198771
-2.753757
-0.369597
-0.548602
1.949351
-0.732494
-0.028863
0.486977
-1.811030
-0.374515
-0.343495
0.937773
1.270395
-0.107683
-1.839736
0.776889
0.986457
-1.604418
-2.324247
1.434099
3.137114
3.244241
0.676013
-1.411229
-2.590493
-0.731859
-0.092155
2.615071
-1.921753
0.685815
2.746006
0.675674
0.778635
0.416919
2.297933
2.171438
1.885166
2.827813
-0.537198
-2.622206
2.098589
2.688060
-3.730395
0.583463
-1.134539
-1.517017
-0.918316
1.036638
-0.092513
0.052598
0.985076
1.227420
-4.101293
-3.375510
-0.188972
-1.942803
1.106982
0.452415
1.408842
-1.876757
0.988773
-1.918809
1.287125
-0.314493
-0.881355
-1.956291
-1.827674
3.594539
2.544930
0.899721
1.547870
-1.101674
-3.338806
0.583561
-2.886725
-0.379820
4.392283
-1.362429
-0.846232
-0.808799
2.647075
-2.399186
-0.088574
2.322913
0.374616
-0.074934
1.462225
-0.819536
2.248559
-1.174459
-1.594695
-2.110616
0.740701
-0.251224
-2.613221
-0.066885
-1.682964
1.658042
0.910540
-0.360944
-0.518852
-0.777120
1.273433
2.040491
0.572418
1.391716
-1.169785
1.505158
1.870492
2.129589
-4.823083
0.337826
1.824966
-0.050445
-1.516475
2.124307
-2.304810
-1.684279
2.332439
1.010229
-0.719288
4.060608
0.047038
-0.435674
-0.180677
-1.041470
0.676119
-1.544891
-3.527582
-0.740589
1.651152
0.194003
0.823863
1.698726
2.538307
1.297685
3.814355
-0.180178
-1.285923
-0.144721
-3.151764
1.923513
3.479655
2.513283
2.471503
2.013672
0.036399
2.894224
-1.308473
0.434488
-0.821423
-2.249598
-2.421031
-0.369765
-0.474279
2.272034
-1.235180
-2.762951
0.056842
-3.224573
0.420510
5.715004
-0.104868
-0.015224
1.627680
-0.410700
1.144910
-2.568475
2.081558
1.168770
0.177148
0.247882
1.526780
-0.708891
-0.339314
1.334382
-0.629319
-1.401526
1.653732
-2.755124
1.523023
0.720061
-0.845901
-1.568228
-0.580909
2.055392
-0.899321
1.961449
-1.775138
0.409195
-1.276144
-2.705172
-3.396037
0.487163
2.028980
-1.107520
1.203708
-1.002277
-1.180257
4.586518
0.798193
-0.829267
0.361843
0.041835
-0.224682
-1.474820
2.368396
0.372596
1.040646
3.107319
-2.450907
-0.162611
0.660945
1.461517
-1.962716
-0.031510
-2.116016
-2.583847
2.539817
-2.546732
-0.720842
-1.710142
1.484916
-2.936452
-0.125358
1.243155
-2.623273
0.168792
-0.329261
-3.917960
0.564881
2.560979
-1.326095
-0.243334
1.645690
-1.064511
-1.040541
0.214086
2.325101
-1.314198
-2.322385
-2.015621
-0.763631
-2.927643
2.862766
-2.442702
0.521193
0.411908
-2.171409
2.248667
0.983747
-2.052717
0.448175
-1.645789
-1.317102
2.444059
-5.071930
0.731979
-1.234586
-2.135522
2.072512
1.371770
-2.391323
0.852885
3.195320
-0.716147
-1.834509
1.877148
-0.041125
3.037091
0.316977
-2.406760
1.152018
1.259001
0.456495
0.885509
-0.310449
2.630193
-1.910098
1.603506
-1.456969
-2.007688
0.849397
-3.721111
-1.701829
0.610021
-0.760544
-1.382891
-1.319327
1.572461
0.729420
0.152147
-1.893109
0.603732
-0.047419
0.473912
-2.083761
-1.306342
0.836718
-2.044818
2.445652
-1.961254
-1.565576
1.252727
2.281441
0.251162
-1.881630
0.503460
-0.256460
-1.916004
1.905179
-1.045460
-0.704066
-0.600351
-3.307121
1.625079
1.477937
1.280851
-2.910662
2.057181
-1.089918
0.683435
2.492080
1.593905
0.405809
1.748441
-0.052215
-1.706319
-1.589705
-1.152013
-1.829947
3.535762
-0.555306
-1.020910
-0.014674
1.501344
-1.736772
0.555681
-3.250229
1.545407
-0.190966
4.372901
4.357351
2.809507
-0.443439
0.386731
2.316596
1.678071
1.183788
-3.935008
2.524864
1.869512
-0.607572
-0.346680
1.448448
-0.098167
4.316751
-1.781120
1.307927
0.268124
-1.019072
-1.437985
-0.184784
-1.798643
0.576978
1.962771
2.653918
-1.073342
0.068313
1.255800
1.070998
-1.403879
2.659622
-2.446884
2.366226
1.837609
1.021065
-1.197718
0.984505
0.255327
0.784502
-1.934143
3.159921
-1.571670
1.655716
-2.301613
0.267591
0.341003
0.613598
-0.574046
0.056074
-0.509410
3.211565
2.296911
1.239702
1.979408
-0.005443
2.660607
4.288516
0.508480
3.756705
0.148321
1.855031
2.092124
1.849998
0.192139
-1.926944
1.115536
2.864925
1.010526
0.546515
-4.006906
-2.878770
-1.273260
1.151352
-2.696940
-0.956337
-1.797039
-1.621661
-0.617923
-2.405619
-3.711891
0.526534
1.088469
-0.006086
2.832114
-0.982150
-1.835284
-2.132984
-2.492458
-4.172068
3.454265
-2.199308
2.890511
-0.073828
-0.168154
-3.238706
-0.313928
0.488191
0.694009
-2.952727
4.755246
-1.299283
-2.991424
2.191238
-2.823758
-0.892680
1.831968
-3.917655
-2.288252
-0.851400
1.463893
-1.513266
0.827469
-0.082563
-1.768726
0.182394
2.144736
1.341267
-2.063047
0.534311
-0.847919
0.711100
-2.830556
-1.308306
1.202520
0.319710
1.055632
-0.651831
-0.876299
-0.469368
-0.260111
0.196372
0.872062
-1.904201
3.916829
0.375383
2.958586
0.947435
0.021813
0.510404
-0.084888
0.062950
-0.505077
-5.040800
-1.317008
1.661109
-1.963089
1.504013
-0.829455
2.662744
1.408251
-0.772558
3.257090
2.635310
-3.602923
3.802615
-0.216278
2.242039
-0.918723
-1.504263
-1.550793
0.852954
0.218916
2.247578
0.382609
3.261100
0.285515
0.167248
-2.877662
-2.634772
1.879102
1.367712
0.419060
-1.760010
1.008115
0.824265
0.237987
0.591655
-1.271483
2.829977
-1.726031
-0.742615
-0.584838
0.674463
-2.199164
0.181644
0.283020
-2.974867
0.243241
1.082169
0.251533
-0.944251
-2.145924
-1.358942
-0.917923
0.032727
-0.039859
0.271150
-1.499989
-1.186861
1.132513
3.626771
1.344607
-3.687302
-3.482354
-1.421433
2.049757
1.011004
1.574809
0.734704
1.327249
-0.733752
-0.927034
-1.134073
-1.085745
-0.035338
-0.573277
1.270154
-0.624177
-2.447943
0.916795
-3.546566
3.499693
-0.091977
-1.242986
0.197865
1.751548
-2.906114
-0.898391
-1.023630
0.092509
-0.251491
0.607552
2.054160
0.878858
-2.391610
-2.482473
-1.683113
1.105729
-1.591849
2.180459
1.014498
-1.367640
-1.431569
1.065432
-1.238095
-0.508686
0.742496
-0.677246
2.033187
1.322976
0.798861
-1.216920
-0.590481
1.529877
0.481550
0.385982
2.992037
-0.806778
-2.185169
-2.525045
-0.950357
1.088569
-0.867506
2.872728
-0.369491
3.831277
-0.059288
1.288505
-1.082397
-0.922858
-1.586240
2.886718
-0.184980
0.117786
-1.144487
2.106406
-0.241757
-1.081837
-3.214846
1.419162
-0.578144
2.854749
0.067442
2.032004
3.836963
0.845270
-0.308133
2.817926
-0.108756
2.682011
1.947056
0.470846
1.901377
-2.737998
0.828263
-0.929350
-0.899129
-0.185743
-1.477287
3.362738
0.415411
0.087885
-0.255280
2.667765
-2.064716
0.575934
-1.126189
1.997733
0.936353
-1.336769
0.779213
0.161655
2.816620
1.301486
0.645350
-2.575649
-0.368386
-1.891565
0.433749
0.374739
-0.566865
2.273365
-1.697646
1.127600
-0.773958
-2.821713
-1.434873
-1.920245
-0.023618
0.497239
-0.113464
2.839486
-3.047831
-0.341518
2.752223
1.257577
1.350786
0.159595
-0.027306
-1.187507
1.949699
-1.975276
-2.671160
0.062356
-1.177518
0.270819
0.664592
-0.637864
2.398806
-3.195904
-0.156520
1.339694
0.773619
-2.097853
-1.850614
-0.115324
-1.978458
-0.160799
2.874073
1.394878
-4.406381
2.279387
-1.440197
-2.291719
-3.320739
-3.205520
0.023226
-0.817595
0.971723
-0.681009
1.970258
0.276312
0.551524
2.580691
2.576662
-1.011223
0.116760
-1.145770
-3.090659
-1.805670
0.366896
-0.435451
-0.676908
-1.070965
1.055292
-1.736166
1.532722
4.082217
3.020957
0.752071
0.859197
1.418005
0.016443
2.108406
-0.087877
-0.615029
3.377088
2.250584
-2.511514
2.491512
-1.517643
2.237656
-0.759340
-0.306418
-1.509161
1.405113
1.279100
0.390658
0.465720
-2.071396
0.476950
-0.815033
-0.562992
-4.553008
0.905009
-1.123382
2.342088
-0.413132
-3.185262
1.725332
-2.495941
-0.761316
1.600684
1.366783
2.735951
-1.581539
2.954119
-0.097612
3.057307
-0.465215
-0.208679
-1.674047
-1.622150
1.090501
3.326107
1.684782
-2.964794
0.682482
4.390560
0.527958
-1.342819
-1.679467
2.887231
-2.427535
-0.443972
-0.116948
-1.867629
0.904445
0.452389
2.554081
0.142575
0.734012
-1.054825
-1.954077
-1.101749
-2.414205
1.330745
-0.162763
-0.953508
0.227382
-1.388768
0.499828
-1.154304
1.308866
3.239691
-0.765924
2.240168
3.768674
1.121505
-0.151635
-1.376639
4.898436
-1.250953
2.649907
0.947555
-1.133254
-0.437556
0.145770
2.080972
-5.508574
0.549951
-0.806067
1.613895
-1.009787
-0.081767
1.426938
-1.963719
-1.604339
1.150239
0.386269
-1.147917
0.979809
0.746842
-2.272392
1.368852
0.101796
-2.235306
-0.207204
-1.785595
3.584736
-1.751815
-2.687016
1.543389
0.587764
3.074623
-1.149481
-0.045220
2.060294
0.575050
3.170785
-0.071633
-1.959198
0.423466
0.693965
0.197200
-1.745079
-5.999159
-1.370634
1.242799
1.948532
-0.605056
0.712889
-1.803587
1.176525
1.752637
3.009198
-0.039396
0.677433
1.292677
1.067615
0.928899
-3.734683
2.152341
-0.467848
0.738604
1.146583
2.714940
0.715056
2.274316
-3.809044
-0.298794
0.212134
-0.045653
2.116082
3.641265
0.176356
-1.122711
3.800566
1.758899
1.627760
-0.869333
-1.559233
1.020986
-0.058196
-2.909141
-1.119515
1.770615
-0.985361
2.726482
0.705869
0.595056
0.401615
-1.287547
0.933999
0.429054
0.390430
2.746588
0.244961
-1.908719
2.955415
-0.170250
0.822288
0.393325
0.186577
1.060225
0.994408
0.325743
-1.745971
0.478602
-3.105435
0.311408
3.675307
-0.724201
-1.342405
0.379569
-0.757721
0.870155
-0.893693
-1.238858
-1.524925
-0.759265
-0.285672
-0.304208
-0.552158
-2.053792
0.125969
1.748823
2.235285
-0.481484
-2.365638
-0.321970
-2.049251
-1.021648
1.124227
-0.604942
0.132314
-0.946956
-0.539710
-0.472679
-1.386339
-0.357193
-1.392392
0.696585
-2.890261
0.389268
-0.803740
-2.086695
-0.741885
-0.513729
0.819998
0.166324
-0.297387
-0.384331
-0.307124
-3.584955
-1.757466
1.207079
-0.899885
0.115660
0.859385
-2.904271
2.021196
1.834736
-1.115972
2.019845
-1.166251
-0.088606
-0.848700
-1.437723
-2.690508
0.011058
0.468659
1.919503
-1.435210
0.687560
-2.556610
-1.130093
0.887574
0.174298
0.029094
-2.421151
2.391331
2.412202
3.454340
3.883203
1.012866
-0.682729
1.181968
-0.873870
-2.467411
1.119161
0.459274
0.114159
-4.017568
0.646091
-0.192819
-2.503158
-0.363614
0.620783
-0.364061
-2.039402
-0.160398
-1.000876
0.222674
1.217094
-0.749103
-2.862708
0.506085
3.387156
-4.795340
0.562623
-0.928642
1.012865
-0.406201
-0.611032
-0.444050
1.400629
-2.461114
1.306616
1.079063
-1.389745
-2.977199
-0.186586
-2.846585
0.423371
1.247416
2.032945
2.439021
-0.614602
-0.345642
1.007703
1.072047
1.860613
-3.097662
3.309814
1.371324
0.867049
-1.847753
-0.822339
-1.305980
-0.927414
-1.612829
-0.561767
-1.386926
-4.858546
-2.390076
-2.168440
1.085859
-1.337662
1.110827
1.632212
-0.933502
3.325237
-4.162722
1.173775
-1.587218
-0.402186
-1.317951
-3.494595
-0.062632
-2.083394
-0.700000
0.664519
-2.325721
-4.143174
0.317314
0.005344
-0.246470
-1.082147
1.061117
0.971169
-3.271646
2.127136
0.003650
0.383120
-0.946708
0.356896
-2.245530
-0.411848
-0.522189
3.146425
-2.889351
1.900144
-1.976244
-3.024197
0.081116
-0.258710
-3.434921
-0.508482
-1.150136
-0.927125
1.732309
2.717801
-0.114359
-0.217744
2.038618
-2.476922
-2.964074
-0.018489
-4.835772
-1.394077
-0.439922
0.157503
0.918671
1.934999
0.723298
3.359437
1.496281
-0.270719
-2.332107
1.524843
-1.831581
0.817014
0.711122
3.210014
-0.420311
1.138302
-0.342070
2.411557
0.575333
1.145555
-0.760403
0.504879
0.926760
1.823254
1.416020
-2.061924
-1.288236
2.656290
-3.259693
4.573651
1.612572
0.624124
0.947413
-2.502664
-1.475983
0.418190
-1.074293
1.599816
-1.702424
-1.543221
-0.311173
-1.221584
-4.205832
0.196800
-1.506343
0.265029
3.393158
0.982404
1.070510
2.254706
1.513885
1.250696
2.446315
-0.074677
1.388590
-0.249771
-3.266724
2.719330
1.521205
2.033719
2.178751
2.308910
-1.898416
3.507119
2.568850
-0.609201
1.105096
-1.003665
-3.490866
-2.050353
1.942995
0.291478
-3.423724
4.712394
0.321209
-0.768878
1.556430
-0.112274
1.028238
0.047966
-1.794030
0.855766
0.814862
1.102736
1.424666
0.831815
0.710326
-0.626014
-0.737725
-0.427235
-2.531441
-0.407686
-0.073772
1.862632
0.388910
0.099856
1.225966
-2.513312
0.084447
-2.111184
-1.234006
-0.117187
0.722524
2.676576
1.609487
-2.740491
-1.319478
-2.334904
0.991833
0.276977
-0.266633
-2.083597
1.581666
-0.553765
2.007207
-1.297834
2.330873
-1.741995
-0.706077
1.577428
0.827877
-0.962822
2.230316
1.426496
1.380447
2.307465
1.960911
-1.235876
-1.567008
-3.297357
4.930268
0.145344
-0.796003
-2.087456
1.890757
-0.279684
0.613499
0.807383
-0.891145
0.504129
1.680235
-0.472820
-0.577599
-2.437984
1.804401
-1.443734
3.054831
-1.027897
-1.836865
-0.411552
3.658804
1.754034
1.663692
0.540986
-2.496181
-0.209789
-1.160186
2.444869
-0.190889
1.401554
0.322487
2.285738
-0.988248
-1.361729
2.066982
-1.014247
0.860938
0.317428
1.059506
-2.521587
1.254467
1.649483
1.772340
1.540354
0.490819
0.383296
-0.982716
2.262499
1.913178
-3.030748
1.378629
-3.651769
-2.871437
0.110269
-2.721300
2.018234
0.906322
-2.534692
1.985868
-3.414072
-0.484902
-0.056573
0.758105
-0.245242
1.899064
0.915312
2.804254
-0.487637
-1.808610
1.619034
1.720457
2.516642
0.984599
-2.713098
-1.659225
-0.539783
-0.211074
-3.298251
1.278604
2.740579
-4.479281
0.651400
1.214573
0.814694
-3.061741
-0.470067
0.814398
-0.552264
-1.586827
-0.125891
2.867349
-0.785705
-0.989605
-0.592479
-1.534575
-0.741131
-0.247556
0.917321
-2.005030
0.719714
4.151649
1.334169
-0.217041
0.131273
0.700128
1.594723
-3.592325
0.738786
2.008431
2.261213
0.216200
-1.343443
3.732947
3.936440
-2.583233
1.254779
-0.097206
-1.591111
1.022055
-3.432319
4.005910
2.927758
2.441035
-0.804858
1.807359
0.123388
0.898007
0.081389
-0.878881
1.004428
-1.595588
0.356497
-0.706930
-0.401144
-4.263749
-2.764110
-0.440986
2.713600
-0.262016
-1.015950
-0.161139
-0.370455
0.844739
-0.774935
-2.117949
0.949115
-0.303230
-0.172966
2.458353
-2.396949
1.272375
-0.076576
0.744799
2.730846
2.506333
-2.099480
-0.278796
-0.360547
-2.516993
2.794893
4.303195
2.058425
-0.753035
1.016714
1.265044
0.304040
-2.722887
-1.834198
0.162385
0.057441
-0.603485
-1.135973
-3.278190
0.817134
1.494326
-1.219349
-0.577363
-5.825881
-1.022756
2.659209
0.237714
-0.200458
-2.217264
0.497900
0.947530
-3.026321
0.758976
-0.662267
-0.000874
-0.468586
-0.620223
-0.415996
2.093353
-1.341629
2.261871
-0.134399
1.378097
2.953663
0.949385
-1.860024
2.043916
0.720626
-1.235604
-2.110035
1.520220
-1.604612
-0.255920
0.034062
-1.434839
-0.849263
-0.858153
1.496710
0.372173
1.074018
-2.529080
-0.964382
-0.615289
-1.451756
-1.042772
-3.914372
0.952333
1.772833
-4.954593
2.540713
-2.922216
-0.269374
-0.092814
-0.445567
0.357162
-0.613441
0.642495
-4.619392
0.048160
1.474830
-1.655227
3.301276
2.802070
2.062770
-1.032668
-3.082114
-3.131576
-0.842409
-0.231058
-2.356139
2.533045
2.439186
-0.978496
2.658165
-0.984407
-2.116825
-0.523307
0.195661
0.081289
-1.530591
-0.706898
0.004889
-0.177527
0.362229
-0.507405
1.620693
-1.465977
-0.308855
-4.103793
0.426100
-0.425319
3.116652
2.136633
-0.171453
1.040402
-0.440648
2.123280
-0.774382
2.321277
-0.093029
-0.185862
2.485245
-1.892311
-0.161141
0.268418
1.425970
0.536440
-3.774993
0.542286
-0.262441
2.797156
3.823526
-0.082189
-1.166892
-0.163529
1.316694
0.136143
-0.523847
-0.780859
-2.878722
-1.826259
-0.518956
0.340659
2.414898
-2.643565
1.856341
1.547932
0.367783
0.488755
2.946294
1.933271
3.330058
0.246927
-0.994233
-1.749791
-2.981626
0.261361
-0.709766
-0.075240
2.493485
1.351968
-2.324005
-0.411099
-2.421522
-0.046971
-2.660437
1.320994
-1.606227
-0.360357
2.873503
-0.573209
1.134304
2.280798
0.337851
1.965600
0.560793
-0.229792
-0.459262
0.865910
0.966157
2.133430
0.780771
-2.797985
-1.412659
2.533022
2.933227
-1.102416
-3.580988
3.155722
2.761163
0.975527
0.057793
-2.357592
-1.307880
-0.234095
-1.444629
-1.017111
-1.994720
-1.701975
1.422450
-4.064031
2.271143
-0.445806
-0.248447
0.361325
1.329777
1.349953
-0.652470
-0.009507
-2.461246
0.443026
-2.524139
1.531318
-1.265688
-1.379366
1.136040
-2.258945
-0.512370
-4.351550
-1.247595
-1.321588
1.842765
3.991697
4.900833
-0.458108
-0.525287
1.944830
-2.079831
2.083089
-0.772447
0.787394
2.086026
-1.213919
-2.314027
-1.524023
-1.223389
1.284645
2.910272
-0.107600
-2.683877
3.808597
0.699870
-0.294010
0.380915
-0.381792
-0.563292
1.717684
-0.921247
0.506897
-1.274817
0.815665
-0.580323
1.857836
0.342705
-1.834359
-3.353222
-1.158295
0.426045
-0.391048
0.120271
-0.185163
-1.022690
0.040457
2.263200
2.903204
-2.051912
0.389182
0.625199
-3.359793
-2.025827
-0.730262
2.980028
-0.324233
-1.572792
0.179260
-1.635997
-0.929675
1.125708
-2.467774
0.700159
1.508236
-0.773742
-1.048837
1.854660
-0.360777
-1.951174
-0.784072
-2.405614
1.362817
-0.301017
-0.380206
2.410496
0.145771
-0.340111
0.740212
-1.638831
0.910805
-1.712326
-0.378700
-2.808630
-0.243288
-0.730456
-0.623190
0.493419
2.644662
-0.158741
-0.977159
-0.958469
3.643347
1.826301
-0.301801
-0.804266
-3.117253
2.747830
-1.234595
2.925871
-4.241214
0.673252
0.068323
-2.938623
-0.447744
-0.284391
-0.415269
3.375054
-0.704916
-0.397827
-2.703605
2.696806
-0.446071
-2.101620
-0.050012
-0.931312
1.049088
-0.643738
-2.316099
-2.406445
0.759988
1.905013
0.175238
0.922605
0.409992
1.903001
1.074221
-1.646068
0.688061
0.580387
3.722138
-2.414154
1.012645
1.070000
-1.221346
-3.835091
-3.011560
-2.184056
0.956541
2.570413
-1.406951
0.157188
-2.230083
5.825484
-4.150108
-0.090848
0.788957
-1.696610
-1.067563
-0.568629
0.860972
2.237430
4.596948
3.054457
-0.050615
-2.852458
-2.125511
-0.079059
1.641730
1.710183
-3.130565
0.813099
1.199918
0.757778
-4.005378
3.984498
-0.879783
-2.914114
-0.089311
1.195495
1.362442
0.940251
-1.254799
-1.545388
0.954430
1.408846
3.567150
-2.665424
-0.641851
0.853509
-0.064284
1.682023
-4.179988
-0.595652
0.769928
-0.584405
0.309960
-1.213673
0.118457
-0.551325
-0.991476
1.700199
-0.743540
-0.914488
0.926387
1.372335
1.601425
0.728499
0.440345
-1.826413
0.362719
-1.358489
-0.265132
-0.132299
-0.443979
0.561522
-2.770037
0.066180
-1.124183
-3.865550
0.347208
2.537172
0.896201
1.979983
-1.835333
-0.471710
3.429900
3.987141
-0.159667
2.300425
2.391345
-3.188525
-0.826476
0.233909
-0.805975
-2.275206
-1.123391
-1.595721
-2.009611
1.487784
2.743725
-0.483859
1.094687
-1.877075
1.008032
1.585005
1.036664
0.893905
-0.017534
-3.426694
0.853199
-3.408727
-0.922386
1.427355
-0.268075
3.053695
-2.625705
0.472282
0.397186
0.578328
1.746040
-2.882540
-0.909055
-0.645409
-4.331100
-0.052632
3.288051
0.293658
-3.284023
-1.544330
0.609412
-3.447893
-0.813361
4.124510
-2.342853
-2.420693
1.829981
5.135063
3.831657
-1.009177
0.735627
-2.868826
-1.070162
1.482930
-1.089573
-1.049651
1.249718
-1.943201
-2.022922
0.247877
-0.805705
-0.524623
2.663252
-2.435700
2.794145
0.325108
-0.296745
1.501518
1.177156
1.908133
2.528450
1.883116
0.653348
0.541045
-0.347397
3.174365
1.566651
-1.836346
2.729510
0.652350
-1.066201
0.592478
-0.042251
-3.328211
2.802492
0.971679
2.823758
3.653004
2.716033
-1.531492
-1.215545
0.021552
0.333815
1.912954
-3.629924
0.939411
0.435637
0.885391
0.929798
-2.159569
5.052212
0.559021
0.350855
0.306547
-0.260124
-0.512930
-0.316600
-0.037336
0.426821
0.528731
1.225422
0.566058
3.200089
0.217922
-1.804141
1.002911
3.621950
-1.316849
0.172823
1.783534
-0.584584
2.092338
-0.415846
1.913308
1.183624
-1.445662
-1.910184
0.211555
0.400733
-1.255528
-0.808029
-0.102016
1.095817
1.183057
-0.538128
2.254554
-1.056027
2.080637
-2.143835
-1.717779
-4.338417
0.276742
2.207683
-1.575177
-2.100510
-0.810058
-0.753214
0.630221
-0.917663
-0.935739
-2.482343
-0.016112
0.591808
0.212842
-2.879198
-1.423568
-1.233296
1.192613
1.376797
1.817198
1.586444
2.072626
2.922539
0.813661
0.599674
0.967693
0.812015
1.808393
1.611033
-1.495636
-0.308213
1.791633
1.691018
2.495026
-1.891367
-0.182461
-0.167355
0.895648
1.827545
-0.413861
-2.387970
-2.412150
-1.651276
-2.107601
-1.556413
-0.455376
0.887787
1.309781
2.773464
-1.064036
1.444657
0.782722
1.372326
-0.240833
0.826703
-2.378290
-0.842475
-0.092658
2.489458
3.019390
2.345123
-0.123318
-0.993751
-2.524186
-0.721361
-0.404950
-1.723538
0.534986
-0.089449
-2.032602
-1.162199
-1.206493
-1.388186
-0.532216
-1.212651
2.419531
0.804869
-1.378251
2.804057
1.692129
2.167056
0.553573
2.053965
0.605457
-1.577497
2.581794
-0.198863
0.894515
0.093299
0.084591
-0.168493
-0.123197
1.621264
1.384229
1.519559
0.319128
-3.422835
-1.635275
0.293190
3.087771
0.475570
0.597503
0.016895
-0.484165
-0.832280
1.729684
0.231150
0.077064
-1.869766
0.414067
0.210712
-1.702062
0.193968
1.088713
-1.535560
0.852512
-1.423293
1.854394
-0.192415
-0.499536
1.733964
3.068378
0.733390
-2.518337
0.431502
0.728751
1.013069
-0.624778
-2.907349
3.850216
0.716649
-2.292395
1.927845
-0.051377
1.656439
-2.319696
1.555294
-2.396837
1.394461
-1.095331
-1.104448
3.251082
2.577630
-0.560510
0.769940
2.087803
0.250402
-0.718073
1.949743
-0.047512
0.279649
-5.200061
-1.092950
-0.754010
2.003775
-0.764555
0.454433
-3.824021
3.938657
-0.265634
-0.262686
0.600927
1.855108
0.812181
1.291565
2.556884
1.847649
2.571321
-0.731618
-1.460582
-0.777893
-3.704233
0.659043
3.982311
-0.465007
-0.821672
-1.668057
-3.406539
-2.209290
3.734587
0.066240
-1.410003
1.976910
-0.925001
2.097006
-0.280666
-1.809116
-0.076483
-0.698253
0.440355
0.672557
0.493611
-2.775413
0.398512
-3.121105
-0.035717
1.982922
-0.929739
2.946906
1.485766
2.647443
-0.344216
-1.350072
-0.566399
5.096095
1.700850
2.751891
-1.157101
-1.876449
2.663397
2.719479
-0.542934
-0.963601
-1.629653
-1.605938
0.772687
-1.234182
1.555712
1.774439
0.765434
0.759982
-0.701972
-1.823652
-1.102133
4.786655
-0.916782
-1.997033
1.041997
1.689578
-2.236879
-0.636242
1.152133
0.401899
-0.497071
1.350449
-0.415624
2.668419
3.502324
1.298108
3.827321
2.395709
1.954350
-0.123046
0.335955
0.769428
-2.292771
-0.599280
-2.890528
1.908781
1.574657
-0.725344
-0.234223
-1.509153
-0.955578
-4.489364
-0.809532
-1.226191
-1.130337
2.251767
1.260089
-3.207034
-0.755493
2.860199
-1.490912
3.079166
-0.143121
1.305185
-0.675981
-0.086044
3.663166
-1.595180
-4.719840
0.882832
2.478288
-1.796547
-3.430364
3.080858
1.108570
0.700739
-0.343051
-2.344502
-2.211781
-4.023008
2.120906
1.544052
-0.016061
-2.019640
-0.991153
0.558768
1.429240
-0.005537
2.105168
2.914089
-1.637317
-1.392265
4.782677
-2.185532
-2.111260
-1.699764
0.139210
2.742658
1.926053
1.933837
-2.154920
2.085845
-2.155306
-0.253025
-0.594082
-0.016987
2.276666
1.945460
0.747997
0.321400
-0.513391
-0.547143
0.180350
-1.780817
-4.202804
2.381952
-2.966856
-0.420943
-0.055398
-0.254811
1.348191
3.099812
-1.544130
-1.380752
3.014219
2.806234
-2.779305
0.250643
-0.993838
-1.568935
-1.373006
-1.229802
1.359433
0.307711
4.149329
-0.003947
1.530735
0.889513
0.608905
0.492463
1.942060
3.629028
-1.285173
-1.244051
-2.842825
4.637568
3.131211
1.371476
-0.002372
1.879227
-1.116428
-2.180942
1.463640
1.001276
-0.285986
1.352576
-0.064849
0.056758
0.185167
0.343218
-1.058333
2.449705
1.529163
0.331071
-0.574094
1.585914
-1.579701
-2.700702
3.678260
1.563134
0.973704
-2.341153
0.789822
1.373983
0.935431
-2.092359
0.037965
2.501970
-0.574047
-2.777443
-1.518931
0.905213
-0.710514
-1.178928
-0.890774
0.179893
-2.620481
0.479420
1.318876
-0.638291
-0.440433
-0.430880
0.632190
1.675771
1.587049
-1.979963
-0.744265
0.608119
-2.403473
-4.735197
-0.979783
0.420306
0.475772
3.366988
-1.792334
-0.786693
-1.072000
1.274483
-1.733930
2.792257
0.350166
3.210155
-4.308000
0.673485
0.631022
0.763834
0.900379
1.958179
0.724081
0.884322
3.862229
-0.104724
1.364085
0.369441
0.515947
-1.084620
0.135478
-1.319837
-2.660305
1.528156
1.894649
-1.366952
0.199740
0.468709
1.327366
-0.045691
-1.835451
2.412769
0.128766
0.068920
0.262386
0.292112
-0.427612
0.898843
-0.293973
3.029800
0.537303
-2.272120
-1.914081
-2.289325
-2.811675
2.007797
0.914694
-2.120762
1.152259
-2.988802
1.242637
-2.240532
2.422612
1.920893
-0.970842
0.194560
-0.519467
-0.390965
0.893915
-0.435277
-1.247310
-0.418247
-0.022183
1.782426
0.068305
-0.314196
-0.067319
-0.672076
-0.802642
0.068696
2.563625
-0.993552
-0.016571
-2.758238
-1.431888
-0.377157
-1.268390
1.828843
-1.420917
-2.917863
-0.764196
1.124475
-2.686461
-0.290933
-0.864555
2.378736
-1.037775
1.699940
-2.132125
0.916637
-0.220682
0.815124
-0.687923
1.667173
2.228394
-0.718632
1.652305
-1.303509
-0.952678
-0.109685
-1.413546
-0.695369
-0.712782
-1.147652
-2.084795
-0.532065
1.503540
2.153032
-1.592633
-0.063585
-0.241237
1.441709
2.418867
-0.798169
-3.423229
-0.550147
2.217003
-2.281591
-4.457741
0.923612
0.430201
4.027631
1.523361
-0.525691
1.648807
-1.351407
-0.044867
-2.110487
-0.311181
-1.013477
-1.156210
-1.586916
-1.620574
0.432828
-1.568807
1.897984
0.760834
1.622312
3.824514
0.366909
-0.599618
0.032111
2.380490
-0.978061
0.544886
0.236785
-0.388291
2.195575
0.255326
3.560385
-2.353356
-0.922590
-1.581581
0.716619
-0.782357
1.819625
1.067675
-0.982915
-1.451012
-2.564764
-2.064849
-2.389275
-2.934388
-0.488425
-1.500994
0.635340
-3.666275
-1.743854
-0.454391
1.242344
-1.893484
-1.713265
0.491986
0.589855
-0.566961
1.024642
0.010096
0.075876
-0.468009
0.594428
2.986071
2.200963
2.629530
2.245860
1.966878
-0.220731
0.026341
0.437113
1.349963
0.132727
0.499039
-1.586824
2.005731
-2.637734
-0.261923
-2.366052
0.817641
1.989557
-1.098247
-0.285713
-1.251471
0.017321
1.116722
-2.044776
-0.066540
0.032409
-0.291424
0.928014
1.384219
0.895323
-1.591685
-0.568978
4.621653
2.135379
1.527730
1.018835
-3.285887
0.648573
-3.036155
0.049289
-0.000309
-2.038307
-1.822378
1.278667
-1.940560
1.552558
-2.957414
-0.750895
1.125250
-1.234653
-2.956181
-2.255096
-0.126676
-0.490474
-0.363159
0.924338
-0.964971
-1.365616
-0.779145
-1.356304
0.670177
-1.261383
-0.505654
-0.663550
0.130501
-0.394022
-0.594970
1.233868
0.561942
-1.653104
-0.373925
0.902501
2.448601
0.198190
0.568730
-4.495784
-0.458311
0.211813
0.056564
0.825589
-2.094177
-2.781237
0.771551
-1.030787
-2.176389
0.667587
-2.024192
0.858464
-2.858346
0.478327
1.219227
1.845623
-0.251333
1.636463
0.858768
0.936629
-1.020599
-1.584090
0.393209
0.443720
0.686520
-0.871823
-2.771847
-3.167356
-0.598345
1.823235
-1.820426
-0.733288
-3.795199
1.741414
-2.043593
-0.527922
-0.877091
3.114722
-1.611104
1.662982
-0.184625
1.163894
-3.126065
1.995261
-2.329196
-1.787330
-1.296686
-1.846368
-0.436715
0.028616
-0.472507
1.495029
-1.030313
-1.916496
-2.077296
1.582601
1.416662
1.493277
0.135185
2.050572
1.007501
0.744743
-0.207510
2.120260
0.515685
1.338590
-1.002445
1.912471
-0.660835
0.741749
-2.936197
-0.977271
0.499657
0.797031
2.965241
2.010716
0.806547
0.828327
2.722470
1.725880
-0.316841
1.579199
1.722738
-1.022812
-0.386281
0.810513
-1.246768
-2.433490
0.701923
-3.081521
0.069906
0.534545
0.360858
-0.145798
-2.193091
-2.629316
3.086283
0.570714
-1.137714
-1.943754
-1.976133
-0.326006
1.798630
3.460554
1.527490
1.524779
0.096409
0.582472
-1.576668
-0.309963
-1.574414
-0.918363
3.010413
-3.802555
-0.385466
-0.038484
2.616281
-1.969811
-2.186460
-2.642591
0.883285
-0.576595
-0.631246
0.373186
0.437397
1.223707
0.524448
3.014524
-1.927492
2.093463
-0.504453
-0.116981
1.067880
1.857163
0.725539
-0.578277
0.960461
4.619406
-0.501098
0.346499
0.162262
-3.644989
0.441237
1.210341
1.892612
0.580457
2.476111
5.026759
-0.087048
0.265657
-0.795342
-0.996873
-0.500495
0.226904
-0.977500
0.931078
1.795847
2.965246
1.541979
-2.013190
-1.456495
-0.615291
-1.565103
0.710513
0.258391
-1.620429
-1.585053
4.089162
1.159173
-2.091256
0.329241
-2.474639
0.805775
-2.183015
-1.377684
-2.344146
0.901822
-2.296451
2.478431
1.878044
1.776659
0.068003
-0.784433
-1.915355
1.752357
0.502169
0.419945
-2.930296
-2.240970
-1.519304
0.427952
-3.452471
0.463025
0.661378
-0.905684
-0.827766
-2.725697
-2.067957
1.660255
1.018220
0.396993
0.973289
-1.698732
0.827336
0.284994
-0.402249
2.933824
2.020803
0.784467
-1.926906
0.591697
-0.534895
3.426935
0.790557
3.739750
-2.342581
-0.447062
-4.669283
1.105949
3.953127
0.865117
-2.414077
0.382400
1.960923
1.674622
-1.259588
2.290002
0.796985
-2.782221
1.948705
-1.063951
-1.521995
-0.425257
-1.597789
1.962172
4.315214
0.183807
-1.977116
0.747656
-0.613461
-2.357670
-2.959751
1.515336
-1.898648
2.563805
1.304341
1.162100
0.315324
-2.651553
-0.080722
-4.924510
1.720526
1.414971
2.865528
3.218544
-5.037180
0.531892
-2.604939
0.891022
-3.034801
2.163995
-3.673286
-0.606771
1.161025
0.492642
2.695491
-0.283615
1.706158
0.252759
-1.267544
-0.476457
-4.277193
-3.594325
1.580294
0.874684
-1.998854
-0.214562
-1.490597
-1.171760
1.122976
0.441229
-0.875487
0.016500
0.542655
-2.523793
0.126236
-0.016870
-1.544219
-1.693873
2.311220
-1.226584
-0.760905
-1.070974
-0.147337
0.271797
-4.184277
-0.505836
3.386891
3.564937
0.611181
-1.880853
0.976830
-0.367908
0.795945
2.969454
-0.960773
1.824948
1.896672
0.367153
0.020453
-1.315715
-0.400717
-0.790873
-0.916226
0.316297
1.268896
2.802052
-0.759056
-0.605516
1.550564
-0.075305
2.082294
-0.070425
0.390782
-0.137100
-1.282682
-2.248370
0.010822
1.281060
0.720329
1.288210
-1.390458
-0.221424
2.441279
-0.898166
2.016501
0.056026
1.008420
-0.854181
0.048479
0.909805
-0.974020
-2.700326
-0.893585
0.161434
1.622158
-0.484910
2.721366
0.676245
-0.741710
-1.464059
-3.026954
0.584792
-2.402675
-2.112860
4.043413
-2.201331
0.968814
-1.039421
1.489728
-1.291808
-1.740704
0.191102
0.220491
2.986109
-3.457719
-1.495473
-1.433336
2.119849
0.094290
-0.140746
0.114137
1.778974
1.679463
-1.160045
0.802461
-2.670424
-0.879227
-0.772383
-4.185632
1.018604
-3.956064
1.587476
-2.188427
-4.871534
0.041529
-1.230170
3.128423
0.103819
-0.101417
1.483539
1.550530
-2.233427
2.650621
-0.234264
-0.989160
-0.016888
0.425101
-3.540480
0.222893
-3.153846
-1.317293
-0.493818
-2.780367
1.884306
0.311004
3.341671
1.206529
-0.419703
0.269810
0.844444
-0.023224
1.696163
-0.811115
-2.465069
1.359066
-2.797818
4.494781
-3.364645
-0.164006
-2.143013
-0.629453
-2.322054
0.457265
-0.321257
2.580079
-2.760020
1.333502
0.435467
-1.417879
0.227253
0.311826
-0.601174
-3.370670
1.532177
3.540894
2.687415
-0.339134
-0.494946
-1.168340
2.979188
3.294576
0.091639
0.756221
-1.583547
0.132914
1.250906
-1.066319
-1.437812
-1.505073
1.529214
-2.672162
0.424069
-1.087412
2.513570
0.132927
0.166756
-1.169244
-1.077755
1.454516
3.146395
-0.740203
-3.086725
-0.522747
-0.469109
-0.251073
-1.127481
1.038430
-2.206889
-1.347058
-2.114155
-1.729056
-2.086204
-1.828274
1.913311
-0.051223
-1.040525
1.772583
2.222932
0.346803
-2.935799
0.548348
1.499154
-0.036300
1.709377
-0.443575
2.157351
1.306739
-0.855454
-0.812068
0.992149
-0.223198
-0.695915
0.042699
-1.884066
0.327089
-4.078903
0.108112
-2.955964
-0.932265
1.763820
1.095281
-1.589161
-1.915922
-0.663918
-1.228754
1.256093
-0.558417
1.301714
-0.902023
-0.109730
-2.020170
1.343723
-1.821148
-0.955810
-0.180905
0.503641
-1.209158
1.409468
-2.311458
4.428170
-2.291959
0.937055
0.580955
1.906179
-0.408143
0.312657
-2.794914
0.727697
2.321702
-1.076962
5.119786
-2.175236
-3.214007
-3.280454
2.581099
2.382231
0.549252
-0.849407
-3.818501
1.317734
1.060206
-0.744490
-0.011058
0.783431
0.245332
2.540824
0.316586
1.639185
2.033839
0.561823
2.187420
1.921889
0.011154
-1.208016
1.690726
1.824562
-0.381687
-1.315600
-1.333123
-0.393262
-2.373714
0.632395
1.737931
-0.276267
1.910771
-0.746516
-3.378335
-0.847845
-1.585069
-3.574790
0.925752
1.157575
0.655175
1.737061
0.684487
2.295056
0.766320
2.737640
-0.582604
0.302418
-1.933046
-1.388664
-1.387122
4.655252
3.337841
2.111324
1.115493
-0.532191
0.500652
-3.138723
-1.713460
-0.144979
-2.076465
4.203339
-0.791360
-1.250531
-0.988817
-1.166840
1.181853
-0.081503
-0.254555
1.107036
2.212367
0.230685
-0.317424
0.431456
-0.181856
-0.458293
1.794302
-0.475457
-2.389436
1.330049
-0.390022
-0.885169
1.399268
-2.969583
0.014355
-1.092024
-2.417055
-0.339952
-0.703629
2.384962
0.177123
0.641959
-1.701362
-1.401401
1.097842
-2.377396
2.440442
3.199046
-0.188701
1.973039
0.101716
-0.147124
-0.803186
0.416865
1.334724
0.994882
0.322423
2.775142
-2.141707
0.017702
1.735427
-0.754331
-0.564639
-0.928921
-1.729122
-0.229891
-1.741208
-1.206608
-1.522511
1.436986
0.284080
-2.080735
-1.015824
-2.051086
2.232029
-1.179209
-0.836634
2.862286
-1.354288
1.973060
2.555135
-0.160441
0.952290
-1.780533
-2.823565
-1.573377
-0.698820
-1.111950
1.403808
-0.329412
1.721278
0.238720
0.555801
1.276897
-2.508669
-0.025992
2.406662
-2.105895
0.846577
1.195036
1.142477
-0.218137
-0.923433
1.753314
2.386634
-0.623404
-1.266692
1.217001
0.601619
-1.506832
-2.572198
-1.226587
0.558565
-2.701935
1.838255
-3.280409
1.449407
1.434798
2.595380
-0.102819
0.847321
3.699725
-1.610463
-0.885560
-0.138764
0.101046
-3.486604
-0.631286
0.472567
0.337958
-0.255160
3.391235
1.326546
1.518987
1.556300
-0.813934
-1.170894
0.015109
-2.218774
0.841644
0.466868
-1.044148
0.186479
0.956480
0.982146
-1.012206
0.313415
-0.777420
3.898799
-0.574299
-0.374947
0.261414
1.952189
4.371967
1.211311
1.110749
0.776453
-1.886825
1.258684
-2.100696
3.080205
3.564200
-1.085972
0.812424
-2.364665
1.289429
0.184374
-2.305929
0.578391
-0.865316
-2.183670
-0.367668
0.364778
3.237870
1.580801
0.111420
0.057931
-0.917582
3.547239
1.657912
0.009907
4.594683
-1.248227
2.839203
-0.749231
3.403806
3.272452
-0.618610
0.479431
-0.801389
-0.753046
0.112450
-1.463239
2.960413
0.805903
1.694649
3.350150
-0.500890
1.092373
3.023483
-2.774718
2.596633
0.955173
-4.670913
-0.200993
2.456275
-5.111028
-1.365308
-0.326795
0.727555
-0.378607
-1.591167
2.030679
-1.153680
-1.413880
-2.220796
-2.167174
-0.989123
-0.515294
2.146040
-0.598194
0.720724
-1.041345
-1.275165
0.441387
-2.052167
-0.703943
-1.858556
2.040023
1.725493
1.177118
-5.016792
0.003050
-2.711817
-1.584539
0.172275
1.373188
-2.933060
1.057666
1.067283
-0.948384
-1.966360
0.537831
-0.863777
3.945222
0.777022
-0.275333
0.061673
-0.192973
-0.076269
4.113026
1.223079
1.812860
0.168868
-1.047710
1.601150
2.837355
-1.329329
-2.941905
0.769744
-1.958597
-0.069969
0.256041
0.732862
-2.601796
-0.627262
-1.779395
-2.440864
0.420031
-1.405578
2.721971
3.754594
1.133584
-2.445130
-0.416141
0.330282
1.346871
3.312075
-0.483880
0.247622
2.343051
0.246587
1.902699
1.272638
-3.054915
1.004670
-1.575140
-1.881305
-0.719392
0.246062
1.107888
-4.337124
-4.463657
-6.106228
-0.220976
-0.871829
-0.379637
-1.717616
2.760823
-0.475842
-1.392366
-0.367597
2.731446
0.533533
-1.946221
0.185984
-1.597417
0.375409
-0.132472
-1.208284
0.614894
2.282996
-5.043009
0.519767
-1.680681
0.621729
-2.163793
0.616615
2.258098
1.407540
-2.537227
0.352386
-3.156087
-2.213904
-2.943611
-1.195902
2.220408
0.135265
-3.810780
-0.320886
-4.612478
-4.008538
-2.422185
-1.274698
-0.252545
0.282625
-1.058277
-0.374781
-2.717023
-0.518420
-3.581858
-2.225554
-1.314699
-4.450531
-0.757575
-0.432881
0.122948
-1.796236
-0.149635
1.549377
2.178535
2.086662
0.274006
2.378754
1.808480
0.058737
-2.986104
-0.811801
-2.772751
-1.768114
-0.142854
2.287493
3.031788
1.558603
0.503923
2.914826
1.628782
2.059035
-1.319610
-2.113363
-0.501487
-1.978497
-0.028307
1.010680
0.579833
-3.833911
-0.472755
2.328994
-2.656063
-0.847968
2.293791
1.187656
-0.751404
-4.127007
0.013018
2.734535
-1.131721
-1.419391
1.155136
-1.329290
0.859399
-2.377357
-2.837997
-1.281906
-2.161045
2.731538
1.456537
2.484863
0.513170
2.770625
-0.771939
-0.059583
0.152419
0.432767
0.088790
-0.107029
-0.921309
1.366014
-2.644273
-1.975643
-1.462835
0.287202
0.982842
-1.565394
2.602795
-2.689444
-0.525953
-2.444533
0.624254
2.270014
-2.013145
0.847085
-3.179994
0.876506
0.740354
0.373454
0.000424
2.884500
-0.362409
1.245854
-0.032947
1.585791
1.581501
-0.546374
0.279598
-0.908493
4.657924
-1.099392
-0.571549
-2.092350
0.190357
1.198532
3.502640
1.936063
1.547102
-1.096461
0.914019
2.716895
2.553605
1.291971
2.242353
0.791090
0.618040
0.842660
-2.827086
1.074177
-0.444358
-0.250057
-0.669436
-0.423120
0.629580
4.136114
-1.726368
2.547889
-0.305866
-0.034422
-2.701512
2.724396
3.641715
-1.361479
0.317073
5.848980
-2.380114
0.604855
2.131142
0.433325
0.895740
-0.204771
1.626407
-2.590253
-0.732225
-2.262585
1.290151
-0.899657
-2.415926
-0.726369
0.713116
0.270659
-1.234822
-1.248987
1.785540
2.392020
-1.277966
0.720559
-2.085499
0.452759
2.829008
0.102332
0.828774
-0.911739
-0.222067
0.421816
0.760535
0.046463
-1.105601
1.470687
-2.928736
-0.523798
1.736332
1.976277
0.855928
0.240127
2.199004
1.081674
1.066453
-0.340793
1.470148
-0.997824
-2.479165
-1.143668
0.070981
0.482109
1.565070
2.597633
-1.313895
-0.052735
-0.152836
-3.430118
-0.167827
1.162463
1.870011
-1.844023
0.528720
-0.063462
-0.074341
0.770216
0.882501
3.366774
0.331342
-3.111884
-4.756809
-3.158814
1.305670
-0.142098
-1.126491
-3.916013
-0.166635
-1.841735
-0.539313
1.092244
0.207366
-0.389137
2.902112
-0.746624
0.490255
0.875811
1.115304
-0.978809
-3.365359
0.055943
0.409968
1.334603
0.917166
0.979485
0.190231
2.504400
1.613123
0.527746
-1.075824
-1.336373
0.107738
0.854649
-1.869609
0.062942
-1.247890
2.446571
-1.419190
-1.013833
-2.968222
-1.497308
3.085557
1.299181
-2.142609
-4.216899
0.278099
3.409891
-0.038978
3.084459
-1.079326
-0.000232
-0.764500
4.682054
1.481286
1.920303
-4.890971
3.423968
-0.333594
-0.257236
1.639585
-0.209292
-1.104021
-0.115309
-0.536097
1.820494
-0.070360
2.499522
1.744986
2.117677
3.557099
-1.382162
-1.407800
-0.026340
-0.626074
0.048756
0.842248
0.658992
1.429984
-0.033249
0.080519
-1.236082
3.085308
-0.471443
2.572342
-1.855299
1.229712
-3.658976
1.430699
-0.151729
0.411074
0.353071
-0.869770
-1.928373
-1.177571
-1.712082
0.350231
-2.379474
0.693157
-4.758628
0.791566
-0.136821
-2.775691
0.325443
0.323497
1.706044
-0.883342
-1.412989
2.351648
0.761928
0.342948
-0.332926
-1.153725
1.380693
2.764757
-3.000481
-0.761294
-1.041322
2.880810
-1.766796
1.563128
-1.686365
1.217825
0.753419
3.805563
0.034619
1.797604
-1.464293
3.472251
-2.404859
-0.890684
-0.987455
-1.536430
2.241462
0.633956
-0.579041
2.397227
-4.300050
0.070446
1.156903
-3.601096
-2.326506
1.096185
-0.396169
-0.778809
1.515718
2.105703
1.846694
0.278433
0.324205
-0.257771
-0.233406
1.058223
3.289577
0.088461
1.762987
0.506758
0.383478
-0.641532
-3.508645
3.136739
1.312879
1.044989
-1.787842
-0.721032
-2.477106
-0.140825
-1.845267
-1.694870
-1.066001
1.800961
-0.201976
1.362301
-0.756929
1.318116
0.264420
-1.644501
0.830995
-1.019517
1.721276
0.698084
-1.397497
-1.451762
-0.496673
1.852926
1.260120
-1.420648
-0.079304
-0.285779
-0.774452
1.054768
-1.017986
0.556062
-1.359994
-0.228541
-1.401469
-1.032511
3.132476
1.101919
-0.961495
1.060284
0.607663
-0.413507
1.717201
2.144286
1.155223
2.301503
-0.377636
0.943676
2.365117
-0.381431
-1.656266
-3.068707
0.534623
3.770238
0.187427
2.511296
3.310587
0.688218
-1.081734
2.788083
2.368326
-2.623932
-0.338593
-1.407103
-0.753502
2.431492
0.219517
1.339903
-2.612711
1.411963
-1.866844
3.088866
2.369177
1.296213
-2.478021
1.940182
-0.998337
1.337421
2.949236
-0.118374
-2.091612
-0.377788
0.229569
1.789615
0.516672
-2.342851
4.076648
2.817615
-3.054633
0.250834
0.679337
-0.364434
0.660712
-1.585587
0.309047
0.854668
1.182076
0.525563
-1.251292
1.747460
-1.342255
0.053501
0.292524
-0.134702
0.015031
0.414862
-2.034977
-0.275034
-1.456360
-2.747645
1.559304
-0.061272
0.479563
-2.074296
1.446317
-1.638206
0.028119
0.276806
-0.334919
3.027596
0.713417
-1.432038
1.460525
2.238968
2.026780
-5.023562
1.321758
-1.823685
1.337046
-0.730487
-0.268671
-0.230048
-0.597235
1.116074
-0.084699
-0.547192
2.760378
-0.891445
-1.228676
1.132726
-0.420069
-0.065112
1.297716
-0.965828
2.507612
1.716178
-1.217627
-1.422305
1.285112
-1.102838
-1.092764
1.961292
-0.112200
3.105953
0.481113
-2.047317
-2.149996
-2.915238
-1.468006
-3.343921
0.198617
-0.563204
-1.314376
-0.469679
-3.289540
1.597965
1.416936
1.393022
2.633280
2.667600
1.848800
1.635785
-3.307333
1.290481
2.965907
2.629984
0.228838
1.365406
-2.514294
-0.504515
-0.686376
-3.324828
-2.309810
-3.582550
1.439804
-0.241370
0.279925
-0.170103
0.616313
0.735338
2.432026
-0.011808
-3.018768
-0.380022
-1.908469
0.298207
0.306698
-0.271458
-3.473020
-0.744836
-0.439094
2.312159
-0.273633
1.477761
0.220305
1.248140
-1.608400
1.562623
3.341250
-1.391531
-1.296255
4.614226
-2.226953
0.113003
0.618146
-1.552141
0.403012
-2.171404
-1.245618
2.901539
-1.567234
-1.983754
-5.043594
1.861709
0.664523
0.737899
-3.604152
2.330643
-0.019577
-0.468567
-2.875693
0.137097
1.754738
0.344860
-1.223911
-1.293744
1.753102
1.685038
-0.781007
2.860607
-0.969140
-1.773701
2.119352
0.688236
2.529097
0.062399
-0.323877
1.103173
0.002221
0.761770
0.705823
3.096403
0.687052
-0.157316
0.053761
1.668937
0.885425
1.941911
0.919464
3.324116
1.103444
0.391054
-0.481471
-1.652518
-0.619910
1.640266
0.070554
0.944012
-0.443862
-1.394556
-1.266851
-0.175089
0.924192
-0.295709
-0.564717
-0.385136
0.595375
-0.908463
-1.120929
-1.290194
0.960206
2.057926
-1.838900
0.589170
-1.757874
1.085486
-2.280063
-0.130088
1.115505
1.082287
-0.586816
-1.235210
0.494153
0.412275
-0.770950
0.816374
-2.024012
-1.520850
-2.506839
-3.144309
-0.669459
-1.657795
-0.771415
-0.303600
0.926585
2.192140
-1.790853
-0.219556
-1.213554
0.240903
-0.282868
0.679532
-1.048491
1.195716
-1.039837
-0.494215
-1.521883
4.289952
-0.317954
2.292073
-0.353897
0.542197
-0.847761
-0.916487
3.336429
2.442669
-2.868200
1.151490
1.530351
2.529239
-0.392285
0.767956
0.130904
-2.125804
-0.916375
-0.262439
-1.001650
-1.529305
0.948155
-2.251378
0.177706
-0.119365
0.378440
1.686548
-0.279145
-2.334167
-1.503812
-1.694995
-1.768073
0.496581
-0.779177
-4.105406
-0.642756
0.633078
-1.763510
1.570516
-1.177972
0.110199
-0.523137
3.056549
-1.324062
-1.895056
-1.231101
2.051908
-0.286265
-1.985902
-1.640948
3.405756
-0.991071
0.533001
-0.188255
-1.805564
-1.300081
0.920935
-0.589669
-0.518931
0.089278
-0.593577
0.100621
-2.804421
0.091068
0.776756
-0.359848
-0.414611
0.222639
-2.514048
0.462252
-2.223950
-2.750356
3.205114
-0.013217
-4.288185
3.140853
1.792960
0.248355
-0.282805
0.016806
-0.367729
2.808873
1.973604
0.008122
0.081944
1.138263
-0.902840
-1.721375
-1.011604
-0.463690
-3.452575
1.131275
3.595329
0.578930
0.978455
1.139056
2.334857
-0.427105
0.198523
-0.717386
0.664274
1.293493
1.360408
-2.089021
0.596315
0.247074
-0.417759
-1.654157
-0.155419
-0.974600
0.623036
-1.574363
-0.539377
3.379442
0.226887
-0.729529
-0.467437
-2.598641
-1.986803
1.981561
0.204891
-1.875572
-2.189831
3.443410
3.855710
-3.111737
-2.153550
1.135982
0.266154
-0.401644
-1.546877
-1.855274
-0.044595
0.533181
0.365796
1.491717
-0.431290
0.379117
1.377606
-0.777290
-1.526412
2.050564
1.818931
-1.578638
1.529462
-1.920839
1.428003
1.906136
-1.340368
-0.029527
-0.164471
0.124416
-0.688516
3.254555
-1.161695
-1.674141
-0.099308
-2.091550
1.316065
-0.657322
1.415401
1.101099
0.910233
0.658957
1.919500
1.383444
-0.423547
-0.608595
0.248355
-0.743097
-2.166150
-2.410026
0.833099
2.461906
-1.878813
1.452984
2.107096
1.668409
0.407202
-0.139186
0.720194
-0.025749
-2.702789
1.949767
0.652563
-0.850751
2.014459
0.049632
1.448267
-3.097819
-1.449869
0.385062
-0.805723
3.057863
-1.169321
-1.992145
-0.531927
-3.685512
-0.108871
0.877965
0.387209
3.911826
-1.974285
0.311934
0.678605
0.190571
3.513476
2.318900
0.870126
-0.730305
-0.076789
-0.758339
4.043098
-1.165099
-0.370515
4.407368
0.825322
-0.532649
-1.155649
-2.655961
0.803127
-1.860405
-0.053161
0.012876
1.867519
0.930062
1.586109
-1.787326
0.644466
0.770306
0.267161
-0.296496
1.075466
0.944496
-2.111513
0.867745
2.204394
-2.302432
-2.690945
-1.118636
0.456199
1.655084
1.363342
2.159120
-1.388455
-2.577342
-3.282062
6.134719
0.182985
0.777287
3.997829
3.034757
1.313214
-1.087345
-1.816370
2.957052
-2.773525
-2.428303
-0.419671
-1.405238
2.420246
-1.693811
0.131569
0.240750
-0.684054
3.194007
-1.144881
2.381732
-2.033888
1.083847
1.464205
0.725352
-4.050109
1.233658
-0.760451
0.487393
-2.844386
2.453810
-1.345157
2.462354
-0.998978
-0.209114
-0.984222
2.411440
-0.087744
1.080700
-0.623613
-1.517413
0.703710
-2.382107
0.122415
2.862103
2.410356
-2.023759
-0.727697
0.944600
-0.128578
-1.387164
-0.938214
1.829108
3.279266
-1.804691
-2.747375
-1.700207
-1.090807
2.923497
-1.779528
1.931060
-1.465095
-0.192144
0.608096
-0.888875
-0.082070
-0.712250
1.139923
1.833420
-1.218510
0.049336
0.796202
-0.061357
-0.097077
3.428593
2.927886
-0.229189
-0.393176
-0.783996
-1.438918
-2.074623
3.032722
1.535136
-0.320893
-0.541414
0.018047
1.741511
-1.198852
3.631735
-0.592267
-1.571590
-2.227352
-0.193620
-2.168709
-1.343939
-0.255993
-0.672091
-0.483164
1.215399
2.379096
-0.820276
0.677124
2.188428
-0.011945
0.300166
-0.533394
0.348062
0.785398
-0.725996
1.579931
-0.249058
1.918342
0.454827
3.583552
-3.545082
-2.462396
-2.488097
-0.972020
-0.428154
-0.122122
0.750845
-5.246257
0.211075
2.000073
-1.139100
-0.614741
-0.645054
-0.569299
0.832547
1.405152
0.695652
1.272383
-1.546494
-0.796932
-0.962685
-1.343486
1.779535
0.093192
0.082276
-1.132572
1.154684
3.902104
-1.154124
-2.158393
-0.756650
1.156353
-0.705011
-0.345510
-1.190387
0.763196
2.955738
-1.642635
0.520406
0.465652
-0.670923
-1.290166
0.968403
1.479463
-1.792398
-1.794219
2.842385
0.196270
0.026345
-0.754375
1.441839
1.286049
-2.832237
1.095920
4.033185
-2.486797
0.886324
4.363878
-0.401378
-0.606676
1.847380
0.986931
-1.786118
1.761736
-0.015549
-2.955366
1.844412
-1.362536
1.602861
0.279693
-0.688980
2.436933
-3.043594
1.519382
-2.191649
0.356483
-1.147099
0.610203
3.796698
1.144665
-0.196820
0.376327
0.481945
1.156760
-0.746775
-1.284200
0.057559
0.894430
-0.639830
-4.507984
1.173701
-2.403210
1.837315
1.805072
-0.321982
-1.224799
0.693347
1.655614
-1.378278
0.592565
1.248059
-2.801620
-1.020727
-1.799543
3.108233
-1.314821
-2.626757
-1.910146
-1.119649
-1.861654
-0.814953
0.564345
2.592679
-1.028548
-0.121694
-2.378056
-4.661089
-0.228159
1.538629
2.797091
3.791077
2.069783
-1.322305
1.520355
-3.251062
1.376910
-0.545032
2.779410
-0.077513
0.984497
-1.056805
-1.685306
-1.681931
2.428351
-0.283336
-1.885544
-0.774644
-0.758945
1.031717
-0.010886
-2.544356
0.258657
0.269018
2.351560
-1.777756
-0.707038
2.813910
0.942814
2.706053
3.756572
0.718928
1.622613
-1.567322
-1.910624
-3.740351
-1.867315
2.558272
0.232643
-0.135399
0.298038
-0.137959
-1.525783
2.784211
-3.376804
0.744441
0.683633
-3.004177
4.161461
2.602422
-2.823634
0.192169
-2.636048
-0.536268
-1.259610
0.613231
1.019176
1.717756
-1.096497
2.429375
1.538828
-0.688964
-2.039900
-0.181926
-1.041062
1.365364
1.543764
-0.791680
1.791182
1.089405
0.247636
0.427560
-0.174204
-0.084087
-1.682555
-4.140860
-0.187353
-3.054851
-2.075446
-3.364052
2.509672
-1.660333
-1.964334
-1.481590
1.932589
0.309453
2.607351
2.800323
0.530798
0.888727
-1.127400
3.597193
1.618358
2.320972
3.851467
0.195897
-0.061433
-0.321511
-2.257778
-3.155260
-2.053590
1.311036
-1.913262
-3.255327
-0.007285
-2.454314
0.640910
-0.103329
-0.191081
-3.564677
-0.384661
-1.205573
-1.241573
-0.637223
1.481207
-0.778526
2.175703
1.672473
0.195830
-2.113951
0.721451
0.058129
0.277172
2.607444
-0.132323
-0.695983
-0.719675
0.451438
-1.204340
0.079283
0.551825
0.434597
2.083417
-1.798633
-0.825531
0.530720
1.359873
-0.993322
-0.492203
-0.898836
0.628501
0.295503
1.194298
0.173853
-0.399815
-0.570779
-0.133995
-0.485224
1.553607
0.132353
1.610840
0.686377
1.069818
-1.660408
-2.116953
-3.779988
-1.950020
0.320046
-3.817296
-1.660572
1.694833
-1.040256
1.105171
1.244371
0.693392
-2.656790
-0.611367
0.561062
0.817645
2.923471
-2.628073
1.880365
3.744121
0.845453
-0.537100
-1.243449
-0.906363
-1.357560
3.306691
4.150937
2.324669
1.408229
-0.230076
-1.964801
0.417850
-1.994480
-2.977321
-0.395692
-2.473387
1.132356
-0.771816
-2.617319
3.261036
-0.419885
0.906166
-0.328659
1.139786
0.960281
5.838758
-0.834684
1.319625
-1.796730
0.304518
-1.938224
-1.115051
-1.367920
0.827896
0.820812
-1.422589
-1.863643
-0.998527
2.963571
-0.006475
-4.231993
1.076115
0.537696
0.743831
-1.774265
2.463670
0.620545
-3.313283
1.635429
-0.909129
1.150493
-1.443378
-1.332682
-1.806531
-0.690356
-1.730243
-2.894686
3.175347
1.422160
0.327445
-1.850275
2.236214
1.331420
1.615795
0.150002
-2.480060
-2.025797
0.944325
1.112257
0.602057
-1.541361
4.294511
-0.837446
-2.524281
-0.589111
2.972976
-2.073924
0.872186
-0.071579
2.695220
-4.110827
-1.350182
-3.969271
2.517262
-1.194426
-0.000103
1.645693
0.369639
0.334580
2.283922
-0.309422
1.257877
1.745739
-0.869325
0.828818
-0.916157
-0.959334
-3.136317
-2.569930
1.734898
1.114652
1.989315
0.473294
-2.818422
0.459338
3.017492
-0.107068
-3.643859
-0.174414
-1.067257
1.263699
1.308978
-2.110199
3.468105
-1.219527
1.651115
-1.069909
0.058557
-1.218424
1.837014
-2.453080
0.455215
0.092825
1.803672
-1.265250
-1.837008
0.038114
-0.200776
-1.075542
-2.104245
-1.422424
-1.695737
0.747583
-2.788504
-3.195921
-1.138053
-0.443819
1.479657
0.117030
-0.417811
1.078771
2.188233
-1.137260
4.385022
0.301552
1.617298
1.555721
0.184616
-0.343371
2.577973
0.937573
-0.654088
-0.320685
-1.717337
-0.074108
1.325707
-3.198305
-0.181226
-0.332504
2.180791
-2.087264
-0.533014
0.025202
-0.462764
2.307050
0.513182
2.581416
-0.050473
1.910926
0.046595
0.227187
-0.275040
-1.370655
1.105064
1.521985
1.345359
-2.703450
-3.150499
1.942826
-0.067965
-0.114089
-0.339597
1.334219
-1.973432
-1.039741
-1.382828
0.527702
-1.213844
-0.854658
2.101164
1.373837
-0.446236
-2.041442
-2.192388
1.736355
0.716275
-1.538916
-1.150812
0.413451
0.235737
-0.450225
-1.739231
0.437120
3.166985
-0.400909
0.297997
1.478712
-0.137214
-0.262087
-2.267991
-0.089460
-3.759926
0.264541
-3.458566
-1.034484
0.644733
-1.428283
4.211169
-2.526092
3.255338
5.605797
-2.175978
0.150249
1.416727
1.029802
-0.388756
3.515260
-2.439410
-0.944598
3.010473
0.289036
-2.482217
1.091857
1.656246
-0.141122
2.721417
-3.083619
0.077291
0.248109
0.646359
3.616713
0.700229
0.746454
-1.055928
2.206224
-0.331633
0.157660
-4.420502
1.150822
-2.388016
2.171082
4.869905
0.635771
2.458756
2.653869
1.807944
-1.349467
-0.899757
-2.847500
-2.421543
1.563614
-2.210538
0.421781
1.837093
-1.197563
-3.279568
4.416736
0.271944
-1.110984
-0.641890
-1.999789
-3.763780
-1.510284
-2.003443
-1.569860
0.059272
-2.483609
-0.031151
-0.470113
-2.759044
-0.525471
2.475588
0.457805
1.668912
0.010009
-0.834334
1.616308
2.571182
1.757219
2.982367
-0.846627
2.511072
1.209751
-1.464544
0.171667
-1.129947
1.340903
-4.776172
-0.043310
2.043467
-0.611752
-0.281015
0.181017
-1.561056
-2.566521
2.861148
-2.603170
-3.923731
2.278970
-2.026236
-0.253569
2.615114
1.411399
1.271239
-1.686297
-0.279685
1.846675
0.629726
3.560427
1.568362
2.460054
-0.073956
0.169987
2.875355
2.250605
0.550195
-0.387978
0.915945
-0.283769
-1.336052
-2.139575
-0.128008
0.320197
3.694003
-1.490481
-0.878952
-1.572112
-0.047261
0.770624
2.183402
1.702863
1.344704
3.006053
0.377749
0.559092
2.782625
-2.900992
-2.011148
1.921085
2.003312
-3.594258
1.882816
-1.647795
-3.028205
-0.282789
0.315373
-0.452261
-1.915018
0.673579
2.163878
2.967481
-1.101099
-0.749944
1.482287
-2.286542
-1.905734
1.292905
1.397506
2.640328
-0.773153
1.049427
-2.027100
0.774334
1.780205
4.211439
1.239715
-2.047811
1.464461
0.722864
-0.038950
1.595984
-1.152160
2.549943
0.166858
2.395181
-0.770263
0.089657
0.451273
3.586918
1.922979
-3.625292
3.005551
0.071326
2.602894
0.652121
1.773219
2.300886
0.810090
2.046658
-2.984284
-3.266530
-1.211756
0.067586
-0.326573
-1.046021
0.529697
0.260892
2.835609
-0.731143
2.787910
-1.978474
-0.111902
-0.469731
0.496176
0.273621
0.478982
-0.445299
-1.295277
1.701988
-3.644000
-0.839278
-1.276898
-4.445538
0.480113
-1.527621
-0.045074
-1.886026
3.637447
0.879594
-1.357913
-0.377612
2.535707
-0.185704
-0.792000
-3.122593
-0.991233
2.556843
-0.556714
4.494105
1.935137
-4.209562
0.946772
-1.501008
-0.377546
1.488350
-1.540647
-1.624062
1.071469
1.408040
-1.916814
-0.164887
-1.953152
1.933889
-1.826692
2.681928
-2.290284
-0.017532
-0.445478
0.542361
1.997694
-3.607634
-5.013936
1.725365
3.979565
-1.549866
0.621320
-0.019638
-2.607970
-0.779829
-0.772963
-1.343455
-0.764803
1.425475
0.382215
-0.805505
0.892375
0.731015
-0.796038
0.451808
2.643577
1.023269
-1.242064
1.165029
0.861166
-1.516033
-0.836467
-2.710512
0.698203
1.170187
-1.580264
-0.862323
-1.366781
0.418111
2.053309
-2.361935
-1.574916
-1.659656
0.001257
1.382043
-0.813983
0.500822
-1.073966
2.138888
2.006311
3.642252
-2.081921
0.040006
-1.312952
0.600028
-0.456305
-0.986873
0.853338
-0.336371
-0.483555
0.452079
0.607383
-1.595097
-0.655448
0.673575
2.103051
-0.298450
-0.694743
-1.834502
-0.642032
-1.012829
1.852417
0.384562
-0.665043
3.044963
-1.988698
4.075388
0.714064
-2.599662
0.003092
0.960584
-0.678309
-1.108150
2.506983
1.706667
3.268275
0.853955
0.718344
0.891628
-1.329915
0.713344
-3.334695
-1.657301
2.210005
0.313745
-0.097377
1.885590
0.993192
-1.796361
-3.621727
-1.269613
0.228779
0.518187
1.063361
-0.426011
-0.621731
0.497123
-0.975140
4.268633
-1.977446
-1.734782
0.924218
1.252438
0.781686
2.616676
1.780051
-0.652147
0.236669
0.273215
0.534249
0.938448
-0.967508
-0.321563
1.021578
-1.949002
0.208326
1.020664
-1.173329
0.420188
0.149767
1.274914
1.871569
-1.919494
2.606223
-3.766077
-1.294023
-1.941020
-0.965203
1.772784
0.212954
-1.406047
2.665389
2.235543
-0.279122
4.296942
-2.187878
-0.453662
-3.213001
-1.851458
-2.567073
3.571465
-1.906885
-0.240275
-0.504487
-3.695790
-0.321133
1.025029
0.215160
2.073910
-0.397117
-2.181203
2.592165
0.836290
-1.050742
-3.665658
0.220070
0.399924
-4.128592
-0.388586
-1.834996
-1.849147
1.366743
-1.498798
-2.106157
1.624471
-3.560672
0.644100
4.352200
-0.028623
0.020507
-2.151929
-0.203987
1.030887
0.053075
1.163951
-0.664875
4.088207
-1.635143
2.067689
-2.252189
1.582956
3.934326
0.230813
3.173549
1.358425
-1.324526
0.619097
0.883376
1.703157
1.641037
1.004687
-0.155183
4.890963
-1.506869
-0.786942
4.821298
0.681127
0.982969
0.351238
-2.075469
-2.037255
2.293222
1.519607
-0.854918
-0.825697
-2.335348
-2.113298
-0.458501
1.458158
-1.605369
-2.227872
1.882670
1.905579
-0.769143
2.457037
1.009692
-1.413837
0.345335
-0.010710
4.381926
0.657432
4.151973
-0.736571
-3.947179
0.219213
1.002056
0.205471
-0.490996
0.139062
1.506020
-0.323996
0.636869
-2.038488
-1.813413
1.950169
0.959449
-1.131203
0.012835
-1.170208
-1.293936
0.390577
5.669362
-0.327593
-2.517464
-3.156579
0.631259
0.552786
-2.489287
-1.507900
1.639233
0.373598
1.361574
1.621479
1.100698
-4.213969
-1.565348
-3.339019
0.931916
1.059592
-3.535410
-0.009207
1.787125
0.005621
2.728727
1.890036
2.893504
1.385793
-2.142337
-0.883815
-1.068533
-1.272982
-1.043310
-1.231584
-0.647729
-1.242998
-1.569229
-2.999858
1.168385
-0.891544
-1.537160
0.459092
3.294911
0.981996
-2.448794
-0.167954
2.967380
2.829986
-1.597551
-2.860327
2.820193
0.891216
-1.527635
2.962558
-3.426919
1.208155
-0.908368
-1.146162
1.710522
1.562928
-0.978992
-2.081033
-0.385425
-2.533368
-0.229859
0.886519
2.523232
-1.101731
0.218880
0.199966
1.451272
-0.871592
-1.517056
0.262491
-1.543998
-3.532114
0.895767
-0.863837
1.801445
0.440021
-2.025109
-2.626371
-0.224451
0.270400
0.345301
-3.831013
-0.634139
0.617440
0.876065
0.253401
-0.671329
-0.605924
-2.414950
1.369514
-2.789589
-0.543290
-1.666607
1.967478
-2.332724
-0.424822
1.920151
3.134999
-0.241251
-3.483160
2.823028
2.160876
0.530895
4.519580
3.604990
-1.080942
-0.853088
0.260584
1.613872
-1.034283
-3.840511
0.497048
-0.450156
1.405592
-0.472495
-1.609185
-0.955506
-0.161198
-0.413584
-1.143510
-2.965082
1.631255
2.377108
1.473941
-0.550864
0.305448
-2.449748
4.127664
-0.443425
-1.488084
-1.190730
0.843844
0.714942
2.087490
-1.708133
-0.098499
3.857775
-1.529485
-1.374544
-1.109081
-3.260031
-0.699879
3.181381
-0.119092
-2.236269
3.302052
2.467019
1.128567
-3.859811
-0.042189
-2.438691
0.880464
5.941876
-2.563712
-0.015306
2.920370
-0.251907
2.278387
0.609882
0.535376
-0.853547
0.909801
-0.042578
2.875264
-4.350743
3.732334
3.133160
-0.958321
0.530552
-0.664985
-0.276248
-1.137734
-0.518683
0.169423
-0.294902
-2.109597
1.390106
3.022878
-1.917891
0.812170
0.111005
-0.039960
-0.374917
-0.854368
2.039180
-0.762040
-0.744977
-0.007061
0.724296
-0.612571
3.023531
2.631287
0.835411
2.467122
0.145386
-1.463269
-0.852380
1.542495
-2.083111
3.181932
-1.831198
-0.149914
1.813104
2.415949
-3.591235
0.910737
-1.684423
0.521335
-1.255997
4.109934
-0.494988
0.301922
2.417719
-2.003171
-1.587888
2.071242
2.986045
0.551131
0.032195
-0.603206
1.584040
-1.456895
-1.670023
1.614209
-2.097652
1.150649
1.174986
-1.714657
-1.514707
-0.547616
1.338980
-1.051355
-1.252116
3.023054
2.156331
-0.507514
-1.635073
1.719745
-2.422186
-2.853346
-2.183696
2.249307
-0.112735
-0.229253
1.326074
-0.056716
1.184895
-2.480740
1.857131
4.092621
-2.790671
-0.789244
0.051398
0.083693
0.650165
2.418266
2.127339
-0.384252
1.485982
-2.569148
-3.306270
0.133690
3.372485
-0.353779
1.795131
2.011369
1.200381
2.019964
-0.057035
-0.352319
-0.019437
-0.341252
-2.204973
3.210586
-1.398966
-3.381416
2.554279
2.480662
0.347499
-2.430286
2.556792
-2.034395
-1.858756
-1.667908
-0.408124
-2.114245
3.113187
-0.897658
1.195435
0.325937
-2.104656
1.104028
-4.986463
-2.731299
3.492185
0.701250
0.619089
0.848332
1.559817
0.935082
-0.946631
0.698088
0.394751
-0.183690
-1.783846
-1.100282
-0.010813
-0.426706
-0.283200
-1.635515
-2.296860
-0.306267
2.901143
0.560468
0.793520
1.710337
2.268001
-0.332087
-0.595079
1.139191
0.213701
-3.381729
0.686637
1.812478
1.171843
0.825677
-2.717102
-0.785163
2.391540
0.311427
-0.658982
0.009741
-1.366145
-0.449525
1.911012
1.788793
-0.450314
1.392602
-0.050280
1.131586
-1.334832
1.147339
0.583467
-2.009221
-1.367142
-1.318624
3.606075
-0.149761
1.453120
1.763269
0.193214
2.603702
1.357929
-2.377621
-0.155698
-0.165831
-1.591044
-1.560600
1.397405
5.064962
2.334547
3.930072
3.957274
-0.393603
1.441925
-3.998436
-1.664354
-0.175637
-2.937083
-1.161433
-4.234291
1.171510
-1.435035
-0.963305
-0.765324
1.689229
0.768044
0.444098
-5.144453
1.065920
-0.337963
-2.793591
-0.289525
1.215810
0.101033
-0.408657
-1.734150
0.148488
-1.030806
-0.060692
-1.202666
0.696827
-1.089627
0.137534
0.551872
1.680434
3.868690
-1.111965
0.076791
1.205800
2.735148
-1.149704
2.271507
1.825470
1.789352
-2.090632
0.719845
0.274405
1.130124
1.524809
-0.953339
-0.611239
-0.064425
-0.311586
-0.103768
-1.899515
1.704993
-3.449627
1.557145
0.502698
1.208810
1.317898
-0.752484
-1.077507
0.696064
-2.093874
2.026045
-2.295827
-0.331151
-0.543233
0.378407
-0.049992
2.384168
-1.099248
-1.138882
2.859194
2.498020
-1.333317
0.688302
1.164738
-0.124270
0.764318
-0.271774
2.845889
3.602020
-1.928128
0.878418
0.198066
-0.117318
-0.495385
0.579197
-1.410228
1.214304
-0.493295
-0.078374
-0.252087
1.791820
1.044002
1.831702
-0.177330
2.566413
-2.046981
-1.715315
3.452877
3.783671
1.263411
-1.461071
-0.301361
0.570759
-1.166772
2.580299
1.410416
2.326174
1.271352
-0.820890
0.674529
-1.588548
3.598281
-1.684684
0.805866
1.919649
-2.225312
-0.712096
0.770548
0.252364
-3.066737
3.172115
-2.176202
-1.292268
3.649554
-0.579687
-0.683086
2.227841
-0.617159
2.770924
-0.156897
-3.842095
-2.437560
-0.753242
1.414038
1.035924
-1.076621
-1.050963
-0.839088
0.703353
0.256093
-0.159574
3.237625
-4.466941
-1.742603
1.412486
-0.174458
-1.879919
1.250310
-3.458393
-0.688913
2.151210
1.122443
-1.719573
0.845863
-0.411139
-1.630378
-1.398857
2.676139
1.978157
-2.008268
-0.546882
3.544062
-1.515658
3.286125
-1.307252
2.394014
1.208911
1.109159
-0.892054
-2.638931
2.716169
0.917685
1.113819
-2.258018
-1.336408
0.624696
1.536872
0.846737
-0.450217
2.209351
-0.212366
0.530044
1.145337
-1.342979
-1.128642
0.232971
-1.620679
1.053678
3.084603
-1.546073
2.399557
0.880313
-0.847625
-0.052859
-3.197079
0.673289
-2.028162
0.243325
2.368288
3.170683
3.262645
-1.303298
-0.174575
-0.499840
0.846129
2.253613
0.481558
0.849684
-0.926923
1.198647
-1.852250
1.633806
-0.368007
0.391923
-3.274697
-0.772755
-0.351714
1.109993
0.804339
0.108327
0.239754
-0.828654
0.527866
-0.498523
1.540331
1.411862
0.576157
0.160106
1.518280
-1.284131
1.136978
-2.904855
-0.603377
2.492167
-3.663155
0.024333
-2.365789
0.657511
-2.172772
2.346715
0.508857
-0.572082
1.303391
-1.172367
0.409843
-2.056306
-1.682375
0.298357
1.329669
0.380798
1.036930
0.001208
-0.204221
1.961910
0.264096
1.318855
3.956489
1.833585
1.789612
0.060352
-1.179084
-1.441977
-0.045389
2.831519
0.124730
-3.228037
0.462626
-2.588306
-0.571598
-0.539501
-0.221979
0.099719
-2.819370
0.978963
-0.307329
0.007957
1.216932
1.932645
-1.980836
0.336489
1.756793
-1.734326
1.535015
0.010612
-0.015740
1.290796
2.007675
1.123440
2.662458
1.327402
-0.034395
0.337497
-2.433059
-1.615603
-3.316285
0.355043
5.849499
1.334265
0.736849
0.082999
0.548453
0.936187
0.904977
2.825987
-0.500420
2.651883
-1.431453
2.536640
1.785674
-2.395239
-2.386157
1.305487
-1.923503
-0.057678
0.656305
-1.339786
4.618421
-1.670859
-0.913303
2.650957
-2.789473
3.311219
1.374665
-1.784170
0.619086
1.042408
1.875779
-1.095649
-1.740226
0.874857
0.385387
3.120489
1.803758
0.921792
1.286652
0.835380
0.266138
-0.960550
0.864512
-0.443903
-0.569215
0.335905
1.930273
3.192342
-2.257099
-1.053900
-1.245777
-0.168687
-0.032091
-1.510942
0.335182
-0.425892
1.301247
-0.478561
1.538316
-2.465940
3.966909
-0.156207
-1.809918
-2.147088
-3.181917
-1.154952
2.429674
-0.854272
2.319615
-3.095795
2.412530
2.425553
0.000172
1.223714
-2.359691
-1.350760
2.963901
2.224145
-0.499589
0.282621
0.511799
2.964841
0.667334
0.255995
0.547622
0.337411
0.665208
3.357403
3.403705
0.740947
1.759810
0.140085
-0.346221
-1.488613
2.630600
1.152175
-1.430069
-0.295395
-0.358153
0.717805
-1.171383
-1.512230
3.428594
1.407401
0.261996
0.489754
-1.693964
1.387930
1.044821
-1.342806
1.294411
-1.413247
-3.908277
0.011220
-0.602993
-0.827157
3.143453
3.867796
0.060462
-3.082461
3.727692
2.574617
2.215116
0.425685
-2.614132
-1.804385
-2.255173
-2.062231
-0.799743
-1.203729
-1.167327
1.441615
2.713142
1.731143
0.433202
-0.988239
-2.192225
1.599470
-2.332450
-1.810066
2.291251
-0.367086
1.335604
-1.076750
1.009993
-0.665569
2.498718
-1.416902
1.408842
0.415101
-1.266060
-3.703445
-3.541754
1.919113
-1.909090
-0.600518
-0.123744
1.474200
-0.759432
-0.551192
-1.793967
-1.833136
-2.453647
-4.655643
-0.432406
0.484900
0.209664
1.160517
-4.058223
-1.852541
-0.255275
2.958074
1.220345
-2.575734
1.202761
0.772834
1.717222
-1.766139
-0.760239
0.319146
0.565578
-0.602311
-0.166314
-0.168553
-2.540923
0.319178
-1.991096
0.441594
-1.718995
1.984461
-2.022528
0.056845
-2.358422
1.711981
1.075677
0.442706
0.465796
-0.785564
2.699882
0.857533
2.269180
-1.314255
1.858599
2.365815
0.021252
-0.315148
1.581610
0.339195
-0.900783
-2.356898
-1.218138
-0.574854
-0.349030
-0.332029
-0.854510
-1.552067
-2.246779
-3.273033
0.532612
0.800920
0.376063
-0.857058
0.403252
-0.412621
-1.448557
-0.912947
-0.564189
-0.364631
2.896625
1.426588
0.980627
2.077989
0.986956
0.800530
1.964942
-0.257968
2.642984
2.647159
0.433609
1.058440
2.613597
1.465797
-0.994016
-1.390580
-2.402785
-2.456649
-0.542873
-0.207083
0.229476
-2.877834
-0.518158
1.091293
-0.071688
0.917359
1.149314
0.426276
2.377592
0.887712
1.691010
1.842299
-0.480722
-2.539109
2.249001
-2.271592
-0.893980
2.338854
-0.481848
-1.373932
-2.617093
1.916564
-0.794940
-0.697749
2.606077
0.712638
1.528937
-0.084868
1.244704
-0.471259
-2.022160
1.095616
-1.198974
0.684761
-2.527196
3.684093
1.521127
0.489903
-2.015956
1.168256
2.204867
0.827959
1.944648
-3.423176
-0.135180
-0.504783
2.176531
1.489961
3.005460
1.786531
0.237491
-0.282435
-3.362183
1.040233
-0.071790
-0.431028
-0.701359
-1.639193
-1.608519
-3.816861
-4.768506
-2.381243
0.402766
-0.102176
-1.330692
1.866315
1.779319
-3.356976
-1.665650
1.906797
0.929920
-1.455744
-0.910200
3.134372
1.806371
-2.715865
0.084806
3.672870
-0.535547
2.060070
-1.329189
0.656168
-0.993149
-1.967447
2.084993
-2.366415
0.897634
2.127614
0.614712
-1.840898
-1.452266
2.414464
-1.604604
0.783875
2.121989
1.368831
-0.523890
-1.843936
-1.843075
-1.260522
2.133725
0.362456
1.552814
0.695442
-1.200996
1.017422
-0.836781
-1.172786
-0.175539
-1.016493
0.529536
0.334206
0.824582
3.395440
0.275380
-1.374973
-0.439030
1.179101
-0.764251
-0.894746
2.238415
0.148955
2.222428
-1.250140
0.490510
2.259848
2.537803
-2.647082
-1.215558
2.119709
0.805862
-4.392572
0.934684
-0.063360
-0.643606
0.210025
-0.534253
1.480866
-1.618818
-1.324198
-0.490219
0.998357
-1.559854
2.862564
0.867362
0.152093
-1.609311
0.771557
0.650500
-3.896287
1.790994
0.825875
2.141652
-0.433782
2.171297
0.367519
0.788296
-1.037868
-0.769281
0.837639
1.759773
-1.483845
0.399018
0.113439
1.211552
1.299310
0.961104
-0.573170
2.360887
0.357658
-1.196539
2.283782
1.025742
2.319963
0.095541
-2.439403
-0.667916
-1.341618
-1.800977
0.421385
-2.118320
-2.726842
-3.088440
-2.920832
-0.124413
0.341975
-0.439080
-1.563350
0.584546
3.643924
-2.371394
0.799037
2.395571
1.135646
-1.314950
1.352023
2.908005
-2.681290
1.075017
-0.543026
-0.195129
-0.436945
0.670608
-3.637059
-4.183700
-0.035133
1.114098
-1.468554
1.468603
-1.804073
-0.018878
-1.095966
-1.264193
-0.793721
-3.244303
0.901191
1.400670
-4.209782
-1.553462
-2.395292
0.076359
-3.089827
0.449117
2.036515
-0.566904
0.771760
-1.172615
2.025520
2.231685
4.536812
-0.009883
-1.558864
0.551638
-2.191003
-1.680090
-2.819408
1.069151
-0.048376
1.807467
-2.299794
-2.102641
-0.025305
-0.567338
-0.535374
0.817594
-0.058714
-0.480298
0.034716
0.325424
0.384787
2.334819
0.386667
0.618931
0.853566
1.260489
-1.266223
-2.253279
-0.033866
0.350578
-4.749965
-0.080158
-0.565898
0.345149
-1.874334
-1.713269
1.107114
0.136734
0.079299
-0.025727
1.125490
3.038799
0.658608
2.728525
-0.819280
0.549230
-3.125525
1.873384
1.511816
-4.752396
1.437542
-3.142452
-0.325771
-1.881153
2.239888
-3.238329
0.411046
0.974291
-2.558830
-0.424458
0.000022
-2.764166
1.462440
-0.699834
0.934292
0.397911
-0.050820
-0.108520
2.400708
-1.223706
-1.110134
-1.119456
0.381377
-0.287350
3.508500
1.488534
-0.283184
-1.405483
3.874281
-3.172888
0.430513
3.070319
0.406677
-0.346059
1.694236
-1.610400
0.650574
-2.500779
0.819540
-1.483549
2.834020
-0.692446
-0.540179
0.205262
2.013669
1.389153
0.030593
0.289819
-1.009672
0.724606
1.310607
0.851667
1.627049
-0.668190
1.271334
2.886095
-1.707002
2.310522
0.027714
1.998899
0.668736
-2.465722
-1.201429
-2.972302
2.667185
0.005932
-2.942068
0.978353
-1.447759
0.985158
2.013813
-0.193658
1.525633
0.350014
3.084602
0.475925
-2.071151
-0.473003
-1.123242
2.702246
-0.931453
0.375379
0.086257
4.494278
3.092383
-0.246679
-4.858497
1.651976
-0.013829
0.403892
0.714207
0.642850
-1.371753
0.235006
-3.262594
-1.610004
2.225425
2.127428
1.128050
-2.827417
-0.924764
0.298618
-1.156494
1.087458
2.831687
-0.402554
3.113292
-0.901527
-0.487460
1.530682
-2.046213
-1.009735
2.339137
-2.817310
1.563795
0.780457
-3.760483
-1.270669
-0.116515
1.165487
1.635638
-0.448168
3.922623
1.940468
-0.855948
2.279467
-3.378099
-0.492898
-0.634748
-0.888816
0.235237
-2.253447
0.636742
-1.050244
1.182684
1.422775
-1.523338
2.277043
-0.446328
1.180993
0.977686
3.523140
-1.038390
1.732218
-4.516381
-3.479674
1.086604
2.027409
-0.470621
0.657776
-0.716650
-2.670262
2.189447
3.225484
-2.861886
-0.062940
-1.073704
0.349496
-0.094837
-0.722044
2.082533
-1.311425
-0.749174
0.386310
1.145444
-1.226171
-0.499303
-0.214111
-0.418586
-1.073300
0.558179
1.138567
-3.459511
2.059806
0.098566
-0.312118
-1.647138
-3.961410
0.315822
0.078296
0.204695
-0.611423
-0.997055
1.402244
-0.665876
3.805359
0.267292
-0.385133
0.599590
-2.376730
1.542432
2.096287
-0.805795
4.005653
-3.274759
2.327471
-2.088109
-3.189290
-2.194817
3.414082
-2.370204
-1.468721
-0.452001
0.439052
-1.029616
0.189365
-0.834588
1.170647
0.863348
-0.637095
-2.190495
-0.050264
-2.234714
-0.557350
1.140201
-1.211354
-0.922248
-2.025229
0.232111
-0.454858
1.597711
-2.049574
-0.342638
1.633341
-0.055023
-1.346360
3.301455
1.218110
-2.071203
-1.574205
-2.645058
1.013315
-1.890228
-1.450173
-0.966455
-3.375853
2.260069
0.635857
-2.354395
2.022310
-0.029846
1.877919
-1.842619
0.172463
-0.651951
-2.192129
-2.717938
-0.439963
1.928450
2.035259
-3.366920
0.157986
0.108477
1.944341
-3.108328
-1.071039
-0.315140
1.291612
3.752277
0.888175
0.858214
-0.016592
-1.487019
2.119723
-0.859776
2.904812
-1.688972
0.985291
-0.075719
-0.162751
2.949388
-0.242190
-0.895934
-1.964885
-0.398541
-0.697643
-2.683852
0.879965
1.768710
-0.064000
0.022647
1.094332
1.342741
-2.609924
0.775957
-0.321416
-2.709343
-1.622996
-0.243493
2.714524
3.050656
-3.053823
-0.950000
-4.210487
0.708398
-1.170423
3.201443
0.044938
5.080956
-0.731123
1.479748
-1.825053
-0.662295
-1.588646
-0.249150
-1.957741
0.100528
-2.730680
-0.362916
-0.365065
1.674641
1.721327
0.060971
0.522455
2.901785
2.249753
-0.133128
-0.863912
3.398048
-1.535338
1.709282
-3.615918
3.714525
2.577433
-1.880808
1.424909
2.373775
-0.178441
1.647881
-1.956413
-4.165322
-0.259632
2.171208
1.334046
1.080331
-3.295294
-0.856895
-0.595013
3.452844
1.935430
-2.156133
-0.526210
-1.688597
-2.052887
-0.466130
2.884593
-2.386262
-1.472011
-1.049875
-2.167738
-1.133857
-0.112455
0.908506
-3.400560
-1.238016
-0.114624
0.000342
0.549127
0.781389
1.682482
-0.431453
-0.549883
-0.495975
-2.914904
0.624223
-1.872773
1.590015
-2.577787
-0.086433
0.792812
1.428894
-2.068042
3.540331
-1.128288
-3.757249
-2.987950
-0.466859
0.308531
-0.577472
0.334159
2.316192
-3.191979
0.886368
1.512047
-0.440555
2.812662
2.244746
1.097809
-0.685894
1.948164
2.049666
-1.853107
2.567215
-1.658431
0.654301
-1.790657
0.874532
-2.294005
-2.418952
-2.773306
-2.898235
0.764429
1.236664
-0.929493
1.623699
-1.617192
1.345050
2.928495
2.464895
-2.396357
3.157420
-1.191166
0.315588
-3.938908
-1.197987
2.121857
1.080164
1.676517
1.593332
1.637862
0.381948
1.856112
-1.303049
-0.857968
1.158520
-0.002955
-0.876189
-0.292187
-0.663460
0.375331
-0.330807
2.836472
-1.845186
-4.147436
-0.859497
-1.204035
2.292399
-0.625961
0.581824
0.335226
0.677584
2.871327
-0.442287
1.648441
4.673316
1.835278
1.162473
4.407556
2.258971
2.443621
0.520646
-1.739764
3.717409
0.040156
0.199581
1.964341
2.982566
-0.497013
-2.751484
-1.852696
-0.418392
-0.258151
2.056626
-1.306485
-0.597632
0.322986
1.169782
2.055042
2.098991
0.185991
-1.823486
-0.225510
-1.216040
0.309848
-2.404866
0.683423
-1.384479
-1.347319
2.664382
-1.168612
-2.206516
-0.665138
1.385293
1.194200
-0.601755
1.317685
-1.259590
1.473140
-1.751779
0.803815
-0.675650
-0.778696
1.605028
0.703027
2.557578
0.085929
1.105795
2.461007
0.723952
-0.274321
2.636258
-1.657908
3.159486
-1.576410
-0.434917
0.580862
1.530752
0.373515
-2.085991
0.645536
1.232095
2.067076
-0.376853
1.647361
-2.178742
2.426903
-2.367849
1.692090
-1.437772
-1.700069
0.651354
-2.931790
-1.235609
2.577223
-1.237675
2.636601
-2.774235
-2.701891
-0.711770
0.518992
-1.209629
-1.091561
-0.620538
0.442879
-1.694232
-2.078065
1.251341
-2.932242
-2.442241
0.470745
0.787419
0.620445
-0.927519
2.274589
-0.421277
0.631029
0.312445
3.827726
-2.427552
-2.370576
-0.273547
-1.240017
1.109737
-1.591218
-0.550105
0.570704
-0.528018
0.887335
-0.814338
1.618522
-2.521205
0.069915
1.998638
-0.254587
-0.992975
1.668906
-0.201949
0.521524
-1.193504
0.344133
-1.338347
2.480976
0.910283
-0.241823
-0.085018
0.855904
-1.800801
-0.353579
-1.517843
0.912069
0.687070
0.828562
-1.784667
-2.275108
-1.373225
1.242735
-0.872797
-1.586052
-0.518671
-2.166478
-1.781086
1.422042
-1.128468
2.855177
-0.188471
-0.845440
1.552762
1.338365
-0.431340
1.899037
-3.231766
-3.446457
-2.986450
-2.576124
-2.325138
0.543334
0.243122
-3.141649
3.742999
-0.318978
-2.738032
-0.492246
-4.171950
-4.198598
1.091020
-0.514393
0.195097
-0.389036
0.450191
-3.014620
-0.021939
-2.196271
-0.254492
0.104558
1.457458
-2.712700
2.274753
-0.529421
0.332515
2.867401
0.142532
-1.329026
-3.559477
-3.012401
-1.691930
1.973164
-0.479284
1.414624
2.811560
-0.633536
-0.022168
0.619710
-2.545121
1.270278
2.030869
1.355846
0.199183
3.880464
-1.173358
-0.627199
-2.290356
0.988269
-1.282294
1.406352
-1.325438
-1.654821
2.843386
0.176496
0.478691
-1.563908
-0.002130
3.174418
-3.318732
-2.435374
-1.459331
2.354438
0.955442
3.329347
-0.373574
-4.537869
1.199161
1.874978
-0.336852
-1.061317
0.874584
-2.867724
1.087569
0.270616
-0.273663
0.616166
2.121264
0.870455
-0.167666
-1.003287
-0.852379
-1.117183
0.004477
-0.599268
-1.001139
-0.435204
2.616861
-2.745407
1.493230
-4.283422
-1.569923
3.094625
3.459164
-1.214307
1.442559
-0.864070
0.555122
-1.259895
-0.792358
1.667111
0.833438
3.445725
1.480304
-1.524572
1.922296
0.984770
1.292722
-1.841669
-0.848448
-0.443517
5.018870
1.895199
1.671636
-1.833208
-1.023998
-1.730385
-0.543494
0.952573
0.294036
-0.237420
-0.490714
-1.656524
-0.970090
-2.000969
-3.180397
1.245405
0.153620
-2.594128
-2.988602
-1.277901
0.325388
1.109347
-3.667014
-0.158138
1.922823
0.022686
-1.863575
1.610457
-0.339872
-1.673240
-0.822140
0.730734
-0.015709
-1.668998
0.073723
0.507354
1.841234
-0.490262
-2.769529
-1.765351
2.012263
-0.776662
-1.658306
4.341835
-0.128105
0.092477
-3.676313
-0.985835
2.017802
-0.951879
0.391233
-0.864178
2.501592
2.961726
-2.197536
-0.381186
2.292635
3.932558
-0.367599
0.135734
-1.165490
1.944305
1.105023
-2.344655
-1.135854
1.197256
1.026732
1.672253
-1.125369
-0.897266
0.516465
2.943260
-2.404819
0.925868
0.173472
1.708894
-0.450282
1.419295
0.986589
2.651426
0.263503
-0.041656
-1.366374
-0.838090
0.831903
-0.948070
-2.799597
-1.491180
-0.929446
2.917166
2.041962
0.727300
2.330668
-0.172373
-0.036764
-1.010867
-0.058959
0.320081
2.173035
0.065813
1.865959
1.613665
2.231143
0.804136
-1.556999
0.647066
-1.790233
1.483263
-0.949711
-0.188977
0.955832
-2.006314
-1.889370
0.628146
2.612192
0.950800
1.697998
-1.219395
-1.234659
-0.035280
3.128953
2.501166
-2.941945
1.310972
2.423591
-1.122786
1.897756
-0.153346
-0.045867
-1.895860
-0.241447
0.572577
0.289750
1.402924
-1.781804
-0.381839
0.737372
2.126982
-1.655746
1.935251
-2.250280
0.345454
2.147130
-0.298114
-4.302663
-0.384084
-2.142070
0.346066
0.368578
1.083761
1.886096
-0.723409
0.552391
-0.687593
-1.331630
-0.134980
-2.715340
-1.595840
0.372490
-2.435599
-0.469329
1.904868
2.038233
2.300370
5.860783
-0.742387
-0.293282
-0.329610
0.477757
0.439481
-1.246782
1.420441
-0.970792
2.044201
0.672864
0.987113
-0.986516
2.051283
1.894486
0.437690
2.335075
0.406563
0.783444
-2.466006
-0.361907
-0.083090
2.259062
-1.087491
0.008887
3.441435
-4.370728
-0.359123
-0.041254
-0.627088
0.597245
0.306591
0.869810
0.538511
-1.549142
2.812921
-1.175914
0.076597
-0.247043
0.982187
4.584079
-1.663820
-3.537120
1.447362
-1.160679
1.520952
-1.174662
1.227996
-0.019051
0.575946
-0.078507
2.854346
1.034537
-1.239015
-1.217603
-0.963616
2.269973
1.624217
0.742273
-3.042643
-2.590392
-0.873347
3.035961
-1.408895
-0.324473
-0.471008
-1.273701
-1.486262
-2.570657
0.451824
2.097200
1.781341
-0.107296
-0.798330
-0.856302
0.615489
-0.627302
0.622996
2.338551
0.127141
0.742621
-1.345798
0.156005
-1.422394
-0.373999
-3.097256
-0.142192
-4.515443
0.505304
1.347170
0.085860
-1.271065
-0.205977
-0.249168
1.144082
-0.908161
-3.106998
2.266896
-1.641033
1.272539
1.077971
0.566594
-1.009634
-0.665761
-3.842954
-0.889122
-1.162982
-1.358048
2.448836
4.341623
0.282444
2.121506
0.113202
5.007778
0.534230
2.379005
0.028428
2.234496
-0.068966
-1.129371
1.260802
-1.516058
3.138958
1.129948
1.693315
-0.924210
-0.073880
2.307822
-1.306396
-0.355179
-0.988381
1.015708
1.367618
-0.060221
0.150628
0.820362
1.050712
0.347811
-0.940339
1.480848
1.095145
3.432322
2.473089
0.828302
2.138343
1.814700
1.153367
2.669638
-0.898778
-2.485636
-2.421264
1.035621
2.038010
0.349408
3.251377
-2.212100
1.329566
3.200533
3.230649
-3.265001
-3.282800
1.687893
-0.271915
-2.474128
-1.012987
2.025689
3.067694
2.867544
-3.254164
0.950509
-0.571819
-0.260502
-1.473837
0.536350
-2.166699
2.691519
-1.537139
-2.624804
-1.411618
-2.411294
-3.312760
-0.880889
2.155590
1.359081
1.426064
-1.105430
-2.555907
-0.061967
1.841252
0.379210
-1.470850
-0.310677
-1.696977
4.029128
-1.522463
-0.052533
-0.304286
0.483349
-0.416789
3.161967
-1.469400
-0.471285
2.108754
1.572784
1.695273
-0.159149
0.309223
0.374977
-1.186592
-2.331766
0.458744
3.046446
0.866862
-0.437259
-1.476371
1.968221
-3.960526
-0.289802
-0.679177
-2.945830
-0.366135
2.413042
-0.759833
1.198292
0.098410
0.675302
1.643673
0.612055
1.187772
-0.828039
-0.542985
0.529205
-0.740105
2.998380
2.948509
-0.126422
-2.637247
-0.481002
-2.673609
-0.143414
-0.428829
-1.882166
-1.450638
0.748603
1.063803
-2.056398
-0.764938
-0.766376
-2.493172
3.758196
-0.413065
0.130410
1.004853
-0.082335
-0.308111
1.430738
0.270258
0.142935
-0.055157
1.987352
-0.393019
2.001099
1.658535
-3.845037
0.543872
4.014724
0.789960
-2.668935
-0.413060
0.493069
-0.444733
1.754161
2.906981
0.003206
0.748862
-1.789612
0.112943
0.998291
-2.452177
0.440678
0.258939
-1.169219
0.082518
1.378270
-0.111404
1.158741
-1.439414
-0.927912
-0.035367
-2.160353
1.690525
0.678930
-0.084320
-1.884627
0.017828
0.603072
1.172457
-1.634160
0.689535
-2.143739
-4.881305
0.807689
-1.312210
-0.853597
-1.159509
0.768801
2.754431
-2.197250
1.795363
-1.154219
0.456513
-0.702044
-0.820272
0.544981
-1.873556
0.129270
1.382936
2.965876
-0.550105
0.810395
-1.303275
2.201912
-2.618386
1.144378
-0.337961
-1.167294
1.125875
0.572910
1.342342
0.938423
-3.147011
-0.311818
-1.507410
1.297400
0.436427
1.908337
1.837516
0.503544
1.701056
-0.712105
4.497495
0.509443
-2.401058
1.868210
2.809208
-1.720944
0.279017
0.680750
2.880016
0.735761
-3.379849
-0.003570
-1.043304
3.906038
-5.901791
2.181475
-2.223502
2.429068
-0.442651
2.824092
-0.482453
-0.409542
-0.754205
1.878424
-0.765961
1.357550
0.026006
2.205962
2.765685
1.272620
-1.899348
-2.182230
-2.551718
-0.116536
-0.174377
-1.127560
0.208404
1.201443
0.876991
-2.376723
1.874288
0.165565
-2.738034
0.918916
0.132701
2.958345
0.019036
-1.343088
1.729849
-2.033964
-0.785003
-0.375305
-0.911517
0.860436
2.272409
-0.426660
2.552496
0.172272
-2.702707
0.954599
0.796701
2.747598
-1.022974
0.676746
-1.633549
-1.124766
0.097828
-0.224646
1.173324
-0.311364
2.347516
-0.254583
-1.816438
2.135926
-0.912528
0.719538
-3.353788
-1.153483
0.814394
0.460670
-1.316769
0.869420
0.518060
-1.072185
-0.921646
2.123271
3.649998
0.191731
-1.428305
-2.913799
-1.610908
-2.503753
-0.107873
-0.229889
-0.155468
-1.447159
-1.341758
-0.710766
-1.331743
-1.401058
0.379867
-0.257641
-1.943670
0.439134
1.743361
0.373882
-3.740727
-1.625769
1.119919
0.233772
1.889015
1.181736
0.583843
0.580812
-1.229742
0.271734
0.673198
-1.678324
-0.891089
-2.792143
-0.036736
-2.075940
-1.819470
0.915059
3.186717
-0.688779
1.242094
1.184695
0.598699
0.247329
-0.323470
0.101650
1.373243
2.086428
-0.130544
-4.070219
-0.477877
-1.689334
0.685123
-2.893258
-0.664348
-1.080294
1.777929
-0.767095
1.054381
-0.398160
0.158860
1.459267
-0.313586
-1.046840
2.401067
1.209926
0.297064
-1.557270
-2.397795
0.519900
0.688493
-1.992890
-3.554584
1.483263
-0.847661
2.226765
0.754114
0.918605
-0.545714
-0.337400
-1.202159
1.954375
0.336914
0.245734
3.044632
3.902657
-1.069138
-2.193891
-1.815361
-0.109563
1.791966
2.588392
-0.224520
0.174596
0.911135
-0.269620
-2.541125
0.384685
-2.323700
-1.376256
-0.952667
-2.682741
0.056625
0.436892
0.804885
2.828321
-2.652843
-2.011823
0.664546
-1.353676
2.336103
-2.253679
-0.533382
-1.602241
1.651450
-0.228902
-1.028611
1.741342
-1.915617
0.334431
-1.404091
-4.242838
-1.827569
-0.484460
1.506560
-1.625412
-1.124542
1.535875
3.157417
1.768724
-1.845389
-3.047434
2.017100
0.660690
1.043693
0.403548
-2.384097
-0.556656
0.005441
1.609825
2.986213
-1.165191
0.353491
0.239024
-1.851947
0.584920
1.270300
0.024583
2.602609
2.442497
0.911421
-0.493784
1.079567
2.130737
0.248711
0.786747
2.740631
0.272727
-3.312672
-0.311132
1.167775
-1.579384
-0.095369
0.498577
4.266413
-1.402343
-0.412906
-1.278004
-0.274922
0.325743
-0.075247
0.053225
-0.535755
-1.597424
-0.544568
-2.097539
-0.921152
-2.695580
-0.055072
0.106535
-1.530211
1.302257
-1.179476
-2.215847
-1.966713
-0.829942
1.030464
-2.275357
0.649624
0.190447
-2.230343
-0.823096
-1.221058
-0.631114
3.082618
1.606583
-0.147717
3.243774
-1.657645
-2.509178
-3.368921
-0.050887
0.382132
0.115237
0.335310
-0.836068
0.543696
1.947168
1.228019
-0.393506
-0.661745
1.061663
0.921107
3.732056
2.783911
0.055259
-1.041943
-0.986183
3.383608
-2.238848
-0.555060
1.590243
2.727517
1.436543
-2.461912
0.600078
1.795235
2.343704
-0.222205
0.904658
-1.710799
0.879904
-1.374438
-2.003985
2.585284
-0.145503
-2.984864
-3.081366
-1.881916
1.272646
-0.537627
2.091894
-2.758004
-1.222868
-3.254481
-1.053914
0.794187
0.968386
1.270985
1.353779
-0.487456
-0.098094
-4.436531
0.149573
1.751466
-0.036275
-0.431461
2.245787
2.004690
0.950979
2.683861
-1.048562
1.307965
-3.111978
0.925451
3.035178
-0.560424
-1.510114
-0.264394
0.292689
-1.222037
4.534468
2.385360
-2.109673
-0.044945
0.271235
-0.494153
-1.899456
0.569557
3.620020
0.289136
-1.918571
-2.141833
2.722836
0.172108
1.348350
-2.021297
-3.316559
2.439683
0.356313
0.629226
-0.233743
0.992625
-0.224501
-2.507223
-1.156205
2.106280
-2.222884
0.083035
1.890509
0.901263
0.782316
-0.481490
2.830960
-2.486382
0.223987
-1.126495
1.575730
0.788459
-0.255614
2.114094
0.499933
0.449234
0.359962
-0.725564
0.569114
0.051689
1.980094
2.117283
-1.164678
1.417264
-1.220768
1.076111
-1.609811
-0.244052
0.165470
4.898855
-0.096964
2.851564
1.794958
3.421812
1.479452
0.753502
-1.908569
-1.554326
-1.935341
-0.084432
1.656443
-1.063909
-2.262006
-0.405649
-0.234847
1.693793
2.662114
-1.539232
-2.362742
2.743453
-3.270643
3.269546
-2.487975
1.523797
-1.389858
1.026318
0.943516
-1.519097
-0.124580
1.395584
0.259798
1.303545
-0.879555
-0.117823
2.845123
0.710639
-0.876105
-0.394170
0.156023
-0.152351
-1.846806
-0.798577
-1.152873
2.215429
-1.270078
-0.819696
-0.364248
-2.078188
-1.885408
-1.003270
-0.040093
-0.728330
0.447900
-1.160709
-0.414135
2.704958
1.160665
1.774836
-2.070420
-1.819175
1.078846
0.503884
-3.000631
0.450938
0.740555
-1.264602
0.571863
-0.048713
-0.220353
2.082068
0.320092
-0.761637
2.907437
-1.285536
2.367222
-0.540582
-1.878732
-2.610086
3.805619
-0.535087
3.453797
0.688256
-2.085559
-0.383945
2.524485
1.883869
-1.644854
-0.238128
0.721561
-1.393185
1.439339
0.251370
-0.640049
-3.741832
4.096016
3.582870
-1.657430
-1.479820
-1.824952
3.233417
-0.282520
0.141972
-1.287662
-0.007060
2.630682
-1.011100
-1.574996
1.626733
-2.831869
-1.404433
-1.377738
0.180274
-1.643436
1.158120
0.762602
-0.363212
0.705419
0.144322
-0.523750
0.410451
-1.632958
0.132956
0.858243
-4.111528
1.068778
-3.094212
-1.034427
2.477577
-1.474727
-1.291533
0.101454
2.850470
4.711426
0.151281
0.728747
4.663423
3.298378
0.613646
-1.221083
1.046795
2.737943
-0.676585
0.727973
-1.334376
0.265546
-0.729399
-0.127082
-1.567137
-4.344055
-0.199534
0.403487
-0.946274
-0.535305
-0.082034
-3.702918
-2.327397
1.150434
-0.585916
-2.245651
0.204826
-1.496139
-0.320481
1.980309
-0.981187
-1.079499
0.024657
-0.602169
-2.220124
-1.572154
0.689106
-0.199426
1.498165
0.808187
-1.443951
-4.111552
-0.673809
2.217637
-0.946299
1.925789
3.417085
0.450432
-0.727484
0.887714
0.526375
0.772478
-0.654854
1.571475
0.117390
-4.307052
0.072654
2.600222
1.258615
0.092387
3.060714
-5.707085
-1.077360
0.832638
1.516195
2.023054
-0.181294
-1.616125
-1.990118
-4.152725
1.086281
-3.248329
1.002985
-1.640305
0.473993
0.228031
0.419702
2.507027
-2.460156
0.085610
-0.398906
0.749910
-0.296443
4.366444
3.398159
0.780916
2.187776
-0.736608
0.535000
-1.326017
-0.797852
1.466114
-0.771356
3.566052
-0.494012
0.987993
-0.519635
-0.416391
0.575086
-2.679322
0.134921
-1.104598
1.099084
0.141123
1.911392
0.065472
-0.450788
0.802595
2.526549
3.968652
0.062928
1.088676
-2.115099
-0.764609
-1.091264
0.399958
0.439535
-1.474094
-1.306036
-2.003036
2.884864
1.520836
-3.050718
-3.211009
1.074081
2.002139
-0.686810
1.706999
-1.270593
1.147524
0.874868
-2.445467
-0.628058
3.064843
-0.400475
2.277884
2.049200
2.809559
0.113014
1.426993
0.127126
-0.772441
1.056403
1.190882
-0.039620
1.776498
1.063829
-1.250388
-1.029473
-0.675957
-0.704515
1.958221
3.522149
-0.566715
3.195474
0.727473
-2.144815
0.136791
-0.569246
-1.394352
3.482126
-1.661958
1.726555
-0.903288
1.414248
2.168953
-1.077251
0.011558
-2.646147
-0.591367
4.582222
1.000006
0.054855
-0.202134
1.803811
1.084289
-0.904977
1.836033
-2.112243
-2.752816
1.851504
0.282247
-0.614168
-1.509988
-0.904600
-0.079680
1.143503
-2.326691
-0.864478
-2.310481
0.689229
-2.006843
1.825336
0.681310
1.096628
-0.272982
2.677519
0.346526
1.841761
-1.482997
-0.055904
-0.959142
-0.757639
-2.089322
-0.739303
-3.423280
-2.316592
0.611345
3.001188
-0.916842
-0.980699
-1.772322
-1.335136
-1.380962
-4.121577
3.733356
2.291601
4.540848
-2.094605
1.133536
1.825637
-0.539089
-1.405505
1.572477
-2.661675
0.033772
0.391770
-1.035376
0.884415
0.587686
1.060960
1.796237
0.281390
-1.431273
-0.277221
-1.305698
3.611999
-1.038407
2.548287
1.045343
0.393642
-1.125816
-1.660913
0.199303
0.255189
-0.543047
-2.680586
-1.100035
-0.401391
1.006145
1.541934
-0.472113
-0.418564
-0.923034
1.900969
-1.697291
1.570860
1.280779
0.609032
-0.783142
1.112776
-1.102775
-2.950230
-1.407050
-3.223952
-3.442789
1.573318
0.024895
-1.883757
-3.060526
2.833286
-0.507203
-3.346586
0.436178
0.170674
-0.500710
-0.244059
2.952722
-0.366869
2.414411
1.262193
2.568613
3.471017
3.631691
-3.799073
0.127364
0.149238
0.522892
1.046805
-1.107420
-2.063749
0.764683
0.297483
-1.915943
2.284780
-1.653469
-0.889404
-0.702135
0.536690
0.737348
-2.960722
1.531339
-1.523751
0.799424
0.608687
-0.283762
2.483811
1.626701
-1.909201
-0.065484
-0.142856
1.131242
-1.805846
-2.047455
0.091328
2.372174
-0.492685
-1.845647
1.758913
1.098900
3.531289
1.981648
-0.797844
-0.677286
0.063445
-1.403515
1.640729
0.518269
0.072539
-0.095992
2.559345
1.712422
0.958053
-1.165300
-2.566026
-1.751967
0.021593
-1.772449
-0.298671
0.290537
-0.652225
1.069029
0.299875
1.473426
-0.997406
0.757809
-0.471437
-2.869041
-0.917489
0.420605
-2.449835
1.179742
-0.701504
-0.489309
-0.475166
-0.676137
0.739899
-5.711552
1.474378
-0.194390
1.540683
-0.801257
-2.014836
-3.888824
3.420631
-2.318769
1.792842
-1.806778
-2.624864
-0.160418
0.161366
-0.556728
-1.838294
1.485144
0.418941
0.111390
0.436489
-0.260240
-3.227287
2.319702
-0.225333
-1.009479
2.087966
4.938700
-0.102747
-0.332027
0.192592
2.078474
4.379597
-0.934707
0.679457
-2.515936
0.621017
0.815812
-2.360155
-0.088588
-0.603973
-2.012935
-2.568928
4.328695
-0.653493
0.328481
2.300217
4.853496
-0.953458
-1.861894
-0.391394
-3.328621
0.062427
2.742065
0.535574
-1.705985
-0.347876
0.779794
1.575939
-0.322913
1.497397
-1.566749
-1.448923
-2.669463
-0.204733
1.417178
-1.653387
-0.213715
1.573841
-2.265852
1.749222
2.172141
1.992890
3.091683
-1.334487
-1.682329
-0.114797
-2.879333
4.771418
-4.308827
-1.287414
2.857503
-2.448916
-1.708520
-0.294852
1.870848
1.930881
-1.333518
2.651261
-1.312433
2.557139
-0.741284
-1.113620
-0.642708
0.036688
-3.550355
-0.219342
1.404607
-2.441856
-1.547618
-1.421088
-2.814526
-0.625279
-3.373682
1.134155
0.120468
0.179410
1.161577
-0.934347
-4.671222
1.527327
2.120987
-1.308810
0.011851
-0.351322
2.396172
-0.161264
-1.625824
1.992637
3.770285
-3.306479
1.713101
0.012765
1.531731
-0.621323
-1.820980
1.497281
0.708585
1.000554
-0.742261
0.517071
2.515990
-0.850890
0.692776
-0.709186
-0.233514
3.306058
1.670571
-1.226457
-1.557807
-0.779459
-1.605251
1.885733
-1.114489
1.607417
-3.165600
1.314207
2.637917
-1.363828
3.305279
-0.407420
0.085072
-0.314439
2.263678
-0.432445
-1.105363
3.411762
2.525029
0.244546
1.317941
-2.102261
-0.788267
-0.964329
-0.811420
4.090860
-0.457643
0.662929
2.447956
1.092567
-2.804570
0.421181
0.228141
-0.736428
2.015346
-2.318957
-1.864870
3.083134
2.377636
1.798609
1.257422
1.183872
-4.333615
1.201510
-0.059813
0.587468
2.752513
-0.061758
2.029249
0.208230
1.365036
-1.623681
-3.401016
1.920331
4.015069
0.265231
-0.547107
1.516184
2.994565
3.053023
-0.350332
-2.677869
1.174526
1.184221
1.071861
-1.872395
1.627441
-0.625057
0.764131
2.277518
2.354917
0.090730
-1.549732
0.338490
-0.572267
-2.622230
1.196372
-0.043507
1.168458
0.630291
-0.190425
0.516152
-5.850081
-1.619166
-1.058054
1.132737
1.981339
-3.133059
-0.912164
-0.181885
0.094338
-0.435440
-1.198322
1.293455
3.188750
-2.151303
1.294988
4.915115
0.531475
0.648262
1.899370
0.375079
-0.659340
0.298667
0.191352
0.747165
-1.236748
1.044970
-3.306658
2.553088
0.583606
-0.725238
1.467080
-2.698949
-1.503523
-0.463456
0.119044
-2.880327
-0.966812
-1.923944
-2.809569
3.627021
1.738048
-1.138446
3.285978
-2.765769
-0.337530
-3.061586
0.506605
-1.279438
1.566948
-1.636127
1.766757
-1.427794
2.823782
-2.753244
0.214503
1.124274
-1.505291
-0.898669
0.539352
0.270054
-1.870190
0.914751
-1.722831
-1.297872
1.038913
