-3.003681
-0.940592
-11.673309
-5.962596
1.723787
2.415363
-3.437005
5.546453
6.783328
-3.518621
-0.892572
2.154216
3.068903
-3.327527
0.834387
-2.273878
-4.464115
-1.907779
-3.893711
3.175892
0.770427
-6.931709
-2.766113
-1.543467
5.101417
-1.009378
-4.440431
0.311285
5.853334
-7.356885
3.728192
-5.714748
-6.346305
-5.076866
3.716025
7.101038
-10.522428
-4.272379
2.286094
-1.620133
-1.873831
-4.913166
1.634803
3.601508
-10.517553
2.005701
-0.087347
9.363088
4.439164
2.645532
-6.932226
3.988814
-3.784060
-3.518904
3.107034
3.182047
-0.322153
-1.311505
-2.829232
1.073882
0.686237
1.917441
-4.363536
-3.944359
6.629974
6.771702
-10.813074
-0.048053
-4.153826
1.884606
1.587566
-9.461435
-8.467251
1.419863
0.582231
-0.359910
-3.261570
-0.820359
-2.899640
-0.383363
3.660923
5.957804
-3.888870
6.581608
-3.573394
2.385489
3.132880
-0.277723
-5.793637
-0.614097
-2.003092
-7.084294
6.887454
9.668693
-1.606675
-5.962442
5.540862
-4.610369
6.834349
-6.408243
-5.516371
8.235002
8.638954
-9.143660
-5.489326
4.055878
-12.206944
-3.912379
9.358247
-9.232235
-8.385868
2.988914
0.207476
18.248143
-0.108263
-1.054862
3.470579
-3.910928
-0.452227
2.651479
-0.306773
-0.156830
-5.319980
3.774102
1.240563
-9.165248
2.020986
2.630902
4.064877
3.611108
1.284238
3.452379
-2.755500
-9.899922
4.277858
-0.901802
6.151221
4.688131
-10.058712
4.233752
3.447566
-6.907972
-3.314793
-1.061271
-4.083620
16.926911
2.991704
2.788250
0.954694
-4.943051
-8.995911
2.318755
-6.245846
-0.037406
-2.447381
-0.200909
4.645082
1.620678
3.672993
-3.252195
-7.752308
11.358396
1.620691
4.872334
1.786525
2.449704
-0.820052
1.733012
-9.187278
6.831767
4.738350
11.625155
-3.286797
5.168898
-5.361164
2.352239
-4.326732
-3.798634
-14.057760
2.892394
2.254900
-2.640304
6.804811
2.498016
-5.104607
-0.292274
10.411431
0.288587
-1.010631
3.884141
3.093113
0.014908
-0.761770
0.460497
-3.746408
2.755877
-1.443169
2.152701
0.594883
3.542974
-7.915135
10.170449
-4.502916
2.741761
-1.878192
3.229428
-1.460856
3.801321
-5.459334
0.703881
7.076976
-7.197090
-1.844472
0.777367
3.956565
-7.748491
9.296295
3.349899
2.586984
-8.657887
-1.966284
3.579986
4.295198
-7.893314
-0.973860
-4.469922
0.416983
-6.068832
-10.186219
3.208479
-0.907239
-1.800285
2.306753
-5.794547
2.907967
-1.630740
-2.476378
4.776398
-4.517073
1.284460
5.385755
4.192659
-3.989961
-1.494102
-6.826800
-5.010679
3.283066
4.959028
-0.246562
-4.238009
6.791762
-4.736489
-0.167872
-7.698213
-7.367706
6.578462
-2.669506
-2.023536
0.237031
-2.544237
5.346582
-0.388598
-12.440446
5.820019
-8.253988
-3.514088
3.094686
0.854556
-0.361217
1.567419
-5.695936
-4.656940
1.546008
0.854825
-12.191053
0.859261
0.274165
6.361710
5.327217
-8.091582
-8.234961
2.312957
5.649812
-11.434816
4.488296
0.297609
1.654076
-2.472728
-11.087759
5.125629
-7.156157
-1.901414
6.320883
12.013272
-8.470531
-2.361383
4.563289
-5.300258
-0.441193
13.809127
3.526312
3.119195
-8.966351
7.685073
1.808711
8.319692
-6.551789
-5.859212
3.647002
7.249030
5.643330
8.480160
2.050399
3.057844
-1.613447
8.603106
1.818049
1.697883
0.558865
-0.914965
5.394572
-0.727911
-6.585645
-4.479373
1.104353
-6.275346
-1.122577
-4.723956
-3.654966
0.918423
-0.966762
-1.333832
-1.066765
0.925224
-5.829091
-13.351183
3.022396
-1.701777
-0.054158
-2.696990
-4.448926
2.530130
-2.731975
11.131605
-2.344333
-1.988857
-2.047625
10.883452
-1.265698
-4.240362
2.510031
-11.158160
1.680041
-4.923548
-1.529308
-0.287362
-5.424856
2.264105
-1.577576
5.411047
2.493476
-0.964332
6.218513
0.101114
-5.426447
-4.279824
-0.377625
-7.715955
1.422487
-3.467766
3.350917
-0.913296
2.521355
-10.251719
0.361276
-5.620510
-1.595824
2.097420
4.717237
0.906455
-0.222314
-5.010119
2.250718
-2.083313
-1.891574
5.283200
1.240862
-1.901191
1.418439
-5.935548
-9.704748
0.648471
-13.683555
-1.850506
-7.143772
-2.642422
2.097383
-3.361387
-4.970056
-3.472667
-1.588954
10.101948
7.815807
-1.099908
-5.546765
-14.585763
-1.940411
10.875462
-5.455214
1.938466
1.533016
3.807761
13.581420
1.748866
1.529613
3.916241
3.625954
-2.967395
2.585151
-8.100236
-0.410069
-6.180699
-5.094625
-12.341926
7.351807
1.647260
0.765559
0.350485
4.084967
0.835590
-0.302817
-0.369628
2.930280
-2.204236
-7.120107
-1.858908
-4.094455
-8.497132
-0.476502
-7.423679
7.933815
8.186283
-1.684967
-0.208849
-0.501936
0.874129
-5.233489
-0.120639
4.516557
5.788602
5.471525
1.632336
4.728906
4.884878
-4.230085
11.075950
-3.798363
0.657354
4.851102
-13.307825
5.212805
-0.872524
0.456170
-6.872757
2.869420
-9.017366
-2.206815
-9.104402
2.050350
-3.924107
2.845997
-7.003935
-9.843173
0.361844
3.935216
-5.072693
5.327599
4.159281
-0.835859
3.964729
-8.871309
1.754050
-0.998672
2.940268
10.333712
-1.285587
-7.076218
-0.831112
0.971615
-2.546288
-1.614237
1.333265
-6.430146
0.515441
5.531136
-8.400868
11.936337
0.232229
-2.206740
1.827949
3.613146
-1.397235
4.553567
7.976713
-3.702075
1.632669
3.770335
-2.626360
-2.872220
-7.613373
-7.227412
-2.743035
2.884722
-1.968295
-0.701377
-3.747292
-2.682929
-1.245641
4.303608
-9.259575
-4.781891
0.122860
6.278895
-9.516038
-3.033716
2.550189
2.826204
-1.904121
-0.030695
-9.355094
-6.928167
-6.318890
-5.612096
-7.116244
-0.936326
10.213309
-7.592903
2.105352
1.122718
1.821533
-0.255721
-3.239363
6.405185
-7.267030
1.027535
6.133205
7.305856
5.940762
-2.541892
-11.752782
5.455932
4.085239
0.204540
8.627090
1.770484
5.820315
-3.732117
3.033689
3.498625
-0.983243
4.438028
-2.775001
4.527431
-3.497106
1.349207
5.020525
-5.624773
-2.945834
8.002710
11.444926
-7.980800
-2.525125
7.161194
-1.641136
3.510191
-1.950326
4.423170
-7.118328
-1.427645
-2.723122
-7.356274
-4.379732
-0.517308
0.026831
1.661880
-11.313269
-0.122490
0.576722
0.229910
3.241694
0.394138
-3.924672
14.831470
4.729992
-6.823704
-0.602943
3.377576
0.608364
2.544762
-0.720293
2.619695
9.867892
8.993650
-3.896949
2.106885
3.523365
-0.875501
5.568109
-3.833794
-1.733786
11.006569
1.805131
0.134968
8.586235
5.960538
3.851428
-6.056157
-5.869222
1.864821
-2.575069
6.872812
4.987286
-1.301963
-2.194852
1.412679
5.807760
-0.235998
11.274720
-5.288433
-2.686813
-4.236238
-1.738843
-2.678954
6.781325
2.666448
7.707081
1.476956
0.741534
3.802031
-4.790806
-0.710352
0.034101
4.715788
6.448377
11.182504
1.764780
3.038128
4.747785
4.814590
2.837960
4.196824
-3.466294
-17.712734
-2.435161
0.352479
1.871264
-7.062783
-0.563847
7.571245
-4.354315
6.798004
3.629107
4.412144
-3.555833
3.717688
-1.295306
5.886470
-0.138130
1.258629
0.752983
4.401491
-3.411997
-10.450033
-6.112503
-1.973870
4.054546
-6.940926
-0.662522
-3.355836
0.787017
-1.176295
0.703985
-0.627210
1.103965
7.094356
-14.584312
-1.429160
-2.859458
1.299943
5.672762
1.600024
-4.711425
1.135244
7.926174
-13.613451
4.186538
-1.343944
12.315925
2.416843
4.932230
-15.505693
-12.038856
9.688731
8.497960
-1.783604
-0.367631
-4.603976
10.209742
0.052415
-12.735180
1.298059
-1.713778
6.838258
1.675507
5.721106
1.192720
-3.757782
-6.594589
0.239854
7.530140
-4.930574
-0.372914
4.710141
-9.414995
1.369654
-4.666139
0.139097
-3.308735
-2.226437
-2.223415
-2.707550
-10.034186
-4.357352
8.380823
-2.128603
-8.005516
-3.906209
3.498137
6.486271
5.076040
2.773040
-3.773673
-0.318970
10.646877
2.816626
-1.444834
6.238071
-2.502357
-7.308038
1.684171
-4.121890
6.457218
-4.946984
-1.329456
4.288705
0.276492
-1.323200
6.418889
1.996407
1.106637
-1.689522
1.056217
-2.494160
4.523423
5.027153
-3.216982
-1.200674
1.726278
-5.816205
1.367892
-4.326872
-9.355959
3.961713
4.282646
4.801812
-4.526659
-0.982276
3.900519
0.771778
-0.830597
-2.750869
1.052412
-4.592764
-4.832017
-3.884117
-6.618229
7.347058
5.519145
-6.088405
0.940722
4.760424
10.546020
-4.558135
-1.960723
-2.404653
3.802991
-3.391760
-1.703815
-12.028354
-0.366936
-5.112252
-4.153090
-4.411602
-1.546696
-5.705142
9.032770
-9.081942
-7.492821
-2.633986
-0.768909
-6.280390
-5.209578
-2.011147
-7.701128
-0.433113
-9.133034
-1.362027
1.365202
-0.980913
-1.569633
-6.805779
-0.100983
0.139799
1.583815
-1.611648
4.378649
12.585504
4.871915
-5.068518
3.343530
7.182360
1.728333
-5.803577
-1.793209
-0.772723
-6.954046
3.465656
-2.183254
-4.535378
1.068925
2.992164
4.795021
5.624101
5.077161
0.477780
3.029244
1.636436
1.646341
-7.188968
3.070306
8.365092
4.226141
-7.381961
2.549076
-4.666958
4.604084
-8.976755
-5.807346
-9.083220
-13.269401
6.767148
0.668598
-1.186154
-1.249212
-0.682914
-0.503846
-8.385741
1.492983
7.501264
9.858478
0.437536
-5.670225
5.540542
-1.986408
-2.119430
3.324548
-1.293853
-2.681740
-4.337057
-7.858486
11.074008
10.290734
-0.275185
-1.926434
4.545814
1.785782
-7.401269
0.852693
-1.863907
-2.760616
3.446512
0.375762
1.494271
0.979280
5.039098
-2.916339
2.025464
-4.673552
-6.154257
7.158900
8.852760
1.369720
-1.505675
-0.765477
-2.962098
1.345017
-5.006745
-7.055487
3.519568
-4.078475
-7.816099
-3.101002
-4.899578
-1.318995
-1.277384
2.367862
-5.698011
-5.360483
-3.454368
3.268721
1.532738
8.049131
2.115788
-4.128426
0.325478
-4.006627
3.812124
1.351876
4.248962
13.809281
-4.464089
-13.782817
0.983144
-2.239307
-5.663243
4.388367
-3.794302
-1.528971
5.120541
10.826950
0.208304
8.014005
-4.777375
4.441032
3.906882
0.419379
-4.029457
-7.194531
-2.905616
9.898594
6.470505
-0.599838
-8.204043
5.026234
2.157192
4.242102
2.532709
5.822014
-2.332411
-1.755521
-3.228299
-0.705308
-4.341897
-6.043625
6.672986
4.895069
-0.131592
-1.436108
7.101854
10.036540
-7.011621
-4.415775
1.649827
9.167205
4.436394
-4.139100
6.848993
4.318087
0.177443
1.125788
2.162912
-6.237332
-1.920468
-0.377909
7.871684
3.406861
-6.231540
-3.033812
2.539698
-2.630761
2.966633
2.808061
-0.302563
6.832940
0.990028
-13.322743
-1.309047
5.791725
-1.167075
-3.352722
-0.143962
-4.954516
7.079115
4.882074
-0.722374
2.617834
4.629754
-0.448200
-1.364495
0.867271
-1.762229
-0.615020
-4.688584
-4.719622
5.379061
-1.308712
-9.702056
0.992649
0.646946
-3.007829
3.168983
0.285246
-11.066957
-3.511627
4.455316
-2.308799
3.910243
-1.047243
-5.151288
1.118615
2.677198
1.609324
4.775524
0.763923
6.152428
2.297848
6.724366
0.367951
-0.686385
2.229360
2.755547
-0.490441
4.787194
-10.475648
7.683165
-1.923343
1.789233
6.455061
-6.866014
5.782950
-3.973536
1.465662
-2.986213
6.908140
-0.000398
2.370285
2.288381
1.717954
-1.415543
-8.626316
5.611196
3.390343
2.482735
-0.709324
-9.677047
1.284637
-0.078069
3.932227
1.818430
0.780941
-4.931550
-0.222323
1.828711
-2.136326
5.082863
3.550828
-7.161632
8.620503
1.853623
5.454442
-2.724716
0.575493
-1.327351
-8.475729
5.269368
-3.849992
-4.176960
2.348496
-0.382311
-1.114345
-0.417212
4.096551
2.470410
9.489851
-0.144941
-6.660158
-7.145855
-3.621016
-7.575538
2.531463
5.843312
0.938486
-7.572094
2.890653
6.390787
-0.787538
-1.732077
-8.777002
5.960670
-8.824625
-3.282155
-0.272116
-2.994054
-4.953327
6.518181
-1.243583
1.581334
5.046656
-7.262260
2.782531
-1.992812
2.537380
1.035568
-6.660844
-0.537243
-13.102034
1.637880
-1.087866
4.687368
-5.313844
-4.645105
12.007181
0.752216
-6.453726
-6.620179
-6.162027
4.160449
-1.382538
-4.617115
-5.334205
-7.098212
-3.264321
1.996621
0.444760
-12.526454
-5.571039
4.243228
2.067269
1.635199
-10.232379
-0.894698
3.193134
6.531196
-3.244707
-0.916862
-1.865572
-3.841031
0.124263
7.129301
2.385677
6.351872
-3.763270
-7.060388
-3.248504
-4.435550
-1.826714
-1.204771
3.581265
3.580389
4.645649
1.011276
-10.639553
2.686958
-5.247915
4.094380
4.457857
-5.737247
-6.161934
4.672588
-0.343992
-1.498219
-0.408123
-9.023389
-4.361568
0.364830
0.770091
-4.965679
-0.978603
-0.017354
-3.313211
8.344037
-1.446565
7.878115
-0.439693
0.855348
-1.486029
5.916903
0.321937
5.668625
2.370289
-4.132734
3.831415
-3.547174
5.024424
-2.322539
2.615554
-3.039920
-0.002463
0.663695
2.012178
3.919199
4.819560
0.018838
2.343633
4.465665
1.047194
-6.382413
-5.729390
1.201519
-0.916545
7.713319
-8.368935
-0.487544
-2.757968
11.421818
3.760109
-1.128431
5.133503
-6.016523
-0.037599
3.757669
-3.899615
-1.895948
1.566006
0.876893
-1.692956
-10.878917
-8.126301
0.608686
-0.433048
1.184993
-9.063799
-1.991996
-5.700916
-2.741386
-2.506311
3.824453
-15.470519
3.919006
-4.169983
6.925471
-1.968714
-0.405570
-5.004917
-6.976525
3.142791
2.696994
3.133169
2.136312
-4.497202
-1.154908
7.488103
5.432489
1.146567
-1.332090
6.752615
-9.025305
-6.126647
-9.077424
-1.485263
1.165604
-6.295449
8.822694
-2.733782
5.872642
-5.971063
3.669088
-6.495439
-9.605242
-0.983014
-7.780245
1.151654
10.477135
5.463559
4.689549
6.911241
-7.401813
-2.816089
8.120154
4.455352
1.867476
1.323632
-2.861269
-6.645523
2.584185
-13.022871
7.958765
5.744667
-1.997631
-3.675349
-2.485081
1.612131
-0.080649
-0.223132
-3.371157
-2.058336
3.099393
-3.378140
-1.049491
-1.231778
0.881447
5.261596
-1.935909
1.259849
3.069373
4.782094
-0.386090
-11.239430
5.709132
-7.781243
2.784366
-7.273353
4.985556
2.577354
3.029739
-4.364432
5.496965
2.217969
-4.103232
-3.792902
-10.005702
3.595005
-9.173229
-3.857494
-2.046267
7.291415
-7.919059
-2.957556
-8.870631
-3.910401
-3.852447
6.393066
-5.799387
1.092560
4.049290
-6.319281
2.519867
-0.788689
2.975697
-2.681817
-7.334278
0.733845
2.805221
-3.822945
-0.195606
5.504110
2.542599
-0.702430
4.403975
-3.586063
-4.496111
3.938356
-2.299102
0.091681
-2.090088
-5.720315
2.054326
-1.224377
-3.017336
-1.649070
2.372031
2.450194
-5.609883
-1.258635
-0.494399
-2.602905
-1.039970
4.063738
-7.471367
-3.701068
-1.333145
-1.230634
-2.416050
-2.795512
-4.328120
7.838228
3.632819
-1.841969
-10.698979
12.607126
7.139636
-0.083412
5.049452
7.960094
2.626993
2.546132
5.139478
-5.748157
0.660496
-0.208617
6.526560
5.448042
-6.697313
3.649379
-0.327821
-5.033648
-3.637050
1.302575
-0.675573
1.749367
2.681094
6.278327
3.473555
1.120684
-3.440998
-0.307156
-2.642804
-5.045590
4.787461
-5.345196
-6.853649
8.064047
4.903721
-0.709620
-2.152616
-3.997361
1.127332
5.327493
5.376027
6.601880
-3.892972
-0.204759
2.877980
-1.386316
2.930662
1.763176
-0.338768
6.324353
-2.067263
7.292495
-8.603198
-1.986350
9.254320
-6.132553
-3.353415
1.942320
-1.130722
-1.878104
4.954281
1.374358
-0.648703
-3.323242
-2.502976
8.546860
-2.804897
-15.373181
3.494319
-3.876638
-3.880110
-0.761176
0.365173
-3.541634
-12.887896
6.680321
1.038682
-4.704316
-2.947874
3.606488
-2.079393
1.291854
-0.710379
3.209777
-7.680269
11.400717
-3.774348
7.015596
8.491466
-2.060749
-2.121605
0.908171
9.624339
14.584028
-2.980567
3.524803
1.380724
1.404403
0.815837
-2.119669
1.783186
3.121022
-3.586686
5.824187
-1.749823
5.142573
-1.609330
-0.315760
-6.032313
2.795638
4.320510
-2.519354
-1.760681
6.618062
-6.552816
1.665234
4.715512
4.102807
-0.399675
-2.872992
-7.715542
-0.735747
-10.045886
0.241952
-1.328500
-0.630671
-4.911197
2.125726
-8.639056
0.684603
0.941902
-3.075808
-8.745890
6.217582
-6.639892
4.077621
3.567782
0.727054
-12.405994
3.452409
-4.466592
-6.022468
4.246191
4.169295
-1.277497
3.257376
-9.681738
-1.316864
5.685920
-4.270474
6.591521
-1.097366
6.863396
-3.870724
-5.273611
-1.659453
3.090738
1.750620
-1.786399
0.249791
-2.370562
-3.238323
-8.198131
3.320993
-1.697975
4.732611
-1.603045
-0.656197
1.068382
6.596242
-2.655922
-7.446634
-1.568833
4.335593
-4.352922
5.622094
-0.794523
6.323828
4.476534
5.537449
4.882986
1.058345
-7.240680
-6.910342
-1.622689
1.033204
5.983220
-3.707969
2.173382
0.838892
8.758785
4.933918
7.655359
-0.149149
-2.170127
-4.675485
-3.069933
11.121917
-2.288284
7.902163
1.327108
-2.744205
-4.373182
-3.918539
0.780654
6.108857
-7.959852
7.026605
-2.586424
0.745835
3.002388
3.418484
-1.871312
-7.130800
2.363113
13.380806
0.693893
-0.904611
-2.666906
-0.699585
3.778895
1.193088
5.594741
1.485145
9.427171
3.653761
-0.275783
-2.202130
4.854492
-0.518610
-4.543847
10.055854
12.073081
1.490500
6.384273
-3.670490
-5.024880
-0.857272
-7.139845
2.552652
-4.019107
2.305675
-0.467739
0.836785
4.274323
-3.970667
0.832170
-7.734161
-1.915370
-4.499509
-0.688851
-7.328142
-6.532061
4.297471
4.723750
3.304014
-0.393517
-1.964746
4.378710
1.100930
6.653609
0.862741
-5.077940
3.599443
0.174742
3.938575
-5.054570
-6.629808
-4.009060
-0.094021
-7.990717
0.454666
7.142495
-4.805969
6.847785
-5.046577
-6.141404
9.034465
-0.512007
-13.554229
-1.001240
-2.981915
-10.839305
-5.517920
-11.088176
6.925837
13.008301
0.451341
-2.476799
-5.590196
-5.456521
2.441174
-0.888940
-2.927809
-4.312837
3.633246
-1.767975
-1.039846
-0.260598
9.390440
1.501672
0.905015
1.168284
-3.242116
-6.742921
-5.421655
2.384830
-6.983408
2.869137
-0.207333
-3.144073
-3.602464
0.360706
-3.948383
2.200135
-3.061968
-2.519260
-4.954438
-0.056148
-3.317194
2.423905
-4.236270
8.121830
3.302266
-18.734622
-0.555778
-5.747548
-4.290709
0.320403
-11.309156
4.509561
3.622247
5.203591
-5.370750
8.993200
2.489585
-5.313933
-5.851469
5.958897
-1.192931
0.277711
-2.599739
-0.276254
-5.368869
2.829592
0.258785
-7.592440
1.173886
-0.444737
4.819011
-4.454384
-0.486297
-9.987946
-4.742238
2.524557
13.050309
7.065348
3.730995
4.315194
0.107295
4.326368
6.838872
7.694766
-2.531211
-4.418837
0.269306
-2.816356
8.369808
-8.329216
1.406496
-8.206958
1.954429
4.317121
6.555428
-7.585690
6.074863
-20.973530
3.344801
-8.837636
11.419595
-1.282195
3.148796
2.776828
-0.280458
-5.769473
-1.089106
-1.240754
4.525858
-0.467835
-0.689319
-6.820143
-9.037678
-0.644721
-1.189694
-9.844678
5.142674
8.560099
0.433263
-2.566640
-5.130974
-6.906077
13.301388
1.672682
-6.779722
3.079815
4.937918
-4.083391
-8.715032
-1.425840
1.672729
7.482444
6.033000
-2.517903
4.241516
5.645127
-2.373895
-12.281790
3.461000
1.838103
-15.382744
2.711938
0.359769
3.876229
4.898354
6.459073
-4.076128
3.168010
2.811434
0.475101
-1.220371
0.028098
3.779799
1.671776
3.112191
0.605848
-0.168348
6.374026
-3.012517
-3.111390
0.773662
-0.067022
0.335248
0.788568
-9.843514
9.115351
0.250901
-0.007523
5.279058
0.742678
-0.412042
-0.719209
-7.755372
-5.166182
-5.179048
4.874734
-0.269155
-2.463973
3.132225
-5.042295
-7.813106
-0.191653
-2.873930
0.497151
6.729363
2.944530
-6.155058
-7.322649
3.708711
-3.082839
2.038470
4.049547
5.492145
4.584020
0.079083
6.807576
7.613249
9.090319
-5.861922
-4.202244
1.729429
-5.681104
1.277844
-6.513356
-3.829828
-3.138205
2.067119
-4.168749
0.820376
0.812836
-8.620107
2.631844
0.964911
-1.340579
-13.107491
-3.032940
-4.652909
-8.867708
-2.119062
1.209464
9.404893
-4.472357
-2.318262
0.295466
-5.966209
5.416738
7.157366
-2.238854
10.720310
-4.422736
-0.283533
-5.835514
3.537926
-5.049252
-1.215353
-2.938880
4.972006
0.004577
-1.187003
-0.624710
-4.444497
1.648936
0.971697
1.380609
0.098610
-5.662730
-1.768167
2.342412
-0.600309
1.300210
-6.905436
-3.057713
9.073776
-1.336738
11.303013
-0.539119
-5.923065
0.276096
-7.381035
5.585756
1.073215
0.606058
3.275550
5.522006
-2.934321
-0.151647
3.711096
0.319226
-4.389442
1.180727
7.611289
-17.060080
-5.980911
5.080870
4.195079
-12.905489
5.938633
-4.273310
2.567925
5.112093
4.216564
-0.664062
-3.878966
-2.861394
7.919495
-4.814685
6.476141
1.276566
-5.296668
4.437484
13.044548
-8.209126
-4.781148
2.734719
1.917351
3.898265
1.389794
6.449785
-1.763503
0.326049
-3.528380
-3.930123
-1.980870
5.297668
7.610142
-2.820615
-1.669908
5.937935
-5.741304
3.332557
-15.230628
-7.014822
6.705781
-1.083917
-2.647196
-0.658366
0.770737
-1.402878
6.349625
3.164471
-3.343412
0.166348
-3.194152
1.950420
-3.566983
-2.531997
1.153557
1.483070
-1.542697
7.193622
-4.611588
9.745927
5.235607
8.260514
1.328710
10.588519
4.903824
3.402691
5.582429
-1.616584
-5.295707
-4.805309
-10.035929
2.643170
2.506174
-1.028975
-0.277955
-5.772563
0.854558
-3.353047
1.422191
6.564368
-8.585463
3.743783
6.372467
3.083152
-0.475202
-5.822743
3.547413
-4.008310
-4.717966
1.223648
-5.220278
3.914928
-6.662741
8.347207
0.719451
-0.141095
3.184711
7.087378
-3.018545
0.902847
-11.726600
-1.163445
-4.445679
2.348883
3.343900
-1.750947
0.527269
0.559735
-9.625185
0.764443
6.991982
2.764600
5.390357
9.446807
-0.342827
-4.137058
4.262107
4.066941
8.736717
1.764254
8.124514
1.374327
-8.777254
-11.120949
-8.431480
-3.791164
2.554542
5.198416
-8.484283
3.476556
6.256185
-1.619720
3.537800
-8.637679
-1.691455
-8.919379
-3.516331
-9.943350
-4.000217
-1.157805
-4.705786
6.984484
-1.517114
5.409366
0.928283
0.902235
-2.051448
-2.161510
0.636608
-2.712654
-8.224746
-3.714021
-2.646746
5.482851
2.636935
5.575815
-12.420451
-9.771541
4.189409
-2.652920
0.152920
10.073411
2.476903
0.932817
-1.258535
2.670144
0.107055
4.833411
0.532859
7.258055
2.669486
8.884342
-1.395755
-0.682176
6.577035
-1.285112
-2.108783
-2.335741
3.060126
12.446118
15.878887
-1.378703
2.878818
-2.852697
9.251281
7.538656
-8.547119
-0.027082
0.477204
-3.419407
6.667665
-5.461522
-3.592987
-4.343447
-1.287401
-5.308129
3.651730
-3.641871
3.401306
-11.119175
-1.957114
-4.104189
-12.317831
5.720092
6.064177
0.545909
11.018771
-3.316117
-2.624777
1.036023
-5.715690
-2.588304
-3.767687
-8.725735
-7.916431
4.702508
-4.802172
-1.694957
-0.956431
-13.172311
-7.319014
2.042203
4.145793
-2.817606
0.122952
-5.124893
1.431748
3.226930
11.100833
-4.415062
1.531822
4.293981
1.873289
10.591418
5.201195
-9.452175
-2.314792
5.563680
0.033343
6.877554
6.319743
-3.697286
-0.898821
-3.963188
-5.422098
-6.134187
-0.312861
0.298161
1.473414
2.680691
2.345280
-0.599649
-3.288189
-10.927353
5.607270
2.156561
1.368314
-12.702496
6.054654
6.599382
2.110898
-0.602998
-7.979410
-0.855425
2.721803
2.475021
0.332397
4.556441
11.808246
-5.519579
-2.158502
1.517874
-0.419450
1.420772
-1.603854
-2.969729
-10.586038
1.713764
-5.425015
0.305673
0.660352
-10.865953
-4.301458
6.592262
3.810278
0.523196
0.246830
-0.715646
2.986883
-0.136636
0.583381
3.269209
-0.616164
3.830253
-5.879692
-1.570274
-4.310383
-3.081551
1.780122
4.446857
0.675170
0.242551
1.745065
5.063944
-5.278261
0.139913
1.815607
12.845243
-0.289384
-7.009139
3.232210
-6.241701
-5.098983
1.552502
-1.798791
-5.069500
-8.025270
-2.586608
5.891949
-5.617706
0.903651
-7.331883
-7.194980
2.488127
-2.915736
-12.297606
-1.356036
1.621683
-3.833872
6.183984
0.533172
-5.631513
-7.354140
6.112066
-1.785798
8.400636
4.125062
-6.498801
4.135041
1.562954
1.574725
0.954528
3.832482
-9.608701
-3.987026
-3.163398
-5.573383
-2.778081
6.712489
7.731613
-2.518488
6.699634
-2.894330
-8.889375
-1.734519
4.236404
-5.493046
4.449585
3.405810
0.219303
3.278655
7.483265
1.216405
3.010228
6.797078
3.552615
4.414957
-3.870104
5.381056
-0.018214
-1.000713
3.909041
-5.846096
-1.936635
5.586424
8.140968
4.005600
2.960331
-1.837860
-3.069557
-12.648760
5.620372
0.445785
-7.756951
-5.903210
0.432466
1.096371
-0.208022
-0.329824
0.179515
-6.075954
1.694926
-0.926121
4.437079
-1.631041
-1.463377
-2.377875
1.587074
1.094265
-0.692570
6.258317
5.056918
-1.524050
-1.390300
1.172713
3.022103
3.692611
-4.386025
1.158505
3.745670
-0.219729
0.446013
1.475085
3.951468
6.875873
4.376614
4.957004
6.544238
5.046038
2.481527
-1.998867
-3.217858
-7.642549
0.351835
7.712478
16.667694
-2.346780
2.186149
7.440797
-8.403023
6.899533
2.549402
-9.615880
-4.461513
-11.091914
-5.175551
5.256613
8.183778
-1.965141
-4.548049
4.129385
2.546910
7.286004
1.375146
-6.361207
1.066887
4.418327
1.961636
-1.076598
-0.579140
0.399390
0.884144
3.012527
-3.101214
2.068747
1.002852
5.873846
11.184331
-0.678691
-7.590952
7.084294
-1.807237
0.235757
1.777194
-6.583619
1.936311
4.385629
2.612146
5.949445
3.226454
0.297477
-6.506409
-1.722019
-1.611269
0.531628
1.825527
-2.374007
-5.233534
-5.916975
4.545087
2.414214
-0.724241
5.116768
3.494188
2.123211
0.440074
5.237237
-7.250983
-8.611697
-1.204014
3.130272
-3.835524
10.727130
-2.670952
-6.343362
-9.089991
0.286478
-1.465907
6.143350
-2.458228
7.642881
2.668813
-10.270868
11.660907
-5.788120
-3.353617
-1.727455
-0.578138
-0.851813
-5.373015
-3.888877
-3.254143
7.337386
5.056667
-5.920972
-1.980537
6.745098
-1.335197
2.412283
5.053843
8.691637
-1.528728
1.642634
-1.436248
4.009864
6.531161
-1.740294
-6.217816
6.875841
7.218365
-1.575885
15.084415
5.976599
-3.367770
1.104561
-0.150569
8.639597
6.605696
1.434215
3.947872
-0.142394
0.211002
-4.843581
2.245240
-13.959736
-6.591012
0.869167
3.325669
5.338093
-2.861001
-4.436100
2.599026
2.594506
0.298883
-13.838784
9.524942
-6.604294
8.484238
-5.044309
-1.783395
1.284499
0.237735
-2.140888
-1.205995
4.531377
-9.161826
-5.593570
3.152237
-9.550165
-8.323784
-0.210216
-6.721511
-3.573088
3.705596
-9.015911
-2.826792
2.883477
-3.428383
1.249602
1.213143
2.034700
5.814061
2.595159
-8.646913
0.433784
2.469582
5.509609
1.998299
-3.147132
-4.280118
-1.720245
-9.494699
-5.443087
2.007566
1.319875
-6.109574
1.795638
2.341166
-4.592013
-8.503133
6.336988
-1.464701
-3.901840
2.428817
5.647013
4.259253
-5.824046
0.442530
-3.001601
-6.750964
5.853672
5.780394
-4.375337
-11.790876
7.444432
2.245895
0.391868
-5.211745
-5.471237
-1.225101
1.496816
-3.180393
-0.297014
2.211102
-3.450610
-0.975185
-3.647108
-0.351354
-0.392452
4.216361
-5.835955
5.765759
-1.669006
-1.818865
-3.967492
3.035143
-1.245313
-0.594242
0.053390
3.772865
-1.040942
-2.420116
7.740845
1.082988
2.531089
0.475425
2.368059
8.184739
-0.382826
1.035407
2.609858
-8.796584
2.692776
4.891492
-15.457741
1.865408
-6.296092
3.290247
-10.094780
1.738680
1.070922
-6.562937
8.279785
-0.834706
-10.151398
2.979801
1.243301
-7.530594
0.602170
-0.967278
-0.505928
-1.706363
4.907787
0.052036
0.581663
-5.957577
-2.935568
-8.498279
5.995970
-5.588120
-2.355211
7.064986
-1.732751
8.570775
6.000130
2.537721
4.364657
0.707361
1.322502
-4.202865
-1.159349
3.242227
-0.444966
-5.329500
3.430249
1.553851
-12.458574
-5.700278
-2.622024
5.214543
2.191051
-0.398295
-8.166995
0.412817
7.524945
0.258440
4.651502
6.885603
8.485605
-1.954347
-6.967549
1.419708
4.173245
-3.364603
-4.227228
10.441198
4.119589
-1.071089
-1.507424
-2.064815
2.868833
2.149159
5.492338
-4.732098
8.119462
5.604725
2.764638
6.876874
-5.933043
5.114927
-5.474992
-5.641481
-7.219184
-4.355938
2.431466
-4.742262
-0.219823
5.985467
-4.321186
-0.020732
2.114560
1.805680
0.032351
0.273698
5.630778
7.975072
1.661573
-3.657568
-1.376954
1.939960
-3.811399
2.466558
-5.383001
1.614353
4.128134
-5.445383
-2.387458
2.840688
-11.363376
2.844240
2.481688
-8.611231
5.200506
-2.085972
-2.056707
3.770843
-11.346055
2.220389
5.389150
-4.479860
0.977371
5.031417
1.738611
-0.294325
2.264258
2.522949
6.719786
-0.034194
9.234943
5.635778
4.786497
1.455043
-2.683546
2.346597
0.714246
-3.923235
1.633736
3.972126
11.348800
6.143106
3.578449
-7.532389
-13.678132
3.862350
-12.598220
-1.393298
0.782243
3.961658
-2.113587
-8.974703
4.385129
-1.777975
3.582839
-2.242700
-5.593641
4.544445
4.032276
4.258650
-0.251387
-9.445012
3.324327
0.707471
4.059110
7.775049
3.908960
-3.475395
4.903828
2.617623
1.257051
-0.107173
9.672826
0.493543
8.176194
0.117067
2.650257
-4.994758
5.441046
-0.573109
-1.603257
-0.796834
-0.120055
-0.198741
5.000020
0.942699
-0.757250
10.254972
-3.692303
-7.850622
4.358918
-2.339945
2.912301
0.789052
4.467074
-4.784473
-2.508440
-3.937263
1.375166
5.350044
-1.349024
3.049994
-4.731335
-1.787339
0.348712
-10.111373
5.829182
-8.124809
9.558725
0.809952
-8.609007
1.404981
-3.969385
2.049069
2.198749
-2.371673
-5.349740
5.267195
1.810151
8.775688
5.960683
-7.086015
2.989208
5.250945
10.010105
-4.875953
0.179011
-1.060495
-0.211551
3.005609
6.387920
-14.360084
0.858963
1.891824
7.297529
4.021333
-3.237283
-5.649534
2.299705
3.769732
2.548884
2.497734
12.401864
-4.826499
-6.286633
1.631940
-7.916037
-9.132746
-0.911027
6.924295
-1.272235
-4.990762
6.731098
-6.895208
-3.126637
-11.232831
2.090576
-0.172823
-6.121736
-0.345583
4.133309
-8.096070
3.285303
4.205626
-2.296992
7.000465
-9.488883
-1.431607
2.903475
-7.146174
-5.201962
7.490827
-5.408673
0.427054
-2.342281
-5.845834
-3.113306
-7.602763
-7.417818
2.718428
-3.331202
4.622112
0.819363
-2.591355
1.869467
-3.823406
4.874691
-5.140063
-1.759597
-1.830852
-2.961960
0.429710
-6.515183
-3.100706
-6.420820
4.466815
-1.460459
-0.688004
-3.288110
-4.293574
-0.218997
-1.671151
0.279631
0.159262
-5.136587
7.837320
2.133649
1.944832
-3.898646
6.969256
-2.456118
0.280992
7.826735
1.014255
2.099313
-1.575890
-7.061581
-9.835375
6.370269
-1.937144
3.850327
2.421981
0.746396
-0.691155
9.159990
0.741476
2.745804
4.447960
4.497839
2.544244
4.743088
-1.040377
0.789201
1.705816
-5.528115
1.194293
-1.682718
3.620047
-2.540172
2.191249
-8.270650
-5.477441
0.486728
-6.452961
-8.961725
6.449268
0.995453
1.056839
3.190652
-2.269581
-1.270248
-1.572071
-4.857935
-3.643627
-4.150832
11.111204
-3.450568
-1.120742
-8.643204
2.670544
5.461116
-6.417182
-3.911566
7.327297
-3.014927
10.399197
2.374832
-5.995483
2.321770
3.745416
-1.375796
-6.258136
-0.882774
-4.773058
-4.203651
-3.673292
-2.710305
6.758550
4.410279
0.259058
13.188304
3.449103
0.927775
4.588481
-2.315003
-4.401664
0.846258
6.495748
-1.228907
-0.118712
-3.159170
8.381861
-3.792802
-0.724891
6.546549
-2.227954
2.658300
5.066814
5.317159
-6.937049
0.446019
1.108377
4.499921
2.755453
-7.022578
-2.240955
-7.877834
9.959501
3.519890
-7.006693
6.822124
2.553822
-8.637784
4.033908
-0.845856
-7.378419
-4.824473
-6.224119
-3.410816
-0.020101
1.525238
6.314696
-2.343786
2.934847
-1.597068
1.283924
17.286517
-8.929161
7.271100
-0.682402
4.119964
-1.828184
-0.275782
6.399236
13.817078
3.085754
-0.327888
4.357953
-2.152637
-2.799300
-0.073440
-1.122629
2.241263
-6.531632
-1.320247
-0.735948
1.076651
-3.889158
-3.619477
-4.295456
4.817597
4.210478
-3.386194
5.831439
-4.632341
-5.416190
-2.904852
4.530235
-3.097431
7.284915
13.549956
7.728862
5.243778
-2.860136
-3.901898
-7.802689
6.014956
1.445912
7.606871
-0.914841
0.323314
-0.739480
-5.003532
-2.239262
2.474223
-3.819244
-0.579088
-2.632090
0.045374
1.345045
-7.255992
-7.132991
-2.908392
-1.330491
-4.035610
-1.828993
0.190336
-0.215524
3.197410
-1.107901
2.044055
-6.754009
3.930805
-3.706421
3.123934
2.057199
0.825300
10.174276
-3.990926
4.043503
5.563309
7.162577
1.409021
-0.585589
1.710986
-6.548514
-0.743901
-4.850375
-2.785157
-1.334495
-9.829707
-0.145960
3.172517
0.662970
1.918551
7.878480
4.255167
-2.086761
-5.427971
-1.000276
14.244038
-1.483135
0.904990
-2.212378
5.178435
-11.476175
-1.256702
-4.208179
-5.200950
-6.620080
-1.160518
-0.638392
5.039621
-0.946035
6.554937
2.925102
-9.750474
4.684336
6.213693
-0.028725
-1.740665
-4.468954
-6.212633
3.825553
5.378889
-8.566185
-5.067295
-8.624591
4.309820
-4.960792
-2.238295
-6.879342
0.554944
-3.234410
1.850414
0.172229
-4.992194
5.423726
-0.866940
2.885803
-2.644790
-6.712753
-7.595914
0.208268
-5.508399
-7.476610
6.120651
-5.666136
1.785095
0.718132
6.365444
12.400440
-9.917996
-2.583920
10.518149
-6.055892
2.849500
2.456874
-0.281178
-3.126210
-8.583090
3.840772
-3.755114
5.682162
7.587554
-3.864124
-5.332763
3.840525
0.800117
3.327456
7.265775
-7.550510
-1.268613
-5.862223
-7.398339
-6.648900
1.519264
1.287441
2.874438
5.399089
-5.362921
-4.086347
-5.441048
0.753739
5.596292
-7.711466
-3.211347
-4.504918
3.415825
-2.983885
1.979365
-1.664460
-3.554287
8.743742
3.988441
-5.176596
-6.751899
3.986042
-1.265195
-0.508988
4.616075
3.626439
4.495825
2.745416
7.697177
-8.384769
-6.315007
0.470060
-2.407052
0.025539
-4.448559
-5.788399
-0.332899
-0.852392
6.127681
-3.451104
0.654795
-4.226433
5.335662
-1.611474
2.376007
1.826615
1.639687
1.159049
-6.871514
-3.678860
1.255619
2.255253
-0.924947
-5.161519
-2.253542
-9.942134
-8.175817
1.995618
8.233589
-0.717376
13.170893
-1.903004
1.875644
-2.762908
9.561365
2.215860
4.228385
-11.954168
1.565450
-3.689579
-6.368902
2.539055
3.426153
1.513653
3.409786
-1.772321
-1.031475
8.349327
-9.889898
-4.045031
-0.552538
-14.075968
-1.932098
0.877542
0.292865
0.462242
3.241846
-1.837299
-1.184486
7.235498
4.381862
2.386147
5.632796
2.052958
-3.440353
10.666169
1.810783
0.456613
5.872466
6.258596
-6.019309
-2.429866
-7.148666
0.835233
-0.835795
1.922402
6.074635
-1.340446
-10.574256
-12.720577
-0.600937
5.058833
-5.534893
3.437878
3.430523
-4.813987
3.289720
-2.853685
1.952259
0.763306
-6.796306
4.022692
-2.694286
-2.862013
1.674128
7.815478
-2.280390
-8.052335
-7.988320
-3.831861
1.188759
-3.890973
-2.721004
5.025003
8.033317
1.550649
9.659699
2.375445
3.054671
-2.441788
-3.021946
1.037837
1.982180
-6.401832
-2.991008
6.492158
-2.401502
0.399840
-4.667044
1.246960
2.005314
-9.796114
-2.389222
-6.125208
-1.409173
12.051508
14.415138
1.605052
-5.083376
0.350326
0.163802
-6.055542
-6.400604
-5.946975
0.416311
5.446536
-4.347849
-0.844927
-1.135123
-1.982748
-1.700795
8.025623
-5.706353
5.653741
-5.666149
-8.615915
-1.219629
-4.701980
3.788412
5.008894
7.007553
3.330683
-8.147484
3.150699
2.174547
-1.553177
-2.499327
-5.317847
2.355658
7.259165
-1.261156
-5.014740
-1.358983
4.157393
1.377238
-0.488791
-7.449005
-6.431962
6.657516
-4.758239
8.883299
-6.824529
4.900948
-3.068089
-4.109385
0.049342
3.385296
-2.958817
-0.245535
-8.499434
-3.164519
-0.621969
7.865621
-8.449386
9.201547
-5.059164
4.489816
-5.977138
-3.823797
-4.740268
1.924879
-4.078200
-3.372708
-0.729743
-9.411459
-6.577171
2.711583
-1.595393
-14.511099
-10.495495
2.284460
4.683568
-2.209430
-3.279330
-4.973651
-1.038398
1.701369
4.164178
1.324658
2.556201
5.469303
-3.635586
-2.165240
-2.612016
-8.636614
0.928182
0.395810
-1.302166
-11.042511
-3.983805
-10.959367
3.580952
10.399702
4.001961
-1.806475
-2.849067
3.680632
1.884424
7.725573
-1.675192
-3.326815
-8.257425
8.396276
-1.709570
-11.281591
-0.121908
8.820650
2.015969
2.842765
3.919376
-0.019664
0.198166
-0.152588
-3.975569
-5.327424
-0.879360
1.946240
-0.657027
1.166551
-1.375215
3.335914
1.341291
-0.900749
-5.325371
8.636559
0.320257
7.158573
1.110114
3.393457
-3.459089
4.052008
-4.333963
4.601353
-3.087867
-1.141561
0.165924
-0.532550
1.449975
5.822244
-3.314837
-0.411922
-5.113671
-9.418870
-1.231181
-1.537852
2.641479
-1.352114
-7.412492
-1.417268
-3.049144
-0.050775
-3.991859
10.201871
7.094576
2.981793
-2.263742
3.037937
9.496403
-0.666470
0.915102
-2.429802
-7.304882
2.631343
-5.712662
-1.524407
1.357801
7.997938
-5.864293
-1.033250
4.750977
3.265125
-2.208910
-1.033819
-3.820301
0.443845
-1.431508
-4.282530
-7.631888
7.009646
4.751379
0.973956
-0.965355
1.068470
-3.933548
-3.961530
5.982511
8.914074
0.560507
5.262699
4.707707
-0.403039
-1.610337
-0.896901
-1.110668
-9.570585
4.054606
1.269078
6.246918
0.580634
-5.011910
-1.374446
-0.137507
7.274586
5.254773
-1.934089
-1.509063
4.572664
6.368097
-9.620507
-1.986740
-3.798958
1.269125
-1.733408
5.038591
0.700922
7.096230
-3.027150
-7.801041
3.780189
3.250123
3.627007
7.294070
0.629495
-11.523459
8.444209
-6.908976
-4.961837
3.482382
-1.826642
-3.538119
-5.642950
-6.631101
5.962724
5.089151
4.015020
-6.092051
0.190930
3.761142
8.911891
-4.013885
-4.312299
-6.309536
1.992105
-2.453728
-3.735238
-0.409912
1.902694
-1.469001
3.431398
0.990614
3.449148
-8.205679
-2.585928
9.943858
3.690912
-7.319750
-1.390237
-1.135027
-4.275985
-6.224405
0.887255
-5.137898
5.010807
-8.230145
-10.860326
-4.644789
-3.253477
6.919792
-3.042627
-5.643267
-2.728719
5.310721
-2.966772
0.779417
-1.649673
3.427691
-3.791123
6.112657
14.043032
6.477116
1.911145
-0.514879
0.098536
1.723469
3.392461
-2.758915
1.112829
0.653751
-5.184042
-4.472068
-5.949755
-3.013739
-0.575253
6.366383
2.882780
0.272533
-2.322623
6.704280
6.000039
5.345752
-12.476814
-1.898250
-4.781004
-4.100769
6.062838
0.447294
0.189935
-10.069976
-5.173231
9.360600
2.679526
4.110888
3.454226
-9.894597
1.301719
-0.103437
5.953811
-5.886820
1.934381
0.370207
-2.150095
6.886139
12.385663
-1.432570
2.086802
-12.927748
7.631576
1.721129
4.428853
0.413109
6.639423
4.760220
-1.323357
-1.860618
4.883534
7.907783
-3.057563
0.370642
-4.437420
-3.548034
6.384421
7.206244
-1.523382
-0.973197
0.687945
5.733328
-5.714232
-8.778723
-2.907617
2.557971
1.184297
-8.514257
-6.809522
-0.416702
6.051899
-2.916089
-4.543837
0.680554
-3.990682
3.800066
-0.577804
5.358852
-1.349353
3.804980
1.770678
4.978638
-2.112284
0.307773
3.491371
10.036776
-1.703415
-1.865742
1.173902
-1.078675
-1.068154
4.343067
-0.687488
2.605080
1.230903
-4.093025
1.902682
-0.668750
0.467978
-5.131826
-7.207485
0.110173
-6.857462
-6.923589
-5.898171
11.510923
-5.021708
8.112436
7.181679
5.757499
-2.331878
-1.048136
-3.431704
-0.346405
2.057441
2.954190
7.963335
6.746964
1.209237
-2.240570
-4.072953
-1.800390
-4.892637
-4.812072
6.164999
3.994064
-5.089096
-0.688153
-1.743317
0.744140
7.628263
-1.279899
-5.161958
-4.025733
8.536352
2.471774
-4.210277
5.095729
-3.974674
-1.844520
0.451442
0.923464
1.945213
-9.390808
1.152591
-0.086097
-2.465290
-5.381321
-5.491584
-0.820314
-6.445635
-7.807939
2.617264
6.254105
0.144072
0.219143
-1.271677
1.403261
7.989836
-3.163699
2.870451
-1.271900
-5.373626
2.919467
-0.977186
2.326461
-0.244298
-10.281696
-0.018636
-1.823420
-1.041743
-0.838251
1.619212
-13.335258
6.525183
-1.479830
-4.983612
7.504081
-7.924706
-11.872778
0.836318
4.843064
3.035787
2.452714
-7.728450
-1.177183
-2.612640
-3.464321
-1.491033
5.279448
-1.798098
4.273662
-6.072201
-3.668811
4.780217
-3.573736
-1.068561
-3.059255
-2.046839
-5.662042
-4.309940
6.511166
-2.152283
3.076574
5.917825
-6.533725
9.557673
-3.129477
1.756382
1.180762
13.000062
2.737777
4.104655
0.584277
0.497440
-0.598821
-1.970927
-4.318186
-0.378070
-1.086673
-1.034812
-2.269004
5.073666
-5.045063
-6.287608
-7.499243
1.775099
-6.235520
-2.112750
0.865453
2.499189
13.867016
0.956739
6.853058
-2.422867
2.684815
1.419858
-1.862043
-6.216352
2.377031
-3.609082
-3.191057
9.892913
8.183086
-5.131731
6.602529
-4.169463
8.294157
-7.261014
-4.560946
-3.818542
-2.800613
7.922238
-3.474965
1.478535
-0.678623
-6.789591
2.199441
1.767230
-4.301671
3.214922
-3.023879
-8.828284
3.163126
-0.358206
7.775031
-3.707105
-2.635869
-5.036490
0.610102
-3.107488
-2.276996
1.464564
0.442217
5.159902
2.602267
0.863080
0.250231
8.913180
2.842510
4.184540
-2.421151
-1.128954
2.697426
1.402487
3.550223
7.849005
-7.589643
3.745648
0.560257
-1.096617
3.725369
-3.941813
2.221155
3.963628
-5.436509
-2.770564
-3.224590
-8.022118
2.111548
9.698128
1.346672
5.974307
2.846580
4.147885
3.333914
-6.615692
-0.265337
0.865699
6.042707
7.893137
10.478517
-4.025809
-1.929362
-6.475109
5.807052
-0.020471
-4.272114
0.743374
-6.973324
-4.071902
-0.542779
-3.315871
0.769643
8.545492
5.205070
-1.756320
4.041571
0.490486
-6.489009
-7.814478
-0.291763
-7.639933
3.290140
7.833024
-5.099333
7.560644
6.432811
7.045587
3.475547
-10.082399
-2.711537
2.072415
-8.275636
1.741818
4.645492
9.097780
-6.864238
0.820689
-1.058833
6.568498
2.690782
3.182230
-8.730294
0.481693
2.621270
-3.053072
1.363104
1.487396
-0.921521
6.450578
8.831169
-7.581321
2.268269
-2.867479
-2.279503
-11.444904
1.946472
6.527497
-3.482364
-10.244160
1.102405
-0.254348
-1.323207
3.835456
-4.286225
13.077421
3.257819
-0.041934
3.691217
2.495423
-0.276239
6.882066
4.260090
-4.187231
-2.965015
1.898688
1.178306
11.607142
-1.642982
-7.965851
5.715762
-9.444668
-3.726364
-8.129893
-4.339042
-5.899942
-4.458269
6.658841
0.193677
-7.698944
6.548866
3.394175
5.752573
4.353271
-2.500201
-4.958560
-12.730065
5.053996
7.519054
5.243878
7.260886
-0.504925
-2.854142
-7.952371
-1.707290
-4.648205
-1.313562
-0.189169
3.003154
-13.648635
1.895530
-4.045560
-0.008502
-2.499128
8.500697
-2.566785
-10.202252
0.525578
5.955039
-7.032360
-7.869095
3.360918
-1.356221
-2.066582
-2.954074
0.419846
-1.408697
-0.569341
-3.757210
-3.373226
-2.565729
-5.895340
8.402160
9.233893
3.374099
-3.777419
-2.296522
-5.777219
0.785315
5.545950
-1.439018
4.468717
-6.340529
-0.666151
1.475660
2.502237
4.820309
-6.063935
-0.827613
-5.138967
1.871135
4.202747
7.201718
0.388233
0.388451
1.124503
3.914862
2.263154
7.439131
-5.834471
-3.492398
2.009162
-0.545757
0.858719
-3.722412
-7.405552
-6.088528
1.146817
-0.957625
1.610580
-5.074401
-0.058170
-3.890109
-0.624645
2.318343
2.300909
-3.851155
-5.117155
-9.706863
-7.431701
5.915593
8.232257
0.643622
0.745081
-7.842605
2.912190
2.211286
6.757474
-7.117259
2.128372
-2.972967
-1.747233
-5.487918
-5.985163
3.757189
-4.320977
-2.882815
-3.527514
2.456611
6.637625
5.075362
-3.725313
-9.704305
8.676466
5.905032
1.443965
4.369461
0.365092
3.232598
-0.495897
3.964261
-5.759574
-3.507161
2.177365
10.280141
-0.793507
3.478565
-6.500744
12.526642
-0.858909
-1.224349
2.830592
-1.362469
8.914221
-6.846661
4.345397
-1.661032
-0.157763
5.843008
6.226262
-8.926100
-4.575026
5.387200
4.445210
-3.111523
-0.125475
9.575681
6.633387
-8.986148
-0.669668
-0.118006
-6.725487
5.220881
-2.835917
4.159903
0.883867
3.676272
-2.663082
-4.736254
-6.335393
-3.059811
2.267870
-1.851742
0.906549
10.718262
-0.752278
-1.832304
9.010326
-2.453053
-6.828729
5.917374
-1.230399
-7.486676
0.549665
-3.780772
-5.403593
7.341716
4.892837
7.880435
3.429360
-14.947316
6.788878
-9.991475
6.761912
-6.532678
1.276210
-3.702620
-2.889062
-5.855847
-5.445641
0.332689
5.016258
-0.888317
-2.089155
5.279815
-0.675827
-2.093542
1.339359
3.148224
-2.339521
-6.309459
6.869282
2.023353
3.919881
-2.218071
-6.758203
-5.482283
-3.483449
-0.536609
1.747850
6.368515
0.717282
1.004745
2.468700
-6.258655
5.245428
1.266388
-6.133020
-1.057329
6.311223
1.998063
-4.691880
-4.569663
0.692615
-7.858374
-1.420438
-4.030738
-7.928490
3.593981
-2.765392
-7.626584
0.643670
5.504460
-6.195369
6.643809
0.845652
-1.621455
8.196795
5.841510
2.342740
-0.352681
-8.889384
4.082530
-9.091202
-5.599918
-9.493084
-7.280432
4.518478
-2.110496
-3.408899
-10.413391
-11.462756
-5.199384
-0.777701
-7.666433
3.602160
3.828865
-3.447285
2.793671
-1.120056
3.131257
0.255508
-2.766528
-2.337144
-8.902436
-2.246857
4.995418
-7.488851
-6.327966
-1.918201
-1.628944
-4.306751
5.564035
-0.283968
0.230157
-3.670161
6.935117
-0.751658
-9.208846
-5.463903
5.896591
0.391431
-4.052595
2.856338
7.607238
-4.279456
7.220619
-7.003807
3.389992
-8.835295
1.262650
-0.147354
2.721261
-0.634606
-3.283334
-15.870513
-2.179324
-3.341858
-3.344230
6.839783
0.612558
1.761568
-3.309679
5.396983
-2.421175
-4.795143
-6.689437
-2.665142
8.948649
-3.979484
-5.928337
9.710584
1.441625
-0.471284
7.138528
8.643567
3.252547
-3.268340
-6.359560
6.312822
-2.069611
-10.051608
-2.018093
9.564093
9.544060
-11.625375
-11.259230
0.722422
-7.741302
3.655876
1.681992
-2.619008
-0.921292
1.608837
-0.218778
6.827307
-7.693939
-1.485829
-3.856060
6.034576
1.026028
6.311812
-0.067513
-0.150848
-0.125225
-0.809616
9.065606
1.208882
-1.820998
-4.995736
-2.157137
0.027365
10.769906
2.786566
0.565889
-2.554516
5.771378
4.613860
-0.895346
-7.087836
-5.003269
0.663129
-3.346418
-3.497792
5.530409
-1.831419
-3.212479
-2.062335
-5.675482
-5.798010
-13.164891
1.003007
5.526803
8.869146
-8.822845
1.716812
0.075818
2.910616
0.891739
4.456901
1.261072
-6.513249
1.291011
-6.224431
-0.954920
-2.978961
-2.281403
4.742976
11.517352
-10.349785
-5.149270
-6.205448
6.602714
6.693957
1.475948
11.180306
-4.106004
1.726704
-0.853108
9.981118
-0.014954
5.320881
-5.071774
4.960999
2.104415
9.532142
3.332311
-4.567135
-8.260884
-1.575634
10.123777
2.605397
0.557528
1.947358
2.444481
-1.629887
-3.094893
1.888400
5.150672
-1.902126
-0.282804
-4.523032
-1.927432
-10.159428
3.142277
-3.462492
8.073364
1.306118
5.594976
3.563683
-2.527503
-4.161916
-3.773238
-6.351120
-1.457255
3.907644
-3.912496
-1.339089
-8.364630
-0.490434
-2.180588
-2.273365
-2.644950
-8.428652
4.865494
4.576953
-2.226785
-0.458138
3.736059
1.518343
-10.222073
1.984630
3.663956
-2.894654
-10.002159
-2.116418
-0.322326
-1.153638
0.573315
3.368112
4.668915
-11.365335
-2.596660
-8.988287
10.452759
-11.514235
2.406952
-6.109045
7.755298
-0.037884
0.551547
-9.708641
-4.646340
3.277687
10.911484
-5.229240
-4.690152
2.662347
0.752439
0.961170
6.549846
2.147263
-0.454705
-3.463921
-4.027991
6.930176
4.497207
2.555318
-4.569108
0.220034
0.307758
4.644957
4.402602
-4.796258
2.251392
-3.631077
0.897696
6.936231
-3.859751
1.430129
-6.865801
-1.799658
1.962806
-8.970332
-3.756325
-1.741612
6.546403
-0.518055
4.541202
-8.465062
-2.894189
-3.257055
-7.543744
12.257093
-1.033037
3.208472
-9.495941
-0.107337
5.549276
3.830183
-1.894475
-5.382306
-5.369005
-5.086793
-2.984669
-3.266968
-7.472052
6.949297
-7.271893
-1.748168
-4.333583
-8.388229
3.440300
-4.086571
3.801575
-2.476225
8.309703
-6.503166
-7.879993
-10.227813
1.046163
2.385467
7.075628
1.458277
-8.937275
-4.254785
-4.289154
-3.694765
8.375116
3.676367
-4.489729
-0.643744
-2.645119
-7.523870
-2.182926
-6.499224
2.088117
8.399612
4.015291
-4.304906
-4.495253
-4.498315
-3.545732
2.311003
3.188920
8.318874
-9.963990
-3.489017
4.639142
3.942839
5.631005
-4.242380
1.200494
-6.387214
-5.658252
6.977149
-3.894492
-1.283109
-1.923109
8.365518
-3.303583
2.215081
10.984538
0.393508
-5.842203
1.520442
0.899079
4.673422
-2.085613
0.123573
-3.827452
6.844554
0.967198
4.115897
11.064008
5.638018
6.815321
-0.996657
-1.933454
6.358660
-2.278893
5.881214
2.474155
-2.191623
-3.491254
-2.681863
-5.352856
-2.230570
2.449514
3.159120
3.558356
-3.956087
-1.625704
-4.917524
-4.875633
0.582791
-3.043300
-1.845430
3.826796
6.625133
1.369034
2.287162
0.103089
1.120745
-1.915710
0.016010
-3.071971
-2.477963
6.612408
-2.265597
5.114321
1.070035
-3.481271
4.088761
-1.984419
-8.928915
-5.843345
-5.636052
-4.922715
-0.795498
2.196249
-2.216083
-0.986510
-3.254976
7.051377
-0.018586
-5.621309
-5.825578
10.500430
6.589471
-1.752853
1.889291
8.771882
7.297404
6.653969
10.763729
2.808933
1.719024
0.481801
4.450184
-0.991270
4.867314
-7.814522
2.354707
3.938447
-2.712859
-13.533000
-2.436177
-7.173572
-5.419915
-6.944884
1.032726
2.776694
-3.802522
0.543186
10.181625
-2.388838
1.072820
-9.339829
1.240311
4.917575
-0.233002
-7.657323
0.839181
-4.955947
-5.231957
-1.788859
1.749006
-1.041189
-7.253763
-6.794486
-1.707782
-2.734132
-3.887471
5.345755
-8.442250
8.507206
-2.610256
1.951813
9.268526
4.204285
8.358283
-0.036963
5.960139
1.556639
-1.415008
2.659863
-5.754295
1.557748
1.165857
-0.803255
-6.512992
8.057758
-0.332046
8.340551
6.784220
4.463451
-0.040965
-3.136176
1.526940
0.956305
-5.714346
-2.103782
3.674026
-6.743179
-0.895403
5.362164
-5.074668
10.138172
-1.974636
7.224983
-1.084402
-5.442051
0.146255
-4.280525
-5.810337
-2.784708
-1.716289
4.570236
3.501756
-0.227296
3.908540
1.070388
0.199389
-3.410770
-0.013983
1.481162
-1.213502
-5.347790
-0.804616
0.148476
-9.031522
-0.237945
-0.131492
0.432451
-9.617329
-6.892025
-1.609699
7.356755
-4.805815
-0.876897
7.937312
-1.556802
-3.101567
-2.020231
-1.771678
9.422901
1.376698
0.766306
1.692783
11.634353
-0.764351
2.910067
-10.605391
-2.661022
-3.571831
-2.625471
-8.412233
-4.484705
-1.311886
-6.140518
6.136586
0.292118
-6.791641
-3.703839
0.863499
-3.660432
2.330587
-14.375031
0.219173
2.629637
4.242668
-2.473311
-0.504579
-3.845687
6.040119
3.458117
6.630444
-5.721850
3.756685
4.651669
6.414041
-4.040789
-1.112707
2.357976
-0.577555
2.209234
-7.298377
4.390891
3.431956
-1.189000
-3.702393
-0.275578
-4.540487
-0.956142
7.459149
-3.174851
-5.590872
-3.334811
3.467854
2.147506
-5.846386
-5.633409
-4.828165
-0.446997
-1.763228
4.016846
1.803400
4.862567
0.391882
-8.826812
-1.949014
2.557182
0.718662
-9.238044
4.993213
-0.820571
-0.922016
-2.794907
-3.557379
8.942183
-9.468571
-4.905875
-1.968935
4.002130
-0.247834
-1.079648
-2.245820
-4.448426
-10.195856
-7.375703
5.697583
-4.687907
-1.553391
0.201837
6.216912
1.668639
-1.012363
-3.188222
4.061755
-0.909674
-0.408680
4.269907
7.033003
3.767189
-6.166164
-6.941689
-3.968190
-1.643891
0.167696
-0.767638
7.466325
10.064780
-2.674991
-7.349022
0.980719
5.135909
2.077832
-3.573184
1.724374
-8.840696
-1.778835
-9.183109
1.931284
-1.349046
5.955777
-6.505763
6.103839
-5.532845
2.022602
-9.282839
-3.310272
6.733565
-0.709921
1.225579
-0.666302
-4.415031
-1.609656
-1.473694
8.756478
7.566481
3.288454
-5.501987
0.348115
6.161715
2.434527
1.989933
7.170835
7.427652
12.054255
1.276688
-4.193245
-6.757970
1.298953
-5.273851
-4.505400
1.702419
9.568853
-7.154568
-0.429591
-6.875189
-2.302090
4.312928
1.658869
2.923612
-3.449192
1.199068
1.950315
-2.985494
-1.875883
10.020097
-4.512544
5.297486
-3.184870
2.594556
-1.260632
2.636494
-4.844567
2.444932
2.928116
-3.479510
-3.601399
0.225933
0.390478
-3.019732
5.986490
-2.325171
-2.758902
0.979067
2.522424
-1.118451
1.598149
7.778016
4.114023
3.689770
6.111827
-3.169249
-3.197989
-0.647246
-3.139696
5.302252
4.568946
8.103467
5.494436
13.181361
3.617645
0.104787
1.882598
7.043892
6.404868
0.054330
-2.960923
-2.215863
1.088762
3.812852
-15.336057
10.914180
8.796836
4.578847
-1.990314
7.000732
-5.342442
-3.073767
-3.091500
-6.256174
1.361737
-2.014866
-1.427994
-1.045751
-6.545349
-0.661800
-10.640035
-1.742608
0.265199
-4.958661
3.497230
0.039392
8.239298
6.952961
7.111710
3.294051
-11.421974
2.406471
4.435000
-7.416610
-3.157050
6.121632
-1.714998
3.234871
-5.749004
3.102334
-2.643736
7.832182
4.946101
0.368662
-5.242477
-4.875976
-0.718875
3.208742
-5.423151
-2.916776
-1.972014
-0.136929
-0.311261
2.797627
-2.368566
1.588851
4.681158
-0.351354
-9.831415
-3.552402
-1.263598
-8.048457
6.120161
0.765175
-4.596074
-2.330928
-1.506706
3.450125
6.101570
5.650976
-3.488892
3.043037
10.257197
0.611517
2.896308
6.856314
9.134023
-9.265539
-1.660110
0.389903
-4.730572
2.969399
-1.900762
-3.561585
7.217095
10.710471
-1.033294
7.569908
7.802887
-3.607326
3.106695
-0.225410
5.015044
3.458254
2.902803
0.733227
6.090280
7.365001
-15.287317
-13.164629
-1.650399
0.941098
-2.865016
-0.003168
3.734871
-7.246873
-0.072529
4.109234
2.083402
-3.226165
4.204599
3.986930
-3.204506
-3.403872
0.267494
-1.290935
7.370741
-12.722963
5.076362
-1.235508
-3.611266
3.815068
5.410663
3.632204
-6.255894
-5.299672
1.213640
1.401586
7.233092
4.425737
-1.645407
-2.210019
-0.425064
-4.229292
1.843535
-3.197407
-0.092914
-1.403773
-4.863394
-6.089990
-3.942076
-5.714143
1.807087
-3.581119
-1.545400
-6.957838
-12.321648
-7.190295
-6.017254
10.150726
-1.915087
-9.989486
-2.454779
-8.052420
-9.824221
-2.442787
2.523127
-4.345098
1.252621
9.305586
-0.189838
-11.404072
-3.890989
-2.332279
2.940049
2.111242
-5.628476
1.235957
-2.510515
-3.960205
-4.843083
-10.550853
-5.802267
2.652362
6.195923
4.115039
0.608765
11.307004
-5.624891
4.780905
2.241837
-1.329756
0.568075
5.585008
-2.861594
0.206016
-6.611945
-6.847915
3.343057
2.513059
-2.944634
-4.152862
-6.190678
2.508170
-4.244674
3.602992
3.050635
1.131983
0.092488
2.388373
1.658126
0.175686
-7.425944
2.264564
-1.899498
6.107826
4.111874
-9.938588
5.524275
-7.418723
2.342599
-6.875335
0.143064
0.898100
2.894659
-12.543136
2.300685
-0.221737
-7.444023
0.170517
8.763765
-8.040672
2.280079
0.350991
-8.534864
8.392722
-0.916309
4.665225
6.019638
-0.591570
-2.811163
6.576399
-7.680843
-3.725941
2.873329
-2.201787
-2.621796
-12.517957
-3.318841
-4.122528
2.139888
-0.023106
-2.979680
-5.425775
4.564287
-2.057071
-8.916444
2.855405
-3.797840
-2.015450
1.319373
1.321749
8.919018
-7.594890
6.409697
-1.526695
1.395242
-5.493979
-1.642365
-4.101239
3.518946
9.954738
-7.681892
1.889253
3.834029
-2.597519
-3.101025
-7.971842
0.017490
-5.246977
-0.672343
0.992662
-1.336209
-0.074203
0.439662
-4.296678
-0.199718
-5.699848
5.960042
-1.696048
-2.490078
2.360770
6.156575
-3.919752
5.364924
-3.100135
0.537892
5.277329
-4.304943
-1.290789
1.119253
-3.158526
3.840193
3.156654
-6.700475
8.389300
-4.263239
1.835088
0.150249
1.932604
5.900044
-5.275936
-5.755856
8.449857
-11.791834
4.071649
9.357391
-1.860531
0.976887
-7.722440
8.783246
5.181638
-4.913021
-6.851344
3.041497
4.953227
-0.988701
-3.013049
-1.757708
-0.594758
-0.170288
4.344564
-4.778891
3.015855
0.257437
1.934482
2.051132
1.878367
5.629326
-8.080072
4.861372
1.092015
2.734271
-2.021773
-3.714439
-9.407358
10.456570
-5.634423
0.805572
7.473493
-1.376819
5.500767
6.879371
6.008133
7.817282
9.003679
-7.380920
3.795927
10.618402
-5.632525
4.441670
-10.389145
5.864809
-5.350099
-1.498117
3.970511
-11.002244
6.539203
13.213855
-3.933538
0.207890
6.486084
3.619487
9.065365
1.259678
12.918193
4.350320
1.026423
0.712395
-3.160155
-3.998297
2.385875
-3.760660
2.587777
0.668171
-1.685631
1.346284
-4.781748
10.209494
5.999433
5.186002
-2.437827
12.379790
8.059772
-1.352231
-3.388098
-5.230518
-6.253570
-6.802474
-5.278680
0.194824
3.803999
-6.384964
-6.650052
-2.184053
-0.882550
-4.856109
5.241309
-4.843382
2.329808
1.304748
-6.918626
-4.417861
-1.370254
9.803763
0.413883
-0.256154
-4.166326
2.781700
-0.855067
-5.909915
-4.248390
-3.812994
-3.317162
-1.646599
-4.254464
6.401457
5.372185
-2.970595
3.852338
4.596268
-2.367649
1.878386
-0.621982
1.783678
0.506333
-0.122982
-1.293261
-1.967368
2.053914
-7.658514
-1.427067
2.399214
-8.150637
-2.628613
4.124482
-3.032536
-2.018855
7.728131
5.607969
-2.491516
0.075838
3.374975
-4.146270
11.819056
-1.767306
-2.819996
-4.435251
7.294523
3.971515
-7.123996
-6.304384
10.723175
1.595105
-4.042012
1.611341
9.728069
1.298318
9.053286
-4.052182
-4.682878
-3.471098
0.712612
-4.734760
2.605539
4.789873
4.927943
3.921039
-6.164267
-6.348554
12.982043
-2.879214
-0.206105
-5.055979
5.418906
-4.652234
-2.770624
-4.442140
-4.164764
10.120369
4.475195
-5.769068
-0.299612
-4.020966
-0.150134
3.774276
3.824880
-8.250003
-12.941413
2.130512
2.130693
11.054601
3.138832
14.220514
-2.864647
3.345122
1.428677
-2.625321
0.793484
6.057014
3.864926
-0.857312
-3.537618
-5.161755
0.419898
5.219290
3.024433
2.635332
-5.067461
4.298189
4.373604
2.468523
-5.431072
2.010127
-6.878046
-3.601113
2.717609
-7.486212
1.004334
1.273468
-16.190550
-14.449568
-2.268702
-1.554274
5.852488
0.694940
-4.158080
0.019459
2.259898
-5.589848
-1.956968
-8.528182
-4.236151
7.348394
6.311688
1.480081
-1.630093
-4.726115
1.770563
4.722367
-1.636163
-11.442253
-2.232108
-6.251384
1.958694
1.146054
-6.154328
-2.506222
-3.103023
-0.519771
4.001013
2.358966
4.730182
-7.439557
-3.002895
-1.102466
2.431978
0.166165
2.767174
4.007479
-2.586518
-0.453757
2.191426
-3.006451
-6.332301
11.291760
1.179970
-0.751745
5.490944
3.227640
-3.813353
8.044002
0.783647
2.516770
3.441499
9.606525
-1.471662
6.543934
-0.362269
0.859734
1.111117
2.460070
3.821949
6.547595
4.353400
7.878641
-6.899464
5.466551
3.534127
2.759656
9.197650
-1.327709
-1.752663
16.512122
2.553432
6.008143
6.328739
2.282867
3.045363
7.817490
3.299620
1.400396
-7.682675
-3.973277
-4.718719
5.900698
1.344932
-5.709180
-9.634077
2.022690
-6.396797
-2.137435
4.706199
-3.958068
-1.772698
1.273078
1.108164
-0.622654
-0.619361
-1.583961
-9.285548
-4.054150
3.334003
-5.761008
-1.333385
-0.221040
5.429410
-3.572499
4.490224
-1.813660
-3.617307
3.250104
6.949600
-2.105991
-1.993780
-4.699434
3.056741
-4.222457
4.455412
-3.420880
8.478196
1.389583
4.843409
5.172231
10.630244
9.514254
-3.646424
1.596419
-0.293749
-1.700711
-3.617124
11.903820
4.119609
4.092581
-2.361188
-11.016805
-6.424743
-1.133787
-1.917281
-0.712484
1.790540
-11.118227
-3.806988
12.305687
-0.223454
-11.562427
-0.933446
-1.683424
-5.950870
5.063068
0.286874
5.750737
5.346331
-4.579471
-2.180586
-6.886935
1.599408
0.876738
6.315193
3.310977
8.600247
1.872948
0.365957
-2.967314
-11.201938
-6.886185
4.938332
0.305942
7.616749
-3.434092
5.005806
-4.304111
-8.164429
-0.580163
-1.910685
-2.712991
0.128807
4.657339
-1.136615
-0.328524
-3.299015
3.909704
5.388455
-8.012800
-3.901422
-8.578953
5.325685
-2.829509
0.773419
-5.084795
-0.204998
0.024535
-3.776122
2.971109
8.514951
0.686284
-1.061149
5.088872
-3.225106
1.124796
6.795938
3.792531
-7.222429
-2.699970
-4.112944
-1.112707
2.139740
5.161029
1.713386
2.491505
-3.471349
4.639593
1.080198
-7.408986
11.251095
-0.580123
-2.387180
-3.459510
0.917914
3.083753
3.064827
-0.719420
1.931021
-5.569744
-7.242580
-2.832785
1.863397
-1.212950
-7.928395
6.968283
-1.694618
6.333606
1.740436
3.237609
2.137787
-0.580197
5.022796
0.073756
-4.895962
-2.078028
-0.588494
-13.352871
4.807125
5.208266
6.047626
-7.332907
3.988914
-0.900270
0.194583
8.951480
2.447129
7.400960
-8.011866
-6.765169
-2.569414
-2.226291
3.813198
3.814932
-5.679796
0.681331
-2.653484
-2.171425
0.061279
-4.081963
0.446719
-1.431082
7.920385
7.219068
-1.990001
9.569353
2.046719
-6.663123
-3.863219
-1.469059
1.525771
14.896969
-11.245362
2.251317
6.463052
3.659813
2.062578
-1.536024
-4.148079
-1.536617
-11.667603
-4.559361
-4.920400
1.151320
4.860774
-5.682871
5.037823
3.763160
-6.606892
1.681321
5.626069
0.529818
6.182738
7.289387
1.643310
-4.694803
-2.488693
-4.501901
-3.949984
-0.061520
-7.978780
-6.218963
-1.005563
-2.189030
-4.554550
-2.242708
-1.861217
-3.559610
7.416716
1.238085
3.104744
0.034037
-0.215519
-1.617074
-1.448678
3.982092
9.948092
-1.299281
-5.712555
4.649588
6.108325
-8.351813
-3.907900
-3.907473
-0.211236
-3.659256
3.490155
-4.173769
-0.582288
-2.358910
7.748442
1.413814
-12.437098
-3.106410
6.492993
1.399117
-1.123826
-0.650317
6.930110
-1.776765
4.137651
6.031257
-12.634313
-6.663660
-1.422921
3.097596
0.523261
-8.357897
-3.426100
6.718879
-0.595491
-0.012952
-1.738971
6.387413
4.710010
-3.413653
-5.127242
4.962521
1.701272
5.052431
2.299312
-4.367309
-3.469774
2.847396
7.635201
5.666628
-8.484935
-1.191514
0.510301
3.691029
2.993296
-10.056794
-12.261126
6.912481
-1.047090
1.098740
8.880456
5.693629
-1.548349
0.922453
-4.271305
-7.946435
0.528790
2.439644
1.497310
-0.512820
-9.577299
-6.118039
1.818221
3.026056
5.519269
4.096665
-5.924886
-1.158545
-0.150141
8.926942
4.620274
-1.329701
-9.703742
11.293899
5.506918
6.471126
-5.742760
0.481330
-4.420964
-4.062569
-2.918499
5.536704
-1.729983
3.185159
1.443185
-3.307549
4.606575
-5.304022
-0.780044
4.459195
2.057074
4.488463
-0.065149
-5.383232
1.856096
-3.812739
-10.865257
6.867149
0.599113
-6.034480
2.103931
-4.636983
3.778845
-4.556296
5.030381
0.627611
1.576712
0.575139
6.374843
0.627252
-2.222569
-7.573804
4.372971
6.046506
-2.795129
4.081894
-0.391428
2.576490
1.127152
8.642472
-1.563238
3.982714
-4.385635
-1.584735
-11.666965
-0.148087
0.194656
6.355262
2.217741
8.980830
2.837842
-1.041107
-2.391659
-4.817012
-2.319014
-8.076384
-6.967678
-2.833249
2.289940
5.507353
0.690793
-2.501915
-1.612714
-0.673599
0.880300
-10.398056
0.110839
-2.199553
5.188411
5.539989
-3.097500
2.564215
-0.122472
1.442627
4.159623
-5.246506
2.276083
2.625653
0.481032
3.809933
4.438107
3.829542
2.772128
8.103958
2.549813
-6.107960
5.281840
-7.435474
-0.862128
3.124189
7.656097
4.158370
-8.264533
2.942683
-4.833573
-6.669687
-1.109220
5.766104
-6.755550
3.698536
0.590569
4.222448
-6.961743
9.039247
2.662902
-1.763823
-5.155096
6.477370
4.199244
3.194128
3.755792
-5.064551
-8.045975
-2.153184
-4.365844
-7.303687
3.183649
1.856575
0.386385
-0.497339
0.311558
-7.957159
2.831920
1.571970
-9.049357
4.671936
8.496667
0.307633
-0.226726
1.706200
-8.038586
-11.219598
-5.760058
11.264665
4.986878
8.565674
-5.604941
5.632605
1.007007
0.138830
12.973277
-8.242731
-3.841524
-1.463388
0.359526
-1.944604
-5.549895
7.145065
0.904243
-0.504825
13.414707
-4.535792
-11.651320
-0.882394
3.348759
-1.568559
-3.601680
2.425572
-8.665996
-2.034179
-7.028753
5.577437
-1.139655
-1.943451
-6.495097
-1.290868
2.239207
2.512661
0.119654
-4.625649
2.186119
-3.164330
-5.528599
10.470199
-1.248751
4.926830
-4.412367
2.756318
1.851987
7.456193
3.160370
9.944566
12.206742
-0.624080
10.186697
-1.150110
13.869878
-9.680184
2.250252
-2.256829
4.205337
6.802781
3.713998
-0.547769
-4.443564
-0.288225
3.339031
-2.651906
-8.999463
-7.375388
-8.476570
-2.571293
7.492157
-1.716475
6.201778
-6.181588
-0.556680
-5.632789
6.902819
-5.668182
-0.173827
0.083814
-1.278512
-6.179895
-0.507920
2.745488
-6.193004
-8.301118
6.142979
-1.214756
-4.579781
-0.194772
-1.568245
8.781098
0.817129
-5.775708
0.415798
-2.944266
9.013344
8.006697
0.920238
2.515856
7.178131
4.158308
-2.655795
-2.770769
4.489497
-6.107377
2.960536
0.321273
10.349791
-4.486481
1.324255
3.575710
1.509019
-1.867495
2.256210
2.779647
-6.093690
6.355134
-0.906420
-0.868333
15.505958
7.971242
-4.584492
0.059301
14.700160
3.825952
-3.110112
3.656709
-1.447862
3.912450
-1.484285
-0.895712
-1.261303
-7.583295
-4.842786
3.677808
1.320967
3.691843
-2.606010
-1.215484
-3.916964
-6.578126
-10.001250
-0.001391
-7.854195
3.414927
-3.178513
11.430224
6.095094
3.444693
-8.054662
4.036812
9.065390
2.150514
-2.702687
1.361454
-5.964553
-2.481326
2.217697
6.380151
-0.066726
-2.811972
-6.072622
10.519833
4.563933
-7.421092
-1.943051
2.615967
0.827966
-4.283385
12.764118
-2.192891
0.594360
4.371354
-3.242689
12.479847
-6.199223
0.894562
-8.054590
0.291639
-4.414693
5.276094
2.984564
6.352855
5.585840
-0.260512
3.704394
4.830787
-2.198583
7.637142
-12.229865
-4.056150
1.804480
-1.287721
0.026586
10.296044
5.965631
-10.366133
-0.469606
0.823212
-3.362096
3.418567
-7.056182
0.653955
0.626395
-2.375120
4.882136
-6.898363
2.601919
-4.846296
4.717009
-0.511912
1.096539
11.021162
-0.184777
5.993578
-1.159508
-0.256396
-0.289850
-2.887051
2.051515
2.474306
-4.376678
-0.869751
1.055568
6.199823
-2.627572
-1.888340
6.434736
-10.756601
1.145734
-2.175038
8.455726
-3.438771
9.817143
0.221490
-6.245443
0.767454
6.188878
-2.512856
-7.380209
-0.599219
3.389593
8.401826
-1.176266
-5.270804
0.634060
-4.332707
-4.708836
1.972073
-0.456308
2.716747
-6.285518
-1.078807
-8.570618
3.053430
1.970288
-2.473066
2.529958
-2.861602
6.717760
-0.109977
-1.899017
5.162266
1.313047
5.126211
15.840325
-4.955864
0.808024
-9.012430
0.541385
-4.090335
-1.967407
-5.119952
8.728042
4.265637
0.933606
3.010917
12.085356
-4.764289
-2.498784
-2.980254
4.864455
-1.570326
-3.826903
-8.442473
0.780103
-3.274234
-1.881221
-3.911689
2.995592
-2.117551
1.658831
0.453117
3.383818
-0.323973
-3.689589
0.493467
-7.185061
-4.398610
-0.638851
-1.623594
4.937545
-2.507860
-6.131882
-0.822681
-2.598243
5.231297
-2.907265
-6.883017
-3.158986
-1.582019
-12.014904
-2.337977
-2.649671
4.526559
-2.319407
3.543137
-0.978312
3.708516
-3.599914
5.051211
-1.436922
-1.812176
6.055673
9.166570
-11.830873
0.159028
-6.418878
-6.196151
-1.996112
3.099449
5.056941
-5.420392
-12.916088
3.208361
-2.580030
-11.080591
-2.985888
-3.129231
-1.754457
-1.937910
4.236067
1.816203
-0.367958
-2.298833
-1.038162
-2.298154
6.129194
-5.653321
1.948721
0.781365
-3.202531
-1.558499
7.546668
5.000378
-4.758514
-4.821507
-0.086218
-3.854036
-3.792025
7.429444
-0.797265
0.970174
1.104478
-3.463324
1.959443
8.461431
2.862618
3.913293
10.043336
7.037449
5.913804
-1.915184
-3.481613
-3.077627
5.777404
-1.664671
3.651870
-8.054732
-3.417319
12.314851
4.173915
0.629338
-3.999987
0.413071
1.984647
6.694185
0.677576
-5.346498
7.251156
-4.399925
0.263697
10.665505
-5.006256
-4.210530
-1.768862
1.975447
1.120203
-7.103758
4.503846
-3.560508
-3.670076
14.367566
3.960857
0.090334
-8.370511
9.115957
-3.887676
5.459328
-0.522237
-1.365271
3.181788
0.227278
0.616331
-2.015813
-3.573992
-10.119917
-3.736836
6.744010
-7.276255
-5.705423
10.561574
-4.068832
0.830202
6.595627
4.808720
-10.564204
6.765403
1.478449
-1.698327
5.321326
13.190556
-0.117843
-6.946042
0.244361
4.441913
-6.546491
2.020469
-0.806650
1.147656
-1.167894
1.991605
0.831710
8.175150
1.600781
-3.126662
1.642233
2.284445
6.443135
0.988342
3.547748
1.844112
1.063682
-5.002110
2.517181
-3.293436
-5.050647
3.693508
6.753578
-3.658863
-8.551787
-6.528504
-5.629979
10.053754
-0.167401
5.440808
2.949709
-3.537006
3.805231
-2.339841
0.667904
1.765776
-1.061241
0.500610
8.239895
-7.758573
-9.943636
-5.125317
-1.954802
-13.815162
-6.901483
-3.470111
-0.231728
9.320064
0.092416
-3.424743
-2.373600
8.667935
-3.534044
4.208611
0.950739
-6.008737
1.366392
6.823343
5.559812
10.376844
2.326831
0.062911
1.018072
-2.485228
-2.075968
2.368133
3.158281
3.848156
4.347345
3.598364
-2.194207
-5.811559
-0.046327
4.806878
3.322323
-9.338303
-1.579734
-4.085524
0.646983
-9.525139
3.553759
2.652395
-8.876014
3.491190
3.388601
2.736420
-8.645134
6.489038
5.422014
-1.542691
3.228099
-1.171321
-1.515420
4.819179
6.600069
6.864603
-2.776320
4.123991
7.601777
-3.052778
-0.774238
2.707884
-6.954067
-12.120982
-6.383828
-2.850402
0.220865
1.774358
0.262773
0.166897
1.548592
0.836014
-0.560380
-3.841367
-0.348850
-6.641113
3.877507
4.750805
-3.040752
8.576312
4.297661
14.194883
-6.238017
-4.021600
5.503136
9.713945
1.213483
2.827131
-4.634426
-1.522895
1.695969
11.751010
4.542282
-0.724524
-2.880309
0.345320
0.839626
-12.871361
-4.019577
8.181416
4.219084
-1.021805
-2.793333
3.574483
-0.560963
0.635544
5.692154
0.226660
6.760972
10.120156
5.231489
4.284388
1.531582
-4.397589
-11.384246
3.521894
-1.019100
2.887108
1.300669
1.941611
-8.654760
0.851302
7.325926
-3.146151
-4.694740
-2.265343
7.515265
-3.611706
0.857797
7.746254
-8.552234
1.313671
-0.573968
6.024120
3.800463
5.554913
4.075008
-1.664841
6.972355
-2.110090
-8.565321
3.427713
-5.181451
-5.216915
-3.235510
4.527030
3.201493
-1.674302
0.631435
8.359530
-9.317079
-4.446756
5.725311
-4.669204
3.051378
5.609088
-1.872444
1.354480
3.364339
-1.251501
-3.364565
8.489111
-0.501047
-7.199749
2.582712
-6.002042
7.502815
3.086800
8.086789
6.141836
-1.508095
-2.123015
-3.954852
4.910698
3.670727
-4.450345
9.431926
0.578467
-0.583789
7.356248
0.434143
0.286036
2.705488
0.750509
-3.573189
-3.301685
6.104521
-7.352998
3.721983
-2.512988
-4.535209
-1.078489
1.164261
-5.435151
-1.200180
9.726990
-2.460152
-1.318278
-8.416339
2.253588
-3.454483
-0.720148
-2.637802
9.188410
-1.107019
-5.906213
1.874898
3.227766
-2.528661
1.431714
-6.680497
-0.634532
-11.608846
-2.977216
-0.796670
5.036643
0.023103
0.546552
6.117008
1.863897
4.965210
-1.566437
-8.641983
-5.720977
6.441124
-1.935931
-3.008922
-2.748221
10.840663
3.520181
-1.694243
2.021025
-7.997644
-4.047653
4.531506
-7.785595
-2.911850
-1.659906
1.970787
-4.239527
6.452031
-0.619163
13.261630
-1.151419
-5.229912
-5.548641
-7.391007
3.250292
-2.174311
5.332233
6.686227
-0.368454
-4.194217
3.435017
-1.138842
-8.304686
0.653610
-2.987422
2.983890
4.771635
1.945228
-6.135982
-8.517485
5.302726
9.597030
-3.047073
-2.694140
6.914749
-0.334906
-5.116326
-0.535696
1.043737
7.454859
-3.408717
5.294405
3.331495
-2.147957
5.069543
7.689713
-5.599067
7.404128
-1.056068
3.096451
-3.181348
5.937070
11.626309
5.355370
-2.035816
-12.207199
1.408234
0.491117
1.322845
-5.167087
-5.865385
8.342957
-0.653473
-4.770206
-3.974639
-1.781568
-3.106740
-3.990740
-0.293275
3.606144
3.516396
-6.459617
5.990068
-6.629488
0.029190
-5.408564
-2.199159
-7.506434
1.391389
5.079610
-4.697997
9.492127
6.639090
-7.387957
4.277864
-0.973276
5.930611
-1.581506
-5.809181
-2.960897
-2.120758
12.044357
2.805274
0.097153
3.638130
1.153134
-0.905211
6.979691
-3.718009
-7.884138
-4.031693
12.113956
-5.465452
1.402519
-7.649328
-4.021538
-1.172611
-4.097968
3.186711
5.695205
-0.781639
-0.688575
-6.026895
1.936099
4.676077
1.093973
-17.066545
-3.871578
0.990832
1.424231
0.585758
2.916212
-1.703888
-7.359554
3.701044
3.570277
-2.634376
-2.856552
-1.882452
-2.437494
4.500185
-6.566899
5.959586
0.432701
5.127590
-1.274144
7.102200
-4.371985
3.507801
8.031899
1.858565
-5.559607
3.651327
10.244967
2.097404
-1.079814
3.901517
3.953363
3.133248
4.337170
-5.763960
-0.183037
-3.108259
-8.939789
1.461055
0.562869
-2.541430
-0.866004
11.503293
7.414651
4.635292
-4.380889
4.074746
2.094426
11.077856
1.943927
1.225232
-3.789741
-0.802866
-6.719124
-2.126463
-5.660744
-7.295140
-1.361781
6.854890
1.867594
-3.850193
8.991826
-0.997983
-8.423151
0.631664
-7.519415
-10.349340
-3.541458
-8.569885
0.135363
1.687445
-9.727257
4.160319
0.834905
1.168627
2.759064
5.505982
-2.591222
-3.704656
2.201644
-0.101181
-0.702395
3.326512
3.109852
-0.144059
2.036718
4.232750
1.450507
-1.467969
-2.485421
1.156671
-1.387998
13.388185
1.174848
2.146445
11.466615
-6.030329
-2.146274
-8.645550
4.453741
4.797518
-10.782112
-6.802121
-1.401835
7.546913
9.945656
8.057149
5.962379
12.293730
8.313545
-6.220565
4.201286
4.360785
-2.483088
7.995522
-4.494953
-3.024827
-0.523512
1.231131
3.540973
-4.472143
0.037074
-1.565390
-11.539120
3.722328
0.616717
-1.658779
14.687617
2.945695
-0.856886
-5.452236
-10.686384
0.302174
6.353517
-9.724244
4.219668
8.404571
-2.830241
3.793938
1.527111
4.037517
6.718177
2.454125
-8.123075
0.359924
-4.456980
5.490314
-6.595231
-1.556534
-1.365417
-0.481896
3.330554
-5.592586
2.988144
0.737801
1.247601
-4.889718
4.241688
10.312148
-4.760547
-7.240994
-0.553661
7.749621
-2.654492
-11.435484
2.749585
2.472907
-7.872160
-6.341815
0.421354
-1.522793
1.481033
-0.994361
1.377435
-1.462902
2.312917
0.429038
6.820849
-0.391096
-2.522178
6.270703
5.274283
-1.993902
4.053923
-7.216227
1.695251
-4.817514
8.849887
-4.688782
8.676203
12.614276
4.530697
-5.770046
2.974172
0.276348
-0.012347
-6.996176
3.216079
2.546543
-4.218252
4.669073
3.836505
-0.505656
1.171945
2.672871
8.366883
2.427170
-0.606312
-8.468825
-8.265657
-2.781155
-4.040554
1.777544
-3.441204
8.204701
-3.100716
4.047068
-3.874721
6.472684
1.586958
7.159135
-0.495602
1.382073
2.690230
1.682844
0.297022
0.798749
-4.281604
-5.367186
-2.817275
-4.633450
3.720584
-5.814928
-0.336824
-0.964038
-4.634309
-5.339933
-3.104967
6.867902
-1.978921
-1.968993
-3.431065
2.727128
2.252965
-1.391924
6.820837
-0.727889
7.380042
-6.729509
3.767944
4.137119
0.824691
-0.331065
-7.283766
12.227935
-2.685745
-6.320727
-0.528754
-6.776357
-3.219474
1.909910
2.269062
3.256011
0.633015
-1.071638
1.238838
1.295237
5.674501
3.086563
3.463792
-1.368047
8.602202
0.584805
-6.953117
13.038686
-3.315734
1.075774
-2.582178
5.888446
0.413453
-1.896494
-7.229365
-2.316480
4.394154
-1.718181
-2.769480
-1.721463
7.582523
3.660509
0.977121
1.919393
-1.369982
0.090814
-3.874179
-2.583369
1.055851
-5.038455
-6.269405
-6.401189
2.395975
-4.725795
2.244841
-10.181466
1.261506
7.013415
12.807152
-2.967651
5.580028
7.183106
-3.916859
-1.976529
-10.577927
-4.091805
3.688153
-2.931151
2.380354
-3.826532
-11.174924
-1.928374
-6.137273
2.857117
1.982719
-9.612782
8.156847
-1.457638
-4.566919
-1.441213
-8.707890
-5.687454
4.199393
7.650821
1.114642
0.607349
4.404034
5.641980
-2.386619
1.121169
-8.732477
4.629928
1.764669
-10.111447
-9.551102
-11.503229
-18.724537
-6.907335
-7.296141
16.776436
-0.791760
-9.145379
6.005993
3.122509
-4.041444
-0.518632
-10.802421
-1.643241
2.379388
-2.321484
-2.763057
10.584976
-1.213573
0.039780
2.633628
14.765637
-6.746233
2.776188
3.254262
0.905040
-2.009215
0.860147
-1.579568
-3.709310
0.858439
13.782892
2.222105
1.879445
-2.172635
2.038544
-2.682408
-3.470645
1.605804
6.013176
0.429818
5.449360
-0.058538
1.337986
-1.473425
0.392484
0.191326
5.476107
5.182888
-0.098461
1.060515
0.077144
6.021795
-4.186452
6.315048
2.213001
2.677873
-6.227376
-3.611104
-5.195223
6.163867
-2.631593
0.535465
4.438353
2.202916
-0.701074
-1.108769
-11.010067
1.989212
2.921800
0.895697
-0.938949
-8.022690
5.319399
2.610986
-2.434435
-3.437540
3.975639
-2.468847
7.335674
1.815102
-1.708269
1.650477
10.097635
-2.683438
0.028141
-0.464127
-6.968635
-5.204075
4.105622
-6.338370
-0.728866
-1.303488
1.488477
4.996284
-4.579121
-6.652809
-3.308123
-9.333933
-2.696823
2.685926
2.873224
5.779167
12.216670
3.434365
-0.283949
6.732855
-0.103404
0.299643
-6.635812
1.346100
3.110583
1.742298
6.705339
-0.559777
0.130162
5.577031
7.306532
2.094547
-0.786260
-7.829884
-10.554034
-1.393219
-2.874259
9.967585
-1.923752
-3.139853
1.334069
2.665275
1.976385
0.060877
-2.752598
-10.001856
4.510072
-0.399245
2.284350
6.114517
-2.583753
3.793319
4.678159
-0.686296
0.291342
3.045314
6.852995
0.052046
6.155447
2.258620
4.299724
1.235910
-1.240253
-6.921081
3.192932
-8.836803
6.641201
-1.243540
-14.452289
7.708756
4.743227
-0.447106
-2.421426
-2.137950
5.867655
1.284876
-1.257796
4.572663
2.580338
5.815469
0.206487
-0.085263
-2.348922
2.735163
-6.388397
-4.459379
2.224689
2.339739
3.629031
-9.267169
-2.686532
-0.606266
11.543447
0.524830
0.672048
9.229340
6.852438
3.347674
-6.167918
3.506322
1.972611
0.318458
9.634489
-7.815438
2.394900
-6.140480
-4.839013
3.436906
-0.350689
-0.072342
0.411098
0.659292
1.792747
-0.270533
-5.853874
0.546968
0.995036
1.027434
-9.672973
-4.905198
0.984153
-7.446052
1.094015
-4.028812
2.427337
-1.621764
2.140941
-3.666811
-3.294374
7.874995
0.303831
2.083504
5.281017
1.833529
-1.613999
9.242559
4.823639
2.669262
-4.366744
7.068574
0.720871
-1.594434
-0.047933
7.558619
5.728105
6.383148
-5.274026
-6.609555
2.169183
0.439346
3.754948
3.496883
-2.996687
4.000734
-4.520817
3.650940
-2.349665
3.942401
2.650180
2.908859
3.898850
6.221625
6.105774
-1.925418
-8.082950
-0.271512
-6.193988
-4.744503
9.497971
7.728254
-0.214835
1.576783
-0.811709
1.075248
2.028923
-2.215874
6.354321
-0.473354
-2.510005
6.265366
6.497890
6.632675
-7.905906
0.521490
0.171375
-6.061713
0.707567
1.380303
-1.497446
2.438202
4.688424
-12.365901
-0.823398
10.249923
-1.488827
2.787556
-6.939020
2.246917
1.863775
0.089257
-0.193133
-4.071820
-0.312252
-1.186971
4.104752
-1.254732
4.452245
2.566513
5.707162
-5.744841
3.350076
1.188226
14.678877
-1.354446
0.928992
9.736992
-0.078295
-5.557744
8.440791
-3.773568
-6.211699
-1.356302
-8.370752
6.578419
-6.790432
-6.168827
5.819782
-3.696600
-6.935397
5.343086
4.866247
-0.601866
-7.853226
6.264504
-1.018736
10.749499
-9.402662
-2.974135
-5.816370
11.463494
-4.081927
8.058862
-2.999452
7.876689
-3.812329
4.279688
3.785656
10.332459
-3.333667
3.937571
-8.121661
0.797459
6.158451
-4.942901
0.917928
-5.702925
-0.046057
3.185416
-5.431500
4.172146
-3.480708
-1.752924
3.709993
-1.049472
-0.581940
-4.986660
3.383156
1.672638
0.033849
-0.461715
5.514299
4.031169
11.400025
2.184303
1.738504
-2.243927
-0.405186
-4.504379
-3.863682
-0.043679
-1.005745
-5.940295
-4.463446
8.465369
-4.278954
-4.687468
4.557464
-7.092433
10.532806
3.304992
3.189380
-3.586544
3.056218
7.005960
3.537305
0.169981
3.463991
1.221335
-5.230775
-4.443745
1.093989
-2.863733
12.901176
1.434232
16.092724
-4.653199
7.446448
-3.530627
-7.888745
-8.091201
-3.756421
-6.745743
1.909218
-5.623519
-4.731416
-11.887309
2.015318
-11.531229
1.437053
-2.785198
-0.270770
-0.435588
-4.972482
3.827570
-4.598213
-8.057249
-1.652664
-0.977420
2.053101
6.605887
2.171289
-6.892552
-3.214348
-4.788702
-0.544530
6.796478
0.627729
3.937620
1.549810
-3.330743
-2.635694
-0.653405
-5.122099
-5.740953
-5.526361
-4.392675
-3.999272
-1.427602
2.570433
5.471344
-1.888808
4.383987
4.224464
-10.988877
1.304906
7.280806
7.606352
-5.120180
2.592522
-4.850938
-6.260247
-4.858087
-5.296499
-1.335258
-3.112559
-1.818106
-3.100141
2.722562
11.890225
0.138468
-3.435164
11.512937
-8.152922
1.434332
4.472781
2.595686
1.536833
0.464241
-7.049726
-4.243161
-6.638734
-1.230972
-5.418375
5.625015
-1.007858
3.808229
-6.622004
7.259595
-9.896459
-0.732187
-0.412116
-8.599308
-1.394409
0.134312
5.501912
-2.040069
-4.355305
3.956239
-1.492599
-0.034857
7.458354
8.677958
-5.215979
-7.881916
3.576891
1.986235
-1.690199
-1.592193
-8.389791
-3.115085
-4.176723
-7.994637
-9.668266
-1.947683
1.904786
4.324069
3.187531
2.616608
2.286431
4.889868
-1.061455
-2.865551
-0.725226
-5.689463
-2.381334
4.427683
-9.114935
-6.221300
7.179943
-0.586822
7.807451
-4.886310
-4.165546
-0.132447
8.049621
-5.621493
-6.302355
1.541935
5.022596
-2.925678
6.892736
-5.172973
-2.400635
3.060444
-4.829480
-2.886361
4.049169
1.168567
3.841295
1.272491
-1.157517
4.849383
-0.787758
-4.139623
0.701634
-1.176071
-3.091261
1.657246
5.087375
3.010325
-2.680277
-7.803529
4.224377
-7.150845
-3.064666
4.094285
-8.212790
11.760033
12.415948
4.477372
-4.071351
1.893831
8.696983
-4.254786
4.748086
-4.964407
-3.409369
-0.197755
0.086546
-0.453401
-5.004387
-4.324116
3.655825
0.526246
4.279994
-4.289835
-0.538229
1.840193
-2.673810
2.881534
-6.648603
-1.118142
-3.622888
6.173628
-5.038458
0.325072
-6.682278
-6.813697
4.503556
4.201406
-0.098533
-6.438500
-0.039971
1.392167
4.055757
0.137860
-3.240319
5.068790
-5.775563
-4.428568
4.441389
-2.763637
3.671650
4.494889
3.927764
-3.194276
3.324100
0.915011
-3.508643
-5.944820
-5.831961
2.233242
-4.693805
-0.958313
-0.849124
-0.657604
10.778373
-2.114511
-2.418179
4.516610
3.710102
-7.870573
8.095435
-0.355323
-3.801914
2.235447
4.820947
-0.844481
-6.652156
1.116189
3.627248
2.543719
2.858000
-4.132869
-0.550920
-3.057572
4.399652
-3.712291
9.663637
2.370998
-4.283044
-3.456027
0.913341
-0.536726
0.933765
-10.248083
-1.828590
-2.748684
3.660169
1.395034
5.788093
2.087504
8.086517
-0.521871
-0.258037
-5.703896
-3.553541
5.485210
4.764056
-9.275646
-10.760695
-5.925071
-3.032345
5.912674
-0.895251
-3.252379
9.897817
-3.327047
-3.858673
-4.588726
-6.938903
1.950950
-0.085158
6.071253
6.760868
-8.052297
8.553036
-2.324371
-1.449616
-1.562431
-6.354139
-5.883040
3.102259
-2.641307
1.131354
1.442608
12.710920
-7.044031
-5.284163
8.168374
-3.176683
1.826295
-5.391058
4.057907
-0.429376
-1.720464
4.092581
-1.678199
-0.629999
7.485769
4.268780
-1.099012
-0.217171
4.109076
-6.602117
-4.849294
-11.012004
0.785268
1.911063
-1.206793
0.217777
-7.248958
3.168074
-2.466978
-2.826689
-0.627130
3.145789
2.291351
-1.232509
-8.003369
-1.379662
-2.598029
-6.398646
-3.156977
2.779162
2.721949
2.682921
-6.260109
3.249924
7.649821
8.359347
5.070210
1.511728
-3.239576
0.004586
1.660333
-3.298023
-5.550055
-5.754777
-8.650114
0.437014
-10.846121
2.441928
10.713647
2.884906
-3.053425
7.289904
1.339464
-0.286363
-5.093272
7.034395
2.514210
-2.365263
-1.553516
2.285765
7.671408
-7.421833
-3.119593
-1.357882
4.156063
3.039911
3.480133
-0.299163
-3.354551
-2.962755
2.337440
-6.108340
4.809089
-6.834362
-1.488467
1.540199
-9.793948
8.688634
10.328330
-4.637311
-0.901436
4.104432
3.161706
-0.222120
-0.514173
-1.471561
9.374618
0.797868
4.277518
4.697320
6.319838
8.026869
-4.089040
4.736661
-5.930205
3.553591
9.650818
-2.626423
2.059983
-5.397648
-5.432758
-7.561932
5.598834
0.515663
-1.904321
0.448784
0.438212
2.243340
-8.346659
-5.229653
8.875076
5.351059
-5.734522
2.041857
-5.350413
-5.865315
-4.415021
-0.052314
5.791684
6.441287
-11.224847
-4.205725
3.453851
6.631656
-0.129335
10.290932
-8.294336
-3.845833
-13.754546
-2.841292
9.924413
2.978731
-0.882232
6.969975
-1.944673
-3.027503
-3.154128
-11.072257
1.027858
6.811776
-2.185294
4.204142
2.977942
0.302464
-6.222102
-2.012461
6.411055
4.814193
-6.803650
4.629920
2.844556
-2.193620
0.778409
0.643549
7.632147
-5.024539
9.516250
0.794825
-10.727009
5.566683
-3.749228
7.443644
6.942232
1.087609
6.046275
-1.843070
4.934400
-1.422099
5.258169
-3.000700
4.373482
3.460624
-2.185773
-6.048584
1.054823
1.124227
11.205264
5.427769
6.542857
8.139054
-0.734128
2.837582
-0.917938
-2.201846
2.206322
6.436775
-0.768588
-1.495784
-2.470198
7.334323
-0.784889
-3.388038
3.245893
7.023920
-6.714521
0.231791
-11.157824
4.305910
1.047048
-1.897259
-1.958856
-0.359121
3.683021
-0.424535
4.504673
-6.446469
3.949402
13.838957
-2.150690
5.943321
2.251265
8.206003
6.965233
-3.316562
-1.911574
-11.208027
6.993839
-14.226149
-3.159790
-9.049625
-1.086251
-5.531614
-6.242083
-3.036428
-7.389403
4.844659
-0.359287
8.132152
-3.832383
2.266114
-0.066837
0.413768
5.807617
-2.392962
-1.321214
-2.622246
-5.797835
2.753063
4.131410
0.495979
-5.485274
-3.729044
6.777517
-0.508814
5.645932
2.494785
1.598851
6.023951
10.131292
-3.910762
-5.315652
6.688060
4.116805
0.488696
1.961598
-4.118064
-9.139242
2.051769
3.841419
3.955638
-2.171527
0.397458
-3.861247
2.309036
7.313548
5.918283
3.819757
5.763714
-0.630466
2.476992
4.590946
-1.294884
-4.328008
7.581084
2.796094
14.862174
5.283055
0.106234
-4.824980
9.981921
0.229401
-9.080863
1.974284
-5.532882
1.028998
-0.516241
3.077910
0.248295
-0.844304
-3.290156
-2.155958
-2.214649
-0.191380
2.734308
-11.047868
2.947679
5.074884
2.931533
-9.250714
-1.314316
2.455964
2.209209
-0.989311
-3.683114
-1.082320
-5.333032
-6.388395
-1.582183
3.668239
6.855422
8.162661
1.751258
-0.930230
3.000827
9.565433
-2.563920
-2.765243
-1.241033
4.585658
1.306870
-2.350236
1.441507
4.264128
-8.656208
1.544405
6.640305
-0.900201
6.116103
-1.319902
-0.963299
0.251975
1.388096
-4.075616
-7.526708
3.019200
-4.270478
0.746697
3.489671
6.989967
0.640064
-0.610878
-1.612696
-1.563401
-7.137994
7.071749
2.411249
-3.474445
-5.159818
14.264853
9.079595
6.811997
-2.863088
7.476719
-0.948233
-0.031763
-0.597423
-3.215693
-4.586157
7.230511
-2.208880
0.163117
3.818800
-0.507202
-3.629942
-5.205249
2.022727
3.958833
-4.365386
6.434382
-5.057579
-4.492965
1.724368
-0.850661
-0.547068
-3.937782
4.360143
-4.827574
-0.328375
1.724498
6.305502
-3.938237
-9.677332
-1.733873
1.156189
5.320083
-1.689434
-14.172544
8.375971
-1.120754
3.442920
-9.068236
7.186362
-9.978061
-7.388729
1.188363
-6.713360
4.376503
-4.000657
-6.417449
4.270413
-3.070249
-8.613021
-2.123075
2.797064
4.547832
8.694509
1.676887
2.006734
3.807358
3.146744
0.607887
1.710225
-1.042285
5.396639
1.219143
1.127679
0.552002
-3.821695
-2.202103
0.322114
-7.705484
1.087002
-1.843612
-10.762672
-1.122711
-3.114499
-5.255466
2.398820
-4.491660
-0.951569
-11.220316
7.842211
6.123120
-6.594292
3.596882
-5.240567
0.940077
2.253953
-5.016375
8.082695
9.513595
-1.612443
-6.955779
-4.159175
-0.155482
5.758372
-0.940253
1.156911
3.244327
0.701898
-5.672972
-0.810986
-3.522930
-2.771934
0.374843
-2.071286
-2.263888
0.693815
-3.691306
-3.023577
-1.149369
4.610211
-0.881966
2.345739
-5.161092
0.249430
0.397731
10.185277
-2.285482
1.544177
-2.363380
-4.347461
-6.568345
-7.017669
-5.964672
1.409179
4.748773
-2.054512
12.320496
-1.977596
-1.957029
11.635448
13.627065
3.519632
-5.141667
-2.007750
3.910071
-0.358803
-0.889623
-3.754782
1.003803
11.091194
8.236932
2.758548
5.899230
7.958476
1.986787
3.818811
-2.730586
-5.926288
2.952892
0.759457
-0.858826
-4.405882
4.230058
-2.110268
0.145003
-1.934755
3.138036
0.219469
-3.260622
7.496507
-1.861608
-2.545209
-1.795536
-11.924052
-4.021851
-7.264727
-9.998401
-3.755292
-6.489573
-3.543170
11.051343
1.828925
-4.164327
-3.962656
-1.038263
0.962572
4.856990
-2.184654
-2.413438
-0.891299
2.414621
3.255511
-5.602814
3.405110
-6.041915
1.292367
8.494483
-3.582661
-0.590397
-6.204628
3.746858
1.650028
-5.126836
-1.208863
2.886823
-0.868615
6.872730
-0.167845
-4.016402
1.460863
-6.634858
5.302580
-0.968111
3.548687
2.607450
7.724681
1.571094
-5.099341
-4.099954
8.834956
1.846337
-1.775207
-5.437755
-2.694136
5.749897
8.016526
-2.102890
-7.265259
-3.293925
8.997618
-2.164752
-2.523913
-4.399895
-1.043733
-0.959229
-7.015607
0.904147
-0.889492
-2.301162
4.058387
0.408858
6.590588
1.431235
-2.335417
0.615495
9.878614
2.485557
-2.990878
0.414691
4.915454
1.211021
1.493421
4.911332
4.020860
0.080806
13.387848
-6.254163
8.162026
2.383735
-0.516020
1.324510
2.222202
-1.560955
-1.180182
-6.756925
-4.057736
2.343361
3.865263
-8.182135
-2.106948
-4.893579
3.847624
3.367613
-6.202569
2.267581
-3.771580
4.707794
2.409232
-4.860147
-1.268298
2.137582
-5.082299
-9.074961
-0.069873
2.559193
-3.079253
-5.666796
-9.210485
-3.739834
-2.542983
7.069768
-2.610813
3.688527
3.656504
1.647780
7.376283
1.919772
-3.124768
3.593595
-1.234812
-3.411907
6.123238
-4.363939
2.475604
-1.037063
-16.611433
-5.987278
4.122430
-3.285044
6.372385
6.591901
15.273169
3.469941
4.294306
2.412059
-1.149287
-5.604601
0.660075
0.084755
4.017950
7.535896
-6.546372
2.896987
-2.305853
4.445162
-9.733184
0.023603
0.599466
0.363554
7.293674
-3.076560
3.610146
2.915802
3.688835
-0.151544
-1.479203
0.923530
3.586291
2.445838
0.803603
0.605155
6.801738
5.937525
-2.060481
-8.822593
-5.996829
9.038575
12.421074
-3.469724
6.187964
4.343505
-1.275372
2.632575
0.542387
5.584427
3.510843
-9.638351
-0.673222
-8.588951
-4.537710
0.866268
1.128825
-2.200468
2.124476
0.836660
3.228008
2.160915
6.959439
-0.047875
-10.230762
-8.232050
-5.671194
-9.584644
6.324482
-13.302602
-0.572205
-1.226987
-4.420276
-1.404654
-4.636753
12.143023
-0.884893
-1.493940
-6.073113
2.204048
-2.743682
0.897552
-10.348564
-1.023323
-4.960605
10.349846
2.743341
-7.398389
8.065759
-0.554455
-1.597422
1.449167
-7.208469
8.278014
2.546050
2.818277
4.421723
-3.047845
-2.170919
0.008649
0.827091
-2.706687
-0.848322
-7.843665
3.767162
-4.469824
-5.961721
0.468742
-2.262699
-0.547125
0.185670
-0.916955
0.138269
-3.021994
-2.925116
2.084704
7.807433
2.642520
5.099623
-2.413770
1.025965
0.356663
1.008456
4.985323
2.509442
4.446939
1.860243
-0.613107
1.796841
0.395131
-0.057536
-8.232013
1.106834
7.613891
4.546895
-0.167473
-0.719719
13.247022
-0.006509
4.088422
9.181227
8.864495
2.641305
2.162793
8.141542
4.329563
5.971395
2.416965
0.720386
-1.371412
2.705011
-5.336494
-4.989087
-5.842031
-2.944762
6.816509
-1.875434
2.206937
-6.864457
9.063660
-7.187673
6.997633
-0.345157
-5.138146
-8.775633
0.521175
3.426039
2.578048
13.754323
0.375706
-5.039885
2.137826
-7.762358
-0.116761
1.097787
-8.043665
-2.917140
2.149368
-5.151977
5.131235
-5.162545
5.077452
-0.763318
2.411568
-2.162291
-2.316233
2.812804
5.717338
-5.438023
3.476961
-8.519122
-2.092418
5.949287
-7.662574
-5.280001
6.184293
-7.215224
-1.498375
4.916027
2.278787
-0.781649
-9.542917
11.172470
8.860766
-9.808190
-0.543492
-3.259160
14.360340
-2.085604
-7.309585
6.405713
-3.228216
-7.810502
0.905714
-6.849668
2.748968
-1.842813
0.391244
-4.606721
-4.665628
-5.678832
-2.711870
0.977423
1.539019
-2.129855
0.207376
-2.288514
-1.846853
2.287628
-0.148414
-3.863313
4.370655
3.493984
2.498380
-10.789347
1.210712
4.185228
-4.778570
1.636567
-10.947064
3.841560
5.083065
-3.254355
3.125310
-0.462444
9.510937
6.492519
4.084279
-5.510729
6.591952
0.577797
2.868021
-5.162083
3.690158
-9.376608
-7.645167
0.937175
-4.350338
1.046998
-2.132182
-13.373371
-2.595899
-0.305406
0.154855
6.900874
-2.994229
-3.234837
-5.167559
2.827494
-0.755777
1.108348
-4.545179
5.726243
4.783071
-5.738459
-9.091663
-10.237407
3.202771
-4.534735
9.581027
1.997121
-12.289151
1.002105
-8.248709
3.984067
-3.250087
9.775209
4.072575
-2.875527
-8.698690
-4.488996
-2.349468
-2.928327
8.367619
-1.431186
-4.400565
-4.279345
3.208543
1.777595
-2.480080
0.250241
-5.437113
-4.586734
-7.385433
5.652745
3.017327
-5.206306
1.601548
7.253526
2.666738
0.347563
-2.001192
0.142025
1.959833
1.561153
-3.178024
-1.626353
4.272641
0.299226
1.056328
5.214058
1.684819
1.108930
2.669191
10.131306
-1.803239
7.107722
-5.710820
0.097527
-8.990162
3.158044
-2.647405
-1.532833
-0.460078
1.453801
-0.507450
-0.372766
-2.947761
9.349078
0.960007
-4.190542
8.474937
-3.250560
-7.068255
-4.243437
-0.545673
0.802995
-2.272532
0.076705
-1.384180
-3.188781
-3.340033
-0.724083
7.946340
3.966961
-2.050393
1.691844
0.880610
3.327347
-1.336259
-3.059512
1.375813
1.035687
0.309257
3.241659
4.354756
4.289835
-3.099107
5.480202
1.627683
-5.029247
-2.880004
1.403858
1.063294
2.870782
5.205093
-7.885936
3.488562
4.768465
5.691324
-8.741025
-2.164123
2.721262
-2.544886
-5.006982
0.306077
-5.213670
3.230096
1.896923
-0.382343
-1.630789
-5.689972
3.970140
4.293568
10.122125
4.573178
9.083870
-7.364639
0.736407
-1.506687
1.736218
4.835350
-0.948456
-5.032421
-2.172399
-6.335042
5.576369
0.131766
-0.688929
-0.227306
-5.389991
9.801131
1.428324
-0.360814
-1.054551
-6.557082
-3.350251
0.747953
-0.460070
-1.464133
-0.303388
4.980736
-8.813256
-5.240658
2.364976
5.795276
4.281863
-6.256912
-1.310589
0.968894
-3.667098
3.533014
9.270814
-0.546436
4.265569
-6.854572
-6.789941
4.699503
4.455956
-1.444415
2.857681
9.278943
4.258165
-2.592215
-1.513753
4.165956
1.562069
-5.480672
3.821586
5.244658
-1.659080
10.563372
-0.231355
-1.883486
3.921024
-2.626617
3.281455
3.141215
-8.418717
2.778083
5.958716
-14.292898
-5.262222
-5.671052
0.565323
-0.050227
12.127800
4.060162
2.649854
-1.337933
7.401972
1.150747
-0.149203
-7.022725
1.537053
-4.460887
3.657025
-4.344753
-4.130409
-2.520255
1.986675
1.771336
-2.814898
5.519500
1.155624
8.763480
2.449799
-0.842670
10.791882
2.552919
-2.948864
3.494788
-0.141821
-4.189039
-5.398415
1.218219
-1.428880
4.954589
-3.988354
0.203190
0.434767
5.764570
2.346099
-2.629981
1.986005
-5.227274
-1.191588
8.023856
1.381086
-14.456103
6.012933
6.934529
-2.431413
-6.693832
0.011080
2.914634
-10.406452
-6.479128
-2.054553
1.674428
-7.166308
3.208042
-7.480121
-3.341579
6.298095
6.723305
6.321778
10.394011
4.106984
5.744378
-5.826345
7.730239
-2.050188
0.181373
-0.318434
5.921568
-1.114202
-2.630406
8.915096
-3.390464
-6.837335
6.378500
-0.222434
3.849778
8.397830
-0.910159
1.030108
-9.901698
-1.826104
7.549067
3.812643
6.592699
-5.643215
-6.800204
4.140213
1.481323
3.287232
3.236444
-7.440920
8.374231
8.338409
-8.589054
1.318445
1.235627
-1.168950
4.791068
-0.236911
-4.840480
2.437317
8.853938
-4.102771
0.059621
-6.568112
3.804521
4.124305
7.200437
-0.067581
4.542213
0.557283
0.158530
-6.103734
-4.097794
-1.514205
-0.372815
7.053143
9.107821
4.810132
-6.576789
0.901756
0.063200
-4.355108
7.969325
-0.572983
-2.549477
7.544319
-2.867922
-4.764250
-4.566074
4.047873
4.146173
7.638942
1.600162
5.443902
0.404149
2.807214
3.545583
-5.218438
-1.292934
0.670183
-7.649505
-13.961919
-2.275271
-1.609162
0.058260
-6.167552
-9.616222
3.303035
1.438223
-10.556632
4.579466
-1.751333
7.915227
-3.565694
0.050370
0.766232
-1.675260
-4.812216
-4.785627
0.087606
5.244797
0.799942
1.445001
2.124464
-0.131012
-0.434051
-0.743113
8.011416
2.856008
1.496792
1.180371
-2.842975
5.066507
-1.720818
1.355235
0.380769
-0.880120
6.316157
-9.584650
-7.933075
8.745643
-6.599488
-4.876044
0.056075
-4.774999
7.447558
7.065574
-0.261640
-13.676416
-0.113006
-3.431078
-1.876732
-3.472466
3.220812
4.181378
0.452951
-2.161352
-6.873138
-6.728171
-5.909094
0.752434
0.695678
-6.804630
-4.439410
7.012943
-0.789991
1.250579
1.531573
-2.656393
4.372817
-6.316435
-6.807276
3.670687
-4.563357
-9.058037
9.052916
-0.530435
-1.872373
-1.128801
3.464719
-2.546127
-2.813367
-1.799269
5.461453
3.966641
2.407348
-6.265146
2.733303
1.525725
-7.819596
3.731389
-5.758130
3.049067
5.989105
0.497536
4.709652
9.140427
0.108934
-0.269614
6.067200
-6.250438
0.832547
-3.484584
3.611605
-5.341303
-4.988567
-15.292821
1.572992
3.037833
-2.487677
1.094043
-7.836850
-5.313043
-2.585180
1.086737
8.203509
-7.150947
-2.272684
-3.046400
-4.985864
5.237252
1.134866
-11.458372
-4.704701
-8.003314
-3.793542
-8.281077
-10.585123
1.419633
10.961736
-5.321591
-4.578859
-11.653990
-0.444171
-4.763076
2.983044
1.818929
0.558307
0.993561
-0.484574
0.473790
-5.187920
3.802943
-1.472301
8.349640
-1.420182
-3.964150
-3.079897
-2.194943
-12.896126
2.994125
0.312019
3.466834
1.457607
4.051550
4.912111
-2.376687
-1.351385
-0.194446
6.122415
-8.258063
1.858318
-5.777803
-2.798004
2.926123
1.726087
4.767435
-8.239584
-2.745011
5.766797
2.110303
-2.054597
3.432408
-7.330762
4.164774
-6.057696
-16.212425
-6.173130
-0.610625
-10.066887
1.485525
-4.385560
3.710254
-6.380601
5.995742
-0.752826
-2.218030
-3.127005
-3.992026
-0.194145
-4.778330
-1.064341
-10.186431
-0.601152
3.785201
-2.073105
-9.028088
1.101474
0.981233
-4.924145
-6.034998
2.741968
3.858937
8.290552
-2.814412
7.682178
6.291040
-4.497226
3.948580
0.612283
-6.477198
-5.146873
-9.587016
1.734760
1.047217
1.466729
-0.319288
7.180672
3.345086
3.935818
-2.181400
-4.932872
-6.138268
5.716752
6.334210
-11.507956
9.242453
-2.005506
2.696945
0.082210
-1.949405
2.534328
-5.156828
-2.592985
3.920196
-0.037629
-2.445747
0.893398
1.099617
6.456768
-3.167896
0.770795
-0.839805
-8.440975
-5.156661
1.682373
-0.230933
4.262907
2.689601
4.122034
-0.449254
-3.119158
-0.572887
-8.249066
3.241588
4.478443
-0.029312
7.685712
-4.633497
-10.969376
0.529755
7.686241
0.603994
3.232589
2.549159
2.622358
1.772606
-5.548985
-1.358106
-7.272580
-7.413432
2.618867
0.582132
-5.365233
-4.026108
2.102484
2.596195
8.177830
3.905745
5.688921
8.853055
-13.935906
2.989378
1.153935
0.112732
1.617661
-0.900456
4.209356
0.736599
7.991838
-4.699177
-2.621007
-1.684665
4.414073
-0.886738
-3.729891
-8.557114
-4.025312
6.878119
8.214864
5.716421
-2.696030
0.548264
3.567979
10.445674
2.132283
3.988457
0.939209
-0.577289
-13.717959
5.124874
-3.883456
5.547525
-3.133729
8.290475
-6.380506
-3.467291
6.247105
-5.652030
-5.908210
6.759928
-5.242240
4.212846
-3.169042
1.670185
8.789268
0.454907
10.340106
-6.119008
-4.324521
9.886219
-0.441409
3.515742
1.029213
7.403768
11.415231
6.153664
-1.814117
7.552873
-5.352330
0.985369
2.190689
6.848649
-4.066613
4.082314
11.087249
2.949169
-2.330812
-11.793662
2.565304
3.195510
-11.153697
-7.825361
-7.447201
6.212848
4.441138
-10.091599
11.657695
-1.074364
-1.722467
2.522968
-1.210218
5.345684
1.845582
-4.939526
5.025098
-0.039460
-8.470834
-1.546474
-2.082138
7.624412
-7.395297
3.708165
-4.826273
1.053945
-3.113932
5.322963
-5.399863
0.035690
1.992144
0.388206
-0.018989
1.065536
-1.178844
-0.491637
0.397586
1.924256
3.412205
3.029120
-0.382620
-5.739771
-11.235766
-1.473234
8.004468
11.095636
2.608979
9.619919
-4.413601
5.424224
-0.891266
4.472452
3.365120
2.974437
3.378064
4.806058
-2.767359
4.062100
1.596519
7.151447
4.169218
3.267390
3.951882
-3.131989
-6.225962
-0.092823
4.066349
4.472977
-5.545505
-3.149488
6.194209
1.242884
0.494638
3.169586
6.630267
7.115536
5.294228
-4.202538
6.833519
-10.144328
-0.581907
-5.516588
2.630785
-4.900227
1.974204
2.042116
-0.055088
3.011297
-5.310308
-0.414916
5.830631
-1.155288
1.229942
3.509498
-1.010515
3.934039
-3.297641
5.917927
-4.441636
6.482645
-2.437569
-2.709723
-1.784957
1.350605
7.178459
-4.573397
1.090683
0.760426
-8.040169
-8.141870
-8.103671
1.811664
-1.653388
4.029356
-5.071334
-2.887727
-3.675513
-2.747673
-1.727537
-10.414801
-7.902327
4.158701
-9.414295
-2.577129
1.923691
-0.977470
-5.117122
-2.728021
-1.003226
9.673444
-1.600580
12.451614
-3.226382
-4.214991
-3.096138
3.417664
5.679765
11.219097
4.201560
-0.097150
-2.486740
-0.854068
-4.550424
-8.880552
-4.031647
1.994157
-7.362650
4.207662
1.981257
6.328244
13.707125
-8.766715
4.125424
-3.360875
3.127854
-0.455955
-0.076635
-4.453965
4.546833
-0.258244
-3.539758
-7.519276
7.629438
-4.400793
7.116710
-2.311013
-8.187555
3.763925
1.770752
6.554846
-6.552058
-0.252305
8.757063
1.951522
4.324043
-6.710846
-7.911918
2.625411
-3.456497
3.976627
-3.878756
-1.095941
1.530007
1.592798
5.579058
-10.946815
8.046561
-1.540081
0.652076
0.364243
4.330224
-1.834877
0.852333
-1.729652
-0.615316
8.014323
-1.340136
-1.218907
0.582268
2.617904
-4.839615
14.740101
0.692937
0.251061
6.497094
7.225856
5.417303
6.109318
7.963175
1.592369
0.226523
-7.499213
-5.152855
-0.616649
-2.590961
-5.445364
4.282122
9.135970
2.108016
10.984002
6.768302
2.254992
6.410330
0.323222
8.733003
-2.544593
2.898520
3.580551
1.635219
-0.842578
10.868913
-2.583890
8.029786
-1.107732
6.949511
0.392790
0.344999
4.287728
-10.342138
-4.008274
4.031920
2.087826
-6.639300
6.289275
8.533924
-2.308988
2.985728
-11.635557
-6.052797
-11.323705
-2.144453
5.421192
9.186505
2.680397
-8.795724
-2.800790
-6.440230
4.998809
1.848674
7.686043
-3.349142
-5.672021
-1.742672
0.526643
4.471724
5.445617
-3.329918
-3.087415
-4.414484
-3.587736
1.403055
-1.822000
4.758982
10.174398
7.069264
-6.103727
-4.786053
1.529758
-5.150666
6.224076
4.494750
8.067776
0.960169
1.464079
-3.317381
-1.415585
3.164202
-4.931265
12.443996
-6.630627
-0.336082
-1.004304
-3.634565
5.054733
-4.046505
5.293978
4.071705
4.047313
-2.262546
0.609936
6.988445
2.833515
6.179374
4.556616
-0.798540
3.113893
4.600475
0.981392
-5.086327
0.512776
5.377798
-5.387964
7.821648
-1.701783
-9.167835
2.015779
10.029519
-7.285687
-2.339016
-3.523211
-1.232251
-1.995997
-5.980383
-5.421532
3.772864
4.689790
-4.008316
1.204338
-2.130953
2.708607
3.493696
-10.801570
2.106463
-11.160276
0.725498
-7.330914
-6.761660
-0.023098
-1.778295
5.311532
2.093429
-3.750898
9.273946
0.014084
2.747749
-1.215727
4.695002
-2.986431
-0.992030
-0.527744
-7.304839
-0.066011
-6.659649
-0.910729
0.780464
3.049715
0.456989
-9.297771
-6.502813
3.300498
-9.079328
-11.101129
-7.164303
1.272273
8.752532
-2.730236
7.501284
5.299530
-3.335889
8.435398
3.803617
4.569693
-4.533683
-5.469007
7.821458
-4.417351
-3.955750
1.262915
-1.375136
1.824920
6.834669
4.008216
2.418721
0.273514
-8.082715
0.138774
1.462388
1.244940
-2.162467
4.260795
0.974153
-6.532324
-1.635932
6.701654
-1.973060
-4.160658
-4.766075
2.847223
7.138668
7.205133
1.124719
-5.879739
-1.731036
-0.267198
-5.205180
-8.668964
-2.860640
-5.428943
2.300146
-5.179770
-4.070505
-7.500794
-3.281580
7.187497
-6.613775
-9.211119
-2.417333
0.127026
0.230742
1.523985
-1.039476
3.992536
-7.695460
2.161337
-12.910441
3.841838
3.867395
-3.140387
-1.102383
-2.830199
6.643502
7.989247
-1.942884
-3.644485
9.421846
-1.265052
5.740510
-1.384158
-4.928279
-5.759683
-2.318886
-0.988784
4.283007
-1.279325
-0.316619
4.952292
-12.047168
9.079551
4.269077
-9.235605
3.155178
-0.062576
0.847575
1.160563
-12.073552
-1.640889
0.348827
10.088962
-2.092478
-2.034411
-4.622954
0.505135
-1.161893
0.380870
0.034884
9.982504
-0.648643
2.666587
-5.043661
1.701083
0.648226
2.771519
-2.108024
-5.291855
-1.747911
-1.332451
5.205049
-2.653967
4.419782
0.330648
7.262643
-8.813859
-2.025254
0.897099
-5.321304
-2.121568
5.619623
0.453306
-4.386522
1.839082
0.812413
-1.232868
4.161734
16.395156
7.927032
2.927235
1.819066
-4.608314
-5.991379
-2.805155
0.284364
-5.350886
-2.064759
-5.603131
1.958907
-8.614334
-6.359144
-3.531411
-2.015141
-6.947928
-0.637027
-2.572812
4.379038
-5.596991
-4.146584
2.553205
6.948178
5.818184
5.125026
0.059847
2.494408
5.654027
0.053719
2.178702
-2.455620
-3.993759
-6.666201
-6.466768
9.480072
-2.394342
-4.332474
-0.219976
10.355268
5.427281
-2.069434
-0.439162
-4.336133
-2.376819
-4.744519
-1.113014
-3.303777
6.761662
2.795193
-3.290417
-2.468166
3.841598
-5.452533
1.260367
-5.217072
-1.200531
1.392867
-5.857597
5.211367
-4.979103
-0.417497
-4.438932
3.963180
0.336121
5.842364
-1.282207
-3.090381
-2.224468
-7.642793
-0.641403
-2.018738
-2.163296
-3.217425
-2.955359
-3.419792
2.609894
-6.746176
-4.690230
5.138098
-7.853133
8.701592
-5.610932
-0.348222
9.704298
-7.094942
10.617923
-0.429980
-0.164735
2.485806
7.785850
-5.270687
5.890308
-4.447147
1.433603
4.129875
0.835112
0.847715
3.009758
4.274262
-5.707728
-3.400340
-1.839565
2.294011
2.180722
-3.633977
-1.776647
1.322436
1.978410
-2.132556
-4.090722
-5.074469
-5.360835
3.461015
-7.708111
-2.477159
1.067298
0.031811
-1.852823
-0.259058
3.405467
-4.471931
1.374843
-3.291059
7.484297
-5.863847
1.735679
-5.681540
-3.659653
2.343567
10.058859
-0.519879
-0.564764
-0.019116
-4.295715
-3.938253
2.088048
-0.461827
2.621240
3.867866
-5.020451
-1.395887
-7.285685
5.052667
0.813822
-0.607892
-3.412420
-5.837793
-3.889252
5.049284
-1.432318
-5.455432
-10.659763
-1.939295
-3.239284
3.113000
2.342753
1.844606
2.889318
-0.598316
2.846762
4.546182
3.628126
9.062330
-4.256706
1.327935
0.765002
9.669477
3.592409
6.981620
-3.653180
-3.329904
0.728313
2.278819
3.315969
-3.018219
-6.200213
-4.304423
-4.212609
4.225055
3.192428
-3.125623
5.728781
-13.892214
-10.507232
1.839261
-1.126628
-2.442431
-3.430420
3.587792
1.915304
-5.199677
-2.446697
-11.945049
3.330834
-8.282626
3.367711
-9.606594
4.660734
0.793667
1.477832
2.254857
-1.165386
3.039306
7.072375
-4.198217
-0.112210
3.187506
-2.016026
4.924315
0.821095
2.093061
-6.486349
-1.581638
5.058049
7.224021
-3.119045
2.439898
-0.333120
3.276739
-11.293144
-4.001723
14.321047
3.342109
-4.841577
4.961740
-6.714445
2.683278
-3.236454
-4.458835
1.745732
-3.409467
-0.296468
-1.186279
13.061122
5.772618
2.581601
1.693919
-0.189182
-4.643926
-7.586012
-5.373062
1.502884
-4.118560
-6.840939
-7.083780
5.968480
-5.052408
-8.384625
-2.065692
1.989577
1.390776
-7.643726
5.551320
-9.631532
-0.078289
0.513271
5.957960
9.496236
-10.985206
-0.147790
-3.738732
-5.371302
3.487621
1.303549
-1.103856
5.134508
0.079472
-7.559690
1.063829
-5.781076
-5.043893
1.740941
2.286396
12.516667
1.728185
1.091782
3.021300
-3.414176
0.384140
-0.996774
2.235874
-0.952255
4.456463
2.438594
-5.325205
6.480131
1.365705
-5.509895
5.015960
-4.895947
-6.134233
3.481945
-9.098005
-2.368868
-9.031380
-0.030644
10.958607
2.194183
7.882037
1.522808
0.105411
5.580396
-6.126538
6.635274
-2.665928
4.872316
1.813596
-8.150302
-9.496728
1.231678
2.430290
2.445581
-3.500041
-2.409562
7.300447
2.689023
-4.834744
-0.731078
-9.418834
2.209417
5.106616
4.485343
1.479326
2.851133
3.794796
-0.072544
-5.915458
1.165586
3.292107
-3.208485
6.208989
-6.622150
9.070090
-10.462238
1.216963
3.265426
-8.824739
-0.920875
-5.174902
3.923894
3.896555
4.197815
7.873975
-2.425170
-0.852851
10.974674
7.199913
-7.503564
5.575115
-9.913290
6.271998
-8.608294
-3.136713
2.653258
2.231538
6.626306
5.721173
6.922521
10.285558
3.228890
2.065093
-2.414686
0.238537
0.715125
-1.733126
2.469206
1.043908
-2.131008
4.293319
2.504359
9.800232
2.307149
5.360725
2.643625
-0.366910
-6.287119
-0.423246
-11.820470
-5.689795
5.919399
-0.727378
5.611846
4.467405
-3.979940
6.758754
-0.558522
4.063962
-1.462271
3.583472
-1.366365
-6.002994
1.116983
-1.057326
4.266206
-7.714762
-3.704114
1.225691
-4.215893
-2.775591
5.425193
10.672159
-3.805763
-5.245782
0.622217
-4.572660
2.259701
-9.191469
-1.717182
4.057169
3.325807
-3.070328
6.163151
2.895652
1.573475
-2.261975
-4.956773
3.103416
-6.450363
1.082767
5.741270
-11.904814
1.265089
5.622442
1.291296
-5.874453
-6.932944
3.190606
-1.352544
-1.971122
5.942720
11.049370
4.416645
-7.987461
2.882990
-7.090464
1.402725
-4.807245
-0.961431
-2.276806
-1.392830
7.928061
-9.238959
0.928488
1.752445
-0.344390
1.143597
-7.640065
