0.274022
-0.144107
-0.730503
0.810448
-0.098551
0.100691
0.343285
0.054815
0.521988
-0.111877
-0.254432
0.130473
-0.519878
0.425531
0.491786
-1.280743
-0.319258
-0.469981
-0.036580
0.912935
-0.761360
-1.298998
-0.477581
-1.073934
1.205166
0.431555
0.593789
-0.092310
0.379116
-0.437671
-0.583490
0.313673
-0.180809
0.227829
-0.212355
0.508934
-1.460832
-0.230168
0.221624
-0.009519
1.782635
0.398223
-0.306161
1.562160
-0.557744
0.419007
-1.373067
0.219238
1.614386
-1.251137
-0.238788
0.477371
0.226079
-1.323165
-0.331552
0.446433
0.496049
0.313032
-1.074492
0.321181
-0.081039
-0.139803
-0.058257
-0.719888
0.146011
-0.370431
0.024818
1.153083
0.537009
0.850705
-1.471998
0.540941
0.392862
0.253773
0.475989
0.183088
-0.442927
0.164103
-0.041534
-0.715224
0.841104
0.524507
-0.145641
-0.842010
1.025482
0.938036
-0.083190
0.719175
-0.050718
-0.257345
-0.302044
0.659676
0.532997
0.381733
-0.658633
-0.909552
0.555952
-1.205863
0.477431
0.110669
-0.101206
0.711700
-0.591999
-2.019564
0.211628
0.623585
-1.075097
-0.840226
-0.414296
0.149746
-1.342926
0.475353
-0.263485
-1.128598
0.969808
-0.035474
-0.090596
0.456516
-0.219417
-0.242160
0.715827
-0.265796
0.140569
0.310986
0.917067
-0.186273
0.982371
-0.559821
-0.147293
0.450031
0.551461
-1.019892
-0.070491
-0.776930
0.154730
-0.242043
-0.665935
0.550247
0.247899
0.892072
-0.042053
0.213413
-1.612267
-0.370366
-0.211384
-0.670380
0.869713
-0.354882
0.755487
0.328179
0.222871
0.870535
0.002667
-0.685960
-1.108491
0.144796
-0.352812
0.006897
0.309182
-0.760077
-0.305798
-0.686627
1.167757
-1.384180
0.841234
0.041667
-0.789935
0.013625
0.148032
-0.929486
-0.463142
0.739760
0.234428
0.204030
-0.980439
-0.615770
-0.882442
-0.085347
0.657936
-0.175362
0.363439
0.965910
1.340800
-0.681424
0.413286
0.000126
0.080129
0.442392
0.362194
-0.848791
-0.741577
0.573416
-0.356151
-0.667835
-0.840768
-1.109625
0.303518
0.135180
-0.404260
-0.880096
-0.041208
0.769602
-1.642690
-0.800101
-0.711578
0.711311
-1.087378
-0.577315
-0.117437
0.807972
0.396453
-1.108869
1.513600
-0.232348
-0.280512
0.579223
0.261979
-1.492390
0.498973
0.907382
-0.818437
1.042702
0.227529
-0.939390
0.217062
-0.179329
-0.577523
-0.287930
-0.160399
-0.229412
0.066984
0.193749
-0.731544
0.828421
0.048537
0.742354
-0.032801
0.124206
0.055307
1.075760
0.195732
0.774745
0.583685
-0.019118
-0.038870
0.209319
0.850686
1.217977
-0.014042
-1.029595
-0.272131
0.218025
0.432568
0.090043
0.128403
-0.958560
0.195711
0.884647
0.078154
0.673606
0.874480
0.235563
0.512704
0.021494
0.653281
0.255156
-0.062215
0.291915
-0.342469
-0.287985
0.105659
-0.615040
-0.943354
-0.659035
-0.473057
0.671645
0.521480
1.939817
-0.528590
0.715971
1.136613
0.290460
0.122914
-0.778738
-1.027406
-0.150525
0.506101
-0.697314
-0.123035
0.540887
-0.192850
-0.603164
1.232997
-0.686602
0.400434
0.251664
-0.658952
-0.204173
-0.418366
0.474676
0.600924
-0.804022
0.031632
-0.395633
0.268033
1.368661
0.758901
-0.448056
-1.009301
1.066748
-0.214597
-1.167412
-1.316358
-1.679765
-0.522198
-0.236744
0.439049
-0.551119
0.231504
-0.891848
-0.201811
-0.086858
-0.532586
-0.051728
-0.390185
-0.152257
-1.069216
-0.591514
-0.398544
-0.248598
-0.154903
1.226092
0.067817
-0.306699
0.287064
-0.788585
0.674077
-0.332579
0.040057
0.425431
-0.153795
0.227083
0.203111
-0.250550
0.090652
0.940624
0.626816
-0.478151
-0.067580
0.277480
0.184205
-0.979580
0.080708
-0.027244
0.527524
1.293064
2.041912
0.169089
0.120290
0.407820
-0.628660
-0.854778
0.445566
-0.261532
-0.187636
0.457446
0.168818
0.758255
0.572088
-0.406616
-0.173222
-0.955343
0.645969
0.266229
0.411822
1.043098
-0.365665
-1.041412
-0.021300
-0.121045
-0.919127
0.852719
-0.509652
0.194349
-0.641593
1.068075
-0.440209
0.104223
-0.573032
-0.456839
-0.306943
-0.331272
0.026377
0.524482
0.122988
0.136637
-0.427368
-0.435141
-0.308573
0.024162
0.293152
-0.067484
0.218477
-0.137953
0.052672
-1.013514
-1.744635
0.094342
-0.152201
0.301648
0.283562
-0.114064
-1.134877
-1.129405
-0.312604
-0.366956
0.207497
0.195027
0.177011
-0.898900
0.472899
0.280742
-0.755735
-0.470506
1.261772
0.184791
-0.148267
0.853398
-0.058590
-0.214111
0.200119
-0.622566
-0.444115
-1.094126
0.334465
-0.366203
-0.965123
-0.424240
0.682666
-0.168950
0.360646
0.961461
0.426043
-0.662087
0.167147
0.756376
-0.354922
-1.011216
0.350286
1.325518
0.237878
1.005006
0.121450
0.834740
-0.416114
1.129458
-0.284620
0.495832
0.424375
0.951043
-0.089772
-0.073425
-0.122737
1.042177
-0.050274
1.301304
0.235751
1.106786
0.269050
0.518526
-0.366120
-0.121493
-0.505478
0.606971
-0.483895
-0.616554
0.231396
-0.864033
0.078150
1.282018
-0.341176
-0.062751
-0.101332
0.058612
1.332893
1.005465
0.513601
-0.681536
-0.340379
0.637560
-0.703670
0.546814
-1.432735
0.029101
-1.105427
-0.520355
0.622495
-0.349115
0.378667
-0.536522
-0.547577
0.224467
0.430387
0.347452
0.867461
0.351959
-0.258567
0.675973
0.529748
0.651363
-0.415235
-0.773678
0.003737
-0.409560
1.191375
-0.086159
0.086635
-0.478614
0.040934
-0.716886
-0.573699
0.258920
0.482442
-0.293572
-0.402734
0.782195
-0.576912
-0.967084
-0.174550
-1.093991
0.497371
0.887270
0.587785
1.157381
-0.252168
-0.356069
-0.260352
0.514844
-0.531186
0.469131
-0.653598
-0.693127
0.801711
-0.242943
0.307180
-0.488658
-0.585740
0.527030
-0.193608
-0.872800
0.965697
-1.581428
-0.145621
-0.088735
-0.412607
-0.747823
-0.571858
-0.282913
-0.183697
1.498007
-0.182234
-0.072539
0.326719
0.128772
-0.298914
1.327956
-0.707597
-0.028261
1.203403
1.453921
-0.986189
0.008290
0.267159
0.557264
0.016085
-0.520767
-1.009001
-0.457707
0.701171
-0.213562
-0.287444
0.289887
0.041915
-0.472761
1.541045
0.413028
-0.124516
-0.424395
0.406876
-0.311370
-0.703739
-0.442582
0.099987
-1.050915
1.206267
1.115497
-0.328777
0.621703
-0.321698
0.237385
1.337345
-0.609124
1.118717
0.336980
-0.696410
-0.261390
0.184919
0.431866
-0.430507
-0.455699
-0.085532
-0.285332
0.078927
0.158842
1.316335
0.691815
0.920664
-0.754564
0.871500
0.694920
1.493109
0.671512
-0.544580
-0.193251
-0.857883
-0.748103
-0.960371
0.705193
-0.619035
0.282828
0.379524
0.214415
-0.972354
0.591134
0.489851
-0.160400
-0.690113
0.413479
0.751466
-0.223048
-0.382401
0.633380
-0.265697
-0.115437
0.197107
-0.260028
0.573498
-0.023868
-0.108962
1.489237
0.580470
0.194249
-1.336041
0.326670
-0.227080
0.365706
-0.548035
-0.445461
-0.034670
-0.940466
0.334362
-0.054428
0.570181
-0.347399
1.256390
0.555887
1.593269
-0.407291
1.043663
-0.269434
-0.568763
-0.293153
-0.201446
0.349549
1.519049
-1.556798
0.378035
0.280533
0.431881
-0.383586
0.857268
-0.293635
0.516981
-0.890981
-0.762435
-0.829962
0.149233
-0.399978
0.346668
-0.021740
0.395220
-0.866518
-0.042450
-0.279208
-1.278744
0.542203
1.123957
0.904746
-0.037745
0.386574
0.095977
-0.151154
0.049610
-0.190057
-0.773266
0.106715
-0.713442
0.448490
-0.211696
0.098883
-0.339135
-0.440078
0.025147
-0.750301
-0.174717
-1.411864
1.149795
0.363703
0.128176
-0.722740
-1.034488
0.521974
0.402112
-0.675819
0.945946
0.761110
0.044862
0.509909
-0.061890
-0.061976
-0.662817
-0.164543
-1.282415
0.039015
0.090453
0.893088
-0.135741
-0.630406
-1.443142
0.230944
-1.013811
0.714145
-0.517705
-0.195690
0.068512
0.628195
0.285886
-0.233800
-1.465953
0.048794
-0.043829
0.215376
1.600787
0.996960
-0.585885
0.046832
0.146792
-0.581572
-0.110644
0.061774
-1.472162
0.135922
-0.333256
0.407502
0.430427
-0.297945
1.051899
0.369898
0.035941
-1.428247
-0.085694
0.404574
0.694836
-0.475318
-0.501279
-0.643756
-0.986567
-0.232386
0.343926
-0.308989
0.752443
-0.713030
0.266721
0.767977
-0.963679
-1.000489
0.074133
-1.337995
0.777369
0.227251
0.175183
-0.190173
-2.302343
0.462796
0.675316
1.169171
1.736257
0.567694
0.650495
0.028293
2.029270
0.364174
-0.631312
0.673811
1.024333
-0.945391
-0.255835
-1.009927
-0.957175
0.790970
0.781379
-0.577463
-0.211388
-0.761065
0.666285
-0.875290
0.858512
-0.287898
0.682614
0.043750
-0.891716
0.898382
0.359426
0.110254
-0.273813
-1.357205
0.732495
-0.671729
0.748399
-1.030267
0.502284
-1.156890
0.036717
0.566059
0.664867
0.022807
-0.452527
-0.419146
-0.618044
-0.129048
0.486454
0.896156
-0.040805
1.170109
0.976876
-0.721825
-0.255244
-0.353944
-0.322987
0.615434
-0.224654
-0.171569
-0.626327
-0.049041
-0.711616
0.990951
0.147430
1.841844
0.385943
0.290477
-0.257435
0.902943
-0.230230
-0.431028
-0.578764
0.323841
0.529344
0.140680
-0.413894
-0.481379
1.557862
0.043581
-0.505714
0.638483
1.309502
0.956253
-0.394260
0.475156
0.938743
-1.079477
-0.005751
0.465825
0.321886
0.641380
0.221010
-0.191284
0.896546
0.696703
0.537750
0.872095
0.036815
-0.471511
0.396650
-0.618297
1.005307
-0.219683
0.792417
0.382639
-1.042527
-0.544463
-0.259299
0.221760
-1.789107
-1.417066
-0.358530
-0.804501
0.288988
0.680577
-0.098603
-0.254324
-0.879378
0.518916
-0.303631
-0.699714
-1.444212
0.281203
-0.181682
0.547639
0.535415
0.548226
0.017070
0.705996
-0.695131
-0.320184
-0.239443
-1.109602
-0.613223
0.800176
-0.142958
-0.017407
-0.298069
0.066455
-0.253970
0.132061
0.389634
-1.772881
0.303845
0.435357
0.603923
0.949900
-0.642829
1.175228
-0.463662
-0.891401
-0.663198
-0.324961
-0.808318
1.365999
-0.147125
-0.396814
0.267648
-0.063769
0.961033
-0.256895
0.315948
0.029979
-0.950669
0.323676
-0.421543
1.174831
0.124163
0.487264
-0.364628
0.445037
-0.617377
0.372491
-0.434125
0.368024
0.315528
0.569058
0.816994
-0.301522
0.377738
0.975944
0.279412
0.665133
-0.612445
0.580001
1.207322
0.008018
0.580538
-0.482927
-1.114819
-0.758117
-0.853139
1.045923
0.363501
0.854503
-0.522059
-0.071242
0.192646
0.387656
0.199472
-0.825228
-0.266788
-0.863607
-0.513117
0.380968
1.298136
-0.342936
1.396273
-0.694669
0.527253
0.352874
0.710501
0.248868
-0.029853
1.138619
-0.188967
0.810248
0.294425
-0.896124
-0.525531
0.226091
0.042495
1.340652
-0.355117
-0.361026
-0.119013
-0.630470
1.244202
0.124893
0.303640
0.414073
0.412938
-0.063496
-1.687167
-1.178031
-0.539857
0.315188
-0.851604
0.083315
-0.252572
0.406228
0.042982
0.926579
0.221630
0.033791
0.587610
-0.313800
-0.451800
-0.222042
1.245531
0.524642
-0.219627
0.065957
0.832581
0.390978
-0.506079
0.185198
-1.002471
-0.417931
0.990025
1.277602
0.690864
0.774328
0.083593
-0.578085
-0.027858
-0.650935
-0.437057
0.056895
-0.130493
-0.274004
-0.510885
-0.642474
1.095760
-0.950518
0.655274
-0.428966
-1.249804
-0.306899
-0.280007
0.492258
0.198586
0.178999
0.563293
-0.456977
0.193705
-0.684977
1.404433
-0.156212
0.417967
-0.258685
-0.028926
-1.259527
-1.292575
-0.922352
-1.386035
-0.618687
-1.119132
-0.097557
-0.473223
-0.025674
0.496010
-0.958222
0.600804
0.423120
1.029057
-0.878940
-0.838647
-0.630638
0.669573
-0.535334
0.040336
-0.423111
0.333264
-1.096561
-0.755945
-0.805482
0.460563
0.254794
-0.715176
1.647159
0.476301
1.512360
-0.009988
0.473596
-1.123707
-0.241779
0.684098
0.121687
-0.059958
0.539882
-0.045682
-0.680168
-0.026742
0.412211
0.286805
-0.064666
0.137218
0.409844
-0.169367
-0.969008
1.015623
0.428189
-0.556927
0.652575
-1.360229
-0.374734
0.098200
0.326641
-0.525311
0.317465
0.242516
-0.515908
0.154908
-0.451639
0.316502
-1.089574
-0.857686
-0.120413
0.074243
0.131658
0.181655
0.084962
-1.498802
0.432058
-0.465719
0.154336
-0.091841
0.228558
0.300451
0.073345
-0.421559
-0.046337
-0.506782
-0.200653
-0.931743
-0.377941
-1.431347
-0.412066
0.112300
0.321670
0.600621
-0.324105
-1.283190
-0.459410
0.599511
0.280442
-0.272498
0.557099
-0.917108
-0.785801
0.118491
0.788779
-1.047373
0.635163
0.197409
-0.099399
0.247300
1.115368
0.279776
-0.524650
-0.754796
0.187434
0.132100
-0.268251
-1.057255
0.632895
-0.309251
-0.273242
-0.148384
-0.083384
-0.239501
-0.462048
0.253538
0.631533
-0.544882
-0.592982
-0.363493
-1.016990
-1.275145
0.135563
0.424970
1.862424
0.685668
0.835864
0.761601
0.377641
0.019216
-0.480714
0.123743
0.262821
0.872417
0.264976
-0.247224
0.692429
-0.805471
-0.854451
0.436259
-1.221860
0.276949
-0.061205
-0.562031
-0.963227
0.312271
-1.865051
-0.430607
-0.498020
-1.122868
-0.443614
0.363049
-0.101576
-0.811302
0.177212
0.819243
-1.137168
-0.139763
-0.795002
0.831924
0.148066
0.987824
0.187842
-0.162331
0.080353
0.347232
-1.173501
0.467906
-0.068313
-0.550476
0.113578
0.248008
-0.601705
-0.745217
0.339853
0.551164
0.456300
-0.572846
-0.810089
0.539131
1.042837
0.011432
0.415927
1.334645
-0.820202
0.268434
-0.003233
0.668975
0.064342
0.296628
-0.732195
0.421140
0.196327
-0.377845
1.696213
-1.034399
-1.179431
0.824995
-0.447035
-0.558667
-0.548639
-1.711062
0.030501
-0.124397
1.034643
0.166629
0.304580
0.629937
0.730355
0.671476
-0.463500
0.570140
-0.457407
-0.260463
1.159259
-0.256637
-0.386055
-0.344630
-0.550133
-0.117574
0.258050
-0.534402
0.098909
0.450863
0.366547
1.594425
-1.049928
0.331246
-0.508643
0.179834
-0.974354
0.247852
0.102172
1.158518
-0.167923
-0.518671
0.450117
-0.110924
0.013079
-0.488412
-0.960655
0.304052
-0.744173
1.677291
0.352489
-0.178133
-0.822928
1.481307
-0.172871
0.444423
-0.273694
0.468214
0.276847
0.840657
-0.308352
-0.440394
-0.305362
0.315157
-0.048884
0.117660
0.333967
-0.901609
1.292115
0.064579
0.079044
-0.700657
0.428123
-1.032609
0.732496
0.437533
0.036467
0.222913
0.363996
-0.038571
0.485481
0.252250
0.157397
-0.684344
0.349230
0.263001
0.809858
-0.176956
-0.547714
-1.139280
-0.644763
-0.553584
0.413992
-0.252327
-0.516856
0.152090
1.064505
0.375337
-0.512071
-0.285401
-0.045608
0.901529
-0.252012
1.142206
1.565392
-0.483878
1.419440
0.473069
0.354374
2.173504
-0.016802
1.132108
-0.631029
0.127001
1.361331
0.011616
0.354921
-0.384746
0.347229
-0.400884
0.081985
-0.900658
0.105381
0.457390
0.328160
-0.259816
0.565400
1.402652
0.050895
-0.928478
0.019437
-0.388286
0.214763
-0.438527
-0.479945
-0.562880
0.859657
-0.615584
-0.324166
0.220543
-0.688937
-0.411690
-0.293137
0.145600
0.305085
0.700190
0.378412
-0.159928
-0.057430
-1.268402
-0.089195
0.053192
-0.140355
-1.448849
-0.138609
0.707736
-0.414095
-0.382207
0.037829
-0.324435
0.796132
0.444451
0.183113
0.200805
-0.817599
-0.849764
-0.111602
-0.499310
-0.426787
-0.255290
-0.031240
-0.212107
-0.838764
-0.196333
0.468443
-0.487063
0.976767
0.176343
0.123342
-0.947728
0.639786
1.103918
0.826029
-1.429903
-1.101518
-0.307596
1.507522
-0.286492
0.516833
0.662988
-0.085492
1.073291
1.938719
0.874592
-0.294160
-0.651787
-0.126484
-1.259083
0.003716
0.750470
-0.182558
1.718130
0.504139
-1.445361
-0.037456
-0.457087
0.704644
-0.124903
-0.024598
-0.789010
0.213000
0.349676
-1.089201
0.839309
-0.104445
0.004323
0.513163
0.051453
-1.851705
0.194851
0.109419
0.838443
-0.285648
-1.222690
0.934654
-0.526148
-0.297008
-0.434498
0.022813
0.200753
0.305280
0.558848
0.717100
0.340981
-0.550908
0.943557
-1.050841
0.178268
-0.372195
0.475858
-0.956074
-0.020597
0.982191
1.208983
-1.007425
0.196568
-1.001599
-0.137191
0.562900
-0.201675
0.068230
0.267421
1.007682
0.289735
-1.168607
-0.502993
0.605230
-1.294411
-0.134158
1.007877
0.439626
-0.448419
1.396018
-0.639289
0.514510
-0.517602
-0.983661
0.057663
-0.557695
-0.069306
0.539882
0.503467
1.184661
-1.152218
-0.035946
0.261184
0.464907
-1.413852
0.586301
0.006430
0.053694
1.707835
0.767047
-0.908959
-0.206997
-0.291877
-0.459895
0.892690
1.714009
-0.109761
0.341394
-0.329484
-0.224566
0.122135
0.976455
0.821573
0.196142
-0.574261
-0.508021
-0.332314
0.014119
-0.521037
1.177299
0.437785
-0.594626
0.747003
-0.045473
-0.592296
0.020334
-0.984309
0.314962
0.182054
-0.434878
0.946125
0.898899
0.226329
-0.817417
-0.000794
-0.442791
0.893622
0.149888
0.076212
0.464969
-0.045961
-1.385319
-0.072448
0.251930
0.331178
-0.495800
-1.201489
0.347106
-0.036696
0.293018
0.654681
0.682881
0.782460
-0.384510
-1.733291
-0.207592
-0.318290
-0.655770
-0.061548
-0.037442
-0.021604
0.783850
0.288698
-0.657921
0.434993
-1.021948
0.021013
0.129449
0.525934
-0.032393
-0.465517
-0.383743
0.628205
0.458867
-0.294090
-0.738846
-0.407959
-0.592788
-0.135962
0.542840
-1.382277
1.040116
0.486000
-0.277146
0.838936
0.199898
1.159138
0.443820
0.214934
-0.840000
-2.113823
0.137797
-0.066503
-0.367561
0.165040
0.997582
-0.674006
1.290541
0.067882
0.130733
0.355012
0.564538
-0.083765
-0.610596
0.491421
-0.003767
0.907222
-1.000333
0.364250
1.547456
-0.034253
0.766989
-0.264164
-1.211262
-0.055119
0.590902
-1.551335
0.432161
0.024257
1.073002
0.340610
-0.342345
-0.197920
0.377957
-0.301482
-0.669495
0.089991
0.812750
0.017990
-0.053854
0.796009
-0.425250
-0.398111
0.732303
0.109606
-0.317655
0.281918
-0.642459
-0.259027
-0.070630
0.121816
-0.006164
-0.452358
-0.365058
-0.485656
-0.382579
0.006678
-0.726420
-0.379721
0.769409
-0.450314
0.909568
-0.271071
0.338075
-0.328939
-0.001649
0.660816
-1.054921
-0.788906
-0.539452
-0.953046
-0.306175
-0.271947
-0.082234
-0.361050
-0.297376
0.633987
-0.495624
0.492403
0.010700
0.491789
0.478991
-0.909477
0.272032
0.489074
0.401931
0.359821
0.169288
0.368475
-0.599939
-0.671886
-1.143348
0.568923
1.745993
-1.199731
0.066287
-0.117791
1.186435
-0.078129
-0.869307
-1.988103
-1.547567
-0.070431
-0.405388
-1.221279
0.396227
-0.722888
-0.349733
-0.294970
0.365653
-0.630103
-0.283682
-0.159613
0.534919
0.307224
1.350375
1.062349
0.034195
0.231352
-0.321646
-0.366332
-1.427025
-1.009599
0.511331
-0.192678
-1.476166
0.139734
-1.097087
-0.637326
-0.217889
-0.307742
-1.295221
-0.072086
-0.415975
0.834494
-0.113446
0.463131
-0.504397
0.016502
0.220900
-0.035589
0.589129
0.346696
0.219741
-0.188226
0.647811
0.103979
-1.262834
-0.071505
-0.424349
-0.645049
-0.962785
0.517744
-0.943922
0.741220
0.430921
-1.357552
-0.128967
0.477504
-0.515880
-0.356219
0.363023
0.615568
-0.485552
0.992166
0.424238
0.464955
-0.513626
0.238508
1.478349
0.448782
0.090868
-0.395229
-0.230344
1.183662
-0.070844
-0.759354
0.912151
-1.247581
-0.417085
-0.630106
-1.002348
-0.330745
-0.431736
-0.598893
0.341508
0.892743
-0.081381
-0.641534
0.856611
-1.133424
0.049702
0.372328
-0.634779
-0.456398
-0.429725
-0.634005
1.083619
-0.746446
-1.217649
0.699731
-0.069270
-0.261685
-0.321246
-0.334207
0.008919
-0.288500
-1.515159
0.660681
0.323501
0.262875
0.973719
-0.730413
-0.638796
-0.777594
-0.359045
0.674820
0.103931
-1.474121
0.734024
-0.387741
1.129202
-0.279728
-0.378243
-0.306627
-0.017527
0.059309
0.268658
-0.137524
-0.069004
0.588098
0.306623
0.310984
0.397961
-0.849511
1.146561
-0.171016
1.133574
1.128658
-1.264899
-0.126656
-0.610741
0.081344
-0.009757
-0.816755
-0.047448
0.585984
1.114222
1.240040
-0.281073
0.010203
0.422712
0.429783
0.185282
0.035953
0.108549
-0.677833
0.706217
0.002884
-1.146737
-1.176798
0.610219
1.120071
0.515017
1.203625
-0.639575
-0.197695
-0.877507
0.026161
0.139680
-0.504988
0.095600
1.472377
-1.335338
1.260224
-0.206482
0.100018
-0.924856
0.478063
0.415336
-0.581169
-0.601606
0.035411
-0.272068
0.149216
1.081729
-0.274914
-0.933242
-0.362994
1.441854
0.076452
-0.891069
-0.553843
-0.819215
0.608801
-0.609146
-0.168599
0.005674
-0.006482
0.789781
0.000346
0.343785
-0.666016
-0.256399
0.233960
0.560240
-0.314995
0.315424
-0.438559
-0.242579
-0.016810
-0.623369
0.049436
-0.386779
-0.130601
0.448150
0.420716
0.021908
0.470865
0.291102
0.268208
1.047758
-0.307759
-0.658071
0.349981
0.255602
0.309604
0.400230
-0.485126
-1.060444
0.701554
0.149338
0.933132
0.138957
0.933121
-0.020935
0.387794
-1.039284
1.577574
0.247723
0.346065
-0.035168
-0.041957
1.061110
1.098593
-0.298397
0.435487
0.605377
0.032248
0.218186
-0.353395
-0.385998
-1.036207
0.368707
-0.384198
-0.806885
0.243678
-1.129339
-0.850149
-1.171111
-0.681529
-0.493837
1.097475
1.361124
0.439155
0.552146
-0.015465
0.710686
0.394184
-0.856512
1.437584
-0.629387
-0.132988
-0.029139
0.651727
0.303328
-0.385136
0.926868
0.245001
0.008347
0.356706
-0.788804
0.940208
0.070255
0.461731
0.964797
0.287355
-0.419829
-0.857698
-0.314669
-0.517090
-0.365285
0.170495
0.506866
-0.556052
-0.054491
0.947143
-0.175171
-1.186729
-1.204511
-0.346744
-0.339479
0.452313
-0.337158
-0.796545
-0.321600
-0.057674
-0.320203
0.118595
-0.444839
-0.408001
1.000131
-0.800529
1.196553
0.053568
-0.424520
-0.716652
-0.133444
-1.089580
-0.616515
-0.530053
-0.358469
0.697695
0.597152
-0.445121
0.754814
0.836538
0.356107
-0.886030
1.349839
0.906326
-0.762402
0.733353
0.338176
-0.780233
0.875292
0.129021
0.371772
0.276925
-0.148126
-0.420848
0.438759
0.524286
0.817476
-0.468972
-0.277894
0.569044
0.200877
0.320487
0.272568
-0.145850
-0.240858
0.818926
0.524212
-0.184947
-0.486928
-0.124701
-0.150998
0.466789
-0.206926
0.477001
0.337491
-0.002427
0.556835
0.351319
0.315862
0.263466
-0.118606
-0.074640
-0.173741
-0.339159
-0.328695
-0.714165
0.141572
0.323817
0.982214
-0.657146
0.110311
-0.181126
0.368645
0.878221
0.115202
0.613413
0.298595
-1.156433
0.104370
-1.257561
0.117620
-0.768323
-0.112399
0.590926
-0.109756
-0.757337
-0.127408
-0.601766
1.280449
0.609788
-0.379183
0.794520
-0.270399
-0.025336
-0.471701
0.691639
-0.644820
-0.320734
0.357811
1.051631
0.153952
0.227518
0.294125
0.375325
0.514576
1.075278
0.709357
0.010797
-0.004131
0.062468
-0.677481
0.248312
-0.352843
0.990643
-0.442784
-0.311294
-1.156812
0.551045
0.681707
0.174867
-0.034464
-1.757689
0.505902
0.268471
0.682744
-0.074489
0.142433
-0.947229
-0.127033
-0.903860
-0.157287
0.199683
0.069420
-0.394049
0.333162
0.099624
1.175956
0.918445
-0.849188
-1.709400
0.636816
0.535137
-0.410657
-0.468949
0.894187
0.706463
1.008334
-0.079408
-0.812505
-0.522588
-0.572663
-0.545150
0.879096
-0.366535
0.483374
0.160304
-0.248363
-0.104850
0.267249
0.174386
0.302448
-0.268666
0.691185
-0.158403
0.077289
-0.015557
-0.321996
-0.007149
0.127950
0.024105
0.529225
0.665623
-0.686014
1.055072
-0.004109
1.296653
0.489059
0.798986
0.751404
-0.201384
-1.050264
1.602169
-0.225951
-0.537764
-0.832831
-0.611334
0.565770
-0.028072
0.277070
-0.981621
-0.999817
-0.551548
0.468427
0.455879
-0.229654
-0.330199
-0.309290
0.771292
-1.301965
-0.922816
0.864012
-0.489361
-0.519345
-0.390539
1.093090
-1.582322
0.140193
0.869261
0.565656
0.859751
-2.130121
0.424131
0.582456
-1.473812
-0.036540
-0.922045
0.235477
1.463726
0.467945
0.714362
0.842944
-0.823693
-0.645582
-0.325664
-0.076684
0.902425
-0.204846
-1.495080
0.030446
-0.426744
-0.004152
0.528178
-0.435787
-1.674589
-0.692214
0.887900
0.482816
0.049900
0.851477
0.078465
-0.159630
1.120701
0.710576
-0.975158
-0.214764
-0.683873
1.480087
0.265852
0.265496
1.213242
0.338411
-0.634003
-0.377888
-0.285312
-1.203295
-0.392767
0.494560
0.188065
0.138003
0.575691
-0.391730
-0.079470
0.283347
-1.153377
-1.844285
-0.923514
-0.276653
0.836699
-0.767698
0.590902
-0.128589
0.522093
0.522124
0.681154
0.878355
0.192704
0.783912
1.119453
1.237551
-0.635292
-1.566637
-0.019313
-0.814327
-0.277195
-1.065871
-1.538856
1.128795
0.777679
-0.639102
0.385724
1.248671
-0.325190
0.184828
-0.037629
1.046234
-0.645554
-0.109090
0.127939
-0.719094
1.783652
-0.600874
1.251529
0.385893
-0.067764
0.771052
-0.850401
0.233845
-0.338047
0.275634
0.813680
0.544465
0.493278
-0.554741
-0.438603
-0.233003
-0.612703
1.249770
-0.254206
0.564310
-0.370312
0.456200
-0.670391
-0.337755
0.813645
1.430593
-0.277602
0.708549
0.283061
-0.768775
0.318150
-0.378316
0.429276
-1.593280
0.648893
0.553713
1.346645
-0.090392
-0.623388
-0.963250
0.514001
-0.620282
-0.686049
0.411193
-0.823187
-0.459469
0.183535
-0.722610
-0.194163
-0.698981
-0.321812
-0.133397
0.755731
-1.179920
-1.301450
0.053170
0.942810
0.691003
0.566912
0.842755
-0.662605
-0.408135
-0.653795
0.362585
-0.721676
1.121642
-0.063001
-0.045256
-0.072310
-0.393618
-0.548406
0.218767
-0.129083
-0.045236
0.477689
1.350883
1.489479
0.409754
-0.159715
0.278032
-0.834120
-0.880374
0.032400
0.183990
-0.522554
-0.239677
0.530955
-1.019295
-0.277970
0.728750
1.549782
0.508458
-1.228645
-0.160404
0.796042
0.664785
-0.185596
-1.159590
-1.161687
0.084567
0.274940
-0.154919
0.669994
-0.257546
0.084137
-0.611564
-0.086498
0.498999
-0.081039
-0.787300
0.547570
0.209558
0.516851
-0.280864
1.569208
-0.230491
1.478782
-0.917176
0.519983
-0.356943
-0.285762
0.870780
-0.555182
0.604980
-0.608247
-0.230155
-0.686394
-1.003187
0.401919
0.488857
0.269969
0.569997
0.734772
-0.307263
0.152538
-0.325363
0.132898
0.007172
0.812152
1.271289
0.497489
0.158102
1.100908
1.420483
-0.479044
-0.859997
-0.007119
0.712113
-0.389123
0.266538
-0.693170
-0.802235
-0.566760
-0.393961
0.956678
-0.393719
1.245471
0.991064
0.305938
0.117666
-0.691922
0.369374
-0.430484
-0.456096
-0.009395
-1.149214
0.588535
-0.384136
-0.868217
1.134043
0.470181
0.161429
0.837785
0.387165
-0.416469
1.324813
1.726410
-0.333036
0.012502
0.283813
-0.630246
-0.816591
0.606425
-0.500119
0.830818
0.909528
0.054784
-1.239256
-0.482749
-0.150096
0.029431
-0.080806
-0.827610
0.534055
0.720581
-0.062663
-0.817085
0.264938
0.283957
-0.239141
0.792727
1.269044
-0.238300
-0.983279
0.659547
-0.052667
0.399596
-0.589101
-0.340278
-0.174715
0.108091
-0.151278
-0.915623
0.540648
0.777946
0.187391
-1.382280
1.401738
-0.380273
0.384071
-0.888428
-0.762627
-0.786133
-0.001191
0.499698
0.223951
0.566493
-1.212182
1.566576
-1.126326
0.292886
1.340634
0.476456
-0.192058
-0.365643
-0.687957
0.557920
-1.585826
0.597254
-0.782817
-0.093138
-0.412860
-1.021465
-0.423255
-0.544258
-0.093790
-0.681537
-0.658123
-0.166153
0.027509
-0.026163
-1.304436
-0.340048
-0.591406
-0.524443
-0.638740
0.163330
-0.220046
0.213218
0.037133
0.333232
0.598205
0.177493
-1.201606
-0.975137
0.425215
-0.142328
-0.321528
0.348121
0.063512
0.837450
0.184532
-1.684789
-0.739130
-0.020270
1.032455
-0.303502
0.137776
0.384612
0.458232
-0.441009
1.494948
0.016815
-0.526718
-0.090217
0.292959
0.992165
-0.981389
1.326258
-0.221455
-0.542128
0.509454
-0.264160
-1.237278
0.789422
-0.574319
1.002370
0.116444
-0.608069
-0.088955
-1.274857
-0.046101
-0.876264
0.978180
-0.339655
0.648681
-0.046319
0.776024
-1.006606
-0.693660
-0.198845
-0.310648
0.045185
-0.256614
-0.064257
0.362346
0.321750
-0.377271
1.042528
0.503285
0.160226
-0.439771
-1.084065
0.402194
0.278909
-0.003556
-0.321070
0.082863
-0.608769
-0.746027
0.006372
-0.615823
0.272247
0.073789
-0.943179
-0.145579
-0.441984
0.669226
0.227426
0.040613
0.129624
-0.463915
-0.271095
0.355950
-1.260799
-0.122877
0.937685
-0.466682
-0.727156
-0.584538
0.849628
0.452728
1.216506
0.207004
-0.334595
0.198531
0.344613
1.218649
-1.083334
1.747806
-0.101749
-0.642768
-0.236100
0.554179
-0.390649
-0.387514
0.212119
-0.722924
0.433820
0.007812
-0.059696
0.621220
1.010296
-0.698828
-0.504856
-0.014357
-0.989532
0.437811
-1.448501
-0.215864
0.442857
0.526411
-0.539500
0.539555
0.349649
0.015118
0.421038
0.712764
1.627447
-1.039506
-0.287609
-1.571610
-0.176218
0.905608
0.672761
-0.671756
0.635007
-0.175274
0.032483
0.135039
-0.238772
-0.558614
-0.051435
1.182610
0.577450
0.511405
-0.050576
-0.911459
1.022666
0.388705
-0.148774
-0.380065
-0.520692
0.536125
-0.258092
0.301794
0.653386
0.073621
-0.047994
-0.958022
-0.664626
-1.113223
0.080111
-0.407244
0.316805
0.162685
-0.761533
1.095456
-0.795140
0.307492
-0.770328
-0.172380
0.303648
-0.971904
-0.279151
0.124949
-0.283177
0.611547
0.984070
-1.639620
0.431092
0.345913
-0.009534
-0.585905
-0.410592
-0.175021
0.321782
-0.139216
-1.637527
1.241454
0.797805
0.329082
0.347008
-0.555673
-1.109359
-0.034113
-0.430781
0.310643
-0.978395
0.769115
-0.149231
0.215055
-1.863691
0.208968
1.025043
0.625506
-1.144975
0.781451
-0.021075
-0.429610
0.220182
0.679546
0.934678
-0.557222
-0.599180
-0.533730
0.600712
-0.392634
-0.038696
-0.007232
1.207140
1.079505
0.060776
-0.043984
1.403016
0.142135
1.601646
-0.703609
0.461414
-0.710846
-1.632255
0.141992
0.322982
-0.242866
0.076821
1.213347
0.285203
-0.267221
-0.854017
-1.023031
-0.222587
-0.204443
-0.445410
-0.380142
-0.723803
-1.749249
0.886541
-0.048956
-0.126940
-0.440651
-0.127715
-1.515177
0.606833
0.263218
0.263841
0.762989
-1.094703
0.246669
-0.105816
-0.081715
-0.347981
-0.050856
-0.068917
1.251486
0.045811
1.273107
-0.225784
1.009989
0.257513
-0.605566
-0.532208
-0.992908
-0.091760
-0.161408
-0.174158
0.774569
1.185058
-0.522315
-0.138705
0.896430
0.209963
-0.185371
0.735656
0.993134
-0.354070
-0.627165
-1.003147
-0.264782
0.258707
0.352536
0.335608
0.241814
0.254986
0.704302
-0.142653
1.364599
-1.584066
-1.796569
0.370827
-0.791784
0.196769
-0.148198
-0.114502
-0.794266
-0.582754
-0.465869
1.125888
-0.190208
0.773337
0.981181
-1.724816
0.119027
0.379581
-0.948069
-1.534980
-1.146346
-0.309165
-0.260616
0.911391
0.371001
-0.256675
0.431444
0.516166
0.249485
-0.041967
-0.782887
-0.711663
0.283730
0.229835
0.484864
-0.311480
0.742706
0.638976
0.349788
-0.727456
-1.033651
0.433878
-0.248900
-0.520605
-0.384632
0.294597
0.260531
-0.593220
-0.163028
-0.327021
0.348204
0.564557
-0.879768
-0.042167
-0.971465
-0.268592
-0.270863
0.509777
-0.629243
0.938867
-0.146201
0.085565
0.622544
-0.868810
-0.124913
0.366180
-1.001873
0.066348
-0.568300
0.562540
0.453610
-0.210722
-0.081498
0.140411
-0.164706
-0.429618
0.850909
0.243140
-0.075338
0.580928
0.234615
0.564106
0.164260
0.227400
-0.941827
0.554674
-0.296620
-0.550522
-0.222802
-0.274202
0.317350
-0.596604
0.098000
0.164936
0.004860
-1.021261
-0.396273
0.513066
-0.628713
-0.526532
0.169561
1.109658
1.011067
0.352680
0.623814
-0.014320
0.528270
0.807895
-0.377063
-0.465025
0.349422
0.657113
0.090576
-0.103343
0.514638
0.320035
0.509598
-0.194205
0.012234
0.840644
1.175069
-0.052877
-0.199178
-0.448529
-0.280861
-0.871103
0.243499
0.082707
0.358899
0.286554
-0.308881
-0.692728
0.667289
-0.084997
-0.207305
-0.489269
0.740793
0.436570
0.274781
0.639796
0.622923
0.416962
0.074216
0.282893
-1.378746
-1.143539
-1.470346
0.058555
-0.569242
-0.311884
-0.743373
0.771195
-0.504522
0.704926
0.020822
-0.212760
-0.151167
0.276750
-0.764422
-0.340625
-0.209268
0.861929
0.202021
0.595907
-0.364412
1.471855
0.715900
-0.013589
0.176492
0.489860
0.087461
-0.558468
0.324341
0.659381
0.582426
0.829833
-0.387905
-0.649276
-0.865489
-0.223226
0.115840
1.083415
-0.138654
-0.959085
0.002504
0.163552
0.384281
0.311654
0.052460
-0.523895
-1.010150
-0.733546
0.453836
-0.843610
0.049474
-0.041909
0.398410
0.129579
0.023687
1.146924
-0.359422
-0.643883
0.147332
-0.382619
0.363895
-1.127278
-0.737204
-0.391749
1.368117
0.490843
-1.016024
0.040351
0.760945
1.347844
-0.676728
0.630753
-0.786626
0.377570
0.902554
-1.412551
-0.484516
-0.810751
-0.079177
0.800523
0.073979
1.064175
-0.516242
0.299404
0.373017
0.013951
0.899229
1.008838
0.336670
-0.540801
-0.249864
-0.367761
0.215570
0.711073
0.550135
-0.329364
-1.024785
-0.310134
-0.163416
-0.394118
-0.193264
0.643389
-0.401298
1.015441
0.021081
-0.167504
0.927424
0.365921
0.579306
1.220117
-0.339057
-0.396789
-0.837286
0.350040
0.046596
0.690214
0.069719
0.237685
1.569606
-0.625157
0.641910
1.687870
-1.291258
0.162689
-0.328941
0.060229
-0.357429
-0.041991
-0.357516
0.572193
0.048109
-1.675723
0.949719
-0.323186
2.399568
1.305386
0.361609
0.821392
-0.175797
0.284381
-0.548192
-0.841692
-0.532984
-0.153532
-2.155204
0.747982
-0.536997
-0.284079
-0.796882
-1.341414
-0.084181
-0.570573
0.625524
0.530047
0.614128
0.107119
-0.424704
1.119164
-0.515903
0.277650
-0.986619
-0.226972
0.327985
-0.536972
-0.768061
0.434643
-0.046375
0.001197
-0.181921
0.379840
0.059410
-0.095414
-0.926785
-1.453385
-0.827567
-0.073759
1.390367
-0.609990
0.291168
-0.289691
1.138018
0.392809
-0.911902
-0.983266
0.508681
0.265162
0.387211
-0.981585
-0.262634
0.029578
-0.519617
-0.455222
-0.112863
-0.670659
1.067709
-0.440518
-0.125558
0.204270
-0.229026
-0.400153
-0.417719
0.538939
-0.599798
0.304779
-0.093207
-0.162769
-0.061240
0.423929
0.096304
-0.616219
-0.390560
0.606588
0.742422
-0.537530
-0.003703
0.441193
-0.090754
0.594829
0.759054
-1.595532
-0.987433
0.791115
0.618137
-0.449363
-0.633496
0.722904
-0.006604
-1.371755
-0.638368
-0.334754
-0.798570
0.311095
1.342119
-0.291962
-0.391713
-0.735836
-1.397679
0.743873
-0.995918
-0.259207
-0.030978
0.029766
0.288768
0.443303
-0.129685
0.092750
-0.735746
-1.215001
1.272604
0.192284
-1.284726
-0.796662
1.037114
0.786422
-0.755279
0.742871
0.810382
-0.260707
-0.247103
-0.558918
-0.604307
-0.330359
0.841773
-0.058578
0.073448
-1.304568
-0.798844
0.139391
0.357838
0.401793
-0.707102
-1.155053
1.006951
0.505619
0.644725
0.694189
0.629157
0.800655
0.652570
0.463691
0.688151
0.386190
-0.198430
1.017297
-0.240386
-0.186242
-1.003748
1.073363
1.640353
-0.477975
-0.221822
0.999932
0.364076
0.398347
-0.517220
0.179139
-0.336324
-0.174332
-0.671769
-0.597317
0.546377
0.158353
0.135158
0.145533
-1.381277
0.172363
0.775987
-0.256174
-0.271315
-0.490217
0.208933
-0.486697
0.396850
-0.377430
1.085154
0.101656
-0.424993
-0.647277
-1.078666
-0.180386
-0.501826
-0.364153
1.028373
0.342413
0.759464
-0.497159
0.425922
0.134432
-0.991621
0.257381
-0.059001
0.185702
0.324042
-0.526159
-0.199861
-0.513637
1.198096
0.988043
-0.236408
1.104528
-0.682222
-0.311670
-1.853349
0.057854
-0.790652
0.523814
-0.660302
-0.510835
-0.064060
-1.311332
0.062208
-0.264982
0.368054
-0.709156
-0.438141
0.594959
0.607327
-0.152226
0.304486
-0.135306
-1.148191
-0.796039
-0.137769
-0.334109
0.258382
0.634687
0.836331
-0.236066
-0.897109
1.117506
0.152275
-0.136041
1.209926
0.846931
1.185358
0.434453
-0.443810
0.456859
-0.508309
0.158898
0.253546
0.480340
-0.676497
-0.213962
0.363185
-0.425224
0.422749
0.303298
-1.003202
0.108431
-0.061114
-0.083436
1.005181
-0.495695
-0.053452
-0.336873
0.314072
0.187176
-0.647781
-0.761981
0.595261
0.316428
-0.820767
-0.172841
-0.265110
-0.636823
0.855138
-0.182001
0.148266
0.872676
0.670100
0.472640
0.477388
-0.815462
0.755191
-0.534764
0.621178
0.277968
0.674671
-0.160830
1.219967
0.329107
0.208195
-0.235919
0.065954
-0.493956
0.804169
-1.239197
-1.419940
-0.908114
-0.478503
0.990653
0.036329
0.258778
-0.315238
-0.392266
0.036586
0.214177
0.246699
0.738125
0.320271
0.785651
-0.503494
-0.426097
0.749667
-0.276321
1.315402
0.906574
0.680921
0.367395
0.045202
-1.372631
-0.672560
0.458516
0.599958
-0.343596
-0.299254
-0.233824
0.396908
-0.273128
1.396489
-0.663324
0.249584
1.138613
1.060037
0.423228
-0.451104
0.313621
0.206330
-0.559842
1.822733
-0.438775
-0.273251
-0.369834
-0.732682
-0.564734
-0.010714
1.394703
-0.449492
1.042151
-0.722136
0.626302
0.220673
0.484404
0.574997
1.201942
-0.825674
0.222996
-0.758873
-1.440867
0.276321
-0.841225
0.385371
0.444063
-0.034342
-0.364853
-0.347996
-0.740332
0.226886
0.264862
0.720311
0.166269
0.410415
-0.551260
-0.256429
0.228228
-0.121317
-0.945275
-0.353165
-0.092729
-0.098694
1.015265
-0.215764
0.149433
-1.488790
-0.892756
0.238283
0.202051
0.610064
1.228493
-0.222790
-0.142314
0.917059
0.268757
-0.201324
0.227390
1.308445
0.277799
0.747004
0.892412
-0.208796
-0.077915
-0.229213
-0.371831
1.079886
-0.154680
-0.130637
-0.870399
0.736471
1.456516
0.974465
-0.203675
1.615273
0.551926
0.609369
-0.343511
-1.314268
-0.145001
-0.535780
0.413208
-0.557655
-0.297184
-0.846186
1.124389
0.157642
-0.079750
-0.087203
-0.685170
1.566503
1.626624
-0.275646
-0.525117
-0.450363
0.649748
1.080514
-0.732063
-0.481964
0.231363
-1.719097
-0.248498
-0.535679
0.374806
-0.417068
0.858532
-0.497548
0.418171
-0.209839
-0.209235
-0.577228
0.951143
-0.581694
-0.853357
0.006044
0.432071
0.541449
0.519552
0.099602
-1.258749
-0.242408
0.417519
-0.315915
-0.672881
-0.398327
0.839962
-1.178094
-0.239835
0.247889
0.171714
-1.658887
-0.063049
-0.622630
-0.604338
0.710007
0.092361
-0.465140
0.537633
0.218861
0.380605
0.448257
-0.089965
1.211130
-0.336908
0.203282
0.020136
0.411189
0.633381
-0.482107
0.096913
0.309713
-1.186278
0.050686
0.942720
1.021508
0.149088
-0.829297
0.429380
1.716517
-0.366844
-1.126991
-0.014014
0.322919
0.616391
0.066382
-0.247162
0.994908
-0.606250
-0.478857
1.104541
0.470237
1.156723
-1.164623
0.606537
0.301160
-0.092345
-0.835968
-0.441557
1.152092
0.175991
-0.834570
0.219510
-0.784800
-0.108305
0.081989
0.113978
-0.458087
-0.009553
-0.635415
0.206759
-0.648879
0.066616
-0.097989
-0.119006
0.533637
-0.073455
-0.300831
0.248213
0.091286
0.424044
-0.999446
1.107771
1.636089
0.275263
-0.078240
-1.093516
0.253537
-0.926534
1.450308
0.814310
0.896806
0.135211
0.436981
-0.899979
0.540269
0.667221
-0.020161
-0.161622
-0.720357
-0.316911
0.324575
-0.308514
-0.225019
0.231301
0.215893
0.235561
-0.164455
0.658216
-0.166350
-0.126053
1.471862
1.066995
-1.037410
-0.787911
-0.459836
-0.194833
0.533393
-0.819452
0.248599
-0.537930
0.155781
-1.950523
-0.317501
-0.205784
0.318558
-0.325703
0.405999
0.273839
0.530346
-0.370356
0.701071
-1.290838
-1.055648
-0.048085
-0.426367
1.762223
0.417934
-1.080325
-0.027765
-0.167892
-0.700015
1.245433
0.015572
-0.203434
-0.551262
0.345103
0.448997
-0.800878
0.007526
-1.335006
0.656464
-1.549263
0.367607
0.399512
0.441649
-0.330474
-0.239737
0.324065
-0.282486
-0.827037
-0.295790
-0.889245
0.338813
-0.941669
0.215535
-0.229248
0.511904
-0.191147
-0.768070
1.018232
-0.078965
-0.013267
-0.293152
0.766744
-0.648599
0.371383
1.046044
-1.065575
0.097959
0.052833
-0.544176
0.567398
-1.220919
-0.437385
0.865363
-0.394989
-0.406901
0.600197
0.004050
-0.691430
-0.204450
-0.947410
-0.673185
0.147899
-0.101129
0.041311
1.245986
-0.029344
0.024045
-0.088179
-0.490431
0.090750
0.641392
-1.078599
0.570732
0.187656
0.628278
0.261372
0.064294
-0.617398
0.870528
-0.757236
0.496691
0.703377
-0.732332
-0.813235
-0.242654
0.139067
-0.071330
0.163652
-0.156255
-0.078960
0.374946
-0.153016
-0.998611
-0.421574
-0.815920
-0.157053
-0.637442
0.911974
0.040385
-0.213541
-0.630796
-0.420354
-0.812717
-0.371703
-0.490650
0.250431
0.816051
-0.304764
0.964658
-1.269067
-1.080900
0.948867
0.067753
-0.403207
-1.035496
-1.247171
0.157230
0.017502
0.038909
-0.060602
-0.138598
-1.722628
-1.002082
-0.923657
0.385758
0.586585
-1.717717
-0.358418
2.322867
-0.769619
-0.241300
0.434596
0.345657
0.230836
-0.156039
1.193906
-0.609711
0.093981
-0.328447
-0.189589
-0.290198
-0.242222
0.829938
0.110198
0.303808
0.993487
-0.622948
-0.073737
-0.172703
-0.828674
-0.806443
1.025994
-0.895084
0.714498
0.500367
0.311525
0.478254
-0.968478
0.041687
-1.180717
0.993615
-0.417905
0.229963
0.472652
-1.521188
0.972495
-0.459787
-0.365335
-0.197685
0.463956
0.031739
0.396169
-0.006484
-0.214618
0.541397
-0.377318
0.765692
0.086898
0.955338
-0.921079
0.685576
0.343265
0.527123
1.084795
-0.139955
-0.451733
0.049040
-0.795908
-0.190754
-0.124100
1.026673
0.478320
-0.133102
0.072475
-0.214067
-0.874667
0.496470
0.016756
0.978881
0.429356
-0.062342
0.101819
-0.104272
0.881453
0.196178
1.403004
-0.146962
-1.245670
-0.362103
0.966427
-0.455615
1.619989
-0.397155
0.676241
0.201671
0.414578
0.206221
-0.502658
0.231476
0.274291
-0.536724
0.913145
0.206210
-0.036749
0.567621
-0.164723
-0.713534
0.201283
-0.242715
0.050396
-0.421353
0.027878
0.637719
0.217555
-0.311724
-0.286368
0.068873
0.347860
-1.643755
0.189025
1.469403
0.174785
0.783737
1.137438
0.304582
-0.401789
-0.077968
0.748005
-0.512919
-0.215868
-0.533221
-0.517550
-0.044349
0.339606
0.311788
-0.399769
1.007718
0.053804
-0.669273
-0.004952
-0.305373
-1.045171
-0.746480
0.861330
0.656025
-0.631451
-0.282477
0.751603
-0.928410
0.343534
0.333585
-0.641646
0.295131
0.009954
-0.230323
0.227065
-0.033666
-0.325975
-1.045853
0.718777
0.515753
0.774710
-0.609611
0.308848
0.649436
-0.800214
-0.551710
0.512924
0.527857
0.474088
-0.392612
0.760670
1.247165
-0.752435
0.828557
-0.185210
0.236798
-0.464555
0.427755
0.731121
-0.259268
0.696516
0.136952
-0.377609
0.363125
-0.353353
0.749343
0.190750
0.665585
-0.383727
0.773119
-0.694528
-2.102304
-0.019431
0.083030
-0.357954
1.330753
-0.215326
0.910975
0.270163
-0.389356
-0.281252
0.820793
-0.598626
-0.243523
-0.664059
1.670932
0.519604
0.835802
-0.385529
0.463485
-0.375717
-1.355842
-0.565269
-0.124715
0.756499
0.250090
-0.732038
0.533043
-0.538131
-0.901961
-0.675945
-0.272427
0.348951
0.746560
-0.967993
-0.197517
-0.996245
-0.727271
1.275961
-0.380517
-1.116187
0.215371
0.175736
-0.367425
-0.694156
0.640326
0.109961
-0.080363
0.356226
0.282359
-0.379988
0.480683
-1.062146
-0.209600
-0.330885
0.165208
-0.872273
-0.358892
1.011087
-0.557502
-0.240331
0.623924
0.155015
0.574455
-0.582231
0.557429
-0.036017
-0.549208
-0.640801
-0.575504
0.122649
-0.951427
0.702941
-0.345810
-0.755208
1.068731
0.777384
-0.994131
-0.993615
0.167114
0.398264
-0.683109
-0.448306
-0.782085
-0.520799
-0.035085
0.158910
-0.926216
1.028133
-1.085433
-0.772483
-0.129692
-0.048118
-0.066623
0.143164
0.268335
0.465671
0.373818
0.289041
-1.110360
0.643054
1.232290
-0.459784
0.258839
0.610883
0.309667
-0.725631
-0.764720
-0.021408
-0.811266
-0.559970
-0.078251
1.243526
0.468676
-0.701897
0.443485
0.482025
-0.097408
0.106867
-0.768055
0.040171
0.443101
-0.501814
-0.380635
0.109789
-0.413812
0.710545
-0.217711
0.777743
-0.211946
-0.478731
-0.356555
1.332893
-0.018140
0.277037
0.142465
0.387174
0.276766
-0.688829
-0.478031
0.785464
-0.480206
0.183053
0.623293
-1.010173
0.575941
0.450890
-0.625644
1.159176
0.512050
0.029575
0.253777
-0.300104
-0.184037
-0.530449
0.570503
-0.111301
1.162990
0.351272
-0.056462
0.754499
-0.514178
0.715286
0.094647
0.335707
-0.142517
-0.332408
0.266744
-0.326852
0.608998
0.191588
-0.588304
0.999938
0.459827
-0.560809
0.622291
-0.094862
-0.068031
0.160922
-1.850093
0.709891
0.343503
0.526064
1.499441
-1.045698
-0.538361
0.749462
-0.068699
-0.729708
0.379412
-0.115577
0.040631
-0.308143
0.363468
0.953398
-0.743765
0.413555
0.368661
-0.147404
0.155395
-0.705821
-0.909606
-0.319222
0.013894
-0.777537
-1.550732
-0.164825
1.002374
-0.335602
-0.159492
1.062905
0.671391
-1.101425
-0.238925
-1.098030
-0.408207
0.747666
0.003720
0.644613
0.110597
-0.379335
-0.877831
0.835209
-0.149212
-0.970968
0.128739
-0.331787
-1.030951
-0.898690
1.415026
-0.791207
-0.751821
-0.162341
0.177954
0.106051
0.180008
0.320147
0.665770
-0.084921
-0.003713
-0.323833
-0.835536
0.303671
-0.303064
-0.208913
-0.212953
-0.542886
0.366968
1.126703
0.029141
-0.761901
-0.756106
-0.311109
0.104047
0.451101
0.088319
0.084542
-0.826693
0.863959
0.455534
-0.668312
0.797615
0.115229
-0.805875
-0.320979
0.047936
1.196830
0.382102
-0.633468
0.435686
0.008991
1.543183
-0.859996
0.531221
-0.980330
0.219035
-0.414083
1.121273
-0.834624
0.522794
0.831999
0.757296
-0.439940
-0.703003
-1.009888
0.703103
0.104534
0.671418
0.996697
-1.461948
0.143810
1.008891
0.768935
-1.025598
-0.007680
0.674799
0.045409
-0.208070
0.082956
-0.016576
1.017038
-0.034391
-0.627726
0.592883
-0.416464
-0.659791
-0.442419
1.182765
0.408401
0.864561
-0.854139
0.205907
-0.158066
1.131553
0.664028
-1.224165
0.079442
-0.506689
0.564302
-0.572524
0.286849
-1.817743
0.621994
-0.045623
0.290972
0.380369
-0.456449
0.076889
0.221624
0.392779
-0.104846
1.173066
-0.317456
-0.483002
-0.256393
-1.146278
0.262100
0.308494
-0.476278
1.069411
0.626891
0.420780
-0.439772
-0.307181
0.649176
0.441840
1.193268
-0.518535
0.030102
1.818264
0.153076
0.100606
1.135248
-0.317827
-0.188227
0.160527
-0.730592
-1.104237
0.797797
-0.226635
0.083939
-0.520833
0.385508
0.376171
-0.314511
0.174663
-0.403415
-0.779618
0.809383
0.188958
-1.885020
0.289415
1.045090
0.487399
-0.223058
0.178112
-0.598643
1.019704
-0.245997
1.065487
-0.310034
-0.547241
0.547533
-0.255281
1.449501
-0.502611
-0.003888
0.072413
0.193931
1.089611
-0.326622
-0.371254
0.831042
-0.758690
0.142239
-1.755680
0.992359
-0.048289
1.011203
0.483988
0.148495
-0.808961
-0.155309
0.632565
0.068280
-0.215443
-0.210822
1.304825
0.326469
0.924836
1.134322
0.633261
-0.869046
0.645988
1.438684
-0.814188
0.708258
-0.466378
-0.510870
-0.205549
-0.364240
-0.522102
0.201661
0.254626
1.164334
0.211230
-0.371448
-0.221996
0.131594
-0.037590
0.115524
0.263961
0.196129
-0.048886
0.081133
0.522511
0.034744
0.614762
1.475059
0.187139
-0.104078
-0.645647
-0.367454
-1.145438
0.120840
-0.920697
-0.469810
-0.152489
0.141238
-0.455571
-1.591169
0.373003
-0.005135
0.113209
-0.047615
-0.846953
-0.085009
-1.423411
0.163646
0.211078
-0.975936
0.730182
0.047508
0.457504
1.399447
-0.984961
-0.358278
-0.435788
0.154670
0.417902
1.292626
-0.813210
-0.690954
-0.510870
-0.875256
0.414716
0.410995
-1.016397
-0.025129
-0.126654
0.551397
-0.393173
0.072307
-0.081856
0.530072
-0.049910
0.279363
0.944701
-0.117897
0.359794
0.713322
0.454872
-0.201410
0.695674
-0.321576
-0.819844
-0.008291
0.617627
-1.878454
0.620432
-0.417597
-1.316375
0.121978
0.436135
-0.065482
-0.093998
0.986293
-0.464154
0.604415
-0.384945
-1.112243
-0.149657
-0.172593
0.121134
0.649097
1.131915
0.275344
-0.563702
0.185141
-0.438036
0.088095
1.153341
0.852397
-0.108138
-1.269404
0.124680
0.708646
0.307365
0.105160
0.742534
0.493594
-0.039218
-0.069153
0.119308
0.206883
-0.655883
-0.549091
-0.119589
0.090792
0.343326
-0.244842
-0.616379
0.312059
-1.525147
-0.137404
-0.279819
0.007204
1.149164
0.012653
-0.223942
0.986720
-0.038337
-0.963159
0.710881
-0.145336
1.636496
0.614521
-0.142723
-0.066524
-0.461871
-1.209315
0.290293
-0.424249
0.021460
-0.464489
0.461903
0.234622
0.470369
-0.081408
-0.569239
0.179964
1.213365
-1.901390
0.231461
-0.367778
0.661056
0.664810
-0.533740
1.380315
0.439382
0.269459
-0.160221
-0.394573
1.582458
-0.247580
0.916739
0.067970
0.208070
1.225285
-0.406479
-0.112348
-0.640647
-0.793028
0.248742
1.090361
-0.697489
0.814590
0.311977
0.584637
-0.741924
-0.657744
0.169893
0.340265
-0.123776
0.708803
-2.144996
0.116959
0.328505
-0.105040
0.253387
0.100344
0.171795
-1.063612
0.654228
-0.525088
0.032307
0.329843
-0.765995
0.691492
-0.570647
-0.347728
0.632774
-0.320287
0.202650
0.027767
-0.495027
0.013009
-0.061990
0.797801
-0.743813
-0.332728
-0.400727
-0.777672
-0.295918
0.247852
1.577304
-0.057834
0.501707
-0.901316
-0.167584
0.282525
-0.069773
0.025110
-0.299491
-0.082746
1.216618
0.081918
0.740612
0.304291
0.547447
-0.536697
-0.527268
-1.038016
-0.102355
-0.121756
0.502573
-0.581264
1.145390
-0.966422
0.380524
-0.822734
0.195609
-0.207846
0.598193
0.344909
1.166777
0.898054
-0.210366
-0.149236
-1.534235
-0.478935
-0.050342
-0.219451
1.356225
-0.536203
0.113372
1.210048
-0.567014
0.018899
-0.010145
-0.559922
-0.701665
-1.052800
0.720984
-0.670894
-0.580851
-0.094111
0.326349
-0.896874
-1.294122
-0.765591
-0.067628
0.214763
0.769138
0.338146
0.945137
0.548953
-0.388142
0.179084
0.773299
2.030410
0.355967
0.161283
0.372769
0.043802
-0.962585
0.304689
-1.917401
-1.149972
-0.018835
0.549419
0.464686
-0.408331
-1.052345
0.273691
0.740981
1.380696
-1.162327
-0.475849
0.564368
0.046334
0.499467
-0.442043
-0.426084
-0.784272
0.435872
0.107189
0.295752
0.573067
-1.121290
0.737020
0.045442
-1.125401
0.140764
0.535611
0.487579
-0.392088
0.232348
0.070451
0.359739
0.801555
0.735589
0.532986
0.635594
-1.231968
1.371007
-0.489900
-0.286135
-1.045197
0.036278
-0.333851
0.388779
-0.737800
0.086816
1.196006
0.104309
-0.221425
0.316562
0.613406
-0.340868
0.302958
0.885328
0.059788
-0.540566
-0.046689
0.424689
0.536372
-0.437128
-0.018563
1.879234
-0.872208
0.772119
0.044184
0.313889
0.286095
-0.673732
-0.099096
-1.239658
0.687864
0.049968
-1.599021
0.425030
0.039066
-0.024398
0.580173
0.488992
0.728568
0.989306
-0.497738
-0.058250
-0.631263
1.386728
0.623585
0.385308
-0.228755
0.463927
0.058910
1.891170
0.454468
1.774564
0.305529
-0.458314
-0.509124
-0.047486
0.295140
-0.217621
-0.307522
0.186699
1.110142
-0.494511
0.233963
-0.290649
0.185295
-0.216708
-0.867604
2.352714
-0.417852
-0.262415
0.679273
-0.359214
-0.079175
-0.887162
-0.438641
-0.981580
-0.823328
0.485550
1.074149
0.536268
0.468019
-0.556676
-0.653549
0.477288
0.407809
-1.151228
-0.088347
-0.323164
0.343727
0.959656
-0.095479
-0.693593
0.790757
0.766144
-0.363147
0.748610
-1.727378
0.788128
-0.122015
0.397768
0.116560
-0.929685
0.959727
-1.349146
0.195937
0.461000
-0.477015
1.268107
-0.656670
-0.873128
2.173049
-0.879267
0.014191
-1.088188
-0.112263
-1.552427
-0.410505
-0.259954
-1.765040
-0.562699
-0.249641
0.343910
1.291422
0.326325
0.178028
-0.117272
-0.573499
0.712108
-1.335102
-0.464971
0.101592
0.383690
0.359378
-1.262767
0.771043
0.953268
-1.312430
1.077899
-0.048301
-0.792005
0.594754
0.882019
-0.252202
-0.885782
-0.367601
1.023649
-0.234272
0.275746
-0.386759
0.921413
1.414563
0.190088
0.207159
0.977562
-0.613969
0.280725
1.254092
0.065439
0.196855
0.781421
0.018254
-1.158710
-0.422440
0.622509
-0.477699
1.054844
-0.632913
0.068418
-0.181149
-0.531834
-0.252486
-0.571606
-0.473435
0.429482
1.579235
-1.088137
0.333310
-0.112939
-0.345032
0.054593
-0.817500
-0.078645
0.279301
-0.307503
0.705837
-0.390579
0.581881
0.624326
0.000550
0.481370
0.209223
0.819745
-0.086006
-0.141036
-0.353180
-0.553910
-1.012363
1.365140
0.298454
-0.309594
0.676337
-0.041871
-0.175178
-0.322077
-0.364916
0.616096
-0.918393
-0.729853
0.554178
0.314046
0.287751
0.206615
-1.414049
0.381994
1.098021
0.004092
-0.757590
0.771702
0.480415
0.496788
0.153373
-0.212076
-0.161869
0.698524
0.639131
0.165458
0.834445
0.255560
-0.585558
0.071754
-0.172042
0.159154
0.125783
1.565668
0.161305
-0.554108
-0.526788
1.169686
-0.700769
0.731881
0.540521
-0.759023
0.042666
0.136867
0.551237
-0.649493
-0.001013
0.884550
0.669140
-0.343127
-0.126380
0.706762
0.026922
0.134035
-0.510318
0.344758
0.652124
1.361418
-0.711472
0.411364
0.242859
-0.184323
0.698002
0.764369
1.007707
0.023307
-1.015267
1.265488
-1.060877
-0.767203
-0.134876
-0.484426
0.569088
0.882082
0.605808
0.060311
0.924068
-0.541033
-0.071770
-0.441550
0.925171
-1.328662
-0.270986
-1.243386
-0.873057
-0.547661
-0.506889
-0.654683
-0.540595
-0.823921
-1.264543
-1.094910
1.440471
-0.781233
-0.228270
0.408496
-0.427088
-1.279161
0.514943
-0.286752
-0.124895
-1.065438
0.639141
-1.731333
-0.321767
1.231040
-0.413715
-0.784615
0.249767
-0.267287
-0.014141
-0.186063
0.187868
-1.246679
-0.307894
-0.083728
-1.053763
-0.152063
-0.836180
0.185882
-0.000209
0.188531
1.282154
1.789614
0.234983
-0.345662
0.771423
-0.822470
0.096080
-0.181194
0.200117
1.092655
0.445732
0.320986
0.685243
-0.476210
0.472994
-2.086027
-0.243621
0.154976
-0.312047
-0.991319
0.475104
1.558879
-0.272075
0.903895
-1.172005
0.455466
-0.040276
0.194563
0.045409
-0.367015
-1.055268
0.575409
0.721412
0.001873
0.070690
-0.387984
-0.622033
-0.023927
0.139137
0.089374
-0.508035
0.822426
0.366649
-0.396481
-0.762337
0.088747
0.638025
-0.444227
0.612147
-0.262035
0.081857
-0.317975
-0.224527
0.474572
-0.196393
1.444014
0.564333
-0.241935
0.274230
0.340789
0.028942
0.586524
0.020704
-0.506848
-0.586941
-0.232520
0.491569
-0.247240
0.720821
-0.084271
0.055297
0.252769
-1.407297
0.760401
0.833727
0.186464
-0.470980
-0.364499
0.436551
-1.142153
0.078748
-0.344986
-0.027033
0.899822
-0.049155
0.413829
-0.465243
0.230177
0.094107
0.118403
-0.769796
0.320868
-0.015345
-0.073395
0.603116
0.014513
-0.431232
-0.434712
-0.284399
-0.280422
-0.073506
0.672410
-0.152641
-0.092971
0.743810
-0.047112
0.551845
0.116449
-0.263019
-0.382696
1.109375
0.980404
-0.896798
-1.233011
0.678898
0.058662
0.677300
0.363460
0.563795
-0.158282
0.024861
0.994685
-0.557940
-0.736446
-0.262573
0.604161
0.110822
-0.256128
0.364199
0.333945
0.208010
-0.129454
0.145238
-0.637834
-0.113688
0.092134
0.068778
0.800904
-0.908453
-1.232187
0.550994
1.002469
0.353295
0.114535
0.337203
-0.209249
0.612270
-0.116175
0.352797
0.589544
0.572392
-0.225516
0.444462
-0.817910
-0.496723
-0.265106
-0.841814
0.465670
-0.761134
-0.387295
0.045368
-0.251016
-1.079393
-0.693392
-0.377379
-0.674589
-1.263992
0.687901
0.075070
0.158094
-0.044175
-0.632073
-0.030523
0.036541
-0.579694
-0.581685
2.401059
-0.040409
-0.817687
0.319487
-0.322278
-0.039420
0.948069
-0.336125
1.317221
0.524713
-0.004576
-0.612927
-0.360611
0.618101
-0.705440
-0.227423
0.750002
-0.118691
-0.580625
0.944796
0.049958
0.631263
0.244763
-0.263601
0.098186
0.451189
-0.973601
0.464496
0.319704
-0.611939
-0.516319
-1.480944
0.167479
0.666209
-0.255092
0.796042
-0.369025
0.080231
-0.600978
1.246665
0.595039
-0.884953
0.252724
-0.270444
-0.218753
-0.241730
-1.442919
-1.136939
-0.073297
-0.581798
-0.914995
0.894961
-0.406989
-0.406526
-0.243532
-0.105299
-0.153993
0.197794
0.391272
-0.084700
-0.258123
-0.549431
0.007694
0.680566
-0.126428
-0.926586
0.008979
-1.058302
0.624209
-0.305559
-0.317759
-0.239457
0.571061
-0.055689
-1.083336
0.033377
0.806417
-1.087347
0.350326
0.374797
0.473909
1.280918
0.333416
-1.239144
0.723880
-0.066090
-1.557488
-0.619241
0.423136
-0.632856
0.375760
0.490545
0.706817
0.088931
-0.458339
1.172365
0.107745
-0.466994
0.654680
-0.460983
0.741402
0.263572
-0.302412
-0.463896
-0.768009
-0.825146
-0.108966
0.191510
0.225266
-0.052413
-1.215755
0.116381
1.231849
0.966382
-0.310685
0.797852
0.516607
0.209599
0.844192
-0.403323
0.132268
0.252503
-0.447954
-0.728547
-0.146274
-0.960822
0.634309
-0.465592
0.770261
0.408974
-0.412774
0.200840
-0.849852
-0.002611
0.138016
0.114229
0.724922
-0.499922
0.695668
0.709363
0.857637
0.625152
0.554480
-0.986944
-0.159928
-0.317238
-0.542913
-0.901693
0.410514
-0.541935
-0.188951
-0.378057
-0.607661
-0.461468
-0.138152
-0.258848
1.524609
-0.012100
1.182428
1.049700
-0.598726
-1.518112
-0.064494
-0.582438
-0.534470
0.171650
0.639544
-1.358861
0.716976
-0.157862
0.580320
-0.410744
-0.450039
0.061923
0.300422
0.078964
-0.625659
-0.531508
0.256546
-0.683205
0.959556
0.083919
0.683487
0.031648
0.127738
-0.788681
0.389120
1.130558
-1.304677
0.681518
-0.793799
0.846881
0.600383
0.554173
-0.951373
-1.360717
1.627660
0.107881
-0.040716
1.211452
-1.474914
-0.136119
0.118990
0.621447
-0.097404
1.257242
0.581367
-0.125998
0.456529
0.354643
-0.380776
-0.106493
0.380423
0.793345
-1.310162
1.004152
1.424261
0.208572
0.059434
-0.811019
0.167827
-0.320230
0.979628
0.537165
0.658201
0.498038
-0.566133
-0.838243
0.975810
-0.302748
-0.073026
0.360743
-0.645937
-0.787250
0.574451
-0.402571
-0.103063
-0.098626
0.717315
-0.001632
1.323102
0.512621
0.320115
0.479580
0.057156
-0.029437
-0.118842
0.640769
-1.409788
0.464062
-0.736507
0.476591
-0.301126
-0.448872
-0.034692
0.234106
-0.143611
0.403046
0.096572
-0.192607
1.338622
-0.915152
0.244865
0.455397
0.935100
-0.709136
0.710165
0.195865
0.530564
0.954841
-0.928665
0.977846
-1.275097
0.707825
-1.331280
0.428335
0.098684
0.237786
0.345191
-0.930808
-0.052359
-0.790304
-0.193298
-1.088071
0.113212
0.034806
-0.389390
0.087954
0.581139
-0.683391
0.747169
-0.271474
0.870498
-0.181208
0.273693
0.231124
-0.433502
0.957361
-0.042285
-0.029640
0.481393
-0.583070
-0.334025
0.473884
1.034507
0.236386
-0.483108
-0.854992
-0.499316
-1.561470
-0.192551
0.619436
0.388720
-0.196028
0.236006
1.717367
-0.294253
0.008448
1.157297
-0.770097
0.315552
0.890841
0.871658
0.241244
1.032536
0.497964
0.226747
0.757199
1.231323
-0.727060
0.237807
-0.925293
0.657786
0.034399
-0.898099
0.368961
-0.173237
1.290521
-1.392507
-0.445339
-0.357498
0.447731
0.627073
-0.461000
0.996639
-0.671401
0.443025
0.330424
-0.143387
0.594849
0.208990
0.694951
-0.082821
0.515441
-0.570290
-0.310555
0.615859
-0.376963
-0.331625
-0.401104
-0.183484
0.228445
0.268356
0.313626
-0.569035
1.029544
1.032313
0.960226
-1.069317
-0.064151
1.510650
0.323426
-0.279496
0.487760
-0.290396
-0.172662
0.338508
-0.430451
-0.038837
0.978518
-0.588068
-0.984945
1.482643
0.375948
-0.058758
0.200372
1.280580
0.062775
0.885972
-0.903140
-0.663777
0.530624
-0.249767
-0.165044
-0.389763
0.754660
-1.306974
0.089396
1.177558
-0.103348
0.834673
0.208165
0.039375
0.471852
1.214881
0.137551
0.382657
-0.453626
0.115570
-0.966141
0.918093
1.551671
-0.930710
0.869220
0.094072
-0.742386
0.038002
-0.918426
0.324213
0.537108
0.525938
-0.025176
0.312341
-0.324494
0.520514
-0.252459
0.587050
-0.884138
0.424747
-1.373580
0.124490
-0.818700
0.627851
0.112313
0.425973
-0.962963
0.177241
-0.565662
-0.081066
0.899840
-0.134128
0.688068
-0.848087
0.405276
-0.127178
0.016191
2.167346
0.642011
-0.413871
-0.032898
0.093480
0.847348
-1.086972
-0.766105
-0.092059
-0.350867
0.418770
0.217915
0.806186
0.303274
-0.355004
0.513216
-0.225994
-0.142411
1.388239
0.170362
0.149418
0.805871
-1.454412
-0.867537
-0.334509
-0.424332
0.989365
-0.694666
-0.339661
0.309250
0.102196
0.582971
-0.504241
-0.069191
0.175034
-0.361369
0.144376
0.246243
-1.070255
0.254221
-1.654141
0.042755
-0.647049
0.303141
-0.169893
0.518608
0.182284
0.100578
-0.056964
0.848702
0.678305
-0.893701
-0.178833
0.106276
0.670723
0.381830
0.601676
0.021983
-0.177562
0.134172
-1.166537
-0.239588
0.594510
1.036364
-0.570862
-0.150344
-0.442762
-0.051306
0.179269
-1.204358
0.529774
0.778988
-0.426920
-0.810648
0.451605
-0.638514
0.702025
0.328366
1.029094
-0.464752
-1.815410
-0.317937
-0.486176
0.050508
1.220328
1.068769
1.271127
0.269903
0.662445
-1.518333
-0.333833
-0.514627
-0.055322
-2.024709
-0.212750
-0.139008
0.069442
-0.513935
-1.041636
-0.400078
-0.608467
0.641320
1.301686
-0.316598
0.821206
-0.522729
-0.017373
0.442245
-0.449163
-0.044151
0.527496
0.601895
0.510053
0.397185
0.743015
-1.158519
-0.274319
-0.747706
-0.104389
-1.092589
0.035825
-0.463519
-0.646783
-0.043768
-0.620180
-0.264048
0.233591
0.628269
0.694723
0.537460
0.553862
0.159985
0.223459
0.244261
-0.305181
-1.107656
0.263585
0.689979
-0.862346
-1.055879
0.009644
-0.231798
-0.901591
-0.370401
-0.301411
0.389106
0.511197
0.021497
-1.356562
-0.201774
0.451070
-0.143816
-0.073516
-0.177542
1.025842
0.171051
-0.754401
0.167999
-0.621606
0.693175
0.417686
1.050288
-0.236602
0.843989
0.183362
0.079621
0.126818
0.681263
-0.225422
-0.515443
-0.402959
-1.145404
-0.831801
0.028927
0.991551
-0.108928
-0.166128
0.089592
-1.089811
0.513122
0.149887
0.682051
-0.133084
0.767921
-0.518440
0.225264
-0.963935
-0.410421
0.780650
0.186679
0.090864
-0.637526
0.215816
0.513978
-1.278868
-0.886032
-0.852959
0.423544
-0.563628
0.646536
-0.501096
0.101801
-0.129954
-1.096369
-0.080709
-0.777056
-0.620533
-0.445288
-0.774300
-0.711058
1.556511
0.602052
0.726817
0.971779
0.237440
-0.011879
-0.033355
-0.183696
0.204521
-0.518098
1.029714
-0.052773
-0.144192
0.886030
0.603222
-0.563795
0.270511
0.844125
0.505334
-0.188266
-0.615755
1.205668
0.174282
1.781849
1.075728
0.535286
-0.202774
0.127850
1.122587
-1.088374
-2.171826
0.132317
-0.353162
-0.128006
-1.242673
-1.518365
0.617510
-0.032092
0.626187
0.024878
1.203825
0.241186
-0.068336
0.598643
0.541593
0.498863
0.338405
0.971813
-0.196704
-0.868997
-0.995771
0.797392
-0.160005
0.889652
-0.619302
-0.275904
0.437259
0.995117
-0.672517
0.108815
0.851552
-1.177469
-0.383888
-0.217555
-1.172008
-1.538759
-0.717541
0.426263
0.826381
0.770300
0.531294
-0.260248
-0.138799
-0.527498
-1.140074
-0.263235
-0.316516
0.263171
-0.734940
0.122503
0.863253
-0.673711
-0.098939
-0.448773
-0.011491
-0.955697
0.872718
-0.147239
0.595161
0.283701
0.751197
0.795543
-0.887682
0.746017
0.277202
0.485487
-0.436465
-0.009580
-0.728149
-0.394912
1.105539
1.130629
-0.559718
-0.063253
0.059322
1.542089
0.264457
0.530369
-0.728018
-1.037832
-0.344477
-1.130541
0.277263
0.262972
0.947497
-0.390854
0.174660
-0.165042
0.477708
0.482703
-0.200341
0.841711
0.089781
-0.191422
-0.338108
-0.259132
0.324755
-0.089292
-0.185569
-0.028419
0.761012
-0.236311
-0.737936
-0.688946
-0.463920
-0.079983
1.020367
0.028009
0.038748
0.089649
0.455462
0.422908
1.263055
-0.717345
0.202074
-0.630200
-0.568471
0.560995
-1.527595
0.067055
0.068669
-0.035245
0.059938
1.128201
-1.343273
-0.822576
0.844026
-0.624527
-0.345996
0.033456
0.805098
-0.458557
-0.619483
0.100405
0.000169
0.175227
0.239989
-0.878363
-0.019096
0.406856
-0.498363
-0.256877
0.134849
1.701806
-0.916901
0.622639
-0.654280
0.608091
0.027992
0.049632
-0.000770
0.288491
-0.362267
0.932063
-0.227862
0.189145
1.097624
0.051581
0.476983
-0.054810
-0.339440
1.110318
0.720094
1.654848
0.870935
0.031174
-0.847236
-1.132957
0.228368
0.138139
-0.201686
0.286325
-0.044842
0.319070
-0.016582
-0.105629
-0.000163
-0.679207
-0.141934
-0.012736
0.206260
-0.359456
1.004956
0.402340
0.601429
0.936800
0.241455
1.213723
-0.510746
-0.690473
0.344182
-0.421048
-0.418038
1.097140
-0.763948
0.503945
0.583498
-1.153964
-0.786288
-1.081481
0.134500
-0.015316
0.460117
-1.067244
0.209953
0.332249
-0.936590
0.365156
0.632356
-0.231743
0.176587
-0.806859
1.241959
-1.170780
1.004686
0.227553
-0.292401
0.614437
0.074441
-0.523627
-0.162627
-0.735138
0.623320
0.356237
0.676921
-0.277643
0.354254
-0.645024
-0.263006
0.780157
0.500229
1.265887
-0.044117
-0.242179
0.940036
-0.910351
-0.434407
1.178073
-0.203180
0.643629
-0.018915
0.324327
-0.267675
-0.152170
1.465187
0.758883
1.286369
0.824098
1.453806
-0.865235
0.479477
-0.889124
-0.387699
-0.451120
-0.354388
-0.650974
0.021300
-0.763474
-0.462019
1.012282
1.515545
-0.692337
-0.554420
0.857217
0.023591
0.191382
0.612201
-1.180414
0.137020
1.087460
-0.320745
-1.300447
0.391429
-0.084835
-0.817820
-0.685068
0.323808
0.297564
0.285964
-0.833250
-0.644579
0.299603
0.709005
1.331918
1.032588
0.207335
-0.654624
0.428682
0.559555
-1.212605
0.246765
0.514969
-0.286538
-0.385842
-1.472127
1.047309
-0.366734
-1.021097
-0.357694
0.636936
1.438309
0.282845
0.473186
-0.825185
-0.074563
0.291216
-0.737429
0.222265
0.002227
-0.211044
-0.024311
0.059133
-0.316941
0.543201
-0.113882
0.255855
-0.705773
0.192821
0.605787
-0.348301
0.397972
0.155811
0.259073
0.920667
0.161427
1.324328
1.418209
0.691274
0.469263
1.413993
-0.286350
0.882352
-0.121236
0.487389
-0.018716
-1.497221
-0.387220
0.572406
-0.125361
-0.666795
1.181095
0.307483
-1.174614
0.380400
-0.190983
0.092978
-1.333148
-1.239433
0.070418
-0.065750
0.169950
-0.728124
-0.976002
-0.192328
0.961381
-1.038081
0.746196
0.169023
0.198563
0.377240
-1.055350
0.912119
0.317725
-0.627122
1.147680
0.280849
0.431828
0.513617
-0.125098
-0.937914
-0.499798
-0.724448
-0.428323
2.568153
1.277724
-0.805056
-1.638438
-0.927238
0.040136
0.180752
-0.422000
0.265006
-0.436169
-0.375508
0.463902
0.221720
-0.332196
-0.631351
-0.293566
0.925158
0.615911
0.742074
0.610008
-0.417912
0.209079
0.550781
-0.692552
-1.103592
-0.031133
0.832548
0.576410
0.527362
0.906542
-0.257404
2.007246
-1.202738
0.846064
-0.291774
0.690528
-0.153597
0.878734
0.319223
0.299361
0.605274
0.077556
-0.395502
-0.481635
0.084017
0.891025
-0.138582
-0.584480
0.888777
0.678080
0.497971
0.062679
-0.591984
-0.987879
0.048018
0.404584
0.824159
-0.216026
-0.896965
-0.351722
-0.485863
-1.457139
-0.122070
-0.169436
0.923402
0.899328
-0.134872
-0.039703
0.038464
1.111360
1.285442
-1.252584
-0.804561
0.746237
0.436942
0.624907
0.274957
0.435039
-0.403224
0.121052
-1.353579
-0.079775
-1.128953
0.191380
-0.632732
-0.405692
-0.338624
-0.271470
-0.610280
-0.873535
-0.399019
-0.815723
-1.775156
-0.488481
-0.314824
0.073436
0.047072
-0.236749
-0.121233
-0.325817
0.476292
1.423381
-0.090708
0.009965
0.529655
0.400896
0.759340
0.116302
0.349332
-0.226881
-0.550178
-0.285032
-0.445606
-0.060200
-0.153039
1.240083
-0.144232
1.052048
-0.622199
-0.263230
0.136048
-0.315445
-0.400733
-0.141336
1.029119
-0.506721
-0.076918
0.940875
-0.027123
1.351598
0.214787
-0.704709
0.586996
-0.339400
-0.828889
0.004453
-0.239313
0.386359
-0.742504
-0.701818
-0.211070
-1.091782
-0.112195
-1.186246
-1.189777
-1.059163
-0.235593
0.498249
0.288916
-0.990789
0.046653
0.779598
0.359758
-0.009496
-0.297422
-0.307232
0.183691
1.262364
0.038303
0.391502
0.489291
0.522792
0.386559
-0.543900
0.031349
0.192272
0.119242
0.839400
0.789102
0.453174
0.730589
-0.384938
1.118180
-0.785709
-0.665118
-0.836875
1.515285
-0.693723
-0.281901
-0.062871
0.069819
1.317248
-0.398366
0.715832
-1.323356
-0.484852
0.232168
1.064589
0.008337
0.092910
0.516858
-0.111868
0.581152
0.202021
0.294199
-0.339998
0.739692
-0.774732
-1.012522
-0.486508
-0.242482
0.638005
-0.809066
-0.292256
-0.486525
0.134572
1.357664
0.084478
-1.000112
-0.143388
-0.207267
0.243479
-0.642931
0.441696
-1.119815
0.366993
1.790299
-1.091738
-0.333813
-0.408890
-0.307065
-0.364677
0.162582
1.279353
0.678434
-0.547607
0.133537
0.409772
0.175536
0.285321
0.276038
0.502147
-0.526390
-0.218941
0.004100
0.781943
0.212769
-1.081440
-0.514277
0.113893
0.394098
0.159457
0.110567
0.155293
0.801081
0.355864
0.362938
0.777630
-0.997009
0.117650
0.102088
0.338980
-0.235259
-0.107883
0.354018
0.481740
0.007440
0.418351
0.920745
0.185415
-0.288376
0.637991
-1.047776
1.296632
-0.498965
-0.958490
-1.150625
-0.403637
-0.168617
-0.587701
0.754484
1.266824
0.102385
0.052035
-0.088620
0.134540
0.114101
0.056547
0.021874
1.704244
0.327924
-0.412192
-0.135435
1.199012
1.095114
-0.263306
0.533083
-0.568030
-0.791678
0.041374
-0.417455
-1.187944
-0.069843
-1.782654
0.994160
-0.728044
0.882654
0.337632
-0.277889
0.642093
-0.022041
-0.099628
0.394908
-0.181346
-0.875933
0.355323
0.317879
1.360739
0.033593
-0.305773
-0.067145
0.043955
-0.230999
-1.121254
-1.187477
0.863482
0.847199
0.742945
0.356374
0.156500
-1.449165
0.840466
0.031065
-0.013963
0.103189
0.567333
0.891480
-0.314709
-0.070793
-0.499658
0.246282
-0.270553
-0.748943
0.064752
0.146691
0.468706
-0.658456
-0.011170
0.142245
0.036198
0.572635
1.823158
0.328567
0.244007
1.507990
-0.866306
1.191113
0.884476
0.424368
-0.560204
-0.568064
-0.636208
-0.561701
0.502257
-0.445290
-0.128731
0.591517
-1.349244
0.192179
-0.155444
-0.321115
-1.286414
0.373856
-0.096414
0.945437
-1.033018
-0.047388
0.941195
0.148103
0.956272
0.365429
-0.900838
-0.637544
1.525042
1.463010
0.468982
1.509869
0.765452
0.072101
0.384849
1.537966
-0.295923
1.035030
-0.806918
0.020321
-0.877313
0.478595
-0.351146
0.258313
0.946797
2.249450
-0.175211
0.129668
0.267619
0.517511
0.432539
0.537570
-0.391153
0.708342
-0.669013
0.558496
0.275597
-0.290276
-0.527672
0.167111
0.123912
0.244406
0.319838
-0.160341
-0.053740
0.317207
-1.074173
-0.890331
-0.247261
-0.792632
0.035684
0.081473
0.665000
-0.884482
0.488182
-1.429631
0.041620
-0.413135
0.566167
0.604433
0.354522
-0.227360
0.405995
-0.323725
0.509570
-0.718932
0.823294
-0.725877
-0.127186
-0.039920
-0.744284
0.148475
0.304602
-0.592119
-0.101608
-0.781971
-1.137954
0.505506
-0.458906
0.408652
-0.327165
-1.528194
-0.376020
-0.482722
-1.148200
-0.882203
0.233647
0.003067
-0.340958
0.842483
0.111086
-0.426292
-0.900069
0.672780
1.017473
-0.184498
-0.104156
-0.036554
-0.856320
-0.009115
1.139270
-0.415814
1.033202
0.406339
-0.255815
-0.205683
-1.015135
-0.816611
1.219171
-0.771515
1.632713
-1.063106
-0.514095
0.747891
-0.931681
-0.128439
0.161425
0.238961
0.716767
-0.504121
-0.271228
-0.706262
-0.678102
-1.437979
-0.394822
0.773771
-1.261564
-0.691617
0.339761
0.278169
-0.239114
0.049451
-0.908074
-0.660827
0.368443
0.553134
0.357733
1.159345
-0.083572
-0.731259
0.571715
-0.472585
-0.883484
0.539174
0.377236
-0.951499
0.161515
0.120524
0.151456
-1.298190
0.137318
-0.332993
-0.620976
2.496851
-0.244746
0.328255
0.030300
1.024691
-0.309788
-0.011166
-0.501451
0.069746
0.303587
-0.113541
-0.594755
0.696854
-0.814150
0.612948
0.431963
-1.060633
0.043924
0.160511
0.949653
-1.018187
0.107011
0.394227
0.792904
0.159545
-1.004883
-0.379341
-0.655247
0.765447
0.245459
0.010880
0.049492
-0.750517
0.740242
0.116765
0.242199
0.440289
0.010234
-1.453894
-0.919580
-0.203151
0.871589
-0.221014
0.606814
0.123878
-0.619712
-0.413870
1.016560
0.306240
-1.168321
0.822257
-0.617882
-0.293859
0.067850
0.224629
-0.905540
1.071212
0.082431
0.313699
-0.423187
1.086207
0.295959
0.575822
0.330106
-0.452047
0.520617
-0.077183
-0.152811
0.066750
1.166353
-0.590584
-0.113564
0.351555
-1.320558
-0.876068
0.061496
0.842812
0.092496
0.349651
-1.471055
0.033887
0.914759
0.254178
-0.415830
0.568352
-0.359850
-0.760372
-0.752481
-0.037768
1.148321
-0.606770
-0.081445
-0.861061
0.182256
-0.974368
0.698525
-0.045337
-0.059101
0.449505
-0.615255
-0.022901
0.934812
-0.782452
-0.061360
0.713294
-0.294915
0.040193
-0.033962
0.480727
-0.266946
-0.269639
0.333977
-0.457377
-0.140873
0.906517
0.840149
-0.907695
0.045623
0.455355
-0.694004
0.188648
-0.091163
-0.001948
0.167169
0.301446
-0.417887
-0.300132
-0.683872
0.719014
0.795253
-0.743729
-0.313437
0.219664
0.576208
0.613281
-0.572407
-0.543803
-0.926711
-0.321325
0.696837
-0.333132
-1.053116
-1.427429
-0.172202
0.021034
1.345199
-0.837127
0.170626
0.286223
-1.374140
0.443986
-0.080916
-0.172905
0.874357
-0.293314
0.136986
0.170357
0.764774
-0.842443
0.041700
-0.209840
0.042120
0.910252
-0.606004
0.006734
-0.554643
0.184796
-0.696070
-1.025559
-0.363944
-0.146576
-0.496848
0.559817
0.835441
-1.168974
0.061879
0.346972
-0.525970
-0.599194
-0.275186
-0.269419
0.939534
-0.503643
0.339002
0.034278
0.001029
0.639239
-0.062272
0.508989
-0.086006
0.319136
-0.828180
-0.904402
0.274124
0.082767
-0.238624
-0.656141
-0.918775
0.343487
-0.419016
0.758827
-0.840820
-0.085294
0.394547
-0.271347
0.835899
0.674385
0.361029
0.714289
-0.998148
-0.220614
-0.242465
0.356550
-0.110846
-0.398187
0.065998
-1.332852
-0.296422
0.721817
-0.054421
-0.230489
0.712849
0.065239
-0.406460
0.476426
0.891180
-0.092038
0.346130
-0.279147
-0.361889
0.349095
-0.460921
0.370705
-0.182431
-0.077565
-0.193221
0.189983
0.239281
0.775266
0.927395
-0.429230
1.381493
-0.472333
-0.460405
1.179926
0.945483
-0.284358
0.551385
-0.642161
0.656621
0.648164
0.943777
0.931511
-0.218999
0.504060
-0.551224
-0.161494
-0.395117
0.185899
0.576283
-0.191367
-0.796920
-0.780496
0.389229
-0.479257
0.230067
0.026556
0.703349
-0.761710
1.270933
0.070006
0.232956
-1.422842
0.885627
-0.649692
0.206277
-0.259125
-0.728127
-0.558180
-0.856826
0.652339
-0.413524
-0.715375
-0.335114
0.421864
-0.162500
-0.648993
-0.867485
-0.273041
-0.935359
0.267354
-0.214718
0.304543
-1.215012
0.133901
-0.368700
-0.570079
-0.464382
-0.125030
0.658000
-0.562143
-0.396387
0.493241
1.258568
-0.302043
0.219104
-0.001986
-0.178629
0.846586
-1.226655
-0.603804
-1.010511
-0.244065
-0.109666
-0.868131
-0.039363
0.311517
0.643077
0.202123
-0.146749
0.737546
-0.559491
0.307595
-0.450642
0.341256
-0.973125
-0.989664
-0.419099
0.480059
-0.434328
0.024431
-0.041079
1.078381
0.321897
1.210882
1.838113
0.716170
0.010064
0.461808
-0.028598
-0.594728
0.006145
-1.014117
-0.307717
0.086219
-0.638075
-0.063546
0.773107
0.141457
0.417860
0.673595
0.504215
0.171621
0.529975
2.144733
0.095643
-0.471225
-0.389121
-0.033247
0.421638
-0.436297
0.667603
1.222046
-1.209914
0.423495
0.489797
0.205262
0.707586
0.509535
-0.036152
-0.330492
0.128279
0.269954
0.095878
-0.171160
-0.043701
0.737125
-0.664740
0.919075
0.225487
-0.449516
1.116790
0.709438
0.071617
0.590545
1.983935
0.139088
0.082023
-0.717471
-0.917299
-0.846843
-0.746492
0.197712
-0.149579
0.864529
-0.185995
-0.265047
-0.289020
0.280289
-0.172529
0.730267
-0.080171
-0.960115
0.281384
-0.325203
0.109648
-0.559985
0.691597
-0.484777
0.445629
0.387676
-0.423780
-0.318404
0.673195
-0.724219
-0.437910
-0.036104
0.661176
0.128254
0.265076
0.519898
0.307523
-1.711271
0.535985
-0.283116
-0.040655
-0.336791
0.364611
-1.179646
-0.418900
0.320588
0.185490
0.244422
-0.073070
-0.294984
0.365533
-0.269728
-0.256873
-0.064071
1.027421
-0.052438
-1.766167
0.262198
0.135455
0.238762
-0.049255
0.174765
0.707286
-0.139288
-0.601924
0.230956
0.715108
0.095052
-0.763374
-0.643115
-0.477735
0.250664
0.029735
-1.521582
-1.686656
0.063790
-0.288899
0.059094
-0.184752
0.070509
0.669825
-0.315034
0.039106
-0.079892
-0.520309
-0.904086
-0.453443
-0.564409
-0.352500
0.540884
-0.088380
0.993753
0.620296
-1.374439
0.913829
0.475624
-1.561038
0.052187
-1.334984
0.388949
0.285872
0.869558
-0.246589
-0.573202
-0.150434
0.224568
-0.274643
-0.663602
1.259297
-0.177098
0.523754
-0.575156
0.474308
1.434805
0.169978
0.175767
0.153854
1.618819
0.632050
0.105553
-0.419013
0.115654
-0.142664
2.017279
0.080986
-0.841323
0.234639
-1.389722
2.059511
0.149434
0.009521
-0.960943
-0.040756
1.041218
0.088053
-0.550868
-0.506366
0.176735
-0.168368
-0.975482
-0.934971
-0.616893
0.434644
-0.640536
-0.340891
-0.198690
-0.054830
0.618671
0.727424
-0.292496
0.602115
-0.099904
1.123438
0.274905
-0.173538
0.116830
0.878795
-0.248116
0.392194
-0.278466
-0.941872
0.160956
-0.428273
0.020802
0.723076
0.827966
-0.731562
0.370320
0.805769
-0.090053
0.628025
-0.913515
1.071224
0.391931
1.271805
-0.404268
-0.528781
0.135702
0.257632
-0.568028
-0.020554
-0.317713
-0.793532
0.290513
0.248083
-0.411387
0.046724
-0.511070
-0.447139
0.664646
0.315352
0.616573
-0.120617
0.541903
-1.189679
0.259282
-0.019781
-1.196402
0.192835
0.490541
-1.015197
-0.281811
0.458571
1.063059
0.737263
0.112609
0.539570
0.251418
-0.729761
0.453962
-0.357868
-0.424931
1.131556
-0.384033
0.354175
0.241672
0.408205
0.023604
-0.833410
1.511767
-0.721375
-0.005402
0.665599
0.296504
0.092345
-0.811539
0.094114
-1.085251
-0.170317
0.718831
-1.767450
0.034375
-1.896527
-0.229337
-0.033102
0.598492
-1.313734
0.720932
-0.645393
-0.668621
0.830379
-0.679664
0.198475
-0.096506
1.376183
-0.778218
-0.484663
0.439606
-0.114636
0.122255
-0.579808
-0.766311
0.917629
-0.357500
-0.729100
-0.134898
-0.995383
0.307789
0.112341
0.087090
0.625541
0.113795
0.016061
-0.466345
0.104001
0.107681
0.684770
0.264342
0.582967
0.453153
0.180348
0.223688
1.143372
-0.278388
-0.515466
0.072775
0.147836
-0.467214
0.035605
0.411228
-0.752700
-0.327009
0.036658
-0.074008
0.542336
0.762134
-0.366377
0.386306
-0.324540
-1.422819
-1.348028
-0.550487
-0.059299
0.165051
0.404092
-1.205754
0.264483
-0.252753
0.353121
1.392693
0.863389
0.102204
0.327523
0.499517
-0.384434
0.015356
0.590039
0.442767
0.027088
0.906529
-0.134097
0.688902
-0.225248
-0.482312
0.498072
0.165568
0.916324
1.002758
-0.710245
0.503650
0.592819
0.661990
0.375730
0.629738
0.878275
-0.515302
-0.579442
-0.097024
-0.503840
-0.457118
0.084662
-0.038758
0.251069
0.700844
0.908927
0.723478
-0.051583
-0.434674
0.383948
0.487451
0.080666
0.248975
0.368012
-0.714873
1.014261
0.961965
0.125721
-0.232166
0.260290
0.276434
-0.217090
0.807944
-0.418158
-0.572205
-0.004384
-0.538823
-0.765686
0.585447
-0.423590
0.252090
-0.676935
0.502042
0.406391
0.175686
0.266674
-0.124387
-0.039902
-0.512240
0.300523
-0.377555
0.639999
0.379492
0.127741
-0.066559
0.083153
-0.211798
0.024392
0.098592
-0.543881
-1.093774
0.853804
0.063023
-0.215084
0.412354
0.383431
0.199744
-0.456836
0.710976
0.677915
1.026896
0.337143
0.176346
-0.128471
-0.579071
0.701648
-0.021481
0.371367
0.783858
0.917667
-0.076331
-0.717373
-0.708448
0.704981
-0.155961
-0.315672
0.198539
-0.834884
0.257676
-0.499006
-0.156663
0.589518
-0.195262
-0.513755
0.434388
0.520906
-0.854038
-0.862907
1.265771
-0.602096
-0.776674
0.095479
0.331443
-0.334161
-0.700303
0.570082
-1.526021
-0.427948
-0.407297
-0.044690
0.251606
0.524957
0.156305
-2.097719
0.465656
0.726849
0.409072
-0.052935
0.869223
1.254772
0.802810
-0.018809
0.357191
-0.338049
0.288257
-1.066282
0.880464
-0.860256
0.992391
-0.241772
-0.751059
0.746298
0.137329
1.801811
0.672373
-1.308188
-0.106869
-0.408460
-0.237266
0.104109
-1.199091
0.535115
0.395846
0.459099
-0.568833
-0.712660
-0.080435
-1.018238
-0.180011
0.195810
-0.667858
0.293165
0.901246
0.942151
0.042365
-0.571059
-0.957078
-0.040991
0.431369
-0.398928
0.993635
-0.121385
-0.758533
0.245253
-0.892233
1.194195
0.799782
0.654383
0.216165
-0.167276
-0.502608
0.837618
0.237400
0.571624
-0.471163
0.645668
1.043517
-0.047442
0.415782
0.279453
-0.219358
0.176773
0.536517
-0.019672
1.562368
0.431101
-0.413478
-0.408215
0.192415
0.656760
0.786898
0.021564
-1.475895
0.659768
0.005071
-0.403084
0.415242
1.006948
1.085633
-1.070041
-1.016057
0.918713
0.349279
-0.367757
0.084584
-0.337937
0.261739
-0.164766
0.600242
-0.410906
0.656839
-0.606909
0.033841
-0.066712
1.193508
0.256142
-0.066634
-0.400196
0.325181
-0.385365
0.127204
0.564178
0.473469
-0.735657
0.779135
-0.568063
-0.189631
0.026369
-0.001460
0.803956
-0.125188
-1.358177
-1.120129
-0.721918
-1.090366
0.865973
-0.240618
-0.012042
0.131787
0.070198
1.855830
-0.465261
-0.193567
0.022589
-0.923576
0.304150
-0.008081
0.338832
-0.672005
0.174949
0.101135
-0.231982
-0.816545
-0.353945
-0.194241
-0.001313
0.675516
-0.336375
-1.651496
-0.381707
-0.374498
0.200947
-0.812957
-0.224241
1.515081
0.396783
-0.196317
0.043026
-1.050225
-0.622118
1.879115
-0.816904
0.849239
0.380708
-0.377979
1.089267
-0.723663
0.390066
0.930370
-1.490499
1.248310
-0.027887
0.466355
-0.656913
-0.105796
0.341800
0.466326
-1.223600
0.702071
0.186657
1.084601
-0.258604
-0.682426
0.370287
-0.553538
-0.785866
-0.638857
-0.417439
0.033615
1.027526
-0.010002
-0.932900
-0.505721
-0.047341
-0.815857
-0.836829
1.268374
-0.198347
-0.146690
-0.028277
0.802207
0.134679
0.826655
-0.615093
-1.748362
-0.299793
0.052395
0.195001
-1.710434
-0.487775
1.025714
0.818290
-0.539806
-1.421378
0.476950
0.191421
0.682660
0.383462
-0.535536
0.830518
-0.315175
0.212270
-1.108725
0.225283
-0.904869
-0.271464
-1.155323
-0.867890
0.795715
-0.803202
0.320944
0.896384
1.066727
0.536301
-0.062712
0.318118
-1.045660
1.968645
-0.474600
-1.518359
-0.033762
1.219260
-0.294429
0.632652
0.933209
0.393876
0.338824
-0.165505
-0.063766
0.846147
0.547517
-0.344698
-0.038850
0.175623
0.921286
0.881473
-0.210762
0.043119
0.238136
0.942898
0.447576
-1.967948
-0.388264
0.400764
-0.215071
-0.821501
0.656555
-0.409300
0.046656
-0.562105
-0.605202
1.312735
0.332041
-0.189608
-0.018223
0.099677
0.099410
0.293369
-0.387261
-0.366211
0.530992
0.094635
-0.147106
-1.700762
-0.136585
0.452443
-0.556429
0.212868
-0.622305
-0.168764
0.245252
-0.241502
-0.522383
0.042159
0.317245
-0.238232
0.750617
1.257254
0.338561
-0.053968
0.313172
0.943255
-0.149277
0.224341
0.329301
-1.281304
-0.113770
0.139452
-0.908878
0.004743
0.036935
0.678605
0.161500
0.390649
0.698379
0.255375
0.781939
0.101758
-0.745023
-0.371981
-0.048380
0.476672
-0.173079
-0.092575
0.005479
-0.188656
-0.041449
-0.719058
1.028921
0.502856
-0.089742
-0.593425
-0.349409
-0.516454
-0.096834
0.665640
-0.096142
-0.100905
-0.419378
0.805921
0.863500
0.006018
-0.655769
0.476045
-0.739221
0.569139
-0.215389
-0.700356
0.955915
0.662510
-0.630798
-0.396701
0.334184
1.250637
-0.521626
0.766294
0.141453
0.421054
0.392601
0.949308
-0.612501
0.968183
0.931313
-1.112502
-0.210712
-0.002297
0.310901
0.455317
0.940871
0.002702
0.801542
0.292890
-1.231184
-0.193911
0.082842
-0.264323
0.534054
-1.218630
0.469893
-0.630147
-0.499625
0.766735
-0.396526
-0.685625
-0.309943
-0.312006
1.269801
-0.308033
0.160191
0.397359
1.119374
0.274468
0.764564
0.037045
0.359936
0.688570
0.534092
-0.038532
0.332288
-1.253860
0.362296
0.685755
-0.118445
0.098428
-0.213738
0.710900
0.413222
-0.115825
-0.408319
0.559177
0.511831
-0.476666
-0.253895
0.025681
0.477773
-1.342937
-0.020486
0.544946
-0.129695
0.272686
0.095484
-0.632238
0.532104
0.003249
0.531864
0.612071
1.075933
-0.035659
0.081035
0.444604
-0.622153
-0.477628
0.389935
-0.864068
0.319474
-0.963419
-0.240647
-0.363847
0.365236
-0.005405
0.785718
-0.359342
-0.107974
0.397538
-0.239950
0.007319
0.743477
0.616334
-0.013329
-0.758281
0.857139
0.787839
-0.427300
0.579410
0.583826
0.314382
-0.756639
0.526865
-0.977316
0.045302
-0.861016
-0.535587
-0.829380
0.427095
-0.788912
-0.613107
-0.806699
0.129233
1.728159
-1.512512
0.640576
-0.222666
0.390055
-0.677460
0.209889
0.406888
0.664171
0.603577
-0.248328
-1.210080
-0.262042
-0.425897
0.928715
-0.330393
-0.384386
0.397102
0.586029
-0.587196
0.108444
-0.347006
-0.542073
0.603795
0.033783
-1.421223
-0.519976
-0.695091
-0.561397
-0.846624
-0.388533
-0.043455
-1.301015
-0.149486
0.783416
-0.112756
-0.565353
0.452493
0.417599
1.112796
1.069798
0.430497
-0.793163
0.458314
-0.157971
-0.291372
-1.006430
1.926886
1.307191
-1.087749
0.214941
-0.378812
-0.301802
0.241170
-0.102396
1.780707
-1.013977
-0.437302
0.155125
-0.651310
0.633674
-0.188606
1.063134
-1.260549
0.527803
0.121292
1.215659
-0.401423
0.404486
0.700675
0.583873
0.623321
-0.486679
0.927924
-0.254456
0.429736
-0.291876
0.270107
-0.274515
0.079202
-0.749686
0.263733
0.757099
-0.056729
0.622725
0.074303
0.434087
0.285240
-0.452282
-1.263807
0.086675
-0.356635
-1.280633
-0.210309
0.023811
-0.166552
-0.123898
0.214769
0.429734
-0.105452
1.138823
0.926235
-1.581177
0.771151
0.228213
0.019221
0.277010
0.855111
0.626487
-0.214210
-0.052319
0.093501
0.473109
-1.393164
-0.221746
1.493970
-1.627211
1.312026
0.579580
1.148270
0.972700
1.107897
0.475313
-0.399363
-0.536313
-0.770215
2.325850
-0.022510
0.055783
-0.169356
-0.637595
0.222822
0.799478
0.617701
0.705557
-0.010010
0.403826
-0.496271
-0.756772
0.506474
-0.487834
-0.022569
-0.212226
0.317125
-0.013436
0.144302
-0.308625
-0.714861
-1.184813
0.026792
-0.224716
-0.631239
0.677360
0.111058
-0.539906
-0.528122
1.552585
0.915053
-0.127693
-0.837082
0.351621
-0.128428
-0.187587
0.259165
-0.770259
-0.133632
0.542636
0.648937
0.429456
-0.047423
-0.842533
-0.593803
0.104530
-0.516311
-0.083678
0.560426
0.237822
0.600184
-0.168878
0.693604
-0.259106
-0.006242
0.425813
-0.115198
-0.162587
-1.010452
0.075162
0.844635
0.084298
0.529680
-0.134628
-0.714245
-0.654043
0.765886
-0.468471
-0.220361
0.399230
-0.672467
-0.001950
0.066830
-0.527481
-0.660424
1.411195
1.131631
-0.089462
-0.638844
0.424546
-0.399169
-0.434939
0.536485
0.425277
-0.306449
0.752217
0.018317
-0.249131
-0.649044
0.812251
0.017853
0.632976
-0.480049
0.402625
-0.251351
-0.239938
-0.601064
1.314222
1.583052
1.092724
-0.374154
-0.550371
-0.204976
0.660467
0.425689
0.154279
-0.938265
-0.539647
0.365539
-0.194259
0.019116
0.544941
-0.165316
-1.235928
-1.369201
-0.741405
0.727374
-0.114800
0.502855
-0.111607
-0.216724
0.605811
-0.481493
-0.014213
-0.007998
-0.305888
0.310338
0.388574
-0.924779
0.777025
0.298247
-0.022617
0.484906
-0.126469
0.001663
-0.702872
-0.350665
0.487690
0.323804
-0.646979
0.259629
-0.664400
0.143965
0.762730
-0.130307
-1.079258
-0.901229
0.661390
-1.134862
-0.825804
0.095319
-0.102490
0.443245
-0.159050
0.721739
0.738689
0.069539
-0.258740
-0.944063
-0.196689
0.767515
-0.392889
0.042610
-0.173163
0.477966
-0.388162
0.618570
-0.469115
-0.068785
-1.125670
-0.330608
-1.571654
0.731764
1.051008
-0.358494
-0.139188
-0.815636
0.523981
0.477720
0.751233
-0.419165
0.325890
-0.456422
0.828012
-0.145433
0.395529
-0.212260
0.744423
-0.249699
-1.660108
-0.678270
-0.504670
0.309030
-0.138557
-0.624818
-0.359696
0.635714
-0.880033
0.563117
1.104847
-1.442643
-0.029380
-0.896048
-0.596606
-0.244959
-0.642014
-1.102555
1.103157
0.036629
-0.448545
0.048792
1.292736
0.665669
-0.252567
0.244903
-0.210247
0.696460
-0.437763
0.001494
-0.192142
-1.205354
0.359627
-0.399145
-0.524973
-0.528263
-0.597242
0.235299
0.291926
-0.377879
-0.388235
0.321838
0.556549
0.044689
0.419001
0.025316
0.013954
0.142202
-0.277334
0.676669
0.313690
-0.146186
0.545768
-0.338949
-1.776886
-0.450104
-0.021075
0.360610
0.385287
-0.142613
0.736498
-0.375633
-0.339818
0.037688
-0.210061
-0.999232
1.726913
-0.201712
1.290054
-0.682216
0.104160
0.498856
-0.666646
1.292322
-0.280400
-0.363081
0.464595
0.037471
1.407782
1.364118
0.778529
-0.343315
0.121299
0.089013
0.450600
0.113201
0.643153
0.520842
0.348093
-0.161137
-0.729417
-1.524037
-1.555582
-0.157996
0.200212
-0.027278
0.081544
0.231283
-0.367528
0.171288
-0.232557
0.046234
-0.309693
-0.484697
0.446391
-0.606569
0.275563
-0.075614
-0.257284
-0.252644
1.236926
0.336394
0.126186
1.013629
-0.498828
-0.176265
0.360488
0.312132
-1.413238
-0.720035
-0.221509
-0.396433
-0.123421
-0.487918
0.267807
-0.455907
-0.595898
0.176008
0.143453
-0.454387
0.340068
0.232572
-1.359979
0.729620
0.010351
1.127871
-0.137986
0.748506
-0.325722
0.605825
0.025105
0.414798
-0.107677
0.011058
0.339448
0.450373
-0.639884
-0.137263
-0.461654
0.209504
1.361950
0.441488
0.410084
-1.637646
-0.185446
0.822876
0.653249
-0.554383
-0.267728
-0.612563
0.082333
0.844180
-1.179170
0.400075
0.577939
-0.080893
0.067633
0.728391
0.305291
0.700045
1.237868
-0.022429
-1.004775
-0.029942
0.280100
0.418093
0.665559
0.558674
-1.423888
-1.049022
0.448299
-0.687245
-0.289039
-0.144340
-2.106254
0.063683
0.323996
-0.154924
-0.055165
0.859036
0.382682
0.109104
0.294204
0.133165
-0.149915
0.085886
-0.563724
1.085364
-0.209260
0.302981
1.037853
0.963915
-0.598579
-1.016377
0.328283
-0.000892
-0.430341
0.472080
0.534418
1.200808
-0.548769
0.264840
0.577677
-0.281228
-1.136650
1.631880
-0.386392
-0.079250
0.468690
-1.388742
0.641897
1.024964
0.589761
-0.131415
0.818875
1.408474
-0.369517
-0.372077
1.446201
-0.948463
-0.170345
0.404167
-0.446601
1.009710
0.203039
0.628012
3.082290
0.902441
0.133115
1.065369
-0.672729
-1.042938
0.256350
-0.460741
-0.703946
-0.791244
-0.236965
0.266194
-0.328852
0.075036
-0.255193
0.286367
0.062533
-0.407167
-0.387061
0.648811
0.553557
0.074020
-0.199696
1.321527
0.767025
-1.055249
-0.588503
0.271998
-0.656575
0.369494
0.190564
-0.372723
0.747712
0.274280
0.030915
-0.847273
1.924726
-1.464785
-0.007492
-1.191062
0.360427
-0.306576
0.323805
0.057645
0.906284
-0.105843
-0.297380
-0.270227
0.244936
0.949277
-1.256332
-0.155841
-0.006424
-0.509730
0.479301
-0.035620
1.653844
0.127966
0.207950
1.419390
-0.414003
-0.439219
-0.201658
0.170646
-0.482023
0.625704
0.804632
-0.097710
0.664215
-0.043135
0.172007
0.845865
0.012119
-0.594695
0.083801
0.535028
-0.163239
-0.627340
0.873591
-0.813092
0.624321
0.635153
0.189590
-0.113039
0.069568
1.218707
-0.929048
-1.128864
-0.002927
0.375176
-0.197455
-1.886803
-0.253412
0.633939
-0.712118
-0.722041
0.660974
-0.449968
0.323436
0.429024
0.065550
-0.608588
-0.723286
0.751533
1.204946
-0.015636
0.027590
-1.194034
-0.869291
-0.746698
-0.045770
0.463860
-0.399676
0.078024
0.197344
-0.040334
0.638710
-1.016806
0.356321
0.119050
1.161389
-1.313971
-0.003042
0.010358
-0.599337
0.774307
0.340335
-0.911920
-0.431944
0.576848
-0.014504
0.216989
-0.203893
0.467975
0.279965
0.484374
0.065557
1.096233
0.953211
0.389548
0.440531
-0.019430
0.959848
1.786507
-0.233589
-0.915068
-0.207548
0.323220
1.252555
-0.918694
-0.719339
0.686860
0.076146
-0.154614
1.287223
0.109051
-0.719738
0.013944
0.120001
0.389089
-0.013757
-0.186393
1.015851
-0.408191
-1.122440
-0.598967
0.648173
0.051890
0.726451
0.837669
0.124872
0.118635
-0.296472
-0.432331
-0.633329
-0.283170
-0.717481
-0.974364
0.347055
-0.742767
0.007060
0.241703
0.469427
0.167032
0.243865
-0.012992
0.772296
1.194538
-0.316863
-0.206287
-0.680210
-0.245263
1.007062
-0.390206
-0.034333
0.097893
-0.390309
0.866990
0.908754
-0.057850
0.006632
-1.011000
-0.432387
-1.088933
-1.362620
0.696788
0.025442
-0.522203
-1.386541
-0.287125
0.925302
-0.156599
-0.594578
-1.065332
1.086922
-0.256043
0.143520
-0.721105
-0.283067
0.242208
0.812912
-1.078566
0.445678
1.170838
-0.732421
0.783481
-0.512748
1.425376
-0.090066
0.063009
1.048894
1.800920
0.169836
-0.616075
-0.175127
0.353071
-0.007223
-1.580467
-0.006773
0.331107
0.177994
0.326950
-0.653506
-0.012885
-0.316773
1.122028
-0.212277
1.354516
0.542919
-0.544940
0.765637
0.239222
0.052062
-0.081138
-1.254145
-0.427737
0.188055
0.074433
0.173667
0.202057
0.138142
0.390085
-0.636525
1.225488
0.665066
0.284395
0.350802
-0.067509
-0.557068
0.227446
-0.875819
-0.255302
0.424886
-1.178278
-0.341058
1.143042
1.102967
-1.006814
-0.120575
0.289296
-0.423585
-0.753432
0.117236
0.555647
0.024698
0.867404
0.834399
-0.719321
1.034247
-0.441060
-1.236815
0.569299
0.821558
-0.084529
-0.388976
-0.701473
-0.008285
0.674410
0.760210
0.609387
0.068110
0.784540
0.313916
-0.556755
-0.130878
-1.478196
-0.224077
0.456117
-0.029742
-0.507211
-0.362176
0.072047
0.102380
-0.642059
0.317945
0.668362
0.894071
-0.110272
-0.066113
0.375432
-1.691240
-0.449663
0.430894
-0.906943
0.269656
1.119582
0.932776
1.007468
-0.683226
0.048069
0.270270
0.802971
-0.732119
-0.132397
0.497890
1.921913
0.337407
-1.018080
0.084479
-1.259768
-0.500848
0.299769
0.322602
-1.475093
0.100037
2.027904
0.470671
0.363809
-0.002192
-0.914861
-0.557281
0.909417
0.507505
-0.800903
-0.429360
0.638198
0.024775
-0.399912
0.816779
-0.452844
-0.262556
-0.629127
-0.171921
-0.461231
0.062394
1.201780
-1.443439
0.730849
-0.413543
1.398265
0.874590
-0.594127
1.141788
-0.433386
-0.483784
0.584682
0.075505
0.537003
-0.030120
0.697743
-0.210090
-0.263335
0.360114
-0.445322
0.779316
-0.952128
1.743444
1.171527
1.671201
0.240189
-0.612555
-0.520687
0.708824
1.517331
0.412294
-1.243184
-0.420620
-0.153717
1.697667
-0.413044
-0.838305
0.516516
0.466713
-0.037272
0.700782
0.195054
-0.746114
-0.296944
-1.315206
-0.223835
1.063573
0.642607
0.787795
0.620332
0.535419
0.820182
0.494158
-1.136843
-0.826588
0.962127
0.257366
0.155881
1.185451
-0.333309
1.050324
-0.270699
0.201907
-1.398700
0.996317
-0.579560
-0.305422
0.561270
0.656514
0.895841
0.119920
0.080280
-0.604730
0.124218
0.101539
-0.775374
0.443281
0.709475
0.146149
1.574416
0.392172
0.835867
-0.893569
-0.370184
-0.618179
0.587208
-0.056888
-1.396952
0.513447
-1.147305
0.129859
-0.718405
-0.397251
0.085458
-0.035499
0.645735
-0.016452
-1.014068
0.010487
0.743963
-0.046563
-0.477564
-0.962091
0.145112
0.904573
-0.672748
-0.785850
-0.110941
-0.124322
-0.725263
-0.266590
0.625476
0.165882
0.031187
-0.326962
-1.727987
0.433395
-0.473771
-0.270343
-0.545819
-0.260966
-0.673998
0.754936
-0.617176
0.392491
1.069748
-1.052195
1.619737
0.767638
-0.423812
0.159725
0.371526
-1.315632
1.079686
1.056728
-2.706591
0.706682
-0.003217
-0.027324
-0.570738
0.404793
-0.141854
0.503741
-0.608702
-0.631692
0.489997
0.223275
0.105013
0.088810
0.284496
-0.028322
-0.492769
-0.452420
-1.068913
0.081304
-0.068015
0.587403
1.092687
-0.107081
0.730165
0.655022
0.609967
1.295390
-1.088462
0.604614
0.447414
-0.128122
-1.995563
-0.300268
-0.072926
0.253377
-0.212990
0.139355
-0.031147
0.585515
-0.402028
-0.540987
0.891992
0.064573
0.527727
0.758170
0.749324
0.127386
0.892620
-0.793006
-0.189534
0.635982
0.806578
-1.146697
-0.871588
0.050178
0.927874
-0.027192
0.858842
-0.296514
-0.235563
0.081132
0.430440
-0.801661
1.043251
-1.156135
0.168149
0.140992
1.208020
0.115910
0.825178
-1.291634
-0.116490
0.351146
-0.936689
-0.784961
0.108931
0.347060
0.598880
-0.202519
-0.528207
-0.072021
-0.202894
0.710232
0.139491
0.343936
-0.108180
-0.003780
-0.503312
0.237303
0.525976
0.838237
0.804760
0.374448
1.047962
0.179046
-1.199165
0.022951
-0.912954
-0.150612
-0.895881
0.627777
0.440307
0.441190
-0.564518
-0.364115
0.988807
-1.995762
-0.393788
-1.036226
-0.027800
0.068814
0.507736
1.105964
-0.414311
-0.615491
2.152907
-0.464975
-0.255815
-0.818139
-0.459027
-0.602728
-0.651958
-0.089686
1.583719
0.526857
0.498976
0.138337
1.237241
1.501454
0.160002
0.414226
-1.248026
-0.053193
0.017794
-0.057195
-0.428198
0.052388
0.553922
-0.098957
-0.319589
0.107373
1.377223
0.633555
-0.218660
0.275278
0.410517
-0.439396
-0.538363
0.470667
0.101783
0.014701
0.072559
0.249682
0.138697
-0.201915
0.186950
0.092367
-0.449118
-0.454977
-0.515840
0.682523
-0.185518
1.319045
0.514603
-0.313850
1.976852
-0.377759
-0.171442
-0.708683
0.488776
1.015288
0.477384
-0.306048
-1.254266
0.028976
0.685082
0.884696
-0.024801
0.433572
0.421058
0.529578
-1.407524
-0.240740
-0.038577
-0.362967
-0.338510
0.031898
0.650146
1.068532
-0.156823
0.444014
0.499653
0.165763
-0.391587
1.147741
-1.263794
-1.295633
0.592207
0.508646
0.150473
1.085250
0.276120
-0.128131
0.031011
-0.327845
1.193207
-0.290832
0.133976
0.662753
-1.244506
-0.576650
1.056263
-0.415742
-0.651194
-0.480093
0.718117
0.396446
-0.190245
0.965612
-0.028660
0.062325
-0.706377
-0.634925
1.047715
1.262048
-0.944685
0.284199
-0.611179
0.162524
-0.182966
-0.346406
0.343664
-0.318531
-0.081645
-1.377176
0.994709
-1.238922
1.008745
0.333032
-0.436942
0.101874
-0.334522
0.765741
-1.673073
-0.648075
0.325450
0.334075
0.397910
-1.183620
0.359829
-0.600804
0.226353
0.335068
0.372036
0.157804
1.263275
-0.841036
0.441486
-0.611457
-0.092909
0.932692
0.158767
-0.888889
0.268369
0.316328
-0.220556
-0.194511
0.915041
0.587334
0.731190
1.152928
-1.241044
0.598858
-0.695110
-1.020671
0.903455
0.923975
-0.278575
0.671166
0.260066
-0.018234
0.587753
-0.467810
-0.133520
0.492911
-0.103029
0.300383
0.390937
0.040630
-0.339640
-1.052377
0.300135
-0.237704
1.243728
1.156864
0.711273
-0.134719
0.881892
-0.180135
0.048887
-0.328538
0.356028
-0.561126
0.396705
-0.580636
-0.373782
0.038090
-0.213107
0.169895
-0.040476
0.150248
-0.062703
0.393612
-0.661359
-0.142310
-1.478101
0.062701
0.637319
0.047223
-0.120600
0.346189
0.252604
-0.726716
0.428243
0.531236
-0.490210
1.196114
-1.496072
-0.107336
-0.053579
1.033940
0.633246
0.707327
-0.301001
0.148185
-0.114459
-1.326570
-0.530943
-0.096592
-0.698081
-1.205382
-0.296717
0.617447
0.303476
0.278464
0.291048
1.156882
0.859107
0.403529
-0.728234
-0.098457
-1.067609
0.393280
-0.133907
-0.052054
0.172823
-0.788832
0.534593
0.240655
-0.238692
0.190044
-0.000686
0.875869
0.473856
-0.132608
-0.405501
-0.080321
-1.168241
1.231260
0.600098
-0.082950
-0.076969
0.313152
-0.668469
-0.136889
0.266360
-1.351756
-0.372461
0.383251
0.068467
-0.336654
-0.580109
-0.738265
-0.798109
-0.083598
-0.150895
-0.069090
-1.486284
1.185644
0.012514
-0.265367
-0.208904
0.636861
-0.183611
0.436718
-0.579387
1.071413
-0.321314
0.294578
-0.435401
0.651725
1.542936
0.568934
-0.027863
0.129788
0.530390
0.473497
0.227839
-0.224099
0.479302
-1.052921
-0.102233
0.171214
-1.530318
-0.938590
0.028831
1.164888
-1.329384
-0.131243
-0.385095
-0.531935
-0.241865
-0.089058
0.273073
0.844861
-0.007877
0.008773
-0.340580
-0.974043
0.257651
0.106961
0.254747
-1.250038
0.725021
0.424801
0.150002
0.886349
-0.850873
-0.258911
-0.836131
1.113742
-0.676446
0.613915
0.318557
-1.191160
0.054272
-0.461696
0.915324
1.364028
0.236689
0.330364
-0.985056
0.560626
-1.317095
-0.522529
0.326672
0.272046
0.236286
0.443300
-0.111508
1.489304
0.480434
0.366048
-0.272840
0.830899
0.386465
-0.484665
0.654545
-0.551720
0.574246
-0.665046
0.471681
-0.458033
0.852658
-0.470267
-0.309494
0.037168
1.234729
0.086829
1.105638
-0.019735
-1.710700
0.131660
-1.098585
0.190577
0.435066
0.398101
-0.294909
-0.451848
-2.004481
0.057083
-1.180182
0.683954
-0.070508
0.198561
-1.029605
-1.056528
0.038658
-0.781782
0.150965
-0.221942
-0.537693
-0.366201
-0.019848
0.910968
-0.191130
-0.325738
0.737849
0.522814
0.645863
-0.480047
1.336613
0.063733
-1.506727
1.687423
-0.324729
-0.733269
-0.331948
0.445708
0.432584
-0.943918
0.365297
-0.461989
-0.151615
-0.621920
-0.390512
0.170522
0.834902
-0.763327
0.266261
0.170662
0.098351
-1.098068
-0.233559
0.739782
0.530638
0.524330
0.070163
-0.205153
-0.360222
-0.293088
-0.960742
-0.185845
-1.336942
-0.842748
0.254173
-0.879005
1.269602
-0.710424
-0.757974
0.803798
-0.428489
0.340275
0.892426
0.087679
-1.351832
1.304655
0.302688
0.210019
-0.034546
-0.365753
-0.522059
0.622207
-1.159433
0.539240
0.079634
-1.126717
0.515542
-1.398483
0.282847
0.778096
-0.952730
-0.859912
0.581744
0.895310
-0.440108
0.678174
-0.842657
0.022874
-0.119505
-0.285708
-0.660182
-0.532871
0.098216
0.900322
-0.971225
-0.096895
0.257416
0.180052
-0.827609
1.055013
0.345218
-0.356774
1.095124
0.961775
-0.005466
-0.536917
-1.178008
0.773554
-0.323194
-0.213058
-0.277503
-0.843415
-0.271829
-0.306375
2.460599
0.123554
0.630885
0.176876
-1.314365
-0.359856
-0.080661
0.625679
0.335950
-0.253938
-0.850255
-0.588150
0.567413
0.348889
-0.693830
-0.007730
-0.278563
-0.519963
0.470259
-0.096638
1.586560
-1.086735
0.542721
0.529491
-0.492296
-0.280684
0.127965
0.152547
-0.539091
-0.122893
-0.314947
-0.698991
-0.394636
0.656541
0.465482
1.719337
0.053573
-0.631165
0.907428
0.190769
0.102560
0.076596
0.770991
0.429296
1.209506
0.270942
-1.116491
-0.664620
0.817226
0.580080
-0.827907
0.032350
-0.463622
-1.047955
-1.408554
0.008385
0.424453
-0.059339
-0.348761
0.558241
0.595596
-0.282246
0.144486
-0.756778
0.379708
-0.830668
-1.533091
0.748603
-0.118578
-0.130486
0.794550
1.026391
0.359183
0.147124
-0.868794
-0.027848
0.173850
-0.629236
0.358170
-0.772123
0.475367
0.261714
0.301774
-1.738783
-0.559041
0.359268
-0.023590
0.234621
0.219217
-0.450837
0.109351
0.816124
0.440550
0.261825
0.512533
0.041192
0.651721
-0.369930
-2.036685
-0.474356
-0.753245
0.266512
1.714518
-0.144636
-0.988588
1.667283
0.287589
-0.982913
0.114064
0.441712
0.092540
0.454508
-0.786646
0.513566
-1.098665
-0.381781
0.028878
1.556819
-0.308454
0.295913
-0.121691
0.645386
1.056979
-1.619977
0.106189
0.819951
0.311478
0.333809
1.053637
-0.490344
-0.272787
0.656886
1.229665
-0.586587
0.781996
-0.180424
0.138116
-0.309358
0.319985
-0.292258
-0.183962
-0.459078
0.238155
-0.397608
0.478399
1.871257
-0.598220
-1.427474
-1.118938
-1.189220
0.635531
0.419950
-0.145449
0.441728
-1.132699
-0.056797
-0.510739
-0.012993
-0.611199
0.147789
-0.609381
-0.183682
0.243630
0.795583
0.259084
-0.009568
-0.007792
-0.561011
-0.830873
-0.628262
-0.148249
-0.103998
-0.114873
-1.342317
0.590089
0.052174
0.032471
0.066858
0.071759
-0.283570
-0.051020
-0.636172
-0.692293
-0.366346
-0.648122
-0.524865
0.187605
-0.374867
1.860158
-0.297961
1.364610
0.077220
0.257220
1.093774
0.402205
0.217453
-0.400084
0.915183
-0.252116
-0.874622
0.720371
-0.463158
0.267795
0.772323
-1.264254
1.550936
0.060594
1.080255
0.911085
-0.678980
-0.501631
0.229127
-0.733854
-0.564282
1.512376
0.056014
0.425088
-0.141029
0.091810
1.178147
-0.693002
0.868275
1.374924
-0.703495
-0.925542
-0.584578
0.837695
0.203505
0.444695
1.045066
-0.406507
-1.710956
0.139179
0.208416
0.427641
-0.081043
0.581132
-0.525790
-0.938551
0.740851
-0.608908
0.490065
-0.039126
0.033482
-0.632875
-0.858438
0.830141
-0.311104
1.218575
-0.731573
0.883876
0.859310
0.304979
-0.194790
0.129014
0.315611
-0.449066
-0.190088
-0.055867
0.255741
-0.453204
-0.358712
-0.374904
0.449889
-0.568209
-0.238213
-0.079761
-0.745290
0.183251
-1.254056
0.416120
-0.513070
0.975577
-0.006352
-1.341716
0.758123
0.086979
-0.244284
1.013555
0.524711
-0.437711
-0.138410
0.871958
0.944040
0.513164
-1.127630
-1.310095
-0.929138
-0.229540
-0.343180
-0.124023
-0.094869
0.591729
0.738917
1.200505
0.203392
1.415423
-0.780877
0.763700
0.243916
0.528089
1.096421
0.521777
-0.469115
-0.391936
0.210962
0.056992
1.524793
-0.382410
0.471670
-0.019940
-0.726293
0.087927
-1.787420
-0.401041
0.888724
-0.400414
0.444265
0.212364
0.606592
-0.597624
-0.053955
0.052770
1.176357
-0.564478
0.183035
0.405026
-0.394056
-0.035899
0.665517
-0.280257
-0.176585
-1.140423
0.962966
0.532758
-0.413862
0.521797
0.748093
-0.749325
-0.398035
-0.291866
0.692166
-0.725460
1.044523
-0.049988
-0.414106
-0.226948
-0.172479
0.127752
0.978533
0.658011
-0.113534
0.635914
0.079604
0.156924
0.076403
-1.300328
0.251564
0.488459
0.432832
1.549701
-0.366355
-0.406027
1.074786
-0.915130
0.889124
0.027928
0.207457
0.754438
-0.502924
0.284669
-0.178563
-0.086022
0.163784
0.615985
-1.112036
0.252763
0.538006
0.714409
0.546334
0.440559
-0.275531
-0.235378
-1.183046
0.265127
-0.138526
-0.889950
0.407809
0.512905
-0.329805
-0.517740
1.045413
-0.538846
0.779335
-0.191080
0.228202
0.700840
0.193226
1.248499
-0.736210
0.667176
0.252322
0.724094
0.098591
0.653228
-0.110900
0.447153
0.766794
0.298062
-1.179219
1.189061
-0.736537
-0.300582
0.073849
-0.104712
0.100842
-0.924920
-0.449039
-0.740618
-0.155497
-0.052137
-0.595806
-0.266657
1.152237
-0.565511
-0.160415
-0.355250
0.220743
-0.360988
-0.002419
1.026841
-0.613023
0.078415
-0.428780
-0.721862
-0.138828
0.093990
0.572739
0.367901
-1.079704
0.738480
-0.565169
0.015311
0.113836
0.846832
0.534479
0.133121
-2.000549
0.524918
0.104594
0.577575
0.136347
-0.588546
-1.664164
-0.988645
0.492627
-0.346209
-0.624495
0.392415
-0.077276
-0.096277
0.791018
0.751750
0.136595
0.160047
0.420915
-0.873829
0.487152
-1.667623
-0.048008
-0.285152
-0.724075
0.104140
0.427802
0.693269
-1.454997
-0.500545
0.902598
-0.410391
-0.627173
-0.256976
-1.906908
0.207652
-0.109474
-0.315642
0.083105
0.382233
0.073720
-0.201931
-0.352152
0.361871
-0.062817
0.255725
0.514237
0.356109
0.819760
-1.556960
1.065071
-0.648233
-0.630623
-0.078844
-0.507805
-0.262126
0.755267
0.209049
0.213856
0.139457
-0.672891
-0.009149
0.138273
0.032317
-0.617988
0.037660
0.941517
0.102906
-0.885726
0.139097
-0.547293
0.750899
-0.806712
-0.467423
1.167157
0.302582
-0.910866
-0.403178
-0.152878
-0.570184
-0.500753
-0.097376
-0.280546
-1.011440
0.066886
0.674535
-0.584295
-0.370870
0.377496
-0.249961
0.799274
-0.202348
0.492062
-1.821538
0.432053
0.411945
0.308875
-0.605957
-0.460370
-0.182530
1.025473
-0.304417
-0.784464
-0.799337
1.094206
0.035221
0.129720
0.579250
0.255239
-0.714377
0.393828
-0.096365
-0.084826
0.907150
-1.564034
-1.267846
0.131320
-1.110872
-0.435931
-0.592730
0.936970
0.820221
-0.245148
-0.102511
-0.682227
-1.375239
0.595992
1.564418
0.743009
-0.106587
0.783561
-0.876932
-0.118295
0.836362
0.830196
-0.694159
-0.467501
0.242892
1.192598
-0.991939
-0.021736
0.217311
0.489724
-1.097906
-0.217292
0.638291
0.204921
0.293256
0.610788
-0.230724
0.040282
-0.323561
-0.040491
0.433134
-0.202963
1.270333
-0.048961
-0.521513
-0.159035
0.164575
0.631403
-0.442793
-1.069872
-0.124543
0.686096
-0.135200
0.143607
-0.303257
0.279621
-1.566556
0.209745
0.404233
-0.393259
0.458260
-0.048351
-0.231913
0.870360
-0.074646
-1.310386
0.540543
1.145481
-0.097889
-0.442464
0.436670
-0.123040
0.426716
0.387139
-0.837358
0.405339
-0.801362
0.578264
0.443785
0.073692
-0.624826
-0.453718
-0.058321
-0.402591
-0.285643
-0.222602
0.201520
0.328450
0.660016
0.631684
0.120296
-1.024181
0.284347
0.022266
0.118140
0.266355
0.360891
-0.039662
0.219015
0.715045
1.009078
0.276812
0.505259
0.428384
-0.100947
-0.452423
-0.228959
-0.474116
0.467956
0.562111
-0.326849
0.017130
0.166842
-0.194907
-0.613339
0.218322
-0.245976
-0.126796
-0.167840
-0.528365
-0.713597
