0.806123
-2.109487
2.559903
0.451307
-0.728601
0.793448
-2.662085
0.082857
-1.500509
-0.186013
0.331811
-3.418770
-0.268614
-0.161287
-0.472362
-0.738394
3.024886
-1.479430
-0.080828
-0.537253
4.287483
1.480530
2.260378
-3.642577
0.660967
0.299215
-0.319311
0.872386
0.106625
-0.240746
0.738128
0.549645
-0.131891
1.928276
1.967188
-2.835986
2.800148
2.265151
1.278097
0.135512
-2.782610
2.031817
1.399594
2.115988
-2.674639
-0.066546
0.247695
-1.357926
-3.361563
-3.905013
2.813874
0.448617
-4.751304
-1.339118
3.731161
-4.073825
3.852514
1.165442
-0.968960
-3.741050
-1.771014
1.917805
-4.006099
0.510672
0.014209
3.580298
-1.430305
3.160639
0.380186
1.249616
2.127753
-1.875138
-2.050436
-1.028423
3.921146
-0.256311
3.073289
-0.716957
-2.587503
-2.547143
-1.279031
2.700106
-0.304270
-2.633976
-0.834444
1.201080
2.392004
-1.232990
3.768912
-0.430991
-2.488249
0.371198
2.604014
0.211046
3.013012
0.881488
2.228601
-0.536295
-1.911127
-2.237357
-1.591204
1.758311
-1.584444
-1.522355
-3.169311
-0.114219
-0.335499
-1.124686
1.814709
0.034041
2.872347
1.554259
-1.314284
2.295923
0.825318
-0.870655
0.911708
-1.758668
-1.947674
-0.681841
5.836925
0.397417
-5.459066
-1.197478
1.483324
1.421612
2.069073
-1.136527
0.808769
-0.136097
-0.360393
-1.055266
-0.737946
-0.183543
0.197715
0.330831
-3.386719
2.015107
-0.320867
-0.421992
-0.372549
-1.033529
3.795734
0.123396
-0.193714
-1.241136
0.486844
3.850027
2.041642
1.417696
-2.701493
0.566840
1.853497
-1.610424
1.678156
2.558316
-1.160888
0.363405
-1.231681
-1.947640
2.179808
-2.269964
-0.796088
1.531833
4.865628
-0.961859
-2.079145
-2.331372
-0.354512
-0.405614
-0.406595
0.889331
-2.234388
-0.628954
0.703369
4.093500
2.651574
1.759755
2.977189
-0.329792
-3.483292
0.200467
-2.408072
1.818974
0.532883
0.601451
0.705835
-4.496205
-1.037638
0.504400
-1.327577
-2.643986
-0.392838
-2.440566
0.387851
-1.665502
-1.587483
-0.987317
0.851627
-1.365318
0.665968
1.058017
-0.243279
3.225851
1.722657
-3.582194
1.197010
1.150950
-1.818600
1.182827
-0.221161
-0.788275
2.555512
1.263698
1.349552
2.450749
-0.278258
2.779853
-1.549325
-3.267194
-1.062014
0.197837
-0.767741
1.132806
0.106584
1.022838
2.435510
-5.219132
-2.842978
0.663053
-1.419662
1.822295
0.178473
-0.490534
3.723281
0.886737
1.103098
1.756876
-1.063958
0.699001
4.765452
2.443145
-2.162240
-0.030874
-1.822358
-1.229135
3.910937
1.213650
1.939426
-0.054925
-0.145236
0.912455
0.852457
-0.884832
2.079533
0.645879
4.081316
2.369105
0.244285
2.403868
-2.680203
1.109436
-0.959809
1.623246
0.774447
-2.909224
0.122545
-3.420749
-0.305103
-0.431975
4.734717
0.612504
-0.522535
1.663567
-1.612891
2.697579
3.683879
0.667232
-2.859120
0.004214
0.998750
1.166594
-0.344055
2.108157
-1.132545
0.893341
1.573859
3.557088
2.800959
-1.720487
1.770177
2.745201
-1.809146
-1.661723
-0.147489
1.739761
2.613419
0.142118
0.944273
-1.996489
1.082960
-0.409649
-0.456391
-1.872676
-0.730434
-1.679421
2.917709
1.804479
-0.855243
-1.306679
-1.219876
0.363408
1.592179
-0.724685
-2.606820
-0.305305
-0.078131
-4.822982
1.362348
4.263844
-0.603541
0.834530
5.242386
2.259037
-0.320967
2.195546
-0.953242
3.661464
-3.236820
5.072658
1.289931
-0.657085
-1.201794
1.843439
2.613017
-0.977501
-2.804791
0.598271
-0.363875
-0.264481
-1.683840
2.184178
-0.117056
-0.757043
-0.152307
0.892072
-1.695674
1.445970
-2.543634
0.165555
0.159834
3.362187
-1.854723
1.241824
-1.784713
-1.771800
1.893988
-0.996034
-3.310402
0.271198
2.440818
0.666576
3.904900
-0.466129
4.326441
-1.777996
0.598010
-0.243825
4.653922
1.569117
2.217779
2.642080
-0.123317
-0.967740
-0.688088
-2.509940
0.713555
2.018177
2.522749
-0.098779
3.934968
-1.364756
-2.113771
0.596120
-2.164246
-1.544734
0.384447
0.169496
-1.408982
-2.813198
-0.347823
-3.084526
-0.831789
-5.721316
-1.609671
-3.424253
1.133924
1.814289
-0.078146
0.512444
0.048175
1.500189
-2.409932
-2.429890
1.477224
-2.176638
0.410112
0.467174
0.689372
-0.924413
-0.473177
2.293005
-0.223648
1.115692
0.315838
0.213144
1.090234
-1.231365
-1.540495
-3.195960
-0.250933
2.512051
-1.010489
0.745138
0.902309
2.579593
-1.814162
0.168946
1.591350
2.177226
0.028313
-2.810844
2.872072
-0.970623
1.976943
1.165606
-2.359161
-3.324986
-3.311278
-0.952552
0.332256
-0.876800
0.023245
-3.002229
0.879225
-0.335996
3.396045
0.465749
2.686385
-1.703771
2.656614
0.556166
-2.359638
-2.979080
-0.918605
-3.313459
-3.173889
-0.246833
4.477257
1.653938
-3.230608
0.277193
1.054691
-2.422048
-0.109615
2.600762
-1.751695
1.386714
-0.165150
0.306707
1.033056
-3.405089
-1.494729
3.840874
-0.519693
1.732035
2.681981
-1.332297
-0.441877
4.368802
0.924613
-0.320485
-0.726294
-4.073294
-2.055892
0.405358
-0.264047
-1.043557
2.925098
0.578925
1.192766
3.018071
-1.688638
-0.070067
2.847401
-5.600297
3.659725
-1.027106
-0.366322
2.640062
-1.588549
3.106780
0.548647
3.028805
-0.992837
-1.385366
0.121403
2.385602
-2.776074
-1.250752
0.193792
3.277726
-0.307180
-1.815504
-0.552465
-0.771662
-0.800062
0.829630
3.959486
1.383656
0.053743
1.873156
2.590256
1.920581
-0.760352
2.040429
0.950636
1.481359
1.261577
0.127537
-1.304387
1.327401
-1.100006
-0.726266
-0.792385
0.536372
-1.111004
0.544634
-0.106027
-4.569544
2.484520
2.408866
0.761225
0.077222
-0.000063
-0.207402
2.319636
-0.267307
2.071001
-2.711399
1.769934
-0.274061
2.104175
0.298997
0.631335
3.957667
-2.193356
-0.721675
-3.567605
-1.874440
0.659722
-2.644097
-0.104424
2.628141
3.587937
1.940719
-0.287286
-1.127538
-2.260103
-1.211218
0.650768
-0.037116
-0.513464
-1.831609
0.511904
0.677560
4.783606
-2.849693
0.980601
0.978809
-0.673235
0.546758
0.393203
-2.652250
-2.090056
2.846065
-0.952682
0.252078
-0.463610
-4.579380
0.991546
-4.881369
2.719812
-0.674405
0.555658
2.914137
-0.515431
-0.035094
-0.016619
-0.903642
-0.697388
-0.169759
1.005614
2.008661
1.481205
0.168420
0.193538
0.471243
-2.105821
2.677449
1.104202
-0.991364
1.020406
2.077880
-1.055529
0.065758
-1.787646
-1.220859
-1.036977
1.041390
-4.706987
-1.043153
-0.570810
-1.042519
-1.761938
-0.126617
5.294829
-0.983789
0.300641
-1.242004
-0.074123
-0.554247
-1.410049
0.951216
1.799323
0.270491
4.487838
0.918900
-1.527079
0.213263
-1.981881
-0.554433
1.902418
-0.500854
1.568111
0.193805
3.248539
3.978692
-1.544618
0.420685
-2.146706
-0.670824
-2.777554
-0.898708
1.407407
0.257713
0.797104
0.091332
0.209727
-0.430699
-0.461717
2.074709
-1.995276
-0.063945
0.410525
2.151076
-3.358891
-3.568330
0.200120
-0.433604
2.045008
-1.083197
0.983203
2.642874
0.459789
-2.732764
-1.522767
-2.324887
-0.588235
-2.812915
-2.993629
0.171191
1.759734
1.599849
-3.013590
0.540231
-1.130559
-0.599613
-2.320032
-0.862292
-2.333840
-0.415772
2.393123
-0.439982
0.247989
1.700585
-0.240312
0.077547
-2.797517
-2.857934
-1.392845
-1.434481
-1.009681
1.043436
0.774938
0.539407
-1.673542
0.113653
2.382381
0.185905
0.051991
0.645174
-1.083176
-0.547045
-3.222652
3.356105
0.599895
0.292028
1.423521
2.476481
-1.462719
1.298544
5.200111
1.982393
1.648436
4.254904
4.522936
0.936313
-1.486354
-3.111329
4.533855
3.261620
-0.783269
-1.204367
-2.838126
3.175326
0.787377
2.035759
1.822289
-0.106337
-0.704059
-0.118186
-4.769599
-0.744281
-1.780295
0.545554
-2.090466
1.324291
-1.412126
-0.699159
-1.695749
-1.172647
-1.087902
-1.054205
0.903604
-2.424237
3.714475
-1.379074
0.659319
-1.313362
1.268422
0.571967
4.836973
0.294238
3.332398
-3.152331
1.009477
1.375006
-1.554386
-1.157350
3.865977
-2.136519
1.431732
3.492751
-2.019694
-1.432104
-0.242168
-2.581369
-2.849652
-1.126292
-1.366706
-2.652960
-2.592750
-0.631818
1.946709
-4.361995
2.705410
0.566721
-0.744604
0.388891
0.529116
-2.144790
2.183041
1.975368
-1.926490
1.840059
-4.444362
2.412768
-0.688084
1.665583
-1.085738
-0.014359
-4.761954
0.705294
-2.033876
-0.726303
-1.574583
3.873787
-0.710256
1.836456
-1.526664
1.799285
0.317594
3.442466
-3.447850
1.595500
-0.088995
0.508145
-2.241774
-0.604507
2.164146
0.902506
-0.029699
0.384258
0.923529
-3.163557
-2.732081
4.217871
-1.476164
0.314755
2.417455
-1.062796
-0.782301
-3.849558
0.512355
2.638510
-5.446116
-0.095562
-1.775532
-1.377717
1.746609
-1.931592
1.757634
-2.234148
-6.054857
-1.052024
-0.492564
1.203319
-0.478250
-1.046999
3.058017
-0.618805
-6.930132
-2.667107
-0.351752
-2.725029
-0.885909
1.728796
1.732958
-1.367424
5.057163
-1.004314
0.332603
4.204059
-0.138909
2.692036
2.266162
-1.516966
-2.271496
-1.660049
-0.774260
1.151194
-1.220448
-0.164839
-0.886905
2.608467
0.967827
-4.260106
0.304380
-0.229427
0.144067
-2.794147
-2.463455
1.615705
-3.409162
0.212371
0.993464
-2.015545
-1.001720
1.145745
-0.030924
0.513786
0.512402
-2.072603
-2.321305
3.256883
-2.108601
1.138941
-0.159489
1.871253
3.180747
-0.320956
1.561504
-1.567767
1.848857
-1.566330
-2.510725
-0.534889
1.738236
-1.732160
0.093091
-2.460882
-3.361010
-3.841227
-2.084422
0.649916
1.975527
1.249756
1.234860
1.079485
-2.498831
-3.576917
-1.644319
-1.856730
-2.021118
2.032364
-2.889825
-1.281757
-3.234528
2.811521
2.272991
1.520697
-1.096198
-3.647886
-0.051254
1.384971
1.710107
-2.832837
2.213179
-0.314432
-0.781734
-3.144863
-2.612518
0.539305
-1.646467
0.752929
2.518882
2.061244
1.603911
-1.333195
0.386579
3.762752
3.748134
2.113803
1.758265
-0.987273
-0.093096
0.424755
0.146666
-0.338490
-0.858496
2.161414
-1.552097
-0.414174
-1.464578
-0.811455
-1.863601
3.108405
-0.269060
-2.225691
1.512981
-1.703938
-3.243762
1.185589
-0.502815
-0.300586
2.666483
1.094130
-0.289100
-0.154654
-0.986849
0.514571
-2.121062
2.125779
1.099671
0.345976
1.005667
2.434332
1.335796
3.393858
-0.498703
-0.041749
-2.091750
1.786078
2.281018
0.010926
-1.147402
-0.160834
1.255894
-2.504654
0.248290
-1.377945
-1.176420
-1.150108
-0.727808
-1.416534
-0.728394
-0.233371
-5.199499
0.696834
1.893777
-1.016018
-3.784111
-1.444342
2.659646
1.339251
0.289125
-3.554427
-2.812312
-3.331578
0.524501
-1.719428
-0.919256
-0.026870
-0.584765
-2.718462
3.038024
3.131899
-2.047047
-1.112311
2.567505
0.128110
0.489686
-2.114549
-1.240922
0.813016
-4.151996
-3.142547
-1.788881
-3.290871
-0.328819
3.680576
1.429720
-1.870435
-0.458655
-0.731839
-2.745955
-1.867466
-0.503654
1.774552
-3.088461
1.790028
-1.907190
-0.370314
-1.838132
1.881658
1.431560
-2.578904
3.871181
0.493205
-1.766830
-0.546138
0.688768
-0.530569
-2.180885
-0.511327
2.015683
1.487874
2.029536
1.095103
-1.742028
-1.254094
1.950753
3.445905
-1.992460
-0.612219
-0.034959
2.182667
-2.145306
-1.584122
1.249758
1.826800
0.642683
-2.145563
1.459295
-1.572795
1.989841
0.332822
-3.121823
-2.913040
-1.106558
-0.818807
-1.665251
-3.024719
0.882989
0.754540
-3.013920
-0.774375
-0.757840
-3.246621
-0.081092
-2.152039
2.177125
-0.309693
-0.164607
-1.990952
-0.832437
0.740459
-2.018343
0.762263
1.036959
2.209528
-3.385032
-1.676296
0.190942
1.567610
0.509749
-2.713557
-2.922587
0.381529
-3.324656
-1.634296
-0.974583
-1.554422
1.608740
-3.413378
1.235067
2.700857
4.100632
-0.987061
-1.112573
1.401260
1.092542
-0.449921
-2.195138
-0.639615
-0.787664
0.543549
-2.635008
-1.276353
1.770527
-2.536553
4.387317
0.368925
0.493712
1.548201
0.716888
2.682085
0.196034
4.378720
3.531166
3.256318
2.262333
1.135793
-1.665706
-4.083672
-0.279852
0.497030
0.055066
-2.167445
-1.837242
-0.600849
-2.490461
-0.210260
-5.163153
2.969984
6.669684
-4.832487
-0.469684
-2.503850
1.225122
-2.937512
1.441633
-0.873399
3.558414
-2.520799
1.321287
2.682073
1.410756
-1.282379
3.616290
2.242569
3.123357
0.919784
-2.186774
-3.851951
1.826785
-0.087663
1.429504
-3.384260
3.912428
3.969410
2.055317
3.284447
4.570193
-0.813548
-1.171863
-3.365342
5.417594
-0.785883
1.223351
-4.038842
0.066124
-0.112100
-1.188242
-1.020393
-1.058116
-0.630747
1.000511
-0.657742
1.219903
-1.137556
2.228774
-2.010770
-2.379671
-0.651760
1.678594
0.603962
-0.621382
-4.161001
3.034702
2.273428
-1.105006
-0.501480
-0.095428
-0.281527
-0.530886
0.572388
7.069327
1.546302
-3.768204
0.038168
0.310329
0.238543
-2.041817
2.271534
1.189098
-0.199038
-2.015483
-1.118512
-6.322496
1.299315
-1.148602
2.690921
2.125947
-0.555309
4.552478
-0.089841
-0.984808
-4.854474
-0.439647
0.382959
2.734816
0.783564
1.051419
2.869130
1.052244
0.114819
0.791669
0.563335
-0.180309
-1.230825
-2.473898
1.040774
2.099719
0.474292
0.259415
1.037502
-0.655798
1.454743
-1.080646
-0.398804
-0.134629
1.563902
1.113183
-0.513815
-1.316788
-6.048776
0.547881
-0.087249
-1.079872
-0.258505
-2.362248
-3.753235
-4.354118
-2.584386
-3.420720
-1.380633
2.171362
-0.540194
-2.789409
0.735109
-3.243336
-1.514979
0.007380
1.169722
-0.095069
-0.095798
1.995594
1.157491
0.318017
1.811602
-3.847286
2.737751
0.980819
3.257174
1.878878
-2.635405
-1.419086
1.206762
-0.680290
-4.037357
3.274583
-1.333736
-0.585719
-2.011087
-1.916070
0.219034
0.182162
3.027005
0.849481
-0.226412
-2.392803
0.691865
-0.126645
3.742783
0.390994
-1.952614
-0.599534
-3.271805
0.637306
-1.623220
-3.362970
1.497637
3.236019
0.591339
1.220708
1.789895
1.255748
-0.126674
-0.442657
-2.313025
2.538170
3.855913
0.000232
-2.590088
2.461053
-1.742083
1.172309
2.644499
1.456999
2.092158
1.444467
-2.900820
1.010413
-0.748544
-0.197124
0.638793
-1.909585
-0.803500
-2.483203
2.933313
2.915061
1.899326
-1.128277
-2.424519
-3.897285
2.405598
1.630009
2.860300
-1.568070
-6.352798
1.301316
-1.120823
-2.169775
0.717745
1.572067
-1.671418
2.729761
3.183222
0.383472
1.185029
0.457965
2.168745
-0.725258
0.180038
-6.496135
-3.952674
3.811176
0.257070
1.343121
3.179261
5.265947
1.487692
-0.878471
3.808190
-1.113053
-0.693343
1.316397
-2.634739
0.986339
1.961262
-0.483056
1.023229
1.386788
-4.274895
3.464712
0.704232
1.940015
-1.581999
2.655321
-1.112537
0.034741
-0.267888
0.367418
-2.449419
3.774493
0.149784
-0.412679
0.732563
0.915035
-1.034457
0.516405
2.317870
0.228486
0.369908
-1.130138
0.039908
0.151465
1.114524
1.409971
-2.662634
-0.369722
-1.954276
-1.643661
2.041555
-0.863679
0.621831
2.181050
0.497242
2.153790
-2.927329
0.400831
-0.949829
-0.461875
-0.317289
-2.467612
2.342959
0.006936
0.658759
4.175098
1.159752
0.075292
-0.015396
-1.300963
-1.837753
-0.137839
1.793897
0.961076
2.500049
0.503565
0.195589
-2.342327
1.095374
2.255313
3.044808
1.201964
-0.421459
0.091857
0.533004
2.126820
2.726491
1.900336
0.485457
2.729423
-1.351519
-0.990490
-1.142808
1.841790
-0.963615
-2.731120
-1.149127
-3.113412
-0.906823
-0.312721
-4.587686
-1.452216
-0.115696
1.054187
-0.719960
1.722529
-0.385204
0.311757
1.105643
-0.804911
-2.644498
0.954667
-0.786769
3.313979
1.934963
1.702846
-0.161981
2.292348
0.024454
2.854045
-2.365102
0.232054
0.266620
0.352101
1.453850
-0.402789
1.764062
-2.074707
0.751245
1.491275
-0.520604
-0.404455
-1.610725
2.633111
-1.149344
-0.369051
-0.502830
-2.262705
-2.085112
-1.005899
-4.459893
-0.769039
2.572249
3.070904
1.281629
-1.364794
-0.304225
3.751316
-0.750667
1.910257
1.280650
0.770494
-1.758729
0.274570
-1.493997
-5.696370
-1.888551
2.252076
0.939888
2.136851
1.499334
-1.822684
0.279625
-0.856604
0.213361
1.811772
-2.038188
1.685006
-4.380893
-1.669421
0.341482
-1.021400
-1.354373
2.718452
-4.365424
-1.924972
1.088850
1.107163
-0.759165
-0.642787
1.939108
-3.742689
-1.235734
1.787497
-1.384070
-2.036132
0.896758
2.630229
2.232737
0.007403
1.605451
2.180492
-0.166899
0.208332
-4.122347
-0.093538
3.247708
-0.028008
2.780644
-1.946904
2.173771
1.332564
1.524209
0.231944
0.764637
-0.288806
-1.662842
1.033309
-2.205504
-1.135949
0.754780
2.266667
-0.327575
1.139143
0.613538
-3.535507
-2.158664
-0.666239
-2.447988
-2.847702
1.774853
2.255122
-2.677975
0.891917
1.057904
0.318439
1.076265
1.229489
-0.607705
1.155305
3.704482
1.712429
-0.095182
-0.754564
2.402110
-2.160716
0.178569
-1.968805
-2.094639
3.132507
-3.312290
-0.185226
1.869122
0.905085
-0.933818
-0.971095
-0.852972
0.560190
3.166946
-2.004061
-0.192343
1.085355
3.757546
1.873768
-0.283389
0.790625
0.893765
1.256194
-1.046192
-0.019921
2.280293
-3.735821
4.836449
1.308159
0.111135
1.324359
2.025213
1.340441
0.785330
-0.883673
0.353473
-2.743020
-4.067510
4.553815
1.088030
1.129770
0.256800
1.403209
-1.890262
2.347953
-0.888060
-0.711882
-1.757267
0.656781
0.161667
-3.365479
3.628770
3.114345
1.668044
-1.073552
1.032683
2.053407
-1.891847
1.052712
0.068363
-1.477145
0.646530
-0.021958
-3.671201
0.844744
-4.577403
-1.309937
1.190522
-2.729296
2.715103
2.241297
0.143431
-3.323291
1.048462
0.730199
-1.750339
1.087926
-0.708600
-2.332878
-1.148160
-0.808074
-2.707331
5.504608
-2.384034
-0.520894
1.816577
1.659161
-1.578837
-1.569238
2.540968
3.859134
2.875730
-0.598665
-1.750658
2.267977
1.292737
-1.646798
1.985864
-4.441934
1.036141
0.932622
-4.055849
-1.848452
-2.201848
-0.805505
-3.150539
-0.506362
3.920687
3.442038
-1.947689
1.187142
-0.448751
-1.613054
-3.676778
1.904418
-0.641382
-1.109216
-0.252539
0.055088
-0.202311
-2.623453
-1.553733
-3.174088
-1.068709
1.325837
-1.133730
-0.277720
-0.506714
0.624143
2.734427
1.116302
-2.950887
-0.506302
0.149699
-2.407681
1.524785
2.136507
0.573490
-1.700500
2.203553
-2.376582
1.116461
-0.823451
4.210171
-1.467642
-0.121376
0.196679
0.899782
5.817039
-1.512549
-2.477398
1.218405
3.317346
1.181495
-0.196908
0.894568
-2.750436
-3.767782
-1.151584
1.706961
-1.676425
0.604333
-0.838031
-1.213760
0.015939
0.940212
-1.171627
4.881404
-0.927053
-1.392217
-1.842350
-3.845840
-1.841573
-3.625642
1.250059
-0.398319
-0.114687
0.641648
0.083679
2.658267
-2.403743
-0.496719
0.740209
3.479914
-3.258952
2.391821
2.314810
1.253157
-0.833351
0.693567
-3.326039
2.812347
1.401037
-2.802207
-1.460524
0.967503
-0.397760
-2.766471
-3.145184
-1.053233
-1.049842
1.340618
-0.428327
-1.948431
-1.533982
1.268195
-0.367146
-0.727062
-0.675630
2.792008
0.064818
-1.616521
-0.145835
-2.340102
-4.168325
-1.208971
-0.177795
-1.364449
-0.596386
1.032588
1.707350
-3.028026
-0.238376
5.742916
-1.321561
0.338672
0.018581
-0.181246
0.765374
4.797663
1.588339
0.951105
0.750392
-0.525775
4.210070
-1.185872
-0.902048
5.104537
-0.886525
0.103998
-1.370831
0.239635
2.711801
-0.770771
1.168698
1.483348
-1.206313
2.824154
2.814998
0.450996
-1.391986
-2.149515
1.756462
1.355317
1.244837
3.111174
5.102930
4.777484
1.184927
4.261477
0.930434
1.090333
-0.443098
0.267975
1.915166
4.265461
3.426935
0.180226
0.775207
-0.973003
1.482844
-1.256898
1.398119
-2.140812
-0.976206
1.814222
-0.235089
-2.281841
2.138104
1.221367
0.044405
-0.130761
1.163938
0.558825
0.830435
-2.611030
1.214243
-0.684865
0.177155
0.824975
-0.888726
-2.943029
-3.951779
2.325671
2.541105
-1.174574
-0.387084
-1.086556
1.124622
-2.881568
2.521938
-0.198552
3.314647
0.515246
-4.457557
-0.615391
-0.602466
0.640616
0.084985
-0.266898
3.220610
0.487242
0.476459
-0.263828
1.517510
-1.762290
-0.715100
2.127314
2.188649
-2.502550
-1.345232
2.947983
-2.366950
2.349614
0.006690
-1.672427
1.866068
-0.932054
-1.678393
1.454134
-0.107236
-0.196434
1.115202
-3.153186
-1.792445
-1.840274
-2.151536
0.395494
-0.925328
-1.066060
0.409332
-0.252647
-2.438505
2.766716
2.933389
-2.266394
3.039164
0.820595
0.518381
3.038845
0.957900
-0.661578
-0.856656
0.399269
1.219920
-1.633430
-3.233325
0.337460
1.571697
3.326105
-2.043933
-3.289437
1.447114
-0.511105
1.342121
1.416662
0.506546
-3.376236
0.243681
0.554864
0.511377
-4.204565
0.718890
0.781901
-3.224688
-0.943980
0.795545
-2.139734
3.988319
4.762762
-2.263470
-4.942065
-0.716795
2.787238
-0.096093
-0.820178
-2.245952
-1.351247
-2.109547
2.700902
-0.218093
1.125524
0.481625
-0.659706
0.328447
-1.988414
-1.384133
-0.590105
-0.931976
-1.763324
0.539606
-1.038590
-1.033862
2.404062
-0.293728
-1.484548
0.172493
-1.925924
-1.648107
1.162030
-3.629795
2.616465
0.157852
3.084000
2.583939
-1.752993
0.997546
-2.765282
-0.414035
0.223566
0.776546
0.631810
1.841536
1.976954
0.419566
1.966117
1.089678
-1.799735
-3.155599
2.879838
-0.857297
-1.078531
-1.357944
1.121688
-0.611404
-0.371680
-0.343163
-1.717780
1.112931
-1.593815
1.608144
-1.271269
0.750369
-1.546369
-1.142275
3.690936
1.759019
4.284941
-1.893318
-0.661098
-1.842712
1.886565
1.294042
-1.868736
-1.187384
0.267476
-0.478544
1.861524
-0.371184
-1.472740
1.348499
3.599339
3.839939
-1.606748
2.017811
0.767270
-0.885300
-0.764487
-1.756201
0.525484
2.059855
-0.206006
-0.004218
0.787978
-4.359349
-3.928357
0.594374
-1.921968
0.086448
-1.558739
-1.304268
-0.181982
-0.339855
-0.717108
2.022112
-1.272603
-1.800591
-3.192671
1.279467
-2.288612
-0.754002
-0.722312
3.219358
-0.927422
1.519885
1.948510
-1.608529
-0.924688
2.013170
0.598229
0.888289
0.532829
-1.615884
0.398344
-0.772046
2.232424
0.314197
2.111830
5.263946
0.799537
0.701934
-4.832319
-0.138743
0.379893
2.129095
-1.100725
-2.729657
4.338847
1.444222
0.381351
0.273336
-3.790651
-0.854310
1.462438
-1.851455
1.272658
0.233003
-0.543776
-1.654611
2.949932
1.314328
1.512461
-2.198036
-1.182674
-1.252635
2.167098
-2.133249
-1.051098
-3.143960
2.725534
1.840759
-0.282368
2.515951
3.170729
-1.305772
-2.890454
-1.625238
-4.365760
3.758622
-2.373502
0.118417
2.765428
1.952491
-1.313468
1.234870
-1.403110
-0.527647
-2.842913
-0.983778
-2.352012
-1.497027
-2.472694
0.476750
0.235282
2.517108
1.150168
4.562630
-5.021734
2.202940
-2.461443
1.816666
0.929450
1.562450
0.977244
-2.188968
-0.767843
-0.061817
1.345015
2.993370
-1.595951
0.343814
-0.260784
-3.222705
2.955712
2.828995
1.723068
-4.431429
1.406898
2.215803
0.610509
-1.388285
-1.754615
-0.353000
0.227104
-1.692867
-0.899869
-1.665231
3.624136
-1.531839
1.569013
0.367099
-2.203932
4.738369
-2.569758
-2.397363
-4.149803
-1.166076
-0.534482
0.660855
1.437856
0.879656
-0.975882
-2.300126
2.401198
0.157556
3.238900
-0.369619
-2.198322
3.590779
-2.038676
0.227715
-1.623721
1.166340
0.584403
-4.419471
1.430324
0.472602
-0.447149
0.486649
-0.511238
-1.272338
-0.733063
2.249516
-0.293834
1.339741
-0.507888
1.222732
4.337112
-2.205258
-1.734247
1.432784
0.437809
0.564802
-0.011009
-1.570059
-3.931002
-0.198257
-0.907739
-0.269013
0.291020
-2.091836
2.378552
-1.768134
1.415276
1.098523
1.372630
2.003751
0.806014
-2.602726
0.648593
-0.221314
2.077053
-0.987491
-2.452331
1.594421
-0.898003
-2.485966
-0.926872
-0.605981
-0.880752
-4.392129
0.017301
-0.600452
1.492526
1.249491
3.239008
-0.636393
0.329663
-0.961755
-2.281240
-0.613928
-0.701874
1.260684
3.561619
-2.466859
-0.700931
-0.587432
1.961500
-2.050325
-2.551996
0.992919
-0.590035
0.277007
-2.661812
0.099148
-2.297076
1.073165
-0.681386
1.270693
-4.982341
-0.371070
-2.313750
2.873432
-0.225289
-1.566063
-1.668475
0.674347
1.989225
-0.359715
0.526555
-1.249947
-0.267569
0.687467
0.858551
-0.448826
-2.279147
3.235574
-0.016990
0.594113
-0.509148
0.532374
0.422141
-1.226575
1.285380
0.000103
-1.817674
2.093499
0.268012
3.662759
1.744471
-3.331838
1.037339
2.345912
-2.794007
1.142185
-2.772085
2.660373
1.604674
-2.691782
-0.395027
3.603212
2.308841
-0.297962
3.064116
3.476372
-1.620820
-1.558975
0.126402
1.791793
-1.345108
-0.639843
-1.403029
-2.010816
2.036112
0.588908
3.713165
1.355008
4.085243
3.125977
-0.507521
2.444807
-2.925858
-1.885607
-0.774728
1.099007
-0.971643
-2.257934
-0.175217
-0.288387
0.352058
4.156860
0.677157
-1.512021
1.641383
1.370433
2.774931
-1.218225
2.627023
-3.154955
2.593388
-3.576240
-0.883246
-0.170342
-2.069258
-2.267592
-3.211287
1.843795
-1.158052
-2.675604
-2.357116
-0.497859
-0.900166
-3.416122
0.038872
-0.122153
0.904702
-0.143444
-1.417770
0.309058
-0.875367
-0.786247
-3.259698
0.507669
-1.548924
1.707624
-0.845537
0.832887
-0.385401
-0.714107
-1.509944
-1.230227
0.732481
-0.261290
-2.054249
2.038138
-1.803079
-2.115891
2.011094
-0.585113
3.235045
-1.594884
2.537844
-0.608250
0.991866
0.581599
0.752299
-4.114825
-2.350828
-0.542744
0.962159
3.963914
-0.415575
-1.972168
1.697883
-1.121155
-1.016926
0.494734
1.176060
-0.773551
-3.206871
-2.617429
-0.849317
-1.010675
0.323738
-0.067509
-0.544069
2.279460
-0.184284
1.881479
-3.250408
-3.037432
2.333292
-0.802253
-1.807539
-1.883076
-0.806566
-2.576103
1.202455
-1.868577
-2.941981
-1.989990
-0.036937
1.016633
-1.133181
-1.015127
-0.038922
-0.492576
-2.669654
-2.041848
1.822737
-1.762561
-0.526851
-2.740427
1.765259
2.447375
-1.493282
-1.895391
2.441236
-1.355862
-1.217618
0.850960
1.161151
-1.165812
-0.678077
0.997839
0.028284
-3.573633
-1.169934
0.435183
0.138331
2.344116
0.811221
2.903934
-2.677611
0.388855
2.460052
-0.905334
2.500181
-2.338569
3.225452
-0.469204
-1.383626
0.482970
0.037736
2.411899
-0.026463
-1.550981
0.332722
2.241319
3.242875
3.934979
-0.791437
-0.689963
-0.406443
4.153785
-0.615413
-0.548608
-1.547625
-1.401554
-4.095137
-2.179590
0.930162
-2.297358
0.724531
0.586771
-1.236155
1.892737
-1.516845
2.956669
-0.029019
2.325332
-0.077312
0.363064
0.647450
3.391253
-1.092530
3.264744
-2.719094
-0.081393
0.037812
-2.438998
-1.088982
-1.043247
-1.419276
-1.238276
0.163600
2.129995
1.173227
-0.903828
-1.225807
1.107953
2.531512
-0.066925
0.166525
0.034800
3.573037
2.121459
-2.860497
-1.844296
-2.125651
-1.853355
0.785547
-0.506081
3.289196
2.048558
-2.097089
-2.092648
-1.319349
-0.262963
-2.057920
0.016035
0.193911
-3.367810
2.236407
0.556779
-0.883585
-0.575569
0.065224
3.881832
2.098089
1.042933
-1.303635
0.891032
-0.561856
-2.724771
-0.594708
0.219405
-0.399619
-3.451032
-0.789623
2.898061
-2.458555
-3.619749
1.942575
-2.750701
0.560866
2.418001
-1.556665
-0.897346
-1.239871
0.194864
-1.570126
-1.219749
2.582591
-0.995904
-0.881844
-0.156709
1.255915
-3.569210
-1.899950
-3.139066
-0.508886
0.204492
1.711692
-1.026721
4.127269
5.743464
-2.574943
4.170203
-2.570877
-2.361286
-2.529042
0.230861
-2.646133
-0.328443
0.210469
0.339568
0.149337
-0.614448
0.145260
-2.290509
-1.752945
-1.180655
1.578714
-2.005543
-2.329377
0.321948
-2.103726
0.399418
0.176712
0.462833
-2.852907
-1.041018
-0.855497
-1.729886
0.751700
1.540365
-1.498896
-2.779011
1.010393
1.527987
2.035341
1.461124
-1.519834
0.474871
2.553074
-0.468714
0.789601
5.235862
-3.773638
0.966660
-0.749014
1.320694
-4.150061
3.533433
-0.224890
-0.446096
-1.702332
1.017784
1.771212
-1.729299
-0.423438
-2.296308
0.894035
-1.077245
0.502652
-2.396722
0.262892
-0.666949
1.203456
-1.265575
0.229179
-1.349175
-1.881854
0.172210
1.707886
-1.514066
-0.339942
-3.504180
0.992863
-2.451391
0.642636
-1.115875
-3.890549
-1.695993
-0.251195
-0.438676
-1.572814
2.450823
-1.000727
-2.622092
-1.946752
0.572415
0.466742
-0.460312
1.930945
2.701171
-0.439196
-1.038042
0.934152
-4.383807
-2.994948
0.145907
2.062492
-0.767740
-3.318056
0.896613
-0.638996
-0.532873
-1.853467
0.336238
1.764736
0.272090
-1.205073
-3.131381
-3.402467
-1.895430
-0.290169
1.368503
-0.924160
0.695246
3.511417
2.587507
-3.474349
-0.137834
1.478643
4.226383
3.341376
0.316626
-1.321362
1.142075
-0.797691
-0.698021
-1.645280
-0.777523
-2.107035
-0.344957
-4.914738
0.931612
2.414563
3.236714
-0.285445
-1.124254
-2.014898
-0.990544
-0.456162
1.454772
-0.892284
1.936085
-0.459664
-1.267075
1.017696
2.279922
-1.163192
-1.260231
-2.803207
0.587638
1.442052
-1.337482
-3.545521
-1.843498
-1.742886
-1.296730
-2.749623
-0.668265
-1.790615
1.903042
1.775823
-1.089737
0.441920
-2.432094
-1.092951
-2.080630
-1.132724
-0.404146
4.123460
1.132793
0.064175
-1.758424
1.282164
0.920787
-0.617624
-1.829519
-0.750229
-0.738872
2.448241
-3.403249
-1.666461
0.165739
-1.058068
-4.637063
-2.555557
-2.412119
-2.436735
-0.330237
-0.569150
-1.827136
-1.539220
-0.902304
0.098604
-1.621941
-0.697978
-2.627229
0.434033
-0.684978
1.205549
-1.904392
5.187614
-1.246503
1.992561
1.903071
-1.446299
0.474590
-1.110572
-0.961636
-0.769140
-1.552367
-2.818778
2.191790
-3.251857
-4.952502
2.069965
0.492525
0.827949
-0.145502
2.248220
-2.936057
-4.313826
-0.293007
-1.152701
-2.320518
-2.123607
-0.819658
-3.390251
0.044407
-1.200448
-4.733744
1.098623
-0.754194
-3.949619
1.932235
1.711351
1.951282
2.221588
-3.188304
-3.402995
-3.070308
-1.842352
-0.590942
-0.324422
1.632416
-1.391133
2.291780
0.944653
2.691528
1.471550
-3.733676
1.899240
-0.835558
0.879074
-3.383126
1.783139
-0.886635
-2.834913
0.290379
-2.318829
-1.859073
0.965936
-0.813380
2.025317
-2.311911
4.989127
-0.908762
3.796346
-0.761398
2.899911
0.792347
1.440018
0.450352
-3.519003
-0.765591
0.819260
1.074389
-0.791682
0.464763
0.728240
0.809490
-0.530834
-0.749619
1.392984
1.342558
1.397397
-4.399383
1.296470
-3.050293
3.616783
2.606023
-3.604581
-2.057410
1.403328
1.284835
0.115430
2.435713
0.438003
1.454340
-1.511179
-0.573041
0.041764
-4.797982
-0.067423
-0.520883
-0.968940
0.177970
-2.234878
-0.285201
0.085162
1.269916
2.531990
0.765017
-1.549408
-0.316511
-0.838480
0.410370
2.659329
-0.640083
-4.560045
1.371570
-3.130790
1.800239
-0.387867
0.754686
-0.411692
-1.238396
0.823567
-0.166442
1.113663
-1.119022
3.376608
0.867892
1.430355
-0.384450
0.839661
2.533926
-1.284846
-1.816492
-4.789430
5.170020
0.684750
-0.202101
-0.907226
0.232744
1.232855
-0.744679
2.566235
-2.060850
-0.007994
2.166686
0.659702
2.230407
3.191598
-1.335589
0.405664
3.493390
0.330732
-0.613151
0.501451
-0.016333
-0.100860
1.939417
-3.520796
-1.156780
-1.171263
0.929456
-0.651766
-0.298637
0.618475
-2.195786
-0.021239
3.371572
-0.126382
-2.522640
-2.941256
-0.272829
0.616449
2.340922
0.566015
-0.456258
1.923222
-0.353701
0.368170
0.193637
1.008309
-0.731591
1.580636
-2.857512
0.222219
-1.878247
1.579435
2.034079
-0.056609
-2.373612
-1.914465
1.485513
1.410997
-1.738367
1.975690
-1.660516
-2.288702
-1.424861
-5.741664
-0.239577
0.554272
-0.543012
-2.975911
2.577887
-1.987807
0.224913
0.199333
-4.286452
2.642508
1.251025
2.803006
-0.384017
0.240597
2.346418
-2.607349
-0.961820
3.330533
-2.585441
-0.698098
-1.910272
0.110703
0.485375
1.719677
-0.253314
0.971518
-1.233898
-0.448511
0.843853
-1.713602
0.204776
0.046744
-1.336633
2.763219
0.313802
-0.381617
2.602324
-0.061244
-1.518800
-2.595553
-2.477673
-1.567813
-1.576795
-1.041746
0.409998
0.497479
-2.147810
1.454736
0.526406
-3.984050
-2.096115
1.507966
-2.548513
0.615415
0.457856
2.455477
-2.326616
-0.684167
-1.928030
0.686094
0.450471
0.981234
1.744780
-0.489654
-1.065690
-2.015125
0.599932
2.114786
-0.527924
3.290465
-0.195355
-3.086779
2.418263
-0.996420
-0.632391
1.134284
-3.357611
1.996061
-0.950660
-1.482915
0.524327
1.956506
0.754715
-1.848468
1.172676
4.144248
-2.032667
-0.900750
-3.671564
-0.251551
-1.801203
0.007964
1.301558
2.134070
-1.284264
-1.719372
-0.849116
-1.254536
1.650736
-0.105288
0.212366
1.040867
0.150191
-1.075923
-0.063098
0.726506
0.231892
1.981569
3.652135
-1.910019
-1.395903
0.478547
0.287604
1.790692
-1.177278
0.217647
-0.780162
1.909437
1.761872
-1.186875
-3.789330
-1.820636
3.232128
0.882961
-0.533358
0.878039
0.503581
0.378397
0.821368
1.574918
1.298303
0.700371
1.323788
-0.076184
0.635566
0.340750
-1.859025
1.954274
-2.024435
-0.417142
-1.900609
-5.449971
3.399771
-0.536622
1.085831
4.697638
1.581466
2.581940
-0.157865
-0.450289
-0.079531
-2.146973
-1.228727
-1.316513
-0.254066
1.775440
3.154102
-0.446758
-0.744477
-0.638905
-3.749120
-0.644105
0.163012
3.379420
-0.328950
1.126536
0.046575
1.351559
3.078387
0.970044
-0.395159
1.600529
-1.705802
-2.748177
1.466433
1.781277
-2.058723
-2.702482
-4.690351
1.722996
1.215814
-1.482396
-1.464775
-2.540250
0.922832
-2.675784
-0.347900
-0.725441
-0.776843
-0.394784
0.116438
-0.957265
1.730783
3.045118
0.624490
0.321560
-0.028317
-3.051554
2.756589
-0.150034
-0.398454
-0.248882
2.707235
-3.955029
1.547733
-2.416127
-0.499739
-0.303272
-0.180472
-1.099830
1.623492
-2.408553
1.063695
-3.613953
-2.109183
4.365639
0.195135
0.427096
-2.007078
-1.269296
1.017976
3.999531
3.162763
-2.375802
-0.960190
2.486148
-4.203218
-5.063989
-4.356710
-1.444904
0.264195
-0.122109
1.934606
0.966100
1.951197
3.095001
-3.000294
1.129392
-1.562147
2.415063
2.443079
-1.436225
1.665776
-2.882619
-0.214029
3.230953
-2.049326
-0.841193
-1.638919
0.478448
2.296094
2.996899
-1.841675
1.637880
0.293201
-0.770038
0.024868
0.015755
-1.899042
-2.303105
0.332201
0.261317
3.089800
3.313266
-2.491071
-2.779387
1.948635
-2.758958
0.115974
-1.893886
-4.554562
-0.216887
-0.952485
0.944331
2.379815
-2.307969
-1.082666
-0.221457
-0.553569
-0.828062
-0.682071
1.648579
-1.900468
-5.716858
-0.360604
2.335300
-3.491956
-2.230613
1.270586
0.039945
-1.159364
-2.470826
-0.486344
-0.893416
0.709997
-1.265812
-2.548502
1.977393
-1.355631
1.420443
1.879143
0.785930
1.894804
0.447214
1.787038
-3.356962
1.189245
0.831612
-0.198960
0.559084
0.562022
0.388123
0.615091
-1.698445
-2.914083
-0.102365
-1.190767
-0.631473
-2.254874
2.879004
-0.282022
-0.134966
-0.338172
1.261038
0.646341
2.233576
0.609130
-0.764434
0.268642
0.099520
2.130339
0.913135
-0.069945
1.920499
0.089835
0.364035
-0.516940
-0.641367
5.465288
0.475605
-2.606839
0.747737
1.123657
0.101283
-2.519362
-0.742997
-1.884432
1.219724
-0.818445
0.099228
-1.552057
0.254947
-2.335748
1.133622
1.812565
0.816541
-0.966007
-2.357974
-0.814945
-1.899548
3.982738
1.984914
2.382890
-2.209543
-0.502304
-1.354575
-0.891425
4.260529
-3.764949
3.917455
-1.460338
-0.362373
1.099263
2.285235
-3.158902
-0.041080
-0.192617
-3.127740
1.165579
-0.421058
3.440969
-1.330473
1.765528
-3.821173
-0.419568
0.608625
-5.838558
-0.244264
4.093168
0.092250
-2.090285
-0.860642
1.283927
-1.330303
4.756909
0.723915
-1.316269
-0.420733
2.915227
1.730924
0.108760
-3.232929
-3.633041
0.587895
4.586631
-0.605195
0.184408
-2.523366
-4.077119
-0.499359
0.849851
-1.526774
2.509163
0.253504
4.227110
-1.274117
-1.195929
-0.881370
5.758976
-4.401962
1.898308
-2.200414
0.376093
0.784365
1.363953
-2.031161
-1.845960
-0.153427
1.964179
-1.972026
-1.407493
1.244177
-2.029992
-4.968933
1.510245
3.278588
-0.564097
-0.411717
0.175336
0.557559
1.339919
0.384255
4.084162
1.990221
-0.959180
-1.742764
2.396665
-1.808962
1.516423
-2.176911
-0.962693
-2.053100
0.513382
-1.622587
-2.915654
1.873215
0.275689
-2.001360
1.915127
0.128259
1.745822
0.136516
-4.130011
0.467210
-1.511684
-1.274033
-0.310549
-2.427925
0.855742
-1.658959
-1.249749
-2.599795
1.370016
-3.239295
-2.942592
-1.743014
-3.131182
0.971767
0.797696
-3.753101
1.402458
0.373375
-0.984979
-1.635146
0.461270
0.830985
-1.704362
-2.585154
5.364850
4.228305
-2.318003
1.770671
-2.775132
-3.285991
-3.861347
-0.445876
0.910446
1.484184
1.517505
-0.432009
-3.321746
0.893029
4.086989
-1.195576
-0.537029
-0.552197
-1.575755
-0.974170
0.289567
1.478192
-1.376595
-2.173154
0.684737
-0.510267
-0.663850
-2.216668
-0.519466
-0.056628
1.181194
0.541377
-4.344650
-4.182697
1.901251
3.114249
-1.785063
-2.515531
-0.363731
-0.915178
0.456222
-0.597796
3.848397
0.065860
-0.181124
-0.757042
2.233889
0.856969
3.718327
-0.998401
-0.717364
-2.943286
-1.712903
-0.761011
-0.829040
1.712128
0.160287
1.761662
-2.878351
-3.047235
-0.502090
1.333088
-0.588709
-1.471672
-3.010727
1.190664
1.219656
4.704179
0.569339
-1.820057
-2.026293
-3.285349
-2.417200
2.226737
-0.088444
-0.644280
1.243716
1.142490
0.777529
3.621580
2.261890
-1.832197
-0.085271
-2.698165
-0.998712
-0.568166
-3.002855
-0.122825
1.051001
-1.111701
1.309919
-1.182577
0.225894
-1.188744
1.052273
-2.360213
-1.159183
2.079349
0.368144
-0.578061
-1.200180
-1.248647
-1.303509
-0.287066
1.852257
1.970130
0.396039
-3.195577
1.811735
-1.516927
-1.569296
-0.712836
2.453825
-4.413425
-2.535356
-1.092655
1.091563
-0.355966
-1.578047
0.799859
-2.761777
0.301159
-3.355928
1.252362
-3.342708
-1.151139
-4.258435
-0.875105
0.445547
-2.305952
-0.531557
0.231908
-0.885038
1.825339
-0.425966
2.527533
-0.202846
1.372957
0.332704
0.724311
0.114474
0.655647
-0.050626
1.960339
-1.823538
-1.785965
-1.854697
-1.776933
-0.240677
1.047827
1.124815
0.851232
-4.057593
-1.336514
-0.001799
1.634020
0.521705
-3.564737
0.413949
2.537411
-1.152224
1.751111
-2.130234
-1.685612
1.171446
-0.232612
1.031348
-3.225041
-0.415574
1.831827
-0.784256
0.329889
0.298911
-2.887253
-4.178122
1.945127
-0.341333
1.898327
2.891736
-2.111080
1.627262
-3.007046
-1.269523
3.071139
-0.155751
-1.274874
-2.081511
0.747662
-2.296837
1.441321
3.381165
-5.587209
-0.242594
-0.648693
1.105235
3.476044
-3.646839
-0.320401
-1.271228
0.111020
-2.020673
0.952958
1.873433
-1.943139
-1.123908
3.149010
2.438662
0.942726
0.580442
1.346662
-3.342686
-0.796678
-1.248270
-1.952948
-2.486666
-0.414191
1.408622
0.388696
0.514665
-1.192551
-3.629556
-2.927401
-0.688754
0.582661
-0.258381
-1.226044
-1.488674
-0.950098
-1.597910
-0.104656
-0.531314
-2.513096
-2.873208
1.503692
-2.875092
-0.686990
-2.348624
-2.674098
1.619912
-1.265926
0.129297
-3.714174
-1.936788
3.142562
-1.247789
-1.007015
-0.151874
-1.684380
-1.770434
-0.578731
0.963011
0.723777
3.577236
-0.150564
-3.131090
-0.651143
1.319720
-2.009282
-3.785409
2.617283
-1.501953
-3.279376
-0.429204
-1.961228
-2.286680
1.268734
-6.834567
-2.039586
-1.960874
0.968917
-2.657517
-1.701104
-1.620151
-0.707857
0.144563
-1.013030
-1.303569
-2.843672
3.334134
-2.781949
-2.708599
-0.272529
1.722884
-1.763342
-3.897225
-4.066621
0.756045
-1.426272
1.198066
3.224756
-4.598453
-0.420305
0.275194
-0.818189
0.510215
0.130643
-0.515524
-0.745151
-1.305868
-0.740240
1.234735
-2.183928
-0.666579
-2.723035
-4.191145
-3.229851
-3.166725
3.310721
-1.276666
-0.975252
-2.343777
-2.848846
3.777102
0.119998
-0.621603
-0.075174
1.315510
-1.571941
-3.981729
0.866875
-2.032733
2.925890
-3.324032
-1.344896
1.006863
-3.626597
-2.925734
0.515641
-2.628416
-1.730431
-5.935698
-0.047097
0.066319
-2.299813
-2.033960
1.039863
1.222275
-1.476424
0.948559
-3.418719
0.933286
1.284201
1.967199
-0.314897
-1.654460
-0.493383
0.293257
-1.773574
1.020323
1.945924
3.920201
2.768534
-0.822124
3.319982
-1.657336
-0.892982
-3.072731
4.617089
0.897106
0.571891
2.663864
0.658109
-1.839188
-3.433642
-0.149644
-1.065731
3.163269
-0.742570
-3.027408
1.708745
0.813122
-0.612432
-1.255525
-1.258661
3.058983
2.244167
-0.083727
1.036961
-1.460226
0.748695
0.007546
2.644143
-1.218762
-0.174029
3.981918
-1.795173
-2.514425
4.591132
2.472546
1.231915
-2.072307
-3.175766
-1.175167
-0.501586
-0.553148
-3.564114
-4.426018
1.554093
2.262310
-2.772989
-0.900710
-1.584911
-0.917748
-0.490374
-1.819066
0.229228
0.265019
1.259829
2.466061
0.568600
-2.674388
2.747299
-0.052903
-1.665574
-0.211195
-0.363037
1.309669
-1.686599
0.373562
-4.832098
-0.889973
0.710656
-2.973401
0.124037
1.678901
-0.070085
0.727640
-0.478242
-0.909419
0.095583
3.750851
-0.855597
-0.578954
-0.883358
-3.278963
-3.428355
-0.343442
-2.616218
-1.799372
-0.881195
-1.521173
-1.010200
-0.825881
-1.234568
0.940451
-0.102463
-2.814157
-0.997311
0.914284
-1.020221
-1.296074
-1.450965
-2.580078
-0.992601
2.718388
-2.402884
8.739599
1.142563
-0.823383
0.204470
-0.903225
1.391081
1.465341
0.381941
-4.727394
0.837905
-3.381551
1.510295
0.641372
-1.352171
-1.729277
0.591333
-1.329179
-2.547718
-3.121506
0.707353
-1.524088
-1.356230
0.095516
-0.496115
-1.404448
1.468711
0.757200
-1.975543
-1.641483
-1.971245
1.070480
0.489837
1.343684
-1.365708
-1.168306
2.626656
-0.496058
-0.718204
-0.817479
-0.747201
1.917122
-1.121920
-1.146494
2.354839
0.219344
-0.474619
1.297352
0.651709
-2.592721
-3.920874
1.788173
-0.219449
2.802675
-2.633776
1.496111
-2.368448
0.985426
-0.540640
-2.609239
-0.239394
0.395763
0.112402
0.902150
0.107839
0.955360
3.540555
-1.176293
-1.810970
-3.139143
0.262828
-1.602499
1.555434
-0.989424
-0.426119
0.211994
-2.374956
-2.209445
-1.406291
-0.617016
-0.480832
-1.635452
3.269693
0.579470
-3.347640
0.350323
-0.291622
-0.946211
0.576949
0.719719
1.207674
-2.171566
1.035172
-1.076584
1.192041
0.114701
-0.896910
-0.598498
2.051929
3.451300
1.378964
-0.312680
0.695808
-3.873764
-1.235595
-2.465840
-1.279899
-1.543756
-2.156920
0.164005
-0.597205
-1.626109
-0.660516
3.821023
-2.999044
2.821404
2.530308
1.333823
-0.982492
-0.506110
-0.472149
-0.721902
0.588448
-1.703754
-3.334785
2.618360
-1.815123
-0.204020
-0.140987
-1.309864
-4.717608
-0.913511
3.032096
4.735917
-1.064414
-0.672636
1.202085
-1.005876
2.715914
-1.523235
-1.374838
1.632250
-0.111007
-0.269426
-3.301917
-1.543717
-0.058420
-2.293648
2.880266
-2.885942
2.182472
-1.903639
-0.617662
-1.768041
1.241429
1.086494
0.895375
-1.832269
-2.802199
-0.494642
-1.923880
-2.591684
-0.153278
-0.161535
1.862718
-1.371145
-2.467459
-4.027525
-1.007690
1.108881
2.298869
-1.347491
-3.837099
-1.229791
-0.031033
-1.842858
1.543036
4.906361
-0.932623
-1.744743
-0.702378
2.182262
-3.621251
-1.833355
-2.557842
0.444213
-1.345158
2.225322
-2.021408
0.655557
-1.775974
3.033545
1.507875
-0.422496
-3.965914
0.593024
0.033133
1.339223
-0.575596
-2.222830
-0.319847
1.415380
1.910224
-0.813396
-0.342184
2.249199
-0.533179
-0.132156
-0.403263
-0.811796
0.872110
0.182415
-0.543524
0.433926
-1.239185
-0.734229
-1.958598
1.755165
-1.301156
2.261783
-0.507002
2.001205
2.820656
0.054096
0.930138
2.853698
-1.622650
-2.226747
-1.922336
2.337544
-0.249978
-1.606944
-0.710245
-0.654722
1.081095
1.031019
-1.713110
0.469266
-0.437896
0.826696
1.998670
-1.537839
-0.484706
2.167155
-4.323811
1.313494
-0.321129
-1.224466
0.555664
-0.137412
-0.189113
0.381928
-0.040918
-0.456269
-2.065739
-0.311031
-0.520760
-2.142841
0.714243
2.504393
-2.314732
-2.613411
0.490435
-0.367691
-0.699144
0.318056
1.978799
2.581270
0.993568
-0.390698
-5.356663
-2.431929
1.375159
-0.476856
-0.971614
-0.510705
1.510714
0.666977
1.577674
5.081737
0.740718
5.255650
1.785013
1.133065
0.116423
1.037545
1.767928
2.327451
0.205966
-0.302018
-4.660176
1.008525
-4.084312
-2.404221
-0.959805
-4.798244
0.671956
-0.519194
1.823908
1.023097
-2.967111
0.746922
-0.383918
0.116397
1.191403
0.095776
-1.430388
0.088236
2.399310
-1.873899
-3.258006
1.416466
-0.378925
-2.000542
-3.034902
1.505902
0.080332
-0.734570
0.475921
0.642927
-3.132143
-2.431095
0.637548
2.117982
-1.651598
0.243073
-1.888682
2.333357
0.227235
-0.529102
0.184881
-0.701843
-1.338137
-0.248338
-1.624532
-0.203865
-0.073485
2.570754
-4.106311
1.014039
1.730260
-1.460803
-0.377418
-0.890759
-5.567668
0.438552
0.277775
-0.997866
1.045771
-1.051678
-1.188123
-3.157448
-3.887538
0.283113
-1.324047
0.106991
1.039290
-3.141175
3.086096
-0.932413
0.516866
-3.667802
0.600775
-1.459492
0.560612
-3.413744
-2.120242
0.144160
-1.198253
0.842334
-1.117641
1.109479
-0.699489
-1.836526
-3.004632
1.132343
-0.116917
0.836813
1.919782
-0.685728
0.719315
1.448956
1.143276
-4.744550
-4.693413
0.609626
-2.039789
0.063550
3.409270
1.490638
2.398795
-2.030562
-0.178835
-2.217527
-0.533130
-2.880380
1.534344
-1.559026
2.111630
-0.321323
0.154395
2.406454
0.702875
-3.157158
1.039345
-1.424088
-1.001608
-1.928905
1.435074
1.671667
-0.031162
0.742844
-1.203981
-0.294398
-2.481603
-2.524793
2.212143
-3.307801
1.790930
0.026310
0.061474
0.906303
0.815687
0.558031
-1.367295
-0.062575
0.164274
0.376307
1.558916
0.037231
-0.089431
-5.065094
1.269806
0.407211
1.832061
4.411889
-4.866203
-0.272655
-2.177510
-2.492048
1.609792
-0.713972
0.527009
-2.312122
1.997869
-1.814582
3.583623
1.304371
1.787479
1.711282
2.457083
-1.652728
-1.166051
2.027959
0.183339
1.383084
3.539286
-3.448142
-3.160788
1.181825
1.212201
2.419327
1.488120
-0.354926
-0.328069
0.251447
-1.292338
-0.905200
-0.381258
0.041514
1.514255
-1.137707
0.198017
-0.574615
0.621629
-3.822427
3.431952
1.596909
-1.988227
-1.242613
-0.860002
1.489399
-1.589971
-0.298574
0.046541
1.863692
-0.936041
2.650705
1.998444
-0.473792
-1.539472
-1.503674
1.088099
-3.549545
-2.084670
1.616359
-3.645953
-3.023233
-0.644180
-2.383275
-1.869776
-2.113826
-3.237320
-0.123218
-1.519487
-0.833257
1.274626
1.058362
2.996964
-0.507396
-1.304182
-2.586761
-1.789731
2.068864
-1.058691
-0.492831
0.198190
-0.052736
1.435690
0.994947
2.260712
1.153643
-1.028413
-1.536113
3.636317
2.934607
2.991259
-1.682269
-0.560990
2.415592
1.493054
1.477003
-1.045798
-0.677233
-1.330011
-1.309847
-0.609495
-0.465978
-1.243222
-3.207783
-0.650178
0.940496
1.504286
-0.901059
-1.600432
-1.370035
0.817913
2.090217
3.900779
1.160457
-1.676149
1.034968
1.783958
-0.081476
-2.168097
1.606076
-2.427270
0.106584
2.872697
-0.009781
1.779531
5.511291
-0.288622
0.181646
1.182579
-4.702830
-0.218920
-3.019270
1.312972
-1.702152
2.434130
0.797709
1.859226
-2.282735
-1.533029
-2.246057
3.553705
-2.496289
-2.317449
-1.749665
0.174898
2.411746
1.945720
-1.008464
-2.982096
1.115122
-2.572353
0.608652
-1.035108
1.658470
-1.378269
-1.686613
-1.916452
-1.697747
-1.472944
-1.845137
2.650435
-0.664234
-1.721942
1.838748
0.036923
-2.350297
-3.394693
3.049892
-0.773013
1.521332
0.262269
1.521282
-3.181530
0.198246
3.926138
1.525680
-2.416582
-1.240926
1.175257
-0.327452
2.309293
0.942788
0.066180
-0.839951
-2.531571
-0.499676
0.732067
3.617156
1.900288
-0.692306
2.973211
2.145282
1.943738
-0.532505
1.795836
0.513770
0.075790
-1.136050
-0.690015
0.465539
-0.450309
-1.470097
-0.650010
1.153306
2.363676
1.172461
0.076795
-3.029574
-0.890520
-0.918279
0.129307
-4.306217
-1.463066
-1.752810
1.346010
-1.297415
-7.259857
3.144535
2.207991
-1.408524
-1.748738
-0.055915
-0.695916
-4.436641
-1.796320
-1.484014
0.725830
-1.051887
1.733406
-2.038620
1.648380
-1.294266
1.123482
1.363868
0.175759
2.104098
0.998222
-2.977450
1.293720
1.515961
-2.708690
3.116132
0.060796
-3.355251
-2.401678
-0.076201
-2.366215
0.113818
0.010785
0.737206
-0.432465
-4.254968
-3.044131
-0.013773
3.251518
1.198851
-1.959677
-1.938503
1.455967
1.889539
3.695539
-0.948456
0.038749
0.571127
1.496918
-0.676887
-1.523743
1.562312
-0.055627
-0.416732
-0.546482
0.634112
-2.234886
1.184537
2.142292
0.792247
4.285073
-0.503767
-2.063547
-1.595199
0.928256
0.935516
-3.685530
-0.028456
0.904518
1.343168
-4.765162
-1.276762
0.951850
1.763005
0.665884
-0.072692
-0.326583
1.010807
-4.188328
1.304707
1.961344
1.339664
0.250374
0.715137
-0.458250
0.308597
-1.863784
0.603357
4.812452
2.130675
1.841267
-1.314173
-1.125550
0.895216
-1.272839
0.333949
2.013983
1.449258
0.421319
1.383152
-3.077047
-1.740449
-0.190030
1.909927
-1.668040
-0.755384
0.691802
3.377548
0.690355
2.071341
-0.554374
-0.426528
-0.318966
-3.390155
-2.408419
-0.444278
0.002088
-1.677741
1.226240
0.190491
-3.143384
3.086398
-0.494099
2.476319
-0.073667
1.238513
0.339752
-2.281077
0.212338
1.149055
-0.085415
0.569472
1.865193
0.463669
-1.977295
-1.640294
1.877292
-4.295333
-0.177567
-2.129283
-0.236639
1.525139
-3.018125
0.601737
-0.474346
-0.324120
2.301519
3.567437
-0.878595
-0.688671
1.041691
-1.351955
-1.497711
-2.606789
0.368615
1.625942
3.392154
1.325286
2.711778
0.545370
-3.093641
-1.755531
0.492413
-0.793566
-1.534200
-1.255446
0.515082
0.409735
1.397905
1.300219
-2.689262
2.923631
-2.179886
-0.665005
3.007189
-1.895391
-0.859145
-0.528452
-3.075323
2.886934
0.706758
5.375887
2.572802
-0.306267
-0.189367
2.004160
-0.849765
0.077799
2.615634
-0.280296
-0.030227
-0.499836
-0.558504
-0.327579
3.037947
-2.811544
1.001762
0.585774
2.709936
-1.067348
0.935195
-0.026199
2.271591
2.038534
-2.320600
-1.880670
1.155412
3.070426
-1.643401
6.382293
1.788856
1.240069
2.218111
-1.934704
-2.690806
1.592886
0.092390
-3.246150
2.505633
2.562181
2.064122
0.314249
-0.287783
-1.872728
-1.661529
-2.437242
-2.374691
-1.456313
0.278142
1.257573
0.129453
-1.687764
-1.164103
2.105974
-2.232476
-2.337750
1.443056
2.314474
0.496445
3.208845
1.129689
-2.447213
-1.380609
1.656167
-1.381238
-4.326465
-4.244133
1.560213
-0.966955
2.735646
2.369450
-3.818671
2.229294
-1.906360
2.809969
-0.368701
0.858141
-1.074299
2.508429
0.140274
0.235873
0.710975
-1.052499
0.873009
1.379985
0.675057
-1.224934
0.230141
-1.133684
-0.970710
1.270586
-0.416310
-0.929643
2.038928
-2.724415
1.929184
0.410063
-1.390466
-2.753008
-0.040464
-1.401441
-0.651186
-0.796970
-2.312578
0.258268
0.958131
-2.659301
1.678239
-0.338933
-1.105005
-0.346388
2.156591
2.040335
0.044399
-4.807964
1.167728
-1.219747
-1.717912
1.701284
-2.240355
2.399710
-1.724959
-0.758363
-2.006535
-0.619299
-1.132735
1.578420
0.848344
-0.072676
-1.118282
-1.374708
0.791536
-2.820025
-4.317132
1.254895
-0.177598
0.902719
-3.825006
0.982393
-2.668716
-1.126370
-0.849636
0.413347
-1.981205
-1.101694
-2.478126
-0.478988
1.279335
0.821181
2.451097
0.076916
1.856089
-0.048732
2.673517
0.737406
1.301829
1.190196
-1.063564
-1.972820
-1.253055
0.314387
-0.170790
1.014821
-1.052870
-0.169959
-2.193619
0.426045
-1.856510
-2.666114
-3.982224
-0.197148
0.125468
-1.155087
1.882416
0.536087
-0.113638
-0.405239
-3.826596
-1.667842
-0.896019
-3.187330
-2.943929
0.595893
-2.530984
-1.897761
2.780426
1.122979
-0.274799
5.384420
2.777183
0.060870
0.070141
-2.590924
-0.875613
-0.105446
1.427603
2.138084
-2.258793
2.726465
1.524726
-0.869108
2.247055
1.018550
0.591370
-0.301863
1.400587
0.338243
-1.595289
0.979460
-1.546203
-1.324216
1.542085
-2.561596
0.747322
0.728193
1.490189
7.376912
-1.352683
3.796569
1.338141
-1.104767
-0.103305
-0.124401
3.073007
-3.320747
-6.138384
-2.633841
1.597176
4.858089
-1.936407
-2.533087
-0.578559
-1.635229
0.739742
-0.346339
-1.363391
-0.278778
-0.909027
3.433818
2.206068
-1.177726
-1.768377
-1.111185
-2.513516
3.918284
0.370731
-2.599878
-1.756983
2.249182
0.286075
-0.883340
-1.561961
0.391416
-5.179599
-3.729754
0.249809
0.515560
-3.132642
3.097011
-0.091538
1.520676
-1.244987
-0.867520
-0.154632
-0.357973
2.509304
