8.503004
14.757840
15.780299
4.463374
-18.118085
5.777464
4.485856
2.771955
10.807465
-0.320422
0.973354
3.300226
5.059479
12.510977
4.589785
3.857129
14.464980
4.713360
-9.096802
3.351423
3.268300
-5.262226
26.954017
-3.998026
-2.124030
10.447630
-6.436176
-3.055680
-0.003734
15.157542
-17.416241
5.976211
-3.642712
4.826904
-0.840053
-2.778602
-10.050114
0.678509
-5.811984
6.648843
-2.647824
7.395046
2.821448
8.698381
-10.961654
22.816399
-2.554602
1.395797
-4.590463
-0.701684
-0.791311
0.353713
3.600421
-10.479641
1.896243
-2.515069
0.630641
18.762718
4.226376
2.796789
-8.694272
0.256566
-11.434464
7.735222
11.076304
10.012832
-13.285760
-8.553694
-7.250797
3.891229
3.147075
7.674436
10.180308
-4.838832
16.897471
-2.870550
0.973997
0.424368
-1.708432
1.765759
28.050616
0.958337
10.267845
8.227645
-1.986788
-17.848285
-8.833811
25.964598
4.423808
1.613327
-7.960118
-4.132114
3.758384
-8.725663
-14.714986
7.417143
-4.242357
9.177491
17.441839
12.016060
6.453900
-16.980919
10.893858
-0.273066
7.302198
5.089929
-5.339364
0.882453
-0.089863
2.247882
-1.386049
-12.594233
-3.721026
-7.895444
-3.110698
2.473781
1.890780
-7.186464
-1.822761
0.707971
-4.342061
7.450660
-7.975958
-10.264714
-16.754743
-2.582737
21.476306
-15.460466
5.940692
23.971907
19.352760
-12.422053
-1.107618
7.443800
-4.139754
-3.252693
-3.932818
18.267426
13.614164
2.585618
1.341839
-16.707470
-7.262073
18.131689
-24.569900
-13.887778
-14.525528
-7.614949
-6.166773
-0.984885
15.774438
3.200359
-7.736028
23.632575
-1.403573
8.402462
0.498966
-1.568050
4.194727
-0.368785
3.311063
-30.678090
3.993539
-0.209927
-7.073311
3.639720
13.535143
-9.445786
-5.443838
7.932740
-13.274361
8.204395
-4.449005
-1.224325
-11.291503
7.925599
7.137944
-14.643940
9.980833
-2.628439
3.836442
2.725861
-1.928003
-0.868933
-1.912737
2.830987
-5.219733
12.703384
3.253410
-2.063707
-0.470275
7.602072
-5.423797
-12.667126
3.447578
1.795349
14.529949
-2.666814
-20.507894
16.077652
-3.446405
-20.703648
-6.408489
-22.625952
25.892030
-8.175533
11.166625
-6.777843
-4.101622
-11.390438
-3.890940
2.932860
10.924572
-2.514833
-20.709670
-9.320715
12.517128
-5.839143
-15.438794
13.766359
-5.932636
-9.386404
10.788517
11.256175
16.364028
-8.453680
19.415998
-21.578758
-14.084571
-21.036143
-2.034577
-0.499683
-23.284884
3.436937
4.990830
-1.001500
-5.637912
14.231592
6.583978
1.736287
-1.065613
14.964751
-2.433258
2.149486
-4.401900
3.943411
-2.666103
11.145302
5.007337
-9.348316
2.287690
-6.993281
-10.564667
12.737663
-7.433625
-1.522408
-3.840353
16.181517
18.613201
-7.950930
-2.731668
18.579090
5.368326
-7.968541
-4.147280
-10.602560
5.075005
15.070474
15.451676
9.219306
6.406928
13.454795
-4.647184
-7.235770
-4.620329
-3.690343
1.271334
15.546315
-9.062901
-4.268547
6.019938
0.665260
-6.624323
-5.851493
-16.975882
-0.790534
-11.784498
-7.925569
-11.553532
6.191048
-10.005768
13.974401
1.922951
-17.247610
-3.720608
9.990359
2.547155
5.353431
6.172572
7.578823
-6.909403
-3.789648
-4.242742
3.338527
1.044644
-3.444035
-6.903583
-1.436012
2.631571
14.378008
0.350021
-13.019292
1.196010
-1.775973
-2.462878
-4.889194
-13.678839
-19.754864
-6.711760
-19.493652
-6.679802
6.187712
-1.386145
-14.866245
-0.734027
-1.176445
4.111050
2.032275
0.190941
14.267830
10.708203
-22.243619
-3.287043
0.446491
-8.484823
-9.923176
-6.260292
3.931664
-9.060396
6.664178
-6.892335
-11.744114
17.522805
-2.785748
-2.171641
0.976935
1.509599
-13.810824
8.760928
-3.742677
-6.882503
-0.584003
4.151256
-11.107791
-12.628211
-1.714738
14.175176
16.648259
-10.696635
-2.815157
0.239953
-11.093151
5.255761
16.211945
13.223698
-12.946618
-8.660281
-3.835628
-4.526612
-0.881328
-5.746924
-23.734787
7.513897
-0.757646
11.491584
-1.410389
-0.412849
-8.124395
-1.701779
3.123576
-5.882530
-10.256153
-6.305195
-7.641920
6.926976
6.313559
10.073875
-4.797255
-12.675386
-2.348832
7.125873
10.723095
6.736982
-8.413363
1.593153
24.318747
0.196881
-5.500614
17.399309
5.720843
12.103235
7.400468
10.763162
1.529054
-5.053188
23.759251
2.787776
-6.268727
-8.445082
-16.888356
1.555904
15.291316
-2.724586
4.244963
12.500335
-3.236520
-17.333363
4.233520
6.770905
-3.808326
4.131125
-21.765109
-8.882102
0.886170
2.828922
11.657387
-10.021549
17.671866
-2.831029
4.530707
7.141641
-1.446166
-14.938872
-11.130374
-1.717888
-0.670383
-10.492503
16.578259
-3.646405
-1.817064
-20.291137
-10.690729
8.661875
-5.127279
16.261470
9.198320
6.829800
10.210120
2.714978
-1.520645
0.131106
-2.718228
0.006525
-0.854935
3.269240
15.400128
-13.856233
-0.396841
-10.227766
14.266423
9.276883
7.103905
-12.248485
6.967210
0.810249
-8.915671
1.695439
9.912339
11.061675
19.266547
0.013941
7.827919
0.862941
11.706099
18.419841
12.791206
-4.869917
-15.964459
2.850856
-18.678812
7.767266
-6.109651
9.116514
1.474625
3.056084
12.782607
-15.945423
-15.803675
-9.998990
-2.273987
-0.781558
-2.435918
6.378197
12.010187
-8.456875
-29.467614
-1.848455
10.294474
13.052864
-2.210381
-27.374181
-5.159872
0.586029
3.743388
20.064080
-7.560524
10.429058
9.260078
-5.249432
-15.538921
-0.010706
5.324788
-18.560639
-13.386188
5.511908
-7.266026
16.370043
21.551071
-1.663384
1.662796
-23.462879
15.581800
-15.972346
0.333876
-10.013905
-10.915140
-2.040330
-3.205582
-18.889599
-3.751352
-10.160311
-7.452783
15.838164
-20.279765
4.189142
-2.551025
0.940552
-2.554363
3.443192
-2.679806
-10.734444
2.947210
6.967488
-1.306065
7.426795
1.717764
-9.710258
-14.928922
-10.655463
7.245080
-7.030146
-8.835899
9.912529
13.227123
2.924890
1.744382
-4.643464
10.101608
1.045799
7.575322
0.392881
-11.840960
0.923793
-5.669914
-5.546856
-5.673508
-7.901946
-2.188591
3.659112
21.125245
-0.104512
-11.575299
1.550035
-22.374636
-13.953470
-4.208549
-4.461804
-10.825247
-19.785192
-9.539940
4.381797
-9.015054
11.105759
1.140163
-5.274255
3.463413
12.169472
-1.187577
-10.006399
-5.293451
1.112354
-2.608431
3.068733
8.692658
0.531274
1.000504
1.305416
-16.661129
3.908931
-5.733297
-11.109873
2.358053
10.662782
-6.581477
5.156476
-8.798637
-2.594920
0.671103
-0.659305
-4.911141
-6.181716
2.350463
12.246712
-10.303314
-4.478973
-3.610351
-5.519952
-4.014624
6.427561
5.988860
13.879784
11.262188
13.146032
-4.514378
5.700923
-10.990227
12.656316
-25.240830
-8.618003
2.777217
9.687590
-4.852203
7.773438
5.244480
-17.535489
6.533722
-9.123172
1.825589
5.073180
13.866166
8.285575
-12.643857
-12.156697
-5.166306
10.987025
-1.157368
-2.857183
-4.113988
-5.720980
-0.854703
-10.254986
-18.411955
-6.384674
-14.913500
11.933992
-9.436474
9.190293
-2.131241
11.246171
-4.259602
-2.257826
-28.814970
-7.647627
-7.351222
2.344956
0.839427
8.763500
-16.248051
8.826224
17.346291
-0.886411
9.838364
3.291450
-5.094230
1.163882
-0.796455
-3.382837
6.389095
-3.677073
11.296283
12.382202
-8.585554
12.277341
0.572203
-17.995752
-3.441383
12.565796
-13.804934
14.929752
7.950868
-16.393655
2.637190
-8.629619
2.939656
2.342804
12.828313
0.956514
3.814357
3.648851
3.152966
3.303092
-5.210957
23.038019
0.597701
-9.310635
11.592574
14.327575
-4.210713
-1.047972
-1.935469
-0.720544
13.077727
8.743819
11.016840
-10.113373
-4.231879
-9.720387
10.892898
2.297688
-15.751327
13.152305
8.925426
-12.434083
-21.754350
3.367121
14.576922
14.203566
9.636995
6.206996
1.097263
1.434788
0.322616
-15.791515
-23.513272
-2.582453
11.263139
-10.406629
6.373404
-4.224346
-2.348729
6.874931
5.876812
15.125091
11.111404
1.445247
6.148326
-1.779533
-5.232035
-9.304157
-1.660055
-14.846884
-2.348941
28.403497
-2.482758
2.151802
1.478351
7.691497
10.630714
-0.457983
11.100185
-7.148901
3.452199
-8.883265
8.305042
-10.770680
-2.616436
-2.508032
-13.584329
1.128051
9.771923
4.890978
-5.407220
-1.841521
-7.560699
5.565067
9.254734
3.615538
27.974125
-8.151367
-2.751641
-10.715829
-8.951879
8.856498
-5.301183
9.322773
5.740278
-22.931302
10.807589
0.545461
-10.311360
-13.215440
2.832475
-6.836837
5.103696
0.874393
10.051060
7.020536
2.677268
0.814504
9.837342
6.962838
-1.747706
9.686802
15.822804
-10.965328
3.695082
-2.267068
-6.936607
-10.081375
-6.958117
8.877651
-18.098261
11.332016
-15.294935
-0.426048
-0.915278
-3.443759
3.097088
-22.098007
14.744617
-6.170074
-2.653133
-5.264484
5.610205
1.447533
-7.429999
11.837263
4.209627
10.578371
-2.023250
31.107219
13.470879
14.474912
4.335891
-1.388788
0.673587
0.873893
1.591693
9.607755
0.304691
-13.823071
-0.055954
6.085429
8.680189
9.250829
6.200981
3.865717
-11.621610
-4.033508
-4.405122
7.968205
-5.859395
3.437080
6.021519
9.936941
7.400006
0.317718
-8.710060
4.378938
27.085967
0.098771
-5.700652
17.563273
14.055879
-9.696151
-22.320027
-18.243344
15.061003
-1.192895
1.742975
-3.426036
3.290516
7.694280
3.802656
3.862417
8.746900
-0.761102
10.072043
7.307867
-5.297468
-6.196869
1.383206
-1.277160
15.484248
-11.633773
17.560327
1.186778
19.825458
0.812265
-5.175257
-1.685599
-3.009841
-3.934590
-5.748806
3.118965
0.958560
11.078718
0.976836
-11.816653
15.263145
10.347831
-3.803797
-13.602984
-7.245604
6.874858
7.242580
13.313044
-18.244672
4.396747
11.136889
-0.926803
-2.128999
2.357427
-3.391505
-7.020286
6.313047
-9.806317
0.456522
2.239634
8.701224
-23.764342
-16.733228
-0.757268
-14.881652
-2.992003
2.443316
-23.969248
-6.660051
-6.568037
3.661155
10.461662
-14.151009
-8.123579
-2.165495
6.374098
16.465757
4.729818
-0.781322
-13.391332
2.536649
6.995417
-12.928797
4.914328
-7.036966
11.501785
23.730802
-2.355392
12.087407
-9.621581
12.774049
20.613078
-7.871861
-10.802535
2.814238
-17.807338
9.899487
-17.711166
-14.459973
-20.848515
-14.324224
-12.438014
-5.010387
-9.930620
-2.889197
-13.032316
-18.376006
-2.684840
-1.962160
-5.297700
0.558842
-16.795034
-9.109474
-2.488670
-12.387780
-8.478602
6.401719
12.865016
7.118537
-5.992668
-8.949223
4.700165
-8.166764
-12.045003
2.028089
11.249475
8.724394
-11.389873
5.873580
-1.740379
1.080658
1.084824
-1.210838
-0.092883
-5.846773
13.134153
-3.897694
5.479883
6.687893
-11.804522
7.605565
-3.629664
9.753880
6.797282
1.642103
-1.465200
8.477221
7.981698
1.423250
-8.403576
-1.495562
-4.928615
-9.626576
-1.260778
-16.423225
5.198414
-2.880594
3.643510
2.551753
9.604590
-4.611439
1.414694
-4.418102
-14.104915
-5.372945
-3.272012
12.271514
0.500567
-27.454969
-3.628652
13.614826
1.865021
-12.762248
-15.135530
2.878981
-3.873063
8.410516
3.318530
3.303479
16.728817
2.823726
-1.467137
-6.670125
-0.183780
-4.195684
5.046564
6.254618
-5.287993
12.686789
-14.149262
7.520182
10.228071
-4.386080
6.222023
10.443462
2.977731
-13.117279
16.541880
-0.816774
25.417127
23.481609
-7.386765
-13.331225
-12.895991
1.688416
1.238443
-11.922871
-0.091651
16.962422
-19.597557
-0.688374
-10.791096
-2.926269
7.895205
-2.809909
0.407159
17.130893
-1.269007
14.116439
-19.944911
4.909855
8.295239
7.180595
-12.871863
9.491673
0.793890
-1.722082
-17.148118
-8.013384
5.014971
9.653228
-3.373665
13.215080
-11.183820
0.576274
-12.625818
1.181145
1.974097
-10.946801
7.214763
3.019005
4.855001
-0.305075
-1.859345
6.929747
4.071581
14.285342
-0.665240
4.546940
-2.077619
-16.408960
-2.765078
-1.796844
-3.695682
-9.154047
-7.600176
16.412130
-5.069645
-5.819498
-19.449411
4.687233
-21.874281
-12.237760
-3.798065
3.164067
6.079242
-7.586337
-16.667286
-12.468450
-9.441186
-10.989567
-12.581096
7.457535
-2.846007
-8.106060
5.943350
-1.744200
-1.585036
7.616351
-4.982256
-5.946032
-2.549393
2.353793
7.844862
4.175151
-8.373255
-3.214398
7.489766
1.252495
-12.697076
7.830151
-0.045276
-4.465562
-6.476486
12.930695
2.956046
0.630546
1.057830
-13.599468
13.323110
-1.636245
5.583980
17.211902
9.570937
10.383811
-19.654280
1.602731
4.027734
13.744037
9.341942
-11.413535
2.627433
2.994860
3.716610
5.342615
13.197751
11.969417
17.446379
-11.699290
3.574462
0.828934
-5.756576
4.545302
-10.192131
3.001267
7.897804
-11.711214
9.349368
8.882475
9.212815
0.309542
-18.777583
-7.805337
-6.821607
-6.194510
9.438025
2.089849
-0.251616
-9.721532
17.996132
-0.014116
0.821336
-2.994280
1.483513
-10.319750
-4.684524
-0.462257
11.395460
-23.205108
-10.120878
-11.547786
-31.269621
-4.068192
-0.324695
10.598972
-3.391179
-8.493199
-20.100943
10.334287
0.460324
-2.473223
10.802251
-1.133275
1.803433
-14.903337
-4.443941
-8.810145
-8.044968
13.790753
5.687446
-2.567396
-2.543648
22.233511
4.072704
-4.516171
-4.047154
-5.505976
7.702088
6.718271
-3.538069
1.476953
-5.392458
-8.339244
-4.780984
7.684122
-1.316453
-10.525495
-6.466709
-3.554578
-3.069591
16.263394
-10.824506
0.037814
12.183822
-0.444392
-8.272096
24.940112
-30.511149
-13.105579
4.738207
-3.243803
-16.533844
-1.935150
13.288288
-6.551459
11.702925
-5.773348
7.848063
-0.878648
27.857670
-0.813864
-7.618922
-1.545815
-4.495581
-4.289729
-0.370372
-23.490202
7.959706
2.847590
0.947582
-8.172679
9.959550
9.891250
-10.857237
4.623758
5.258609
2.306918
-7.055591
-1.073388
-3.200505
9.017965
-4.013568
3.117016
3.451231
18.343989
16.581588
-9.564212
-10.583412
2.117309
-1.123977
-7.948937
-9.403732
0.025729
5.516424
0.211630
-0.505145
-14.865784
-13.009173
2.846864
-11.992143
-3.607391
-3.517789
-12.992352
-7.474503
-0.073092
-15.118707
-1.341153
3.575461
-6.540799
2.464331
1.897532
2.935422
-20.294804
-6.299531
11.122834
-5.324678
-11.961456
-2.380289
22.651755
-9.574624
14.025103
-10.390186
6.434025
-2.869800
-15.059343
-4.605998
7.022725
-0.813469
24.451450
5.833974
7.242579
16.708206
16.669714
-11.399526
-5.388982
-12.966344
11.491515
-4.282075
-5.175451
-6.763262
-0.938211
-17.834814
1.293320
-5.276371
9.448703
-8.387008
-2.525717
4.427070
-7.879835
-11.764477
14.115332
-5.273267
4.202509
0.291521
-0.039031
-18.241543
-4.027668
-7.130803
-2.468654
-4.233140
-6.156131
1.238142
8.937742
1.076298
-4.261883
-0.202834
11.320953
3.639830
1.289157
1.278557
13.328017
2.866113
11.742317
-1.274285
0.870402
-6.059232
15.161265
-8.426981
5.551682
3.642194
15.725115
-16.303731
2.077230
6.170286
5.131727
-0.023184
11.660711
-21.551473
0.815413
-2.611887
3.746928
3.643898
0.153425
-7.563221
6.383804
-7.824323
14.630180
11.814862
7.234543
5.275829
-2.735480
-23.560223
-13.020360
15.705579
-2.878191
-24.164535
-1.542442
16.146724
4.243632
12.124557
15.989762
8.232518
2.804799
24.480073
-2.551860
-4.159757
-5.259436
-14.122926
5.941872
3.974043
1.519941
4.069719
5.927862
-2.374114
7.028546
8.389674
-10.100640
-5.523989
-19.348145
23.571312
7.306350
-2.917274
-1.270701
-7.867739
-10.075011
-10.187721
-2.306294
-8.181549
0.013342
9.778815
5.474869
-17.813316
12.274142
-0.006814
-3.669845
4.695384
7.498819
-4.922449
-6.399713
-0.031726
-18.486514
-7.154404
16.330197
6.467145
-11.830604
15.244976
14.598073
-5.938197
-1.258478
12.018902
-2.249460
1.077266
-8.991788
-15.743720
-14.062280
13.086218
-9.098936
-12.687713
-17.399366
-23.316482
-11.210365
-2.668317
23.987355
11.253370
-8.410615
4.243682
5.473051
-4.764539
4.641448
-11.882271
-2.385932
-18.480106
-14.619202
-14.511570
5.950657
-2.275025
0.814152
-8.270108
3.891921
8.641670
-21.577303
0.077199
-22.970176
-0.485233
9.976729
1.052972
2.024173
-0.462787
7.000042
-1.930505
-10.327801
-2.673577
7.629735
5.336657
-13.031265
8.269962
-3.718559
-5.910068
-6.868589
-6.246666
-17.351601
-1.833882
-6.156554
-15.410034
-11.581238
-1.317201
-4.655814
-0.534354
-11.233247
-4.091248
-0.692900
-32.882706
-0.587146
5.894522
6.438073
-2.622940
10.501782
3.623160
6.522700
-5.103868
4.116215
-0.493714
3.584396
0.623425
-14.448073
5.437436
10.486712
14.695984
-5.951004
-13.654309
-9.059023
-9.885245
-9.158201
2.692440
-3.924787
2.667691
5.987640
-15.059051
0.960760
-12.143066
-2.491252
4.332049
9.343579
7.974486
-6.696671
-4.033556
-7.376664
-14.126273
-12.066294
9.957492
3.255179
0.434969
-3.983569
-0.616800
2.276216
19.594169
-7.059646
12.136196
2.161284
-1.516148
4.687971
7.853608
13.909011
-8.004279
16.947190
5.488012
-14.654821
-5.309827
3.215365
-6.904215
12.184908
9.023344
3.411400
-6.408366
-16.781935
-1.472451
10.716209
-12.559505
1.199604
1.675876
1.298060
10.016831
8.766613
1.309363
1.024215
1.681158
25.943964
1.799213
-5.541870
15.172052
-6.651050
-1.196754
4.769908
-14.374765
-9.641981
3.587653
-13.678225
-11.390397
3.843567
-31.246125
-5.554896
-4.858178
4.468446
17.017513
21.700869
-18.724531
-10.275458
-0.110336
13.199698
-11.110821
1.311294
-6.297670
-1.077648
-6.243699
4.166026
-3.733704
-3.036294
-2.556427
3.735644
13.078066
1.889397
5.467757
1.065640
-1.706606
4.416286
-2.841373
7.441182
19.580272
-18.436873
-1.868076
-2.040128
-5.641789
-5.920210
-3.413354
4.959212
-3.862309
4.510713
7.344670
14.525852
-1.639685
-5.210164
-12.040103
-11.520161
4.021933
-2.829415
-4.762970
-5.915775
-11.527627
1.509345
10.933892
-18.609449
9.903520
0.301206
-25.768976
2.279540
-6.839304
4.558504
-13.271166
18.012160
-2.571355
-15.285982
14.843846
-5.832972
-11.898341
-8.463912
2.949068
-20.320435
-11.983754
12.846541
-8.275088
-12.711722
-1.834693
-1.258555
-10.345770
8.443168
-0.826274
-7.238505
-2.086753
4.551980
11.111789
5.093971
3.539936
4.515928
5.710485
14.624030
-1.289213
-10.547976
-4.221214
0.506405
-12.004415
10.545398
-0.423929
-1.422657
7.822764
16.839673
1.131447
4.323505
4.257568
1.064455
-1.425771
-10.166470
2.351690
-3.978328
12.511589
-7.769646
-7.457629
5.954997
-3.028240
-0.207484
-4.091957
13.704059
3.924954
-19.412694
-0.662150
-2.110498
4.184429
2.069623
1.925232
-10.603358
-14.634839
4.976641
-20.185510
22.445228
9.014781
-9.272573
20.712542
7.655147
1.597266
-7.087293
0.777881
1.194275
14.181210
-6.926624
-23.174015
-8.859726
-8.403731
1.944796
-13.436902
10.340009
3.526543
22.307385
6.909219
6.482412
3.042826
-8.708280
1.115289
12.626642
11.875711
7.280210
-6.290013
-7.003574
-15.498284
1.834762
-4.751481
-1.121453
7.256512
22.281665
0.143308
5.280400
-10.876031
-4.326922
3.730293
11.942654
13.194010
-16.522940
-7.018221
8.753581
-3.461641
4.103431
-10.853525
-11.625323
5.645558
-13.059133
6.786321
8.497186
-6.979968
7.016224
-1.023373
-6.483800
-6.944575
2.972279
5.504321
6.665025
2.485928
-1.567959
0.388460
1.940192
7.955550
-10.767153
8.047920
0.906948
18.855701
1.751928
0.610847
6.082567
-12.088237
-0.758037
-3.219755
2.908449
0.890672
12.973797
1.948694
-5.065096
4.078207
9.567838
-10.807697
-9.370824
11.501313
-3.776282
-0.426531
3.896869
-4.634912
14.321460
-2.310232
2.212706
10.754105
11.854195
-3.474655
-2.459281
4.146311
10.241915
-22.338127
13.150022
-2.186187
29.419234
-25.456659
1.109278
0.343384
1.784483
-0.377870
9.574807
-19.224511
-7.993205
-0.030691
15.567716
2.924646
14.256965
-2.581883
-13.765576
-2.715621
-9.212564
2.172930
-1.771001
10.218789
2.248585
7.225491
1.620689
7.226071
-3.134842
0.838655
-20.303534
9.702524
3.322167
8.200492
-6.936009
11.443598
4.182644
2.615277
15.293119
-5.068330
-12.426242
7.896164
-13.531357
-3.082133
-4.228308
0.977392
1.806210
-2.807815
-22.540904
11.005588
-5.341601
-11.271975
-25.369280
-5.509408
-2.672428
-8.372584
-4.181831
-12.045552
2.666101
-8.840293
-1.152931
-8.553300
15.943972
5.044192
9.614564
-7.711897
-2.915647
7.503279
7.730953
0.399168
-3.010690
16.309614
-9.553542
-7.219819
-3.799169
-1.414807
12.539546
-13.330494
-9.973653
7.942292
4.996985
5.229180
-5.798676
-21.854397
10.279279
-6.819855
1.159204
-8.131045
9.692290
-7.546471
15.191147
-14.372289
5.501940
-4.333537
-1.815738
-10.662686
9.185449
5.970915
5.706265
-8.268229
-4.535047
-1.812385
2.229284
-5.132731
8.420487
2.280057
-2.739402
3.901433
-4.074963
12.239853
7.147930
-17.140263
-9.693215
9.882160
-3.065934
0.766126
-1.790361
3.539651
-12.466861
0.502898
8.239893
-1.881790
-1.823717
2.233762
7.671340
18.964532
-6.552944
10.917854
-8.848944
9.983977
1.634419
16.447145
13.257173
11.695736
6.037801
11.669346
-4.987185
-21.260723
-5.565339
5.062203
2.627381
-1.786320
12.071388
7.322534
-0.845666
10.624190
4.640246
-2.776008
-2.163738
-4.813384
19.702973
-12.001657
-24.903125
16.156635
-11.743879
4.376960
-8.184824
10.295145
-13.727825
8.869697
-0.919425
0.910631
-7.871798
8.765515
-4.487009
-1.447013
3.989332
-8.241719
-15.229419
-0.625798
-0.473805
-0.363620
2.721250
5.859796
-8.218699
-14.785532
-23.246054
-8.651451
-3.500283
-2.383429
-1.264687
-16.067485
2.133827
-2.754159
-0.124544
9.164585
-6.348078
1.193709
3.822139
2.811072
7.300510
-12.237532
12.383600
-15.268728
-3.280704
-8.900599
-9.217316
0.654388
-4.685205
10.575598
-12.241925
11.293557
-6.581022
23.368278
13.586542
-10.431322
-3.750166
-6.881662
-0.910655
-13.482946
5.709949
-13.717939
-22.042416
19.271745
-18.554613
0.890189
7.971864
-5.148937
7.237409
8.229513
4.922987
4.195044
-8.350905
17.078449
3.219803
6.279019
-0.686565
-13.139343
-1.103711
-12.994032
7.671056
1.666598
11.788988
-4.959541
2.351611
14.024828
-2.243734
-8.065229
8.320542
-0.495056
8.402150
-1.541878
-1.538589
-11.390735
5.262522
-2.319212
-8.932298
11.059076
9.576018
19.294756
20.205342
6.497641
-10.456597
-0.147901
8.855975
10.480649
-5.065278
3.776190
-0.483388
-4.168292
5.851351
3.387527
-0.457819
2.533319
-4.233783
0.394322
3.368860
0.365338
1.973763
-11.541222
-5.584532
-3.240996
7.536760
15.029585
-4.512887
-5.495258
-1.249390
4.757174
4.639942
11.062484
-0.590370
5.486998
14.678403
5.816559
9.487332
10.754025
12.227969
13.286405
-3.508382
-3.194664
-4.501129
1.230882
-6.640555
3.003207
-15.117121
-2.481304
-7.527107
-6.592834
-11.652540
-16.664206
-4.405683
3.047969
-4.268754
-10.152518
3.982964
-2.327948
11.092293
1.573009
-6.164338
1.605306
-12.751767
10.758652
-19.155984
5.729851
9.423881
-2.642879
-3.528704
-0.100166
-9.131248
-5.475418
6.949849
3.024902
-3.548384
-7.789632
-1.553065
-8.273330
-6.892660
1.296236
-6.951629
-1.326717
12.760274
18.286178
6.247934
-10.168839
-20.147692
-10.860124
-0.545241
-4.357763
-13.239346
2.169364
-0.158155
6.914523
-1.902706
-0.453666
-18.817948
4.747108
3.933736
-1.760213
6.236996
17.579895
-10.861207
-5.905626
-25.062540
-5.303893
-5.089749
5.348891
-5.948844
13.618382
-2.951534
-11.306341
-0.104138
-3.684155
-13.582346
1.891424
1.988141
7.503225
5.563366
15.580699
-20.049505
6.933712
2.318040
-1.153299
-9.965750
17.911863
10.431337
-13.695549
3.785001
-20.900810
-9.866861
-2.038142
-2.106726
3.678816
0.874068
7.123718
-7.975730
-8.625443
7.486558
-7.159708
4.511804
15.374428
8.784411
-4.370700
-3.991251
-10.448057
4.895302
18.515869
-5.267515
15.995042
-4.226964
4.092775
-4.224691
-0.849370
-3.379637
-22.958064
7.191498
-17.050348
-19.744577
-15.811183
8.783612
4.865924
3.446895
2.969839
-10.288236
12.879055
16.851255
-7.810341
-0.717373
-3.447000
-5.210147
-5.457005
20.039731
14.365569
-10.075712
-12.785433
-10.102883
-0.887035
2.462156
-0.887891
2.954221
-0.036823
-5.980498
8.569765
2.043062
15.734248
16.963776
14.642190
17.512138
14.676864
16.890938
11.883065
-11.702566
-21.860652
1.887834
1.981245
-2.412177
0.609611
15.946979
-1.752024
-3.625010
1.917755
-12.718765
12.166831
0.941857
-15.935126
-3.621109
-5.686597
-2.173224
11.054804
4.843831
3.613773
-17.757286
1.381462
14.753081
-3.451381
-4.168946
3.801540
-7.253192
4.308618
3.134949
17.410444
-6.726585
14.731073
-3.013225
-3.593434
-2.329865
-4.075859
-6.290747
29.327214
4.556128
2.618301
2.223362
-2.002106
-8.779766
7.536974
-0.702454
-12.589182
3.857867
4.326395
-2.353120
6.291015
5.566919
7.757235
-4.156402
-0.314027
-6.573404
7.395073
-8.539755
-0.947981
13.068591
5.888497
-10.571127
11.493561
9.144701
6.322648
8.064658
4.063509
3.591724
7.743657
-16.715781
-15.851304
-5.462155
6.615792
13.172599
-17.816050
4.495923
-2.385122
-3.613901
10.335866
2.854760
5.536748
3.567468
0.980133
9.808910
-8.039288
3.514910
-7.274972
0.831198
-9.964622
-21.332917
-7.644187
8.130958
5.709747
19.792598
5.264603
1.237334
12.536474
-2.637732
15.209938
-18.010916
-1.383767
0.560476
-3.102706
-5.841700
2.086176
6.279166
-15.815836
0.723582
5.314007
11.392204
14.237597
1.624315
-2.114825
2.912361
-2.170585
-13.327542
-8.432826
20.573722
5.799418
-9.097718
2.156229
-5.395223
3.050144
7.812274
9.184953
-11.118043
1.751101
5.872241
-1.714860
-5.042997
7.711592
10.550527
-3.001369
6.684433
-0.168441
-17.555503
1.674728
-4.764587
-11.781412
-10.819301
14.143847
-8.556278
11.060213
-14.322348
-4.895412
-1.954351
2.886430
0.166137
-9.528234
-5.381126
12.570397
12.307881
8.966409
-17.306872
-1.672504
5.608983
-3.841265
-5.903732
14.541018
0.453955
-4.559089
-14.316148
-11.797714
-1.553707
-3.269041
1.985330
12.611474
-13.944084
-13.225809
2.546270
3.278444
12.793171
-16.889354
3.050466
2.617422
-7.354199
12.830733
-6.497539
10.014585
-13.222213
-1.729236
-8.207956
15.151390
5.470821
-1.436150
-12.696801
-10.147796
-9.230377
-5.927073
7.532070
-2.114838
-3.236426
-6.477611
-7.602413
11.793658
3.788029
1.552482
-11.301286
-1.842437
-19.869188
-5.470073
-9.124706
2.105383
0.413141
-11.240963
0.833555
17.495450
5.724999
4.475110
13.032671
-0.643423
-7.509784
-7.980082
9.498195
-9.279113
12.157665
-12.170753
13.507471
-22.872255
-5.188591
11.691188
13.479081
-15.882709
-10.808214
-15.912951
-13.638998
-5.839315
-13.441291
10.862548
-0.581738
1.126457
3.255687
-3.091068
0.729831
6.085460
-4.198025
-20.386750
-17.299239
3.339271
9.985806
-9.319673
-8.116733
2.995476
13.889025
16.112094
-3.424226
12.999932
2.078392
10.852725
-16.363945
17.717396
2.019574
7.035059
4.304553
10.545186
17.170163
6.202474
0.915171
-4.530700
3.984749
-6.415351
-12.837367
-12.219939
4.503862
8.931063
-8.978016
-0.535524
3.655617
-8.569151
2.144670
-5.424193
3.605118
-0.317861
-1.793366
7.074388
-3.631755
-16.497882
28.099679
17.975005
-4.726763
7.254281
-13.111190
1.858123
-6.170469
5.706621
1.553365
1.950096
5.611963
0.066703
-12.871570
6.365961
-7.752554
5.691039
3.190437
4.502699
3.577816
6.432869
13.964621
12.696367
0.643935
-3.884174
5.972274
-15.140815
-6.593589
-14.516178
27.311179
-7.256917
-1.660603
-6.232773
-13.310201
7.296499
15.927554
13.940145
1.235403
8.412349
4.060458
-11.131682
-15.518691
-11.423187
-12.098114
16.029120
-5.136648
0.989431
-11.959472
-4.289602
10.055233
-0.726053
14.841822
21.229091
-2.700313
-3.603470
5.162198
8.797236
-12.098822
1.850034
-23.167920
-10.127096
-4.019727
-16.433963
0.456412
-2.739436
1.890962
7.218566
-11.950314
0.576934
-20.016511
1.113714
7.041169
-0.845381
14.843768
-9.716629
-13.586076
-14.853520
-14.785979
3.846932
-3.399212
-10.055477
-2.259620
-13.817408
-2.386019
9.232867
-35.228071
-8.621072
-6.463140
-18.517265
-0.851564
14.492134
-3.721025
-10.585725
-9.736625
2.225450
9.458919
-2.109994
-9.784041
2.044258
-2.695857
-11.337513
0.037362
-8.077849
-6.843672
-11.362784
7.761002
2.340062
1.729390
-9.143852
11.304554
-6.188265
-13.382015
-13.513507
-8.571857
-0.467645
-8.036570
-12.678407
-8.447155
-1.573551
7.240492
-14.230072
-3.367187
0.142544
-20.350943
7.957726
-6.754891
-10.771022
-5.031806
-0.279401
-0.738484
-7.218436
6.970688
3.340088
1.809336
11.731063
-9.861484
-7.401385
-12.341594
6.654941
-2.755933
-6.478196
5.445202
7.810260
-4.120044
14.217427
-10.876559
0.896630
2.451091
1.203656
-6.519062
-6.311511
1.948479
-3.721293
3.582655
-1.375311
-16.228860
-10.688915
3.234538
-12.342573
-7.916716
6.419006
4.693626
-20.118120
-6.379506
1.325511
2.575071
-4.533805
-20.153288
7.372649
5.379029
13.472592
6.242650
-0.833023
-8.306756
-17.151712
-15.931227
-14.298300
-8.150622
9.369762
3.992008
-3.054193
-5.173328
9.246485
-5.814492
-3.418484
1.806163
12.910627
2.807075
-8.615544
-13.442316
-11.547557
-18.564097
6.153210
9.132771
16.558134
-14.093353
3.172874
-15.184915
9.370654
-16.428612
-8.532690
-8.585183
-8.332026
2.933318
-6.702902
-8.393974
13.490168
-0.148870
0.063459
-2.877829
1.096579
-5.480911
-21.582688
0.071836
-2.362315
5.096709
2.785560
10.398000
7.355919
-4.650610
8.686805
-0.701797
4.920274
-9.547417
-23.363176
15.104307
-0.332304
-0.249263
-2.478962
9.037649
1.662087
1.912013
8.161862
3.374149
-3.406706
-4.561007
-12.452899
-5.256634
-9.790085
-2.888029
1.860889
-5.615000
6.432152
11.875970
-1.869263
3.249899
-1.870536
6.023103
-6.517831
-1.021972
0.391580
7.301305
-16.994794
18.389520
-17.868925
0.959731
-8.804318
9.236496
-7.261614
-2.018171
9.259746
5.710546
-9.585491
1.075067
3.872001
-1.713991
18.231051
-17.572114
12.371224
0.167140
2.186852
-8.093895
-17.440772
-4.313481
-16.325075
-15.190007
9.575805
7.028066
12.384298
-7.757457
-8.108801
14.218358
5.975779
7.723901
-3.637838
-4.517145
6.148268
-0.654738
0.909914
-18.704772
-4.996885
-7.751975
-7.851466
4.562744
5.462125
7.034411
-15.345883
-7.979795
34.139962
-0.771523
0.101299
7.492378
-2.815519
-0.281368
12.785590
-9.266233
-5.489829
-7.419761
-19.418299
-1.716940
0.479940
0.942295
15.080497
-1.723209
5.751075
0.799729
-19.658338
5.587057
9.643177
-21.876379
-20.244782
14.633625
-6.478307
-4.486792
1.079411
-7.052495
3.818049
-6.673800
-2.340033
28.238607
-2.342657
3.208488
3.738874
-5.492736
9.665789
-4.978896
2.537090
-9.036635
-13.415057
3.810377
14.555164
-3.640269
-5.785912
-5.563536
-1.412014
-10.832980
7.944942
7.994623
-9.174434
-5.746295
-12.921502
-7.635312
-13.796247
-1.445390
-4.901672
5.909493
2.369317
-9.109066
-7.799246
-3.970086
2.412344
13.048583
5.165120
2.184923
10.747778
-7.868789
-24.118824
-15.179848
-13.849881
-10.919980
-4.120924
-3.564640
-4.258522
2.469430
8.139653
7.162341
-17.443104
16.191710
1.129521
1.479224
-4.260293
9.053846
-4.689141
-1.153831
1.126175
-4.847378
-12.017844
-3.510125
4.537037
-1.800237
14.716205
10.502690
5.987010
6.930001
-14.145065
-3.644913
-5.356917
1.937765
-3.978460
-15.463604
-4.421006
19.991932
-9.975224
5.005192
-11.425219
-1.563331
-5.910922
-2.701565
-2.039974
-11.206006
-15.066605
-9.786264
-2.594491
8.756875
-17.829894
-8.355069
6.661053
7.686924
4.505877
0.698555
-3.383482
-13.844177
-12.395041
-11.129836
-16.625702
-1.584393
-1.165592
-15.404220
-9.267920
3.646347
-6.946396
-1.503908
-9.874394
-2.739919
-14.049454
0.148916
7.108716
-9.044511
-0.110648
-6.463604
-2.823020
0.119657
-7.219177
2.501737
-2.263006
10.738810
-2.497231
-1.990942
9.626006
-8.172450
-2.968886
5.644077
20.485745
-20.775595
-1.013973
-2.576749
-4.945784
-30.522464
-4.926999
-9.834638
3.643639
-14.641235
-14.698898
-8.892862
-1.235924
-12.042936
-6.678483
-13.439231
1.746444
-6.537572
-18.779715
6.139332
2.577102
8.227783
18.597467
9.203233
-12.133557
10.639345
12.081538
-6.676924
4.038585
-1.789548
2.912507
-11.384163
-15.147693
-14.715161
12.528384
16.064681
1.653887
0.970137
-18.448556
14.002246
0.225655
1.408798
-2.946170
2.106693
4.328825
1.509481
-3.052137
-2.201032
-6.383250
1.489945
-14.967961
-6.968677
1.890952
12.608965
-23.169032
-6.954107
0.457599
15.812201
0.108666
-12.245500
-3.500370
-1.432115
18.110003
-7.006959
7.975260
9.878951
-4.366005
13.048241
-19.053393
-1.934792
3.957006
7.962604
-6.712917
2.319183
-21.383762
3.705465
6.804297
-15.486089
-8.137757
-5.269007
7.167961
0.987812
2.191401
-7.994047
1.201685
-3.989791
-2.278979
-13.219921
-4.528586
-19.821887
6.672501
-12.157616
19.306426
-7.904785
0.187768
-7.945267
-7.872654
-5.137342
0.340785
-15.760965
-14.370309
-15.244446
0.100578
2.076353
-13.783041
8.406244
12.026312
3.201383
-0.490113
-13.324853
1.125181
-0.666646
10.668041
-4.350406
-9.889245
3.560631
-18.377229
-0.749248
-13.946803
-9.358067
1.395403
-3.712452
-4.801560
2.702090
9.101009
-2.725134
0.272242
-4.576109
-11.118054
5.197030
5.434641
-19.981571
-13.304321
-13.553481
0.708729
-4.113740
-22.262339
-8.263808
9.367897
6.358984
-12.466327
3.547884
1.657467
7.037396
3.626987
-6.516237
4.573472
4.799727
-16.600118
6.367906
-11.860916
-14.506337
-23.447665
13.791358
1.562488
-18.310275
2.177974
1.718816
4.307378
6.308371
-6.839132
6.164447
4.759837
-17.148371
-6.342614
-8.313206
-1.169557
-1.788626
15.162322
-4.969641
1.029784
-4.190517
-12.027781
5.772562
12.371689
-2.863362
1.258267
-4.570284
-7.762001
-9.927826
-11.417238
-8.780064
6.806538
-7.247845
2.253617
-16.938568
-10.286207
2.398056
-3.015696
-4.226459
-2.512707
12.392097
-1.674734
-1.337362
6.579965
-6.468246
-12.491665
-7.908833
1.282558
0.828957
9.880769
-11.131400
11.808392
-4.716691
10.899420
-13.069829
0.111288
-8.992163
-10.703348
-0.327936
0.545821
-1.308198
-2.551631
-3.395333
-11.637088
1.179347
2.387119
2.855190
3.026163
12.658093
21.114374
-7.092127
-4.588681
-7.078387
-17.696352
-6.335969
-0.142568
-2.032385
-5.857978
-7.151394
12.452877
-5.985234
-11.849440
-1.426731
4.879526
-3.919654
20.240054
-12.009292
4.025279
0.095678
6.019927
9.889604
4.185295
-6.400008
-0.699126
-4.253367
-0.488726
12.120569
7.048030
-12.718926
-6.849212
8.104648
-10.832469
6.884689
1.374933
11.216567
-0.314468
3.987522
-1.930269
-10.434903
-2.601022
-9.131265
-26.407926
-8.075822
2.569364
-14.842479
7.186510
5.023028
-6.205614
-4.178312
-9.383431
7.907948
12.503039
0.321517
-8.090192
0.031921
-0.479834
-5.383036
5.104941
-2.189175
-2.498564
12.876892
-11.651293
-1.402597
-13.071798
-2.016772
2.988103
1.891582
2.784098
9.015135
-10.065068
1.055954
-4.789437
-10.634067
-7.227123
-7.546644
-26.257891
15.509518
7.000237
-5.307553
-9.449862
2.988288
4.558576
-3.814229
-11.815413
4.004485
10.692382
-11.433343
3.404327
-2.200833
-1.478824
-19.905536
-3.537291
-2.780404
-9.571148
-2.914039
4.021667
5.887332
4.308408
0.905328
12.431856
-0.914812
-5.758397
-0.955006
-2.217784
-3.475713
-8.412903
9.622141
-2.107133
-20.099750
17.345093
-14.600695
-7.801615
-9.474933
4.062745
9.513460
22.287379
-12.991627
-26.363531
4.915812
7.433983
-7.716787
-8.276519
5.790385
11.342690
-5.141036
-2.255150
12.915314
0.857658
0.717828
20.517979
-4.012619
-11.237036
-11.677950
-8.043784
-4.688487
-6.296993
-13.154445
-6.292369
2.000030
9.829414
6.655095
-1.405323
14.430300
2.510069
14.275041
-4.788793
-8.315060
-4.926943
7.939060
10.316411
15.441103
0.706639
0.711047
15.864118
-12.862924
-9.787213
-1.807435
-0.775488
-10.685732
-10.324385
-7.650396
-1.219329
11.636016
-1.062769
3.551078
6.476795
-25.844645
2.757360
-13.079716
-26.770073
-1.600966
-14.617118
0.173863
2.936815
1.544983
-5.468950
-7.798543
11.020051
9.151092
0.539466
13.311710
7.953766
-5.387308
-10.844134
-9.464559
3.100872
-1.159842
15.614569
0.311852
0.463331
9.995843
21.741065
5.516653
8.755129
-6.054607
3.261282
-8.116807
-5.569100
-11.463752
2.930232
-8.518084
6.980358
0.164079
-13.199592
-7.537103
-7.590356
-2.151330
9.699108
16.246897
-15.034355
9.580648
-2.849873
0.267859
-13.005163
-14.036383
-1.720912
-1.230110
-6.743237
-12.396711
2.326337
4.177675
2.294320
6.354398
-0.080368
-0.102905
5.825563
-17.179923
3.391425
-6.381780
0.299404
-3.068353
6.634932
-16.124003
-13.957228
8.331166
-0.258744
4.959394
-18.225929
-14.461919
0.736510
5.830079
3.637504
8.294621
-0.083415
-3.880165
-13.946089
14.450195
4.634315
-8.223256
1.570824
8.399003
1.763115
1.967714
2.267288
4.410832
-9.890272
-3.075327
3.258339
6.172668
11.422934
5.233787
-1.304653
-3.810036
4.307487
-13.035333
15.667629
-0.967982
21.179525
-2.828354
6.591474
8.716332
-19.446970
-0.165358
18.868583
1.730546
-8.066418
9.721546
15.455832
4.212448
-11.167513
4.950967
-14.786656
-5.349823
3.029379
-3.679163
3.850657
15.601917
-6.953354
-0.429241
4.450354
-1.651231
-13.914403
0.212838
-6.931459
-20.189677
-17.122569
13.862516
-2.808655
12.856420
11.060372
8.467292
-2.917452
9.664090
11.231058
-7.470040
-1.942358
1.185060
-11.141124
-19.232542
33.406578
4.598157
17.194897
2.809594
7.073144
21.436845
-0.586773
9.127677
-2.806346
-3.489062
17.022224
1.909589
6.953742
4.867123
11.082687
9.162355
3.766715
1.737760
4.031555
-5.339967
-6.349427
-5.879461
-4.665616
-18.261754
-15.312509
7.221584
0.031254
-1.795026
-9.271089
0.552020
5.725520
-19.185452
8.887611
-12.035766
-10.907820
3.561498
7.070485
-30.988038
-4.671931
11.790793
-1.060468
-8.626380
-1.991961
8.965937
-5.123689
5.973760
-0.511833
8.602107
4.363262
6.297553
11.473539
-11.423133
-7.972380
-24.190669
-5.539741
-5.711357
7.058764
-3.880057
-1.501828
12.681288
2.511630
2.136124
-5.845565
-2.609848
-7.059267
0.321934
-16.547489
3.192504
20.798345
8.151368
6.931627
-3.660728
-17.793335
8.589324
0.985468
5.781093
-17.285817
5.661967
0.151853
-1.003182
-7.647368
-2.931453
-7.226898
2.796838
5.127007
-1.149999
-2.965331
7.020880
-9.760804
1.216895
-5.784330
12.725067
9.264533
-7.501008
-21.352024
3.350158
-5.279188
-6.239164
-0.501075
13.249423
-2.458099
-17.880134
-1.032311
14.411725
-5.821555
1.883914
3.296263
-3.417454
5.105002
19.545508
-8.950864
-6.999429
0.211195
0.299663
-2.160698
5.821979
-6.060154
4.208944
-1.264460
5.587194
1.902243
0.407647
9.863859
-20.824813
7.131773
-6.556723
-4.997671
10.038949
-3.717435
-8.716596
-7.866757
-16.741372
-20.697404
16.698881
1.676883
2.783264
-2.370859
8.634696
9.941971
-23.629544
0.421390
-5.934286
-11.822867
-2.167071
-1.999736
-6.004960
3.721362
9.188863
10.967875
-0.226609
16.932632
4.276638
14.034159
-5.953811
1.107622
3.276473
-6.061458
-2.103002
-13.867430
4.106808
-10.638960
0.728370
-6.230260
11.199560
3.674824
4.352080
-22.079659
2.243163
-12.879754
1.819255
7.310608
-7.770534
9.042587
1.155812
7.991158
8.252239
-5.427765
-11.467322
-2.490424
-6.377641
7.087388
-0.143994
6.361218
-13.113967
18.652457
-11.315509
3.572950
5.820794
4.358578
-15.750177
20.006406
-0.621301
-22.577768
14.420914
3.851946
-1.893057
-0.911570
7.663085
6.666605
-16.547826
1.755856
-7.314441
-4.598190
-0.838460
-14.619067
-18.554718
-10.578353
13.581921
25.182079
2.115348
-11.419144
-5.601141
-4.537062
-9.357331
3.837190
21.460831
-10.164508
14.818919
24.208802
-2.648472
5.905627
-15.145174
10.157882
-5.027086
-5.878537
1.484558
3.329312
-12.388345
5.403459
-5.523632
10.178103
-6.955600
-11.277701
-12.949660
-5.728511
7.741225
-5.740412
3.333178
12.388089
-6.556725
3.864645
-24.983700
7.056469
21.084599
4.963855
-0.804250
9.285356
13.440171
-5.303750
-5.982721
-1.333104
5.851193
-11.007293
7.564311
-13.430137
-3.977977
-0.981722
-21.430825
18.556419
5.218630
-1.764474
-1.224183
-9.856035
-9.298266
9.166962
13.459076
2.622221
3.088564
1.731453
7.813736
-0.398499
0.398002
-10.300131
4.956767
15.500831
15.376761
-2.650605
16.466051
-2.159818
-14.027190
-9.608163
-1.304479
-13.763248
1.913662
-12.873885
-5.587677
5.179062
3.544415
-7.597128
-12.668310
13.209525
8.727146
-0.692832
-2.088832
-8.727485
-1.921084
14.354823
6.678672
-0.971146
-10.250291
-16.600605
-2.828780
-11.981668
5.890267
-2.237884
-2.917874
-5.875607
5.969955
-2.418043
9.889045
-23.961137
5.354128
7.142958
18.409511
-1.611211
7.325610
6.600644
5.961158
-23.334337
-17.999829
-2.148594
-3.826182
-11.284851
11.291294
6.890745
3.972962
4.903393
12.395944
10.067782
14.044107
11.671728
-20.135253
-4.025173
-0.988264
-8.831604
-8.229345
1.744986
-8.641644
11.224894
-14.287255
-1.627254
16.125169
7.300166
2.780266
9.547215
13.423635
1.646342
28.222169
-8.706075
-12.915505
-5.599587
-1.484911
-7.649104
-0.630048
5.109191
4.858856
-12.630555
-8.085212
5.631982
-13.242561
-10.730046
-3.894440
14.823533
1.017886
8.294563
7.671983
-0.746398
-9.555879
-9.182793
-5.160186
2.266889
-10.484776
-3.974891
6.096264
3.577195
0.440964
-18.517161
-8.270722
14.039946
-16.388494
8.988575
6.001409
-11.128249
-9.220481
-14.401762
0.826210
0.138868
2.686174
-6.942232
-4.869032
-2.762252
5.301531
8.223608
-3.588800
-7.273228
-2.446486
-0.430247
-21.581255
6.478655
-6.844243
-13.542312
7.402535
-19.685007
5.479993
-10.869045
-2.412867
-5.504403
8.034551
2.759282
-2.682151
12.410327
-19.859288
9.257385
-6.714776
-7.129095
-13.673841
-12.624387
-5.363089
11.486606
-0.596409
4.541055
3.598247
-17.390898
-9.251136
-1.638011
10.056086
-6.866870
-1.272205
-10.093617
-3.614047
-1.692083
-15.575174
-10.151309
-0.971152
-18.286150
0.235990
-1.812172
-7.511064
4.629663
13.410927
-14.952319
-2.143537
-11.067544
-9.410866
16.327796
23.595156
-2.346022
-7.223069
-3.022656
7.234621
-10.644029
11.455110
-22.525252
-2.240657
-4.939936
-11.752372
5.488928
11.180487
-15.629240
0.475418
-9.713842
-22.526042
-22.314174
0.571708
9.910209
-14.688683
-7.379669
-0.214629
10.166168
-0.117165
2.999051
-2.989622
-2.640174
-20.396036
0.196032
-5.433048
-4.923861
-6.612394
-15.932619
-4.033061
5.444467
0.257301
-7.029148
-22.976401
-1.920791
7.813595
6.612394
-17.879061
-20.180512
9.066496
-30.121615
-10.658835
-3.000098
-8.153469
-8.081280
12.735193
4.942679
-11.271573
6.127932
-5.272562
-3.950402
11.775628
1.079809
-8.889280
5.118886
-0.345117
10.196841
0.525509
-0.397814
-16.518734
2.200421
-10.669446
-9.189929
3.458302
-1.590959
-5.796008
-2.540889
-4.175809
-23.303638
-10.126742
-2.260045
4.749562
-13.772430
15.185464
-1.816829
4.415205
-10.510577
8.796454
-7.705004
-1.617592
18.183394
-11.425139
-25.224647
-6.916381
11.585184
-6.068073
-9.717306
-7.114842
9.311438
12.358398
-1.578266
-2.316037
-10.655796
-5.612258
-5.329414
8.073974
-0.508404
-0.930001
-3.489838
-3.930119
-1.804248
-18.220770
-1.819536
-23.287007
15.962373
15.647604
-8.757386
16.143965
4.021017
-1.383392
-5.109390
-11.831413
-3.862064
1.566147
1.250556
6.054127
1.601513
-13.797232
-5.542949
-6.284935
-8.098862
3.642376
-4.410255
-7.521159
-3.469218
-8.098805
6.348204
-2.076075
-9.199750
-14.139365
-3.869610
2.885435
-17.413814
5.072775
14.871631
-9.109833
-0.138802
2.761661
-6.157442
3.555885
6.127347
-0.750376
2.273258
2.862749
14.244451
-24.096768
20.125401
5.710290
-4.211354
3.239880
-3.914797
-3.593713
16.971222
-4.998945
-10.243004
9.133500
8.020976
-1.448722
-7.238499
-23.151966
-6.183011
6.481986
-5.511488
-5.263662
-5.508334
2.645032
5.473529
-16.792126
2.241769
7.328335
3.106599
10.261883
2.580126
-17.574088
0.083894
0.448119
-9.895857
-17.971099
-10.524773
1.491845
-13.682385
-2.046502
1.163324
2.456715
-8.228744
-5.774759
11.167169
-3.722846
-12.274275
17.151880
3.989031
-3.380197
-3.229819
9.332272
-9.451789
16.012680
-4.870550
-5.782806
9.582500
1.189157
-12.750223
2.737225
-11.134008
27.753479
-9.313761
1.144423
-2.823179
-13.386072
6.238640
10.033936
-8.462673
7.421166
-2.662598
-3.191956
-3.712098
-8.423895
-11.814347
-6.687766
3.836955
-5.617227
-1.267666
-16.178317
-2.207720
4.625904
10.221036
-5.571490
10.848332
-13.502880
11.961089
2.145508
-13.135144
-21.470937
-2.087820
15.550018
-14.294088
-12.096554
-5.938130
-8.447243
-1.178252
-8.352191
1.575888
-8.832644
1.728428
-1.094876
-4.926552
-15.761526
6.662208
2.525016
-18.986002
-8.390784
7.207274
-6.280698
-1.904453
19.536187
2.267380
-6.241596
-8.131029
9.193257
-7.935918
-19.724732
-7.904368
-6.446939
7.184538
-8.825373
13.914055
-15.366650
-11.644847
-6.651989
-19.514030
-12.696437
-11.972464
11.696922
-13.244157
-7.886139
0.951602
1.457676
7.857926
-15.704160
-4.403039
3.456150
-2.533354
-8.744133
-18.864905
13.038507
10.564902
11.220701
-8.653441
-8.321959
-2.397216
-8.151493
2.033130
-9.037092
-6.116512
-0.538361
-12.214603
13.582060
-3.142813
-14.185078
-0.244231
15.058697
-2.386637
-10.469760
-5.648250
0.066311
-17.318120
-2.394407
-3.051378
-11.312554
-4.591880
-9.570358
2.596028
-17.896582
-5.406068
4.960926
3.903095
-4.817482
6.890211
-1.671183
-25.109304
-7.999186
9.151549
-9.332038
-8.174743
6.443300
8.722043
-0.946887
10.826585
7.916691
0.608861
-16.906416
-9.273785
-5.144415
2.235223
-7.315089
-11.087129
3.688253
-3.177019
-4.990390
-8.248505
-15.407035
7.332812
-5.573991
8.055525
2.848959
16.105767
9.395066
-4.958655
-17.742846
-22.798178
-12.032644
5.820120
11.511542
-8.891785
-13.766134
-5.584228
-13.453672
-2.512965
-6.698580
-19.248652
-5.878322
5.460080
-3.683326
-3.626919
-12.310247
2.008125
-12.145011
4.800393
-8.013791
10.405408
10.311519
10.344452
2.672337
-18.363016
-10.951438
-8.362444
3.780909
6.619721
5.421682
-11.398130
-5.624744
1.349308
-3.173562
-1.054187
2.491911
3.080702
-12.742209
-2.402146
9.589893
19.646185
21.486366
-7.651979
-8.122062
-3.027493
-0.708081
-9.536013
-7.304349
-17.339435
-6.670861
4.036806
1.776277
-2.418005
1.005652
-6.293493
-9.095171
-0.499754
4.852767
2.379846
-3.046194
-1.028570
-8.742416
-6.826889
0.933331
-13.968649
-0.037074
3.940924
7.853937
6.469160
-8.508772
-15.894551
-6.728508
-0.406640
-5.278350
-8.266117
-6.055828
-8.729796
1.350553
0.651599
-22.575438
-23.018787
3.641871
8.750714
-3.721767
-0.009573
2.999783
5.939205
-10.010415
0.338566
-2.356081
-4.775278
6.031634
3.837330
8.974464
-2.163766
-13.352634
-1.952756
-8.801388
-4.679800
-9.478219
-7.882188
-0.417474
-9.653750
-6.464122
3.278425
13.151856
-3.217529
-1.790082
-8.073079
10.713547
10.458059
1.317402
-8.407654
-5.133797
-3.142413
-1.557487
0.689591
-14.334836
-8.527212
-22.603741
-7.768791
-11.537016
3.291440
-4.470613
-12.024331
4.518402
-3.751945
6.425339
5.547243
1.214297
8.423597
9.377528
-2.870173
-1.102060
-5.333840
-13.800956
-5.274038
-4.371085
-19.285666
11.780308
-11.787177
9.139791
16.385650
-5.905168
-8.159145
20.010330
4.641466
14.512860
-0.447821
2.159938
-0.258013
-2.514217
2.378743
11.301661
13.048946
8.107625
-8.617695
-5.364716
-3.927475
-7.191530
13.515746
-2.177404
-15.254223
-6.183481
14.531446
3.682056
17.745855
-9.902154
-6.243097
9.469540
10.505338
2.519966
5.868520
6.081089
-4.886471
10.864752
-7.871213
-3.177337
-9.788749
1.866825
-8.169255
-0.590739
-12.979234
7.310288
19.017548
1.361637
3.020967
-20.846363
1.601536
5.275809
-0.006438
-10.864473
-1.858367
-2.593188
1.625810
4.500215
-30.447257
-9.265205
-4.735895
-16.496026
7.065253
15.573439
-8.110250
-7.808574
-0.194491
-12.642705
6.851025
8.416802
-8.143275
0.765252
-5.232326
1.924617
4.839310
-24.352725
-4.698976
1.559845
-4.017046
6.050943
-10.092541
-4.533863
10.767649
-0.918894
-1.618075
-0.303343
-2.777268
-1.321206
-5.630177
7.744075
-2.055468
11.667258
3.932785
2.644129
11.050076
7.322984
4.634435
8.187450
-20.781599
7.421958
-21.348495
9.962796
-13.288695
7.064615
3.922711
5.494345
17.575551
-16.348458
-7.399720
23.526582
-17.424735
7.866060
-5.238994
0.719815
-9.417999
4.321731
-9.111451
6.041571
8.967969
-7.455640
5.819583
-0.579563
-19.618269
3.293488
-1.901755
2.853232
6.327469
4.335117
-2.832255
-4.574523
-6.034400
-7.916285
-10.655134
-0.118430
-7.671776
3.900230
4.296488
-12.068289
12.418583
-0.411939
0.164492
-21.932355
-9.351493
10.624062
-13.407855
-8.119170
5.386437
21.980929
-12.769405
-15.034844
-8.324968
3.618349
-9.588218
-3.382051
-0.396534
0.494713
-14.712737
-4.235776
0.966206
-13.648555
2.562154
-4.256666
16.287021
-3.578871
0.915350
4.077890
10.873002
21.269503
8.186964
13.306716
-1.125243
2.740014
1.848210
6.652031
0.240582
-9.266339
9.400994
-2.796944
-23.845367
-6.920573
4.415597
-9.092805
-1.859333
-4.535349
-9.689807
-3.818540
6.580633
7.214418
2.958713
-1.626280
-0.058665
0.948548
-1.020712
13.964747
-10.650829
-11.677627
3.201736
1.959498
17.889426
11.322655
-1.713297
-4.244763
-18.446848
-1.119816
7.073270
-21.632069
9.351154
5.537893
6.039417
10.400460
4.756040
-8.656391
-7.687314
-4.338825
-13.829237
-8.045597
-7.269805
-9.411473
24.909721
-9.792566
-4.645697
4.918385
2.921637
-6.441905
0.311836
2.816273
16.516800
10.233815
2.086671
-17.222422
-2.323456
-10.287177
-6.096663
9.319173
18.402736
-1.834283
-1.889928
-11.086151
-13.756628
14.056150
-3.214093
2.542674
-13.920969
8.130169
-0.106156
-3.608795
13.259572
-4.495017
-13.103074
-13.358932
-3.566528
-6.560515
-5.958199
1.124687
-15.952614
9.033126
21.990902
0.123902
-11.361575
0.201738
-2.826583
2.361009
2.368640
-17.746422
-9.289345
13.729166
3.930537
8.452876
-3.142988
0.339022
33.563859
-13.632698
0.018208
13.461989
0.299617
18.547137
8.224636
11.921803
-4.229384
0.156125
2.355055
-3.410181
0.843270
6.518531
-4.890666
-16.852315
0.148377
1.011016
-5.151877
-1.638283
-10.105751
-8.502696
3.488184
-14.463211
-2.133624
16.155216
5.503732
4.276357
-12.578078
-7.700623
0.531344
9.737442
-0.744172
7.095797
12.606947
-0.418692
-12.748277
4.464130
12.351907
0.736199
1.172398
-2.592280
-2.330726
6.318275
-7.024104
-5.656335
-7.042622
-10.666537
-4.251519
-7.154566
3.956355
5.097790
11.126698
0.292975
8.729337
2.493144
7.893034
10.647817
0.801744
4.663402
-9.374182
15.692988
5.808662
-1.348736
0.117184
2.040456
-18.054502
-1.215057
20.951659
7.534262
-0.451954
-2.640993
9.422124
10.033306
9.622724
-10.189388
22.588141
11.520728
-6.781304
-22.544511
7.830041
0.421305
-16.495898
3.797783
2.247311
13.214689
-10.238531
5.034713
-1.511030
-15.229661
-1.527232
-10.515728
4.339872
6.122545
11.816676
-17.519860
-4.089523
12.059504
12.238865
-4.296350
3.382019
-0.796943
7.943979
4.304390
-13.865620
15.746450
-0.241560
15.428454
-6.812559
-8.617243
-10.594295
-15.110633
-16.309998
-21.562081
0.187126
8.339620
-1.940039
-0.850842
13.262797
-1.272520
-3.362737
-10.061392
2.292198
-7.278366
8.802107
-4.593206
-26.143704
-9.397544
8.205449
-8.289652
-20.089185
-0.355592
-2.036778
15.638943
13.045792
8.013329
-17.889398
-15.513589
-5.642022
-10.396775
-4.388643
-0.446285
12.881417
9.174972
3.512950
0.693972
2.477384
-2.178942
-10.795894
15.179062
-4.128756
-0.434768
4.118153
-2.904033
-5.295779
-14.259146
12.294209
-7.220915
-14.096514
-8.577569
-0.925749
-7.465461
-17.690409
-17.527731
-0.791871
1.309118
-11.119206
-6.739917
10.792933
1.889796
1.198994
-13.146106
6.106849
1.217549
2.620862
-7.871971
-5.804469
-3.037381
-14.975069
-5.906393
1.933407
-5.682528
-2.163971
-3.098887
-13.236453
4.041763
-7.804006
4.901152
-15.863514
6.623623
-4.973207
7.122563
-13.375000
-13.039954
-10.534358
-2.218005
9.031061
11.763883
-1.752933
-3.568215
-6.461007
-6.714006
-8.538140
-7.639248
15.662162
-0.667491
-4.424613
2.635603
-15.341931
-2.817903
-8.172684
-11.393072
8.285757
10.694585
-0.433867
-1.442646
-14.919495
-3.427153
0.695905
-4.574618
3.864048
19.593412
11.906204
-8.226401
-1.468278
-15.574879
-0.485049
-2.018990
5.844639
-4.107114
-11.167074
-6.686419
-18.718670
6.356523
0.031242
-1.990159
-12.411344
-23.246352
-7.466900
-16.362137
-7.274361
7.215403
-11.856030
7.592455
-7.700913
9.639317
-0.778457
-0.183144
2.057520
12.312139
-4.154415
-5.053301
7.300622
-13.033417
-11.203959
-9.012357
6.212519
11.635076
-5.462124
-11.636770
6.591405
9.737280
6.626877
19.257108
11.916957
-5.269021
10.659726
5.128544
-7.208788
-9.897582
-9.063330
6.596314
0.124541
3.660459
15.226785
-7.796569
4.034161
2.857223
14.328138
-6.491833
9.371317
1.523885
3.171247
9.048424
12.637984
-9.785392
-13.619336
10.523086
-15.305808
6.132725
5.943274
-8.275644
9.577566
-19.925282
-7.651889
-14.643756
-13.693586
-2.745184
10.639795
3.973569
10.563104
-6.777831
-1.348438
15.069451
-12.305800
12.657783
1.370076
-5.344296
-3.948207
-8.821087
-12.690547
-4.830990
0.030201
18.640158
16.752355
-5.607988
3.136565
4.517556
-3.319490
-10.118032
16.511267
-27.520155
21.928158
0.027871
-5.475066
-3.159767
-7.083838
2.309923
-4.506553
10.702504
-8.684681
13.115965
11.906627
-8.189494
18.199575
-7.208088
13.432190
-18.334718
24.374126
