8.960150
13.476412
15.245322
5.160049
-19.770498
4.535437
6.759850
2.381130
12.340867
-2.101622
0.304426
3.664954
4.563736
13.806900
4.441553
3.002070
12.759201
4.570123
-8.346313
4.646596
3.938122
-4.538573
27.354915
-4.148061
-1.487194
10.834507
-6.863029
-3.556361
1.474767
14.936797
-17.292232
5.352584
-3.458304
4.742794
0.267983
-2.597481
-9.003105
1.113682
-5.882514
5.573433
-3.401008
8.301490
2.625924
8.836225
-11.113682
23.407040
-0.940494
-1.515122
-3.960980
-0.521841
-0.964178
1.681290
2.276471
-9.113617
2.869381
-2.127337
1.305940
18.415783
5.471710
2.472058
-8.520677
-0.380853
-11.480452
8.958607
11.121990
9.990731
-13.939134
-8.668506
-8.074902
3.464531
2.459816
9.352849
9.833318
-4.449398
15.982318
-3.867653
-0.611115
0.894866
-2.469343
1.065915
28.711248
1.576120
9.288492
9.696702
-1.124294
-16.622932
-7.604769
23.890006
4.782620
2.943253
-7.023437
-4.450915
2.871462
-7.949087
-13.184120
6.138049
-3.363928
8.527222
16.748299
11.036558
6.357810
-17.299784
10.848383
-1.488818
6.474451
6.944903
-5.397800
2.034847
0.983574
1.379055
-0.508911
-13.444055
-3.638938
-7.429563
-3.390797
2.605368
0.231113
-5.219713
-1.346731
2.205213
-4.014640
5.595449
-7.499210
-9.331342
-15.781072
-1.472687
20.688140
-15.571464
6.176613
21.535795
19.167972
-10.503566
-1.344117
7.214464
-2.707368
-3.096471
-2.624146
18.721479
14.151208
2.334583
0.625391
-16.794511
-7.222590
17.516260
-25.015015
-12.262789
-15.171946
-7.399320
-5.150836
-2.101186
17.305743
3.037449
-8.438616
23.542177
-4.060061
8.551363
0.477747
-3.016455
3.431018
-1.596720
3.810942
-29.494089
3.378313
-1.526831
-6.537489
3.373921
13.439355
-9.179879
-6.784445
6.903233
-12.637023
7.649855
-4.482436
-0.505762
-10.541662
7.829045
7.681124
-14.520003
10.690823
-3.774269
3.195037
2.980880
-1.483319
0.757447
-1.917057
1.817981
-4.390682
12.501070
4.395086
-3.366477
-0.490797
6.809006
-4.687864
-12.687628
3.285997
0.647562
15.757418
-3.778463
-20.340063
16.917748
-3.021227
-20.441598
-6.813619
-24.420798
24.073427
-6.646454
11.687206
-5.925435
-3.494816
-10.388673
-4.317283
4.108529
9.898283
-2.909943
-18.659110
-9.922459
12.161347
-5.428696
-15.554422
13.786878
-5.118117
-7.849870
9.485098
9.880217
15.926281
-7.219194
21.258203
-20.955061
-13.634422
-22.324746
-1.171155
-1.503158
-22.771148
3.762071
4.417462
-1.493969
-6.552377
15.603033
7.689355
1.126982
-1.698251
15.256024
-2.785603
1.659099
-4.167069
3.235268
-2.865195
12.105011
5.128923
-8.850244
2.393501
-7.840034
-10.915423
12.426813
-6.762927
-0.507719
-4.812729
16.910449
19.116351
-6.751347
-3.473185
18.151212
5.017980
-7.970592
-4.757791
-11.350195
6.000867
17.306943
14.166002
10.704824
7.172597
12.690231
-4.616960
-7.764186
-5.051637
-3.645959
2.561774
14.519972
-7.839861
-4.509091
4.731608
1.594969
-6.982820
-6.402921
-17.621261
-0.892515
-12.823494
-7.997221
-11.232778
7.018900
-10.158586
14.661122
1.079041
-16.889676
-4.744743
11.321367
2.888805
5.389293
6.725461
7.296176
-7.639232
-3.195717
-3.570837
3.660925
2.635617
-4.600990
-6.306145
-2.778759
2.959572
14.498064
0.659212
-14.168779
0.328598
-2.460336
-2.886775
-5.439599
-13.417599
-18.791069
-6.835812
-17.600325
-5.205511
4.713352
-0.930135
-14.799823
-0.826355
-1.308870
3.119747
0.942393
0.623284
12.878706
11.671919
-21.445268
-3.103732
-0.426393
-7.737345
-10.030329
-5.264764
3.175460
-8.607873
7.513386
-7.541972
-13.798494
15.718981
-4.115527
-2.960130
0.611676
0.390194
-13.876458
8.675244
-3.307735
-8.356880
-1.702095
4.853837
-10.024041
-11.362307
-1.514517
13.072534
14.180809
-11.622442
-1.401668
-0.550272
-11.108215
3.400175
15.810066
12.501035
-12.168870
-9.878001
-4.975761
-4.131083
0.160006
-7.251534
-23.371211
8.900556
-0.127808
12.882244
-1.016426
0.754528
-7.308932
-0.711858
0.548300
-5.166307
-9.832740
-7.095762
-6.345855
8.414275
7.204700
10.272976
-4.074703
-12.715638
-2.397323
6.293520
11.744823
7.085561
-7.367433
1.549818
23.126897
-0.424350
-6.024142
17.136997
4.964956
11.817107
6.148475
11.130163
0.996147
-4.405381
23.699146
2.252882
-6.213839
-7.993153
-16.980673
-0.283401
14.534009
-2.693988
4.918890
11.890267
-1.921304
-18.060179
4.272523
7.452440
-5.155327
3.989886
-21.765328
-8.973005
0.621117
2.630487
11.560269
-9.996421
17.249003
-4.373422
4.409884
8.321287
-1.844620
-14.237465
-10.384245
-3.008127
0.056959
-11.051740
16.266584
-2.380682
-1.770152
-20.892014
-12.320782
7.249555
-5.400134
15.558092
8.864460
6.454069
10.042549
1.703354
-0.305266
2.453027
-2.047332
-0.631584
-0.424812
3.764852
15.355891
-14.094429
-0.683859
-10.397505
14.624621
8.324692
7.436466
-12.344280
6.846519
1.292666
-8.529345
2.140677
8.805947
11.495611
19.265376
-2.088721
5.509932
0.643467
12.852975
16.937439
12.241487
-3.225702
-16.249471
3.817170
-18.749545
5.304546
-5.777478
9.400516
2.326521
4.604265
12.765950
-15.310920
-16.049148
-10.200470
-2.394150
-2.414860
-2.094362
6.373784
12.002445
-9.647258
-28.464847
-1.058470
9.093942
12.852030
-1.139738
-26.435420
-3.276280
0.733873
3.856709
19.655882
-8.321596
8.203176
10.395194
-4.814590
-15.881126
-1.275799
7.179180
-18.118573
-14.889495
5.507591
-5.395410
15.619375
21.445729
-0.987277
2.485493
-23.882225
15.095910
-16.373992
-0.634632
-9.894054
-10.917242
0.636768
-3.267899
-18.187773
-1.792448
-9.952218
-7.441575
15.170492
-19.045982
2.770898
-3.866239
3.144239
-3.053585
4.651955
-3.002789
-11.006981
2.435684
5.322257
-0.240635
9.696616
3.038675
-8.164887
-13.499476
-9.092130
7.403388
-6.969133
-9.764077
11.367279
12.593081
2.601259
2.466971
-4.816772
8.748466
-0.899568
7.167654
1.417949
-12.667470
0.108740
-6.644083
-5.646719
-5.141914
-7.895123
-2.979201
3.851154
20.523690
1.737880
-10.807474
2.013610
-22.498264
-13.957472
-4.207119
-4.600151
-11.818206
-20.257571
-9.742618
4.962906
-11.623473
11.802494
0.831645
-4.158661
3.197656
11.408393
-2.492277
-9.786719
-2.870130
1.647244
-2.646392
3.212906
6.821999
1.781996
2.459264
-0.160423
-15.897310
3.783365
-5.778722
-10.838141
3.786276
10.004645
-8.385736
6.024530
-9.174135
-1.374159
1.482804
-0.196145
-4.215524
-6.567306
1.507712
11.726413
-11.426591
-2.723385
-3.441140
-6.710062
-2.484248
7.035436
7.150662
13.296132
12.830384
13.082792
-4.283676
5.216339
-9.449464
14.550251
-26.277959
-8.957181
3.084565
9.089842
-5.086008
7.841923
5.820408
-19.473630
3.794373
-10.462418
3.198423
7.430779
12.447262
7.717320
-11.160911
-13.143228
-6.456455
10.649902
-1.751732
-1.772480
-4.302619
-5.960353
-0.338895
-11.379777
-19.065707
-6.906411
-16.018281
10.912609
-9.935478
7.958040
-0.287077
10.474155
-4.092732
-2.163037
-28.599957
-5.583556
-6.225589
2.787188
-0.852082
7.864821
-17.444655
8.701093
16.228733
-0.159060
10.236004
3.383221
-6.567325
2.003116
-1.677826
-3.142947
5.946781
-3.485891
11.736629
13.614280
-8.604765
11.747394
0.734891
-16.058106
-4.223689
13.757991
-12.368660
15.616206
6.997020
-15.369600
3.570602
-7.685472
3.022746
3.263643
12.185213
0.056678
3.416275
5.880769
2.641456
3.041966
-5.044886
23.084730
1.674546
-9.725238
12.713174
12.980292
-4.666223
-0.034837
-1.307833
-1.972514
13.629195
7.928698
12.008752
-10.515227
-5.550427
-10.050077
11.919379
0.746154
-15.591505
16.379577
9.440714
-12.921545
-20.137515
3.383998
14.424006
13.073882
9.657562
8.873285
2.880644
0.614411
0.591346
-16.210563
-25.306763
-1.908693
12.323555
-11.215776
7.098275
-3.813555
-2.907091
5.899353
6.734753
15.838634
10.233937
2.644546
6.149294
-2.139059
-4.686100
-7.573590
-1.913449
-16.448987
-0.045821
27.175295
-2.719619
1.036765
1.869624
7.926502
10.890855
-1.795842
9.664444
-7.850390
3.056608
-8.224224
9.269103
-9.774225
-2.338113
-3.735025
-14.150161
0.989597
11.335882
3.880396
-5.699357
-1.248970
-7.873603
5.475664
10.319559
2.502046
27.143210
-7.833563
-1.498609
-9.196215
-9.458076
8.050814
-5.183749
10.168479
4.001770
-21.647988
9.978309
1.369917
-10.945217
-12.103082
3.971395
-6.321459
7.451647
1.927610
9.918077
6.651346
0.506729
1.045373
9.294095
5.704447
-2.378138
9.051610
16.905768
-12.301634
5.181277
-1.269071
-8.138849
-9.959238
-4.981078
8.549140
-17.490669
9.508661
-15.657518
-0.591707
-1.377974
-4.433378
3.200800
-20.538201
14.757908
-6.663326
-3.045686
-4.120556
6.631156
2.390192
-8.170919
12.205771
3.421102
11.096239
-1.985042
31.774279
13.329318
12.983337
4.470437
-0.851292
2.027653
1.419358
1.781059
10.484437
-0.105699
-13.643913
-0.264086
5.960860
6.809992
9.679668
5.673743
2.277288
-12.678340
-4.981450
-4.052294
8.112351
-5.431324
4.002231
5.971116
9.639385
7.946689
0.922789
-10.125491
3.982761
28.088913
2.170288
-6.498380
16.440671
13.147316
-9.927560
-22.146345
-16.493262
15.249521
-0.873389
2.084999
-4.080821
4.176579
7.051550
3.986552
2.365595
8.861474
-1.019772
9.430052
4.901531
-5.799470
-6.639655
1.793244
-1.938917
16.482798
-12.127446
18.540190
2.219471
19.906888
0.339442
-5.427572
-1.680724
-1.960091
-4.688972
-7.366486
2.020579
1.772823
11.346117
1.036288
-11.279835
15.623160
9.682858
-2.339514
-13.309069
-8.635174
6.825714
7.405963
11.451508
-16.841542
3.848690
11.050824
-1.266503
-3.137431
2.946298
-3.378090
-6.846068
7.006270
-9.597935
0.040514
1.523366
9.213283
-23.581423
-14.364795
-0.206769
-15.499109
-1.891681
2.135004
-23.300752
-4.531159
-6.939944
3.125325
9.942597
-13.226040
-7.014704
-2.161985
3.599383
16.189066
3.733324
-2.195898
-12.448655
2.472356
6.747838
-13.286947
5.390442
-6.017097
10.241369
24.617422
-2.723815
11.035318
-11.176510
14.828127
18.353536
-8.019926
-11.669027
1.372138
-17.646376
9.397794
-17.874039
-14.250017
-21.180482
-13.728711
-13.176160
-4.297252
-7.997529
-4.490915
-13.750373
-19.288948
-1.597991
-2.127869
-7.987248
0.793136
-18.031559
-10.482646
-2.023189
-12.439837
-9.519223
5.434578
13.154802
8.505354
-6.397206
-8.033579
3.422014
-9.236900
-10.703833
0.168286
12.878508
8.005639
-11.729625
6.010069
-1.926681
-0.658700
0.469241
-2.590563
-0.103506
-5.116424
13.624868
-3.348922
6.736930
6.812157
-13.625259
8.511438
-2.920391
10.311408
6.484370
2.234959
-3.149753
8.284504
7.557486
0.025928
-6.474335
-2.175386
-2.994567
-8.300462
-1.818404
-16.478108
5.498690
-3.501139
2.812498
2.236283
10.973012
-4.652609
3.819599
-2.638184
-13.934936
-5.719690
-2.288074
12.128706
1.265882
-27.411265
-4.707980
14.924632
1.258759
-12.867887
-14.298670
3.033566
-4.272292
9.616755
3.619126
4.722430
16.050913
1.892498
-0.569852
-6.863627
-0.894601
-3.988485
4.876419
5.860306
-6.083040
12.175267
-13.434497
8.392625
8.640891
-5.506688
5.768625
8.374646
4.804747
-10.647718
16.178218
-1.094648
25.202950
23.883964
-6.159879
-13.446822
-14.482465
2.859571
0.616439
-13.117978
-1.415882
16.814335
-18.564406
-1.287414
-10.237743
-5.207425
8.216055
-3.973545
-0.018572
17.874796
-1.411774
13.589231
-19.708012
4.732589
8.365381
8.339551
-13.129829
11.124701
1.069392
-1.058101
-17.613317
-7.990853
4.482292
7.771878
-3.114997
12.531932
-12.655362
-0.260555
-12.525010
0.514432
0.945224
-10.345307
5.209434
2.082554
5.684650
0.855334
-3.310506
6.795479
3.170269
12.956514
-3.941574
3.860545
-3.754464
-16.502955
-3.544759
-2.139286
-2.417408
-8.483150
-7.949984
16.810362
-6.276226
-7.854043
-19.055784
3.226011
-21.777220
-13.230340
-4.257854
3.476275
6.331567
-6.749992
-16.285133
-13.668496
-9.830471
-12.526410
-12.787317
6.659491
-4.423958
-9.761502
6.139318
-1.632284
-1.400873
7.874898
-5.247117
-7.504667
-1.239833
3.518016
7.481378
3.082416
-6.313373
-3.621935
7.398715
0.513677
-12.739526
7.295597
0.109198
-4.651084
-6.160800
12.266749
2.545999
0.511932
1.373463
-13.060368
12.995180
-3.070388
5.118050
18.312572
10.092202
8.692794
-20.761650
2.323188
5.157079
11.977260
9.756115
-10.179207
3.694624
1.940572
4.069172
4.193312
13.532434
11.008596
16.737613
-10.683032
1.168753
1.766663
-6.267732
4.953097
-9.909685
3.297854
9.440884
-12.460756
10.080960
10.070146
9.702407
1.456202
-20.023336
-7.210559
-6.479704
-4.153570
11.263452
2.890954
-2.320821
-9.925496
17.991563
-0.909871
-0.056453
-4.181361
2.051164
-9.338151
-3.637321
-0.718651
10.423622
-22.371490
-11.193614
-11.716663
-32.202235
-3.976085
0.438398
10.573751
-3.382780
-8.705919
-19.889114
9.717818
2.386163
-2.780061
8.429289
0.393194
1.961884
-14.716698
-5.329531
-9.403704
-8.059835
14.524902
5.233410
-1.946229
-1.966680
22.693995
3.528627
-4.016423
-4.707019
-6.402810
8.784303
5.689313
-3.012273
1.515540
-4.431116
-8.342758
-4.097426
6.717748
-1.320077
-11.124253
-5.433665
-2.842219
-2.273116
16.478433
-10.869694
-0.511354
11.149904
-1.936960
-8.383139
23.648242
-31.214956
-13.635683
5.522041
-4.136912
-17.045666
-1.375964
12.979546
-3.541539
12.956029
-5.397393
7.050845
-0.694841
26.958122
-0.694292
-7.029765
0.537336
-5.410032
-4.635814
-1.296446
-23.739636
5.600965
2.381823
2.665383
-8.993154
9.639213
8.638225
-10.911994
5.107161
4.531236
2.613707
-6.783693
-0.745104
-3.096957
7.356893
-4.374532
2.722051
4.714012
16.789459
16.456107
-9.221487
-9.905879
3.588392
-2.313419
-9.256371
-10.029179
0.900117
3.915819
0.250274
-0.321819
-14.656227
-13.321235
3.114331
-11.250269
-2.284694
-4.095675
-12.011820
-8.320516
-1.080053
-14.700903
-2.032132
3.655078
-7.631116
3.385833
0.169039
3.630464
-19.779082
-6.708978
11.177257
-5.721542
-11.592085
-1.790557
22.734790
-9.254786
14.207309
-9.735980
6.257871
-1.105759
-14.000166
-5.943362
7.617406
-1.588470
24.265893
6.430887
7.938584
15.938013
15.905884
-10.471331
-5.514148
-13.573935
11.388960
-5.203173
-7.327111
-6.837309
-0.862778
-19.411362
2.050457
-6.763773
10.382297
-7.238113
-2.528850
4.450611
-10.122839
-12.850227
14.512000
-6.513478
5.590458
0.577016
-0.020625
-19.649683
-1.790509
-6.894206
-3.383199
-5.180728
-7.253229
-0.372079
8.312447
0.699630
-4.880599
2.611149
12.874678
4.001855
1.825393
-0.129482
13.338641
4.100160
9.521302
-0.384494
-0.250095
-5.468878
14.868118
-9.569310
5.584917
3.667750
16.945067
-15.036669
0.450961
6.128752
5.895748
-0.026951
11.065960
-20.440582
1.476085
-3.898063
4.482074
2.752404
-0.171534
-7.379819
6.570672
-9.211218
15.307270
12.547397
5.919475
3.022848
-1.701526
-23.023052
-12.700977
14.987593
-2.124384
-21.330739
-2.000931
16.624111
4.712412
11.752957
15.043494
8.070464
2.827140
24.378111
-2.885952
-2.875520
-5.168836
-14.106743
7.419683
3.068903
0.092315
1.593924
4.404486
-1.967084
6.992825
7.869064
-7.947108
-4.386606
-19.315048
23.724809
5.789201
-3.800614
-1.105968
-8.039175
-7.448397
-8.917910
-1.693137
-8.305964
-0.117205
8.967692
5.706467
-17.127725
11.520732
0.444431
-4.187812
5.383872
8.660473
-4.313756
-7.081180
0.067222
-16.833147
-7.583537
15.708932
7.213982
-10.959737
13.671073
13.587973
-5.773162
-1.173431
12.851038
-2.148476
0.937240
-8.111114
-13.351624
-12.544060
13.832406
-8.658721
-11.552811
-16.379626
-23.509859
-10.570863
-2.547784
24.032308
11.477837
-9.028718
6.425295
6.149198
-3.948557
6.449110
-12.980148
-3.149234
-17.170632
-15.342433
-14.035130
5.614501
-1.421117
1.543254
-8.046605
5.273314
7.758883
-21.087070
0.821482
-23.131980
0.655196
8.518003
2.262174
1.239140
-0.765939
7.017789
-2.147342
-11.589314
-3.499585
9.102732
6.121261
-12.281840
6.242128
-4.655229
-3.805510
-5.950726
-4.878502
-16.115325
-3.049065
-6.921381
-13.567866
-11.163920
-1.362046
-6.586266
-0.342593
-10.580388
-5.629350
-0.766004
-32.718942
0.361922
5.109333
6.591465
-3.466155
11.086948
3.961278
5.911346
-5.029325
3.881563
-0.863924
3.769307
0.704398
-14.815500
5.696427
10.190251
15.288146
-5.951276
-12.826101
-8.781544
-9.528014
-8.050306
1.854825
-4.776812
2.703233
6.270166
-14.007525
1.900609
-13.047792
-4.260529
2.976147
10.420418
9.569131
-6.505375
-1.882551
-7.432398
-15.131879
-12.430001
9.603849
3.707171
0.147089
-4.454997
0.267663
2.685428
19.607464
-7.021491
12.501425
5.995229
-2.615035
2.590846
7.967598
14.206175
-8.436982
16.654528
5.227457
-14.120208
-4.018266
2.767320
-5.865727
11.859282
6.789233
4.772694
-5.465732
-15.703822
-2.572044
11.191277
-10.787280
2.605329
1.796065
1.060526
8.544481
7.867849
-0.134640
-0.839224
0.414822
25.751140
1.876787
-5.271788
15.514154
-5.626782
-0.341637
3.645747
-14.174789
-9.336660
4.440203
-14.011674
-11.109385
2.373031
-31.517947
-5.031181
-4.485510
4.214231
16.997825
22.414342
-19.443044
-11.173556
-1.722925
13.628367
-12.725631
0.696720
-5.360230
-1.552540
-5.915292
4.137701
-3.110379
-2.968401
-2.209454
4.380598
14.707304
2.285460
5.548404
2.078764
-2.238491
5.597351
-2.607577
8.045946
18.778100
-18.513540
-2.490082
-3.251883
-5.989937
-6.009585
-2.124473
4.520692
-2.996008
5.115704
7.820611
14.070163
-0.778218
-4.721278
-12.090027
-11.265463
3.241288
-3.671493
-4.184868
-7.511716
-11.922300
2.024156
11.581746
-18.058799
10.077938
1.594788
-24.175610
2.077089
-6.954086
3.660724
-14.872093
17.742902
-1.458327
-13.272846
15.338510
-6.445505
-11.539966
-7.963603
4.473526
-20.121294
-11.911574
13.779649
-7.344317
-11.820298
-1.389880
-3.360635
-9.446430
8.846919
0.102669
-7.469467
-4.279093
3.783872
11.359007
3.652678
3.616914
4.236111
5.426630
14.621305
-1.045248
-10.132603
-4.018837
1.203989
-12.885580
12.715472
1.069567
-3.772020
8.802470
15.109275
1.389313
3.904133
2.544757
1.075670
-2.839202
-9.858755
2.941552
-2.469890
11.979203
-7.766110
-5.136041
5.667169
-3.702508
0.064045
-5.979489
11.312402
2.301123
-18.801063
-0.853082
-1.750630
3.691293
1.881307
1.942617
-10.035193
-15.163106
3.530600
-19.978690
19.457135
9.334022
-10.218418
21.156381
7.584805
1.892349
-7.123630
1.336363
0.934730
12.976677
-4.955249
-23.046275
-9.889308
-10.410826
0.936874
-14.274104
9.915500
3.432955
22.197026
5.170044
7.104672
1.830996
-7.466040
1.761690
12.229966
12.404739
8.155201
-4.730204
-7.886805
-15.931368
0.667597
-6.629505
-1.924132
7.121903
22.011181
1.505726
4.013509
-9.979994
-2.724489
4.607001
14.444677
13.689449
-15.796068
-6.689023
8.429522
-3.960362
2.257987
-11.702440
-9.749432
6.763984
-13.491340
4.349113
7.094044
-7.613457
5.355115
-2.110070
-5.117378
-7.619427
3.085669
3.420281
5.669245
1.910544
-1.943342
-0.090171
3.084589
7.942261
-9.412738
8.285432
-0.345650
17.931391
2.506064
-0.344222
8.070230
-12.026006
-0.722692
-5.654740
3.334165
0.622109
13.497358
2.263166
-4.597393
2.694346
9.663623
-9.819010
-8.324784
11.969816
-4.378365
1.433638
1.062358
-3.617437
13.289513
-3.528435
1.506706
11.294692
11.278864
-4.831644
-2.513650
4.735367
10.250911
-21.693572
13.237830
-3.602805
28.871102
-25.194123
2.959948
1.243537
1.981731
-1.770159
9.443765
-19.600158
-7.934382
0.036671
15.290129
3.486178
12.826170
-2.915606
-14.314245
-2.393909
-9.742525
2.709037
-1.004320
10.476035
2.795789
6.903451
1.596268
5.144631
-3.014522
0.181625
-19.101714
10.159329
2.754911
8.125693
-6.709011
10.734297
4.796851
0.442115
15.433873
-6.270784
-11.310321
7.835809
-12.754208
-3.467210
-4.311934
2.019820
2.641265
-1.747924
-22.083913
9.604588
-6.773782
-10.156124
-24.404311
-4.302687
-1.215671
-8.810382
-4.216001
-11.380924
2.110372
-8.062755
-2.303696
-7.532170
16.088139
5.298546
10.383838
-6.620226
-2.358076
6.200493
7.314772
-0.918620
-3.458985
16.704369
-9.049065
-6.980660
-2.457199
-0.147266
11.219506
-12.890255
-9.152350
8.046105
3.212375
6.481647
-5.663861
-21.102284
10.440641
-5.636426
2.068560
-6.936112
11.740411
-7.460082
15.238412
-13.627515
6.329923
-3.133876
-1.086052
-10.821441
7.264749
6.193628
4.272429
-7.989871
-3.095949
-1.700227
3.205456
-4.785112
9.140480
1.363721
-4.712671
4.898055
-5.223620
11.022155
6.383883
-15.280601
-9.654214
10.374741
-3.030563
1.870232
-0.881302
4.924738
-11.580773
0.739772
8.444797
-1.193358
-1.190863
0.959198
7.396566
20.627559
-6.907844
11.543477
-9.532824
8.802277
2.144512
15.484649
13.085344
10.457552
7.516722
10.503174
-4.262623
-20.528318
-6.937066
5.333488
3.447561
-0.542279
13.792898
8.148230
-2.109756
9.620587
4.942574
-0.941889
-0.570026
-2.734120
20.752836
-12.416829
-25.764305
15.878800
-11.759113
2.346780
-7.371262
10.766942
-13.962689
8.017502
0.444891
-0.095820
-7.849219
8.798072
-5.346171
-0.254427
2.896727
-9.036821
-14.643802
0.068412
0.404577
0.436520
3.012930
5.464776
-8.862352
-14.670288
-23.869735
-9.310780
-2.623990
-2.199821
-0.458690
-15.643460
2.009429
-3.608465
2.576379
7.980793
-6.494983
1.126059
4.108343
2.647544
8.928628
-11.201931
13.727423
-15.955336
-2.227810
-9.391727
-9.559055
1.090981
-3.637693
10.778267
-11.970648
11.320962
-7.538902
21.827685
14.286245
-9.064664
-3.331142
-7.257716
-1.640988
-12.754504
6.148416
-13.194622
-21.409073
19.839195
-17.805271
0.022561
7.043338
-3.618338
6.310750
7.857218
5.860154
4.949903
-9.335816
16.911446
5.217213
5.278535
0.754929
-13.785848
-2.209056
-12.576904
7.461775
2.394500
10.921585
-5.404962
1.823898
14.037518
-1.332595
-8.144395
9.491549
-2.280331
7.786116
0.093740
-1.704524
-10.782539
4.192589
-1.985258
-8.972285
12.329681
9.486693
20.907238
20.325520
6.421379
-9.652362
0.908161
8.040502
9.177722
-3.517953
4.169175
-0.475966
-3.559268
7.885811
1.406334
1.022580
2.765402
-5.105941
0.317840
4.370387
1.208626
1.011229
-11.373503
-6.406032
-3.161148
8.764121
13.469866
-4.519269
-7.064701
-1.583176
5.735640
4.362314
11.520108
-1.320296
4.963171
14.774125
6.952350
11.985821
9.890242
9.848410
12.984134
-5.742048
-3.673599
-4.364943
2.335161
-8.412413
2.937475
-17.505412
-2.607706
-8.298063
-5.862044
-11.894356
-17.283839
-3.910751
2.142231
-4.401865
-10.532619
5.063646
-2.449274
9.153039
1.563079
-6.144642
-0.579348
-13.748095
9.725826
-19.002997
5.842321
9.397942
-2.233111
-3.765291
1.112986
-9.043250
-4.971123
7.000876
3.422967
-4.485933
-7.789298
-2.320350
-8.345905
-5.857258
2.209105
-6.951153
-0.919914
13.107269
18.500720
8.286646
-8.803749
-19.439755
-10.749220
0.886084
-6.001976
-12.346665
1.061893
-0.105349
7.671880
-3.557494
-0.414823
-19.093478
3.922156
2.727579
0.230852
6.223200
17.352303
-10.253896
-4.833226
-24.270844
-5.528728
-5.297805
5.553174
-6.719192
14.479242
-1.724043
-11.122178
-0.923305
-3.661331
-12.146698
1.225787
2.708659
8.668483
7.644214
16.356654
-21.241317
7.447078
2.464999
-0.594614
-10.328725
17.428826
8.848320
-14.079662
4.901258
-19.943343
-10.242044
-1.993345
-1.293805
2.553630
1.460259
7.659373
-7.911218
-7.900417
7.558784
-6.027629
5.491221
14.309456
8.071309
-3.121459
-3.260890
-10.469370
5.009037
17.356705
-5.310229
15.097901
-4.824445
4.704771
-6.363144
-1.052145
-2.712118
-23.143667
7.126833
-16.331693
-17.935253
-15.362487
7.847604
2.414445
2.871474
3.263785
-8.080254
13.913113
16.088060
-8.540047
-0.735134
-2.247886
-6.497025
-6.132429
17.943537
15.638833
-9.741483
-13.331401
-11.324155
-0.684549
2.803000
-0.509031
2.579158
1.820486
-5.486215
9.158123
1.605928
15.243840
16.114140
13.995455
17.886438
14.338919
17.625813
13.197587
-12.366757
-22.133104
3.941020
2.890542
-3.257277
1.269565
15.770669
-1.412431
-4.322023
0.866474
-12.409506
12.480423
0.825368
-16.382330
-3.185257
-5.848173
-0.784644
10.806516
6.871393
4.125406
-17.848899
-2.111213
13.439171
-2.827596
-3.987854
4.277652
-7.035489
5.442286
2.926073
17.743255
-6.206945
12.986679
-2.687800
-4.873295
-2.620621
-4.750943
-5.671479
28.279501
5.463657
3.557235
4.026267
-2.628400
-9.285793
7.076425
0.275486
-13.959411
4.988387
5.004671
-1.986708
5.240414
5.388784
8.405221
-4.797873
-0.982979
-6.128615
6.062357
-7.526593
-1.887940
12.238092
6.219502
-11.685802
11.568285
9.854432
6.986431
8.013709
3.282486
2.147465
7.226181
-16.139417
-14.918812
-4.807837
6.847362
13.141254
-19.316893
2.774685
-2.039011
-3.943262
9.714776
2.117118
3.923336
3.736954
0.584447
8.828637
-9.731371
4.193410
-6.560897
-0.697253
-9.324094
-20.507639
-8.242264
8.153998
6.072063
18.228722
5.327701
2.419441
10.948336
-2.370752
15.403401
-18.104006
-0.489915
0.231286
-3.074833
-7.113068
1.060638
6.236671
-15.307905
0.419028
5.137977
9.481745
13.859129
1.425005
-1.751614
2.217096
-0.834730
-12.911616
-7.040793
20.367650
6.289406
-9.044069
1.989034
-6.139797
3.308209
8.505668
10.797344
-10.833305
1.227557
6.380845
-2.823475
-4.323242
7.158108
10.223495
-4.005442
6.096554
1.497101
-17.821052
0.486793
-6.265164
-11.778990
-9.495425
14.211178
-8.829192
11.852466
-16.106427
-3.580051
-1.995573
2.923885
-0.578690
-9.742883
-5.808375
12.971017
12.238234
8.261363
-18.184871
-2.628842
5.020477
-3.575875
-7.173778
14.913892
-0.306716
-3.349141
-15.415137
-10.638895
-1.075779
-2.140277
2.965825
11.064696
-14.301587
-13.400881
2.332850
2.584753
12.238737
-17.093854
4.134499
2.633408
-5.317873
13.535368
-4.876221
9.687051
-12.764602
-2.489590
-8.100529
14.696937
4.914342
-0.493553
-13.429805
-11.056227
-8.982571
-4.735147
5.328170
-5.385132
-2.605044
-6.116253
-10.083609
11.224620
5.111344
0.734683
-10.936868
-1.134450
-18.921839
-6.404809
-8.216841
1.427861
-0.001269
-11.020296
1.049737
17.823882
4.718321
5.723475
13.815775
-1.445604
-6.857428
-6.199667
9.024666
-9.957514
10.815600
-12.111785
12.974338
-23.278380
-5.540865
12.060024
13.097707
-15.974712
-10.119850
-15.263774
-14.686047
-5.689644
-11.719679
9.867267
0.613640
-0.012667
2.968029
-2.953698
2.698186
5.925106
-6.199026
-19.196983
-17.238781
3.858325
10.135321
-9.157674
-7.777716
3.629160
13.503848
16.065703
-3.993205
13.503846
1.519671
12.061789
-15.971233
17.692259
3.475564
5.445931
2.726616
10.021099
16.951612
5.224484
-0.714026
-4.361251
2.921315
-5.809945
-11.645699
-11.802362
4.863987
10.841140
-8.376445
-0.665736
3.184570
-8.141579
2.008826
-6.108214
4.555945
0.118327
-2.674698
5.946752
-4.626709
-17.356010
26.071074
17.834419
-3.957283
5.345215
-13.843361
1.348177
-6.917686
4.799491
-0.051219
1.989321
7.392006
0.353154
-12.611239
8.992052
-5.858857
5.777771
4.464460
5.002145
2.599005
5.969677
14.055803
12.664667
-0.521294
-3.970346
7.046795
-15.325564
-5.805906
-15.736248
27.108311
-8.058569
-1.664208
-5.248954
-14.143360
7.103028
16.931426
13.777526
0.457108
8.934751
4.047062
-10.058874
-14.219875
-10.880695
-10.416949
16.296810
-3.561503
2.367181
-12.739434
-4.019501
9.133579
-1.015797
13.045553
21.669051
-1.636883
-2.106395
5.653459
8.159511
-12.976510
1.897220
-21.574988
-10.082851
-2.184070
-15.784618
0.353569
-1.564013
-0.300460
7.450663
-11.556833
0.342648
-19.347771
1.601283
6.925200
0.243905
15.149400
-9.611531
-12.792364
-15.395886
-14.804342
4.453972
-3.645523
-11.512294
-1.601064
-11.229602
-3.683602
7.220001
-36.387759
-10.099396
-6.713705
-16.904620
-2.273120
14.867826
-3.902164
-8.822597
-10.792229
3.450508
7.392282
-2.822711
-10.880694
0.497135
-4.260290
-11.697996
-1.380516
-7.944545
-6.466112
-11.866461
7.435370
2.853587
1.733735
-8.218909
10.262070
-5.558062
-13.110070
-14.000150
-9.030440
-1.077431
-8.882786
-12.746877
-7.458014
-2.486398
7.244770
-16.075830
-1.976183
-0.652958
-19.299583
10.401332
-7.585150
-9.658791
-4.972686
-0.330272
-0.691653
-7.757098
8.079902
2.103703
1.213467
12.458073
-9.711288
-5.912869
-14.412641
6.173075
-3.016975
-8.519294
5.076584
6.871095
-5.661493
14.207946
-12.482516
0.285729
1.921974
0.107559
-7.347636
-6.877104
0.666426
-3.708872
5.520191
-1.467969
-16.205279
-9.968510
1.922532
-11.369960
-6.908380
5.196909
4.205952
-21.255757
-7.563239
1.099046
3.828215
-5.041968
-18.013060
7.760755
6.853506
13.507945
5.985792
-0.814759
-9.160500
-15.297408
-14.725055
-14.136078
-8.690281
8.824302
2.834178
-2.952710
-5.494285
9.951758
-5.224397
-3.218868
1.217020
12.314918
2.978164
-8.281757
-13.449389
-11.531954
-19.385261
6.814345
8.778887
17.070900
-13.551904
3.051748
-15.024123
8.374152
-15.276932
-8.824925
-9.890985
-6.535435
2.696436
-6.610746
-6.616232
13.953119
-0.352731
0.406546
-4.041252
-0.097843
-5.086363
-23.132177
0.700440
-0.346741
5.569642
1.422105
11.011215
7.257684
-3.858206
8.633946
-0.501228
4.334094
-9.632305
-23.735785
14.557434
-0.839727
-0.139737
-0.242610
9.225387
1.195027
3.601502
9.084624
4.461235
-3.423268
-3.555224
-11.128244
-5.711793
-11.629506
-4.469840
0.310586
-7.096817
6.601762
11.974014
-2.682934
3.568407
-3.459977
6.503591
-5.263560
-0.172307
0.665294
7.480608
-16.844389
18.321465
-18.333521
0.201658
-8.479020
8.633052
-7.962370
-2.182098
8.631094
5.236308
-9.816460
-0.961599
4.935530
-0.740116
19.612149
-17.604942
12.614582
0.037875
3.657262
-8.543858
-18.734488
-3.005081
-13.372404
-14.569358
10.733152
5.616132
9.460595
-8.474487
-9.089889
13.172134
4.389414
6.669284
-2.225040
-3.485072
6.625158
0.327395
1.855850
-18.464203
-4.922689
-7.368856
-6.802532
5.684524
6.187567
6.848349
-13.841587
-8.062963
33.436580
-1.824666
-0.337705
9.918820
-2.124910
0.144874
13.672209
-9.924577
-3.723514
-6.151613
-17.799536
-2.148675
1.210900
1.491302
15.688585
-1.463040
6.101104
0.606708
-20.109004
4.664532
9.860876
-22.033500
-19.018013
12.096220
-7.349940
-3.272926
1.000352
-7.145574
4.887347
-4.561360
-3.027802
26.802956
-2.599186
3.327469
5.374140
-4.206115
8.170521
-4.081861
4.797332
-6.395215
-13.317951
4.083868
13.655193
-4.302169
-4.202151
-4.320599
-2.040803
-10.848963
8.373965
7.736662
-9.741519
-6.154571
-12.251958
-6.408560
-14.927044
-1.673160
-6.141969
7.233356
2.370319
-9.695335
-8.579593
-4.500584
1.440322
13.066030
4.847483
1.030063
10.974294
-8.532863
-23.903427
-14.438884
-13.059276
-11.223142
-3.786865
-4.230136
-2.695307
3.614000
9.854464
6.811364
-16.930753
15.420687
1.954043
1.471572
-5.991542
10.450496
-3.860999
-2.556519
-0.105279
-3.525136
-11.614593
-4.390478
5.691533
-0.939814
13.911050
10.289489
5.139639
4.759045
-12.755613
-3.771592
-5.521569
2.294814
-2.209319
-16.245423
-3.986974
21.977934
-10.404060
4.762287
-11.295216
-2.162282
-4.821463
-2.814020
-1.446975
-10.080999
-15.325918
-10.147871
-2.906528
9.306205
-16.807491
-9.534180
6.749834
5.909788
4.395774
-0.838948
-2.990481
-12.233419
-14.324109
-9.485047
-18.329493
-3.726585
-2.267164
-13.856495
-8.959775
3.994746
-8.356809
-1.022466
-10.573214
-1.483924
-14.279366
0.037034
5.907721
-10.529258
-0.149965
-6.464416
-2.676805
-1.438666
-6.094897
2.233251
-1.870939
12.137494
-0.750489
-2.342206
9.572735
-5.966551
-3.336937
6.231639
21.843915
-20.784055
-3.169667
-3.300938
-2.494209
-28.897694
-5.994977
-9.930507
2.095411
-13.789575
-14.015956
-8.487164
-1.458430
-13.307183
-5.857998
-12.831267
2.117271
-6.366285
-19.823622
5.886733
3.401781
9.093710
19.116306
8.755079
-11.448178
11.820296
13.569892
-5.055409
4.387510
-2.391375
1.481914
-9.887511
-14.567496
-14.339039
12.566827
16.725137
1.293416
1.518581
-17.232684
14.232486
0.520533
-0.246045
-2.212213
2.315893
3.769880
-0.210863
-2.921236
-3.347680
-6.276217
0.330759
-14.266498
-6.776157
1.775443
10.538988
-23.689156
-6.825642
-2.354283
15.963340
-0.149766
-13.531585
-2.425384
-1.926131
18.104558
-6.103866
8.037891
10.484857
-3.098604
12.703668
-18.688654
-2.049431
5.584691
7.198048
-7.868596
2.442238
-21.226560
4.872404
6.174355
-14.507407
-8.729504
-3.105604
6.522185
1.306886
1.961583
-9.512794
0.523359
-4.415941
-2.499925
-13.966663
-3.953082
-19.738541
7.554664
-11.391148
18.257907
-8.517948
1.270654
-8.183688
-8.879360
-5.455223
0.634763
-16.874219
-15.808878
-14.557502
0.745421
2.801111
-14.493968
8.615065
12.326860
1.346311
-1.190798
-12.844630
1.666382
0.342056
10.797420
-4.471348
-10.708358
2.509825
-20.979962
-0.222269
-14.391720
-9.946214
1.889738
-1.702087
-4.895157
2.788006
8.343728
-1.313732
-0.422397
-4.382264
-12.035901
6.747395
8.837546
-17.231593
-14.746183
-13.339270
0.418753
-4.642925
-21.539758
-8.309750
10.564775
5.398818
-11.269720
4.931748
2.118618
7.464859
2.422459
-7.196166
5.771118
3.573440
-15.759003
7.865687
-12.143480
-14.784398
-20.761501
14.503177
0.748213
-19.902381
2.066333
2.068485
4.374724
5.229514
-7.043443
6.530569
5.414557
-16.588426
-5.856791
-6.651921
-1.496565
-1.764931
13.611669
-5.965224
1.021792
-4.255270
-12.169570
6.147218
13.488006
-3.358854
0.898074
-4.025181
-7.078461
-9.888700
-11.174457
-9.635966
4.310311
-7.277907
0.924854
-15.229309
-10.696202
1.469817
-3.406630
-4.382565
-2.168071
11.015077
-1.427023
-0.417489
5.904882
-6.372136
-12.647984
-7.752380
0.865847
-0.787570
10.194360
-11.035073
12.374986
-5.998762
10.213363
-13.292984
-0.150010
-9.547639
-9.266230
0.171440
-0.788919
-2.016681
-1.951310
-3.766242
-12.070241
0.911514
2.718193
2.709771
2.037914
14.264557
22.444860
-7.474586
-3.646412
-7.627794
-18.237556
-5.521226
-0.846765
-3.024613
-6.077632
-7.313031
13.056487
-7.096415
-9.920602
-0.856562
5.543929
-4.788489
21.121307
-11.899164
4.779495
0.093350
5.877963
8.946542
3.962517
-7.725966
-1.235056
-4.690130
1.012279
11.994641
7.583788
-11.029020
-7.633451
8.587590
-11.623059
6.326369
1.264852
11.011879
-0.924278
2.650250
-1.860671
-10.781874
-1.924572
-8.095610
-25.321004
-10.141487
1.883044
-14.603357
6.835188
4.145228
-5.490155
-5.239007
-8.149461
5.428467
10.986145
0.579496
-10.813599
-0.129529
-0.458218
-4.966386
4.687787
-3.467896
-3.914803
12.547927
-10.542991
-0.980317
-13.782423
-2.519277
3.120669
2.475505
1.517149
8.647724
-11.708260
0.789700
-4.930784
-12.556339
-8.084466
-8.291693
-25.368575
15.229566
6.209472
-3.772109
-9.195548
2.522392
4.886993
-4.758172
-11.344089
4.174564
10.690157
-8.685015
3.979590
-2.172130
-1.586287
-21.077477
-3.056517
-3.436404
-9.133424
-2.111890
3.744719
5.476857
3.643926
1.312235
14.252814
-0.408062
-6.365805
0.295711
-2.026159
-2.597688
-8.284491
10.990149
-2.266406
-19.499986
16.800403
-14.924493
-8.760294
-9.909796
4.220114
9.309534
21.658411
-14.225974
-26.072033
5.127257
7.977762
-7.590532
-8.309979
6.616667
11.388917
-3.586532
-1.927539
14.981160
-0.601266
1.059739
19.729363
-6.294424
-9.622441
-11.103484
-8.542921
-5.208912
-8.500161
-12.431078
-8.300285
3.668634
9.367463
8.044514
-2.328277
14.354286
1.945124
15.250548
-5.513053
-8.927203
-3.790977
6.117712
9.705146
15.815548
0.481318
0.443774
15.585703
-15.097864
-9.253784
-1.007982
-0.393642
-10.861657
-10.329422
-7.539754
-2.235733
11.465328
-0.642380
2.997211
5.583170
-25.792195
4.091311
-12.796259
-26.464421
-0.914656
-14.914239
1.902747
2.421196
3.273446
-5.408684
-8.235441
10.893476
8.459733
1.001081
13.169116
7.167919
-5.319292
-12.256855
-7.840406
3.493691
-1.799970
15.673244
-0.392618
-0.308096
10.421141
21.493864
6.873694
9.093186
-6.860479
4.699195
-7.725433
-5.636391
-9.976001
2.673725
-8.406813
6.694382
-0.569981
-14.820501
-8.689573
-5.267426
-1.678229
9.171698
17.062514
-15.461850
10.414767
-4.606367
0.201386
-13.140524
-12.167643
0.689546
-1.336653
-8.146367
-14.222767
2.235121
5.058242
2.800040
5.085792
0.720946
0.153386
5.727950
-16.048957
3.909020
-6.055526
1.418246
-2.476452
5.311330
-15.206930
-13.142098
9.757843
-0.890921
5.922154
-18.636574
-13.800590
1.269018
5.775991
3.352823
8.076019
0.557960
-4.653836
-13.425136
14.220573
6.008674
-8.021427
1.919366
9.120570
1.914155
2.039688
3.143990
3.703168
-10.032443
-2.434387
3.444317
7.819223
10.797788
5.125098
-2.494243
-3.502609
4.667691
-12.948035
15.201143
0.809230
20.517724
0.424845
3.996075
9.689245
-19.581505
-1.248010
18.198341
1.802645
-8.097987
7.894241
14.989846
5.080779
-11.355761
5.166720
-16.730404
-6.444530
1.732673
-4.220073
3.387002
15.349369
-6.902873
-1.160686
4.348898
-2.885789
-14.867383
-0.061841
-6.712881
-19.508053
-15.929122
13.900440
-4.408393
12.264605
9.648068
9.523876
-2.654980
8.717165
13.174690
-7.606423
-1.386189
1.259101
-10.892953
-16.530810
33.077333
5.312283
15.529442
3.004394
7.348260
20.798160
-1.360622
9.689014
-3.206828
-2.542228
16.197426
2.561611
6.335530
3.831414
11.874172
8.600180
2.614594
1.078032
3.638767
-4.424775
-6.969778
-6.969830
-5.305065
-17.594550
-14.435816
7.549061
-0.757276
-3.200749
-10.439192
-0.452744
5.446107
-17.594681
9.632941
-11.698756
-11.525890
2.939065
8.296819
-29.612558
-4.408808
11.241124
-0.640630
-7.928049
-2.777181
7.178596
-5.115133
6.517716
-0.967708
8.884361
3.661183
6.875049
11.439727
-11.265674
-7.614601
-25.236320
-5.946706
-3.827335
6.823877
-1.609888
-2.153427
12.588268
3.664949
3.055762
-6.098595
-1.912922
-6.060436
1.740745
-17.240772
3.944792
20.368528
8.439366
7.379657
-5.561347
-16.719033
9.614072
1.037414
6.495950
-15.647538
5.051739
-0.085241
-0.649620
-8.363025
-2.893364
-6.931499
2.082120
5.764770
-2.093504
-1.185630
6.507755
-9.656916
1.670025
-4.574561
12.481941
9.460290
-7.896898
-22.765354
2.733357
-4.372934
-6.395400
-0.854716
13.069941
-1.376911
-18.274845
-0.698558
13.543037
-6.983425
1.192914
2.946575
-4.027722
3.818375
21.328567
-7.709610
-6.848414
0.418167
0.445088
-2.320290
4.967596
-5.898572
4.154799
-2.481290
5.452166
0.675119
0.064100
8.033190
-20.822209
8.428214
-6.048600
-5.369642
8.038126
-3.372149
-8.801262
-8.100925
-17.521140
-21.347235
17.188202
-0.750890
1.989207
-2.926080
9.103433
9.994327
-22.586026
-0.842049
-5.919503
-11.420642
-0.498048
-3.267136
-7.175808
3.104968
10.511641
10.125686
0.603440
17.529631
5.406207
12.323259
-4.984190
1.244659
2.985755
-4.836552
-1.790466
-13.689291
3.811509
-9.795227
1.547024
-7.026269
9.478613
1.861569
4.171855
-21.284022
3.613331
-11.065953
3.539038
6.523547
-6.640146
9.132497
-1.275337
7.247897
7.967672
-6.141619
-11.294432
-2.205838
-6.736377
6.500619
-0.206459
6.919479
-13.199904
18.748893
-11.437412
4.328323
4.996651
2.988548
-16.603790
18.489379
-1.955165
-20.971488
14.954820
4.241448
-1.116354
-0.060350
5.496018
6.919447
-15.963125
1.489903
-7.850085
-2.738550
-1.764118
-12.564734
-18.267286
-10.005693
13.209928
25.617953
2.680215
-12.502851
-4.925115
-5.207797
-7.475334
4.530674
22.962583
-8.476022
14.338015
22.874287
-2.307136
6.983928
-14.464423
9.069219
-3.799097
-5.993744
2.373950
1.598667
-12.280735
5.149073
-6.518833
9.960921
-6.084381
-12.009246
-14.102154
-5.286970
7.787142
-5.898832
3.456329
12.159023
-7.585343
4.390419
-23.605781
5.885200
20.358983
3.832710
-1.690438
8.625907
14.862909
-5.179571
-5.140984
-1.815650
7.196579
-9.519536
7.327752
-15.566337
-1.591532
0.550996
-21.826515
18.759081
6.473659
-3.995119
-2.162176
-10.832188
-9.679512
10.551945
12.755246
1.829998
4.190120
0.615659
8.096914
-0.284187
1.276305
-7.762103
4.548506
15.165672
14.991049
-3.381051
17.366082
-2.889556
-13.689801
-9.240430
-0.575594
-13.279360
2.736527
-13.355758
-6.765620
4.673151
4.115482
-7.899310
-13.361904
13.787309
9.750851
-0.859649
-1.804374
-7.350991
-2.042098
13.348986
6.141253
-1.993621
-9.620111
-15.948486
-4.619120
-12.195063
5.739129
-0.882349
-1.053310
-3.762023
6.693873
-3.920705
9.879781
-24.113788
5.824975
6.517797
16.791360
-2.630133
6.933119
6.114802
5.884173
-23.804052
-17.138828
-2.263675
-2.952953
-11.972978
11.186352
6.201430
3.846232
4.208512
11.978271
10.474703
13.421153
11.492834
-19.072774
-4.033476
-1.265185
-8.727071
-9.607370
2.144297
-9.627367
12.152948
-16.317527
-1.319330
15.091935
7.138313
1.544297
8.566950
14.061060
2.605958
27.138953
-6.750459
-12.661163
-5.451345
0.312640
-7.939000
-1.065441
5.482301
5.370523
-12.165476
-7.439019
6.575234
-14.125798
-10.831388
-2.779746
14.409734
0.502774
8.257335
6.648049
-2.706628
-11.370160
-8.706837
-4.104276
2.028921
-11.917427
-5.204363
4.432241
3.777839
0.368847
-15.729491
-8.638965
13.545401
-15.673707
9.729146
4.077842
-10.866083
-9.118671
-13.823137
0.094739
0.260028
1.601471
-7.542611
-5.684825
-3.428360
7.495121
8.033820
-3.409970
-7.606579
-3.095720
-1.273457
-20.932293
6.674925
-7.123931
-13.216396
7.512127
-20.387995
5.707153
-10.430624
-0.779375
-6.976938
7.813293
2.070925
-3.091645
12.574427
-20.641852
7.454011
-6.680306
-8.048824
-13.286305
-14.152091
-4.867993
11.580928
-0.264673
4.915268
3.185614
-17.101278
-9.169716
-2.932212
10.497650
-6.875979
-0.865144
-10.242995
-3.111274
-2.867823
-13.549842
-9.580464
1.598691
-19.087157
1.147594
-2.265668
-9.132147
4.550335
12.058241
-14.271235
-1.571200
-10.462133
-10.402485
16.386806
23.486573
-2.671617
-7.332788
-1.996579
6.838286
-10.867005
10.405141
-23.071300
-1.364719
-4.494777
-11.080734
6.106985
11.522407
-16.652893
1.066758
-9.800044
-20.474062
-24.976575
0.962152
9.643572
-13.096818
-6.594052
0.205395
9.004622
-0.693600
3.221151
-4.678340
-2.629987
-20.286894
1.348537
-6.829371
-2.630723
-5.872064
-15.579969
-3.786801
7.030246
0.821788
-8.358819
-22.847163
-3.830799
8.221852
4.919188
-18.325785
-19.860612
8.130658
-30.835518
-11.194631
-2.682839
-7.591975
-6.884726
12.856911
4.532685
-12.616895
6.193790
-4.860889
-3.477876
11.912341
2.647004
-7.867156
4.516091
-1.942699
10.740279
-0.204507
-1.909398
-15.220997
0.492530
-9.411686
-9.343782
2.098469
-1.640928
-4.948106
-4.384146
-2.828641
-23.773004
-9.683948
-2.930256
4.301831
-13.222540
15.732493
-1.722807
4.776565
-10.956324
9.835209
-6.611498
-2.067064
16.717820
-10.057313
-24.009596
-6.677000
11.793799
-7.379448
-10.510963
-8.282647
8.813180
12.825540
-0.844446
-2.256043
-9.639424
-5.364463
-5.080145
8.118023
1.668492
-0.520394
-4.047863
-4.573685
-0.764375
-18.776869
0.289217
-22.738291
16.115255
14.571040
-8.119166
16.767963
2.547470
-1.678533
-5.728957
-11.483884
-4.445080
1.952281
2.193897
6.022907
-1.335615
-13.672396
-4.725421
-6.935896
-6.775661
3.805455
-3.531940
-7.175597
-3.549807
-8.811744
5.429282
-2.536138
-10.692548
-13.362411
-4.982908
2.682199
-16.882961
4.740393
14.513962
-8.917803
0.933828
3.692383
-5.649621
3.957087
3.789673
-2.693219
2.703566
3.316915
12.516927
-22.809903
21.438143
5.127749
-3.408280
4.000938
-3.116230
-4.402448
16.533609
-3.911041
-9.267460
5.952768
8.819960
-3.310590
-7.838209
-23.546242
-3.614397
8.245100
-5.914884
-4.040801
-6.566225
2.768576
5.147645
-18.206167
1.275787
4.484929
2.080756
8.118334
0.222137
-17.839698
1.494976
-0.788435
-11.983645
-17.443880
-11.019395
2.530217
-14.622538
-4.590505
0.932434
1.297941
-7.882232
-6.419081
10.069169
-4.098067
-13.135994
16.825687
4.609564
-1.865192
-3.639063
9.396184
-9.098040
16.250224
-4.946441
-6.928728
8.585559
0.478783
-12.669974
4.046028
-9.602421
27.982998
-10.509608
0.913591
-3.007391
-12.841533
5.812168
8.728895
-9.502543
6.633943
-3.187557
-2.759843
-3.865910
-7.376646
-10.799140
-7.207346
4.152295
-4.947964
-2.269384
-17.222262
-2.905749
2.938977
10.496709
-6.043897
9.354869
-13.492630
11.826202
1.287005
-12.375815
-20.053003
-0.712955
14.247762
-12.915200
-11.624870
-5.788574
-8.815622
-2.143269
-6.850493
2.654605
-8.119346
1.609673
-2.826669
-6.486473
-15.871975
5.828567
3.359662
-19.570537
-9.317645
6.990538
-8.037976
-1.209478
19.949275
2.402562
-4.681798
-8.648209
8.158243
-7.434959
-20.048714
-7.055470
-4.953249
6.944372
-9.630705
12.307127
-14.324365
-11.314675
-7.208977
-18.208506
-13.571443
-11.900263
12.017475
-13.033912
-6.488051
2.212897
0.655828
7.326873
-14.121329
-5.207470
3.281425
-2.805490
-9.180268
-18.555467
13.260471
10.606480
12.563997
-7.250228
-6.013616
-3.370153
-8.993100
1.077965
-10.467425
-5.993027
-0.813197
-12.802698
13.389259
-2.808206
-14.131649
-0.408445
15.360872
-2.451581
-10.946167
-6.604929
1.279182
-17.141915
-3.095729
-3.372622
-10.358883
-3.690992
-10.271933
4.284701
-18.600260
-4.829178
7.765081
4.341182
-5.735387
5.828124
-1.887488
-26.071593
-7.162209
8.276187
-9.606420
-6.190506
8.555313
7.541968
-1.353384
9.693111
8.287682
2.062771
-16.469585
-7.461770
-5.240301
1.540788
-7.169838
-11.569038
4.297611
-3.401981
-6.191553
-7.506552
-16.552749
8.259696
-7.579304
7.721087
1.762028
15.640570
8.722437
-6.343253
-17.572732
-23.152678
-12.203670
5.843877
11.115178
-10.088617
-12.648932
-4.701499
-12.459947
-2.110800
-6.993235
-20.055301
-7.709112
4.771856
-5.070651
-1.860882
-13.465479
3.026050
-9.810234
3.615759
-8.118708
10.733962
12.322630
9.956579
2.529587
-16.782980
-11.094448
-7.327545
2.372231
5.472081
5.449613
-12.777701
-3.647155
2.335420
-2.646711
-1.422942
2.262724
4.443431
-13.594378
-1.027334
10.682223
19.506120
20.289735
-8.401759
-6.213554
-3.194874
-0.328532
-11.584106
-7.453180
-15.868064
-5.710125
3.414937
1.715442
-1.402358
2.190438
-6.683356
-7.282496
-1.741186
4.257912
2.647021
-3.025421
-0.111615
-8.675523
-6.090064
1.589981
-13.642611
-0.584311
4.482443
7.928616
5.548769
-9.239213
-15.313710
-8.385593
-1.087888
-3.324464
-8.204282
-7.203918
-8.432970
1.316831
1.445918
-24.001035
-22.726760
3.312916
9.233721
-2.843800
2.132858
4.021096
6.031994
-9.017181
-0.618503
-2.413411
-4.428164
5.970226
4.022482
10.407379
-2.997034
-14.398808
-1.808086
-7.141264
-4.336927
-10.029653
-7.890440
-2.144626
-10.036802
-6.666794
3.486833
11.959229
-3.319893
-1.863366
-10.706764
11.957663
9.465222
1.155034
-8.786821
-3.577656
-2.915570
0.039942
0.569600
-13.358007
-8.950571
-20.961114
-9.372096
-10.989927
3.186164
-3.665756
-10.812679
4.023080
-3.832214
5.717755
6.188116
2.736062
7.854665
9.155348
-2.952947
-1.802193
-4.504441
-14.434002
-4.863792
-4.169305
-19.088324
11.287122
-11.551327
11.612418
14.034469
-5.575591
-8.285729
20.811504
5.492387
14.752156
-0.627525
1.555211
0.273120
-1.901587
0.882412
11.481980
12.641062
7.070643
-8.307655
-5.526896
-4.867896
-8.374221
13.327528
-3.561029
-14.155723
-3.927280
15.284475
2.908007
18.936965
-9.749479
-6.229733
8.124671
10.877226
2.922593
4.709464
6.475648
-4.991539
11.126043
-7.695291
-2.359288
-9.152246
1.495025
-7.005554
0.480173
-15.730862
6.766306
19.963025
1.157410
4.225244
-21.138302
2.784450
6.524206
0.187944
-12.628103
-2.380970
-2.105693
0.881487
2.516304
-28.818552
-9.228762
-3.978183
-16.970934
7.239356
16.492578
-9.035249
-9.904558
1.779224
-11.889969
8.089584
7.337210
-7.659380
0.414244
-6.997788
2.031471
4.438117
-23.788490
-4.412745
3.355097
-4.184539
6.882370
-9.861573
-4.698826
9.679073
-1.213124
0.079523
1.053767
-2.983150
-1.480878
-5.367420
7.311777
-2.332514
12.128224
4.449348
3.782058
11.352684
6.892649
3.966672
7.643255
-19.078205
6.797004
-19.409943
10.587888
-13.377401
7.653622
5.373775
7.035881
18.264033
-16.606803
-7.519183
23.287133
-16.132815
8.701788
-3.131743
0.552072
-9.727999
3.799369
-9.194718
5.017930
9.832387
-8.771632
6.092078
-0.760002
-17.911839
4.576110
-3.547938
3.368885
4.685964
4.250235
-1.405540
-4.289936
-6.285003
-7.846583
-11.986194
-0.102673
-8.206247
4.405093
5.802777
-11.319714
12.334822
-0.274124
0.318571
-21.294073
-10.237059
9.822463
-13.400877
-6.633206
5.439491
23.261208
-14.001732
-14.574155
-8.944208
2.816895
-8.085324
-2.605100
-1.419642
0.541407
-14.403077
-3.412463
0.939423
-12.269582
3.504421
-3.251374
17.276039
-4.006142
0.080139
4.261730
9.259268
21.404395
7.424094
13.009215
-2.854928
1.230213
1.995538
7.339259
0.423980
-8.683909
7.547397
-0.811759
-23.739370
-7.821795
4.351009
-8.469164
-4.477442
-4.809880
-11.042385
-5.685099
6.369268
6.844700
3.535274
-1.694248
-1.215963
0.337651
0.373712
12.917314
-11.108593
-12.251424
2.691284
0.568422
17.422276
12.073181
-1.551655
-5.504228
-19.777341
-1.587844
7.369800
-21.475280
8.988307
6.874894
5.997277
10.100910
5.250900
-8.626173
-7.064471
-3.391809
-13.566374
-7.120304
-7.115823
-7.192929
24.872857
-10.069235
-4.556175
4.761937
2.686672
-6.482037
-0.557487
2.238399
18.873022
9.519805
4.076686
-17.768884
-1.282329
-10.155493
-6.987150
8.888313
19.194338
-2.870206
-2.999158
-10.147689
-13.204067
13.217057
-1.308058
2.979234
-14.159328
7.542956
2.264910
-1.508743
14.392513
-4.108704
-13.170359
-12.946675
-4.128567
-5.840029
-6.580083
0.683646
-18.762363
8.105654
21.516196
1.201973
-11.890562
-0.261458
-1.063276
4.103895
1.426587
-16.946262
-8.714031
15.333962
3.210877
8.488178
-2.736922
1.502824
34.641480
-13.726617
0.163413
12.562479
-1.373192
19.874791
6.857162
11.397426
-3.722773
-0.455770
-0.349118
-2.240953
0.922720
7.463610
-4.937508
-18.080486
1.051203
1.511931
-6.134996
-1.704426
-9.210135
-8.772149
4.736387
-14.180029
-2.193750
16.755448
5.778666
4.965808
-11.384751
-7.228465
0.931892
9.332243
-0.502917
7.497440
13.651707
-1.061806
-11.623889
4.708433
11.682778
2.005541
2.440523
-3.366567
-3.270479
6.682868
-7.553374
-5.267958
-5.306646
-10.793934
-5.395459
-7.033413
4.697607
4.103517
13.327180
1.032382
8.025129
3.158662
6.629103
8.195087
-0.248328
3.752783
-8.496884
15.498511
5.937671
-1.286018
-0.135636
1.765722
-18.324251
-1.802539
21.804397
6.321572
-0.410878
-3.059730
10.056414
8.651601
9.870726
-8.986948
22.577726
12.113225
-7.171026
-21.794526
6.565860
1.789943
-17.079682
4.847926
1.788618
13.789130
-10.238739
5.903794
0.799360
-14.333212
-0.270383
-9.048930
5.100710
6.210191
10.890980
-16.968187
-4.239350
12.950276
12.148649
-3.437687
3.766326
-0.429984
6.917361
5.097217
-15.618563
15.611824
-0.032016
15.415342
-8.165475
-9.468429
-9.863362
-15.410467
-15.574103
-21.325513
0.060641
9.499173
-1.436096
-0.740574
14.232376
-1.242227
-2.858260
-10.113178
2.893369
-8.168139
8.418706
-6.139218
-24.505567
-9.723472
7.467102
-8.631229
-19.879882
0.354160
-1.097737
15.436794
11.576836
7.430756
-16.884503
-13.945805
-5.599778
-11.931571
-4.860676
0.730532
12.605209
8.740255
4.359200
-0.390191
2.626252
-1.016597
-11.364122
16.125885
-4.537379
1.428000
3.794843
-2.791913
-4.116828
-13.668244
11.392009
-6.554080
-13.714802
-8.865325
-2.055463
-6.206155
-16.556518
-18.720801
-1.318221
2.857593
-10.104458
-6.841611
9.568906
0.673358
0.747205
-14.142884
4.393582
1.123932
2.770403
-6.353083
-3.922032
-1.456800
-15.255761
-5.913735
2.856342
-5.346954
-3.361601
-1.645205
-12.213207
5.159717
-6.460876
5.529682
-14.608567
6.715676
-4.556963
6.601500
-12.938125
-12.622207
-10.735598
-2.743740
8.264597
11.860190
-1.846544
-4.999318
-4.831684
-7.101188
-9.060265
-6.394521
14.064650
-1.630090
-3.650018
2.879566
-15.234799
-5.022383
-9.960715
-11.348990
9.060987
11.779337
0.862474
-2.539142
-15.473419
-3.324573
-0.422692
-3.230546
2.778713
19.040436
10.837965
-7.818517
-1.667508
-14.887288
-0.994121
-1.851234
6.771952
-3.154230
-10.117151
-7.220407
-17.820045
6.857728
0.070312
-1.451026
-11.977753
-23.193393
-8.026706
-16.146912
-7.311223
6.994685
-10.994649
8.373276
-7.839410
10.833224
-0.582108
-0.892460
3.243233
11.627758
-5.534929
-7.388385
8.213423
-13.766730
-12.735807
-9.365446
8.574295
9.676170
-5.030335
-12.751445
6.447326
10.616534
5.921192
18.379725
10.396415
-5.935689
8.024340
2.787714
-7.720368
-10.184541
-8.302569
5.990627
-1.698964
2.598021
11.467767
-8.008953
6.390467
0.902407
14.497738
-5.223542
9.442752
1.448488
3.557095
9.926256
12.656430
-10.678084
-14.216979
10.312141
-13.179133
6.062258
6.801660
-9.181089
10.107594
-21.485948
-9.054109
-12.566716
-13.459369
-2.328952
8.804843
4.650662
11.382417
-6.540734
-0.808192
15.619490
-11.863415
11.662728
-0.272029
-4.303760
-4.600709
-8.421797
-11.269967
-5.097034
0.447113
16.920477
15.684339
-6.308818
3.028362
5.912793
-2.985477
-10.262179
14.349692
-26.248349
22.587293
-1.380634
-5.302796
-2.809952
-6.227955
2.294077
-5.663769
10.257848
-8.996857
13.016096
11.965027
-9.857914
18.247272
-5.207397
11.750762
-18.884387
23.401428
