7.616467
-5.341938
4.471129
-12.096451
9.566226
-5.592874
4.073129
8.368323
1.360285
-3.693552
-11.547654
2.853452
3.074099
6.700517
1.163223
-9.106240
-8.356657
-12.103443
-14.960930
1.213647
14.155761
0.036212
-13.081695
12.679490
-4.696029
2.565954
-8.764476
-7.130359
15.906804
5.849609
-1.257348
0.719968
-4.243357
-6.428842
-8.526449
10.240245
-11.530335
10.806018
4.948450
-0.695808
5.331564
-6.058441
24.030634
-4.247416
7.597962
-10.406090
9.906176
10.764330
11.158490
4.185940
-4.509617
5.991008
0.698398
-8.256219
-4.143655
-2.568626
15.777470
-10.574054
-9.609620
18.707698
12.152119
-0.363947
16.787833
1.143943
-1.463894
-17.006058
10.693111
-5.027124
10.539455
6.769288
15.336427
-9.834267
-3.506713
-14.465530
-6.051554
-5.868847
-5.915694
11.666048
7.801415
-6.966525
-4.240375
-12.477188
4.157283
7.962651
-13.651373
18.548028
3.948212
-5.345092
6.561685
15.702144
-10.897004
0.723557
-3.428647
-3.924367
-8.902293
-5.460886
-8.709840
-8.652851
-0.850436
-5.683878
-5.138537
-1.028882
3.753912
-5.975712
6.098282
-19.034755
-18.221199
-10.963085
-2.907828
-16.801407
8.344482
-10.682545
10.624578
-0.518430
5.916401
-12.177356
7.968228
17.237020
16.762621
-20.969879
-1.805711
14.034609
-21.301189
-2.451883
-1.772964
3.127578
-3.436051
-3.233046
-12.759930
14.292275
4.167605
-15.892677
18.232533
3.542034
-16.663302
2.693982
-22.299833
4.030882
-11.147677
13.896173
8.359490
-6.518374
3.043777
-17.823237
24.311717
1.009161
-7.116770
1.014518
-20.277321
9.948601
10.460185
-9.008084
15.130888
17.405386
3.490062
1.081183
-4.414481
9.150138
8.445378
-20.381613
4.511573
-5.289400
0.617428
13.397810
6.729992
2.016340
0.738853
14.433430
8.307640
0.625949
2.854721
6.030494
9.570322
11.667643
1.583517
5.505199
-2.854515
2.569904
3.624871
8.613992
-14.423425
14.118351
-0.470221
7.193696
-12.110131
6.547712
15.299756
0.267664
4.693275
-3.022571
16.355939
-15.467563
-5.799745
8.410164
-4.113507
3.563865
12.307196
6.890263
-16.246765
-4.447051
-9.612218
0.441431
-1.576680
-3.357836
7.710005
4.382568
1.339404
2.974629
-0.585010
10.399419
8.492142
-8.518894
15.051610
2.309822
9.968493
-6.892850
-4.558845
-7.088201
-6.019608
-15.998089
3.151914
10.679954
-3.948398
7.712847
-6.318002
-4.718571
-21.055793
11.761541
-8.651447
-4.323766
5.617301
4.227497
5.135768
-11.669415
1.941199
-4.231636
6.720086
-16.096088
15.317839
-14.248503
0.122952
11.137589
-10.531561
4.894428
2.147425
-17.079051
2.345684
-20.209886
-12.065958
-11.828000
-18.012946
-6.887933
4.034376
-8.803355
-0.981022
-7.488458
-7.523132
6.685065
-1.200348
0.797551
12.601634
16.487796
6.066018
15.379273
8.777103
9.188043
-0.112483
8.540725
5.338799
-17.758428
19.709734
-9.350174
-5.769288
3.960599
-4.876104
-28.902802
9.910037
-12.568269
-17.488127
-17.908308
-26.012488
5.207764
8.449819
0.516850
-11.237077
19.124994
-11.686377
-0.909535
7.548448
6.168067
-10.087446
-5.325921
3.601782
6.488801
-2.669720
-2.851167
16.479559
-3.844644
-5.333301
-0.569430
6.706469
-2.295003
-8.020726
1.926274
13.319400
-11.111015
1.153961
-12.859215
-0.633329
-10.235633
5.748850
13.540412
-8.214675
-2.269548
-7.728497
6.803368
-6.298490
11.693773
-9.128738
14.156722
1.637451
5.514557
3.947519
-9.430850
0.777420
1.106595
-0.785390
-12.201550
-8.852849
-7.061559
-3.940574
-7.426470
-8.150727
-8.584616
-6.874289
0.038625
-0.230722
-1.158989
-1.188390
-11.059600
0.139959
-5.975912
1.871564
14.828920
0.849410
16.198172
-6.659601
-5.111689
-4.220372
1.724099
3.300630
11.164542
-0.697929
1.011688
8.406810
-11.967413
-14.096831
-3.767265
-4.115171
10.243522
1.020508
-9.594797
2.317038
8.653920
-2.986231
10.528930
-6.754285
13.221780
-0.289017
-5.204100
14.934507
2.104330
-1.336973
-14.605390
-3.037693
8.938370
8.408288
0.792324
2.116761
-19.561817
-12.340102
-5.419717
9.907813
-0.369090
-5.278528
4.666286
3.154812
-1.872271
-20.426590
9.029249
-6.206484
2.742175
14.811578
12.321849
-9.712518
-8.598630
1.733547
-7.599347
15.689767
-3.688984
1.769021
-1.719086
7.374896
11.416638
1.616757
0.038611
-0.569421
2.470464
-0.158888
-15.677955
-1.605197
-22.521204
-5.125802
-3.285624
0.876115
1.363196
-11.167049
4.776412
-17.436343
13.504044
-8.470754
1.675499
-14.252091
3.156397
-13.896724
8.772894
-6.897207
-21.163846
-5.041661
-1.062507
-0.148214
3.145314
-2.485487
8.288897
-17.385125
17.275204
-7.401974
6.846069
-11.648067
-0.967081
4.761826
7.240464
-13.016154
-6.724585
15.517172
-9.489558
-11.702403
-1.018100
-9.689019
21.306468
-7.779843
2.405429
-14.256912
-1.509077
-3.941604
4.331077
-6.467431
-18.993956
2.919014
-0.241900
-1.758428
-9.109597
0.354425
-9.149236
2.092101
13.033643
1.269759
0.888323
2.538650
-2.376761
10.536235
-15.908088
-9.751527
-6.736979
3.470390
-1.028385
2.515342
2.294997
6.123704
-2.810143
6.265248
1.618013
-7.030209
17.879226
-5.665229
-0.975186
-6.362763
3.442711
8.938547
-6.002545
11.254192
2.602481
3.826219
-17.666495
14.440557
-2.643254
9.128724
-2.182358
-2.529728
6.874892
-9.481164
9.836643
10.873834
-17.717595
2.447219
-2.008286
5.656665
-16.137659
-1.602029
3.141786
14.530989
-1.737733
8.101565
-2.168009
1.315875
-2.337774
-10.118224
-2.699124
-10.150435
-3.455893
12.609415
-2.283805
-8.152746
-1.799073
-21.940339
-10.046714
7.733798
-3.807806
-9.786632
4.516357
13.943399
-8.987285
-2.892224
-15.946427
2.714442
14.432846
-6.575839
-7.543408
-14.567569
-2.910502
-0.750894
5.233237
6.364342
3.868242
2.345769
-4.390337
-5.255412
5.244567
1.230172
-6.783829
9.737215
7.791681
14.082484
-6.262443
8.503299
14.391518
19.249470
-6.355886
-6.436485
9.032620
-6.135784
-27.451614
-11.111878
7.989696
-4.937624
2.641076
6.670226
0.358452
6.300837
-19.780561
-2.528726
-8.714774
1.503694
-0.514159
-1.283227
-11.197363
-4.822371
8.518093
13.398514
15.218266
6.189182
7.894126
-14.778902
-14.129345
-8.734705
12.038740
-4.238795
9.094528
-6.300637
-0.413679
12.917566
12.593285
7.336786
-8.848727
4.790760
3.061858
1.475600
1.966426
3.634112
-18.485881
-5.147392
-4.054244
-4.711910
-10.650355
-7.122734
1.640014
-20.976090
-7.029869
2.980331
-7.607226
0.993179
-7.047210
-4.995062
-3.254010
5.760249
-3.175275
-2.562110
-10.817064
-1.365953
17.965804
0.350786
-5.192316
6.879124
10.328873
5.585431
-8.857479
-9.786627
5.236967
-17.414961
-13.600900
2.603612
8.762468
-7.208895
3.902123
-5.744357
-13.353203
5.371837
-0.280505
3.244842
-0.782551
3.987107
-8.772977
0.526300
-12.896872
-6.252142
-4.604463
-20.961831
4.383900
-8.760341
1.283022
1.472786
17.521120
-4.513845
-4.043860
-3.243522
-8.152106
7.260367
-5.602231
-19.675096
3.300380
4.309016
2.400327
0.339976
11.999108
-3.035273
-2.979308
-4.834849
12.260978
-4.867956
2.964245
0.194464
-2.065800
-8.067876
11.544394
-15.722614
-13.262719
10.299232
-0.165563
-28.382506
-7.980700
0.229349
-0.411096
-11.801745
-7.251109
0.994458
15.783452
11.312857
0.320423
-21.059544
12.752705
4.741830
-7.275035
-8.834707
-4.203853
-13.846716
1.416370
-6.488550
-3.175074
7.707140
13.504867
10.411211
18.513467
3.213572
-7.835419
-14.565827
3.525323
5.209219
-0.238558
-2.663187
-20.956483
-2.835231
17.567697
12.124439
-18.914799
-5.640821
3.095231
-5.716066
-3.782601
4.997584
-7.684538
2.007856
-12.740906
-2.436697
4.034689
-9.397223
-4.793747
1.061496
22.825034
-7.287258
7.179522
-14.366304
11.052844
0.086294
-2.389841
-10.600521
-10.773544
8.220670
5.762120
-3.349107
-13.414153
17.034419
2.448911
-7.159107
-2.336853
-7.035341
-1.706552
10.982431
4.716944
-6.661337
14.655744
-0.441778
-2.163057
7.116910
-14.381702
-3.941908
-4.429799
12.466025
3.914264
0.045195
-1.706318
7.774608
6.868254
10.663186
7.912341
-2.678308
-4.303922
19.678911
-4.407664
-9.129573
6.792366
14.877430
11.057983
-12.765185
-7.532060
12.916614
12.268718
8.834184
-3.729881
-5.875324
-2.452718
1.597849
-7.497972
-3.214753
3.959750
1.126704
-4.449911
2.551237
0.898202
11.568786
14.883315
4.613907
-8.768771
-7.305444
-2.272959
-10.932648
8.850077
-17.670734
2.250097
12.987797
-4.633392
12.860643
-18.322043
5.423481
9.684113
14.223609
-3.205682
16.711017
1.681298
-0.126087
9.718887
-7.139682
-0.452764
-0.727538
-11.410543
0.209826
-1.786382
23.065202
6.533163
1.287236
-16.958675
7.719135
-12.268710
5.496617
4.653001
-3.350644
1.435076
-7.589165
9.450238
2.780357
-16.866632
4.263654
3.730335
-19.769488
16.781091
6.088181
5.905756
-2.802159
11.001240
3.999424
8.464323
1.885145
0.412181
-5.039289
4.693119
9.875538
11.790122
16.500238
-19.893684
-6.763686
17.996382
16.736254
5.125520
7.688890
10.821762
9.085971
3.207213
-6.571837
2.807603
-11.445655
-20.529198
5.681873
-1.806707
-0.630704
3.185827
1.905869
-17.726842
-8.211521
3.638185
-5.881245
-2.436328
-14.806401
-2.310864
1.565690
-7.517123
-0.837180
9.343334
-2.735575
32.414165
-17.660536
-7.278434
7.949116
-7.463836
-8.040476
1.164069
9.988332
-3.823117
-3.749077
-1.143726
19.783634
-13.376764
-9.302237
-8.322733
-8.481861
-1.562571
-9.388592
11.949468
-7.259189
13.073002
-1.061708
13.139550
-3.409828
-8.205686
18.306885
-2.992657
3.143197
-4.007371
-4.685907
16.833337
11.695004
13.004988
-9.898730
13.039751
16.326384
5.714509
-16.643537
2.090059
-2.960318
-2.030653
-1.030111
14.859413
10.023055
-17.486396
5.400318
-1.990365
4.151309
-6.079619
1.246856
-7.022777
-12.808857
2.605016
1.417163
-2.096100
-4.329891
-10.179227
6.651142
-2.740396
-3.712528
-12.177435
-20.493118
-2.164040
-1.394487
8.476914
5.297504
7.870881
8.166245
-6.360536
-15.831882
21.834643
9.897255
-17.751215
-3.393672
2.575657
-21.269038
-14.283332
-27.938872
-2.834399
-1.720151
-10.097190
4.929050
-4.672651
-2.921885
-10.047092
6.526994
6.052216
2.322600
-8.790398
-5.471551
3.043411
10.869219
8.761606
-19.381253
-0.134492
0.009489
-0.223821
6.318685
-5.250913
12.908507
14.497946
-19.388495
8.702977
2.272649
-3.195737
-4.628420
3.365320
-0.555784
3.479290
-5.681530
7.512351
-5.361821
-9.556780
-9.515300
-1.620048
0.178382
3.179115
19.361800
14.416852
-1.691837
-11.690452
-13.178437
1.759032
-7.670234
5.621092
8.640263
-6.529474
-4.648809
6.236804
-2.526206
5.072651
-3.804809
6.446317
0.041706
21.672350
1.021045
-1.018701
0.038973
-1.706762
5.453810
-8.156787
-10.953443
-8.472625
3.687039
11.583031
11.632143
-0.623004
16.442682
3.991497
0.928326
-3.614693
4.949582
11.130296
-14.647906
5.505507
11.984689
-5.223151
-2.421316
11.026109
11.876072
9.621092
9.804523
4.746245
-2.008244
-12.913416
10.289204
-8.396961
26.964596
-1.476098
-0.114062
14.845484
0.150038
-10.480756
7.124346
0.829252
13.646846
12.334374
-5.780225
9.274097
17.169524
-6.540935
14.587478
14.471379
1.894685
-9.319664
-3.705644
6.048656
16.867845
6.285205
-4.625744
7.762311
15.310111
4.394419
0.712737
16.105736
1.903201
4.948101
-9.548243
-10.737082
-14.411837
20.253999
7.138064
0.780618
14.743664
-4.116997
19.040950
5.221067
-6.012013
1.410555
8.029713
2.610650
1.241751
2.462544
1.774576
-6.440183
11.713227
-15.279694
8.501484
-2.103655
-2.677299
4.388200
-22.140465
11.016670
8.887024
2.013265
6.170714
9.612996
-4.262779
7.647033
6.816785
-8.718903
-11.371128
1.446756
-13.029957
10.501015
20.745261
1.707320
21.009351
3.499082
-11.358111
-24.117752
7.208615
-8.029971
-1.732030
7.342836
-14.572433
-10.215135
7.254126
-7.704611
-5.466393
8.316005
-2.423708
-3.193685
-1.054208
2.685936
10.863951
-1.151250
23.596220
-0.699977
9.253095
1.140131
-3.574677
10.353822
-12.960749
-7.433015
-4.711384
5.050378
15.371332
-12.514005
-3.382140
4.462274
-21.025443
0.346841
-13.761358
-11.678178
9.633030
7.395743
2.907155
-1.313036
-13.562053
-15.534952
0.578255
-8.103820
10.323829
-6.918257
-7.625392
13.313641
3.195007
-11.571557
-7.720514
-14.473852
-9.648331
10.248549
0.439638
-11.229669
-3.621762
15.829539
9.317103
0.486142
3.008405
-11.161384
-4.633385
-14.215714
2.553011
-21.152295
-17.133260
-2.024405
7.956028
-3.798579
4.971839
11.019760
13.997315
7.826816
3.466144
12.489504
9.286868
-1.569240
-5.782117
-12.406687
6.865806
6.290366
-16.713183
10.009560
18.085128
2.785135
-16.764180
2.584015
3.697130
9.597771
-11.443627
21.082307
-5.359798
1.526051
-5.934972
-0.661645
-9.127284
5.715165
-1.720369
-13.482700
-8.610003
2.518622
20.207769
-13.696511
-8.561320
-21.623550
-8.476500
-7.247079
-8.034589
-2.914031
-5.533745
-4.602129
5.325811
9.447665
8.746660
2.317769
-6.450855
-6.937061
8.066296
-7.405018
9.452058
-13.175632
13.108479
-6.343150
-8.232028
15.268658
5.885594
1.458899
-9.084796
-0.054453
-0.593029
2.489813
3.103725
13.508398
11.063705
26.887134
-1.653096
-16.655879
-5.981765
13.999395
3.528955
-7.940254
11.288510
10.545643
0.680062
6.927041
2.153086
5.091763
-13.438863
-0.409968
-5.613021
-14.091625
1.271611
-2.803191
1.533624
-8.287862
1.720799
-4.675120
-3.616655
-3.421533
-6.285453
-4.560373
-7.326624
-15.314992
-0.025308
-4.894987
-9.544232
-3.969441
18.698401
-1.147436
-0.694261
3.275498
-9.715487
-14.344495
1.708418
-0.216092
-0.875392
19.004305
-6.273534
-14.008744
10.322782
1.609193
7.184565
-9.872746
5.288747
3.728822
-0.761274
-4.591637
-8.863781
-9.322866
-3.419961
2.131953
9.053311
1.355194
1.488334
0.809484
5.022044
-2.387719
-4.238568
-2.517035
4.317494
-1.468623
1.846826
-3.176513
-7.924262
-19.562057
6.121959
-9.729996
6.382610
2.582362
0.871803
6.289267
-19.520296
-9.670435
2.293400
-7.730898
14.910489
-4.670158
-1.124974
9.348947
1.105654
-5.363235
-12.571603
-15.030777
2.773641
2.333950
-5.125589
16.150176
7.497125
-0.897861
-17.684536
6.215355
-3.722468
-7.642803
10.019841
13.810610
-7.479331
0.029921
-10.514129
12.798250
-13.436160
-20.146833
6.939147
0.564946
-12.443044
2.240750
9.740660
1.139776
2.667600
-9.337418
10.146946
-9.965566
-7.207277
-4.753946
13.674985
-13.155771
-15.808388
-19.772635
-1.748512
-1.646791
12.716983
-7.786145
4.654386
-15.365564
-5.699839
8.974850
-14.344713
1.087188
-8.353159
21.088356
1.015364
14.240524
4.907319
-2.372227
10.980844
18.276917
-0.527664
3.596894
-1.653068
-5.092934
-9.259945
6.966131
-10.988618
-9.952855
10.569023
12.093868
10.169071
10.089958
-20.435884
0.360859
0.017229
-0.579281
-2.605396
-5.835937
0.723147
-0.495613
4.099600
7.996093
-3.319970
3.528965
-6.098502
-2.890764
5.482137
8.597997
-5.526718
0.554133
-3.809925
10.765865
-0.411017
-2.505276
15.226126
12.354342
5.137013
-9.191789
-9.542107
13.883037
-5.733518
-10.087152
-1.851069
-10.883799
2.136810
-8.036951
7.559933
-5.887402
-7.710239
6.135760
-3.285314
-6.567197
2.402428
-5.025779
2.996356
1.584652
5.967011
-3.131954
6.483054
4.366873
7.459639
12.019375
-14.300881
6.887456
3.303158
-9.883851
-1.254606
-0.850747
4.117776
-11.252474
13.371123
-5.640664
-8.835576
8.818520
0.560534
-5.577705
-6.562631
8.329584
14.900991
3.641832
8.820556
3.810030
-21.807281
-6.141949
-9.778821
1.187878
10.130089
2.968100
6.858990
-6.931191
5.586979
-1.882222
4.008474
-4.538156
9.694581
4.693868
1.366809
24.657830
4.797149
9.463087
5.451294
-9.316628
10.125659
4.061017
-19.960000
-0.407175
9.964386
8.397855
5.942955
6.957751
8.668619
8.465730
14.381994
-1.751867
5.024962
-1.778132
0.511906
-3.583868
-1.815558
-4.289479
-13.731081
-0.804569
-13.200739
-0.991803
-11.654717
5.268732
7.636903
3.524111
0.555842
20.282392
8.944642
5.466897
-11.860347
4.239735
-11.449428
1.011081
-9.555357
8.557594
-0.204323
-4.455640
11.836022
-1.545177
4.703229
-14.813466
11.755372
0.617354
3.661941
-9.337890
-9.782975
23.699579
-15.095570
1.846388
-23.582561
-18.762491
1.377084
8.413992
-2.404142
-2.021490
12.080640
7.936521
-0.919322
9.237611
9.838041
-0.588706
-0.591042
3.813211
7.907240
8.368396
14.330592
11.556208
-4.938267
-3.210750
-12.523799
-3.935842
1.884900
23.200328
-7.088021
-8.893546
9.554863
-0.278858
-3.615222
7.927340
-7.568258
5.583184
2.841455
6.089910
0.110555
0.239412
11.477580
10.237144
6.218722
4.425469
10.449431
1.350217
-8.810166
5.821872
6.200990
5.895081
10.033590
-0.152060
-11.753993
1.504095
2.565036
3.600705
-6.301498
-7.505491
0.384174
-4.896707
17.747414
7.243886
6.066284
9.379960
-3.266008
9.541240
-4.509646
8.376051
26.307124
16.628331
-13.570515
12.839512
24.391760
18.565550
-8.402446
-4.190391
2.938451
-10.902817
-2.644759
6.311039
-12.743981
13.243736
2.876955
-9.448389
-12.382368
4.194668
2.500756
-3.136504
-14.971872
-2.105906
31.350419
0.478805
-17.465280
11.971246
1.720965
4.754222
-5.477601
7.522058
-3.082932
2.797716
-0.227927
4.333488
2.913020
10.008269
-4.302348
-6.851085
2.041986
0.808640
6.866546
-18.000444
3.831882
0.607078
12.010676
-4.773997
-9.490254
-4.330855
6.767410
2.435754
1.902918
1.283252
33.476750
-1.007180
-4.481696
0.945581
11.799712
-4.268471
-1.734762
-7.022468
4.976213
-0.370552
-0.463518
16.952223
4.295381
1.319615
-9.354776
3.022660
12.622085
4.625786
-7.838435
7.414958
-12.587393
7.609761
13.626419
-3.846329
0.502326
-3.811601
8.005841
-16.362138
19.155018
11.035235
1.571928
4.830322
-16.159869
8.498649
-4.974488
-5.256518
1.392833
-21.654555
18.170214
-10.006667
6.440450
5.103577
5.605853
5.978599
17.171580
2.692912
0.394439
1.863385
5.726311
-20.991678
7.008961
0.400497
5.879403
6.205364
3.019298
-11.575117
3.642990
7.265207
-5.844198
4.555420
-8.583068
0.498776
2.923557
24.428393
-15.261843
-8.738218
3.196667
-7.646404
13.889340
15.177289
-3.334876
0.902303
2.179955
-1.234599
-9.606491
-22.428566
-1.586688
2.832760
5.628488
-8.231606
7.096279
4.156925
10.486471
3.384005
-5.411680
-3.658239
-0.523096
-0.162005
14.728752
-23.848543
13.266797
7.631479
-12.204773
-3.172940
-9.299273
-9.033478
-5.760861
-10.510767
-0.634611
1.164100
14.107585
-3.214489
-4.707693
-1.925907
-15.908703
-12.563498
-11.356267
-7.026861
6.321196
4.127964
1.496725
7.666193
3.372720
6.945897
-3.234219
-11.053701
-0.504715
7.687323
-5.280181
9.306511
-1.429414
11.151773
-12.335883
5.089544
11.392968
-8.093712
-1.041836
12.526562
1.835608
4.812384
9.930264
2.723616
10.010651
0.347194
-11.613487
-8.054060
4.189440
-13.107031
15.065379
-23.687312
-5.248219
5.321757
-11.268492
-0.672706
10.433474
1.858134
-7.517666
-2.313669
8.222138
-18.661785
-9.548876
-7.090915
10.336156
-6.118896
-6.034281
-4.757637
-0.438426
-15.493553
-0.283736
14.884055
15.923114
-1.787676
-7.801974
-0.226490
-7.729088
7.487742
-5.183875
2.417926
3.724985
17.248142
7.038421
-4.110938
-9.539627
0.898932
2.137393
-0.692395
0.073601
4.161651
3.387772
6.027301
-2.242123
0.583716
0.813802
-3.607266
-6.587146
-8.602030
14.859961
4.911725
5.630892
10.806176
-10.927410
20.189248
8.039400
12.444199
-3.956326
1.033804
2.229471
-9.499094
2.227757
1.014293
10.602952
-9.453325
17.640702
10.269799
-11.550254
6.695557
1.241447
-1.222049
14.775635
-2.588519
1.857905
3.803427
-18.888350
-1.846773
5.228771
3.090028
4.031234
-7.516242
-2.375140
5.370109
-5.797151
25.128089
-3.946006
7.193904
-15.377103
1.159791
9.848465
0.717880
25.188061
5.160225
12.335413
-0.889151
5.454657
-7.907569
0.209493
13.061547
-6.756350
7.352475
5.819411
-4.889760
5.553351
21.467907
-12.814011
-7.643131
1.833434
-6.180575
3.799603
6.333708
-5.060500
-1.984099
16.658373
3.676920
8.496936
17.036602
4.970416
18.028867
-23.624119
-8.869166
-7.471963
1.230545
-1.217063
-5.122287
-3.421941
-12.532241
5.150691
6.530864
13.062915
-14.745157
-3.702747
0.929540
-6.350458
-4.442046
4.281829
0.099585
-14.013879
8.184701
-0.969789
-9.246514
7.503655
1.910098
6.741536
4.384196
15.184760
-8.674827
5.947599
-17.248615
-4.754645
27.914472
-13.389595
-18.196628
5.717633
-15.056533
20.085172
16.119855
-14.060970
-7.893779
-14.086143
-7.280962
9.334248
5.067569
-2.709098
12.819523
-20.767911
-18.419630
-13.661962
0.625791
1.873096
6.066851
13.785957
-0.713294
2.898446
-7.441218
1.144193
-3.271252
-12.197437
-4.449133
-7.825458
-25.247939
0.744736
-5.136808
-2.358178
6.699389
5.358498
-11.500211
-1.813494
-1.887168
-0.760550
-1.100347
-6.001929
7.356722
4.891167
4.231950
-12.489365
-17.365184
5.079655
-25.677260
-5.518885
-6.789772
17.546258
15.498314
-4.876480
13.833354
10.350548
0.789927
-4.835046
-4.294748
20.201315
11.493821
-6.987995
9.936957
5.274066
22.681847
6.478375
-0.446735
-16.651079
10.827131
2.818402
18.342376
-10.232299
-4.882699
-7.178798
2.519129
-9.214015
-3.246935
-23.425962
4.346587
13.456648
1.867227
-2.661549
12.738269
6.490633
-1.976230
15.984896
-1.547640
12.089376
-13.964508
-9.750791
-2.348629
-7.580090
-4.811892
8.094922
-9.180589
10.291243
10.525394
29.905856
1.804786
6.852394
17.794132
-7.255247
3.755056
8.065464
2.239728
2.622407
3.200995
-0.627215
-4.692528
-0.019376
7.124855
13.264847
5.144401
-3.709071
-1.477274
5.288357
-29.605267
-0.558987
3.009933
-16.544030
-13.553822
-7.557196
-10.049977
-17.569627
-3.112342
13.132656
-8.827131
13.056834
-2.119796
-3.130619
20.425813
-2.239747
-3.606566
11.037368
-0.895141
1.600369
-6.811140
-15.646456
-4.726861
-4.021052
5.297337
-0.611335
0.563588
-1.967465
1.999664
2.044046
-8.807283
-1.321852
0.849912
-3.043557
-1.887305
9.032827
-9.111951
-24.570105
16.099004
12.352872
-4.736028
-2.972033
-10.744368
2.620018
-12.409715
2.862741
17.310573
16.034859
-6.108110
-5.578627
4.538057
12.958095
-3.667637
-5.005431
12.133214
-11.844268
-6.283225
0.672341
-14.665667
-6.861716
1.427236
-7.027330
2.190212
-15.657615
-4.074697
3.321381
-9.696331
-12.081012
1.005091
-29.423623
9.374780
-4.232766
4.239479
-4.489197
-7.408115
2.313669
-0.139958
4.154656
8.149740
1.390930
11.497408
8.485688
-4.510071
-25.096745
6.509577
-13.319527
15.846063
5.350026
-13.031861
8.414975
9.922086
3.140800
-6.579208
19.937541
5.784688
-3.430707
-19.692542
-8.768767
-1.258152
-3.058733
8.156361
7.351207
9.252841
-12.691681
-2.830011
-1.163577
-10.116169
-6.358150
-12.996287
16.908801
10.650048
-34.385120
-0.127775
2.648253
4.414552
-4.095366
10.290844
12.837025
-2.201300
-7.987400
-0.077035
-19.292880
1.951432
-5.145352
-1.734677
-3.437874
12.285411
5.685279
-2.538728
3.830585
10.863487
-8.849452
11.132135
-3.413396
-7.217665
1.011308
-12.945620
-13.496534
-20.712468
-1.403146
15.437023
-5.479243
-7.061449
1.053189
-5.620088
-6.592420
3.037100
2.538382
1.346220
-6.580125
-5.478052
-4.738070
1.327090
-1.837411
-4.020434
5.357436
2.271428
6.433943
10.022688
-0.640754
-10.265325
0.296911
-10.771288
8.918296
0.362475
-0.680221
-2.377695
-16.946575
-1.680871
5.242817
-8.511834
-2.032770
1.684512
4.725385
-5.911984
-3.976935
5.889876
10.354973
2.560244
7.524484
4.517093
-7.558756
8.132549
-7.406597
2.099292
-5.989003
-13.037983
0.710198
-0.888420
10.179255
0.400451
4.668998
5.215472
-7.273510
-4.936635
8.387606
-2.382826
1.789030
7.063891
3.106167
6.244348
-6.943074
-6.366522
13.256833
-6.732460
-4.858578
-11.273944
-16.041422
-1.875649
-1.405056
3.160033
-18.117053
-14.501057
-8.456197
1.732333
-0.589697
0.643040
4.548105
-18.543413
15.171965
0.744601
12.299249
-7.037392
11.856538
-20.449199
-9.660274
-1.750609
11.405011
-12.430509
3.279622
4.339890
0.249566
-19.311005
-0.210545
-7.965439
-7.194798
-11.797824
0.209060
17.923053
12.366754
0.561402
7.700916
12.014265
-4.865823
9.960919
11.997812
-5.101436
6.348489
4.807657
4.351850
6.305367
-9.631442
-1.871354
-4.828138
-0.619022
-15.096793
7.954714
-13.402636
18.434714
-4.514069
-1.206369
9.212517
-0.593547
6.599573
-2.510185
-7.950559
3.426354
-9.365458
1.573095
-9.521690
8.716958
-17.872104
-2.217269
-1.918952
-12.684533
-3.135571
-12.887649
2.663015
2.194272
17.393044
-8.655736
-8.790252
1.871719
-0.686044
4.888809
-3.081020
-0.531447
-2.463843
-7.054828
-4.520474
29.179236
3.632918
-5.558637
-14.506326
4.668374
-14.490310
-2.441875
3.834830
-12.618396
5.316327
-15.872426
-10.907538
-8.568742
-10.764091
2.628130
7.039513
-0.881566
-2.077083
-4.160979
-5.838164
2.693240
7.659102
-13.193421
-9.338877
-8.417569
-6.565654
-11.027832
-6.538713
5.344129
-6.580353
0.057669
8.578416
-7.223546
5.878323
3.331870
-7.927750
12.021498
-5.348455
-8.684940
-10.886144
12.234802
0.319575
14.237315
-0.472435
6.232274
-16.546572
9.769943
4.721280
-9.466475
-4.695062
15.338280
-9.137092
16.903344
-17.625640
-9.292174
6.352322
1.042681
2.153560
6.111134
-12.927656
8.445579
-0.785398
-0.881707
-8.848841
-1.372708
-2.620471
1.045096
11.800456
0.025829
8.190707
8.959061
-2.986618
-1.720223
-9.291991
-1.558887
6.319523
-11.680983
6.866025
-7.023345
-16.646833
7.908602
0.941468
-16.583079
8.891656
8.767594
-6.758575
-7.831948
18.750867
-2.622861
-8.929818
-11.792360
-5.938074
-11.989967
1.854377
-18.005046
2.958829
-7.618001
-0.908685
-7.160710
-27.220590
-4.940375
0.274194
1.497955
-10.679824
8.508415
11.858386
6.365447
4.438303
-5.800655
-14.207035
-23.414281
4.528689
10.443929
3.140399
14.985659
9.643170
-8.049020
10.343778
7.010697
-18.597389
5.571309
-2.847352
-10.283460
2.309596
6.482336
-6.379958
-8.100777
-20.383205
-6.765882
8.918159
8.117942
-6.513975
-10.060197
2.004543
-8.550482
9.880703
-6.814065
-1.395888
-13.209580
0.289706
5.332107
18.796054
11.197414
-0.822192
13.503420
0.625460
-10.758440
-8.460901
-3.712917
1.909110
-3.960883
1.879047
-5.391710
-7.233157
-13.401529
3.553209
19.227375
-2.699657
-1.913445
15.770664
4.037552
9.314977
-3.303643
-2.340178
24.908841
3.980654
-9.268616
-2.665697
18.990323
-4.068163
13.184812
-16.507483
-3.677310
-14.648499
6.706986
7.190428
4.299128
-7.462389
9.918669
0.753024
-5.782075
-6.688890
15.093197
-2.242673
-0.290966
8.860405
-19.454210
-3.945307
-2.537710
-23.082475
8.161297
-3.100154
-19.401242
-1.753032
1.010473
-4.375838
-3.362484
15.902000
1.813259
-2.352321
-17.153564
-15.494063
-2.801912
-8.437505
12.473766
-8.478423
-6.279260
5.469044
-1.402555
-12.010082
-5.176572
3.583717
-7.523034
13.423675
17.521522
12.196804
-10.250073
11.079911
-3.710467
-1.203140
-18.407472
0.330761
-6.004834
-15.061695
-2.217354
-7.114668
-14.228098
-5.963165
-7.586886
16.542554
-3.898283
-2.319396
-13.473180
-1.047234
-2.468057
-8.412386
-0.293571
-0.246675
-15.247700
-0.502861
3.205954
-16.576869
2.201359
-1.456963
-7.318906
-3.244486
-8.168374
-1.762563
-6.274378
-2.900303
-6.503709
-2.814791
-3.637670
-1.837925
-6.091279
-3.544630
-8.605622
-8.387784
-3.985442
-5.450244
4.784070
2.704633
-6.025742
-12.484108
-0.228165
-7.194716
-8.282457
1.957688
-15.769950
0.736195
-6.935183
-15.685150
-17.779714
-21.347254
-12.394939
5.799757
6.415847
-8.515036
-0.389441
-14.715543
8.331182
0.869755
5.963251
29.774681
-2.539930
-0.188087
4.332655
1.665901
2.763830
-5.530520
-6.058778
-4.276256
-15.559245
10.665150
11.347718
9.487130
-17.941463
-14.306970
4.029825
-3.460386
-3.566879
8.948233
6.587724
-5.819436
8.917835
-9.123061
-2.523394
-1.883143
-1.368656
-11.696071
4.820051
-10.151828
-8.040772
-3.578799
6.400526
9.442008
-1.683727
-10.122818
2.372924
-12.910348
-3.731229
-11.691592
6.957120
-11.855435
9.678905
6.917857
0.684579
-1.520983
-1.684056
-4.244594
0.159054
-3.227457
9.030182
0.497305
-13.848372
-11.334012
4.886795
-14.701705
-3.177470
-23.057854
-12.865799
3.046551
12.204667
-8.214029
-16.426561
-5.432603
6.129044
2.741247
6.468287
-13.597039
3.022518
-6.718650
-2.490705
-1.947118
-8.021075
7.866830
12.172212
2.259404
-0.086963
-18.701516
-17.913674
-3.570744
-6.645833
-0.988300
5.765468
-0.096559
0.945075
-7.946506
-21.948162
-4.850498
-11.663960
3.106040
2.453085
-7.944044
0.082255
2.016289
-12.682802
-14.220164
-11.168885
-0.814631
1.992794
-15.309369
2.192840
-10.815245
-10.036856
5.386443
-5.968432
-15.044458
-13.014517
-12.738169
-4.978828
-4.006892
-10.695179
-20.990560
-0.665863
-12.541953
-4.499044
5.414160
8.456445
-6.266869
-3.029700
-6.827367
11.658295
2.670455
1.372468
-9.226347
-16.433160
4.597547
12.738469
1.227563
-0.834119
-10.669336
-8.450868
-2.960185
-20.248407
9.029059
-1.646586
-1.184072
-1.972698
-23.584752
5.100304
1.278337
9.214653
-5.392564
6.849058
-9.234573
1.124797
5.150250
9.272314
-6.208709
22.293919
-3.943710
-15.538044
-1.962392
-0.137386
0.409402
-11.319405
-17.034628
7.707758
-21.233753
6.209839
-7.531450
-15.948951
10.186943
10.498742
1.375518
2.342047
-3.698705
16.454906
-1.401955
3.554125
-18.308183
-2.105466
4.509630
-3.651479
-14.114605
3.405313
-11.915023
18.827033
3.372556
4.015921
8.527235
3.629453
1.862388
6.608166
-9.063268
4.388820
-15.624495
-4.645764
-3.299674
2.571863
-25.481548
-17.978959
-10.686090
-13.063300
-13.014477
-6.790107
-2.568682
-0.050682
8.513856
1.310620
0.700028
0.380169
3.374531
6.886992
-13.742949
3.767813
-17.870228
-9.017877
12.817807
-14.312412
-1.785454
-9.738132
-19.113799
0.684629
5.556327
10.617624
-19.305453
-9.592053
12.427660
-8.844176
6.521488
4.340703
7.833751
-6.209018
-5.827087
1.875430
2.090524
-6.820250
-12.557394
-8.090174
1.064812
-8.159152
-7.329883
5.611437
-5.741889
-5.920686
-8.148713
-17.604299
-8.498699
-7.188986
-4.722450
0.775119
-6.516353
-4.751212
-8.585855
-3.364956
-11.271367
-2.067196
6.721265
1.545129
-7.152611
3.342586
-7.835947
-13.989971
8.150372
3.127802
-12.025156
-5.157142
-16.159046
-3.747586
-12.985378
4.306378
1.416518
3.257316
-8.599438
-12.828549
9.594805
-11.114852
1.377741
1.443148
6.543873
-3.390959
15.362126
-6.635030
-8.843984
6.308788
-7.938405
-7.182096
0.440727
0.436043
-8.400260
-14.707617
13.755907
17.120155
-11.487463
-1.321882
-13.906460
2.843445
-9.641077
-5.907469
3.650852
-0.398880
-11.228066
-8.340430
10.228576
2.528785
-2.813632
-0.669533
16.306079
-20.130156
1.894121
-14.569417
-13.672517
-5.878212
8.659799
5.444811
-9.843391
-10.666512
-4.789856
8.035005
-7.185410
-5.680670
-6.357007
4.084831
17.415948
-11.892704
-11.012179
-7.803612
-5.170914
6.169562
-0.609157
1.669151
17.209282
-25.429709
-6.525169
4.926583
-5.745228
-15.496834
-26.212394
5.310398
-17.628654
8.052467
0.498693
10.934246
-2.160907
-7.572867
3.554628
0.350302
10.204218
18.926673
-7.329120
13.633871
10.006377
-8.650078
3.045317
-8.029508
-6.805603
-0.166440
0.157545
0.237218
5.489447
-14.459746
-6.226850
-10.539905
14.104543
-9.630283
-15.819993
1.914118
-17.410375
-4.602280
14.286591
-7.135212
-32.292634
-3.136613
1.233148
5.026453
-18.196855
3.228117
9.711565
-11.741103
0.310659
-0.459978
3.412738
0.193047
-14.843396
1.118592
-5.917665
-4.576923
-6.541194
6.941634
-7.546153
-21.936042
-11.461849
-4.029231
-1.413521
-6.944673
9.810667
6.038865
-2.041556
7.802800
-8.459944
8.041891
-9.892972
-5.830776
14.933735
2.611210
1.421839
-5.566093
-14.297967
-16.790706
2.628994
-2.759599
-5.354649
-8.538240
16.169016
-11.629222
-11.834576
-9.573222
-1.624488
2.959559
-12.004264
13.691670
-4.624036
12.742359
-5.266516
-16.523030
8.834201
-9.545283
2.745146
-3.670891
-2.774294
-2.204265
-2.313615
-3.513372
-2.788296
1.767318
-9.643886
6.814088
-1.987999
-6.825187
-8.920041
1.333885
-3.704238
4.127386
7.953370
7.868107
4.814289
-8.748416
3.421093
-4.629707
-11.327908
-1.404201
5.909658
-11.622692
12.262218
12.736610
-2.934462
6.227366
0.267916
-11.616061
8.873646
-3.913609
0.988512
-0.023775
17.040988
-6.843427
19.561870
7.017173
1.523532
8.954988
-11.126779
-12.237081
-1.470681
-5.265988
-8.824713
5.617159
-11.580556
2.482089
17.346544
12.347176
-1.916240
0.528482
16.555643
5.435738
-4.640579
12.779240
6.454261
5.820303
-1.486429
-6.418103
-15.034161
-21.233192
8.195980
12.748089
10.311613
-3.659658
-13.613633
-1.829515
11.220517
12.709405
12.120255
-16.434399
-9.511817
-15.530935
-12.113933
-1.338010
-0.799965
1.873019
0.243740
-8.269599
6.374529
5.675755
-13.393943
2.962746
5.155644
-16.820146
-0.802429
6.293999
-2.675878
4.678232
-4.212131
-27.153632
-11.051405
2.815744
7.104432
-8.805857
-3.632832
3.359814
3.563839
0.518932
-7.425084
-18.018400
-22.416163
-9.304843
-2.280905
-1.754088
-0.203714
22.125595
3.794318
-5.673288
-10.266941
-15.979291
5.125964
13.003439
-8.584976
15.244437
11.251671
-12.237212
9.621384
-1.977864
18.443071
-14.454744
-5.094308
-1.011466
-2.360474
9.351778
9.865118
4.455807
-10.127912
2.361754
-19.126794
-1.981681
17.379090
18.704573
5.738191
14.830417
10.465170
9.219928
-7.875217
-7.909775
2.373845
8.283363
-15.892293
-7.655323
2.657166
-5.092333
12.123123
1.612159
5.635911
-6.248784
-3.058156
-8.261172
-25.434389
5.053144
7.292486
-3.170899
-9.222021
6.663487
-1.322492
-2.787142
-15.107542
-2.780074
0.268620
-6.089112
21.785917
-2.766092
-16.590991
-13.819061
6.143933
0.998585
-8.987876
-14.159869
-11.395903
9.772735
-7.347436
1.319459
1.089482
-5.532817
4.832048
8.237795
-14.973156
-1.500321
-0.614357
-2.180344
-23.056747
6.046567
-2.242262
8.238513
16.351527
6.479085
-20.641057
-5.496571
-10.599320
5.985580
-9.920715
16.840885
7.336919
6.202555
-21.029483
-1.109224
-4.179380
-4.804530
-6.421423
-0.654822
-6.069776
-15.980689
-2.340604
7.699995
-8.805509
-2.890984
5.831240
5.247566
10.795929
-4.303995
5.708574
3.994755
-10.059806
-6.604616
11.137247
10.957799
1.733044
8.761226
-9.940232
-12.122709
4.118510
1.833556
-1.080916
-4.385422
-3.255943
-10.289247
11.911206
7.201264
-2.210287
-8.045777
-14.662531
18.574938
1.055327
3.563893
-8.079699
-4.027707
8.385244
0.835715
8.632836
-3.739640
-11.087414
1.236384
3.284717
-8.638351
5.717712
-1.285273
2.390771
-1.561406
-8.678875
-5.344168
-7.496076
5.974310
-13.849062
-1.429497
-8.774327
-21.256548
1.239482
0.062401
-9.396344
-10.081826
3.049938
-25.664784
-6.650528
-3.192941
-0.495809
-1.491770
-10.834841
23.206033
-9.122325
17.202114
18.856785
6.830310
14.991095
4.269528
-7.753511
10.316271
-14.435776
-6.631907
8.664291
3.177173
-9.892048
-7.433401
-14.825910
-6.037123
-0.431299
-4.186583
1.150005
-15.980242
6.234635
-1.122813
-8.837401
11.153297
-5.613277
-1.681836
-22.975536
-17.129385
3.966517
-4.288611
1.786822
9.694486
7.448098
-7.969228
-11.698933
2.298458
9.790385
5.397025
-0.064207
-4.659753
-21.595099
-0.409066
5.970323
-16.429724
-2.463084
-17.434530
2.031912
13.326595
6.541044
-7.228925
14.583238
18.033057
-0.235936
-4.009811
13.912883
-1.871341
3.904736
1.971470
-14.776135
-9.702473
9.470591
-12.412533
-2.207092
4.421522
2.768119
10.697942
15.084142
0.878240
-8.547747
-1.343048
-3.667078
9.097175
-10.309902
6.071509
4.048865
-7.716955
-4.810702
17.981115
-14.049669
7.021135
4.787848
-1.761028
8.423008
6.944225
2.719384
4.094075
-0.435092
-4.444469
-12.474991
-2.081974
-4.665460
5.272074
-7.592416
1.682227
3.402364
-21.022270
-5.383151
-13.798865
-22.765987
-3.482750
-10.576426
-15.116648
14.148297
-5.282961
6.477076
1.236024
-6.846511
13.394385
-12.986109
-15.216526
-16.151291
-4.702702
-7.504278
8.375131
-13.918580
12.145635
9.403028
0.972428
-13.851473
-7.564325
2.400118
-1.913840
-16.365438
-3.638790
8.583419
4.943732
5.445308
8.365394
10.361683
4.099553
-3.367502
8.086511
-2.024433
-14.430125
-0.193835
-13.161515
-1.124731
-1.914740
-4.398169
-7.438481
-2.124407
4.389041
-2.868780
-19.798770
4.640494
6.816767
8.437952
10.076954
-3.548689
9.885614
-2.812962
6.354533
-4.052726
-22.133421
-4.903729
-1.680054
9.245986
-26.635564
-5.083736
-4.836367
7.047265
14.105977
2.174385
-4.025733
-11.795649
-3.647978
3.440965
0.509445
-3.418367
-11.381594
6.001177
-1.752090
5.209853
-5.071019
-4.398642
3.757976
2.720901
1.985101
0.473708
-3.186222
-9.278801
-1.150377
0.859360
-2.418954
-0.047865
-4.757880
-3.931503
-10.609174
-11.722854
-6.188972
-1.825874
5.759873
-3.391479
-6.661360
-4.348667
2.245220
-7.677314
-2.341456
-0.796402
-15.985154
-9.530601
-0.537158
-10.717545
-7.552443
-11.368901
-7.150696
7.691606
1.476438
14.185823
8.163673
7.264065
-9.301875
-1.453626
2.922578
-20.665104
-6.924768
-4.760677
2.900635
0.440788
-13.162478
-13.182062
-13.774741
-16.822770
0.188727
-8.382132
-21.217154
-12.583088
-16.062883
0.817633
2.922860
5.249545
-5.854585
3.596666
-26.166453
3.711783
-4.223788
2.347490
-8.443575
-9.902556
2.792406
-5.297814
5.644706
4.648349
18.166935
7.515344
-5.769941
-4.336891
1.233425
-17.056099
5.459817
0.566066
-6.805567
-1.070607
6.015996
-11.024785
-9.854703
-27.993294
12.171605
0.311797
-21.886384
-6.271490
-6.133375
-1.494466
-4.523734
13.668723
-7.527862
-6.902768
-2.563851
-12.713165
14.999365
9.520115
-18.798257
-21.917532
-2.905187
-6.283463
1.558105
12.799783
-7.808415
1.166979
-4.036481
21.007499
-15.442207
4.525146
2.429995
3.171714
-2.036189
-26.384665
-4.120334
15.900788
-5.662982
12.711079
-20.526101
2.445059
8.036269
0.994066
1.575946
0.548303
6.303012
-6.417336
-8.389893
-23.308817
16.059952
12.575205
17.335891
-8.534381
9.056226
-4.265415
3.230021
8.773636
0.269980
8.006953
-5.407704
-7.580441
-8.791723
3.458296
10.420664
-0.868118
2.903356
-1.117580
-6.829469
1.716508
-9.461676
7.861200
-19.495220
0.645773
2.768627
8.341110
-1.735307
2.438409
-20.263947
-0.490778
-15.071431
-10.041024
5.860378
-0.572323
-14.092966
-3.538216
12.900819
-8.404360
3.396839
7.037382
6.360502
2.265840
5.814896
-0.090696
12.522862
2.777586
-9.875925
-13.948279
10.614423
5.805156
-11.806791
9.025147
1.174537
-15.214346
-7.374649
22.540008
4.897866
3.399179
8.403711
-10.102738
-6.192319
-16.072721
5.132252
5.211903
1.792245
-14.868678
5.336459
-2.814082
-4.986846
5.587166
2.520098
5.898979
9.822273
24.431378
-2.087919
-4.096721
4.555435
5.295264
-0.791311
-3.311518
-8.428791
-7.737513
14.779749
-5.947923
-4.148010
-2.996885
3.613291
-3.752492
7.608592
10.128806
-6.922610
-15.919405
-13.934731
0.128018
4.256272
2.823227
5.029035
6.525950
-5.087125
-2.373557
-0.925904
-2.425198
0.470915
-4.438280
4.219543
6.046175
7.558564
5.564112
-2.441206
-11.108631
-18.201815
5.799619
7.052897
4.939341
-9.367113
12.295765
-11.699667
-6.984458
-2.018790
-0.099356
-0.609635
-5.022114
9.670909
-1.870532
-12.200518
-8.060643
9.941688
3.049903
5.461951
-11.207450
-4.409736
-8.379255
4.579311
-10.072924
0.634157
29.726413
-15.489031
11.839813
5.013149
2.138794
4.952062
2.194939
-10.181319
-3.223325
-14.759083
-12.282586
8.246241
7.009943
2.844391
-10.017316
-12.916183
6.900323
9.531231
19.056428
-0.128000
-2.481674
-9.079234
9.814019
-5.706803
0.909282
6.345541
-13.035858
15.509586
-5.849658
4.696411
12.657133
-3.966952
-13.409581
1.366534
6.726533
-3.644458
-0.418109
-21.868620
-1.385219
-3.630967
-20.904674
-12.995065
7.893654
-6.176069
-3.844314
1.179463
-17.945870
-0.270176
-5.909834
-14.119953
-4.009976
-1.148219
-15.585353
-4.350519
1.727116
3.461478
-9.644897
-5.611319
-6.642849
21.497013
-1.396592
5.394037
-3.305867
6.117451
16.911692
15.231708
4.420488
3.150196
-0.941881
-16.686244
-19.933281
-4.030586
10.576618
-11.702743
4.198863
-7.878139
-6.940367
2.183041
-16.442158
6.719881
7.883697
-0.847093
-7.667466
6.646096
-1.224055
-11.124391
-23.794046
-9.375457
3.994702
-11.652719
3.999332
6.003225
-12.295579
-2.064213
-3.636917
-6.557462
0.251073
4.182673
3.232939
5.176493
1.759290
20.746676
6.682320
-3.614700
-7.636624
-8.592100
-9.152074
-4.191109
7.529869
5.340750
0.466538
1.841886
2.440626
5.175247
2.819145
-1.757116
-4.915218
-21.166203
1.915741
8.727385
-1.841925
-12.067724
-3.632696
15.729152
4.351466
-2.874525
-12.361323
2.902624
-8.354288
-2.429954
0.256615
2.926512
9.638051
6.919837
6.015849
0.054451
16.806431
-0.676152
-5.888277
8.821790
5.602720
11.431841
-0.955801
-4.247239
0.628599
10.860418
-3.913536
-6.055383
17.944245
-13.185130
-16.209962
1.345706
12.926849
0.498552
-3.854815
-17.032211
6.263007
17.794854
4.207147
-2.391381
9.328900
6.758272
-3.738522
-12.426518
-3.280093
-13.175513
-1.317117
9.784308
12.218808
-8.910209
-22.144264
13.303377
-0.213971
0.061926
21.374767
-9.793973
14.312911
0.483386
-22.259723
3.601576
0.903632
1.138729
-6.319922
0.598555
6.441865
1.047014
11.129020
16.344615
13.247483
23.130153
-0.488621
-11.882585
20.020446
3.881418
7.567159
-1.632841
-8.341651
10.065480
-0.530139
1.131505
10.847510
-2.163862
-3.320265
0.881862
6.054074
4.560091
-12.633005
5.851256
-1.674941
9.431452
-10.164262
2.647698
7.391286
4.339870
-8.360089
-10.737225
-14.185721
-4.841758
-5.039362
4.163618
13.350466
1.865637
16.881511
1.838314
14.869281
-1.121029
0.957655
-6.778686
-6.639751
-6.691295
-29.383035
1.456335
-10.566351
-4.490110
-7.434626
3.469584
-11.807850
14.225216
-8.288459
19.654962
-24.935507
-11.539454
3.363990
-3.612448
-10.827447
-5.959805
-11.682842
-5.081906
-3.566367
-3.150624
-2.369901
0.151669
-12.700179
-11.985499
-12.457081
-5.651635
2.517803
12.707427
-0.414390
-9.655160
-5.286629
-5.708620
-6.350766
-6.116166
-4.626377
-6.244975
-20.053771
1.421672
-9.451831
16.556921
-12.127712
9.083149
6.521203
-0.513800
11.772491
-2.763635
-11.732819
10.470060
-0.089225
7.190128
-10.335479
-12.479610
-6.307238
-5.086940
-20.042532
-4.525998
2.373491
11.299337
7.443332
5.630665
-12.576274
2.623068
6.140838
3.175100
-4.296000
5.801901
-11.866282
-20.931926
-5.934926
-4.681474
10.108099
-0.063910
-3.935280
1.803286
2.260271
-5.368833
-9.587751
6.049300
-2.276267
8.997699
-8.803450
-0.420389
12.302759
4.096522
-7.921994
-2.704597
2.901393
-7.361078
-7.126926
-13.499717
5.585103
7.767044
3.713102
0.191790
-6.431982
14.498770
-1.978503
-3.544270
1.469473
-2.287552
1.166682
-13.661143
-4.795910
-3.694743
-5.763645
-7.907994
-8.115652
6.460121
19.332786
21.228398
0.632380
-3.458293
2.090731
-3.382268
13.287356
0.843617
-6.368033
-10.785740
7.209163
1.901912
26.258047
10.779181
8.502206
1.573292
2.463845
-10.519035
-6.153967
-6.403710
-10.912523
-15.862150
-1.659258
16.821947
-19.849987
-15.784633
-11.202106
-14.479331
-18.831857
-11.539489
-3.352489
-5.880763
2.828177
-13.301448
15.568603
-0.829308
-2.735121
-2.627568
-3.162239
-1.293614
1.621910
1.333438
-7.256838
6.254250
-7.461593
-6.200951
7.224027
2.285576
17.312841
12.162055
-4.506278
-2.135383
-4.370166
-7.941263
-23.042432
-7.678772
-6.517015
-7.878049
-4.965523
-21.102099
7.711859
0.364739
11.451942
-5.513753
-7.567786
-0.192002
-14.899450
-5.603216
-3.507504
-1.738552
3.865578
-13.570715
-9.797647
7.705578
5.706043
-6.620628
-7.536639
-0.490657
-2.745991
-22.278084
6.836609
16.861140
-15.972267
0.376524
-2.523900
-1.703354
-1.537745
8.461664
-8.905727
-24.500153
-16.561350
-0.645067
2.084036
-13.093931
-17.390351
-5.374065
-9.385833
-2.963410
-3.538434
-13.610982
6.252657
-5.464376
-6.982799
0.446843
-10.994119
-6.243860
-5.348699
2.242851
2.524647
-10.036977
4.413435
2.526303
-16.249405
-0.599229
6.121822
8.940844
3.742375
-1.179060
4.233724
-9.043738
7.097461
7.078162
-18.122142
0.920698
-9.430336
-3.110476
-7.055773
-6.563350
-23.570750
12.908490
0.329230
4.066755
-0.857061
-10.541843
-5.959136
11.039680
-3.500090
2.016472
-9.427356
-7.401560
-8.521750
-5.569360
12.632743
-3.223919
0.116299
-14.265937
0.514244
1.961691
9.595163
-5.161444
-22.382974
10.135258
-14.684488
-12.990024
-5.812693
1.598944
-5.679587
-5.120227
-0.380210
-12.365061
1.031801
-9.816387
3.884821
-6.040998
-11.192746
-1.861464
-9.049864
-4.255700
-0.940972
6.724457
-3.438137
14.343581
-5.925926
-1.309349
3.939822
-5.571205
1.513903
1.094728
-9.344661
-8.405354
12.752111
-2.201138
-13.806182
-9.322306
-4.925272
-10.326665
9.680513
4.503028
-1.780065
3.914565
0.580201
-13.517876
-8.389752
24.205623
-5.407150
2.820356
3.343993
-7.130218
-1.748455
-8.377311
1.222905
-13.226566
-23.158323
-23.124296
-6.127238
-2.252844
1.335135
-6.902544
3.193474
-8.284504
-2.896781
-8.181812
-5.274691
2.260733
11.987850
-9.030924
-13.065945
-0.539916
-13.343301
-6.220126
-2.728178
-1.979541
2.261315
17.737277
7.209628
12.614563
-6.087720
-5.814365
10.509354
14.697038
-4.244061
0.573433
1.517224
4.411569
-9.086044
5.104110
-1.017296
27.524652
3.476126
-0.590251
6.182856
-0.707773
-1.220928
0.983609
0.263897
-1.903733
-5.671353
-8.322715
4.115607
1.869644
-14.793722
-4.434211
3.250926
10.225891
-1.853510
-7.520385
-12.881428
19.888722
6.540191
-6.139463
1.530953
-6.902658
4.476319
7.186012
-22.833094
-0.791002
-16.384735
-5.042909
-11.721439
-3.795547
-10.012584
7.113410
-7.827774
-7.735258
1.446128
-5.050732
10.494112
9.016615
-2.701208
-8.299072
-20.788695
-2.898407
-5.177276
19.973538
5.820006
-4.995246
-7.743671
12.982062
-12.282486
-17.539095
3.081211
22.585960
6.426845
10.563348
8.573520
5.100334
-0.497274
2.744953
-5.911090
-4.134494
-4.550211
5.197086
-0.397417
9.215903
-8.971853
19.468215
-0.758273
-14.764762
-4.226886
1.630659
6.516197
-11.015245
-3.307066
6.573246
-0.131772
-11.691510
-12.288030
-15.990370
3.349187
-5.829262
-12.920254
1.219382
12.105808
2.915875
-9.895594
-12.957345
-0.600475
12.779985
5.585965
20.729570
-17.476069
9.887423
-7.232561
-0.619621
-1.546153
1.381421
1.466330
14.950013
9.979204
-1.386772
-12.062194
10.324433
-0.423803
9.248530
-3.790938
2.134993
-11.877101
2.406638
4.950216
1.308494
1.821075
8.120902
7.572876
-10.053661
6.720414
15.804267
1.708039
1.040325
10.515121
-4.418472
1.949688
8.166390
-15.162819
-2.391604
11.983889
14.925101
-9.575819
14.994082
22.662314
4.143131
6.778252
14.579961
-2.928017
-3.911313
0.424502
1.291153
8.655716
4.982026
-2.729313
6.031275
2.706527
-3.041725
-7.014879
-15.815860
7.764747
-8.483421
13.248505
-0.743780
-0.536095
15.570729
20.275696
-11.571989
-6.431213
9.080499
-16.791697
2.051999
-18.370646
4.928480
-1.175950
-17.884316
-2.502186
15.873718
6.771443
-17.579762
7.559331
-4.566918
30.244751
-7.775951
1.087459
12.322858
-9.665274
8.716291
-7.096914
-14.897248
-5.553090
-15.476960
3.331817
15.643539
14.793345
-2.558579
-6.741184
3.412958
1.493148
11.400272
2.980063
-8.753215
5.566490
-10.251462
3.781010
-2.906049
6.341366
5.285562
-13.361773
3.555604
-4.699076
-3.631897
-7.127707
7.271299
8.947532
-2.861603
15.985826
-7.997537
3.498069
1.866932
-5.778771
-6.216570
-3.713938
-11.390735
2.096100
1.087728
-5.273198
20.177994
-7.360243
-10.172605
-0.526664
-10.979730
-15.445745
1.444156
3.109710
18.794399
-19.204305
-1.761822
-7.174468
7.059071
3.860462
-13.514775
-2.199859
-1.194920
-2.764272
-4.618067
8.721629
4.716626
-1.541575
6.372817
3.891953
-1.867853
7.262924
-12.694193
7.419764
-3.532791
4.931233
5.320605
3.645769
1.922653
-4.332617
2.687003
9.157583
4.447090
4.041475
0.784906
-18.303904
-3.166443
-6.622251
1.498903
-5.887950
-2.820958
9.831046
9.722939
1.967300
-11.394102
-6.621292
4.066207
11.829542
1.763858
14.639157
-8.212468
-4.121418
-26.547671
17.317025
-9.473107
-3.053018
21.791488
-11.400379
6.877837
11.227618
-5.399305
-7.870890
-4.400954
-6.604206
-7.763211
2.625186
0.548594
12.597587
0.077262
9.066623
5.838005
-1.807885
-3.912797
-16.293648
-5.491692
20.343463
1.874214
0.257079
0.730849
0.910758
-15.568569
4.961278
31.399846
10.909772
2.336028
0.587068
9.882994
3.651256
2.333202
-3.871772
-0.724009
-11.576920
-14.504665
-11.696696
1.817057
9.827543
21.083079
-6.378517
7.183202
1.288201
23.236627
-8.965024
-1.327068
-12.621329
-0.247150
-11.060998
-5.247207
9.795613
-8.021224
16.050394
2.050639
-17.373992
19.699839
-5.367711
-12.929666
11.057592
4.050194
9.051332
-1.825921
-1.333051
10.012986
5.948645
8.287544
19.884968
8.206869
-1.237878
-11.843594
-5.889122
2.216626
3.642180
-0.624677
-5.636583
-14.671916
4.558474
0.030190
-1.987414
-7.431098
-21.656159
6.167908
-5.321010
8.493289
8.494322
-13.353687
11.407391
-0.969247
3.483205
6.778864
-1.705685
-2.221530
7.927332
-0.104063
-5.054638
-29.077625
0.561473
-3.666527
-4.385539
-8.452299
-6.324975
-1.981725
11.268108
3.688427
-3.139172
24.770558
7.463229
-4.678528
8.519405
-12.549533
21.982939
-16.937409
3.460728
7.860572
-3.459130
-3.525080
2.716449
-3.706618
-12.131993
12.383582
-1.406555
-10.117377
12.069831
11.120953
6.801185
1.186292
-4.662301
0.213611
1.527197
-2.238036
7.815233
15.855657
-11.385168
-4.199070
5.900627
-10.715272
8.226229
6.502682
1.907378
5.913831
-1.142234
20.334708
-7.036739
-9.676236
6.565046
-9.210748
8.374971
0.337114
8.054560
11.436355
6.502475
-6.136624
-3.477752
-18.057013
2.946737
1.001783
-0.987969
5.868200
15.165496
8.356583
-8.383173
2.812663
-13.651429
2.165226
-20.811188
-2.081906
22.063011
10.282982
-13.095851
9.243745
-10.178166
4.953302
6.537171
-16.285408
1.910085
8.226695
-22.778540
-5.550155
-10.809160
-11.442286
-2.107445
-2.912109
-2.286556
5.338808
-0.658510
-7.070457
-7.284785
-6.437324
4.508847
0.604165
6.635628
-0.634653
4.851207
10.610369
7.413013
-1.075689
-14.609248
-7.737116
-15.059065
-8.305001
13.238877
-7.630814
9.520889
2.800061
1.475707
18.012692
1.523177
12.309218
-10.385812
-9.090323
-5.407931
10.918837
10.292450
20.211864
-18.837193
3.985416
-12.023660
-12.448188
-3.634505
0.910449
-6.309504
10.754582
-6.215580
-14.555104
7.077426
13.452635
5.347060
-5.713662
-11.480898
3.602165
0.572193
21.411637
-3.842278
-0.409745
17.913941
-0.079800
-11.934736
3.047804
-2.832751
12.447815
-1.693318
-1.398394
2.280538
6.567449
1.125886
-0.154341
-13.425978
-8.823762
-1.482278
-8.355063
6.224196
-6.484429
10.867642
-0.126357
5.889181
-3.232372
7.590571
-0.884637
-10.084087
-5.263007
12.160212
-13.916556
-0.651303
-14.146834
-2.196214
-12.886768
-1.749378
-11.402174
-9.734617
-18.822060
7.410258
-14.591490
13.240047
-2.137731
2.584258
-21.200126
4.923980
-7.967261
-3.482939
3.608192
-1.147856
-8.799070
-5.040966
19.406044
7.464623
-9.050358
-7.902409
2.174655
-6.546923
4.966417
-6.802160
-8.462237
-5.608361
-10.798719
-0.671952
9.860025
14.020196
-9.297095
2.958564
6.020004
-22.089159
-18.968909
7.524158
-11.438023
-3.759182
4.747929
-23.381218
-11.954405
-10.292885
-1.525392
11.858368
-0.138504
-12.639931
4.778991
-7.468166
5.569383
-19.585082
7.556223
-7.093996
-16.322286
3.347096
-9.393342
-4.560010
8.972776
-17.742623
-6.065723
0.645504
-11.905492
-4.496689
5.084319
1.863091
-5.596623
-13.585781
5.658131
-5.433720
-4.088744
7.250745
3.569503
-16.229024
-15.990281
-5.292863
-2.917490
-15.603951
-6.882338
-23.655059
-4.347699
7.612325
-8.795308
-7.884001
19.805174
8.234978
-12.528778
10.170070
-8.761849
12.537704
22.956100
8.394231
5.666892
-2.829163
-8.179300
11.689876
-3.609657
14.007297
-0.496429
-4.421468
6.717912
-6.866933
7.206890
6.234305
-10.223702
-5.549799
19.865638
-21.383892
3.871037
-2.927161
-13.519396
1.577571
4.368404
-7.967317
-5.522896
-3.888865
2.155449
10.855489
7.588387
-14.260105
-14.658453
1.079981
-12.478990
-1.116287
-10.506047
-0.625209
-11.127528
-11.582547
10.170766
-0.088046
-11.246358
-2.255798
6.329041
-4.560516
-6.728475
3.009354
-1.402380
5.840749
-11.904125
-0.385891
-17.415548
6.765588
1.120208
4.835058
6.375590
-13.302347
2.494127
14.833875
2.920413
-0.553670
0.187972
-0.077879
-0.572537
-14.421214
1.219802
-7.331872
-21.969387
-7.707594
-0.065844
1.387597
-12.838961
0.128227
8.856242
-14.884315
-12.847289
11.016755
8.137077
1.484790
-0.689676
8.403768
-18.458230
-6.370356
-2.710256
-9.535125
-5.550936
-5.966407
-8.861547
7.405024
7.701614
7.521015
-2.731841
-0.871336
4.866588
-0.597924
18.828150
-8.977168
9.371218
9.201694
-0.544278
-0.957614
-5.135463
0.098037
24.071160
-20.742880
16.974790
-0.520778
0.540289
4.001249
-7.485041
13.462056
5.864790
-6.085752
13.527177
-5.875448
