-0.284551
-7.319501
4.032901
-9.127092
6.811168
-1.246679
0.007006
8.809829
2.003409
-4.660996
-9.996014
1.173664
2.689177
7.351175
6.185081
-13.694074
-9.851391
-17.295291
-16.052680
7.088197
12.386872
2.011389
-12.745571
13.974036
-4.333592
4.915475
-5.134425
-10.952786
10.229830
4.886411
2.466446
5.233893
-2.772367
-1.648769
-8.936083
4.346349
-10.950085
11.097824
4.251929
0.420913
8.030808
-5.248011
22.222302
-4.991361
5.399825
-9.337654
13.318678
13.003560
7.160970
4.392153
-9.316669
9.089567
-1.754180
-8.902565
-1.846516
-5.781410
18.627959
-16.672668
-11.483178
16.288386
5.084012
-5.726319
19.594488
1.942365
-0.899944
-17.387287
12.449135
-3.796373
11.485862
7.278578
20.667153
-12.264629
-1.209791
-19.849332
-4.960457
-3.697259
-4.425376
10.930081
0.536453
-13.378168
-5.156655
-16.072887
5.138714
8.881900
-15.582441
17.058205
-0.575695
-3.684470
1.911364
19.035659
-7.490688
-0.466381
-5.517495
-4.530096
-9.004510
-10.273649
-7.703545
-2.007717
4.052402
-7.676266
-8.891100
-5.271571
5.393562
-2.211691
7.026394
-15.805461
-17.453199
-13.026229
-2.511638
-16.515086
7.569501
-10.830560
10.856763
-3.847373
9.812102
-9.797356
6.070369
15.614758
16.493597
-21.087233
-5.609847
11.332642
-22.203074
-1.560023
-1.227837
3.753523
-3.918880
-4.795102
-11.356694
13.733443
5.679909
-14.799110
15.882174
-5.984019
-9.976645
0.589705
-29.369953
-1.346806
-11.906567
12.469676
2.736818
-12.588316
-7.614921
-17.152190
24.785884
1.117907
-5.672786
1.416845
-17.223321
1.258263
17.721752
-7.976384
12.808765
12.653651
3.647349
0.520153
-1.293643
4.636992
4.908922
-19.583585
0.919904
0.140031
1.230372
11.598191
6.143869
0.588677
0.315308
15.178315
12.594606
-0.907967
3.092262
8.564786
12.400580
9.413849
-2.201192
11.232831
0.333824
-0.846715
1.641041
11.400122
-18.134350
14.069430
-1.157044
9.689686
-9.535688
7.091410
12.274255
-0.757839
4.607093
-7.024728
20.311835
-17.698697
-2.873000
7.922540
-5.829550
5.393775
9.126064
7.696559
-15.568452
-3.494925
-0.694766
6.512928
2.297899
-3.322169
8.807324
2.516077
-2.220408
5.825456
-2.508417
6.673897
14.429577
-9.946903
14.476798
3.385806
9.198158
-3.161574
-3.909608
-9.375983
-3.971096
-17.983808
5.191148
9.063083
-3.341103
6.105360
-6.651260
-5.170571
-20.595952
5.336176
-10.374264
-8.670900
4.559118
0.318989
9.703651
-13.910536
2.307094
-2.587544
5.624413
-8.815073
11.397217
-13.674408
-2.653584
13.814140
-8.249238
9.032221
5.619042
-21.174355
7.073185
-15.960388
-10.412178
-9.134437
-15.815881
-3.949190
6.559212
-10.650401
-3.471166
-5.704900
-9.293552
11.183593
6.491046
4.099073
13.964545
14.325564
3.401509
19.053493
13.029182
4.914000
1.855133
3.097054
5.065185
-18.978832
16.922565
-7.162726
-5.331064
3.834564
-6.629678
-32.786761
9.759811
-18.558260
-20.608461
-17.458752
-28.909832
8.118223
14.423780
1.907608
-12.104573
21.047536
-15.655647
-2.486617
4.025437
3.416188
-11.381128
-1.893819
4.270514
1.207578
-6.378218
-2.943346
14.056095
-7.323826
-4.736578
-4.746699
6.566916
-4.421892
-7.853515
0.884075
13.299761
-16.571038
2.590490
-10.871873
-4.675343
-12.322237
7.402702
15.017304
-5.922276
1.216951
-4.669571
10.214216
-9.679726
6.752232
-9.534487
15.360474
6.759123
12.015772
11.472189
-10.054665
-0.302720
-2.112053
-0.362357
-10.610593
-11.247138
-9.164564
-1.976612
-3.077150
-17.353425
-14.254668
-10.312050
1.939112
1.688711
-2.827372
-3.336287
-11.344388
-6.314010
-3.869625
-4.756648
16.706532
0.083587
15.786688
-5.317008
-10.126770
-9.442926
3.043271
1.759979
16.704732
-0.634838
7.155632
7.154899
-9.874267
-18.466730
-6.229413
-7.377984
7.382105
4.265866
-17.646467
-1.004848
7.966230
-2.074334
13.477121
-8.482131
2.686398
-4.782187
-5.538157
10.024529
0.176879
-2.239767
-15.856126
-0.024273
6.384113
12.946818
3.792719
0.495411
-22.325131
-10.824520
-0.741096
11.786675
9.132717
-4.959756
5.583271
2.085944
-6.316652
-24.536094
10.394555
-8.183508
2.828544
12.548310
5.502016
-9.988719
-5.684533
9.945369
-1.956893
14.169672
-9.892113
-1.860049
-4.261529
0.783278
11.797349
-1.291347
-1.584556
4.493603
6.227337
-2.536792
-22.158492
-0.950228
-16.301683
-6.894733
2.148448
-1.339699
-0.927532
-14.120507
7.950915
-16.620810
18.259135
-6.864656
1.969533
-23.534701
1.805679
-13.091637
10.060573
-3.706235
-20.389089
-4.793304
1.026365
0.544994
6.209073
-0.276341
8.351077
-21.900892
22.813253
-1.765192
5.791452
-17.865317
0.750746
9.896989
2.914717
-11.613881
-7.785339
15.963951
-16.516738
-8.702240
-6.722611
-15.024226
21.908552
-9.787496
3.604410
-9.715880
3.201809
2.299590
5.291200
-3.170497
-16.837365
1.105668
-0.766610
-2.689004
-13.109405
-4.515440
-5.939702
0.247468
16.728604
-1.715612
-1.530530
2.374762
-2.852705
12.456302
-12.624732
-9.801882
-5.043440
8.165669
1.823517
6.686639
-0.210970
3.288607
0.473097
3.902492
7.061510
-5.441715
17.968967
-5.454509
-1.671243
-6.907716
1.203363
4.103977
-5.258194
11.364612
0.136077
9.845906
-17.811249
15.012015
-2.601009
11.290374
-6.235050
1.977351
5.751868
-6.134386
8.203480
15.418392
-18.342175
4.767639
-6.101082
4.777517
-13.166554
-5.694379
2.216351
13.898317
-0.220963
12.351716
-2.563988
-0.368724
3.512587
-18.084686
-0.940600
-12.820549
-3.029659
15.415732
-0.882373
-6.418410
-3.925764
-26.514686
-11.569203
-1.691760
-3.396107
-14.021957
1.837803
11.383466
-6.921503
-3.139911
-17.896299
6.592719
15.028449
-8.914224
-9.170209
-13.010310
-5.517349
-1.592549
2.066704
9.004366
5.234641
0.161316
-9.202554
-4.956174
7.173443
-4.217456
-5.287213
6.664042
11.396957
11.092500
-2.854056
10.522974
10.074425
18.587428
-5.469269
-5.301107
4.748424
-0.554450
-33.018194
-12.104639
5.340563
-6.197473
7.833360
5.582933
-1.541911
7.761694
-20.603229
2.438703
-4.426827
6.078901
-3.023981
-3.397347
-12.337759
1.018946
10.012630
7.938952
12.534862
8.173440
9.886684
-11.320061
-14.158723
-4.712697
7.853123
0.863953
8.076038
-7.958936
-3.123688
13.238915
15.838557
4.423270
-8.691477
-1.373935
5.744550
1.210787
2.992651
0.587937
-11.099971
-8.868270
-12.201048
-2.994712
-6.759504
-6.276954
3.449098
-20.891278
-4.315691
8.484170
-13.298599
3.527788
-4.763960
1.205630
-4.331502
5.459921
-1.191115
-1.695438
-9.424658
0.037719
11.171895
-5.917556
-5.216376
3.502940
14.282856
14.105689
-6.582544
-6.869584
7.825074
-14.057951
-14.598302
4.233634
4.886634
-13.240666
4.025343
-9.862040
-13.780517
-1.053039
-2.342339
-2.856047
-7.294288
7.978915
-7.826848
4.560407
-9.911285
-4.628859
-7.330477
-20.156071
5.532069
-8.852280
0.991678
-1.683074
17.623391
-2.671098
-1.571154
-2.725386
-8.262560
8.371573
-0.721765
-18.003242
0.496843
3.902592
1.817966
-0.246943
15.297436
1.098997
-1.616227
7.550889
14.672007
-7.397000
0.208571
1.459505
-4.605400
-0.721923
9.676109
-17.461287
-11.961801
1.731897
0.109091
-30.313176
-11.520182
2.822595
-1.889266
-9.880226
-6.554826
-2.574490
13.017530
14.619885
-1.870032
-26.764083
15.457372
6.365345
-9.833965
-8.520377
-6.143004
-14.402070
1.912559
-3.006688
-1.359506
2.689260
18.920667
11.922414
17.320768
4.450258
-14.421091
-11.514936
10.779561
1.454164
-4.467682
-5.993581
-18.837262
-5.579186
19.387651
13.003923
-20.014555
-3.330178
1.597303
-8.940502
0.060440
3.741897
-4.789275
5.562370
-16.968326
-2.594915
6.359607
-13.176631
-7.337297
0.545957
24.834194
-5.795085
9.193046
-15.093233
11.665397
2.153003
-1.399415
-9.153493
-11.611082
18.222717
9.009652
-5.220323
-17.330974
13.463456
9.294864
-6.506974
-6.267958
-7.236087
-3.059892
7.131636
9.239578
-7.484087
17.722886
-1.326928
-4.206368
5.857033
-16.160968
0.157477
-5.063003
16.460105
7.408572
3.616038
-3.662390
5.642772
12.339514
9.187135
10.789379
-1.373019
-5.584341
17.192956
-0.767708
-13.361136
3.689894
18.698274
13.759318
-5.588675
-3.225962
13.206166
16.058356
6.225749
-2.520165
-10.160331
0.784497
4.794888
-9.851283
-5.584998
-2.414720
2.726026
5.551980
2.328055
-3.568261
12.270677
19.088092
-0.441147
-7.332277
-9.419109
0.121831
-9.301238
6.669662
-15.167086
1.613052
17.356785
1.757345
12.719262
-20.720008
3.869391
10.662199
18.211710
1.547337
15.515253
1.259375
5.447760
9.695009
-1.264439
-2.620379
0.793775
-9.500629
-3.763428
-3.905126
27.040143
4.859315
2.926505
-15.711660
5.692744
-14.985521
10.047415
-0.319527
-6.221457
-1.883652
-8.346192
9.358703
-2.674337
-20.878053
6.617859
8.070759
-18.316895
17.831410
9.817114
5.131014
-5.436046
16.223833
-0.156948
10.269946
2.400851
4.454223
-0.351189
-1.961335
9.500242
12.484818
15.008617
-19.503070
-8.524693
18.020973
16.300540
1.586382
6.489247
9.896676
8.387452
0.359059
-8.075035
4.613325
-12.799631
-18.130338
7.706355
-4.530269
0.886310
2.389891
0.290265
-21.242593
-8.289382
1.265754
-0.131343
-2.637710
-11.892689
-0.504833
3.647891
-4.350118
-3.149667
19.494888
-0.282363
40.269343
-20.419337
-1.962149
6.845594
-7.955996
-10.495009
2.523200
7.472356
1.377466
0.717391
-7.915404
24.305413
-12.636991
-9.910713
-8.828150
-14.046110
-6.575505
-11.971900
12.295283
-11.384667
17.435674
1.059472
7.402769
2.215592
-9.913184
15.742096
-3.748962
5.530836
-5.399883
-7.182650
12.368179
15.846960
16.134211
-10.238283
13.991942
13.145133
7.342034
-16.103756
3.153280
-3.419159
-2.326582
-1.176727
16.206119
10.817361
-21.177753
1.686897
1.188859
2.255888
-5.771532
11.555384
-12.691318
-10.825077
4.211524
-2.362153
4.209670
0.764288
-8.972724
8.199822
-3.365780
-8.221449
-13.855501
-19.711937
-5.544981
-3.136373
6.296628
2.084593
9.523443
12.141078
-5.586742
-22.648899
23.336420
7.970136
-19.721495
-1.813825
3.164026
-14.055782
-20.306679
-30.216105
-2.583386
-3.927413
-9.103688
2.801627
-7.462931
-7.181769
-13.760177
7.209213
11.625165
-3.110114
-12.904305
-6.336953
-1.126329
9.575823
11.303623
-18.469151
-3.229333
1.627624
2.035617
4.166325
-4.520032
11.205810
14.561538
-17.339857
6.457398
1.523618
-2.942667
-11.719978
1.811276
-1.318229
-0.757211
-1.113481
4.376083
-2.549943
-9.268562
-8.494221
-0.914214
3.712815
-0.245426
18.884478
13.889154
1.886993
-12.890837
-15.222605
4.771827
-9.890139
6.510630
5.252554
-12.412962
0.811651
2.770468
1.805640
10.942578
-7.408221
3.106230
3.943342
20.817588
4.124405
0.876507
-2.915900
-2.329079
7.140458
-5.451563
-12.323705
-5.390742
1.445178
9.002461
9.467213
-0.271770
17.564582
1.373015
0.516442
2.152037
7.034630
13.027248
-10.947566
4.255468
8.875195
-7.187163
-7.725255
11.208169
9.277118
12.160343
11.970369
0.605422
-2.928484
-15.557149
7.913130
-5.521993
28.649783
-6.939732
-8.107694
14.141756
-0.735644
-13.984250
8.192440
-1.613835
14.451874
13.794583
-6.983172
10.657883
22.294056
-5.550708
10.390365
16.229781
-0.352156
-9.998614
-7.636977
0.330216
15.297781
8.443679
-2.472670
7.980092
17.677172
-0.364886
0.199166
21.847270
4.478823
0.597801
-10.868513
-10.759631
-10.724558
20.110394
11.368019
5.576541
10.594395
-8.779187
22.950296
6.755896
-5.854384
-0.166863
6.024388
-0.493923
-3.024084
2.341273
3.548064
-7.040177
14.936683
-19.011001
10.450499
2.976591
-5.309585
9.453368
-23.025316
9.038261
10.065378
-4.448505
4.987081
11.857917
-5.064078
4.104296
6.240976
-13.208366
-14.546314
-8.897169
-13.855961
16.628255
25.388443
1.193125
17.853044
8.719443
-18.533681
-22.910992
11.496992
-10.421740
-9.086869
3.185607
-16.033086
-13.719198
2.930571
-10.974087
-6.674020
5.390184
-2.414508
-3.275616
-2.971851
3.469531
10.526843
-0.304094
23.962288
-2.738685
6.421990
-0.099841
-3.823414
11.882983
-15.019360
-7.434991
-12.342112
4.023217
13.338526
-9.661739
-4.490222
6.586307
-23.242968
1.520330
-8.623036
-17.921683
8.050065
-1.755541
4.526824
-3.402970
-16.514301
-16.064535
0.334292
-6.322755
10.295050
-3.407960
-8.790213
16.278352
0.733337
-11.590312
-2.497018
-20.951532
-8.407485
5.018212
-2.904292
-13.428943
-5.494522
17.848920
12.590950
-6.816719
2.370247
-9.731688
-2.304361
-21.042376
5.027098
-20.245051
-19.942282
-1.656874
11.578052
-3.153596
0.067531
9.822584
15.951804
13.747114
4.714957
16.557298
16.348186
-3.617777
-8.722213
-15.128226
10.174110
12.087134
-18.400295
12.947546
22.378560
5.888828
-20.400017
4.591460
0.137126
4.753719
-6.823503
23.498326
-13.528940
6.791804
-4.033194
3.512067
-17.321053
-1.641520
0.792920
-14.747522
-10.211188
-6.902148
22.874277
-19.260269
-6.293368
-20.226073
-5.979098
-8.189731
-9.815596
-0.083562
-7.918420
-4.637455
-0.193347
4.954272
10.945231
3.287259
-8.689268
-6.365208
6.772833
-5.865842
7.697898
-14.630627
16.350005
-14.572846
-10.472109
19.228562
2.136661
-0.675226
-5.723606
-0.144991
-4.055755
1.592824
5.171830
15.157291
13.744068
27.635660
2.658853
-12.110997
-3.163327
16.907753
3.424989
-4.619705
10.788452
8.019019
0.234050
12.286815
-1.383359
8.323771
-25.361584
-2.302196
-12.743906
-16.497085
-1.205574
-3.229949
-0.352270
-5.287839
-7.001113
-5.239015
-10.184969
-7.220212
-8.425048
0.651602
-5.765395
-15.641507
-4.139931
-10.425990
-10.621833
-2.121939
21.862619
-3.927342
-3.083845
1.905119
-8.945084
-16.813425
3.919380
1.323948
-2.563383
18.764447
-6.207829
-11.610295
13.076395
2.047820
3.507045
-7.384570
5.489265
3.698328
-6.618150
-8.673982
-11.799452
-8.624005
-7.720231
4.866728
8.145742
1.941406
6.245043
-0.124218
0.424297
-0.658692
0.596247
-3.218371
8.369078
1.911056
-1.752862
-9.376821
-14.048466
-21.818611
5.761270
-5.925065
3.801517
-1.076603
-1.944659
0.721676
-22.337395
-10.888226
2.578094
-14.062722
15.441312
-4.695050
-2.577503
7.512562
-5.325982
-2.277567
-11.523338
-17.617352
2.694955
1.492784
-2.387557
14.848273
3.447497
0.582662
-17.637666
6.159956
-4.945368
-12.258107
12.293448
11.600898
-4.061156
3.753750
-11.610837
16.092750
-18.434039
-20.912633
12.007644
-2.512521
-11.268807
4.572038
14.011579
0.954819
-0.084427
-1.901437
3.563387
-20.117319
-9.396881
-0.387079
13.552983
-12.829234
-22.928068
-12.852460
-5.241968
-0.104332
8.570157
-10.225617
3.888867
-16.044355
-10.618252
5.267877
-14.584065
2.394968
-5.026842
21.710977
-1.219793
17.209645
8.147471
-1.607578
12.101889
15.131389
-2.371772
1.784039
-2.298327
-2.206552
-13.008870
6.165694
-9.534155
-11.942939
7.895427
7.880884
11.767467
13.359268
-20.318389
4.955375
-6.051940
1.981559
-5.341994
-4.210809
-1.428112
-4.880393
5.906303
2.247440
-8.515275
3.193226
-2.563278
9.394972
5.145881
7.889765
-7.654835
6.131726
-0.804272
11.778089
1.595453
1.358566
19.064654
8.125436
5.372011
-10.192886
-8.279048
19.629444
-8.672704
-10.140851
-1.638375
-12.352276
-0.024546
-4.479648
11.002604
-3.777383
-11.251741
-0.196315
-3.239086
-6.835422
0.730971
-5.310086
3.838557
2.264787
3.109993
-4.564875
6.004631
1.290621
5.855114
6.804520
-12.093666
3.888121
2.117713
-11.585937
-0.114666
-3.462959
-0.333268
-11.536411
15.210378
-6.288207
-11.380603
13.981053
3.939053
1.997419
-3.964094
12.552901
14.195524
2.426275
16.883387
3.749571
-19.855472
-4.697022
-13.084727
5.275856
7.968593
-1.379360
10.405737
-7.205527
3.786943
-5.000244
4.933093
-8.427818
12.971519
4.354405
2.265434
27.588742
1.792359
7.975110
8.390755
-7.950969
12.652914
8.878355
-20.292578
-6.492744
16.321748
9.991691
3.497718
5.645679
9.133540
11.106769
16.161153
-5.648797
2.905298
-7.408537
3.295253
-3.576585
2.681018
-8.461282
-8.236361
2.594303
-8.553976
0.150214
-12.870563
4.675788
4.624090
0.664110
-0.908190
19.878507
11.171479
7.471640
-13.610722
4.441192
-13.542690
-0.651687
-13.479820
7.701471
-2.021066
-2.603841
5.653196
0.455015
8.116779
-12.469383
6.157695
6.335204
-0.804258
-9.658788
-14.500495
26.287272
-11.577420
0.636243
-27.361758
-20.578063
3.019227
7.645844
-1.202775
-4.626036
12.774523
6.670857
0.632065
1.014046
7.465411
1.167142
0.098969
6.487972
11.978729
7.759618
11.926456
16.429874
-6.321002
-3.155988
-12.098340
-8.221091
-4.016741
22.338385
-7.121296
-9.719251
13.641176
4.680621
-5.605104
6.730336
-5.344185
3.138450
1.922151
2.562335
3.098729
-1.904464
13.126538
8.930600
2.360560
11.521812
3.812385
-1.763941
-7.102435
10.766902
5.939404
5.460282
12.137727
5.767751
-3.575174
8.235445
1.913630
1.428585
-3.912375
-9.885576
1.321811
-2.719220
23.406185
6.341476
5.762552
10.662133
-1.264356
6.311862
-0.038774
8.931068
28.732532
14.398383
-8.084484
14.844917
23.676196
27.192852
-12.281825
0.491926
2.404652
-6.535612
-7.030333
16.251683
-14.296025
10.542328
2.152970
-14.098994
-17.245831
1.132178
-2.191915
-3.222321
-17.717246
-9.120677
36.971426
5.022767
-17.917537
9.133497
6.465201
-3.408590
-6.086096
8.655085
2.243283
-0.473858
4.730051
2.689112
4.372850
12.376181
-0.804343
-9.661181
8.443858
2.088057
10.840479
-18.860743
2.202682
-0.420674
12.603625
-5.288385
-5.212721
-4.600577
9.131329
5.342911
4.461779
-1.150797
35.376173
-1.312911
-1.261445
0.698948
14.455647
-1.278024
1.253239
-6.880375
7.591523
1.639606
1.106182
14.923081
3.832168
1.528131
-10.089035
4.426958
14.566546
8.036263
-7.192433
-0.177368
-15.537086
5.888250
15.615446
-4.285500
-1.357201
1.107260
3.253755
-15.182007
20.922753
8.959352
4.890421
8.400369
-15.710111
10.472201
-4.595808
-3.044392
3.869123
-17.872664
18.963334
-16.609458
2.762323
2.608704
5.899425
11.927680
17.350867
8.189112
7.050578
-0.409801
1.087505
-19.374761
2.641875
-2.836224
4.622564
6.178479
3.300371
-9.956583
7.482865
3.400399
-2.448271
3.319414
-4.932049
-4.355975
4.082452
24.531650
-17.210614
-10.014705
1.716195
-11.318847
8.811362
13.484614
-5.202073
2.757701
4.684854
1.934903
-9.522236
-23.246058
-4.033626
4.380134
10.569332
-8.110765
5.670265
6.524809
11.903713
3.147475
-5.681288
-5.683937
0.963172
6.318244
9.249224
-18.809868
14.993358
1.972490
-9.973203
-4.987644
-9.079300
-0.322005
-7.478560
-11.005775
-5.018765
-1.281890
12.544483
-7.135473
-1.736057
-7.050975
-13.028163
-8.963742
-15.559447
-13.446125
3.671757
1.715590
1.302237
10.809550
-0.637583
2.644512
3.877582
-13.506637
-4.423626
6.782072
-7.689051
9.048734
5.675572
9.577552
-18.686609
9.761871
14.443507
-9.047383
-2.484617
12.557458
2.811845
0.406555
13.308936
-1.962853
12.658891
0.098493
-13.322287
-3.247281
-0.681395
-12.693431
13.486620
-20.268442
-8.899498
10.822014
-19.845495
1.301320
11.238069
-3.489330
-7.136396
-4.853228
7.619254
-17.096797
-10.209449
-1.738661
12.127429
-5.643629
-3.531912
-6.252370
-5.145898
-14.360244
-2.076354
14.669914
15.405695
-8.394989
-11.265557
9.525549
-4.007783
9.776706
-5.710631
4.578023
0.377185
22.313624
4.644503
-3.994278
-9.096632
1.043567
7.956339
1.987219
3.732825
11.133184
2.509969
8.561795
-4.095621
-0.221810
1.602058
-1.271847
-7.759361
-12.087368
22.142973
5.841785
6.023771
8.449816
-14.908597
24.709317
2.089824
15.625951
-10.364129
7.239428
-1.798858
-10.829212
5.504964
2.098438
7.906005
-13.188442
18.333796
17.418768
-15.598379
8.403661
4.494400
-3.885153
12.775736
3.197449
1.139891
8.401046
-16.096663
-2.492509
10.054926
9.370988
4.899508
-2.367851
-3.279771
2.199657
-1.024949
24.872174
-10.584610
5.723915
-12.977018
8.534997
1.603934
1.881804
26.052889
9.253303
5.702010
3.680689
2.785685
-8.433726
-0.559132
13.688458
-7.066562
8.324171
5.703797
-3.526212
5.478409
22.591403
-9.303192
-7.496092
4.933177
-3.862452
0.076130
1.711944
-4.340282
-7.563814
15.586686
3.714017
6.478176
19.611604
5.191421
16.157003
-24.426529
-13.448155
-6.272297
4.976545
-3.624450
-5.943954
-5.280343
-13.393484
9.280316
4.384330
8.345873
-19.859964
3.161054
2.275451
-5.733171
-9.955620
7.790613
-1.895463
-8.225016
5.875161
-3.452581
-14.828911
3.909876
-2.431352
6.932265
2.160765
11.744290
-5.472884
6.348546
-19.366482
0.001506
29.025868
-14.170742
-11.397462
9.406302
-18.176137
24.545557
10.655866
-10.847545
-1.808921
-12.703317
-9.378205
7.251192
5.939083
-4.942353
15.190921
-24.573088
-14.744187
-15.047782
-3.879824
2.318787
11.564252
22.460738
-0.462183
3.106913
-13.622392
-2.620816
-0.823588
-16.126347
-4.051950
-5.015660
-20.930726
4.357938
-5.605510
-4.272274
12.540939
9.244753
-15.647283
-2.150700
-1.829194
-1.703986
-2.803582
-9.250256
8.993116
-3.955366
6.256653
-12.923356
-14.960836
2.792148
-29.058500
-7.222096
-7.396580
15.749665
16.513879
0.363710
22.798187
11.413226
6.787822
-8.588173
-1.771998
21.995520
13.142781
-3.379494
10.950640
8.394744
24.587182
6.049646
0.582300
-15.370592
11.207780
-0.528151
22.396142
-10.344842
-8.764473
-10.059086
-0.525283
-8.334550
0.678453
-22.483504
7.564332
21.119613
-1.154907
1.406975
10.058956
-0.633197
-9.410284
17.369027
4.975199
15.670461
-12.335627
-10.685636
-2.180142
-11.112959
-3.739489
15.072935
-6.516672
12.932019
9.519713
27.841074
-0.113801
7.544859
21.223653
-6.497535
3.536670
13.111064
8.856138
2.465247
4.017860
-1.349127
-2.655344
1.100743
5.020110
15.455671
6.123490
0.378703
-7.103090
7.703250
-30.843149
6.160294
-3.747967
-20.687163
-13.836979
-1.737046
-10.178736
-23.482324
-3.377120
9.963920
-11.014937
12.045435
-8.309565
0.398466
22.349549
-6.114010
0.959773
9.509887
-1.159778
0.337911
-2.552483
-20.809088
-4.148083
-0.873039
9.165342
-7.372223
1.538347
-4.328425
2.362879
5.475721
-7.655689
-5.411765
-2.180091
-2.313917
0.449975
10.407805
-11.774942
-26.134669
16.056588
15.018132
-9.128147
-5.588407
-9.372164
9.066761
-10.262022
7.360152
22.376341
14.290756
-6.774474
-8.978546
5.923076
10.629920
-0.874001
-2.194960
15.087114
-10.680906
-11.131434
3.340002
-13.982110
-11.010207
-4.993583
-3.383189
1.718183
-14.542849
-3.560123
-1.154565
-10.630469
-14.174629
-4.809026
-30.325637
8.403913
-5.863593
-1.947283
-7.091669
-10.371445
5.560670
2.513074
3.540270
11.204625
3.392693
12.088656
6.541389
-5.974501
-24.497148
9.738831
-10.478347
16.987659
3.909484
-12.415742
7.943079
11.129964
4.575291
-0.839777
23.435094
1.778165
-2.846535
-12.204239
-9.049594
-4.265291
-2.570874
5.719188
5.419067
9.421013
-11.636535
-3.935258
-2.179900
-16.596248
-15.401874
-15.689134
19.860995
9.617924
-29.878671
3.171174
1.880161
5.814477
-6.388381
4.146221
14.797271
-2.395400
-7.325213
0.280129
-26.082965
0.015716
-12.076503
-1.192426
-7.289758
12.477782
5.898036
1.894170
9.253816
11.456385
-7.693747
15.221188
0.246586
-5.787022
-0.257531
-13.709083
-13.551324
-21.254106
-1.549607
21.025102
-3.649608
-6.743535
2.053989
-12.407361
-7.062988
5.648937
0.362173
7.976245
-7.745156
-0.406870
-6.335317
1.098621
-4.139858
-3.994257
4.694519
-4.696044
13.159916
7.610714
0.315030
-12.925667
-2.496294
-13.076747
7.787968
-3.620791
0.174693
-7.671915
-18.015887
1.439585
0.604660
-8.355725
0.814098
-3.928276
11.413225
-6.827534
-3.835903
1.116594
12.399724
6.269527
5.916869
3.863311
-6.455198
9.889605
-4.565945
0.583195
-2.704956
-10.956119
2.084262
-8.330969
8.900239
2.349052
8.179090
6.216711
-5.461602
-10.650395
9.213320
-3.455147
6.867258
5.077309
1.520562
5.392104
-4.728138
-2.760603
14.867355
-8.262298
-5.131280
-7.151504
-10.235089
-0.197195
-5.574829
4.947022
-14.747668
-8.467122
-11.655135
0.169372
-5.881906
1.752205
2.220934
-24.982809
16.281887
8.283760
17.288054
-8.568776
11.255008
-18.920653
-10.017450
1.870786
12.116998
-8.505469
2.934349
-0.166526
6.493403
-18.997030
-6.033536
-8.400233
-8.188507
-12.986058
5.352808
25.190090
5.743518
-0.721664
3.386639
6.781471
1.046457
5.562275
8.979182
-4.991801
4.683729
6.985723
1.571098
9.356001
-7.063107
-3.648605
-6.780236
-7.895602
-7.686613
9.754610
-17.002317
15.738907
-6.671897
-6.233694
7.188538
-1.767380
4.872294
-7.435400
-12.314144
-1.837151
-15.784970
3.892533
-11.237126
4.695354
-17.320203
3.772836
-5.580234
-15.163789
1.940878
-13.853063
-1.528838
3.447307
15.387484
-8.453362
-10.730492
5.147743
-2.571255
4.411734
-3.989565
3.388308
1.317002
-2.953568
-2.611086
30.488458
7.824545
-7.210504
-13.734898
-4.405943
-17.521967
-3.568063
2.550443
-17.208523
12.653322
-17.834618
-8.465124
-11.484184
-4.447147
2.739487
11.018019
1.683442
1.304228
-9.620567
3.502136
10.714105
4.630656
-11.040964
-11.807044
-1.970271
-6.378421
-20.071421
-5.725196
9.292792
-6.959379
-3.336159
11.269592
-7.227760
2.258009
-1.494329
-1.694518
15.195445
0.134870
-6.503162
-14.960388
11.232430
0.719540
17.496727
4.802085
8.660219
-16.847543
6.453590
4.412469
-6.002257
1.272608
20.689408
-8.651243
12.075489
-19.330515
-11.297485
5.695830
-3.782195
-3.346129
10.727396
-17.764770
8.086279
-4.288086
0.736953
-10.400292
-5.891127
-0.478825
3.043947
8.215569
-5.519036
5.902474
7.536339
-2.643653
2.657372
-5.894580
3.890125
5.741066
-12.819289
12.398100
-10.725862
-15.221300
10.611651
-0.059395
-10.155852
7.140728
8.265930
-9.870146
-8.511921
13.528755
-0.007559
-10.548999
-12.383849
-12.062259
-17.756668
1.109952
-17.844794
3.354842
-6.381652
-0.289989
-7.783676
-30.628156
-4.063709
-3.969378
6.452886
-6.447006
5.089065
7.792486
8.745773
9.988930
-6.857540
-10.430650
-24.075990
7.209456
10.949408
7.343078
13.336651
5.949870
-13.115955
12.626743
1.649338
-21.489401
7.568394
0.139788
-12.317925
2.717179
10.036089
-7.240832
-3.980173
-21.723125
-10.019855
6.682079
-1.000955
-14.617116
-10.644227
-2.371454
-6.595039
8.638055
-4.156646
-0.886700
-17.047093
0.779904
3.289933
17.384812
11.146900
2.201177
11.039335
6.703854
-11.100613
-11.868978
-2.737454
4.878139
-4.223354
2.011469
-6.066629
-9.687284
-16.148856
0.799098
23.409934
-4.543627
-12.017085
13.261032
0.044254
3.931051
-4.748294
-2.316692
26.649046
3.165401
-14.498726
2.273396
14.765609
3.624137
14.322495
-14.594298
-7.637317
-13.787799
6.488562
3.630482
5.307745
-8.648066
2.859039
-0.959763
-4.477454
-6.731493
8.123902
-4.800060
-1.257462
6.660758
-19.523292
-0.071122
0.680898
-26.193904
6.933738
-3.855897
-27.003210
-3.403714
-2.190959
-2.950397
-7.248327
19.201780
1.788766
-7.128268
-14.205085
-17.219888
1.169267
-5.309465
17.441137
-9.404776
-6.572631
14.781171
0.268554
-7.966823
-1.301943
-0.376948
-9.960982
6.960529
20.246406
16.122524
-9.893269
9.601074
-6.155289
-1.099734
-18.154104
-2.371824
-5.410116
-18.009858
1.641778
-7.896984
-9.458136
-4.083564
-10.540461
15.820630
-9.318484
-2.704083
-19.470747
3.741487
-7.167690
-5.284635
4.374222
-0.242824
-11.593559
-4.300455
-2.560795
-12.332893
7.813425
-3.948486
-4.479576
-1.570619
-12.879320
0.345898
-8.855471
-2.073909
-6.475922
-0.211688
-4.491385
-2.720759
-1.700800
-1.008287
-11.320072
-8.328969
-0.070476
-8.335525
3.617649
6.990144
0.059272
-8.364275
-2.450153
-9.053982
-11.385182
1.942060
-16.655865
1.817398
-5.809273
-15.075103
-23.139673
-19.261117
-10.224744
5.241156
9.627443
-11.536572
-0.452944
-14.314644
8.006960
1.441278
4.677472
30.136283
-0.099047
-1.834653
2.786147
2.635487
1.223879
-10.648197
-8.570055
-7.132605
-13.802076
6.694970
8.873684
14.321228
-13.960733
-12.057469
3.190082
-5.002627
-2.311322
9.880766
5.323454
-3.850816
3.367581
-11.634161
-7.423695
-11.651558
-5.451894
-13.247562
0.207121
-15.279563
-7.132441
-4.636617
4.914356
4.434078
-3.048629
-10.024819
2.827070
-5.086525
-4.872090
-19.487051
9.624941
-15.561513
13.069713
2.521713
2.856098
-6.123339
-4.151778
-5.683724
-0.562646
-4.434780
6.940388
6.695014
-12.575188
-3.271957
-2.000869
-15.027468
-3.005718
-20.924309
-10.422815
3.528838
14.695153
-9.008210
-20.406767
-5.375158
12.315176
4.952683
6.968159
-13.266251
0.348217
-8.738253
7.658481
0.102974
-12.991291
6.153719
8.597299
-0.576910
-0.549423
-19.151130
-17.703054
-4.821911
-8.624407
0.879196
7.318191
3.364413
-1.228998
-6.967851
-25.367639
-7.881884
-6.759513
-4.793223
-1.104991
-10.535382
-0.391675
2.501982
-8.417191
-19.084057
-12.426038
-0.351410
-3.494709
-18.589091
2.189197
-10.180043
-12.043217
9.995464
-14.580892
-14.712675
-22.291414
-9.385699
-7.692563
-0.547459
-9.635805
-21.176801
-0.567233
-16.390958
-6.810764
2.648093
2.866733
-7.149208
-0.100798
-7.431850
14.402271
3.367363
3.027485
-6.760047
-14.947809
8.026132
15.392038
4.803487
-7.372702
-14.261536
-1.302226
-3.845642
-19.364150
6.312394
0.833070
2.722626
2.915138
-23.633591
5.350359
1.926094
11.105548
-13.033813
2.695305
-7.689092
-0.978307
9.236438
6.246559
-6.945282
17.568145
-4.123408
-10.204376
-12.739916
-3.099343
-1.492190
-10.927308
-18.648992
2.938309
-25.623079
6.106059
-8.273548
-15.789997
9.484936
13.872793
-1.875386
5.992439
0.852912
15.207221
-4.414595
5.993406
-17.535239
-2.286575
9.081840
-11.766566
-14.950890
3.804224
-14.772619
19.167605
0.087317
8.149318
9.977651
4.778443
3.593202
-3.146733
-5.020729
4.072155
-13.258404
-7.590934
-5.658050
5.105635
-27.144625
-17.351571
-8.579881
-15.823855
-11.105430
-9.251329
-1.174209
-0.294521
8.421395
-0.526025
-4.866268
4.123916
2.273843
4.766677
-14.185924
5.234097
-15.114733
-7.646225
16.297731
-18.930047
-5.033881
-10.338133
-20.634148
-4.231361
5.424814
3.972043
-15.607049
-14.642689
12.773753
-11.684331
9.739674
9.549407
9.386915
-8.241382
3.530203
4.789515
3.166944
-0.520454
-17.004815
-8.135972
-4.614028
-6.884588
-6.081545
4.882813
-7.487081
-1.234894
-13.237428
-15.297208
-12.052054
-5.884665
-11.481163
-5.901332
-6.578830
-2.380820
-6.309828
-1.800752
-15.250213
-0.507096
7.566705
-2.488296
-8.339213
-1.340808
-6.250755
-12.787826
9.646840
5.029652
-7.389720
-1.893912
-18.102964
-11.585827
-18.395579
4.650910
0.708201
2.453393
-8.433527
-18.628134
3.261368
-7.427529
2.374637
-2.081895
12.554867
1.367624
16.404478
-9.917812
-12.700180
6.891879
-10.317127
-9.290730
7.764435
0.672559
-7.237102
-15.169228
17.490931
16.009987
-14.624847
-1.227462
-12.283336
0.515246
-9.996018
-6.231710
-1.260778
1.817511
-8.659679
-9.315014
9.274464
-0.096786
-4.913092
-4.323757
18.536818
-22.263252
-1.143355
-10.175869
-17.773656
-3.390812
9.600637
0.214011
-9.255591
-7.491945
-0.907547
13.834940
-6.518950
-4.435194
-11.390368
5.271054
15.509288
-15.419536
-7.545409
-9.784293
-2.388669
6.464413
3.527263
-7.448226
19.771746
-24.317620
-9.047459
4.160391
-1.149316
-15.843903
-27.947540
2.269865
-18.996823
10.444196
-3.198794
7.517660
2.024213
-9.666654
6.931185
-2.182395
13.632851
20.027408
-8.055432
13.982060
3.523929
-10.719300
6.511956
-4.677910
-9.376816
4.603828
-9.984203
3.691244
1.697551
-15.721468
-7.490048
-9.842847
13.941623
-7.526112
-12.013712
3.325090
-16.477020
-2.382680
18.796240
-7.704589
-29.737893
-3.683914
-3.376797
0.255184
-23.676586
7.666024
14.059391
-13.082301
-1.968025
-4.038607
-2.620797
-1.288355
-17.452326
-8.427012
-5.137649
-7.920847
-8.274403
7.733357
-7.449875
-18.206136
-8.579299
-4.703874
-4.186017
-9.288969
3.583345
2.421466
6.471645
12.386012
-11.639641
5.652061
-7.689938
1.690063
17.791164
1.191716
2.093706
-8.815751
-15.294280
-19.060134
-1.206259
-4.758804
-11.780160
-10.827335
19.092201
-9.533903
-4.268227
-16.476553
0.616759
0.640653
-10.051626
11.377668
-7.801613
2.442829
-5.745042
-11.844142
10.011214
-13.170005
6.397279
-4.787397
-1.962318
2.742772
-4.654581
-6.014209
-2.089782
-5.061583
-9.772047
6.036262
-3.225872
-2.957126
-9.777002
-0.454713
-6.524080
6.746731
6.344548
2.763454
8.749753
-11.177575
-3.407139
-6.120454
-15.627176
5.084257
9.335290
-10.152053
10.758244
10.153374
0.647588
9.736158
-2.850474
-9.809182
5.743032
-7.658753
-7.195594
0.681653
15.704854
-3.833939
20.040187
6.034193
4.896468
5.103655
-9.921319
-4.791700
1.742294
-8.976724
-4.883903
5.496194
-8.450413
1.507647
19.037027
7.848623
-7.107677
-3.785108
14.249380
12.748005
-5.007408
13.362080
8.057863
4.462040
-0.089814
-11.221127
-12.297371
-17.593740
8.573786
13.494505
10.836222
-1.062568
-10.542210
1.204781
7.030693
14.552353
7.437920
-21.168797
-7.697405
-9.895535
-14.955718
-3.471325
-2.993910
9.508428
2.170485
-6.841532
9.105728
10.783656
-8.298636
5.516293
10.536432
-16.614431
0.117554
4.264772
-0.083760
1.583669
-7.685992
-28.742323
-15.643485
-0.976361
7.056372
-9.002406
0.805845
-5.475955
4.274262
3.597239
-7.955584
-14.232233
-22.944775
-13.300069
-2.860045
-3.482814
1.429133
23.719080
5.570853
-6.591351
-12.519833
-17.919662
8.687350
13.675259
-9.758831
16.970785
10.450141
-13.951552
7.676639
-4.260890
25.583913
-14.438474
-7.475889
-6.327998
2.988526
7.347190
6.881494
4.994128
-7.858236
13.027162
-17.632996
-0.040364
20.243967
17.656636
3.570684
20.438175
12.208690
2.602929
-10.912600
-6.754936
-1.247432
6.577362
-25.780512
-9.489900
10.385007
-3.217117
15.720803
-0.138890
5.140175
-7.231801
-5.351171
-9.239395
-29.702199
6.288155
6.539723
-8.412969
-10.190367
-1.466388
-4.315549
0.689685
-21.520793
-8.659281
2.173447
-4.638355
23.636113
1.215864
-16.019858
-18.014026
6.338513
-3.310457
-4.196687
-13.801268
-9.679287
6.405015
-5.440583
-2.652826
3.088603
-8.460526
5.341455
9.450299
-11.874576
1.138272
-1.990247
0.698811
-26.521791
-5.329000
-2.342012
7.079362
13.406845
5.757113
-19.759036
0.974415
-12.508874
0.845737
-14.908161
17.005100
9.559403
5.376510
-25.471641
-2.927911
-3.689916
-6.987755
-9.242563
6.201405
-4.333966
-15.879541
-5.474325
14.643986
-9.518952
2.494317
2.250292
8.734498
9.745171
-9.252731
3.259694
9.179498
-10.253011
-9.346962
14.867814
9.113139
0.603623
5.052669
-11.514583
-12.760371
0.315505
2.852685
-0.322929
-8.301167
0.878053
-11.464925
6.840892
6.521294
-14.056832
-4.532963
-15.568717
15.429060
1.322567
3.785610
-11.128540
-6.072521
6.125416
-1.866399
7.183423
-3.040269
-7.952052
-0.671182
1.538523
-11.005557
-2.271462
-5.725543
-1.280061
2.467508
-9.320573
-8.661764
-3.386829
6.448709
-9.101265
-0.879323
-7.495032
-17.395438
-3.980751
6.510261
-8.551703
-13.231143
-2.281450
-31.014989
-1.194161
-1.677488
-2.913113
3.011028
-9.984630
26.665228
-0.816732
13.306861
19.468140
4.875936
17.273172
4.332023
-5.531926
10.769536
-11.113894
2.041879
8.589048
0.851199
-19.708170
-1.976533
-17.339675
-7.996905
-0.108882
-5.824051
4.828471
-22.575150
11.310648
-2.803817
-6.120233
10.909414
-4.765822
3.268449
-22.492626
-16.495452
3.910104
-4.554811
-1.925505
11.215727
5.556439
-16.343276
-11.543187
0.502268
8.781580
8.951797
-5.245481
-8.436000
-20.710248
-0.540380
9.634615
-13.596878
-4.656866
-22.240883
2.578652
13.784392
8.660657
-3.098380
13.930483
16.160560
6.668088
-7.456805
17.609502
4.215802
8.640989
4.974655
-12.482716
-6.505166
5.894807
-13.761533
-4.946573
1.697611
5.478159
11.010523
17.540796
6.615926
-10.886941
-2.378595
-5.161061
12.957684
-7.504278
5.044007
6.796794
-7.089912
-5.212989
19.834171
-18.290378
0.990470
1.538956
-0.725182
7.327403
12.012989
-0.397383
5.809687
-6.281737
-4.789089
-8.405607
-0.573441
-5.695987
2.355047
-13.594542
4.313148
-4.244395
-20.549630
-4.583314
-17.354678
-25.981239
-0.020660
-12.879033
-18.344630
14.859202
-9.177544
7.720597
0.088696
-9.367739
18.505802
-14.148367
-14.524859
-16.690766
-3.393474
-7.750380
10.760636
-12.141085
10.522409
9.532675
-1.416842
-12.672984
-6.958532
9.590493
-5.651253
-20.144431
-7.534991
10.950059
1.623049
2.173616
7.749063
6.679352
1.128110
1.499929
13.157564
-2.682913
-20.934924
-2.386164
-13.009148
2.528828
-4.872139
-3.432281
-9.762332
-2.043511
14.583914
-12.378503
-21.099832
0.202019
6.823695
7.073933
10.364224
-3.009962
12.923144
-8.504803
4.309370
-3.430606
-22.741319
-0.665349
-4.674638
6.202677
-32.277989
-1.939854
-6.623111
9.112550
16.579835
3.951774
-2.695440
-11.027349
-3.177833
5.257982
0.033868
-4.339910
-10.303149
6.521976
4.633351
10.686841
-5.409689
-5.723622
8.374149
4.378370
5.339478
1.084586
1.431105
-12.292804
1.189953
2.780561
1.032332
-3.015322
-1.188453
-5.832675
-9.468602
-9.622288
-1.812423
-1.998394
2.485063
-5.635411
-9.591952
-5.268872
-0.467470
-17.840956
-4.108619
-1.661820
-12.763212
-10.272610
-1.750193
-10.421171
-5.310845
-15.366696
-8.545400
11.024998
5.487542
17.868463
12.806164
1.798619
-9.435008
-1.478069
2.773970
-16.501472
-11.006885
-2.317581
-2.244983
6.084536
-14.463918
-14.284238
-16.427346
-13.074178
-2.179575
-3.066711
-26.616374
-17.590236
-11.790800
4.762714
5.435501
7.138398
-7.822799
5.836842
-22.660034
3.116834
-7.387516
7.338916
-10.096913
-11.148930
1.187867
-6.406150
3.929990
-2.531074
17.569831
9.307436
-4.405331
-4.352251
0.707321
-20.788384
10.373534
0.260243
-3.766183
0.932299
3.042135
-7.612501
-18.575126
-32.376515
13.945319
3.450351
-21.308162
-9.740872
-7.695869
1.285832
-4.260453
15.893287
-0.392759
-12.839587
2.859691
-16.989979
16.114849
15.394088
-20.670763
-21.909936
-7.858586
-2.845672
0.816781
9.630583
-4.858060
0.102263
-7.326383
21.487978
-16.081100
3.714978
-3.478525
4.698822
-5.243803
-25.403312
2.260909
16.663934
-4.952467
10.275264
-22.943857
-0.208840
6.192928
-1.882958
0.083081
0.365068
6.563736
-6.689481
-10.944128
-24.699218
12.138236
15.267286
18.825448
-10.313329
7.584677
-5.637163
-1.324942
3.934225
7.160415
11.829851
-4.890939
-3.667434
-8.949059
-4.192040
4.111527
-3.160853
2.259308
0.756216
-4.913614
-4.212926
-7.248320
1.818495
-20.515800
-2.503172
3.745598
4.518605
-1.457712
2.560426
-24.417889
-4.013265
-15.129692
-10.595539
0.468972
1.463027
-14.871054
-2.971361
10.014770
-2.315260
4.078113
9.146467
6.462805
8.613485
4.666459
-2.624164
9.663380
-0.772613
-7.974986
-12.956073
15.958961
9.717320
-8.258214
1.521559
1.264203
-17.305693
-3.935032
27.378115
0.816110
-0.838436
11.396166
-7.321669
2.284696
-20.476389
10.666715
10.829160
2.434485
-18.855137
1.908800
-2.568346
-11.199974
8.112168
6.968785
3.243171
7.434792
27.821830
-7.771507
5.262846
-2.209948
-0.346365
2.073070
-3.921803
-11.262284
-9.719998
6.914859
-4.739493
-6.081438
-4.925961
4.897320
-1.138676
2.952019
8.893271
-4.651002
-13.734679
-15.833176
3.317370
5.903876
7.049926
6.331728
8.102312
-3.531344
-0.999729
4.670753
-4.743026
5.631113
-4.352912
5.475597
8.586347
11.437940
10.909734
-6.715203
-9.361241
-27.573284
9.160634
1.310306
3.722455
-5.513360
14.209975
-5.914002
-9.111955
0.949945
-2.684721
-1.264722
-5.511536
7.742948
2.027120
-9.492342
-8.628355
2.625901
5.626192
2.369104
-4.020568
-2.643709
-6.689955
1.034186
-8.154756
0.126498
25.244379
-16.709269
10.881314
1.146983
11.108455
5.257996
4.197277
-13.150531
-1.769395
-17.910695
-13.221813
7.648398
8.890900
-2.404797
-10.518453
-9.416636
8.997139
3.769872
17.670284
-0.017799
-3.051115
-9.609647
10.043165
-4.748417
-0.972593
6.177475
-21.134546
18.603848
-1.146336
10.645236
13.087317
-0.348591
-15.560439
-4.712002
11.252347
-2.068661
-1.465065
-19.701291
1.019723
-5.995703
-22.352449
-12.316436
5.542875
-7.571226
-6.368977
1.281776
-8.418894
-2.149906
-4.989220
-15.241846
1.656395
-4.505030
-15.860315
-7.187208
-2.421963
-4.649825
-8.561810
-6.043034
-10.492493
22.948994
-1.349325
7.794940
-3.794711
8.417477
18.222733
18.386372
6.647500
4.350567
-3.430494
-13.233092
-24.609415
-0.493471
10.673704
-14.056796
5.273380
-5.215473
-8.032513
3.092433
-21.264036
5.174396
4.866527
-3.280308
-2.563955
9.470106
-5.895980
-6.748615
-28.244777
-8.699796
3.283496
-13.503242
6.459379
5.117208
-9.318909
-1.832161
-2.135500
-3.949894
2.634462
2.629994
2.968845
5.330628
3.424572
17.338515
4.291337
-3.738957
-2.396537
-8.582085
-8.143073
1.041548
9.485897
-1.459844
1.477501
2.196523
2.354108
12.590280
7.386698
-2.370816
-5.532701
-15.123427
1.737051
9.937363
4.297242
-14.309079
-2.127445
18.833772
7.372425
-9.671142
-14.494188
-0.270453
-4.771421
-0.304578
-4.812219
2.265440
10.884898
7.653985
5.068237
1.655169
14.741000
-0.116848
-5.412911
5.960135
2.048232
12.863767
-3.018772
-5.935879
0.355485
13.910167
-5.991095
-5.674642
19.666144
-14.156636
-16.324224
3.479725
10.662815
2.848833
-1.020019
-13.497394
2.089566
20.179965
3.729026
-0.244420
6.557014
5.589581
-3.280204
-9.233282
-9.883968
-10.130501
2.955981
11.902530
10.644454
-6.503960
-16.567753
9.396982
-3.320023
3.724893
13.227457
-8.586919
17.331554
0.689260
-19.151462
4.973588
-1.959440
1.579344
-5.683617
-1.706939
6.284006
3.831503
14.579818
14.412398
17.894831
23.344617
-3.141273
-11.429737
19.204363
7.884563
7.648835
-2.445954
-10.905927
8.386124
4.769076
1.912597
16.997306
-4.435293
-6.402239
1.462593
5.998198
2.185509
-12.319160
5.375486
-2.722195
11.223323
-12.138809
3.171921
6.807358
-0.407425
-8.729267
-8.866135
-12.049428
-11.789951
-9.581577
7.785737
14.390846
3.877991
15.442965
0.577863
14.131231
-8.208279
-0.585630
-3.092255
-9.369839
-4.878649
-27.945698
-1.189416
-7.293507
-9.754269
-10.338830
3.823886
-9.283812
11.273987
-4.736103
21.605051
-20.111527
-11.080276
2.948250
-2.088940
-9.946283
-8.653193
-10.920769
-12.037489
0.284409
-3.330989
-5.462666
-5.208762
-10.780803
-15.927794
-14.433439
-4.045538
2.162723
11.896408
2.154673
-6.747304
-5.484092
-13.520907
-5.323217
-9.784160
-9.211888
-7.249707
-27.162441
2.041474
-6.634570
15.130179
-13.546490
3.702359
5.384478
1.939327
11.250280
-7.750949
-11.581206
14.502606
-1.222142
5.762508
-11.139161
-7.969605
-5.821168
-6.354310
-20.713588
-3.186448
-1.390249
10.186833
6.269907
12.298481
-13.558730
0.965022
12.790220
8.175521
-5.456991
3.112197
-9.126999
-18.500040
-9.886150
-4.274400
11.010345
-0.768917
-0.894034
-2.628908
-0.193747
-3.500109
-10.709662
8.148736
-4.509802
10.554605
-7.326087
4.399805
9.086473
6.039364
-7.995533
-3.158886
2.239666
-7.559744
-9.148421
-13.694308
6.107391
5.638604
6.980809
4.427868
-2.797301
18.044585
-3.277267
-5.303046
0.863963
-1.746046
1.642119
-14.298153
-6.299517
-4.652329
-6.573168
-9.352938
-7.627909
8.898996
19.264602
16.788826
0.162545
-3.872054
5.518717
-4.547484
14.273034
-0.234683
-10.535799
-15.273770
9.871076
-0.388892
25.697522
10.691180
5.301099
1.608672
2.881156
-11.883617
-2.040665
-7.720487
-2.839318
-19.955601
-1.521794
19.900486
-19.199743
-16.514068
-10.924308
-20.504038
-24.253416
-13.189652
-2.309340
-5.671569
-0.475302
-9.806915
15.393260
3.047241
-1.025996
-4.750764
0.533249
-0.888786
-1.325514
7.244715
-8.095520
4.920679
-7.584929
-8.311323
3.043588
2.865449
14.812867
15.169638
-10.199781
3.968123
-13.280578
-3.140213
-21.533138
-6.216143
-5.921283
-9.366867
-6.494084
-23.852707
13.736004
3.838546
13.432824
-5.703443
-5.082032
-4.721169
-17.354201
-12.228083
-5.872537
0.031585
10.285546
-15.625387
-10.597907
10.417943
1.280489
-6.386155
-9.318853
-2.328468
-10.198578
-22.725850
7.873430
19.599311
-16.341593
8.331961
2.566015
-8.688714
1.577374
8.875586
-15.872331
-26.671191
-19.606929
-0.310905
0.872036
-11.078809
-19.573242
-10.078401
-11.698815
4.238115
-6.464070
-15.754757
8.433763
-9.172128
-5.168010
4.298268
-16.890757
-6.388364
-5.105938
1.616941
-0.460796
-10.014786
6.739916
1.536635
-11.299362
4.213334
-2.653706
12.175655
-2.618401
0.858388
8.636525
-10.300815
4.992102
8.397910
-14.749318
6.648293
-8.092685
-3.987518
-7.790393
-7.489524
-31.927843
11.966054
2.321856
7.462318
-2.065300
-0.607015
-5.356311
12.375864
-5.457537
-0.751006
-11.071217
-3.243776
-9.062420
-0.309467
13.667880
-5.317195
2.414932
-12.447737
-0.045041
5.821712
10.875063
-4.113884
-23.287968
8.275578
-14.467568
-12.783591
-5.095399
7.192209
-11.129491
-6.141569
2.066662
-8.223895
3.765807
-2.077026
-1.440261
-2.219529
-10.693115
-5.349872
-3.580533
-3.813006
-3.175923
3.563821
2.430769
11.061682
-8.390236
0.867140
3.563357
-3.696036
-1.847324
9.268957
-4.831096
-11.003731
12.598855
0.596129
-15.159489
-13.735571
-5.324331
-3.982772
10.461999
10.927449
-1.204007
2.802577
4.539519
-12.088341
-2.771462
29.428379
-2.655535
1.923955
1.069988
-2.822641
0.884397
-12.134859
2.573660
-12.643428
-19.300789
-28.595382
-4.809109
0.943171
3.752708
-10.077062
0.535215
-5.752566
0.864868
-12.569353
-8.889349
5.794731
11.027992
-10.591559
-18.113505
3.816474
-10.757209
-9.976117
-5.766410
-1.991915
2.625535
19.481465
4.815410
7.422641
-4.642704
-2.721682
5.431976
16.496957
-3.929869
-1.615460
4.930657
7.896314
-7.796739
2.085919
-4.465806
31.486304
1.794024
0.824905
11.291991
0.251770
5.694415
-2.497548
1.650179
0.716972
-1.528611
-2.530167
2.644927
9.643279
-13.668372
-7.709743
3.860546
9.307504
-1.750314
-10.793781
-15.794906
20.130179
10.859802
-7.234590
-0.083297
-8.570921
8.233822
4.534743
-26.854261
1.524151
-14.730078
-14.790755
-6.524762
-5.756409
-16.152719
7.064368
-12.875833
-7.333792
3.776315
-13.263064
11.263005
2.300412
-2.779627
-10.144363
-22.537758
-5.516407
-7.942353
20.322168
5.659904
-4.605508
-10.510428
15.798602
-14.614559
-12.915099
10.733068
19.827633
5.032228
19.429135
5.235792
6.331901
-1.281352
5.640332
-5.537119
-5.803802
-2.186647
-2.327887
-2.241335
11.477949
-6.436124
20.242081
-6.189640
-12.952064
-9.364790
1.132594
2.686479
-16.842898
-2.378006
12.736959
-2.129200
-16.710574
-12.689510
-12.513354
9.000483
-4.249555
-10.646617
4.108084
14.855639
-3.965051
-11.084022
-11.191157
3.550616
12.527238
6.648760
18.905474
-18.470474
14.382605
-12.337305
-4.057597
-6.159830
10.017026
1.220258
14.099358
7.665518
-2.623632
-13.687960
5.944566
0.340042
11.966969
-4.381333
3.006392
-11.069418
1.661319
5.605401
3.290995
-2.472514
6.378420
5.076966
-7.940976
10.106185
15.555940
0.618116
0.545760
2.032872
-6.487863
0.393626
0.705107
-13.165549
-8.330213
9.119598
16.003423
-12.502379
17.234588
25.657748
4.218420
1.284854
15.987546
-2.977313
1.756819
4.105410
-1.981292
11.936674
2.398386
-3.697423
2.331698
2.451043
-6.919313
-10.082166
-15.494419
12.231418
-7.057232
20.452328
2.850435
-8.416347
15.151360
22.221099
-10.441885
-4.645851
14.659816
-17.277023
-1.649268
-17.613962
13.575351
-4.284353
-17.378748
0.430508
13.922605
6.280699
-14.095130
5.330568
-10.356585
27.278507
-4.344715
-9.160317
13.756654
-9.604553
5.940693
-7.607219
-11.184490
-7.447951
-16.123897
-0.526708
16.546723
11.091656
-6.026185
-7.882064
-0.776795
4.242259
11.617720
2.225108
-13.424880
12.976496
-7.981016
7.438686
-6.633915
7.924841
9.823671
-13.724422
-0.520440
-2.608378
-3.237788
-10.407219
11.153888
4.708812
-5.138090
20.615423
-7.394449
2.165601
-0.074029
-1.614743
-13.383710
-3.934005
-11.959759
-2.464391
1.861195
-3.505862
18.247180
-6.365661
-7.862715
1.358759
-10.186291
-20.334618
4.857675
2.793439
19.564360
-16.091000
1.171932
-7.284312
6.891355
9.498737
-13.134021
-2.675096
-2.956420
-7.342760
-9.120289
8.137302
12.151018
-2.965641
8.449566
0.040947
-2.463524
13.584013
-10.611168
5.706677
0.375144
4.790682
10.124173
-0.650009
5.056534
-2.357413
3.136027
4.235195
5.359845
7.582658
-0.611224
-14.202590
-3.854418
-7.087881
-0.764697
-3.321140
-3.702258
13.821027
9.702074
3.337469
-2.614387
-8.018294
11.463841
15.547176
3.515983
19.042018
-9.152404
-4.243478
-24.073746
17.007132
-8.408106
-3.212028
23.657686
-18.920560
9.346884
10.240852
-6.404886
-10.066806
-5.615848
-2.290414
-11.913826
-5.199887
-0.206012
15.937567
2.870239
9.108530
0.015632
-5.352389
-8.582295
-14.524155
-7.335206
18.032520
-0.158442
5.331079
-4.571435
-7.000235
-20.345997
5.898370
30.196581
8.311905
4.442393
0.618416
13.661865
3.880440
4.122720
-6.967669
0.102866
-6.694240
-15.547121
-12.706861
-6.190003
12.470044
19.460732
-4.652392
8.160390
2.342361
22.350310
-3.750769
-2.841272
-18.314270
-3.857602
-9.293453
-7.951145
6.120152
-10.004027
18.928077
-5.250169
-20.410301
19.742697
-5.471417
-12.329697
10.209537
0.443324
11.872726
-8.768457
2.405814
9.874578
10.678753
7.660010
15.029940
5.140651
-3.366817
-13.766228
-3.194855
-0.935486
8.198976
-4.904772
-6.869356
-17.203527
1.916602
0.887950
-2.314799
-10.105000
-25.470610
11.259983
-3.333765
6.376397
10.597448
-20.948402
9.820488
-4.230390
-4.872146
5.301420
-3.015814
-7.118184
7.120890
1.258774
-4.082954
-26.277512
2.199705
-2.127532
-4.170283
-4.441949
-4.552407
-4.929031
9.611055
-0.235659
-3.943202
23.618342
2.705995
-6.506326
13.964806
-11.355890
19.770602
-19.673604
1.452265
9.989843
-7.729990
-4.696991
4.171115
-5.161902
-10.458069
10.653727
-0.830107
-6.428726
15.502779
9.863348
7.141666
3.220558
2.561213
-5.851482
0.547191
3.103936
3.555909
13.694833
-11.018784
0.570019
0.706113
-15.883641
7.942843
6.607106
6.851513
7.447676
-5.813072
24.674586
-3.676385
-17.204103
6.781121
-2.702614
7.289929
4.935097
11.843589
11.893512
11.824807
-4.820200
-0.068831
-18.314486
2.788288
-1.674150
-0.538229
6.829827
13.855120
10.755222
-4.817350
-0.274400
-12.715020
-2.778539
-24.754511
-2.039230
23.421161
10.305121
-15.742322
16.229697
-6.589896
11.365106
9.967680
-14.136144
3.906426
9.733578
-20.153789
-10.756484
-12.230849
-14.592421
-1.557165
-6.026411
-3.261989
13.186257
-1.863204
-2.973420
-10.190625
-5.948648
0.709569
4.011703
5.685600
-1.156361
8.491272
9.633044
10.613545
-0.630164
-18.995972
-8.569506
-13.764745
-9.775093
11.782196
-3.177066
12.265215
9.158844
0.786208
18.041568
4.617758
10.754531
-11.654133
-6.936984
-3.697297
8.680048
10.156080
21.369648
-15.143285
3.261509
-8.211590
-12.306157
-4.380232
1.581057
-5.825964
19.715926
-8.261751
-12.519901
6.811033
6.545871
3.931935
-7.759018
-10.066108
3.744537
-2.519298
22.150818
-7.785780
-0.464283
18.060449
-3.726641
-14.895651
5.848460
2.908711
17.237866
4.574184
-7.409205
3.053466
4.488750
6.284096
-3.771172
-12.596069
-14.143494
-2.107099
-5.652170
10.241905
-5.636168
11.661170
1.736584
3.832359
-3.664460
6.041989
-5.693473
-7.393108
-11.560422
14.163061
-16.246119
0.136823
-10.504492
-2.623042
-9.100743
-2.794688
-12.110447
-8.277792
-14.370247
6.603700
-14.595301
13.863474
-6.955589
7.852012
-20.886601
2.558339
-2.533755
-1.276898
6.616785
-1.067173
-6.721726
-1.073952
15.567846
9.124976
-8.335805
-11.785883
5.511205
-2.379875
2.923287
-6.645229
-7.335824
-3.846551
-7.875002
-5.015683
12.148457
11.312057
-17.561823
1.493885
5.999926
-21.101234
-19.600426
0.805284
-7.839469
-2.476335
12.035554
-22.343529
-11.603017
-12.789421
-2.366942
10.585038
-3.130611
-12.124463
9.240024
-6.154436
8.888387
-20.672571
4.090477
-1.497245
-21.471122
2.981101
-12.007086
-1.319485
7.124871
-26.491672
-5.952301
-1.180811
-10.495697
-4.255485
-0.250519
4.665909
-8.650160
-17.016626
5.595840
-3.555814
-1.408388
2.246448
7.519641
-16.870052
-19.014441
-6.858970
-2.035899
-15.675345
-4.310878
-25.078645
-6.474585
4.688862
-12.865906
-7.999016
11.245028
13.767918
-9.777612
11.977540
-12.090099
15.107460
23.978550
5.774312
8.185784
-4.689833
-7.278045
12.335406
-2.708894
15.807397
2.518173
1.585488
8.144488
-2.503245
7.140254
10.763019
-8.922531
-3.324127
19.430181
-21.540939
2.916142
-4.246994
-11.675575
-5.325995
-1.377732
-8.551319
-8.500975
0.148019
2.769929
11.047823
6.816483
-14.041466
-20.791486
2.556363
-19.610399
-2.463530
-9.190485
-2.451059
-17.388159
-10.586171
15.729370
6.102765
-10.379272
2.466757
8.187812
-4.397654
-4.378391
1.605439
2.350526
5.891144
-11.227650
-3.685747
-14.222509
8.949254
0.857780
6.656375
5.760549
-16.743396
5.035130
14.923886
8.616485
-5.446820
-1.547824
1.124982
-2.204624
-16.291591
0.909619
-11.128679
-21.159316
-5.664588
-1.179789
-4.852726
-13.604641
-8.562710
10.991927
-15.329239
-14.510892
9.889960
7.143768
-0.001650
-5.309583
4.089926
-12.341300
-6.845699
-9.396535
-9.656657
-5.861337
-9.889874
-5.763263
5.385075
15.779816
11.005217
-9.480746
-5.103090
4.446370
7.227027
18.497436
-12.743526
6.233021
7.908524
-4.266552
2.381940
-6.139786
1.122462
30.422407
-24.783168
17.130598
-3.621678
1.760755
-0.794336
-14.395394
16.619736
4.847124
-1.210759
5.761229
-7.617569
