8.703812
-3.340430
4.546238
-11.610474
10.373190
-7.422916
3.373493
10.244180
1.451267
-2.366682
-9.948226
5.198522
3.860483
6.400858
1.050241
-8.490444
-8.556094
-13.919958
-15.261847
2.195556
12.899369
0.632278
-13.344232
12.776797
-3.685320
3.418821
-7.767208
-6.726448
15.762752
4.757035
-1.769622
1.067387
-5.603336
-5.647935
-9.206205
9.126977
-11.304053
9.962124
3.329238
-3.572058
7.203595
-6.617498
22.691431
-5.536650
8.558398
-11.620574
9.795250
11.245814
9.429629
4.927205
-2.820885
5.662576
-1.219231
-8.003788
-5.928103
-3.075183
16.296702
-10.628938
-7.480840
19.648559
10.903808
-1.719978
17.449551
1.857607
-2.479792
-17.064963
8.818003
-3.679681
9.802432
6.294324
13.546488
-10.874522
-3.347140
-15.185633
-6.248181
-4.831501
-4.608000
14.447813
7.737477
-5.497033
-5.045231
-12.861774
5.180656
7.063622
-12.205004
20.121733
5.691516
-4.476240
8.922810
16.091070
-8.635157
1.369439
-2.698510
-3.616801
-8.378861
-6.429669
-8.344310
-7.423069
0.384001
-5.587409
-6.038502
-0.578617
2.684342
-5.774067
6.873794
-20.045100
-18.859804
-11.153975
-2.113919
-15.254197
9.414293
-8.179464
7.885794
0.358324
8.278465
-12.784421
9.480469
14.146523
16.214353
-20.969448
-1.478486
13.203310
-19.995176
-3.270263
-3.055320
1.295848
-4.174277
-2.071214
-14.196427
11.085891
2.834840
-16.625001
20.294220
1.821045
-15.893099
1.081909
-23.419145
3.170494
-14.186427
14.083800
6.397176
-6.987752
3.785030
-16.581539
22.196304
0.617849
-7.163764
3.624636
-20.163533
12.820845
11.261128
-9.032433
12.702592
17.053443
-0.987652
2.309736
-5.971573
9.171377
6.962609
-18.997368
4.868927
-4.906065
1.969998
11.706884
7.945402
1.567165
0.588846
13.915377
7.597475
0.547692
3.064019
4.022461
7.853614
10.842975
2.916053
5.814634
-2.900933
1.836014
3.343294
9.958224
-15.959357
16.039690
-0.367340
6.545120
-11.999232
4.913633
15.004456
1.413849
5.311423
-3.738031
12.759705
-15.290254
-5.771655
8.187236
-5.317828
2.820167
13.724940
7.349111
-15.498439
-4.167885
-7.884696
0.249599
-0.679018
-4.909550
6.775193
2.542132
0.268962
3.222900
1.889162
9.750649
8.840604
-4.081546
15.021669
3.996263
9.686667
-5.423261
-5.853310
-7.394607
-3.608640
-15.263692
4.637870
8.558739
-1.668556
7.163333
-5.005259
-4.571051
-20.615991
12.179887
-9.236337
-3.846387
4.016156
2.900744
3.088177
-10.399237
1.651238
-5.411946
4.568484
-15.134597
16.338282
-14.052473
2.365516
9.782050
-9.383792
3.763845
1.635063
-16.645948
1.854126
-19.980647
-8.941744
-10.096317
-17.459748
-6.242037
6.352329
-9.420372
0.598206
-7.478271
-7.472148
7.129166
-1.949384
1.369978
12.095650
15.710789
2.479256
14.757817
6.484364
9.671289
0.416768
6.528399
6.088323
-16.371993
19.043080
-7.434078
-6.754168
3.044923
-4.908681
-26.967711
8.772801
-10.058388
-16.801880
-16.265438
-24.903323
4.194510
7.341442
0.556951
-11.129798
21.085928
-12.088857
1.549821
5.995446
8.096755
-8.663769
-5.555566
4.677323
6.138938
-2.023765
-2.718480
16.360158
-2.795912
-3.980175
1.576503
7.297755
-3.240188
-5.516777
2.656550
14.558609
-12.006347
2.598961
-11.806915
-0.287530
-9.768535
6.193596
10.102115
-9.031440
-0.851455
-6.142211
5.510334
-5.414941
11.170486
-8.048895
12.495231
4.340226
7.041021
2.573343
-8.366367
0.075212
2.151429
-2.131605
-11.836840
-9.297795
-4.830468
-4.839371
-7.398266
-8.146108
-8.385572
-7.105641
0.753765
1.026106
-2.358630
-0.870928
-10.681547
0.694878
-6.936109
3.550055
14.583153
-0.480700
15.218480
-6.474975
-4.482514
-4.992917
0.716753
1.747696
11.808955
0.248675
0.807235
8.261908
-13.453660
-14.000062
-4.219911
-2.005069
10.555619
1.218130
-9.639204
2.228346
6.275396
0.051936
8.695302
-5.088503
12.123963
0.523000
-4.642516
15.051205
2.443715
-0.816915
-18.667617
-4.887846
8.360128
7.606238
0.582874
0.424078
-19.022043
-12.399937
-4.739086
9.224938
-0.689379
-7.874273
4.638792
5.079552
-1.720423
-18.500522
7.986154
-6.583406
4.434029
14.027459
15.093753
-9.235653
-8.097294
3.499446
-6.324794
16.863839
-7.645809
2.714300
-3.854500
6.916379
11.158222
0.128332
0.776852
2.043926
1.764892
-1.903164
-13.059707
-4.270893
-22.320009
-2.795948
-1.919708
0.439194
1.316881
-10.486714
4.528855
-19.278651
13.455367
-8.029552
0.353082
-15.472536
0.948083
-12.401876
8.913197
-8.311080
-20.494452
-4.288326
-4.810122
-0.357853
5.190883
-3.794983
7.177534
-17.707336
18.219468
-8.113538
4.508106
-12.809362
1.318080
5.741472
8.543835
-14.331659
-6.129445
15.408876
-10.273344
-8.761552
-2.459627
-11.390906
22.439425
-4.206507
1.217348
-14.153670
-3.391392
-5.379817
0.832150
-5.122221
-18.741402
2.169576
1.401241
0.004987
-10.441088
1.339489
-9.810863
0.412388
11.893619
1.072476
1.965121
2.587082
-3.092983
10.913379
-15.360325
-12.364479
-5.422269
2.671280
-1.856224
3.748451
2.597046
5.958845
-2.562201
5.971599
3.681204
-5.776128
16.591273
-6.868416
0.105721
-6.228341
1.860723
10.716773
-5.928558
10.897211
1.217837
3.672025
-17.234231
14.237635
-1.502634
8.620319
-2.225784
-1.795994
8.503259
-9.393028
9.127470
10.855733
-15.722321
0.883066
-2.234004
2.139690
-14.279255
0.274517
0.708094
15.646614
-1.750068
6.964811
-3.972356
1.353324
-3.956769
-7.839667
-5.016757
-10.047640
-4.679035
11.404546
0.312633
-8.646022
-3.665632
-19.798575
-10.313591
7.998511
-0.343530
-11.181119
5.242820
15.176899
-8.776156
-4.899910
-17.438753
3.354586
15.166591
-4.275567
-7.682682
-14.268513
-1.866515
0.285421
4.792904
6.772823
5.267220
-0.006853
-3.430850
-3.255685
3.403077
3.328482
-6.699302
10.777825
7.884305
13.507897
-5.920464
8.849773
13.736063
19.858216
-5.915518
-5.944721
8.375556
-6.076998
-25.613235
-12.782164
9.196285
-6.373823
2.888966
7.971382
0.327880
7.857928
-19.738838
-3.866851
-8.617003
1.341528
-0.200334
1.773250
-10.165152
-5.076262
7.717006
15.424986
14.370619
8.664792
9.064240
-14.978931
-18.181464
-8.866193
11.730684
-5.181445
6.458102
-6.446400
-0.926502
13.083794
11.431567
6.970111
-7.472962
5.375214
4.134638
1.052567
2.804448
4.292734
-17.829753
-5.640764
-6.178670
-6.571451
-9.929714
-9.907285
2.751776
-19.118243
-8.072487
2.958582
-7.672541
1.037677
-7.699515
-6.081881
-3.425777
6.116718
-3.531218
-4.836710
-9.298648
-0.119151
18.774350
-0.430071
-5.367930
6.654179
10.802408
5.307638
-6.431421
-9.864879
3.741897
-17.552033
-14.028793
2.543398
8.287419
-6.649765
4.598522
-4.897595
-11.107419
4.071983
0.206201
1.789510
-2.622505
2.659584
-9.404253
0.619233
-12.848419
-5.534268
-5.016290
-21.940334
5.641581
-8.163189
3.263012
1.695278
16.721838
-5.068993
-2.337385
-3.151849
-10.233003
8.237937
-7.593615
-20.221904
2.252750
1.170892
1.588347
-0.036095
12.052028
-2.356358
0.596239
-5.319245
11.630927
-0.890631
3.086235
-0.620808
-2.131576
-10.538691
11.536010
-13.742701
-10.929325
8.271792
-1.188432
-25.135689
-7.212202
-0.282373
-0.543022
-12.670012
-6.797493
2.539517
17.183164
11.689808
0.338207
-20.775255
12.815441
3.632300
-6.837813
-10.171211
-3.289687
-12.207480
0.449086
-7.466039
-5.288159
7.623266
12.882168
11.151755
16.895582
2.660176
-7.168594
-12.634027
1.938588
6.110902
-1.165652
-0.474663
-19.856024
-3.190628
15.869346
12.008362
-19.726102
-3.650496
4.280725
-5.537360
-4.432159
4.404370
-7.081991
3.265107
-13.835183
-1.195083
3.552906
-10.560077
-2.548223
1.076998
22.620067
-9.226113
4.583049
-14.130140
7.746002
-0.940636
-2.593854
-10.110024
-6.726346
7.566594
5.232984
-3.141960
-11.861567
17.622588
2.889845
-7.648275
-0.559842
-5.741000
-0.600690
10.776897
4.713418
-8.131790
14.512700
-0.915021
-2.493369
4.925202
-14.678110
-3.128472
-5.328639
12.448172
5.781046
-1.170067
-2.769104
5.138670
4.761124
11.843471
8.443508
-0.095759
-3.711576
16.642331
-4.337014
-12.500851
8.138049
15.347265
12.225131
-12.127126
-4.686182
13.204630
11.910703
7.772026
-3.332472
-5.010875
-3.841294
1.390015
-4.980968
-2.776459
3.637133
2.414685
-4.684517
2.554976
-0.268688
9.455570
14.509426
2.982845
-8.099625
-7.322954
-1.130771
-9.987477
8.803909
-15.927624
1.554663
13.943528
-3.822969
10.285088
-19.158268
4.590224
9.539533
16.577274
-2.958491
16.425443
2.659286
0.681070
9.851174
-6.246423
1.498687
-0.373985
-13.313495
0.180701
-3.676882
23.676601
7.064279
1.083466
-18.196435
6.046550
-12.085338
3.299819
5.696338
-4.404640
2.317036
-5.949628
8.292021
2.785627
-15.265547
3.757680
3.352479
-17.286264
12.358588
7.570536
6.456085
-1.719901
10.040957
4.869175
10.895103
-1.378963
0.151615
-4.370733
5.684875
8.083894
12.263898
16.502600
-21.514174
-5.249253
17.684574
17.216202
5.260044
9.997126
8.534039
11.049781
5.087441
-7.496144
0.605027
-10.046304
-21.108723
6.464143
-1.924059
-1.914318
2.157223
1.183952
-19.230125
-9.065823
5.166824
-5.575562
-3.835072
-13.614373
-3.213111
-0.498744
-7.414656
0.819715
11.049550
-2.133580
31.043149
-13.783998
-5.962417
6.455640
-7.788841
-6.107214
-0.335264
10.642092
-2.761720
-2.977640
-2.216105
19.412095
-10.160271
-8.741909
-8.763873
-9.559083
-1.144001
-10.545068
11.412100
-8.294301
11.948747
1.117920
12.581387
-3.873179
-5.783936
21.948133
-2.353891
2.346891
-5.382827
-4.777995
14.931413
10.288596
12.861801
-8.654905
13.097931
15.485821
3.445432
-18.747056
2.681982
-2.103041
-2.316895
-1.334591
13.489356
9.106537
-17.834040
5.798112
-3.333749
5.071759
-5.834397
0.125640
-4.549660
-11.447388
3.634609
0.416901
-4.022752
-5.227747
-10.739801
7.427664
-3.451495
-2.589361
-12.342662
-22.588129
-1.446303
-3.123314
9.826553
4.907040
4.899456
6.222721
-8.471610
-14.193400
21.357321
9.003493
-18.735514
-2.169644
4.372704
-19.885827
-11.846215
-29.831127
-2.549513
-0.898958
-12.630103
3.930305
-5.097958
-4.357003
-10.175731
8.412191
4.979212
2.187242
-8.776480
-4.901337
2.134258
8.533914
9.972005
-18.179722
0.133387
-1.426660
-2.142658
6.073236
-3.603307
14.172660
13.714201
-20.237134
8.842444
3.224917
-4.465277
-7.436984
3.121895
-2.639446
3.411491
-5.773642
8.389899
-5.017064
-9.828700
-9.204729
-3.643747
1.273462
2.916690
18.300850
16.615390
-2.567265
-11.735935
-12.703602
3.957779
-7.173949
5.034253
10.094225
-4.038011
-5.556374
4.808807
-1.158970
4.284985
-2.177962
8.454720
-0.087712
19.538515
0.919804
0.689180
1.793103
-2.793414
4.679794
-9.396828
-11.503832
-7.122229
1.476736
11.222253
12.057402
-1.709549
15.681679
3.085224
-0.463841
-2.633806
4.876457
9.719052
-18.650050
4.331867
13.769725
-6.201311
0.531081
11.078433
12.970934
9.983872
8.945546
5.230300
-0.540857
-11.807601
9.727540
-7.688048
26.786513
0.801518
1.745103
15.304834
1.022478
-10.562547
8.214777
1.881512
12.134840
14.073409
-6.550086
9.903238
17.126851
-3.558300
15.513384
12.929765
1.963371
-10.923593
-4.780014
4.734102
17.708335
4.944805
-5.874817
8.970458
15.410098
5.493315
-0.154249
15.490619
2.577023
4.155400
-9.144245
-9.804946
-13.726901
21.159780
6.372592
0.603737
17.372148
-3.990862
18.585315
5.219025
-5.981003
0.701360
7.725256
4.406804
2.904821
2.252168
0.533825
-5.384825
12.678692
-15.749927
9.824268
-2.326968
-1.351723
5.886442
-21.331448
12.307916
7.626785
1.674386
7.963845
8.615296
-3.554166
5.784003
6.097258
-9.444344
-10.112150
1.478839
-13.164633
10.814340
18.158812
0.233297
20.959339
2.613863
-10.182800
-23.134182
8.008150
-6.939395
-0.097724
8.363215
-15.180558
-8.654041
7.400890
-9.796070
-5.365850
8.409343
-3.195717
-5.991727
-3.495802
2.300344
11.521412
-3.019926
24.025057
-2.180322
7.775981
2.264856
-3.260783
12.570318
-13.172808
-8.822726
-3.436508
4.941602
15.805535
-11.264881
-2.467693
5.560434
-22.144380
0.122013
-11.039052
-15.261610
8.422825
7.545936
1.857457
-2.722197
-15.456203
-13.269052
1.277922
-8.112332
11.382410
-5.688374
-4.354082
12.021697
1.710001
-12.360636
-9.313805
-13.580639
-10.367231
9.122234
-1.997852
-10.682621
-4.260880
15.116006
7.496346
-0.206275
3.294362
-11.007297
-4.874959
-11.351936
2.997147
-21.914221
-16.991731
-1.633090
7.858282
-1.808201
5.863174
12.084807
12.280829
9.041438
3.439226
12.240306
9.536430
0.142359
-5.007910
-12.140537
8.150131
7.473676
-14.535762
8.874151
17.542287
-0.400004
-15.448580
3.767701
3.682872
8.212108
-9.667025
22.046639
-6.246009
-0.815172
-4.296032
0.690520
-9.288273
2.936864
-2.492242
-12.204359
-6.388496
3.541488
19.511052
-14.020973
-8.973558
-16.473113
-7.258796
-6.242740
-6.721497
-4.783385
-6.128615
-2.979202
6.770167
9.088209
6.404110
1.855245
-6.668251
-8.481537
11.078011
-7.945675
7.998349
-12.015530
12.392676
-6.253038
-8.782693
13.814568
7.057252
1.999139
-7.925687
0.037731
0.852725
3.786102
2.577292
12.276250
11.113121
23.564443
-1.018542
-18.880874
-6.154253
14.599152
2.773180
-7.834960
11.072621
10.267281
0.129020
5.046543
1.052774
6.162219
-13.684213
-0.274247
-9.172686
-12.677602
1.513974
-2.361146
-0.388615
-7.968300
0.470447
-5.655654
-1.869946
-3.400045
-5.879887
-3.968611
-5.283908
-11.294158
0.175444
-5.220134
-9.139418
-3.100428
15.294791
-1.524948
-0.176795
3.823033
-9.410943
-15.977598
2.009260
-0.778269
-0.956449
18.499094
-8.435690
-13.701862
11.139594
0.133844
7.222427
-7.865783
6.464114
1.953027
-2.150620
-6.453768
-9.011932
-8.329795
-3.387120
1.837371
9.309448
3.693244
1.862619
0.844854
5.801803
-2.015654
-5.544150
-1.154177
3.172526
-1.721505
0.731547
-2.863526
-7.520940
-16.891231
4.523090
-12.331712
7.504741
4.471872
-0.366666
6.105959
-18.677441
-10.149524
1.799413
-7.935012
15.115115
-4.522698
-0.103498
10.107601
2.230408
-6.917372
-12.862083
-15.822828
2.789056
1.074099
-4.393668
15.379747
7.272355
-2.299567
-16.390785
4.373577
-4.968886
-8.795805
11.926097
12.056380
-5.526874
0.367239
-10.705166
12.836428
-12.626339
-19.295657
8.890057
0.510849
-12.552699
2.577278
9.241311
-0.868205
0.891947
-9.737854
9.705738
-10.516781
-7.135155
-4.849171
12.453543
-12.938606
-15.445638
-20.298782
-2.158408
-2.177464
12.334212
-7.485708
7.527863
-12.481427
-5.167474
9.364287
-11.597226
-0.007331
-8.408815
23.050463
2.475663
12.785800
4.736893
-1.854238
9.878846
16.328457
-3.620755
3.076720
0.589763
-5.916889
-6.085172
6.548009
-13.172018
-10.454897
11.529167
11.795871
8.641716
8.456533
-18.297870
-1.199634
-0.589095
-0.511167
-2.072333
-4.360559
0.322478
-1.029024
2.146735
8.880066
-3.672952
3.659620
-8.265625
-3.231267
5.265319
7.389686
-2.484683
0.466822
-5.512468
10.281583
-0.702985
-4.255959
14.879812
12.248046
5.989182
-9.656636
-9.297628
13.321392
-6.129615
-7.324027
-1.751533
-11.333683
0.321286
-10.745362
7.578001
-5.582782
-8.535157
7.058498
-4.263161
-6.656916
2.254091
-6.218190
4.137491
2.124218
5.352444
-4.352983
8.315672
4.549940
5.984372
11.912963
-13.948743
5.572398
2.566830
-9.070157
1.022911
-0.337593
5.227387
-10.780360
16.051431
-5.575849
-8.765653
7.071686
-0.926521
-5.759146
-5.504917
7.589350
14.621549
3.320754
5.524844
4.749228
-21.161503
-8.224442
-10.070441
3.099183
8.595478
4.374987
7.563025
-6.943642
5.008924
-0.766632
4.466172
-8.488603
8.884211
4.980579
1.523396
23.184913
4.838709
6.921765
7.223026
-6.438315
10.317167
0.854289
-17.434896
-2.000606
9.071143
9.796489
4.870561
6.670470
5.368849
8.145152
11.457920
-2.524813
6.163697
0.336919
-0.359380
-2.163143
-2.041913
-4.746870
-12.902327
-2.398582
-12.505329
-1.663291
-11.261518
5.382976
6.553589
3.588624
1.117720
20.532856
10.382033
5.437473
-9.732209
2.071358
-11.693521
-0.754665
-6.264456
8.922268
1.646885
-4.426184
12.109410
-1.776101
6.696270
-14.280860
11.933543
1.053134
2.840160
-7.732892
-10.958455
22.507630
-13.118131
1.662490
-24.105810
-18.926274
0.575561
10.265342
-0.627078
-1.824593
12.061629
6.820092
0.699832
7.892029
9.959171
0.725798
-2.216592
2.094271
7.134556
7.773972
10.068304
9.334247
-4.296745
-3.582858
-12.349411
-6.797054
3.864999
23.425730
-6.436641
-6.145058
9.197434
-1.739911
-5.582588
7.480841
-6.654618
3.522106
3.413526
6.065720
0.166904
-0.051529
10.239669
10.472497
5.954237
4.827877
8.123692
1.122260
-7.175038
8.506145
6.576871
6.443182
11.557038
0.659424
-11.421581
2.921384
2.079767
2.242594
-6.577758
-7.732193
1.612981
-4.395585
18.243171
9.539538
4.610763
9.617226
-0.608862
10.589673
-6.396462
10.712452
23.213712
17.373812
-10.906786
14.098753
22.925058
19.287723
-7.616465
-4.633318
3.115922
-9.426455
-0.210591
4.936173
-13.094918
13.837927
0.890354
-8.605613
-10.008545
4.293166
1.203159
-3.389834
-13.841947
-3.322564
32.642150
1.444575
-15.954180
13.094437
1.079670
3.118902
-4.750391
7.079739
-2.139477
2.704892
1.824976
4.120940
3.835838
9.942060
-3.239518
-9.026564
2.507223
-0.750309
5.678849
-19.068222
4.008494
1.928355
12.391947
-4.906645
-11.398131
-2.697507
4.056915
1.740499
1.620091
2.061837
34.230011
0.586421
-4.987487
0.441144
11.731927
-3.080112
-3.904444
-4.914208
3.465123
-1.261958
0.876503
17.718294
5.199291
3.036297
-7.805455
2.427521
10.606942
4.765160
-6.004112
9.932769
-12.168173
7.214289
13.596540
-5.747251
0.254659
-3.772209
7.063115
-14.808504
18.030803
10.129407
1.649136
5.119052
-17.210769
11.227408
-5.507015
-6.753256
3.041183
-20.815754
18.469736
-8.411683
6.332092
4.917148
7.564870
7.531832
17.680446
1.829921
-0.324777
2.733141
7.200926
-20.751656
7.090523
-0.466374
6.056474
5.388610
2.919319
-10.697583
4.535912
5.799535
-5.124927
4.287513
-7.620520
-2.913681
3.286664
24.226859
-16.264210
-10.082688
3.548118
-5.676866
11.376769
12.792877
-3.647195
0.656541
2.472564
-1.152967
-14.231479
-22.149166
1.795925
3.272393
4.658937
-8.237775
5.853968
6.916113
9.059099
3.433100
-4.160347
-3.183100
-1.023808
-0.612884
13.470671
-22.506227
12.899476
7.248225
-12.212917
-3.438615
-11.797216
-10.261395
-8.029822
-12.453431
-1.802816
2.139672
13.893293
-2.062327
-5.791629
-1.930371
-16.711493
-14.320131
-11.092564
-7.827054
7.148160
3.702849
0.614618
8.710858
3.287887
5.018398
-2.406611
-12.844542
0.689835
8.426198
-4.433204
11.057154
0.275636
12.667630
-11.795796
3.700717
10.410252
-7.609311
-1.771008
9.024741
1.992533
4.643572
8.451568
2.226574
8.427380
1.299715
-8.741512
-6.545471
3.226870
-13.103575
13.450100
-23.736758
-5.511566
6.451260
-12.270014
1.214543
11.824037
1.889230
-8.821733
-3.478985
8.846196
-16.704970
-8.571988
-7.435000
11.962175
-6.164769
-5.152844
-5.113761
0.048985
-15.031394
-1.392848
14.438735
14.509038
-0.972740
-6.075590
-1.984923
-9.641478
5.775176
-5.265002
3.673687
2.080426
17.584831
7.058438
-3.723844
-8.897414
1.742446
3.510729
-1.420679
-0.903918
3.512594
0.561635
6.500026
-2.615900
0.944643
2.308227
-3.928670
-6.169101
-7.251131
12.575110
5.119275
4.443258
9.147004
-11.482432
21.017254
9.936040
12.073374
-4.585483
2.030725
3.773595
-6.901854
1.636856
1.034962
11.876674
-7.434600
17.856642
10.317600
-11.068383
5.894282
-0.704732
-1.635087
14.989439
-2.324201
1.534332
5.887866
-19.340389
-2.208486
4.486744
1.816660
3.382170
-7.896331
-1.936134
5.306707
-7.523938
21.751093
-4.113798
7.135207
-12.620333
-1.450613
9.943356
1.093211
23.675894
4.696066
13.081997
-0.934045
4.739332
-8.150019
-0.515240
12.955532
-5.957466
5.020275
4.931297
-6.507669
5.299050
19.578610
-12.954812
-4.718553
1.165567
-4.810593
4.039294
5.171357
-5.121453
0.625269
18.280715
4.235232
7.231001
17.671656
5.164555
16.013228
-23.238206
-6.007291
-5.486484
-0.452850
-0.892987
-5.886684
-5.686443
-12.076464
4.781591
8.309153
14.661977
-15.238690
-4.125612
1.123969
-8.811887
-3.712519
2.466351
1.616577
-13.649808
8.831570
2.274550
-10.524247
7.770830
3.290397
7.018155
4.274343
14.024543
-7.566419
5.936769
-17.875743
-7.157889
26.186304
-14.291262
-16.584708
4.169331
-13.308518
19.225613
16.769594
-16.166259
-5.934277
-14.818555
-7.437325
8.510392
5.321036
-5.138444
10.998753
-20.918387
-19.137830
-14.089824
2.321467
0.478870
7.755834
11.858988
-0.222280
3.673164
-6.998337
1.603040
-5.695993
-12.109908
-4.268392
-9.097111
-24.617376
1.442962
-5.167212
-2.638148
4.985072
4.093108
-10.480823
-2.353365
1.041453
-0.831899
-0.959833
-5.405247
6.457241
5.363374
2.778772
-9.287673
-17.380093
5.557491
-26.745525
-4.839582
-4.941763
16.235772
14.742137
-4.724603
13.901666
9.534649
0.659258
-6.305169
-5.353157
16.700053
12.850276
-5.868541
8.335108
6.364777
21.030430
7.623332
-2.878080
-16.089273
8.294311
6.484596
17.581810
-10.669710
-3.336540
-5.648276
4.800319
-9.526154
-2.040949
-25.549267
3.020768
13.838785
2.008419
-1.948854
15.376900
6.998880
1.283814
15.826777
-1.009887
11.441031
-14.321450
-7.988833
-1.039610
-7.590422
-6.357826
7.123825
-10.033787
10.214172
9.082379
27.298252
1.140114
6.782613
17.082303
-6.560976
5.805852
8.565457
4.166927
2.650223
1.799618
0.578135
-8.197974
-2.539510
6.633294
12.619977
5.285519
-3.029885
-4.730458
6.082766
-28.373899
-0.133742
5.573718
-12.912442
-14.613341
-7.689259
-10.324495
-17.161877
-1.680659
14.201903
-6.099961
11.729770
-5.418864
-0.651439
18.093650
-0.489974
-4.781675
10.363968
-0.409292
3.018770
-4.274594
-14.605921
-6.425347
-3.098792
5.826727
-0.599940
-0.137628
-0.895740
5.138277
1.656058
-9.174681
-0.083655
2.775761
-4.064511
-2.364567
7.850067
-9.149399
-22.490239
15.079261
11.981218
-6.032118
-4.094825
-13.307705
0.468675
-11.041068
1.476433
16.389463
16.029812
-5.240774
-3.499137
4.243758
13.088065
-5.625883
-5.591700
10.812647
-12.396194
-5.941379
0.172141
-15.939913
-8.256016
-1.535185
-6.159989
3.153730
-13.429397
-3.800971
4.536185
-10.578907
-13.559532
1.773219
-30.230795
6.514507
-6.264513
4.009180
-4.460652
-8.440592
0.887835
1.199528
4.527301
6.305118
2.303816
13.537094
7.334273
-2.889394
-26.389162
5.762825
-11.768687
14.519850
2.584212
-12.738716
9.834046
10.083982
3.469164
-7.256279
18.445344
6.886236
-2.053384
-17.891323
-7.671469
-1.139265
-3.517721
7.048148
9.419840
10.135368
-9.703432
-3.681837
-1.242456
-11.405431
-6.905226
-12.824949
16.722870
9.916441
-32.919998
0.011054
2.835950
4.771534
-2.693686
9.014868
13.854338
-4.481220
-10.094563
0.431307
-20.433720
0.219907
-4.593711
-3.071941
-5.158308
11.996247
3.664931
-3.187802
1.924613
10.622831
-7.823184
10.865959
-5.245185
-5.206268
2.129982
-13.691075
-12.651314
-19.100051
-1.459312
14.609502
-7.159781
-8.070858
2.443458
-4.706190
-7.053589
2.896131
1.413676
0.466940
-5.900347
-5.612808
-6.445850
1.304529
-1.312728
-3.809433
5.174714
1.947722
6.915208
12.108855
-0.269506
-8.562909
0.995679
-9.323466
8.538820
0.963579
0.238463
0.192666
-16.540036
-1.082492
5.614260
-8.035008
-5.151473
4.045743
4.656909
-4.397449
-5.496011
5.572308
12.322003
2.740767
9.446138
3.396875
-3.882421
8.025126
-6.468542
3.088909
-6.431021
-15.426809
0.686430
-2.724062
11.643519
1.516296
4.723870
3.595841
-9.795126
-5.207657
7.985994
-2.373059
2.637935
6.556787
1.605221
4.829320
-5.690577
-6.964069
11.057030
-7.949514
-4.214901
-12.399259
-16.018976
-2.764107
-3.104761
4.487701
-18.859474
-10.581148
-9.360026
2.214406
-1.739476
1.683737
4.818433
-18.601575
15.099881
2.766640
12.224233
-6.428528
12.533882
-18.868584
-9.338334
-4.678384
13.164517
-10.095458
1.697192
7.164064
0.795392
-17.072092
0.890223
-7.901214
-8.126225
-8.714175
1.430161
18.226412
11.916010
-0.017083
5.889175
11.153839
-5.367544
7.564117
13.190635
-3.777889
7.168121
4.909240
4.300483
6.164018
-8.872980
-3.241025
-4.589841
-3.488216
-14.816722
8.522922
-14.671112
18.393187
-5.816626
-2.807438
7.377797
1.356290
4.711675
-3.323264
-7.165233
2.689782
-9.057818
2.999257
-8.375189
6.758649
-17.353344
-0.398033
-1.122361
-12.588261
-4.254101
-13.511405
2.858364
3.553148
16.885658
-9.561414
-9.354696
0.581324
-2.928156
3.098901
-3.367091
-1.234083
-2.259588
-9.279202
-3.066038
28.221400
4.465721
-7.295873
-14.786423
2.155899
-11.974409
-3.415708
3.063406
-11.469114
6.745514
-16.387079
-9.852787
-8.299249
-10.067558
5.593144
4.064004
-2.911710
-2.780546
-6.056177
-7.058821
2.504380
5.420790
-12.249970
-9.598107
-7.928105
-3.617037
-11.217782
-6.088732
1.846398
-6.502314
-0.162249
10.104236
-9.119901
5.222680
2.572796
-9.545002
13.343692
-7.187546
-8.429757
-10.447528
11.889255
1.563633
12.985818
-0.817458
5.887186
-16.066989
10.565647
5.188421
-10.238083
-6.894363
14.307715
-8.728204
17.744512
-16.404252
-7.213051
7.264039
0.820601
1.912810
3.948901
-12.801363
8.810638
-2.846317
-0.026850
-9.756308
0.771345
-3.630210
1.197727
12.082084
3.002826
7.206996
9.211857
-1.536697
-1.132379
-7.995210
-2.247907
6.826813
-10.766931
8.864529
-8.113949
-18.237393
7.057032
2.219055
-16.965162
8.680563
7.818252
-6.224963
-6.658506
17.574178
-2.342376
-8.913667
-11.762008
-6.715534
-13.117249
3.663259
-17.521046
3.055557
-6.333843
-0.808163
-7.246346
-26.586643
-3.172800
-2.648188
2.754040
-9.366231
9.151565
12.913684
9.216741
4.950914
-6.836318
-14.851965
-25.332567
4.888102
12.461483
1.499646
12.853302
9.555270
-8.077630
9.168106
5.481021
-19.661693
5.018566
-1.660914
-9.599045
0.462966
7.466427
-7.741803
-9.794092
-21.073612
-4.072369
9.038264
8.020466
-7.857121
-10.431229
-1.528681
-8.110907
8.164177
-10.106155
-2.058610
-13.992692
2.885369
4.991914
18.266971
10.677206
0.136330
10.314163
1.692414
-12.812926
-11.507771
-4.765604
0.864944
-3.632577
0.464470
-5.695212
-8.375253
-14.013201
3.501575
18.341934
-4.830479
1.444581
17.228906
5.203626
8.984422
-2.708924
-2.215994
23.063800
2.694035
-9.276585
-1.868013
19.540563
-4.848173
15.163928
-13.412943
-5.617115
-14.229180
6.576285
6.699829
3.534149
-7.701989
12.031962
1.196725
-6.415672
-8.297184
13.491817
-0.089740
0.592739
10.230194
-18.579099
-3.710180
0.555713
-22.632790
6.816056
-3.283686
-19.801954
-2.952915
0.862914
-6.047529
-3.099224
14.269607
1.402841
-1.124019
-16.275801
-15.718597
-1.498783
-9.709560
11.263647
-6.087426
-7.262169
5.430202
-2.255203
-12.723048
-4.611482
3.845940
-9.555503
14.657590
15.300542
12.425337
-12.338181
9.549004
-2.628747
-1.317273
-18.079749
1.009545
-6.992414
-12.663373
-2.286906
-7.748764
-11.462626
-4.624781
-6.114224
18.034677
-3.432137
-2.519541
-12.358688
0.810683
-2.858788
-8.293360
-0.243960
-1.960951
-16.565844
-1.160949
2.405737
-17.385798
2.094453
-1.991129
-5.660649
-3.334170
-7.550910
-3.460737
-5.063187
-4.371140
-5.365683
-4.133198
-5.094316
-1.104991
-8.761167
-2.634226
-9.186498
-9.691249
-4.494181
-2.829183
3.148231
3.621735
-6.055135
-11.137143
-0.030821
-6.025373
-8.624664
1.254063
-15.889706
0.115549
-6.857958
-13.299741
-16.237676
-20.656161
-11.888367
7.345818
6.785785
-9.219648
-0.125659
-15.488788
9.289212
1.238798
6.153839
29.430106
-1.937858
0.499549
4.424744
1.476218
3.624606
-5.901044
-5.980265
-4.578520
-15.462691
11.449000
10.569455
8.161891
-16.430748
-14.249465
3.187981
-4.397279
-2.692783
9.696005
6.176660
-7.846586
9.881724
-9.543348
-2.726493
-2.807413
-2.123447
-9.573258
4.467265
-10.783602
-6.261989
-2.400935
4.798833
7.494799
-0.731740
-13.209808
0.973308
-11.880662
-4.022055
-12.829106
6.684002
-10.840596
7.615779
6.095957
0.247770
-0.571425
-2.121060
-1.532433
0.892072
-2.357065
8.445320
1.730326
-14.706119
-11.491312
5.759679
-14.143747
-3.130778
-24.601778
-12.109198
2.125114
14.042935
-8.938770
-16.124498
-5.996327
3.806836
4.499752
5.806707
-11.647779
5.911961
-7.964678
-0.427701
-3.207355
-8.512910
8.690796
9.273467
2.599512
0.037522
-21.233616
-19.795931
-3.010527
-6.959439
-1.157720
6.134893
-0.439617
0.892300
-8.942456
-19.671557
-8.091791
-11.278058
3.823471
2.258900
-9.048857
-1.878904
2.875406
-10.480322
-16.046379
-10.528797
-0.629035
1.896974
-14.645049
1.326807
-10.497362
-11.199072
5.901128
-7.992185
-14.306566
-9.764090
-11.666614
-5.605304
-3.854786
-10.107203
-24.012729
0.624289
-12.427287
-4.044303
3.302074
6.828037
-5.586598
0.454653
-5.088975
13.307760
2.208883
2.818457
-7.999680
-17.841213
4.186603
11.953620
-0.277775
-1.215728
-8.203951
-6.565377
-4.547309
-21.674236
8.283790
0.274573
-0.156891
-1.708142
-23.487357
3.438856
-0.848173
8.801466
-5.912497
6.045427
-8.305576
-0.241086
6.064337
8.741900
-6.652874
19.758562
-4.637031
-15.006788
-2.751240
0.278671
3.447179
-10.822223
-13.877630
6.574420
-20.372296
6.771461
-7.057603
-15.729401
9.719356
9.122609
0.371285
0.612047
-2.246837
17.348138
-3.104737
2.741478
-16.162859
-3.053907
1.827417
-4.903215
-13.716997
6.880653
-13.950349
16.006969
3.568236
2.989166
9.556841
3.641605
0.270153
6.119769
-11.242035
5.905954
-14.750990
-3.913564
-3.597734
3.423508
-24.087751
-17.905766
-10.839718
-12.958133
-13.003657
-5.805831
-3.009766
4.067120
9.560272
0.566090
1.562457
0.850270
2.551261
6.280779
-15.266646
0.676450
-17.968210
-11.516689
10.196678
-14.896707
-2.292817
-8.648056
-20.122985
1.148133
4.304276
8.615247
-19.256075
-12.571994
9.437996
-7.948926
7.034498
3.749525
8.230361
-6.911730
-5.231031
4.044711
1.686034
-7.100713
-10.022326
-7.560842
2.191657
-7.884138
-6.570941
5.325096
-5.069963
-7.118340
-6.792913
-17.823802
-9.226079
-6.017667
-6.130900
1.416104
-5.302021
-3.669463
-9.260061
-3.849386
-10.999771
1.670882
7.505502
0.624009
-7.316717
3.957035
-6.817779
-10.802552
5.139179
3.285150
-11.429577
-5.521418
-16.218708
-6.039530
-15.432822
4.112841
0.016578
1.530082
-9.692710
-12.580928
10.285217
-11.709739
0.790134
-1.244982
5.463617
-3.917354
15.687482
-6.146886
-8.684418
6.107403
-8.211099
-6.450696
-0.067634
0.865681
-9.347801
-13.960608
13.180288
16.870726
-10.997016
-0.595131
-14.535039
4.811358
-7.906678
-5.675932
2.791084
0.374463
-12.103840
-10.381516
12.025619
0.489222
-1.907863
2.471216
13.587318
-18.495644
2.315726
-13.934609
-12.333421
-5.993229
6.911443
4.153634
-13.001440
-11.543585
-4.227060
8.994348
-9.252586
-4.857318
-4.368884
3.043174
16.542700
-12.506640
-9.027683
-6.732712
-5.087454
5.914052
0.616605
1.303127
18.922870
-25.789779
-6.245272
5.370726
-5.623150
-14.742205
-27.251556
2.370078
-15.966166
6.079553
1.633547
11.684177
-3.357594
-6.117451
4.115974
0.362289
10.226571
19.729114
-7.123977
12.832097
8.842989
-7.267206
4.163966
-6.918074
-7.118331
0.555702
-0.484090
-0.294161
7.285062
-16.638114
-6.606130
-13.321700
15.339338
-8.293624
-14.300948
2.251077
-16.266895
-4.979646
16.083025
-6.413009
-33.161575
-0.909061
0.934642
5.698992
-17.375316
4.424402
9.343434
-11.056333
-0.654176
1.521187
3.716867
0.136263
-15.428127
0.208002
-4.348471
-4.624062
-9.217792
7.652103
-7.284863
-20.322922
-10.656299
-2.722670
-2.919462
-4.698680
7.371531
6.157965
-1.931122
7.394675
-9.435596
7.139720
-8.030645
-5.208017
14.479133
3.488600
1.511517
-4.695328
-12.873741
-15.212292
3.204623
-2.131355
-5.263936
-8.666605
15.875728
-12.978180
-14.269469
-12.902978
-1.483883
4.824725
-12.732654
12.773506
-3.652755
13.884758
-6.075238
-14.740341
7.701816
-9.368561
6.702736
-5.479458
-3.283059
-2.289438
-3.082755
-2.564166
-0.872983
2.708795
-8.912040
7.952182
0.756834
-9.625875
-10.074258
-1.692913
-4.460962
4.560787
5.860350
9.032453
6.528131
-6.763475
2.508749
-3.830791
-12.425254
-2.238840
6.227236
-12.517164
13.529385
11.016061
-1.904056
5.652506
-0.637510
-11.496523
10.176154
-4.617964
1.840954
1.412272
16.374042
-9.059505
19.648621
5.946075
0.367055
6.949966
-10.924468
-12.754531
-1.813546
-5.769081
-9.473869
5.377560
-10.459069
2.128343
16.912085
9.394589
-2.006682
1.733208
18.120368
8.406632
-5.308481
12.475486
3.707485
5.825044
-2.995066
-6.278424
-13.518082
-21.111271
5.958998
10.337334
10.936397
-3.254436
-10.645733
-1.301735
12.660608
13.175686
8.699762
-16.717632
-7.688409
-13.953153
-12.422258
-2.935445
-3.016408
1.689940
-0.817670
-7.081247
6.984710
6.643666
-9.652672
1.698391
3.708171
-16.287386
0.222670
4.883119
-2.354306
6.379940
-6.046680
-25.929551
-10.198576
2.399196
7.810205
-8.270136
-5.073600
3.053105
4.801158
2.039639
-8.481102
-16.833077
-22.075055
-7.694553
-0.155292
0.292845
0.177833
19.102148
4.394489
-7.086980
-10.487625
-18.190391
3.011336
11.623173
-9.091269
15.561552
9.711591
-13.493987
9.246190
-1.607773
19.113749
-13.043702
-4.906405
0.348116
-3.137509
9.505932
8.924959
4.233392
-8.891448
1.443828
-18.980158
-3.937966
16.587720
19.517569
3.961131
14.100718
8.128918
8.850640
-7.543510
-9.959506
2.927659
9.800932
-14.470866
-7.154454
2.358931
-5.202681
14.147606
2.088640
5.609277
-7.252436
-3.510700
-8.966026
-23.993067
4.804104
8.662263
-4.605152
-7.851093
6.755065
-1.404042
-2.453887
-14.760213
-0.486884
3.388138
-7.063348
21.279284
-2.150654
-15.374354
-12.933763
7.236652
-0.142519
-9.521889
-12.704542
-9.692482
10.787480
-5.358007
2.046267
-0.922507
-7.892232
4.197400
10.417363
-15.744873
-2.402678
1.616707
-1.367495
-22.459479
7.452065
-4.428861
8.810747
17.219590
3.872722
-20.213960
-5.156875
-12.680134
6.011768
-7.607196
16.847581
4.664348
9.124918
-21.143937
-0.315916
-5.078986
-3.698312
-4.732467
-0.524422
-5.494213
-15.042148
-3.049518
10.331167
-10.232565
-0.835626
6.963176
5.465708
11.730593
-7.162738
7.076583
3.072288
-11.124178
-6.152457
11.023954
6.835929
3.143450
7.197044
-9.356345
-12.952685
6.396511
0.663017
-3.383911
-5.406963
-3.665971
-11.365630
9.959778
6.621725
-4.075509
-8.406271
-14.606633
17.180087
1.108753
4.520982
-7.349507
-4.713116
8.841929
1.796924
8.203074
-6.521117
-9.915937
-1.448714
3.610504
-10.062993
4.725173
-0.947475
2.282594
-2.322960
-7.260072
-4.453301
-7.092774
4.932744
-14.427781
-1.280930
-9.347321
-20.363889
0.910939
-1.407671
-9.138835
-11.690810
3.061119
-26.770121
-3.727607
-1.021602
0.379815
-1.179601
-11.562590
19.923845
-7.933314
13.324776
18.859334
6.011356
16.134054
3.078327
-6.874023
10.713626
-15.104215
-8.903492
8.409850
2.656411
-8.262242
-7.163937
-16.053855
-4.428362
-0.153607
-4.120512
0.557032
-16.435351
4.823017
-0.786162
-6.608526
9.119401
-7.455744
1.400971
-23.271203
-15.828606
2.577936
-4.433198
-0.609817
8.786724
6.493328
-8.248395
-11.163813
4.172737
10.561210
6.403548
0.011335
-4.726114
-22.515082
0.280231
4.536320
-15.922860
-2.875791
-14.977247
0.177445
12.649344
6.790779
-7.474292
15.356104
16.923742
-2.484298
-3.148461
13.472263
-1.229528
3.851958
2.129407
-15.474091
-12.568209
9.927140
-11.808027
-1.488066
5.422545
3.204009
10.657022
16.050610
2.056174
-6.261312
-0.866813
-4.203599
6.499467
-9.059026
6.017865
6.051694
-7.393177
-5.572876
16.133359
-13.509407
7.932654
4.112000
-1.188034
8.729277
6.968687
2.769626
4.886398
0.433072
-3.299401
-9.482961
-3.148950
-7.832566
5.427574
-6.989425
3.992958
4.599477
-20.871762
-5.087951
-12.419139
-19.388944
-1.594586
-10.991083
-14.701944
14.469011
-3.548605
7.803699
1.638797
-5.037489
12.042058
-13.337224
-11.093870
-16.219781
-3.138517
-6.166826
6.290825
-11.544667
10.315715
10.407051
3.579309
-11.890146
-8.081623
3.607968
-1.570562
-15.999987
-3.807517
8.890711
5.828543
5.467854
8.215141
10.723534
3.351321
-3.711557
10.212568
-3.362558
-15.531976
-0.859572
-12.337805
-0.723615
0.073377
-4.254198
-4.761767
-0.351184
4.324760
-2.221136
-17.562730
5.606848
5.428861
7.756474
11.322940
-2.721712
11.968996
-1.140350
4.402737
-3.779584
-21.751142
-6.103541
-1.266836
12.664559
-26.406334
-3.855511
-4.757149
8.517239
14.141795
0.702159
-2.304579
-13.328974
-2.267767
4.220879
0.091016
-3.064820
-10.716119
5.394559
-1.119990
3.589108
-4.306993
-6.640810
6.504546
2.933211
1.436673
3.018077
-1.765077
-10.734042
-0.084643
-0.040741
-4.244554
-0.037091
-4.742799
-4.178132
-10.531628
-9.382493
-8.224299
-1.307439
7.525889
-3.378511
-7.639879
-3.298571
4.048617
-7.573070
-1.427761
-0.079102
-15.809468
-9.758950
2.100548
-12.593462
-8.710119
-12.024169
-7.031399
9.387225
3.087122
13.821382
7.956584
5.055079
-7.845265
-0.063149
2.236596
-19.730605
-7.761941
-3.366041
0.611393
1.843827
-12.419116
-12.775974
-14.409689
-15.797671
0.511504
-8.852313
-19.720145
-12.137138
-15.529617
1.107014
2.704882
6.490261
-5.244282
6.002457
-22.890669
4.501399
-3.799429
2.014345
-8.840506
-9.899461
2.590451
-5.782504
5.234221
4.373285
15.976425
5.687566
-4.254678
-5.216001
0.211440
-16.624072
8.203764
1.691354
-7.109588
-3.725904
7.322528
-9.656260
-10.227135
-28.641444
10.651925
2.823778
-21.679818
-6.559867
-5.395829
0.707219
-4.727455
14.793126
-7.502694
-7.755412
-3.850469
-12.309776
14.442190
11.755424
-18.558606
-21.535741
-5.427460
-5.584992
1.450234
11.827912
-6.849260
1.585177
-4.470745
20.374550
-15.545839
4.678965
1.369229
4.045435
-0.938215
-25.062001
-2.985284
14.186770
-7.505051
12.478524
-19.765363
1.375451
7.901559
1.461652
2.074476
1.135918
5.655117
-5.340432
-9.440150
-21.084637
16.170789
14.193416
20.015665
-5.995119
6.989675
-4.431654
3.938064
7.823759
-1.692441
7.464097
-3.298983
-9.397624
-10.022390
3.584096
12.706254
1.956809
1.577750
-2.467784
-8.037194
1.615260
-9.254914
9.416030
-15.655984
0.795917
3.804344
7.251102
-0.926842
4.135225
-21.055189
2.163268
-15.565288
-9.143824
3.546061
-2.154058
-13.523634
-2.645589
16.145132
-9.699364
2.345329
7.940810
8.316405
1.956250
5.081090
0.949780
13.813627
4.433940
-7.057839
-15.231685
9.325181
7.422307
-13.951648
10.570193
1.736650
-16.983002
-9.366712
21.154960
3.303980
1.740037
8.637300
-9.979507
-4.346453
-16.020008
6.954071
3.768611
1.313955
-13.985073
7.327793
-2.758547
-5.007944
6.622006
1.680564
6.216823
9.833394
22.607703
-0.513945
-4.798717
3.871189
6.461008
-0.564252
-6.239871
-8.544240
-6.420799
15.524506
-6.066464
-4.786534
-5.066659
1.778196
-4.151666
6.756388
10.728826
-7.984452
-15.469690
-12.758926
-0.319438
3.260440
1.839438
5.291363
6.810906
-6.727165
-3.016868
-2.307981
-3.380662
-0.711103
-3.072189
2.623006
5.249087
7.597544
3.324951
-3.225418
-13.746133
-16.991203
6.048053
9.550363
5.714644
-9.504493
11.479085
-11.188150
-6.432921
-0.862177
-0.278394
-0.780463
-4.367226
7.921143
-1.684092
-13.934593
-9.634555
8.010352
0.358777
5.658516
-10.314589
-4.442148
-5.736382
3.317278
-10.756174
1.131526
29.881393
-15.042985
11.793851
5.223657
2.236223
6.306398
2.077050
-10.323460
-4.203314
-13.056102
-10.384812
9.109631
5.180236
4.440727
-12.008949
-12.677308
9.624815
9.736946
18.202837
0.329351
-1.708381
-7.108324
7.198618
-1.868548
-0.910579
4.394475
-10.907485
16.226162
-4.901533
5.283568
10.214378
-4.656782
-13.678194
0.042937
7.315718
-4.676600
0.323890
-20.731365
-0.379437
-2.431628
-18.211463
-12.196906
7.729872
-7.730649
-1.678937
2.835449
-17.391120
-1.435299
-6.378472
-14.064577
-4.031656
-0.088825
-14.201572
-2.946226
-0.180047
5.184735
-11.651511
-5.997465
-6.258050
19.530663
-0.928744
4.380373
-2.063427
6.675888
16.378275
13.465042
3.770332
3.700132
-1.258355
-16.915034
-20.451296
-3.370220
10.859840
-9.153179
5.536203
-6.058722
-7.594173
2.932222
-14.030083
7.694554
9.547792
-1.574039
-7.693614
8.317158
-1.457107
-12.257830
-23.636293
-11.724774
2.097748
-10.332996
3.578203
5.004811
-10.988188
-2.463874
-4.191672
-5.651610
-2.475488
3.024455
1.774558
4.483490
1.678236
19.552809
7.465026
-6.820480
-6.341225
-9.493559
-7.002102
-5.026099
6.366973
4.775602
1.753216
3.803513
3.606551
4.692558
2.436251
-3.187368
-4.520043
-20.915758
0.670337
6.394898
-1.744879
-11.951578
-4.080760
14.948439
5.593573
0.091019
-15.178525
2.211079
-8.176155
-1.962912
1.268326
3.654125
10.915281
6.116289
5.508861
-0.115328
15.061214
-1.450196
-5.505748
9.263684
7.318601
10.477525
-2.585486
-4.875303
1.208700
11.102290
-5.145791
-6.168844
17.928478
-10.823913
-15.829909
0.467611
13.700121
-0.098298
-4.648436
-17.095667
4.691789
17.631827
3.067281
-2.597054
11.184940
8.334916
-2.467475
-12.292594
-2.850983
-12.044882
-0.181094
7.099610
13.348311
-9.388675
-23.813489
12.351324
0.741007
2.343369
19.069969
-10.139811
13.272034
-0.097954
-22.484054
2.708858
0.768467
0.673040
-4.152499
-0.085310
5.479203
-0.446688
11.568221
15.946939
15.070614
23.677705
-0.427702
-13.047601
20.508609
4.009778
6.362507
-4.242487
-6.709640
12.281957
-0.377274
1.511128
11.760897
-3.613191
-5.099330
-0.019612
5.381085
2.185918
-11.546017
6.168897
-2.121959
9.084282
-8.498090
1.974295
6.496178
5.098679
-8.692242
-10.345430
-16.804167
-3.909553
-5.331454
3.830195
13.180178
3.123044
16.898460
2.284687
17.450381
0.774665
0.936431
-5.896844
-5.501770
-10.351028
-26.860132
-0.474213
-10.900345
-4.165917
-6.373330
2.504594
-8.957232
15.447210
-8.720037
18.848662
-24.159098
-11.369463
3.088382
-5.284573
-9.766972
-5.049764
-11.310065
-6.653590
-4.026997
-1.143854
-2.300173
-0.713929
-10.604663
-10.369112
-11.235516
-6.362969
-0.453325
11.343192
1.490352
-8.706837
-2.860749
-6.684394
-5.786297
-3.334155
-5.585239
-5.037201
-20.420213
4.230653
-11.866853
16.303117
-11.776058
10.517691
6.033910
-1.393027
12.146491
-1.735461
-9.111068
10.045761
-0.184374
5.393446
-12.195387
-12.863515
-5.606732
-1.193494
-17.621361
-4.025482
4.027366
11.636770
7.193528
6.277052
-10.425971
3.713754
3.758614
4.604051
-3.073981
4.299045
-11.990420
-20.312590
-4.345914
-6.538018
10.880835
0.892671
-3.443819
3.184002
-0.278576
-3.870207
-12.577916
6.163633
-2.733825
10.363944
-7.565790
-1.476859
12.162368
3.172852
-7.113674
-2.355977
2.382911
-7.865107
-6.943028
-13.602523
6.119436
8.316861
2.576570
-0.896573
-4.384045
13.550044
-1.680027
-1.298025
-0.007516
-2.384786
-1.867714
-10.872336
-6.432312
-2.705422
-7.019983
-8.376667
-8.170846
9.735225
19.874095
21.090830
0.044957
-6.779760
3.678183
-4.403959
14.376684
0.937854
-6.586834
-11.617371
7.006041
2.596657
25.711873
12.714126
7.068876
0.953590
1.375452
-12.448678
-5.700011
-6.382055
-11.989806
-15.306312
-1.157547
16.771419
-19.601032
-15.672462
-11.887463
-14.641365
-19.568432
-12.922559
-3.027366
-5.544634
2.170129
-11.968132
14.634065
0.042156
-2.468795
-1.599748
-3.195268
-2.373897
1.985965
3.773830
-6.813849
8.286737
-7.102037
-6.822327
9.629546
1.843481
18.496280
13.835100
-6.560094
-1.839552
-6.449623
-9.936773
-23.036008
-5.826717
-5.692619
-7.808274
-4.761335
-23.101913
6.037406
-1.782587
10.383477
-3.267744
-7.545373
-0.741479
-14.147398
-3.741865
-5.873397
-2.383911
3.882862
-11.084534
-10.700485
6.203988
4.937335
-6.077135
-7.476244
1.019887
-2.924633
-22.415542
5.284400
16.352404
-15.344218
2.321459
-2.853282
-1.597197
-2.789784
7.185308
-9.528166
-24.582994
-12.846257
-2.000024
1.221509
-15.575450
-15.171569
-6.412279
-8.929348
-1.354782
-4.267370
-15.662022
3.465008
-5.581323
-8.905313
0.966381
-11.250123
-7.294398
-4.877396
2.220119
1.161765
-9.780548
5.751494
2.687132
-16.170344
-2.039903
6.070263
6.897910
3.663149
-0.196193
3.738992
-8.252568
6.489644
7.687819
-17.514097
1.435913
-11.324755
-4.365908
-7.929741
-6.107618
-21.816044
12.343875
1.998633
5.044333
-1.039193
-8.374443
-3.945760
11.008836
-2.843478
2.353205
-7.699518
-7.745777
-10.324438
-5.825647
14.372690
-3.127057
-1.162228
-15.619690
-1.631356
3.078168
10.776610
-5.520765
-20.824776
11.859623
-14.414446
-13.871533
-7.385548
0.979453
-7.817753
-4.345127
-2.351405
-12.311555
2.630396
-9.534010
3.001677
-8.458075
-10.011521
-3.354540
-11.403268
-5.708982
-4.441878
5.899233
-0.892347
16.641196
-5.779890
-3.873318
3.486524
-4.772786
1.693577
-2.290151
-8.940283
-10.078741
12.385008
-0.963163
-14.801128
-9.897201
-5.409958
-9.386344
9.202118
3.833663
-1.991751
4.799633
-0.881536
-12.964743
-9.402860
22.852838
-7.707633
0.453529
4.603503
-7.499120
-1.186798
-8.305006
0.953868
-13.637570
-22.944591
-22.950018
-6.106917
-3.580898
0.248863
-5.617136
3.430847
-9.379171
-4.789681
-9.452184
-5.448984
2.549106
9.697889
-8.062666
-13.775110
-0.818353
-13.570603
-6.039726
-4.207978
-2.794683
-1.341476
15.879411
7.978216
10.503024
-4.993740
-5.777500
10.769757
12.689891
-5.914844
0.560301
2.495409
3.758319
-9.335454
3.673942
-1.806254
29.067830
3.129292
-1.803024
6.372980
-0.444274
-1.241817
0.676457
-0.589966
0.248410
-5.383539
-9.127261
2.374946
0.705346
-15.580514
-2.886187
3.837743
10.445228
-2.456887
-8.932746
-11.730076
22.834942
6.518667
-5.353467
2.491635
-6.495796
6.016600
6.159068
-23.006224
-2.041490
-16.493903
-3.603388
-11.009915
-4.576236
-11.444452
8.763189
-8.265219
-5.980233
3.263677
-6.049441
9.968911
7.337503
-3.277492
-8.217775
-20.649718
-1.531912
-7.629397
17.625763
5.343101
-6.161540
-8.828150
13.789038
-9.395906
-18.172939
3.162205
23.354406
7.429781
10.459073
8.672168
6.284329
0.939665
1.033466
-7.237586
-3.496813
-6.772270
3.931514
-0.657356
7.332284
-8.622766
21.048296
1.042896
-14.381584
-4.716198
3.263596
6.923858
-9.643552
-2.896849
6.278771
-1.358424
-15.460361
-11.207626
-13.954675
3.173927
-5.506016
-12.414914
0.394311
13.860359
3.440457
-10.814279
-14.977607
-2.146685
13.085066
5.319338
20.909813
-15.887434
10.875835
-7.743724
-3.260310
-3.269416
0.269824
-1.374675
15.573464
10.053387
-3.172137
-12.887083
9.349503
-1.947846
11.999463
-2.470020
2.651804
-11.879410
2.391658
5.115274
-1.368346
1.576626
7.560572
7.905199
-9.703579
7.480528
14.546408
0.248122
2.615366
12.279963
-4.165303
-0.165681
5.054854
-18.008600
-1.967692
10.323609
16.962693
-8.736664
12.871186
21.685850
4.056630
7.430196
13.134839
-2.969413
-2.974395
-1.015758
1.449234
9.788198
4.661804
-1.061705
6.503709
4.865055
-3.273187
-7.079242
-13.402571
7.505617
-7.477201
12.699820
0.860967
-0.206647
14.099602
19.935030
-10.538242
-4.289859
6.333930
-15.678439
2.859751
-17.119679
2.691191
-2.224196
-15.481070
-2.697720
15.706679
5.602142
-18.434598
8.825262
-5.878295
30.853522
-8.026822
0.251638
11.215265
-10.221835
8.534573
-8.609130
-11.483032
-6.264599
-14.694099
3.972092
16.576541
13.932964
-4.114505
-6.619833
4.157211
-0.137259
11.861941
2.992797
-10.509391
3.039089
-10.132186
2.786181
-3.628748
6.677970
7.865392
-12.045775
3.422341
-3.312536
-4.033631
-8.632418
6.844018
6.480605
-1.176844
15.026135
-9.344026
4.596093
0.180067
-8.760484
-5.800725
-2.376746
-12.347041
0.532262
2.832866
-5.260051
19.665405
-6.732796
-10.752109
-0.401607
-11.011643
-16.520818
0.009024
4.102102
19.461387
-18.330977
-2.831026
-4.879229
7.970507
4.757158
-13.191639
-3.330034
-2.233679
-1.494523
-3.278442
11.041814
5.891449
-1.777037
5.277516
2.215322
-1.423009
9.190136
-13.213364
8.135949
-4.282508
7.472124
4.287154
3.088717
2.240320
-4.970561
1.328934
10.287060
1.857104
3.431639
-1.191743
-14.583914
-4.044030
-8.832151
1.502996
-5.528351
-3.491407
7.198446
11.664888
3.750844
-11.667177
-5.859055
2.009371
11.206393
1.989159
15.075798
-8.622466
-4.306269
-22.954278
15.998437
-8.750240
-4.192448
22.522264
-9.221125
5.530295
10.567057
-4.735031
-8.502599
-1.900346
-6.059185
-7.964160
2.957034
0.095050
12.346186
0.800995
8.242676
5.196979
-2.546284
-3.067534
-16.197298
-5.147008
18.027101
1.026812
0.979669
0.191022
-1.473264
-13.791270
5.612540
30.031500
12.024635
5.202262
2.185301
9.831221
4.315028
2.215317
-4.202180
0.326673
-10.989309
-12.899735
-10.912732
2.674675
5.699901
22.332998
-7.700382
7.168504
3.570155
24.796307
-9.932159
-1.275877
-12.925522
2.860542
-10.783806
-7.307355
7.307830
-4.221036
16.032296
2.733176
-17.751170
18.964747
-2.620513
-11.206345
6.976684
2.827314
10.969063
-1.659778
-3.159930
7.380144
2.585199
6.872289
19.480366
5.770545
-1.536560
-11.509971
-3.569593
-0.302458
4.891456
-0.014455
-7.136617
-14.329659
6.285245
-0.975695
-0.430525
-9.644593
-21.395606
5.722067
-4.435307
9.335829
8.467694
-10.683502
11.465458
-0.055864
2.594402
9.200496
-3.008406
-3.135232
7.441307
0.692185
-5.752044
-28.951493
1.960059
-5.151090
-4.636655
-6.058761
-6.105614
-0.154638
10.517341
3.265160
0.281444
24.739452
7.765644
-4.019055
7.642024
-12.896457
21.206613
-16.480720
5.783796
7.312468
-3.277334
-2.575486
1.511259
-2.895628
-12.064358
13.163136
-3.458376
-10.137058
11.091693
10.162871
8.016608
0.709510
-3.485990
0.331777
-1.411403
-2.888319
4.289483
14.197208
-12.581599
-6.186789
4.625370
-11.974460
7.241577
5.130917
2.400637
5.962951
-2.683099
19.761067
-6.685481
-11.469043
4.477352
-7.230862
8.697273
-0.097377
8.730734
12.469386
4.145238
-6.849881
-1.945866
-17.453437
0.933518
1.236436
0.328741
5.290422
15.752427
7.997918
-8.049674
3.694585
-14.771819
1.706428
-19.059787
-2.257531
20.820619
11.285292
-12.938955
10.381958
-11.401993
3.921433
6.157074
-15.479512
2.125797
8.941358
-23.482470
-5.735578
-11.995594
-10.486323
-1.480001
-0.643505
-2.578759
7.614887
-0.950482
-5.687170
-5.860431
-6.680724
3.525214
1.702423
5.235440
0.377207
2.973536
11.518056
6.465275
-1.687519
-16.134331
-7.277328
-13.456810
-9.883017
12.818992
-7.045904
11.933530
2.399631
0.377884
17.272664
0.534685
11.631930
-11.961763
-7.973420
-3.651013
10.811152
10.354997
20.720869
-18.205197
5.572443
-7.933668
-12.396844
-4.004259
2.369078
-6.453253
13.463808
-5.740007
-14.722897
8.902538
12.465912
5.070810
-5.508492
-11.484253
4.205067
1.696364
20.736829
-5.302483
-1.216983
15.745949
0.836339
-11.696071
4.690332
-3.066671
12.888290
-2.925539
-1.132930
2.912342
7.632000
0.064047
-2.579894
-10.765648
-8.282865
0.389402
-8.448822
6.302524
-4.468273
9.707373
0.854983
4.317730
-3.220021
8.540399
-3.114632
-9.772511
-4.781492
11.753520
-14.818820
0.025247
-11.865213
-2.417300
-11.411166
-1.304315
-11.309821
-10.825905
-19.256237
7.722580
-13.815196
11.440170
-1.461397
4.812574
-21.547146
6.727765
-9.492860
-6.510436
2.406517
-2.060091
-11.235812
-3.593066
16.939760
7.691403
-7.728283
-6.208529
3.470046
-5.056767
7.373865
-5.849961
-8.155808
-5.754183
-10.895353
-0.939589
9.193503
14.608504
-9.098464
4.375602
5.979310
-21.103901
-19.533471
6.412716
-10.522238
-5.312129
3.060187
-24.379035
-11.548321
-11.218398
-2.651106
10.816116
0.504194
-12.405091
5.542373
-5.491093
7.737603
-17.417977
4.970088
-7.363715
-16.095963
2.385829
-10.361510
-3.165753
8.627491
-18.987731
-5.300266
-1.140143
-12.029157
-4.116625
4.936744
2.654063
-7.529838
-13.612917
4.541039
-4.844700
-3.071602
5.921440
3.813461
-15.910932
-14.465098
-5.920181
-3.300900
-14.149409
-8.076451
-21.491745
-4.004614
6.457222
-8.001110
-8.872604
18.961000
6.558701
-11.626048
9.282848
-11.656469
12.820960
24.684670
6.570992
5.243742
-1.848500
-7.167080
9.576646
-0.691288
13.070839
-0.983243
-4.839132
7.710000
-7.568736
5.757862
5.380799
-10.426838
-7.940297
20.914175
-21.545384
5.511321
-4.410837
-15.147448
1.123281
5.630738
-9.105285
-6.004442
-2.386630
3.775916
9.810781
7.885858
-12.211693
-15.450399
2.825267
-11.466486
-0.820881
-8.931630
1.778599
-9.759675
-13.197524
11.751341
-0.182625
-10.870100
-1.977893
5.784719
-4.581530
-5.349852
2.488392
-1.659077
5.471335
-11.775788
0.323929
-16.955221
4.973326
2.534296
5.285781
6.361738
-14.519220
2.743205
15.089746
4.640358
-0.604235
-0.596099
2.662045
-1.122896
-12.709040
2.401083
-6.862629
-20.291360
-6.517800
0.868666
0.221140
-15.447660
-0.053959
10.602008
-14.384426
-12.408197
13.005114
5.506428
-0.745814
0.427466
9.846331
-20.086300
-5.941407
-3.013976
-9.945395
-6.179908
-6.720263
-7.342443
6.613387
9.223919
3.566959
-2.999650
0.662060
1.807231
-1.906344
17.606716
-8.604146
7.795837
8.725649
-1.984369
1.266924
-4.173780
-0.235763
22.599704
-19.796240
15.549826
2.237052
-1.378692
5.855277
-7.766068
13.645411
8.535340
-4.753431
13.937495
-1.858486
