-7.223979
4.873626
-9.212063
-11.563404
2.614657
-4.366942
8.063928
-7.334726
-0.155719
-7.171153
-1.490945
-10.369543
-0.952336
3.774361
-15.321641
8.248776
16.363839
-15.332720
-9.107314
-10.967994
-13.323046
7.705676
3.083514
0.863163
10.812512
-6.425529
-2.184259
-1.075738
-0.795011
-9.809851
9.999024
4.027539
-1.795494
-4.925116
0.774999
-0.899393
12.313954
3.663306
-5.728552
1.045678
9.918123
-7.839294
-6.362654
7.147935
7.005884
-8.659004
-7.422251
-9.782208
-2.588597
6.358889
14.646023
3.702112
-11.620355
8.097148
2.737374
1.903873
-0.947681
-0.672683
-2.430414
0.940536
-2.759063
-5.901977
5.237496
10.371088
-6.569413
1.580481
0.533335
5.534830
7.700017
1.244488
8.667167
6.077802
13.299685
-0.952960
3.027116
7.832493
-2.501343
-10.209813
-6.976022
-0.953228
-2.306898
3.249176
-15.810550
3.996485
-3.911485
-2.865286
11.088314
9.929089
-9.296210
-5.346823
7.485429
-12.595058
11.650631
17.800594
10.733199
14.140521
-11.083007
9.406341
-2.096096
-2.882897
-12.694084
-29.052563
6.194770
-10.982602
-11.712226
-4.061813
0.123087
0.832461
-7.088291
1.519267
4.744194
-11.954640
-7.564407
-9.219009
-2.769043
10.054650
-7.366839
5.294985
-8.228318
-4.273871
7.447349
-5.398732
9.778713
-1.571693
-3.272301
-0.508747
-13.562676
5.613061
2.038165
-6.571867
1.599021
-1.926242
5.108380
28.273200
8.615163
1.304858
6.010185
-8.873385
-6.842691
6.703736
1.085285
1.267544
0.590333
5.365193
4.589194
-8.194500
7.497554
3.435705
-6.120181
8.897542
-0.602390
-10.574166
8.143718
-10.046529
-6.315571
5.665596
-3.577038
2.877520
-11.284268
5.941783
2.792969
6.618996
-1.307212
-1.173291
0.752019
11.399498
-5.264513
-5.410692
-3.769261
5.245594
-8.488969
-9.082135
-2.032797
-11.447240
14.673684
6.595601
3.957841
1.485615
2.591641
-13.139358
3.250731
-1.845220
14.937149
2.171664
-2.939018
14.374715
16.496351
2.220391
7.232273
2.949606
1.016580
13.627385
7.522689
-3.386456
22.355090
-7.564661
8.176091
0.106129
0.460702
2.917001
-0.476253
2.542123
-2.825705
-8.895228
-15.575134
0.813473
9.588546
-0.168230
5.096496
3.382689
8.832852
0.437909
-7.406647
3.597501
-7.537935
3.903307
18.138026
4.984302
-8.955924
-0.938076
0.044468
21.148731
7.261658
-4.452281
-11.057341
-3.724746
-3.608748
5.330682
1.239801
-6.001774
-6.273404
-2.602244
-4.207558
-4.711888
10.855297
1.220379
0.667411
2.828934
1.417478
-10.019412
-3.264406
-3.175666
-5.815900
13.769183
-0.869191
3.326454
1.641220
-17.521539
17.438544
8.965351
-2.991228
-0.397934
-7.905766
1.846877
-10.008359
3.657563
-8.911657
-9.198629
-6.825643
6.801765
5.945872
-4.235000
-1.041670
-4.078056
3.469488
2.994230
6.291830
10.057832
-8.789721
1.220250
4.219933
3.347268
-0.202021
-4.279666
5.450642
4.554137
11.768959
1.324194
7.033405
8.537782
-5.638076
12.010529
6.884039
14.690117
-10.210555
-5.781312
-21.015536
4.196751
-22.671248
7.391981
-7.304012
-2.199116
-9.415424
-12.944018
8.209322
5.772167
-3.565188
0.601083
-4.808253
14.391747
-9.875957
5.765025
-2.133755
-9.571473
3.400391
-5.716653
-16.369778
12.557347
17.066868
-12.246322
-1.840571
5.381796
7.202273
0.262422
12.490283
-4.305619
8.020898
-0.880153
-1.094795
3.563745
16.953206
0.490096
-1.166917
-3.467654
3.657203
6.841879
20.263369
-7.769459
-2.541850
-5.485535
1.931670
5.636411
4.000247
2.176065
6.059113
3.677036
10.638581
2.114993
1.027078
-0.008398
4.392338
10.290858
11.960887
2.238929
0.891037
-11.168415
5.343688
6.088937
3.589901
-8.732446
6.370903
0.021067
-5.440473
-0.244371
-1.278661
-8.652868
7.165605
-0.426441
-0.425494
6.676147
11.110539
-9.850603
20.848886
-6.296477
0.086772
3.820380
7.574431
-0.967232
-5.467348
-6.764802
-4.940640
6.514129
13.292329
-0.269511
-4.075385
11.694585
-22.797239
-16.037180
-2.436538
-4.758827
13.902691
0.409224
5.346562
-5.765092
-2.168048
-19.204999
1.555428
5.583969
-2.313041
9.707101
-3.057190
-13.630440
12.530622
-1.930906
3.612973
-1.304783
0.680224
-6.617253
0.179289
5.549718
-5.513023
-5.284484
6.894669
5.470981
-0.504493
-0.703838
0.841423
-2.827918
-9.358817
-6.096727
4.751062
9.441169
-13.926785
8.002162
13.205544
0.933888
6.802811
-0.499074
0.208625
-5.216460
-6.218078
-0.510326
16.261008
-12.951880
-1.887072
-11.580848
-8.831430
2.695877
-0.602153
-20.559423
-1.919680
-5.641758
-2.465685
-5.083236
-4.298186
-3.623277
3.064600
-16.944323
0.965589
-4.325288
1.287531
-2.532058
0.072528
21.443973
0.904071
-6.299339
-0.891055
-13.335960
-2.331867
-9.605236
4.408460
-4.946094
0.848713
6.663748
-2.403409
2.463295
5.892321
6.162411
7.379463
0.672854
-1.889322
-7.045994
-10.854078
-1.694884
-1.729126
4.471581
-1.296662
11.140174
-9.459516
4.680533
3.989763
6.916487
3.535653
-11.280085
14.227298
-3.294819
-0.259533
-19.574298
5.941839
-8.837307
25.101485
-11.891627
1.241639
3.210870
-1.896282
-9.766535
-11.873471
-8.693839
8.064558
5.372652
4.474146
7.473124
-11.220056
1.597516
3.470339
-9.814414
13.309784
5.028929
-10.599180
-5.506308
12.238228
10.820470
-5.839252
1.178735
8.542168
-1.158319
-0.405500
28.758255
15.130163
1.918494
-17.583751
10.841745
-8.220152
-12.101018
-5.835089
1.417569
2.707882
-9.142103
-4.939761
13.729307
-11.979700
-5.332551
-2.314515
2.910771
12.681928
-3.234202
0.363485
-0.130560
-0.439389
-7.637939
12.344036
-8.632174
-6.464952
-1.453441
-4.653917
5.641094
0.070680
-11.681709
2.913101
-8.057590
4.645238
-5.785861
-14.378020
-11.267023
-20.414238
1.295630
13.244155
5.190031
0.634829
5.129702
-1.830352
-9.657306
-0.148928
-1.546427
6.457881
-2.277953
-16.540082
22.435650
-6.920579
13.177204
4.483907
-13.715937
-8.182032
-0.880974
3.508787
-14.165981
12.952054
8.321347
0.629342
-4.707651
2.009744
-15.796495
-10.257171
3.017180
-9.188582
4.980460
-8.033333
9.348919
5.824357
-4.310590
-1.356492
-2.596923
2.935901
-11.034249
13.861347
0.616005
-3.181664
2.170307
3.952406
3.070412
12.315862
-0.227508
0.165829
-5.673102
-1.271256
-4.367118
8.975454
-1.669916
0.365866
-0.521069
-12.708291
16.482650
-13.619796
-12.987399
0.214587
0.780612
-2.465604
3.897689
-13.374580
10.939979
-13.293526
-5.027192
-0.314163
-2.804363
6.052303
20.794176
-8.385072
-0.419028
-10.606005
-14.182830
-6.138505
0.623688
-1.490597
16.470405
4.590463
18.234443
10.373061
3.938056
9.467432
-3.647611
10.942182
-6.101100
0.145948
2.771697
-0.419128
-10.175684
-7.646245
1.883759
-0.282609
14.461763
-13.169193
-2.942739
-16.430340
-4.925627
3.071686
-2.054402
9.801985
11.079667
5.988493
-2.351038
8.694440
-6.184613
0.518964
-6.315824
3.340977
-0.758631
-10.795993
-1.628334
-4.412797
8.860621
5.687313
4.047978
-10.340584
12.962475
-11.132951
-8.718579
-2.703976
-8.177436
5.602907
-4.893424
3.111353
0.127523
-4.423002
-3.728096
-7.344389
4.893992
14.659825
-2.210301
-22.611519
-7.085849
-3.618593
5.820262
-12.067810
-0.295470
-4.568580
-3.477258
-4.747816
1.867099
-2.070415
3.396135
3.450649
6.591192
-5.760522
1.751654
1.536782
-17.856874
16.702955
3.764961
-3.613347
5.012176
13.673322
0.927750
-5.561638
5.031869
14.745111
3.309038
9.506743
-15.998925
-4.979789
-5.125726
2.953135
9.317527
14.744525
-0.791501
-9.578846
7.579411
1.641776
-3.741629
-10.910692
-9.590227
0.717708
-0.022503
9.455723
-3.055809
-7.579875
-12.947026
0.941862
9.571763
-10.572451
-9.295355
6.760748
-8.842411
0.551218
2.142046
-8.492961
-0.276144
-14.171093
-7.400959
10.846189
-15.371726
5.838412
4.965747
1.068143
7.261355
4.443709
2.549339
-2.372557
0.710922
-2.707961
-10.573264
-18.129303
11.561690
4.708440
4.884635
-8.736354
-7.627792
-6.506180
2.679662
-2.477471
0.998246
5.857606
3.888541
21.790731
-6.597753
-3.416407
9.081424
3.252214
-6.552414
6.879095
1.811715
1.776760
4.551639
9.433662
0.458364
1.097043
-2.005022
3.920035
-3.133549
-16.217319
9.246097
-7.186396
-22.499147
-13.310526
-6.950086
-5.841779
10.290292
9.752852
11.285830
-5.181768
-9.713514
-3.237292
0.415513
-8.111677
-10.712765
-9.238933
-3.432805
6.609106
-12.788896
6.387302
-14.227773
-0.083331
-11.480890
8.000998
5.756804
-2.055023
5.073333
-10.957690
13.961011
-7.251002
8.235424
10.660456
-0.833264
-6.418621
3.197929
0.543510
-2.112156
7.949015
-2.391405
1.002275
13.218295
-5.210011
-23.110869
14.674966
-1.345671
1.666269
-5.573942
0.416554
-2.897466
-10.569630
-9.104553
2.289134
7.612007
23.949936
-2.015532
-14.960376
2.268054
-2.147549
2.044669
-12.129232
12.828778
3.582868
-5.267508
-5.208909
-14.999475
-13.072412
-4.929504
10.827867
-6.823213
-6.555484
-4.304275
-2.094310
-3.801270
-1.317427
2.168594
6.916449
7.236075
-10.325505
-12.802656
-17.577520
7.570602
-16.085368
9.678967
10.121181
-6.945454
-11.772225
16.038877
-2.456243
3.693650
0.607359
-3.149342
5.012884
-6.356630
11.429426
0.882948
20.090706
-0.202059
-5.822208
-1.844053
0.279702
0.114571
0.360931
-8.546929
10.296185
9.688472
1.053805
5.040010
8.362003
-4.933292
6.820129
-18.817919
-6.230864
-7.764455
-1.489902
-5.100262
20.798028
-5.438267
-9.632413
5.993824
-11.228005
-5.020974
-12.161425
6.040374
14.763473
-8.064750
-2.337738
3.713538
-16.319369
5.169413
7.561355
1.832151
20.324875
-16.021854
8.220315
8.173011
11.521677
4.762275
0.519367
-4.027830
1.886615
-1.261720
-3.551974
-21.747797
-2.891285
3.353465
2.076861
12.085034
9.609210
-10.241435
-3.528915
13.184731
9.034915
-1.196998
-2.217860
-14.658806
6.450570
-1.276586
10.032727
-19.427651
-8.849403
5.817817
15.151168
-6.623586
-2.286662
-2.806690
-2.400447
0.817311
4.758657
-2.675022
2.456502
-4.509511
8.927277
-0.440046
-8.188853
9.599007
2.978789
0.501230
-5.478822
9.152856
-5.347250
10.051731
13.694090
12.191581
16.793271
-2.095740
-14.500986
0.483644
11.641370
-13.752723
10.693923
-7.138508
-5.130449
-3.200400
-5.450058
-2.151005
-5.368812
1.876825
14.231386
-13.188721
6.862029
14.659236
4.822175
-4.202182
-5.094020
-8.914296
-13.624798
14.123465
1.663162
-6.841352
-22.159336
-11.578797
0.254406
4.212187
-6.173247
7.915378
-12.092773
-7.383889
-9.157856
-2.046762
2.195570
-8.702155
-7.813889
-3.987086
-6.825188
3.226508
2.923887
-7.914757
15.918989
3.575000
4.362040
2.524783
5.948705
-10.592735
8.983716
-13.721103
4.512534
-4.455485
-3.629096
-3.803603
-12.922749
-0.547986
17.437370
-1.039901
3.894773
3.307268
9.526326
-9.527463
-7.329432
-3.715269
-9.633287
4.551232
-3.010712
2.714613
3.394345
14.970297
-16.416582
12.135689
2.429662
-7.249453
7.458330
-1.317633
0.468411
-10.938321
-13.093783
9.429916
-2.710906
0.187263
10.353049
4.927351
3.345212
-13.513401
8.184441
6.135642
2.517081
-6.644011
4.089096
-12.546865
-1.195472
2.307173
-22.063228
-7.062057
11.532612
3.617888
-3.154303
-11.104364
0.492620
-0.419987
-1.851486
-12.617712
3.984921
-8.093260
7.980192
2.121032
-3.991320
-5.724319
-4.195628
-0.407716
-11.042114
4.121872
-10.815174
5.599385
-11.320220
-5.693469
3.106165
3.182162
14.977518
-2.728656
-7.482138
2.429587
-3.569847
6.183844
-6.362006
-4.384503
-17.731421
4.042220
1.067865
2.135712
-4.134568
2.234950
5.373915
-3.186956
6.865308
3.093608
-0.146249
2.349105
-8.117445
1.035849
-7.640422
19.454496
11.913754
-6.670526
4.101574
15.722981
-1.623606
-2.447810
10.736640
-7.387773
14.273644
-7.087470
5.960459
-7.463595
2.695097
-2.099621
9.436889
3.453477
12.416486
19.053695
10.705286
16.041400
3.637535
-4.902484
-3.056876
2.009959
5.473525
-3.058250
4.524492
-15.562885
10.998157
2.704063
-9.051531
-9.811227
-16.206946
-9.164939
-0.940631
11.447029
10.249909
-18.919843
-0.820004
-2.430767
-6.217998
-14.038717
3.432190
5.885306
8.813468
-0.447899
-0.745461
13.035967
1.830706
-13.039993
5.048443
-1.852397
1.478700
2.495348
-7.096304
2.418160
0.792310
-0.006507
-6.046123
4.622441
-6.810667
4.971235
-0.764288
-1.218211
-2.960022
7.271450
-11.768240
-4.736752
1.319104
1.423203
10.079428
10.555749
18.048610
14.275836
7.462422
-12.015766
-0.306756
6.510901
-8.766465
-3.018557
-3.893841
3.970316
-14.679613
-6.969354
-1.978443
9.314276
-4.551006
-5.552682
11.668245
-2.251559
-17.637528
12.274480
-3.146821
2.815842
9.986287
-4.636025
-1.611643
-3.780920
-9.005204
-4.265946
-8.608272
-6.293720
-6.439597
11.128204
9.479203
4.164498
-14.984707
-3.828221
-1.211280
-2.055367
5.428946
13.980434
7.744151
-6.595179
-11.615668
10.354554
4.237256
6.724064
-5.000426
8.822634
-1.272341
1.940569
-4.666661
-6.167863
-7.081185
5.873120
1.947278
5.866601
25.861837
-11.085599
12.328766
12.912264
-7.138284
1.166863
-14.940020
17.488010
9.220404
-7.535973
-5.493872
-3.312082
-14.839003
-11.176477
5.070081
11.852387
-2.338778
-4.133441
-2.682227
13.413741
3.541695
-14.501588
4.214098
-6.080471
-14.310738
-0.508467
-4.737407
14.542932
3.311370
8.720467
-13.761845
7.030786
-6.263070
-12.771668
-8.563920
0.382649
1.079394
-6.445755
-2.749312
16.546177
10.695923
-1.569217
-0.297622
4.343043
-1.807730
16.265870
4.826617
-14.847547
-14.566857
2.119728
9.978735
8.910550
-20.388892
-0.253804
-4.675254
-8.997847
1.954427
-4.988393
-8.852647
-15.020814
-8.020849
8.342485
-2.508690
11.571111
7.178466
-13.468194
13.778058
-18.257231
5.421614
-8.170882
-1.820326
4.973590
7.313899
12.602503
-10.388722
5.017324
1.524074
-7.112097
-4.121557
-1.491115
4.680747
-6.946743
1.920579
12.478281
-2.234952
-15.650650
-2.647517
7.028988
-4.590337
-13.572127
-4.406206
6.360156
1.527173
9.026866
-1.810818
1.609403
-9.980694
10.638254
-6.896957
4.973677
-6.705500
-0.392029
-5.692299
9.516799
0.603272
-2.671709
-9.399553
13.859759
-14.649992
-2.590523
6.702708
-8.502217
0.649998
16.167574
-10.603769
3.622388
1.833219
15.550037
3.463924
2.889042
-9.668815
2.274930
10.037557
5.300739
3.554841
-2.095715
-0.566104
6.540483
0.204109
-10.447224
0.306925
9.711607
-3.027214
-1.215339
12.834071
5.284941
11.220847
-9.711811
15.229859
1.935685
9.174744
7.156534
-4.212831
-5.015079
3.886260
10.683264
5.504755
-0.654974
-2.874543
1.000503
-10.385169
-2.745723
1.740985
0.316692
2.629168
-4.994508
-4.296768
12.120095
-1.470841
-13.252581
-2.796717
-4.918483
11.952407
-6.063728
7.112168
1.866082
-5.762827
7.228646
9.221057
-1.009951
-17.458487
-9.062142
-10.952012
-8.070544
4.753806
3.192677
4.752366
-18.073492
-14.540507
5.370951
-6.234247
-0.367542
-8.820052
-10.053771
-13.794139
0.449641
5.229199
-13.433752
-0.405191
-0.960381
0.812235
-0.597993
-2.138378
-9.036553
-1.214598
-5.770573
-2.962386
-2.226567
0.463402
-4.931852
15.599177
-8.311815
-10.704227
-5.380299
-10.201444
-0.044729
4.595924
-2.169124
-4.105560
-0.294922
-7.731904
4.039257
9.805481
5.560586
-4.893955
5.606447
-6.335533
1.049603
-3.504446
9.506532
-8.243064
2.370008
4.669478
-6.768144
12.317600
0.750544
-0.016358
-5.342919
-8.074425
-2.504703
-3.124817
-4.392450
-1.466804
-6.485159
4.638613
12.137141
-10.616499
14.476886
1.029823
2.057286
1.330704
17.175587
-3.721408
5.211787
-21.689293
6.342202
-5.191655
25.839023
-4.224248
1.141247
4.416914
5.930021
-16.911954
-18.284094
-3.025521
4.965205
6.631185
-10.342183
-4.165758
-2.102275
-8.973337
0.373083
-7.541340
-1.625441
0.724164
7.589159
2.836622
-2.832555
-11.223262
18.613642
12.647183
5.046362
9.193778
1.029680
-4.579571
-18.621262
-2.454391
-0.726974
-2.703149
-2.422277
-12.052662
-3.188010
3.038687
6.736705
10.049016
-2.188570
1.543445
-2.011754
-0.772418
-3.808189
9.510881
4.402980
-10.041018
-14.705137
8.041707
-5.265095
-5.766005
2.804253
-5.254534
27.017209
-7.517606
0.368042
-1.590506
4.966854
0.914873
-1.656822
-7.784721
7.534059
6.311598
2.935650
6.597202
3.326335
2.665307
8.737203
-1.241582
-2.348582
1.454264
-4.482414
5.796950
9.858938
11.387967
0.077361
-1.826113
-1.484189
-1.686154
8.779180
5.377487
-7.759024
15.249253
2.395726
-0.591771
-2.145364
9.801649
-1.854389
12.859092
7.419704
-0.408338
-1.092565
-5.036377
11.178078
-0.740751
-9.258386
-15.594007
1.604388
-11.066000
10.218075
-8.015214
0.000492
10.102836
-2.902917
-8.693866
7.015453
-9.031583
1.268277
15.705601
-7.927544
1.735808
5.752403
1.526598
-10.151078
4.662564
-3.962674
-16.829214
6.243718
-5.331485
-8.413569
8.058425
2.513124
2.655165
0.566752
-4.437481
6.080666
7.824900
-3.160441
-6.924375
2.049780
4.043298
-1.625066
-16.503626
2.500840
6.613017
-4.279824
2.654481
0.069906
5.601049
-2.135759
4.369075
1.007428
-11.272802
0.088967
-2.040924
-2.310978
-2.533310
-4.799384
2.417317
5.946615
-1.748189
3.770770
0.892772
-7.012326
15.382807
2.877061
-1.039769
3.340747
4.082754
9.764366
-4.558716
-3.899927
9.166248
-0.063369
4.012285
13.791327
-4.587720
-1.221741
-5.988720
-5.641981
2.666186
9.751116
2.286011
-11.076189
-5.037947
-4.432874
3.665997
-4.696189
2.271779
-9.676355
-4.040560
1.469022
-3.804490
7.855784
2.291660
7.264805
-10.329259
-2.917458
1.787511
-13.201854
-0.486311
-10.739263
0.775181
-5.182683
1.014016
-2.549442
13.391564
-7.873984
-11.730341
2.549316
4.758822
-7.532450
12.402908
-4.925166
4.681197
2.399532
-13.384150
2.260829
-25.096945
-7.632246
7.809436
-12.651074
0.503602
-0.501702
-4.745272
1.083210
2.882990
11.131630
5.660319
1.946967
-4.335886
6.304506
11.152215
-4.858008
4.462674
-17.029228
5.867690
-17.991623
7.486950
-11.415951
5.766178
8.366880
-14.278487
11.703527
0.198697
5.507718
-9.494430
-3.382810
3.695192
1.109152
-13.487527
-2.781281
4.316986
4.191453
-4.169407
-1.175875
-16.992320
2.062884
1.820872
4.570518
1.879650
6.278197
-5.650676
-2.810434
2.951611
-5.011753
10.724715
-4.486668
4.285832
5.147986
1.251683
-12.334604
6.811287
-0.358789
6.201458
-8.816523
5.114807
4.556669
2.529168
-3.535021
3.576639
1.194604
-4.382993
-4.602853
7.784765
-16.072397
-4.707544
-8.914540
5.976124
5.955294
0.171583
-9.136228
0.912022
-2.394027
-2.213047
0.667127
0.786008
2.684928
3.277406
10.260324
-17.381348
-3.183164
2.051923
1.125399
-8.017289
-3.261541
-14.719706
4.357538
0.987838
2.687212
3.593708
6.529243
8.837554
-14.288618
-8.519060
18.396822
4.029009
1.813781
11.801589
17.756936
1.145656
-4.079368
-5.314620
-1.123924
-8.047696
19.901124
0.187599
3.508390
3.721724
13.324624
-9.412403
6.298150
-8.317369
6.364083
-1.831722
0.762517
0.501665
5.996509
-6.497998
-7.995626
7.697450
1.570964
13.690317
8.544322
4.095325
2.155937
2.063513
-13.274838
-1.844792
4.733765
-1.596814
-1.248057
-2.357033
2.674750
-13.871895
-5.226116
-6.394157
8.649671
-6.963346
3.693327
5.797661
2.676185
-13.956088
3.161264
3.724019
-9.147540
-0.783310
4.381403
-9.286736
-13.080310
-2.212327
8.584961
5.373527
-2.017133
1.216923
1.781992
8.708253
20.184439
5.583554
12.622112
-2.276081
1.302469
-6.478294
-3.953334
2.824919
-3.153285
-0.066757
1.798211
5.144435
-15.915588
-11.475356
11.412467
11.154014
-11.388915
2.299423
7.240189
3.844460
-7.792600
3.776846
3.442680
0.439562
5.760133
-4.915456
4.413485
3.524119
-7.411996
-6.888823
-1.597544
20.251409
-5.521217
-9.008213
-13.180909
-0.146338
9.051705
5.597300
-12.162477
-12.566731
1.413747
11.628646
13.490809
-6.385524
-6.725057
-0.224079
10.131438
-10.630555
4.802178
-4.186022
2.507057
-16.875495
4.796776
8.699272
-1.356356
7.604572
16.490683
15.678015
-1.561978
10.198403
-0.908718
11.161631
7.727876
-1.665337
-12.147447
1.436671
-3.096183
-3.219563
-3.157413
9.731099
6.021388
-1.958708
-4.852503
-4.182095
3.146716
2.226856
-6.873707
8.158419
-0.366238
10.171439
3.974557
6.492947
-1.159865
3.362015
-3.262255
-8.069097
2.742722
18.224503
-7.877336
-7.576255
8.579026
3.711106
-6.819992
7.255134
14.862085
2.099194
2.720299
-11.922085
-4.583531
6.263468
-1.905720
5.254898
-1.832916
0.290793
13.534197
0.565710
-0.390941
-1.788308
2.559230
-0.901481
-1.131570
4.589514
4.621635
-15.267253
7.920804
-6.939096
8.223510
6.230595
-6.154164
-2.333698
-12.622134
6.732414
-0.766302
7.261909
11.516985
-9.836574
-0.539783
1.446648
-10.347784
9.893891
-7.641870
2.402296
0.228774
-7.803060
-16.117039
-12.489813
-2.147700
3.713497
-10.779172
2.694136
-10.768788
-10.172163
-19.192251
3.501147
2.341647
0.680426
8.960606
-0.626239
4.481106
1.327295
5.589276
-1.258354
-15.485698
0.071395
0.785845
10.858615
1.963895
-6.481063
2.238850
-9.395780
-2.396894
14.819893
-0.210477
9.968746
-2.771262
-1.514841
11.161881
-1.050903
6.647243
-10.253543
3.162323
14.212438
10.800343
11.134060
5.102282
-17.147530
-10.561328
-6.532213
-0.603562
-8.115141
-16.019419
8.095870
-4.350551
-1.185742
-6.633572
-10.661841
1.833659
3.229007
17.911332
2.861682
3.822344
-11.955275
-9.314297
-2.525222
-7.378203
-7.456254
-0.832273
-0.739895
3.234658
20.772172
-0.414642
-7.343528
-1.539689
1.097165
-2.514040
0.695634
12.250788
-5.028688
-12.307554
7.258721
-7.426524
-6.198592
-15.789316
3.382059
-2.922394
4.147883
9.364631
10.039423
5.646081
7.719578
5.644679
-6.143281
3.979082
12.695764
-4.388294
12.872043
-7.226613
8.521124
-14.882822
5.720911
1.386242
-8.769292
13.097271
-10.024440
5.913912
-13.492383
1.650338
9.420228
23.689225
2.820770
-5.639125
-3.288516
-9.495353
-13.376505
2.740433
-13.282079
0.606556
-4.689162
-1.513370
7.347046
16.897246
-1.323827
0.460824
13.567087
12.857950
5.108247
0.752006
5.758244
-6.116204
-7.784864
5.308932
2.250636
6.631715
10.847791
-0.007993
-3.839145
-9.696971
3.688703
-1.561681
1.949102
11.546057
-6.570551
-0.353468
-12.305385
16.382381
16.745207
1.018576
-6.284290
4.218248
-7.893583
-13.970395
4.246267
-3.726034
4.134723
-16.221144
13.616931
-12.689419
5.869312
-4.862609
-0.780036
17.026892
9.395263
-1.893062
-12.607376
-5.962439
-7.726778
-16.227572
-0.513927
-13.464030
-2.892820
14.219368
-11.901863
-5.979797
-2.857647
10.058358
-9.677024
4.086976
3.652734
-0.454210
7.756733
7.634574
12.976432
13.794187
6.852168
-2.781493
-3.346829
8.895106
-7.071538
-9.908525
12.242309
4.107736
-5.905038
18.217282
9.590625
-11.810341
6.213797
-0.636682
-17.701843
10.861141
5.208507
-7.014789
2.280342
1.486023
-2.175318
-3.088485
-4.450440
-8.515756
9.130437
17.221405
5.505830
11.016983
-3.165091
0.305965
-6.340053
7.493488
-2.490610
1.485343
-17.135740
7.380037
-4.862288
10.494682
-3.373860
-1.202636
2.151755
-14.312269
-3.381841
6.823089
0.604278
-2.412734
9.930102
1.583955
-2.592050
-1.118590
0.365472
0.368602
2.997796
4.515071
6.428600
0.179030
-2.674475
-8.145014
-13.510834
-1.672745
-2.292183
4.301693
-7.110911
-2.476741
5.159277
-6.142255
1.503402
2.223619
-5.343648
15.260705
-3.284181
-6.092193
-5.469283
-1.257617
0.753715
24.247406
-0.205296
1.473331
1.891247
-14.611797
7.374589
1.868705
-4.927254
-2.414033
-5.634207
4.702824
1.844416
7.641947
-5.866348
-13.090898
0.689862
17.327396
2.838624
-10.127670
1.414777
-1.122309
0.959005
5.052218
1.056036
4.870129
-8.411993
-7.719141
10.417572
-8.153388
-1.791620
3.223016
3.618752
10.154527
-13.326383
5.712674
6.366242
7.325165
-6.614088
-0.906192
1.429143
2.682600
7.422362
12.706512
4.624974
-0.052035
-5.077776
12.184568
-7.911653
8.714958
1.335133
-23.005746
1.577743
6.840113
-3.478357
7.194590
24.750588
-2.500063
-20.690837
-11.227662
-9.079836
0.483040
13.090209
-12.209198
7.663064
-4.171001
-2.838782
-5.338598
-13.951773
-3.765574
-7.387654
9.142792
6.292768
-0.323240
-21.099353
4.161867
-1.431776
0.564324
-11.590764
7.472764
-12.920502
7.197255
7.949819
-7.741537
-1.258422
-2.583299
0.664087
6.907001
-2.834251
7.190348
-1.555015
7.001775
-2.169436
8.613362
6.539673
7.719194
6.818722
-2.800290
2.811331
16.552504
0.904299
-5.297115
-6.388455
1.475415
2.060579
6.291836
-5.433671
10.816407
-3.297559
12.331451
-9.407472
-1.882218
2.200870
5.210632
-10.523488
3.835029
6.557888
2.395575
10.325219
-2.639873
3.280923
-10.341858
6.247707
-11.538837
-2.001697
-4.278240
-6.906197
-12.371882
-5.590033
4.101368
-7.801383
8.595614
4.011771
-0.237248
-1.625505
-8.086948
-5.516615
-7.176303
9.608195
-6.018480
-3.291361
-3.040851
0.798854
13.629356
-5.572977
-4.567875
-1.809728
-2.034871
-7.015330
8.624089
6.073322
1.009921
-9.323632
5.417211
8.631453
11.618049
-3.917594
-4.337414
-9.186118
1.493269
2.508338
0.589344
-5.084819
-1.158751
-15.448033
7.136363
-8.979457
9.286460
9.999594
17.238973
-3.469290
5.560729
-2.749950
-3.499534
-14.387515
5.920587
-4.623738
6.378471
-16.973943
2.648981
-1.384295
-17.350801
17.143448
6.726897
-1.365871
2.004882
5.293266
-8.159322
2.692730
6.778806
1.070250
-1.750648
-0.410258
4.271421
-14.412600
-3.956898
6.459824
5.160918
-8.070963
-8.407444
-7.037390
-11.600391
-0.065784
-6.903372
2.280089
-10.413452
3.093275
12.040785
5.972414
-6.797578
-14.659224
-0.600360
13.456283
-10.047009
7.147419
0.750871
-3.323534
7.281404
-2.184776
-12.498376
-6.937394
-7.200744
-1.900095
1.323271
6.589692
-5.811360
6.597262
3.963054
-10.753319
-0.503544
-1.378780
-1.562973
14.709033
7.591038
-1.305222
-4.196312
-12.622086
9.024166
-3.187485
0.950800
13.568078
-2.330795
6.000193
7.285826
1.034110
-5.329866
-8.485922
-0.498426
9.027589
6.814483
-15.168624
-1.049195
-11.824240
-3.886682
-6.766141
8.796480
0.362254
-2.397951
-1.305907
15.231291
11.337523
8.885865
-2.882612
-13.585611
-0.553389
5.843042
-9.160217
-10.760619
2.711468
-4.824374
5.758453
-14.830122
0.359261
7.368981
12.686370
8.909751
3.192103
-2.565645
5.959881
4.866718
3.627694
2.271203
5.982079
-3.646516
-5.931572
-13.862048
-2.225708
0.107116
3.935481
-0.143105
2.887948
-5.465242
-2.936235
-4.408798
20.544727
18.025683
7.197003
-5.476862
7.494813
-3.361780
11.475738
-3.911445
-3.717647
-10.068286
20.594330
-9.875124
14.742807
1.558412
11.519364
-17.335004
7.186214
-7.793582
2.648605
-5.759445
0.516865
0.391921
-3.140550
-4.395019
-21.581482
-1.388847
0.435325
8.314352
-13.498227
-2.155067
12.868617
6.311490
2.648884
-2.302749
-0.010184
-4.173526
-4.484983
11.239018
17.778785
-10.299515
2.872537
-13.252839
-4.858948
8.783925
5.255158
5.357110
-2.420059
0.231700
-6.373824
-14.110152
-6.522876
2.410117
-11.970955
-12.949974
-12.611915
-0.163624
3.984032
-2.226690
-9.858373
-23.954866
-2.562142
7.061251
-19.712436
8.066910
-8.239879
-4.157328
-2.236263
3.038609
-5.922382
-0.035582
4.031211
-13.174724
-2.471790
-9.055829
1.047873
4.173544
10.082174
2.837681
-4.357639
-17.716880
-1.273663
11.959558
3.682215
-11.717923
-15.349411
0.755283
11.918092
9.973566
9.319859
4.751551
12.935043
-2.416044
1.927505
-3.361119
14.063926
3.080870
1.839856
-13.195387
-7.700305
5.433306
-4.124486
2.349789
-12.631242
10.721266
5.730994
-12.559881
10.730484
13.092925
-16.126211
5.557253
-1.534763
4.391481
12.717098
-8.044599
-11.586357
-5.378856
-15.805563
1.196955
-6.924296
0.178432
-14.649545
2.554911
13.188795
-2.654636
-7.414861
-25.514729
1.763788
-5.392831
-9.911011
5.240215
-2.565638
6.668818
4.447394
1.213486
5.760451
-5.064143
-12.914981
3.120169
-8.193063
-1.743432
-4.845143
0.359567
11.053110
2.889688
-3.504891
11.562588
11.129884
-6.613565
14.822502
-0.264693
-9.679864
3.044339
13.044836
5.741832
-5.252169
-10.300157
20.764691
6.188571
-7.776576
5.042514
9.595389
-0.276599
-15.010588
1.026600
2.150025
5.781956
10.207438
-2.596642
-7.104349
-3.907966
13.009593
-5.435805
-10.513819
-5.794842
-5.751425
-8.944984
6.131618
1.401452
5.352223
-3.099463
12.606669
2.547772
1.367871
15.953072
-8.923077
-25.426314
1.896505
-2.174554
-7.409538
3.744904
3.036251
4.632083
-1.045888
7.479011
-9.063822
-6.972880
-0.853899
-6.763952
5.230148
14.065757
10.472048
-1.439486
7.912666
-5.337435
-5.268743
-9.634935
3.108978
-0.177319
11.543907
4.412033
1.735664
2.078147
4.147754
11.946225
-4.997733
6.455854
5.933947
14.734298
-5.762816
12.531167
-7.760476
6.540040
6.307896
0.280975
5.353535
-15.521764
4.433284
6.404226
12.972390
5.228960
-6.242488
5.628411
1.787846
-12.608498
15.859644
0.652506
-1.470848
-3.904318
-1.155252
-20.269840
0.294014
1.943033
8.424345
8.536055
-1.358371
5.795846
4.741755
-10.912884
4.389613
-7.839240
2.877571
-3.608793
13.200302
-2.219912
-0.415622
1.981289
7.381614
-7.883353
-8.728263
-9.634006
-1.656192
6.138261
9.629961
-0.798263
-1.767170
-2.661141
-4.092842
2.783488
6.990207
12.470246
6.601904
15.752748
-3.578870
-0.958874
-3.544353
2.507029
7.257785
-2.543556
2.334839
-8.691711
-13.350253
4.875526
-3.167267
8.700260
-4.081359
-5.077798
4.882941
-3.098284
5.621274
2.443274
2.173856
8.572890
4.364363
-3.661962
-16.225815
2.692032
-0.257782
6.860124
-1.338939
9.423297
-12.715055
4.988615
3.071871
5.336482
-5.598173
11.627537
-1.631753
-14.202255
-1.565336
5.131848
2.050279
7.846742
3.926472
10.109212
-18.989476
-12.562965
14.800030
-6.557664
-13.072303
5.632748
3.177281
-5.353409
5.302049
6.408710
-2.298770
-2.110530
3.166749
-3.324073
-10.917824
9.541452
14.386084
-2.820137
-18.677892
-2.816906
-0.079084
-10.519417
1.554659
5.372358
1.639629
2.435732
-4.557056
-12.680439
2.598739
-0.638653
11.775214
-0.446300
-2.065912
-0.562619
1.795030
10.156282
17.341745
9.187973
-12.829586
-19.301968
1.250178
-6.624423
5.609499
10.994000
-15.790984
-8.798753
-0.402036
12.064442
3.186482
0.842010
1.385911
-0.299981
8.225198
-1.399660
0.143066
-15.428345
3.214201
-6.589640
8.048976
3.577124
15.402432
10.141406
-17.044662
-16.386445
-0.969358
6.097008
13.118573
9.258837
3.209083
7.226152
3.593958
10.582311
-5.362991
4.308317
10.354927
-2.410635
12.271808
10.423698
4.637201
14.504033
3.939363
15.831090
5.045154
11.978017
0.619513
-7.966463
7.105392
-3.652747
-1.244279
-18.299263
-1.126099
-2.605138
-5.926728
-0.250042
0.065221
12.817221
-1.093979
2.213762
23.933436
-0.068221
4.358124
13.153200
2.325328
3.302500
-1.479322
-12.503500
-3.255195
1.026612
4.522100
6.717449
-9.259965
1.037851
6.315922
5.120814
-2.264995
8.911096
7.539995
-2.865191
-5.280492
9.381177
0.318313
6.640662
-1.380178
4.920289
5.031011
-0.400550
7.866948
7.880512
9.841549
9.383483
-6.000507
-5.143122
4.567386
-5.465624
-2.330587
3.082089
-3.945742
-1.500286
-20.649612
-6.076740
-7.935676
0.708285
-0.011954
-11.510168
8.546245
10.699660
4.744805
-7.279898
13.856284
-8.063045
9.671366
10.179580
-2.718758
-5.727502
-20.161951
-5.044884
0.964420
5.760567
-14.905572
-3.497657
-4.499777
6.818665
6.100480
11.962115
2.683676
12.117182
3.641253
-2.753596
0.071242
5.540749
3.000904
6.324641
-3.977164
-9.978324
-4.459824
13.392743
7.973004
-1.822874
-2.650699
-13.045365
0.651832
-22.828540
9.289762
2.236031
-3.474389
9.761786
-14.280827
-3.094098
-0.999368
-17.252830
-4.691944
-5.380778
-1.171331
1.277589
1.625219
-3.064111
6.223303
-16.289295
-4.298462
2.142011
-15.528240
5.929637
2.415645
3.121389
7.066502
-8.795626
1.404859
5.217321
-11.493765
3.857239
-4.812054
4.927979
6.575071
4.239123
3.461092
5.555287
-4.915497
8.279396
-15.045048
-2.231186
8.777277
8.737708
-5.815362
-3.304817
0.960322
0.091910
-1.517440
-14.484416
2.247295
9.584316
-8.771535
4.188526
3.550564
4.548026
-3.497183
-4.797906
-1.250134
-8.907250
4.413052
1.378924
-2.088896
0.193271
7.414260
-5.647484
-7.548363
-8.846772
5.818809
-3.358450
9.098489
10.181807
-6.209528
-0.887444
14.178320
-2.808636
1.093469
6.246142
2.167661
4.418982
5.016023
9.312634
11.434312
-1.727445
-8.245163
2.188728
-14.414663
-6.144150
-13.677024
6.130168
-5.073799
2.266550
2.181791
6.233051
-6.848257
1.803426
6.140721
-4.135137
-0.511485
-2.195013
10.631754
8.668520
1.952970
-8.560435
0.562278
-5.591885
9.368048
-3.890921
-0.409349
-16.042624
0.003760
-1.433831
0.412293
-2.101444
-19.730010
14.846365
-13.832958
1.943037
-6.365020
15.029704
6.255872
-5.356479
9.145691
-2.228147
-4.916328
7.696237
-4.386269
4.568877
1.484038
-0.483366
18.999670
-7.875728
5.051514
-1.022791
-23.674929
-6.493499
11.541082
-17.537594
-1.899701
-3.241988
-7.648209
11.137287
4.330472
-2.002725
6.619101
-3.335126
1.766020
-3.354170
-1.144676
-12.848181
1.358589
6.305973
4.901083
13.004789
-0.579340
-1.814005
-3.775321
-8.153953
2.864070
-20.887250
-6.921613
19.712592
-3.228622
2.472293
14.024808
9.713039
6.946995
0.024722
-1.552396
0.594978
3.309971
-21.091916
-4.996334
3.092245
-6.778628
-14.354803
5.439594
-2.140850
1.908129
-19.456837
2.224644
-0.089491
6.127656
2.590514
3.706769
6.801596
-3.554546
-11.418996
-2.144533
-6.694687
-3.652132
9.912307
3.225080
3.303527
11.639489
-6.262622
10.811549
-3.099483
1.138831
-3.634633
-10.024556
8.654207
13.160152
5.753837
9.645978
-1.001371
-7.183042
-10.097720
17.132031
3.999298
-7.450147
-3.383848
-5.536549
10.273054
7.546329
4.596498
2.436213
1.341958
-15.408123
1.329555
-14.418714
-8.151889
9.086058
9.613502
-1.741744
10.397800
7.807961
-0.050222
9.037599
5.173224
-4.877359
0.844239
-6.535439
4.262833
-8.764693
4.078360
-12.104421
1.515871
-10.794082
-9.487412
-1.666099
21.521898
8.626419
-6.064811
-3.142920
-13.235029
-0.473457
4.786709
-11.639388
6.559022
7.911821
12.773873
7.490595
4.356851
6.537212
-3.879137
8.817432
-8.480167
-6.057756
2.642826
-1.993876
13.695663
2.242429
-7.276283
1.965293
-6.666816
-1.619533
-2.935426
-5.760031
-3.063617
-2.654874
1.040367
3.356302
7.086416
0.725915
0.266316
-2.554879
-12.701096
-6.489963
11.688167
-4.604757
5.682532
3.801456
9.801714
-12.516637
-0.490387
-2.401662
3.712716
-2.455684
-1.096226
12.801763
9.265619
-2.797433
-0.273029
-8.664196
-4.990188
-6.580951
3.788921
-11.736880
-1.849203
-8.806803
9.100582
-12.986780
1.362599
-18.881195
-10.038947
-0.937017
-7.724616
-3.568747
-16.618920
3.629956
11.323592
1.781301
-11.165249
-12.180898
-6.994829
1.533855
-1.081601
-13.369841
-3.720290
-6.132807
-3.002309
-3.997543
-4.045203
2.014183
17.307195
13.544138
4.871512
-4.523222
0.854297
0.094041
3.151673
-3.458955
-5.482733
-8.682175
-0.784844
-6.640199
1.364056
-8.372463
-18.221525
4.839311
-8.803829
4.007897
-3.186216
-2.995825
9.302340
4.285732
-5.088443
-1.051387
19.446588
1.019197
0.414792
1.414917
3.556954
-5.691900
11.421447
-1.038705
-2.946917
6.997421
-2.283156
7.095246
-0.787424
-5.987798
2.235461
1.144236
-11.714845
-17.821098
-0.438172
6.487508
0.051028
-1.922885
2.953699
8.987916
-0.188303
-1.445134
2.679716
1.686633
-12.268917
5.133298
-6.005525
-10.902784
13.404094
-0.492904
-6.867041
-4.330729
8.537769
-1.554436
-5.035916
1.269276
-8.365402
4.238465
1.243941
5.565025
-5.442098
5.817066
-5.172652
-8.222431
-8.792433
-9.043434
-17.448990
-4.509503
-8.846128
-5.223803
3.875093
-7.001554
3.444983
6.951605
-4.404562
-17.987365
4.943975
6.853218
-3.087693
19.782593
-11.713845
-8.738253
-0.303359
-0.027597
-1.472536
-4.381722
-9.894914
-11.698211
-0.198725
1.564637
7.308757
13.506259
2.513352
2.578162
-5.717090
5.738969
-15.589110
9.338660
-2.320924
5.015337
-14.577341
18.727741
4.294068
-11.797521
-2.271753
-1.398665
14.943388
-2.704796
2.690224
6.641209
13.079485
-16.461797
5.258516
4.009326
-7.357291
-3.851576
2.523668
17.090727
6.733081
2.375865
5.158687
-1.230298
-6.660537
-9.892256
13.495339
-6.765077
0.563581
15.712194
10.336216
0.982175
0.555214
-7.090110
-0.634737
-3.733593
-13.706172
-1.705741
3.678929
7.033540
-0.833260
2.738479
4.801613
-15.495914
2.429330
-8.456788
6.687491
-5.876796
-13.316478
-1.981667
-14.380499
1.145636
-11.034406
-2.874509
-14.412969
-1.640434
13.498415
-5.264343
11.761227
-14.726146
6.221181
7.933856
13.038921
-2.560939
3.319410
-0.829246
3.563423
-4.219801
0.747445
0.440272
-8.966216
4.888352
3.388679
7.165808
-11.250212
3.407426
4.391750
-12.027926
8.056882
1.978341
11.029585
-1.143788
-0.817280
-7.482713
-1.372243
10.191664
-3.224607
3.232668
-5.688804
-12.628420
-10.035243
-4.978046
-1.373865
-12.030020
-12.371794
12.113000
-0.935453
-2.092586
-0.185843
-1.747207
16.656864
4.296823
-3.555250
-6.537885
-0.170845
1.875424
-14.098649
-6.307449
0.577976
-4.425969
-4.530367
2.754634
2.897468
14.218785
-6.247027
14.094978
8.970917
1.133272
10.765892
2.430027
-14.947115
0.636977
2.979979
-5.378581
-4.867663
-6.162611
-0.016662
-4.827341
-2.995917
-3.450301
-5.686855
5.750059
16.596525
-10.112487
-5.216554
-1.993718
1.800867
2.205929
3.300644
7.577460
1.513407
0.442325
-14.278389
-7.474525
-15.724646
-4.400136
-3.589642
0.942777
-5.919011
-8.797570
-6.353848
2.104048
-11.058981
2.875058
-6.442208
2.294632
-0.805265
-7.579064
1.351758
-7.582389
-16.884601
-0.345774
12.421286
-14.630674
7.103709
-0.894351
-15.287585
-7.075548
-5.204046
-9.715733
-1.741564
-2.303258
12.193432
-0.179931
7.708841
-12.493235
3.906854
8.802698
2.922469
4.251690
15.803766
-0.007803
1.876107
-0.591258
-2.747064
-3.461051
0.923600
5.463307
12.550195
8.346053
3.304359
-3.572603
-4.763841
-8.268429
-5.562259
8.944007
6.557182
14.740610
11.397223
1.081986
-19.214076
-3.693020
-5.901779
15.971249
15.299677
-14.041797
7.407967
3.604920
9.925801
-1.697883
-1.259325
-8.211487
-1.550425
-0.782800
-0.210349
-9.250296
-12.893579
-10.819196
8.245088
-9.466884
-17.693424
-5.967544
3.863440
2.009532
-15.292908
-5.808330
-2.197793
-0.123617
-4.240970
-3.027170
23.999673
1.687128
0.717066
9.443141
-0.001907
-14.157735
11.723946
0.891919
-3.059832
3.750853
-11.100145
9.705528
5.161175
-12.712494
-0.139919
9.026283
3.499796
1.630513
2.247290
-8.204735
1.883213
-10.554419
2.462832
8.743535
2.389767
-0.848958
1.999042
2.218156
21.901461
-6.661347
0.715169
-11.130794
2.221546
3.310255
9.382792
-9.005121
13.775098
12.581286
0.534665
6.366164
-1.314419
-6.943708
9.006650
-5.617107
-3.153886
-10.485801
-1.576118
-14.599641
15.433188
-10.740165
-1.288690
-4.181437
4.950970
-12.147636
-2.170870
-6.838864
-11.082589
-0.577501
-16.005088
2.724656
1.037325
10.956647
-2.614790
4.631305
8.426231
14.718975
14.984521
-9.503657
2.218792
1.480993
0.189090
-3.531241
-7.957833
0.559296
9.540185
2.668507
-9.870195
-1.653005
-10.373853
-9.407289
-0.274445
-4.269019
-1.969594
0.987775
5.679180
1.605093
-11.082197
11.629565
-0.199822
4.967774
13.828123
4.047606
9.117345
-0.766386
-5.989920
-8.711511
0.611262
10.148468
10.618873
3.410397
-2.373959
0.094904
5.769967
17.058843
5.993849
5.279473
-6.628950
6.000135
-1.621955
-7.977612
-13.794899
-0.812430
-6.376562
4.983833
-12.697847
3.372832
12.621695
-0.723621
-8.870396
4.032448
-16.632102
-3.178176
-3.504564
-2.015714
2.848849
-1.842919
4.508762
1.226945
3.032735
5.482455
14.946439
-7.060813
3.974832
-0.291233
3.086992
13.616313
13.495255
-9.443407
-0.037239
-1.324207
-12.942431
0.370837
-10.942687
-7.803835
4.395355
-0.469549
8.652323
7.544130
3.011791
10.916343
-1.190068
-8.640032
-2.515549
5.177573
13.910539
9.769872
-8.301573
-1.323054
8.675323
-1.358248
-5.217444
-14.257451
0.089781
-15.697872
-0.771563
-3.262151
-11.995518
-2.145764
-3.577732
8.710259
-3.087905
0.172973
-7.087774
-0.720682
5.186305
-6.334550
6.933984
9.386129
7.906550
0.502006
0.600079
3.042660
-10.184612
9.140053
-9.371890
-0.554058
3.189734
14.883878
-0.226526
-4.512302
-0.765937
16.679714
-12.395686
3.223229
-6.850161
-4.173614
-2.101815
-1.058390
-8.157880
-6.296330
-2.620037
-10.182144
-11.710032
4.972204
11.386848
-7.907795
-3.839165
-5.022017
-0.875527
-4.693652
13.887974
-11.094051
6.357322
4.592903
4.099132
-11.864022
8.448004
-3.383165
1.658848
5.811021
-2.317144
9.201794
17.822058
-3.758040
8.888239
13.301262
-12.075979
14.169644
3.612282
-3.389561
-11.063080
-16.521359
-9.657911
3.236791
1.625145
-5.566758
-17.782013
6.664279
-14.859069
-16.871696
9.803684
-11.512819
-12.876639
2.766477
3.667749
6.887958
6.430706
3.978501
-4.209562
-3.764446
-5.079348
-9.386382
2.657816
7.393242
-11.565550
-2.732249
-1.259822
4.706329
5.184215
4.750920
8.354344
4.931339
16.221317
-13.092463
1.960608
5.372104
2.978212
-18.207787
-2.472994
5.911231
12.465932
1.537627
-3.396827
6.200088
-16.343689
2.412848
-2.072277
-9.663255
3.224408
0.649732
-0.290865
-6.490823
6.305534
-3.237730
9.032659
14.023545
6.227887
-7.306242
-22.723734
-5.057561
9.334313
4.043098
-7.067605
2.735541
8.939021
4.953935
5.613879
-6.899309
-8.907303
-4.145218
-1.517405
-9.108199
-17.492463
4.953163
3.701158
-6.026105
-18.775466
-0.017046
6.047749
1.921740
-5.445259
1.113764
3.252657
3.985646
-5.004490
8.001244
3.040733
9.491071
-5.854964
3.155360
4.750710
1.449841
-3.961984
15.096405
4.249083
-4.010773
13.979196
-2.572795
-12.651575
3.376729
-1.764953
-11.588231
-10.273481
2.928590
5.312179
11.266746
-4.782461
-6.639311
14.964776
1.181343
4.928616
3.046676
2.554889
0.421467
7.181207
12.325259
-11.630924
13.060718
-3.746347
7.662221
-0.678791
6.642439
-0.367462
2.821121
5.614394
11.740949
1.292833
12.914643
-2.240093
-5.027176
-13.377009
14.108286
13.504030
-5.560048
9.459514
0.664358
-10.096882
0.434527
5.033825
10.654662
0.584767
-6.437811
3.686186
-3.469785
-2.769427
-11.645724
-8.625303
-12.282316
1.124844
10.152564
0.412837
5.977660
8.029813
3.839940
4.799026
-4.256237
-14.567923
8.494885
7.884229
3.895530
-6.759091
6.717972
-2.184920
15.788595
15.243128
-0.276197
-6.564462
6.101031
-19.713707
11.579314
0.118682
8.403699
5.350158
-15.384031
-9.636908
-6.623579
-6.807697
-5.814128
-2.004851
1.381393
5.243889
9.292883
-9.375857
3.466463
4.239037
14.610083
3.713382
8.949343
2.878744
-4.802536
-5.167250
8.489119
-5.688436
11.495825
3.510617
-12.574608
-18.015634
10.791976
0.634650
8.985866
4.338235
14.406349
-0.119056
-14.168240
10.760375
-17.804098
-6.876953
-0.926991
16.201736
3.754906
-0.172248
-5.414961
1.544423
-2.723996
4.697138
-10.010709
-2.875771
-1.265085
-1.465077
-15.673481
-1.592325
7.121124
8.173032
-25.627473
-1.046231
-7.709312
-18.009626
8.978057
-12.422359
0.277360
2.453488
0.020028
-2.912849
-3.309011
-7.051750
-5.593991
-8.928173
-1.027856
14.882804
23.697659
-14.891116
7.623337
-6.432605
-10.131174
7.729500
-1.682288
-3.346744
-6.189567
-3.332602
6.515215
1.385722
-14.074893
7.422713
-2.571617
-2.274822
-8.538746
-3.582451
4.103013
20.671037
-7.778019
-9.374076
5.578860
6.099437
6.178611
15.183544
9.613861
-6.189963
0.402763
3.345642
8.063997
-10.450638
-8.685319
-0.096021
-9.437462
-6.594554
-1.665132
-1.131537
7.391130
8.196395
-11.015221
1.755994
-14.569562
-0.052902
0.407125
-9.677134
-9.659342
-9.766232
4.110790
-2.903622
-1.889099
8.358121
-9.841604
-1.517509
1.983826
2.826719
5.676513
7.021576
6.470032
-9.858576
15.102960
-8.337793
-12.130646
8.502013
-12.747058
4.930681
-8.905951
1.075099
8.165553
-10.969297
7.232568
15.445137
-12.533214
8.015961
13.257024
-3.502090
4.986227
6.068102
-12.307331
3.637226
16.235718
0.198756
-2.071354
-6.532725
1.636198
-11.595149
-2.902588
-0.934783
5.264137
-16.096726
-1.588481
14.764268
-14.050672
-6.798508
-21.379903
12.010871
-4.655371
-0.608969
6.860955
-3.384875
7.506265
18.202154
1.216941
-3.514283
-11.507922
14.907938
5.146566
-3.395338
1.169370
4.636832
-9.115181
9.853642
9.118313
-6.276903
1.850133
-2.694341
-9.057012
-8.493630
4.413221
14.509909
2.828575
3.059825
2.549950
-1.243053
-1.341178
-5.800640
13.920210
-5.939880
-9.445004
0.208476
-3.265992
-6.709144
5.122641
-1.887809
-9.650650
-0.299333
-4.516952
-2.514094
-1.716813
-13.474558
-0.516005
-6.549052
-1.167276
5.310033
-4.107884
0.580670
3.054999
12.927381
-0.563472
-1.970859
-6.372357
-0.499261
4.082964
-14.413401
5.576624
11.560554
-6.399981
10.880880
-0.438702
-12.996873
0.174417
7.090727
0.370249
-3.566451
-4.755455
3.940111
-5.122718
-4.523436
3.507526
-2.694097
-1.079290
4.230449
-4.116775
-5.348758
15.288018
2.923562
-6.349819
-4.842269
0.906910
-10.778702
-5.770114
7.913015
-4.400726
-7.654557
-6.329394
0.107796
10.566212
24.898151
-5.865283
-3.049794
5.087340
-5.120465
4.861795
0.187922
1.959921
-10.436286
-1.892523
-8.155327
5.826554
-10.398417
-7.008738
4.093901
-11.874451
3.781603
14.935296
-5.943369
-6.902181
6.168430
-1.703873
6.780692
4.328775
4.308389
8.483229
17.774193
-7.061693
-2.120836
7.645085
-1.158474
2.045107
-6.149912
-5.917201
-1.640530
3.144177
6.518467
6.691274
-8.027122
2.628518
5.977999
8.942661
6.564618
5.324392
-7.426498
-4.948603
-9.288947
8.096020
-5.599687
1.769631
-2.173158
-0.400203
16.066236
11.087375
13.780337
13.840181
-0.806449
7.405191
4.669046
-8.379764
-3.099765
2.027237
-2.016789
-4.322442
6.143730
0.917719
-7.811995
-10.755408
5.426772
-1.819471
3.832764
22.970384
-3.975330
12.163664
-9.687751
0.010513
-1.637780
-5.438377
1.301602
-3.037357
0.817222
-1.796155
-10.945592
-0.256185
14.124579
2.644596
1.508601
-19.824453
0.704529
2.052135
-16.116882
0.718658
-7.377572
-6.690447
20.775718
-2.301073
2.431909
2.538099
-3.607527
0.036596
-0.434654
-5.493477
10.290110
-6.055106
-11.450779
6.789327
0.759343
-13.415712
1.431828
6.866371
-10.722328
-3.268120
11.147121
-7.484738
3.261786
5.664167
5.804909
-0.250987
2.570862
-3.546515
-5.839911
0.958702
4.390895
5.121246
5.301700
12.403917
3.912452
6.438782
4.722882
1.688093
-4.594266
13.024514
-1.098200
4.670773
-0.561227
4.310289
-13.318126
-1.503682
-17.857413
-1.897610
0.948524
7.202004
-35.871222
7.721545
-2.687664
1.591797
0.341688
-13.050813
-0.592494
-5.488079
18.475711
-7.639747
4.359705
0.221199
2.048561
-7.785308
0.079190
-10.046564
-0.152204
-5.491077
-4.133256
-14.394855
6.214678
1.262030
-0.029912
2.132767
12.388199
-4.168973
-2.249150
9.272946
15.816696
-1.997054
6.830518
-2.692454
-12.037015
-8.790192
-1.248359
-14.134510
1.589228
7.135862
13.873459
-9.062230
-2.447385
-0.732706
7.376542
1.827380
-7.698903
-0.174762
-3.965271
7.741795
2.445356
1.319782
-3.310532
5.040904
8.926379
13.619499
-2.890725
-10.478194
-2.615772
2.526738
-7.813626
15.526599
2.228151
-4.761536
6.167214
-5.368370
6.136791
13.181732
3.809564
-12.023891
-9.397914
-5.960524
6.800822
2.712280
-9.378016
-0.456009
-11.348197
-3.928432
-5.622566
1.062400
-12.327918
-1.467693
-17.481251
-1.925241
13.323537
12.820337
5.778798
-6.670531
-0.682229
20.778378
-5.882933
2.100643
-19.443471
5.045612
-5.514900
-1.781091
-21.663816
-4.354355
3.710269
4.810557
-6.560198
8.185330
-9.590579
5.190155
-8.115028
-4.301238
-2.631602
-7.968330
-1.008047
-2.030193
-7.079230
-7.016440
8.382504
-7.148982
-9.583915
-4.704024
-6.422423
-0.791547
-0.738666
3.856033
7.872793
-10.008270
9.926990
3.576195
15.420773
-3.182292
17.696490
-11.667871
-3.661060
3.224717
16.663610
4.693563
-7.047187
-2.844485
-0.053691
-8.941433
2.098185
-4.676768
-7.081313
33.144685
-1.948079
-1.586902
-7.497057
4.763149
-7.707564
21.375325
5.951453
9.859703
1.047975
19.189861
13.008869
11.787466
-4.455883
-2.677482
7.846153
4.682267
-5.648465
5.527844
-4.301214
-5.548106
-6.952968
-11.491819
4.027162
5.495935
-2.840623
3.534029
6.109313
-11.490301
-5.297090
1.530730
-4.620609
-14.240434
-12.736078
27.610574
-3.408385
-2.956772
-0.489095
-4.990414
1.236913
-10.132726
0.984346
-2.738196
3.972301
2.775499
-3.596221
1.785657
1.441839
-12.875576
3.415401
-1.538516
-3.483949
-13.693452
14.175829
-5.329822
21.828294
-2.423418
-0.320318
-9.265384
0.226943
1.334596
-0.179199
4.481770
17.178596
14.111378
-1.317535
11.755452
-14.090854
-6.938890
-2.848333
12.037109
-1.384134
-2.975031
-5.264153
0.916547
-16.667137
1.926452
10.475475
8.375574
-0.431084
1.405269
-1.175878
-2.355527
-2.893676
-4.788879
-2.318814
-1.727521
7.511136
1.771328
-0.905109
-10.363049
-6.699006
12.091642
-8.308496
-1.890410
6.503480
5.212616
7.102054
2.822873
-17.128984
-3.330686
-9.800365
-8.423701
-10.368679
15.486084
6.406321
6.642998
5.849452
-5.526199
1.149582
2.397591
-3.814895
1.610447
0.414009
1.331420
-11.455059
5.069701
-11.954132
-1.787498
-11.402408
-0.767383
-8.672070
-8.883733
4.927991
-6.056430
-6.028038
-2.499469
-3.210119
-8.369811
4.782779
9.889535
-9.550033
-11.524836
-5.361114
2.948017
6.960398
6.966805
-10.578961
3.758989
9.758084
4.272597
-6.738421
12.393892
2.904731
11.360761
-22.944527
11.490065
-0.824636
-9.202771
-12.675693
-0.054030
13.778950
-3.885958
-3.476199
7.311388
2.659577
4.449158
-12.838362
1.680371
23.725264
21.568876
-0.047484
-12.754857
-5.753434
-1.559529
-14.466532
10.953351
-10.394246
0.290243
2.607385
-13.225040
-4.316726
19.541490
8.927408
0.570096
-5.532678
10.040207
-3.395546
14.478140
7.347496
-5.335387
-1.096236
4.898832
2.211871
11.590284
-0.565044
-6.678637
6.290071
3.811061
6.373070
6.589487
11.379587
-1.106060
-5.930591
-2.617493
-8.915804
5.978626
13.314907
-6.433885
2.285624
-10.757976
-18.962625
-2.637150
3.658304
1.942687
23.211436
-5.446171
3.191979
1.154094
6.491644
-20.140595
-6.799138
-1.875735
-5.226243
-9.313599
-4.893867
4.865611
1.098311
-3.771535
-3.302005
-15.631041
-1.901196
-2.679572
2.108020
1.283309
-4.349354
-5.514115
3.672762
10.596052
12.374898
1.167808
-0.409035
4.284387
13.051998
8.911840
4.218476
-5.139064
3.728403
0.220868
-2.615672
-16.046324
-10.292090
10.913785
3.857119
-1.908029
-2.901080
-0.088363
0.811035
10.422425
-0.338339
17.615518
2.878849
-5.535421
5.220306
9.740083
-14.234030
1.546229
-10.127461
-14.142297
-0.171216
8.788830
2.157328
-0.735758
3.395611
0.131342
18.733682
-4.314301
9.273192
0.322500
-0.904219
8.546435
3.626963
-18.948331
-3.513412
-2.362414
-1.080370
-8.479117
6.368954
-14.499590
15.855405
-11.108775
-7.442111
7.588051
-5.876000
7.897140
-9.040577
2.202731
6.672173
5.429880
-9.636301
-9.873801
5.527978
4.869018
-9.807430
4.675942
-2.733677
3.879747
7.482508
-8.523423
1.424009
10.904636
9.598035
4.016503
1.820493
15.881268
-2.473042
-6.315465
1.168849
6.976209
13.409631
-2.665405
1.192455
-8.789442
9.431276
-7.196665
6.988754
-4.324569
-1.081162
0.192303
-4.033060
16.179044
-6.871577
6.407374
4.705508
-0.603050
-1.214546
-7.646187
4.845697
14.048584
-7.323119
12.167627
-7.030988
-3.660014
4.622888
-4.536170
-1.747227
5.106722
-6.954701
-3.712314
-16.681568
-5.104405
2.730330
-2.581512
-1.896541
1.836691
4.555321
12.049278
2.505465
13.056929
-2.016312
11.719203
0.034288
-12.648066
3.405259
-5.141049
1.436414
-8.766372
7.577718
-0.120863
-1.554164
8.148807
-0.219145
-4.390384
-5.088158
-8.339087
0.430050
-13.455601
-3.976555
-8.315294
-10.082688
3.237473
-3.252804
-1.109734
-0.115833
4.068560
-4.235621
5.021312
4.990353
-8.146182
6.184527
-6.942727
-5.113940
1.038554
5.914548
-5.982302
-12.552299
11.060079
19.817750
-2.570981
20.400267
7.353381
1.809600
-14.536288
6.375201
5.845947
-5.325903
-2.062011
2.811753
-10.450826
-2.705568
-1.089254
5.466839
-17.644497
1.968342
-7.960359
15.060094
-5.766217
1.937545
-3.703987
-0.121379
-4.526518
7.021020
-1.665258
1.996492
-9.718240
1.951867
-1.581412
-19.940810
6.466087
7.676508
-4.551127
-1.484124
-15.687860
1.479628
-11.389087
2.357303
-9.000614
-10.482581
-4.264363
10.096743
1.189031
-2.706666
14.594833
8.502712
16.251668
16.260169
-4.038390
-5.336666
-8.114933
-1.236683
-2.483468
-10.961504
-10.178837
4.735668
2.407573
15.703661
-0.683604
-6.695431
-10.328497
3.726973
-5.080010
2.070059
-2.819691
10.882465
-5.602350
0.328385
13.327463
-0.144218
10.800574
0.684154
-6.419106
-13.604634
-5.766700
8.304088
5.076595
4.857903
6.942332
8.103071
3.049638
6.984225
3.458675
10.407261
3.145605
-8.307822
9.629225
-0.843599
4.430490
-11.890766
1.818837
0.904574
-1.000584
0.095041
3.027374
0.615987
-16.323195
1.507107
-3.443739
1.462451
1.502029
-4.060760
3.609889
3.556413
-3.753869
3.287635
0.918526
6.998762
-9.537160
-4.589771
3.185545
-8.300647
14.694310
-2.014440
0.739231
-18.525125
21.553039
-0.983791
-1.517693
12.721369
-5.804615
-9.772069
-10.797426
-3.769424
7.997934
1.912208
2.141345
4.044311
7.928204
-6.892243
1.817818
-8.461323
-15.438423
4.120367
-9.402447
0.029777
7.286438
-0.904027
-5.901117
6.987486
-14.059665
-5.530678
13.673618
-16.578579
-6.841833
-3.977555
2.566425
-7.979599
-10.349007
5.923883
-0.138068
8.161121
16.349575
13.767787
2.824288
-13.768446
-2.935643
-1.537316
-3.776815
6.611033
-0.520080
-7.526198
1.798251
8.489094
7.425006
13.130932
4.087473
12.246789
11.676673
14.760331
10.400585
0.275968
7.149900
9.552679
-7.484259
-2.714368
0.627721
0.169744
-1.776879
-0.349661
-16.288942
-0.556333
7.249051
8.169450
-6.850514
1.437597
-3.174589
5.273224
-5.293110
-3.755964
-11.466468
-7.301591
-5.396374
5.640771
-8.348889
-5.383524
-13.445456
9.181662
-7.523652
0.752804
4.925505
-1.127438
8.444062
-11.013527
-3.596552
-6.002675
-2.201147
-15.541247
2.777836
8.487314
4.334813
12.570640
-4.794497
1.619104
9.462082
-9.695315
2.568721
-2.524312
16.217332
10.433641
-12.659451
-4.491660
-2.939769
-13.897876
1.789877
1.741081
6.839240
4.855784
13.687266
-0.137441
-12.945218
10.033491
-5.755394
1.450517
8.901944
9.334638
-19.503216
-8.814825
2.254741
9.619962
-5.547434
-7.484267
-5.910852
-15.270399
8.485858
9.162550
0.582207
-6.842214
-2.719757
11.571323
20.338462
-7.327186
-6.864469
16.323786
-6.228054
-1.967469
-3.856878
-1.681054
-2.615823
-1.856891
2.875036
-4.996026
4.001047
-8.876664
-1.342138
-4.356047
-2.554143
7.316776
-14.408136
4.045547
-3.082315
-7.123118
-1.464699
-3.094516
6.485049
-3.465773
-1.447939
3.083710
12.190955
-5.493687
4.096364
-7.134981
-7.394745
10.845681
-14.072738
11.537180
3.494378
3.051049
3.487781
3.233751
-3.873482
4.106301
-3.496137
-5.182847
-1.064343
-0.129903
7.602182
7.729425
-2.695173
1.137468
-6.254136
14.219968
6.105476
12.512159
1.724454
-9.516340
-9.701926
-0.924074
2.005571
-1.141989
-3.913969
-7.557076
2.298219
0.158996
5.684349
-4.699999
-2.520925
14.764904
-0.450331
-2.086385
7.562835
-4.458409
-4.532194
-5.270463
2.419318
10.182539
-2.563081
2.988291
-3.937349
-1.658144
5.362792
19.253035
-6.548353
7.267177
-13.496502
-7.084472
-5.608151
-1.880971
-2.184533
5.020527
1.240165
-10.388968
7.286783
-8.015322
0.834368
-2.401422
4.008286
6.779310
-5.624313
0.139396
-7.144358
2.385857
-4.490267
5.304433
-1.419015
5.011053
5.324864
-1.126605
-4.576147
11.670807
4.209823
8.537276
-14.790998
8.583183
7.618541
7.761351
-4.133160
4.216513
9.962268
12.979254
3.346812
7.225918
12.678227
-8.827706
-6.347032
-4.248285
-9.568801
8.098552
2.659916
-4.210834
-0.513451
-6.887388
-4.650019
1.148227
-3.005877
-6.354169
8.688727
-6.877259
-5.488200
-1.735187
3.230937
2.382881
-4.091968
8.202429
-4.251999
7.110344
10.028690
13.346472
11.340108
-1.152155
10.222450
0.357068
-1.195709
-0.218594
3.209140
-4.451039
13.692601
-9.596305
-4.097458
6.834837
-0.578627
11.364477
-0.197852
8.715713
3.038438
7.107028
10.585507
2.476344
-2.620261
-16.135851
-4.229305
-3.376767
20.043704
-3.383776
-0.516318
-0.315901
12.146003
-2.095924
2.818235
5.771345
7.609256
-5.739895
0.581377
2.715219
-0.681198
-3.475472
11.295687
5.380819
2.112349
8.139363
2.760117
-3.416758
-4.561433
-6.049508
-4.280814
-1.670255
9.252354
7.380111
11.113540
-16.303287
-10.732448
-3.469576
1.047905
-1.659617
18.147738
0.452836
-3.181161
10.167383
3.216304
11.454141
-5.691840
-3.476892
7.742428
3.658642
2.336575
-12.741270
-2.774247
-4.043816
0.103726
-2.026098
11.260581
13.045169
-1.887912
-7.491622
4.399534
8.939687
-0.596806
-9.337389
-10.686955
-11.375291
-5.005362
-15.550206
6.148246
4.234582
-10.252278
-11.977903
5.108424
11.938755
-16.052332
-3.902531
16.229075
-2.061149
-0.468915
17.851240
12.389465
3.613948
-0.152540
-5.156764
-2.479342
1.139423
18.109970
-3.502845
-30.148914
-6.492058
8.025090
5.539005
1.830272
1.053986
-4.571964
13.258288
-2.957118
0.530295
-11.669557
-2.614357
4.738539
-1.884837
1.163477
5.731120
3.684631
-6.516151
-8.678644
15.136724
-1.322464
8.255827
3.786842
10.887089
-25.719740
4.463842
6.475781
8.944602
0.655309
5.150625
7.739312
-6.771940
-11.999149
3.632969
-5.008469
1.562008
13.403654
3.009140
-3.107021
2.802967
-0.670424
-22.935083
-1.784657
-3.348311
-2.090358
4.259080
13.169772
3.395480
8.250119
-1.011832
-0.723753
-10.982152
0.684037
3.052696
-15.184681
1.299878
-9.039739
-7.870249
-14.320654
11.020873
-3.116942
-1.520661
3.508584
6.739807
8.318338
0.494492
-8.488472
-10.248713
7.588586
-0.106023
2.076929
0.471246
-0.490854
13.879067
6.798015
-6.544807
-26.451896
0.952543
15.654094
-2.439678
-7.723673
-14.711916
3.422032
-15.509907
-13.603724
-3.625293
3.197777
4.445454
-1.279681
-6.679013
8.707543
-1.075696
2.410780
-3.304511
7.000772
13.264031
0.463582
12.391914
8.925197
-10.250854
14.042885
-3.532607
-1.696419
-10.876900
-8.175443
-1.145839
-7.556433
-6.579044
17.040297
-0.869135
-22.531537
-2.153074
-9.606137
-4.554440
4.005779
20.323703
7.564667
22.313292
-13.682523
-5.370202
-12.200117
-7.008876
-2.913731
11.603133
-3.106620
6.886481
2.236470
0.855604
-8.051127
0.530925
-22.037091
9.638460
4.921299
8.133087
12.953807
3.463189
8.349131
-7.642341
-9.891819
4.151557
5.591285
-1.003083
0.238189
-2.960606
-3.143131
5.976549
-2.982915
-2.978330
-11.908998
10.277242
-6.827511
0.217061
-7.498502
2.831422
-7.014536
-9.478934
16.772063
-1.475695
-3.862915
2.916887
-9.271747
-8.576842
4.358588
12.475711
8.167955
-0.371558
7.287284
19.540149
12.421038
15.134054
0.597705
-1.465897
6.849377
6.002532
9.510737
-3.678147
-4.938881
-0.145155
-5.017706
-0.222896
-11.952197
1.993131
-1.195646
-4.203182
24.582085
5.916358
-9.335108
-14.535694
-6.792638
0.982956
-6.107687
1.703506
4.667048
1.745729
-0.075807
-1.219389
15.391596
6.320747
-1.204168
6.166795
-0.734593
9.351190
2.644887
6.624991
0.396635
-8.174507
-5.544539
-0.526241
-3.740902
-8.246595
3.446979
2.053371
-1.124256
6.205689
-17.213480
-7.980212
6.340961
-18.576826
1.571522
0.284525
1.270239
-8.837293
4.189938
1.994034
7.513259
-4.721336
11.597191
-2.634813
5.161184
1.232166
6.007207
-10.483458
1.292457
15.419678
1.505562
14.291074
-2.603119
11.237492
-2.292891
2.635907
8.689539
-3.712736
-11.260353
-6.700398
-3.466179
2.548783
7.164399
9.809367
-6.700199
7.471458
-6.956735
6.367060
5.048196
-2.210672
-5.005917
-1.815777
-0.523490
7.411328
-0.100764
0.180729
11.792854
2.493775
-9.691833
-2.092011
0.544989
-2.930024
1.360015
0.831722
10.308974
-3.325926
9.395405
7.059120
-6.715880
4.468627
-7.195014
4.090351
-6.157018
-14.610144
-10.472951
-3.463626
5.918180
-11.671295
3.026692
12.047911
5.400824
10.383409
-1.396645
-2.573308
8.282786
-0.954053
-8.389545
0.183679
11.499563
-2.149700
1.462685
10.213576
5.348505
-3.756584
10.699133
-6.734990
9.048406
-3.544023
-2.988590
1.876811
-9.965757
-2.843865
10.749849
12.027102
-9.272942
-7.989455
3.675181
-7.900551
16.167956
0.091321
-0.115343
4.860127
7.662390
-3.683164
10.479659
-6.022248
-13.283117
-11.631489
10.931127
15.090542
10.220102
-1.905263
12.775444
10.307976
2.414074
1.023922
9.011599
6.521046
4.317926
0.515417
-0.927494
2.277702
14.347677
-9.533232
5.376719
-7.427832
-1.367787
2.777673
-1.341882
8.660978
-6.452365
1.160770
-0.088717
-0.766331
4.806958
6.998780
6.523882
-3.831897
-5.017945
12.322126
14.487007
2.082229
-3.544702
-7.623188
-1.033037
-4.416305
20.056609
-12.163268
9.259616
7.255532
5.147225
16.724345
-3.314272
10.115892
-1.216462
-8.816948
10.203672
-11.822760
-3.104356
-1.167897
1.661935
0.826006
5.080299
-2.771982
12.154512
0.501812
3.167982
-2.000599
0.815241
-4.048245
-2.992531
-10.697225
1.466693
4.555491
-0.564314
3.937916
-2.166273
-4.931322
-7.536813
-0.265411
-3.629294
3.964489
-4.563999
-4.723184
2.674948
13.217679
-0.424489
4.080594
6.013528
-11.738013
5.371300
-15.149110
-2.267461
-0.485261
2.751383
11.122724
-5.533033
-5.863255
-12.101410
-4.828880
-7.790922
15.126169
10.887008
6.694102
5.126784
0.356476
6.648362
16.178489
-4.066931
-2.257867
0.527222
3.038672
19.090502
-0.048275
10.615455
-7.569289
6.472288
-12.157403
-5.011813
2.085801
-6.734899
-13.184672
2.968198
-4.823018
0.392089
0.301431
6.664550
-0.587646
7.449821
4.012784
-5.483691
6.566518
11.102272
1.481059
6.303804
-15.606374
10.876911
-6.414305
-0.016529
-2.192250
0.426306
-13.664314
-5.036712
-10.807333
-9.945820
9.626533
13.810057
-9.024287
10.977024
-3.378684
-5.111293
1.574729
17.034916
8.364083
3.388011
8.696107
10.439037
-9.109244
-4.052466
18.553257
-6.035705
8.951030
1.990828
-3.527701
-6.635771
-4.545633
-5.050385
-1.157852
6.633525
-0.069356
8.620520
-3.451312
-1.576141
-6.054226
-6.569974
1.218201
-8.621472
4.980083
5.536309
0.763948
-16.502629
-1.938737
-11.346999
12.393540
-1.935476
-10.989928
-5.298430
0.810607
2.690486
-1.759964
8.190417
3.742345
-1.147702
-2.849235
2.951509
-10.811719
2.217073
-1.966348
-1.186398
-6.114710
-4.901095
-9.752889
-13.215956
3.927258
-4.027762
-12.388000
5.954750
7.062065
-6.202669
-1.217038
-4.803477
4.241361
-1.736492
-14.705414
-11.049426
6.394517
6.607584
-10.675978
20.825490
3.311434
-18.553902
-15.328317
-4.080334
0.856305
-0.129561
14.689748
-4.208906
8.223572
-3.314982
15.306308
9.363933
-6.753492
-2.105657
14.061264
10.250155
-14.343848
4.659377
6.060024
6.058410
-14.289052
-3.717955
0.109248
-7.182543
2.366599
-15.418186
2.082325
-3.730577
2.412511
-8.032406
6.384492
-6.293413
0.874334
3.489343
-0.551606
7.050526
-0.240915
-2.823141
-12.555032
-13.008716
-16.187484
0.639553
-7.473766
1.323623
12.744035
-5.663915
9.022401
-0.297698
-20.932955
3.420459
-1.306726
1.757857
-2.563266
-3.159996
0.328764
-0.265065
12.596803
11.490409
12.861661
5.554401
7.385945
-2.686820
4.619144
3.161161
-12.300602
1.314983
-0.877003
-3.183208
-10.594822
0.207557
-5.345297
6.435290
-9.715432
7.328999
5.740676
6.871893
11.249761
-0.886138
-0.118917
7.659828
11.293335
10.588371
-6.726630
-4.898498
0.651315
-2.044859
-8.722357
8.919155
-7.732236
-8.970267
-4.322628
-13.707912
10.806240
-3.030201
-4.205340
-10.441334
-18.913748
-11.945766
1.572396
-5.479670
-8.674944
-12.299181
3.407673
7.337832
-5.932882
-16.323220
-5.214387
18.878064
-9.953645
-4.882385
-0.360131
-7.148811
7.037430
0.226128
-11.943273
-4.013991
-3.236277
12.194421
14.836162
1.758142
7.988007
-3.600596
-0.609278
-1.659639
-4.769024
13.630108
-18.502625
-4.781217
5.347548
0.246602
11.976046
0.835338
-5.447320
5.274529
3.649886
1.694290
-7.145659
-2.589209
-8.405839
9.316640
8.493234
-4.072544
5.133413
-7.170662
8.028098
4.318983
-10.260392
-0.186469
9.905558
8.017677
-2.350073
2.754468
-4.814515
-2.817085
-1.513015
-12.073545
15.478788
9.446404
5.894246
-8.946090
-2.413307
-1.169950
3.495360
-2.690578
-12.902598
-4.679129
-17.799438
3.197992
-5.287186
-4.127308
-1.136452
16.430657
-10.165734
10.847193
-14.624042
-2.062907
-6.410296
11.705447
-11.118087
-17.551812
6.889835
9.238002
-12.627911
-2.358679
-0.974682
-8.357055
-2.396798
-0.573215
0.810529
-15.186496
1.754244
-1.818393
-11.235779
-2.072902
4.770002
-5.868871
-14.127211
-5.782898
11.290033
6.587644
11.344280
7.058578
-9.082354
-5.355436
9.747950
8.004062
8.139181
-15.001940
5.439395
5.449697
2.174119
-2.531123
-1.345879
1.614692
6.628101
1.238897
1.124005
0.165024
3.386596
-1.339305
3.351664
0.759450
-11.233399
-10.144240
3.229854
-11.235842
11.621415
0.221116
-18.434157
2.210073
-0.159463
-15.859505
0.621245
21.797666
-2.753420
-13.979508
5.566528
11.527031
7.829724
-3.782125
5.829214
-5.399765
3.390203
-2.594528
7.340165
0.382953
-1.303802
11.778430
9.211193
0.027161
1.179008
3.150117
12.839367
-9.319274
-0.472705
-14.592609
2.167550
-3.424068
3.073434
-10.417852
-0.813596
-6.836933
8.914697
0.194714
6.896559
-3.248509
-2.683900
-8.310727
11.625776
2.719577
-1.726317
7.948768
-4.565846
3.357404
-1.627938
-16.232406
3.926179
1.368512
-10.214657
-3.835995
-4.463197
-2.548138
-1.523762
-8.495801
-5.682483
1.834406
-13.481197
-13.527874
-4.481222
4.171507
-6.185767
5.102268
11.032753
-7.259671
-4.697754
-0.084108
-11.403935
0.783869
4.001497
-3.450574
0.572260
12.219253
0.731812
-3.993443
3.011673
-0.703457
-7.395262
-1.646190
-9.669129
-4.324210
-8.879228
2.642484
14.500443
10.646378
-4.454521
-15.794820
-1.621774
13.326237
-3.905579
-1.530751
3.235732
8.072890
-14.037967
-1.628967
4.482095
10.458169
-5.052592
17.328938
-7.878848
-3.167464
-18.922386
13.900917
-3.797850
0.807793
7.887986
-5.010659
11.089538
-4.578341
-8.890896
3.245419
4.025454
12.812989
-5.263503
1.017846
-3.639444
-4.403369
-4.633780
14.386257
13.616958
13.725777
-3.768906
9.766107
3.717180
10.110759
-3.367366
9.634399
4.372155
-1.574806
13.972344
-0.062737
-1.636981
-8.318436
-1.599297
10.739390
-2.220241
8.536450
-4.874709
-3.250556
4.291907
3.214020
-6.019232
-1.688359
1.637615
7.014163
-11.432571
-11.469731
7.238218
-0.967834
3.926868
6.743078
-5.134702
7.121192
2.317774
-9.531085
-8.324315
-2.688369
6.387832
-2.027125
-3.673569
12.705085
3.367938
14.505998
5.826252
-0.985088
-5.161672
9.327542
-12.870771
12.756741
-6.007609
4.647579
-7.341335
-5.604036
-0.946028
16.383508
-0.335572
9.967862
6.375403
17.900970
7.887238
11.639024
7.474960
-4.829326
15.204521
-3.759949
3.186988
10.246593
5.509885
8.081234
-2.767364
-4.226546
-5.960177
-7.219669
-12.072391
-5.374238
-1.963489
-0.842061
-8.585749
-9.681021
-6.718319
-1.141001
8.320299
8.273762
10.507964
4.892888
-6.753481
-14.428789
-1.027820
-15.731240
-1.411011
-5.505841
-5.443415
7.815553
0.340824
-13.296485
-8.566759
-4.012220
-4.858631
-11.700642
-3.444746
10.536095
-3.283290
-11.413571
-12.271224
-0.553300
-0.045318
0.425077
9.133056
4.033515
7.726645
-1.270644
3.424791
9.175164
-13.428743
16.689912
10.517209
-2.721893
-6.647099
13.982205
8.325251
7.778625
0.668095
6.871448
-5.171237
0.843881
-12.848416
-17.797280
8.904640
-3.266939
-2.855747
7.977621
10.897823
3.948463
-6.333064
-8.837398
-5.196563
-3.033760
-6.526542
-1.064949
-3.118486
7.041965
-13.338226
-4.221238
-9.347526
-9.464097
5.978378
-0.767641
19.329034
-5.590209
-1.571991
-4.604837
7.742115
5.573284
4.675755
-7.496158
-4.077839
0.628232
-2.275923
4.433205
-2.136057
-0.529882
1.831945
6.469314
7.216330
4.670050
7.814309
-2.313936
-5.104772
1.093394
7.089673
-0.963206
-3.054473
-5.410979
-1.485030
-7.144919
7.766941
-6.209807
0.917089
0.949013
-13.129535
0.129008
2.376463
-6.023662
-10.612029
15.523685
17.193554
-30.599081
0.859930
1.910390
17.536619
-8.157803
0.965415
13.919672
6.240586
-4.683082
-3.540208
-5.675036
14.503699
-10.222916
1.554150
7.151819
1.420757
7.326960
-11.496670
13.255327
-0.646692
1.288467
9.371495
6.631626
-8.488764
15.819911
-6.597514
-2.215144
12.034028
11.064035
-16.613382
11.369945
4.833894
6.049250
-15.769895
8.394811
10.669051
-3.416731
-0.216767
7.170690
-2.869608
-9.629708
2.255246
-4.716560
-4.401353
-5.122627
-0.441774
6.165736
-2.110559
-1.412151
-14.686789
-4.781152
3.486851
-11.421269
2.281308
-6.578564
0.955347
5.330270
-3.210889
2.416363
19.557176
12.202063
3.694263
0.408363
-17.497879
-7.929669
-8.002880
2.335743
8.841118
16.882608
-8.732429
-5.412999
-3.770766
21.602464
-14.427156
2.098451
11.282671
-6.661993
-12.527098
-1.944890
-0.279599
15.018010
-15.079533
2.008974
-18.440525
-11.271477
-1.865832
1.246590
-0.056099
2.555774
-3.407725
18.452300
6.363179
13.475564
-0.193520
-0.571389
-1.802337
-3.406572
2.918136
7.651042
6.190023
-8.160729
3.087142
2.556262
-2.668527
10.120251
-4.710158
16.077721
5.546436
3.621803
-1.216771
-1.702393
-5.383541
-27.079744
-9.056245
3.241360
7.263574
-2.762300
-5.249225
0.443759
-5.061858
-3.400350
7.434218
12.184705
4.755170
-13.028744
-2.506475
-2.793523
-10.538120
1.884820
-6.866563
-1.766856
12.762928
-1.668559
-9.064984
-6.926254
-7.731049
18.045047
12.303444
-10.296597
10.097931
-4.760872
1.227912
2.710519
5.654402
-1.936981
-8.912716
3.475519
-3.932691
-1.681324
-10.192572
6.534712
5.975192
-7.367143
8.343224
10.019008
-6.682940
10.612476
0.586936
9.557969
-4.547474
-0.050877
1.336628
9.084090
6.892176
4.233533
1.739756
-9.632269
7.792387
6.590859
3.141218
-2.732922
9.288505
8.143309
1.981999
-0.127844
-4.665333
2.701782
11.063996
-13.511185
4.785217
27.766374
-6.150914
3.771262
1.601686
-10.938144
-12.331811
13.877811
-7.109910
5.477210
-2.150716
5.217702
13.533167
5.665675
-16.915496
2.412463
11.946438
2.785135
-4.660419
-2.517658
-18.095134
-12.350602
-16.428384
-2.594321
0.518305
-10.319550
-1.729534
-9.905211
4.427439
18.046242
-5.154128
-12.377753
-3.550775
-10.493876
9.458879
-6.084275
4.283478
-13.867026
-12.392835
4.181758
-7.077871
-9.349968
24.013056
-0.353481
-9.382245
0.657005
5.334915
-5.366056
9.331017
5.884017
-1.834784
-22.560850
8.272671
2.116519
-1.189389
11.276886
6.851707
-7.647232
-6.519885
0.207086
14.291565
23.952827
2.138013
6.626419
7.155753
0.041132
2.327015
7.054772
4.582126
-11.351237
-13.354766
-8.075418
2.102882
-6.164992
6.431333
8.663497
-1.890622
4.954427
13.132551
-20.291107
-7.833942
2.531240
0.005722
6.392149
-4.163313
0.079309
2.393797
-6.584709
11.315796
-1.071351
7.654297
10.612993
-12.312140
-17.539625
3.240728
-0.250499
-0.506238
-0.498377
-13.419600
-5.375681
-14.421782
-15.772565
-9.456970
-7.264331
9.840483
-3.353111
-0.677137
15.678915
18.791444
-3.182712
-3.982868
-16.243349
15.533031
-6.211528
4.821561
-0.924952
2.893517
3.722132
-8.126206
5.733023
-0.465296
-5.119752
-8.203525
-4.722951
4.977941
1.970170
3.248091
2.760005
-3.803859
-8.574021
12.890554
3.172734
4.471821
10.418312
2.902066
-1.770172
11.643377
2.813493
-3.342077
9.330425
2.711077
5.358850
-6.372722
6.876244
5.329600
0.361150
5.775173
-0.276506
-4.357616
-9.500989
-5.202154
16.536227
27.161709
-5.717343
10.632355
-12.282449
2.119890
2.224677
-2.815157
6.166498
-3.109848
-0.914364
-0.000054
7.782588
-2.161130
4.955011
7.474647
8.753574
-8.014556
4.898409
7.261537
-11.684286
-8.484781
2.317879
-6.604682
3.578911
-10.091316
-1.759899
-5.504550
-5.676744
-0.102157
-12.953961
0.437928
3.235031
-5.745373
-8.772677
19.531539
7.649780
-6.886707
-1.663550
7.718741
-10.648085
19.080271
-11.879761
-2.591273
-2.826804
-2.647598
-0.731197
-7.114829
-12.116086
6.542764
-0.479460
-1.075943
-1.305667
-5.265613
4.506947
5.179913
10.020690
2.282524
0.000689
-8.697696
-2.410213
-10.781302
-9.717903
-4.764673
-6.249488
-14.313329
-0.614106
9.375377
-18.404515
-6.059294
-7.664997
12.297850
-0.239014
-11.895593
-12.541034
-7.519132
12.548847
-5.148015
-25.550781
19.397128
-14.254323
8.023456
3.430689
-14.468372
-6.357104
-3.183002
6.834073
-12.894098
-5.674690
4.714413
-1.616003
-7.055469
5.715643
-2.312164
-3.543722
0.620401
6.145580
-9.655074
-4.571069
29.277576
-0.181064
-10.013706
-12.515761
-0.794337
12.711216
-20.905497
9.987876
10.173908
-14.454198
7.141810
19.153942
5.386583
2.437863
-1.645232
6.572554
5.194916
-6.404392
6.059442
11.886215
-12.044122
-11.121450
-0.991038
-6.350354
-2.291553
5.107677
6.524565
0.044225
-2.008320
4.799125
-12.597860
-1.405436
1.726906
3.669828
-5.282129
1.467940
-2.505063
-0.195393
8.265761
-2.620305
-6.405962
1.725445
-0.965964
-13.980289
0.481594
-7.294051
8.709700
-6.947136
0.250984
15.934209
-2.069094
-0.630328
-0.415991
10.722998
-16.941975
-13.492678
2.701480
1.522182
11.178343
1.425284
12.197441
-5.205321
3.798978
6.523668
3.622288
11.991742
0.312085
7.226563
7.873830
-1.589398
-1.704205
-13.073780
9.366779
-8.230375
-13.021499
-5.942019
6.660331
-6.652306
-2.171278
9.568706
-16.126506
-5.986988
-14.498117
1.990746
5.492967
-3.814646
1.234554
2.276028
0.240304
3.165167
-0.992545
8.306050
-8.880948
7.702883
-1.629676
16.786841
1.279506
2.444401
-0.984007
12.247751
12.441100
11.857863
-5.119571
-10.985571
-8.673093
1.768857
4.456826
5.974628
-8.543908
-5.339660
2.505924
3.200873
0.562611
8.402203
8.781019
6.988038
11.311549
-17.503271
-0.284565
0.815172
0.204486
-4.037360
0.241954
-10.664325
2.899649
-12.210210
-2.318449
6.649504
1.548689
6.435095
4.497479
13.512538
-0.028611
0.821401
-1.279035
-5.835390
-5.079825
14.905158
1.289481
-3.679767
-8.119756
8.661754
1.968081
-1.381011
-5.197819
0.067896
5.939280
-4.467047
-13.133590
4.645410
-3.903529
11.641171
-3.312424
-6.223669
20.406996
8.934057
-9.664481
-1.851253
0.354360
-7.726942
0.796880
-6.335395
2.725465
0.607260
1.102301
-0.760343
9.386351
-5.353729
-2.892381
-5.980949
-13.501590
-4.712315
11.060825
-3.669144
3.399646
-7.155911
-8.169849
-8.546469
-4.730809
-3.682177
9.847639
-5.980122
-2.376325
1.836168
-10.739071
3.221589
-2.278413
-8.390774
-15.429549
6.793566
-1.818211
-3.103532
-15.102108
-4.294471
-9.393222
20.900430
11.750783
12.548604
2.796382
-1.451207
-4.343864
10.500510
-15.895888
8.559413
2.509276
-9.492830
-10.566548
-4.682993
-10.402884
9.477194
2.077142
-0.756893
-2.903246
-1.716412
-5.752310
18.115463
-12.293083
-21.484814
-13.878586
9.213744
-3.053397
0.000498
-7.690909
13.421308
8.424147
-2.220785
7.723103
-4.988858
-7.631988
-2.370877
-12.558649
0.498143
10.899721
1.552857
3.952036
2.043329
-1.141637
-7.390186
-0.417466
-9.848267
4.838520
2.431446
8.306406
7.917764
15.944681
-0.939080
2.016120
-2.291155
-5.447329
2.330496
-6.136214
5.127579
6.642354
-10.785306
-10.894743
5.190094
-4.348376
-4.347430
4.124478
-12.796556
3.730514
-2.663241
-2.948704
-2.625900
2.815363
-3.981449
13.389678
21.118460
-14.520651
14.204196
9.020439
-0.993456
-1.675269
-10.394214
10.216841
-5.162872
-5.610696
5.775403
20.224561
-2.216122
-6.702143
8.025179
2.374701
1.325649
0.739133
-12.283050
4.566370
-0.436436
11.951588
4.809920
-3.480968
4.703476
9.221678
-9.706342
7.287924
-3.051590
7.240171
6.588868
0.055968
1.284934
-0.161197
-1.716368
-14.853791
7.464652
-3.579287
-1.853915
-2.986432
6.950185
11.438118
6.287731
3.322444
3.118303
2.660525
13.658860
-1.731508
-11.532902
20.954554
-1.810511
-9.196350
-3.825283
-5.111582
3.136952
0.594743
-4.985799
8.799735
-10.542916
-8.995745
-6.485737
0.886887
-3.138893
6.966064
8.085222
-5.436048
5.336912
0.572820
15.515584
1.956442
3.069862
2.156429
-2.156314
-2.531080
5.655887
-13.888569
-1.650475
4.642552
-13.841675
-2.738266
5.556315
-8.455201
-3.172294
12.308658
5.336525
-1.199492
-9.280492
7.783950
-1.897804
8.472250
2.070248
-0.168550
-3.393499
-6.135047
11.058912
-0.481113
-1.709964
-13.451031
15.126406
-13.618272
17.181676
-5.885148
-2.846803
3.277170
-14.222622
15.813575
-12.919898
3.290754
-6.337737
-2.889714
0.459173
-0.630263
7.976273
15.565178
3.776344
-0.774541
9.535094
0.330733
-6.916060
-10.283123
13.044156
-7.105291
-15.620562
4.142923
-10.847674
-1.171960
6.002663
-6.203146
-18.940480
1.730847
-6.112364
11.392590
-15.430453
3.869921
2.392323
10.121462
6.555217
-1.728752
-1.943090
-2.360044
2.297005
-1.681103
4.854378
-5.121268
0.232922
9.218577
-4.356936
0.175986
-5.285152
-4.564121
0.528659
12.977189
0.456067
7.831953
5.560747
-5.421143
0.443651
6.490400
-1.772665
5.495118
-8.404901
11.338344
3.150831
-5.919344
-2.670070
-8.723128
8.145441
0.779607
0.328974
4.705517
12.822522
-9.278934
5.559902
-1.696228
0.191213
9.909986
-5.316521
2.635829
3.911959
-1.187673
0.484755
-2.994626
-10.076572
5.444364
-0.981589
-0.989485
15.754979
-6.023052
13.549963
-2.644114
-9.672707
1.686985
10.333011
-0.437346
-5.959343
3.382214
-8.028658
8.777480
-8.539768
3.968770
6.750103
-5.296075
-6.073513
10.312671
-7.165500
-10.359316
10.491106
5.765913
4.689836
-4.997032
-0.011546
4.800531
5.374256
-0.340115
0.815938
-12.891226
4.023427
-1.829670
10.509199
-14.108776
-4.052714
-0.615089
10.593379
2.007294
-8.572976
-6.858685
-2.146430
1.758619
17.750600
2.227426
10.909959
-2.691554
10.058505
-11.569283
-8.506303
9.932783
1.667292
-11.673422
6.245101
-9.977648
2.443473
-3.451615
4.579307
-10.493638
6.917036
7.297678
3.404218
-8.978590
4.436454
1.503411
-7.313744
-14.693602
-20.630138
-14.342672
9.510090
-5.667433
4.073662
-0.978004
-8.842053
12.607151
-1.391279
6.391138
-0.137823
13.929512
13.956270
1.202028
-6.573787
-5.328698
-12.375729
14.892926
6.973289
-5.526036
-2.059631
-2.445464
-1.158847
13.124156
-6.936381
-10.747782
-5.721259
10.609189
9.750570
2.381605
-8.646840
-22.346781
-5.001605
8.040686
-12.947774
-5.221865
21.476774
-6.312587
-1.183736
-3.599438
-4.977027
-3.836605
-7.780365
3.729440
6.378888
-2.596063
-1.030960
-7.678408
-6.203462
10.538621
-2.323742
-10.827700
10.171724
-8.415497
-1.854854
-1.299465
3.207925
-1.568332
-11.565785
1.974161
-6.298768
-7.090970
-4.834180
-17.238384
1.999055
8.635405
-6.475838
1.588760
6.599954
-5.682882
7.395108
4.664999
-2.521516
1.638727
-12.756960
8.085193
-0.044790
-4.767975
9.872485
-6.281454
9.120318
-0.236787
-4.293372
-23.340511
7.300134
2.782966
-2.704614
-2.411300
-0.287437
10.074870
-4.261563
-14.396533
-11.679357
-4.143440
-14.572357
-4.459212
4.926240
-11.952542
4.075691
-1.444182
-0.951279
-0.639180
-0.238423
-0.880402
-8.323849
10.697470
-2.648566
-16.134305
-3.755242
-4.036381
-5.593625
3.896799
11.181158
7.304036
-11.048203
2.675202
-13.735410
9.792527
1.071399
-15.357072
3.184835
-11.523629
10.450915
-6.592826
11.780932
-10.868298
-5.860376
3.938126
-13.321993
9.858269
-5.300854
4.355208
-5.489081
10.456353
-0.004967
-11.741140
-0.069170
-4.425228
-2.929945
-0.084954
2.578782
6.634521
6.017402
2.450995
4.281154
1.496978
-2.900853
-3.290547
16.750634
4.388176
-10.579003
-3.912582
-1.662943
-3.693447
-12.847916
-6.204879
-6.214425
9.918960
18.230792
-8.163677
-4.636909
-3.240649
8.181433
-1.129503
5.379507
-4.222431
14.665917
-3.280162
-9.240350
-11.048519
-1.424057
-4.471688
-9.646407
-13.319675
4.845569
7.749380
-15.375347
1.722759
9.315848
-6.327673
-8.532031
-0.458339
1.810382
-2.743029
6.889497
3.967935
6.955536
4.205133
4.205660
-6.864008
-1.249612
14.256449
-11.936624
11.146180
-0.420764
-3.098125
-1.480781
6.669474
-4.274928
-9.172031
6.704373
10.082788
8.710090
-8.178529
1.369915
-18.492598
4.632537
7.265457
-3.254025
-8.560105
-7.257916
-3.567202
1.716393
11.576864
12.505626
-0.219196
3.691563
9.957535
-4.803804
2.265151
3.352548
3.915673
5.352175
-0.275809
-0.314967
0.071250
8.635429
-7.224514
-9.422986
12.636212
-3.872434
-1.860993
6.165951
-1.628976
9.454339
4.888590
3.061102
13.197439
2.574973
5.354864
-5.538304
-0.755981
3.823144
10.092394
-4.682766
17.550143
-13.291746
11.230211
-1.869465
-3.198723
3.641030
3.793027
-0.905667
-2.549391
2.949607
5.054276
7.162416
-2.913542
2.813771
2.586506
3.277650
7.186157
-2.975203
-2.170996
16.257533
-12.550240
8.691407
-8.280730
15.209686
8.857944
-5.516407
-12.098464
18.503169
-12.424057
-16.695544
9.085808
1.679967
-4.238419
3.020229
3.706724
-0.437782
-2.575732
-3.015522
-17.751388
-0.070969
3.618187
2.765049
-0.859053
-10.876663
5.863808
-9.082828
2.010810
-21.788293
-8.008843
0.469951
-8.852163
-23.583098
5.928686
0.360990
4.518432
4.546868
-3.253778
6.905441
-0.784149
7.356536
-5.213335
2.749766
8.781866
-1.770594
3.032706
9.233379
-0.042357
-3.373472
-3.233183
1.339843
3.909835
-1.931409
1.001619
-4.517977
9.999180
-4.110121
-1.128123
0.277043
10.830246
-8.975620
-4.397890
-2.546971
-2.428135
0.760379
1.116669
-12.615584
16.349182
-7.740851
-0.177893
-12.576904
-18.286396
2.654349
4.414604
5.802423
-14.162655
-0.056826
-2.287138
-7.537935
-2.490731
0.705098
4.052484
0.468989
-14.469371
-8.856897
3.640133
4.030895
7.331129
4.064747
-8.158660
-8.510624
-14.147953
-8.417539
-0.508912
1.686993
5.973205
1.345984
2.847186
-7.190930
-8.186084
7.335610
-12.550449
-13.152485
12.791633
1.594936
-1.009375
-0.955353
-4.110513
13.130385
3.084344
-6.696552
3.384417
9.629261
-0.605397
7.524680
9.083731
0.730555
10.181418
5.207035
-3.979550
-7.925683
-2.192144
-6.484322
-1.199801
-1.199526
-0.159033
8.497228
3.135331
-1.606284
-11.958705
7.228521
13.305033
0.185245
-6.780115
7.612541
-17.038577
19.141708
-7.254949
-19.413715
-6.389925
-8.107532
-3.640431
9.736257
4.755126
2.212744
-4.485018
7.152538
3.413414
-9.322166
-4.715368
-8.451389
1.587930
-3.484552
-0.834649
-5.741346
10.866683
-1.102259
2.312470
-8.635220
-3.620780
2.514390
11.602138
-5.831368
-10.076241
3.601506
-0.961743
6.596226
5.477799
9.063558
-2.415968
-5.204830
6.413532
6.679666
3.346632
5.844761
2.417175
21.749701
0.494888
-0.301591
11.838038
1.389099
1.054112
-7.726726
3.117056
1.931550
2.469750
-7.770881
3.844642
4.544370
-2.578772
13.497326
-13.986905
2.403451
1.256797
6.709461
6.909118
11.277976
-4.433039
3.218969
5.252969
-10.112177
-14.334215
-0.292905
16.206843
-3.148647
12.748142
0.847826
-1.329786
0.946438
6.779815
-14.473386
-1.051923
-4.211762
-4.954249
-10.976690
-3.752752
-8.911801
8.217914
0.277097
-5.478785
-5.764370
3.758845
-6.106902
-13.727126
3.773351
7.077424
-6.925375
-0.553400
-12.662771
4.701243
9.107982
-15.167386
-0.642051
-5.750059
3.967268
-12.470223
7.749416
8.805125
-4.018984
5.120281
9.468628
0.624599
3.920561
14.584795
0.153469
-8.751468
-6.247662
-0.183449
10.230924
-3.756523
12.683444
3.301852
-5.638526
1.914440
0.079547
-2.968750
-10.586483
-0.471339
3.968211
-3.129554
-6.802771
-15.274378
5.314083
-3.211573
-3.379724
9.510445
4.977948
3.147017
-1.596747
-2.932106
-7.506670
11.964317
-4.543952
-4.584708
-6.127654
-0.133924
1.235687
6.985264
-5.139112
9.167152
8.295432
-13.601657
10.712981
-0.471211
-12.106178
17.992365
6.641798
-8.139946
-9.034313
7.648467
11.176887
-7.302137
-1.612312
-9.724907
6.178046
-10.777247
29.083178
-8.528261
12.406045
2.947822
31.161996
-16.727140
-4.211764
0.729424
5.589343
17.418911
-9.890006
-5.557404
-6.744371
1.623911
-1.193083
2.832076
1.709416
1.226876
8.059322
2.646273
18.274058
11.940021
-1.048861
-2.277588
-17.881210
6.870209
-6.108981
13.676022
7.331440
13.621589
1.802911
-18.150673
-4.184115
8.299495
4.867091
3.012449
-2.846553
0.444980
-12.811414
-10.627206
9.926891
-10.379012
-4.268335
5.209847
0.126288
-5.145796
0.993529
0.920514
4.358722
1.652657
-6.298993
0.268854
-12.999932
10.444366
-11.161908
-3.927428
4.239013
-4.002398
5.647335
3.542048
9.229340
13.933359
0.895761
7.909103
2.508810
10.495285
-12.259840
16.728856
3.485881
0.610493
6.123791
-10.794268
-7.315870
-7.923652
3.958406
9.377065
-9.206093
-16.314760
1.587497
-18.815014
-6.268573
-2.778443
0.954026
9.856666
3.564653
-1.868613
3.230424
12.337048
-0.714979
-4.843539
-9.251481
7.944700
-0.605465
18.003693
4.960114
10.842791
-3.143510
18.336021
-1.831480
5.785086
1.838717
2.031766
1.899174
7.839605
8.498084
9.445721
1.803904
-2.656702
11.578518
18.041776
-0.857858
0.216603
-6.115470
-6.455642
12.163905
3.130373
13.248726
-9.938090
2.745676
2.665206
6.740214
1.254976
-21.350423
1.030015
-11.150455
5.452608
7.032444
3.951761
4.444400
-5.536504
-3.738432
7.804057
6.848233
-7.933398
-7.504154
1.996362
0.997650
3.787795
14.573445
-3.213444
1.236594
-4.088951
-19.976331
-4.431732
-1.334478
-10.722375
22.834744
5.378449
-5.157569
9.555953
0.870820
8.086420
-0.127086
-16.585128
9.826680
-1.412501
-3.122453
5.091018
-12.305564
-5.873533
-5.937477
13.104896
4.736339
5.397655
11.503400
-4.294407
11.103913
-6.533530
-6.449770
9.932359
-14.913487
-11.715432
0.306875
6.381506
-9.941745
4.808112
4.634431
-11.989796
7.970880
-8.423377
0.411234
-1.749509
-2.722331
-11.902469
-10.065580
3.441813
-9.475500
9.824631
-1.344851
9.096283
16.138002
11.560238
-7.483536
2.054706
-1.823166
-11.073100
-4.715092
-5.219577
12.900531
6.393284
2.294738
-2.256451
-8.745378
-2.696760
-14.470083
5.265597
4.231877
-3.901268
-2.286831
1.083100
15.143038
-0.155025
5.701831
-0.975940
3.593847
-9.348915
7.454754
-11.888787
3.121243
6.621900
-6.460921
-5.785199
4.190937
4.399560
0.775860
-2.342614
3.833367
-8.121960
4.657114
-9.879530
-16.228802
0.104940
7.170485
-1.186605
0.002157
-2.804863
-2.227103
-7.784117
-10.037843
4.784517
10.501345
-2.227783
-6.447071
-3.215599
9.459311
3.564685
-3.567117
-9.775751
-9.444727
4.584475
-1.354538
3.218834
-8.303863
-3.270625
2.723828
9.992364
4.157328
-5.713239
1.576874
1.006334
13.341192
8.302820
-0.380019
1.461466
12.075944
-2.517980
7.101865
-3.241811
8.788504
0.982096
-24.703723
-2.981968
0.378153
-7.477387
-3.026650
3.247680
7.543891
-11.016877
-12.310249
-11.018181
-4.352361
8.961871
13.006430
-15.083545
20.303575
5.220307
-2.823738
2.022034
-1.742225
-7.901460
6.945909
-4.611155
-14.232998
-0.921622
-0.646184
7.005226
-0.412741
-5.491130
-1.077778
6.470052
-15.932711
-4.365143
0.970861
1.743040
0.651995
8.317189
2.577158
-5.327158
-2.336092
3.707035
3.768354
1.628771
-19.013475
5.150700
-14.110692
-6.158966
-6.955559
4.027983
13.843679
-0.336540
5.950034
2.223591
-3.093826
6.062045
1.198484
-5.448557
-13.508803
2.417928
-3.417691
2.555379
1.262776
-15.084831
-8.701673
-0.414382
11.585400
-9.438729
-15.311679
-3.255413
-1.344730
3.456951
-4.456119
12.779087
-2.906423
-13.413054
7.993815
2.061775
6.038074
-2.236699
16.464756
15.975888
6.672868
6.617996
-4.790192
1.867815
4.023724
-7.608405
10.413117
-8.360208
-5.348190
-5.832938
11.061045
9.812357
-9.479259
-0.319694
-9.482846
-5.147479
-5.306451
10.289791
6.748251
-10.223805
1.642313
4.574707
6.256399
-2.385810
2.095102
0.967223
10.576458
-8.672350
-2.868410
-16.665611
-6.823605
-6.104251
-5.325751
-10.462298
-12.033708
7.575757
6.283336
-16.403961
12.563519
6.346819
-6.745391
4.901708
-1.304131
-9.028405
-9.405900
-9.123829
20.454842
-5.636815
-20.162364
-1.722872
-2.870819
-3.623484
0.439606
8.404302
0.745687
-2.536679
-22.441847
7.117365
-1.106735
2.837536
-12.222885
2.250767
1.370441
11.020959
2.573775
-12.360031
-7.828607
1.821540
6.057713
9.859640
6.306543
2.065152
2.425688
-11.561506
-3.622976
3.060410
7.167059
-1.880440
1.623748
-2.323993
2.584873
-2.233102
0.780748
-3.433837
-12.977851
5.931744
-6.230236
6.957694
7.771090
8.907498
3.180698
-7.504415
-2.629591
-7.586522
5.864147
3.573958
-5.612375
-7.701396
-8.843731
-0.909317
4.942915
5.533427
-2.234073
-0.000040
0.079784
-8.911239
-0.001094
5.989202
17.401494
-9.858662
6.817650
-9.138752
4.142065
-0.400623
7.126062
2.529102
0.749420
-19.277428
-9.710429
-7.161290
-12.668617
17.248826
2.704702
-8.776417
8.704166
-5.313159
-10.064984
-9.038743
-1.532557
3.774832
5.642288
-7.484388
-14.338477
-5.489051
5.700577
-1.934677
-15.409548
-0.800362
2.447242
-11.310935
-10.983261
8.475983
0.045753
-2.634578
-7.050740
0.960722
2.620420
17.047938
6.979663
-6.314092
-10.942591
-15.637405
4.161846
-2.741092
-2.690940
14.361874
-5.124395
-0.260626
2.999750
-7.575928
3.126139
1.194641
11.187406
-7.357341
8.449086
7.116386
-5.751103
-4.642398
-15.424506
1.192740
1.067255
5.957309
18.084787
11.503602
-5.299687
-3.808908
-5.312718
4.003831
-3.852398
-3.111094
-4.030988
-3.168513
5.923105
1.710554
18.171214
11.083425
1.780582
-8.825721
-8.585927
4.500009
2.422077
3.085873
-4.449804
-0.193618
-10.824834
2.128019
15.405986
-6.659440
-1.435775
13.328520
1.418796
-11.869163
8.790130
-4.550837
3.476671
6.625514
0.537695
6.804062
7.916744
7.412286
-7.164769
-10.271790
-7.597893
6.295362
-12.273061
6.872622
2.411684
-6.321346
-4.861267
-13.794238
-5.978928
16.650613
1.814010
5.461346
-3.988898
-9.451872
1.259766
-5.002077
-3.185895
2.966690
9.543880
-3.598805
9.821663
-3.927443
1.962993
-12.392230
0.221493
10.387425
2.000470
-4.445763
-11.218413
-5.878242
-1.712679
-4.363065
-0.626101
-2.204048
14.701924
12.479248
-1.276648
-3.164041
6.521732
-2.557553
2.097153
6.935068
-7.887957
9.024308
-2.122178
5.959423
9.346532
-3.936771
-2.694349
-7.907872
1.762907
-12.341694
1.802355
2.172212
7.459702
10.122349
6.982599
-0.914750
12.333053
6.580197
-6.302502
0.653031
0.501169
-1.335279
-1.156862
7.559209
-2.086377
9.889901
1.503180
0.392142
10.266687
-10.256313
-1.307716
3.150340
7.522801
2.692597
1.098391
2.328829
-2.026497
3.904170
-4.159727
-15.133465
-0.554781
14.826054
-4.950250
-0.206860
10.616083
-0.599605
-5.249939
-10.650419
1.645984
7.547106
-2.093016
-11.293945
3.629611
13.710056
5.097015
4.295455
12.348268
0.370667
-3.649816
9.141555
-1.734197
0.876135
9.606229
-9.654795
-7.216112
0.239802
-7.447877
-2.787433
-3.696285
0.149719
-7.825879
4.768358
2.814503
17.785462
0.227854
-8.138073
-12.849470
-7.643920
-4.408723
11.445114
2.306605
-8.880861
-15.729456
-2.225955
-3.383542
9.839686
-4.521176
-0.437648
-2.166792
15.124124
-4.096772
4.038662
3.988114
-11.246669
-9.734858
-7.088987
-3.334147
-0.363282
-8.164924
-1.895717
12.348059
4.175168
5.517747
-6.022989
-9.061796
5.194688
7.521944
5.179225
6.872711
2.702809
5.926028
5.949926
15.846702
6.947531
1.066880
-1.949929
-6.584536
7.975026
16.134918
13.371113
-2.889183
5.196750
-2.174871
3.627153
4.342286
-4.558499
-10.164300
-0.206195
11.753417
-9.927047
1.386494
1.771430
-3.234879
3.005569
-3.452744
0.465018
-8.087425
-2.666768
-2.835624
14.914447
1.510265
5.331660
-10.338971
-5.749884
-5.445440
21.176728
-0.997763
7.489856
-9.541095
4.005158
-0.368445
5.669055
8.535683
-2.635743
-8.324561
8.178634
-6.211839
-11.990508
-5.507965
-2.880587
-6.412567
0.294377
6.406353
4.343619
4.913836
-2.174981
5.536073
-3.380755
2.075249
6.125051
-8.096834
5.826540
-3.396462
-16.671845
-7.792768
5.456593
4.909461
-18.761390
-13.864708
6.001803
-0.148951
1.279688
21.440394
2.973563
-7.871211
3.421004
-2.447156
-10.426557
4.384227
4.461723
-2.028607
8.212471
-9.502750
14.045713
-2.222527
4.024785
4.072599
5.165056
4.743846
-5.058557
22.460878
5.835252
2.577084
4.498374
5.656397
-22.129661
-9.437176
3.164806
-2.360278
-3.644698
-8.782541
-0.219292
8.245201
9.350787
-6.434954
14.196214
-17.335515
-6.114633
-1.895646
-1.238871
-4.123373
-4.452167
3.554610
-1.795009
7.990562
-7.183307
8.553104
0.652860
12.251174
-6.141545
-9.347746
-11.915301
1.677063
11.879199
7.871085
6.076408
-11.108275
1.574724
8.022959
-2.888181
-2.366971
9.104320
4.613291
12.698436
5.134848
-2.798892
13.022942
-1.319712
5.342271
5.069459
3.930375
-7.038500
3.678570
-3.559407
-9.291870
3.488144
8.997605
1.371139
5.224558
-0.935368
-0.548890
3.225496
-9.538896
3.797512
-2.155782
8.892004
-7.227003
7.373226
-7.038039
7.428041
-8.994521
-1.746757
-20.510487
-5.587938
8.938533
-7.164931
-2.372446
-9.274562
-3.946368
9.983821
4.870298
-9.208970
-12.132545
-18.616111
16.179597
1.208581
-4.744413
-2.456371
16.784649
2.746182
-4.395340
-3.153207
-4.896996
-19.053904
-4.370139
16.898003
10.796705
7.981660
1.902353
-7.086299
6.958846
1.524408
1.473423
-3.491731
0.270919
11.760858
-1.971423
-12.598919
-7.984308
-2.994456
-3.432237
0.799836
-1.213599
7.586121
3.221458
-3.472929
3.858236
-25.627327
-5.440344
4.213849
-5.256217
-11.384706
0.210963
-2.286701
-7.840723
-8.267618
-9.597807
0.401398
-8.342190
-6.037361
-4.856429
-8.509935
-11.084534
-7.482246
5.927448
2.052434
3.639647
0.372371
-8.933750
12.509242
-1.373376
1.249267
-14.876345
2.803507
5.628945
-0.602304
7.024010
-1.558846
-4.308746
-9.362377
8.077093
21.120441
3.803578
3.128208
-2.333685
7.290886
6.762633
-2.651921
-4.579746
11.895109
-16.465703
-2.299452
4.526942
-4.574975
11.916734
-6.391186
-12.593835
-9.116367
2.953747
15.619786
8.899776
8.738597
-7.265384
-5.106443
-16.579578
1.776824
9.606881
5.184468
-9.327690
-0.969532
-5.481288
4.712292
2.094983
-8.367265
-8.985823
0.008021
-19.920615
16.195036
-7.651731
-8.742732
15.428082
1.970598
4.746086
7.216521
-15.421456
9.181428
-4.543449
11.370877
5.377725
-2.610006
-13.179353
-0.864742
-1.390000
-3.291123
0.863356
-3.323795
9.089743
-1.760824
10.195276
-4.433839
-2.855449
-3.766287
7.624390
6.591798
-8.747605
-3.205237
7.551645
9.817589
-10.150688
5.404251
-6.909091
7.484272
-2.995239
-13.448913
-5.270545
11.565383
1.307240
15.809739
-16.145246
1.707753
-4.557493
7.499436
-7.638936
6.173269
-5.316944
-4.809061
-8.167081
-11.361013
-2.725551
-4.957745
-1.139693
2.114996
2.369516
4.193840
7.510053
3.458906
1.136886
-0.043329
6.587372
0.457696
-2.050588
-7.193881
2.778158
2.057169
-9.875065
-0.683998
-2.531795
1.843292
4.866884
-3.794982
14.424935
0.588476
-3.239412
5.704250
-7.231350
-18.270570
-7.755313
-5.179899
4.500492
5.946222
8.890913
0.049052
10.926516
-13.518436
-15.239496
-4.602904
-9.857135
-0.975854
1.531697
-8.300749
4.163552
4.610786
-16.380515
5.360723
-4.270217
4.071436
2.617807
-14.816042
-2.784434
-8.621572
7.924592
-4.781162
-15.719160
-6.175494
5.490094
10.158774
0.089945
0.434623
6.182811
4.043669
-10.988384
21.338909
2.898041
-5.620020
-0.730538
-1.751201
-2.465550
10.985715
2.582625
-22.759738
-7.832071
0.473626
13.478388
3.808233
20.782260
6.328217
4.823455
8.401885
3.701226
22.180388
1.406741
-0.966567
0.912611
4.988525
-2.317761
10.488652
2.632436
-10.031768
-3.876464
-6.850240
6.770681
4.843374
3.728462
-17.550839
7.431451
0.449465
-6.705728
8.540771
0.769553
5.247985
-5.003559
10.956719
2.609502
3.882301
-6.986826
14.313120
4.116172
-1.886294
6.333421
11.985918
-1.873663
4.667413
18.176069
-1.901982
0.511925
-5.118627
10.267758
-8.367125
2.403918
-4.994645
8.506771
16.645176
-1.066239
5.097404
9.780783
-12.713297
-3.066140
-1.231499
-15.021214
0.397354
5.587565
-10.409881
6.859646
-9.343866
6.967188
-0.562396
-27.505994
0.792769
6.102482
4.977562
1.484037
-10.275605
7.689970
5.461763
1.369383
5.349484
-1.633015
2.854493
-4.450878
-3.352628
0.225271
20.884121
-7.063882
-3.399261
-10.487406
1.032990
0.804108
-14.099557
1.653827
5.562462
13.235111
0.265211
-6.947854
7.505363
11.459417
16.361306
-18.279467
9.491860
5.991472
7.339500
0.526873
16.772514
13.606096
5.687219
-8.627927
-14.190354
6.857995
-7.935092
1.278661
-0.038017
1.206015
3.135401
9.429800
-0.294964
-4.742755
-10.941458
4.325927
-2.299204
2.059852
-2.024273
9.295523
-26.794298
-5.750178
2.314423
7.997259
-9.119283
6.508925
-12.577751
0.231461
-15.644865
2.201605
4.606913
13.603123
0.511221
22.504731
-13.449296
-7.368212
-7.582985
4.128812
-0.970403
3.268739
-7.086209
-8.427653
5.822223
8.386173
2.421199
-5.361513
-6.771802
3.996244
-7.198744
-15.801249
9.355889
4.709209
-1.217324
-25.333621
6.414994
-5.670589
-4.369310
5.205044
-7.381275
7.053738
-8.981899
-3.475758
-2.923902
-0.931392
-0.918799
-0.131176
-4.353296
2.897646
-2.685482
-0.254991
-14.073260
5.982587
-13.159395
10.428060
2.679414
13.025647
3.611230
5.302451
-0.841473
-13.386613
-8.607039
5.900565
-9.533865
-0.550808
-4.107801
10.119946
10.857042
-16.199840
-2.633396
-1.926391
11.414111
8.768673
7.239023
-7.777776
11.610335
4.754877
-1.261445
-8.368909
-1.790141
-4.662061
7.872605
-14.655848
0.019825
-7.276053
-6.003354
-0.930143
10.998026
-0.903927
6.799288
0.530479
-2.755942
-15.995495
-11.408555
-2.143301
-3.846922
-10.824127
8.229532
19.924124
8.861128
2.271477
2.560852
-1.352925
-1.660545
3.377976
16.661096
6.571960
5.905702
-3.205505
9.369900
-2.396248
0.894994
10.424065
0.135020
-1.391237
-0.713955
13.847821
-4.267192
-7.127827
1.609085
6.738599
9.600524
2.584671
4.243231
-1.042128
-13.344105
4.978573
-9.814941
-0.370658
9.333674
-0.003262
17.607549
1.538989
-12.560242
4.812391
12.542119
5.256898
2.265866
17.933929
-1.188544
-9.819275
5.320822
6.882685
8.792821
9.310958
-9.291244
3.665782
11.876471
4.272830
-4.141557
-1.075999
4.062518
20.843374
15.694696
1.486862
0.502467
2.494373
7.141901
2.555046
-2.007654
1.605181
-20.076286
-3.270002
-3.458833
20.121520
4.329391
-5.177763
-10.989319
-6.662563
-6.260738
2.462285
20.818049
-2.196132
10.473773
0.486322
9.633861
1.708012
-2.363773
26.145586
-12.826777
-0.868049
-10.680032
1.980782
-15.517859
0.709343
5.663428
-8.395592
-17.624264
13.019376
-6.226655
6.673681
15.766811
-5.841449
0.061522
-14.135010
5.282242
8.956021
16.248335
2.815187
-0.594513
-3.173054
-2.114180
5.808435
-1.116616
12.868347
-22.360310
0.017812
-3.406295
-16.216718
-10.005492
-3.729424
-1.257820
-1.009210
9.156816
-1.422392
-2.277287
7.575554
0.711600
5.482092
-10.254372
3.669681
-6.300772
5.931466
12.061787
-1.316672
-10.406925
9.632416
1.885175
-3.358777
17.306528
0.859652
-19.440872
-0.868192
2.495916
6.491906
-3.697395
0.078364
11.721520
13.668280
-3.968852
-4.598694
-1.563332
2.898894
-2.728049
-2.583789
7.916965
-7.809276
-8.809819
-7.685120
-1.223193
17.636047
-7.292497
-3.067508
7.114690
8.270429
-0.154727
3.400619
-5.938988
1.874835
4.812816
-14.446607
-6.845374
-3.766590
-7.313880
0.905737
-6.985730
-2.732111
11.413093
11.203671
-1.685617
12.023822
21.770040
16.854720
2.741388
-1.374533
-3.686970
15.778921
-5.109291
-6.679019
-1.914488
-9.831729
4.006883
6.720519
6.883752
10.283935
-1.596993
-6.296785
-10.328028
-1.164641
7.724189
2.393616
2.526922
-3.070967
2.990015
2.827166
-17.926299
-4.524435
0.603694
1.487413
12.011918
-5.496494
-0.663402
-1.959943
-0.068151
-12.184356
8.119931
8.787603
2.178828
6.291004
-1.611692
-6.596538
-0.159789
0.465326
2.868607
7.759281
7.665786
3.595856
0.843878
-17.860980
7.010348
-2.093912
-1.407582
7.292692
1.055813
5.277262
9.313299
-26.234815
9.468124
-6.820078
-0.812982
-3.859613
1.949114
-5.676861
-2.830892
8.916774
4.200391
-21.201634
-1.782036
11.238598
-1.838237
4.984824
8.134246
-3.668245
-0.203898
-5.585378
14.099438
0.200276
9.121589
-2.714818
16.149884
25.215403
-8.135625
10.406576
-8.668279
-17.176556
3.720467
-3.624971
-6.904048
0.395147
5.923089
-2.545197
-2.685809
13.954900
5.227380
-3.137164
2.450725
0.118253
12.335947
0.111618
-6.228479
-2.113869
2.628454
-5.896318
-2.768791
9.782873
-10.555605
-2.850036
0.269201
-2.620316
-7.557395
-5.461414
2.883019
6.403906
-4.094191
2.777992
6.867683
-18.514301
-10.842107
0.009517
3.751771
8.368908
4.536466
-2.027827
2.518940
2.538890
-2.922667
1.126594
3.056790
7.137893
2.090038
5.611350
17.516014
-5.929243
3.289961
-27.336918
1.242300
-0.679205
-7.645325
-1.079810
5.816016
-6.009351
-8.772012
11.592640
-12.180790
-10.927016
1.461640
-7.545627
-5.311580
-7.731385
-1.026578
-6.327286
5.572973
-15.230112
4.661110
4.178326
0.244905
14.005904
-18.288767
-1.651230
-8.467483
-8.363591
-3.912787
3.073177
3.476334
-19.313908
-8.753896
-8.717818
9.924918
8.933253
4.220813
-5.574463
5.666644
-1.880204
0.376681
10.595546
4.678559
10.001123
8.588705
-8.018896
5.315885
-1.106630
-15.390403
11.688810
-8.489144
12.209669
-11.838958
3.407646
-3.169009
-3.042586
-2.268617
-3.272142
6.813120
8.358613
-4.717717
-1.303556
-3.502361
5.823089
-1.712231
-13.643076
0.153413
-4.291701
-9.258562
14.724385
6.681071
2.599712
-20.075189
-2.584880
3.511858
-3.080962
2.823522
-0.497537
5.265585
-7.686019
-15.524944
2.839959
14.716339
-18.329576
-4.639092
-0.448897
2.990952
21.224912
4.869389
4.933813
9.440034
-3.682784
-14.197295
-0.897471
-1.480683
-7.977236
-1.885361
13.640899
5.115628
-1.564873
5.822195
-4.124494
13.253005
-13.453676
14.685946
2.201391
0.216006
2.160658
-0.575602
9.519085
5.331662
10.065338
-0.228253
10.997996
-1.060621
14.762377
3.850823
-6.730789
-18.696891
-1.054908
-10.454313
12.632780
-0.655189
5.468929
8.489101
0.030597
-0.648728
21.790019
0.378382
-3.447448
-6.036388
-7.494051
-24.096274
-3.382771
5.965085
-0.027345
-6.385072
-14.884330
4.082186
-6.146359
10.614197
-2.425495
-1.001937
7.010804
2.960029
1.603390
-1.850313
-8.327354
-7.786358
-0.872671
12.964348
1.304295
-10.686257
10.706611
-6.356257
-11.659319
0.645419
-14.866786
-0.978565
7.594871
4.633621
19.846902
2.837056
-8.803597
9.762225
2.074483
-1.132210
-0.238728
11.013967
-14.588530
7.520498
3.169095
-2.441925
-6.403738
-8.965039
8.776894
1.473494
-1.262402
-0.895649
-13.364535
14.917983
-8.109769
-6.023178
2.849455
5.905684
7.474603
1.743798
7.581207
10.019393
-6.762752
2.096581
-14.712796
-3.472444
2.452682
-1.700633
14.576306
-2.615870
3.698762
23.927126
2.725165
-7.140319
5.982471
8.134766
-12.369289
-7.011845
1.353122
4.740595
-10.684026
-18.875098
9.882314
8.823946
-13.065915
3.365013
-17.003755
-4.777935
-1.840734
1.157487
3.207742
-10.310963
3.587415
-5.512375
-2.526471
-0.494362
-11.078933
-6.611391
-11.851997
-8.519921
0.101199
1.559575
8.782983
6.486501
-4.817111
4.421847
-2.273522
9.618301
-5.456949
8.802634
5.060221
7.973454
-2.718833
-10.491691
2.133939
-11.427648
7.100924
1.244424
3.382481
-12.482085
3.259039
-11.377966
1.841136
-23.633434
6.472738
-12.014533
-5.960695
3.369817
-4.276293
-1.569884
5.733562
6.739764
-17.125492
10.004029
10.431905
-2.747098
-1.339306
1.899985
-6.945033
1.729869
-6.505383
-4.755152
11.878613
11.844044
2.793659
-13.924975
-1.919848
-1.273158
-8.114731
4.360786
-3.483557
5.694561
11.280986
-9.324234
-0.817418
2.865786
16.613432
-0.583537
-2.662353
5.450839
2.703351
-14.726168
2.128330
-0.128261
4.398996
-4.799833
-15.496337
3.567430
-5.766266
-5.046796
2.993603
4.386714
1.429151
3.177655
-7.467778
-0.724459
-4.421185
2.082641
-3.036231
1.744374
-13.799298
-7.075263
-10.622274
8.573862
10.362583
10.741192
-6.071628
1.527053
2.474594
-3.704004
-4.818429
4.116761
11.034147
16.468409
-13.891615
-10.982898
2.962626
-4.658665
3.227312
-10.959224
8.211017
7.304164
0.420172
11.122119
-0.847087
-10.899754
3.971855
-8.453070
-4.811806
11.387997
-5.547868
3.414631
-4.251181
4.082547
-3.819610
-4.900835
1.343178
1.878789
8.612208
-9.095356
-1.225686
-9.138364
4.548219
10.110789
-0.844649
-2.739245
-8.545333
-0.908647
-5.502733
-11.559385
-2.272256
2.701285
4.028790
-4.323441
-11.133121
-9.889536
2.894720
9.493244
5.750949
7.720193
-12.246007
-4.734057
3.298159
-4.636930
-2.107198
-0.678580
6.877537
5.657190
-0.757808
-19.652154
0.509791
2.760117
-12.816937
4.472237
-9.095939
-4.441558
22.304115
-5.997887
-4.106421
-11.082158
5.302256
0.038750
8.724388
1.413455
-11.011312
-5.017292
-14.400523
-1.833313
1.008788
-4.963968
0.359781
6.348173
0.057309
9.639252
0.384999
-4.023605
0.642718
-12.511289
16.640099
-4.027886
-7.615905
6.732211
-1.565521
7.286241
0.633969
1.998280
14.772413
12.364841
4.280755
8.159293
-8.940987
10.790237
-18.939219
-9.061531
22.942651
2.734559
6.118194
6.836333
0.717026
7.082011
7.156729
-5.774778
1.978016
-0.237921
-8.257809
-1.632636
-22.548791
-5.216207
0.379840
0.612530
-0.451736
16.666302
0.790834
-18.403893
-11.159003
17.626958
-0.068693
-3.483025
-7.902068
3.860212
-4.044948
4.393194
4.219040
8.178617
-6.166667
-5.626425
-9.400144
-15.382115
1.899297
-18.012830
-5.451910
6.134871
-8.598791
-8.919136
6.199940
3.502216
-1.321953
3.666617
1.438770
3.018458
-2.085646
-3.926527
-1.536683
2.864049
4.540535
-0.110960
-11.080874
-8.276637
-1.929183
-8.976018
-9.537399
16.772551
-10.164798
-5.794881
-4.366366
-3.797503
9.737225
-5.054234
-1.376877
-10.082114
-3.447484
-0.624909
6.412605
22.248777
-15.132984
-6.320102
0.740981
-4.038831
2.654339
-14.731957
5.036143
-1.438466
0.632723
0.389799
7.210049
9.977444
-10.761692
5.945386
-5.796495
-10.138179
-8.370192
1.115065
6.724159
7.896884
-1.911599
-10.036571
12.660343
-3.270023
-2.393702
-0.991787
7.392795
-4.704539
-0.394387
-1.053751
-17.347718
2.554186
0.488594
-0.154387
-6.181061
4.740415
-2.179965
-13.411252
-4.897050
-0.323715
8.447943
-1.451333
-3.907679
13.382796
0.589492
-0.722005
-10.931660
1.090712
-8.592698
2.375225
14.863854
-15.067322
-11.236210
1.399700
9.934921
-6.571939
4.920176
-5.720729
-1.382711
14.473722
-7.572196
0.748564
-2.618197
5.268670
-4.848461
-2.729445
1.121316
