0.825235
0.024476
0.433200
-1.288142
-1.992662
3.242353
2.473042
-5.637090
-0.448595
2.436442
0.179175
-0.999749
-1.481839
1.303450
-2.222086
-1.149134
0.589850
-4.432471
-1.220823
1.297736
2.386519
-3.713982
-1.450459
-0.352164
3.290287
-0.918700
-3.051222
-0.366072
3.190233
-0.156426
-0.452950
0.903796
2.356248
-3.959815
-0.149699
-2.643583
-0.454612
-4.189596
-2.901321
-0.856546
2.606800
-0.628383
-1.632780
-2.736067
1.569611
-3.588241
0.927636
-0.727168
0.327910
-0.692321
1.104320
-2.256462
-3.504489
-3.349782
-3.003174
-3.960938
2.807640
-3.687414
0.947827
-1.217115
-0.424181
1.362433
2.062293
3.243309
-1.863419
3.692456
0.980000
1.998245
2.359629
3.096735
-0.718722
2.464193
2.338590
-1.956799
-2.850658
-1.553502
-4.068267
-4.452929
2.203766
0.861645
0.284649
3.075867
-4.765326
-4.028844
-2.484673
3.327228
4.555161
-0.115706
-2.083811
2.719823
-3.524453
0.209978
-3.769393
-6.315596
-1.418553
0.863062
-2.753322
-1.856683
5.893240
-3.164222
-3.063822
3.157987
-2.355046
3.414420
-3.670529
-2.110891
-0.210574
2.045098
3.693898
-3.940277
0.194882
2.631231
-3.554449
-1.923879
-4.290411
0.930108
7.051081
6.240106
-1.258267
-0.436795
-1.777415
-3.193256
-4.928773
4.022329
-2.454746
4.168354
1.021906
-1.730951
-0.211262
0.580382
3.463965
-3.360283
0.536158
0.680499
-0.208148
-0.783349
-0.108269
-0.401652
-3.625103
5.088171
-0.702874
-3.843364
3.393569
-2.126595
1.205831
-2.287992
-3.436746
-3.786185
-4.191150
3.075073
-2.673416
-1.170089
-6.081839
0.043710
2.996153
1.469789
-0.416173
2.814295
-1.803362
-2.464306
3.764206
0.578325
0.347981
4.183382
4.121872
-2.271050
3.706287
0.066008
-0.395536
2.111036
-2.149488
3.656341
-1.985428
-1.924952
2.751704
0.327572
-2.887402
3.162921
7.120569
0.505731
-10.026720
4.871485
-1.203918
3.531781
2.218820
-2.403508
-4.944767
-0.428876
3.040328
2.739969
-0.454576
1.294879
0.334135
3.828318
-0.232706
-4.503592
-1.594775
3.260528
0.774786
3.220909
3.880420
0.141656
1.996640
0.996645
0.033196
-1.858287
-5.475584
2.389361
4.125639
3.336934
4.838535
-1.775346
3.909581
-3.008550
2.573808
-0.595492
-7.276375
-0.713296
-0.879532
-3.439607
1.755021
1.126903
-1.018085
0.929753
3.198903
4.250562
-0.739648
2.575978
-0.119013
2.526747
-3.004556
-1.647612
-2.208914
4.644540
4.164670
-3.150330
7.520551
0.653111
2.462343
-4.062753
2.859171
2.842922
-2.229228
-2.892108
-2.142423
1.879945
0.263132
-3.917531
1.649649
-6.089857
-0.846528
3.446561
0.368127
3.079926
-2.436728
-0.806307
2.048880
0.409842
-2.513408
0.562271
2.235180
7.048697
1.324734
-3.727532
1.311366
4.227942
-1.243310
1.778515
2.127464
1.176268
3.611498
-2.725637
-3.307136
3.647219
-2.453068
-1.843175
4.739550
-1.277224
-7.752149
-2.599976
1.918757
2.231325
-0.746576
0.630249
1.167533
1.420412
-1.817917
-0.339235
9.235970
-2.632495
-0.667522
-0.910172
-2.933730
6.410637
-3.353330
-2.163197
1.872241
0.106928
1.913192
-2.132677
0.552714
-3.516752
1.208845
-4.307475
6.590111
0.915051
2.007408
-1.714877
-0.762715
-8.905529
-7.481356
0.302087
0.648820
-3.673490
2.636727
-1.135461
-2.608418
-1.531896
-1.522212
5.397996
-5.430525
2.626193
-0.722315
-3.992853
2.915773
-2.572297
1.460586
-0.800063
0.848519
-1.518863
5.449170
2.033044
-3.988359
3.375181
-1.561470
-1.193017
0.109200
-4.133446
0.378257
1.583500
-4.191930
-2.133944
-4.886859
3.322553
-1.656218
1.909486
-0.907989
-2.401110
-1.739335
3.537023
1.424998
-2.167273
7.102806
-1.772481
1.006838
-4.210604
-4.398031
-2.524518
0.174292
1.799694
-0.424443
1.466133
1.406708
1.549389
4.962747
1.352187
-2.805196
-2.366195
0.630002
-4.976671
0.494513
0.931388
-1.875645
-5.747637
-2.722112
-4.497423
0.170335
-5.985397
-3.841367
-3.938678
-5.783185
-2.540593
6.716164
-0.413828
1.952640
-1.063332
-2.717970
2.148844
-0.678133
5.937571
-1.306633
0.171893
2.024186
2.584087
-2.391972
1.875568
-0.399043
4.797935
3.382074
-3.827048
1.111965
3.199781
-2.027147
0.468573
-3.660872
-1.926633
0.839292
-1.900796
2.952635
2.167534
2.248977
2.418752
-1.129400
-2.126602
-1.217904
0.266971
0.316519
-5.675550
-6.330165
0.651839
-4.873222
0.361645
-0.126366
1.536363
2.269736
5.104651
1.875084
-4.797164
1.382447
-4.370405
-0.805305
2.518709
-1.189122
4.134006
-7.437408
1.242352
-2.454174
4.183810
1.263543
1.676683
-5.833633
-0.499303
-2.460323
-0.834680
3.567032
-1.099270
0.281775
-4.980884
2.898385
1.871733
-0.588988
-4.752582
-5.775927
1.941201
-3.392046
-3.002086
-2.123223
-8.406143
2.729785
-0.468790
3.535759
-2.970033
2.001306
1.465777
-2.135384
-1.449557
-4.732731
-4.075824
-0.388257
-1.721917
1.249802
-1.142900
-3.646914
1.474439
-2.065965
-0.164749
5.545872
-5.587841
4.190725
-1.868567
-1.046646
3.306854
-0.558542
0.074883
1.307929
6.008493
2.110417
1.945670
0.752302
-1.303352
6.089418
4.268175
0.042886
-3.363211
1.597579
-2.975828
-0.772195
-3.081245
-3.830325
1.008303
-4.646462
0.317936
-3.745513
-0.196399
-1.437363
-1.250649
3.772326
-1.936254
0.768361
2.714345
3.957665
0.345683
-1.648841
1.106513
-0.853027
-2.351366
0.988652
-4.474138
0.914066
4.356567
-2.758113
-0.303849
3.679891
-1.088235
-5.699652
-0.683164
-1.168059
-0.396265
-5.314258
3.010927
4.488477
0.006189
-0.231769
-3.278829
3.306029
5.819180
2.366740
-10.832645
1.619404
-0.835221
-2.548616
2.901607
-1.188172
0.887353
-1.916373
3.169838
0.900927
-0.313173
2.519086
-3.277855
2.366385
-3.303034
-0.638406
4.525566
2.059253
2.421165
6.589204
1.374646
0.951055
-2.467702
-5.348733
-3.209518
-1.480948
1.637089
-1.176094
3.505004
3.004340
9.575078
6.817356
1.713862
-3.710589
-1.284713
-2.487518
2.084266
0.607156
-3.630433
2.969055
7.214723
-1.106288
2.369270
-0.653536
0.911687
-7.292145
-1.554379
-1.445418
-4.132616
-5.613119
1.744358
3.952719
-1.594662
-4.674753
1.624006
1.364658
0.022326
-0.740851
2.052709
6.712770
1.264353
2.781377
-1.277854
-1.930254
0.799150
-0.942530
1.790440
-5.195318
1.931421
-4.338534
1.239024
3.694660
-8.171771
2.435965
1.130119
-1.189749
0.950399
-0.942532
-3.543301
0.470311
-7.355774
-0.366282
1.768011
1.303370
-0.913615
3.585047
-5.032925
0.422554
-0.300642
-0.079230
4.169153
-0.487696
-3.305967
-3.646667
-1.514287
-7.370273
-4.666248
-1.461045
-0.914751
0.437692
1.937309
-1.319121
1.334437
3.390504
0.167549
0.930876
-2.387152
-1.622407
-0.033267
-2.235345
4.991334
0.990714
-5.389933
3.895081
0.356262
-2.212750
-3.200468
-2.592999
1.068408
1.787543
0.923719
-2.772746
-0.499467
-0.638286
-0.426490
3.082230
1.794296
-2.452649
2.658689
-3.199195
1.030736
1.225958
-1.784595
-3.485493
-0.300940
-1.463803
0.916396
5.100624
-1.814948
0.411765
2.006340
-2.457592
-2.452333
-0.872090
3.242252
-3.465455
3.868096
2.370066
0.233677
3.248087
0.289474
0.133363
3.051809
-0.797675
-7.740275
1.277387
-1.858120
-3.546104
3.030576
-4.817233
-2.162632
3.382421
6.057467
0.100096
0.660029
0.589329
-3.985783
0.127308
-0.046825
4.532087
-1.398296
0.105253
-1.421497
3.143038
3.479046
0.911794
1.354416
0.711603
0.038765
0.360703
5.726293
0.986966
3.410913
0.191370
5.185961
-1.237472
-0.186459
-0.158378
-1.250004
-1.061390
1.119006
4.004936
-2.593557
3.397452
2.480101
-2.920140
5.249321
-0.343037
3.186913
0.061942
-2.052810
-1.421785
-5.451579
0.668522
1.811367
-2.054549
-1.108530
4.159627
5.139760
-4.035109
2.015914
-1.663714
1.948677
3.403679
0.175145
1.178177
-4.866132
-5.213268
-1.841229
6.661527
-0.116048
-2.741692
-0.437291
-0.819597
-3.461578
1.180313
4.335692
4.224684
-0.999942
-1.030709
-1.491347
-1.077395
0.940655
0.584345
0.196642
3.935777
-3.651125
3.515772
1.940730
1.090178
1.040297
-1.081252
2.134422
-3.031120
3.302163
2.093485
-2.915234
-3.365979
1.591241
-0.144664
-4.397455
0.788332
7.301502
3.624834
-1.528739
-1.815175
-0.164466
-0.685478
0.334825
-1.506940
-1.176220
3.399061
2.599373
3.116327
2.066586
1.929016
-0.282306
0.820148
1.610248
7.581290
-0.716413
1.146199
-1.920178
3.040076
-0.746342
1.755154
-0.345146
-0.021519
2.485048
-3.369199
2.050315
-4.491900
-3.406090
1.471819
-3.258766
4.417736
-4.573753
-2.470259
-1.967019
-0.061213
3.524861
7.643016
-5.803194
1.792037
4.476860
-0.096816
-4.220386
2.014741
1.312411
0.087470
-0.570204
2.828968
-2.623526
3.340197
2.218102
-0.988067
2.652318
-0.116124
0.052211
-4.700944
-1.049649
-2.899384
1.336807
-1.865271
1.137471
2.859518
-2.899034
-2.647811
-0.281321
-5.052481
1.154192
0.244596
-7.259762
1.508571
0.897235
-3.916838
3.614858
3.414865
-3.256399
-1.019099
0.586538
-6.945384
2.978480
-0.772240
-3.805550
-1.830617
5.396648
-0.562602
3.648813
-5.006796
7.143864
-2.084082
0.622280
1.425374
-3.235847
-0.102580
-0.855239
-4.989491
-0.546539
-4.118618
2.998918
1.799223
3.937944
-4.740673
1.517514
-1.741395
2.383620
1.496993
-1.127875
1.964125
-2.785175
-0.743206
-0.208946
-1.344119
-1.993731
2.074829
-1.144751
0.162718
-5.159304
1.537410
0.900639
-4.511760
-2.059353
1.022904
6.025873
0.832336
0.150308
-6.622681
1.592016
-0.209596
-4.270360
1.704150
0.898494
-4.695298
0.997531
-1.329719
-1.634959
5.089787
-5.093195
-2.001470
1.488853
1.534445
4.739530
1.604864
-1.609978
-0.272319
-1.670640
2.717298
-0.784750
-2.472521
-6.284335
0.553935
-2.987377
-4.523492
0.794688
1.231139
5.171190
-2.152637
1.513881
-1.367608
1.726289
-4.365711
0.269352
-1.526911
0.707437
-7.742790
-1.487173
-2.142661
0.329857
3.779359
1.446066
3.100798
1.096553
-2.436281
-0.763490
1.733990
1.231149
1.431835
-2.237048
-1.637680
5.689064
-0.671831
4.170473
0.541841
5.368868
0.509485
0.554839
2.773538
-1.683982
4.614516
1.950909
-0.711686
1.620357
-0.798906
2.573223
-2.771334
-1.107436
-0.232723
2.725804
0.572047
0.605939
1.080202
-0.447815
-4.241997
5.592874
-4.604241
1.417008
-0.451281
2.447468
-2.195785
2.966573
1.268821
-2.480470
-1.518002
0.487026
4.649662
-2.227472
-2.016501
-3.966283
4.185472
-0.859178
-0.074054
0.337029
3.147956
0.330463
2.220359
-5.925613
-6.553488
1.673276
5.907907
-5.725389
-1.068348
3.243544
-4.075160
-0.571303
-7.526051
4.201081
6.181848
-4.234507
-4.189726
2.094680
-0.990872
1.240407
2.002646
-0.094701
-0.731209
7.084915
-1.517083
5.893868
1.980010
-2.749216
-0.638947
-1.068533
-2.607918
-2.354666
1.274935
-1.039857
0.429270
0.120853
3.695927
4.192889
0.528384
0.909137
-0.671994
2.934708
4.347107
-4.984720
-1.096479
1.829563
-1.657816
4.044821
-4.052871
3.034431
-4.902864
-1.880167
3.717466
3.871069
3.028497
0.862961
2.763645
2.458246
6.830061
-0.103214
0.442930
-1.441101
0.075611
2.053988
-1.552841
2.154490
-2.882601
1.101466
4.639944
1.335269
3.360327
-0.039585
0.720909
0.711055
4.872468
-1.863671
0.168004
-0.581988
8.335805
1.759181
2.213168
-0.790488
2.979733
-4.301256
2.563477
-5.931092
-4.138972
2.408463
-5.153360
1.114894
-1.962233
3.337649
-1.833118
-3.125065
1.554432
-1.139672
2.722380
-2.759581
-4.005452
0.679644
-2.000359
4.198242
1.471601
-1.183147
0.103492
-0.855523
0.824065
-5.406892
3.867740
1.410503
6.410646
4.194497
-2.074432
-0.636386
-3.432575
-1.047967
-0.317056
0.739248
4.621148
-2.563376
1.544455
-0.177112
1.771086
3.705596
-0.931182
0.289187
1.727665
-5.008097
1.436573
4.225256
-0.501315
-0.930398
-3.682227
-1.297101
1.297608
-1.980529
1.380291
-1.029717
1.826836
-0.226308
-3.349160
-0.341180
4.093434
0.191267
-4.556737
-3.540668
-0.696612
5.853455
-0.822040
2.130581
2.794588
3.033748
-2.481389
2.974745
-2.828838
3.132622
0.088963
-4.680307
3.208441
0.234981
-0.761898
-2.861964
-4.075898
-0.047853
-1.827685
1.039961
-3.512995
1.382270
1.281945
-5.727286
2.534205
-1.616413
-2.955896
0.543674
0.484617
2.662598
2.211652
0.482186
0.453616
-5.205867
2.107681
2.630173
8.014830
0.299484
1.362799
-4.555260
1.303055
-2.342377
5.945841
3.161362
-1.587308
-5.571875
-2.359350
3.251461
-1.006113
1.261808
-2.373986
3.779543
-6.781892
-3.800266
-2.702617
6.462044
-0.059719
-1.031038
-2.864317
2.701325
0.970094
-1.279634
0.061472
-5.331664
-8.336726
-0.165314
-0.644797
0.963767
3.160827
-4.381349
-0.782154
4.743148
1.765900
0.814861
2.728126
-5.948125
2.226476
0.602873
-1.400549
-1.106237
-4.445862
-0.382837
-0.814414
-4.329401
-4.410754
-1.737299
1.510040
0.083634
-0.033185
1.655270
-1.652440
-2.137014
-2.440096
-2.179522
2.531005
4.000003
1.390664
-5.577570
2.673945
-3.038066
-0.151054
-5.664126
-1.117250
3.263256
1.858210
0.503196
2.215882
2.877352
-0.344628
2.169144
1.705987
2.523746
-3.341738
-3.036223
5.411596
-0.164320
0.394628
0.051613
-1.536025
3.009746
-4.672311
0.290215
0.727106
-5.143718
3.507891
-4.855467
-2.006552
0.797977
4.590771
-6.492044
-0.314262
-3.041767
-0.131457
-2.961589
2.181988
-1.815386
2.635325
7.752867
6.194705
-0.744566
-1.277778
4.354419
-1.171351
-1.456244
-1.732593
0.626441
-1.544326
-1.240403
-0.318743
2.917479
2.367229
4.160782
-3.615679
-3.537690
-1.529072
0.087660
0.075533
0.286865
1.983445
-4.242667
-2.131325
-5.573020
-0.915913
1.746776
-4.798235
-5.382442
2.284753
-5.197137
-3.179861
1.649389
-4.186671
0.072826
-4.849378
0.743436
6.364303
-2.450126
5.822732
-2.262737
-0.895862
-2.882550
1.038247
0.476919
-4.815785
-1.482480
4.246415
-1.482683
3.537660
2.801002
-1.863580
-4.175239
-1.828167
-0.011184
-0.385605
-0.125802
-1.287450
0.119431
1.292865
1.744144
-3.160069
-2.092788
0.933672
0.724967
2.593770
-1.016988
-0.535366
0.211852
-2.171241
-1.436327
4.808912
2.026903
0.310009
0.893916
-4.431038
-1.184431
0.752258
-2.753518
-3.120470
-6.056972
-0.026086
-5.275893
1.227678
-5.030383
1.684812
3.943852
-1.520971
1.679435
-2.691496
1.474333
-0.703816
3.765351
1.930870
0.975742
-4.595658
7.743612
-4.476692
2.795566
-1.120787
-3.512751
-1.086708
0.555134
-2.399271
-3.415974
1.929129
-2.014758
-2.111422
4.806587
4.443503
3.633047
2.676533
-1.189320
5.192023
4.728280
0.947145
-0.085646
2.208000
-1.965480
0.875171
-2.077646
-2.257294
-2.672259
2.370518
-1.387865
-1.937443
-0.267410
1.064230
-6.002660
1.443861
2.596362
4.314133
1.316119
2.939462
1.524152
1.387567
-1.227018
-2.148397
7.707553
2.988849
5.137291
-2.050944
-0.188709
-0.996367
-2.274288
3.052826
-7.288236
-3.148695
-3.358114
-4.147979
-0.673624
-0.420151
1.757153
-2.547950
5.050015
6.506106
-3.518079
3.242283
-6.128100
-0.367195
2.998931
-5.223476
3.453169
-3.012764
0.305841
-2.848841
2.307302
0.025886
-6.005687
-2.845855
-6.709416
-2.829343
-2.625708
1.576566
2.413434
2.557919
-6.072034
5.975289
-0.741399
2.106166
-3.465914
-5.593413
-3.193042
-4.145940
5.240809
2.576911
2.291024
0.224498
-2.871153
-0.578643
1.692094
-1.769203
-2.692411
-1.805954
0.689929
-0.221593
-0.046037
-0.045883
-2.927300
0.970294
-4.062028
3.457759
0.550548
-2.712678
-2.501765
-0.335117
-0.050183
6.823692
-3.421313
1.176832
-0.590920
-1.422186
1.595688
-1.564076
-3.161961
3.556139
-1.083855
-3.891159
-1.892969
-1.937484
1.277899
-3.933392
-0.514243
0.601189
-0.869892
-2.072726
-3.777520
-0.539383
2.738867
1.329698
-1.541824
-7.557451
1.458319
2.407949
-2.888173
4.196992
2.027923
-2.682936
-5.012294
0.415193
-4.219240
5.048563
-5.802745
-7.580571
-1.912553
1.790463
4.708068
-0.778470
1.375109
-2.688834
-3.314964
-2.496377
-4.620452
-3.303059
-1.136902
3.886008
-3.006392
3.701550
2.389818
0.722656
1.711840
-1.126948
-0.779128
1.760172
-0.823003
4.055304
2.295553
2.811535
3.769939
-2.124156
-2.175720
2.040437
-5.532778
-2.545800
-0.442870
1.344724
-1.949604
2.056295
-6.202183
1.570903
-4.103222
-2.711822
-2.448491
-3.032422
3.435781
0.477959
1.233541
0.572200
6.359031
-1.925191
3.960491
1.368215
0.625942
-4.193294
-4.698146
-0.778348
5.324298
2.692073
-0.903364
-1.730169
1.446649
-0.809533
0.511545
-1.056678
-1.826783
-0.634647
-5.595495
1.933623
-3.350298
-2.885498
5.184462
-1.302244
-1.801108
0.075542
-1.054460
2.580557
2.220790
-1.645619
3.609130
2.481534
4.283043
2.936659
-2.761848
1.498860
0.756350
-3.604498
2.059841
-2.394599
2.960228
0.869693
-0.396225
1.348762
-2.343488
0.157437
-0.184612
-0.183974
2.262431
5.940499
2.892457
1.866783
-0.145925
-0.160624
3.263623
-1.473284
5.105025
-0.792208
0.821765
-1.602367
1.033705
1.031303
3.587980
0.916816
-1.232332
0.286549
-0.274036
-2.220575
-2.969746
-2.391911
2.229298
2.933478
-0.112806
-1.653125
2.785810
2.950171
-1.464521
0.956638
1.775401
0.714135
2.784190
1.461401
-2.178598
4.162079
-1.505347
3.774186
-0.403076
1.117818
-2.102785
-2.294341
3.365882
-1.814067
0.264394
2.819404
-1.861414
3.553910
2.637575
0.326049
-3.184924
0.339357
0.460246
-2.421107
-1.814102
0.932342
-0.940804
5.461287
0.035440
10.165693
-5.395161
0.365185
-4.715787
-0.619137
2.324804
0.715969
1.264408
2.360853
-2.103955
0.616166
-1.084906
-0.541843
4.292054
0.113930
-1.971394
-3.383620
-4.173875
0.397154
0.386399
-2.846603
-3.379691
2.009671
0.958673
-0.084192
1.431078
4.834360
-1.889524
3.080225
-1.166010
0.082189
3.984001
4.933314
-2.943744
1.043651
-0.033283
-0.713708
-5.239577
3.583588
-2.168132
2.995323
8.243675
1.164360
-4.660165
0.191677
-0.115220
-3.741319
-6.414229
0.490572
-2.508516
0.461467
2.736081
-2.267449
1.936755
2.702262
-1.044122
0.298788
3.273653
-0.032602
2.649220
-1.771759
-1.679223
-5.021050
-0.506309
-2.508210
-0.125316
-1.900206
-3.050974
-0.506329
-1.342718
-0.701159
-5.340339
-0.686294
-2.723591
-0.941112
-1.034519
-2.794722
-4.571035
0.183302
-5.314774
0.046726
0.488263
-1.604893
-3.488125
3.653192
-4.243329
-2.616334
1.310009
-6.401608
-1.164077
0.041523
-1.764964
2.335965
-1.632259
-0.581268
3.284260
-0.555002
-3.477905
-0.547867
0.795461
-0.304711
-0.063348
3.939017
1.634664
-1.532352
-1.594012
-0.247852
-5.212877
3.239131
-2.677451
2.025512
-2.115309
-2.400172
-1.665351
-3.703214
5.890468
1.297720
3.669813
5.222894
-0.674292
4.161936
-2.908132
-2.630996
2.976178
-0.350332
-1.984386
-3.023891
2.514395
4.436810
1.704794
-4.777533
2.552718
-3.957793
0.347527
-1.400316
-2.260409
2.133187
4.933839
6.715594
-0.058441
-0.200397
5.112080
-1.728608
-2.275907
0.195728
0.223332
-3.004214
-4.426512
-0.167341
-0.306283
-2.972497
-0.995505
-2.978448
-4.309760
1.121638
2.408805
-2.728640
-5.581344
0.600575
1.209615
7.163654
3.004980
-1.229540
4.681509
-0.149928
-1.368316
0.157592
0.301581
-5.693211
-3.928279
-7.435958
0.734203
6.221959
2.716552
8.112302
0.122909
-1.318894
-3.294826
0.249961
-0.004621
4.300677
-7.318915
1.271951
4.045676
-6.178155
-4.370996
-1.050620
2.107430
-0.968798
-5.897356
2.584424
-0.812655
-2.311624
0.662666
-2.623004
-3.118437
3.501260
3.469731
2.395087
1.283458
1.548877
2.926073
2.769759
2.634032
0.239161
1.866247
-0.954952
6.271943
-1.095154
-11.573918
0.884255
-1.305821
-2.829446
1.460017
3.559512
-2.617529
0.498306
3.898963
3.951382
-1.372796
-0.232832
-4.832477
6.536986
-0.618817
-4.245197
-0.465495
-3.642418
-1.691255
-2.804951
4.916865
0.414011
-1.024000
4.117558
-0.898901
3.601808
-3.576852
-1.829188
-0.361552
3.335577
-9.602020
-0.649930
-1.372371
1.107469
2.736379
-0.703228
-1.849126
-1.032821
6.253504
0.709347
-1.875961
-1.867284
-0.174824
-3.829046
5.298870
6.094124
-1.920853
1.441601
-4.298334
-0.160113
0.320680
-0.959517
-2.562384
-1.347742
-5.075613
6.250948
4.170267
-1.834522
1.165960
0.339711
0.623360
3.335006
-4.629814
0.252705
0.635228
-2.828097
3.153788
-1.548796
0.038550
-4.526708
0.583350
-3.872627
2.249637
2.075569
-3.334017
2.457029
-0.900597
3.492473
1.150103
-3.976392
-1.937834
3.375935
0.201896
-1.085368
-2.444821
4.520810
-6.904178
0.401590
1.689847
0.733235
-0.063276
-1.795645
4.974278
3.073894
-0.194657
-0.329260
3.631212
1.049030
-3.987778
0.448683
-1.261866
2.169894
3.106610
-1.144379
9.510085
-0.389955
-1.467443
4.579453
-7.320603
1.715849
-3.188417
2.089790
1.213603
1.399015
4.055634
-1.591639
2.350139
-3.416705
-1.733687
-1.586147
-0.870641
-5.284184
1.706431
-1.420033
0.494603
0.380901
-2.411296
-2.178657
3.512493
0.737855
-4.391575
-1.224198
6.271694
1.022842
2.607511
4.064999
3.813456
-1.640751
-3.111792
-0.837858
1.482831
-2.470252
2.851241
1.062070
-4.654275
4.219868
-2.390542
5.000134
-4.452987
4.418585
-5.272341
-4.598695
4.393090
1.114152
0.036401
5.785926
3.430682
1.844457
-2.626138
-1.654729
1.811007
-0.524017
1.431438
4.976457
-0.024402
7.546918
0.946951
1.036256
1.470195
0.661324
1.386324
1.393335
2.076837
-1.096691
-1.438837
-1.904059
0.937494
3.223710
-0.633392
1.316913
-0.042379
0.895040
1.136545
3.489802
-2.971020
-2.085881
-5.713953
-2.561543
2.800130
0.315296
-3.375176
4.158821
3.691149
-0.858717
1.191254
-2.614713
1.234309
0.732823
0.228729
1.699944
-1.116037
-0.402129
-9.543561
-4.730316
3.707685
5.173329
-0.294749
-5.809669
-0.509507
1.944992
-1.922773
-0.464689
2.026326
-0.613713
2.740119
2.804700
-2.067850
3.651516
0.315787
1.028666
-1.045339
-2.411353
4.702552
-0.391842
-4.592133
-0.647238
3.143926
-4.757889
-1.698623
0.838698
5.126614
-2.179165
-2.552403
3.271443
2.800472
-1.311501
0.012997
-5.574047
2.338893
1.353301
7.341823
-4.820061
1.744724
-1.390661
0.131757
7.106380
2.624229
3.536921
-5.965077
-1.967011
4.511565
-0.598501
-0.283373
3.606707
-1.495511
4.532973
-5.283150
-3.378408
2.660435
0.635932
-1.883741
0.953637
0.480030
-0.230237
-1.925373
-1.894644
-1.426656
5.793849
0.923058
-0.372038
1.135385
2.989733
-2.720618
3.757432
-0.773287
5.852766
-6.770282
-4.455151
2.715956
-1.466874
-0.022499
1.151282
2.068758
-3.771572
-0.763723
-2.309113
0.759577
2.389774
-3.364418
-0.569631
-1.020272
1.239864
-1.342352
4.176158
-2.995205
1.686106
0.086426
2.105352
-1.922860
1.452171
1.741594
-1.927104
-0.524323
1.542488
0.797963
0.891881
3.570895
-3.141630
-4.577407
2.617728
5.687551
0.324804
2.189450
2.183834
-2.821912
-5.542787
-1.837576
-0.935598
2.691106
-0.025984
2.126205
0.847545
7.669802
3.922457
-1.586307
5.460312
1.969301
4.261197
-4.026268
1.968420
2.085325
0.974652
-1.822994
-1.415485
-1.796924
-3.686225
-2.970505
-1.413817
0.353002
-0.083420
6.835061
2.138675
3.085598
6.095013
-1.587170
2.302885
0.225175
-2.595121
1.976888
-4.411006
-2.001717
-5.196889
-3.263837
-1.654248
2.239950
0.763974
-3.046656
-0.871572
0.187087
-3.244483
-2.168990
2.470640
2.465417
-2.616145
0.547570
6.253749
0.662495
-1.425906
-2.075924
3.205072
-5.136591
-5.452126
-4.542481
-3.436418
-2.284833
0.583262
-1.088297
-1.037037
-3.600425
-1.184495
-0.933807
0.048544
-6.256670
-1.202570
-2.934692
-2.126268
1.444899
3.229392
-3.574025
1.239451
-2.198983
-2.557770
-0.768442
3.133940
-1.478892
7.692122
-0.958972
-0.249771
-3.987591
-5.107062
2.149319
-2.042289
1.118419
1.938574
-1.488674
-0.562489
0.695451
-2.081724
-1.494011
2.845337
4.932657
2.928938
0.050830
-1.108934
-4.387359
0.456717
-0.699422
0.398261
1.263546
4.348192
-1.261376
3.810939
1.248878
-3.975252
1.215640
-0.954596
1.798587
-3.112553
-3.551349
2.170871
1.449567
0.431510
3.365741
-2.677726
0.564283
-2.943222
1.176643
-5.855389
-3.159752
-1.827968
-4.091472
1.069974
-2.224800
0.030078
4.744864
0.865973
0.096498
-0.514709
-2.338290
3.078618
-0.302204
-1.753181
4.126701
1.597584
-1.459671
-0.715511
1.106518
-2.556366
-4.650198
0.824175
-3.782507
-4.333697
5.000946
3.493312
0.669603
7.131651
2.216111
-10.362459
-1.344334
0.437528
-0.984077
-0.659213
-5.299213
-2.071294
-3.549010
-3.536917
0.557026
6.474962
-2.947664
-2.362682
-1.061323
-2.947529
-0.429315
3.955576
0.573765
1.258342
2.314863
1.960644
-3.295703
-1.698730
2.193585
1.392740
-0.388455
-2.345832
-3.531411
-0.257581
1.239014
-4.598508
-0.277830
2.085631
-1.736439
0.977429
-1.304512
-5.848821
-4.323525
1.518340
0.318330
-1.891434
5.348558
-3.604524
-2.236191
0.738723
3.131578
-0.868004
5.694108
-0.331474
-3.900106
1.344771
0.591266
-4.721692
-1.192463
-1.551557
0.498070
-0.435557
1.051125
-6.572114
-1.172582
-0.567321
-1.617531
2.088927
-0.248358
-3.803285
-3.005019
1.440765
-0.267630
-1.024508
5.041038
-2.709306
-1.544442
0.466957
3.267204
-1.774590
-2.724615
3.066276
-2.212692
2.128991
-2.246199
-0.857325
-3.254088
-2.445137
-0.501141
2.014362
-1.437038
-0.834607
0.180114
-1.743896
3.418817
0.398578
-1.395838
-3.200002
-1.475803
-1.456728
-1.908942
2.289384
1.284329
-3.747805
-6.835604
-0.850167
-1.852721
-0.176636
5.586936
1.361235
4.915264
1.079618
1.897657
-7.105872
2.332435
1.306468
-0.719593
-1.849817
-1.633878
3.370251
-6.376048
1.246747
-2.812586
3.333905
0.633010
1.202719
4.196196
-5.679719
3.052125
0.703862
0.161397
-3.749442
-5.297206
-6.350180
9.494276
7.769872
2.121076
1.196983
2.502748
7.238145
4.233940
-0.676494
0.243097
1.752432
2.814979
3.567228
0.330394
-3.398716
0.223351
4.820803
3.622199
1.582372
-0.078706
-3.064547
3.867727
-1.497690
-1.087347
-1.309872
-2.586146
2.080226
-2.325786
4.473550
-1.138122
1.092621
3.219525
4.284645
1.381874
0.155974
-0.327820
2.141938
-0.194328
-0.567306
1.344093
-4.143274
-5.300528
0.049451
4.399482
-0.537323
3.191344
1.785556
-3.679724
-3.717101
-1.862661
-3.629697
2.775653
-3.521028
-4.246543
-0.101734
-4.653220
-0.710094
2.319314
0.707272
-1.124562
1.458415
-0.027830
-4.674278
-1.870152
6.602777
-2.281759
-0.799532
-0.628939
-0.879834
-2.094803
0.786918
1.359478
1.128529
-3.272660
1.148421
6.079554
2.229778
-4.970282
3.547226
-4.300815
3.511609
-1.517949
-2.642268
-0.376965
-0.458446
-4.976455
7.650387
-7.642716
-0.652055
-3.548210
-3.550813
-1.856959
0.099033
-4.357589
3.779151
-2.539013
-0.127100
-2.651553
-2.949775
0.693286
6.038649
1.432468
-3.188287
2.861954
2.152651
5.356278
2.815891
-4.276419
1.559779
1.346949
-1.384354
-0.402707
-1.528779
2.520399
3.779364
-2.112007
1.261763
3.539073
1.346466
1.170435
1.311505
0.746612
0.658555
-4.898309
-8.547365
-1.569935
-1.883635
-4.247008
-6.254887
-3.558092
-5.578591
1.681482
1.405611
-2.198488
0.201257
-4.449468
0.610728
1.706951
0.542825
2.964427
-0.243919
2.878323
-4.338156
2.381054
2.100897
-5.710173
0.045722
0.963737
-3.500716
2.603173
2.401545
-5.522508
-1.213386
-0.443676
1.771750
-2.404047
0.620104
0.292714
1.499894
4.119835
-1.160941
3.157861
-2.432901
-1.731342
-4.193305
-5.147667
-2.892214
3.361983
-3.254364
-2.633691
-0.332466
3.003005
-1.269825
-0.854750
2.335506
6.151480
-0.313899
2.468346
-2.256639
-2.151787
-0.756768
-4.590375
3.024413
-0.694475
-0.678705
-2.848629
-0.513526
-1.488004
-1.067674
-1.084663
-0.494940
2.467182
0.207000
-1.123064
3.733735
-0.966722
-5.175449
-1.442009
-2.011030
-5.111499
-1.290943
2.035693
-2.284331
1.335064
-3.403530
-4.587141
4.103953
2.967270
-6.215401
-1.433019
-8.833344
-2.330182
-4.161302
-2.230309
-1.574672
-4.537996
-0.661181
0.790130
-0.151357
2.068803
-3.823126
-7.599612
3.786702
-0.594922
-3.656656
3.360465
-6.534054
1.658114
-1.511221
-5.651724
-1.028120
-2.631381
4.637922
2.496129
-1.256336
1.860777
-3.693933
0.907812
2.188442
-6.867285
5.278392
0.337753
-0.492292
-0.119130
-0.525191
3.727776
-1.140549
-2.075612
1.564525
-1.704302
3.915293
0.218778
-1.417004
-0.160669
-4.336025
2.566044
-3.900200
5.831553
-7.007412
2.776515
-2.660012
1.522598
2.044383
0.144500
-4.057581
2.126291
-1.202867
0.355877
4.501682
1.007979
-5.215753
0.167827
-7.042786
-2.240820
2.285576
-0.134995
-0.717107
0.789827
3.490897
-1.168867
-1.985306
1.640441
2.163938
2.219645
-2.573444
-1.994653
-3.020384
0.819678
2.264546
1.211020
-1.575850
7.686995
0.366977
0.272361
-2.195775
-0.756137
-3.403096
-0.633353
-2.508785
-5.062843
-0.986862
-0.944124
-2.489407
-3.125359
-1.553475
5.074231
3.250980
1.135238
-3.433163
-0.020458
-1.550309
1.637658
-1.463243
0.866790
1.389193
-3.404268
-1.203173
-3.145034
0.648536
5.397632
3.077880
-2.714831
0.805983
-0.277429
1.029041
0.684100
0.196412
-2.140382
-2.210611
-2.378200
-0.125121
6.229689
-4.885450
-3.670155
-7.493354
-1.765754
3.018637
2.538470
-3.315273
2.972167
2.547744
-2.680887
-0.343546
0.955992
1.362523
8.989277
0.378385
0.545620
1.416638
-6.707550
2.086880
-6.466835
-2.081318
-6.436395
-0.305123
6.307646
-2.060327
0.593066
-2.360844
-2.950970
-4.443181
0.059185
1.468761
-0.021325
-0.715977
3.386826
0.600160
3.317145
-1.715004
-3.118841
0.001741
4.090500
-1.752886
-0.746383
-0.130310
-0.761840
-3.535288
3.198250
-0.781845
-0.667545
-2.652802
1.704171
4.464841
-2.235518
-3.826085
-2.433856
3.779744
0.042917
-6.847794
-0.826667
2.140666
-1.803576
-3.559567
-0.093108
-2.660530
1.572903
-0.174144
-3.701103
2.657337
-1.753444
2.253587
-3.696414
-1.181603
3.164998
-1.755810
1.587935
1.440255
-3.766825
-0.093829
-7.479246
2.125825
0.550069
0.420830
-6.893187
4.211824
-0.885191
-2.755235
2.174956
-1.199443
-1.366133
-1.927322
-3.553994
-2.275344
-2.505957
1.898464
6.455242
-6.648187
-2.158410
-2.750098
-0.318733
2.419396
2.364851
-0.535005
-0.342149
0.578716
-3.931055
0.407660
5.347933
-2.177073
0.525328
0.396159
-2.231429
-2.882340
-1.169885
-2.926525
-1.984283
1.831202
-6.802867
-0.669967
-3.564435
0.601158
0.385414
2.452102
1.455789
0.928850
-2.264071
4.297084
4.088334
-1.857271
-4.094684
-2.430485
2.212312
0.324914
-0.887017
2.058257
-4.351046
-1.959144
1.705605
-1.240531
-5.099933
-3.498937
-5.784303
-4.970735
1.443831
6.370115
3.716927
-5.213266
-2.136143
0.182735
-6.213722
-7.226587
4.096023
-3.318058
-2.914755
-3.690859
-0.055556
1.323367
-7.503006
-1.219629
-0.795237
-1.080347
-4.257553
-0.228006
0.617980
2.954889
-3.800940
6.475083
-1.808467
1.830647
-0.738272
-3.340672
-0.454522
6.022030
0.942844
-6.929211
-1.355800
-3.013489
4.057687
1.607191
-1.851123
-0.684946
-1.645391
0.469098
-3.239385
3.210696
3.648888
0.417730
0.380240
-1.582017
-0.159214
0.260028
-0.988372
-2.312333
-3.929635
1.348549
5.269395
-0.475413
-0.823471
-0.291496
-4.350119
-3.076423
1.865133
-0.914826
2.679642
-1.681104
1.623780
-5.288763
0.758405
3.790242
-0.306278
1.147517
-1.210546
0.200454
-4.641262
-4.443067
1.513700
0.472236
-8.243525
0.496401
-3.599424
-1.585923
1.142639
4.148664
0.612083
-2.238154
-3.889369
3.161950
-2.767920
-2.254702
-3.456351
-2.494377
1.411158
3.089934
-0.672098
-1.810300
-2.731932
-1.300552
0.332347
-0.585237
6.957573
-1.154198
-1.217474
-0.343592
-2.140232
2.426766
-1.600330
-1.404633
-0.655976
-1.186028
5.339217
0.670371
-0.774663
-4.184296
0.260377
0.196454
-2.907032
1.371295
1.392910
1.913012
2.866617
4.947241
-2.295550
4.432611
-2.837370
3.434715
-1.819258
-2.413889
4.819697
7.084917
-0.035855
-3.659333
-2.984522
0.282122
-0.288241
-0.163623
5.421716
1.699381
-0.157119
-3.969572
3.310704
0.057670
3.027809
1.479636
-3.823333
2.288066
-2.731594
1.086160
0.374536
2.522706
-0.572009
-0.237107
-0.982340
-4.078428
-4.981069
0.380715
1.155564
-3.516576
-4.199769
0.434116
0.594931
1.293564
-3.693878
-0.077128
-0.513906
-0.642492
1.083875
-2.068762
-1.146419
-2.693404
3.288635
1.155871
-1.044501
0.567234
3.212632
-7.854704
2.898419
5.049911
-3.222368
2.093907
0.367347
0.065271
-0.387965
-1.121192
-3.139309
2.686779
1.763222
3.242540
4.352239
-4.582203
1.215735
-5.006052
-3.914322
2.316032
4.056357
2.516576
4.045793
0.333785
1.294793
5.989158
2.532152
4.902570
0.719295
-1.060755
-5.173065
-3.758534
4.562263
3.856389
4.544117
-0.167885
-3.619619
0.728723
1.649426
-0.267589
-3.856434
-4.620711
1.292523
1.467820
1.614163
1.527968
-1.571064
1.920590
-4.888372
-2.928008
2.339801
-1.453623
-1.405216
1.318149
0.204464
3.763489
2.523291
-1.104028
3.863827
-0.606958
-1.909602
2.577062
-2.659942
0.286231
-1.857749
4.031721
0.350849
-4.401826
2.592373
-0.216388
1.014091
-3.585175
0.736422
0.427386
2.460161
-3.014822
-3.056325
1.883049
-1.998175
-1.740674
-3.967733
-0.450034
-2.881116
7.987413
-0.181375
-7.550878
2.639444
5.458337
-0.982761
4.905172
2.400364
-5.718028
2.528051
-1.288343
-2.382000
1.637732
-4.808976
-1.671883
-3.635804
-1.954181
-1.256729
-1.816191
0.930697
-3.922695
1.371856
-5.136158
-3.388487
-0.241662
-4.241662
-0.005986
1.575206
-2.975616
-5.858230
-2.203092
6.903635
-2.007084
-4.637266
-7.012945
-1.517187
-1.883125
1.009730
0.870250
3.203889
-2.189417
-1.477293
-2.140798
-1.829037
-0.093060
-0.674460
1.255930
4.412070
3.655598
4.794341
-1.241163
2.392554
-0.051532
-2.224343
-0.574257
-4.600141
0.669919
5.106593
1.314391
-3.372910
3.840835
-1.965080
-4.504075
-0.341502
3.980690
-1.981903
3.545896
-1.559641
-5.705492
-3.712524
-1.995116
4.076815
2.492928
-0.411672
-3.250893
0.890849
1.167844
-7.082482
2.855519
-0.619248
3.291143
2.554734
0.836243
-3.078637
0.740621
-5.886962
1.051454
2.015961
-1.783037
-2.673619
0.346093
1.738832
-3.335174
3.520922
-2.179444
-2.071487
-0.630480
2.899258
-0.262605
-0.952074
0.514986
-5.555594
-2.877800
-3.575102
-0.849811
1.531560
3.093575
-2.091307
-2.331624
0.792514
0.178828
0.027010
0.714186
-2.190551
-0.234789
-2.241604
4.240327
-1.813347
-3.245407
-2.046142
1.962853
-1.921628
-1.008462
-0.497081
0.052024
2.143266
-0.583467
-3.935258
0.670622
2.108976
-6.417428
-2.833171
-1.775275
5.350833
-4.486799
1.411393
2.180826
-2.572604
-1.062991
0.321116
3.581934
3.483960
-0.337198
1.953280
2.043408
-1.095160
0.402543
-0.565348
1.501188
1.093302
-0.943812
-0.069591
2.643895
-3.738048
-0.171607
3.560811
2.067926
2.897709
3.859646
3.965573
-2.611290
3.429518
3.429136
-5.161951
-0.298131
2.831006
-1.222712
-4.686328
-0.420028
-4.555936
3.340046
5.899266
1.448395
0.659801
4.158180
-3.256874
-3.571896
-1.886597
-1.129692
1.098093
1.261344
0.555561
-0.133119
0.443054
-1.755487
5.260044
-0.683708
-2.167417
-2.095649
2.031262
4.503253
-1.580749
4.597479
-3.273950
3.512074
-3.294536
-7.939865
2.567419
-6.285273
3.489257
1.444192
-2.203707
-1.158169
-3.776795
0.341601
4.303347
-5.653585
0.859339
-4.525780
-4.003849
-2.599800
1.008744
9.682313
-2.256463
-0.558867
-0.855221
-3.187041
-1.914357
-3.104500
-6.209005
5.822609
-0.219357
-1.062201
-2.869082
-2.525120
4.243681
-1.752337
-4.625897
-0.941460
3.698187
-1.156174
-3.296626
-3.457094
-2.162308
2.836353
7.854066
3.032992
0.310357
-2.098451
7.552475
-3.729507
-6.474269
1.704558
0.182122
-2.024258
-1.167448
2.692033
1.449908
7.550636
0.215274
-0.725494
-8.640587
4.033615
-0.011440
1.543905
3.996074
-1.284557
4.038316
4.530407
5.980664
1.647183
-3.863027
0.585170
-0.039139
1.383873
-3.206014
-2.681721
0.995175
-1.572087
-0.051655
1.233069
0.722657
-4.921473
-0.479486
-0.988002
-1.016680
-5.196784
-3.139912
-4.962133
-4.238454
-0.863732
-2.357869
-4.294182
-3.596460
-2.130885
2.779808
-3.467023
-1.400858
-2.022361
4.697454
-5.391616
-4.314965
-3.169731
-1.629071
-2.431035
-4.202495
-8.736740
0.001353
-2.789412
0.565753
-2.763442
1.299378
0.327110
-0.776566
1.340943
-1.962912
1.076376
-0.522691
-3.917946
3.039633
-0.936097
-2.995141
-1.389448
-0.349170
5.426447
2.485938
2.719019
3.515289
-2.080523
-1.784572
-1.140333
-5.928282
-5.431642
3.823537
-1.722281
4.018787
5.395970
-1.546459
-1.043006
-4.259880
-7.699877
0.421185
-1.563189
1.868129
-8.984458
1.622779
0.440501
0.130091
4.835619
-2.162551
-6.471625
5.250702
-2.833741
-2.510930
6.227801
-0.594662
-2.235339
-3.427538
-0.465281
-0.316076
-2.377180
0.696080
0.005870
-4.943059
4.525158
-4.644511
-1.268692
4.183071
5.235377
2.900311
-2.390573
1.452537
-0.160147
-3.198486
-8.420922
3.005372
-5.275499
-10.532185
0.538063
2.737466
-0.469648
0.763719
0.689056
-7.726056
-1.556736
-2.539304
4.020909
-1.228721
3.325264
4.016237
-2.212112
-1.813190
-0.990975
-4.028013
0.657764
5.464604
-2.090388
-4.728316
4.808197
-6.516962
0.024191
1.258427
-5.378913
1.856640
-0.833292
-0.487885
-0.248636
4.141934
-3.819389
-3.372568
0.747177
-2.197514
-0.751560
2.092118
-3.480039
-1.771689
4.491732
0.945242
2.124761
0.078605
1.329526
2.608473
7.117204
3.451750
2.392977
-0.848772
0.545897
-4.922471
3.858165
2.087628
-2.075344
-3.466976
-6.883147
4.203796
-5.509816
-3.050926
-0.247036
4.703747
2.670275
-1.397574
2.352910
-3.334099
-4.896817
-0.832149
-2.666542
-2.424156
1.364851
-8.805409
6.645896
0.905215
-0.376590
-1.124329
-0.020794
-4.201694
-0.464244
2.022376
-1.224014
-3.840998
-5.344860
0.193474
-3.072826
2.386240
4.825417
-0.890930
1.250504
0.358231
-2.352702
-1.166714
2.658995
2.262055
2.940360
-0.927661
-1.843992
0.139509
-2.866057
3.132984
-2.787560
0.568899
-3.473492
1.528394
1.572256
3.121846
4.700038
-0.636599
-5.771518
-5.749955
-0.395435
-0.404617
3.175529
-0.560146
0.633386
3.626085
-0.389340
-2.362295
-1.893327
-1.555979
0.770140
-2.599389
-2.180101
-2.512090
1.964981
-3.493565
1.039739
0.520363
-1.155701
-4.185665
1.682335
4.420587
3.105927
-4.527279
-1.025695
-3.160649
-4.601223
-2.862772
-0.653448
-1.681796
1.548111
0.348335
-3.017648
-3.872579
2.193140
2.000945
-0.932022
-1.921978
-3.074606
-0.160794
2.286169
-1.226587
-0.029926
0.088775
0.017098
-0.844243
1.379528
0.482978
3.131157
0.086683
-2.112537
0.297214
5.897320
-4.175664
-0.732904
0.360440
-0.611538
-1.762782
-2.370467
-0.756503
-0.408391
0.089623
0.334062
4.298895
2.207044
4.159946
2.341200
-0.025295
6.327206
-6.967323
-4.104322
3.832660
-5.611974
-3.442897
-6.471877
1.368117
-5.181300
-3.569543
-1.049490
-0.423936
-0.328607
-2.989679
-2.592416
-2.921071
1.407641
9.444983
-1.441680
-6.486679
0.189883
-0.528820
0.419437
-1.364760
-0.310733
-2.238966
1.308849
-0.792019
0.215557
-1.773773
3.743821
0.577264
-3.132138
2.261914
-0.602121
4.629087
3.867161
-2.806251
0.460096
-0.540373
2.163257
-3.119175
-7.695887
-1.698435
-1.812837
0.435166
-5.495348
3.199897
-3.225631
-3.380793
-0.069667
-1.612399
-3.568112
6.862696
-6.756022
-3.821644
-3.624583
-1.050594
-5.228542
9.361169
-0.326763
0.767682
2.847842
-4.748341
1.130698
-2.147037
-1.705231
1.783732
1.305555
-3.588529
-2.555242
-1.967108
2.227071
-1.486746
1.087842
1.674990
2.185786
1.748191
-0.941291
-1.186586
1.557739
-1.171571
-3.062392
0.747278
-1.306302
-0.354586
-2.849327
-0.187019
-0.465876
-6.370844
-1.927086
-0.622482
0.356397
0.036722
0.813634
-0.622983
2.148876
1.681267
1.317675
1.486020
2.865975
2.450834
-1.392532
-5.168731
-2.336199
-1.766877
-2.309503
-5.507491
4.801086
2.274781
-2.563164
-3.076044
-1.037956
-2.264933
3.438365
2.105158
-2.499118
1.027683
-3.591336
5.555392
-1.308055
-2.619173
-0.994165
3.759120
2.966398
4.649120
-1.170650
-4.341874
-4.878167
-0.516819
-3.368197
0.788107
-2.093311
-0.763302
-1.333603
-2.941118
2.979738
0.739788
0.513817
4.136487
0.914575
2.682634
0.834649
7.011217
-0.056110
5.060563
-1.596684
2.823499
0.560462
2.195408
0.136664
-0.357342
3.298609
-1.989915
-3.671885
0.188957
0.850987
-1.930137
-2.661022
-5.420581
3.007506
0.305844
3.765379
-5.949337
0.252418
-4.322895
4.060341
-4.890460
1.328125
-3.290861
-4.052364
2.194690
0.522796
4.285271
-0.686773
-1.410065
-4.744553
-4.837558
-3.928150
0.967763
5.137644
-6.339938
-0.402737
1.543755
-3.026771
0.018177
2.857947
0.359161
4.088281
5.279100
-1.762461
-0.693651
4.283441
1.575338
0.439786
0.368011
-1.103798
-2.468559
0.881243
-2.595538
0.324268
1.477809
2.334075
-2.698036
3.492063
-1.934793
-1.351670
0.722608
-1.060349
-0.392081
1.390450
-3.890709
0.407402
-1.565726
0.173229
-6.380431
1.072236
-0.338477
-1.473314
1.344802
6.047328
0.039042
3.269903
-4.816609
-0.461628
0.809365
0.011715
-3.155384
-2.139273
4.035200
-3.645663
0.881517
1.239788
5.478443
-2.709965
0.731857
-0.566063
0.396409
1.217432
1.143634
-7.270870
-0.371879
0.087169
-2.237022
-0.557157
0.972767
-2.644617
-1.159774
3.503409
3.331645
-1.957829
0.405398
-2.616759
3.445194
1.841628
-4.952909
0.297759
-0.025249
-0.702982
-4.521217
2.490257
-0.533287
0.336507
2.261093
-4.278950
1.558128
-6.503071
-3.023566
3.764475
0.942990
-2.200090
-2.849646
1.251811
-3.911512
4.506865
-3.784099
-4.848702
-0.271761
-4.229448
-2.352964
0.693305
-1.917034
-1.718952
2.299848
-2.424731
0.377718
2.601231
4.457985
-2.041353
-2.503035
4.293638
7.687597
1.013141
1.189586
3.300431
-2.557353
-7.335542
1.004338
1.843977
1.082120
5.533210
2.863440
-6.184572
1.027867
-0.338249
-0.000748
-0.354760
-0.316535
-0.912138
2.492729
0.040363
-2.019190
3.238202
-5.846686
-0.194575
-0.279953
-4.432013
-3.974956
-2.855596
1.795868
-1.269682
6.364829
-2.271588
5.137024
4.515603
1.321211
-4.165461
-0.691704
-2.444858
-2.540844
-2.749316
-1.140896
2.777960
4.558444
0.448937
1.070084
-1.007380
-1.229366
-0.857482
5.257955
0.768166
0.160427
1.736263
-1.306679
3.864472
-0.115109
-0.578278
-4.362276
-4.550726
-5.182967
2.608376
2.315534
0.059634
0.069762
-2.759712
2.823790
2.692655
5.014542
2.322057
0.961309
-0.093812
0.211475
-0.357117
1.010657
-4.254307
0.648040
-1.477903
0.840147
-2.682115
4.175897
4.628487
-0.411686
-0.964320
-2.674973
0.908596
0.814515
-0.298015
3.265051
0.287363
-4.937155
-6.733278
-2.602254
1.987631
-5.118602
1.607693
0.205055
-1.643908
3.869397
0.244262
-6.844147
3.082815
-2.814471
-1.238925
-6.664257
-5.264317
0.773167
-5.749191
-7.200110
-4.715663
-7.432029
1.854665
0.933248
-3.109884
-0.914033
-3.019829
1.385306
2.835909
-3.228297
-5.183849
-0.026356
-1.840022
-1.283563
-4.890076
-2.476519
-0.595382
-1.533939
-1.560167
-4.637896
-2.430922
-0.493168
-1.813475
0.026644
-0.031190
-2.098759
-1.531191
-1.938838
-6.907534
-1.409854
0.344233
1.449424
2.836647
1.158365
-1.087228
0.870034
-1.209663
-2.712209
-2.863204
-2.008411
-3.770014
2.235202
0.309647
-5.089392
-0.643485
-5.522986
-4.575023
-0.481972
-0.765901
-4.099917
5.194563
1.797583
-0.730072
-4.247814
3.157427
-1.280678
-1.053716
-5.806293
-1.314751
-3.118092
-1.896119
3.762108
-2.405439
-1.023352
-3.724166
0.886927
-1.486851
-3.332283
2.006491
-2.340588
-4.219620
0.246021
-3.538712
-0.002237
2.092179
1.468542
1.018134
-0.002412
-3.125591
-4.381924
1.981707
1.218660
6.454744
1.692351
4.477286
-3.272700
1.014862
-1.786767
1.021226
3.209004
-2.698337
0.329575
-4.516548
2.430490
-5.019475
-3.553796
1.668426
-0.921779
-4.000578
-3.571085
-4.891372
-0.845735
0.601011
-2.839805
-0.634217
-0.189842
-8.143053
-1.813728
-2.528168
1.889361
-0.746538
0.993747
-0.850764
-4.399847
2.845388
0.527840
2.521751
0.533933
-1.082676
-2.549889
0.709177
3.013903
3.267215
-0.861180
6.549531
1.037051
1.868197
-1.183882
-1.830519
4.452184
-3.393756
5.380344
0.313760
2.688430
0.579853
-2.163490
0.547903
-1.736335
-1.697695
-2.872426
3.515700
-2.610127
0.242238
-4.240052
-2.744022
4.900296
-3.328606
-2.762749
0.475610
-2.699214
6.261006
1.624465
0.446285
0.164947
-0.800102
-3.027916
3.273203
-5.705318
-10.779444
0.448009
-1.355384
-1.120975
-1.509551
-1.209600
-3.441649
2.150147
2.358650
-1.252685
3.634205
3.073322
-0.619742
-3.561185
-0.471202
4.050813
0.611343
0.712892
-2.957599
2.486209
-0.044458
-0.869200
-2.713396
2.690058
-1.465663
2.201054
4.915905
-2.937152
-0.386184
4.599178
-2.212970
1.095090
3.022830
0.110209
0.962076
1.162085
1.204817
-0.956209
-1.460710
0.646750
-0.850583
-3.398737
-1.063741
1.832549
2.121563
0.076733
-5.578245
2.807295
-0.977457
-4.839016
0.955968
-2.033498
-1.625497
2.705795
-0.257534
1.544329
0.597466
-5.663646
6.337681
5.152376
-1.086140
-0.485872
-4.166552
3.121845
-1.266464
-2.672959
-1.934126
3.236010
2.342397
6.321325
-0.440420
2.898160
-2.370675
4.369500
1.702855
6.501355
-0.455903
6.924113
-3.321004
-0.978786
0.703615
-0.790514
-7.322737
5.100762
-0.653906
-1.658598
-1.356106
1.556404
0.648702
6.283830
-2.908853
3.249044
-3.163840
0.343066
2.563410
-2.137045
-1.566131
-1.147062
-0.405867
-0.331467
0.976589
1.369109
-2.382049
-0.321223
-0.308525
-0.939638
0.000087
-4.483251
-1.149971
1.018230
-5.239240
-4.603936
2.160666
6.378704
1.546058
0.707219
-1.977254
-4.906876
0.951951
-2.108646
0.714756
-0.760197
-1.567658
-1.128930
2.372453
2.265231
3.686329
-2.750556
-6.076830
-1.139409
-2.937336
-5.041475
-1.875874
1.543163
0.119033
-1.550627
-4.327275
-0.455151
-0.477440
-0.582818
3.106555
-2.365816
-1.943104
0.278312
0.935961
-1.785613
3.367201
7.652057
-3.469385
4.552925
3.053324
-1.925336
-1.026944
-0.937485
-0.080651
-0.412771
0.914667
1.347677
-1.190800
-1.560334
0.544199
-1.533247
-2.370136
1.362146
-0.746627
-0.323068
-0.314405
0.423689
-1.231776
0.686489
2.574491
-0.700355
3.893093
1.849047
1.478816
0.361409
4.574014
-4.138548
-0.799986
-2.295179
0.519692
0.273164
-4.292245
-3.817542
-1.008976
1.405391
-1.097892
-0.396692
4.838017
-2.743623
-0.650343
2.545511
3.155994
0.142438
-4.146936
3.435706
-2.758632
-1.411508
4.000321
6.703619
3.130319
-0.491466
-1.776870
-3.143512
1.656246
6.702883
-0.065397
-1.279105
0.430306
1.323794
1.260960
0.065801
2.749878
3.141238
0.338905
-4.874333
-6.721109
-3.095809
1.264526
0.970070
6.723961
3.123657
0.482144
-2.575196
-0.324071
-1.256803
-3.569768
-2.242168
4.945245
-0.347783
-7.183355
0.443535
2.817990
1.792197
6.264577
4.608958
-1.202354
-2.729917
2.301478
1.272185
-0.547344
0.977259
0.546808
-3.637444
3.674455
-4.913461
-2.752844
0.581553
-1.707105
-3.762492
7.472935
3.925738
2.351798
0.673011
-4.101838
-0.889880
0.416090
2.690454
-0.020241
-1.370302
-0.748109
1.068562
0.917079
-4.686544
5.224547
1.824326
1.967213
-0.099757
3.119402
-3.512161
-0.257015
2.468554
-0.686759
-1.485962
-6.902006
-3.551847
5.951984
-3.799450
-1.407674
0.988975
1.559537
-4.328579
-2.633616
0.983246
-0.413674
2.460590
2.732682
1.780017
-3.351762
2.346783
4.450664
-2.268061
1.434339
4.734473
-1.755187
-0.508894
-0.552450
1.347194
-0.007546
-2.464208
-1.103503
-0.323926
-0.105528
3.840556
-0.976895
-0.034241
-1.965605
0.165310
1.506201
-0.872352
-4.238455
-0.127789
7.144486
2.452759
2.641829
3.226433
-4.169478
-5.315203
0.430203
4.136640
-0.991377
-0.920095
-0.937269
-2.968765
3.087510
2.586662
2.008694
0.121089
0.327097
-3.110993
3.303680
-1.040458
-2.421969
4.343471
-1.610993
0.102081
-0.500978
5.637758
-2.515061
0.310164
-2.092843
6.040849
-2.634498
1.156297
4.859199
-9.596486
5.781463
-1.996738
-1.926896
1.928529
-1.976269
-0.016211
-0.934251
-1.816714
1.197535
4.804435
-4.778584
1.032293
2.416601
0.526338
1.829792
1.269119
1.903862
2.034644
-2.780704
0.542386
3.231842
0.469191
-4.332487
-2.069249
0.309657
0.866347
-1.512124
0.180014
2.036222
0.361392
2.572501
-5.244489
0.852256
0.238946
-1.884455
3.857992
-0.960418
3.274409
-1.300800
2.776892
3.732373
3.133326
0.030397
-0.385275
0.895620
0.796191
-0.806623
2.600262
-8.005391
-3.046619
-1.613247
-3.851214
2.338099
-1.055412
0.989613
-3.463315
1.458571
-1.436206
-3.608831
-4.811204
5.059369
5.779241
2.629858
-3.698850
-1.744292
0.194082
-1.067310
2.452050
0.102698
-0.682683
-3.051703
-1.304053
1.142883
-4.321607
-0.634662
-0.428589
-6.008660
-6.031519
-1.563360
4.387569
-4.641159
4.367059
-0.117086
-2.047834
-4.257499
0.849545
1.673307
-1.131223
-5.842998
3.759098
-1.476822
-0.496605
-1.819525
3.194274
1.810886
0.586827
4.712507
1.631234
0.054258
6.584116
7.098219
-0.847209
-5.044304
-0.017001
0.846836
-0.945524
6.482475
1.782870
-5.490261
3.298358
1.453929
-0.592964
-2.283498
-2.150272
7.854374
0.953147
-1.572211
-0.038955
-1.998584
-3.176095
4.639052
-4.218095
3.879095
1.893088
-3.195000
-0.282876
-0.478249
-5.520451
-2.202321
2.019004
1.748755
-7.167064
-0.213505
0.599274
3.887591
-4.749714
-0.043232
-4.420261
2.005849
0.129983
4.243872
-0.850579
-2.777024
-2.521106
4.164684
0.846143
-0.399880
-0.896656
3.255140
1.975373
4.761821
-1.744414
5.021589
6.554301
1.945430
-0.981268
-2.940107
3.214010
-0.416655
-0.137974
-0.619898
1.958150
-0.379120
0.918331
0.130863
0.694773
-1.878027
-0.541782
-1.429807
1.293034
0.553907
8.220438
3.863334
5.958789
0.005986
1.557208
-0.920605
6.996312
-0.522063
-0.438607
0.189422
0.845236
-4.294261
2.008229
0.115940
4.651354
0.883394
-1.408803
-2.803865
-4.134751
-2.108217
-0.560717
-1.618361
-2.069066
-1.639775
-5.397437
2.491006
0.100061
-3.683108
-4.265660
1.432784
-2.950963
0.177306
-5.578473
-1.231660
3.160462
-2.833935
-2.883034
-0.667344
-0.650501
0.548350
-0.062925
0.441419
1.331239
1.390702
-2.177894
-7.048820
-2.465388
1.726942
0.989568
4.466268
0.803501
1.763404
-2.821993
-1.633345
0.054499
-0.555375
3.568325
-0.023065
-5.369310
4.139445
5.958563
5.754783
-0.535334
4.142163
-6.763955
-4.346903
-4.127802
1.207786
-2.396585
-3.293496
-1.503717
-0.203731
-4.604063
2.961888
-2.702673
-0.198608
0.494534
5.456389
1.988296
4.286380
1.232106
-1.366597
-1.230246
-1.495085
1.966722
-6.412103
-2.982099
1.398522
-1.642308
-1.964363
-0.062975
-3.973470
8.670875
-3.325376
3.106644
-6.058362
-0.312764
3.123834
-1.539077
0.283748
1.686001
-4.215441
-4.399266
-0.490821
-3.374438
-3.030216
-1.506836
1.222379
-5.580411
-2.560182
-2.438921
0.842357
-0.794402
-1.083252
-1.430488
-7.934767
1.329926
-0.507430
3.374529
-0.713045
1.238245
-3.742363
-0.750841
-1.145340
-7.620160
-0.648074
3.937018
0.984729
5.027705
1.156936
-4.223938
-0.726135
3.268353
-0.165372
2.787248
3.727116
-2.895884
1.210791
1.752176
5.200767
2.279992
-2.546526
3.578759
-1.622326
4.549955
-3.386587
1.903769
-0.024975
5.704918
-3.316417
-3.904705
-1.507755
-5.386008
-2.077627
3.335394
-4.780511
0.428698
3.664262
1.587350
3.040202
1.396984
-0.189632
-0.472147
0.158877
2.218650
-6.150445
-0.773499
-0.874198
-2.434973
-1.978335
1.448168
3.081335
-3.099173
-0.701826
1.959257
-0.254417
-0.090439
-2.607618
3.156063
6.005243
-0.702859
1.115850
1.574395
-0.347269
-3.958450
0.257742
-3.265937
-1.578318
-1.152010
-0.752619
-0.604512
-5.101713
-1.371474
-1.704649
-2.914304
-2.135173
-1.185022
-1.774363
-5.181212
-6.688629
3.903428
4.584545
2.651558
-4.137034
0.511400
-4.245607
-0.324147
1.631362
-0.133709
-4.524160
0.702191
-3.776921
-4.868890
-1.064480
-0.415360
0.183997
0.305626
-1.466629
-3.743710
-0.647802
1.439716
-0.891397
-2.866224
-1.615918
-3.185756
-2.890482
0.324427
-3.521180
-1.128852
-2.313986
0.943213
-1.196006
1.730823
-4.742101
-1.712626
-2.523417
1.912005
1.754650
-0.686673
-0.371530
1.513476
-5.430932
0.544654
-2.226015
1.646464
6.792818
