-0.505993
0.003222
1.701448
-0.591966
-1.946690
2.334926
1.459152
-3.643578
1.088719
0.524440
-2.227396
0.121587
-0.847772
1.863543
-2.402709
-0.345305
0.532724
-4.068897
0.469874
-1.409508
2.522411
-4.072197
0.607958
2.212077
6.059823
-0.593203
-1.748417
-0.051432
0.558637
-0.908494
0.575218
2.140179
0.638282
-3.513553
1.679969
-1.681206
-1.033803
0.651815
-1.336145
-1.876387
0.083302
1.281795
-0.504129
-1.153324
2.801093
-1.042321
0.869523
-2.224569
1.827625
0.507000
3.077316
-1.286624
1.158072
-1.328789
0.472661
-3.362598
0.440658
-4.275924
-3.406834
-0.211744
-0.129174
1.472674
-0.968403
2.472738
-1.502366
1.248497
3.636173
2.610448
1.345661
2.813032
-0.857234
3.327279
2.358565
-2.141599
-2.445944
-0.845506
-3.881110
-5.223776
2.014123
-0.386976
-1.903315
3.541039
2.066749
-0.197851
0.469726
4.080473
1.750643
-0.322773
1.101165
3.387556
-4.702658
-2.158011
-3.377057
-3.341945
0.177994
0.322931
-1.543517
-2.085924
2.933645
-3.803596
-1.271147
-0.089704
1.600302
-1.492210
-2.217723
0.053528
-0.785720
2.461839
1.904376
-2.851773
0.532276
-0.320582
-2.665622
-2.386283
-0.928749
0.750845
3.710054
5.145810
-1.680351
1.025008
0.646884
-2.548257
-3.472693
5.001864
-0.868084
1.755903
2.125110
0.524441
0.490127
0.403512
2.024845
-3.796503
0.308059
0.551291
-3.115088
-0.325305
-0.482872
-2.289211
-2.406937
2.043433
0.311859
-1.791531
1.502246
1.105924
3.093766
-3.197024
-0.463179
0.711481
-2.289394
1.333075
-0.609913
-0.365607
-4.239263
-0.757843
1.299367
-0.058126
-1.030897
-0.084935
0.347614
-1.611308
3.583539
0.057018
-0.695467
0.887395
1.955886
0.057063
2.272351
0.022046
1.174032
0.463403
-2.034176
1.212345
-1.851801
-1.228647
2.326446
3.443491
-3.201145
0.020391
6.793751
-0.314147
-5.637680
1.531048
-1.245792
4.259817
1.931924
2.351629
-3.262788
-1.917146
2.607217
2.860652
2.377087
1.167041
-0.183673
5.120545
-0.823241
-1.280312
0.822216
4.202537
-1.393544
3.007476
4.240261
0.865058
-0.226197
-1.283091
-2.630665
-1.405306
-2.795440
2.685383
4.271110
3.966819
4.671084
-3.336117
0.475130
-1.486221
0.333230
0.577191
-4.547026
1.383187
1.930408
0.061226
-1.220344
1.039559
-0.463378
-0.176766
0.441297
1.526610
-0.169180
1.312901
-2.328705
1.679872
-1.874934
-0.048740
-0.426026
4.122293
3.777012
0.898733
5.444878
3.435238
-0.378921
-0.958732
2.604735
2.771089
0.469039
-1.559725
-2.866792
1.903153
0.656733
-3.064645
0.133507
-2.695992
-0.408539
4.439448
-0.613647
2.025978
-3.411905
0.741567
2.042148
-1.700740
-2.771516
2.241191
2.309539
2.457763
0.227495
-3.515810
1.289998
1.918715
-2.155318
-2.633352
0.305054
-0.455184
4.576061
-1.650809
-1.359467
1.981478
-0.365524
-0.918694
-0.473597
0.997692
-4.562894
-3.897534
3.717847
-0.305812
-1.855582
1.453163
2.201918
1.176556
-1.822355
0.565530
6.882072
-1.493727
-0.648741
0.202286
-1.666800
4.422766
-0.865375
-2.899662
0.502418
-0.000579
2.956687
-0.195840
-0.544657
-0.354726
-2.342754
-1.939088
3.693643
-1.546855
-1.056303
0.452792
1.869269
-4.626525
-5.189732
-0.429504
0.599287
-2.985507
0.686203
-0.038589
-3.827501
-1.942008
-2.076447
2.600845
-2.534529
4.570557
0.108318
-2.627940
2.886696
-3.475832
-0.192833
0.561097
-0.641425
-0.559655
1.880357
4.260290
-2.472364
1.030376
-3.226994
-0.651794
-1.417937
-0.606524
0.257718
-0.065632
-0.836703
-1.075417
-3.154294
4.745604
0.987499
2.053692
2.014499
0.139228
-3.542069
4.055783
1.726525
0.155493
7.550943
0.087116
-0.539868
-0.381015
-2.546741
-1.630139
0.443031
1.456726
-0.436443
1.590189
1.596751
4.412745
2.292514
2.940416
-3.948136
1.164935
-0.085504
-2.578202
0.535237
-0.202067
-0.302044
-2.308670
-0.743973
-2.692219
0.947943
-6.619931
-2.420003
-2.138842
-4.942782
-3.915190
2.938880
-0.045919
-2.115573
-2.131065
0.218813
1.853067
1.020070
4.718773
-0.137364
1.890970
1.772265
0.570967
-1.644793
-0.406559
1.033507
2.955050
0.774298
-1.487172
1.081504
-1.774752
-2.086198
-0.348690
-0.853619
-1.494124
-1.609038
-1.921499
4.409143
1.326416
3.536971
1.912693
-0.788956
-0.819574
-0.490481
-0.449998
-1.700422
-2.413334
-3.122964
-0.605605
-1.984933
2.972030
0.691715
-1.169566
-0.074594
3.830959
2.180410
-1.796949
4.322856
-3.403254
0.113000
-1.040571
-2.258943
2.339142
-5.046861
1.682533
-1.611038
0.580080
2.505127
-1.130386
-2.392782
-2.057663
-0.318224
-0.498233
1.595031
0.650835
-1.242324
-3.288004
3.138108
4.735773
0.311517
-4.129534
-2.342419
-0.922801
-2.737956
-1.174842
-3.619145
-5.415386
0.764770
-2.692082
3.226427
-2.396654
2.939028
1.792670
-3.728483
-2.432879
-3.325559
-4.545141
-1.999143
-0.820382
0.995942
-0.103480
-1.303423
0.733747
1.998921
1.145389
2.710000
-4.439961
6.355976
-0.275369
-1.583377
3.634291
0.703384
0.401646
-0.476772
5.046821
2.226211
-0.874116
-0.362264
-2.010931
1.835057
1.667808
2.330944
-1.576093
0.827793
-1.719521
-0.978013
-3.755985
-3.710818
0.703473
-1.394061
-1.073193
-2.692855
0.517841
-3.472197
1.353243
1.739759
1.144466
2.950545
0.147166
0.726687
0.224167
1.215672
2.304497
1.505744
-3.573183
-0.221210
-2.718702
-0.384365
1.770198
-1.662794
0.982554
6.437879
1.822562
-5.260887
0.295577
-0.757511
-0.453879
-3.730155
3.292779
2.072801
-2.165709
-1.658360
-0.606776
-0.630061
2.370009
-0.525861
-5.907099
-0.998271
0.209084
-2.773967
1.599935
0.137899
0.983616
-2.010672
1.958946
-2.453784
-1.969041
3.231644
-1.190599
2.773731
-1.622430
0.253534
0.154738
0.853650
1.451466
4.033322
0.713213
1.992618
-1.235796
-3.176266
-1.012700
-0.037819
1.839898
0.372676
0.718268
-0.265250
4.231596
7.311018
0.837360
-1.600225
-1.781393
-1.628982
2.431082
-0.631691
-3.737485
2.351901
3.406479
-1.983066
-0.288586
0.273766
1.879053
-5.824828
-2.621805
0.275085
-1.327402
-3.614529
0.719694
3.002812
1.160448
-2.078998
-0.075921
1.295378
0.660738
-0.788188
-0.455300
3.606580
1.192066
1.180879
-0.390970
-1.935131
-0.416649
0.967530
2.019733
-3.422886
2.267120
-3.735043
-1.501659
3.609421
-3.874017
1.382059
0.525886
0.520351
-2.215522
-1.878408
-2.516176
-1.548446
-4.491954
0.523835
2.826245
0.195527
1.728493
3.379541
-2.096932
0.714670
0.696082
0.046875
3.392050
-1.982361
-1.039985
-3.297999
-2.331068
-5.470970
0.460820
-1.858212
-0.008047
-0.905731
1.287899
-0.730936
-2.039274
4.518494
1.132362
1.391800
-1.183051
-0.778505
-2.331450
-0.243133
-0.386608
0.527451
-3.234157
2.521684
-0.825837
-2.782416
-1.159755
-4.492570
1.342280
2.467399
2.042293
-0.992738
0.679763
-3.156332
-0.514904
1.982003
1.320512
-1.129834
1.067518
-0.797248
-0.502469
2.117386
0.153049
-2.821875
-0.925660
-0.573941
0.976428
2.562441
-2.317912
1.258216
3.126155
-3.798556
-1.901835
-1.089623
3.517153
-0.854302
3.611356
2.422924
0.502760
-0.328751
-0.885491
-1.610092
-0.763531
0.258624
-3.232355
0.616138
-0.064582
-0.138974
3.168865
-1.457912
0.497664
-0.268222
2.893673
1.571111
-1.053340
2.700808
-2.532507
0.505694
0.466922
1.342715
-2.274799
-0.567209
0.796993
0.008653
2.509068
1.440120
0.249380
2.207400
1.408299
-0.616508
5.266753
-0.022337
4.268758
0.870832
4.877668
0.568042
1.133617
-1.874235
-2.420788
-3.859335
2.205436
1.423902
0.746434
0.706343
1.340543
-2.540294
5.373965
2.664833
2.453413
-1.018946
-0.772160
-0.596121
-1.767759
-0.127609
3.283170
1.625915
-0.724616
1.656883
0.312033
-0.363747
1.877112
-1.363134
1.131246
1.540489
-0.913491
1.011670
0.091565
-3.583998
-1.909122
4.708186
3.158814
-3.085185
2.358274
1.529099
-0.900351
3.368282
0.618180
3.257384
2.226099
3.793309
-3.376935
-0.229178
-3.073563
-0.326699
1.035597
3.560813
-1.967909
2.839214
0.560781
-1.735586
-0.665430
-1.129338
0.247358
-0.941430
2.295401
0.864867
-1.051529
1.266498
3.783356
-0.581616
-1.282810
-0.908552
5.039913
1.129236
-0.811282
-3.528641
-0.551435
-0.995248
0.040599
-2.426842
-2.999016
2.515571
-0.005062
-0.844103
-0.304401
3.502202
2.938667
2.079104
1.313933
7.119683
0.698631
-0.059218
-1.711668
1.603341
2.315371
-1.897686
0.286091
1.282533
1.008246
-3.431167
1.280159
-2.097085
-3.123720
1.772912
0.620232
3.368533
-4.877899
-1.223745
-3.356962
-0.316079
2.811229
3.824448
-3.705468
3.372576
5.443973
-0.052930
-0.321022
1.738835
1.804306
0.990830
2.120887
2.923140
-2.730412
3.769296
0.592782
1.927462
0.410649
0.121990
-2.859927
-2.977631
0.366652
-1.676389
1.193429
-0.882711
1.621147
2.257539
2.318500
-0.619774
-0.677428
-2.243643
-0.512398
1.989366
-5.759648
3.041647
-0.287171
-1.496225
2.281901
3.606749
-2.088289
0.739350
-0.807720
-2.291828
2.809887
0.767302
-1.530889
-0.710779
3.559779
3.435756
5.444346
-3.714710
4.193410
-1.697360
0.821992
3.037805
-2.224462
-1.052338
3.116852
-4.125094
-1.905007
1.404874
1.371448
1.681192
1.382210
-1.952764
-1.172564
0.270005
3.217004
2.860599
-1.448512
0.398865
-2.978640
0.533330
1.335441
-1.937053
-0.766306
4.080329
0.790644
0.469854
-2.887828
-1.617309
0.381997
-3.668201
-3.567925
0.884305
0.192493
2.031619
-2.949236
-3.703273
2.900469
1.973332
-1.971403
2.095754
1.342101
-3.441190
2.109246
-2.173060
-0.213163
3.425148
-1.537045
-3.190538
0.386350
-0.656193
3.256555
-0.036544
0.636855
-1.594345
0.856170
2.569911
0.656514
-2.288201
-2.648836
1.947800
-1.514011
-3.875845
1.429149
0.118210
1.283728
-1.619744
2.415025
-1.349563
1.886154
-0.709391
1.374409
-0.897585
0.508601
-3.681545
-0.805214
-3.664675
-0.029162
1.821253
0.651083
4.261659
-1.621155
-0.928374
-3.020650
0.771578
-2.555166
1.079993
-0.802533
-1.096196
4.232145
-2.484312
0.767123
-2.865222
2.335123
0.340923
2.190591
0.368903
-1.799274
1.362158
1.870280
-1.768363
-0.662668
-2.163532
0.944803
-4.134807
0.146225
1.838285
1.454466
-0.848013
0.405150
-0.986207
0.678939
-1.131178
4.499529
-3.664861
-1.764011
1.376157
1.292075
-1.959476
3.248290
3.020121
0.008157
-0.566682
1.653130
1.542524
-2.290985
1.028706
-0.456288
3.380738
-0.033244
-0.366081
0.602817
0.615282
0.250670
1.381966
-2.403487
-3.857001
2.540791
3.683262
-1.863590
-1.440964
1.375527
-0.322313
-1.286243
-4.962969
3.831999
5.687098
-3.469759
-3.355585
0.837358
-2.520209
-0.402910
1.900492
1.391400
-0.756501
3.966126
-1.753067
3.260414
2.835475
0.273335
0.019003
-0.440253
-1.144222
0.590160
2.757195
-0.583803
0.313859
1.021144
1.715811
3.514495
0.221373
0.191210
-1.499902
2.701116
6.157114
-1.691624
-2.181197
3.866795
-1.251177
2.554491
-4.637616
-0.475698
-2.754011
-1.282428
3.713178
2.047281
0.850089
0.890611
1.971629
0.955199
5.883712
-1.378675
0.431164
-1.112454
0.269282
1.250468
-1.222938
4.074338
-2.986017
5.131547
4.789271
-0.628856
0.236754
-1.260285
0.478675
-1.311616
1.982355
-1.015727
-0.068601
-0.719024
4.056356
-0.633417
2.000271
1.142545
3.647987
-6.107014
2.564425
-5.451700
-3.197215
1.914320
-3.476975
1.236730
1.298672
2.367806
-1.492521
-0.458793
0.434116
0.116666
3.670995
-1.929443
-2.537358
1.121408
-3.118228
4.583528
3.427800
-0.274180
-0.244450
-1.240993
0.750961
-1.982396
4.550879
0.069672
3.576354
3.271040
-1.045259
-1.751167
-4.487229
-0.514640
-2.946885
1.448310
2.150443
-0.327684
0.860619
-0.823249
0.677368
2.527033
-0.315951
-1.637460
-0.009200
-1.489959
1.121490
5.007869
1.071325
-0.697470
-2.599584
-1.872691
-0.587875
-1.840219
2.145886
-2.163430
1.486600
-0.485596
-0.813161
-1.134443
3.330684
-2.942030
-1.313056
-1.969078
-2.466599
2.030844
1.955249
-0.042121
2.818417
-0.218979
-2.078877
-0.339671
-0.667749
0.947153
0.278098
-1.953852
1.600411
1.701849
-0.406320
-1.355482
-4.028416
-1.200801
-1.971642
1.134272
-1.955044
0.475708
1.319301
-4.400643
-0.393225
-2.034336
-3.536936
1.794403
4.418679
2.357306
-1.137017
-0.437808
-1.341224
-1.542356
1.960345
2.544187
5.149918
-0.088716
0.471117
-3.875340
2.694419
-1.938995
4.521364
2.554945
-0.808098
-3.347083
0.421774
3.500848
2.442260
2.119994
-2.204104
0.495836
-4.001625
-1.071072
-0.855385
3.835887
0.707528
-1.340312
-0.608590
2.109659
-3.022180
-0.546824
4.748794
-2.885278
-4.769347
-0.380596
0.962610
-0.107444
4.827633
-2.774469
-3.487717
1.948063
-0.894335
-0.425668
0.784829
-3.854886
0.845222
-0.628974
1.325206
-2.158733
-3.367391
-0.419521
1.793602
-4.008904
-1.939804
-0.481877
3.136190
0.136677
1.378258
-1.062385
-0.494506
-2.222744
-4.298540
-0.262714
0.026158
3.132327
2.458060
-4.100661
1.579143
-0.113999
1.650939
-2.019670
-1.812508
3.830367
-0.072243
-1.637252
-1.175385
1.721887
2.233462
0.622473
1.070561
3.217731
-1.275030
-2.440500
0.613200
-1.732390
-1.757686
0.734172
-2.371810
1.428478
-1.290479
2.542934
0.090407
-1.181147
1.735937
-0.166406
-0.405459
3.049271
3.616478
-5.094751
-0.672237
-4.046002
1.648049
0.932773
3.161513
-2.733656
0.711120
2.827513
5.625931
-1.303935
-1.790813
1.895163
0.562051
0.339121
-1.700039
-2.445791
-0.050875
-0.862367
-0.810362
-0.304402
0.066954
0.777754
-4.804724
-3.189017
-1.795288
0.536699
1.143120
0.686160
2.259595
-2.415557
-2.287620
-1.255414
-2.256495
-0.335007
-0.835551
-0.932932
2.081389
-3.326186
-3.223447
1.659507
0.112616
0.775364
-3.625603
-0.696958
4.387852
-2.214530
4.541408
-2.745733
-2.473760
0.199943
-1.066563
0.582087
0.491959
-1.635658
5.239242
1.247323
4.569308
-0.047280
-3.370560
-2.011326
-1.094236
-0.592864
0.011777
0.811079
-0.276847
-0.754128
0.101384
2.210760
-1.801373
-1.195552
1.309206
0.448778
3.101928
0.022851
-0.299987
1.392856
-1.734543
-1.953714
5.855358
-2.068181
-0.550961
-0.352120
-0.378611
-0.896124
2.695727
1.014355
-2.547871
-2.971075
0.442889
-3.632299
1.702256
-4.169660
3.928171
0.566671
-1.366480
-0.248825
0.022780
1.785644
2.099121
0.644622
3.736751
-2.617048
-2.115659
3.763966
-1.901843
2.984936
-1.263224
-0.580030
-0.064065
-0.056990
-0.320275
-1.484000
3.393261
-0.894897
-3.913460
1.830496
1.995442
1.261196
2.015810
0.695767
2.836635
2.818334
3.398739
-2.706628
3.357643
0.250553
0.048214
1.094720
0.172691
-1.520373
0.193562
-1.573916
-0.082229
-1.439644
2.087569
-1.972064
1.042687
2.837039
4.622138
2.952916
2.919927
-1.098350
1.205700
0.908527
0.797618
6.445226
0.865301
4.221047
-1.152553
1.202623
1.952620
-0.365193
0.342105
-3.741296
-1.718877
-1.426822
-2.992145
-4.707063
1.790037
-0.180598
-3.894736
2.305965
4.970491
-0.536099
3.436910
-1.998717
-1.472800
0.725686
-4.889309
2.810531
-3.073129
2.556672
-1.310009
1.734961
-0.247116
-2.132482
0.679228
-4.715677
-1.615198
-2.215062
1.351078
1.774777
1.729963
-2.217074
3.674093
0.449236
-0.679717
-1.021880
-2.215272
-2.380315
-1.202231
4.031531
0.664917
-0.633305
-0.596282
-0.465751
-2.107131
4.167659
-3.661009
-0.048522
-2.133013
0.346663
-0.939921
-0.743198
3.447153
-2.208306
-0.359598
-3.327332
0.169166
2.050776
-0.381322
-1.375384
-4.641432
-4.227357
4.001757
-2.598148
0.337309
1.708713
-0.362827
1.669166
-1.137860
-3.518971
1.478703
0.005396
-2.277220
-1.775660
-1.253465
1.721028
-0.054638
0.070395
0.557358
-2.358543
-2.851383
1.595376
2.037658
0.686395
0.910840
0.124953
-5.231432
-1.392892
1.792988
1.219824
1.333224
-2.004702
-2.232620
-4.077805
1.126580
-3.309196
2.045676
-2.327658
-6.942425
-2.782734
1.837287
5.996889
-1.894249
1.147671
-2.599178
-2.157959
-2.083526
-4.582440
-1.814724
-2.720008
4.963067
-3.341923
1.787119
1.347159
0.118196
-0.680282
-0.692648
-1.935365
-0.233267
-1.024595
1.554796
1.961327
2.173638
3.602242
-0.008999
0.771013
0.376464
-3.548966
-0.210695
-2.088783
-0.079022
-3.294300
1.475667
-2.858620
0.726996
-1.131096
-4.041710
-0.619020
-1.968079
2.185350
-1.285014
-1.697968
2.058835
4.456414
-0.388592
1.543803
-0.087243
1.044639
-2.534415
-3.256651
0.516191
2.066530
2.692838
-1.150491
-3.366313
-1.781103
-0.817426
-1.880216
0.407905
-2.304370
1.746553
-0.351124
0.589982
-1.654887
0.564955
3.183962
-2.806578
-1.622292
-1.706300
-1.721405
0.583642
2.163238
0.447331
1.643633
0.645774
5.740922
2.825204
-3.627699
-0.839307
1.104959
-3.180290
4.562945
0.252070
0.614383
0.309353
-2.846510
-0.333962
-0.803913
-2.318027
-1.095910
-1.935377
-1.115689
0.767176
3.175516
-1.441317
-0.175034
-2.153770
-0.802949
1.515271
3.704239
2.416281
-0.657819
-4.996486
-2.206618
-0.359231
2.987858
-2.019967
-1.926405
1.136912
-0.076298
-0.946916
-0.106057
-1.579298
0.915990
2.549530
2.058080
-3.300419
-0.816087
2.592229
-2.454741
1.651765
2.829137
0.421379
2.303108
2.454966
-0.575272
2.979464
-1.409700
2.269388
0.494861
0.158748
0.100678
-1.464377
1.431878
0.276233
1.576151
2.060127
-0.535549
1.424532
0.734875
1.440747
-2.386378
-0.349272
2.391253
-2.639021
-1.819074
1.973741
-1.131821
0.263382
2.048592
6.559104
-3.484299
-0.941355
-3.196622
0.059251
0.061603
0.835937
2.123630
3.876749
-0.653304
1.600911
-0.702795
0.136290
0.195022
1.460321
-0.794551
-1.747481
-3.267582
1.320819
0.365666
0.833878
-3.407089
0.369607
1.619132
-0.393040
1.925358
4.477213
0.318452
2.198540
0.109472
3.631230
2.657295
3.942118
-3.708928
0.441381
-5.165451
0.976159
-2.574125
2.237709
-0.805475
1.516899
5.929548
0.504419
-1.554200
0.057964
0.862723
-2.406197
-3.070240
-0.636188
-1.016703
-1.892385
1.345401
-2.313884
5.390061
2.269540
-0.365277
0.840555
0.077213
-0.850675
2.104487
-2.299934
-0.825481
-1.426032
0.829887
0.103010
0.593678
-1.040839
0.590635
1.167941
-5.018291
-1.263383
-1.950717
-0.256378
-1.905474
-0.277728
-0.424252
2.525230
-2.594003
1.485659
-5.810686
1.602772
-0.401810
0.636512
-1.320788
2.994793
-1.642159
-1.842094
1.568951
-1.817425
-0.972475
1.678701
-1.281628
0.654789
-0.455892
-1.066739
1.302689
-0.975076
-0.621260
0.227893
1.088313
-0.984540
0.021131
2.567428
-1.126925
-0.848101
-2.778116
1.549176
-2.657810
1.649170
-1.243893
1.116187
0.195674
-1.598440
-1.436011
-1.835071
5.261750
3.405022
3.316679
3.570388
0.585125
0.440820
-1.547580
2.990906
-0.052625
1.474433
0.893892
-1.753504
2.376048
4.057184
1.073933
0.399388
1.940211
-2.448127
0.239591
-1.396584
-1.473942
-0.183282
1.375749
3.230702
-1.170405
-0.472290
1.986083
-0.323851
-2.585031
-1.792212
-3.265498
-3.198822
-1.983147
1.454463
-1.828117
-0.501371
0.450642
0.027737
-2.253946
-0.241228
1.279444
-5.255531
-1.169511
-2.666702
4.899238
4.936794
3.911241
-1.106845
2.543404
-1.431856
-2.639170
4.675223
0.106906
-3.034172
0.321080
-4.801281
0.172665
5.281107
0.528894
4.592657
-2.162294
0.261452
1.205383
-0.447031
-0.140483
2.416807
-4.196652
1.028332
1.489764
-4.148986
-5.132222
0.906044
-0.132761
-0.902034
-4.786772
-0.432807
0.352177
-0.781937
0.616224
-0.794377
-2.721259
1.517841
0.533224
2.474699
1.881998
0.104020
0.402856
2.495968
1.520998
0.392214
1.428346
0.896702
3.929015
-0.290015
-7.983899
1.795393
1.411253
-4.987711
1.444948
2.888458
-0.495722
-0.533773
4.270396
3.198244
0.585915
-1.845887
-5.374428
5.312288
0.829679
-0.583792
-0.224154
-4.172299
-4.454431
-1.965585
5.477380
0.750631
-2.692698
3.351819
-0.622250
0.973055
-0.521391
-1.620250
0.137461
1.982699
-6.240069
0.886896
-1.710802
0.284495
2.773092
-1.327143
-0.778558
0.799059
2.878445
2.417835
-3.015720
-0.401772
1.290894
-2.830468
5.189488
0.806146
-2.067493
3.593638
-1.963164
-0.028590
2.467394
-1.996836
-2.121254
-2.959904
-3.703484
3.676849
3.503671
-3.048906
2.337283
-0.821746
0.948689
-0.140068
-5.989581
-2.601961
-0.755416
-3.246498
1.300822
-0.335973
-1.707185
-3.620761
3.052382
-2.038802
0.175422
2.338487
-4.492352
0.221727
-1.887854
-1.789385
2.189918
-3.626984
-4.445271
1.548173
2.266971
0.532518
-2.148825
4.037404
-3.328494
-0.634892
1.629232
0.082572
-1.814062
0.694770
3.353230
2.086203
1.858988
-2.216574
3.385954
2.771318
-2.748346
0.735716
-1.580934
1.486930
0.997819
2.389874
7.047892
-1.095136
-1.232426
3.477287
-5.324562
0.967484
-2.943544
1.829181
-0.594633
0.404974
2.110918
-2.934929
0.739250
-1.313891
-1.543909
1.494115
-0.403557
-4.704374
-0.924714
-1.544439
1.621212
-1.792481
-1.004766
-0.576285
3.239290
0.371400
-1.998680
-1.500923
4.105198
1.686032
1.237515
1.976229
1.109415
-2.067478
-3.400369
-1.858814
2.813961
-0.210607
1.564425
1.581590
-3.939736
2.339729
1.396090
0.972579
-3.215090
3.790414
-6.721650
-1.539200
5.120792
0.930556
1.396400
0.842021
2.464683
0.485456
-1.087957
-2.483296
0.402277
-0.707915
3.302579
5.863800
-1.022961
2.784769
1.912456
1.445281
0.266010
-1.724475
-0.760529
2.311820
0.768271
0.056147
-0.326914
-1.514564
0.298629
2.003873
1.046353
0.744342
-0.963251
0.052359
0.076733
2.469159
-0.523707
-1.401726
-0.316998
-3.622373
4.033498
2.404417
-0.162456
1.454085
2.822333
-1.590701
-0.466439
-3.998753
-0.767034
0.610423
-0.590245
1.116234
-1.423854
1.286450
-6.071140
-2.683942
0.995565
3.972380
0.552567
-4.853177
-3.564058
3.973254
-0.457331
-2.040871
2.136780
-1.005062
2.161905
0.997176
-1.847972
1.912941
-0.437744
-0.680874
1.861737
-4.098928
4.344093
-0.174576
-1.025593
-1.421319
2.855370
-4.206900
1.460278
-1.542529
1.815228
-1.493441
1.343368
1.607500
1.644250
-1.188530
-0.602470
-3.468646
1.779799
1.627468
3.566239
-2.400025
0.036607
-0.258564
0.597095
4.848445
0.527746
2.870130
-4.805440
0.302054
1.254175
-3.271339
-1.109515
1.983243
-2.028180
-0.014806
-3.836396
-2.999105
2.867346
1.627687
-0.602653
5.205587
-1.434510
-0.458835
-0.170076
1.744830
0.660283
6.119500
-0.259054
-2.240091
0.702931
2.028737
-2.376103
1.020950
-0.498362
4.132920
-5.672186
-0.010292
0.060948
1.291744
0.176713
1.130537
-0.101062
-2.454733
-1.913799
-0.370169
0.349456
1.086872
-4.318097
-0.320231
-3.968019
0.267223
-0.109535
0.446068
-0.944751
-0.071698
0.951602
2.089211
-1.227329
-0.721884
-1.506865
1.964438
-0.229567
0.719088
-0.031251
0.521659
0.411567
-1.461604
-3.208369
2.983779
3.140246
-1.233060
0.632137
2.220605
-1.426262
-2.630459
-2.615888
-2.171166
3.340531
0.831881
1.993565
-0.567661
4.040623
2.008990
-0.658812
1.664206
1.209977
2.149393
-1.716391
0.974829
2.781137
2.004783
-1.748657
-1.885185
1.468473
-0.093139
0.131283
-1.134970
0.348807
-2.207949
6.621969
-1.854069
2.475792
1.597585
-0.467948
-1.408468
1.450582
-0.607174
1.810726
-1.932689
-2.674984
-2.066089
-3.756600
-3.068246
1.223899
0.150768
-0.090289
-0.285262
-0.103936
-0.264280
1.203512
1.006818
-1.107560
-0.816444
0.216810
3.934121
-0.292030
-2.055651
-4.576010
1.867758
-2.023233
-2.568565
-2.597074
-3.386867
-1.041104
0.994262
-1.391483
-4.170683
-3.311378
0.028832
-2.003493
0.338416
-6.642459
-0.377640
-0.185303
-0.865894
-3.111799
2.498609
-0.746576
1.741428
-0.583155
-0.055534
-2.252082
0.038406
2.172338
4.498272
0.763296
-4.158125
-2.106581
-3.463036
0.892363
-1.927207
-1.696010
0.529958
2.116308
-1.673474
-0.203473
-0.160503
0.183836
3.640337
1.438824
4.094445
1.073531
2.448849
-0.556139
3.999568
-0.056908
2.220854
1.717898
0.817669
-1.723242
1.534182
-0.975092
-3.973630
-0.158209
-2.149476
1.196254
0.134664
-2.158726
2.761746
0.440473
0.634269
2.857844
-3.341363
-0.184958
-0.842070
2.651075
-4.726962
-2.021598
0.549292
-0.733599
-1.646114
-1.767747
-0.819243
2.068517
1.872613
0.765819
1.206971
-0.872057
2.970453
0.786816
1.592631
0.440077
-2.177659
-1.199571
1.871938
2.911044
-1.185361
-4.333595
1.461688
-3.704430
-3.291363
6.082629
3.473032
0.881767
1.033695
-0.524096
-6.508753
-1.794008
2.147729
-1.884930
-0.451983
-2.344629
-0.157167
-2.469387
-1.337061
1.312957
2.935656
-1.596561
-0.634886
-2.313849
-4.986638
-2.340412
3.389116
0.112884
-0.117313
1.502997
-1.528069
-0.599158
-2.448431
0.183153
0.529240
-2.194773
-1.282099
-2.889237
-0.800863
0.073418
-2.536866
2.521060
-1.145637
1.209011
1.294590
-1.887458
-1.466049
-1.963583
0.527146
0.578872
-0.674318
3.132439
-1.547248
-1.916090
2.048965
1.787043
-0.440772
2.710167
1.772499
-3.513690
1.535321
0.367609
-4.383561
0.131663
-3.472608
-2.001563
0.003709
0.178327
-4.496720
-0.034262
-1.855644
-1.166711
0.735675
2.080513
-3.952711
-3.404423
1.054695
0.171295
0.211431
0.957711
-1.471387
1.497558
-0.278846
1.568306
-1.370006
-1.581087
1.781016
0.740051
3.646968
-1.374421
2.099723
-1.447656
1.564357
0.808467
4.935104
-3.614800
-1.844333
-0.607501
-3.839377
-2.896845
-0.281669
-0.421644
-2.528729
0.272987
-0.778664
-1.820814
1.443849
1.718437
-3.844027
-0.707396
-1.289294
-1.481372
-0.101354
2.955917
0.517822
0.935926
-1.481784
-2.148848
-3.048598
1.573860
4.017055
-0.543090
-0.328965
-0.512934
-1.033112
-2.832494
1.156306
-2.829154
0.480682
2.716076
-0.999139
1.346259
-1.709462
0.869978
2.884666
-0.107099
-1.487022
-4.684561
-2.209719
3.255877
6.394446
0.950596
1.429600
1.554081
3.032315
2.021424
-0.014449
-0.050692
-0.349685
1.545745
0.853141
-1.385947
-1.286639
-0.484406
2.478265
3.878668
-0.999356
0.643130
-1.349072
3.938059
0.241393
-2.224669
1.659981
-0.257275
3.912378
0.607258
0.054559
0.158094
-0.681330
0.290469
3.240833
-1.017940
2.319331
1.060652
-0.105644
-0.712722
-0.714167
2.815236
-4.473377
-2.312836
-2.191534
3.598936
-1.771240
0.781497
1.612456
-3.890789
-3.818481
-3.644384
-0.637634
2.505232
-0.516227
-1.979377
0.293503
-1.924609
0.168016
2.888131
0.717434
-0.893525
2.454658
2.034358
-3.076167
2.180486
4.058248
-1.550359
-0.017350
1.922051
-2.273247
-2.303924
-3.224629
1.613151
-1.843771
-2.524029
1.613372
1.794944
5.856190
-0.534375
-1.481850
-2.657133
0.988672
-2.129994
-1.188890
-2.941249
-1.875987
-3.092886
6.193272
-4.569073
-0.112008
-2.405979
-4.560501
1.715436
-0.045125
-0.555573
2.211658
0.518672
0.673489
-5.714089
-0.869218
-0.455223
-0.426857
-0.751193
-2.297035
2.238400
-1.590740
2.783860
1.037353
-2.173191
-0.909436
1.750024
1.261136
-2.131163
-1.281444
-0.537615
0.856417
-0.675435
1.697253
-1.098725
-1.224512
0.932663
1.875228
-0.217898
-1.460021
-3.872830
-5.662125
-0.434925
1.146453
-2.902836
-2.936415
-4.404017
-2.348021
0.718339
-1.335304
-1.296951
-2.266593
-1.874049
-2.235299
2.179596
-1.590100
1.037374
1.190658
1.075436
-3.022274
1.095108
-0.424291
-3.198362
1.923180
0.307200
-1.933834
1.323185
1.785893
-3.942206
-0.824005
-2.495084
-0.596963
-2.603069
0.835320
2.219913
0.860954
2.065946
-1.120829
1.663891
-4.562900
-2.933141
-2.712297
-1.430003
-0.372756
2.128016
-3.022990
-1.402871
1.368720
1.142932
-2.038608
0.028217
1.457571
5.216082
0.990744
2.631895
0.365784
-2.549357
-1.940932
-1.505077
3.133809
-0.583331
-0.358124
-2.800902
-0.437714
2.652717
-2.655694
-1.598910
-0.148477
0.718572
-1.813085
0.067086
2.205851
-0.985462
-2.405668
-0.648824
-3.561242
-4.743462
0.002850
-0.025985
-0.591535
-0.660824
-0.377993
-1.848174
2.443341
2.553897
-4.750607
-0.449253
-6.253741
-1.809984
0.025877
1.028242
-1.270077
-2.879502
-0.993667
-1.588667
-3.030825
-0.331652
-0.763388
-6.386902
2.645340
1.899309
-2.085163
2.258257
-3.793193
1.652683
0.205755
-2.589134
-3.270561
-0.368893
2.007898
0.339092
0.397817
0.480020
-2.011231
5.006116
-0.220458
-4.998979
4.846354
1.187937
-0.421421
-1.771833
-0.826562
3.847077
-1.490428
-1.632950
0.279421
-2.408918
0.661748
0.499802
-2.960803
2.307003
-1.354344
0.225106
-6.219660
4.083006
-2.144741
-1.190656
-1.204158
-0.794812
1.440044
1.561940
-1.058001
-1.438468
-1.345908
0.407181
-1.439132
2.027788
-2.576885
0.839820
-4.388299
-0.611447
1.127204
0.485261
-2.745924
0.449695
3.242881
-2.059092
-1.446607
1.123864
0.467517
1.401031
-1.383904
0.470552
-1.979198
0.969655
1.303191
0.105397
-1.256512
6.537253
-1.329200
-0.784113
-2.805515
-2.712618
-2.974777
-1.017089
-2.091107
1.248611
-3.416530
-0.397343
0.770107
-1.782776
-1.721224
4.308519
0.658542
1.053972
-3.543447
1.060610
-0.246402
2.719297
-0.917489
-0.121370
1.515849
-1.989053
3.432631
1.351248
2.777497
3.102551
1.532837
-1.220101
4.389430
-1.214104
0.463788
2.466537
0.522352
0.235412
-2.523366
-1.098009
0.930184
5.819573
-2.510759
-4.047538
-3.316885
-0.677024
2.490652
0.579962
-3.083915
1.257916
2.358890
0.351954
0.021360
2.664739
0.872233
4.396168
2.075662
1.442051
0.921345
-4.113798
-0.371890
-1.825771
-5.310316
-0.299414
-0.872526
4.539018
-0.638556
-0.736226
-0.561255
0.067182
-2.473382
-0.160742
-0.904724
-1.176737
1.097537
2.654934
1.071016
1.209492
-0.583696
0.219944
-0.431244
2.787164
0.664422
-1.684276
-2.074817
0.815983
-4.892057
-0.834033
-0.533421
0.206125
-0.588426
0.415389
2.796601
-1.613917
-2.901237
-0.932902
1.357279
-3.191757
-1.314348
0.829508
3.253699
-0.332748
-0.819959
-0.307255
-0.945735
-1.185983
-1.584732
-0.403162
-0.994233
-3.964943
1.297363
-1.498652
-3.412035
3.149160
0.289691
0.809031
-0.959651
-2.670075
-0.456955
-2.665439
1.556231
-0.182880
0.734693
-4.524143
2.729539
-0.106921
0.160867
1.617463
-2.035918
-0.712713
-1.456512
-3.409472
-2.192295
-1.158436
4.776149
1.854743
-2.735380
-2.588009
-1.721687
-0.929095
0.740774
0.577715
-1.111407
0.375472
2.167662
-3.885952
-0.285231
5.090111
-2.250152
1.511898
0.225682
-1.375611
-1.720735
0.921310
-2.686487
2.294936
4.417015
-2.838375
-1.559651
-1.783015
0.229173
-0.620805
2.714787
0.386215
-0.694203
-2.980049
2.012195
-0.346639
-2.088641
-2.899362
-4.855160
2.323797
-0.653308
-0.017994
0.068077
-3.650356
1.049169
0.566681
-3.545233
-1.693768
-2.722462
-5.038744
-2.517547
1.570330
3.362938
1.997043
-2.460316
-0.976602
0.553765
-2.172045
-5.026507
2.862090
-1.385352
-3.353788
-4.005717
0.620701
-1.329492
-4.865461
-0.643951
0.638130
-1.553850
-3.013366
-0.835999
-0.117134
-0.410561
-2.998284
3.711964
-3.248290
0.530173
-0.003547
-2.361063
-0.194665
5.528714
2.391644
-4.843477
-0.773391
-2.349534
1.259814
1.896608
-1.488201
-0.958478
0.112845
2.827771
0.469521
1.082149
1.855766
-2.766240
1.789400
-1.715927
-0.619938
0.352897
-0.801173
-0.432891
-2.057202
-0.570249
4.948615
-1.575033
-1.637874
-3.058988
-5.132978
-2.140915
0.642408
0.981605
2.001865
0.498269
-1.569532
-3.734809
3.125700
3.158968
-1.319346
-0.024131
-3.925395
-0.815186
-4.582151
-2.426512
0.544469
1.596618
-1.917161
2.032563
-5.869310
-3.809256
3.086478
2.584982
-0.122658
-3.413392
-4.887594
0.507939
-1.730901
-0.950674
-2.205437
-3.432327
-0.140837
0.966906
0.727460
-1.196734
-0.306536
-3.736866
0.637826
-1.208594
2.807176
-1.183083
-0.295921
1.458219
-1.899037
3.524804
-0.479165
-0.859739
-0.452620
-2.133843
2.186082
-1.203421
3.549610
-4.183703
1.462229
-1.562345
-1.818287
-1.098206
1.225002
1.643269
2.279410
4.781316
-3.181955
3.056199
-2.407241
1.290017
0.529297
-1.983397
2.978980
4.639821
-1.294682
-3.102506
-3.945376
0.573952
2.181618
0.459780
2.683877
0.616911
1.188071
-2.383936
1.342089
0.989925
1.503617
0.205502
0.236071
1.067380
-2.447241
3.796215
3.130436
1.603633
-0.776935
0.826485
0.990644
-3.190199
-3.604245
-1.841147
2.468304
-0.779172
-3.172866
0.791948
0.590716
0.323072
-1.715977
1.509148
-1.227902
-0.666094
0.165916
-1.426737
-0.372416
-3.470112
1.290509
0.503205
-2.137939
-0.301820
2.320430
-6.601621
1.570838
4.508860
-4.208375
2.010416
1.269505
0.509587
0.368217
-2.985522
-3.970409
5.824355
1.785230
-0.162001
3.483416
-1.378108
2.001108
-2.483006
-2.494627
0.380109
0.926380
0.155543
0.201082
-1.585530
-1.710013
3.197764
0.583632
3.085238
-1.461587
-1.643529
-2.166144
-0.493465
4.843445
0.803161
5.761933
1.549847
-2.600467
2.554421
2.772834
0.797403
-3.605938
-3.815772
0.920954
1.023235
1.371150
2.325414
-1.470129
1.374026
-2.900781
-2.215404
1.674015
-0.485220
-2.669352
2.077631
-1.218133
3.252544
-0.618022
0.088507
2.421893
0.196504
0.202662
2.135073
0.657315
0.840824
-1.117871
3.308819
0.948019
-4.629234
2.355819
1.010838
0.121911
-2.025419
-2.225492
0.890887
3.118739
-2.337644
-0.741401
-1.773485
-0.906589
-2.187805
-2.707212
-0.373022
-3.817956
6.537004
-1.102524
-4.698932
1.292547
0.291916
-3.230408
3.157909
0.338256
-3.606847
2.220526
-1.150629
-2.724226
2.524054
-1.120308
-1.489992
-1.159734
-2.485764
-0.888698
-2.905678
3.602464
-3.396148
1.103363
-2.413984
-0.206574
0.020584
-3.441951
-0.369761
3.031626
-1.424592
-5.591598
-0.334920
2.764687
-2.853014
-2.736936
-6.835318
-1.575272
0.437674
0.429846
1.875618
1.724923
0.028419
1.100169
1.129821
-0.387172
0.794277
-2.850672
2.880273
2.872704
1.484835
3.656946
0.557202
-1.556126
1.525220
-3.533975
1.277085
-0.311103
2.275728
-0.601663
-1.012194
-1.563042
2.467173
-2.804473
-4.243095
-1.492235
3.852397
-0.132188
0.799277
-1.406734
-7.227253
-2.838154
-0.297497
1.491189
1.395452
-0.722445
-2.035160
0.061020
1.851354
-3.231864
2.233319
-0.556562
-0.196621
-0.608846
-1.905284
-3.326172
0.765168
-4.083728
1.869374
0.448628
-0.730035
-1.320518
3.638937
0.294412
-1.771438
1.974484
-0.455955
-2.258080
0.113306
2.720070
-1.513294
-0.849895
-0.531559
-2.091259
-2.686569
-1.578422
-3.044257
-0.748262
2.792156
-2.096526
-0.505302
0.086555
-0.210181
0.894285
0.369115
-3.836630
0.074573
0.074146
2.489809
-2.595755
-2.842459
-2.540378
1.280563
0.782384
0.501386
0.092744
1.397857
0.232633
-0.108764
-2.183796
1.403983
1.366482
-2.904876
-0.231006
-2.440701
4.028285
-5.355872
0.003777
2.111467
-5.878178
-0.173878
-1.682190
1.866371
3.068288
2.442973
2.857241
0.712573
-1.100884
0.224457
-2.568329
0.671245
1.028193
0.253947
-1.123211
4.070217
-3.242522
-0.159105
2.540034
2.161610
2.810994
1.488916
5.164972
-1.548981
1.430313
0.321860
-4.607007
-0.120532
1.920268
-2.940593
-3.764327
1.444093
-1.380783
0.783403
0.063089
1.741443
-0.055091
4.322135
-2.297711
-0.450732
-1.275501
-1.625940
-0.444446
-0.661561
-1.114122
-1.252913
0.404604
-0.258362
2.596138
0.904476
1.115440
-2.006423
4.500681
3.006485
-1.501819
3.549243
-1.920949
3.105433
-0.949323
-5.644898
-1.468143
-5.311314
1.929473
0.720752
-2.274521
-0.389378
-0.319765
-3.354222
3.619801
-4.630126
-1.188118
-3.906518
-2.386729
0.086063
2.505436
8.080615
-2.279898
-1.276543
0.417850
-2.379530
1.086648
-3.742731
-3.496053
2.582238
-0.491533
-1.698823
-1.795798
-1.512045
0.949510
-0.148248
-4.413875
-0.924664
1.557320
-1.760221
-1.174082
-1.924189
-0.781813
0.748071
5.142936
3.858379
0.335564
-1.196626
4.768411
-2.175031
-5.829464
3.127811
-0.947193
-1.061591
0.904462
1.894239
0.782598
4.800227
-0.580966
-0.882088
-6.558741
3.185733
-0.667128
-1.005500
3.325801
0.208802
2.612187
2.566811
3.366901
0.824253
-1.211803
-1.825247
-0.538662
0.371472
-1.637114
-0.285669
2.797556
2.164769
0.970767
-0.696271
-0.101463
-4.661791
-0.271783
-1.796440
0.027634
-1.401676
-0.433346
0.167360
-2.786880
-0.232727
-4.260110
-3.548517
-4.087471
-0.618205
2.571637
0.240598
0.771351
-2.889063
3.903905
-3.931928
-5.153396
-2.890226
-2.155466
1.579566
-3.389359
-5.833745
1.972685
0.716143
-0.435867
-1.600268
-0.592495
-1.011611
1.066113
-0.657641
-1.067333
-1.778661
-0.212483
-4.070331
1.239364
-1.374198
0.163224
-0.402243
1.064582
1.479456
2.022188
0.210471
2.884344
-0.455085
0.900694
0.458729
-5.773922
-2.594556
1.790572
-1.920809
0.920019
5.742832
-2.121697
-1.588832
-4.659462
-3.307788
0.265848
0.059589
1.197957
-3.768082
-1.127707
2.416964
0.921178
1.069430
-2.650549
-4.833324
2.577586
-0.293369
-1.337650
3.946306
-0.243550
0.937123
-3.615437
2.771314
0.374370
-0.115023
0.196333
1.652568
-3.897115
4.082864
-6.770939
-2.854069
3.911038
2.127619
3.947264
-2.420520
1.133248
0.504347
-2.804178
-5.256575
1.680526
-2.108359
-6.097318
0.250732
0.672379
-1.651592
-0.221802
-0.281807
-3.408334
0.694342
-0.225141
0.634315
-0.149899
2.283501
0.780584
-3.259355
-3.513763
1.495962
-1.170420
2.179514
3.720383
2.394531
-3.283307
2.793132
-4.313608
-0.133948
0.834405
0.084842
2.515738
0.578048
0.453442
0.951402
0.578011
-5.091223
0.250706
1.626369
-2.428873
-0.785099
0.742384
0.202008
-0.162408
0.271790
-3.249273
2.023797
-3.022350
0.881137
1.275216
4.762425
1.481400
3.119254
-0.075183
-0.025735
-5.147276
2.457907
-2.455164
0.836173
-3.948295
-4.108634
3.814196
-1.768008
-2.187350
-0.550583
1.947985
-0.437062
-1.708169
2.118127
-1.088051
-2.164461
0.285540
0.684425
-1.256070
-0.378288
-5.833962
3.804344
-0.984263
-0.668000
-1.172954
-0.047644
-1.445172
-0.159040
-1.494174
-3.166594
-1.659814
-3.120284
2.172490
-0.478227
0.396090
4.977088
0.773895
-0.071264
-1.694102
-0.919059
0.014565
1.046448
2.679776
0.395839
0.511428
-2.495277
1.155095
-3.046418
-1.939116
-2.182740
-1.075057
1.795056
-0.527379
1.586401
5.047600
3.263856
-1.755515
-5.353638
-4.510669
-0.149548
-0.316692
1.965404
-0.320885
2.620405
2.806612
-0.093794
-1.051355
-1.590826
-2.423527
-2.592453
-1.747813
-1.452976
-3.810609
-0.401879
-0.246250
-0.358427
-1.288005
0.346501
-5.123455
2.201834
4.575722
3.124832
-3.467008
0.950054
-3.979804
-4.765614
-0.177517
-1.095912
0.242280
2.891832
1.126852
-1.226247
-1.347622
-0.266063
1.092087
0.040429
0.016845
-0.565342
0.216957
2.820304
0.973219
-3.857612
4.127379
-1.249819
-1.877411
0.522242
-0.938783
-0.927874
-2.222512
0.072972
1.493392
4.267347
-3.596083
0.743627
-0.556334
0.607056
1.255340
-5.001332
0.327426
-1.272882
0.302579
0.978411
4.440463
3.679913
4.723639
2.500332
2.029015
3.503977
-6.808211
-4.179858
0.916971
-2.168381
-2.770150
-1.143695
-1.733072
-2.963268
-2.466551
-2.864182
1.191559
-5.264780
-2.588316
-1.054006
-2.718903
1.659678
4.500786
0.297226
-3.402116
0.119906
-0.193314
0.922907
-1.910200
-0.408199
-0.035147
0.325128
-2.152236
1.064280
0.705750
2.063491
1.789353
-0.793206
0.041363
-0.158021
1.295595
0.941177
-4.882607
-1.273492
1.447327
0.601015
-0.473129
-3.835916
-1.653938
0.033111
0.790273
-0.654018
4.154581
-4.270977
-1.160982
-2.521142
1.492710
-1.243465
5.360779
-1.582017
-1.255896
-1.654489
0.144377
-1.432315
4.196833
-0.676677
0.477880
2.032417
-2.530551
3.304181
-2.617241
-1.268371
1.182282
2.132608
-2.409870
-1.651971
-1.242565
-0.628787
-2.426545
-0.996453
-1.107236
-0.114699
0.851606
-1.136945
-2.119073
1.132326
-0.572427
-2.058141
0.788585
-1.460665
-1.046753
-1.782305
-2.812227
-1.532703
-0.811903
0.561928
-1.743414
-1.352793
1.494403
-0.390276
-1.746467
0.163300
-0.846369
0.738739
0.235554
1.934359
-0.130690
0.437179
-0.753413
0.153679
-2.820875
-2.456327
-2.909210
2.537488
2.569337
-0.463292
-0.257315
-0.687738
-3.362537
2.713993
1.135129
-2.705145
4.012802
-0.447886
3.089327
1.027341
-2.298326
1.449262
4.836985
0.603788
1.142573
0.721668
-2.462263
-2.764259
-1.283594
0.013385
0.282011
-0.361049
-1.449698
-0.015877
-1.227015
0.826364
0.997673
-0.835850
2.206382
3.445290
-0.065928
0.963981
1.432157
-0.766942
5.328196
1.156087
0.092343
1.021355
1.714190
0.060150
-3.172816
4.759423
1.049153
-2.339489
-0.743626
2.125788
1.322628
1.805678
-3.729550
1.545311
-1.206648
2.781620
-3.892385
-1.250057
-4.022782
-1.373521
-2.132192
0.452274
-3.854125
-3.423187
2.694999
0.342044
1.620220
0.975909
-2.197028
-3.607915
-3.888521
-0.343108
0.753610
2.242541
-5.107137
-2.028949
2.847809
0.512843
0.099528
0.283668
-1.594314
3.718500
1.973654
-2.322689
-1.881712
4.177296
-0.861282
0.335697
0.366384
1.283428
2.483589
3.194254
-3.124579
0.719250
0.761512
1.118073
-2.117164
2.775397
-0.444989
-3.082294
-0.182327
-0.293204
1.831638
0.766708
-2.910424
-3.674136
-0.239660
0.631824
-2.994356
1.131756
0.962530
-0.210245
1.893100
2.264903
-0.261704
0.239851
-2.874453
-0.479052
-0.794290
-1.073924
-1.829222
-1.306348
1.258691
-1.961282
2.669657
0.137341
3.274072
-1.066376
2.556420
-0.258349
0.963252
1.564985
0.810430
-5.258550
-0.488960
-3.138157
-3.122637
0.054158
-0.524085
-1.751462
0.450153
-0.054734
-0.476813
-3.305739
-1.335001
-1.350414
1.572721
-0.396286
-1.092268
0.932506
0.266546
-0.206433
-3.378344
3.335042
0.439222
-1.467400
-0.033673
-1.440898
1.240956
-2.190057
-2.380225
3.441638
-0.226307
-1.445839
-1.672833
0.668788
-2.660881
2.690157
-3.076959
-3.023953
-2.281509
-3.092578
-1.973612
0.597617
1.444313
0.063002
3.473090
-3.311589
-2.874292
0.605205
3.351576
-2.437231
-0.157499
-0.247774
4.828362
-0.449459
0.641385
2.393554
-2.294200
-3.429673
-0.008716
-1.244398
-0.256025
3.161200
2.345563
-3.370715
4.164593
-0.212122
1.701442
1.428694
-2.730307
0.371377
-0.289605
-0.533368
-1.416706
-3.010470
-5.092739
-2.859763
0.040831
-0.475089
-2.408789
-0.898904
2.586109
-2.098565
3.547315
2.310406
2.542106
1.694522
2.136603
-2.792010
-4.392455
-0.561092
-0.101615
-3.186941
-3.918926
2.039212
2.399897
0.971193
-0.947064
-3.376023
-0.061716
-0.439136
1.824180
-0.542616
-0.671755
4.513032
-1.398007
3.041526
2.579550
0.256337
-2.675271
-2.032370
-2.509532
2.089394
0.305849
0.293339
0.163568
-0.991712
2.770540
-1.116148
2.464196
-0.114247
0.346822
0.849850
0.657087
3.565792
0.734404
-1.981105
-1.655571
0.027993
1.854578
-2.484043
4.902912
3.769112
-1.000992
-0.439771
-3.815244
0.255229
0.781383
-0.157570
1.079792
0.238189
-1.183460
-3.260073
-1.057634
1.067850
-2.212060
0.887852
-0.541427
-1.480577
3.292363
-0.667220
-5.469337
1.392921
-1.733977
-1.974744
-4.954160
-0.854697
0.217061
-5.363491
-5.495137
-2.654082
-4.846961
2.632836
-0.596820
-1.124936
-1.423979
-1.815003
-0.112377
-0.429478
-2.451149
-3.166712
-1.098795
-0.769848
-1.101851
-4.434001
-1.802010
1.281043
-1.084665
-0.525903
-2.498197
-1.349702
1.807859
-2.583577
-0.976018
-0.172891
-1.540043
-0.693271
-0.246402
-5.235047
0.386855
1.777314
-1.126042
0.828838
3.380834
-0.407471
-2.262014
-1.155641
-0.412731
-0.960543
-1.129943
-3.556142
0.659865
0.947636
-4.161715
-0.400880
-3.348416
-1.918045
3.991904
0.531004
-2.654226
3.619839
1.502909
-2.315002
-1.901784
4.199259
-1.704458
-1.102896
-3.923997
-0.427574
-1.495945
-1.020597
3.615001
-2.931296
0.452156
-2.488996
0.807191
-3.076732
-6.040047
2.273568
-3.096164
-4.255036
1.120272
-2.535807
-0.925436
2.909230
-1.025806
2.271476
-0.620382
-4.030331
-3.245743
1.133122
1.547302
3.871983
1.965967
1.920286
-0.740821
0.283765
0.411540
-0.554662
2.317334
-3.467006
0.716410
-6.379861
-0.246518
-6.078270
-2.150203
1.361038
0.159358
-0.990591
-1.617923
-5.165974
-2.145733
-1.543340
-1.017089
-0.117781
2.279388
-7.212563
-0.671905
-2.258583
-2.747926
0.869242
1.140521
-1.147323
-2.796451
0.485623
0.978921
-1.187833
-0.051916
-1.395006
-0.820405
1.141680
1.241262
3.383841
2.014678
4.048539
-0.802332
1.399376
-0.299136
-0.854989
2.890756
-4.102740
2.171506
-0.041156
-0.287344
-0.503134
-3.413348
1.336170
-0.926404
-2.091944
-2.990059
3.209035
-1.573214
1.054819
-2.233413
-0.287441
3.199930
-0.103370
-3.383503
-0.724789
-2.490775
4.130408
-0.106474
1.021830
0.092768
-1.065962
-3.854610
1.613366
-5.499932
-9.200676
0.568384
-0.965387
1.846992
0.685367
0.820366
-0.113380
3.140567
-0.035736
-0.265324
1.870979
1.682702
-0.050954
-0.495025
-0.853936
1.793338
3.886000
1.337100
-2.140952
2.117575
1.117845
0.102947
-3.259789
1.709037
-2.490363
2.606205
1.124550
-2.221880
-2.085692
4.314402
-3.356422
1.553819
3.000435
-0.956458
0.334403
0.566418
1.266760
-0.766065
-0.757484
-2.139192
1.759674
-3.968641
0.472384
0.983723
0.418342
-1.140098
-2.245534
-0.909723
0.888090
-1.319839
-1.205638
-0.506470
-0.965007
2.750123
-2.082602
0.564911
-1.710519
-3.005113
3.429400
2.073726
-1.788521
1.409125
0.905657
1.067763
-0.488155
0.699475
-0.479427
2.126203
4.022259
4.617813
-0.908471
1.423789
-1.044764
4.076479
2.883447
5.630376
-0.483370
6.063519
-1.541777
-0.031475
-1.726508
-0.409087
-5.252146
3.914824
-2.604016
-3.511129
-0.203383
1.381756
4.001436
1.934087
-0.389207
2.778325
-3.570149
0.872318
1.859456
-3.097939
-0.577894
0.426345
-0.587766
1.657620
-0.152969
3.261528
-1.568917
-0.719248
1.234181
-1.674195
3.044176
-5.271232
-0.760967
3.339514
-6.577661
-2.648829
0.281921
4.284421
1.607995
-2.678022
1.043690
-5.709726
0.174665
-0.453725
2.543652
-2.261492
-2.839152
0.374990
1.945712
2.901193
2.892620
1.502812
-3.316055
1.857096
-2.773443
-1.561350
-1.756953
1.071001
-0.031907
-1.440828
-0.793641
-0.018375
-0.831648
2.505078
0.381139
-0.265068
-3.678767
2.068556
-1.036868
-1.954751
-0.891045
2.861369
-4.557382
1.373671
1.949156
0.485056
-0.560047
0.630575
0.112691
-0.863516
-0.711357
-1.139299
-3.436678
-0.922832
-0.757987
-0.460047
-2.179938
-0.444108
0.729297
0.496148
-0.970664
0.332429
0.953892
-0.979333
0.045896
0.730072
2.716238
0.798212
1.236604
2.808411
2.813293
-2.285923
-1.424963
-2.200717
-1.903083
-0.902770
-2.414022
-3.918527
0.253952
0.387744
-0.047149
0.679754
4.713795
-2.661222
0.667340
1.231442
2.008390
1.214574
-2.662761
2.689656
-1.726038
-1.642851
0.341775
5.720648
0.266332
0.010199
-0.504298
-2.853749
0.936322
6.577539
2.993408
-4.679304
-0.388916
-0.103754
4.059801
0.799819
1.205899
0.956932
0.078706
-5.359121
-6.609210
-0.646791
-0.719776
1.329667
5.084113
-1.664420
1.184702
0.003774
-0.288074
0.647498
-0.451523
-4.592336
2.902575
1.684038
-3.491336
-2.808295
3.075779
2.228281
2.626065
0.751429
-2.682696
-4.292460
-0.512594
2.063728
-3.285348
-0.351095
-0.797208
-2.763999
5.145832
-0.976660
-2.868646
0.115135
-2.384204
-2.375529
3.447022
2.010996
1.733184
-0.585738
-2.495108
-1.113881
-0.195456
2.796756
2.159615
-3.677163
0.799266
-0.990638
-2.758212
-1.116596
0.212071
0.381470
2.359214
-1.472955
1.980732
-3.419852
-1.272747
-1.345586
-1.646185
0.611854
-3.883154
-3.793121
5.908156
-0.222003
0.437497
2.259656
0.039121
-2.073938
0.704200
1.146687
-0.866783
3.916973
2.691284
0.683530
-2.775947
3.072495
5.319364
-4.128740
1.162561
3.036323
-3.106097
-1.124707
0.490827
-0.549946
2.805766
-1.123206
0.747298
0.951753
-0.546079
3.972746
-1.841060
0.666969
-1.820675
-1.493362
-1.332067
1.324355
-3.422826
1.057414
3.802574
3.782178
2.278155
2.836074
-0.663672
-4.184528
-2.828036
0.369446
0.823987
-0.254100
-0.988263
-1.796151
3.863540
3.238856
1.237378
1.903175
-1.633326
-2.476029
3.652081
-2.535456
-2.944377
4.962456
-2.419275
-0.208676
-0.356682
2.350770
-2.227770
-0.722297
-1.746465
5.019441
-1.997440
1.632815
3.648282
-4.588205
5.641665
-1.156494
0.303095
3.680383
-0.014376
-1.972955
-2.547600
-1.146273
1.526671
4.183392
-3.508309
0.856913
-0.025701
-0.985230
1.022537
-0.769440
0.949764
-0.486246
-1.617742
0.646003
1.817920
1.559622
-4.266640
-0.728561
-1.834936
1.909452
-1.830889
0.721836
1.611503
0.228153
-0.079894
-3.832839
1.035223
0.264392
-0.348131
4.552360
2.373897
-1.078367
-0.360635
-0.277219
1.718901
3.293720
0.259705
1.044812
-2.710244
2.406475
-0.481686
1.543947
-5.508037
-1.314533
-2.190821
-2.661271
2.788030
-2.524440
-1.305308
-3.132151
2.252734
-1.895258
-1.143017
-4.128810
2.171332
3.764068
1.738070
-3.742710
-1.888656
2.263910
-2.718742
3.832487
0.858831
0.511048
-3.114159
-0.553051
-0.756151
-2.214159
-1.705769
0.984269
-4.230590
-3.684403
-1.401935
0.838491
-1.485350
0.246963
1.601266
0.823070
-0.521533
1.660352
-0.174973
-2.057411
-1.495664
1.534668
-1.603523
2.093429
-2.221048
2.517481
-0.723571
1.748809
5.372514
4.513148
-1.366756
4.504369
7.889633
-0.598458
-4.333340
3.255174
1.202855
-1.408451
2.910408
3.761782
-2.196981
1.006290
2.136930
-1.159838
-3.224083
-2.801452
4.948615
0.221137
0.755292
-0.473853
-2.096816
-2.478266
2.573493
-1.700160
2.904346
1.194893
-5.004173
-1.022577
-1.600531
-0.425702
-2.571019
0.310515
1.836200
-3.771713
0.218340
0.481094
2.195617
-0.634804
0.519152
-1.869791
0.836641
-0.632290
2.414187
-2.468100
-1.479147
1.344655
0.652341
1.261484
-0.976872
-0.634951
2.416835
1.699046
0.436759
-1.386018
3.279283
5.808747
0.481388
-1.993813
-2.206345
1.758920
1.662625
-1.039327
0.141619
-1.129342
-0.222757
1.587394
0.086059
-3.170624
-2.267647
-2.173944
0.831677
2.704791
0.636586
3.165187
-0.283512
3.875234
2.109090
-1.581751
0.643578
2.209456
-0.022227
-2.427475
-0.093282
1.202987
-0.391068
2.015632
-1.443024
3.580511
1.204154
-0.148791
-1.966779
-0.297977
-0.805456
0.525707
-2.466690
-0.402879
-1.884826
-1.370340
3.556907
0.570352
-2.527007
-5.221931
3.107873
-4.393500
-0.313616
-2.838512
2.374259
0.785948
-1.149713
0.499037
0.627112
0.629388
-0.775902
-0.335178
-1.011727
-0.510993
0.488883
-2.469872
-3.150621
-1.892078
3.088119
-1.387064
0.482828
-0.852004
-0.530752
-1.915797
1.005727
-0.873680
-2.425135
4.591066
0.037503
-1.609484
2.949795
2.166535
3.386155
-4.818314
3.209436
-4.163821
-6.058490
-1.983799
-0.114284
-1.022748
-2.271475
-4.147653
-1.020231
-3.288986
1.697263
-2.919805
0.367551
1.172617
-0.408928
-2.542842
2.802328
-1.430335
1.287024
-1.325326
-1.065043
0.479338
-1.469366
-1.189663
0.650100
0.950251
-0.268810
-1.505893
-1.394950
5.249506
-1.295125
3.746923
-3.925426
-0.636044
3.087249
-0.209501
-0.113528
1.324833
-5.199726
-1.630928
0.930190
-0.976040
-4.505520
-0.013380
-4.081336
-4.902533
-0.306131
-2.800121
-1.074324
1.328321
0.576463
-1.499242
-3.946055
1.119027
-0.568340
2.563007
0.000479
2.873543
-2.992585
3.701245
-1.321637
-5.534561
-1.018020
3.695806
1.231511
1.499043
0.935733
-2.437005
-2.211954
3.874647
0.405194
-0.121025
3.842429
-3.878932
-1.808684
1.577534
1.920495
2.599642
-0.642194
-0.045517
-0.284964
5.551351
-0.983767
1.815179
-2.558024
-0.065648
-1.438173
-0.299709
3.337115
-0.864934
0.388780
3.867524
-2.242326
-0.843906
3.492512
1.226032
2.561832
1.819073
-0.592011
0.825883
0.050002
1.462329
-4.837941
0.856041
0.103872
-1.593303
-2.058286
-1.233554
3.589073
-1.181425
-0.299512
-0.779140
-1.643468
2.730537
-3.965429
-0.240164
3.415580
-2.016994
-0.888218
-0.777806
-2.216721
-1.265969
-1.143026
-2.019343
-0.798101
1.666451
1.921323
1.209913
-3.257111
-0.997262
-2.127621
-0.215016
-2.560459
-1.038013
-0.848428
-4.979536
-1.783491
4.179891
2.750320
4.225591
-2.898488
-0.298473
-1.874290
-0.206821
4.040286
0.794286
-2.836640
0.767308
-3.762257
-6.529574
0.202016
-0.229344
-2.105791
2.432323
-3.866060
-2.047580
1.256243
0.497033
1.188030
-1.673664
0.062717
0.096728
-2.943397
1.242286
-4.813925
-0.880017
-7.965314
3.030126
0.813506
-1.046612
-5.523141
-1.715740
-2.582410
-0.744519
0.466625
1.633439
2.118014
0.787694
-2.328124
-1.808348
-3.181525
0.277463
3.561941
