4.083783
-9.194951
-14.066463
10.590089
4.323611
-4.002483
16.310525
-1.473424
20.667723
1.697709
-8.213483
-1.292470
22.496247
-6.569457
6.990880
-9.618943
7.672739
0.311299
5.485068
9.020721
-3.036737
5.418797
-3.553553
-0.518230
1.658391
0.450169
-8.981070
-11.395814
-29.249451
-5.304458
-0.440737
14.487271
2.260005
-0.539290
-18.219690
-2.744023
-3.303856
-6.820390
12.120160
14.742350
-6.436231
11.140919
-7.503244
1.617798
-6.328283
4.890553
-7.027890
7.835601
-10.676460
-11.863218
-11.321693
2.585661
-3.407412
-9.396238
2.047380
0.652936
7.438922
-2.821569
-14.266994
-2.445843
-2.687908
3.630293
15.461685
-0.658861
-2.448137
-2.976887
-8.661903
8.470627
18.439956
-1.825504
8.778971
0.364578
3.317589
-4.163064
4.837486
7.063685
9.162120
-1.505684
6.477439
-1.591164
-2.327363
-6.560947
-14.359553
3.111809
-9.055979
-15.127384
-5.822080
-2.752462
11.938435
0.795186
11.131186
-4.627994
2.050599
11.871216
8.477718
0.791093
22.823267
1.955528
3.063862
0.105006
-10.160960
-21.815954
1.613325
-5.194965
-3.563692
-1.922592
5.934344
-4.231496
-4.437001
-17.048400
2.009611
-7.088300
-7.629246
3.982748
1.780528
4.308298
-1.816994
-8.364061
-11.416798
-10.992507
-10.195746
5.985841
1.642768
8.174881
2.132714
9.696880
-1.999655
16.470812
-9.647974
-1.126427
6.092782
7.469964
6.115662
-6.814827
-13.975244
-7.593861
4.999133
-11.969295
11.413928
5.304095
9.231903
9.585080
0.604819
7.545022
4.415123
-11.529752
3.560682
3.133668
7.400915
-1.876702
2.664744
10.133767
0.753978
5.574346
-0.054562
-1.347704
-2.520016
-2.822854
8.891584
9.361237
-1.895333
-3.213267
-13.863605
8.191221
8.235272
0.211690
-2.853230
-10.228493
-0.967345
-10.563785
-8.741487
4.279280
3.726738
11.040146
-12.491014
2.945860
2.854198
1.443226
0.877596
-13.933852
-12.080195
-8.237626
4.944023
1.565306
-8.368938
-0.004102
-1.392897
6.376430
-4.396144
-4.881690
5.455839
-4.071469
-11.759751
-10.343796
-5.026973
-3.064549
-6.768906
-1.085661
-5.345236
-5.925344
-2.502297
8.194542
12.006222
6.245645
3.006784
-7.253193
-8.275571
-7.721763
-0.272334
-9.977576
2.402273
4.134591
-8.049459
0.103744
6.192564
12.642158
5.997239
7.665077
7.622888
-8.742035
14.027520
3.069696
-11.059654
15.519994
6.436190
-5.756216
10.524372
1.937145
3.785234
8.331884
-13.499701
-7.894448
2.906127
7.718879
5.298181
14.514656
0.361216
11.007210
2.516491
-2.385361
7.061201
-1.925049
-0.251148
-1.245762
9.004569
8.658742
-3.380384
6.838715
-1.541240
-2.000283
6.059279
-1.085940
-3.455849
10.496086
-3.347522
-9.090684
11.504487
3.625749
6.258966
16.008657
-15.414931
-12.072887
7.913680
7.799370
-5.548891
7.549126
0.103514
-11.949136
-4.792635
7.135843
10.091663
-7.799074
4.323906
-10.800566
-0.647613
12.379135
13.959322
-5.885204
-7.239063
16.065634
10.647989
-6.325808
-1.247443
-5.834004
-1.586537
11.125138
8.772067
4.333300
5.073401
-1.527123
3.951149
12.812464
-5.203136
1.243751
18.095989
5.993500
6.342983
13.506084
-11.381202
-12.868950
6.340740
-10.970783
-3.238943
0.534249
-2.593511
-18.695738
14.928523
0.355855
-12.441384
4.616531
-1.959880
1.048358
11.049025
2.624521
4.666050
-5.632521
-16.281236
-4.031395
-4.156776
-2.169869
6.357222
-9.273105
21.876389
-6.209558
2.718895
20.233385
-6.136667
2.031870
-0.034326
-4.055851
13.364550
16.571523
2.161480
0.112337
9.106311
3.863462
7.741434
0.672886
9.842998
4.199525
10.439101
-0.097884
-2.643328
6.473934
-2.546411
-5.251138
17.426142
7.282052
-19.492312
2.363212
6.542079
-1.274137
-2.941920
9.685419
0.983963
5.433927
-9.430148
2.418244
-13.134090
-8.434064
3.466792
-7.986938
-2.159900
-18.055015
17.494501
-0.426092
-7.929116
1.934517
-9.423851
4.535542
14.107358
-9.862951
1.299218
-9.119734
-0.566557
-3.001350
-3.280723
-2.294984
5.545036
2.958670
-15.699828
-2.604193
-14.407192
18.707606
-5.190187
8.731563
-3.764000
-4.041740
-14.020576
4.494291
0.785452
1.326898
6.456986
-15.190148
-12.164478
-10.674717
0.104978
0.535132
-7.584550
-2.623605
-2.162386
-0.717461
7.411837
-14.192981
4.136260
-14.700826
-0.165044
-4.170066
-1.769950
14.024255
12.480097
11.374211
-1.808519
5.528185
6.918175
-5.754762
6.882170
-1.373630
8.222538
-6.207096
-10.048515
-9.255418
3.380100
6.391761
5.673096
-1.990073
8.520495
8.559255
-1.675116
11.480675
12.265379
-10.393886
1.842706
7.614796
-4.526334
7.681036
0.298521
-7.505341
-1.017989
1.183018
9.909729
-8.888504
-7.635057
3.178249
0.700289
-1.311630
5.253148
1.660117
-9.552160
7.175783
-5.729035
-4.289715
3.588255
-5.061525
6.320502
-7.046602
4.887849
-7.502416
3.912510
4.241964
-3.011383
5.664121
-3.672829
-8.548891
-8.819203
2.005236
1.301603
-1.163765
12.940769
12.250143
-11.095248
0.402522
0.711424
10.331407
-5.321090
3.506179
-8.704912
12.463724
-15.450080
-1.478402
2.593080
-20.896221
7.511784
-5.094845
-13.804358
9.127652
-22.679462
5.551293
4.853467
-5.415761
2.562551
13.182591
0.141281
-3.118747
-8.043651
-17.617709
3.103920
-15.746658
7.455783
1.670431
-3.482287
18.367559
23.198218
8.118548
1.236288
12.789088
-9.463788
-0.127809
0.587819
8.893700
-7.406152
10.495578
-5.432250
-13.839801
7.991267
-5.637805
14.471193
0.320014
10.441539
-9.995582
-15.124166
-3.059603
4.739304
2.748543
1.501062
3.182870
-0.412574
9.355962
-9.253366
-13.551652
9.677042
3.023711
-2.413133
4.886535
-3.219825
11.397037
-4.051898
9.689868
-17.401351
-0.893794
8.979120
-13.868423
11.786543
-0.582227
-4.589913
-13.987276
-4.104401
2.646746
-4.016753
-4.721174
16.568459
2.651992
4.389468
11.454065
8.855629
1.865865
-4.850704
-4.648356
-7.620362
-5.755098
-3.920838
19.747412
-0.864796
1.476931
-11.042522
24.114111
6.863773
-12.937259
3.454088
-14.582102
-0.460098
8.290041
11.488505
1.326917
-1.456513
9.302850
-10.347781
3.240980
8.406963
6.367664
4.824057
-3.641697
-14.881077
4.806596
-2.071469
-6.107337
-4.038130
-14.147396
6.921449
-28.903768
6.293019
-20.053912
-2.011903
10.154980
4.083395
-3.655797
-13.377384
-3.636345
3.617992
2.134681
13.786267
-4.256136
9.950402
-7.411616
0.930314
2.423506
-7.207310
6.819334
1.108370
-2.703756
-21.376859
13.911469
-0.592529
10.538632
0.183589
4.453748
3.420842
5.000018
0.091856
2.722238
4.037186
-7.538652
1.555888
-2.966269
11.136214
-2.920622
10.103775
-11.443332
-2.457270
10.605794
3.056136
0.818783
-16.872430
-13.155186
-2.951860
-18.572786
5.968057
10.637275
-14.164437
2.439909
-0.059277
-1.534420
0.673232
-11.241118
11.903279
19.535970
0.690021
1.079459
-5.649114
-9.714196
2.443230
13.581585
7.785785
1.682621
-2.815235
-10.878939
7.777827
1.224639
-2.951430
-10.957963
9.857169
-1.601164
-11.204288
1.356661
-2.457224
-1.206153
-6.155166
-0.589009
-10.223708
15.948086
0.077074
-3.263036
-6.564407
8.517411
-7.520640
6.305225
-1.185641
4.883341
10.659171
-14.294591
0.529039
-2.101484
6.116285
2.326947
-9.728224
-0.836790
-0.724417
12.597707
-1.157779
2.676236
14.765228
3.406782
-7.561949
4.228875
14.039577
-1.476748
-15.082151
-3.267965
-0.875329
-0.694278
-4.422374
-1.260955
4.317053
-13.172350
6.055765
0.830773
8.753838
-13.509189
2.024113
-2.006821
-3.285383
0.367851
9.653849
-8.588441
-1.023273
13.166921
-6.960889
0.279712
-4.428957
13.592532
3.194261
-4.866996
6.959556
-11.657844
3.909602
5.142219
22.907719
-4.939201
-9.805537
-4.531872
3.051540
-3.239852
0.034866
0.057326
-4.829609
8.200595
0.848235
12.606528
-11.260196
0.307024
-14.646544
-16.101475
-12.464932
-0.832561
-8.317745
0.797318
9.263759
-7.901624
-13.238840
-3.128031
-8.272198
-13.465330
-11.731378
6.643302
3.781073
1.643143
4.961381
-1.988678
-8.321770
4.227951
-12.792914
-13.345784
6.513107
7.368754
-8.412947
-11.614289
-6.270077
0.885661
-11.805877
6.781322
-3.437719
-6.735434
-18.160829
3.253911
-4.779124
10.061190
7.758811
-7.740825
-0.075664
-0.011904
3.314695
-12.389668
0.574227
7.628170
-5.911191
-17.078578
11.229263
1.794806
-0.150626
8.904157
8.589399
3.200800
-4.589947
-8.087184
-1.308639
-9.211532
-1.067457
8.470889
-1.685336
-0.515773
-2.041598
-12.209584
-13.779802
2.847515
6.396179
5.688932
0.618804
4.540015
7.574259
4.759235
-8.356654
0.227437
-2.463777
-10.899176
11.197535
7.610183
1.865141
0.045405
-16.608089
9.467703
-1.755671
-0.606981
0.523271
3.052000
-6.897186
-10.807849
-5.811901
13.440277
1.749706
6.230512
13.069105
11.686472
-16.641039
-11.588112
-0.926596
1.977970
-9.261127
-7.793013
-1.961245
8.441514
0.371009
-17.234932
3.941773
8.958656
1.151641
-2.465121
-5.722442
-5.078900
-12.015521
-6.757243
-7.636673
2.382587
4.393435
0.825620
-5.409855
5.634325
5.432850
11.319171
1.163438
-23.271563
-22.160059
-7.307608
18.500993
30.367224
11.303498
3.971153
18.942612
-7.973372
9.607218
-5.834756
4.922129
-0.310476
18.200883
-2.738703
-0.628950
9.116616
10.065335
-15.349663
-5.313834
8.808552
-11.511447
-10.600987
-12.770646
5.850130
-4.825766
-4.181808
2.733707
-11.965575
-0.497138
-9.927067
-8.014336
-4.767256
4.825415
7.353018
6.709642
8.147863
-14.869198
-1.512145
10.395358
4.701924
7.121353
-3.929297
-7.732630
15.926903
-13.515423
-5.003076
9.096521
10.022721
-19.162402
-1.398303
10.596639
12.042449
-5.204609
-4.832712
-2.302097
-9.920613
1.818318
4.780566
3.350915
-6.366101
-1.495003
-13.305874
1.851693
-8.043000
-4.840566
-2.933545
-11.811000
11.241161
3.911637
8.808587
-5.414491
1.825499
2.843891
-5.062380
7.403448
-4.778270
7.124980
4.667456
-9.758144
0.598162
0.843242
-17.299131
-8.999484
5.598554
-3.355717
19.590979
-4.260238
24.782656
-20.384593
1.314572
2.548261
12.293332
15.725475
7.531599
10.012147
18.347358
-4.441004
-3.350139
0.548479
3.216339
-3.702627
16.829986
7.375180
1.557898
-5.267588
2.546699
-6.260864
4.692738
-5.087807
-4.537403
14.337457
-4.957139
-1.344032
0.311267
-1.259640
-17.201448
17.682999
0.759485
8.191824
-28.764493
-11.735319
2.515467
-5.281913
5.267791
-7.020585
-17.254824
-1.864534
-13.674484
-4.800914
5.199155
-17.123015
3.555394
-5.394015
9.704619
18.889082
3.664726
-3.721694
-8.232429
10.301841
4.111646
14.863340
-9.621328
-0.034504
-9.892736
3.129722
13.946352
-0.412220
-2.610574
-10.087349
0.914307
10.034076
9.270614
-24.699379
-14.471212
-5.896388
5.515420
4.434488
-3.552463
-11.312475
-5.951436
22.672404
-6.198824
-2.279627
-8.138526
-14.117601
-1.679675
-4.024661
22.193081
-9.976057
-8.424255
4.837316
3.667831
-8.316404
-3.928220
-0.002000
-7.616011
7.174436
0.857384
-10.130303
-0.557864
-4.637507
14.221601
-14.887870
-1.342377
-9.229600
-3.395291
-11.226783
-3.789551
7.499409
19.508575
-15.023921
8.644412
8.857412
-4.238588
-11.136597
5.962172
6.113513
-12.464074
-7.443415
-12.671899
8.333963
14.283012
-6.646330
1.655877
8.996672
6.631206
18.461634
1.142061
-7.221323
3.386440
0.296438
25.653674
1.498829
-7.315246
-4.031202
-6.478687
4.330247
14.886546
2.270381
-21.313873
-1.896804
18.092673
-11.273900
5.359897
14.593748
0.219841
15.839763
-3.788083
-9.505682
-0.259405
-3.026933
-12.976371
-17.260690
-6.654652
-4.235822
12.436893
-4.860772
7.290380
-6.618554
3.813603
9.088996
4.786457
1.151848
-0.062987
-4.229721
4.974722
8.588614
-0.494214
-1.048569
7.545197
13.580262
16.015043
1.243247
6.026385
-3.465213
-10.512970
-0.662253
0.610000
2.617012
-11.085177
-12.328762
-22.903672
-4.538659
-7.267472
-12.300034
4.916850
16.705258
10.365897
11.903214
-2.410011
0.839880
-16.220852
6.898191
-16.532250
-8.532192
7.156222
-9.719320
-12.200282
-8.213328
-5.271632
5.844209
-17.660818
16.805113
17.922736
12.707809
-5.871355
-4.520555
-1.257241
8.463188
2.113520
7.908838
-11.373212
-11.575044
-14.013908
12.721515
-6.737218
-3.934509
-10.334274
-11.661813
-5.087291
4.103545
1.583049
4.866340
-13.280753
-16.206973
-2.038199
12.521993
-10.675767
-15.741267
0.326745
3.866626
-2.264152
-11.572743
4.239551
4.232849
-10.092643
14.805381
2.865787
-1.321188
-14.810499
-2.492462
-16.870948
12.015754
9.465212
-14.988100
-2.192855
17.178373
3.200770
-4.063079
-9.710372
4.675283
-4.043048
10.972693
0.117630
10.923462
-5.570282
-9.347422
-9.330039
8.364261
-0.480932
-5.886725
-9.628514
1.846613
7.741171
-12.823354
7.769648
-3.121161
0.298745
14.158185
-19.640138
1.218042
6.567978
5.728095
-12.409414
-2.577013
1.362965
3.632423
0.979120
11.646547
-10.160020
12.730233
-4.039551
-4.078994
17.912634
8.299587
17.590457
-2.591880
-14.837268
22.377461
22.470487
-3.473226
-3.306766
9.601561
-4.138876
4.407096
-5.204146
14.507495
9.091932
-8.423913
9.841082
-3.893369
-0.481088
-0.080700
-12.344366
7.793508
3.253102
5.936527
7.436844
1.865354
-1.193529
12.550951
-6.624934
-11.924867
4.556439
14.278845
7.430767
6.462394
8.980663
2.633522
13.970747
3.796591
-1.374314
-6.592948
-8.018897
18.689661
3.111473
-7.152306
1.374808
2.742546
-5.522050
-10.291273
16.545566
-6.080170
0.673639
3.842153
13.406494
-5.135356
-13.515271
10.217460
4.987840
6.842492
-4.964563
-7.042718
-10.650263
-3.865162
-13.703995
-13.306620
-5.450051
11.785336
15.691395
11.808866
0.300455
-15.634269
20.884151
-18.394040
-2.913004
3.728587
-20.543759
20.513194
-4.654969
3.392131
0.060437
6.132819
-2.199662
-5.742807
4.787970
18.665479
-0.945236
-2.301644
7.988193
7.446087
10.249206
-1.297904
19.023532
5.207717
16.707517
-8.599046
-7.896256
5.589903
-1.527230
1.758196
-12.327098
8.733672
-0.655267
4.712966
4.634807
-0.525864
-2.600459
-3.028508
2.354370
-12.790748
0.432338
-9.837181
6.549175
3.486958
-9.097897
10.693463
0.453444
8.232958
-17.269024
8.427045
0.346763
-15.781410
-3.551839
2.694606
-8.264512
4.014372
-7.132618
5.622774
7.752439
2.401538
17.306295
8.005485
0.320922
2.639633
-0.931392
20.063099
4.603559
-9.669941
6.514624
-2.647024
1.980508
5.685114
5.382572
2.255714
4.784845
-7.139455
3.563179
-19.261670
4.495841
0.498782
-17.949052
-19.472798
-2.212035
15.736930
-11.009781
5.368724
0.325110
9.236621
-2.334810
8.125021
1.383900
4.128671
9.058618
-9.539717
-0.954903
-19.228555
7.463236
-13.364062
1.711116
-4.069296
-2.254657
-8.850832
-23.241111
5.650434
1.274126
10.205042
-2.686683
1.276519
4.780082
-1.280154
-25.449068
6.079349
-5.689743
-23.875413
-7.121851
8.795444
-20.420329
12.132603
-11.941996
10.459156
-8.293352
-3.687658
23.008247
4.088974
-10.193654
11.416061
6.721897
6.586395
-2.063254
18.697334
-0.479963
17.275674
11.146159
-8.094971
1.822269
3.843206
7.637081
-9.064511
-2.968186
-10.359135
10.681144
12.820838
-3.751543
2.998069
4.309636
3.228542
-16.007346
8.843397
7.836168
24.630593
7.815405
-5.855687
-4.284445
21.145216
7.513193
-3.378488
14.602629
2.443427
-19.825050
-2.761248
8.973291
3.524266
-8.653588
-0.134578
-1.037256
-17.360031
-4.224371
-2.776041
2.216161
12.290771
7.256616
4.353908
14.033701
2.067849
-2.871038
10.321800
-2.965954
-4.576627
-0.003218
-2.122174
4.517679
-3.218569
3.255707
13.521729
-18.851587
-6.276245
3.391318
6.549346
-4.937005
-8.493997
7.003705
16.033170
14.460384
-1.962353
-19.858479
0.475612
6.383147
2.470384
12.000407
-0.398099
1.224632
-3.446591
1.394130
-3.340745
22.472066
1.467954
5.763773
9.186124
-6.446054
6.486633
2.395092
4.930324
-0.258751
19.679951
-1.179518
-4.696736
-8.893194
5.185908
0.328348
-13.270821
7.886275
-11.187333
8.115071
-14.264025
1.074112
3.603949
3.962728
-17.444927
8.381661
-2.255890
-5.350955
-6.415781
4.353589
1.311307
-0.889805
-6.865307
-0.127288
4.651178
-3.311052
8.693043
-0.339607
-5.382934
-10.890907
0.268532
1.719068
-3.614644
2.817321
-1.888080
-10.635586
-11.313382
-7.436568
5.560971
-11.173935
7.824320
2.606781
10.030440
-1.580269
-5.811876
-4.877927
5.489957
11.917486
-7.058965
3.494906
-9.857862
-1.976115
-0.189120
-11.244699
-0.042452
-5.159553
2.824167
-10.250429
7.206384
-2.889478
12.353783
14.285385
-11.667394
-8.935283
-6.925856
-8.734794
2.736019
2.390081
16.609246
4.771494
-13.230524
2.060933
-3.001768
-8.233350
-0.171969
-8.476892
-0.945549
16.150513
4.408740
-4.942986
3.067154
-9.503970
-7.309138
-4.494528
16.081964
-7.366922
-5.802818
7.225098
13.056358
4.959056
-3.389319
-5.265034
-11.923803
-1.444608
5.669388
2.548419
-1.119675
-20.262677
19.548173
-2.456769
-1.241818
-4.767917
-14.302318
3.966527
-5.080214
5.963980
2.388916
2.016841
-1.080421
-1.958651
16.468197
15.960591
7.921350
-9.147676
5.275409
7.632704
6.637512
-0.234832
9.303780
-15.605957
0.071955
-5.965085
-1.623314
17.378111
21.043475
7.526408
-7.638361
-4.348046
7.116948
19.873262
-20.341524
-7.444861
-6.595523
-6.590309
3.249907
2.359673
10.501708
7.630127
-4.344656
-18.249056
-15.098225
1.160597
-3.202293
2.239444
-3.880431
-3.889916
2.492440
6.004451
-14.521003
-12.690224
-1.537453
-10.651137
-18.095510
-1.960046
-1.382212
-3.615787
2.788130
7.685425
11.291683
14.957004
9.113944
-2.287904
-1.029649
-3.942798
-5.781288
1.681038
-0.084373
18.242223
8.726431
3.224832
-4.787039
8.092339
0.115268
8.404426
6.601056
-21.310659
3.044945
3.368680
-7.472230
-1.844639
6.845978
-5.443077
7.880193
-14.213441
-13.725821
-13.666233
11.768493
-3.487603
5.118823
-6.271773
-1.981899
4.892859
-1.230267
16.047585
-12.549587
-10.399370
10.217697
2.239130
-13.743365
-7.625306
7.384857
6.122563
-5.989037
-12.238681
3.347290
-9.368506
-1.123505
-3.182507
-7.853099
-3.735672
-8.170553
9.044151
-14.552479
-7.404311
-3.802764
2.098967
14.282757
-7.471231
1.834005
6.326665
-11.210903
1.284860
-2.662913
10.838614
7.300347
-7.592399
-10.332026
12.604187
7.598640
1.604350
8.029462
9.856423
-1.780136
6.379828
3.187689
-4.412738
-3.604904
-9.540933
0.732945
5.655874
-2.097795
10.647860
-1.465201
7.198234
19.314194
-3.990743
4.961397
-13.779824
-6.816728
-7.248553
-8.699123
3.161105
3.357065
-25.156880
-11.160462
-12.382426
-14.530970
7.576214
1.978907
1.724628
-0.680874
6.850269
3.006633
0.595978
10.097065
5.224283
-2.706600
-15.970654
3.206101
17.574880
2.399741
6.474090
2.983437
-11.065194
-4.336608
2.493109
-8.652823
-16.669140
1.260240
-6.153777
-7.786697
16.517927
-15.174890
10.853396
0.113850
-0.076903
-2.354832
3.694040
-3.391524
-21.858478
5.938527
-6.195301
9.006648
-12.857280
-9.512289
-5.696526
1.017817
6.887056
10.828016
16.269563
-13.694311
-8.252581
2.490770
-1.000433
7.077910
2.290027
4.153748
7.379044
-15.602184
-3.210766
-14.507821
2.849828
3.628193
-8.292813
-25.737678
-17.674419
6.339080
15.167794
-3.091420
17.749481
-11.140609
6.017215
5.331934
1.773133
-8.166652
0.411107
1.306208
1.570825
-9.200439
2.339650
-19.715726
5.636043
-8.019901
-7.561863
-2.022547
7.062023
7.836010
-7.382327
-7.911331
17.402772
-6.960251
11.243425
22.348994
-3.858313
7.627609
3.573414
1.372666
4.785328
5.915209
-0.434488
-8.519808
-4.225894
13.642230
6.836870
1.484250
-12.940957
-20.357747
4.976226
-8.084048
6.463869
-2.310939
-1.893444
2.529005
6.648031
7.819405
9.475147
-0.594197
8.440134
-11.245842
4.245165
2.423367
2.419845
6.328667
21.241687
1.991118
0.408881
-3.653663
5.469666
-5.489451
2.611407
-9.547260
10.025179
-0.299375
-8.963045
-6.076656
4.140260
-12.200923
3.819798
-11.982855
-1.604900
-0.908674
5.875257
6.769039
-8.078248
10.371668
3.256007
5.663264
-3.143078
-5.435338
-8.269833
-0.362176
9.506197
6.912024
11.078228
7.176956
21.159823
8.984924
-2.967994
-5.288624
1.952329
9.267856
9.192558
2.891156
-13.686494
-14.904941
-9.250894
-8.811649
13.241628
7.758522
-6.430402
4.069620
2.538079
-9.300380
-13.419860
-2.118768
2.935900
12.225348
-0.900300
-3.444346
-1.554239
1.020313
-3.140372
-5.301497
-12.778489
-2.985997
-1.374443
-15.292730
-5.312791
2.028545
3.399045
11.711234
-0.405101
-14.893742
10.632077
-7.360861
8.408764
7.161614
-2.889510
-11.523325
4.123956
7.869521
0.306021
-11.741066
-9.919097
16.840309
5.243160
-14.037155
-6.605583
1.850725
-1.365887
16.182809
2.965571
-1.646119
-7.756157
3.766516
-15.593190
11.700793
-11.338823
1.195384
-2.830215
8.215941
-3.921920
-11.486641
-6.072360
-11.443270
17.917611
13.043087
22.034816
0.648875
-13.660258
7.221738
2.796553
6.385967
-2.422664
23.891431
-4.611669
2.225585
-4.180826
3.386814
2.683616
-2.899286
4.212038
-16.959597
-1.461382
1.991837
19.073881
-12.605848
-4.639633
-8.878574
7.954052
-4.039066
2.691676
-10.543613
-8.012815
1.202686
11.445541
0.300044
19.707256
17.189745
15.635387
-19.381326
4.305062
-6.307054
-6.964005
5.223114
-0.678222
2.786241
1.180483
-12.533098
9.657800
-1.843644
-17.671429
-10.757172
-13.838261
-5.965305
1.721978
16.268331
4.383508
11.850532
12.151184
6.082728
4.179400
5.526276
-1.434037
11.431552
2.656662
6.139472
-7.025361
1.443443
-0.805964
3.372103
10.154829
-4.746446
-11.269717
-0.240197
-6.669801
-16.978323
6.502453
-8.704843
5.338330
-0.473445
0.854548
-3.027374
-10.850913
1.895614
-4.198105
-3.479399
-11.491414
4.861542
-3.353525
22.339040
-7.998354
-4.391478
-0.124559
-22.282206
-22.696215
-0.140516
-17.406058
23.316630
-10.653029
-7.859077
-9.042617
-3.199664
-10.521109
-4.227414
3.837148
9.475438
-0.811519
1.262873
-7.950541
0.273956
-0.705667
-5.141070
14.550284
7.185255
-20.120135
-0.953058
1.566823
-0.872968
-2.552863
3.597278
5.592261
-1.182826
5.204964
3.880011
1.775217
7.778127
-5.317273
-5.619235
3.391406
17.120233
11.107783
0.981600
-8.097924
-12.203068
-2.900037
-20.208803
-0.392822
2.084371
-7.059589
-15.079646
-2.493776
3.288817
4.098415
9.555956
4.705378
20.287072
8.075401
2.312895
3.865064
13.501591
10.160959
11.544280
10.395123
-16.742731
5.827582
5.330091
-9.993668
-17.285486
14.515995
2.288779
3.532722
-3.380515
-2.159671
-3.429144
14.357815
-21.158112
-17.044660
0.315588
5.043814
5.387054
-4.537404
-10.678144
-11.188925
15.065832
-0.282513
-2.230031
8.430334
-0.750173
-16.189430
-0.073798
22.408456
-17.511367
5.526254
-8.757693
-8.613484
-15.694478
-5.487561
-3.956208
-6.981558
-4.041545
2.261173
10.243105
-12.135181
2.328759
-5.477458
27.111910
-2.013139
16.578757
3.781005
5.535830
-6.389479
-6.849128
-2.829021
-13.486872
-2.649834
1.412086
-4.329051
-7.369574
-0.847986
1.812498
-0.305094
7.133368
0.672004
8.736397
-2.103310
0.395726
15.080338
-11.142756
-0.833702
2.048140
3.579943
-9.713788
11.923270
10.850695
-5.904817
3.038524
13.611448
-13.404916
1.135371
19.380500
4.241391
-3.488745
-2.213770
-12.771691
-10.748622
6.133044
-9.874214
-2.029953
-3.469636
3.795085
-11.039043
-4.600850
-17.366936
0.146634
3.297187
3.806870
-7.619862
7.613151
-8.780470
14.567972
-10.580054
-2.508135
4.964213
9.090791
13.455209
-9.406667
-19.247362
-3.101815
18.790059
9.979424
10.893877
0.580321
-7.426935
3.871295
-4.550616
-12.710472
5.029226
0.521590
-5.359460
-2.548108
8.516523
-5.756084
-1.598566
-12.747986
-7.290416
8.393047
-3.648506
4.397907
-2.059188
-0.935201
16.848853
10.342424
7.592301
-14.822134
13.359517
4.469742
4.570847
5.643084
5.421544
4.771720
13.906350
-1.341777
-4.332905
-11.847077
-7.108784
2.272790
1.345042
7.505915
7.115677
-0.290058
-16.025855
4.996941
-19.569147
-9.580862
-9.742038
-0.936604
10.026397
-3.233475
-19.123513
14.428034
-7.514476
7.545471
9.780490
2.993336
2.641983
-7.085074
3.552090
-3.980117
6.033282
-0.491721
-1.573678
2.041580
2.812588
-2.699812
-19.943332
-1.245588
-11.661171
-1.379965
7.144598
7.656043
2.358926
-10.512564
0.075240
-7.357379
9.379838
-0.736380
5.660003
-5.304030
5.740945
3.578885
-5.234228
-2.975628
-9.074674
-2.648574
-2.981324
-12.778455
-10.592893
4.312112
1.410552
2.120600
7.179147
7.304951
-13.500119
5.924800
9.845429
28.467999
-9.984018
-10.150410
4.285329
-4.301319
-2.259982
2.623668
-13.051159
-3.598451
-3.230125
-8.132997
2.408158
5.796160
11.786983
0.715602
-4.741454
-1.875401
15.817228
11.824475
2.330268
-2.193465
-2.479481
28.766302
3.710378
2.995806
-0.288858
13.505055
-4.028512
2.911071
6.972777
3.857203
2.201200
0.620922
11.328729
4.269418
-7.646719
-9.081859
-6.864817
2.564260
-1.309548
-5.670355
-13.185738
-8.951614
-20.352955
-2.740987
19.843746
5.490611
4.876259
5.896512
-9.117186
-5.560478
-4.144872
-2.147005
-8.077538
6.425276
5.644858
-10.224423
9.306161
-0.069790
16.557423
2.378078
-16.001569
3.207503
8.476770
-0.198637
6.318039
-1.703395
-2.327869
3.894312
-2.642235
-10.145650
5.302214
-8.301654
-0.103977
-13.447792
-7.684034
-2.605975
-7.391596
4.109783
2.354001
-10.166953
-14.557424
2.774660
-11.918915
-0.820392
-17.541077
-10.214374
-0.371448
-0.150661
13.161778
-17.954722
-5.701002
4.620243
-15.877241
5.772192
0.274975
-8.137729
6.084946
6.405568
6.206873
-3.459527
7.652263
-2.983750
-1.168217
2.640632
1.581225
14.887877
4.379797
5.542154
2.984575
-4.833958
-11.355461
-19.479132
4.010100
5.007533
-1.664826
4.621267
6.055625
-6.539173
-7.846842
-2.099402
5.117171
-10.350817
0.227219
-3.054455
11.586758
0.495454
13.557088
-3.654236
-0.465223
1.685354
7.059589
-5.744569
6.009458
-16.084085
-3.591719
7.961739
1.025641
2.448830
-10.023110
-13.086805
7.243992
6.007985
6.643800
-13.130401
11.664603
-14.530957
5.834078
-2.902457
4.403690
6.865916
-13.547492
-5.770241
9.032956
-0.411784
-12.283739
-9.162811
-0.114624
-5.249514
13.670365
-14.668297
4.513901
4.416642
2.047205
-13.024992
-10.349053
-3.026368
-14.463375
-22.038248
-11.972529
-2.066833
-14.558512
4.836984
1.785749
10.301857
3.099251
-7.158229
-2.255654
6.122861
-2.016901
-8.690462
3.622624
18.133287
-2.238559
-0.264527
10.332839
-10.114579
-6.773596
-5.520975
18.496463
-6.057240
4.653526
0.054313
0.763155
18.939968
-4.962632
6.740521
-19.757213
-10.037413
-4.745795
11.969414
4.888078
13.385080
-10.004538
0.871250
11.039268
-21.600461
-13.913923
0.140804
-5.925529
-17.413742
6.421883
-7.723985
0.172727
-4.276071
1.422497
3.660418
-1.414322
2.482421
-1.997524
-13.234166
2.003857
-3.450657
7.404235
8.371600
8.264624
4.392075
-10.147356
6.575918
19.758608
3.606067
8.538132
2.679330
-4.250350
3.788310
-8.089885
6.255249
-4.581057
-8.943386
12.913945
7.521071
1.373955
-8.784937
-0.700438
5.858889
14.955625
-2.259633
-5.106958
-8.908340
6.548174
-17.841038
2.737500
-2.588424
6.576511
15.191259
-20.420466
-0.677744
3.454720
-1.120816
-12.812449
1.805225
4.169937
-12.021829
5.102454
1.576754
-4.246602
12.506327
-5.074685
-11.981808
3.928341
-2.734111
-8.091232
1.789760
6.238613
-6.851901
-12.806387
4.273193
-4.304557
-26.064011
4.803644
-16.179144
1.223741
-7.498252
-0.689201
-10.854209
-9.295444
-12.789741
-12.805407
-2.243871
-12.855353
1.334462
6.317952
-15.512666
8.502394
-5.322484
7.810844
-6.499371
-6.388351
11.847018
-6.162326
-13.680322
-4.753098
0.735611
3.917479
-0.967699
5.833699
-18.551320
5.179756
7.568940
2.766412
11.113444
1.465916
-1.825027
-3.940597
-0.779646
8.851638
-14.428187
-1.864584
-9.659492
-10.700112
-6.264565
4.472613
12.988479
-9.340601
-6.072740
-18.882242
-1.814470
-7.636167
-4.197418
-1.352881
-7.246852
-0.123222
-12.306693
9.841291
-4.352924
-3.174366
2.713038
-7.656004
-0.094994
5.164465
0.430729
-10.606035
0.187870
2.453828
14.376040
5.055314
8.212423
14.578277
17.117199
-3.475284
-6.584005
7.421409
10.867171
-17.888758
7.065173
-6.084246
-0.963865
-7.254269
-1.252041
-14.619897
0.591027
-20.561576
-10.650287
-3.915929
-4.566472
4.249755
1.209639
-5.749113
1.357789
4.232208
10.881868
-3.802039
12.615056
-11.091190
-15.512172
13.515554
2.156136
-2.611747
-6.078185
-18.504190
-12.964003
-4.117244
-10.065915
-24.933333
1.090336
6.396685
-10.438775
-6.411488
12.870946
-11.418737
-11.376844
2.419914
-12.884153
8.437970
0.542811
-15.218975
2.916545
1.797269
-2.695664
10.602500
-8.363117
-12.359585
-2.405216
-5.971211
7.880254
-5.399206
9.780679
1.528893
8.684836
11.875657
-11.475307
8.854274
6.942232
-15.392620
3.322133
-7.811989
-21.842808
-8.317898
-1.040456
-17.813531
-3.295647
2.603931
-6.370269
-8.196260
2.677226
12.746297
11.295134
-2.807078
-11.927594
1.816496
-13.068315
-12.403399
-9.018635
-18.752645
10.433831
-9.921420
-6.331192
-2.242299
13.087591
-2.175443
9.794012
-12.838208
-2.514226
6.086019
-19.058723
-9.060695
5.226646
-6.624292
-17.414282
-13.908126
-7.725929
-3.525856
-18.228131
-11.539684
12.395585
-18.522155
12.142223
1.243932
-20.995850
-6.511125
-7.707015
2.420693
-10.836509
-13.757155
-12.010740
-5.049127
-8.713324
0.342131
0.096422
-7.661842
1.131021
19.517446
-29.683978
-2.873284
4.144291
4.535969
-2.898196
10.969254
-9.702538
1.589721
-0.846712
1.045853
4.377400
4.676402
7.172149
0.942692
-1.117476
-3.414450
-18.835629
6.896858
-0.904280
-0.887360
-8.938181
-4.991061
-9.033002
13.744729
-3.653965
-8.370401
8.982445
-4.863962
-3.815756
13.917259
-6.039348
3.146495
6.809743
-2.890266
-9.588667
0.325668
-10.622739
-9.419896
0.759671
-7.805907
24.066559
-11.873493
-2.119234
-8.794012
16.794183
6.917418
-14.078560
-2.432642
7.395112
-4.979413
9.501330
-12.858783
-1.487438
7.218017
-11.841420
-4.935385
3.348173
-5.285845
-21.096585
11.119758
-9.134534
-2.683981
-3.539755
-11.303981
1.392175
-0.581963
-1.897355
-12.254250
-2.395756
-8.938548
0.630171
-2.757363
-11.387112
-5.602930
-7.198473
7.980337
-2.776200
-14.184829
-1.660602
0.754350
12.491168
1.244516
4.902219
-5.496109
-5.563755
-1.578829
5.282461
2.480305
27.104630
10.432911
-0.101458
-0.774349
5.009502
-3.526773
-11.811046
-11.344128
-14.323173
-2.974383
-11.299207
-1.959609
-10.700230
2.289507
-3.843221
-4.773025
5.730501
7.991883
6.846403
-9.136151
2.950144
13.217917
1.914607
2.889410
14.611182
15.126280
3.982137
-1.612305
-7.165996
12.979603
-1.026792
0.440669
0.076310
0.132598
4.950100
0.217788
6.270140
0.380775
3.980308
12.621250
-4.737952
2.965888
6.531744
-0.512286
16.227587
-12.868441
7.557397
-1.864698
5.968106
1.527192
-12.408259
-6.533870
4.552403
-5.097203
8.121169
4.133143
-2.468767
6.369964
7.265844
3.800578
-15.007970
14.759131
-0.318653
-8.974055
-3.074035
-9.474499
-1.486726
-17.231302
6.302503
-7.470293
16.107815
1.208139
-6.109285
-6.196163
-17.438612
-10.334924
10.672091
18.145514
-2.323210
10.716099
-7.888486
-7.661011
0.907193
-4.865207
-4.386329
-2.115330
-5.966997
10.566940
1.855051
-4.214059
-8.243425
-6.627161
6.519837
10.224317
-4.749109
14.164517
5.337936
4.277409
-0.777163
2.337854
2.778453
3.929041
-8.418789
-13.693542
-4.224576
-13.021560
-4.729141
-14.719117
-14.410300
-27.686189
9.620304
-7.146989
-0.665529
-5.602926
6.125045
-3.735571
0.174900
-13.608505
3.406437
2.515253
10.519288
3.774281
4.084333
-7.014460
2.150969
-9.182366
6.509885
-15.907888
-9.313828
-2.856960
-3.507724
-3.137104
9.761438
1.442722
-9.991278
14.013767
-1.125305
-4.678286
2.591065
-3.398696
-0.023973
-5.303760
-3.700746
-3.566835
-16.183026
-12.199590
-13.561982
5.466851
-7.298568
0.701058
2.652779
-0.934726
-3.288856
2.609513
-10.131207
-8.003343
0.455440
-16.421972
2.330191
-8.722037
-0.271179
16.572382
4.853247
5.237826
-0.588117
7.961689
-18.827636
11.618521
-14.359335
13.562342
-15.613864
-2.754720
-14.212763
-6.490905
8.355335
7.160124
10.701098
-4.817758
2.636107
-7.988809
8.394013
3.627723
-8.019077
-5.254881
6.235508
-3.479139
13.440305
1.269062
-3.275402
-21.982165
-8.085236
-1.646657
-0.253988
11.259735
6.386257
-6.564219
5.253605
-2.025400
4.624618
0.886050
1.657367
7.801632
-9.511004
-1.274799
-0.596972
6.654783
-6.484142
-9.828510
-18.655566
3.966061
-4.526732
-6.021126
-3.148580
14.237167
-8.445739
8.240529
12.342664
-2.753821
1.094248
-8.524670
-1.988767
-16.213081
5.965391
-1.018255
-1.512860
13.001359
8.949566
-3.209197
1.515194
6.181714
-0.690077
5.230831
0.008676
-1.361566
-2.996392
10.113681
-9.204122
-5.402426
-16.524859
-5.101783
1.445183
20.571388
0.012517
-4.053182
-8.153380
0.691672
-10.118407
-9.431685
5.515584
-4.202368
-8.372900
-11.698028
-24.901006
-4.807862
14.023020
-10.508932
-7.745822
-5.568229
10.927901
-8.154510
-0.673950
0.900763
-10.628159
-2.899047
-6.024650
3.436703
-13.657863
11.621554
10.932659
-5.693749
-1.587210
-8.442466
9.346814
0.166087
-3.056707
5.264577
-22.725027
-14.032058
-0.592919
-13.018918
-12.555077
-5.290435
-1.642351
-14.425847
4.370717
1.611767
-11.203404
-6.487181
-14.058572
-3.170390
6.587165
-7.207019
15.046809
-8.554042
0.132495
5.577843
-3.580928
-1.811770
-9.049878
-16.969417
3.834606
3.033045
10.472499
8.787776
-6.640224
-3.566209
2.079680
-16.585609
-30.937907
-5.906777
12.028486
-4.941824
-11.026033
9.300413
6.352664
-2.859731
5.668631
-8.081407
-0.273491
-11.675386
5.678019
0.131895
6.502690
0.248138
-2.907521
14.016730
-11.628975
-6.441681
-1.188098
6.169260
-19.360203
5.214593
12.857322
2.372183
-14.810469
15.445611
-11.372962
-10.002564
-5.268968
-11.794033
-10.080501
-5.618483
-1.499923
8.296299
4.419412
14.963693
-8.588533
-6.692867
10.461838
5.755162
-1.696458
-5.436338
0.541497
-10.249352
-1.096214
12.023582
1.736894
-10.028196
-15.519290
-5.713176
0.561543
1.104172
14.034507
-1.569033
-8.188490
7.369190
3.438178
5.896883
-4.819744
5.197876
9.427452
0.915281
-2.178292
-2.741631
4.608946
17.391354
-7.846741
-12.277603
7.073770
2.245876
12.976805
-3.258786
-5.628415
-5.226797
2.204752
2.100071
-8.300282
-1.879019
-9.871740
17.114435
-6.544505
-21.667720
4.191342
7.458016
6.375154
-11.452519
6.609709
-3.152804
7.933469
-3.745878
1.431114
3.991717
6.706155
5.403687
-5.010731
3.323664
8.610447
19.988407
-17.187848
-5.691938
-0.941397
5.547979
-12.641290
8.468540
-4.259754
4.331449
-1.663273
-3.246339
1.150161
6.638594
-0.131955
-7.010614
-5.850471
5.392491
14.780828
-10.900627
-0.233756
1.775809
1.263515
-1.284533
-0.194811
-0.342934
-5.978228
-20.902623
6.962177
13.035284
1.056019
-7.988961
-4.958462
-2.952348
-17.439721
0.141342
-10.739368
-4.404204
-1.364635
-15.035830
13.726220
-6.145039
-0.315312
-8.424332
2.485440
-0.907411
-6.566537
8.394111
-8.044072
-15.248930
-6.155399
-9.418988
-7.093448
-9.546992
4.511510
3.605785
5.048878
-8.436622
10.535331
-3.271336
-11.588890
-13.482721
-0.053455
-10.371721
-10.609772
-3.934200
-5.304066
9.859931
-7.648863
5.974839
-17.759460
3.512639
6.336096
-6.405755
8.340359
1.944372
-19.980086
13.198225
15.237924
-9.687872
12.783134
-10.461449
-4.955165
10.146788
-6.261021
0.556742
2.254102
-7.886222
-2.042083
3.214998
-12.685835
-16.153235
3.274444
-4.051750
7.167015
-1.092453
6.202299
-11.676031
5.055659
-15.536010
-3.575867
3.345096
-1.403041
-10.119901
1.377784
-11.010196
-0.360907
8.843154
9.413920
-19.387488
-15.723697
1.418666
-7.969619
10.869697
-5.924978
6.038672
-5.846915
0.967659
1.514631
0.216039
-3.261878
-12.807464
-10.562267
-6.336179
-4.554873
4.910138
-8.136868
-15.745498
-4.951265
-1.061522
-5.128177
2.201013
6.475520
-16.765711
-5.613588
2.620003
6.074406
-3.264451
8.260352
2.196831
0.761769
-2.895951
0.196967
0.867549
3.049569
-10.246587
-2.586189
7.866264
2.847716
-0.738486
4.162597
10.280383
-7.968609
2.408333
2.929917
-12.090802
-7.788364
2.845720
5.892114
-4.257118
-16.706110
-0.489225
-8.602830
-0.183069
9.785147
-16.144516
9.643217
12.602444
-0.740098
-8.319871
13.986388
6.244541
-2.497185
3.904219
13.874177
-9.779215
7.801756
-8.158127
-9.755218
-12.710891
1.270562
0.733507
1.702607
-8.028904
2.174048
-3.196662
4.913086
3.398724
-0.871666
-14.884721
0.515679
-2.592071
5.265496
-1.286878
-4.591012
-5.677961
-4.558341
-15.724116
17.799933
7.839565
17.040633
-3.159589
0.573003
-0.063861
-1.525810
3.782479
-9.401693
3.705808
0.604099
-3.209412
7.167335
5.462778
-2.679160
1.602675
7.430129
-0.083021
-4.447703
15.471955
-3.264581
-3.275169
-1.427992
0.781542
-5.533804
8.881459
-8.398997
9.899872
0.957001
-6.618897
-13.753253
6.577919
-10.706157
-8.904367
1.161876
-5.213666
-3.624158
8.528418
-19.447100
-2.522141
1.490579
-19.850966
-15.017206
-12.695101
0.154571
0.870313
-5.059531
-2.339066
-0.196911
7.814057
3.000874
-18.812916
-8.045465
-5.701985
-16.934447
-1.977068
-20.185531
4.344352
-5.757764
-3.141450
-6.184587
-11.603362
2.408344
-13.073483
-7.810077
1.386152
-8.148471
-15.651436
4.197951
5.896349
-4.860177
-5.574540
12.180435
-12.573972
-3.915669
11.790144
9.646846
-8.050903
-11.048178
5.318937
-2.478666
-9.203717
-1.379755
18.197428
1.902350
-17.251446
-3.524995
-9.838243
8.554728
10.054200
-19.050222
-14.501644
2.508509
-4.708708
-2.142261
1.758348
-3.023606
3.699030
-7.466962
7.077827
-3.252393
-3.062192
2.910727
-17.658822
-5.020226
11.131909
-3.426151
-7.168878
-7.907476
2.972905
-3.503967
-5.409249
4.298907
5.987505
-0.817713
-12.003324
-6.400008
-1.883109
-21.209123
7.850910
-4.974590
5.106609
-14.195472
9.664243
-3.212036
-5.466309
-19.732315
2.216456
1.292978
-0.876321
-3.475290
-1.218517
-4.972684
-12.614001
-15.296396
-0.109043
-6.794225
-4.970028
-1.741792
6.634727
5.627391
4.767169
-8.768100
-4.016790
17.341402
-0.226938
-6.240249
-13.056557
-1.370040
-11.743722
6.854388
20.181459
4.338043
14.491026
-6.176008
3.062385
3.891567
-7.698990
-5.309410
-0.022205
-5.555936
5.811065
-15.596554
-9.959472
-21.079677
-2.786591
-2.783808
2.224340
-18.288241
-6.198166
-4.564357
2.539773
2.700925
-7.418090
-0.853251
4.609330
-1.970729
4.192364
-21.532983
-8.196369
3.501011
9.728978
-11.309547
-5.724930
9.748490
13.942869
-13.051300
1.899403
6.932582
-10.299822
-0.368015
-0.104114
-6.362922
4.580802
8.027850
-6.249269
8.787978
-7.562746
0.917178
-3.355975
15.874363
-19.381290
-9.972253
-0.579779
13.238532
4.859643
-3.146132
11.079944
-15.043967
-1.280809
15.477352
-2.056875
1.349807
-9.424940
5.825878
0.326372
4.282594
1.757378
2.461759
11.119925
-2.157965
-3.374507
-13.001826
8.711086
10.564018
2.638418
-4.262993
-0.413182
3.054773
-2.794004
-4.815884
-14.551465
4.941298
20.985802
4.173203
-1.153820
1.621749
-9.101274
-0.709107
-6.023548
9.341235
-15.241087
-12.682629
4.304979
-21.403535
6.761531
-18.396100
-6.847561
-7.563139
9.348949
-19.468280
4.876121
2.833606
8.809171
-21.317444
-15.127212
-2.122397
-8.188670
15.354563
-9.864274
2.091500
-0.558540
6.663950
-12.647483
-1.102730
0.894575
-15.094431
12.267798
-1.966206
-3.413924
-12.605641
5.143173
-2.197418
-2.882285
-2.016853
1.232564
-16.560436
15.407529
-3.021216
-0.132749
2.288739
-15.975547
-8.054073
-17.028745
-0.886505
-9.388556
18.875695
7.788172
-19.977755
-6.896405
0.143466
-18.691386
6.636269
8.383335
-5.645986
-8.816436
-14.934877
1.255750
0.700097
0.762893
-16.387331
-4.545768
3.379440
11.862022
-4.151133
-1.983145
-21.126575
-0.848716
-9.934945
10.820721
2.458596
-11.737840
4.742204
-2.665387
3.399730
-0.175056
2.788565
-15.595304
-10.865964
1.230098
6.968019
-12.980484
12.977916
-0.829678
-0.073334
-3.984849
-7.773275
-2.250145
0.091657
10.368908
8.096845
7.567770
-5.986841
-12.302067
-1.952021
-16.837971
-5.106092
-12.078715
3.270249
-8.789163
-5.894013
-1.862872
4.014193
-11.965064
8.748432
4.770705
-0.201030
11.157100
-4.617693
3.031171
-2.539209
-3.080185
-2.043595
-9.378229
3.870859
4.127086
-4.207623
-1.542185
5.137213
-9.601662
-4.122178
-16.669758
-4.764908
6.925789
4.032542
-10.526303
0.452623
-14.065880
-6.510596
8.419149
-2.740776
-4.160434
6.702570
-18.602188
-8.470979
-0.895870
-5.979607
6.012014
-11.844216
-17.766797
-1.205470
-8.044955
-5.844778
13.477711
5.216484
0.983733
-2.498632
1.877440
6.655234
14.043717
-10.213376
16.839249
10.521336
4.817809
-10.626074
4.999961
-13.518413
1.401767
-12.444708
9.172241
11.115592
-5.137841
-10.651485
7.300766
1.450217
10.998551
9.979500
1.215046
0.073932
1.433365
-0.148538
-3.511595
-4.665105
-0.202216
10.498310
-12.953332
-1.340937
1.463645
5.588286
-9.422020
-11.742846
14.256882
-2.676430
-12.146465
-12.637866
-6.302972
-7.753382
-13.037848
-4.934411
-8.837397
3.772186
-6.188501
6.440367
-0.583082
15.742437
-3.123548
-10.841464
-8.337775
1.225738
-6.842022
2.015179
-6.439546
-6.919064
-17.647358
-21.406971
-17.794136
-6.410528
-19.731115
2.030839
10.852325
5.867406
-13.531583
4.968622
0.903419
6.606982
-12.376570
5.928834
3.216622
5.486160
-11.929615
8.319741
3.404748
-8.136418
8.913443
2.176584
-3.077109
2.971640
-6.402130
-2.492705
-8.503621
-20.125178
2.690252
-0.053606
-12.023760
-6.262711
-6.849781
-5.464193
3.798422
-4.843810
6.611754
5.929388
7.607864
2.129096
-6.996489
10.295470
-1.190014
-4.752127
-1.710550
-5.936836
-10.487907
0.617991
2.421383
-4.062478
8.140014
-9.122478
18.188900
12.437340
-1.629898
-16.013950
-6.498380
1.650560
-6.645549
17.593308
0.951453
-5.830285
-16.193754
-13.446564
-17.479858
-8.971143
-7.125537
-4.727815
-1.785327
-6.513285
9.678462
1.276674
-7.968247
8.580923
7.748424
8.866583
-10.831557
-14.035060
-10.006530
-5.413607
7.405431
-6.434670
-4.628971
1.841277
-11.428900
1.567964
1.612621
-0.440363
-10.864597
-13.088284
-4.298716
-2.335211
-2.389780
-6.998111
-24.215206
-1.125270
-1.748994
21.381508
-5.162579
5.839401
9.590409
-0.425972
3.753977
-13.240016
-0.691953
8.049819
2.351289
-5.184372
8.306998
-3.600942
4.487699
2.672924
-9.972940
-13.671753
-2.896632
-9.905779
10.285695
-5.939790
-9.111458
3.184663
-2.800769
3.777673
-16.344163
1.491346
-8.902260
5.691780
5.651138
5.100255
6.532501
9.349028
-7.249388
-1.437696
-4.733903
-0.710159
1.245501
-16.486531
-2.551805
-11.502242
-7.028384
15.640269
14.939951
1.412313
-5.307192
5.693714
13.791853
-0.195144
2.036014
-13.417695
14.410799
-20.616240
6.287574
-8.452593
-22.326285
6.860825
-4.889315
-1.820825
-1.847985
6.262137
-10.468950
-10.155604
-5.620168
8.637028
-7.860931
-4.247502
-2.455619
3.200177
-8.583921
0.471799
-7.818219
11.516421
-19.309401
-13.177695
4.196351
-1.121555
-11.742560
13.167111
1.986421
-8.292473
5.166071
6.236981
5.207747
11.571059
-15.770983
-18.849168
11.195352
-8.120935
-8.742540
-3.505436
6.238380
-19.932756
-13.242919
18.912067
-0.494397
1.340265
2.287863
-19.897993
-5.749942
-7.572963
4.403121
-0.601262
20.249886
-9.081406
13.974131
7.504588
-3.870071
2.990460
11.386723
-2.045709
4.660892
0.611391
-8.483696
-2.996087
-0.696093
-2.854217
8.695196
0.329630
5.653922
5.196498
-32.613051
-8.614647
-8.751297
-6.708545
-11.070106
-3.480312
-1.120566
-10.415724
-3.275434
7.651885
-3.679600
-8.993008
-15.773808
3.526294
-13.710689
2.576712
6.572130
20.311170
22.838024
12.872212
-5.767891
0.525271
-7.271901
-1.637028
-9.331903
1.268175
-2.359519
-10.846045
17.646495
16.503288
-1.764715
-8.239002
6.914469
3.967159
-18.810072
-5.562969
4.825402
-9.037918
-0.196949
19.819308
-2.711885
1.911812
4.415106
2.258026
-0.503997
-13.307677
13.012377
22.343582
-9.381422
9.059508
-0.424409
1.473889
4.952073
11.480422
-1.225437
-19.195355
8.891321
10.669231
-8.401560
-21.680278
-1.710909
2.741364
2.895378
9.948294
0.391333
-1.598685
3.809123
11.383613
-3.577512
5.441047
0.325376
16.635664
15.313694
-2.154656
-9.843486
-9.914762
1.637018
-18.528640
-13.962861
8.512782
-2.608025
-19.562144
-12.269787
-8.498034
-2.068045
-15.779988
12.319007
-4.735818
-14.882552
-11.191593
-2.615910
16.157974
-12.974580
-13.494105
1.521351
-12.107905
8.771246
-8.370614
-0.552200
-4.328781
-5.127655
-9.080864
-3.537339
6.118272
6.976827
17.302351
0.970080
2.131136
0.298888
2.992819
2.509183
-0.910837
4.027558
4.714127
13.001880
-4.388340
4.981559
-6.036508
-20.328941
-2.846854
-7.339191
0.277935
6.564173
-4.496347
-8.060123
2.249452
-2.748433
-16.615347
-3.507639
7.491585
-0.188943
2.218047
2.765897
2.800854
-2.900653
-8.900132
-3.515543
-0.364794
-2.174727
-17.339568
-5.539664
-6.291004
5.469282
-15.653000
-0.269552
-12.838947
-1.298756
2.266384
2.478325
-6.287102
1.922753
2.218054
-18.543214
11.165361
-4.172151
6.974796
3.355788
9.532757
-3.592641
-2.046296
1.707705
6.145031
15.637111
-5.856476
5.173354
3.821760
-16.013269
-14.697469
14.786458
-10.296072
-1.726222
-9.829742
-9.392258
10.125514
-11.129698
4.768427
-1.768267
4.905770
-12.846122
-7.305869
0.935681
-15.993912
7.401521
24.223381
3.961937
-3.085022
12.835973
-9.792195
4.837721
6.174259
1.077328
-20.272174
4.910699
12.048274
0.384901
-1.232521
-1.879460
4.157703
1.835454
9.402409
-3.919617
5.275263
-11.250748
-4.873534
3.298608
0.618769
12.075993
1.653346
-15.748900
3.482753
-0.471744
-0.809900
-0.273544
14.538965
6.326535
-7.513226
-0.457112
5.025131
-4.841934
9.551566
7.818605
-6.892045
-3.988000
5.218682
14.699703
-10.866715
-13.398830
15.267416
-10.820193
2.348125
11.827308
-6.822003
3.225384
-11.419813
-20.414731
-13.437059
-2.915776
-11.903683
8.352304
-1.954561
-2.407527
3.073459
4.209094
-11.591769
0.381389
8.667468
9.717241
-8.884261
9.607499
1.153824
-2.986043
-2.844806
19.888390
0.031865
-8.067017
3.061645
-17.246973
-8.599544
8.395472
-2.489849
-4.253235
2.599027
-1.039222
0.237214
-0.003224
-0.640884
-16.681226
-1.157345
3.662201
-11.547710
-0.745607
3.150348
-4.519217
4.582216
-2.927033
10.202026
16.864466
-6.333378
6.578097
-0.890108
0.631466
11.683765
-2.191817
-9.089086
-4.260295
-3.314108
-21.309168
-27.589778
17.674665
3.191497
1.449700
6.844337
-10.444369
-0.289679
-15.942776
-4.370709
-7.064403
1.388845
1.833605
-0.307164
18.402414
5.769405
5.914812
-21.437065
8.621038
-6.324106
-0.972526
0.011696
-6.904695
-3.666954
-9.347807
-5.826707
20.586431
-5.349173
13.987742
0.682156
14.990373
-8.641743
1.207376
6.376133
-6.740249
-5.490606
-19.638707
-10.107921
-8.811424
-0.369926
-5.234701
-15.437889
4.583053
-7.592496
21.498241
4.290332
6.063103
-10.376254
7.878240
14.404909
9.265168
1.835872
9.383870
15.209088
8.254014
6.040434
-6.598250
-12.371924
-6.306071
-3.173565
-7.949635
-12.827564
14.587283
-1.976891
-7.522996
-6.456567
-0.061226
12.882647
14.620987
0.739469
11.510816
-1.001037
-4.332204
8.440078
11.373651
-8.106585
-10.081347
9.192740
-11.566829
-14.952985
-1.683022
-13.305437
1.426630
-9.178610
0.328961
-5.278239
12.202576
-12.613658
7.324616
-12.634430
-10.200050
-11.650560
-6.394337
4.006963
1.893530
18.036530
2.042299
4.666092
-5.104398
8.528541
2.231500
4.724315
-8.805015
14.421433
11.783519
8.956966
6.522070
-7.709158
-3.147046
0.502456
15.367582
-7.760209
-3.017099
7.600797
-3.368444
9.963680
-9.101196
-5.554743
8.518212
11.326554
8.956434
-9.969326
12.448081
1.307760
-6.528341
-20.344520
-14.992654
0.146187
-6.573235
10.957071
3.505045
9.829943
0.935610
-3.480784
-2.707566
3.296262
-11.064590
3.928274
7.976500
6.780635
7.823187
15.052703
5.248963
2.057122
8.428341
6.076297
6.823695
-5.590761
0.987003
1.216496
1.544259
-8.641732
-6.859556
-8.135711
18.278697
16.618531
-5.725719
-4.260869
1.456148
2.882614
6.431083
5.143062
8.319249
-2.384543
1.993021
0.211461
5.804383
-11.808415
-10.490851
-17.059532
1.610139
18.163285
23.007187
8.296590
-17.870586
-20.982502
-9.729766
20.528725
-12.239894
-0.409970
-0.585555
6.217338
2.805671
-9.103347
3.250738
0.759135
-3.411388
-1.010128
-12.128246
-9.777559
1.298273
-1.298696
0.148823
-9.666893
-1.237065
2.721555
11.291541
-5.735702
3.149772
18.420546
3.097378
2.328701
-2.640351
0.916250
-12.035635
-1.206753
-0.300824
-1.187761
-5.205523
-3.711826
-3.729664
-3.705863
16.458687
1.722399
-2.694230
-4.869117
8.917214
1.925753
-17.777110
5.393540
3.047650
-3.072830
-4.647857
-13.463170
2.473868
-1.799656
-26.457841
10.200119
-0.804610
-7.887439
8.468962
-10.315648
17.716144
-8.828050
-9.324483
11.955256
-7.041415
0.004128
0.862954
19.490723
-3.753942
-5.618261
1.050919
-11.204589
12.640211
-13.016292
-4.372879
-11.281263
-1.104570
-23.140986
3.151892
4.084704
11.064710
3.911668
6.504636
-1.554886
1.077275
-10.163626
-3.532711
-3.679759
-2.603441
-0.845096
-13.300254
4.888058
-12.415695
-2.345911
-11.259543
7.235170
15.837561
-2.142547
5.240284
11.316810
3.212756
-7.030272
7.253369
-4.365860
1.924748
-7.730741
-18.677580
-15.686146
4.324308
22.016825
12.478756
0.807232
3.512750
6.904095
0.013923
3.864947
-12.770229
6.626825
4.227568
3.863282
4.142526
-1.418166
-15.960651
-0.573509
-2.386746
25.425242
-2.369403
-3.700403
4.248019
16.896846
1.965615
2.613805
-26.704544
4.822189
-5.797181
-5.565444
-1.869859
11.537817
13.116735
-1.831520
-12.770231
3.927821
-9.698769
10.296366
0.940319
-6.213309
-1.016005
8.342968
-2.243177
8.626479
7.559303
-2.820446
-8.073333
-8.688422
12.062056
6.478551
-1.998964
-5.251268
7.668215
-7.857841
-2.183741
-9.819825
-4.855482
5.119278
-3.965935
-0.026232
-10.165637
0.337002
0.029771
14.853570
7.575751
-2.218163
-3.244112
-8.794168
-1.205196
-10.863108
9.708860
-6.021508
8.643075
-2.592300
14.061735
4.439852
11.623771
14.623237
-11.959213
-0.397748
-4.677842
19.661445
-11.121550
-15.617624
-0.679518
-1.488095
11.026251
0.001140
16.440385
9.256646
9.431560
-0.994533
4.964571
-6.880025
10.785356
17.483839
8.537155
-4.279433
20.847740
8.991836
7.485613
11.502081
6.346811
9.971544
17.074553
0.454564
-11.151549
20.871178
-2.060230
10.819730
3.877712
-1.806215
10.001731
6.856113
8.760994
-12.001219
11.472173
-20.650525
7.903133
7.370495
1.577385
2.268012
5.236146
7.324231
1.535734
20.220398
5.812236
-4.353867
-3.794138
14.571859
3.240826
1.555415
-3.999433
8.135718
10.924708
-0.447700
-5.028502
-6.618707
-2.621066
6.554190
4.924464
-5.223940
2.780490
-6.574776
4.027258
-13.421576
-1.693722
-8.758351
2.066681
-8.432340
-6.153281
-6.676640
-2.955267
18.107626
-1.142328
-7.986566
18.673354
4.073471
-14.739202
0.081905
-3.212034
-0.658057
-5.449050
1.145133
3.641235
11.065887
9.182159
-6.356582
-12.330499
-10.088337
0.226159
8.921941
-11.778484
-5.248740
-1.562760
-5.929591
-12.033810
2.293018
-9.406870
-5.325703
-8.814912
7.456374
-10.628714
-15.515890
0.354455
-10.290926
-0.880462
5.029200
-7.182235
-0.953971
-8.794736
2.791120
1.361707
-12.297334
-10.482412
-4.427092
-9.153807
10.122665
-2.830109
-8.682379
-1.553620
-1.594952
-17.093310
6.025254
4.190131
-1.948894
-0.158144
-3.449391
16.525513
3.207397
15.214037
-0.039813
-7.060986
-5.615585
1.389326
-4.365492
-11.472568
-10.740836
8.309586
-6.024149
2.808400
-15.848777
0.688342
-12.435349
-15.112092
-1.483919
-14.246557
-1.296758
1.809892
-16.504860
-2.461931
-15.396232
-3.965997
12.589519
-5.013340
-10.972501
-3.391550
-2.394647
-1.973594
-0.648565
2.222323
-25.081273
1.117338
1.952594
-2.823141
5.915981
1.805824
10.040987
3.558459
-1.596208
-0.276749
5.995132
-3.234472
3.422725
-4.169357
-15.767408
12.488671
12.442805
5.038082
-10.199226
3.537528
-3.730641
-1.768672
-2.231015
-2.906827
9.538517
8.493007
5.009963
-3.890356
-9.220208
-12.683076
2.513429
3.114359
-6.225331
8.656658
-2.239748
9.497282
-1.097522
13.798234
0.154657
6.002702
-4.683605
-3.302462
-12.212638
8.421446
4.811958
0.089496
13.933926
1.831653
-4.573761
-5.345328
7.551105
8.446776
1.350495
22.735410
7.508071
4.090555
-3.502463
1.839312
-3.449529
2.381102
4.681753
-14.465052
18.056116
3.936140
12.845013
3.490893
-16.525698
-19.875640
-5.597631
5.928591
-3.128992
4.348176
4.776079
6.139123
-5.218343
5.916067
4.594887
-2.764117
10.229027
-11.912786
-21.228529
4.694731
4.543858
0.909596
4.509816
-31.244343
-25.092337
-8.894879
2.149592
-2.849377
1.418770
7.095086
3.377781
1.356250
3.485361
-5.546036
-0.588108
10.564940
-15.820661
-2.537846
-9.561765
-5.165678
-7.933943
16.903757
2.789665
16.932152
5.253647
14.086556
-11.365276
-22.119424
-3.518252
9.919756
-8.982620
-2.911301
5.221485
-0.390005
-0.952675
-1.235468
10.274956
-11.018209
8.410037
