-1.734842
0.075374
1.841855
-1.344152
-1.063198
-0.902353
-2.027121
0.927503
4.173453
-0.226531
4.068287
1.610297
0.591310
2.315513
3.995648
-1.768563
-0.234338
2.404660
1.213269
-0.328666
3.800245
3.021014
6.234863
-4.662290
-2.828747
1.681335
2.535656
-1.760646
-4.031055
6.095711
-2.245237
0.813709
-5.729170
4.286642
1.497344
-1.769321
1.866023
2.684677
-2.695992
-4.074079
2.943361
0.813463
0.784687
1.375638
-1.746085
2.064790
-0.982083
-0.723494
-0.912489
-2.431456
-3.361140
2.346291
-1.014155
0.049763
3.033005
-0.383522
4.050551
1.830237
4.783876
1.436858
-2.793734
-1.901550
0.574017
3.448585
4.732120
-1.983623
-1.417698
-2.594955
-2.401278
2.636622
0.222399
-4.232278
5.002729
-1.020370
-0.033865
4.529634
4.365059
-4.696118
2.561917
2.801531
0.142869
1.408193
0.664841
0.846918
0.666621
-4.994652
-0.935972
1.655302
5.307022
-0.677571
0.260436
4.296310
-3.994980
0.975950
-3.204651
-2.669969
6.113363
2.056112
2.351163
1.687847
0.612212
0.257857
-1.635845
-3.367732
2.204274
-2.324202
-5.111298
1.749559
-1.818544
-4.381701
-3.139687
4.340892
1.928959
-2.460472
0.356808
0.109005
-2.647630
-1.699215
-3.632262
0.047686
-1.880417
0.979647
2.280515
1.270350
2.491932
-2.491436
-5.600493
-0.361822
3.217571
0.420814
0.422970
-1.058510
-2.563984
-0.014585
1.447557
-0.418867
5.024430
-2.393423
6.040400
-0.003616
-0.693620
-6.333936
0.698680
1.912110
-0.831680
3.768880
1.147539
0.138207
0.996514
-3.996893
0.316393
0.251998
-3.356997
2.536454
0.105022
-0.265838
1.930149
-2.630016
-2.768245
3.360165
3.090523
0.012820
2.320492
0.946813
1.874275
-0.001350
4.308344
2.239891
0.518282
-5.031340
-3.698029
-0.964347
-0.458843
0.143434
-0.266204
-0.525453
2.007556
-0.978756
1.085356
-0.236686
4.674862
-0.591642
2.824397
1.129084
1.180550
-2.897382
1.046219
0.624810
3.805638
1.873305
-2.921911
2.157145
-4.212465
-1.568070
7.847688
0.990250
-3.391687
5.724806
-0.925780
3.351007
-2.057273
-5.130461
-3.542530
-2.167795
1.621890
-0.118783
-2.543837
3.723624
-7.114831
1.442648
1.532368
0.099095
3.534932
-2.443679
-3.978474
0.998706
1.395648
2.626629
1.830082
1.969163
-4.209542
-0.049394
-3.338289
-1.210440
3.871619
-3.863508
2.573007
3.688370
-4.030340
2.583324
-3.349103
-3.499423
-1.502129
1.104529
0.451761
3.305168
0.863672
-0.609166
-0.008705
-4.974388
0.043616
0.351310
1.167396
0.072278
1.442799
6.470366
3.796101
0.958800
4.983722
-0.393751
-3.449800
6.516905
-2.390797
1.587722
1.961734
-4.424763
-3.149969
5.764589
-3.823429
0.183797
-5.338176
0.327940
3.634281
-2.242151
-3.848799
1.948534
-3.218496
-1.255183
-3.442025
4.581709
0.499186
-4.521794
0.176402
1.405463
-3.545021
-2.751993
2.074815
3.928705
0.551181
-5.784984
-3.389667
-1.302754
-0.522644
0.174117
0.148910
0.944578
-4.467194
-0.265571
2.180015
1.083650
0.576450
-1.560449
8.293316
-1.177163
4.821209
-4.915964
1.914302
-1.657154
-1.255028
-0.406128
-0.057379
-1.382310
-1.612128
0.926844
-2.850977
3.133873
-2.373854
-0.054666
4.200325
-1.411575
-0.196424
-1.222104
-0.813323
-1.958301
3.942054
0.622240
-4.365369
-1.606448
1.589919
-6.243712
0.079208
-2.819025
0.968317
-1.232688
-1.438531
1.452373
5.519712
2.643698
-0.033296
-2.375130
1.812795
-4.146897
0.986378
0.921267
-0.914642
-2.137223
0.167143
-0.604804
-3.278148
-2.894607
-2.632075
1.265219
-1.155979
2.126873
3.506996
-1.493155
-2.456199
-1.446961
1.419168
3.914799
-2.153842
-3.189948
1.565659
4.633554
-0.636842
3.575214
2.934397
1.425440
-1.391356
4.863639
-4.652964
-4.993570
2.048190
-0.598667
5.014041
-1.453377
2.486727
-1.529759
-2.714308
-2.033255
-4.936827
-1.219007
-3.003879
1.963456
0.466574
-0.652289
0.863756
-3.159855
3.066550
-4.933640
0.756627
0.358569
0.030181
0.766055
-4.751589
-0.805946
5.396847
-2.118697
-0.906461
1.173802
4.354432
1.221764
3.098162
1.651845
-1.091903
5.470827
0.958957
-5.635949
1.650640
-0.396417
2.298230
2.131856
0.078142
-0.618605
-2.135100
5.854969
-0.466308
3.352966
-3.420703
-0.326759
-6.806584
0.591723
0.580436
2.997119
0.847485
1.796976
-6.027600
-1.953950
-3.997921
-2.654680
0.866297
-4.888778
-3.456716
5.564502
0.975148
0.019506
1.715718
3.259431
-4.762195
-3.109744
3.131405
1.827009
0.800912
-0.283239
-4.090411
1.502231
-4.741604
-5.893648
4.344710
2.535641
-5.833954
-3.910403
-3.834325
1.544994
0.832329
-2.652308
-1.903164
1.800025
2.304758
5.135756
-1.058244
3.093290
-3.418632
3.392812
2.532684
4.568805
-1.110854
1.830476
-1.163109
0.913379
2.623077
3.393361
-0.776866
-2.574111
-3.231258
4.172907
1.368354
2.757718
1.394950
-4.026054
2.948232
-1.433920
-0.850943
-0.974567
-1.345153
3.649141
-4.106549
2.378978
-0.802533
-2.450979
-3.393292
2.091391
-5.485862
1.904142
-1.628540
3.494994
-5.708173
-1.511648
-1.615431
-2.086908
-0.398167
-1.034026
-0.591593
2.527477
-1.926009
-3.099319
2.361981
1.828493
3.010018
-1.248516
0.012994
2.893924
0.535694
3.942017
3.772610
-1.897584
0.892809
2.650812
-0.835916
-2.670544
-0.633183
0.987947
-1.425805
-0.275236
4.082944
0.802647
1.315355
3.736265
-3.803935
-2.088362
0.056460
6.965616
-2.583633
1.962069
-2.948367
-1.485848
-2.541935
-3.100855
0.148715
-2.059330
0.122525
-3.556308
-0.862112
-3.437356
1.582168
1.609401
3.427943
-2.559597
-5.334366
2.805736
-1.274463
2.154811
1.501374
-2.286551
0.936689
-3.585519
0.874211
-5.743306
-5.650749
3.434569
-6.892498
2.692961
1.967043
-0.570174
-1.583878
1.311491
1.567047
3.621482
-3.166397
0.754817
6.462641
-3.123377
5.432589
1.554668
2.416924
-2.314179
-0.151090
-1.199792
0.122931
-1.517893
0.913991
-2.068240
3.470446
-1.815997
0.091233
0.883263
-5.627813
-5.624992
-0.639430
1.841420
-3.169399
-0.140396
2.534984
4.236360
1.882365
0.397366
2.446554
0.841548
-0.200430
1.148694
-2.314090
-0.231971
1.912898
1.738493
-0.571059
1.364245
-1.086631
1.870885
2.406590
-2.026385
3.447322
-2.004528
2.509735
3.279995
-0.345172
4.293713
1.356692
-7.891949
-2.971326
3.329119
3.262116
4.525753
4.261358
-0.300849
-0.871761
2.039540
1.912263
1.839265
-3.210710
-4.087122
4.667640
1.857554
-2.109584
-0.319300
0.047112
-0.974879
2.057069
0.963222
2.529015
1.159097
-3.460169
3.173015
5.739130
0.361704
-2.701689
0.003975
-0.560162
3.215970
1.485303
1.451136
-1.133513
1.437732
2.664013
-2.400309
-0.381385
1.457199
-3.034242
-2.291121
-0.996542
0.456680
-0.844870
-1.338766
2.761752
2.727206
0.028189
0.437462
-1.012045
1.622285
3.365600
0.879893
-0.924876
-0.442256
-4.463615
2.937235
1.234071
-2.930118
1.502534
-0.551335
0.148893
1.073399
-4.175995
-1.162830
2.284164
2.357661
4.080602
2.548002
-2.755243
0.040846
-1.774838
0.500229
1.558824
-3.497981
0.767441
-2.937261
2.890368
-3.256032
1.722199
-1.040989
0.946063
3.129845
-3.122150
2.038943
3.009999
-4.906316
0.334016
4.395538
2.161149
3.690623
3.584806
3.848534
-3.630597
6.183365
-0.115064
2.470220
-1.600992
0.341772
3.531220
0.132030
0.203372
-1.852726
0.500083
1.627907
1.237729
3.647637
0.244675
-1.438322
-0.247402
2.059078
-0.944995
-4.665912
2.629924
0.126165
1.383855
-4.174624
-0.232671
0.434236
-0.607295
-0.480094
1.400702
2.080282
2.557295
-0.530837
-3.281998
-4.131559
-5.140682
-1.605127
-3.847273
2.925602
1.202571
5.069855
-4.599302
0.984042
3.872079
5.308293
-0.457299
2.137564
4.807541
-1.350959
-3.220940
-1.217218
-3.477357
-0.022157
-2.923207
4.142560
-0.155884
-3.318321
-1.303879
-2.958915
-2.610436
3.782284
2.325894
2.344443
-2.528233
-3.194482
-1.386311
-0.735160
1.167640
-2.216633
1.390264
-2.315571
3.069581
2.628259
-0.126627
-2.591301
5.921627
1.579841
-0.448038
2.734134
2.121822
1.364545
1.701541
0.228143
2.878625
2.407016
1.226486
-3.852949
1.818168
2.164305
0.393989
-1.664222
-0.539654
5.923709
-4.682264
-2.033332
-1.761807
-3.423344
-0.176160
-1.172870
0.287673
1.217413
0.538132
0.170415
-1.585164
1.477810
-0.269468
0.661559
5.261892
-1.163078
1.519990
3.528328
1.713911
-3.265437
-0.798032
3.216843
4.919821
6.537380
3.337126
-2.726581
-6.020939
2.294150
-0.414332
1.157281
1.237113
2.074916
6.531797
-1.223646
-3.531415
3.372616
-2.323985
-4.860343
2.872809
3.172923
-3.526449
0.610638
-0.779400
-0.391323
-0.550753
1.212270
-0.948946
1.310108
-1.812292
0.160982
-1.375213
0.250404
0.509728
6.065704
4.621669
-0.071889
-1.652345
1.635301
2.276458
2.816979
-6.767938
4.551902
-0.868150
1.870230
-0.599643
1.302708
3.796852
5.388270
-6.333432
-1.709974
5.643604
0.633486
0.609997
0.937903
-2.877770
-1.152077
-0.931672
1.980681
-5.256239
0.923222
3.405472
-2.399880
2.565120
0.492316
-1.480731
2.355824
-5.897521
1.724319
-2.471097
-1.995634
-0.924947
-0.533953
-7.036948
1.950362
-1.360350
-1.363007
5.799849
-1.096865
3.275076
1.739668
-2.429915
-3.549877
3.229373
-1.562895
2.118027
-1.559302
-1.803628
-0.368980
-0.865431
4.224831
0.374505
-3.186710
3.717761
1.278343
-0.498146
-7.052841
-2.017576
0.060034
-1.510543
1.662196
1.320358
-1.094963
-2.468854
2.136448
4.211270
-4.066343
-1.585409
-1.340116
-1.460082
-1.754794
-2.462310
-0.308952
3.187080
-3.047192
-0.975383
0.158841
0.857728
2.318525
2.525435
-2.569491
-4.344744
-2.059046
0.259009
-2.904305
2.854907
-0.895068
2.102282
-0.028865
-2.672392
-2.050578
1.516451
-1.674050
-3.485137
1.744248
-3.346095
4.442728
-2.292492
-0.784768
2.949717
0.930124
-2.112442
0.197255
2.077713
0.912706
0.577516
-2.808599
1.806125
-2.123665
0.804495
0.066260
0.173701
-0.657465
-3.265839
2.026190
-2.174980
-1.081037
-2.401589
-0.553982
-0.198638
1.093561
1.334286
-0.547346
-2.827292
1.954154
0.609925
-4.302900
6.765613
1.442690
4.946167
0.516408
-1.441789
0.539390
2.943909
2.971804
-1.495964
-0.503159
-3.670646
-0.739817
-3.761272
-4.249903
-1.720171
1.379587
3.903946
0.484878
8.478279
2.270084
1.760970
-2.436069
-1.280577
-1.414502
6.046870
0.988239
-3.882830
4.453916
1.759240
-3.943151
0.937514
1.138424
0.928163
4.220779
-1.615029
-1.235416
1.711170
-7.310141
-3.849320
0.229388
-2.225656
-4.989390
2.883773
-1.650908
-1.967164
-0.725939
-0.773595
1.879105
1.010150
-4.752571
2.967403
1.294250
3.246104
-3.690804
-4.506277
-0.458406
-0.208079
7.231656
1.952019
4.197677
-0.051069
0.407356
0.198986
0.307447
-0.606949
-2.823809
-1.785975
-3.495563
-4.271474
-5.539850
-5.469309
5.515787
-2.195206
-1.033196
6.382243
1.226535
-2.539474
4.123315
3.012205
3.595116
1.214099
-1.960387
-4.682312
0.739137
1.097432
-5.425635
0.602259
-5.869438
-0.628509
4.209506
-7.042457
-4.918182
-3.124033
1.949181
1.572429
-2.871239
3.332658
-0.590965
-1.930522
3.335632
-5.380851
3.350691
4.198670
0.450817
0.115947
0.784888
-2.524392
1.763763
-5.274766
-2.817371
-2.586426
-1.949666
-6.792939
5.035726
-1.582537
-0.224047
-1.277265
-3.421410
-1.174831
-0.509397
1.424804
0.167943
-3.366381
-2.104010
-0.879454
2.883146
-0.637642
3.891639
-2.169074
-3.298941
-3.400951
-4.659844
-0.737863
-5.011516
2.768371
-1.238859
2.213787
-0.124636
2.725094
-3.679235
-3.961109
2.793366
-5.928234
2.516181
-0.479925
-0.375317
0.966819
5.060402
-0.764344
-7.819638
-0.651333
-0.737220
-0.864317
-1.405670
0.006636
-2.001884
-0.838615
-2.843721
-0.372861
2.284758
-0.204547
-3.670273
-4.099247
1.148888
-5.717659
0.139423
-2.621248
0.280664
1.792752
0.855296
1.004302
-5.713630
1.735279
-0.714502
-2.061368
0.668595
0.326074
0.165384
-1.343489
-5.014235
-2.925547
4.014953
3.874932
0.394776
1.449891
0.571472
-0.921217
3.031781
2.866955
-3.616417
-5.478101
-4.332762
1.090419
2.489935
1.331777
0.238321
7.282611
0.575981
-0.573201
2.312506
-1.310584
-0.678766
-2.181143
-4.048720
1.131699
-0.087328
1.521053
-1.592625
0.405632
0.700344
3.884218
-0.045866
-1.809632
-1.895698
0.366158
3.564433
-1.440582
0.164769
-1.978024
0.465730
2.186230
3.655697
1.423073
-0.066795
0.848263
0.147042
4.337756
-1.100845
-0.468626
-1.681976
-4.518738
0.880653
-3.611580
0.122640
-1.276442
0.218696
1.202776
1.880555
-5.543851
-2.280334
-3.683317
0.646453
0.008680
2.683530
2.774038
-2.669425
-0.538549
-1.440835
1.055420
-0.459196
-0.654270
0.024076
-2.172249
3.421815
3.532032
-2.589538
0.453295
3.345056
2.071524
-0.481552
0.090807
1.050812
-1.959969
-5.010980
2.015894
-0.137111
-0.661837
0.430879
-2.577179
-2.050598
0.272777
3.777204
-6.370104
-3.371433
5.819194
0.760222
-2.865936
-0.216713
-1.413283
-3.171015
-0.476317
1.422174
-3.107440
2.013624
0.936875
-1.686282
3.336532
-2.041365
2.352561
-3.042796
1.584669
2.962437
-2.357480
3.738224
1.039291
0.225734
-3.611551
-0.764017
-1.967172
3.953552
3.560246
-1.696852
0.794853
-0.747353
-3.978478
1.593179
2.411038
-0.593667
3.423756
-0.963284
-2.588752
1.852903
-4.564908
-2.465906
-0.091933
0.972712
-4.758688
-3.544643
2.051378
-1.712802
0.959463
0.994732
3.928612
5.571732
-1.577566
-2.732448
2.045400
-3.253985
-0.144575
-1.041988
-2.906518
-2.094759
4.062621
-3.371120
0.688326
-3.134102
-2.177714
-3.754738
-0.822165
1.181501
-2.275495
1.890475
-0.217769
-1.779524
-0.620743
-0.006842
-0.026389
2.668728
1.138927
5.563650
2.667169
4.508853
2.159099
-0.122208
-4.752235
0.604170
-4.356492
2.707916
5.444537
-0.268833
1.871414
1.129819
1.154766
-1.115067
1.618654
0.955612
-0.854121
-2.371395
-3.641765
-0.691528
-0.147454
-1.139646
-0.938498
0.693324
3.248416
0.897640
-2.387612
-0.773322
0.821468
4.381886
-2.886839
-0.431023
-2.020725
0.848810
-0.198657
2.061226
3.970783
4.991623
-4.276420
-2.925147
-3.584490
2.484842
-1.980874
-3.177256
0.487313
4.930417
-1.047609
3.199750
-0.134634
4.533852
-0.260263
-1.443957
5.499713
-0.678826
0.765617
1.572641
-0.415820
-3.399930
-0.104482
0.479145
-0.200453
3.629596
-5.032975
0.349476
0.719950
0.876687
-0.010489
1.360650
-0.703391
-0.504156
2.114131
-2.261630
-2.917142
-4.287287
4.358917
-1.862782
1.982830
4.086021
2.303223
2.536044
2.846321
5.242083
-4.159134
-4.624661
0.460030
-2.700184
0.100975
-1.371419
-3.480034
0.928598
2.440714
1.113947
2.852043
1.258162
4.365862
-1.736403
6.227764
0.339427
-4.203428
0.689047
0.115950
-1.623660
-2.136432
3.946265
-1.428667
-1.023284
-2.734108
-2.650346
-4.791662
-0.225941
-5.017062
0.519622
-0.626886
-3.427085
-4.828173
0.035854
-0.543470
-1.390348
-5.490992
3.017511
-2.724446
-1.115944
-0.570494
-2.723336
0.468450
1.899256
-0.992507
-0.317394
1.139545
1.321269
-0.675454
-0.354632
1.485169
-1.118180
0.625639
-2.935938
-3.906318
1.845946
5.990384
-1.741923
0.597871
1.152715
-0.988116
-0.301324
1.690969
-0.875662
0.311212
-2.034443
-3.378604
-3.798307
2.728179
-0.629362
-3.565606
-2.625185
-0.878577
-1.459348
2.334809
-3.295171
6.950935
-4.334631
-4.944941
-1.610081
-4.483336
-3.340765
-3.299875
1.375884
0.856215
3.328250
-1.182531
6.789645
0.584643
2.683066
2.012337
-3.210075
-2.124381
-3.166813
-5.177957
-1.912784
4.390448
1.934531
2.756637
-6.022107
-1.393515
4.176998
-0.173317
0.247973
1.279308
-1.193472
3.928145
0.558940
-2.011670
1.549006
-3.161485
0.641383
2.471683
0.552044
-0.358279
0.532322
1.675067
-1.438701
-5.192739
-0.943716
2.975534
1.915478
-2.875638
-0.448534
2.249059
-1.764735
-1.368996
1.544099
1.320342
-2.441608
-0.809429
1.033688
0.778033
-0.646968
2.925177
-0.511709
0.314278
-3.706059
-3.328403
-6.495827
-10.418147
0.646949
-0.071487
-4.876414
-3.745489
0.477939
-4.114878
5.936717
-1.452341
-1.997833
-3.450873
-1.462367
5.878438
-1.261799
-2.376514
1.114151
0.756250
-0.861655
-5.788738
3.824191
-0.462355
0.440494
3.635152
-3.901286
-2.954463
-0.493567
1.073448
0.607733
-1.164133
-3.661537
3.387120
2.696504
-2.637952
2.286627
-0.599094
-1.735708
0.741234
0.784243
0.554465
1.258790
1.666178
-1.711857
3.508387
-1.310035
2.424367
-1.232123
0.441020
2.415996
2.116525
-4.609651
3.587047
4.885542
-0.294383
2.331831
-4.703859
-2.560813
-0.376747
-0.470923
-0.388990
0.719497
1.455790
3.450734
0.297529
-5.852931
-4.129072
2.540877
-3.364393
-2.835421
-2.464265
-1.705849
2.951497
4.951847
-1.194848
2.894867
-4.773515
-1.514381
-3.484499
-3.343183
-0.934818
-3.026436
-0.453102
-0.121712
-3.856859
2.549517
1.090326
-1.804067
1.560039
0.059917
0.692762
-4.046100
2.417296
-1.053199
3.249426
-2.311904
-1.174208
-3.660310
3.473897
-1.884025
-1.880857
-2.708754
-2.286000
1.619560
-0.126364
4.210032
-3.838538
2.394927
3.007137
0.062051
-1.415103
-0.366403
1.125487
2.248054
6.062409
1.902586
0.180926
-2.469492
1.559836
4.885374
2.455199
1.933130
4.642980
0.168093
-4.897978
1.344783
-4.229450
-0.737961
0.159797
-0.798854
0.894995
1.272707
2.530012
-2.268368
-1.959543
-1.141492
0.176570
-5.531271
-0.414013
2.768177
-0.742077
0.057590
0.404783
1.007397
2.994047
4.899144
2.782699
2.935254
-2.685769
4.002018
0.985809
3.759689
-1.033283
3.262266
2.385487
0.392318
-1.420804
-3.639572
-0.783335
-0.783130
2.852843
-1.311150
-0.507071
-2.971993
1.905275
2.124629
1.058860
-0.873470
0.696132
-5.564687
1.643313
1.089039
-2.665873
0.467236
-1.787289
3.926285
1.647593
3.110416
-5.578120
2.561224
5.104126
-3.323075
-1.289086
-7.948977
1.273294
0.626994
-1.875013
3.258502
-3.204181
1.830289
2.780894
-0.004138
-4.495680
-0.980569
3.873686
-0.084339
0.063667
-0.384082
-3.427425
3.551044
1.161589
-2.267376
4.437222
-0.389071
-2.492380
-1.009643
-2.275046
0.393550
-2.056335
-2.138107
-1.973735
-0.125365
1.427202
2.708881
-3.273261
2.791850
-1.095490
-0.663264
-2.164247
-2.396081
-2.779500
-4.235691
-7.798997
0.882371
0.679720
1.424281
0.748023
4.904285
-2.130001
-3.520276
-3.231205
2.592290
2.830621
5.282964
2.454944
-2.613308
3.236774
-3.102471
-4.239842
0.836036
0.448899
2.366830
-0.102520
-0.712390
-0.192876
-2.572632
1.154304
0.435567
1.064962
-3.035168
-0.309089
-5.324463
1.891689
0.162039
0.071951
0.522817
-0.201917
-0.431828
-5.819975
-1.911156
5.418262
-1.542909
2.323601
-1.333300
0.067809
3.859212
-1.828067
-7.842386
-0.603150
-2.832768
-0.517358
1.371581
-0.677569
-1.898899
3.763695
-0.146710
-4.529101
-4.126663
4.442390
-1.973381
0.354821
0.342964
-0.751691
-4.025776
-1.578848
3.047947
-0.467195
-1.180854
2.718571
-0.277141
-0.197424
1.402884
-1.080281
-2.468982
-2.745476
1.413825
-5.763459
1.621910
1.412946
-2.451522
-4.169621
-3.697667
2.348129
-5.962613
2.299779
-3.042445
0.191387
1.784523
2.016920
1.120871
1.558405
-0.853444
1.138943
2.034451
1.411111
4.240812
-5.039461
-1.516541
2.818363
-0.626873
6.780386
-5.904170
0.021938
-2.824147
-0.174226
1.688615
5.541226
-3.630359
0.714353
0.591092
4.555375
-1.379972
-1.238037
2.542940
-2.807044
-0.364506
2.738443
-2.860413
2.010871
-2.180988
-0.613767
-3.940396
2.031635
2.094219
-1.500176
4.218618
-1.021209
3.740231
-3.016939
-5.095743
-0.330718
-0.222378
3.479913
1.680611
0.637398
1.333819
2.465750
-3.201746
-5.111731
0.895691
-3.190382
2.426224
-3.580223
-1.134360
6.809699
-1.874817
4.817602
-1.082625
-1.406245
-2.340972
0.680312
3.211481
-5.386479
-3.916564
1.438066
-2.817643
0.873237
0.521242
-2.607172
-0.993376
-3.632279
4.125813
1.079754
2.291228
0.390929
1.033466
-0.357113
0.412587
-0.274939
1.517669
0.925714
2.574859
-0.935203
-0.122907
1.862356
0.187827
-2.157159
-3.333092
4.000042
-0.473934
3.125509
-3.263778
0.217000
-4.199459
1.231123
-1.750286
0.659445
-6.483982
7.424908
-3.036851
2.296667
5.520303
0.627783
4.257107
-0.656711
1.642030
2.248334
5.088390
1.465927
-0.888271
2.466237
-0.346592
2.498889
1.841400
-1.489847
-2.144639
0.066527
3.429454
-6.305318
1.924742
0.219006
1.303488
-1.068183
-0.577934
2.567172
-5.814749
5.697012
0.022992
-2.920334
2.809363
1.771933
-1.255996
0.549019
3.071682
1.220383
0.247395
3.116933
6.155456
3.904716
1.403204
-0.059055
-1.859875
4.821817
3.370954
-0.171572
3.556950
-4.765425
-1.520140
-2.984988
-2.396179
-0.370276
4.961914
-1.878655
0.380802
4.014065
2.907097
1.709268
0.489481
0.725776
0.420955
1.028028
1.157616
-6.251691
-1.001135
0.540971
-4.638648
3.616703
-2.656530
0.625572
-4.494871
1.316132
-5.475404
-3.153698
2.088128
-3.403159
0.299933
-1.843023
-2.262999
-0.380598
-2.319251
6.718072
-2.507102
2.951863
-3.263087
-2.185084
-0.942125
0.696642
-0.904442
-5.556120
-3.386138
-1.841566
-2.064946
0.215237
1.659109
-1.096497
-1.946583
1.716657
-2.217562
0.245655
0.861728
-1.600450
-1.065763
3.284014
-1.890177
2.274548
1.807608
2.213989
0.611791
-4.474083
1.343149
-1.108803
-2.731908
-0.144410
-0.888548
-2.472241
-0.377458
5.628112
6.610184
-3.089045
1.072069
0.656563
0.385282
2.618327
2.511747
-2.987508
0.412564
1.660902
1.198528
1.924514
2.715495
0.052616
-2.459811
2.562806
-3.108713
-0.632000
1.583627
3.317535
2.813595
0.707288
-0.814146
-4.542801
0.710905
3.100841
-4.062959
3.199467
3.497722
-2.701280
-2.767403
-1.325805
2.251180
-0.460720
-0.020217
2.243702
1.380012
-0.695165
1.870359
1.104467
-2.236369
-1.871455
-1.417144
6.949361
1.143194
-0.974630
-0.198571
0.864497
-4.168867
-0.609169
0.248257
-0.499404
-3.153926
-1.693793
1.491575
0.548607
1.055865
1.190590
0.630140
0.737977
2.734371
1.012561
-0.241723
-3.025106
0.393547
0.710086
2.557096
-2.242886
1.702214
-2.512986
1.771138
-1.953133
-4.072847
-7.482163
1.134453
-1.197243
0.588987
-1.531221
-1.818203
0.729348
-6.868599
0.259806
0.421536
-2.081809
-1.652361
4.745492
-2.808655
1.271905
0.810546
-0.222205
0.128643
-4.549084
-4.601792
0.502394
4.454650
-0.881719
-3.130438
1.104948
-2.103677
-3.296166
0.012409
-0.697574
1.161521
1.169085
-0.326510
4.997119
2.182126
-3.194272
-4.534939
-1.322008
-0.107603
-0.228439
2.967523
-2.777632
1.736635
-2.009244
3.065564
-0.491055
-2.648903
3.214525
-1.847517
5.359888
-0.168015
-0.178864
0.770592
-2.504936
-0.926671
1.908326
2.063226
1.543412
2.448187
-2.571160
-0.520370
6.189723
4.677631
-1.881684
-1.925196
-1.707685
-0.885030
1.364956
-1.773429
-4.212464
2.830701
-1.642653
1.212573
2.222100
0.662471
3.702021
-0.455688
-1.384643
0.545681
1.803757
5.485020
-2.749762
-3.114177
3.117856
1.902048
-1.946293
1.024844
-4.498500
-4.680938
1.087120
-3.005311
-0.946083
-2.566267
-1.689066
-0.476013
3.062466
-4.113749
-2.902833
5.987159
-0.592181
4.307096
-0.119863
1.141176
1.708609
2.406051
-1.893839
2.033619
0.193471
-0.260641
2.085583
3.280335
-0.102903
-1.890406
0.605012
-0.572117
-6.833376
-3.019787
1.352297
3.587629
-2.616011
-3.073009
-1.957941
-0.247864
0.879153
0.369068
-1.139857
-4.519615
-0.487688
1.018354
0.188241
-1.668819
3.227601
1.926070
-5.463899
-0.466159
-1.786711
-2.247679
3.753606
4.549258
4.234813
-0.548687
0.899001
-5.263877
-0.797012
2.827902
-3.386358
0.304076
-0.239613
1.976422
4.199204
-2.364846
2.032459
1.467880
1.443126
-1.386140
3.296706
3.550157
-1.763578
-4.113883
3.062072
0.189896
4.159361
3.708564
4.357286
3.358516
-2.638642
1.749147
0.517804
-4.660326
0.689045
-1.094700
-1.544526
-0.434643
-0.343094
1.151618
-3.626461
-1.898939
-1.801490
6.902403
1.871462
0.954237
0.238613
-0.025518
5.941635
-1.222145
-2.982255
3.592079
-4.505582
-3.341563
-0.718797
1.700531
0.437711
-0.884534
3.988984
1.300701
1.040556
0.810050
2.687387
-2.326004
4.623166
-0.426446
-3.576815
2.303722
0.593190
0.749625
-2.127024
2.789475
-0.006694
-1.663168
1.856890
4.380163
2.501893
0.732356
2.815194
-2.813957
0.029349
0.631090
-1.656516
3.245319
-5.706629
0.257041
3.792499
-1.037880
-0.760151
-1.522235
3.961635
7.713092
0.574084
4.333774
-2.811257
0.152138
3.527510
-2.179396
0.046094
-0.597584
3.676319
-3.135155
0.387198
4.214478
2.555730
0.917666
2.328470
1.894668
0.212254
-5.333637
-0.272541
1.139413
2.733266
2.099177
6.194436
1.383056
0.787634
-0.619577
0.775065
1.614761
-0.398701
0.451590
-2.761629
-2.990773
-1.763992
-0.552170
5.709899
4.811531
-1.124450
-3.408638
-2.043193
-1.914319
2.820616
-2.113018
-1.725578
0.995434
-2.607055
-2.736781
6.083921
0.452173
-2.126297
0.079306
-3.721775
-3.414998
-2.088484
-2.108402
-0.062384
-1.071454
-2.999605
-0.874659
-4.544048
1.815583
3.001708
2.191193
3.467689
3.406875
-4.606425
-0.495342
2.703645
-2.255285
-1.284595
2.155559
2.243807
1.516931
-0.649653
-3.170429
-0.187109
-1.057744
0.581945
-0.321997
-0.829324
-2.579142
-0.813853
-3.302712
-3.215045
-2.085702
-0.139663
-3.043116
-1.269385
5.172586
2.597531
0.000414
2.043300
-3.391022
-2.671514
0.819632
-2.030886
-1.267956
-2.410812
3.336417
1.554867
1.708929
-4.857636
-2.047125
0.533757
-2.993903
-0.036411
0.025753
2.132140
0.156281
-0.519405
1.091717
3.406632
-3.300644
3.259237
1.731316
2.307107
1.332957
-3.215840
0.329453
-2.741711
4.582731
-1.055042
-2.930477
0.655241
-3.190889
1.071844
1.402430
-3.780327
-0.356799
1.339502
-2.527359
1.596110
-0.320022
4.422369
-6.694570
5.674574
-1.045841
-1.979031
4.360222
0.919116
0.363417
-1.000399
-1.342485
0.834241
5.280462
5.812042
2.986950
-1.352351
-3.062768
1.806466
-0.311420
-0.131508
-0.517083
1.639615
0.180659
4.180054
1.809004
-1.651546
0.192548
0.997868
-3.255874
4.265385
1.252328
-2.588371
0.183069
-3.830666
-3.317819
0.452476
-3.077144
2.037458
0.175108
-0.327150
-6.512977
-1.672403
4.923810
0.373549
0.748602
5.034357
-4.148243
1.608147
-1.325747
-1.409708
3.783400
3.803914
1.620716
2.248900
-0.128448
-1.169026
2.358713
3.125096
-3.067029
-2.442211
2.673515
1.145947
4.026499
1.104625
1.768788
1.632434
-0.630967
0.385467
-2.078735
0.064692
0.549542
-2.527635
1.245448
-0.147149
3.419159
0.193062
-1.575528
-1.988606
-3.853695
1.711574
0.531206
-4.764930
-5.420039
-2.452702
0.206590
3.254817
0.668859
1.324875
-2.774886
4.176881
-2.913103
-2.573077
-0.644643
-0.852369
-3.590444
0.253159
0.416756
-1.307970
1.689119
-2.324359
1.186701
1.030187
-2.031559
-2.461392
0.011464
0.826346
-0.617153
-1.578052
3.902090
-2.981540
3.002277
-2.796655
0.028043
-0.759555
0.456404
-0.210278
-0.797218
-0.776301
-0.574281
1.410665
-0.781560
-0.883249
1.441903
-6.110645
-0.901541
-1.221713
-2.806327
-0.633456
-3.502611
-0.416347
0.599151
-5.986589
-1.786696
0.569718
-0.536447
2.840818
-0.061786
-1.585214
-1.208049
6.218713
-1.652128
-1.698833
-2.905042
2.004982
-0.754943
-2.318700
-3.453983
-2.676821
-4.207397
-1.012900
-0.247889
-1.718870
-1.110968
-3.799670
1.919628
1.350908
0.538399
-4.481825
3.831687
5.462750
-2.603930
-1.665787
3.208082
-2.395052
1.300956
2.268563
-0.948678
-2.948735
0.603764
0.039241
-2.225535
-0.436953
-1.920206
2.995312
-3.447452
-1.504923
-2.579737
0.347544
-2.211020
-6.498981
-0.766029
-0.840255
-1.309661
1.803097
2.144600
-2.573842
4.862295
-0.533663
-3.034191
-1.034173
1.640290
-2.818888
-6.968110
3.554683
-2.970084
0.918950
0.145620
-0.064284
-4.618583
-1.179445
1.183403
-2.305488
6.095716
0.829783
-4.546412
-2.263132
0.258568
-2.063620
-1.786268
0.805172
-0.109978
-2.703952
-0.271833
-0.337145
-1.467407
1.212814
-5.982488
-2.061025
-1.399310
2.582819
-1.270600
2.070569
2.237835
-2.729123
2.727988
-6.690435
-0.846869
1.660475
-0.296033
-5.073204
2.152842
-0.810099
3.864172
-0.045724
-5.376696
0.616621
0.742900
-0.062127
0.502971
-3.303465
-6.209904
0.836357
-3.142924
2.673999
-7.600541
1.340571
4.881524
-1.912577
-1.589381
4.426788
-0.274768
0.084981
-2.404146
-3.835047
-4.987070
-1.778743
2.730676
-2.571684
-2.095639
-2.435789
-3.459100
-3.318627
2.899633
6.125830
1.974927
-2.459705
3.424719
0.695494
-2.348626
-6.001030
-1.439569
1.210661
-0.415718
-5.087144
1.690306
-1.153860
-1.253601
-1.898022
-3.402859
-2.548783
4.662348
1.004710
2.756598
-0.966658
-0.008452
0.456038
-0.089594
-3.051734
6.160015
1.236190
0.718380
1.814223
3.430700
2.269517
-2.957893
-5.584301
0.414821
-3.985961
-1.212491
1.180925
0.258914
-0.581599
-1.006935
2.247320
-0.860192
-0.145281
-0.575203
3.932728
0.213231
-5.314627
1.756347
0.203958
0.698016
3.626933
-2.572175
1.155463
1.580426
-0.488920
0.484120
-6.470539
-0.824078
2.998240
3.585440
0.243097
-2.900383
-4.740099
4.155886
-2.912428
4.093053
0.351582
1.266501
0.714559
1.045366
-1.389103
-1.076220
-3.434039
1.513259
3.213803
-3.923134
2.265025
-3.281535
-0.393025
1.821316
-2.080749
-4.345111
-4.026736
-1.254707
2.304509
-3.714656
-1.369420
3.044723
-4.427097
-0.985911
-2.286422
-0.929301
1.739673
0.948143
-2.007252
5.370738
-1.921570
-2.499153
-2.183599
-4.277810
0.050758
1.648617
-4.648129
2.563185
-5.690765
-2.353653
-5.765087
2.178493
-1.468136
0.033063
-1.827786
-0.045936
4.830475
-3.473515
-0.796833
0.200215
5.101160
0.826923
0.759265
-1.147383
-1.181555
-8.142496
-2.029191
-0.831500
-0.954969
-3.816601
3.253032
-2.070376
-0.222777
1.897389
5.190428
-1.236308
-0.261468
1.578244
-2.515664
-1.880433
0.578693
4.822957
0.119395
-3.140073
1.667251
3.584934
2.346764
-1.881955
-1.956448
1.596126
-0.698776
3.274213
1.305017
-3.094293
-5.045908
-2.766337
-0.169122
-1.080360
-6.605764
-5.491121
-1.170985
-3.365037
0.287964
-1.569988
1.600398
1.720871
-8.078826
3.110480
-3.270655
-4.453186
-3.304174
-0.890918
5.362133
-2.312612
3.440703
-0.922045
2.896563
0.790808
4.684905
-0.870320
2.280686
-2.783193
-1.262281
-1.425984
5.632356
-2.193195
-3.400363
3.955130
-0.806576
-0.818132
1.878166
3.394992
-1.331243
-5.289912
-0.458358
-1.360206
-2.328650
2.582799
-0.930447
-1.021024
-2.586619
-1.655746
-2.741221
-0.972594
-3.415294
1.094799
5.713237
0.975474
3.407329
-0.588599
4.604464
-2.850892
-2.368056
1.323439
2.488559
-0.474500
0.539190
0.056809
-5.876000
5.634127
-3.889078
-0.104243
-5.332511
-0.941316
-3.899189
1.617101
-2.543128
1.340482
0.543702
5.621931
0.854508
-1.702021
-4.670109
2.594069
-3.284412
-1.373726
5.463581
3.135717
0.788167
5.135880
-0.983618
-3.714032
0.441083
-4.001462
2.147986
1.258224
0.613906
-3.825784
-1.424815
1.683580
-5.811273
-2.306925
-0.830637
2.860595
2.537939
-0.396065
-1.425743
0.964696
1.809303
0.622145
-2.891478
3.032007
2.842820
0.984889
2.070978
6.732015
1.752161
-1.181315
2.332344
-6.207220
-0.654536
-3.438540
2.169868
2.338733
-2.835077
2.415152
1.750289
-1.647532
3.179921
-3.060300
-1.982828
-5.976366
3.729425
-2.575957
-1.247897
-1.192732
-1.931406
1.978406
-0.853381
-0.335170
0.213646
3.119800
-5.729104
-1.596426
0.054862
-4.319201
-0.491900
-2.888862
-1.582595
-1.680855
1.160462
0.263425
-1.252369
-0.154485
1.009993
2.931738
-0.323497
0.120597
-0.980466
8.373620
-2.517427
-2.036541
-0.709462
5.804970
4.071928
1.211928
2.271904
-0.382508
0.038574
2.562506
-3.011674
-3.584429
0.076594
-2.454315
-3.926053
-1.573480
-2.880868
1.503874
0.991055
-0.279737
2.876469
-0.705733
-3.388685
2.118581
-0.593650
-2.888643
2.066555
-1.019857
1.488974
-2.874506
2.297888
0.034240
-4.477216
1.313261
-2.520873
-4.406651
4.952698
-6.879091
0.022014
1.600859
1.178825
-2.093213
5.727545
-0.842686
1.523555
-2.137800
-0.322106
-0.534224
0.238258
-7.973513
-0.305605
6.615798
3.918838
1.853500
-4.829800
2.192240
-1.388002
0.977905
-4.347578
1.855633
3.181728
-3.197851
-4.520225
-0.624548
3.242956
0.154894
3.837004
-2.031346
-3.448415
1.266358
1.072545
-1.445460
-0.293036
2.829210
1.842809
3.596783
-1.860684
3.314272
1.446932
3.500186
-0.373633
0.864981
0.907103
-4.032400
1.396778
-1.404092
-3.160891
-0.294722
-1.574121
-1.412293
-2.688295
4.001784
-4.246442
6.231635
-0.999389
-1.130145
-0.428196
-0.111190
0.555420
2.015225
1.573957
0.211200
-0.829089
-0.741659
-0.733305
3.279489
1.044674
-4.455737
-2.824760
-1.786405
-3.235476
-3.306490
2.375416
-0.945733
0.289482
-1.604592
4.171627
1.209308
-1.462859
-0.972325
0.070947
0.324916
2.798353
2.786394
-0.400661
1.114600
6.518753
-1.656731
3.614691
-0.682367
-1.707141
2.781302
4.020243
-0.922212
1.923847
-0.672209
-2.106886
4.137618
-1.813580
-4.120981
-0.864801
-3.824909
4.290920
-4.057571
1.039447
1.238089
1.370281
1.029034
0.985300
-0.923286
2.364453
3.487539
2.621956
-0.571720
-2.708316
-3.546568
2.410183
2.213149
2.529542
4.529389
-3.162919
-0.605540
-3.128866
1.527519
-3.397175
-0.130456
-0.409757
2.021242
-2.193793
-0.741348
1.077929
-5.993391
1.056122
2.930403
-1.182804
-1.230333
-4.231122
-1.802622
0.728092
2.369842
1.415701
-1.387712
-2.180949
-0.114711
-2.135326
5.938138
-7.082078
-1.139800
1.609460
3.710617
0.103665
-2.786910
-1.463099
-1.148383
0.874400
-1.840108
-1.215674
-3.571176
-0.145965
-1.550433
-0.563192
1.822733
0.514876
-0.309800
3.345952
-0.222354
-0.164039
0.668063
-5.029476
-6.957029
2.591774
-3.002544
-4.960170
-1.879169
-2.374169
-1.174510
6.130788
0.068041
0.482350
-0.225878
3.190466
-3.287306
-4.660761
5.198260
0.400398
2.455833
-0.761436
-3.807696
-5.164106
0.416744
-0.166644
1.100267
-2.808671
-0.271232
1.762469
-1.793145
-0.959766
-2.161858
1.531928
-7.938685
0.356925
0.953132
-1.600057
-0.918126
-1.173229
-4.342237
-3.602575
2.935700
0.717576
2.186148
2.776951
-4.197895
-1.920998
3.531606
0.776848
-0.183779
-1.256594
-1.629054
-1.456841
-0.153148
-3.676180
-1.300771
-0.860213
-5.066994
-2.576317
6.513932
1.120698
0.376536
8.278420
-4.453568
-4.231790
0.419719
-1.340037
-3.557699
-1.394531
-5.372024
-0.799090
1.503601
0.264319
0.270386
-1.715975
-5.189804
4.082960
1.574540
-1.709735
-2.841734
0.851039
-3.509844
3.992511
-3.480705
-3.212996
1.970414
-2.816491
2.951360
-0.745454
4.446313
2.017206
0.069975
-0.500707
-1.467998
0.811875
3.462344
5.212735
-0.356424
-0.931846
0.345735
4.888750
-4.038453
-2.449526
-2.334440
0.519769
3.684372
4.996430
-1.114962
-6.022172
5.360623
-4.773958
1.309079
1.166489
-0.098091
-0.536373
-1.087985
-3.000331
0.636344
3.132605
-1.916043
-1.491510
-2.834765
-2.992085
-3.231091
2.194563
-0.700991
0.468285
-0.180728
1.843814
-0.909192
0.023190
0.195700
1.412369
2.681778
1.928831
-3.864937
-1.549312
-2.062086
3.495579
0.387529
1.843465
1.152822
-1.484605
-4.650881
-3.482262
0.311462
2.394632
1.147741
3.613786
-0.820202
-0.515607
-0.711514
1.295220
0.044008
0.166775
0.637050
-2.680757
-1.750916
-1.357296
1.987148
-1.420337
-0.242612
0.437635
3.921737
0.575093
-4.046074
-1.772301
-0.223228
-3.317173
-0.024453
3.159320
1.648717
-1.493501
-0.127880
2.326385
-0.066065
-1.686846
-0.937216
-2.577824
-1.631428
-1.110899
-1.874889
0.392997
-0.305452
-0.621588
-3.393489
1.340932
1.679292
-0.530546
1.075515
-4.709584
-3.659650
-2.951759
1.814520
-1.463741
0.519585
1.713926
-0.124724
2.489997
-0.786398
0.215313
-2.373861
-2.264047
-0.065062
-1.639190
3.775366
5.518814
-4.401148
-0.919084
1.273545
-5.469888
-2.902966
9.917051
-1.227408
3.157718
3.498315
-1.335057
-2.191833
-2.916689
4.278677
-5.000848
4.041061
-0.763960
-3.606247
3.017202
-0.487992
0.750402
3.973497
-1.157482
1.208461
-0.573660
-1.024195
-2.118850
0.460692
-1.894887
0.424857
2.182540
-3.142953
-4.347059
1.971790
-0.412946
-4.223198
-4.060657
3.739439
-3.039790
3.664904
-5.755902
0.698196
-6.242408
-1.383529
4.579509
-4.224863
-4.678038
1.361668
-0.283392
-3.782982
-1.811409
0.994807
3.446520
-7.593497
-0.179157
2.381047
-0.759888
-7.012173
1.379408
1.786904
-0.111065
0.960361
-0.104387
3.938017
-2.412241
2.407099
-0.157649
2.068821
2.749752
1.345985
-0.786499
-0.873873
-3.235482
-5.923469
-3.986720
-1.933890
7.384903
1.469591
0.107747
-1.263497
1.234042
0.105670
-2.136102
-3.708934
-2.585985
-0.792924
-0.497288
-1.687046
0.452802
1.109400
4.853363
1.329934
-1.547583
-1.136456
-1.369510
-1.309333
-1.464202
0.128788
-1.664593
-0.124871
-1.132660
-3.901582
-0.187002
-2.289255
4.525629
-6.340331
0.273487
-0.749106
-1.239518
0.595612
-0.374154
-0.721532
-0.467434
-4.439614
3.387477
-0.765092
-4.606203
2.048531
0.399285
-3.963858
-6.590444
-0.074352
2.863473
-1.571249
-2.404661
2.421272
0.159528
-2.998437
-4.216313
-1.252066
-3.227779
4.354378
-3.339517
-2.580104
-3.632564
-1.027672
1.656252
-1.556864
-2.081125
4.713045
-1.471014
1.599434
2.172414
-1.063502
-4.637777
4.281444
-2.998923
1.880164
0.371043
-0.985967
3.087166
-0.029601
-1.479257
-0.364426
-0.645892
3.062666
1.900701
-2.982828
1.381274
6.196113
-1.498549
-4.484771
-2.906573
0.588624
-0.497735
0.322292
-1.404656
1.496549
-2.942738
0.631671
-0.565540
-0.752113
-2.794793
2.044551
-4.663456
-2.028898
-1.569687
2.941129
-1.389499
-2.757671
-2.684707
-2.909753
-3.587618
-5.121083
-2.422413
1.909553
-7.349684
1.333579
-0.134465
2.736155
-2.106008
-1.194297
3.104946
3.121964
1.370518
-1.990644
3.299294
1.414726
4.354622
-4.596544
2.760484
-3.171238
-1.847697
-5.024401
-2.564664
1.633551
3.704705
0.514367
-2.369472
1.547615
-2.091848
2.740109
-0.515586
-2.050670
-1.433434
0.706051
2.977697
-0.293031
-2.538388
1.571897
4.859172
-2.319584
-3.091787
-1.229351
0.555406
1.809410
-1.330123
-0.801776
-0.417319
-2.802173
-2.710618
3.541134
-1.525102
-0.214147
4.871876
3.706175
2.928434
-5.485426
2.776717
-0.595249
3.670733
-4.456195
2.141734
2.618075
4.037863
-1.012544
4.496941
0.591256
-1.606595
0.508783
0.594148
0.112258
1.779307
-3.212400
-2.427344
3.411630
1.881089
-1.693856
-0.241348
-0.956440
1.091669
-2.013000
2.122005
1.821283
-1.613812
1.264559
1.143521
-2.505898
2.749372
1.529117
-1.495729
-3.409036
-1.564772
-0.538451
-3.313947
-3.841807
1.122899
2.073559
5.741998
0.743021
4.299259
3.771276
-4.461427
-1.521363
-4.299673
-1.676597
-4.867106
3.128587
3.965904
-2.798283
1.860505
-3.004537
-0.157712
1.831228
-0.080793
-0.520701
-1.799302
-0.840049
-0.194267
4.309847
2.112743
3.453007
-0.953732
2.558942
-0.105597
-1.291683
0.067681
1.227043
-1.950280
-4.134653
-6.978146
-0.925767
-0.534246
0.133538
3.162606
-4.712504
-1.198544
0.647479
-1.857294
2.005196
1.537456
-2.314893
-2.709454
0.259493
1.041930
0.924715
1.251528
4.340991
3.212486
-0.309314
3.488000
2.293954
-6.354369
-2.448305
3.673669
-1.586096
-3.827441
2.600809
0.349129
-4.343775
-0.316632
0.520662
-2.821858
1.667587
2.026214
-6.432340
4.151919
2.228859
-3.369045
-3.308173
-6.942246
-0.922156
-3.114105
2.068368
-2.465256
0.279702
-1.189799
-3.143952
5.973054
2.157956
-2.183063
3.716689
1.058444
2.372327
-0.784409
1.995868
-2.060047
3.709609
-6.730131
5.694629
-0.402724
3.118463
-2.516846
3.154140
-7.783002
-3.753725
2.790447
-1.552693
2.993233
-0.960562
-2.494553
0.770730
0.046222
0.761641
3.305564
2.407359
1.914322
-3.402990
1.750200
-5.196162
-3.453343
-1.628852
1.792651
0.566867
2.884941
3.883043
3.966538
3.869623
-1.143102
-4.186216
2.861423
1.978701
-2.380247
1.928048
0.235848
0.112287
-0.147269
-5.669374
1.494272
-1.713886
-0.292671
-0.601349
2.418399
2.303058
2.365383
2.672397
-1.955166
-1.511701
-1.155782
2.326408
0.486608
-1.846481
-2.120589
-2.589837
0.804641
-1.446391
0.613881
1.116850
1.622948
-3.004519
-4.600544
-0.598716
-4.217627
-1.858977
0.578413
-4.295486
-0.307575
0.365979
-3.753663
0.044365
-0.708541
2.748695
1.477362
3.464566
-4.575380
1.405753
0.964223
-8.715579
1.105383
0.687331
-4.073176
-0.534112
-2.090992
2.695377
-2.218246
3.349395
0.195915
-2.023851
1.222047
-1.811729
4.549722
3.354530
4.626294
-2.898132
-4.187642
-1.197522
-1.662278
1.181312
0.717372
-2.609057
-1.603688
2.782275
-2.710947
-2.196883
1.628409
0.535952
0.337018
4.899056
0.000081
-1.989120
1.565147
3.117172
-2.787469
0.282125
0.170777
-0.167686
4.581719
-1.548560
-1.558951
2.686125
3.430318
-3.057490
3.111287
-3.785418
1.227873
4.393977
1.068188
-1.651252
-5.376465
2.348533
-6.002440
-3.756921
-4.225050
-3.178033
-4.193878
-3.075910
2.690245
0.576039
-5.363991
-1.558794
7.500950
-1.623081
-0.509521
-0.234486
0.149963
-4.781962
1.336194
0.190850
-1.852717
-1.482216
1.186899
-0.174038
-3.520510
-0.542512
-4.248503
4.769135
7.170761
-3.224971
-1.848030
1.905252
-0.865039
0.094411
-1.438703
-3.130706
-2.467516
-0.077150
1.625949
-0.956785
-0.910389
0.051112
-8.880369
-3.625006
1.343570
4.068236
1.682064
-4.185373
2.771446
-0.837530
4.534212
-1.155284
1.407947
4.015257
2.218057
4.894505
-1.720063
-3.249078
-3.094274
2.297763
1.201392
1.224141
-2.438394
-2.077650
-3.944476
3.491574
-0.497250
0.606375
-1.045954
-1.158742
-1.457212
-0.998448
-0.344058
1.876281
-1.685413
0.351236
-3.596100
0.036904
-2.705949
-2.870975
-3.171928
-0.837323
-2.159951
-6.668196
-0.598474
-0.629123
-2.371332
-4.927426
-3.428774
-0.461802
2.284383
0.277034
-2.716067
-4.652241
1.204008
-0.588897
-1.148201
1.038359
1.275980
-0.422686
-1.884267
2.709074
1.354047
-3.377447
-1.912163
-4.850718
4.016902
-0.821350
-1.271274
6.357264
0.478041
-3.584215
-3.114506
-0.412193
3.338903
-1.313455
-0.782295
-3.279846
-3.349615
-3.779750
-0.991918
-1.046896
-3.339663
1.551209
4.854273
-2.788984
-0.261963
-4.334969
2.273252
-0.134107
0.505279
-0.961124
-0.645488
0.571751
-0.042973
-3.981642
4.647954
-2.415093
0.102773
1.038547
-2.222684
1.380061
-2.240489
7.981112
-2.951304
4.066200
-0.912192
-1.524612
-2.195662
-0.494080
-0.817406
-0.229448
-0.006044
1.334259
-1.605501
1.692027
0.838367
-2.861068
0.048169
-0.794390
-1.273574
-2.272702
-3.073572
1.025933
4.698000
-4.060360
2.918546
-3.606446
0.261658
-0.418326
0.728820
-1.802065
3.158435
-2.346566
-2.825848
3.448431
-1.466624
-3.589157
0.707002
-3.920898
-1.922303
0.214193
0.136647
1.103149
1.177886
5.272142
-0.817333
1.467100
-6.829087
-3.166690
0.847954
-6.542928
2.300949
1.482856
4.401980
-5.121661
1.069831
-0.549069
1.422547
-3.090997
4.684900
0.026668
-0.477233
0.064960
-0.712049
3.703852
1.384913
-0.749997
0.167361
-3.676378
0.937263
-5.329018
-1.878520
5.486932
-0.725358
3.740054
-0.484021
-2.452332
2.200843
-3.531145
2.037626
0.106586
-1.911615
-0.870497
-0.965975
-2.480026
-3.392115
-1.150133
4.336344
-1.676367
4.342506
3.356779
2.366882
5.110363
2.626036
2.692603
2.874909
-5.197685
-0.157053
-2.014490
-1.051618
2.753920
-2.245719
1.296632
0.070116
-1.212880
-4.349884
0.311669
2.867448
3.112168
-3.128143
-2.813837
-1.161153
-2.679308
-0.039113
2.956662
-2.199457
-2.730835
0.248707
2.970873
0.095820
-3.946668
-5.133856
0.306801
-0.657698
0.924167
0.601739
2.716132
-6.731070
1.682929
-3.583941
-3.830509
-6.120770
-7.488910
1.329142
-4.514082
-4.328969
-3.322270
3.410257
0.119222
-0.280506
6.381960
-0.552922
0.097849
-2.458452
1.755080
2.230579
1.367892
0.680175
-3.549776
-5.100474
-1.177976
-2.779558
0.504531
1.519340
2.395864
-3.307468
0.399181
-0.903971
-2.225262
1.263083
0.835216
-0.246018
-3.103319
-0.244494
-0.337534
-1.929514
-2.075509
3.644963
0.081683
-3.242768
-3.942086
0.173728
0.125679
-1.979677
-1.962727
0.905538
-0.740016
4.321192
1.789587
-6.336798
-2.727418
-1.204755
-6.346908
4.079585
2.153541
-0.527994
-2.950719
5.084638
-4.600979
-1.791896
-0.786428
-5.345814
-2.913683
-2.662212
-1.572227
-4.556142
1.296979
-3.780739
-6.939255
-3.066036
-3.141766
-1.370644
-4.307182
-1.278823
-2.077668
5.390511
0.737011
0.313110
-1.308265
0.199121
-2.577882
3.279330
0.324407
-4.955123
-1.612706
3.873518
-1.902034
-2.349638
1.671430
-4.832987
-2.357970
-0.991637
-1.402773
-0.977343
-2.577394
3.818031
-4.544713
-0.443935
-2.098798
-1.575042
1.796462
0.386765
4.413425
4.558590
1.316757
0.918157
0.400776
-1.703176
1.138922
-2.410007
-3.787383
-4.054197
4.016725
1.615530
3.049429
0.790330
-2.022785
-1.487043
1.432973
-0.327589
1.653631
0.658761
-1.859273
0.173872
1.963752
-0.208303
-2.835572
2.325990
-7.842826
4.070566
1.947351
6.675884
-1.229951
-0.842651
-2.693871
-2.990834
-0.081848
-2.248703
-0.798503
1.390967
-1.118930
-3.677526
1.200928
3.430474
-3.124259
1.720693
-2.901478
2.191639
1.892647
-1.253762
1.432987
-0.682306
-1.603335
-4.735627
1.947797
-5.976197
-0.128295
1.442689
-1.945848
-4.801453
-0.116506
2.227675
0.236057
3.804199
0.828523
-4.169197
-0.250446
3.734693
2.645891
-0.078435
3.489485
-3.428131
-2.172215
-6.854452
-3.548553
1.987569
-0.945033
-1.023391
0.691657
1.305436
1.202712
-2.288050
0.884832
-0.172730
-0.908437
0.963245
-4.465970
0.626638
-1.207484
1.384232
2.298703
1.413104
-1.863097
0.636216
1.513815
1.289883
-2.996467
1.780165
0.795335
0.457917
1.388526
0.482451
4.407955
-4.381371
0.454913
-2.556695
2.183554
1.192984
1.903291
-2.489918
4.827079
-1.378726
-1.440294
2.083918
-0.545429
-1.447210
-1.242440
-1.558813
1.646969
2.739674
4.130449
-2.337541
1.616913
1.990527
1.810355
-2.339269
-0.081538
-0.858998
1.177289
1.247994
-2.625785
1.669963
-0.806028
-0.601724
1.674118
-0.174453
0.091481
0.541605
-4.641192
3.271842
-0.938970
1.356935
2.097411
0.270896
-2.475221
0.698754
1.947475
-1.390568
2.608417
3.250096
3.792334
-2.881191
-0.332770
1.043737
-2.177466
-1.337907
-3.765236
2.809683
-0.010412
-2.636217
0.483133
4.521040
0.411139
1.326126
1.023661
-2.465376
-3.509100
-0.655747
-2.742761
-0.618844
3.037920
-1.663543
-3.147701
1.807663
-1.266544
-1.333692
-2.280955
-1.442281
-0.219721
2.664269
3.689519
0.415704
2.116756
-1.339031
1.728762
3.066322
-2.203944
-1.034074
2.673291
-0.184303
1.284573
0.442594
-0.654806
0.117070
-0.249629
-1.329915
4.771870
-0.778469
-0.649385
-1.086426
-1.946812
-4.019713
-0.522545
-0.193070
-2.099786
-2.658010
-0.838897
-1.833643
-4.062103
0.200704
-1.774214
-2.681247
2.627008
0.180233
0.220694
-3.500573
3.247356
-0.120548
-0.596163
-1.629237
0.804322
-1.081859
3.055626
3.879574
5.522322
-3.894929
2.295719
-0.876872
1.956794
-0.930910
-2.152488
-3.484089
2.075407
0.778569
0.393250
2.106750
-0.869059
3.674298
1.628170
-1.648203
-0.646491
-0.249314
0.240888
0.345940
2.044419
-1.355114
-0.614283
3.315363
-0.906689
1.794445
-5.938244
-2.503757
1.735879
1.088404
-7.669493
2.108883
-3.946818
0.290551
-3.385617
3.503404
0.330096
6.743390
-2.230732
2.938686
3.737389
0.787109
-1.997866
1.161139
-2.277521
-1.939543
0.307857
-0.419091
-3.224768
0.153905
1.974976
-0.200566
-2.514056
1.788137
-1.380184
-2.801107
1.911630
-4.588473
-1.039917
-3.975311
3.431015
-4.875750
0.990782
-2.044274
0.821625
-2.230832
6.453774
-2.497841
-1.004628
-2.783457
2.007008
-9.664002
2.046146
2.421430
-0.288301
-1.494090
5.039263
-0.174024
-3.027115
2.811693
0.849413
-0.005310
2.743629
0.521512
-1.149278
2.465321
-0.462891
-5.212846
3.269416
-5.731290
-1.515792
0.971255
-0.491684
-2.180972
-0.309695
0.731533
3.427456
-2.166184
-1.377622
2.938952
-1.384546
1.534338
1.589386
0.043645
6.396472
2.480665
-5.479354
-1.245982
0.989762
-0.251316
0.227758
-2.440941
-3.922553
-4.308031
0.782646
2.186228
1.202086
-1.545302
1.129708
-0.300144
6.504538
2.928790
1.417101
-0.069962
-2.442583
-1.849641
0.990573
1.222218
2.485686
0.316701
0.756398
3.685674
3.291347
-1.180214
2.683312
-3.996351
1.364506
2.138397
0.284532
1.305112
1.499721
1.072030
-2.138137
2.403306
3.736400
-1.926824
0.674842
-0.462395
-2.053810
2.747584
0.765861
-0.333395
-1.828590
0.945612
2.877896
0.944324
-3.084061
0.790660
-2.124725
0.989540
5.955499
-3.020106
3.556369
4.856241
3.615675
2.110934
1.307596
-0.846706
1.293145
2.286430
2.938505
0.978321
-1.952890
-2.101163
-2.730319
-3.399226
-2.009762
-0.844470
-6.487921
-1.147930
-1.580945
-1.982791
0.620520
0.846218
1.664162
-1.861700
-1.011293
-2.046829
4.277359
1.854320
2.898812
-0.571715
-2.098038
1.324191
1.401276
1.891638
4.214916
-1.604974
2.833499
-0.063311
0.761922
-0.264944
-0.334527
1.098044
1.497828
-1.541808
1.838170
5.093112
-3.509615
-4.467362
1.207806
3.947021
5.951184
-0.507508
-6.215757
2.332878
-0.852949
3.102886
-4.200590
1.754196
3.747014
0.560990
-6.382639
2.580413
-1.726878
-2.860829
3.155322
3.081217
-1.564188
-2.252151
2.816976
3.915919
-4.479156
2.803773
1.058302
3.122712
0.945137
3.209797
-0.785905
4.117971
1.373538
-5.682871
-0.640213
-1.576774
-0.000930
-4.028600
4.378219
-2.216648
4.638098
0.202266
3.090757
-0.461899
0.844120
-5.403231
-1.204039
2.322464
1.347597
-1.296714
-4.106587
4.051726
5.065467
-1.012152
-1.522036
-3.806410
2.599127
3.625206
2.741751
2.423901
-0.089372
-0.287566
-0.196893
-0.034945
-1.695158
-4.219995
-2.205146
-0.868549
-2.478259
-0.999709
0.143928
2.244837
0.978964
-0.322412
3.440763
2.068276
-4.370761
3.148158
-3.866530
-1.645992
-3.244988
-6.211310
0.239564
1.228998
2.830575
-1.480117
-2.007125
3.545670
-0.999522
1.987977
-1.394743
-4.173883
-0.466833
-1.591941
0.522471
-3.954877
-0.104186
-4.484241
0.362139
-3.265975
0.043209
-3.504136
0.689347
-3.194379
0.194749
0.986692
-0.654043
3.752871
-1.109832
-2.782609
-4.065452
-1.501528
-2.105726
-3.248512
-4.706035
1.459715
-0.893311
-1.231869
0.439595
0.815646
-0.443624
-6.227807
0.569797
0.549707
-0.631872
-1.578127
2.130306
1.394269
3.688729
-0.394419
0.112021
-0.285969
3.000408
-3.027853
-2.227828
-0.967455
-0.548124
-4.625631
1.464839
1.860549
6.476151
-2.263279
-0.329649
0.820204
4.558167
-2.683528
-7.008776
-2.938543
-5.119968
-1.892391
-3.998473
-0.378976
1.797092
2.315725
-0.471806
0.161767
-2.384755
-0.900651
0.724749
3.495152
0.104429
-1.210059
-3.912369
-6.798126
-5.324033
-4.604779
4.670714
4.420198
3.584278
-6.230066
-0.455578
-3.012675
-3.973141
-1.100388
0.939219
1.386899
-0.947320
-0.823084
-1.232582
-1.857586
-0.239734
-2.287296
1.671860
2.863528
-1.289372
1.332884
-0.434152
-0.426215
-0.207727
2.596470
2.101586
-5.342573
0.947465
-6.743373
0.499717
-1.996726
0.498469
1.428537
2.861910
-0.218215
2.510687
-2.562580
0.730172
-1.920552
1.131649
2.633008
-0.177555
1.588019
-3.016849
-2.427116
3.110099
-1.098667
-3.831353
4.300042
2.012559
3.673830
-1.779256
2.553786
1.770613
2.895465
-2.450490
-0.628184
-1.533677
1.360736
2.761466
-2.616787
2.699674
-4.969374
-0.534825
-0.793808
0.524139
0.402790
0.822846
-1.664979
-7.740756
3.415200
7.321702
-5.500748
1.819914
-3.560940
2.210266
-1.877391
-1.160545
-2.144498
1.888208
-0.572876
-4.659204
3.379316
0.340826
-2.202550
0.456158
-1.046327
1.682763
-1.157812
3.733532
4.399891
2.636966
-0.954911
-0.788779
0.682351
2.911308
1.185513
4.020685
-1.835897
-3.162889
-3.924858
-2.581658
1.926478
6.672630
-2.056675
-5.783498
-1.100592
2.905066
-5.867285
-4.849760
-1.200270
0.414559
1.062256
-1.616250
-1.963318
-4.024140
4.155087
-3.898995
-0.156819
1.115861
-6.205213
-1.263939
0.051270
-0.787568
-3.707104
1.307913
2.833545
-4.205737
0.500893
