7.521336
12.130403
13.873104
1.637083
-14.296148
5.554545
-1.012346
-1.679382
12.316415
-0.054151
6.406719
4.849628
3.450636
13.465719
1.992015
3.871999
16.387956
-0.726518
-13.726622
6.471981
1.288686
-8.473226
30.511730
-4.396147
-3.881451
13.129385
-6.001416
-1.639749
4.116311
14.088183
-18.276774
5.655604
-2.973341
6.225921
-1.428289
-4.406711
-11.045562
5.723934
-7.409407
8.985028
0.952792
7.333082
4.633922
7.636249
-5.695266
24.977234
-1.183849
4.612771
-0.087099
-0.178830
-3.815413
-1.549696
2.949476
-10.644532
-4.075162
-3.673331
0.392563
17.431670
6.318410
4.846996
-9.431402
-1.119343
-13.071594
4.015258
8.198373
8.762328
-13.055992
-6.068176
-3.436791
4.586018
4.251210
7.195336
13.069912
-5.837905
17.017976
-5.001492
-7.407556
-1.420121
-1.145192
2.791295
31.931907
1.198706
14.102454
8.512196
-0.901849
-17.179667
-10.930936
23.208298
1.899296
-2.447247
-8.562857
-6.057120
3.542200
-9.620595
-16.224306
7.424901
-7.107645
9.114261
19.188982
15.748852
7.979757
-17.218260
8.745768
-2.911970
7.612922
4.268607
-4.240928
3.155435
2.298357
0.487467
0.905316
-7.920759
-0.158302
-8.814455
1.408606
5.601044
-0.145846
-6.955303
-2.225200
-1.805462
-6.859741
7.161074
-10.497299
-14.729832
-17.112727
-2.442671
23.207305
-10.770226
7.865114
27.715527
21.516553
-11.980743
-2.325463
3.656515
-1.578962
-4.501159
-3.509982
19.453194
10.713818
2.007256
-2.076609
-18.609008
-12.047735
15.649239
-18.689341
-14.970942
-12.281279
-6.826360
-7.436427
-4.496802
15.751427
2.598195
-5.324818
23.903273
0.077514
13.225253
4.701820
-0.111402
8.257864
0.617768
7.866493
-26.311168
6.910130
3.454652
-7.639760
4.467208
13.261775
-12.004639
-0.253215
3.565455
-17.050997
13.884297
-5.707466
-2.140299
-12.941510
9.429893
4.707613
-13.107223
13.087083
-3.191399
7.283388
4.012663
-0.665841
0.415170
-1.067549
2.101170
-6.118492
9.732851
1.274458
2.722145
0.069973
7.216181
-5.789374
-13.500395
2.776297
0.409871
19.016541
-0.303705
-18.395611
15.837410
-1.926494
-19.271197
-14.035151
-26.385093
22.758750
-10.401348
12.754954
-0.948201
-6.726530
-9.890537
-6.309844
-3.931758
10.075744
-1.948735
-18.250491
-5.210259
12.005904
-9.949724
-12.319787
13.858816
-6.922094
-12.724568
12.761907
13.375771
17.439182
-9.153376
17.837192
-26.715836
-12.089222
-22.302481
-2.216648
1.863572
-24.570133
8.268475
9.671644
0.423506
-5.143222
13.611573
7.290326
-1.363799
-0.283599
8.177971
-0.819264
1.086235
0.551176
5.614361
-3.595349
9.871154
10.602126
-12.572088
-0.222023
-5.095391
-9.366835
14.168218
-6.819390
0.231017
-6.428392
19.501313
18.170559
-6.925927
-4.891317
18.428853
11.819747
-4.681821
-7.830806
-9.590462
3.877151
14.864886
18.485371
10.289720
5.357301
14.480453
-1.584833
-6.405476
-7.784016
-1.416034
-4.030549
20.292026
-8.640404
-4.016878
6.929399
1.537428
-7.409514
-5.609333
-16.955294
-0.326253
-9.774785
-6.798727
-9.740697
6.057429
-10.150071
16.485428
-0.090235
-16.805425
-6.273385
6.516053
4.639464
4.548304
1.613610
10.316125
-11.712863
-1.436448
-1.026298
5.521501
2.116502
1.329322
-4.799025
-4.905782
2.394197
16.606600
-0.375621
-13.910777
2.873299
0.059850
-2.863628
-3.510994
-11.473400
-18.158707
-6.876355
-20.966896
-6.747190
3.275011
-0.878393
-15.922823
-2.723833
-0.851781
7.148103
2.117152
-1.775553
9.933088
9.391450
-19.002157
-0.086759
-0.669916
-5.969844
-8.906877
-6.626966
1.256210
-13.968797
6.325343
-4.535361
-9.938068
16.421348
-1.239677
-4.919132
-5.278398
1.970024
-11.894079
9.737294
-2.157736
-5.929698
-2.996404
1.349278
-13.860087
-14.317066
0.419662
13.600356
10.661839
-11.465038
-1.572307
-1.977668
-7.949657
4.101817
13.807713
13.371530
-14.611838
-14.968013
-1.646727
-5.617783
-0.556629
-8.877293
-23.724219
5.917929
-1.502669
12.922774
0.803180
-0.619549
-7.802107
-1.140815
1.969610
-7.694276
-8.662564
-8.857685
-8.897459
10.018422
8.468761
9.411112
-5.616659
-13.051884
-4.937973
7.192167
10.725765
7.489835
-2.933932
2.281976
28.189252
-4.464243
-8.020797
17.037943
9.947593
13.058716
4.689404
9.927871
2.558855
-5.132183
23.154441
1.396548
-9.321329
-8.601158
-14.964463
2.834320
14.958054
-8.055992
4.391087
17.995536
-5.752255
-14.937932
4.009845
5.532549
-0.795334
1.359187
-18.439526
-7.284622
0.812771
2.271341
11.882831
-14.415107
22.837082
-4.146855
1.872752
7.295831
3.478954
-11.168802
-9.853312
1.322152
0.872167
-17.876709
16.396013
-4.544521
-1.705467
-22.156326
-10.942096
7.119934
-6.441004
18.578584
10.907820
8.571521
8.363570
1.746374
-0.206834
3.332466
-6.063383
-0.764195
-3.906210
8.487057
14.101231
-18.246892
-1.960559
-10.341067
15.655728
9.079625
8.625760
-12.050567
5.641373
0.217354
-8.970155
3.614586
10.575276
10.162558
16.095405
1.486841
10.096793
1.182223
9.780328
14.587976
18.393638
-6.708419
-16.966316
2.775337
-18.067981
7.226467
-4.022403
8.580174
-0.048549
3.519086
12.108852
-14.578998
-14.683038
-8.371251
0.692121
-0.616641
-3.742307
4.385720
11.652239
-6.756501
-29.771598
-0.134793
8.109127
9.817678
-5.463135
-24.614431
-8.650771
1.995928
4.159130
21.458808
-2.790384
8.694713
7.977933
-6.385725
-15.604865
4.269744
2.571674
-21.315813
-15.163252
5.194648
-6.256894
17.355251
20.036029
-4.585700
1.131594
-26.935884
16.290938
-14.324280
3.431146
-7.601815
-10.849536
-3.184392
-2.553723
-17.242515
-1.149879
-9.012591
-7.840809
17.774382
-18.291346
2.224309
-2.995846
-2.545410
-3.670002
0.192341
-0.854045
-9.476047
2.688610
4.432392
4.463646
6.160524
0.653266
-3.978594
-9.172443
-10.098613
10.586583
-9.022969
-13.152069
7.513915
12.770974
2.944464
2.981578
-4.151846
12.136295
5.859623
6.826697
-2.225633
-10.042044
1.136174
-7.175648
-5.431715
-9.416069
-11.228599
-1.595092
2.473120
20.229420
-0.745015
-7.860127
0.052807
-24.113324
-15.869476
-2.649971
-7.062649
-9.441641
-16.175904
-13.184147
7.139198
-9.854569
10.313566
4.418125
-4.119497
5.841009
16.340390
0.400596
-7.551556
-3.233514
-4.530116
1.094480
4.786350
10.026253
-3.894886
0.098249
-0.215386
-15.201775
2.290567
-5.858805
-10.985165
5.434797
10.350151
-8.872601
0.404624
-9.281617
-1.267095
-0.663587
3.399072
-6.386965
-4.601918
3.284162
14.608041
-13.829778
-7.955845
-4.023866
-7.614778
-8.559810
5.844845
6.220625
11.904875
8.226580
8.954052
-2.917715
6.945773
-10.515173
11.458696
-21.970368
-5.860223
4.519159
7.554146
-5.852897
8.773007
3.911024
-20.844944
8.049750
-5.334624
2.995025
2.916537
17.732993
10.896650
-14.734292
-11.672184
-8.371280
10.938891
2.896551
-4.201557
-8.483700
-5.234648
4.839499
-10.821825
-18.028814
-10.318632
-15.536553
15.528586
-14.349212
8.219400
-2.620896
10.808850
-5.534366
-3.913488
-30.197366
-10.630379
-8.751907
4.568408
1.938114
7.181233
-15.141065
4.458596
19.328310
0.996341
11.580352
8.626086
-1.308820
-1.855800
-0.279892
-4.699979
7.134630
-5.745020
11.317755
12.328462
-20.430458
9.212262
-0.143621
-14.602208
-8.036059
8.928608
-8.610708
17.111812
5.011214
-16.807476
3.755137
-5.272123
4.042513
8.691799
5.242289
-0.296371
2.972276
2.826013
3.375215
6.936643
-3.620586
20.680937
1.185923
-11.084827
13.961976
12.521295
-5.741915
0.045599
-3.601424
0.461681
12.535936
9.289589
10.105241
-15.982523
-5.896978
-11.331237
13.812533
1.940117
-19.028921
16.631470
8.813291
-15.648092
-21.851784
0.139278
12.495380
15.721930
13.449006
4.420669
-0.358010
-0.143120
5.553856
-15.127954
-24.743394
-0.686396
13.938788
-8.977213
10.379641
-0.569420
-0.429565
8.080328
8.521896
15.510710
10.672536
0.320528
7.247323
-4.073402
-1.304574
-10.104817
-1.351582
-16.996668
-7.182014
25.804242
0.317421
5.049850
-0.923047
10.730188
9.296397
-0.354462
3.975289
-6.121854
-0.627747
-11.058484
8.370186
-14.502740
-7.132687
2.080057
-13.268053
1.690084
10.667498
4.089098
-5.570399
-5.872323
-4.225364
2.124379
12.353326
0.451904
28.618015
-9.824282
-1.945182
-15.120176
-2.634917
10.774029
-6.849913
10.715864
5.497453
-21.907351
16.557501
-3.839156
-8.161649
-10.770338
-0.300746
-5.530108
3.144723
0.220968
6.940215
7.862252
1.269652
3.310095
7.871369
9.938898
-6.491161
9.111374
11.671864
-11.144310
2.176736
-4.199842
-9.419894
-12.854469
-6.464116
7.263236
-13.474086
16.526071
-15.838860
-0.524861
-2.752123
0.576049
1.635919
-23.301261
12.442172
-3.845587
-3.584975
-5.739378
8.334387
6.318352
-6.403656
10.235345
4.809389
10.400672
-2.636286
33.262362
16.133956
16.539698
6.121482
-0.363242
0.666324
1.393642
3.212521
15.235588
-4.013604
-12.892199
-0.261385
5.076616
5.352903
6.381427
10.118364
6.655521
-11.284668
-3.822945
-5.939769
10.330485
-6.679170
3.384983
4.909312
11.629594
4.313921
0.807292
-9.059301
7.148514
25.209378
-1.524338
-9.706852
15.046548
10.102320
-10.802007
-26.083032
-17.378986
13.956114
-1.494116
6.336723
-3.211602
4.137837
1.912950
6.451829
0.096916
10.132618
-0.332239
15.304543
10.256718
-4.937481
-6.452118
-0.583311
-1.874412
13.658247
-16.588924
17.247165
-0.636539
18.316374
5.260602
-6.789047
-6.884904
-0.491113
-3.537440
-5.150368
1.271182
3.234009
12.751771
2.905859
-8.316629
14.050790
12.983524
-3.747841
-13.708228
-10.659874
3.149465
8.327640
8.736695
-14.819631
0.483119
20.283462
-2.612540
-3.963329
2.406510
-3.793660
-7.981624
1.198199
-10.407780
-3.828151
3.601236
8.550560
-24.004627
-17.132336
-0.521017
-17.871856
-0.059362
4.325098
-17.390873
-10.590575
-6.807801
5.244579
13.037128
-14.927221
-7.050096
-2.029896
7.621792
17.534213
4.757776
-1.611160
-14.695498
3.472299
2.740282
-11.978257
5.241216
-7.467318
14.537683
25.950547
-5.245228
12.321250
-12.957556
15.153668
19.255336
-6.731160
-12.284083
1.359094
-19.110247
9.112419
-22.810023
-11.791562
-16.248053
-13.750389
-14.553278
-6.033701
-9.403361
-4.627447
-10.337933
-16.118786
-3.899814
-2.878135
-7.296897
3.201900
-16.307371
-4.043363
0.678116
-12.743215
-6.428336
5.966190
10.902068
6.889028
-9.185822
-10.529644
1.703885
-10.403947
-11.703994
1.578029
10.988578
9.854582
-14.440676
2.552325
-2.187593
5.515670
7.833047
4.405916
-0.634882
-7.838495
11.304940
-2.047141
4.431123
0.443322
-11.661575
11.726285
-0.088783
7.665178
11.179670
0.208603
0.091726
4.522489
12.291553
-3.770431
-9.339762
1.602285
-9.073153
-8.569715
-4.874451
-17.490206
2.225917
-3.806274
4.904586
3.550209
6.528468
0.059741
3.496554
-2.875196
-14.756241
-3.655571
-0.524679
19.899388
-0.232944
-30.945110
-4.392415
13.241329
0.840755
-8.561538
-13.662216
6.843368
-3.928327
8.501936
1.677152
2.762415
15.591246
6.369664
2.228210
-5.130115
0.766533
-0.899841
3.467596
6.854638
-9.510238
8.563032
-12.511731
12.279746
12.187436
-1.140843
7.048279
10.554295
0.132848
-17.343410
16.590269
-2.189367
32.315482
23.622798
-6.051445
-13.697350
-11.966478
4.561860
-0.481387
-12.431035
1.275904
16.709364
-21.470227
0.140764
-9.721042
1.639672
7.750267
-1.961410
1.831236
13.900593
-0.400214
17.578948
-20.674116
4.817998
9.770071
7.965766
-17.200813
12.814370
-4.565394
-1.800217
-15.057503
-4.801275
6.422194
11.854160
-7.813195
12.009562
-13.127493
-1.039101
-7.308703
-2.790229
5.062253
-7.707818
5.166659
2.378387
8.642719
-1.653001
-3.044523
2.231416
4.280573
16.575567
3.395002
1.299738
0.380243
-14.417790
-4.357806
0.633344
-4.284689
-12.978922
-14.892081
15.493790
-7.851707
-4.274303
-19.651822
1.038395
-21.939651
-11.992950
-8.275501
3.827629
9.929886
-7.770568
-19.735011
-9.500688
-17.054839
-10.907736
-8.409350
9.453160
-6.073274
-10.749717
7.284384
-5.722237
-1.784646
1.844709
-3.437709
-3.062278
2.242519
3.419999
3.419750
8.812223
-2.919417
-5.598269
6.977193
-0.703121
-14.509110
8.156782
3.020953
-6.764559
-4.709141
9.366586
4.948646
-1.076878
-0.115493
-14.761120
14.662320
1.299920
5.576864
18.363577
6.811762
12.299966
-19.257547
4.496491
5.932724
13.470734
8.293932
-12.793538
5.154264
-1.239823
4.206087
6.209610
13.186485
12.689867
18.885906
-13.354978
4.741624
-0.162469
-16.838071
3.453470
-8.776259
5.616852
4.811435
-10.144123
10.592697
5.642677
8.315741
-0.266683
-16.726780
-5.876817
-10.631675
-14.474976
2.640539
4.547204
2.778399
-12.897561
18.284089
-1.434372
3.364824
-2.149032
1.311699
-14.088818
-6.226222
1.034300
10.616776
-22.829554
-7.769730
-8.843640
-31.059286
-4.195699
-1.898662
5.538554
-4.362904
-8.657373
-16.374945
16.748793
-2.637873
-2.022193
11.442081
-3.907527
8.057976
-15.449043
-6.595201
-6.610637
-9.788624
13.298170
1.390613
-1.108734
-5.943536
23.948633
7.972819
-5.015535
-2.032564
-3.287931
4.766974
6.842146
-3.197457
4.842235
-7.257592
-9.236117
-4.850519
9.610000
-0.067549
-5.841938
-6.953793
-6.765910
-3.212991
21.245284
-12.877058
-3.095787
7.572509
-3.631005
-9.588732
26.868495
-30.597669
-14.453715
3.522910
-4.725578
-14.430241
1.064521
11.209150
-10.781083
5.373607
-3.839594
9.193228
-2.026752
26.984215
-2.913880
-6.357016
0.804397
-2.501934
-4.062875
-0.437342
-22.954072
11.754210
5.424469
1.376301
-6.180516
12.587459
13.823266
-6.668437
6.778593
2.644381
2.398418
-3.438289
-1.983219
-4.408760
7.180945
-1.654847
6.983059
6.919080
13.152541
19.891300
-12.375006
-7.923333
6.248374
1.661150
-2.104210
-7.767179
3.197280
6.274884
2.118328
1.042937
-14.744241
-10.897480
9.206948
-8.927162
-0.855633
-1.770562
-14.645272
-8.885088
-2.547020
-9.830250
2.727164
7.501759
-2.216155
4.169080
4.209845
4.964697
-17.079301
-5.499987
5.817692
-7.009861
-15.801606
-2.852480
18.344780
-11.407705
18.603126
-9.246666
1.123852
-3.176634
-15.920636
-4.823962
7.793953
-2.914118
24.735231
3.066039
5.547602
16.920284
11.228868
-15.343438
-10.275334
-12.120276
13.160542
-3.127135
-2.313498
-8.307995
-0.543113
-16.802946
-2.318643
-8.783843
14.763313
-4.780593
-2.403600
4.500907
-11.851158
-9.013876
13.060380
-5.806342
5.560632
-1.526882
3.761180
-18.348957
-7.945266
-8.976783
-4.584196
0.456369
-6.704680
4.783628
9.043272
1.536692
-2.089735
-1.631112
12.887850
2.587372
-0.840600
-4.387878
12.864545
2.040815
15.323030
-4.141233
-2.044667
-9.657729
14.295665
-8.489909
2.183031
5.124518
15.842947
-17.223421
2.033766
7.018834
3.651780
-2.411812
11.841036
-23.411601
-2.725928
-1.191721
4.215994
3.887623
-5.154297
-7.837469
6.605885
-11.960762
11.958891
4.522065
5.107111
7.723225
-5.453025
-23.278277
-10.636816
17.507834
-5.451800
-25.499417
2.397887
16.173849
1.482415
9.837477
13.859909
11.370797
1.033308
26.482149
-7.520875
-5.995168
-3.222338
-16.191708
4.323942
2.532777
1.372362
2.725476
0.193528
-4.209360
11.313226
8.301131
-9.266521
-8.344837
-20.975306
24.621229
5.916400
-3.900190
-2.598697
-6.224640
-8.808010
-9.893729
-3.457059
-9.896292
-2.106325
7.746105
6.356910
-13.146827
13.214548
-0.982914
-2.756955
6.534236
6.102690
-6.077416
-9.019839
-3.638562
-16.090578
-8.477922
17.821147
7.943161
-9.201897
15.101828
14.757063
-4.339854
-3.312429
13.192995
-0.995254
3.062354
-10.007866
-13.885792
-17.980838
12.822970
-12.612797
-12.288029
-14.174453
-22.716512
-11.507323
0.527329
26.230839
15.095780
-6.438066
6.990045
4.680053
-7.064339
4.007377
-15.005622
-4.146707
-20.196758
-13.732216
-13.575670
4.930284
-1.952115
-0.119044
-12.585493
4.992561
11.162147
-19.553588
2.720988
-25.658665
-3.320367
9.212790
-0.078397
4.110170
-2.945965
12.473420
0.864381
-16.473556
-2.192572
14.330894
6.334141
-11.166013
13.306334
-4.131996
-6.876330
-8.314380
-8.423073
-12.477359
-6.015635
-10.180407
-14.021855
-10.856367
-0.432035
-5.604323
-6.818487
-13.791095
-5.851770
4.538148
-37.687474
-6.334824
10.179827
8.181983
-2.758984
12.534246
0.760048
9.929273
-7.154285
2.202330
-4.772403
4.483125
-2.028661
-17.990095
3.074084
13.558138
12.001980
-6.985117
-15.793364
-10.906896
-11.248409
-10.850051
4.464105
-5.152730
3.607368
7.068898
-13.293707
3.555256
-18.381347
-8.723291
4.872306
6.436917
10.168543
-4.580867
-6.822394
-6.695413
-14.802036
-11.418178
9.418293
2.658242
-1.812936
-6.722450
3.776894
5.213619
24.587841
-6.411561
8.010954
4.450402
-4.017613
5.722180
9.962353
14.391439
-10.124884
17.240504
-0.611297
-18.207047
-2.098280
2.628119
-4.651144
7.411437
8.629773
1.775583
-5.351434
-16.304642
-0.458663
10.545579
-9.705586
-1.918825
3.156381
-0.090770
16.355494
10.533700
5.405016
-0.342878
1.415070
23.131562
-0.051766
-5.622034
15.871993
-7.347815
-4.683065
1.738604
-18.063021
-14.261594
9.815583
-14.440761
-10.227768
10.283200
-35.113037
-7.189512
-8.175864
4.529255
15.367758
19.343126
-15.074330
-10.147500
3.274494
14.954130
-12.367934
-2.715438
-5.965450
-5.716003
-9.527307
3.860200
-1.994174
-4.469416
-1.006236
3.514396
16.053994
-0.460596
2.617149
5.592398
-6.814149
11.899510
-6.175802
11.674269
20.173995
-17.852161
-1.612162
-2.598729
-3.661483
-10.812156
-3.703074
3.262071
-1.437197
9.572615
3.936300
15.317543
0.090955
-5.346705
-12.204373
-11.441862
2.502778
-1.206213
-6.333876
-10.197507
-10.318868
0.876740
10.961275
-17.319687
11.261406
1.698920
-24.186547
0.054909
-6.788000
5.625168
-12.153215
16.313789
-2.401981
-13.187394
14.201910
-6.820790
-7.918599
-11.875090
3.533084
-19.281273
-11.096788
18.442331
-9.437960
-12.829234
-1.216030
-4.160293
-7.588029
10.203650
-0.912156
-5.719973
1.985677
4.574651
7.886328
3.441066
0.851282
4.114123
7.296120
15.699223
-7.173156
-10.934836
-8.242421
-3.383607
-9.808019
9.239959
-2.234428
-2.196061
9.403697
13.707875
-5.629822
1.791243
2.967652
5.643386
-1.065274
-10.894080
1.991777
0.737640
9.526013
-6.045956
-9.262987
11.307657
-6.892292
1.452681
2.732570
8.614837
0.065827
-19.695698
2.123935
-1.538297
4.472153
2.698577
2.024199
-9.721631
-13.565921
3.899725
-22.027390
20.702228
8.687701
-14.501043
23.779615
10.240296
0.045898
-0.805610
-0.006295
0.699947
14.675273
-7.339136
-28.268542
-5.642569
-4.305507
-1.554670
-19.013044
14.193414
0.364955
25.678081
3.660634
8.364621
10.693864
-0.867301
0.886455
14.855328
6.904741
6.785922
-3.317232
-9.003676
-16.670321
6.681363
1.833776
-4.387747
8.650750
18.255526
1.060594
4.081827
-12.551599
-0.323010
6.319349
6.921131
7.892381
-15.871096
-6.283230
7.947631
0.108474
1.272857
-11.501955
-10.599970
2.491540
-8.734024
8.185842
5.806230
-7.774797
6.341157
0.521375
-6.783904
0.802926
4.412756
3.331503
-1.458413
0.521371
-1.163571
1.874915
-2.904311
11.371013
-11.636749
10.304866
9.067734
21.095625
3.421250
-0.894199
10.615321
-7.739333
0.789449
-8.546369
-0.216738
2.426646
12.547859
1.461500
-3.052814
1.959786
11.382414
-10.274933
-11.647869
16.045350
-2.584942
-4.186679
2.688254
-5.313294
10.255830
-2.333236
8.180637
8.424673
11.133504
-4.695922
-6.046604
6.729142
10.997318
-23.914263
12.404030
-0.492674
27.631156
-26.333728
-0.297743
-1.412288
1.899366
1.176144
7.949111
-14.184513
-9.742891
1.294505
14.490393
4.173476
14.702672
-4.145433
-9.309206
-2.664419
-4.299634
-1.181939
-2.824187
10.633606
4.089680
6.423640
-0.701030
2.432749
-6.458174
1.156410
-22.205930
10.537032
9.946058
12.167257
-4.076682
7.545943
3.102633
1.571844
14.227160
0.652812
-14.742460
3.613663
-14.018840
-4.559498
0.745934
1.598076
3.495606
-3.813368
-24.095313
13.736878
-5.801135
-9.639649
-27.204175
-8.642697
-3.593378
-5.014405
-5.348662
-13.132539
-0.844592
-8.860639
0.488421
-8.100988
19.057139
4.042095
7.090395
-9.551345
-3.439048
14.551859
7.413922
-1.730424
-4.024259
18.576816
-10.100453
-5.074692
-4.147858
4.909372
13.457810
-13.381544
-8.115382
8.636058
8.911320
4.129895
-10.504443
-20.645374
12.367280
-7.818827
-1.256037
-7.516389
7.244730
-6.945139
14.315400
-13.348651
7.597443
-6.048392
-4.866397
-9.543754
12.188154
5.177954
5.848557
-14.745246
-1.147361
-3.739012
-0.215659
1.513146
4.309598
2.041762
1.423366
-0.142980
-6.046057
14.718604
6.227968
-17.189739
-11.226989
11.801266
-0.882272
-0.114613
-0.198661
5.897574
-10.260830
-5.756628
7.734924
-5.659891
1.786542
4.772004
4.876601
17.679195
-6.181449
10.796259
-7.794578
11.651153
5.655332
16.422958
17.144779
13.672010
8.048947
8.783906
-6.358295
-18.588756
-8.664571
5.034644
4.838363
-1.182186
9.568482
5.337112
-2.292946
12.659850
7.861549
-4.372113
-4.384348
-9.324966
14.707682
-11.868589
-24.799942
15.078704
-11.563605
3.108409
-9.284687
6.771333
-13.645334
7.997673
-4.591620
1.228905
-6.313944
8.311681
-9.098292
-3.091900
4.239699
-8.374262
-18.669573
-4.094686
1.989245
3.891716
3.371225
9.552238
-8.541996
-15.471852
-23.718326
-8.183267
-5.792246
-6.221820
-3.577480
-15.693402
4.794495
-1.008516
-3.571594
7.495130
-11.101987
0.123106
5.832441
3.839003
8.504968
-10.423119
15.206136
-17.114797
-6.312312
-11.586283
-9.666061
-0.392027
-1.827422
10.932656
-11.741128
8.280661
-8.078280
24.731798
15.877834
-12.710167
-6.379842
-5.669912
0.341214
-12.114520
6.306593
-17.875927
-24.623016
20.129000
-12.616219
3.424621
13.981458
1.928318
7.403238
10.103742
5.997452
0.174664
-1.931427
13.400426
8.094032
9.359925
-4.163147
-14.913255
-3.866604
-13.343708
7.372710
0.345036
14.000153
-4.381810
6.922769
15.428987
-1.447851
-9.520117
8.793458
-0.632612
4.459647
-1.616380
-3.962389
-7.771868
1.975696
0.361585
-12.689738
15.269294
13.786994
17.925543
19.436168
5.650958
-11.876124
0.048255
10.941220
13.329940
-8.694253
2.537455
-1.218009
-8.735984
6.192193
4.013036
2.403632
4.651016
-1.439857
1.608105
7.213164
4.133306
1.145762
-14.606922
-5.749555
-7.858355
8.571765
17.466574
-4.853630
-5.601341
-4.165408
4.888698
7.722032
8.539372
-1.606459
3.679869
14.503784
1.516317
11.509995
13.757977
13.380982
12.064019
-3.735589
-3.259028
-5.133815
-1.612632
-7.932130
-4.489616
-16.089668
-0.152613
-6.167115
-3.026314
-5.184514
-13.683041
-7.107826
-4.368615
-2.092270
-10.240660
2.490346
-2.632236
8.572676
2.149471
-4.565131
2.495877
-11.049078
8.603878
-22.715463
7.177939
9.034985
-0.250043
-1.219383
5.750812
-12.975887
-4.726017
10.184562
7.036573
-4.390551
-8.136183
3.148571
-9.056559
-5.070347
-2.707046
-5.998409
-1.715853
11.760204
16.739998
5.969902
-8.595138
-20.837202
-7.173153
1.002473
-3.658221
-12.588206
6.630210
-5.216646
6.136552
-0.342193
-0.239396
-18.615411
-0.651786
5.365114
-2.028345
2.892516
18.359890
-11.772604
-10.702382
-23.103489
-2.036397
-3.634310
6.553988
-7.147598
10.984335
-5.854951
-10.516232
3.710568
-0.450235
-11.412509
1.942765
2.497902
5.595984
2.264311
18.667064
-20.364349
6.642942
-0.015510
-1.673631
-9.012945
20.514386
6.994565
-14.381821
0.402302
-18.878973
-10.836101
-7.273378
-2.446030
8.061413
7.550553
7.149412
-6.135679
-13.041258
11.333247
-5.288836
6.935688
18.374272
8.021534
-5.985381
-1.175796
-10.891589
-0.414191
21.675413
-10.619770
19.456322
-3.931301
5.360706
-1.257041
2.118561
-3.920099
-23.442009
8.303682
-13.491665
-17.020039
-15.355523
4.832264
3.269132
0.756637
4.622275
-11.636384
14.403446
18.880406
-6.121788
-1.011347
1.041597
-3.494548
-3.981601
18.785343
15.474096
-9.888258
-10.205453
-4.818828
2.623873
2.003504
-2.746022
3.125736
-1.647937
-7.008264
6.459598
1.525222
15.442213
16.846411
11.822158
19.611087
11.528384
15.579039
9.815646
-11.218895
-23.058509
-0.962243
3.328791
-3.823195
6.556877
17.971439
-2.163154
-4.518362
4.488504
-11.006808
13.838921
7.026849
-14.370827
-1.061379
-3.917211
-5.945953
11.244192
2.328512
1.368716
-18.791998
0.207377
16.443524
0.357310
-4.321799
6.618097
-6.309769
8.918850
3.987952
18.241868
-5.578121
12.027811
-4.033672
0.069144
-4.201705
-1.881855
-10.390846
31.136592
6.339170
7.796227
7.082169
0.487309
-9.107508
10.082878
-2.555711
-10.591851
1.255599
-0.566368
-4.005258
7.253669
3.338713
4.033970
-7.230839
-5.486501
-10.502294
4.646951
-6.215864
-2.512616
13.243875
10.361241
-11.466682
14.273592
8.396482
8.669638
11.821199
5.314070
1.967153
7.064837
-16.419312
-15.807761
-1.888683
7.235758
14.715125
-13.356588
4.525033
-4.089527
-9.521977
13.288783
-1.267704
2.457074
5.093985
-0.227288
12.980645
-10.703989
2.831404
-7.154204
-1.172255
-8.296604
-20.552420
-5.410185
9.078954
2.868299
19.055504
3.401561
0.778681
9.890571
-2.953173
11.941370
-12.566608
-2.065625
-1.410699
1.763249
-7.092236
3.407068
8.232303
-19.910419
-3.756762
5.059110
8.372825
15.455281
4.220491
-2.017413
5.617119
-6.253010
-12.419261
-11.078154
22.531862
10.372194
-7.963542
-0.169266
-3.329696
5.208546
9.408882
10.640215
-12.041302
1.618265
9.742380
-4.375377
-9.535196
8.192720
7.832929
-2.680859
9.816103
1.863270
-18.247350
2.750461
-4.594194
-7.096600
-11.960477
13.187060
-6.090072
15.873151
-11.349801
-6.046848
-2.579609
-0.267125
4.627532
-16.508295
-2.784982
9.778562
11.045837
11.927034
-18.277615
1.411923
7.320186
-5.480389
-8.146887
16.947822
2.748782
-5.264576
-16.114613
-5.205412
-3.429266
-6.555463
7.556143
9.586619
-12.092135
-12.587582
2.902720
8.664224
16.140311
-17.986334
-0.290525
3.173315
-9.531784
9.686418
-10.643320
16.055876
-12.948736
-2.477860
-7.488485
14.626397
2.340659
0.234562
-13.584453
-14.071416
-10.889601
-5.573450
5.408697
-2.991403
-5.533160
-5.098451
-9.441297
11.915500
0.240137
-1.627510
-12.275618
-4.703427
-20.341641
-6.040131
-7.457867
-3.309095
0.247582
-11.065745
-1.219569
17.867576
5.166569
3.771427
13.356194
1.801361
-4.619868
-6.395967
7.721580
-11.976431
11.715887
-12.737253
13.623959
-25.538082
-4.806373
11.189470
15.274276
-13.544783
-13.706302
-14.867004
-13.246128
-4.543687
-12.658511
15.618555
0.164165
-0.600211
1.822859
-3.566182
-3.535566
1.407033
-4.573001
-27.494228
-15.333376
1.758870
9.257025
-6.227615
0.390752
3.445906
12.172161
11.108379
0.466751
11.854853
-4.780294
10.776670
-17.322457
23.008139
1.930052
9.244287
5.457421
5.829177
18.327910
5.860974
-0.045952
-5.470171
2.140671
-5.008735
-14.710200
-11.542578
7.277991
8.309378
-5.829667
-4.444734
5.237717
-10.096079
2.676404
-5.885968
1.777458
2.588219
-1.198070
9.337468
-3.369780
-13.828769
23.927998
17.320378
-6.468182
5.010942
-16.722915
-0.042442
-6.789879
9.172389
1.793691
5.603167
1.526214
2.523333
-10.913396
3.801763
-10.798291
2.266566
4.369580
6.525087
0.443402
8.505076
9.509445
19.030143
0.086961
-1.814371
7.980471
-19.396321
-10.112681
-18.870386
30.304741
-10.057708
-2.180033
0.045102
-12.078970
8.503097
15.264447
11.217176
1.376987
7.047927
3.438426
-11.207834
-16.136194
-14.794238
-13.948654
11.130938
-4.885241
-0.658924
-9.872833
-1.839852
10.338942
1.551853
19.941772
24.055903
-1.395924
0.118051
7.120212
13.490784
-16.743037
1.547627
-19.948335
-12.946841
-6.779530
-14.752984
-0.219576
-5.802535
5.416728
2.683295
-9.148168
-0.004044
-20.408207
1.058009
7.519346
-0.484620
13.439876
-8.979776
-12.117261
-20.259999
-15.658062
5.009297
-7.217190
-9.036190
-4.235978
-8.419385
0.919422
12.392721
-33.934726
-11.536568
-3.787394
-17.399786
0.509250
19.177287
-2.486670
-7.245219
-7.369863
7.372490
10.268723
-2.758452
-11.476024
1.111854
-2.005640
-13.185931
-1.338107
-5.198438
-4.065149
-14.849589
5.336807
2.120687
2.866027
-10.798972
14.905916
-4.847095
-12.645806
-11.991214
-9.325703
1.542298
-9.824351
-11.711409
-11.321347
-0.321297
9.209900
-7.288165
-0.056755
-2.211358
-14.031263
7.694616
2.516865
-6.205075
-4.712180
3.148295
-2.047870
-5.891761
6.121186
7.198404
1.740171
10.705948
-10.339074
-7.322603
-10.389417
4.474441
-6.765377
-2.835882
6.607985
3.700863
-7.906643
9.694554
-11.151236
0.496951
3.749421
0.865852
-4.136840
-7.279002
-4.785976
-1.532909
3.895854
-8.023721
-19.078751
-14.381366
6.542829
-16.922637
-9.569542
1.427478
8.444339
-16.971930
-9.873351
1.091591
-0.236771
-3.675188
-17.576042
9.130814
5.801757
12.167109
6.532012
-0.388161
-10.237168
-18.853968
-17.715468
-15.656518
-4.423910
9.277671
7.070854
-2.874693
-4.818861
11.428422
-10.775102
-0.252991
-2.031914
11.949726
3.723816
-11.006970
-13.682210
-11.873160
-17.036289
4.439164
8.361273
15.441383
-14.768997
3.052183
-11.142594
10.560609
-16.002616
-5.599011
-8.821735
-10.824147
0.414129
-5.807930
-7.076160
12.638032
1.013081
-3.889819
-0.208070
-0.384491
-7.884699
-19.132557
0.831229
0.715176
7.501398
1.814292
5.563774
6.467966
-6.029672
12.028553
-0.885319
3.706971
-7.469511
-24.218218
10.467108
5.101764
1.799166
-0.882285
10.170512
4.149153
5.398392
6.927708
5.103419
-5.557599
-4.239421
-10.864422
-3.765367
-9.236171
-3.881038
1.170037
-2.061104
7.069408
12.266540
-3.959024
-1.374364
-5.270117
7.283918
-7.106866
-3.176116
-5.141667
7.033892
-16.546891
15.474889
-20.119925
0.149866
-9.052664
12.424770
-10.749147
-3.055607
9.499862
6.444449
-10.246456
-1.094631
8.028719
-2.879720
16.951849
-19.759272
11.016257
-0.380967
2.121040
-9.242940
-13.587960
-4.221149
-20.199513
-17.244177
6.681834
4.812102
11.201525
-8.541176
-8.656543
14.726237
8.076467
10.435314
-2.923005
-8.222142
3.985610
-2.048559
3.754242
-18.892977
-0.229691
-7.265392
-6.357754
0.778750
6.400019
9.933797
-18.690818
-7.013389
37.237884
-3.498979
-2.751136
8.855550
-3.750125
0.575707
11.812886
-8.225794
-6.425548
-13.177577
-16.317664
-3.020913
-2.596772
2.910137
17.333254
0.307869
7.402596
2.306025
-22.123644
7.206616
10.925354
-20.442941
-20.279137
15.946293
-6.885600
-5.949412
-1.707325
-8.965248
5.751004
-13.553001
-2.288787
28.902326
-2.110488
2.384585
9.244536
-5.082245
8.843060
-6.356792
-0.269981
-3.989345
-11.169447
1.425317
18.021786
-6.240421
-8.429505
-6.109028
-3.241311
-13.289549
7.709424
13.624664
-14.644384
-7.409867
-10.351425
-6.926256
-11.456639
-5.938565
-3.439989
7.215767
-2.782557
-8.835762
-7.660259
-6.977783
0.471903
10.776419
6.316463
3.506809
9.075967
-4.436455
-20.562887
-12.649759
-14.846174
-9.385070
-3.275636
-10.989016
-2.975209
6.936329
8.470223
7.072175
-15.798843
22.029963
5.051627
-3.269032
-1.397738
6.697957
-6.205160
-2.268927
-2.044986
-4.752152
-7.948625
-2.070319
4.740751
-0.745204
15.598462
5.304950
0.775061
8.915597
-14.052809
-8.864750
-3.584130
2.927739
-5.782105
-13.093687
-4.068723
18.760311
-10.190308
4.749277
-9.377701
-3.625932
-8.330535
2.004190
-1.721900
-10.227690
-11.910807
-10.553692
-5.167637
11.960115
-18.064924
-7.432633
8.223298
7.496809
5.365324
2.331540
-4.721854
-15.367185
-11.788934
-11.035671
-17.421841
2.595011
-2.883834
-11.175123
-10.476923
2.812091
-12.184555
1.482757
-12.943082
-3.471553
-14.809272
-4.981137
0.786569
-8.883952
-5.040930
-4.947376
-3.540509
-2.665921
-5.499911
-1.559997
-1.483742
13.337613
-2.028044
-0.390523
4.573170
-13.829654
-2.075875
6.509145
17.191270
-21.350612
-0.409297
-6.349183
-3.689052
-31.608967
-4.216296
-8.742961
8.748500
-14.028632
-14.249804
-10.500647
1.305168
-10.714323
-6.328372
-16.714355
0.525334
0.752599
-18.717468
9.367320
4.146133
8.422797
21.195410
9.738474
-18.218967
7.159623
14.089576
-7.237590
2.974377
-2.755274
1.829708
-12.668583
-10.455785
-8.653338
12.870060
16.857632
-3.539740
0.855222
-21.522055
11.200142
1.705566
4.103041
-2.529741
2.371284
7.090585
7.428243
-3.666615
-2.950289
-4.480061
1.699725
-15.584216
-8.917494
-0.493980
10.193974
-25.258803
-9.321745
0.250742
16.422346
3.215274
-13.745028
-2.869985
-2.054015
21.498949
-7.427682
10.972330
13.899360
-5.863936
10.145768
-20.043233
-4.939204
-0.203806
9.694079
-3.985104
2.919197
-23.752273
5.545650
6.715249
-17.161113
-7.420094
-8.159230
5.510182
0.842342
8.233263
-11.291220
5.602639
-3.991189
-3.724700
-12.438807
-3.048050
-19.875845
7.110186
-6.173492
20.311183
-8.556644
-0.462921
-3.900291
-10.568364
-1.993348
-1.879575
-21.692660
-12.801978
-19.888252
0.611828
3.537902
-15.791641
8.329079
10.023640
2.815171
-0.214265
-13.640197
1.878190
3.917907
8.621770
-4.024969
-7.381758
1.893085
-18.567041
5.134343
-14.740078
-5.898426
3.817684
-5.115225
-5.133665
2.884800
6.865914
3.019242
-3.113100
-5.632153
-9.486571
2.881996
3.738355
-23.157426
-14.657923
-9.173173
3.483434
-5.565343
-23.835271
-13.275766
10.121981
9.313376
-14.804443
1.004533
5.010689
7.116319
4.719620
-3.662068
3.627837
8.752097
-14.385677
4.838505
-13.984194
-14.304997
-25.368020
16.540486
-1.716237
-15.031209
2.087900
3.037950
5.049213
2.147409
-4.289190
7.232810
4.724964
-20.118703
-5.464579
-4.908026
1.973937
0.073901
16.885041
-8.954010
2.049694
-0.794743
-13.918395
1.861668
10.959291
-1.657984
4.153390
-6.296772
-10.921590
-11.846354
-11.782677
-7.168549
3.686750
-5.085213
4.568857
-18.352998
-10.987237
5.888059
3.139318
-6.344662
-3.567263
13.735968
0.142657
-0.638723
7.235575
-2.641221
-13.122780
-8.860306
0.058247
3.305322
10.008673
-9.344329
15.950522
1.756831
8.130720
-15.247086
4.769183
-10.904580
-7.791209
0.450037
3.465918
-0.755833
-2.369059
-1.669704
-10.791057
4.023440
-0.359335
2.974047
1.231295
15.686403
23.384812
-7.605216
-3.655220
-3.927895
-17.142973
-5.478119
1.110988
0.959392
-2.547441
-8.059741
15.839318
-3.828821
-9.455558
-2.013052
7.505432
-2.996502
21.863440
-15.288755
7.669855
-6.298128
4.964024
10.408716
0.939726
-3.609012
-0.915224
-6.955831
2.801081
11.826004
7.553907
-13.527127
-3.532626
12.088826
-10.681769
8.401990
6.467688
7.307308
1.973570
2.975394
-1.139719
-10.763152
-1.054449
-9.507744
-28.072610
-9.180675
3.239633
-13.227211
7.931251
7.330303
-4.967967
-2.473966
-8.209593
10.428003
14.708267
-3.890673
-4.754402
2.053534
0.658204
-6.836661
0.236243
3.153716
-1.013833
14.922690
-6.163380
-2.277512
-12.948359
-0.971373
-0.208554
-0.661744
2.624538
7.623336
-14.457211
0.165412
-2.811015
-9.519760
-5.114953
-10.209228
-28.966279
18.057445
11.627062
-3.059349
-9.918982
2.395376
7.025167
-4.086821
-7.493164
3.087717
8.421681
-6.356613
-2.864098
-2.167495
-0.072513
-16.399953
-2.392490
-7.712645
-15.090552
-1.209851
9.221090
8.830833
5.758578
-1.802244
10.737541
-6.225108
-4.370581
-3.869249
-7.121982
-0.415062
-7.298637
10.131597
-0.447692
-23.057468
13.848860
-17.228596
-5.512098
-9.854532
6.901175
12.035747
20.617299
-10.403617
-27.892887
6.537155
7.644706
-6.269787
-5.110381
8.577449
6.681573
-6.053736
2.192934
13.527178
-1.657883
-2.774895
18.573878
-1.907485
-9.302561
-12.665664
-5.444141
-5.310101
-5.510045
-12.022983
-7.484832
0.824827
10.895064
8.787132
2.461847
15.659461
0.125498
15.658707
-2.315860
-9.778340
-6.363844
8.220619
7.156949
18.696466
-1.963039
0.107771
10.896478
-19.662951
-7.822827
-3.453265
-0.686811
-4.491914
-7.231420
-9.277228
0.971510
11.620833
0.794208
1.305604
4.142730
-27.839567
-0.109108
-10.593373
-22.421510
-0.782962
-17.501809
-6.705089
2.404399
0.982959
-6.208405
-9.196471
9.738462
5.341467
-0.751962
14.214659
6.826558
-5.757242
-9.543690
-8.513146
-0.275082
-0.862170
18.597580
-0.574883
0.890897
7.744849
22.861285
0.528697
5.758224
-2.714198
7.926220
-7.226842
-9.317798
-15.767380
2.884983
-8.741301
11.060263
2.367135
-16.637725
-9.013389
-6.667299
-2.316488
10.558652
13.389494
-20.482680
7.262101
-4.069227
3.864357
-10.945739
-13.596406
-4.185642
1.014917
-6.934066
-13.015974
0.353316
-0.378991
2.050066
1.485675
3.865828
1.498109
3.409798
-18.791716
1.819602
-8.463998
0.446391
-5.950093
6.744765
-15.236671
-14.556133
11.141745
0.305575
-2.775599
-16.979310
-10.816373
-1.260178
7.870397
5.499052
6.368546
-0.149808
-5.512602
-18.692628
15.427199
7.251339
-10.264723
4.995100
12.373722
-2.505127
-3.072566
1.095489
1.062624
-12.633320
-1.014273
4.991653
3.670000
13.843305
1.548792
1.002557
-6.505514
5.928713
-10.625742
20.220418
-4.277318
23.248265
-5.262243
5.505483
13.147371
-19.969771
1.245692
18.853428
-1.734461
-16.696952
12.520469
13.216134
2.476253
-12.426583
5.446135
-12.615384
-4.799955
-0.295466
-5.792012
3.388386
15.479920
-6.283849
2.132882
4.339366
0.531356
-14.379327
4.925684
-7.401194
-17.514700
-13.424746
11.423304
-3.786295
14.692502
13.173776
2.444283
-7.199034
10.208028
11.077072
-11.053890
-1.047202
-0.112137
-14.047239
-17.438935
34.411170
3.237698
19.076120
1.782632
7.974441
22.926434
0.322144
16.488583
-7.482080
-7.894882
15.973054
-1.606819
7.759705
5.516539
15.675407
15.877658
-0.263257
-1.614570
3.320406
-2.770005
-4.409076
-9.657323
-4.325733
-16.884017
-15.381449
11.253273
-0.511526
-4.119320
-9.037902
-1.233114
10.571968
-12.574653
8.302355
-9.182548
-10.683270
1.000222
10.156943
-27.697755
-4.602020
17.160502
0.076822
-12.581659
-1.979038
12.375751
-4.390953
4.636084
-6.776944
14.306360
9.411881
3.345300
16.032411
-14.878476
-6.382548
-23.513873
-4.243458
-0.428362
4.827926
-6.813984
-2.793448
12.397539
1.645924
3.523388
-9.470710
-1.441905
-7.378581
-1.914346
-14.945914
-0.506749
18.122341
7.378077
3.780207
-9.110134
-23.041466
11.874951
-0.119277
8.542899
-18.350710
7.161248
-1.512588
3.246172
-8.966108
-0.261638
-8.037499
2.583124
5.865619
-1.485579
-2.822231
9.899270
-12.601596
-3.366339
-5.458911
12.879758
11.571293
-8.429018
-25.023151
3.071485
2.696874
-8.172334
-1.020844
10.646443
2.102326
-21.062928
1.386803
13.380257
-6.207472
-1.121151
6.233231
0.570852
0.525274
22.899802
-5.811823
-5.336651
-0.902763
-1.709301
-3.475044
4.781134
-4.955877
4.432665
-0.722138
5.238003
4.441932
1.458519
8.624699
-22.623856
8.169016
-6.800480
-3.643055
9.233185
-2.471589
-12.940036
-4.334727
-18.302653
-18.848582
20.297756
-0.165427
3.361025
-4.331576
15.478343
8.636417
-19.695864
-0.628005
-7.617993
-12.051001
-4.431877
-2.840510
-4.274022
5.163060
7.050171
11.529715
-2.146442
19.257724
10.865030
9.053287
-5.692095
-0.482048
5.617607
-4.415451
-1.661924
-18.067709
6.792974
-7.673987
0.518880
-3.863975
11.056566
6.280579
6.870921
-26.231394
0.786736
-13.292752
2.895565
5.333322
-13.146954
12.383554
3.006493
8.662908
9.261854
-5.382106
-9.957172
-3.029638
-7.515867
8.172770
0.318827
7.547936
-11.830364
18.410851
-9.893330
4.046509
11.629667
4.916921
-19.109079
24.202882
2.841641
-23.877815
16.001095
4.781947
-6.837233
-2.745304
7.599110
3.492410
-17.546502
2.842359
-6.272406
-3.024347
0.277928
-12.647364
-13.648512
-9.957161
15.128909
25.175112
4.808539
-6.545301
-9.489892
-1.029876
-12.538420
4.749914
24.626373
-5.706719
16.437945
22.652302
-1.176458
5.628778
-20.197677
8.498587
-2.527002
-7.242587
2.992669
4.402871
-13.608697
1.654832
-4.896692
6.148893
-11.069763
-14.579951
-11.612064
-3.862930
4.851436
-4.197253
3.569962
11.677708
-0.809759
7.262236
-25.013451
9.430636
20.476677
4.441129
-1.344148
11.418786
13.940534
-4.669418
-8.251329
-1.551947
9.012046
-12.825235
8.002259
-15.903837
-4.597212
-2.478181
-20.786359
16.938342
10.920309
-1.850244
2.678558
-8.106351
-11.236937
8.146123
13.185041
-2.107526
5.982528
3.496904
5.492393
-0.479091
4.041777
-11.454695
1.187899
11.970176
12.870808
-1.109302
14.736453
-0.033423
-13.226638
-9.783166
-5.092632
-17.943281
1.897554
-6.215222
-6.041861
2.968007
1.807452
-10.546042
-15.913035
7.467535
10.555086
0.235141
-3.952296
-8.068285
-2.486529
14.891291
6.740098
1.194474
-8.531124
-13.752344
-6.913253
-8.767362
9.407699
-2.378767
-7.043709
-2.272038
9.750165
-0.147960
10.539558
-24.427474
0.485658
8.831533
21.291378
0.138619
5.643299
7.997220
7.689275
-22.349191
-22.366078
-0.855515
-6.077923
-10.080337
15.124196
7.077562
2.968377
2.033775
14.975481
11.948214
13.630860
12.949278
-13.824920
-3.552554
2.556939
-9.540139
-7.769877
4.021347
-12.887632
9.832281
-16.988096
-2.024143
12.606914
7.413434
1.292130
7.930294
17.201439
1.541863
28.983749
-8.581328
-13.631506
-9.239268
1.875060
-6.350759
2.843213
6.272000
0.447073
-12.565502
-3.063715
6.280773
-13.125091
-10.639587
-5.728031
17.225839
2.796818
7.821042
6.799726
-1.300221
-10.716977
-6.433698
-1.715361
6.949299
-8.337651
-6.415483
7.586590
5.854523
-1.037270
-20.830447
-5.911465
10.172305
-18.122050
4.276050
4.493974
-12.231434
-14.735754
-18.801882
1.421224
-2.966238
2.936337
-7.589980
-4.923557
-5.474323
4.856226
7.139596
0.701925
-5.969661
-4.181844
-0.216423
-13.273031
8.876598
-5.394795
-14.540995
3.896920
-26.059249
7.229805
-9.823634
-6.031971
-7.541909
5.928585
0.072762
-4.047034
16.525827
-14.491169
5.116497
-8.493637
-12.415939
-10.980189
-10.833010
-4.389480
11.516329
2.965729
4.332749
6.061033
-16.991773
-9.609553
0.527263
12.060160
-9.504675
0.285108
-7.691690
-5.944748
-4.760350
-13.158883
-7.237495
-1.641547
-18.035859
-2.145226
-2.549372
-6.177222
5.668865
7.730488
-12.742178
-1.317932
-9.329603
-5.589156
16.813605
24.025224
-1.586801
-12.086066
-4.067267
3.846214
-13.269575
8.981098
-24.128392
-1.419961
-5.503846
-7.155601
8.107140
11.417024
-14.765625
-1.372638
-4.158154
-23.952231
-21.795938
-0.936863
10.144263
-14.393159
-8.400264
-4.140423
9.639489
4.576343
4.628983
-1.473222
-2.051863
-18.822187
3.759759
-4.370509
-3.748082
-4.595655
-11.511829
-3.326865
7.074207
2.583813
-11.885829
-21.146240
-1.995471
6.602890
9.212198
-16.133433
-22.109276
9.136262
-34.852970
-12.841297
-4.787769
-9.257052
-12.124225
18.025709
3.985131
-13.327839
4.775907
-5.336670
-5.937953
9.304402
0.339339
-8.721737
4.032950
-0.990446
6.941473
3.007814
-1.064337
-13.994370
5.147020
-3.732156
-9.352740
2.545996
5.396586
-10.688724
0.242414
-4.706542
-24.154173
-9.183805
-4.000680
4.714695
-9.190026
17.417096
-3.505459
3.900783
-9.861340
8.372217
-5.082033
-2.955611
15.833797
-11.478350
-24.691157
-3.744720
9.519843
-3.827903
-14.406270
-7.111999
10.138804
12.005529
0.303497
-7.271791
-12.669463
0.314812
-7.274262
7.975625
-1.664913
-0.048008
-3.409403
-2.570797
-5.348045
-17.709258
2.451026
-22.466147
12.782613
16.747698
-8.289235
14.086735
3.259945
0.416205
-6.367465
-9.431088
-7.016596
2.572146
0.366218
5.321420
1.416853
-11.087178
-0.216556
-4.568290
-9.205358
4.675367
-4.368180
-5.204425
-4.105088
-7.989280
5.222937
-0.768956
-10.212024
-14.784176
-1.670068
4.706416
-16.386739
4.535846
13.774070
-12.619477
-0.613191
5.228217
-6.902408
3.299916
5.364989
5.334109
7.161409
2.805053
17.484288
-20.655501
22.753258
7.990116
-6.191299
2.907268
-2.095146
-7.678179
14.814637
-6.772982
-5.654190
8.062278
5.459552
-0.197570
-4.219407
-21.555366
-10.610717
6.016180
-4.577067
-9.853022
-9.302368
4.827798
6.161287
-15.268012
2.751906
11.685911
6.000524
9.831708
2.239416
-16.516952
1.822991
-3.094517
-6.906416
-18.980087
-6.716872
1.973641
-14.803090
0.577020
-3.664603
4.804054
-5.144867
-6.004234
7.822372
-4.136355
-9.631176
15.390819
1.610771
-9.298765
-1.593642
14.245322
-8.443232
15.224683
-3.576004
-4.143251
6.131329
0.383709
-13.348587
3.062358
-9.475570
21.745623
-9.329131
-2.909867
-2.664416
-10.625189
6.100250
13.489796
-10.352326
11.840783
0.306540
-2.422117
-2.394910
-6.760845
-13.177383
-4.815458
5.921638
-5.508417
-2.776013
-19.198504
-5.872523
5.728906
10.530628
-4.688871
8.088700
-10.997029
13.896612
0.017416
-13.088296
-17.095047
-0.416975
17.520703
-16.055563
-12.154303
-6.955318
-5.104295
-2.477382
-9.496092
-2.208864
-9.905664
-3.324953
2.909879
-4.480154
-15.073918
10.043381
2.361163
-16.937341
-9.050590
2.526142
-2.745863
-0.948545
25.264987
-1.072197
-4.531172
-4.882539
10.656103
-8.411197
-18.294630
-8.316982
-4.340812
4.840563
-9.531044
10.891176
-17.747853
-14.066471
-5.574562
-20.268832
-12.957607
-13.631145
10.655999
-10.960476
-6.919457
-4.335202
6.870883
9.138313
-16.405238
0.151431
6.019644
-1.020459
-13.707837
-18.473838
12.568994
12.164358
10.908982
-10.863610
-3.817587
-2.512747
-4.934148
3.267191
-9.211872
-4.297502
-0.595521
-17.801824
14.442235
-4.537990
-17.162249
0.408346
11.349963
-5.282396
-12.181968
-6.139424
0.299090
-17.639853
0.243649
-1.566420
-13.101767
-4.155248
-9.269433
2.430354
-14.172202
-3.983614
3.790083
0.527250
-3.269082
9.247607
2.028326
-20.405677
-7.947896
8.910318
-8.403537
-5.480582
7.511617
8.518570
-1.691954
6.225213
10.936670
0.274846
-12.467405
-10.170174
-8.876079
4.522619
-6.077944
-11.221062
1.370707
1.551693
-2.207619
-9.909502
-15.396901
9.175589
-4.767158
7.602199
-0.662956
11.033384
5.768069
-5.853308
-16.723284
-23.351993
-14.377611
9.238149
8.912877
-8.634879
-9.696134
-6.272392
-16.541032
-1.723554
-7.628281
-15.696157
-6.568848
4.284978
-4.715677
-4.527964
-8.391791
2.287291
-8.282426
6.219844
-5.022655
9.101681
9.357023
10.276060
1.850272
-15.522761
-8.014181
-6.155606
3.247596
5.979960
3.264521
-10.595866
-3.895165
2.192431
-8.185571
-0.118623
0.418939
3.029306
-15.341168
-5.425968
12.045184
24.202766
25.780294
-6.266202
-13.496596
1.372818
-1.022723
-7.158209
-11.264446
-16.817760
-9.276084
1.739066
-3.840544
-3.767709
-1.496329
-7.860524
-8.430530
-1.394687
8.703237
5.465557
-5.045098
-1.738320
-5.581830
-10.121336
-2.026294
-14.378703
1.585553
-0.149958
9.243202
5.185123
-10.201726
-14.845722
-5.716275
3.399282
-5.813061
-4.129857
-6.574345
-9.037507
-4.095324
4.290845
-22.139138
-26.575188
5.153485
9.311657
0.444583
-0.269467
4.175892
9.938321
-14.720370
-0.752642
-3.606345
-9.644825
5.455022
2.074864
6.643315
-2.646213
-15.876893
0.788694
-7.813566
-4.248311
-14.381986
-5.133016
-4.222082
-7.220523
-6.989862
-0.618922
12.541336
-3.496067
-7.032118
-12.567544
12.028986
10.532674
4.399425
-7.209923
-0.634230
2.111612
0.633282
1.241181
-15.416514
-9.821789
-23.025685
-7.490238
-10.801090
3.677503
-9.093028
-15.201369
5.004795
-2.245465
0.348396
6.377089
0.419107
11.799458
10.944570
-1.671259
-2.169431
-4.867136
-14.807119
-3.241130
-8.439044
-24.122229
12.966285
-13.256444
7.479401
15.282087
-4.720379
-13.367336
17.670336
2.521903
20.412638
2.863591
6.306794
3.524625
-3.192295
2.897587
13.829528
15.800208
8.397687
-0.576645
-6.168117
-2.057682
-11.534998
18.307546
-5.440986
-13.340060
-9.904629
19.976875
6.089813
17.621267
-7.330423
-1.902053
13.563818
9.668331
2.114610
5.713204
0.596168
-6.736921
9.773940
-5.350513
-10.995933
-12.961767
4.410485
-6.794964
0.968310
-14.983870
2.916827
14.463883
6.041485
-0.363824
-23.234357
-3.272063
6.470549
-3.933573
-11.518365
-3.174256
-0.825919
2.087548
5.546277
-32.389808
-9.991748
-6.945198
-17.925260
0.792736
12.709369
-12.748409
-5.529617
-7.990257
-15.852504
9.215576
4.577290
-9.867845
0.611120
-1.200096
-1.008737
9.398965
-29.010917
-1.343648
3.802622
-0.824767
9.856075
-2.382774
-3.043563
12.073301
-1.689659
-6.886449
-2.402655
-1.755897
-0.265958
-1.807675
12.972696
1.688917
9.073032
3.335490
3.242934
13.238405
8.073177
7.149879
5.970673
-20.041177
6.122148
-18.973692
4.072159
-4.371017
8.759730
7.925959
3.532217
21.265407
-17.911438
-5.797447
16.162304
-17.093129
6.690654
-3.029397
3.192634
-10.637265
10.306276
-4.642362
7.177528
5.534478
-6.464337
7.234656
-1.962357
-18.144753
3.180257
-3.965259
-0.316389
6.243607
4.478895
-0.666265
-6.943298
-6.113565
-3.432595
-5.517496
-0.715603
-9.250664
2.231530
6.929858
-8.772469
16.925033
3.797531
1.527912
-22.814851
-10.324661
7.889802
-16.365476
-9.030359
6.918688
21.056619
-17.006347
-13.035127
-10.470742
6.441546
-8.524562
0.204365
-1.648364
2.019952
-15.306060
-2.840866
1.881054
-12.678760
6.096122
-0.662327
11.403218
-2.807038
3.372833
4.869634
10.155859
21.177645
8.101154
16.238594
-4.517234
3.343536
-0.134454
11.098680
-2.058998
-8.138410
4.764289
-1.921795
-27.062062
-10.495937
5.312670
-8.605183
-3.753518
-4.844609
-14.291923
-4.419142
11.378578
9.959063
4.926583
-2.919111
0.541168
-3.218432
2.653248
15.269645
-10.185216
-10.183055
6.264224
4.347430
19.090762
8.349457
-2.083595
-6.110516
-18.300106
2.058961
4.381952
-22.506145
7.754394
11.272289
9.006859
12.932031
4.102127
-5.026407
-10.693056
-6.385799
-17.213247
-9.224547
-5.657993
-10.228328
23.972381
-9.375515
-0.039307
11.772835
3.057175
-6.121889
-0.934391
7.795643
11.994142
10.078444
2.668418
-17.876728
-6.498143
-8.697901
-6.423032
14.113133
20.255821
-4.219224
-0.897648
-8.635398
-14.996465
18.146668
-1.615738
3.516850
-19.244686
9.701477
1.616154
-2.701158
14.390922
-7.673314
-15.288700
-11.974653
-6.176505
-9.135957
-12.620941
-1.401178
-15.676150
6.035206
26.218639
-3.169447
-12.598268
3.517209
-0.191703
1.863659
3.415501
-17.153841
-11.072615
10.556707
6.223903
8.604952
-1.581226
0.826895
36.965761
-14.824851
-0.539719
12.462000
1.691213
17.226437
6.450538
11.750918
-3.752307
1.791230
1.925312
-0.931832
-1.714417
9.113022
-4.796711
-14.043260
-4.450409
0.026914
-6.778639
-1.162279
-10.335164
-8.761233
-1.261500
-15.396038
-0.809319
14.437266
3.211652
4.653605
-11.878144
-9.848807
1.532827
11.483368
-2.797063
9.247626
10.587161
1.074294
-12.728450
6.756661
14.178762
5.565823
1.133352
-1.167506
0.355779
8.972770
-8.502847
-2.604950
-9.340567
-11.840375
-4.272596
-6.805208
3.376652
4.506536
9.790611
5.383984
9.556099
4.319542
6.685899
9.953377
1.927594
6.763108
-12.336174
12.363175
9.962377
-9.554601
1.256031
0.181495
-17.182859
2.369649
25.811642
8.053407
0.877055
-8.859630
5.464391
13.555729
11.839920
-11.897937
19.731074
10.732298
-5.752759
-21.283193
12.056097
1.441481
-17.731739
6.625052
1.574749
5.450569
-5.613912
2.298184
-1.528084
-15.280696
2.367570
-12.040660
-0.524439
2.597134
11.699557
-19.242311
-6.679927
12.218947
10.689466
-6.168930
1.523555
-4.439812
6.743022
2.726759
-13.212969
12.587233
3.002558
19.948342
-10.141133
-5.235904
-11.279228
-13.141657
-19.870624
-22.974022
-5.471431
9.976133
0.076207
0.979520
13.620892
-3.513919
-4.854527
-6.495456
-2.904393
-6.748582
5.425856
-6.855214
-23.699758
-13.068406
7.913366
-9.218605
-18.900675
-2.013576
-0.473732
12.539105
11.550183
1.642245
-20.126016
-17.661645
-7.763960
-7.522250
-8.455616
1.338209
10.480570
6.483393
6.845203
1.406117
0.464652
-1.944971
-11.656400
14.019306
-5.236055
0.767189
2.677589
-3.965569
-4.937508
-14.347263
15.576154
-9.903565
-12.512817
-8.583743
-3.432675
-7.078733
-24.026019
-11.860566
-0.396070
0.858225
-10.254683
-9.583859
15.137841
4.037837
-1.714593
-12.399058
5.874032
-0.539203
-2.432541
-8.711320
-8.288658
-0.957188
-11.835352
-4.123401
0.492732
-4.493037
-0.706664
-3.900234
-8.234816
4.892100
-6.507537
4.722978
-13.862609
7.618008
-6.313254
10.943902
-16.414898
-11.581078
-8.704653
-3.552375
7.636990
11.908121
-4.712986
-8.652321
-11.196628
-9.272452
-8.203376
-8.374286
15.310518
-3.968053
-1.293209
1.902667
-15.752532
-9.286950
-8.317911
-14.251061
9.381708
6.870730
-0.682893
-1.552571
-13.467143
-4.727906
3.245677
-2.223160
0.641435
19.454568
11.708903
-5.560515
1.267750
-12.239518
5.091076
-3.994388
4.361222
-4.992443
-10.723299
-15.220743
-25.564632
9.313998
-0.043823
-0.963373
-15.779088
-26.315375
-10.753537
-19.504410
-2.851534
5.576817
-13.997384
5.769366
-7.065022
10.192833
0.495772
-1.015153
0.250587
7.460181
-5.942287
-4.067876
6.036287
-10.021549
-11.056344
-11.212156
6.661565
10.271425
-5.968301
-8.257642
5.934809
6.716483
5.557575
21.900121
13.032814
-4.770684
13.033257
5.653436
-5.656855
-12.435913
-5.829464
6.445581
2.430447
1.418769
13.399928
-8.493005
2.549428
3.865425
15.241339
-7.009794
8.115339
2.478437
-0.342901
7.959976
12.888785
-12.587599
-12.940809
10.240358
-18.324443
6.996843
6.079327
-6.099899
7.546394
-21.100173
-7.887959
-16.775893
-12.797863
-3.006102
8.383985
8.315659
11.220403
-5.721670
-5.137056
12.028398
-13.134014
12.442610
2.277014
-2.158151
-1.874442
-9.346564
-19.345410
-1.594231
-0.554482
13.622714
18.874845
-6.011364
-2.246793
0.977112
-2.998125
-8.599504
13.046708
-29.930029
21.358440
-0.548201
-6.222831
-7.956786
-7.261669
4.171454
0.572502
10.933297
-6.321003
15.046449
11.261218
-9.484093
14.666079
-3.631222
14.610889
-20.533421
27.580763
