12.338779
-6.473257
-0.558957
7.216027
6.900101
-8.181854
12.802008
-0.199021
19.592568
-3.305846
-8.808285
3.624168
-20.657687
3.826145
6.940715
-0.915341
5.627833
-13.180872
5.965243
0.617363
11.121737
10.106859
13.399999
-5.778717
-5.346054
-1.250079
14.555663
-5.268248
-2.116267
0.552504
6.321259
-13.516062
0.724987
7.377322
-5.760533
2.631097
15.115596
5.686192
18.048749
-4.322535
1.455505
15.139635
1.844876
-4.724092
-2.342070
7.934222
10.831775
-10.232666
-22.007442
2.503670
-3.891733
-9.750825
7.134893
11.919410
-8.029889
-1.684531
10.593320
-15.565996
3.152052
6.927352
3.937750
-5.333434
0.481379
-0.387196
-1.963650
-5.275164
6.310503
7.896037
11.451060
12.148942
6.635259
4.601216
-17.721181
1.012342
1.259820
-8.257701
3.736387
-10.362306
0.912095
-4.867311
6.804515
5.529709
-4.831533
8.258464
18.466752
1.755992
2.621943
-2.794198
-10.900654
2.530362
-2.564634
-8.271147
-0.831146
-8.996754
-11.517930
9.125060
-2.159711
4.944624
-5.188034
7.205678
14.643680
-0.005120
5.143881
-10.694219
-0.058260
1.197035
7.762666
1.469640
-12.716700
-6.425613
9.486076
0.813421
-5.838273
-2.889763
-3.081869
12.104513
-0.671714
-4.508682
8.115349
5.452137
8.127020
-1.624714
9.623396
7.809216
-0.053811
5.680830
6.261330
0.651873
5.866618
6.633305
14.882731
11.342705
-13.327197
6.217246
5.595153
10.588420
-9.397918
-3.154986
-3.374356
2.232503
6.266512
6.506184
-4.610852
11.074606
-12.398118
7.230240
-5.023785
2.673701
-3.248115
-6.947116
-2.550064
11.198467
-6.819374
-13.943249
11.698492
5.364744
-8.201421
-11.518606
8.428141
-26.173407
-3.884239
9.801203
-4.829677
-6.650120
4.792674
-3.443857
-19.303633
16.826008
5.586808
-6.616890
10.557173
-13.359136
8.615540
3.729711
11.307630
-0.872159
10.367069
1.885172
-3.630554
-3.578823
0.955416
6.027181
17.700911
6.355719
17.373497
3.590859
7.718642
1.965437
3.588872
-7.241354
-0.406919
5.019572
6.145542
6.578049
-11.647265
-6.100942
1.645529
6.203252
7.750177
9.145941
-6.157320
1.902222
10.799913
-12.355042
1.390564
-3.864591
5.104445
0.376358
-7.444158
3.616586
10.159271
14.017837
12.383310
-3.790194
17.131399
3.083899
0.973821
-6.632554
22.321140
10.396891
3.545757
-1.618604
-1.877623
12.967144
-5.142217
11.925073
3.061961
-17.886654
6.645563
-3.164925
-13.458915
-16.688485
-7.874579
1.046417
-3.615036
6.839335
6.298064
6.696578
16.516874
13.397982
4.037852
4.452296
3.024078
-2.354759
3.193155
5.406090
-15.886168
0.403386
-5.732141
-7.023844
-1.304935
4.494857
-2.767243
-12.992137
-4.986478
-13.643611
7.111534
16.651484
-1.029975
6.637986
5.160040
-1.100969
2.752681
1.514375
17.153646
-2.799922
10.689492
-2.932803
-1.217105
-6.195633
14.158281
-12.696161
0.961407
-14.466845
-3.716669
-13.220522
9.082778
5.660239
6.235959
-8.123635
10.943556
-0.291663
6.330047
-2.946198
-10.887898
-15.751809
-0.976155
-8.117543
13.276188
10.205433
-11.734879
-4.310847
-7.291506
-10.888633
6.408483
-11.487224
-16.179107
7.134117
-0.453545
14.453106
7.868084
-5.563798
-9.449447
-4.638554
-3.752141
-13.231252
3.852121
4.215032
10.450444
-2.048696
7.434098
-6.591003
-7.713881
-12.518554
-6.956258
-0.900073
-10.437886
1.952525
0.932337
-5.498201
16.432060
1.059209
-0.926491
-3.807927
3.642077
12.186592
-13.505322
-8.648691
-10.654844
1.953247
5.099705
17.766973
-10.996911
7.596934
11.490897
-9.736474
-5.349379
9.868817
-12.943766
9.088336
-1.003922
2.375344
12.164401
-12.361567
-6.692799
-0.885984
5.499717
8.447541
1.202658
7.440776
-7.356049
-15.526452
-3.223031
3.752476
11.266647
1.591881
-7.775646
-4.291857
11.771338
10.723447
0.378666
-7.298973
-2.600444
5.360490
10.697754
5.792046
3.030490
4.614396
-8.783935
10.791086
-5.036972
3.673251
-11.627469
9.723059
-0.994983
2.915033
-14.085679
-2.191099
7.747982
-2.398119
12.166533
7.336040
-31.249764
-1.101979
2.512307
-5.796173
-4.735795
-3.109082
6.775266
-4.779922
4.283843
-5.192187
-0.416284
3.704167
19.719064
-0.950893
2.524736
1.006057
-10.138041
3.736620
15.020580
-6.226089
-11.908750
6.278172
6.794858
-8.474064
-8.957340
-1.508008
-2.497295
-14.599959
-5.210218
2.385471
-11.572377
4.923854
-14.545581
-10.406393
-1.129211
-6.695341
0.877079
11.564729
0.923246
0.835825
15.737969
1.529283
0.964029
2.778798
-0.933120
-12.525622
-6.562365
8.983916
-13.770697
-9.552970
7.470965
8.883921
7.856552
-12.532341
-2.646359
0.918946
3.462230
6.169306
-3.282421
1.709519
-19.792952
-21.378890
7.991093
-8.871804
6.091646
2.544012
-6.728051
-3.960093
9.985360
7.473911
-6.661647
-0.739610
10.464360
3.463176
1.332514
10.174156
-8.067354
7.007232
-1.812637
5.604054
-12.412491
10.695395
-2.010036
13.594594
-2.264220
-20.066451
2.452939
3.393065
-4.262869
-13.625786
0.701730
9.314150
15.483536
2.279028
1.183811
13.218857
5.932235
5.484832
-11.043207
-1.905885
-0.493717
-2.308297
7.986864
1.694316
7.940339
-4.753568
14.012822
2.234811
-10.820043
10.560790
15.596821
-3.446685
-9.817177
-9.186725
3.131099
14.299744
0.319112
3.813409
7.890474
-1.793667
-17.139861
0.434481
-4.055225
-9.910143
-2.553698
-3.536913
7.750297
-2.779667
0.184932
-3.219943
4.729737
2.209164
2.612855
-3.102332
1.810318
12.223324
-9.585512
0.883915
-14.449260
-0.200564
0.974042
-5.072436
2.161946
-2.681023
13.397849
14.955838
1.108717
4.883111
5.516269
8.726121
-5.843803
-9.963459
-16.699801
-1.803786
-3.143009
-8.795456
-10.964039
-5.592007
-5.102448
-10.008531
8.576885
-3.895047
6.994242
5.475002
-9.800725
15.553624
4.781374
-4.612836
3.043046
-1.571097
-5.770406
2.200940
8.601803
11.866066
-14.194860
-15.111010
14.576944
-5.428633
-9.585489
-3.287651
-7.210537
4.772204
3.621041
-13.697595
8.486068
-1.381686
-5.207911
11.257732
9.665657
0.265180
-4.321467
2.409411
-0.438671
7.546986
-1.940310
-21.202964
4.049623
9.347198
-5.952234
-4.360159
10.650869
-9.358382
3.595413
0.230715
2.921644
9.994260
7.232811
-0.217204
-6.380427
10.650191
4.855008
2.111299
1.657578
4.652632
8.671671
1.733587
-11.908457
9.473338
1.531268
18.826181
2.265679
-0.867445
-6.889219
9.047449
3.829784
12.706561
9.863708
-5.893283
6.601110
11.033516
22.767231
1.339159
4.060280
-1.817132
7.516451
1.121801
3.715757
28.483112
-1.154060
18.117224
-1.254886
-15.602224
11.656906
14.723637
12.813228
-5.263490
15.498584
0.120936
-8.694119
-19.353415
-5.464096
-3.744064
-8.664212
5.503034
-6.609960
25.136702
3.247196
-8.546557
7.535577
-8.849065
-0.869004
-2.603829
1.500232
11.589613
-1.462186
-7.351731
-5.416303
-12.659526
3.737059
-10.122981
5.690671
-2.564156
-4.399763
10.655590
9.845322
-2.066717
-6.168262
7.426882
-6.790534
9.123913
-14.106670
-3.315537
-22.045893
4.956299
10.033646
-3.506401
5.517332
0.351503
1.706731
0.733433
-2.292510
-5.045429
-1.448543
3.137969
13.510955
1.186545
2.672636
-5.653133
-10.336545
19.539643
-16.105198
30.445886
1.136164
-1.341157
6.402927
-0.696117
13.218649
10.230691
-4.096774
-9.365049
3.488120
-8.178058
-6.026935
-25.845851
7.055297
-3.499885
-10.047448
-10.626997
4.818255
17.687115
3.913863
-8.673854
3.239902
-11.079410
8.862336
-1.117029
13.344591
-3.152430
7.237936
6.303561
12.933239
0.444814
9.012702
18.740362
4.288489
-9.080461
1.183044
3.171533
1.950326
4.277412
5.142588
13.755970
-1.180779
13.830990
11.387567
-0.104488
7.136590
-6.828953
-13.913111
-3.859383
-0.577945
-5.065501
2.544848
4.481978
9.382960
4.401005
-5.252916
3.409040
1.730153
9.760624
-1.891293
1.434287
1.208538
-10.982454
-1.082668
5.878591
7.792173
-9.233550
-12.648125
-3.919994
1.853017
-13.625470
13.018369
-6.290977
1.029651
17.362960
-12.658339
-4.016867
3.831524
6.035001
-12.466720
-3.759887
-7.490044
14.361094
-4.492196
-5.985332
-4.315244
13.109635
2.504983
12.159684
-22.512404
13.125632
-2.995867
0.381181
11.625788
-3.387183
0.120496
-8.462999
-6.509560
-3.694125
4.484244
12.683542
0.736420
-10.000073
-12.856512
10.923552
-3.497246
2.922439
6.480129
-1.554590
-10.733976
-17.955652
-4.258106
11.436954
-1.512361
-18.300001
8.427262
-4.044168
2.353942
8.161086
-1.821767
-10.429763
-0.221416
-9.478611
-2.918562
-14.771840
-7.060764
-2.413044
-3.821089
3.211305
5.723423
-3.221113
-4.944349
1.353994
-17.855971
-5.644599
1.298287
-0.955612
-5.853571
-6.850354
-5.306564
9.917678
3.110813
-8.762270
-1.187525
7.817912
9.554817
14.499250
-2.394499
14.502884
-5.888391
0.785375
10.672529
-3.927356
-6.412364
-10.973450
-3.916507
-17.373502
-3.381426
8.522129
-5.023286
5.135371
-2.608904
-4.596207
13.272373
-4.564594
0.790916
2.113792
-9.740150
-5.559753
22.512810
17.872178
-14.124410
-4.168185
16.299797
3.010411
-13.483375
9.375824
-0.913429
8.684903
-9.906166
-3.907689
8.279532
-8.863818
-7.478861
-22.788562
5.095128
-2.164437
2.430477
6.886650
0.909599
3.125493
6.788483
3.975131
-10.404976
13.546133
10.858907
9.425468
1.377098
-7.802450
6.034925
-2.679712
-15.670724
-12.175947
2.537611
3.735605
8.412912
7.889099
2.243821
-9.278561
3.517752
-4.004551
22.604470
8.052977
-7.567154
13.689239
1.983406
-4.219442
8.869163
-4.607376
4.083247
-6.283416
-2.821940
-3.506191
-4.080804
-5.728025
2.192835
-2.775018
7.534699
6.710635
-13.629889
1.599924
-0.840488
5.029239
10.866878
4.185466
-6.471062
-4.756983
10.424074
9.692406
3.355260
-8.837830
-7.458862
-8.433727
-7.561200
4.737691
-10.367581
-1.088469
3.544399
-3.079011
-6.452603
7.686062
2.079693
-6.295614
2.174981
-5.798208
4.189374
4.461378
0.941655
-1.766145
-4.442809
15.818711
-16.065416
-4.191005
-0.961221
10.345302
2.102061
6.598801
-2.629052
-15.600395
-0.899404
-10.493833
-6.144488
12.229296
-4.219674
-3.259678
2.782235
-0.174105
-14.185379
0.138848
14.631677
-11.966758
8.697815
2.649297
-4.863890
0.915957
2.500937
5.621013
0.171111
4.888011
-18.565711
8.956593
7.329543
-7.010972
6.396587
10.029642
14.033239
-3.300826
-3.094929
-15.564083
-0.431851
-3.381977
-10.947422
24.245886
-8.627645
2.619132
9.367050
-3.032338
2.263067
5.150994
8.644958
4.843651
-4.969265
-7.983481
3.601495
-5.914655
-5.529713
13.512112
8.053220
11.704787
-17.024229
-10.853729
10.999136
0.407073
-1.476766
3.219552
-7.713025
-0.497457
-2.253118
1.762651
17.183744
-1.650158
3.508098
12.862938
-7.658481
14.385379
9.243715
8.506222
18.592674
-14.133382
17.026190
19.239383
3.663438
-4.943051
24.661113
-7.816658
-6.976186
-13.127126
6.087807
-9.919686
-0.453526
-0.941816
-10.217420
5.698244
-2.884490
-6.185253
18.901260
3.284806
-17.325248
-7.284464
-3.547883
10.209097
-3.820214
6.047960
6.827092
5.149882
2.282217
-19.569767
1.299684
-6.760094
12.712693
-8.375807
-0.004910
9.541890
19.346857
-4.784327
4.632021
-5.991152
-7.717674
11.406808
-5.247468
5.832814
7.743021
11.751009
-6.578687
21.593806
-9.221186
-1.590912
-1.345405
-6.675165
6.403175
-7.574316
-1.609967
-12.502168
5.512210
1.027047
-10.818181
5.261639
-5.062364
3.296781
0.185315
13.372754
-7.176680
-16.868240
13.445683
-0.879358
6.801518
-19.479689
-1.665603
7.089088
-1.838729
14.350625
3.307348
9.881617
10.992893
-5.013852
23.644615
-11.011392
-5.893499
-2.814841
8.341433
-1.987470
-20.136899
-4.137984
-1.122550
-22.716843
1.414998
19.124257
2.301091
20.664093
-6.542191
5.519274
-4.717859
4.119806
0.952623
1.218054
1.525361
-7.132165
3.095838
0.469922
-9.990618
4.143220
-5.215505
8.436199
1.252595
9.981223
-0.862480
0.205404
15.175008
8.960575
2.273233
-2.071067
17.942930
-8.700988
-4.874198
-25.119711
18.087863
-2.811726
-4.916242
-11.576351
-9.702985
1.491005
3.663916
9.200721
-5.109992
12.223691
-6.677829
-11.712837
13.920726
13.373447
8.536074
3.582036
-21.713628
1.845037
2.827473
-8.380767
6.457457
12.128471
3.230282
-7.905339
2.002609
0.677431
-10.639486
-16.635473
-5.351695
3.632528
9.926148
1.658089
5.776923
-4.720092
-4.920308
-14.493736
1.059421
3.829353
1.617663
0.292281
-2.306603
-3.848719
4.257822
13.559700
1.314095
-1.510734
9.044065
4.572068
-2.738707
2.229085
-5.237825
-3.073706
-7.462392
3.945679
-19.181886
5.177603
1.131855
1.157305
16.559145
-8.376400
-10.546010
10.816735
1.032462
9.241924
-15.116849
0.055148
-3.273648
3.838729
-16.348051
-9.881905
-11.414282
3.649164
-3.470716
-8.594389
-6.102336
-4.386888
0.446702
12.704302
-5.443834
13.612209
10.676827
4.215867
-12.257961
11.266918
-20.179036
-2.671236
10.041607
-0.185565
3.255590
18.613155
-4.233544
5.557517
-2.177329
9.131025
-2.428165
-4.199923
-17.039052
4.882402
4.285730
-11.153935
-2.281387
24.810413
-0.800010
-2.319262
-1.370952
7.278635
5.159420
3.956762
-0.815821
0.768873
3.203712
6.218327
0.088435
9.623555
-7.962687
2.362429
13.045377
-3.500279
10.600308
-9.683004
10.053096
-1.177676
5.532972
-3.849488
-1.882863
4.068008
-0.820212
-4.351028
5.553820
10.055484
-1.938984
-16.357425
6.030657
-2.553266
-12.270603
20.389431
-5.388087
2.657906
7.069174
-0.106134
1.235941
18.634219
-7.580139
12.597094
-8.527319
2.381787
-14.589541
-12.595345
-11.088536
-3.079655
-1.439237
-1.887359
-4.261373
-11.393142
-12.659643
-2.508675
7.044242
8.347975
-7.159454
-15.194263
5.181669
-9.578230
5.466599
-0.292463
-18.286370
-6.525651
-5.809690
-0.886300
-17.215113
6.619511
-4.126762
-8.812796
10.416138
9.423093
14.311224
-2.510849
-5.085572
7.457130
3.868543
-12.319544
-4.207120
-3.353401
17.222704
3.122756
3.979256
-0.297662
-2.586447
5.176280
3.502142
3.741658
2.712501
-9.188455
-8.144251
7.277676
14.525865
7.061710
-12.306687
-6.311401
-7.855502
-7.615497
-9.109919
-2.472603
10.712682
-6.455440
-11.355212
-5.247280
14.532841
3.335656
14.205824
-12.908412
6.367065
-17.241757
-10.421099
-4.940855
-9.680967
13.292050
-8.099843
-0.570686
1.739785
-8.750210
5.932957
-5.112980
11.519346
6.783280
0.823293
-9.315580
10.808007
-3.180948
4.178507
-10.435825
3.346878
-2.881451
7.783458
5.392106
-2.923730
-0.085878
-6.882624
2.095711
0.008930
-0.170039
-6.617828
2.743760
0.185111
3.741858
5.452730
-6.359444
-6.793923
9.482566
2.518004
3.694960
-24.729047
4.424348
4.220846
-5.931721
-6.924400
-18.300984
4.698843
8.848853
15.144603
-10.553214
-7.581428
-1.081706
3.032727
-7.694653
-22.538762
3.393429
-6.075639
10.736297
14.488439
3.891567
6.551935
-1.766795
2.549739
2.552420
1.660305
8.595642
10.721706
-8.409721
-5.670660
2.005316
11.903283
-10.727692
1.745328
-6.918306
-11.999080
5.317485
6.497101
-4.146121
13.120671
2.583233
13.222091
0.710149
-1.511104
4.230104
11.584493
-0.003381
6.483458
17.853216
-7.180582
-0.086796
-7.170168
-2.972198
14.195099
-13.846367
2.526038
12.364037
20.404371
-0.475024
-17.208866
6.410238
0.268730
10.224910
2.357256
-3.387276
-0.058356
27.876936
4.032170
-5.586802
1.313364
26.818937
0.557116
7.257700
-1.438250
14.040955
-2.806252
1.477870
-6.497141
6.446779
19.798958
-3.648084
-14.014427
0.073198
5.073723
6.528949
2.049143
-4.736694
-4.112210
-4.464810
0.777004
2.031609
-2.287182
-12.171133
3.416874
5.894841
8.383509
15.920791
1.762770
-4.649127
-7.570936
15.528762
-17.412832
-14.620453
-0.567455
-13.297433
-9.233170
-6.555928
4.016803
7.845698
17.733113
-4.890694
-0.129276
2.386674
8.250969
-4.211040
-9.597874
-9.415734
0.407258
13.367575
-1.647855
-5.842786
3.769284
-9.824104
8.641163
-13.513637
-1.421514
10.748727
1.879163
3.949294
12.864830
-0.437198
-2.988887
-11.410117
6.350203
17.201843
-6.659975
9.517085
4.101851
-16.861582
16.431695
6.105085
3.747715
10.525166
-9.415328
5.291604
10.525877
7.732314
-10.416028
-11.822186
3.781333
17.226677
-2.350617
2.643478
-9.004685
-3.305649
0.748573
11.644595
-6.609135
0.134465
4.658757
-2.143775
-1.427651
0.661578
-3.645127
-11.516455
2.482842
2.439909
0.142229
-4.874164
0.324180
-2.719663
-2.497440
-3.120677
-10.182845
20.216023
-0.706156
1.164097
-3.409499
-1.974140
15.817243
-2.673573
-3.346994
7.015369
4.293795
-4.424802
-5.496252
2.181552
-2.945349
13.065277
-5.416818
0.889804
2.199659
-3.919113
-1.081045
-12.994654
-0.960517
-1.246794
9.636561
16.549730
-8.387495
5.481146
-1.992193
19.372066
-13.518958
4.493117
3.060065
-8.502446
23.892028
7.830569
-1.452969
-11.881454
3.961827
9.568116
6.744395
8.082488
1.001751
3.358338
-1.953495
1.122095
8.135364
2.958920
11.400576
-2.052464
-4.682550
7.726427
9.115855
12.670758
21.866616
-11.396004
4.904884
2.360477
-12.341426
-8.468841
0.531116
4.849318
-6.361498
4.172631
-7.518950
-8.619308
-2.783110
2.076536
2.113308
9.482983
-1.477768
-1.126919
9.958386
-6.468198
0.585404
9.734732
0.576913
-3.456948
-0.921142
-9.797436
7.841792
-11.963494
-9.264270
8.688691
14.137346
3.997001
-3.298089
5.566045
2.796942
9.458409
-2.400567
-5.495356
-1.461451
6.781250
-9.249560
-2.893990
10.836125
-2.295204
3.377867
-5.335957
-7.638786
-8.184402
9.125125
3.781680
-5.438581
-11.797325
31.852948
-7.552038
-1.490589
23.544977
16.303774
1.731212
6.353529
6.479220
-1.948249
1.969466
4.090336
5.400184
0.546168
-5.314485
12.187424
9.093519
7.209715
-9.657565
7.610534
-2.623316
-18.088093
-1.979478
-5.022978
7.330758
3.640390
-18.455317
4.423671
9.976839
1.970493
-12.409801
-8.371374
-4.850961
17.365430
-9.317343
4.253765
-8.254339
-7.626615
-11.415133
-3.174097
-0.653961
-3.290584
-4.890724
-11.918147
4.602624
1.033672
2.806385
8.803106
3.058986
3.086830
-8.248973
-9.601386
-12.176572
-0.055680
13.844147
10.372373
12.835442
10.979624
-3.201140
9.858782
8.456713
4.318644
1.193628
4.112014
2.560705
6.063746
5.724289
8.845020
-2.397334
13.700444
2.105103
9.639157
2.204176
-0.895795
-10.181067
-1.222334
-8.508969
-6.223592
-9.313631
-4.405011
5.298799
1.141604
-7.439741
-17.975804
-8.161470
15.549114
7.201895
11.863176
1.769101
12.542423
-3.597397
-7.345914
-3.920276
2.555198
-18.035719
7.008989
6.044949
14.195866
2.960067
-7.042086
1.317320
3.158342
2.197944
2.000608
-2.293272
-5.193093
5.899156
-9.361567
-3.002544
-2.533765
9.157966
15.162995
-4.246028
-7.219239
-11.842955
-7.957968
-1.026484
7.826422
5.657272
-11.386875
5.969378
9.741554
5.786697
-4.591772
10.815193
16.447406
0.511710
4.408831
-12.076922
5.960990
14.309153
9.421438
-1.516961
-16.661137
8.413912
-15.633336
-2.162922
9.308097
-4.822036
-10.392516
-3.893755
-5.990677
-21.696778
-7.468513
2.461802
2.494487
2.452278
-2.745756
-7.943998
-9.030248
1.684861
-11.020663
-12.006538
5.652804
0.034847
6.112469
-13.629377
-3.490801
0.763052
12.302861
10.969402
-9.243525
-6.170721
11.096405
5.467779
2.655182
-3.338749
-1.161243
-1.275788
9.401595
-17.878484
18.912063
-1.052109
15.048800
-4.640810
-11.123492
10.608855
-2.111324
-6.431125
1.087409
2.358212
-2.512413
-12.983976
5.045790
16.949277
-7.419271
-1.881657
16.200723
2.077878
6.737281
-5.906492
-10.856810
2.717739
-13.123856
-6.333239
1.720758
7.874447
2.591993
9.693811
-14.579817
14.179550
0.415594
0.922228
0.703889
10.437241
3.784180
2.115120
-10.857227
3.005234
-0.655476
7.560622
-14.015432
-6.180457
-16.305962
-4.076967
7.591553
-6.883333
-3.334980
1.332578
19.205840
10.399435
-2.056810
7.435503
-0.708509
-3.369620
1.035644
-1.584119
0.175009
0.952437
2.621158
-3.775107
-1.215771
-5.384489
-14.394459
8.279844
-2.502604
4.245652
-6.926556
6.625674
3.649099
-6.236027
1.748255
14.420890
14.981610
1.004227
-12.413505
-0.225741
-7.573850
-4.747248
-5.348812
3.424940
-1.107753
2.967150
-8.921513
-5.482636
-3.836787
11.570849
-5.735003
7.274442
-1.277620
-0.845351
9.238630
8.485648
7.950802
1.259806
-4.464667
6.627896
6.433405
5.883283
-6.698098
5.675586
-3.964747
2.752502
-2.589381
14.951533
-8.601656
-17.459681
-2.578926
-7.374254
-1.314910
-4.110337
-11.542032
3.738334
8.649033
-9.487325
-1.367912
5.199829
-1.483455
-8.781497
-5.174700
8.869613
10.717095
-0.164717
-1.767137
9.347071
8.100830
4.644895
-12.229889
16.069248
-14.166201
-3.640897
-19.532216
-0.300063
0.910288
14.001612
-8.485864
-1.870162
-22.571791
15.018878
-7.270444
-12.793547
-6.626621
0.506889
3.512901
4.882710
-6.917599
-22.923604
-4.312573
-6.190319
-7.370077
-14.013908
2.444056
11.670128
-1.567808
-7.010545
3.304292
0.456854
9.169538
11.805424
-10.954473
27.446219
-4.074379
-15.628862
8.525994
-2.734863
0.921567
-5.395882
15.420199
3.823633
-6.674325
13.242117
-1.911753
-10.710374
-6.768895
13.451457
-5.640854
0.381070
-6.876363
9.948955
11.252734
12.672299
4.050795
6.538761
15.846544
16.159645
-7.134632
0.718562
0.969861
-2.451373
1.914190
10.391761
8.350063
9.846359
-0.737038
-2.802955
-19.405278
13.128083
3.505833
-4.016581
-3.604363
-0.429622
-7.731220
4.465746
8.922121
-10.112990
-2.061424
7.053361
-0.733712
-7.519430
-7.141416
1.038898
2.458002
-0.978378
-1.539606
-7.877268
-1.218340
-7.944443
-13.231679
2.580793
4.013228
-12.922360
1.982884
-18.837532
-5.993219
8.262862
19.343624
-6.824585
-9.346813
0.323323
-1.655824
2.886330
10.570585
-2.478037
16.331450
2.733635
-4.580470
-5.155322
1.944262
10.035545
5.406750
2.787131
8.209029
-3.034891
3.864516
-10.141006
1.020763
7.654879
-3.255403
-2.703687
11.460409
7.956203
-0.150129
-7.115202
23.218195
5.070539
3.105205
0.874560
1.029106
-0.772831
10.649433
-8.127956
-9.737256
8.222149
7.042498
-1.594923
2.254440
8.665670
3.222182
-14.036119
-3.397174
9.501252
13.620570
-1.592030
13.215448
-13.709098
-10.363021
0.948603
-4.946050
-6.226464
4.784654
7.083609
-5.307939
-6.392641
9.412399
3.680666
1.410027
8.538556
4.596078
-1.528066
-1.761288
-5.573200
11.700308
-5.588866
-4.227041
7.011141
-17.869455
-7.369456
-3.630191
-2.114152
8.180680
-10.235507
10.535548
-3.028115
5.075866
7.304815
10.121036
-11.729394
-5.051819
6.913435
2.050944
-4.846067
-7.953893
8.866125
-11.119510
3.465688
-1.823898
3.447183
4.125815
-3.193519
-1.533987
-3.888004
-9.739010
-16.193541
11.523508
5.242939
-4.736787
15.149002
4.248669
-0.396339
-0.989712
-12.368511
3.373667
9.768077
1.356782
-5.445599
-9.609020
3.733654
7.540838
-1.616760
-0.367989
-12.536717
7.333390
-5.159936
0.020125
9.875612
11.349426
-8.701209
13.494164
-7.776443
3.048454
-27.815616
-1.475408
-0.765407
-11.455283
-0.670029
-0.445001
5.847042
-2.448090
1.743733
-2.467488
12.704654
-1.537138
6.289064
9.728246
19.954890
3.566607
-2.629757
-0.725037
1.510089
4.778528
-3.759425
-12.702548
2.080406
13.796201
-9.264586
-13.713839
3.613154
-6.833599
-0.709257
11.074162
-0.030661
3.930194
-3.300655
-14.745917
-0.483115
-0.820117
1.387633
-2.188967
-4.631869
-14.728187
4.291118
-12.494297
0.520985
5.356749
11.747007
5.885257
-5.338961
0.287199
10.483931
15.786237
11.068671
-6.227133
4.177927
7.853330
-1.767423
7.470657
-4.335668
-2.105630
-0.072811
3.693089
6.709703
6.525961
21.113018
-3.932931
7.498675
-13.026449
-11.335895
-3.468436
5.764754
-6.431654
1.715318
-2.396648
1.112414
9.112503
-15.629016
1.917092
-6.759115
-8.073956
1.260710
1.819830
-5.532727
-6.386079
1.538272
11.783899
-4.492507
7.398474
-5.772391
6.166171
3.822778
-1.258632
2.041601
7.661433
4.499880
-1.851938
1.581847
9.516018
-16.737200
4.180706
-8.818800
3.209614
-0.869208
-0.589645
8.130066
-10.445436
10.416136
8.457853
-7.353424
-1.041057
6.083803
-14.950224
5.176817
-3.753472
12.368145
-2.266759
0.761751
-2.479198
-6.033852
12.257012
-8.243737
7.522437
-10.536387
-2.445756
3.515948
-0.491922
2.283131
4.737967
2.477551
9.027624
4.523523
17.929729
1.241046
-10.508962
-4.522535
-6.378899
-12.181699
-0.822234
5.758555
5.297160
0.188316
-6.154989
19.098817
-1.615388
-1.740355
2.100209
-13.226622
-1.234617
11.334904
-9.140458
3.370385
9.275655
6.660649
1.831577
13.688958
-4.169812
-35.395142
17.400889
0.213775
-5.155425
-0.075926
4.858810
-0.999013
-0.556494
9.811834
-10.449653
-2.646326
-6.970823
-2.632431
14.342105
-12.088842
-11.699053
0.548715
-8.526035
-9.257150
9.433712
0.968443
-8.251231
2.991407
6.514221
9.304659
-10.775910
-9.331610
-5.177807
13.557729
-1.372411
7.457083
10.713959
-9.403583
-11.973029
-10.506116
9.383679
-1.615245
3.332665
6.811884
0.189395
-14.018795
-8.039567
0.309186
0.779011
-7.250625
-13.211883
15.624913
-2.540758
21.857943
2.796615
-5.687205
11.505920
-0.315084
3.716188
-2.135052
8.963986
7.470939
-5.506317
2.591629
-7.552310
-0.855201
8.945852
4.480988
7.482595
-2.003448
8.402482
12.722294
4.189460
-5.448288
9.015243
-9.173096
13.051403
-0.551149
-19.064697
-8.255643
-1.316216
1.434077
-4.685796
-3.550716
13.225393
5.564003
-6.573868
-8.994145
-14.256011
-0.593389
-3.902860
-1.891572
-1.030383
2.426135
5.931631
3.535281
4.491787
1.294276
-16.742008
4.181250
-3.491679
16.650099
4.828746
-0.864919
0.282499
6.746132
-5.503989
-13.455534
0.800734
-0.007220
-7.888581
6.798391
-2.328103
-15.752996
-3.746975
7.384739
9.542494
-1.097531
0.549210
1.927257
7.425488
2.649701
-0.224563
6.198248
1.953156
6.127333
6.227997
10.305009
-5.635650
5.758305
6.941856
-1.627299
3.391404
2.787431
5.736978
-15.022987
-0.612708
-6.906712
-5.025613
-6.668932
8.585023
-11.069164
10.426283
-6.777819
-19.159440
-6.343166
-9.487662
0.922010
-5.314111
-15.472749
-9.085032
-11.000682
-4.813367
15.961262
8.700547
5.009328
-11.881528
-7.034664
-14.589997
-6.464521
-1.581391
0.664891
6.236326
3.218534
-1.000702
-9.133718
12.781321
17.142360
-3.277494
-3.966210
-8.376863
-15.674097
12.205304
7.453850
-9.487783
5.553454
-7.966494
15.376453
2.061466
-2.461455
-26.265493
-1.387333
-0.297656
-2.727352
7.764707
-8.385145
11.655120
-2.209687
-6.681517
20.326482
0.263845
8.614976
-1.969383
14.894455
2.123492
4.445764
5.304613
-2.287949
-15.948401
1.270269
-10.527240
-3.943746
10.924317
3.921308
13.381987
0.761634
-3.727966
20.039918
13.007965
21.689412
7.808701
-13.969245
-3.916385
-8.638072
5.047509
4.844236
-0.367633
7.557969
-1.174732
2.806299
4.853308
-3.873335
-4.655933
8.623356
9.989947
-6.093484
-0.710445
-15.227104
7.373713
-21.883910
0.239713
7.773618
5.703539
6.913855
7.971946
-4.444652
-2.907919
1.572999
-6.833014
-15.210158
2.497693
-1.926511
-7.535398
-0.909738
0.216972
5.307900
1.648027
5.345943
8.874279
-7.090278
6.216956
10.248789
-4.816132
-0.391660
9.106332
-18.098008
-6.713312
-14.700117
-2.035932
3.272927
10.340107
-0.547706
10.570905
2.521321
-11.880780
-9.116139
-6.848870
-14.224699
8.342415
-5.886153
-0.782673
3.718931
1.814772
2.099506
2.151510
-0.018746
1.307173
-5.304416
-7.499234
-3.176455
-13.546570
-2.114083
-13.144902
1.225986
8.865623
-19.481429
5.858414
9.205990
-21.093068
8.846388
-4.447219
-5.424224
4.246057
19.880637
0.645128
6.383360
6.539076
13.384186
-12.834955
17.099942
-14.498611
14.670282
2.731929
0.416214
5.124703
6.780556
4.770981
14.986457
-10.566198
-12.018155
-0.768406
-4.715276
9.350223
-1.936375
8.687436
2.632174
1.737361
-6.257571
5.986289
-10.849020
-8.663690
-4.538186
-6.741077
2.203390
10.648869
-2.656730
4.575767
10.519504
-3.411283
9.206655
1.142138
12.178074
5.131101
6.096455
7.204700
6.863637
-6.760971
9.025266
-7.944340
-7.785511
-9.284374
15.033478
10.308363
4.559303
7.800607
0.928925
-2.205329
-3.365533
5.628032
-3.926418
1.118959
-4.184088
1.597046
8.703065
-4.317957
-1.166071
-8.371722
0.773040
-7.277478
-2.235714
2.557296
5.017021
9.747941
7.854558
8.212226
-0.909983
-10.838787
-5.797854
4.500111
13.456587
-4.712145
7.331335
1.806510
-7.284216
13.072685
11.225592
-15.191228
8.746840
-0.761903
1.097440
0.420735
7.591236
2.136198
12.524501
6.750139
-1.775466
1.977267
-9.826043
15.968215
-7.543529
7.191827
-7.373978
-11.979286
7.972381
11.448502
-7.029279
7.986924
-3.817864
-1.809380
8.873369
-24.343386
-1.178035
0.245751
-3.078206
16.283633
2.923360
-1.393257
0.851197
0.558168
0.754088
-5.379986
-1.448840
-2.718127
-3.843291
-8.564343
20.705851
-6.191702
5.506132
12.655795
-7.679067
-3.582239
-7.184483
1.547849
6.815914
3.685707
4.740168
1.779292
-11.146851
-8.043318
-8.089958
-8.777220
-15.807142
-6.226608
-0.000949
5.743172
3.646841
3.453570
-9.260947
-7.689853
10.604493
3.589682
-9.122144
5.115609
13.840232
0.011128
-3.055061
12.283937
-6.737258
-8.653894
-12.843010
1.783438
-1.302560
-2.647448
-1.628785
0.592984
8.991743
-1.556684
0.636279
0.966191
10.393075
-8.736931
-7.297271
8.394524
-6.652903
0.263705
17.247332
-5.598039
6.746613
0.791813
-0.920872
4.777283
6.636414
0.700529
7.151683
-10.091729
16.208880
0.364944
-1.626772
-6.593012
3.442724
3.757712
1.259678
0.141368
0.177889
-11.431197
-0.106139
9.625559
8.535108
9.156640
-13.854711
-5.333683
4.802286
3.638705
7.883053
1.975868
2.041521
1.310528
4.849868
-16.348791
8.291085
-8.640670
4.842615
-9.519758
-6.656032
-12.285985
-18.850756
3.885137
4.622411
0.846807
-8.257112
-3.813769
36.436893
-13.230812
-0.079836
-6.773074
-5.349327
2.213451
-3.754190
5.869128
3.931383
-11.908928
1.900003
-5.891132
-2.687751
2.659840
2.327910
4.005748
3.701002
1.035513
-10.892395
13.656381
1.710933
2.178826
-3.298795
-5.084949
9.450834
-11.181411
-13.116505
5.609747
5.935968
-1.976436
-3.185540
-13.520819
12.316048
-2.517255
5.590355
-24.367405
4.117951
-7.339064
-12.743363
2.261497
3.360049
15.644436
3.541706
0.096930
-11.668850
14.832290
-4.222064
-2.341121
17.648648
3.863921
4.119385
5.650589
0.095017
9.804815
7.048593
0.063247
13.342395
6.200601
5.556216
-0.602419
-1.527722
-6.516786
6.009648
9.448227
-3.826770
-19.047213
-0.390124
-11.015771
1.970112
-14.075816
10.654202
-1.963490
-2.882317
7.571789
-20.143860
4.525996
0.181833
-7.889390
2.775985
2.300924
-2.433831
4.301602
-6.908160
3.440563
18.009042
0.354390
-14.158064
-1.883232
5.550330
-7.053198
9.728356
1.705694
-2.609960
6.454974
2.576902
-4.383381
9.805607
0.562310
-2.347082
8.246587
2.157779
17.267415
2.423411
3.705565
-8.241046
9.694081
3.108280
0.554062
-5.526177
3.463762
4.905884
4.766470
-6.069544
15.394999
10.070269
13.210022
2.310158
-12.235559
-5.783070
-7.979306
1.186730
-9.485484
13.460105
-3.631874
-7.670889
-7.257432
-6.276069
-2.493014
2.184383
12.944981
-3.723172
-9.111396
-2.005798
10.585213
-25.142886
-0.668045
13.426682
9.541912
4.917341
-16.768755
0.246962
5.019405
-4.453866
-18.242553
-3.986014
1.361256
-20.779225
-0.725242
0.306844
-0.906431
-5.673950
3.031110
3.231112
-5.062676
4.350681
-11.534069
10.069335
8.328627
-15.664763
-0.166335
-11.807382
11.337424
-11.746410
6.333326
-5.801496
13.632533
0.503034
-12.986706
1.209055
-1.225143
3.379919
4.430885
-2.208430
0.988608
-0.548516
11.021854
-10.029192
-6.927601
7.389507
-2.810553
-8.697061
-13.682439
-8.264536
-7.220562
4.720486
10.201105
-0.205532
-1.606082
6.856104
5.605592
-0.244878
1.470980
-7.997703
-6.151475
-19.069181
-16.954690
-3.421048
16.401398
-7.655013
15.609729
5.716793
-12.600105
0.324161
0.279177
11.901433
-3.999488
7.497233
9.439232
8.720031
-1.559548
-8.971615
-8.681049
3.748648
3.086509
-1.164578
-2.594812
-11.323451
-13.442210
4.869190
7.928068
-0.722291
-4.919983
-3.706718
2.069437
4.201111
4.423876
2.636827
-8.776282
8.799444
8.322260
-0.765119
1.064301
-6.891304
10.980120
1.130199
22.504020
-9.085056
6.081016
-5.510827
5.940840
-10.718000
0.526413
-0.243135
-4.769796
-17.107789
8.678947
-5.336960
4.380134
-4.515809
-1.651964
-10.075362
0.417705
-7.092742
-18.173212
1.624121
1.906512
6.976393
-5.054574
2.600526
2.862250
-2.136399
-5.921961
-15.808142
0.986581
-8.371044
-3.480061
-4.512361
-8.424060
-0.912654
6.739609
-0.527965
-1.443461
2.131951
-20.320348
7.389733
-4.922019
-9.104021
3.891748
0.931311
-3.854606
-5.139207
21.972867
-8.146354
-7.686147
-23.788943
-1.737209
-9.916056
-2.760334
1.370904
-2.499746
7.971811
-15.708813
-11.554991
2.396510
10.161936
-0.568806
-5.423450
12.912703
-6.986538
12.079073
-4.707054
-8.119371
8.570267
2.215494
-6.185040
-9.987019
6.156283
-6.710358
16.295604
4.973761
-13.281411
-8.301309
11.199240
9.864620
-0.422114
4.557900
-11.365688
-2.493990
-11.531255
17.950726
7.737522
-9.814259
-8.475816
2.917077
-5.350525
-3.209502
5.375750
6.567962
-5.762856
-5.332942
-0.268058
-20.122500
9.220823
-8.771221
-8.008725
-21.638454
7.208315
-9.914949
20.147065
1.508918
9.072639
4.479599
-0.199882
-9.178771
-7.395451
-13.949837
-1.101526
7.330188
-14.162703
3.435381
-4.757190
-0.557676
13.646846
-8.692104
-15.653284
-14.212222
0.002198
-6.703626
13.089622
16.899209
-3.784550
7.547679
9.131480
0.559772
-0.724817
23.736184
-10.322774
-1.454787
1.408764
2.013896
0.003312
14.778680
-4.989458
-1.572816
-3.598713
5.771095
-0.164487
1.976089
4.591702
-6.622704
-16.937888
6.508840
-1.931000
10.786843
-8.993168
-23.290416
-6.552670
-4.898198
-0.734526
-15.238523
-8.060481
-8.936157
-1.386323
2.758894
14.085549
6.089658
-0.864076
0.477018
-7.404596
7.234115
8.022195
-1.790924
2.980190
-18.581883
-2.803359
6.279551
-4.076565
-12.356626
-2.945544
17.360455
-9.861814
2.059636
12.450941
4.154350
7.586953
-2.930291
-6.127784
16.361715
-3.440273
-1.538881
4.520047
-4.771306
-1.814653
6.113162
-12.562147
6.187195
6.517442
9.951835
8.078779
6.640058
1.543662
1.054061
1.982935
-6.959804
-6.509199
4.656555
-2.996963
-3.924532
1.334618
-5.728211
10.685614
5.294214
11.518013
-6.919986
10.109663
-9.663396
2.428034
-7.040573
5.093136
-10.795022
-9.194263
-8.966722
10.994085
-15.790279
-6.604756
-3.698791
-0.277238
2.151392
5.165632
-7.687562
0.499501
0.959831
8.604255
9.672839
16.654129
18.181526
-11.159660
1.705738
-13.365975
14.486329
11.820351
2.305125
0.367479
2.886302
9.693752
-2.635125
14.855628
-4.908544
-9.790562
5.361178
-0.860975
0.888507
13.638321
6.181412
14.035183
5.996758
9.235819
8.341086
9.710840
3.727158
-2.221310
0.812565
-17.521434
0.650640
2.320417
-4.822005
30.970731
2.960165
13.165509
5.730469
7.575516
17.366548
19.522298
13.652487
-0.842730
-6.391657
14.087914
7.832951
-1.621892
-6.149058
7.910555
7.794169
6.657732
-4.429255
5.673450
3.032272
2.138081
6.795921
-5.237855
6.047434
-6.882374
2.718682
-9.084004
-2.725485
-13.117821
-23.384072
-7.019782
5.235142
-0.221654
-9.443085
-12.628934
3.075058
4.056117
-1.113728
7.892684
9.396813
21.565786
8.101212
0.639240
2.025792
1.488876
7.900690
13.406513
19.598759
7.618164
5.533042
13.576405
-1.227766
-13.762257
-4.215646
-3.548012
5.513003
0.557398
-1.313163
-20.827572
6.818196
7.411639
-5.689305
12.736874
4.972186
-10.673310
-6.191841
9.955742
-6.845129
-4.587155
-4.893224
-5.963258
-7.998706
2.537820
-5.154251
13.002687
-7.655180
-2.966791
17.462339
-7.230366
14.864116
-2.213972
8.044199
2.838690
-14.380506
0.732528
12.027511
-1.892415
-0.229172
0.294016
10.595328
5.659539
5.947734
-4.657443
6.582637
11.588292
0.032519
-7.315039
-5.643475
-3.209355
-18.584455
1.044923
1.514459
6.446316
-5.074978
-2.735739
6.827421
-6.040265
3.341319
-3.663444
16.191661
-1.148861
3.708387
5.710679
3.146867
9.029389
1.893345
2.451208
2.940939
1.387183
-4.830645
-10.223232
8.263908
13.046342
-12.813353
-11.155069
-8.788683
10.148445
0.151552
-10.922668
-3.736701
-21.403521
-12.023834
-7.956822
9.827435
-0.163150
1.684380
0.129511
-0.019230
0.267162
13.331820
6.785684
-5.548590
1.977499
-7.513954
-3.587325
-8.087548
-8.347165
2.710828
5.976277
12.443262
-6.024821
-3.617985
-12.227305
11.692782
3.502641
4.898131
3.607009
-1.982665
-7.290799
-8.783847
-14.029628
6.930555
-2.059139
-0.913655
2.806753
-5.427699
-3.589399
-3.429113
-5.371400
8.938690
15.202077
-8.695054
4.050164
-3.247639
-1.686257
-12.636048
9.511466
-0.893150
-8.619791
20.834307
-2.046294
13.713622
17.787369
19.209912
-0.170635
0.443276
10.543666
17.852978
6.573401
5.651608
10.370220
-9.782446
-1.052500
-0.856514
-7.628227
-1.848853
-11.968261
-2.904647
-5.004006
7.847989
-0.699439
-5.225969
-13.917477
-7.054802
-10.757324
5.966709
7.616052
0.274266
-1.921119
-3.734697
8.787082
5.735115
6.017595
6.812800
-6.105971
11.797781
-6.800397
5.077286
8.346266
-5.552512
12.951165
-12.604455
-5.075745
-0.855751
5.907573
2.268757
-6.228104
-4.968672
-6.945352
-0.755089
-24.874617
-4.319769
17.560877
4.475602
3.777192
-12.864275
0.056373
0.404751
-3.630370
-8.814009
9.883579
3.015178
-3.386759
8.375572
2.316861
-11.293750
0.008701
0.811106
-5.597407
-18.937792
0.572725
-7.030394
2.760784
2.763519
-1.833590
10.894338
13.866316
1.746468
-1.349590
1.040026
0.448778
-5.314472
1.506223
-3.335574
-3.958471
-14.051578
-5.333442
0.033936
-2.116452
-4.803243
6.804470
-0.293166
-9.473569
1.769078
-9.231667
4.247193
-2.615874
-17.812447
-5.497870
-14.833334
-5.147694
-8.933569
12.002988
7.612002
0.298581
5.575464
4.516344
-2.878066
-12.382639
-4.503145
-2.659862
15.439364
-5.007114
-1.374018
-9.576229
4.993458
-0.220622
11.468697
-3.779033
2.212984
-3.813041
12.347802
-6.013611
6.954751
-3.976379
3.931577
-2.249265
-0.581904
1.815226
10.794680
-8.244252
9.756909
8.423654
11.398831
-11.609747
-8.711343
-10.571348
7.098674
-2.826825
1.253968
-4.510367
9.732031
-7.885805
-6.610759
6.767094
1.923555
-10.093118
-9.795764
7.066533
6.819526
19.887631
1.960487
0.766846
-1.652980
-5.510068
-6.324907
0.626907
11.687421
-12.110144
7.378928
-12.731292
2.382053
-10.368108
0.237692
1.134725
-6.263245
-3.435547
-12.218875
-6.198082
-2.755302
22.645899
6.931519
-1.619523
-3.764498
-6.056994
6.009980
0.009267
6.713037
7.945045
6.904407
7.600925
-13.006456
11.525756
2.235189
-1.902708
-5.714400
6.401095
10.479709
1.498791
-3.130915
-14.384620
-1.652552
0.748093
-2.467471
0.380738
-5.084796
-11.970965
-9.759471
-1.719434
-1.824618
9.603118
-1.728704
-8.171180
-1.479337
4.731335
-9.558861
-3.406069
5.740376
2.514935
0.148614
3.821172
-18.038335
-7.150610
6.871978
-1.326096
-0.876154
-6.329409
10.385137
-11.709538
4.812720
-6.692057
-5.766692
1.429109
-5.663763
-1.247678
4.257179
-18.425139
-7.217407
13.657625
-9.064289
3.018846
11.998025
26.030378
-9.855352
9.817200
-0.327262
16.851733
-11.701529
-1.289348
3.244015
10.225827
-1.493983
-5.163380
6.729274
-4.636486
-2.377028
10.883100
2.982736
3.703007
-15.559752
7.461575
21.607204
7.697220
-0.062864
-2.302621
-8.872826
7.726885
18.410276
8.792475
-5.687570
-9.233943
8.251963
-4.002879
-12.567363
-10.121209
11.972098
15.443591
1.224840
-7.613999
11.143623
13.003574
-0.914605
-6.283352
-7.818634
-14.321616
4.541780
-10.827837
-8.079545
-13.189947
6.534935
2.528510
-20.323090
8.111599
18.175937
0.911890
1.363724
-6.061222
8.719240
-5.226211
5.808514
9.452489
-12.260084
1.848104
-9.934769
-4.883516
9.333999
10.156115
-4.041769
7.716487
12.366689
-2.114059
-0.157415
7.190410
-11.121142
5.543372
-3.436551
-9.864816
-8.899371
13.695040
-0.258158
3.214217
7.737489
-14.202167
2.332805
-0.735498
4.762675
2.059230
7.612601
-2.851136
-2.887204
1.504094
5.447443
8.493821
14.998107
4.287255
-9.347344
4.661864
-20.476499
11.704966
-4.779791
1.960928
2.615572
1.274126
5.413813
-2.239586
-5.914168
14.673181
-3.261370
2.222982
-7.578680
2.765051
-12.502549
-6.795111
1.116647
-0.975558
-10.955557
-5.422834
-1.263056
-0.599953
-6.046858
-22.781235
1.116141
8.636123
-16.379084
0.585762
3.471372
17.531440
-6.900547
12.241895
-8.849905
-0.618934
11.385366
-11.092429
-2.813854
-9.889429
7.220966
-1.269864
9.262460
-7.584597
7.971340
7.193408
8.960039
3.841731
-8.490244
-3.330061
16.090772
-6.579002
-19.189621
-10.211951
-11.009004
-1.487156
-8.908744
-3.449793
4.932984
-0.393076
14.826690
-8.999090
2.446182
2.083080
4.042062
-22.281719
-0.525969
9.114150
-13.425646
4.342328
-0.812622
-11.179429
10.730990
1.253937
1.486909
8.505155
3.339361
0.819762
13.036378
8.211088
-11.572579
-14.509164
-10.361657
-12.270171
-1.859594
2.369413
9.684746
-10.830924
7.979288
-1.341411
7.630022
11.460774
-12.423880
4.944777
-13.464585
3.795056
0.596695
-0.714651
2.449411
8.633671
-9.615685
-1.655213
13.184598
-11.365862
19.002540
-2.844271
-2.406934
8.735977
0.660694
5.837410
8.392539
1.662237
-5.725762
-3.918768
11.353919
5.752913
-14.234164
-8.262990
-6.028729
2.366923
-3.908812
-2.919756
-7.559800
2.767147
7.842123
-9.086493
1.076408
7.616100
14.479125
-11.663435
2.255924
4.370083
10.960441
-14.073571
-11.277171
-12.100409
-5.726943
-1.317348
18.476684
-9.675335
-2.725476
-13.562396
4.442536
-0.237424
6.861573
3.929071
1.359800
7.185933
3.560705
-16.703354
12.613401
-1.824016
-3.423651
3.638033
-21.374983
-8.071374
-4.367539
10.812965
5.773816
-11.959750
3.820762
-3.824737
-7.312503
-17.262187
-18.425598
-7.601848
3.754740
2.237368
-16.616179
-2.956791
-9.819454
3.232149
4.933262
3.719475
-5.561763
4.522334
-5.458417
-1.516914
-0.583177
17.061946
-3.595209
-6.353369
4.934896
-2.293517
8.495490
13.325496
-0.520336
-7.367551
-1.534758
-0.150979
5.457814
1.569949
2.087107
-2.301554
-2.704096
22.447289
2.955689
4.053346
12.781409
-15.824226
15.143824
14.551106
1.341857
-7.839820
-1.172481
1.167854
11.837983
-4.880007
15.193101
-6.647988
7.786208
-8.704298
-14.839167
-5.888198
-16.419582
-9.181112
-1.641759
2.857107
12.290807
-0.507779
7.151029
7.319157
-20.361811
8.032357
12.178268
2.180556
7.276585
-8.550550
4.990825
6.638928
8.068261
-1.430216
20.041359
-1.920629
14.206397
8.245744
5.563334
0.032242
-7.950606
1.973290
0.005542
2.742890
2.198487
5.332016
-1.467991
7.900274
-14.190286
3.329292
-3.171278
3.677584
-9.652300
5.854113
-16.357836
-8.705040
19.877475
14.045802
-6.104111
-7.380850
-2.824257
-3.773675
10.423947
-7.120530
-3.026565
-15.582445
8.233924
9.190796
0.379873
8.878048
-8.346984
2.656552
-8.698833
8.244128
-0.726154
1.592793
10.025489
-3.781472
10.770459
6.603014
16.310914
-5.794438
5.472547
1.327681
7.754989
-13.942505
-18.313441
9.351367
8.119793
-12.830761
-13.359218
-2.593992
-15.937819
1.277822
5.313759
-9.522876
-6.054269
7.468925
5.693701
-0.927465
2.289876
14.186106
-10.837800
-0.410870
2.434424
1.261790
-3.433655
0.039158
4.898551
7.484729
-2.306150
3.127346
-5.399139
2.306446
3.752734
-5.831150
-4.877077
-1.551855
9.265606
16.227032
1.273673
0.111935
3.736998
9.047637
-4.076007
-2.536389
22.158343
12.639262
-10.108260
3.222132
0.145698
3.730948
-5.201150
0.517161
-6.340552
-2.467135
-3.931965
-2.116870
7.031628
-4.943743
-2.261926
5.613779
0.901386
2.379711
-2.650767
-4.312347
6.794486
2.895884
1.548369
-1.660865
3.144028
7.414680
11.035398
-6.741773
-9.154268
-0.110329
13.387461
-15.784245
-17.521755
4.181035
-9.494175
-13.576257
14.092277
2.747595
8.123516
-19.754051
-0.432850
0.954863
-9.508374
-1.844760
-2.879645
-9.673542
-16.828089
-0.688773
-5.290820
9.853898
5.914021
7.570012
-3.045697
-7.551735
6.522380
-13.210427
10.939735
-0.619243
-10.346107
9.495526
-0.943280
-0.981890
-8.092848
-18.519290
6.324880
-4.517566
4.472728
-1.899742
-6.468339
3.908334
9.705911
9.274325
3.355327
11.365616
4.887651
7.243288
9.583324
3.237694
11.083163
12.111664
-12.220827
-2.273877
-10.305471
5.982914
-13.119250
8.807480
-10.461767
-1.220336
-1.791900
-3.759727
10.926300
-17.254107
-1.340440
0.915853
-5.954532
14.537686
19.245308
7.812264
1.925605
-5.883821
22.792103
14.163337
-1.070578
-4.070051
-6.058327
-0.559737
-0.487932
5.878802
1.889042
8.865360
0.314953
-2.343140
1.015091
6.941316
17.467387
-6.760933
6.903835
0.466976
10.462379
3.011810
1.815456
1.284221
3.527414
-7.550031
-1.845983
-3.962731
-2.276199
0.888798
2.227301
-11.733092
-8.349227
3.773953
-4.775435
-4.498576
15.747246
6.119559
-14.509569
0.240701
3.444752
4.000501
8.903845
2.790120
-16.643071
-3.366698
10.635979
-10.495589
8.318220
13.310419
-5.651692
6.988889
-4.194949
0.547022
11.442035
10.580060
-10.457133
-0.665737
11.265679
7.854832
0.813990
-14.869703
-6.534348
-7.249062
14.467742
-5.785556
3.658298
-0.345947
-11.176427
-3.777861
7.211241
3.095338
-0.615546
12.246721
3.908311
-0.565959
0.091731
3.608828
-9.535124
9.649307
-8.596100
-3.062293
8.220596
4.934091
0.644602
-0.575432
1.679038
1.347985
5.730082
11.001888
9.210257
-9.292879
-0.766754
-3.362439
-5.654253
8.094866
-6.281643
0.546957
-5.452942
18.402716
5.787337
0.374509
-3.928345
7.417342
-0.353705
8.777747
-5.115860
-9.469372
6.346764
-1.124476
0.619044
8.694080
-12.023489
-9.488215
1.698880
-14.256773
2.870342
-4.871535
-1.996021
3.442218
-1.057660
7.877997
-13.821944
-8.745765
7.325594
3.558781
-1.323347
-9.879908
-3.140435
-7.180256
12.754000
4.972633
13.878719
-8.134115
-10.232832
8.461596
12.992028
5.553871
1.902574
5.179449
1.300081
13.795985
3.174635
-0.858664
18.621674
-1.925194
-3.164421
-19.611965
3.216355
-0.709194
-1.757151
3.389261
-0.397771
10.634984
4.629289
-9.878464
5.238707
1.370912
-4.887885
0.602082
-12.689117
7.797502
-8.133595
9.883223
-9.036213
-9.233985
-6.219462
-4.159726
5.656477
9.592961
5.495693
1.808372
-15.112499
8.189329
-1.731946
0.833650
-9.699935
-17.620498
4.412915
15.716057
1.628550
-0.275530
12.740654
-5.248763
4.209256
-13.330280
1.487905
-12.417578
7.942456
8.370822
1.678070
10.395836
-8.311064
1.450770
-2.922962
-2.786603
6.834396
-13.610998
3.063688
-5.512395
-4.223102
0.597388
-3.441470
-16.933715
4.488008
22.437030
5.340208
10.125560
-14.622879
-5.372031
3.692912
4.881637
-1.553845
-9.032890
-10.316500
-6.331090
8.717582
-1.439812
-7.067951
7.824299
-5.630277
-8.764140
10.282826
11.083924
7.742534
0.717482
6.748875
-1.324743
5.782827
-19.302215
6.563186
11.887752
-15.117548
-6.386153
-7.410279
1.934125
8.330688
1.279679
-3.828455
19.130427
-15.341315
-1.736490
3.803932
3.563896
7.508121
5.139836
0.198485
0.404595
-0.150405
7.903497
-0.424795
-0.213658
-2.545875
3.808087
-14.268023
3.312101
-1.221738
16.831734
3.920040
-15.115968
16.518725
1.617691
-10.225569
5.862840
-4.272981
-1.063353
-4.608090
-9.241000
-8.055855
10.592542
1.290597
-4.877862
-6.251846
10.124425
-1.766669
16.831287
10.647680
0.920876
1.244491
12.777031
-7.638204
6.164032
1.729499
-4.762217
2.746439
11.396829
3.150343
16.769058
0.893498
-10.573354
2.569990
-2.630720
10.661181
-0.958882
-0.597695
-3.439743
-16.718420
-6.879771
0.061593
0.722762
-16.090192
4.679880
-4.959856
2.366447
-2.761488
5.517344
-13.691793
2.217515
-10.769564
-6.740696
7.527007
-14.107571
-0.698183
-15.917187
-0.201776
-10.139298
11.684753
13.897798
13.705917
-16.146791
-0.922413
-6.529514
1.399202
-4.914648
0.501754
7.416078
-12.943565
9.558585
2.223955
-6.042510
-16.543724
11.505853
1.180084
-6.869285
-0.490241
-12.702900
8.102147
-4.382838
-0.162196
4.206809
9.015497
7.442250
-2.165860
-0.837206
-6.204481
2.443931
0.818626
-6.226198
-0.628829
13.145634
5.090330
-7.054271
8.341063
-8.260062
0.482761
-3.663041
-6.640160
11.546676
6.099098
-1.755141
-6.064324
16.360483
6.050227
-3.285241
-6.788744
-7.383185
12.717713
-4.631665
14.169880
12.302828
-1.464062
-5.917149
8.141726
-5.903525
-0.112444
-16.450070
-6.207521
0.903475
6.314573
5.144594
6.690613
0.961986
-12.345643
13.009863
4.667254
-4.041308
3.471228
9.704935
-6.647684
2.272433
-6.905176
-1.105959
-5.187851
3.147013
-3.077709
0.326226
-2.340488
9.715860
8.362346
-0.698529
-7.860677
-12.373346
-3.701508
-11.891986
-5.511657
-7.333160
-8.362506
-7.731092
1.360595
-7.343686
4.122214
2.211984
1.131398
-0.936712
12.273443
2.536266
10.769893
19.024108
6.293404
-3.233651
-2.307864
2.588918
-11.462385
-14.648173
8.837482
2.539612
-11.159768
-0.667445
-8.267315
10.855484
5.945748
3.407970
8.964093
-17.774622
2.160065
-4.928076
-0.302453
3.847759
-10.298022
3.803954
2.869780
1.834387
-6.853630
-8.783325
-9.068742
6.855466
-5.239866
10.290752
-3.433698
6.915894
-3.017780
-0.536694
2.571282
11.573739
-4.515340
9.844118
2.684236
3.684105
3.341264
1.857700
-8.739884
1.971351
4.514215
-8.686403
-5.064556
-1.511144
-13.277265
10.192767
7.483253
27.514158
16.166109
-3.005841
1.018746
-11.938526
-8.858441
4.698597
20.973073
-1.226153
-0.233167
-8.370723
3.566796
9.341893
18.748221
-9.863487
0.059742
1.737908
-4.682061
-5.844831
4.560860
11.480395
10.972651
-7.452179
-23.516584
-1.529105
2.268608
1.898001
0.236299
-6.045216
24.137767
8.748651
4.504913
-2.319396
-2.623151
8.627727
6.167847
8.868032
7.991533
-13.471316
-10.327231
8.212492
-8.731490
9.366720
-2.258810
-11.698756
4.508070
-1.441510
13.013202
1.673328
13.957141
0.374010
12.537656
15.472457
-4.574953
-0.395056
4.630519
-5.814564
8.738163
-11.517336
-0.211086
0.935708
-8.203446
-4.169924
-5.285696
13.619741
0.272936
-1.494906
10.016401
-7.268077
12.707915
-11.729334
-9.169271
3.397504
7.319238
-0.493131
-3.684846
7.034316
-9.909141
2.653310
18.481713
-4.591605
-0.737916
-10.391822
4.284053
-13.483069
-2.980480
-0.874126
16.999777
-2.471549
0.114728
2.707375
2.878058
7.125676
-5.371573
-4.978503
-17.101683
1.618569
5.414742
18.423138
7.766869
5.629251
4.974648
-3.769415
-6.308577
-0.667866
-5.105398
1.932248
3.389229
1.078892
-2.471104
-7.417586
-0.185448
0.770793
-2.323864
5.640924
6.163263
-7.413857
9.219084
9.481060
-9.416961
-6.233913
5.160982
12.491825
2.001910
1.393167
-4.155997
-1.537445
-2.365968
2.798521
6.321794
-1.081891
-12.939197
7.286189
0.125799
10.116239
0.735378
-15.304087
-24.019249
3.625702
6.666966
4.891079
7.807020
2.767183
-5.200508
-6.590066
-7.087089
3.794149
-8.173779
9.002233
-1.738247
12.094600
0.089122
2.024933
0.366152
-7.160639
6.843933
11.344994
-6.322526
12.658913
-6.502627
6.986039
-2.984541
-5.966617
0.276530
-11.809081
-14.345330
-1.995776
-1.625315
3.980767
-7.896956
-19.121985
10.190772
1.414952
4.289948
-0.354441
22.570176
8.355519
-8.196886
-20.599578
6.471732
13.182118
-4.821002
14.230804
-6.726544
7.096881
13.199434
-6.676891
5.948670
-1.223518
0.185745
10.216724
3.890266
-15.386651
-8.281594
3.327801
-5.951510
-8.833242
11.736939
17.660625
-2.667676
4.052509
2.365573
9.540968
-4.149628
5.879005
-4.939430
0.812246
1.830202
-16.439909
2.271108
-1.383602
15.737631
-16.440377
-3.680884
2.430709
6.892575
4.683427
-3.209389
0.191479
-2.133365
5.875135
3.607735
0.908865
-6.409208
-0.393476
6.432414
-12.820808
6.074442
14.662491
0.882798
-9.273469
0.396142
12.896327
-3.774626
-6.077557
-25.843991
-4.741245
-5.380450
-8.306795
-0.201620
-7.682498
1.362875
-10.694882
-10.984947
-12.514371
5.569160
6.702934
6.028659
-23.053217
11.903583
7.398854
-11.855868
13.728605
-1.086505
-7.538390
-3.133380
-10.638645
8.898822
-8.300277
6.987437
4.604710
0.761431
-0.348034
-3.142284
13.306814
6.088334
-4.562884
-10.733138
-0.023374
4.052477
-1.150205
-10.088929
-4.634997
-3.938099
-10.820176
-8.697605
-8.403227
9.876776
-5.323766
0.204705
12.851927
1.163225
-7.353309
8.001973
2.955184
-11.556728
-5.869432
5.989248
6.577350
9.912417
-3.831395
0.404495
-1.933407
11.416347
1.030963
0.779644
10.279002
-2.355485
0.634481
-6.420837
7.847853
-4.789162
1.886958
6.231635
0.768945
18.919627
4.257207
13.606879
-14.438753
-11.341667
3.317609
-2.732269
-6.509101
1.188573
-2.755735
6.560661
9.397487
-17.890766
-5.967402
4.034984
9.686185
3.112697
-3.918790
11.529188
3.443958
2.168573
4.762511
8.231489
9.058939
2.556634
6.685775
-5.806321
6.154779
-3.084355
1.594138
-13.648931
5.654562
4.074084
-3.034751
6.592375
-6.263478
-4.457035
-9.402024
-8.363846
1.055280
18.481585
-6.047860
-6.215916
11.596914
-10.997177
0.606301
3.879929
-3.255559
-5.717027
1.396139
0.097138
-0.190302
-7.168447
-2.531084
-8.959261
-3.601945
1.026098
-3.263872
13.674267
-0.215021
8.606148
2.719003
-5.497733
-1.260002
6.194847
-15.822396
0.050191
5.850336
13.651676
-3.201832
12.394632
-6.402351
3.031312
-7.716188
-9.607467
8.342926
10.735861
-10.177943
7.654672
16.434994
7.472680
-5.267506
15.215373
4.513904
-6.266624
0.470987
13.691858
-3.812291
0.746976
7.570443
5.539905
-5.405529
1.837274
5.988625
-4.888042
-2.426403
-0.380726
7.548012
-1.238872
-10.791120
0.825338
7.639926
3.128873
9.772029
0.843181
2.537277
-2.142946
5.793507
-0.556365
3.056933
-8.788640
-7.301621
-2.015764
-2.190677
-2.115388
9.744933
-8.853330
-4.659896
2.778126
2.020209
5.496798
7.486468
-3.801138
-10.328753
-6.766707
0.001728
-10.361691
6.911875
3.237732
2.407034
3.012767
9.812097
-1.563415
0.832721
-5.932921
6.367120
0.591378
-2.567521
-9.257545
-1.611690
0.096329
-1.983643
7.172067
-0.853498
3.149414
-2.422496
-1.936834
3.251093
-3.155558
-2.046524
0.547129
0.080268
-11.122563
-9.298309
13.059370
-15.340978
7.376511
-5.489517
1.011266
-12.026104
-2.679602
-7.068040
-0.857797
4.904144
5.057145
8.280019
-5.745255
-3.967076
6.838873
-1.107469
-0.842950
3.297540
7.657534
4.374183
-1.024915
3.105148
5.975545
-0.007756
1.889616
-6.278555
-5.703703
9.806965
-11.233128
1.158517
17.610777
-6.240106
-0.887613
-4.088910
1.738190
-2.752405
-5.218921
8.614061
-0.594729
4.567783
-0.679326
-14.981259
5.390769
-3.341868
7.590620
1.914249
-4.874760
-14.276011
10.653588
2.296903
2.743001
-10.166504
-6.292270
-13.697242
1.356250
14.824324
2.671622
-0.864825
-5.790572
3.797753
4.586046
-10.745123
-11.366706
-9.764281
-5.753524
-2.712614
-16.126247
4.133502
-3.723498
-4.235045
3.098012
-14.923217
-0.118430
-13.382470
-5.891471
-5.751115
12.518692
-3.629596
-1.768570
-11.777209
-1.173921
8.077804
3.083531
10.700829
7.317269
9.020912
-10.994246
-18.296582
6.599992
18.479317
-4.943857
2.769589
-10.987046
-2.145617
-7.406476
-2.539898
11.527202
3.988194
-1.582675
-10.104409
3.141209
-8.877880
-12.944156
1.149803
0.724897
4.059065
0.645812
-8.790825
-10.714659
-10.719119
-3.167727
0.704740
11.557271
2.889814
-7.960698
-0.766399
0.449750
16.276046
5.643620
-6.547535
-1.687415
-3.725713
-7.762608
7.916689
3.235723
-10.616116
2.090832
-6.484908
5.513457
-6.973433
9.428241
-4.570475
7.059339
-6.192825
1.733781
11.908735
-4.257913
8.782135
4.057740
-18.793386
-2.689347
0.406534
2.590482
6.672623
-0.883185
-1.892173
-9.965802
6.636102
-2.667336
-2.357632
-3.126312
-4.261713
-7.176660
11.128429
-7.381854
-5.436281
-1.618083
3.787812
10.448552
-6.857412
-0.360426
2.035468
-8.502617
0.382786
1.411650
-10.500955
-10.768663
13.617213
-2.722831
18.929099
1.192308
14.398272
-9.464380
-20.843579
-1.538047
-3.789892
-7.532156
-13.085141
-7.654866
-8.440860
4.876527
-14.178895
-5.328864
-9.072358
0.670488
13.378365
-1.342559
20.557663
-2.520560
6.595272
2.029489
-22.466868
2.150423
-2.532645
2.108934
-2.558990
-4.676106
-3.948494
5.256625
1.480207
9.181481
4.421569
-7.038896
2.454318
7.206748
-13.030951
8.874102
7.237092
11.641046
-14.240501
5.698038
10.193348
14.193445
20.848016
11.641335
-0.452027
-13.389199
-2.907015
-8.164451
-0.226592
13.289622
-0.407765
-3.809504
11.992675
24.278775
0.994199
-6.120360
-4.199059
-13.946086
5.190267
-6.023283
18.833716
0.833890
15.654588
0.784531
-5.249705
4.477740
-7.503503
-1.303414
7.909211
11.906803
-8.981028
-24.310791
4.996162
-1.029259
0.710256
-15.590517
3.818591
-19.983038
-0.808566
9.378388
0.915029
-4.184105
3.813162
3.663878
-2.115729
-15.673382
-3.212306
11.132006
7.945988
6.842370
19.767718
16.595994
1.603027
11.287548
1.890173
5.155362
-4.496365
-9.586707
-6.277512
5.410669
6.932570
5.280629
-6.097202
12.998399
6.647234
-7.595785
-11.346848
-1.341300
-3.673461
7.963092
3.320021
-2.132163
-8.766781
22.959953
5.797621
7.783866
1.829532
-4.228803
-15.452197
-5.850088
-14.808545
11.408723
19.809599
-1.936851
6.801512
-0.304305
6.667197
-4.089115
-10.653321
10.550241
-4.055123
-8.920424
-20.012108
-0.241882
7.379024
-13.601723
-20.136957
12.442508
-5.069679
-5.549613
-3.119240
2.575980
2.011819
6.739915
-11.711951
8.045318
5.400606
8.954269
2.614095
6.069159
4.793346
1.057383
-7.994620
23.816264
-5.866542
7.578487
-23.235952
6.626125
-6.070678
1.740060
-5.404614
-2.365897
1.696731
4.041584
5.298405
-4.229272
-2.889196
-12.612980
2.712511
-8.675696
0.511436
-3.242270
-5.658379
-13.444562
-3.929856
17.163763
12.210998
-18.858291
11.129420
-9.055702
-3.061876
-17.675955
-12.150571
-11.258738
-11.509461
2.736431
-20.942919
3.235790
-1.838463
2.987641
-15.707987
-3.275145
4.251136
2.191838
0.401268
-7.175511
-6.835965
-0.628558
-3.338829
1.815898
6.630214
7.794404
-23.052622
1.293352
-2.526276
-1.546171
7.266952
0.237020
9.558846
13.751959
-13.145258
-4.026226
0.275019
9.202144
4.895858
5.307139
-0.407416
3.548191
15.134816
-0.453058
12.008796
-4.141407
9.243394
6.477875
-7.897912
1.052791
-0.852663
-2.751997
-4.444067
8.824325
-2.181869
14.951173
10.387050
-3.284744
-4.996343
9.661658
-2.895277
3.796381
2.001377
14.832718
-2.013807
-2.611433
-8.460975
1.466942
10.932265
4.637390
-2.759628
4.425149
2.092215
-8.873170
4.827690
-3.043695
-2.749249
13.727397
-4.390065
-4.174671
-14.650217
-13.055476
-2.185354
7.328079
-10.529527
5.737950
-9.900965
4.675832
-4.998736
10.821201
-3.664281
-4.270807
-1.153021
-4.927873
3.810760
11.862378
-9.815416
17.165747
5.869058
-0.485663
10.242654
-9.994800
0.124329
-3.614082
13.408639
13.256640
-0.586798
-15.690537
4.948254
-10.465346
1.688996
7.273367
-5.380010
-9.222483
8.003110
-8.207749
-2.588517
-18.856549
1.238972
-9.586450
3.079669
5.210012
7.151927
-6.820893
-8.052324
-13.267055
11.971807
2.146390
-14.937020
4.123254
-0.003715
-8.136616
-5.965436
3.669386
0.934144
4.203693
5.905848
1.646702
-11.026960
-8.846333
-6.204616
0.011420
3.739991
-7.534100
-0.713625
-23.365940
-2.412557
-14.383032
-8.333164
-6.736260
-9.553767
1.351347
-1.670693
-2.800772
-7.920658
-7.015547
-1.380197
-11.242254
5.770957
5.194532
-6.637424
-5.736317
-3.596371
-16.035133
-4.140259
6.387091
17.228800
-0.004811
-0.598073
-5.095963
-6.121680
4.853201
2.931427
-13.071319
-1.162556
0.413678
5.073853
-25.792926
4.462698
12.691021
-7.668292
-24.295640
-2.918644
-4.411751
7.317808
-3.011562
-3.262492
7.017995
-9.270351
6.426869
0.300299
-1.704537
0.112036
0.992723
9.011293
8.938371
14.756690
-2.176289
6.787260
16.241633
10.089263
1.852124
1.960515
-1.031751
6.816573
13.465739
6.141880
-5.609212
4.379801
10.362841
6.329802
8.795771
8.350585
-1.644885
6.812795
4.527283
2.325889
23.998457
0.635730
14.140198
4.964714
-3.201590
6.717776
2.805960
2.789467
-2.703178
-13.661769
-8.596585
-5.306504
8.073169
-2.126498
2.073505
-10.369296
16.852873
24.379066
-13.916921
15.497574
0.063496
9.048931
12.874426
-3.922540
1.107740
2.639403
3.986304
-0.404438
0.277964
-6.799809
-2.393269
8.391346
-5.795793
1.609527
-8.524670
-1.268351
-0.921422
4.972388
-9.479162
17.792024
5.293544
-9.309093
-10.851131
4.182186
3.071273
4.139973
-2.209445
-2.426161
-7.634853
6.662932
-9.547903
1.254117
2.187503
-11.914181
0.037573
4.050591
-12.647526
11.503674
5.987571
7.473168
3.505510
-4.482770
3.542028
14.345964
2.282725
7.534146
-0.501162
9.531784
-6.161996
0.201347
1.824755
4.535541
4.841871
11.972745
11.306963
14.788448
4.443556
2.164837
-1.757046
-6.124918
2.231921
-9.484475
3.598876
22.604122
-6.562536
-4.351890
-10.750221
2.679108
-13.859243
-4.831473
17.180421
0.886132
-7.266494
-12.650467
-14.898365
-5.533077
1.639222
4.662607
6.271027
-1.935061
6.282761
-1.681998
-8.663191
-8.583828
13.665312
4.072928
12.354547
12.876440
-3.349865
3.989582
-9.554459
-12.670872
-9.753901
1.663834
-3.168081
8.170488
3.249516
-6.064167
-0.304834
2.688720
-15.992245
0.845639
-0.978007
6.557784
-7.277719
16.522801
2.995117
2.567657
-0.565109
9.131628
-2.190223
5.489831
21.260238
-17.465182
-10.677046
-2.171809
2.499402
-9.771024
-0.034112
1.237833
-3.494494
-12.447076
-10.841734
8.029348
15.320837
7.041073
-9.228136
-4.529197
-3.807846
-6.544953
2.012652
-6.189583
-2.549514
7.615085
-9.104459
6.105709
0.806086
-0.421517
-7.400557
-9.508237
-0.877113
3.987172
0.534781
10.583898
4.989882
2.277095
3.638315
1.483700
18.018035
-5.858300
-2.098454
12.588020
-2.786950
4.269201
8.187535
3.413892
7.521891
-10.189066
13.211588
5.829979
2.497441
2.462607
-2.421262
0.646942
1.329848
-8.584988
-6.321384
13.796428
-7.277778
-9.213423
12.157146
4.217918
2.414022
-7.059308
3.358162
-0.907210
-0.414758
-1.722060
12.931343
10.754674
0.183386
10.472249
-21.295512
-0.322183
-3.816472
-0.392880
9.315981
6.974082
-2.580559
15.853660
-5.681976
-2.913333
3.436425
-8.432508
-15.762958
-5.464354
-11.330396
-6.027235
-1.524800
-2.103376
-4.509556
-2.556327
-4.211186
8.623388
-0.100170
0.535529
6.063620
-10.274345
-11.402166
9.025903
2.885687
-6.695790
-3.126738
-11.360488
6.731149
-0.118453
0.674879
19.955017
10.113379
-3.405513
-2.663035
-0.944316
2.430492
3.553003
0.047399
5.192880
-0.305070
9.026131
-4.125017
-1.469635
-13.458396
-1.368502
-2.673458
-2.328822
5.522460
16.677723
10.379873
-7.463291
18.334521
-1.608647
6.453299
-2.729555
-14.360291
-17.932704
9.856319
-3.671748
-5.397000
-28.270459
6.961929
5.260128
-16.252396
-3.372665
2.244324
-5.354003
7.270237
-1.648440
10.643111
-3.995069
15.063045
-12.057793
0.357528
-6.422265
11.891217
6.968915
15.014325
-1.353049
-0.491340
3.522762
15.672865
-12.906674
-6.750822
8.918080
-4.701317
-4.116889
0.862482
-2.973961
3.984417
2.729457
2.820671
-0.374005
-16.687050
-16.876957
0.003199
13.561586
9.047251
0.980130
10.386748
-1.210986
1.676780
-2.179868
6.245848
-7.870461
-7.824936
-7.539939
-2.374569
-8.126126
-13.448479
-13.040195
-0.567400
-2.902647
-5.479539
12.822183
9.226253
-2.525993
1.475950
-7.124319
-5.967744
7.187935
7.585171
-0.055544
18.753876
-9.277973
2.543667
-2.440724
-1.412579
-14.626619
-3.829237
12.869299
-9.745160
-14.138723
0.056247
-4.179797
-6.448135
9.778068
1.955918
-5.990040
-19.476859
25.449328
0.150054
-4.121880
3.777920
9.405285
-8.355831
-3.436054
-6.630069
-6.981598
-3.489310
7.118866
-12.668070
0.959685
18.092804
-3.394075
7.841004
-8.418623
11.018939
12.124401
12.546007
-8.278307
8.730878
4.702437
7.129045
-4.027488
4.149221
-3.997705
-8.137258
1.173602
-6.752826
1.565896
2.277752
-3.159500
-4.008591
2.158591
-19.181066
-10.237378
10.120074
-11.336399
3.138059
5.654141
12.397185
-3.612668
4.490607
8.109725
19.054651
4.496398
10.164647
7.715792
5.640899
-12.460742
2.924186
-5.099788
-11.845767
-7.780022
-0.837189
8.071994
-7.351501
4.296105
10.378397
0.364813
9.065300
14.912812
3.559409
15.890608
-9.323560
-2.161771
-8.359644
-7.246202
13.062854
-2.906953
-1.646226
-9.589446
11.118923
3.862433
20.645669
20.495384
-4.682344
-8.721968
-4.550196
-0.923900
-3.602946
9.597953
5.836792
1.816152
-2.966035
-9.777467
-2.631753
-3.291901
5.263533
-2.544866
3.132233
-3.512071
13.842393
2.152773
-13.322838
3.421212
-4.301937
5.043981
-7.802099
-14.088282
2.208401
0.979692
15.830247
1.465576
7.299342
8.768088
-0.598582
11.852546
-10.443072
4.402686
17.230580
-0.870989
19.106106
8.718145
-6.979863
5.143477
14.657567
-0.719643
-3.372568
9.633270
9.851009
10.620785
0.090210
-6.096058
-3.717904
0.305747
1.570003
9.591575
-5.420251
-11.932416
-12.798251
4.502899
18.098274
5.355271
-17.302217
-6.869623
-0.617093
11.785085
-3.182525
-12.222435
-4.891747
-2.989439
1.627813
3.010724
-4.516041
-3.104677
1.602825
1.760568
5.267821
-0.086233
6.542743
-12.402542
-9.334926
0.942931
2.936056
-5.632774
-11.271470
-2.407642
1.811595
-18.508669
5.575967
1.899202
-0.609825
-10.752472
1.399884
-3.352363
4.741818
-6.658509
8.739975
9.540170
-13.833932
4.902053
9.635044
-5.221011
-9.619310
0.751330
-7.860070
-6.020525
-1.414054
5.998720
-9.159343
3.292646
0.360011
-9.828323
-16.383163
7.598988
7.440200
10.178651
-2.092239
-7.844439
-3.407199
17.721232
3.528920
0.634071
5.119989
9.167650
-7.624691
3.530651
16.843037
4.477844
2.030317
-7.987657
-5.512952
-16.819280
-8.806160
-2.286032
7.680764
-6.497797
-7.992935
13.253245
7.702686
-8.187771
-1.075602
10.716016
3.844439
-7.660397
-13.765618
-0.250977
-5.209946
15.413907
9.553085
14.969134
11.501160
9.569284
-8.828084
-14.740720
-4.560686
-5.076671
4.647139
-2.742929
15.740846
12.554152
-14.585209
-6.192696
-14.456842
9.419993
-2.925816
-2.708308
-13.713785
-8.765578
1.569615
-4.396033
-9.892946
-3.926992
1.839191
10.567802
-3.403330
-13.786672
1.197822
5.554975
7.966014
-3.067213
-3.487098
4.449196
-10.636122
-1.438419
-12.885369
-3.746025
-7.438779
-6.629185
-15.819191
-5.304224
7.328181
0.919196
4.360423
3.403969
6.522886
-11.471231
5.207093
-7.781554
-1.048885
11.605437
14.513850
4.647141
-12.324365
-2.036286
-7.399077
-4.448604
-3.377315
-1.233119
-7.329778
4.205921
-2.952599
-9.681099
10.136445
2.648630
-5.676734
-6.711538
-2.039108
-1.609531
10.930512
10.171001
-2.263471
-3.861207
0.113376
-2.018899
9.315948
-6.414752
0.849117
0.825412
8.553863
3.334889
0.818600
-16.887984
-3.396899
-0.014329
4.383900
5.616889
13.210704
-3.248146
1.125289
-8.294661
9.315075
-0.080846
-8.821401
-11.156679
-14.929256
11.465457
-6.411834
12.155185
15.456602
-18.416969
0.167099
-8.532077
9.437419
-16.827874
-5.459167
5.986974
8.880518
-12.460518
-5.250419
3.430601
-2.267698
5.462404
-0.707585
-16.394831
10.152235
-11.322432
-7.407304
1.995668
1.591453
4.630930
4.675675
-0.377691
1.875724
8.229077
7.637444
-5.589121
-3.886476
-3.840732
-5.000627
8.781646
-2.157528
5.396317
3.130450
-5.540132
-1.446715
7.067046
-3.036645
-3.829017
18.794247
9.154467
-1.798377
14.051360
4.305847
-7.653960
6.665853
5.668063
-5.018882
7.131174
10.754338
1.288572
0.791935
12.530234
-4.335894
13.608037
2.520673
-5.672301
-3.174793
7.558782
2.737858
-0.914678
14.768166
8.803458
8.593076
8.133682
-1.366371
-0.323707
1.516737
3.974159
-4.883496
-18.655159
9.027340
1.261103
9.612055
-2.216392
-6.433383
-4.170458
-28.584079
-13.340370
-3.794109
10.806014
6.566737
-6.576728
4.569680
-17.045333
0.571990
10.175724
8.980761
-0.202006
11.588677
0.712161
3.819641
6.434013
-7.086763
5.575259
6.591452
-5.944551
8.873080
-7.946554
8.141687
-4.170072
-3.045998
12.890790
-5.355721
9.767297
-2.143355
-7.357089
-0.037458
0.444472
-7.645125
5.417252
1.420090
-0.365094
7.745303
6.516755
11.221224
8.460004
13.124274
8.451784
-13.725938
-6.269566
-13.834512
0.830471
3.500280
-0.517926
-12.899093
-7.055394
3.824883
-14.725710
-11.374664
4.943391
15.178553
0.946033
-8.866464
-8.377232
-0.335749
-0.594283
4.782359
7.026247
-0.347216
2.647101
-3.719408
-3.486527
-20.260561
1.795816
-11.636621
3.623315
1.321279
14.638762
-0.380328
-8.099069
0.428764
-4.961254
9.993663
9.848342
-0.412412
-7.489763
-17.515500
7.544857
-8.134577
-2.277518
19.630608
4.414960
4.734780
-7.320276
-3.430168
1.149525
1.724828
-3.748031
-1.085882
1.890912
11.926378
-0.259261
13.215517
-14.334145
-14.534384
-8.862352
5.779462
6.626866
8.508206
-0.892463
-10.422055
2.782027
-3.226224
2.351352
-13.707105
1.639144
1.887320
5.632154
3.618003
-1.535492
-3.412384
-12.569792
-8.156000
10.828776
-8.507666
9.805621
-5.756299
-15.734410
4.250480
16.396600
-9.028764
-5.286802
10.419321
-9.152079
-1.161142
9.160235
-3.351774
6.562390
-0.571903
-11.529151
-5.463724
-6.117777
3.069331
-11.704888
-3.737776
-13.769205
15.631723
-0.603588
-9.554803
1.581297
1.820079
-2.457594
4.672942
-10.821067
-24.139740
-8.735967
-1.352705
18.623202
-18.516607
-7.885178
2.044720
-8.680579
-9.070567
-22.772132
-0.476111
3.492425
-8.547206
16.971473
-7.821125
13.818029
-0.102488
11.907575
-1.096483
-3.913384
-3.358422
14.149554
5.924097
-1.403723
3.066760
7.658580
7.150150
-8.432407
2.369748
-2.603753
-8.296239
1.984962
-9.892476
-6.855617
2.896770
-7.118631
-2.934436
1.581116
-15.434252
-2.641679
13.452158
-4.206475
8.469903
-10.329379
-1.203353
-11.533536
-17.559591
-2.200184
-7.289063
10.980016
-4.741484
5.740010
6.691053
-0.900996
6.159523
-5.976143
-6.987190
-4.401347
-8.742790
1.884188
-5.789446
-2.923161
7.404931
-7.788578
-0.554392
-7.117678
-10.041199
-11.746809
1.575123
2.959194
-10.402662
10.116830
-5.461064
-0.285466
-6.700743
-1.067816
-3.211181
-15.206082
6.335512
6.331538
8.651436
-12.576727
3.825417
3.342529
5.691638
10.355774
7.506909
-8.688958
7.934245
-5.748816
3.785562
3.639170
-0.232116
15.423342
3.871067
7.099158
-0.114701
3.175476
10.669230
5.683713
11.049857
5.510520
1.968759
10.049115
-7.717515
4.481399
-7.932411
-10.703799
-17.164536
3.378007
0.078612
-3.133089
24.819497
-13.371974
0.655241
-6.983376
-5.934530
1.970811
0.083539
-17.400281
8.118141
8.368176
-7.218025
3.372856
-0.813343
-0.143338
-11.159434
-0.611659
7.657486
-11.478623
-5.688696
6.365444
5.670171
-13.100894
-9.379421
1.128671
-7.597765
-6.995098
-2.058060
-6.121673
-10.261062
-0.152261
0.780078
0.349869
-3.603165
12.257263
10.351922
-7.609847
4.690675
4.973123
13.183610
-2.137018
-6.175729
5.591935
1.311523
-0.606837
-15.137453
-3.603417
-4.751633
7.413735
-15.156855
-9.483825
-12.649605
-3.998155
7.194864
-3.914042
-7.662551
-11.560335
26.813240
-9.026979
-15.090095
-0.848668
4.258052
-2.972076
6.064874
-3.718860
-2.941611
-1.117299
-3.720818
-17.817217
-6.255615
-10.039688
-18.806747
-11.344112
-1.842419
-10.510637
7.459043
1.228852
-2.086308
-17.219150
5.468638
9.552869
-6.333571
-3.152130
7.197718
2.275459
-4.615026
18.083659
6.472597
6.754972
-1.125432
8.702248
-2.240746
14.574215
4.189187
-15.997059
4.962093
15.110096
-0.652607
1.068837
8.745229
-0.988191
-2.323130
13.509533
3.991472
15.644228
17.491459
-0.416087
4.022159
-1.456135
-10.335486
-1.640699
-7.054418
-9.289642
-16.620397
1.619983
3.365848
2.643224
-7.177979
9.067477
-0.981417
-5.536397
-7.849510
-6.976873
10.704938
9.445769
-5.529763
14.625111
-12.248252
-16.025075
4.311189
12.489153
-13.773032
-1.024112
10.336542
1.800731
-3.973125
11.263908
-6.894992
2.767599
7.607549
-8.049370
-9.409706
0.949289
-3.740450
-15.074723
-10.673471
-4.543218
5.303057
-2.198889
8.288907
8.254496
-5.001215
-12.732837
-3.264251
14.330137
-5.448144
-12.841074
-4.830740
12.224094
7.651891
12.527019
-19.684305
4.177520
11.222485
-13.187256
10.078671
-3.950833
-2.450729
-1.381041
4.562803
5.185172
5.460915
-2.222924
4.160488
-10.397422
-14.748334
8.296433
-9.739722
-7.849108
-2.782795
0.303332
5.918303
-4.614999
4.395443
11.055316
-6.295301
-12.395297
1.044649
-5.446221
8.318283
-11.797924
-7.600873
-9.678057
11.772235
8.289451
10.866656
0.175334
8.023407
-14.061103
-9.775586
-12.181817
-5.252465
-15.059483
-4.027301
-13.146231
4.311801
-4.240558
12.721480
13.883575
-8.425441
2.823702
-17.692672
1.700601
-11.438616
7.873050
-7.505297
-9.336747
18.188575
-3.061344
-4.927483
7.494766
-5.380412
2.217707
11.162098
3.948981
4.361045
4.251077
-7.478149
14.412625
12.544876
-9.566132
15.296175
4.289655
24.506518
-3.535755
-1.458039
-8.264925
-6.877691
6.420944
-3.794107
3.515617
-10.094585
9.366641
2.187192
-8.037765
-16.189891
-5.856063
1.335641
-6.878820
-1.877907
-9.691535
-10.411604
-7.785698
14.339611
4.270413
8.547397
4.155603
10.558756
-7.218857
-3.659047
10.699921
-7.411106
-17.064654
5.256769
1.665667
-4.135504
-18.866144
13.294288
2.967404
17.711107
7.356504
-8.844193
8.114470
10.125127
9.440424
-13.117252
-12.653861
12.201899
6.806258
13.504826
-9.145053
-10.472144
0.921928
-7.227822
-6.879537
-1.714976
-16.236429
5.299954
8.747742
-4.354680
-9.484097
3.566777
2.798498
-5.778490
-10.467794
-14.090931
2.131328
-1.180945
2.755796
3.531434
3.781105
17.222852
6.606969
-10.920083
-7.344321
4.543683
-5.459245
5.505574
-5.448762
-1.695798
1.800532
-17.806917
3.508950
21.466702
-6.738517
5.495835
10.206750
-1.896474
-14.252755
14.581465
12.500518
14.719410
2.404048
6.627837
7.893188
5.576598
4.753740
8.433873
-25.630340
-12.517348
4.391825
10.955974
10.750546
10.471142
4.394208
-10.398090
-7.396331
12.093534
11.073527
-5.779577
-2.896505
18.365034
2.293876
-0.163768
-1.721895
1.366502
5.286232
-10.511925
2.887769
-17.634158
-2.570068
1.938765
-5.664335
-6.376843
5.316568
-5.532902
-2.455226
-1.691830
5.259846
9.698303
6.975329
-3.655936
6.394302
0.952075
-11.544606
2.113264
9.171604
0.859745
-5.406451
-3.685583
-3.024420
0.361278
2.730109
19.404748
1.234824
-9.134129
10.872530
0.393688
-0.644710
2.124218
-3.940040
9.483554
1.593181
-5.261389
-15.212172
-20.954549
10.174897
2.844880
-26.632462
1.161165
-0.374836
-0.367667
8.428451
-8.874290
1.542768
2.297476
-4.706525
5.329937
16.524778
-8.693922
2.810428
-2.632831
11.742484
1.664786
-3.071696
-5.165139
-7.154682
1.294265
-7.594237
-9.546128
-2.147843
-13.066918
0.553355
12.980933
-1.834790
1.212037
-12.589528
-10.510499
-6.163461
4.312488
-12.531692
-1.435490
11.925246
-1.026277
-17.373966
18.531703
1.931739
10.218167
-2.407612
7.422820
2.951718
-8.626697
0.231210
-6.889758
-3.801853
-11.327282
-4.758502
-6.102840
-9.272404
1.475808
-8.069609
8.346833
4.406114
1.507849
-2.538156
10.476886
-1.380336
-13.699828
-2.008307
-1.140236
-11.889553
0.120144
0.279191
-6.554192
1.699829
24.329466
7.982689
4.207438
-5.198268
0.161148
-6.301777
-5.894298
-1.571634
5.564473
6.481071
1.799607
11.076696
-2.891240
-3.378848
-18.393450
0.387504
9.933126
-6.253160
2.933182
-10.211916
-1.733694
-1.796079
27.020920
-12.347160
9.668710
4.889789
-3.344706
-6.904659
-7.286714
-8.931512
-5.276377
13.510499
5.376992
6.819908
7.977080
2.045238
2.773707
14.432468
4.671058
-5.838509
7.452686
-2.648271
-1.150825
1.099644
-1.436179
10.735389
-0.975935
0.152285
-2.570421
1.921318
3.502968
-5.254115
7.408629
-2.577972
-2.891124
-15.649619
10.243390
10.320962
5.852038
-0.289060
-7.208368
-5.719075
-6.424937
7.445584
-7.940619
16.528432
11.862190
9.741505
-4.101273
-10.465806
-3.040446
6.510974
12.088320
-13.899823
6.608163
-0.469680
-5.563207
-6.443364
16.565251
3.269294
-13.023831
-7.162522
-3.719184
-17.227959
-5.377707
-22.184772
4.478305
-4.009596
-0.544602
-0.221122
-2.873456
3.051289
7.182893
1.826882
-10.541019
-14.622181
1.437411
-2.102749
1.715241
17.643838
-15.343969
8.780426
-8.573055
6.985670
-5.209265
-7.623886
15.552895
2.268345
13.347220
-3.636254
-0.740523
16.601942
-2.935963
6.613244
3.499917
-7.693390
-10.902446
-10.173661
14.091432
-1.020175
11.624026
5.116601
16.066832
-7.167007
-17.643346
-6.847342
-8.469539
-0.601215
10.947668
-2.168037
1.504737
9.162555
1.644447
-1.032659
-14.913652
10.505916
-7.314313
-1.518542
0.722715
6.997618
11.624983
3.404106
-0.063329
11.553402
10.532413
-4.706236
-1.046035
-3.850011
-1.431258
-2.754910
1.386657
-6.026538
-10.599364
0.162454
6.564105
-11.781393
6.981485
-14.106146
-10.522464
-4.678921
-9.997182
14.611571
6.282116
11.898229
5.644739
9.657175
14.861930
3.501754
9.588491
9.189469
-10.792781
-13.880678
-4.942629
-9.664549
9.702545
-4.368065
6.445551
-0.658655
-6.383530
-4.996182
16.213526
0.678033
1.931802
1.717585
-9.974587
-0.478777
-8.463904
10.694234
-25.308351
-14.833631
2.652226
7.319231
1.416025
-3.514434
-0.288108
-14.077154
-6.798680
-1.025917
0.401980
8.297810
-10.038497
-2.329676
1.141828
-8.434116
2.636681
6.699332
9.845228
-7.069394
0.324984
-8.070633
3.015839
-3.006244
-6.889087
-4.360157
18.448678
-3.940231
-15.167311
0.414166
-5.088407
8.091630
-2.031577
-4.828687
4.212600
3.739028
-8.889245
13.435055
-3.330907
-13.457301
-7.887269
13.356901
0.137566
-4.849733
-0.379104
1.750659
-1.355841
8.039222
-6.315622
4.945923
4.926679
-3.784301
-3.754380
6.590590
6.836951
-9.024122
5.744518
-2.955044
-6.745996
10.595401
6.896575
8.404956
-3.787518
-10.678843
-6.827816
11.057848
0.406062
-9.321819
26.582402
2.987223
-9.233568
-10.971437
9.502945
1.989791
-7.852756
0.034328
11.790302
-3.751643
8.739596
-8.328187
0.478457
2.619195
7.821888
-19.318360
-10.131262
10.677290
6.344318
-8.262860
21.978553
4.552540
-1.021893
-11.957912
-16.938501
1.570716
-12.047421
9.249830
7.951957
0.324414
8.095030
9.142896
4.620150
-1.770442
10.036044
0.834792
-13.205448
-8.508689
-13.983137
11.193705
-4.865971
8.957805
-5.831297
-5.178621
-5.645609
-8.621053
19.520305
8.426296
-16.163950
-4.857133
2.159391
-5.763889
5.271469
5.915447
8.020392
-18.067729
-1.634328
-7.490097
7.329228
0.712374
4.335453
17.421096
9.238806
-6.639583
-6.279478
-11.168303
-2.264488
4.026256
7.634063
-1.057285
9.079782
-5.408944
16.095852
15.209966
-4.793323
2.066116
-8.733807
3.809804
-3.013798
11.480192
8.916042
-1.153456
-19.045392
-9.484708
16.195166
-3.058120
17.985778
0.390858
0.481203
4.343660
3.017629
-3.887384
-0.007307
1.538885
-8.331637
7.056484
4.246633
-10.958424
0.445289
8.763293
9.945229
-11.799573
0.862061
-3.377493
-0.711701
10.465434
1.232256
-6.478733
-5.935312
-1.353921
-0.093141
-6.693069
-3.195849
5.908705
-3.970203
13.665353
-4.256535
-10.033374
-2.419456
9.406787
-4.919448
4.353396
-3.881009
-13.007371
-8.843436
0.106218
-5.070485
-2.483564
1.678147
13.579280
-1.558234
-12.410370
-3.131492
8.151172
1.492450
-0.432652
4.907215
-0.219604
-4.684841
-19.016022
8.765197
-11.194764
-9.952878
-7.004070
-5.545135
-11.204188
-7.392253
3.280354
20.395128
2.730943
3.559926
-9.126279
10.138640
-19.078324
5.029278
12.339314
-4.177039
4.427611
4.693628
1.943286
1.633748
-8.902733
-12.771001
1.533089
-9.749368
-7.009874
13.382301
-11.007357
-0.249795
-1.135734
-8.465593
-13.694102
-12.202103
-1.626167
5.545269
7.522487
3.981671
-2.700592
9.473548
6.010037
-4.985399
-5.792237
7.114087
-4.800446
2.098996
-11.807977
-8.772828
3.478774
4.585442
3.327138
8.067547
19.372730
5.753794
-0.240468
-6.273178
-0.889212
0.938620
4.004994
5.897786
-9.833849
-2.716682
-2.455023
-10.320299
-7.821933
-3.763634
-12.040748
-8.270188
-13.492842
-3.190244
-11.485711
-7.613338
-21.052286
-2.038562
-15.886432
-14.785556
9.138204
5.897654
10.825818
-5.684116
1.950579
3.287579
14.700907
0.213994
20.544129
-3.881213
-12.507128
20.007418
10.461912
5.371054
-4.242608
-10.333085
-10.880431
-3.692246
2.982119
-2.822304
5.490790
2.495005
-1.772834
-13.517445
7.002960
1.404193
0.535536
4.072468
10.633435
0.789119
-11.444866
4.892108
-7.861488
-0.231351
2.066740
7.709799
4.644294
-7.795577
10.635438
-5.864908
1.676184
-1.271743
4.239816
7.674968
0.507080
-10.137685
-15.623349
-8.361742
2.302945
2.904137
6.644674
-14.128044
-8.551607
-20.275683
-4.413065
-14.612332
-5.937480
1.221194
3.518671
9.200747
3.908086
-4.567160
13.206694
-4.308881
-1.591462
8.237305
7.270401
-16.014386
-23.113272
-9.473740
13.513636
17.464065
-11.944513
2.778041
0.043407
-0.283017
8.288087
-18.002725
-4.581084
0.989117
0.664998
-1.629362
-17.470592
-1.927035
-12.111558
16.740809
4.453437
-6.708624
-7.007514
-2.693884
0.878755
11.018554
5.432251
1.067249
-2.891142
2.436245
-7.425048
-8.652140
-3.853336
-1.767103
14.506016
2.981589
9.077572
-14.602048
1.043216
12.636117
-0.236333
-12.038670
9.520153
-7.167530
2.619464
-2.137155
1.701704
-8.515331
-7.381914
-0.016758
11.707387
0.072124
-1.265800
-16.113606
-1.829313
4.129675
-12.993630
8.345007
-5.475128
-3.819540
2.107098
14.214558
-7.186275
0.137145
17.264546
6.017610
8.458626
3.899069
-11.784481
-15.563189
12.694111
-13.195988
-0.802392
-2.670250
-4.292421
6.632772
-2.545466
5.704258
18.843561
-8.228353
-8.830912
-9.733451
0.356024
-12.912649
-8.460982
3.888175
-0.834056
-4.479282
-7.344713
7.571250
-0.528212
2.071960
-2.044463
6.320491
8.558074
-2.482518
-0.134184
0.405775
-12.392873
-1.979918
8.397261
-1.988522
5.009251
1.716943
3.855798
-1.171051
-1.457463
-15.189984
3.405092
-7.611885
-3.764243
-7.131700
11.334027
-1.285607
0.070321
-16.733701
-6.941880
1.947417
-19.275465
-11.482822
-3.111004
-2.540315
-10.659215
0.304717
-12.237060
-2.469548
5.954476
10.141684
-18.834562
0.905812
-8.714079
-11.192381
2.604935
3.138963
-20.256170
0.989792
2.094661
-1.635471
9.760462
4.121775
0.044733
2.030036
-14.349654
4.335202
-8.061147
19.104406
-8.724523
8.349413
20.729428
2.643787
0.275590
5.504917
8.627341
-6.625428
-7.961598
-10.041095
-3.084998
3.074036
-7.364985
-16.936090
-13.832359
-0.744445
12.154313
12.670933
9.518255
-0.512316
0.954375
5.458894
-0.512503
10.921367
-0.826246
5.175694
8.390752
-2.370228
17.287080
-4.638387
-0.722292
-5.809856
-1.283662
1.678109
13.918477
-2.240994
10.778439
4.990492
7.819280
-1.387220
6.872263
-11.068441
-4.592928
-6.872346
0.557422
-5.602809
-16.811891
-2.288820
-0.057579
0.701228
10.032262
14.145724
-4.870416
4.456294
1.091559
3.824421
8.605909
-10.137435
-0.203494
-4.405018
13.930013
-5.899534
6.845341
-3.264941
-5.642914
9.099616
1.825154
0.031200
4.159945
3.856775
-1.609043
2.969084
3.097661
-15.694862
-0.430130
9.086800
-0.572839
18.878247
-3.852780
-1.461408
-5.300959
12.421730
-3.644846
-11.714166
-1.222261
8.681340
-4.570827
-8.313941
4.980609
4.672651
8.604804
1.608375
-0.175948
0.818985
-3.273733
17.007642
5.275792
-1.911903
5.241156
11.540370
0.450983
6.356730
-0.474048
1.220628
12.160467
-3.097507
7.325339
-11.574629
-4.086401
-12.651307
-12.772075
1.215176
-8.497710
1.771447
-7.588379
-19.079788
15.163651
-2.649720
-7.872040
5.524655
-8.559468
6.874923
14.964998
-8.840773
-6.529842
-12.115910
3.830503
-1.419895
6.469385
-6.347426
-15.495605
11.308423
-2.796590
-3.420518
6.082715
-1.825441
2.652536
12.559334
-4.210255
-18.697441
3.003236
3.004877
5.718690
-9.590849
-12.196516
-4.569032
6.017743
8.568687
3.586037
15.798338
1.881285
11.824315
6.013579
7.900509
2.031632
-3.189286
8.402980
15.802422
-4.395919
1.818969
9.822806
6.777313
8.005379
-3.907521
-3.195271
14.166158
5.214272
3.022482
6.281769
11.471969
12.114559
-0.996955
-13.905186
-15.235634
3.729359
11.624318
-0.190834
-9.023318
-10.727498
-2.803728
3.487983
-0.574304
1.212326
-3.217770
-21.311313
-4.408798
3.655434
-11.573440
-6.423474
9.817599
5.242586
-8.210283
-4.165473
-0.006834
15.291257
11.080396
14.800668
-1.907357
0.300820
-14.540624
-13.569422
3.669946
-11.796748
2.174991
-10.104765
-2.729534
3.748655
-1.665171
3.282723
-7.808395
-0.287019
-6.464605
-3.678221
-10.542668
0.459660
5.105944
-0.296730
11.146313
-2.870781
-7.528727
8.951257
-0.878482
-10.565303
-3.491908
2.811094
1.434030
-3.414781
6.435786
-1.599382
0.304744
-6.470848
-7.378962
-5.442574
4.050917
-4.776295
-2.467225
3.726536
2.917459
-5.082655
-7.547831
-0.807607
-3.516877
-4.218845
6.299092
4.200506
-6.958221
7.962232
-3.895507
7.229248
-2.076627
6.349936
-1.956464
-6.042240
-3.103723
8.409634
-2.388992
-16.697075
5.382263
-0.904683
-2.079846
-2.540898
7.331826
-14.739609
-0.649122
2.662708
-7.726121
7.346618
-5.225305
-0.190046
-3.788473
-4.543691
0.637919
1.827740
4.601681
10.852757
8.733201
-13.759413
9.045730
4.118788
-3.527355
0.349099
11.263055
-10.685606
-17.482370
-0.419047
-1.109177
-4.168318
1.590512
-16.735956
-10.062746
-3.909632
6.347164
1.213614
5.073313
-1.717452
10.314472
11.356924
12.946244
-12.489639
-7.730225
3.473818
6.527562
-4.021773
0.983302
-11.977780
-13.898038
-6.087395
2.882755
3.279791
1.388600
0.219813
-19.342002
-9.143009
7.728153
-10.936335
-3.517061
8.354764
10.077228
-0.755830
-1.843412
-4.008467
-2.162052
-5.475421
-5.786185
-1.029955
8.106980
-21.345571
1.448637
1.968623
-5.071276
0.025481
13.006367
-11.631069
19.178906
3.540954
-5.809934
5.789452
-4.618513
7.712268
-3.471089
-3.431231
-4.195169
0.516880
-5.760332
5.783723
-8.457069
-1.345375
-18.242896
8.207959
17.080068
6.995380
3.456100
5.575952
3.725238
-8.669624
-9.021054
11.700188
-6.293316
17.704313
-5.478726
11.505139
-5.135857
-5.340161
6.881045
-4.501231
-0.860322
-5.907792
2.461168
0.183987
3.070814
6.079907
8.113788
-2.571432
9.082189
9.720848
-1.968967
3.140205
-4.951707
5.857599
0.379383
-7.583022
-2.170616
2.075138
8.012713
-3.539487
7.265215
-3.417761
1.478535
-0.747002
-8.742393
19.539266
19.390984
9.255682
2.841578
-9.338333
3.180936
-5.619329
17.333261
10.058530
-25.267465
-0.140496
-17.541205
14.425617
-3.525610
11.460909
2.543243
4.693509
10.023161
-14.707289
13.483762
1.250076
-3.178138
19.721547
-10.104642
-13.000749
-3.169548
-5.906973
3.963493
-11.656218
9.824358
0.662989
0.452571
-6.324641
4.064426
-5.855644
5.428495
3.472196
-1.748742
10.475561
1.698748
5.370796
7.433737
-4.773043
1.701341
-15.709115
-4.906252
1.653871
-5.993911
8.377367
10.886804
-7.283052
4.453067
13.413101
-10.138411
9.427209
-5.538662
7.657654
3.055102
5.598210
-6.071184
0.759245
-0.868417
13.775527
-17.464250
14.164977
7.992932
-0.499657
-6.864288
-3.327814
17.700785
-12.075902
3.337598
3.061232
-8.827564
8.014015
8.138557
-5.754971
-2.423770
23.656133
14.860905
-7.379650
0.623124
9.551672
-8.062960
4.912544
13.057844
-9.564185
0.239082
6.048248
-9.779031
-14.822619
-3.027537
17.204575
8.160628
-15.067055
0.259311
2.450295
13.726631
12.877812
3.041898
-22.504165
2.958274
4.700794
0.498813
6.700790
5.154088
2.256824
16.106535
-8.497039
-9.068907
-6.083513
-10.053951
-1.430345
-2.575458
0.068218
-8.156083
16.520649
3.877678
7.693699
-6.922377
0.132464
-14.931886
0.401570
0.276692
0.991402
1.418337
-7.624548
2.432286
21.346505
-9.153541
4.270883
9.961172
2.422842
1.315116
6.993710
7.044274
11.102653
4.946704
-5.460280
2.104119
-3.655231
-4.836002
-1.878551
-12.189072
0.836398
6.230875
1.501573
-12.607400
6.411484
17.136688
4.866732
6.135563
3.662330
-12.273949
1.650362
-8.009913
11.844035
-8.870598
-0.100856
-8.459768
12.863872
4.327271
9.295037
6.931901
-1.018850
-10.384896
-10.477222
3.800627
-7.825606
6.575890
12.818632
-8.855574
-5.016295
-1.041003
7.148237
12.471153
-2.838112
4.092194
13.263767
8.792493
1.269072
-7.671726
-0.211331
-3.603581
-4.258431
11.444481
10.892938
3.599882
-1.643780
4.334177
-5.282989
1.143386
-9.934693
6.962303
8.399245
-5.514856
-20.904890
-5.385450
-4.480347
0.269722
0.499152
4.867998
1.710574
-9.113250
-0.684565
-8.151881
10.628594
-18.094187
-1.943432
6.210117
4.230147
2.577157
0.124788
15.330133
-7.462428
4.770553
0.631923
-1.881349
-6.953335
9.759659
7.148688
2.271042
1.503734
-3.174561
-13.989404
-14.667019
-11.960645
-0.968705
5.389479
0.389307
-0.345468
6.033709
-4.778064
-16.878089
-2.503064
-4.384711
-6.274488
-3.644417
9.901924
0.923141
-0.796223
-10.027050
-12.511567
-11.989022
9.637410
0.544824
2.072374
7.189648
6.413401
4.514578
7.594248
-10.087739
-1.984134
2.247305
4.840753
-10.778697
-8.351103
-3.384339
22.912751
0.257681
5.332169
-19.184391
1.847574
-5.615375
-15.941712
-1.325413
-18.188551
12.198982
8.009007
19.422270
-1.398623
7.882687
8.395422
-1.350317
-2.496158
-6.833390
1.414018
-3.934260
10.945589
8.364365
5.175945
9.250305
-2.431775
-13.766841
-4.951897
6.488952
-6.139092
-6.038789
-0.984938
-3.579788
-10.969646
1.163090
-2.128700
-4.585023
4.414544
-6.498812
-4.455660
8.728867
3.390142
-5.788879
-15.037724
-1.649547
4.827352
20.545677
8.950305
4.202290
-8.042468
-3.562922
-0.499658
-15.599739
1.067625
-13.615391
-5.239950
-11.237673
-1.032704
7.230476
11.819531
-7.951838
-7.279004
0.425475
2.729493
-11.651830
5.773926
-11.864535
10.038889
-5.689664
1.485980
7.106726
17.486087
1.884471
-4.468404
-3.103438
3.327438
0.683316
8.381695
16.369496
-3.365642
-16.422662
9.584751
-3.296642
-7.854583
-0.825057
-0.383973
0.400167
11.178444
-1.211902
-3.083697
1.714365
0.114221
-0.209645
0.452619
1.629544
-10.622123
-9.181174
5.514146
-1.332591
0.120138
15.571382
13.369451
7.694639
-2.871416
5.174856
3.982989
3.015337
12.849455
-2.249010
-3.642158
-13.181980
1.355715
6.211711
-7.695228
-5.294706
-8.058293
-1.141662
-2.723164
-2.186993
3.926467
9.936217
11.188930
-2.068575
-8.944512
-4.613719
10.730814
-17.147766
-1.025633
2.373496
-8.029085
1.144427
-11.273862
7.572809
8.422856
8.791790
-10.604259
3.122790
15.458015
-6.700653
10.841003
-6.777420
6.711836
0.357928
5.909609
-3.873365
-5.302601
-2.244568
4.332417
-16.668355
-1.405306
-5.267740
-0.610968
-3.977159
-14.684435
3.874229
-0.869378
-7.676417
-4.728510
-1.854157
3.996988
1.336663
-4.639796
14.912369
-10.162396
-4.464388
10.556747
-4.706723
22.839811
-8.225376
-8.256267
-6.406172
-4.281886
2.424625
0.777709
-9.041589
-6.432332
0.472124
-1.602124
-7.403268
3.584038
1.430789
2.923532
3.568329
-6.539574
-22.129683
0.798760
-3.374656
5.606861
-0.179741
0.218675
-5.233277
-11.508780
-4.403869
7.079179
-2.673451
7.890936
-22.575940
-8.862801
-6.244977
1.010081
0.209432
-14.383807
-0.117983
1.014947
-1.339696
-10.078764
0.997394
5.961775
7.166442
6.526702
-22.327738
20.503443
-8.495786
-0.661246
-2.253133
-8.835387
-5.729571
-19.326166
17.928121
-0.150241
14.597469
3.016610
-8.007804
5.856694
4.057242
16.447658
-13.821283
-2.503525
13.751100
3.822845
10.635611
-3.261461
-1.601081
-20.792146
-15.792195
-2.892796
0.486183
-0.418323
5.879544
16.160069
15.280460
6.437896
4.865903
3.698655
-3.524538
9.356847
3.389494
5.613384
4.279366
3.247738
4.929183
-0.580046
7.766411
0.935677
-4.610264
0.166044
-6.610311
10.890263
2.485457
19.101513
-7.539044
2.642101
-3.194921
19.466987
-5.714615
4.838667
1.314525
-10.058437
3.462619
16.609309
-0.783394
3.751447
1.911210
1.976202
-2.766457
-2.302985
-4.112488
-8.989939
-1.162205
-1.518676
4.541952
-4.510899
8.505808
-19.356248
-3.842377
0.086448
-4.019278
-11.304674
5.343402
-12.718136
1.138720
-5.579097
-4.681631
4.835521
11.005051
5.235521
11.199257
-13.411054
7.594685
5.961323
-2.707966
2.551616
-0.122245
-14.140851
-2.703214
17.680174
16.075080
-10.534040
7.876775
-4.074260
-5.276092
-8.037262
2.798235
3.207670
-0.040893
0.325108
-5.765127
-8.632358
9.040430
-0.370406
-11.217853
1.669068
1.549515
4.505987
3.284675
-0.307742
5.200428
0.695090
-7.297438
14.767503
-3.580302
8.407812
0.078421
-2.954012
20.205178
0.410805
2.378492
5.807327
-0.442888
-14.524071
11.031623
14.148537
0.253573
8.376971
5.266939
5.413358
-3.790044
3.899265
-5.868633
16.795515
9.833050
0.217719
2.753942
-0.476293
-9.292617
-5.164276
3.842689
-5.112913
-0.591173
-7.963357
6.623442
-11.908414
-10.658409
1.519880
0.946622
-4.613991
-7.350999
6.211329
24.749464
14.618500
5.903492
2.352313
-9.942315
10.258980
-8.041458
-8.571945
1.301542
0.857289
3.077700
10.905922
-4.830195
10.678848
1.835731
-1.992685
-1.589142
6.778752
-14.428475
-2.568931
2.374807
-9.416838
-9.058126
3.815688
-4.193715
-7.028745
-6.671889
-5.840347
0.666539
7.499465
2.442359
3.128072
-0.685474
10.428514
-15.807390
-6.204094
8.623287
-1.345593
21.753952
-10.801057
3.993212
9.828424
-8.255008
-13.297600
-8.968316
-10.392349
3.806302
5.934354
-4.767763
1.738651
4.172012
5.191026
-9.174106
-5.283790
-1.403886
-1.308084
4.245675
6.563746
0.127402
8.731573
-0.866869
-8.356793
7.797993
15.928456
-16.848966
-0.646490
7.619421
-6.975041
-1.190435
-3.437569
8.239692
10.340334
-6.077124
-0.199644
-10.686013
2.963305
-13.009810
9.943767
11.919317
12.328063
9.831857
-12.307305
3.582994
7.685087
-6.404617
-14.082011
-1.257056
-1.301552
-12.590294
-17.223703
22.659603
3.308043
-8.217338
-11.025305
5.819457
2.302677
7.086105
2.506484
1.495407
9.609690
-10.106138
-8.571971
-0.082770
-5.033280
19.538563
14.287408
2.233072
-2.898805
-9.129198
10.536372
-0.767451
1.390420
-12.073459
4.720432
1.116739
7.065870
-10.582343
-8.823617
-0.592964
-2.602353
-15.470876
11.683298
-4.791870
-16.192287
-6.962177
4.232880
10.188418
1.317068
-11.721283
8.766542
-11.854471
-13.107591
3.378427
-3.883638
-3.489767
6.456479
-13.757427
-0.385277
13.286548
-1.525149
-3.563122
1.721986
9.902186
8.178731
-5.924268
-11.347586
18.590539
6.107235
-7.251444
-3.185674
-2.366106
-0.593962
-2.040856
6.425256
6.222655
5.038009
3.539104
1.672986
-5.460834
6.096436
-7.054521
-10.026621
-5.832057
-10.683802
-11.268571
8.025181
-5.293789
4.686684
7.471556
1.056380
16.793327
-14.941239
8.056422
-8.331114
-11.761704
13.345589
-0.307720
2.427940
-2.793537
2.365781
-2.696914
1.310017
-2.194880
-8.078650
-4.897163
-2.733550
2.824758
-6.825593
7.601735
3.193837
8.846490
2.825794
-6.101913
-9.483315
6.200793
-2.776714
-7.321394
10.344799
12.306133
-5.584219
2.358358
10.778173
0.727396
-10.556277
2.245430
-4.288059
17.097369
19.854914
-6.726535
-2.717091
-0.470474
-6.946679
3.183142
-4.684864
1.917170
-4.403942
0.521770
-12.448310
-7.817408
12.717099
5.329335
-1.407878
11.633868
1.787216
5.717950
-3.700710
1.097312
1.823442
-6.683706
-0.030250
0.195449
-1.546259
0.571010
-16.130407
-16.910899
-12.673991
2.733739
12.070916
4.736906
3.001382
6.358565
4.158048
-26.647618
-13.524720
2.332422
-7.363687
-9.050866
-5.452295
-9.056887
-18.941980
-4.537526
8.404157
-8.986851
10.433336
12.583820
3.711284
7.151367
-3.442911
11.261026
-2.320175
-5.610661
13.288375
14.055910
-2.949418
30.718013
-2.232490
10.278913
27.691760
4.743346
0.040578
17.364839
-11.064428
-7.646905
-0.356945
-3.689936
-10.482311
-13.536893
4.008023
-0.615626
1.015147
-10.821097
7.993649
-2.672484
12.666538
-8.392356
2.691777
-4.155788
5.407647
-5.918704
8.293435
18.887441
4.660287
0.963722
8.446943
-1.960636
6.994353
3.890981
3.244537
-7.542301
7.523103
6.976432
-4.372917
-8.853858
-1.903515
6.463431
-6.885979
17.280770
5.720771
6.551317
9.234387
3.305535
1.052965
2.696386
14.579637
-6.416940
-3.116137
-11.945817
-7.303129
10.131358
-5.825557
-0.000552
6.060886
8.288155
-7.219985
5.347815
-6.205790
-7.302440
-4.483407
-0.810627
12.588353
10.191507
1.298654
6.780105
-2.224240
-4.960423
-5.344889
-0.972471
-3.186579
6.597274
-18.602348
-1.425579
-9.759389
9.894667
1.748919
8.755898
7.282570
-8.335769
-1.604905
3.852634
-3.891516
24.985483
-5.152965
2.988592
8.370499
3.950626
11.882086
-12.658834
-5.798782
6.596706
-19.837909
-3.243144
-11.441798
-16.700202
11.837236
6.347131
-2.951692
-14.803003
6.637053
2.431081
-4.411498
10.543463
4.093678
4.260947
-3.173778
-7.460919
13.349982
4.686069
12.069410
9.640754
1.721121
5.447033
-4.786248
-8.627288
-7.460100
-0.733772
5.751551
16.756174
1.530320
-7.029817
4.021879
3.827961
-15.208088
-10.962626
5.540850
0.643524
1.199235
1.757317
-18.803611
-3.704285
-17.196460
7.759580
0.423781
-3.408223
-2.523028
9.243700
-7.568729
9.472623
3.017351
2.009564
-6.088303
6.471517
9.221368
7.943889
12.145369
6.338685
-18.830277
3.838711
18.807239
5.294140
0.881673
-9.051320
-8.287474
-10.085781
-3.744916
6.529819
0.599188
-1.673735
1.104784
3.914279
-8.914319
-10.722916
6.082441
1.751868
-8.097787
-2.859168
3.569768
2.560979
6.206169
5.434574
9.605870
-7.656655
-7.477048
-4.333474
0.187144
5.932590
-11.651488
7.205658
4.814994
3.774573
12.431260
-1.878026
7.633377
-4.706755
5.022126
-4.372992
-0.550720
3.738426
13.520792
-12.238533
3.292163
-1.024865
-0.137487
14.541894
24.848696
-9.116688
8.117601
-6.754075
10.750623
-0.260214
-9.168193
1.059040
5.130586
8.393466
10.595371
-9.985940
-17.764426
-1.099172
-6.192563
4.944131
1.531230
0.863190
-8.721690
3.161534
10.424984
-13.823268
-2.011025
2.664800
-7.007968
10.468139
-5.783286
-1.253861
15.190382
2.111482
2.529256
0.052314
4.622073
6.665498
-1.527972
0.433033
0.142759
2.030021
-2.603779
0.521946
8.967939
-6.591101
1.712149
0.657138
-7.969706
16.090970
-0.090024
-8.897830
5.466532
0.170166
15.013565
11.980678
5.547208
-1.379130
-1.759724
17.143029
-0.275575
2.754986
-3.040005
25.126957
9.021828
0.602144
-1.874871
3.704936
3.415029
2.669386
-17.816556
2.618861
9.100981
8.238856
-11.078779
0.210720
-9.341251
7.470158
-7.458009
8.171350
2.011408
-3.478218
-4.051441
11.709366
-8.475821
9.126840
-4.123858
-19.338449
1.371779
3.076766
13.254668
15.914885
0.023328
-3.579819
-8.946960
-1.022938
3.705273
9.083751
12.931143
1.943099
12.770882
6.187467
4.564989
2.388506
-4.725869
1.602653
-0.429395
-3.326539
0.117343
3.446196
10.019787
-6.005171
-4.400556
3.980260
-4.679786
7.563785
-1.902142
-0.049569
-12.252940
-3.206448
11.390519
-7.303323
0.448290
3.322638
-9.927413
3.791751
-4.228562
-16.097580
-9.151927
-2.697399
4.008444
-15.270139
0.311672
-9.411783
-10.786625
12.241645
25.478432
12.571036
-5.623467
10.581891
10.485673
-5.139904
7.800903
5.959923
3.029857
9.815596
-12.227454
7.412147
-2.720918
1.093675
-0.732470
9.498831
-8.130085
2.789092
-0.116570
-7.319578
7.373424
10.464362
7.020101
-10.543140
-0.279900
-5.250528
-3.907494
-9.678206
4.778906
3.633209
3.505739
-3.656274
11.890961
-4.883743
0.539968
12.857327
1.938842
0.271984
14.903953
4.284186
-7.253001
-7.131319
19.901045
-26.931540
-1.102558
-15.882899
5.071772
-4.908781
2.692217
12.303738
10.547500
0.461136
7.786543
0.989672
8.962056
8.333871
-1.173450
-3.739790
-12.005771
-5.628740
0.207618
2.723541
-7.984659
7.017250
-4.422374
1.726853
3.339808
2.236838
4.341167
-13.201239
5.351012
9.352357
13.896015
-10.132088
13.981229
-11.406667
14.977567
-2.028802
-4.013010
-10.816521
-17.486509
-3.488909
-2.666853
-5.529730
-2.042835
-14.477366
1.557757
0.726937
-6.953568
16.044920
-9.612864
7.329848
-5.560625
-12.064337
2.336072
-9.912558
12.687684
-1.904003
9.486210
9.262422
2.655901
-14.166172
2.748666
-6.432199
9.334543
8.289988
8.713146
-7.531377
-12.490968
-2.239825
8.783804
7.552694
0.268992
-5.156290
-3.162453
3.407937
-3.350798
-10.723570
9.052897
6.509171
-3.081290
-3.797354
-3.768201
-9.254249
-10.757994
14.577410
-6.075057
4.388518
7.544974
5.094812
-6.318394
7.496169
-5.463222
-3.261980
0.555827
1.758856
-7.175249
9.477533
2.326949
-12.373316
4.473947
22.148245
5.362468
3.055124
-7.758300
12.626226
-4.778883
2.208370
-20.072496
-10.023222
-6.389928
-1.001163
-4.687247
-8.503650
-0.049976
-7.303221
-15.544776
4.340647
13.588012
-14.656485
4.141096
5.149991
-2.279069
3.148202
-8.985721
-1.330138
4.834833
1.466373
13.941930
-4.618714
-1.958231
-3.796982
-8.523154
-3.396237
-8.635912
-7.032545
6.635125
7.250369
-13.525660
0.853354
5.937365
4.426372
-21.970155
-6.058005
3.215200
2.028734
0.634708
12.805180
0.005530
-12.296471
10.984908
6.896433
10.207344
-1.736598
-1.659839
-8.586827
3.247906
-4.012853
18.096580
-2.984813
4.032572
6.446972
-4.440279
-5.632260
-7.173300
2.903375
7.088002
12.361365
-5.873890
12.816785
4.357247
4.725584
3.075871
-9.661158
-18.201880
6.723343
3.960509
1.331197
-21.006188
-4.212712
-1.060290
10.301144
2.318630
-5.517720
10.807902
0.138561
10.932288
8.617982
-2.733537
2.229462
2.473635
4.597333
3.669823
-2.397362
9.454988
4.983548
-7.236535
1.316962
-11.923664
16.519409
-5.832506
-9.391866
-4.636356
11.563315
0.657624
-6.538311
-0.576310
-2.431514
1.224538
-10.130684
16.996447
3.319118
5.495501
-9.224978
-6.447967
-5.056941
-7.933576
-6.949273
-2.590728
0.763237
8.427393
2.650601
1.528352
6.272643
0.133824
18.732931
0.009193
14.119251
3.104885
-5.030130
-4.865442
-0.677188
-5.549931
6.357152
-9.375095
1.349615
24.031982
-19.478887
-1.042055
-1.698969
21.308121
4.732448
1.311202
-1.924527
-9.989494
-6.705790
-2.783992
-5.861875
-4.564747
7.253847
3.864333
-14.157354
-1.693207
3.093745
21.200055
3.424768
17.330599
-1.074166
14.853613
1.676789
-4.896696
-10.460762
-2.324202
-4.654764
13.809418
8.573428
4.544747
0.918522
-5.571929
10.037985
-1.224460
-1.251524
13.840476
12.012828
1.833469
-7.230887
-1.956414
-7.179705
-6.934581
-7.384030
-6.362909
12.121365
-20.011324
20.639778
-0.238313
-8.684449
4.162209
-5.831474
4.541606
-2.692366
-15.689415
2.827330
13.890621
-0.896446
0.646631
9.106191
4.295969
-5.760357
1.092163
9.914118
0.368500
11.209192
0.237595
-11.491096
11.932647
6.009222
2.900344
10.610176
-4.438573
9.164077
-15.998918
17.690839
3.403542
-23.391085
-5.417219
-8.702876
-13.356591
-8.195708
17.179831
-2.410567
0.657199
-7.549412
14.535955
-6.859690
-0.619831
2.600486
-5.266162
12.956579
5.569640
15.357905
-12.190615
2.642771
-11.030308
-0.105202
-3.731556
6.645816
-5.173449
-1.139018
-5.100034
17.570089
-4.252463
-6.378297
-16.829225
-2.955593
-6.995173
-6.053485
-8.339510
-1.678664
3.724231
15.838737
-11.647791
-9.338420
-0.765408
5.194679
-7.982743
-14.443825
-10.086937
1.867154
-2.614068
-10.781123
-12.177581
-0.713186
15.213411
-5.017888
-13.907243
17.034063
7.622535
-3.548748
-7.339447
0.722568
4.642784
-2.971448
3.192364
-7.269185
1.892076
11.873632
-10.117120
-7.403353
-7.108755
-2.529582
-15.554260
7.791993
-7.463389
-7.461426
6.270959
0.903826
13.800729
-1.227299
-3.097291
-0.237139
-5.335857
-5.677390
-12.101504
-7.924785
9.167635
1.157302
11.233304
-0.739792
6.756486
1.830190
-0.901258
-15.501731
12.684090
-6.507863
2.782079
-12.052760
-4.534035
-10.206521
-1.768107
-4.100546
14.320750
-5.829766
5.330682
1.974421
7.550179
-0.941085
4.032851
1.437860
6.274842
-14.543456
0.860409
-3.239383
8.960333
-16.449752
4.522362
6.141189
-4.888201
-1.354744
4.447421
-10.260729
10.258456
5.972229
0.385727
-6.635755
4.307761
13.382198
-6.497645
12.785773
12.462374
-1.220948
-11.502137
-2.123405
11.382051
-2.109385
-1.673717
10.063005
16.872693
-1.268165
-1.902864
-10.984364
11.840255
7.432209
7.933894
-14.252257
-29.046943
-16.217049
-0.841871
5.942675
-2.718514
7.757024
-3.029102
15.762155
-14.463969
0.775059
-17.447694
-5.772030
4.734966
5.338246
-3.618410
8.873030
-3.533759
3.063359
-2.694659
-2.707069
-5.414672
2.552224
4.427381
10.149940
5.097485
13.640776
-5.199538
0.209987
4.305447
-4.527729
-7.124496
-21.783037
15.292720
14.452614
8.604560
4.329393
-2.553460
-1.868998
-7.712926
-0.838797
9.924588
0.730787
-0.918549
4.933315
-9.090091
1.300928
-7.296912
7.275058
-17.206939
11.233100
-8.405227
-9.847972
-9.795594
-2.593726
-9.231849
-4.651106
6.201293
-13.311460
-1.129379
21.600356
3.008883
2.650252
4.521691
-0.489602
-7.278042
10.055734
9.930112
-11.014975
3.146613
2.252665
4.218230
3.791831
-6.288589
17.381561
-9.757437
13.902780
-3.643428
-4.880651
-6.021714
14.735029
0.733283
5.891170
-14.730917
6.092482
-9.272450
14.846246
4.167144
-4.807154
5.467721
9.994199
-5.193514
-16.909111
-4.525048
5.668961
-0.451436
1.417336
13.562648
17.483779
-7.877340
-8.099327
15.602021
-7.877950
1.351982
9.264492
-2.821970
-8.649642
10.503870
-9.735905
-9.298450
0.632848
-1.085547
6.864515
-2.131827
3.454233
-6.860649
3.074629
-0.893333
-8.930922
-5.378468
-11.015068
2.485271
10.688746
4.250057
3.070328
-3.987004
4.843468
-11.705913
-5.008080
-6.362968
1.440430
1.844386
9.516914
4.740609
4.996488
-11.397824
-5.947385
-10.036672
-11.070725
0.573998
7.478837
-17.885027
-2.437082
3.589911
4.699515
2.751754
2.287938
7.811196
12.578580
11.894215
-12.667642
9.297606
-5.542634
4.756810
-8.182092
12.983991
-2.546732
-1.831199
8.201864
-10.598293
3.169262
5.260077
-9.640198
10.037583
-2.882284
-16.679309
-9.926864
5.965252
-8.462398
-2.956569
-3.723933
-8.957815
-8.837834
-9.405668
4.729421
0.909899
19.239872
-0.737632
-0.802856
5.308917
-4.001434
-16.447327
7.959750
-8.038637
2.700691
19.947612
-13.509819
12.406731
-5.988164
0.119519
-20.421506
2.221341
17.574799
-4.414551
-5.175038
-11.790555
-2.827272
11.396027
-12.402027
1.411912
1.436998
0.823865
1.546445
-3.513181
-15.335072
-8.305982
-7.289256
0.187194
2.762153
-4.255318
-4.657340
-16.860062
3.701754
5.766036
1.369291
6.470269
-5.209643
-12.648293
3.876244
2.809366
-3.176173
-4.113360
-0.862690
6.017289
4.447068
5.747068
-7.535543
-1.887422
5.708493
5.817131
-9.049192
8.150817
4.421828
-14.405469
-10.752484
-2.799105
-15.263509
8.117398
1.738291
1.831592
-13.990607
3.613884
-5.398069
6.246053
-3.956568
-9.760409
18.345767
-1.498047
12.994484
10.920649
1.732518
3.639874
4.361006
11.847545
6.898958
3.058154
1.967864
0.719300
-5.750123
-1.141011
5.612323
-5.134654
-6.403869
8.357874
-7.333046
5.777987
-3.406599
