-1.709149
-9.767469
-18.785294
9.706553
3.318319
-2.186881
18.703161
-3.552480
23.762836
1.264741
-6.601870
1.796269
18.009951
-12.392229
2.045104
-6.839702
-2.281600
2.826772
2.399333
8.075638
-2.013250
6.988702
0.953171
-2.209841
-2.672270
1.380580
1.669152
-8.754930
-42.023145
2.480459
-4.464430
15.306339
-1.997944
-1.007660
-16.673265
-2.882902
1.536194
0.985169
6.607490
19.679250
-5.815069
13.125534
-3.796378
7.294127
-11.167170
3.800139
-6.410296
10.017740
-18.763793
-9.528699
-15.212756
-3.136755
-3.656290
-11.489992
1.017284
1.212249
7.712569
1.819852
-11.631602
-4.109467
-2.704523
-8.376105
16.332893
-3.353508
-4.531310
3.626530
-5.673943
12.349338
17.397999
-4.879652
10.136921
-3.366239
11.178982
-8.078611
5.094748
9.766151
0.621529
5.291764
12.647655
-1.507176
3.878719
-10.781043
-10.225497
4.046826
-7.410202
-15.317262
-6.085414
2.588718
11.758969
10.026440
6.710216
-13.747405
-1.535190
19.619313
7.152078
0.697978
24.935457
-2.320084
10.001317
1.445819
-8.396003
-20.498925
5.926310
2.728208
5.302145
3.940887
4.928348
-7.969246
1.989664
-24.023112
13.058181
1.428671
-8.669971
5.339001
-3.965267
0.165280
-3.509565
-11.252287
-11.153964
-14.342326
-12.692316
8.077243
0.824930
12.617172
7.769050
2.413381
-1.128948
21.412107
-7.873688
0.104453
10.967391
-0.014107
5.311374
-2.281849
-13.605619
-6.533335
7.209353
-10.871356
10.632446
5.699139
13.573387
13.135458
0.880011
4.829979
5.418840
-7.573963
5.744854
-1.203320
12.154111
0.192153
-7.897252
9.568756
7.207529
12.026083
3.826162
-0.257699
-1.403974
1.729260
12.559730
10.801812
3.141552
5.556829
-17.432048
7.812840
7.184250
-1.011708
2.882839
-19.886965
3.673243
-11.119121
-11.365829
-1.067411
9.049203
10.311000
-17.223776
8.734713
-2.293686
6.141428
11.403606
-14.228255
-14.193434
-8.891589
7.308896
0.277900
-8.587682
0.698150
-0.248105
5.231432
-7.073837
-6.985831
6.827916
-5.480009
-13.903072
-14.252790
-4.394594
-2.453451
-2.964356
-2.597238
5.087151
-4.046833
-13.804365
8.100436
18.186359
10.355655
-0.716267
-4.350139
-2.670002
-0.024726
2.901890
-15.138791
5.883459
9.981814
-15.713327
8.131721
6.473421
18.048871
2.891345
5.717389
16.088179
-5.391047
18.424196
-1.219990
-17.814963
7.958929
7.124148
-5.619668
3.658370
3.483241
4.200113
9.661552
-11.498662
-8.459494
3.760570
16.396290
2.319927
14.870467
6.944085
9.813887
4.374694
-0.300488
0.937549
3.654591
9.847550
6.655197
13.999503
13.602681
-3.328502
5.206704
-8.016516
-2.745341
4.817310
-7.808601
-2.478392
6.954150
-6.924304
-11.221069
19.133783
6.914732
4.649715
12.571385
-18.799386
-14.467751
13.187222
11.890909
-7.346263
10.164668
-4.481487
-9.860204
-6.162062
3.760769
11.342274
-13.247643
4.629827
-14.953825
-1.460353
11.712888
8.687032
-10.062820
-12.992987
10.906156
18.573247
-5.112563
6.451077
-10.382243
1.311282
9.407586
8.402918
9.973941
2.573449
-8.755505
4.446694
13.532538
-10.646257
-3.917081
23.260879
10.627186
9.794829
20.439305
-14.535488
-16.103355
0.727513
-12.435441
-0.326379
-0.586882
-1.970537
-19.310057
17.983862
2.714259
-15.158003
3.794956
-8.506663
0.861164
11.667514
9.980506
7.452052
-4.931581
-17.545118
-7.233788
-2.399093
7.752474
10.582493
-15.355012
21.868230
-12.236866
4.759245
31.836997
-11.699317
-1.655785
-3.613495
-3.885476
16.639808
27.354218
-0.516411
-5.888626
11.814678
1.282643
15.393989
0.686648
10.715277
11.809084
14.672330
6.104360
-7.490499
14.799910
0.587593
0.798634
16.486663
2.743287
-17.309587
7.931982
9.945297
2.878832
-3.023930
10.438303
1.322725
11.564622
-6.592085
0.280353
-18.346352
5.573247
5.322634
-5.808775
-3.376687
-13.382342
28.204768
1.581817
-2.342417
-6.804196
-12.021825
-5.309732
17.122547
-9.608719
9.777633
-14.021196
10.097566
-3.474635
-1.123480
-5.902655
5.651759
9.145452
-18.242706
-12.412228
-20.606310
26.596666
2.779047
14.421657
1.255157
2.248776
-16.917009
0.202300
-10.708690
0.630545
12.374527
-15.353500
-17.629301
-12.979215
2.196988
-11.893745
-8.696423
2.795755
2.586601
0.751366
8.159770
-12.045755
5.907754
-16.754483
0.764896
-7.446363
8.112177
13.094464
14.055170
14.462800
5.328416
-1.605221
14.293083
-6.260476
5.430322
-4.524264
12.160560
-4.298420
-9.265999
-8.267978
8.176639
4.722716
0.754171
-1.136462
12.040481
8.942646
-11.699517
11.986886
13.837100
-9.378621
-7.186068
7.934268
-3.296522
10.479474
6.317420
-12.334774
-2.361044
6.073997
9.329586
-9.836077
-15.396371
4.692078
0.821391
4.530422
8.203999
6.514591
-14.640319
4.795599
-9.160933
-5.886671
4.870127
-4.645087
10.924870
-10.930008
-1.217469
-4.219041
1.440937
1.149380
0.195897
5.549286
-6.885599
-11.256145
-8.820489
0.192793
7.077442
-2.588673
10.213404
9.293282
-16.167911
-0.787439
-10.884841
6.895670
0.004545
9.393271
-1.960797
17.500665
-15.687923
-2.810735
15.466936
-20.165638
-2.792434
-9.929138
-6.514088
2.517747
-25.693174
9.350161
3.420961
-6.298213
2.385002
17.191231
0.910343
2.888054
-2.729822
-18.648346
5.606630
-13.448046
11.627614
1.456571
2.161463
16.831988
28.088143
5.471799
11.105389
3.478739
-7.492321
3.417679
-1.558399
5.656261
-2.989699
15.343252
-5.690125
-10.223702
6.426494
-1.494385
11.933485
5.095219
11.961808
-11.331500
-22.015672
-0.062270
2.789328
5.808813
10.883700
3.478477
-4.428297
4.265620
-10.105330
-14.127187
11.701435
6.253675
2.930064
4.912115
-3.163088
8.208007
-8.875252
7.471879
-15.051003
-4.509051
9.976294
-14.404661
15.691130
3.650190
1.860686
-15.928165
-7.209834
2.520198
-16.898213
-5.672168
15.902574
-1.998394
2.065421
14.849023
9.407834
1.906299
0.685048
-9.078532
-7.574543
1.353762
-2.167128
19.513989
-8.693458
4.169656
-16.034182
25.447306
1.057383
-13.331987
2.281113
-6.399848
3.847593
8.119145
18.243668
-3.428933
-4.543497
10.655637
-10.116242
9.901932
6.414021
-1.314846
7.875724
-4.159965
-11.100714
-2.996994
-3.260885
-10.107827
-5.563119
-14.967616
6.470616
-21.026535
17.532744
-19.828952
-12.534840
14.313515
4.148302
-6.317626
-18.229390
-0.021324
11.613144
10.489076
12.583844
-5.767378
5.410478
-7.423125
1.640505
6.821332
-4.787908
8.988374
-1.405562
-3.001757
-21.344452
15.097464
-6.680115
22.035422
-0.487543
5.815551
2.907837
9.486316
2.163221
6.866937
2.388798
-3.915337
3.931792
4.488366
6.154573
-1.793879
6.107129
-17.410874
4.056963
-1.564749
-2.511369
3.066329
-18.809702
-5.446766
-3.648516
-21.253898
5.769997
15.037755
-16.889250
4.349302
1.629553
-3.315382
2.794060
-7.842072
14.930611
24.144274
9.146856
-5.411770
-2.582286
-14.971667
-1.023403
21.196614
5.107343
8.769658
-7.253490
-14.205151
8.320431
-2.161935
6.013380
-9.652140
11.813525
-7.668531
-6.994715
-0.118846
-0.768580
1.709190
-3.120295
-0.626987
-11.690280
17.599166
2.571573
-5.786921
-9.757947
5.890749
-8.075222
7.375805
-5.042554
-4.786724
11.171384
-13.424560
9.577746
-6.660685
-0.401876
-0.316067
-3.527659
-5.457192
-4.433366
12.207552
-2.287318
-1.899615
9.528976
6.600974
-10.359688
-3.170543
8.006604
3.694107
-18.358067
-1.470742
2.745075
5.469208
-5.159073
-2.091903
-0.387775
-10.309820
4.992030
5.004889
5.840393
-14.894329
5.186661
-5.643442
-2.640183
-4.863413
14.472560
-8.332196
-4.531800
8.550517
-2.226295
3.884505
-1.598629
12.085780
-0.488166
-8.604725
11.461311
-17.814300
6.925658
9.878452
23.021826
-10.126036
-5.481719
3.502069
-2.511533
-8.166804
-0.063627
-0.817154
-8.650203
13.441148
4.822222
19.885477
-6.206350
-4.290634
-4.589395
-7.609834
-17.637596
-12.291458
-13.165129
2.075475
6.354028
-14.791992
-11.633082
-9.617173
-11.778450
-20.334147
-11.488346
-2.801916
6.184581
-4.981617
3.248222
5.353678
-6.553338
-0.451498
-15.129224
-13.644841
-1.953853
6.591371
-10.271551
-14.369115
-10.066385
-1.672029
-17.324416
14.489794
0.756236
-2.610192
-14.069508
-0.687394
0.601790
-0.055325
6.855529
-13.553874
-7.608325
4.388750
3.720807
-5.719297
-1.468416
9.337171
-7.886598
-27.238057
4.888317
5.097275
0.806747
16.895218
12.056546
-1.594212
-5.040769
-10.286044
5.378876
-8.396572
0.519995
8.713535
-3.401233
3.016145
-2.825976
-4.572863
-10.306561
-2.844999
13.543898
10.096020
0.784180
0.216329
5.684631
5.095962
-8.758175
6.765832
-13.664910
-13.018401
2.104637
13.330810
8.728395
7.221685
-14.881685
10.249004
-6.500098
-0.805177
-3.743393
7.014383
0.568331
-6.762399
-10.968644
20.052152
1.187666
15.569704
11.655342
14.458983
-14.544180
-12.635628
-10.081817
-1.559992
-9.330075
-7.660445
0.404876
10.868221
-3.187491
-22.763625
3.991919
13.924760
-0.816723
0.715961
0.258554
1.235242
-19.370975
-1.689275
-9.957804
8.959488
-2.329546
-8.059167
-8.203661
9.689389
-1.127997
8.715931
-6.849085
-19.481508
-28.106268
-2.768764
16.020488
24.509112
11.942095
11.366667
17.117643
-5.569225
9.301170
-4.552021
-1.310673
3.539107
27.391751
-12.973911
-1.038284
16.228381
19.072747
-8.328294
-9.610340
-2.159239
-14.308571
-11.749399
-18.186071
-5.076732
-11.626284
5.958122
1.828837
-9.795669
-2.909623
-9.944576
-11.677486
-2.567990
1.319289
2.100064
6.365487
5.709176
-7.868417
-1.755765
6.176975
8.854244
3.350434
-9.756618
-15.297867
18.539880
-13.476953
-3.841984
12.134206
7.067288
-17.958739
1.819700
18.162563
18.717615
-3.328482
-6.970356
-0.308892
-7.691082
0.326856
5.513064
3.028238
1.549215
-1.932321
-12.707264
-3.966014
-4.997173
3.467354
-7.079419
-7.316333
15.607803
0.662410
8.034824
2.846518
1.432027
2.202433
-11.308466
7.460513
-1.736197
12.760555
13.456672
-13.821729
-3.938480
-4.482535
-11.910170
-10.977329
0.142011
-3.316000
12.784695
-2.368504
26.550749
-13.075529
1.615171
-4.508467
7.587000
15.227671
-0.530740
9.962804
21.532521
-9.734839
5.171347
7.141324
-8.174138
4.135494
8.340435
9.685448
3.926960
-0.898913
7.243929
-14.774719
2.502443
1.982663
-6.900594
12.993153
-2.496852
5.633890
-4.817827
-9.498587
-11.725123
22.070178
6.241375
17.612851
-23.678775
-11.333623
-0.866769
-3.810840
10.220359
-7.386407
-19.777432
0.289080
-13.255330
-4.410526
16.142423
-19.837340
2.001067
-1.342846
1.846002
19.354833
8.612266
-4.930921
-6.629628
11.654082
-0.787303
11.582833
-15.277768
-0.303158
-7.949353
3.629185
15.671294
-2.696936
-2.271455
-21.074232
0.136889
4.863189
6.848896
-35.934948
-12.761480
-7.970248
19.741001
0.774070
-16.286060
-14.303492
-7.694972
28.645118
-6.127567
-0.204599
1.016169
-14.384472
-3.221368
-1.552440
26.668828
-10.734605
-8.117738
-2.867192
3.508659
-15.470410
-14.475645
1.112918
-7.213044
5.928054
-1.159509
-14.180982
1.436667
-3.433258
18.045061
-13.258106
1.310609
-7.585114
1.736697
-9.669161
1.422321
2.298262
27.350634
-8.735846
14.745066
12.429623
-5.683343
-8.556636
6.171683
7.160953
-17.046188
-0.298911
-14.135358
12.822778
18.263274
-10.197700
-2.165072
13.107592
16.819450
18.195922
-7.541664
-15.660518
-2.204525
6.378879
24.260822
1.628475
-10.220775
-4.199727
-5.811715
3.781969
18.939161
-2.853757
-25.503792
-2.037783
16.729507
-2.081041
5.818203
14.263207
-3.448360
18.649563
-4.989595
-11.915790
-5.679545
4.215980
-12.379368
-16.472215
-7.887868
1.889063
4.332295
-10.033778
5.501716
-5.631741
10.097435
5.417756
4.484037
1.369836
2.083598
-0.569581
9.472524
-1.126157
2.510545
9.015296
0.385394
15.441548
22.002068
1.635343
1.926997
-9.924511
-10.289799
1.827254
4.540604
1.208837
-17.201613
-18.175271
-28.100129
-4.991623
-0.106314
-9.695881
9.888172
16.349621
12.132107
11.070243
0.097004
2.483548
-11.153331
2.975104
-18.759908
-10.717688
4.070597
-7.997798
-23.227347
-12.283945
-13.425177
6.154206
-16.136525
20.234517
12.527643
7.836616
-9.447344
3.427486
2.011545
11.258003
-7.806057
7.267800
-6.479157
-9.840073
-15.436640
7.652883
-10.870472
-3.101621
-13.215649
-13.123203
-8.514050
1.394871
-2.164259
7.503115
-17.361414
-14.765200
-4.729206
18.659020
-15.290743
-11.914048
-0.677944
3.889306
-3.844489
-15.156216
7.647924
8.189249
-6.965135
11.012162
13.702806
-12.395911
-18.522195
-3.375873
-25.317772
7.306432
16.331924
-8.392905
-8.796897
11.844983
1.012190
2.524927
-5.242098
9.898376
-1.570068
14.205371
8.711994
11.899119
-4.770654
-12.398291
-11.977008
3.550484
5.606194
-0.029052
-10.673765
2.264977
5.949495
-12.049824
5.059050
3.328270
1.681669
16.701303
-12.508938
-9.473913
2.890083
11.624861
-12.297965
-8.315480
9.606864
7.482612
10.627067
18.599506
-14.549993
16.145186
-6.455031
-4.996885
20.709355
2.542194
17.642714
-2.945136
-13.907392
25.606696
18.362189
-4.519311
-10.129386
9.559824
1.499315
1.686972
0.798509
13.319104
2.507546
-7.535399
11.854021
-5.317761
2.372974
-12.570461
-17.659930
9.797979
-3.025755
7.010448
3.361055
6.690503
4.768105
12.114048
-1.188097
-13.253219
2.056961
10.918843
-0.307639
6.766179
9.891329
-2.371331
13.886394
4.486723
6.200762
-7.181615
-5.504728
14.015591
9.237185
-10.497009
2.177988
-1.775225
1.885716
-5.203964
18.284655
-4.806482
5.223481
-6.016866
15.181201
-7.581685
-17.342094
20.135555
-5.146174
11.298593
-4.926411
-8.668155
-20.686778
-8.898063
-7.611012
-8.307036
-4.340991
8.302891
15.137017
10.878115
1.805580
-20.142124
21.290884
-20.079989
-7.374583
0.550040
-20.169886
27.783942
-0.991686
0.221389
0.530070
6.013728
4.760993
-4.713704
4.727674
17.969454
-8.587656
-4.190828
4.119043
7.007928
12.881608
3.579620
16.241279
6.741179
18.644475
-16.174503
-5.745647
6.388902
-0.997917
0.945260
-16.713477
18.132331
5.980779
2.568603
5.593229
0.877978
1.320066
-1.330757
3.301755
-5.790297
-0.711809
-4.608696
5.081586
-7.671623
-5.373827
6.273381
-7.434297
14.148383
-16.760076
3.560315
3.107197
-18.317457
-2.302457
0.934223
-6.034062
3.171939
-6.815962
4.593353
8.610404
4.190285
27.283749
3.404579
-3.416658
4.961890
-1.337810
11.264219
0.518364
-2.969560
10.883631
0.665741
-3.764018
8.536637
12.470548
4.347804
-3.434590
-9.195322
11.392801
-28.307537
-5.135302
-4.239774
-20.148990
-16.699671
-5.690627
9.145461
-6.498495
10.482541
-3.086994
11.134378
-2.332957
6.128008
10.096877
7.396346
7.177631
-9.804137
-2.818716
-17.418578
10.829560
-13.592037
8.402810
3.726981
-5.542114
-2.153283
-20.557961
2.689094
3.760718
11.594210
-6.406975
-7.456276
8.491295
-6.368877
-25.889062
-2.483035
-6.001414
-21.843733
-16.954710
5.072881
-22.073841
3.515899
-8.158939
23.293167
-7.684135
-2.142699
23.284499
6.032792
-13.833996
18.568922
12.911209
-4.766536
-10.606099
26.172365
-1.252707
17.784728
16.741485
-0.536603
-4.061434
8.066778
10.301698
-8.290473
-4.879961
-12.084283
3.929694
16.440556
2.178549
7.728733
0.645913
1.654567
-21.026724
6.990765
11.417622
22.392836
10.977954
-4.868982
-5.739722
15.602357
6.856041
0.713455
23.944795
0.940287
-17.393221
-3.187556
13.711486
-0.771281
-14.400826
-4.862087
-5.607066
-19.682015
-15.803822
-1.148466
0.081226
14.981662
10.570178
7.755666
7.904183
-1.933143
-0.844673
16.187701
-5.104622
-4.289020
1.988615
0.273850
13.372784
-1.113091
5.698833
11.917577
-23.294419
1.143781
-0.033987
10.848658
-10.573504
-6.268504
10.060590
12.187950
14.496551
-6.154380
-13.940927
2.050161
-2.091736
3.448293
10.359559
-3.969310
2.183906
-3.873494
1.960737
-5.239170
20.789278
-3.566971
9.206402
2.330427
-7.535434
-0.045914
0.994378
8.498025
-2.294133
14.373012
-0.052559
-7.591458
-4.694649
7.187016
0.294416
-14.641291
4.059745
-12.860528
7.707472
-5.405028
5.244026
8.414358
5.656132
-6.760564
5.454484
1.613494
2.198851
-9.253629
7.714946
5.058400
-7.511219
-4.277037
3.401387
-0.139575
-10.007174
10.070597
-0.228933
-4.387877
-11.171907
7.523661
4.311444
-2.675540
-0.938368
-0.576850
-11.339535
-17.709134
-4.989990
7.928318
-25.722768
-1.116471
7.896629
8.503311
1.747380
-9.549491
-3.737609
12.888673
6.850767
-6.047912
-3.939569
-2.470981
3.217859
4.131922
-10.016035
-3.099970
6.211192
-0.194053
-9.184143
2.359347
4.896348
14.063922
11.544137
-16.329294
-14.288981
-4.711516
-8.711061
4.737634
11.360656
16.044201
8.793988
-14.724762
5.507476
4.714614
-3.040011
-1.049098
-13.184211
3.934360
10.665176
1.774209
-4.921930
1.974354
-11.662587
-5.158244
3.247117
17.607271
-1.360722
0.528940
6.634928
20.676402
10.180813
-5.220375
-4.162796
0.672167
5.263271
0.013942
-1.887899
-9.187449
-19.117200
34.056595
0.938412
-3.910609
-3.834305
-7.435359
2.365051
-10.443022
2.368808
0.989963
3.689852
2.451469
-3.672285
16.052971
9.330328
8.412095
-8.408651
1.714995
5.761988
-2.128375
-1.878358
10.361872
-12.992929
1.308795
-2.856729
0.276843
13.969921
22.181370
0.003099
-6.977128
-3.117320
3.554754
13.253507
-30.922728
-7.511835
-4.488521
-2.323524
7.550351
6.501310
9.983812
0.726648
-3.387439
-21.748161
-13.546539
1.765674
-1.312159
0.496088
0.283235
-3.102945
3.922608
7.181232
-19.995311
-13.327946
-3.346981
-12.355316
-11.907421
-3.453743
-7.080447
-8.305304
3.909662
1.496324
10.723943
15.617262
9.579079
-8.055655
-4.878016
-2.916973
-2.217034
-1.103785
-1.714110
6.151912
14.351159
-3.183958
1.209082
8.154436
2.809595
2.484878
5.778999
-15.164131
1.792500
7.204944
5.169540
2.478376
3.730433
2.810659
11.434053
-13.730441
-7.335885
-10.458023
6.567957
1.573592
7.894479
-5.867395
-4.799599
7.021975
-3.996722
11.673210
-17.132936
-9.671307
8.353424
2.388941
-15.004111
-9.131935
2.262141
7.943468
-5.498837
-2.526937
0.415095
-10.825218
-1.817564
3.943256
-11.749397
-1.592438
-5.463407
17.653630
-14.358417
-6.672204
-6.881329
8.068509
18.179177
-6.976818
3.722417
0.672552
-11.473921
3.008236
0.331535
9.045818
10.623789
-1.270309
-11.189932
4.675891
10.329515
6.269851
13.836648
5.277678
-6.937823
7.951233
2.832836
-3.372912
-2.383379
-10.464442
-1.466173
7.471776
-3.852583
19.300797
-3.663336
5.702933
25.596902
-0.209078
1.953251
-24.663137
-10.251004
-10.104430
-13.957364
2.578012
-1.537207
-26.350454
-14.542833
-15.841310
-11.948286
10.939972
0.324789
-4.975750
-1.197537
2.799755
2.766766
-1.487291
11.037034
2.635027
-4.219028
-16.331566
3.617404
8.628474
5.544929
0.935519
5.822890
-11.703070
-4.555180
1.438707
2.756636
-23.132564
7.891500
-5.488098
-5.506255
15.306968
-22.498895
17.265855
1.166231
-7.003027
1.707814
3.365568
-4.469169
-17.334106
-3.906261
-14.825004
6.850357
-11.270689
-6.760076
-1.365334
-5.545584
-3.714475
13.966677
20.733392
-13.287685
-10.154029
-8.678479
1.374605
4.541497
4.466966
2.506977
4.433910
-13.629539
-7.257583
-9.858455
3.082352
7.538173
-6.953777
-24.571122
-21.688048
5.969899
20.034459
6.366342
15.297414
-10.375833
-0.831248
5.451269
2.580826
-11.012909
4.001997
-0.341115
8.183569
-10.558780
9.618115
-16.649361
7.990761
-8.342669
-15.299462
-0.743123
0.546823
-1.930987
-3.754012
-9.326469
22.062321
-10.069026
17.470787
25.380147
-1.487489
3.317577
11.616261
5.661301
6.436480
14.183849
1.300179
-6.904388
-10.029850
15.332233
1.023303
8.891196
-13.218563
-15.744325
4.768439
-13.821031
11.386115
-1.819850
2.225190
-0.615300
0.819053
9.138642
5.861983
0.792170
-0.504840
-19.567235
3.820869
2.920632
-0.626361
0.928187
17.791466
0.604878
-0.081173
4.675982
3.340268
-7.803266
-3.687258
-14.197019
7.836578
2.632389
-12.856021
-3.863782
5.778826
-8.309898
5.753964
-9.472889
-2.115934
0.094348
7.697939
-1.873001
-8.419484
12.151566
10.671168
5.443802
-2.060989
-5.726341
-3.869965
-2.041873
9.554169
1.496946
16.738042
1.397029
29.230901
7.266217
-0.657775
-7.716912
-6.196476
7.501307
6.193860
5.030106
-16.273996
-14.739233
-17.857334
-7.058531
12.640652
6.531376
-2.781575
9.520334
-1.276913
-11.866771
-10.636842
-3.896223
7.595560
9.280968
-8.408668
-6.807694
-5.256773
0.276463
-4.048912
-2.308983
-14.506433
-1.732644
-3.397817
-8.768894
-3.081695
-5.426555
7.962147
13.727096
7.032662
-18.189388
13.453575
-10.722568
9.765471
14.743105
2.072968
-8.050476
-3.481248
10.795993
5.834498
-7.810248
-13.864912
18.335671
-3.933215
-8.048364
-9.171750
5.854186
1.170220
8.904621
2.450642
3.080420
-9.044401
8.143031
-18.114920
17.492219
-15.500952
-7.990012
7.176077
5.995316
-11.073233
-15.717620
-3.613598
-10.108430
14.674373
11.702529
29.668887
4.213211
-18.534219
-0.721842
5.766961
13.289062
-0.375337
30.793965
-12.082825
1.566290
-14.056400
-5.564026
10.384574
1.912028
-0.698754
-2.420492
5.097563
4.404444
18.241196
-5.401591
1.020830
-1.849281
13.633495
-7.575978
8.216206
-8.885564
-13.990262
2.044692
9.004615
-5.509668
18.664371
21.145109
16.954639
-18.114391
6.450556
-8.038255
-0.452069
1.533816
1.891743
6.227987
3.533541
-15.594142
10.331526
3.627088
-8.753470
-18.196960
-13.966920
-7.624949
7.979234
21.120825
6.369864
19.342273
7.089576
7.797417
4.674314
4.231016
-3.390997
11.292790
4.793282
9.137376
-4.306192
10.858353
1.756869
4.762990
3.533390
-6.843104
-10.662963
4.819629
-3.371504
-10.029600
16.314168
-4.845411
13.540948
-2.001017
-5.552834
-1.875895
-12.812669
-0.252555
-6.967031
-5.546823
-15.604075
0.778124
-4.947596
18.648351
-9.443354
-7.953013
3.403087
-25.994715
-19.701590
10.186954
-13.547134
24.096292
-21.699939
-12.160807
-0.728640
-5.392076
0.932295
-9.065518
9.065128
8.069380
-3.770231
5.348509
-8.743787
4.007985
-2.913636
-16.316086
21.674622
12.228887
-19.519639
7.579412
6.483405
-8.176008
-3.663675
3.261630
6.778179
-3.237696
6.405221
4.449269
4.788324
3.033264
-11.585719
8.133262
6.816843
14.837318
4.262057
0.692308
-14.818763
-20.417722
-3.462750
-18.207555
-4.515712
-0.325096
-12.913923
-17.997103
-2.473413
3.638083
4.287219
6.858785
7.058809
29.157969
4.119998
2.673752
10.294310
5.338328
8.936558
19.172854
12.534474
-13.367166
2.598161
2.080595
-10.981310
-23.749268
16.428918
-0.465745
5.292276
-1.089066
2.647795
-0.666008
9.184963
-16.336635
-12.532290
-5.401137
2.789199
2.910590
-7.390268
-10.323246
-8.321618
13.902593
0.302169
-2.539717
4.121134
1.847618
-18.066035
-7.696631
19.997540
-14.564428
6.930835
-7.377551
-2.975058
-9.257885
-7.943940
1.756769
-1.544311
5.067985
2.882428
13.121508
-14.155390
-6.995381
-6.800710
30.867577
-2.745119
10.960086
2.900718
11.560699
-8.600329
-10.746350
-10.787186
-16.605433
-6.419998
-1.334831
-5.291130
-1.133914
-6.988035
4.606096
4.210113
8.442352
-0.260245
5.556380
-0.754812
1.163923
15.867578
-12.940133
-3.069235
-0.972208
1.150195
-14.797771
17.819706
13.977973
-4.492219
3.309233
12.035967
-8.685449
4.987986
20.807888
3.172452
-7.961715
0.363835
-23.050443
-7.971726
8.602057
-8.001709
2.720847
2.520041
3.589720
-14.995858
0.889423
-20.861513
-5.974610
7.800664
2.835998
-6.796859
8.340872
-11.980916
11.878342
-17.403232
-9.268088
8.236824
10.337344
10.315198
-14.912380
-17.764984
0.595500
21.907066
11.088438
15.773359
-3.476170
-9.553368
1.498744
0.643804
-11.396175
-1.022322
-5.349475
-19.901729
-8.753299
6.420449
-9.578156
-4.768861
-12.154023
-6.333223
7.343781
-0.386632
7.539525
6.151392
-2.438367
23.045128
18.383470
7.441275
-18.903370
9.544870
4.683721
7.596637
-2.566724
5.962675
0.893854
14.317236
4.325898
1.552211
-10.373935
-4.370694
6.301907
-4.690817
5.954250
7.072216
-7.550964
-11.893084
-1.613053
-21.723435
-12.446628
-14.974731
-2.548526
17.962790
-2.836667
-19.557610
7.556892
-0.554370
8.816111
11.823943
-2.752285
-0.137295
-9.803582
7.135276
-0.474836
5.926545
-2.592026
0.501695
1.355787
0.025462
3.349111
-11.870564
-4.869454
-12.667514
-7.860606
8.378535
10.750424
3.945438
-10.461123
-3.329514
-2.382290
3.597112
2.877576
10.054382
-11.777624
5.241203
5.430199
-5.217634
2.420213
-17.010165
-3.205194
-8.036637
-14.358066
-9.455879
3.597776
-0.284041
2.397531
6.878402
8.314949
-15.401279
9.049953
17.492086
26.694208
-2.195834
-9.934944
3.170159
-9.993541
-15.047260
4.423791
-17.484103
0.158336
-8.090192
-8.013889
0.609922
6.328079
11.941233
0.309144
-4.959264
-1.692455
17.538816
4.955626
6.130780
3.632750
-9.415985
25.037011
0.850831
-0.620189
5.163732
17.375071
-9.006861
-0.758257
11.506820
7.694692
0.832083
-0.116876
2.887253
2.620299
-15.803086
-10.131242
-10.476380
3.428433
-0.888314
-9.949222
-17.904439
-9.449830
-20.103996
-1.850693
16.763078
10.105263
6.267319
-0.149763
-13.084518
-5.098546
-7.332679
-6.814855
-3.336643
4.666915
1.012547
-8.562985
9.439229
-3.459416
25.094121
0.688523
-15.554567
4.902466
5.890048
-7.133438
7.276688
3.697556
1.846986
-0.642739
-0.861448
-14.304174
2.087091
-3.863631
3.834050
-13.511205
-7.372777
-8.001731
-3.842235
1.514678
7.518734
-16.893235
-20.428289
8.485818
-9.121260
-3.718287
-16.951248
-9.056392
-0.201510
-2.652569
13.517669
-21.159319
-5.323673
15.421407
-17.242604
10.341400
-1.524317
-9.606636
8.416640
10.012038
-2.202039
-2.526691
2.771106
-0.460041
-3.512730
5.850540
8.699474
11.735192
1.968092
8.758138
1.746320
-3.767626
-10.276695
-23.948810
8.888692
10.636322
-5.143717
7.367797
4.823196
-7.803397
-5.045728
0.869728
3.916282
-5.941463
-3.261700
4.178443
2.301645
1.976076
15.559312
-13.179738
-5.300544
11.590842
12.518449
-5.801263
5.587901
-24.805628
-8.678398
7.486277
-3.458314
13.066610
-10.050821
-11.491638
7.570893
0.939259
-1.604425
-15.645846
8.706459
-7.506482
0.798914
-2.280346
5.488357
0.031774
-7.883343
-4.301169
13.352712
-2.261427
-9.527719
-3.962326
-3.106344
-4.889589
10.912908
-17.605451
6.072149
3.604837
15.928551
-23.224371
-20.817881
-1.985262
-11.759023
-22.488419
-14.844617
-7.930883
-8.575081
5.988798
7.340400
6.448411
9.530158
-2.723477
-9.742454
7.874475
-9.652805
-9.398985
5.598401
8.790720
-0.992052
-6.265139
1.848674
-8.203966
-9.303284
-12.683974
13.032776
-11.066944
17.846008
2.681437
4.886743
25.459337
-6.290514
9.310287
-23.941661
-5.913529
-5.583276
6.864285
7.406598
20.826330
-11.552555
-2.109404
5.243860
-22.022939
-12.242583
0.566124
-2.724052
-20.490675
9.781078
-7.419417
4.495060
-10.628016
7.836190
7.841223
-3.530237
12.432241
1.058698
-10.022938
-2.454600
-3.486889
2.245627
2.513552
9.960913
6.074294
-17.818220
6.895400
23.052134
-2.330261
3.091707
-1.432730
-4.151644
-5.317479
-8.913998
5.431794
-4.904448
-18.098442
18.237895
6.644057
-2.751891
-9.395561
3.857681
-3.733457
16.612490
-1.169611
-1.662423
-12.608776
0.963335
-20.368770
4.392817
-1.256258
-5.261162
18.753426
-30.528758
-4.936114
-4.673078
-2.063564
-2.297320
2.254375
2.720627
-14.462272
6.561676
3.820687
-10.359864
9.011530
-8.502509
-4.514016
5.982381
-0.917275
-10.451545
0.937617
6.298288
-20.514233
-9.073417
0.483286
-6.707102
-29.908988
9.508255
-17.868522
-2.565896
0.584177
-2.059610
-7.439934
-9.731748
-2.007278
-17.574127
-5.981100
-23.481674
-0.851974
5.299040
-20.333074
10.461289
-1.179818
10.770079
-16.870357
5.646532
13.101749
-10.574226
-4.295016
-5.118909
-4.126156
0.865401
-6.421725
3.748418
-9.519532
-5.742798
5.296352
9.365069
7.254823
4.154926
-5.757915
-8.639530
-5.047748
1.637870
-12.828854
-1.993506
-4.343270
-16.626123
-5.152823
6.643425
23.159424
-12.656370
-2.518001
-14.930424
2.152097
-1.032201
-8.081836
0.312444
-3.473466
3.222890
-11.043465
8.395984
2.864894
-3.211928
7.779403
-9.479557
-8.681448
7.208385
1.556205
-12.723865
4.337140
4.057191
16.853389
7.646796
6.360272
14.405728
16.573056
-0.870811
-5.233801
12.445298
3.306890
-20.325434
13.899226
-2.163561
-3.496002
1.456022
-0.223915
-21.069169
-4.710234
-22.026432
-13.598762
-10.603090
0.714121
8.497971
4.680537
-8.866614
6.554746
5.856274
5.798599
-5.184164
18.194083
-16.789813
-23.656539
20.336813
10.821483
-10.266247
-5.239456
-16.716485
-9.253219
-2.835877
-8.468201
-24.514817
5.101903
2.812830
-8.281606
-16.028217
11.730025
-6.446908
-9.705602
5.585734
-18.955383
10.890815
4.947100
-8.517113
6.269809
-1.057929
-5.132295
14.999113
-5.903405
-9.683113
-8.480594
-2.694641
6.087664
3.720127
9.569835
-7.466616
15.950452
6.859769
-9.242372
0.235101
8.682917
-15.616477
8.102973
-10.083281
-15.958688
-4.233432
-5.575396
-11.457076
-12.213931
-1.986942
-4.578181
-11.450258
4.016987
19.252469
14.922858
-3.734983
-13.142215
6.218922
-14.988279
-12.644699
-10.537123
-10.110547
4.844571
-8.121899
-2.621488
-7.368877
15.168465
0.293802
20.833297
-10.868256
0.322072
10.296568
-14.850087
-5.147627
6.813758
-2.237182
-13.110052
-7.487928
-13.797069
-9.237918
-18.942623
-3.533090
7.729324
-15.018082
11.504202
0.193194
-20.481673
-10.670772
-14.963405
-2.187525
-5.063230
-9.510711
-13.501726
-10.480005
-11.453994
5.037775
2.489479
-2.975213
-2.600680
21.906462
-37.898777
0.026275
6.435200
9.298101
0.050565
15.336843
-7.402417
-0.935425
-9.436006
-2.615214
-2.682550
3.027186
6.194621
8.277230
-1.200025
-2.722927
-25.413722
4.778084
-4.985329
-6.742948
-3.096628
-3.770051
-6.868831
17.549817
-6.004906
-11.879727
15.420716
-3.097913
-3.858360
23.377100
1.768161
3.673660
9.860670
0.459256
-14.834472
-3.911161
-10.577115
-5.453126
3.927571
-9.634092
25.425053
-16.849471
-7.166511
-11.970358
18.825117
7.340306
-9.539974
-0.209475
10.735135
-5.676761
20.190269
-12.318023
2.792721
6.748454
-5.809518
-8.550875
-2.687044
-0.151867
-18.948142
10.897820
-8.542111
-1.840185
0.163338
-11.181264
7.587575
10.107692
0.962084
-12.561039
-5.526349
-2.647814
-2.666928
-3.834265
-10.686542
-11.971378
-2.919859
2.242464
-8.059481
-6.126875
-9.919409
3.414728
6.868472
-5.374576
0.800146
-4.074520
-9.523621
-12.082302
5.001224
8.523813
33.531933
4.845588
0.021192
-3.587709
1.944751
-0.434533
-18.936930
-14.934734
-15.125081
-1.436171
-12.105335
0.324194
-7.980801
-1.032396
5.738741
-6.752663
3.592409
6.399415
5.738080
1.481002
-4.637357
22.162111
5.440862
4.434841
12.240929
18.121178
4.152507
2.172529
-10.901094
8.902313
-3.871451
0.747062
-6.925845
-5.684182
4.084046
7.151247
6.941197
4.258641
9.040898
11.301894
-6.574217
-0.966176
-2.788383
0.544324
16.358712
-15.520382
6.830845
-6.951097
4.461946
0.418595
-8.692074
-3.559464
3.609302
-8.377936
7.274120
3.821867
3.657563
8.758875
6.841050
0.413078
-10.333041
11.004219
-1.050938
-8.291452
-4.468671
-12.446875
0.023999
-11.617587
8.813750
-6.174830
12.073424
0.993164
-1.441574
-14.682927
-16.275481
-6.285147
10.927049
16.196237
-5.912952
17.998128
-12.664163
-15.317502
6.982659
-1.235820
-7.479979
-5.994055
-0.934035
1.252725
-2.349523
-6.460503
-10.438093
-7.139001
6.569567
7.332709
-2.904864
15.837554
4.792159
7.925916
2.882451
3.186445
3.173310
6.574134
-12.644025
-16.433983
-6.925780
-11.262561
-1.851281
-16.818893
-9.533654
-32.034375
13.519001
-12.938130
-2.735179
-5.106419
6.213685
-4.121390
-2.420626
-14.260965
-6.242742
0.163183
8.083370
9.899763
11.110256
-7.346205
-3.974395
-15.098662
6.953852
-17.223646
-8.808601
-1.936465
-4.946390
-10.663258
12.014812
11.034592
-11.442308
8.952991
-4.822770
-9.412711
9.714987
-6.196799
-5.388133
-8.295843
-8.164663
-2.218776
-15.385865
-4.255706
-15.023780
9.456009
-10.825375
-0.737984
7.271215
-4.361588
-2.353174
12.333125
-11.343723
-11.468026
2.967087
-19.958468
4.966607
-9.034205
-3.313985
9.310212
23.589583
6.565814
6.978314
10.783706
-18.068097
7.312278
-18.819630
8.658719
-13.343206
-7.994242
-6.428471
-4.985101
6.590414
6.672137
8.032955
-11.967694
-1.849401
-6.820987
2.964454
7.968755
-7.662712
-0.013692
-4.301459
0.090462
13.074379
-6.315924
-3.409856
-20.796550
-10.819377
3.444942
5.901305
8.998541
5.892414
-1.765974
2.424044
-12.696498
4.221227
-5.363204
4.889292
13.549693
-14.849234
-15.069863
-1.761935
10.935164
-3.812288
-7.203355
-20.354733
9.595086
4.226470
-5.684256
2.627426
14.229713
-5.473769
9.137859
11.975084
-6.915012
4.126879
-9.484168
-1.013919
-20.265902
6.496440
-12.312193
6.118266
11.114329
14.526141
2.425990
8.064133
14.036117
-2.775533
2.624375
-2.233794
4.796756
4.915235
3.293851
-8.777259
-9.615030
-16.194532
-12.065693
-2.432569
23.929749
4.403721
-3.983890
-8.881210
-6.707185
-15.080448
-13.624309
14.205307
-0.646951
-1.449054
-6.628139
-24.066242
-3.611076
13.575430
-12.037373
-7.217953
-11.099424
12.121973
-8.212517
-1.141720
3.394745
-17.090550
4.691991
-0.177393
-1.016819
-16.459749
13.228521
6.618967
-16.614578
0.645374
-6.919533
9.220172
-1.087561
-5.791321
1.981574
-13.869463
-13.738791
-4.150868
-21.783807
-14.949627
-11.539187
-3.127385
-19.818660
2.415596
5.696561
-7.408560
-10.231347
-15.996418
-7.927625
6.772199
-12.415657
9.125269
-2.269414
-5.819581
4.818840
2.802053
0.815335
-12.083473
-16.174329
-3.044996
5.702853
11.646786
13.015167
-9.037514
0.909914
8.513108
-13.683392
-27.942295
-16.568651
8.384155
-8.472102
-13.858476
10.611857
12.035559
1.042039
5.161459
-10.925771
1.978914
-8.059758
5.916983
-1.641333
-3.975001
-5.304462
3.599350
12.030791
-12.785776
-4.267353
0.121022
7.850331
-22.220188
2.436416
6.291942
4.030520
-11.736890
12.672523
-13.257134
-7.897711
-5.958112
-9.354016
-0.125384
-6.348041
-2.221736
8.842271
7.841104
11.474742
-4.360493
-0.504445
17.737527
12.524360
6.895148
7.305029
5.026205
-8.861936
-7.348750
7.830504
-6.575551
-12.135545
-10.625817
-5.527937
-1.183111
5.854778
16.175259
-6.379910
-16.096163
12.888440
0.480086
8.468728
-13.826107
9.911335
10.507889
1.736490
1.271344
-4.119602
1.624960
19.709362
-13.290461
-17.740203
-2.405448
4.362931
6.942259
2.534802
-3.228184
-3.380486
11.358850
13.080795
-4.359051
-10.718929
-18.674136
14.735878
-11.659360
-24.275519
4.022338
10.152823
8.368681
-6.611465
5.834473
-0.963881
1.690069
-2.269612
5.101091
4.451409
3.622344
1.870231
0.062498
12.936971
8.605112
19.654783
-20.260525
-5.523716
-0.105964
2.975875
-14.689584
7.274626
2.657548
10.974904
-4.253754
-1.394951
1.954335
9.588846
1.651325
-4.998844
-5.137834
8.922156
16.649519
-11.516254
-5.860719
5.908223
3.392458
-1.565244
-4.693902
-3.031101
-12.507636
-13.217162
6.599461
6.952770
-1.332281
-7.649601
-6.898295
-10.895325
-27.982221
-4.555084
-12.465386
6.222477
4.705775
-15.017067
15.481136
-10.548554
-1.451803
-10.170220
-1.421316
-4.208936
-2.637812
8.675047
-10.978538
-14.938499
-7.370780
-5.852389
-12.575107
-8.433988
5.555225
16.521184
8.690542
-4.473225
15.717894
-9.469511
-11.565056
-14.215613
8.549212
-7.565158
-16.652570
-7.919596
-1.399470
7.846284
-8.814432
-0.208183
-19.630659
-0.039643
0.959524
-13.534635
7.708853
-0.891326
-27.088150
14.680769
11.282678
-12.132934
15.507874
-7.689275
-14.368209
7.394465
-4.627895
0.470785
8.999674
-11.678430
-1.208800
4.640134
-23.966176
-7.941518
-0.162360
-6.768383
6.543892
-2.546673
10.142045
-15.189152
-5.263076
-12.068377
-2.906619
-0.297401
-0.666997
-11.926613
7.398626
-5.269914
4.190536
12.888570
6.613992
-19.306701
-16.676031
7.139826
-8.687892
9.319511
-13.732127
0.310683
2.320344
-0.046329
8.110935
2.406233
-6.776945
-12.760594
-13.695640
-14.357574
-8.148827
7.278504
-10.075658
-15.772648
1.883936
-2.991218
-10.309548
2.114571
5.481635
-14.017529
0.100075
5.621587
10.084159
2.142675
0.829448
-3.181701
3.238839
-6.708629
1.839913
-0.011759
8.545037
-14.106566
3.781639
10.104468
11.337000
-3.172211
5.471510
8.747469
-5.595303
0.755569
1.457451
-13.641566
-10.918500
0.162681
4.121045
0.377329
-24.263239
1.770530
-10.527722
1.612441
19.592791
-7.653168
9.548525
10.786477
-1.944044
0.312115
11.789370
9.669586
-5.258300
1.943314
13.866063
-10.377990
11.132417
-11.451458
-11.181546
-9.262863
3.599233
1.991497
-3.989046
-13.828027
-0.437794
5.889054
6.506465
4.078326
-5.633566
-17.422983
0.495952
-6.692790
8.177589
7.817157
-10.115084
-7.039916
-3.183553
-23.172202
18.575481
7.762084
12.335142
-1.934494
6.313946
-0.767472
3.484907
3.601572
-7.887663
-3.941447
4.359337
2.261044
8.323703
11.342543
-9.737161
-3.946354
11.857346
-2.949449
0.685886
8.678977
0.902124
5.080929
-10.985513
1.144901
-19.851316
9.785787
-5.758000
12.653606
3.518052
-4.705399
-12.915343
11.807867
-15.148743
-15.503969
4.042560
-8.423745
0.937161
8.254326
-22.809772
-4.145906
-1.161295
-18.536579
-19.524076
-12.262388
-0.605969
2.613693
0.535823
-0.540174
-2.663626
3.975477
4.314874
-18.998059
-6.603637
-8.525411
-23.482387
1.993911
-17.767063
4.200619
-6.746181
0.534967
-5.303418
-14.915478
3.416964
-10.620398
-12.186768
-5.417598
-7.577700
-13.145691
3.925394
8.186340
-1.342143
-9.058738
14.335267
-19.695918
-4.769976
7.282611
10.309157
-13.449138
-7.454075
7.367219
3.498226
-5.735348
2.978937
21.510955
-6.496707
-12.449571
0.480060
-19.840786
-1.777104
10.355434
-14.107903
-16.715584
-5.345314
-7.042790
-0.650618
6.340015
-5.786134
8.106364
-5.212182
10.858072
1.654143
-4.818568
7.459130
-18.581812
-11.970826
17.283928
-4.298624
-11.497451
-3.064287
3.498871
-10.039597
-11.450338
10.243376
1.844423
-1.034154
-7.766035
-7.716500
-7.116880
-24.719352
4.092310
-1.861917
10.468050
-14.843043
3.053596
-0.294883
-6.031875
-22.364622
-8.780573
1.095122
10.076224
0.858380
-2.219439
-9.696344
-9.354837
-20.294477
0.032094
-3.651335
-3.827989
-3.491633
6.154631
5.329907
4.497126
-10.555624
-5.327633
21.242771
8.338652
-7.187373
-16.094348
-2.391926
-15.529011
7.904560
15.351401
1.189602
11.711522
-17.798816
4.682480
8.486048
-6.863986
0.539638
-0.642977
-10.642634
4.171344
-19.173950
-8.361048
-19.007818
-4.720585
1.323386
-1.638099
-18.136115
-0.497489
-7.398021
10.157948
10.780586
-11.638785
-2.406260
-0.615892
4.628599
5.540506
-17.208017
-16.740048
-2.289549
10.964082
-8.988911
-5.757706
5.091878
16.032984
-14.515784
5.842854
3.257509
-12.770064
2.428708
8.295143
-2.929179
9.945619
3.774055
0.999740
9.868482
-4.323365
3.944413
-4.557644
6.731774
-12.740842
-3.039468
5.528670
18.785461
3.411984
1.516005
5.521887
-12.989352
-1.628594
17.614300
3.721286
6.222964
-12.598768
4.563352
-2.825862
13.218440
-1.973524
4.806173
11.447723
1.608181
-0.372000
-21.454673
2.261436
11.265771
0.765383
-5.225714
3.588403
-0.559830
1.440846
-12.277700
-16.753946
19.619022
22.252183
9.151644
-2.413628
1.561414
-3.279474
4.429295
-7.267149
2.631169
-17.143865
-5.871608
4.749804
-27.129552
7.829056
-24.063305
-3.440251
-1.479598
14.021370
-16.585265
9.437327
-3.157759
10.604014
-25.762134
-18.373521
-0.010147
-7.332789
17.001306
-9.056285
1.183363
2.074423
4.222331
-16.560029
4.797557
-3.552308
-8.984657
9.640343
-5.183341
-5.267273
-10.752563
8.200384
-2.876335
0.916266
-5.967329
-0.435487
-20.409047
18.951367
-0.699464
3.905331
0.581841
-13.371235
-9.276466
-12.630476
3.898249
-10.665051
18.523332
2.891251
-20.188852
-9.532673
0.262633
-18.103750
2.182112
4.149502
0.833124
-14.532441
-13.142218
-0.365911
-4.066819
2.878558
-23.141437
-13.381047
4.988778
15.089518
-6.413599
-2.741742
-24.362070
-2.959103
-11.509711
8.486313
3.618679
-11.008229
-1.136493
2.956764
1.132818
2.099269
-2.337226
-14.855127
-9.207991
5.781959
3.144588
-16.238867
13.261793
-3.802384
3.513468
1.224248
-5.520085
-5.273279
0.577188
4.601033
9.031765
4.903163
-5.979587
-10.456141
5.243857
-26.467270
-5.594467
-16.175011
7.391626
-12.606201
-3.519729
-4.096393
1.125014
-17.820852
5.190016
5.562549
-6.857960
9.522370
-6.831477
5.232184
-8.691560
-5.960954
-2.224543
-11.379192
9.418778
3.601270
1.854614
-7.817372
2.312689
-10.793156
-18.891455
-12.071415
-5.460453
13.605755
13.145006
-18.714207
-3.820092
-20.323883
-6.979055
8.976304
1.572949
2.418293
12.313993
-22.152381
1.993572
-3.491482
-7.549280
2.360864
-14.533159
-20.964558
-8.125129
-6.593472
-7.398976
22.177849
6.891618
-3.137203
1.461026
2.488358
9.290398
18.118563
-17.851625
9.637422
17.875004
3.007629
-17.855647
-0.405473
-10.577237
5.554348
-14.335961
6.820074
11.855923
-2.916995
-13.751886
4.296568
-2.441939
9.070121
8.841345
-0.343159
-5.294168
-2.628450
3.670084
-0.990799
-5.821562
6.529217
8.953259
-13.960773
-13.451484
-6.630019
1.315282
-9.782138
-7.582588
9.855016
-1.585172
-13.326673
-13.941775
-8.268338
-6.180653
-9.988698
0.116991
-12.058224
-1.574922
-7.492344
0.570564
4.055138
16.242063
-11.548738
-1.201108
-6.555992
0.737279
-14.565702
3.319808
-5.188653
-15.250771
-18.764149
-20.785403
-12.705930
-13.421431
-16.343514
2.682950
14.211566
-1.354739
-13.542451
12.012621
-0.180880
8.933755
-9.365211
15.251472
4.383309
4.384708
-10.090639
7.535102
6.084639
-11.238365
17.127383
0.065932
-4.126468
-1.495074
-4.411319
-2.831650
-3.595686
-18.182237
4.656861
-1.714425
-8.986521
-6.193240
-10.052441
-4.885103
1.318118
-7.372518
8.846259
5.196179
8.513068
-5.590338
-0.093251
14.441044
8.039489
-5.667519
-5.090284
0.637480
-16.353604
4.502061
-0.210171
-2.034520
10.214629
-10.779855
24.997072
16.339355
-1.539726
-11.006486
-3.745115
-7.483514
-10.248828
18.747435
2.878172
-8.736673
-24.466984
-3.930797
-18.868797
-10.942548
-7.935851
-8.177024
-5.793561
-10.618500
10.107347
-3.623096
-11.379832
17.740681
4.193073
13.527962
-6.869754
-14.367042
-7.601408
-0.602339
3.694107
-6.156436
-5.513249
7.926052
-17.800997
2.030562
1.904901
-8.955261
-9.510284
-13.567107
-4.821304
1.706769
-0.952656
-6.460421
-21.618132
2.248937
-0.207401
17.444450
-7.010857
7.030243
3.866223
-1.539400
9.820841
-17.828216
-5.282824
13.363969
6.104869
-15.039750
7.784061
-6.694572
-2.593762
9.535709
-14.257355
-19.333255
-4.686484
-17.499376
4.940639
-2.890671
-6.026525
-0.835905
2.204344
1.760173
-23.951650
0.021972
-2.322968
7.498365
-7.407124
3.636305
9.288475
13.255695
-8.270174
7.806363
-9.746823
-1.243903
-3.469576
-14.143489
-3.246461
-10.812507
-13.696837
6.791074
9.397054
0.463222
-12.581818
10.027650
24.580519
6.558162
-9.587310
-16.064741
12.528566
-19.890847
4.909424
-5.448887
-26.341911
9.356021
-7.587291
-3.996761
-7.471514
8.334370
-15.290009
-4.202170
-3.522062
5.178985
-8.128751
-2.595496
0.382731
-1.125667
-11.811346
0.002020
-4.870563
3.028397
-9.647663
-15.583948
-0.001278
-1.591968
-9.806221
16.923973
-2.490715
-10.327428
8.784609
0.159486
3.323237
14.665535
-14.829112
-18.122182
6.677344
-5.335718
-6.248104
3.883031
6.739471
-10.116687
-11.523482
13.432964
4.577269
4.189312
3.137379
-30.210105
-6.528267
3.071481
11.055978
-3.023657
20.413472
-10.153581
16.835024
11.270534
-1.440482
3.932981
11.039531
5.105820
3.866610
1.976699
-13.852255
-4.041763
-5.928942
-1.913093
5.350953
-7.162072
2.271811
0.843160
-26.717262
-15.081920
-18.770775
-6.801797
-19.451796
-4.265069
3.231152
-13.929088
-3.242437
6.756897
1.739148
-7.190012
-12.369702
2.217828
-8.839240
7.696097
11.752300
27.882897
27.567178
9.733467
-5.210585
0.524332
-1.779341
0.613652
-4.143108
5.525413
-8.118843
-8.976096
18.042572
23.702290
1.863696
-9.932795
6.362938
-1.092834
-20.226520
-7.206710
2.952262
-8.675703
-5.851952
21.279383
-1.358863
2.348737
1.992766
15.827482
0.212754
-3.327538
19.985846
21.213136
-5.102637
10.926764
-3.191350
-3.223541
3.294409
6.069375
-1.507980
-19.942222
9.036855
12.099876
-17.119229
-13.342579
-5.417391
2.640707
0.523286
7.685869
1.197618
-5.698071
-0.048611
9.679387
1.315541
9.716948
-4.856750
9.087748
7.739268
0.975353
-11.738288
-16.336913
3.925863
-18.167581
-12.804776
15.081143
-5.362892
-13.575877
-16.867286
-9.008306
1.835308
-11.853227
11.257591
-7.280439
-22.269962
-13.779390
-5.146916
17.710147
-7.953001
-13.965795
8.440637
-18.445757
8.368763
-1.092712
-0.698917
-9.300267
-0.763999
-11.208134
-4.842514
7.509569
5.689352
21.050608
2.273799
-3.085508
-3.833572
5.180861
-2.125292
5.965002
-4.529646
7.715994
8.625372
-1.374022
-5.488228
0.402597
-22.608932
-2.573202
-5.112664
-1.953877
5.792384
-4.564615
-14.960740
1.301978
-4.064502
-18.057672
-9.853304
6.951238
-8.215327
-1.751875
14.483923
0.592527
-0.748327
-9.154425
-11.982044
5.461119
-2.478199
-22.226907
0.045102
-8.887068
13.867292
-15.555188
6.939805
-9.423861
-7.264480
0.778468
-0.245150
-5.273648
-2.508244
-1.190155
-20.068282
9.969682
-0.689799
7.539216
0.805330
14.810748
-4.559110
1.061604
1.218642
7.845366
13.703556
-14.548148
11.196898
1.163579
-13.563305
-10.235496
11.317749
-9.561779
-9.359918
-13.022569
-5.319691
13.195862
-20.403507
-6.176915
-8.563660
7.585780
-11.833310
-1.662256
-3.322930
-15.895756
9.468675
19.978011
-1.219246
-8.802281
9.673935
-15.638445
-3.652448
6.371465
-8.512903
-27.637538
4.082524
15.694513
-7.366374
2.543510
-1.135667
4.835259
-0.241154
17.603253
-10.605636
4.246666
-9.995439
-11.797025
9.187852
5.182571
17.552821
-0.353409
-13.017758
0.746419
-2.465733
-3.617028
-0.330274
21.298060
0.403425
-7.147045
-0.368087
2.522081
-1.956148
5.564520
-0.683049
-9.987873
-7.647321
2.850960
19.068187
-8.598385
-10.623987
6.010750
-1.768222
4.911062
5.570595
-6.951446
1.101961
-20.348443
-16.239112
-11.983708
-2.230897
-12.226099
2.889474
-8.352652
-2.794226
8.307633
3.904662
-10.113385
-0.566780
6.015041
5.600649
-14.820748
9.837477
1.053506
-7.696172
-5.693358
15.739179
-6.986827
-10.543370
6.913731
-13.425136
-6.840170
5.844045
3.352143
-8.675572
-2.518904
-5.536933
0.905793
0.968431
-0.623587
-14.291299
2.730306
4.480088
-13.164945
-7.025040
11.934501
-3.954594
3.661620
-0.345194
13.041602
26.579571
-12.404027
6.396843
-2.719735
0.747422
9.242530
1.655297
-9.322664
-4.507513
2.125201
-25.443705
-33.549906
12.631159
1.292777
-3.372123
4.639002
-13.551066
-9.120423
-13.702455
-6.472571
-10.950142
3.545501
15.250787
-5.631659
18.041509
0.417754
0.549814
-15.933739
16.580141
0.950669
1.215105
-2.486392
-5.214129
2.345570
-17.449951
0.581374
21.569690
-12.809263
18.267201
-4.991938
18.859661
-6.489371
5.486572
9.282031
-5.172507
-2.992836
-21.140683
-10.149277
-7.523088
-1.072729
-2.182952
-18.421764
8.903482
-8.364339
19.509971
4.208649
1.586617
-15.762469
12.575608
13.823293
12.698207
3.481296
19.851703
15.476758
12.093453
9.703183
-5.664856
-13.090407
-7.802924
-6.257591
-5.704056
-4.893022
7.743424
-1.469992
-4.588527
-4.873968
-0.572948
14.615159
12.896140
1.970459
12.373919
1.751858
-10.326826
10.773168
13.469614
-10.938934
-6.381236
9.900042
-10.320686
-12.224261
-9.014782
-12.916319
2.884381
-9.203143
-1.823970
-6.050726
13.976975
-11.384419
7.225147
-10.754398
-12.902942
-8.330594
-5.434283
6.146911
-2.609684
15.387211
2.657866
7.304562
-10.015019
13.221585
3.320382
-2.307729
-4.613829
13.996955
1.345725
14.311220
3.636563
-17.806990
3.766016
-12.300649
14.598525
-6.918960
-0.451319
9.394262
-9.241005
15.800957
-4.158674
-3.732020
7.550184
8.144713
6.016952
-10.402860
11.679665
-2.589764
-7.002849
-19.180862
-11.320876
-3.030257
-2.523968
16.739753
4.755975
15.689825
-0.313294
2.836708
0.283445
0.856936
-10.271609
2.924721
11.568899
7.609615
11.509945
19.633414
4.066951
-2.818888
6.940497
11.001726
1.581401
-0.439411
-1.121082
-0.921913
3.196731
-0.841953
-10.452990
-12.751149
19.997462
14.649563
-5.150082
-3.475855
-0.280369
5.080724
7.320799
-0.538639
15.298693
-6.929548
-0.017979
-1.807646
7.450921
-4.648150
-4.269400
-12.479635
-3.091881
26.083840
22.333379
6.354805
-27.717949
-23.578861
-1.907209
23.181366
-20.410033
0.209839
2.640304
6.074751
-0.087645
-1.230567
9.260728
-5.303031
-0.991802
6.457382
-16.203536
-17.811051
7.932689
-4.837283
3.857939
-6.305808
1.519213
3.232155
7.736249
-1.558580
7.270081
22.677617
5.389955
-6.366231
-3.968741
-2.337293
-6.780041
0.920821
0.707923
0.557643
-1.887566
-9.283322
2.329277
-4.665133
16.171560
2.515049
-4.348094
-1.860416
7.984302
9.334498
-16.854102
1.669710
5.080383
-0.768829
-7.260934
-10.658049
-1.597974
4.044946
-22.388626
6.480895
-6.470455
-1.200177
6.676645
-8.468560
20.092648
-11.031881
1.401935
11.460527
-8.530273
-5.532259
-1.108820
17.777543
-2.541628
-7.755085
3.648238
-20.676123
8.205124
-15.111936
-5.331260
-6.247500
2.865375
-16.984175
3.530018
2.456801
15.034908
2.326467
7.902109
-4.134096
6.650802
-5.622765
-0.824646
0.366528
-7.185760
0.804227
-16.955385
-4.335621
-7.866608
-1.338433
-11.686582
6.987292
14.419608
2.909031
11.144304
9.321557
4.796888
-1.990332
5.443105
-5.782777
0.443831
-6.342619
-18.416817
-14.552522
-4.700150
21.880542
21.371135
5.010530
6.301543
1.447363
4.560225
0.408066
-15.355508
2.624082
8.410233
5.047297
6.869017
-8.587363
-18.960290
3.370675
-7.956241
24.424228
-4.643183
-1.054826
2.786405
26.375284
5.505335
5.140917
-23.737326
0.673878
-7.224357
1.354312
-5.322968
11.493756
10.292561
-1.878426
-12.960558
6.353768
-12.400511
12.072237
1.884409
-9.203029
-2.153095
11.319962
1.541733
1.759739
8.183352
-8.237192
-8.067342
-10.589517
19.780098
7.822832
-5.101565
-6.645873
0.974460
-10.290366
-0.878311
-2.966849
1.906727
-2.972029
-14.022233
11.162977
-22.329235
0.463090
-7.987083
15.026348
6.267994
-9.836259
-0.757373
-0.339682
7.065069
-8.228984
5.849871
-4.500025
8.621780
-7.544760
10.187990
5.489711
13.035140
14.092377
-10.423147
0.491226
-10.488189
23.965732
-16.381140
-19.782734
-2.289457
-8.549209
21.962379
-2.098974
13.054765
12.619968
8.112435
8.732588
-0.721154
-4.185959
15.370859
13.266279
2.857868
-6.948957
25.112054
9.855248
6.377901
15.076415
9.602438
9.534112
14.781064
6.181934
-6.764009
25.181706
-8.022091
6.223104
10.883198
2.289633
6.265251
7.049328
14.245296
-13.434313
15.995446
-16.262963
8.122043
2.684273
6.887310
-2.626330
6.253180
5.086472
6.452443
18.419556
1.030498
5.050346
-3.712017
16.521160
2.131062
-3.028402
-5.420301
5.745752
20.212800
6.592386
-4.851287
-8.279604
-1.366100
5.895899
-0.542282
-2.957803
0.169485
-1.207840
4.467428
-11.176444
-3.690362
-8.591063
1.192355
-12.160150
-2.515317
-6.275204
-2.473874
13.363298
-5.343017
-4.652249
11.612808
-0.415180
-21.338495
1.318806
1.219171
-0.895336
-2.426699
3.110680
6.988309
10.190099
8.462674
-5.946490
-9.915990
-9.666862
-2.378940
14.518352
-13.894184
-10.551628
-3.499455
0.607099
-13.593575
4.111435
-6.533896
-4.488530
-10.372739
12.000123
-15.726253
-18.150438
1.308769
-9.352692
-2.454966
3.313795
-6.524577
-7.211458
-14.225497
5.251614
-0.149970
-13.401209
-17.109232
-5.178818
-12.090618
10.550366
3.723758
-11.682480
-5.803628
1.640428
-12.457772
7.972826
-1.166146
1.861811
-5.567853
-4.175663
18.707207
0.861465
12.019440
2.970910
-12.703234
-12.293817
-2.584419
-4.109428
-14.124696
2.022191
5.695328
-6.256237
6.821657
-21.630590
2.578882
-10.052821
-16.278365
-0.023239
-18.181300
1.117594
13.413475
-9.401201
-0.512822
-22.863816
-4.848816
8.530784
-8.997978
-14.002242
-7.600856
-0.613544
-6.053855
3.511606
5.283466
-37.510936
5.169133
-0.157792
-5.941848
2.865161
-5.259308
6.357141
3.951073
-7.453604
3.259129
3.428087
-4.643914
-2.466450
-2.584583
-18.548438
13.162877
9.229901
3.712280
-10.699983
1.814346
-4.359994
-0.769790
-1.045167
4.096798
8.036618
3.818371
6.631589
-2.272611
-6.148615
-7.855029
-0.508606
2.260238
-2.914216
3.480075
-4.843845
12.531235
-6.295111
14.695340
3.165705
10.287397
-1.829703
1.799370
-21.338100
0.614596
8.598431
2.108898
10.131113
6.628663
-14.460718
-4.896341
7.651320
10.522241
1.018520
22.605693
3.509194
3.867775
0.550242
19.875410
1.898880
-1.422226
3.480030
-13.972441
10.227887
1.281955
14.120625
2.143366
-14.273853
-32.232555
-4.532214
1.631817
-10.038336
5.653363
6.573419
6.503821
-7.750530
4.500715
7.206261
-4.746911
13.086207
-11.302938
-18.415539
13.392174
4.163128
1.364817
3.785251
-36.362964
-15.942874
-5.497650
2.300269
0.037792
0.492883
9.023809
6.824680
2.767817
6.199375
0.916317
-1.365072
7.801988
-10.339265
-4.625928
-7.610443
-5.042122
-8.653276
15.942988
1.158250
20.633096
4.606910
13.731891
-12.345816
-19.309231
-5.117877
2.679703
-14.762144
-3.143101
10.119832
5.764896
4.465075
-4.933083
17.295557
-12.101245
4.040627
