12.303451
-6.943513
-0.733686
7.179332
6.734982
-8.291326
13.142981
0.088908
20.353424
-3.421489
-8.489472
4.814883
-21.077182
3.004664
6.676127
-0.474508
5.342995
-13.604301
6.085320
0.778157
12.016537
9.792515
13.683790
-5.518728
-5.292416
-1.051126
14.297021
-5.797009
-2.547171
0.658224
6.881062
-14.454726
0.859004
7.352030
-5.142487
2.444062
15.441169
5.573629
18.100611
-4.217895
1.510170
14.112060
1.754288
-5.101158
-2.045996
7.876089
9.953579
-9.437970
-20.767234
2.793615
-3.977679
-9.285102
6.723728
11.126386
-7.942395
-1.644002
10.313344
-14.842840
2.741446
6.880804
3.886806
-5.626635
1.842614
-1.184628
-2.281721
-6.234285
6.044242
7.774263
11.306517
11.820718
7.088993
3.380035
-18.431159
2.185750
0.911367
-7.786287
3.250002
-9.766627
0.017071
-4.519413
6.941024
5.092367
-3.555406
8.226407
17.377314
2.048920
1.753849
-2.809603
-10.431781
2.483864
-2.320219
-7.824654
-0.248187
-8.847012
-11.344713
8.972407
-1.914249
3.646080
-4.434924
6.920146
15.251195
-0.061938
4.876927
-11.194889
0.014121
1.679923
7.788375
1.753574
-13.341814
-6.481633
9.179524
1.175092
-5.540898
-2.550024
-2.716251
11.905679
-0.699639
-5.032094
7.836486
5.119653
8.768600
-1.689302
9.235254
7.733151
-0.415638
5.643507
5.914702
0.800545
5.591811
7.058410
15.323028
12.066384
-12.999308
5.902402
5.920087
10.974357
-8.983016
-3.259596
-2.996351
1.791103
6.395867
6.788531
-4.093839
11.741506
-12.171964
6.526720
-5.007903
2.669946
-3.219183
-7.479033
-2.655031
11.409115
-7.053129
-13.116391
11.475521
5.343273
-8.006730
-10.843471
8.926588
-26.011838
-3.611651
10.006421
-5.380810
-6.846295
4.296837
-2.826153
-19.614783
16.820148
5.680902
-6.562620
9.962479
-13.792569
8.956677
2.572235
11.197247
-0.649011
11.140340
1.681039
-3.170734
-3.896654
1.597027
5.737995
17.754268
5.603071
17.295939
3.421141
7.342768
1.824390
4.246065
-7.351832
-0.436044
4.312240
6.421499
6.823341
-11.821545
-5.885641
2.327958
6.048262
8.459254
8.892460
-5.993456
2.200436
10.732066
-13.192890
2.053143
-4.086508
4.892186
-0.271929
-7.189438
3.723790
10.943814
14.622549
12.435730
-3.970589
17.615430
3.236570
0.701580
-5.593160
23.112616
10.274188
3.598740
-2.081972
-2.010084
12.563560
-5.344578
12.326155
4.094227
-18.318753
6.311603
-2.665120
-13.697145
-16.251313
-7.259454
2.027223
-3.676274
6.402214
5.627000
7.082112
16.837378
13.370011
3.604136
4.217946
3.287697
-2.492357
2.965772
5.825531
-15.947334
-0.433618
-5.813210
-7.391206
-1.281670
4.312360
-3.066621
-13.606546
-5.626518
-12.938868
6.546983
16.545867
-0.459015
6.863119
4.878107
-1.376303
2.720016
1.583706
17.496482
-2.622508
10.550693
-2.027952
-1.783941
-6.091578
15.710448
-12.860018
0.546383
-13.643044
-3.678393
-12.302136
8.757984
6.388836
5.439939
-7.759990
11.068305
-0.583716
6.222889
-3.726757
-11.165028
-15.350945
-1.898515
-8.470467
13.257199
10.536891
-11.142904
-4.219871
-6.999334
-10.778160
7.087734
-11.111170
-16.088878
6.786483
-0.276451
14.774592
8.489196
-5.921970
-9.890959
-5.268736
-3.318426
-13.423255
3.418015
3.668449
10.148963
-1.707815
7.576086
-6.331702
-8.449133
-12.507963
-6.387789
-1.482093
-10.355956
1.830709
0.586209
-5.344292
16.096365
0.036997
-0.988672
-3.902796
3.637633
11.947508
-13.504262
-7.849334
-10.510624
1.938697
5.248743
18.688986
-10.450845
8.376770
11.884136
-9.648991
-5.990630
9.984060
-13.305120
9.663259
-1.277270
1.902412
12.036192
-13.259025
-6.708486
-1.188094
5.079308
8.600194
0.803496
7.564566
-6.929078
-15.307945
-3.572428
3.692594
12.198670
1.953806
-7.126208
-4.697180
11.936133
11.065863
0.350563
-6.456740
-3.281463
5.328734
11.613617
5.269272
3.151792
4.546378
-8.872657
11.082373
-4.657881
3.727083
-11.739306
9.366269
-1.064119
2.969562
-14.507219
-1.446281
7.472597
-2.078314
11.814614
7.042087
-31.139050
-1.023593
1.700474
-5.390226
-4.854711
-2.725918
6.431333
-3.945734
3.772897
-5.519926
-0.048250
4.527663
19.620406
-0.241977
2.969072
0.692207
-10.637961
3.171359
15.196197
-6.299376
-11.270447
6.070317
7.042439
-8.463292
-9.012578
-1.752931
-2.321822
-14.513808
-5.426580
2.282713
-11.795808
4.567060
-15.172375
-10.259785
-0.872834
-6.431023
0.641836
11.670678
1.059695
0.849389
14.810704
1.996271
0.731763
2.750503
-0.672446
-12.949444
-6.702197
8.089324
-13.081035
-9.562538
7.445679
8.432258
6.931404
-12.768579
-3.039397
1.701001
3.615324
5.981909
-3.252427
0.751114
-19.015180
-21.296060
7.801556
-8.299409
6.538449
2.502828
-6.918647
-4.326330
10.215678
8.060032
-7.145026
-0.547587
10.599424
3.424352
1.408242
9.432904
-8.431421
6.424514
-1.327081
5.516353
-12.291709
10.608450
-2.317564
13.329354
-3.542596
-19.969336
2.601429
3.779692
-3.839490
-13.349327
1.221421
9.453247
14.890351
2.808465
0.578101
13.653474
5.919055
4.963523
-10.962455
-1.546884
-0.802507
-2.034371
8.433064
1.508365
8.273919
-5.069866
14.186466
1.873001
-11.468235
10.625756
16.449296
-3.451321
-8.652712
-8.824266
3.747279
14.136111
0.677332
3.524922
7.142067
-1.525091
-17.823305
1.219997
-5.013418
-10.078728
-2.272335
-3.426182
7.856363
-3.277261
0.086666
-3.255308
4.550654
1.772255
2.849572
-2.537638
1.814897
12.661390
-9.851063
0.911276
-14.779943
-0.079434
0.325156
-5.663579
2.952149
-2.576436
13.952619
15.290282
0.859561
5.183405
4.720013
8.020838
-6.050975
-10.297053
-17.408216
-1.576558
-2.518998
-8.056316
-10.925697
-6.314907
-5.564783
-9.538464
7.628897
-4.446394
6.736169
5.059712
-10.329913
15.978749
3.966835
-4.412633
2.865109
-1.210738
-6.079307
2.811016
8.053457
11.840490
-14.227742
-14.891869
15.216645
-5.170425
-9.510908
-3.061469
-7.214095
4.912820
3.567402
-14.442593
7.991421
-1.817470
-5.335324
11.291534
9.454901
0.301523
-4.114383
2.361180
0.035467
7.371986
-1.577240
-21.509119
3.976298
9.360919
-6.305531
-4.288074
10.596948
-8.822824
3.521017
0.646520
2.915329
10.303636
7.196832
0.234490
-6.539515
9.980723
4.730957
1.825046
1.911341
4.749477
8.698069
1.985380
-12.608036
9.118957
1.908867
17.831683
2.081613
-0.032435
-6.723748
9.215492
4.126735
12.292097
10.045835
-5.744464
6.127966
10.552685
23.152175
1.071958
4.456381
-2.447846
8.271657
1.107434
3.708300
28.158745
-1.628854
18.001383
-0.414766
-14.766394
12.358179
14.988375
12.937703
-5.613428
14.871389
0.084061
-8.620387
-19.205389
-5.629751
-2.984744
-8.180202
5.272874
-6.802625
24.789799
3.175932
-9.011592
6.882195
-8.632188
-0.639647
-2.350044
1.612754
11.789129
-1.501828
-7.611266
-5.622336
-12.633937
4.014753
-10.810668
6.057715
-2.703148
-3.943327
10.567354
9.578280
-2.595747
-6.093258
7.351800
-6.454405
9.320465
-14.404873
-3.312361
-21.954577
5.547405
9.931260
-3.177250
5.847490
0.491879
2.093896
1.200986
-2.330294
-4.416806
-1.447796
3.030388
13.801970
0.961160
2.063102
-5.560614
-9.522593
19.333177
-16.210364
30.246749
1.458911
-1.518305
6.100623
-1.051292
12.789596
10.339838
-4.494258
-9.018328
3.639043
-7.668463
-6.251036
-26.106243
7.117028
-3.661773
-10.038436
-9.565401
4.568223
17.242562
4.838462
-8.039863
3.180144
-11.796311
8.418161
-1.486986
13.540821
-3.186473
7.600829
6.116190
12.627003
0.106735
8.384966
18.623413
4.330294
-8.913253
1.598449
2.753988
2.738677
4.631066
4.786275
14.415620
-0.915107
13.468476
11.408975
0.310924
7.445137
-7.638309
-14.130396
-3.616469
-0.578743
-5.348316
2.008335
4.028638
9.224421
4.481777
-4.893452
3.776156
1.997417
10.024860
-2.374288
1.280287
0.853170
-10.501638
-0.451528
5.170224
6.811100
-9.152991
-13.484771
-4.075790
1.586129
-13.068992
13.106466
-5.751738
0.715240
17.118817
-13.314614
-3.794229
3.306438
5.866535
-12.982533
-2.955640
-7.345536
13.789010
-5.054374
-6.101478
-3.876364
13.201218
2.542802
11.732444
-22.591829
13.294568
-2.598444
0.172416
11.719486
-4.216865
0.794711
-8.285084
-6.429823
-4.262795
4.661934
13.147081
0.904927
-10.442243
-13.103196
10.909083
-3.217383
4.070739
6.642846
-1.072460
-11.236089
-17.761328
-4.184390
11.272806
-1.909344
-17.440890
8.823830
-4.545662
2.775781
8.803275
-2.368309
-9.849587
-1.138657
-9.437476
-2.875451
-14.781663
-7.814850
-2.822593
-4.403515
3.390195
6.335707
-3.800631
-4.994147
0.863278
-17.722075
-6.260048
0.868426
-0.999164
-6.293482
-7.161417
-5.810676
9.593564
3.257291
-8.716960
-1.618115
7.843398
9.278949
14.510514
-2.474478
15.159677
-5.910654
0.638484
10.148157
-3.843540
-6.629887
-10.786507
-3.971570
-16.958448
-3.360608
8.692151
-4.821904
5.471681
-2.791040
-5.133486
12.790602
-4.794705
1.604443
2.385935
-9.381742
-6.307278
21.965270
17.793088
-14.198746
-4.558442
16.415619
2.862482
-13.514438
9.079687
-1.444201
8.573235
-10.109551
-3.909529
7.983974
-8.627395
-7.056842
-23.292555
5.114349
-2.064530
3.012087
7.988055
0.414413
2.760515
7.027166
4.386372
-10.202454
13.664695
10.512652
10.162722
1.077335
-7.610713
5.817798
-2.525547
-14.975895
-11.206148
2.589191
3.702015
8.742348
8.150171
2.013606
-8.804429
3.666749
-3.291207
22.779748
7.895010
-7.371690
12.633751
1.552660
-3.789614
8.576497
-4.671865
3.520280
-6.625319
-3.016505
-2.932558
-4.452974
-5.626287
2.094782
-2.843459
7.669724
7.266023
-13.938418
2.557734
-0.754104
4.428364
11.213760
3.538928
-6.845118
-5.029913
11.047532
9.976979
2.760549
-8.998736
-7.065024
-8.069980
-7.915317
4.507355
-9.040052
-0.880210
4.049081
-2.804231
-6.312451
7.878073
2.048445
-7.200346
1.889137
-5.648754
3.567236
3.989064
1.189493
-1.717348
-4.626495
15.417846
-16.673974
-3.971082
-1.254344
9.882018
2.366698
6.437658
-3.073591
-15.801477
-1.074606
-10.607571
-6.241169
12.955403
-4.249183
-3.272719
3.444685
-0.703171
-14.193063
0.338511
14.907600
-11.436589
8.399563
1.456925
-4.525951
1.057566
2.706004
5.656759
0.395360
4.683348
-18.108343
7.926367
7.923643
-7.138221
7.546596
9.946420
14.132515
-3.223267
-3.291984
-15.773479
-0.844017
-3.462962
-10.815281
24.171502
-8.529170
3.201959
9.991516
-3.458528
2.302273
4.687511
8.328273
5.037516
-4.843358
-7.864502
4.404965
-6.162069
-5.691891
13.043263
8.317954
12.605910
-16.863591
-11.080877
10.687999
0.231864
-2.011305
2.788934
-8.140213
-0.228884
-2.030493
2.581897
17.301306
-1.585777
3.222052
12.818861
-7.508293
14.643575
9.849029
8.557637
18.727269
-13.792312
16.018071
19.510554
3.531232
-4.796466
23.753864
-6.803237
-7.201175
-14.203219
5.647823
-9.475192
-0.234285
-0.455464
-9.949237
6.098911
-3.486698
-6.572979
18.679816
2.822305
-16.868443
-7.182319
-3.132710
10.705944
-3.702673
6.462515
7.516653
4.576850
2.281374
-20.049079
1.818128
-6.406494
13.769879
-7.872411
-0.211178
9.665723
19.568933
-5.238964
4.475003
-5.764036
-8.569161
11.258911
-5.465059
6.421217
7.832446
11.959807
-6.218515
21.425343
-9.653403
-1.802429
-1.073183
-6.383361
6.415465
-7.689571
-1.904241
-12.589893
6.084348
0.276636
-10.860963
5.319747
-5.041662
3.937568
-0.097915
12.649831
-7.654942
-16.652012
13.651787
-0.891128
7.266551
-19.273183
-1.501269
6.932515
-1.945456
14.324529
3.315352
10.653439
10.721334
-4.699906
23.789331
-10.411134
-6.416803
-2.785346
7.901441
-1.864518
-19.679936
-4.056509
-1.685831
-23.193942
1.659224
19.116531
2.371532
19.971986
-6.951428
5.252051
-4.694413
3.964550
1.742649
1.906993
1.814856
-7.034712
3.087966
1.216908
-10.011959
4.411035
-4.599358
8.336706
0.595394
9.897135
-1.191565
0.359037
15.250780
9.035566
2.564204
-1.982190
17.967237
-9.061760
-3.945473
-24.978696
18.166153
-2.953119
-4.575394
-10.742317
-9.836924
2.170453
3.096575
9.338506
-5.417088
12.148657
-7.661265
-11.640420
13.761142
13.906199
8.904352
3.402297
-21.413744
1.154313
2.544029
-7.349989
6.338683
12.069537
2.947657
-7.016855
3.058493
1.273015
-10.328754
-16.697460
-5.344223
2.503039
10.543246
1.684268
5.401024
-4.208464
-5.380779
-14.963975
1.333266
3.097786
1.513222
1.001388
-1.963778
-3.601166
4.671901
13.518826
1.276399
-0.734184
8.552005
4.356731
-1.942146
1.871455
-5.528289
-2.873237
-7.411423
3.751928
-19.280976
5.112027
0.582312
0.439731
16.391748
-8.234095
-11.042026
10.430844
0.814507
9.317340
-14.013615
-0.674746
-3.552877
2.803689
-16.352041
-9.951763
-10.820210
3.716775
-3.758890
-8.489703
-5.824831
-4.197540
-0.309062
11.423203
-4.322404
13.886818
11.116530
4.460675
-12.581585
10.918992
-20.239286
-2.440782
9.150653
-0.525750
2.701071
18.305801
-4.393615
4.856159
-2.737735
9.230868
-2.400720
-4.952132
-16.848822
5.186040
4.167766
-11.292921
-2.250165
24.780358
-0.878965
-2.091500
-1.904198
7.437185
5.858733
4.085440
-1.238476
0.712976
2.790182
5.529807
-0.029725
10.621022
-8.140188
2.236068
12.799510
-3.995234
10.637077
-9.130824
10.369159
-1.568458
5.784860
-3.249664
-2.518039
3.194587
-1.272903
-4.441487
5.653143
9.954877
-2.037411
-17.213534
6.905314
-2.261329
-13.405744
20.445838
-5.973299
2.712696
6.818820
-0.077520
0.695679
18.598754
-7.442662
13.226078
-8.520821
2.721949
-14.417863
-12.947492
-10.897208
-3.099772
-1.141491
-2.129820
-4.236866
-11.145449
-12.667928
-2.427922
7.337489
8.189530
-7.387490
-15.517526
5.453314
-9.821342
4.863184
-0.656082
-18.035685
-6.547753
-5.582571
-0.167425
-17.267650
6.086382
-4.239927
-7.588232
10.041130
9.448409
14.864250
-2.440370
-5.027243
7.357740
4.718671
-12.474447
-4.440745
-3.138864
16.276011
3.131021
4.392720
-0.245516
-2.736354
5.743865
3.947842
3.352727
1.936732
-9.980434
-7.752024
7.634813
13.472798
6.582604
-12.914018
-6.761466
-7.650999
-8.089654
-9.321079
-3.525657
11.155858
-6.692930
-11.903746
-5.410960
15.183229
3.752024
14.443670
-11.125638
6.357798
-17.690820
-9.723408
-5.645116
-9.941899
13.272696
-8.606954
-0.504485
1.791051
-9.207505
6.351219
-5.063407
12.119375
6.938625
1.042356
-9.346566
10.272695
-3.851925
4.575410
-10.031209
3.366382
-2.649470
7.666633
4.469085
-2.032285
-0.519140
-6.756908
2.340315
-0.165455
-0.591335
-6.521156
3.271340
-0.523227
4.060323
6.467904
-7.206876
-6.805510
9.533777
2.637188
2.608992
-24.759717
4.594272
3.967063
-5.744595
-7.486287
-18.527693
5.558652
9.300476
14.973778
-10.387843
-7.712989
-0.538450
3.333561
-7.357688
-22.456986
3.612826
-5.906263
10.599132
14.307281
3.364082
6.973127
-1.687155
2.450570
2.534579
1.495496
9.150993
12.287461
-7.875672
-5.013929
2.679978
12.477342
-11.546854
1.715556
-6.260447
-12.558829
5.789959
6.745948
-4.875186
13.180501
1.921337
12.644091
0.640548
-1.981511
4.927781
12.132090
0.465697
6.597343
17.585439
-7.259932
0.324960
-6.926656
-3.170273
14.216079
-13.450196
2.469137
12.996125
20.419605
0.239360
-17.334242
7.069926
0.425562
9.649477
2.346707
-3.577304
-0.081495
26.706610
3.075632
-5.612136
1.163928
26.826782
0.571906
7.354830
-1.470093
14.347763
-2.619038
1.768856
-6.395951
7.264201
20.550036
-4.004686
-13.887784
0.242929
4.974176
6.587774
2.477649
-4.593434
-4.037895
-3.972658
0.447930
1.196168
-2.507639
-11.696733
3.865949
6.074173
8.300154
15.687066
1.401339
-4.851240
-7.234415
16.230713
-17.291747
-14.901485
-0.787033
-13.702533
-9.068190
-6.578697
4.260905
8.426574
16.858363
-5.322626
-0.479965
2.519997
7.997826
-4.464454
-10.284357
-8.660418
0.436619
13.917785
-1.684712
-6.033835
4.174271
-9.762181
8.780129
-13.536821
-1.125664
10.724617
2.126039
3.916912
13.149064
-0.999251
-3.053839
-11.487731
6.986856
16.355747
-6.233765
9.555900
4.157805
-16.947080
16.775279
5.627629
3.971447
10.741986
-9.156661
5.455619
10.670954
8.581725
-9.928730
-11.583906
3.875479
17.650959
-1.749368
3.223670
-8.728475
-3.021187
0.597619
10.707651
-6.494436
0.462022
4.868231
-2.180152
-0.719399
0.155980
-3.611879
-10.691123
2.409991
2.811711
-0.593953
-5.050588
-0.579870
-2.074765
-2.472194
-3.009770
-10.217398
19.325784
-0.745015
1.040601
-3.356461
-3.232782
16.769220
-3.219294
-4.064414
8.081302
4.882963
-4.720127
-5.249911
2.044158
-2.634347
12.614412
-4.948511
0.735231
1.947398
-3.651185
-1.408968
-12.397306
-0.566872
-1.724961
10.354515
15.813838
-8.098212
6.269874
-2.153367
19.380226
-13.321764
3.966992
3.556181
-8.561313
23.716501
7.784714
-1.275800
-11.777323
4.196077
8.923410
6.875299
8.257164
0.880425
3.107963
-2.105881
0.975973
7.461227
3.617568
11.493055
-2.258775
-4.418588
8.791608
10.133064
12.277781
22.824778
-10.392750
4.999423
1.404440
-12.663623
-8.051295
0.275905
4.141346
-6.217374
3.978824
-7.019663
-9.097848
-2.759000
2.533382
2.713184
9.646760
-0.886219
-1.023962
9.760788
-6.550337
0.530531
8.365695
0.667624
-3.502813
-1.223590
-9.147996
7.883956
-12.194656
-9.136677
8.339967
14.479892
4.798178
-2.993789
6.154800
2.352305
9.542200
-2.713899
-4.553525
-1.131237
6.397335
-9.206697
-3.235168
10.917932
-2.612532
3.144580
-4.445859
-8.226951
-8.492258
8.892282
2.887533
-5.905289
-11.954368
31.217414
-7.265864
-1.462706
23.896164
16.174449
1.460885
6.566836
6.242843
-1.773310
2.849599
5.044753
4.309991
0.871764
-4.967755
11.851976
9.154696
6.758240
-10.260927
7.853050
-2.120299
-18.180549
-1.405200
-5.819475
6.891265
4.171502
-18.826486
4.194015
10.122527
2.258876
-13.258279
-8.638278
-5.112376
17.564329
-9.272411
5.007671
-8.734319
-7.225971
-12.125310
-2.633877
-1.024589
-3.343027
-5.458332
-11.800635
3.912853
0.798950
2.554595
8.006857
2.385427
3.038736
-8.628171
-9.542676
-12.182194
-0.588942
14.386388
10.790119
13.484578
11.590127
-3.387529
9.954015
8.678508
3.770074
1.634452
3.467282
2.609880
7.020486
5.167556
8.771932
-2.306470
12.985253
1.029191
9.787807
1.296662
-1.681420
-11.247038
-0.861658
-8.412081
-6.240770
-9.489216
-3.053211
4.989431
1.356540
-7.766511
-17.640350
-7.783182
15.719283
7.568772
11.591044
1.754028
12.063591
-3.238511
-7.449032
-2.962907
2.352075
-17.442332
6.983301
6.261791
15.411305
2.932505
-6.770206
1.470834
2.604082
2.698601
2.851054
-1.735445
-5.187982
6.415279
-9.124686
-3.795613
-1.785055
8.996870
15.377466
-4.141755
-7.931135
-11.081707
-7.860286
-1.434936
7.482726
5.980930
-11.654378
6.157644
10.632079
6.321405
-4.469799
10.837551
15.666706
0.419459
4.518519
-11.704323
6.210860
14.220965
8.791410
-1.289521
-17.154664
7.966035
-15.251339
-2.686651
9.917969
-5.044874
-10.622249
-4.017865
-5.455998
-21.397089
-6.865477
2.251395
3.102700
2.388722
-2.805444
-7.593736
-9.156289
2.370210
-10.495428
-12.018465
5.905698
-0.795382
6.436453
-13.816966
-3.813513
0.923990
13.032994
10.796301
-9.036917
-5.901005
12.302209
5.850802
3.436947
-2.754907
-1.332818
-1.164272
9.598141
-18.025855
18.592943
-0.806286
15.149807
-4.343472
-11.033350
10.650901
-3.122873
-5.472764
1.491030
2.401039
-2.204322
-13.445549
5.074473
17.224015
-6.881801
-1.947524
15.705483
1.953483
6.085106
-5.897785
-10.450847
2.627955
-13.151451
-6.581379
2.605224
8.224629
2.495166
9.339712
-14.250020
14.870978
0.666398
0.364052
0.641330
10.828344
4.308503
1.766830
-11.923841
3.097875
-1.117660
7.879808
-13.878845
-6.397235
-16.802429
-4.125548
7.340600
-6.789762
-3.862730
1.253859
19.089723
10.371779
-2.286862
7.421438
-0.710836
-2.989507
0.624838
-0.910960
0.526805
0.451569
2.213601
-4.293444
-0.886502
-5.168391
-14.017152
8.477658
-2.010079
3.964345
-6.790974
7.260673
4.061115
-6.415138
1.667974
14.315679
14.808419
1.117990
-12.258120
-0.704928
-7.821857
-4.793838
-5.292578
4.115264
-1.554849
3.090794
-8.031661
-4.790728
-3.771879
11.152500
-6.690839
7.558121
-1.170957
-1.070985
8.671192
7.891175
8.820192
1.317860
-4.980656
6.806935
5.853430
5.983431
-7.033573
5.943564
-4.171665
2.070152
-1.829014
14.893897
-8.812158
-17.963670
-2.460408
-6.993757
-1.932861
-3.673540
-11.976857
3.980457
8.918814
-10.186300
-1.293548
4.370804
-0.512366
-8.796047
-5.558094
8.935894
11.650715
-0.186799
-1.526296
8.983294
8.110157
4.007163
-11.282335
16.527600
-13.747633
-3.064490
-19.500266
-0.093482
1.322913
13.713311
-9.191251
-2.074384
-22.467683
15.041936
-7.252189
-12.232992
-7.534748
0.375708
3.125197
4.783782
-7.112187
-22.921186
-3.759048
-6.880106
-7.118312
-14.740763
1.867245
11.905477
-1.570527
-7.107392
3.841282
0.730512
8.796509
12.832131
-10.614688
27.201184
-4.443025
-15.781011
8.084748
-2.503755
0.896410
-5.827275
14.869669
3.548797
-7.364757
12.291983
-1.867589
-10.219588
-6.566236
14.368168
-5.793056
0.749094
-7.027775
9.968533
11.450334
12.315814
3.981670
6.462961
17.157587
16.651038
-7.046796
0.549426
1.192953
-2.349769
1.822020
10.631635
8.275457
9.685225
-0.516595
-2.644457
-19.687509
12.449369
3.063267
-3.578885
-3.966108
-0.627387
-8.103635
3.962742
8.727683
-10.188303
-2.121502
6.714421
-0.813179
-7.910455
-6.973468
1.161852
1.935737
-1.108229
-1.353395
-7.920868
-1.182761
-7.066451
-13.351846
2.981440
3.772388
-12.558795
1.713214
-18.505224
-5.835705
7.689379
19.381236
-6.647591
-9.336811
0.263375
-1.485914
2.975187
10.061320
-2.882383
15.643869
3.354413
-5.070240
-5.391101
1.738047
10.593196
5.578236
2.640397
8.451931
-2.558388
3.705174
-9.714804
0.378489
7.435750
-2.741804
-1.938869
11.765866
8.179631
-0.234035
-6.899720
22.969128
5.403947
2.394568
1.957179
1.300301
-0.198702
11.100885
-8.882434
-9.492488
8.020280
6.482343
-1.139596
1.828603
8.502950
3.978571
-14.596255
-2.361231
9.843025
14.384449
-0.989181
13.284406
-13.936737
-10.819705
1.353514
-5.638385
-6.307712
4.906576
6.982804
-6.297920
-6.987770
9.523944
2.938944
0.176661
8.703518
4.359190
-1.598792
-2.117956
-5.307903
12.118806
-4.986409
-4.033560
7.898579
-16.951344
-7.610265
-3.104040
-2.361763
8.256097
-10.271340
9.986171
-3.287894
4.995938
6.959143
9.686464
-11.793476
-5.726450
6.693218
1.523444
-4.333212
-7.726939
8.432860
-10.627489
3.546787
-2.254474
3.348010
4.619864
-3.126190
-0.670303
-3.757791
-8.989781
-15.945784
11.777637
5.476105
-5.125988
15.495934
4.459736
-0.260229
-0.539482
-12.534609
3.445608
9.666358
2.003668
-5.590024
-9.160034
3.573486
6.954028
-1.907292
-1.358182
-12.530596
7.212855
-5.861499
0.897802
9.463779
11.821448
-8.988647
13.666903
-6.784414
3.717037
-27.552182
-1.337371
-1.014423
-10.381090
-1.600187
-0.397753
5.736712
-2.381293
1.787011
-2.951707
12.386573
-0.722182
6.919121
10.562041
20.333534
3.254265
-2.334573
-1.121592
1.559751
5.146732
-4.543615
-12.900659
1.854676
12.966964
-8.437487
-13.908260
3.063526
-7.093640
-0.052581
10.649317
-0.092636
3.560508
-3.895950
-14.802984
-0.838350
-0.924135
1.963158
-2.852416
-4.784144
-14.608156
4.070615
-11.755780
-0.673421
4.851873
11.482478
6.162365
-5.480215
-0.303867
11.137503
15.356600
10.367067
-6.569594
3.886677
7.569267
-1.169675
7.893902
-3.841571
-2.140385
0.427463
4.361894
6.191987
6.680722
22.248247
-2.999343
7.513519
-12.086746
-10.931261
-3.791006
5.929152
-6.680595
2.031117
-2.670494
0.960602
9.072349
-15.911682
2.022597
-7.359577
-8.171898
1.521073
1.515309
-6.231140
-5.462354
1.092567
11.935456
-4.663967
7.756840
-5.517093
6.415010
2.976095
-1.249032
1.623368
7.987361
4.132978
-1.562642
2.244606
9.028975
-17.042279
4.192381
-8.764689
3.991565
-0.257449
-1.235359
8.521283
-10.642768
10.353370
8.582731
-7.287036
-1.094320
6.678176
-14.975681
4.897777
-3.039817
13.372013
-2.249918
1.151251
-2.277240
-5.658447
12.140726
-8.002600
8.061135
-10.972968
-2.526472
3.738502
-0.355339
1.267878
5.158437
3.106269
8.937315
4.506285
17.980051
1.323657
-10.203010
-4.558484
-7.177639
-12.803643
-0.844730
5.727154
5.436773
-0.454969
-5.663110
18.748948
-1.166069
-1.263836
1.486988
-13.712729
-1.022308
11.882867
-9.251580
3.729981
9.534342
6.198070
2.146347
13.436666
-4.086955
-35.616303
17.434987
-0.643120
-4.947930
-0.582028
5.079116
-1.786815
-0.748182
8.607782
-9.989191
-3.444857
-8.302970
-2.804556
14.367404
-12.050393
-11.946148
0.574285
-7.906281
-10.135025
10.044554
1.040802
-8.560157
3.053401
6.026549
9.034774
-10.894485
-9.719537
-4.915949
13.706991
-1.274619
8.024097
9.856123
-9.869697
-11.947941
-10.270015
9.361374
-2.181386
2.216224
6.018970
0.083010
-13.940499
-7.935679
0.424701
0.361911
-7.284253
-13.010898
15.589869
-3.000780
21.764815
2.301075
-5.894058
11.399496
-1.073891
4.058532
-2.309860
9.992276
8.007890
-5.013104
2.378009
-7.474789
-1.676201
8.728345
4.167819
7.680800
-1.529863
8.021556
12.048587
4.075110
-5.119180
9.688337
-9.019750
12.057028
0.141993
-19.316681
-8.603796
-1.310533
1.789055
-4.963717
-3.673674
13.207406
5.854932
-6.710242
-8.618900
-14.783387
-1.034880
-2.871200
-2.252096
-0.705242
1.936468
6.045918
3.404369
4.204250
1.583707
-16.505869
4.641062
-3.162160
15.766034
3.776618
-0.739274
0.544800
7.056622
-5.469985
-13.308743
0.893246
0.503652
-7.733555
6.481922
-2.526953
-15.006324
-3.852631
7.387703
9.640613
-0.550575
0.944324
1.698060
6.789582
2.608512
-0.258492
5.889293
2.912583
6.454644
6.552145
10.836837
-4.745607
5.202159
6.138673
-1.558975
3.556796
2.821898
5.941788
-14.564986
-0.101759
-7.418215
-4.358308
-6.593911
9.110994
-10.817052
10.418417
-6.059114
-19.341527
-5.574791
-9.533508
0.479464
-5.254438
-15.980702
-9.499280
-10.885697
-4.497605
16.108258
9.037010
5.313283
-11.418163
-6.629509
-15.125454
-6.595376
-0.392794
1.425362
6.383674
3.584064
-0.362177
-9.568576
12.789193
16.598834
-2.818885
-4.153180
-8.518235
-14.957576
13.075318
7.351958
-8.856289
5.168175
-7.281822
15.169421
2.158684
-3.116562
-26.557696
-0.938907
0.078956
-3.695618
8.736770
-7.884903
12.088939
-2.247003
-6.288461
20.386870
1.237994
8.638741
-2.529198
14.730959
1.822832
4.272391
4.942305
-2.901242
-15.221285
1.811168
-9.601509
-4.209698
9.918809
3.768851
13.987935
0.548250
-3.311518
19.763613
12.771467
21.908870
8.038425
-13.847049
-3.447025
-9.533001
5.108400
4.704594
-0.017632
7.038620
-2.123234
3.035520
5.815577
-3.687600
-5.019450
8.558226
9.606435
-6.017785
-1.085375
-15.263546
7.566169
-21.986970
-0.582221
7.735776
5.408177
6.963075
8.199705
-4.560244
-2.443612
2.115516
-6.808468
-14.466408
2.387688
-2.213425
-8.188055
-1.061035
-0.331225
5.810462
1.322182
5.519871
9.593244
-7.375076
6.181551
9.850430
-4.438416
-0.359390
8.880146
-18.679446
-6.521620
-15.036828
-1.813276
3.771806
9.900390
-0.773933
10.663365
2.736450
-11.892454
-9.239013
-6.096375
-13.851621
8.131423
-5.994966
-1.664129
4.068651
2.160098
1.525196
2.009673
-0.429282
1.702895
-5.894992
-8.268836
-2.947798
-13.355997
-2.167989
-12.724547
1.533574
8.356692
-19.287722
6.092705
9.047538
-20.895518
9.648562
-4.656126
-6.081831
4.562621
20.514107
0.510946
6.849285
5.441237
13.635203
-12.595843
17.206229
-15.434182
14.410182
2.542595
0.325358
5.425931
6.638475
4.680150
15.173446
-11.056394
-12.278755
-0.759672
-4.289375
10.152200
-2.176585
8.502134
2.518174
1.773948
-5.920529
5.639285
-10.854467
-9.049216
-4.048475
-7.092205
2.793045
10.794458
-2.783720
4.081045
10.415638
-3.433612
9.668035
1.609608
13.026456
4.144852
5.575062
7.294124
6.916048
-6.631157
9.234447
-8.538264
-7.456721
-9.554667
14.878010
10.642939
4.723946
6.818713
2.379897
-2.070444
-4.244165
5.624613
-4.150042
1.889686
-4.559083
0.667398
8.579720
-4.446169
-0.023885
-8.229334
0.490716
-7.429004
-2.697825
2.595791
5.111165
9.929197
8.451899
8.125680
-1.242553
-10.534237
-6.145646
4.469610
13.587198
-5.177107
7.511097
1.245340
-7.233115
12.929936
11.026371
-15.509879
8.928874
-1.197040
1.179345
0.171446
7.700165
1.788155
11.975168
7.660843
-1.350276
1.287729
-9.343312
16.488535
-7.239441
6.794746
-7.623747
-11.392685
7.999647
11.241661
-7.666578
7.792392
-3.247517
-1.820228
8.459254
-23.751268
-0.950641
0.388083
-2.512390
15.775751
2.799126
-1.130012
1.788688
0.417133
0.860879
-5.267124
-1.421714
-2.414696
-4.077741
-7.967975
20.499737
-6.593215
5.284560
12.984685
-7.999638
-3.751057
-6.257951
2.218444
7.275562
4.235789
5.070204
2.215410
-11.034756
-7.768896
-7.605155
-9.317928
-16.093906
-6.003986
0.594338
5.940584
4.046070
3.171012
-8.847497
-7.573211
9.935560
3.592032
-9.862525
4.562223
13.395423
-0.237771
-3.426296
12.804046
-6.680571
-9.167335
-12.932461
1.881678
-1.567866
-2.631967
-1.437496
0.172350
9.155199
-1.175731
0.124775
0.440997
10.266372
-8.733612
-7.196933
8.234953
-7.264685
0.409063
17.416743
-6.738144
6.711975
0.673826
0.310502
5.131457
5.837907
0.175037
7.118359
-9.235372
16.688995
-0.006610
-1.947020
-7.211210
3.009387
3.533810
0.843152
0.094661
0.164118
-11.889285
0.059251
9.204545
8.321608
9.006005
-14.199910
-6.183132
4.339732
4.025270
7.322861
2.035994
1.657642
0.980210
4.641301
-16.358636
8.484027
-8.993644
3.907990
-9.389882
-6.476874
-12.230429
-19.218358
4.069313
5.751504
-0.044701
-7.517297
-4.370019
36.372095
-13.784658
0.421689
-6.561837
-5.651209
2.217390
-2.858202
5.296296
4.455668
-11.940476
2.266623
-5.989566
-3.424069
2.168255
2.572606
3.477507
2.870095
0.875786
-11.634421
13.396196
2.683086
2.269067
-3.700796
-4.890117
9.203187
-11.372110
-12.537254
5.882339
6.343986
-2.027807
-2.993425
-13.413337
12.042361
-2.628763
5.225163
-25.040039
4.171224
-7.469175
-12.856450
2.059537
3.268838
15.642830
3.508753
0.366851
-12.058012
13.601359
-3.961122
-2.734369
17.604373
3.743402
4.124433
6.467665
0.318295
9.691594
6.740003
0.064091
13.253084
6.182141
5.635914
-0.611834
-2.094610
-6.309088
6.198691
9.220004
-3.365928
-19.698315
-0.661957
-11.291647
2.109437
-14.147469
10.873809
-1.941066
-2.443824
7.363490
-19.996558
4.978751
-0.464089
-7.441977
2.653246
2.260906
-2.402396
4.696391
-7.009220
3.973021
18.547033
-0.190244
-13.931044
-2.695244
4.991727
-6.727835
9.268415
1.747630
-2.339123
6.644439
2.811569
-3.931513
9.227191
0.605865
-2.710845
8.050295
2.313576
17.638044
2.300508
4.450002
-7.936717
9.806345
3.129068
0.037413
-5.839523
3.633007
5.218925
3.841170
-6.754395
14.768627
9.952208
12.992816
2.018513
-12.100718
-5.862442
-7.745369
0.717083
-8.924402
12.976910
-4.400558
-7.627277
-7.293164
-6.092632
-2.979833
1.373581
12.667391
-3.828725
-9.055117
-1.589203
10.131840
-26.084734
-0.839438
13.464227
9.188252
4.586959
-16.944173
0.820639
5.856980
-4.394343
-17.824894
-4.232402
0.096697
-21.094536
-0.215351
0.065643
-1.047022
-5.655493
2.850857
2.852913
-5.047863
4.518639
-11.752344
9.895239
8.154250
-15.920208
-0.116710
-11.329677
11.317186
-11.280969
5.457107
-6.433414
14.886048
0.317242
-13.030896
1.060342
-1.390161
3.637591
3.739044
-1.675191
0.537556
-0.302119
11.426046
-9.927857
-6.482431
7.300750
-2.026933
-8.794773
-13.553726
-8.321614
-7.484140
4.844473
9.247644
-0.627168
-1.506406
7.250767
5.548181
-0.463840
0.969977
-8.198962
-5.928601
-19.721100
-17.095631
-3.616938
16.241364
-8.241422
15.397880
5.272826
-11.587599
0.412591
-0.021164
12.147632
-3.995905
6.987427
9.235045
8.616743
-0.688337
-8.524242
-8.904051
4.193662
3.634343
-1.149753
-3.281800
-11.097858
-13.135082
5.329763
7.318275
-0.135625
-5.510446
-3.446493
2.449094
4.378099
3.928271
2.654865
-8.431463
8.356613
7.773400
-0.564930
0.810436
-6.483435
11.093265
1.678449
23.114154
-9.098007
6.738473
-5.224466
7.065610
-11.182181
0.198385
-0.531311
-4.447396
-17.152879
8.559507
-5.203174
3.981434
-4.411348
-1.329988
-10.204030
0.760102
-7.559667
-18.229333
1.506682
1.885321
7.529160
-4.831150
3.118188
2.856418
-1.926187
-6.079645
-15.307670
1.314378
-8.649476
-3.397705
-4.846332
-8.374937
-1.073198
6.826249
-1.054384
-1.141128
2.227804
-20.438216
8.149878
-5.200236
-9.484062
4.569704
1.892157
-3.689948
-4.721402
22.524618
-7.926414
-8.245282
-22.673041
-1.501398
-10.073880
-3.050364
1.306526
-2.226120
8.359690
-15.753194
-11.728943
3.442829
10.139831
-0.224013
-5.647396
13.406573
-6.236112
11.843196
-4.519313
-8.382680
7.905903
2.212551
-6.825163
-9.728207
5.931499
-7.534413
15.701968
5.589762
-12.862235
-9.104519
10.898181
10.294854
-1.115205
4.765206
-11.580819
-2.604135
-11.695650
18.494165
7.924618
-9.763199
-7.788676
2.809293
-5.749147
-3.175713
5.008173
7.109795
-6.192775
-6.052008
0.169353
-19.725652
8.411498
-9.612799
-7.973008
-21.801550
7.002925
-10.021506
20.373775
1.695353
7.534237
4.294086
-0.078310
-9.081511
-7.131294
-14.334888
-1.496164
7.104808
-14.236588
3.621909
-4.075842
-0.422555
14.269376
-9.134345
-15.674259
-14.311466
-0.888150
-7.543079
13.606589
16.450155
-3.741452
7.963740
9.140886
0.119036
-1.026040
23.962576
-11.186900
-1.116276
2.043611
1.228082
-1.562883
14.872774
-4.799547
-1.199422
-3.745674
5.182210
0.232964
1.865366
3.813230
-5.879247
-16.707537
6.091809
-1.426044
10.752606
-9.102801
-23.525031
-6.980211
-5.127787
-0.950484
-14.828051
-7.925585
-8.941699
-1.737906
2.654542
14.288764
5.534094
-1.084049
0.612479
-8.103144
7.199543
7.501095
-1.645099
2.781009
-18.406487
-2.470561
5.679066
-4.568566
-12.581499
-3.309098
17.151998
-10.098358
3.183104
13.272040
3.983839
8.038514
-2.420110
-5.415640
15.711867
-3.417100
-1.015560
4.551600
-5.116322
-1.619723
5.362752
-12.872545
5.200205
6.276180
10.029400
8.113473
6.095525
1.619155
0.872510
2.060255
-7.350589
-6.539723
5.291414
-2.647291
-4.635129
1.093638
-5.309193
10.682481
5.643574
10.913257
-6.680626
9.955117
-9.958190
1.893995
-7.782974
4.603226
-10.966673
-9.351326
-8.745562
11.488552
-15.096448
-6.605023
-3.655475
-0.230027
3.391735
5.322186
-8.012739
0.377967
0.934607
8.048110
8.906366
17.033968
18.588632
-10.737418
2.397565
-12.907316
14.864862
11.331463
1.774082
1.202196
3.529137
10.952996
-2.776406
14.710998
-4.440959
-9.779147
4.901023
-0.909207
1.015656
13.240476
6.120594
14.099293
6.148437
8.902998
7.894544
10.028919
4.018680
-1.046581
0.101714
-17.705320
1.617164
2.516256
-4.591464
31.418739
3.101344
13.171386
4.525686
7.390062
17.434102
19.405758
13.619421
-0.457740
-6.083093
14.310908
7.683479
-1.422663
-6.799275
7.271330
7.816870
5.953641
-4.940165
5.812377
2.532646
1.877871
6.743238
-5.204998
6.229503
-6.717757
3.479248
-9.605385
-3.870344
-13.571187
-22.926185
-6.897580
5.235303
-0.544826
-9.093571
-12.358273
2.309494
4.520812
-0.290764
8.159929
10.060745
21.643474
7.346690
0.332404
2.464727
2.321398
8.409905
13.397066
18.982762
7.938210
5.960308
12.945651
-1.576780
-14.560561
-4.203167
-3.987889
5.749749
1.490466
-1.831626
-20.812986
6.737272
7.660817
-6.323208
12.113887
4.984955
-10.649121
-5.764672
10.159377
-6.750540
-3.851126
-5.444534
-6.421251
-9.055891
2.315317
-4.919601
13.188738
-8.086329
-3.090398
17.277175
-7.169259
15.367122
-1.890465
7.253987
2.545956
-14.804408
1.221735
11.729738
-2.489407
-0.657410
-0.015797
10.234402
5.977877
6.325964
-5.035523
6.722765
11.288383
-0.025212
-7.090116
-5.978396
-3.024974
-18.630560
1.164762
1.373041
7.000419
-6.208669
-3.460614
7.373865
-5.783376
3.754148
-3.646266
16.090993
-0.772312
4.216464
5.930626
2.477807
8.054997
1.931940
2.453630
2.592425
0.906082
-4.852301
-10.705188
8.317919
12.778745
-13.175565
-11.877262
-8.960470
9.361643
-0.010676
-11.388080
-4.239306
-20.116636
-12.357851
-8.392668
10.394065
-0.972729
1.108423
0.483637
0.222840
0.106525
13.411908
6.437253
-5.528869
2.184371
-7.749542
-3.329771
-8.202557
-8.707053
2.937474
6.035988
13.539328
-6.894415
-3.758782
-12.217467
11.787426
3.162026
5.004365
2.914360
-1.692481
-7.264517
-8.767467
-13.592636
6.855524
-1.897410
-1.316470
3.054590
-5.140106
-3.472190
-3.375838
-5.644629
8.794213
15.316680
-8.300243
3.953966
-2.732598
-2.249292
-13.577887
9.439606
-0.556063
-7.726053
21.309491
-0.639800
13.561947
17.518838
19.330862
-0.291314
0.104405
10.073707
18.096788
6.598205
4.785259
11.043327
-9.861172
-0.938127
-2.042763
-7.117428
-1.814965
-11.479971
-2.583984
-5.255268
8.825238
-0.254993
-5.535300
-13.787764
-7.842659
-10.880984
5.974077
8.542776
0.507330
-1.894646
-3.437339
9.060341
5.633028
5.245129
7.032462
-5.572181
12.596694
-6.625985
5.392755
8.176228
-5.270537
12.425614
-12.271550
-4.885149
-1.932525
5.823353
1.945477
-6.376938
-5.244187
-6.947502
-0.526293
-25.494691
-3.973503
17.856426
3.836664
3.504796
-13.379941
0.107962
0.750343
-3.773059
-8.283025
10.131647
2.376961
-3.909889
8.352000
3.000944
-11.528023
0.148963
1.192545
-5.708564
-18.970239
0.633108
-7.027696
3.137268
2.906920
-1.710325
11.330376
13.850885
1.462435
-1.175636
1.363218
0.403981
-4.780055
1.304783
-3.456999
-4.092588
-15.107708
-5.284078
-0.168586
-2.427547
-4.418160
7.388306
-0.957536
-9.565768
0.683349
-9.559312
3.831631
-2.422358
-17.732299
-5.168495
-15.954406
-5.801474
-9.329895
11.823790
7.832137
-0.064129
5.603470
4.133557
-3.188755
-12.617205
-4.072973
-2.352088
16.097502
-5.539432
-1.121351
-9.592081
4.600509
0.025420
12.065912
-3.943607
2.044796
-3.524049
12.600478
-5.467382
7.252816
-3.687471
4.228609
-2.656363
-1.000017
2.476213
10.010457
-8.515172
10.625222
8.822464
11.031831
-11.680941
-8.731802
-10.947294
7.863401
-3.519034
2.086588
-3.945548
9.726658
-7.523214
-6.985581
7.258221
1.383275
-9.947280
-9.774468
6.630338
7.310999
19.817528
2.393071
0.776737
-1.085448
-5.295301
-6.341208
1.182640
11.003251
-11.397817
7.639128
-12.176832
2.731477
-10.329061
-0.188850
0.842667
-4.886345
-3.161971
-12.158347
-6.567363
-2.858595
22.681834
6.521643
-1.722566
-4.345572
-6.574198
6.229128
-0.469063
6.547624
7.668589
6.374146
7.445750
-13.190999
12.041476
2.395450
-2.817224
-5.779939
6.072528
10.491257
1.839610
-3.183688
-14.552084
-1.836315
1.722594
-2.164025
0.565306
-4.928330
-12.584676
-9.994780
-1.918606
-2.166844
8.840305
-2.206626
-7.235771
-1.497021
4.740216
-9.273064
-4.187932
5.678837
2.376187
-0.473076
3.796469
-18.827366
-8.189378
6.774171
-1.684705
-1.160331
-5.946438
10.531887
-11.460395
4.653718
-6.405681
-5.934330
1.924652
-5.414591
-1.639527
4.873693
-18.526306
-6.908810
13.293765
-9.056049
3.728580
12.931197
26.073275
-9.449853
9.939834
0.064791
16.999682
-11.335891
-1.440840
3.319576
10.183190
-2.480411
-5.236467
7.037178
-4.743681
-3.031467
10.633880
2.804233
3.184427
-15.049642
7.673345
21.213110
7.611847
0.906728
-1.986690
-9.190733
7.781751
19.011273
8.481619
-5.911680
-9.284060
8.962019
-4.351620
-12.601337
-9.946627
10.767566
16.018825
1.892780
-6.973237
10.860913
11.713414
-0.507087
-5.746906
-7.638663
-14.560702
5.091572
-10.961946
-8.353558
-13.274253
7.433079
2.866959
-20.141394
7.449560
18.948695
-0.066180
1.154033
-5.695305
7.958958
-6.144016
5.720229
10.137269
-12.705428
2.125878
-9.863873
-4.136337
9.853618
11.540214
-3.854681
7.438915
12.370277
-2.056844
-0.358781
6.464106
-10.519933
6.106392
-3.037605
-10.434109
-8.097732
13.821338
-0.195425
3.326896
6.839064
-13.902294
2.917133
-0.613064
4.753823
1.343263
7.344966
-2.545307
-2.719964
1.625963
5.995263
8.184392
14.426414
4.383408
-10.332865
4.901575
-20.180880
11.385775
-4.109360
1.873359
2.755519
1.041221
6.023312
-2.038365
-4.717309
14.354746
-3.014651
2.935143
-8.283751
2.442690
-12.539690
-6.792387
1.280132
-0.938008
-10.907681
-5.003664
-0.948162
-0.870167
-5.686498
-22.358875
1.278526
7.416293
-16.086477
0.361634
3.513116
17.240841
-7.309574
12.150565
-8.482846
-0.750787
11.966611
-11.470191
-2.757293
-9.898996
7.582993
-1.219711
9.200706
-6.947076
8.188074
8.037216
8.945495
3.479716
-8.469038
-4.171363
16.568224
-6.458746
-18.868724
-10.213251
-9.927071
-1.470137
-8.269393
-3.015003
4.613244
-0.389375
14.715137
-9.063031
2.585180
2.154695
4.765221
-22.073521
0.262301
9.396764
-13.681699
3.817483
-0.644061
-10.494002
10.571729
1.266613
1.286613
8.729658
2.820706
0.938985
12.882363
7.974151
-11.968937
-14.871671
-10.464188
-11.663672
-1.350494
2.146680
9.917929
-11.262813
8.179960
-0.350223
7.065041
11.195004
-12.888943
4.851647
-13.412027
4.055648
0.566810
-1.332365
2.275230
8.290790
-9.828331
-1.332048
12.926321
-11.362633
19.650564
-2.574973
-2.405494
8.505170
0.851279
6.287864
8.827153
1.707047
-6.823808
-3.453762
11.217135
5.919339
-14.069234
-7.455102
-5.693808
2.165497
-4.428002
-4.299758
-7.753351
2.281132
6.987416
-8.257855
1.112516
7.704319
14.603111
-11.935297
1.679855
3.430691
10.675850
-14.796082
-11.513018
-11.500506
-5.783501
-1.112135
18.997448
-9.247993
-3.556606
-14.659263
4.209233
-0.812248
6.541053
3.973160
1.633461
7.095725
3.505709
-16.428397
12.306445
-1.725696
-3.964795
3.761186
-21.091965
-7.923586
-4.956577
10.728055
5.651271
-12.133031
3.625274
-3.536329
-7.479988
-18.348407
-18.141897
-7.123239
3.855886
1.586752
-17.420816
-3.317791
-8.669048
3.750649
5.289937
3.075808
-5.862962
4.391353
-5.469163
-1.167205
-0.248687
17.138883
-4.589343
-6.432100
5.360321
-2.262606
8.442946
13.182900
-0.334891
-8.030141
-1.432046
-0.384545
5.728926
1.043152
2.272377
-2.352399
-3.139879
20.988591
2.700019
3.650307
13.252290
-16.310403
14.882705
14.501191
0.813077
-7.730916
-1.500987
0.520777
11.962307
-5.111376
15.315672
-7.451146
7.962006
-9.189303
-14.587774
-6.127196
-16.431391
-9.251164
-1.885443
2.592495
12.900876
-0.124310
7.179163
7.182686
-20.308606
7.731854
11.760068
1.551554
7.229880
-8.575917
6.255312
6.213484
7.787958
-2.446497
20.448268
-1.145440
14.013173
8.346741
4.944256
0.272666
-7.079047
0.891041
-0.759246
3.515070
1.731621
5.493427
-1.126564
7.005110
-13.976099
3.999879
-2.872426
3.862301
-9.840594
5.805810
-16.318722
-8.446809
19.572235
13.889113
-6.175194
-7.256646
-2.427135
-3.831270
10.714649
-6.652122
-3.284519
-15.495994
8.059248
8.679700
0.714505
8.457928
-8.036751
2.910220
-8.024192
8.159191
-0.829715
1.158194
9.724743
-3.934348
10.878031
6.940092
15.495164
-5.490496
5.783386
0.154954
6.734977
-14.835065
-18.973751
9.775976
8.517024
-12.535399
-13.600019
-2.813215
-15.960240
0.546418
5.406846
-10.060016
-6.449944
7.757773
4.814982
-1.631924
2.232322
14.237767
-11.203082
-1.150664
3.007310
1.097267
-3.282690
-0.300721
5.109620
7.882070
-2.789567
3.993436
-5.737174
1.922974
3.434219
-5.332620
-5.059027
-1.195995
8.857912
16.454177
1.694328
0.561151
4.461150
8.477840
-4.028833
-2.771115
21.949562
13.356044
-8.816096
3.890866
0.020794
2.388967
-4.873952
0.096962
-6.981704
-2.285457
-4.159683
-1.947304
6.404727
-4.157076
-2.330946
5.605834
1.126441
1.249384
-2.989235
-4.143117
5.790112
2.945706
1.606987
-1.532873
3.789829
7.336832
10.680368
-6.684251
-9.615282
-0.071757
13.839735
-15.697108
-17.646651
4.485586
-9.286604
-13.803714
14.050312
2.472230
8.297538
-18.472172
-0.269627
1.591443
-8.991579
-2.230248
-2.296904
-9.701846
-17.211713
-0.554873
-5.910384
9.721299
6.283939
7.580191
-2.977215
-7.540526
6.962225
-13.807858
11.027474
-1.382798
-11.194007
8.796841
-0.251386
-1.379929
-7.809124
-19.007484
7.396191
-4.053968
4.988961
-2.287426
-6.760433
3.716626
9.482854
9.138274
3.085623
10.824916
5.359242
8.008611
9.185481
2.906249
11.386686
12.573857
-11.710172
-1.732283
-10.099679
5.543394
-12.814685
8.186016
-9.956839
-1.468069
-2.381041
-3.162368
10.321489
-17.103202
-1.483419
0.743767
-5.830627
14.434351
18.855192
7.007281
1.976069
-5.620585
22.513298
14.186212
-0.633384
-5.010427
-6.634851
-0.320560
-0.796164
6.008057
0.846377
9.722189
-0.342416
-2.095417
0.470202
6.879226
17.383971
-7.485894
6.313892
0.516395
11.254839
3.443772
1.665663
1.180801
3.363034
-7.575512
-2.067303
-3.897317
-2.402956
1.151571
2.460749
-10.705753
-8.733874
4.224074
-4.987227
-4.169552
15.464244
5.548576
-14.905712
-0.012404
3.611225
3.836107
8.717119
2.863568
-16.279500
-2.758370
10.617414
-9.699572
8.225304
12.632720
-5.258795
6.986077
-3.728127
0.608042
11.729039
10.550375
-10.415877
-0.819174
10.937308
7.141517
0.923498
-15.444997
-6.108186
-7.217984
13.399655
-5.856963
4.026048
-1.216524
-11.243922
-4.118889
7.907447
2.956679
-0.184763
13.076787
3.804687
-0.866010
0.383089
3.464433
-8.964656
9.202576
-8.304785
-4.258922
8.946461
5.738844
0.191847
0.196988
1.273291
1.042200
5.523914
9.866740
8.840027
-8.711566
-0.917529
-3.725949
-4.644999
7.994109
-6.704592
0.259196
-5.515123
18.913077
6.476829
0.184263
-4.361747
7.270786
0.174379
8.855430
-4.285223
-10.167117
7.081091
-2.179194
0.679149
8.822946
-11.974899
-9.817633
1.434946
-14.582205
2.522860
-5.701914
-1.155989
3.283689
-1.176732
7.282695
-14.052406
-9.076748
7.124664
3.446597
-1.840614
-9.557738
-3.061960
-7.918350
13.803783
4.654968
13.750061
-7.571606
-10.501661
8.127109
12.705781
5.688123
2.208893
4.698643
0.948172
14.013323
3.172175
-0.353047
19.591424
-2.513897
-3.658066
-19.151878
3.727437
-0.640249
-1.980762
4.314556
-0.200193
10.990888
5.086852
-10.040003
5.122711
0.653959
-5.212829
0.436384
-12.168175
8.586073
-8.305674
10.647582
-8.818968
-9.206384
-6.174816
-4.832476
5.455630
10.138187
4.823499
2.181738
-14.914558
8.131881
-1.475353
0.394506
-9.374662
-17.501576
4.563889
15.845416
0.943191
0.044583
12.829649
-5.474580
4.413656
-13.342012
1.807972
-12.477380
8.096649
8.354668
1.607964
10.274317
-8.065844
1.155401
-2.841431
-2.883884
6.980512
-13.954169
3.340214
-5.843814
-4.369600
0.166735
-3.926539
-17.320876
4.320837
22.293889
4.796473
10.624783
-13.798236
-5.123149
4.098493
4.196933
-1.226737
-8.679699
-9.829564
-5.430348
9.176227
-1.391386
-7.602069
8.290375
-6.129594
-8.707112
10.639610
10.485668
7.803755
0.488693
6.727919
-1.305818
5.764782
-19.799020
6.419082
11.639157
-14.643085
-6.769709
-7.707082
1.967273
7.918763
1.521327
-3.580897
19.301205
-15.367287
-1.054282
3.807491
3.677305
7.058766
5.720296
-0.284827
0.796262
-0.452066
7.635954
-0.543688
-0.133304
-2.862823
3.830767
-13.463797
2.953404
-0.143132
16.078769
3.400373
-15.356613
16.731426
1.066528
-10.267165
6.055628
-3.947215
-1.149059
-4.757069
-9.441033
-8.119274
10.648684
2.261191
-4.741938
-6.537256
9.762418
-1.890042
16.889039
10.338959
1.418943
2.007369
12.376901
-7.816780
6.488550
1.510392
-4.884488
2.528621
12.101587
2.938872
17.015141
0.896474
-10.091114
2.525925
-2.139560
10.655451
-0.806953
0.677086
-3.434783
-16.102776
-7.682813
-0.623210
0.231313
-15.974853
4.955013
-4.864733
1.973105
-3.485565
5.894018
-14.553883
1.484532
-10.212283
-7.092615
7.760294
-14.435111
-0.595798
-15.923928
-0.009764
-10.407772
11.646151
14.159128
14.221564
-15.593529
-0.686502
-5.404988
1.642729
-5.908757
-0.227562
8.254180
-12.978723
8.880369
2.122100
-6.532572
-16.812401
10.826510
1.207928
-6.225063
-0.463568
-13.320634
8.606108
-4.424854
0.095561
4.558432
9.021098
7.660668
-3.094993
-1.372545
-5.919395
3.089408
0.086770
-6.851384
-1.113941
13.604837
4.711094
-7.133546
7.505583
-7.775236
0.103038
-2.778233
-6.795690
12.021137
6.986969
-1.842854
-6.614483
15.630455
6.913251
-3.317066
-6.190840
-8.223501
12.949976
-3.840712
14.284092
11.973213
-2.047302
-5.757457
8.239742
-6.331225
-0.510300
-16.557246
-6.029390
1.192230
5.542270
4.837618
7.291921
0.309111
-12.146987
12.872400
5.396482
-3.837536
3.319709
9.501100
-6.984288
3.130021
-7.138383
-0.290871
-4.877816
3.584535
-2.227472
-0.266770
-2.964862
9.351724
7.792575
-0.696287
-7.859960
-12.716212
-3.097981
-12.201807
-5.572409
-7.597520
-7.961571
-8.024293
1.392054
-7.431429
4.124794
2.585949
0.468445
-0.871269
11.417241
2.683291
10.327154
18.553834
7.220407
-2.365585
-1.701015
2.572046
-11.849127
-15.005956
8.474773
2.031700
-11.873685
-0.881029
-8.701012
11.629602
6.040380
2.706708
8.093580
-18.083882
2.033951
-4.066236
-0.004578
3.505921
-10.650275
3.933785
3.148760
1.921244
-7.282172
-8.410636
-8.206910
8.102727
-5.498827
9.745215
-3.836318
6.448965
-3.188717
-1.151421
2.216580
10.783299
-4.070299
9.324476
2.689532
3.582202
3.652429
2.510540
-8.578513
1.640175
4.918394
-8.320200
-4.626049
-1.920749
-12.968234
9.754572
7.419303
26.958038
16.434718
-2.764229
1.435009
-12.099372
-8.900192
4.730026
21.421278
-1.224297
-0.396518
-8.072094
3.210602
9.063748
18.847905
-10.545674
-0.082732
1.718441
-4.520983
-5.770753
4.657635
11.326156
11.300148
-7.009245
-22.603420
-1.461503
2.452580
1.891000
0.725975
-5.233135
24.556603
8.481447
4.960762
-2.433901
-2.796940
8.109403
5.206314
9.615800
7.473984
-13.336678
-10.547666
7.914411
-8.810658
9.747096
-1.806483
-11.110229
3.386038
-1.525653
13.256291
1.704811
13.977931
-0.129840
12.709681
14.794778
-4.889314
-0.560052
4.242122
-5.526261
8.158258
-11.275975
-0.313939
0.345805
-8.458967
-4.217578
-5.500072
14.225400
-0.940907
-1.452779
10.443022
-7.163052
13.082551
-12.573078
-8.506695
3.051870
8.888574
0.514658
-5.101800
7.120326
-9.299284
2.957288
17.835350
-5.915338
-0.806546
-11.018027
4.530361
-13.149266
-2.900059
-0.715541
16.791480
-2.863305
0.840061
3.151832
3.051069
8.209717
-5.258958
-4.873117
-16.806241
1.519544
5.157816
18.049658
8.249421
5.591760
5.321917
-3.566379
-5.772245
-0.518124
-5.250618
1.644332
3.531713
1.054269
-3.170698
-7.083126
0.232107
0.432269
-1.506091
4.984463
6.107522
-7.170396
9.382345
9.733245
-9.692366
-5.555528
5.765449
12.738398
2.407666
1.455727
-3.742435
-2.293150
-2.961574
3.350908
5.887679
-1.144608
-12.797102
7.611132
0.074866
9.604230
1.402849
-15.490120
-23.687217
4.044764
6.791226
4.622227
7.314919
2.261436
-5.486853
-6.896971
-7.139064
3.841713
-7.688779
8.740427
-2.066402
11.569820
-0.772436
2.094006
-0.401622
-7.082822
8.090787
11.666412
-6.309783
12.616986
-6.802699
7.473923
-2.473823
-5.705150
-0.103983
-11.773343
-14.089834
-1.807910
-1.740454
3.049930
-8.068697
-19.281557
10.561312
1.515955
4.236057
0.348619
22.021423
8.876522
-8.913446
-20.854012
6.556914
13.426999
-4.795197
13.966803
-7.457388
6.992030
13.271718
-7.383220
6.810036
-0.971379
0.067737
11.171039
3.986219
-14.369306
-8.883817
4.314899
-5.946585
-8.449164
11.762883
17.344944
-3.251876
4.691356
2.362701
10.098720
-5.562236
6.567108
-4.755781
1.055788
2.110531
-16.809205
2.400287
-1.924051
14.639080
-15.490975
-3.561596
2.422810
6.987004
4.513715
-3.910746
0.670517
-1.989502
5.597250
3.454916
1.252183
-6.551271
-0.314859
6.255891
-12.353605
5.896945
14.746936
1.659072
-9.461094
0.948078
13.043358
-3.873176
-6.021433
-25.941871
-4.430296
-5.257291
-8.252146
-0.664323
-8.138655
0.805130
-10.525234
-10.997548
-12.415006
5.329511
6.019709
5.948011
-23.047561
13.083033
7.075458
-11.843673
14.437552
-1.050592
-7.408390
-3.671484
-10.803832
8.495827
-8.362380
6.825728
4.684540
0.931989
-0.435669
-3.769302
13.091661
5.647402
-4.990760
-10.588281
-0.930023
3.883150
-1.401650
-10.630348
-4.549930
-3.874678
-10.872904
-8.076333
-7.822561
9.698285
-5.793398
0.529682
12.010411
0.682961
-6.874054
6.582008
3.509096
-11.388998
-6.250753
6.623822
6.570486
10.249997
-4.421287
0.271355
-1.093416
11.233474
0.799111
1.186958
10.155982
-3.453142
-0.218201
-6.637190
8.332238
-4.818093
1.990585
6.149933
1.393835
18.256937
4.015155
13.548537
-15.293347
-10.791370
2.848494
-3.223082
-6.857602
0.582454
-1.843462
6.571282
8.615653
-17.105907
-7.019031
4.150438
9.649947
3.612553
-4.292856
11.707924
3.338775
2.204311
5.286653
8.219747
9.307235
2.322488
6.006269
-5.725646
5.722937
-2.851371
1.975125
-14.502002
4.988324
4.605362
-2.689370
5.872694
-5.730285
-4.716076
-9.263918
-9.128579
1.401389
18.293937
-5.858110
-5.720172
11.682567
-10.884087
0.590090
3.612231
-3.814367
-5.348874
1.412854
0.568875
-0.085963
-7.114172
-2.304832
-9.963469
-3.613601
0.267008
-3.742945
13.640087
-0.215564
7.946398
3.113344
-4.997192
-0.923778
6.250844
-16.184634
-0.163033
6.105710
14.206345
-2.955034
12.980192
-7.075638
3.004232
-6.892140
-9.542371
7.960883
10.654052
-10.475920
8.378509
15.575032
7.858067
-5.085173
15.240552
4.265758
-5.802991
0.978358
14.218368
-4.096041
0.999747
7.470660
5.857689
-6.381966
1.623498
6.566500
-4.860956
-2.435694
0.083871
7.876708
-1.504673
-10.804314
0.731904
7.534110
3.180643
10.044591
1.044193
2.332220
-1.719804
6.692755
-0.495220
3.278950
-8.998464
-6.792571
-2.162474
-2.581919
-2.124720
10.353532
-8.838331
-4.415305
2.268458
1.804457
4.698706
7.423742
-3.645687
-10.483874
-6.393440
0.177851
-9.770103
7.032629
3.735757
2.285292
2.428254
9.738827
-2.370174
0.909534
-6.332747
6.866338
0.925204
-2.702422
-9.335329
-1.412439
0.758911
-2.214366
7.028096
-1.220072
4.028101
-2.946739
-1.870582
4.035341
-3.083669
-2.138600
0.157366
-0.192336
-10.850420
-10.474658
12.781066
-15.271695
7.331180
-5.847806
0.660979
-11.561377
-3.245605
-7.204529
-0.924542
6.100947
4.152284
8.460383
-5.817533
-3.350495
6.186109
-0.539054
-0.712615
2.986571
8.049408
4.485298
-0.857938
2.518167
5.848224
0.241502
1.779685
-6.316035
-6.749738
10.075562
-11.290738
1.584957
17.941504
-5.107779
-1.332639
-4.331294
1.295097
-2.493373
-5.178465
8.094826
-0.014542
5.004577
-1.033357
-14.673526
5.897762
-2.659987
7.342391
2.104935
-4.422317
-14.783969
11.170904
1.925645
2.306887
-10.073288
-6.902458
-14.126207
1.343403
15.038995
2.852479
-0.642550
-5.744712
3.854384
3.973920
-10.451176
-11.756492
-9.094925
-5.816482
-2.548568
-16.223965
3.862668
-3.573309
-3.166389
2.351415
-14.398141
-0.448510
-12.817687
-5.800668
-5.930839
12.694398
-3.531511
-1.552549
-11.495683
-1.263353
8.071229
3.124762
10.049477
7.341127
9.576996
-9.965838
-18.672325
6.990908
17.604122
-5.768928
2.520018
-10.095829
-1.982289
-7.069283
-2.972297
11.849509
5.388715
-1.441963
-10.514551
2.761851
-8.874165
-12.298624
1.746085
1.152734
4.911868
0.565974
-9.319030
-10.618633
-10.419103
-2.731950
0.967169
11.298898
2.930313
-7.680500
-0.186156
0.725199
16.249530
5.874580
-6.434949
-1.581089
-3.769363
-7.083531
8.067897
3.275781
-9.980305
2.403923
-5.559284
4.818034
-7.071933
9.104634
-4.762580
7.384330
-6.535306
1.943493
11.586830
-4.108680
8.929354
3.981488
-18.223159
-3.184805
0.264812
2.431444
6.585203
-0.746516
-2.033775
-9.792851
6.345322
-3.330074
-2.648389
-3.803935
-4.181916
-7.611294
11.362357
-7.811024
-4.661485
-2.574999
3.727747
10.547706
-6.526226
-0.498905
1.970258
-9.127829
-0.050399
1.831900
-9.831892
-10.716154
13.086273
-2.638664
18.974271
1.666954
13.755317
-9.686609
-21.054664
-1.950019
-4.050028
-7.290847
-12.530563
-6.978499
-8.462499
4.738460
-14.937513
-5.849904
-9.086933
0.824163
13.454279
-2.114328
19.751700
-2.633574
6.341358
2.188291
-21.826584
2.742590
-3.078960
1.778257
-2.963353
-4.875084
-4.731257
5.580066
1.627178
9.139808
4.988221
-6.959742
3.053157
7.296394
-13.004006
8.599726
6.934051
11.124533
-14.162731
5.043499
9.933879
14.049171
20.750000
11.837361
-0.660561
-13.509989
-2.516307
-8.069237
-0.361061
13.133711
-0.106575
-3.657626
11.861588
24.274856
0.580274
-6.329666
-4.106432
-13.265769
5.182744
-6.186229
19.694934
1.006447
15.479577
0.495166
-4.965726
4.979014
-7.121689
-1.433093
7.954702
11.998577
-9.043866
-24.818331
5.007900
-1.344503
1.186031
-15.835550
3.437345
-20.856875
-0.204288
9.478415
1.359840
-4.322552
3.805207
3.787385
-2.689809
-15.581516
-3.636833
11.510714
7.630705
6.831335
19.814782
16.660054
1.771760
11.023920
1.695898
5.739108
-4.486492
-8.931383
-7.171569
5.749997
6.653911
5.334088
-5.660309
13.360917
5.582784
-7.462848
-10.984374
-2.198640
-3.380208
8.958194
3.152291
-2.295210
-8.934913
22.888508
5.893354
8.268694
1.803620
-3.397304
-14.650790
-5.650789
-15.031736
11.349454
19.232502
-1.788409
7.169503
-0.207829
6.782762
-4.814274
-10.887064
10.210222
-4.105787
-8.783092
-20.093037
-0.328757
7.656835
-13.117323
-20.313225
12.107359
-5.131565
-5.121877
-2.796083
2.596605
2.032580
6.291558
-12.383971
7.916500
6.063296
8.549599
1.952077
5.739679
4.278618
2.084003
-8.264267
24.209954
-5.450779
7.858589
-23.714006
6.430210
-6.188919
1.498320
-5.824345
-2.573872
1.276652
3.347272
4.192057
-4.006040
-2.918435
-13.570966
2.321935
-8.586590
0.546235
-3.533488
-5.304056
-13.750719
-4.268024
17.789309
12.219938
-18.303373
10.795058
-8.870683
-3.095112
-17.466076
-12.622831
-11.648479
-11.868624
3.363208
-21.009790
3.390002
-2.123325
2.731876
-15.808220
-2.910164
4.920140
2.286542
0.555419
-7.745257
-7.319090
-0.205386
-3.612330
2.289368
6.560932
7.701736
-23.208129
1.396807
-2.220555
-1.366358
7.484596
-0.241848
9.151186
14.350366
-12.640615
-3.700161
-0.344317
9.136574
4.863590
5.455480
0.900943
3.507539
15.028288
-1.230291
12.131215
-4.247009
9.737212
5.999462
-8.428565
0.121924
-1.503512
-2.700181
-5.321507
9.191721
-2.191094
14.236928
10.613696
-3.415597
-4.771104
9.218219
-2.452931
3.387716
1.999462
15.545095
-2.017980
-1.999021
-8.231849
1.371459
11.364867
5.408947
-2.458431
4.985401
2.547121
-9.225196
4.259004
-2.880674
-3.130809
12.514438
-5.199264
-4.240272
-14.375464
-14.272691
-1.580668
7.394559
-11.087571
5.682872
-9.643161
4.328965
-4.812071
11.438480
-3.643482
-4.061895
-0.957239
-4.871079
3.754145
12.747807
-10.198445
17.426382
5.686363
0.015603
10.121973
-10.240235
-0.560915
-2.928491
13.017087
12.873510
0.301783
-15.643453
5.111564
-10.942298
1.070973
7.409148
-5.133805
-9.244064
8.257489
-8.570448
-2.447914
-19.139553
1.529528
-9.718813
3.182212
6.329923
7.985192
-6.086020
-8.439955
-13.040834
12.447264
2.356999
-15.388737
3.882415
-0.032960
-8.711579
-5.847816
3.342835
0.881548
4.561731
5.905217
1.837577
-11.143613
-9.071811
-5.917938
-0.080517
4.204239
-7.078278
-1.217520
-23.265246
-2.515284
-13.896812
-7.914525
-6.925559
-9.369339
-0.054243
-1.248350
-3.162277
-7.902490
-6.838282
-1.781271
-11.628635
5.000180
5.157754
-6.495431
-5.744682
-3.393040
-15.908587
-4.949242
6.078074
17.118489
0.390188
-1.251623
-5.162775
-6.643800
4.441517
3.150609
-12.497272
-1.490256
0.143683
4.831674
-25.336016
4.550144
13.838974
-8.221611
-24.318294
-2.339101
-3.260115
6.690998
-2.422585
-4.159146
6.722711
-10.058210
6.174749
-0.181710
-1.465955
0.452463
1.153091
8.147411
7.790640
14.476149
-2.295579
6.974752
16.341721
9.266916
1.780058
1.918071
-0.879974
6.860886
13.490900
5.504435
-5.645965
5.110229
10.558267
5.825101
8.461665
8.105665
-1.671148
7.365701
4.677564
2.788315
24.495991
0.391599
14.461652
5.457520
-3.586297
5.924593
3.176379
2.333265
-1.811884
-14.503481
-8.657043
-5.078186
8.297287
-3.423333
2.595121
-10.655602
17.319357
24.377980
-13.755537
16.203599
0.065544
9.558601
12.454549
-4.597946
0.191518
3.629286
3.670488
-0.757385
0.517362
-7.227814
-3.224385
8.659861
-6.082016
1.436521
-8.308047
-0.973860
0.111461
5.513268
-10.259500
17.841538
4.944110
-9.933507
-10.767372
4.105823
2.960843
4.332806
-2.410886
-3.003040
-7.303790
7.220156
-9.285593
1.867817
1.821207
-11.364555
0.608985
3.922181
-12.566393
10.940450
5.860118
8.017873
2.996352
-5.113241
3.429670
14.557146
2.453125
7.759359
-1.087359
9.826474
-6.956582
0.061082
2.104254
5.208536
4.717093
12.723165
11.118778
14.963647
3.690094
2.747165
-1.832330
-6.382231
2.507703
-9.182705
3.465372
23.142221
-6.956636
-3.912283
-11.009420
2.965643
-13.557761
-4.812340
17.372318
0.539195
-6.721240
-12.217090
-14.911462
-5.531601
1.290395
4.623635
5.933213
-2.213151
5.970768
-2.440773
-9.769460
-8.864141
13.122047
4.164314
12.105709
13.452873
-3.755137
3.538080
-9.434684
-12.631414
-8.808495
2.635121
-3.420755
8.705522
3.123644
-6.182138
-0.687954
2.279040
-16.238378
0.397215
-1.169587
7.355243
-7.566595
16.120110
3.148705
2.524470
-0.475555
8.910219
-2.026841
5.313836
20.611260
-17.591666
-11.027618
-2.933407
1.133822
-10.066599
-0.461673
0.329244
-4.495453
-12.120017
-11.005675
8.299182
15.528810
7.863542
-9.265941
-4.205485
-3.772818
-6.155321
1.990617
-5.951121
-2.248911
8.005663
-9.262364
5.876438
0.378678
-0.952809
-6.916886
-8.936206
-0.395235
3.491059
1.197044
10.232056
4.690842
2.685875
4.016105
1.334695
18.014592
-5.674878
-2.017637
12.570892
-2.315915
4.088872
7.987712
3.013177
7.376438
-10.276084
13.218620
5.617870
1.766051
2.541322
-1.599820
0.253673
0.762866
-8.979766
-6.131027
13.978430
-8.317664
-10.030559
11.747972
4.444337
1.991177
-7.058333
3.404904
-0.946693
-0.154026
-1.521836
12.823846
10.901006
0.314484
10.638449
-22.382429
-0.202644
-3.495276
-0.371586
8.557463
7.335596
-2.550659
16.381673
-6.176256
-3.559986
3.496339
-8.740806
-16.150773
-5.527380
-11.486484
-6.127481
-1.476785
-1.319048
-3.801948
-2.792653
-3.854866
8.304460
0.649294
1.301150
6.681998
-9.872406
-11.449864
9.131787
2.131255
-7.636261
-3.097487
-11.332921
6.713710
-0.718498
1.091375
19.976307
10.528294
-2.904861
-2.861801
-1.706110
2.765140
3.889732
-0.016734
4.531795
-0.292162
9.417511
-4.093756
-2.386536
-12.677433
-1.782094
-1.824268
-2.767411
5.433744
16.184568
9.993112
-7.398572
18.398584
-1.725998
7.181780
-2.858887
-14.077451
-17.500345
9.446627
-3.772041
-6.589503
-28.843557
6.712815
5.108263
-16.612269
-3.443783
2.133728
-4.332591
6.701705
-2.160509
10.984329
-3.387074
14.776345
-12.159921
0.383832
-6.741665
11.180787
7.436833
15.016523
-1.455123
-0.372991
3.954846
15.390680
-12.564406
-6.633750
8.669018
-5.215570
-3.503755
1.149213
-2.744633
4.141877
3.811550
2.953975
-0.472312
-16.302073
-17.149824
-0.158274
13.229065
9.122267
1.166980
10.135367
-1.799088
2.133675
-2.045004
5.996088
-7.643828
-7.845457
-7.043100
-3.066109
-7.949603
-13.259661
-13.476085
-1.180433
-3.469085
-5.553188
12.686879
9.428182
-2.146419
1.714583
-7.182977
-5.777138
7.974683
7.899137
0.427959
18.494352
-8.909629
2.344789
-2.267432
-1.406852
-14.501099
-3.631756
11.931720
-9.517210
-14.337554
0.454879
-3.636523
-6.996704
9.534599
2.144688
-6.777395
-19.126511
25.899678
-0.089099
-4.205709
3.589379
8.919181
-8.591716
-2.554371
-6.139418
-7.421313
-3.123771
8.119322
-12.942416
0.661260
18.123523
-2.734659
8.535483
-9.501615
11.030847
12.951916
12.540374
-9.184945
9.746750
4.286543
7.112157
-3.741706
3.994145
-4.032382
-8.418713
1.541926
-6.796098
1.128548
3.284038
-3.756996
-3.487555
2.232593
-18.415702
-10.674841
9.822593
-12.000495
3.341724
5.163554
12.826858
-2.824645
3.644764
8.347320
18.988437
5.154033
9.518067
8.607510
5.891975
-12.103648
2.913415
-5.054462
-12.324859
-8.599801
-0.706487
8.365886
-7.534071
4.552654
10.836965
-0.999719
9.314716
15.133863
2.914793
15.525376
-9.574225
-1.230533
-8.959106
-6.872116
12.292964
-2.968671
-2.115515
-9.588415
11.122962
4.129329
20.560764
20.416642
-5.208231
-9.675533
-4.989859
-0.752036
-3.431050
9.514155
5.929861
0.853781
-3.272576
-10.614866
-2.563807
-2.754987
6.016487
-1.748717
2.556706
-3.832149
13.299351
2.814846
-14.094318
3.339470
-4.360921
5.317610
-8.618684
-14.317858
1.688376
1.154915
15.575395
0.297809
8.087450
9.360676
0.091368
10.899920
-10.686209
4.408649
18.080724
-0.574808
20.370366
9.563823
-7.328005
5.812782
13.966213
-0.256318
-3.687569
9.559359
9.386018
10.710967
-0.076886
-5.762522
-3.269492
-0.073359
2.354296
10.124533
-5.516602
-11.804652
-12.660267
4.854840
19.141699
5.750111
-17.351149
-6.487328
-1.211221
11.503706
-3.934626
-13.025364
-4.686799
-2.988737
1.722534
3.029432
-4.197705
-3.275320
1.352213
1.049219
6.019326
0.827857
6.590966
-11.869556
-9.254365
0.690641
3.134449
-5.175946
-11.153008
-2.156625
1.241532
-18.097322
5.697387
1.746655
-0.500946
-11.342776
1.595187
-2.980389
4.877575
-6.673422
8.202075
8.908191
-13.867537
5.226326
10.069788
-5.235448
-8.563355
1.158151
-7.515941
-5.695823
-1.115564
7.263846
-8.799857
2.745270
1.334137
-9.691910
-16.882821
7.414838
7.943934
9.548116
-2.492930
-7.243736
-3.671872
17.821799
3.235237
0.976020
5.176176
9.060574
-7.611376
3.110918
17.279700
5.012385
1.643362
-7.731965
-4.778337
-16.659124
-9.546453
-2.164795
7.730457
-6.332721
-8.313516
13.245740
7.473983
-7.466006
-1.077698
10.062437
4.078130
-7.097384
-13.948743
0.536698
-4.592886
15.598257
9.432089
14.811730
11.532694
8.842875
-9.212201
-14.814780
-4.796298
-5.029488
4.786428
-2.589519
15.430778
12.578207
-14.558368
-6.116868
-14.284186
9.246592
-1.966248
-3.318914
-13.367917
-9.409932
1.480693
-4.781625
-10.382357
-3.653811
1.715486
9.572128
-3.394980
-13.221159
0.578465
5.651502
7.576847
-2.206106
-3.474710
3.598291
-10.721573
-1.578233
-13.252016
-3.895076
-7.168521
-6.345641
-15.329447
-4.719433
7.287031
0.607539
4.397180
4.435425
7.203016
-11.957816
4.979272
-8.528785
-1.610363
11.804785
14.959509
5.145864
-11.811558
-2.999533
-6.992526
-4.972024
-3.486147
-1.125151
-7.274980
4.080071
-3.151428
-9.224537
10.059652
1.786864
-5.624348
-6.133484
-1.907918
-1.968259
11.359311
10.104891
-2.161656
-3.741549
0.840083
-2.749077
10.201261
-6.508173
0.897898
0.635705
8.234630
2.644366
0.620324
-17.144396
-3.805956
0.252564
3.985511
4.748051
13.544961
-3.045734
1.019349
-8.951081
8.960884
-0.449271
-9.556677
-10.797672
-14.663286
12.047904
-7.128997
12.190543
15.408841
-18.536263
0.382408
-7.895103
9.368985
-17.375493
-5.343889
6.403034
9.284930
-12.594141
-4.982174
3.488395
-2.970177
6.216713
-0.793040
-16.136349
10.315513
-12.247824
-7.767467
1.760371
0.833791
5.076060
5.119765
-0.427364
2.354667
8.736327
7.204535
-5.392407
-3.329066
-4.174352
-5.528093
9.107213
-2.014624
5.184789
2.637781
-5.150153
-1.502920
7.380534
-2.647840
-3.692091
18.902574
8.728032
-1.551831
14.228331
4.656987
-7.592693
7.087515
5.284299
-4.650355
6.798312
10.831267
1.471207
0.441360
12.886895
-3.930475
13.124179
2.783414
-6.183117
-3.390726
7.855478
2.295156
-1.152633
15.088396
8.815237
8.363517
8.671651
-2.172082
0.262003
0.969225
3.917901
-6.000323
-19.078702
9.164136
1.535073
9.908604
-2.240038
-6.955538
-3.744750
-28.941844
-13.209730
-4.463146
11.530826
5.459932
-5.895893
4.693803
-17.262782
1.249219
10.248142
8.226238
0.006982
11.007046
1.195892
3.852403
6.280088
-6.740881
5.635086
6.440929
-5.350870
8.255971
-8.730255
7.811753
-4.015705
-2.999988
12.627568
-5.048434
10.162457
-2.812148
-6.175299
-1.178920
0.520466
-7.680723
5.474898
1.799510
-0.675301
7.986885
7.841517
10.973332
8.825862
13.659142
8.550049
-13.521215
-6.393691
-13.749779
0.927749
3.909812
0.015358
-12.294018
-7.134817
3.970625
-14.717333
-11.720743
4.794563
14.949599
2.067307
-9.075210
-8.091558
-0.563652
-0.008162
4.020787
7.276646
-0.602984
2.571567
-3.262118
-3.570221
-20.040841
0.769415
-11.505745
3.589541
1.959244
14.919930
-0.341002
-7.726927
1.192675
-3.986049
10.286388
9.109604
-0.761155
-7.072790
-17.213481
7.511356
-7.571302
-2.487072
19.475278
4.200493
4.813308
-6.620355
-4.318847
1.113380
2.266068
-3.379011
-0.936631
2.431851
11.647394
-0.588199
13.213648
-13.840016
-14.507044
-9.553154
5.702628
6.832380
8.913070
-1.255011
-10.548339
2.642284
-3.611511
2.021091
-13.163399
1.881306
2.538137
5.634932
3.913601
-1.732260
-3.813951
-12.347800
-7.962673
10.936497
-9.335969
9.164507
-5.808614
-15.655016
4.684291
16.458483
-8.839353
-4.327743
11.171320
-9.074985
-1.238560
8.960011
-3.878402
6.624868
-1.134653
-10.750630
-5.533798
-6.713123
3.459289
-11.438463
-4.120886
-13.967071
15.297288
-0.038490
-8.548640
1.899756
2.158931
-2.274377
4.122465
-10.611017
-24.405514
-8.717296
-1.606600
18.766393
-18.211401
-7.688272
2.324918
-9.112356
-8.844592
-23.096672
-0.254313
3.087151
-7.686133
16.949587
-8.453565
13.948789
-0.484689
11.722173
-1.158910
-3.767088
-3.534219
13.726156
6.148453
-1.745214
2.045304
8.275452
7.532997
-8.271594
2.083008
-3.389410
-7.597546
2.573352
-9.746266
-6.650782
2.082198
-6.568803
-2.073658
1.413475
-15.696788
-2.727763
13.644989
-3.905287
8.321655
-10.095146
-0.750891
-11.139680
-17.520325
-1.836042
-7.796419
10.479830
-5.160882
4.963619
6.341990
-1.936959
5.895390
-5.683181
-7.760092
-4.106358
-9.036693
1.797144
-5.099743
-1.945878
7.489428
-7.768599
-0.961462
-7.059432
-9.602644
-12.257466
1.448551
3.357449
-10.158482
10.773150
-5.683490
-0.459157
-7.067532
-1.511260
-2.996377
-15.080946
6.738708
6.667959
8.991908
-12.844091
3.312712
4.293827
5.939078
10.660990
7.157994
-8.004487
8.134363
-5.272639
4.262426
3.855446
0.319607
15.208215
3.432013
6.759160
-0.336955
3.366134
11.392626
6.319068
10.635573
5.481515
2.215885
9.888482
-7.532270
4.255161
-7.388955
-10.568250
-17.251090
3.148444
0.616643
-3.053713
25.186801
-13.208836
0.437463
-7.542963
-5.600962
0.728709
-0.244951
-17.954252
8.680402
8.668921
-7.323696
3.091684
-0.521770
-0.166657
-11.011831
-1.015128
8.153752
-10.858605
-6.434719
6.853033
5.538935
-12.777312
-9.521377
0.839884
-7.245648
-7.116044
-1.381279
-5.594737
-10.605874
-1.011789
1.051110
0.266242
-4.022848
12.525551
10.964515
-7.589486
3.781837
4.309877
13.062972
-2.401925
-6.306842
6.053760
1.962337
-0.007778
-15.116896
-3.476566
-3.963239
6.833762
-15.070022
-9.891095
-12.424931
-4.489157
6.029635
-4.452217
-8.102950
-11.452313
26.857866
-9.758865
-16.328158
-0.726552
4.850042
-2.661115
6.377975
-3.656980
-2.622690
-1.050223
-3.538854
-18.229778
-5.545824
-9.193069
-18.735092
-10.265307
-2.182066
-10.431564
8.098691
1.205255
-1.858056
-16.842940
4.975122
9.445520
-5.899969
-3.918540
7.003717
3.053772
-4.938655
18.134272
6.092777
5.854364
-1.756810
8.517293
-2.442390
14.788270
5.088138
-16.100805
5.522263
15.375623
0.232777
0.835170
8.296382
-1.250792
-2.145266
13.580302
4.167322
15.474401
17.660226
-0.759422
3.769614
-1.922897
-9.820371
-1.044148
-7.175236
-8.546690
-16.383754
1.602384
3.175586
2.660119
-6.645125
8.681319
-1.115957
-5.302357
-7.168118
-6.911290
10.622926
9.238348
-5.408142
14.202861
-12.148754
-15.635938
3.757741
12.962425
-13.968252
-0.748072
10.531524
1.538348
-4.446066
10.944088
-6.707366
2.698930
7.442387
-7.169466
-9.716915
0.589211
-3.498296
-15.432773
-10.272851
-3.503928
5.922174
-1.388160
7.832348
8.537850
-4.365500
-13.208133
-2.801075
14.190015
-4.823938
-12.559267
-4.352421
11.590800
8.320806
11.806114
-20.550020
4.152133
11.234619
-12.959043
9.965722
-3.885358
-2.913064
-0.719933
4.144274
4.938067
6.528475
-1.553805
4.282563
-9.822736
-15.091456
7.897387
-9.279315
-7.884688
-3.111335
0.142867
5.401672
-5.376619
4.822598
11.121413
-5.846623
-12.828250
0.708849
-5.665628
8.560249
-11.505197
-7.202376
-9.572702
11.076342
9.093546
11.361304
0.675572
6.999905
-13.335193
-10.239587
-11.178203
-4.623858
-14.839323
-3.912158
-13.641430
4.366281
-4.135330
12.533693
14.585303
-8.572025
3.598328
-18.458491
1.755449
-11.589122
8.430875
-7.710616
-9.674183
18.387941
-3.485154
-4.697602
7.182367
-4.752399
1.673117
11.676054
2.981732
4.914806
4.279703
-7.615447
14.286609
11.709808
-9.545442
15.508023
4.025128
24.123181
-3.527496
-1.600532
-7.521581
-7.108578
6.625420
-4.785862
3.431477
-9.815875
9.626723
2.097971
-8.255406
-16.138342
-5.275455
1.417736
-6.739639
-0.998990
-10.213161
-10.395536
-7.388867
14.779293
3.521187
8.727510
4.368227
11.254962
-7.615567
-3.474001
10.717593
-7.456380
-17.526597
4.796857
0.804001
-3.870353
-18.385367
13.502986
2.188819
18.853271
6.964992
-9.187801
8.414957
10.120380
8.586492
-12.753574
-12.900483
12.418429
7.301445
12.799921
-8.672404
-11.014592
0.940538
-7.175346
-6.857045
-0.898613
-16.289218
5.588045
9.623709
-4.827669
-9.284278
3.567719
2.385509
-5.227213
-10.287069
-14.526329
3.036578
-1.560289
2.162429
3.579722
3.648994
16.922494
6.919462
-10.571703
-7.262442
5.586913
-5.033412
5.251600
-4.956742
-1.885327
2.463969
-17.486178
3.704856
21.871327
-6.367497
4.730087
10.190503
-2.052458
-14.937748
13.980633
12.636998
14.544426
2.747570
6.710521
7.802838
6.030836
5.030181
8.787710
-25.312472
-12.243776
3.763046
11.167280
10.689587
10.402204
4.334108
-10.768121
-7.175717
12.722819
10.777072
-6.053852
-1.977821
18.466907
1.695901
-0.051734
-1.667356
1.362189
4.961875
-10.180502
2.805161
-17.643529
-3.266806
2.009490
-5.035637
-5.824552
4.243776
-5.629591
-2.143588
-1.594199
5.162938
9.164377
6.993333
-4.322339
6.428479
0.664654
-11.306142
1.752180
8.759844
0.955099
-5.976529
-3.099968
-3.423776
0.666059
2.199363
19.690229
0.835201
-9.132056
11.265876
-0.014287
-0.260299
2.309387
-3.243930
9.530568
1.513608
-5.174489
-14.774609
-20.958259
10.378396
2.719240
-27.419957
1.028672
-0.169761
-0.037815
8.799142
-8.926587
1.673844
2.641063
-4.182790
5.577217
17.107548
-8.501218
3.690883
-2.605082
11.314512
1.034086
-2.920723
-4.815754
-7.624784
0.984079
-8.054682
-9.174435
-2.200481
-13.218297
0.184890
13.727085
-2.273549
1.148878
-12.650188
-11.161857
-5.866970
4.734646
-12.517698
-0.686131
11.898773
-1.235431
-17.194058
18.391285
2.388239
10.197895
-2.642854
6.624560
2.634343
-9.453907
0.053585
-6.858728
-3.884443
-11.033124
-4.294451
-6.367786
-8.577366
1.208352
-7.763417
7.924499
3.865961
0.848476
-1.718488
11.213035
-1.017836
-13.563722
-2.022973
-1.423540
-11.994246
0.181211
0.237794
-6.789272
2.004007
24.344503
8.156761
3.453593
-5.059920
0.086334
-4.832912
-5.869285
-2.027893
5.242683
6.682618
1.921982
10.741890
-3.496917
-2.586088
-18.649318
0.113991
9.966690
-6.235182
3.079134
-9.751859
-1.695178
-1.339678
27.463753
-11.700098
9.105680
4.522463
-4.562779
-7.021800
-7.505867
-8.979884
-5.983763
13.164017
5.148148
7.696232
7.469587
1.689077
2.790214
14.055032
4.658715
-6.254869
7.894581
-2.886703
-1.211992
1.059550
-1.407748
10.764632
-0.255902
-0.010617
-3.327708
1.767184
4.150663
-5.267621
8.412342
-2.157950
-3.293842
-15.347383
10.311038
10.136992
6.002368
0.406089
-7.564242
-5.740895
-5.566917
6.801965
-7.587199
17.468575
12.103132
9.555190
-3.585709
-10.519076
-3.591785
5.585866
12.521136
-14.580730
6.457444
-0.528995
-5.581638
-6.711012
16.860150
2.938182
-12.290672
-7.930988
-3.654951
-17.722089
-5.611329
-22.107160
4.225770
-4.411975
-0.521713
0.107766
-2.722330
2.788971
7.341024
2.517976
-10.262228
-15.159500
1.467688
-2.129795
2.438860
17.375599
-15.220127
8.821842
-9.017133
6.648456
-4.656517
-8.168192
15.213123
2.514418
13.589222
-4.118109
-1.279704
16.572238
-2.980079
6.914688
3.892126
-7.755482
-10.644347
-9.813681
14.751679
-1.896781
11.403019
5.793527
15.713310
-6.200714
-16.980023
-7.055372
-7.776579
-1.221194
11.196055
-1.958778
1.353055
9.287458
1.966511
-0.259223
-14.514233
11.513121
-6.615546
-1.845539
0.354413
6.565920
11.351457
3.407894
0.272864
10.887347
11.015456
-4.217057
-0.904329
-3.312753
-1.447872
-2.820704
1.561640
-6.094556
-11.104204
0.275467
6.556668
-11.431725
8.405260
-14.265852
-10.501102
-5.044972
-10.032287
14.212336
5.771482
11.882388
6.144192
10.417456
14.404934
3.477985
9.282344
9.388922
-10.589300
-13.636085
-5.250513
-9.939552
10.629981
-4.319177
7.456935
-0.428561
-6.268175
-5.038567
16.162645
0.561266
2.071103
1.228847
-10.334928
-0.352766
-9.205863
11.434344
-25.195218
-15.526734
2.703960
7.275987
1.309787
-3.406829
-0.033040
-14.143835
-6.603978
-1.526489
1.515807
8.515975
-10.249948
-2.204891
1.238575
-8.673422
2.311297
7.060300
9.527983
-6.566620
0.029949
-8.126100
2.345505
-2.566813
-6.378395
-4.201352
18.111970
-4.653751
-16.288740
-0.353610
-5.677767
8.374596
-1.614767
-4.826653
4.745871
4.270040
-9.555619
13.555398
-3.168988
-13.401197
-6.694724
13.279648
0.250214
-5.816640
-1.219521
1.996066
-0.894969
7.833089
-6.845295
5.014449
5.444412
-3.706955
-3.579437
5.910083
6.722016
-9.670133
5.750814
-3.249407
-6.470924
9.884252
6.527160
9.210973
-2.926202
-10.899825
-8.149840
11.184669
1.032341
-9.723341
26.557602
3.461219
-9.749034
-11.373505
9.863657
1.813340
-8.045012
-0.520328
11.772241
-3.911120
9.129208
-8.493497
1.055658
2.912756
7.725680
-19.012782
-10.401794
10.688020
5.585716
-7.644890
21.746886
3.533221
-1.267879
-11.438352
-18.108158
1.019729
-11.867487
9.136812
8.202015
0.417189
8.453975
8.241723
5.573735
-2.399132
10.132589
0.934906
-12.816533
-8.281103
-14.295219
11.022327
-4.864874
9.118538
-5.851434
-5.610162
-5.618810
-9.620200
19.437114
9.023572
-17.301380
-4.889189
1.739571
-6.828222
5.085661
6.445448
7.779985
-18.666960
-1.628751
-7.014376
7.292306
1.210553
4.575158
17.385651
9.633939
-6.627549
-7.120338
-11.487364
-2.546646
3.467508
6.397962
-0.825876
9.579478
-5.226028
15.480648
14.647378
-5.212853
1.584736
-8.391794
3.889205
-3.686830
11.091800
9.420990
-1.228829
-18.463781
-8.960071
16.801640
-2.111320
18.252714
0.735247
0.592578
4.714842
2.401219
-4.557543
-0.309256
2.043132
-7.687249
6.684641
4.384701
-10.671199
0.936562
8.588345
9.808781
-12.041401
0.916811
-3.774233
-1.314431
9.732593
1.122480
-6.600018
-5.581828
-2.296589
-0.343405
-6.564270
-2.648315
6.145727
-5.060366
12.754276
-4.390665
-10.059580
-3.012845
9.498357
-4.235026
4.230612
-3.481140
-12.995950
-8.882236
1.364719
-5.141935
-2.524441
1.553350
14.247966
-1.580461
-12.694169
-3.257154
8.890673
1.540594
0.021362
4.428091
-0.159695
-4.594232
-19.054781
8.523083
-10.741872
-9.774506
-6.791587
-5.444490
-11.833803
-7.112044
3.302765
20.321041
2.139612
3.760019
-8.391841
9.913334
-20.073760
4.627802
12.417175
-4.416822
4.691372
5.166785
2.132821
1.126645
-8.747057
-13.113468
1.218745
-10.591955
-7.106843
13.782408
-10.631741
0.483238
-1.463337
-8.113663
-14.044676
-11.672503
-2.263110
5.280617
8.084882
2.922234
-3.692974
9.415935
6.543974
-5.028850
-6.168949
7.464794
-4.433387
1.794097
-11.919729
-8.855602
2.931511
4.795603
3.554647
7.423349
19.711400
5.710148
0.032869
-6.721421
-1.037078
0.204275
3.561872
5.994051
-9.657896
-2.445120
-2.697434
-10.270200
-7.943098
-4.371153
-11.896810
-7.367302
-13.737420
-2.974378
-11.473621
-7.493328
-21.253831
-2.409442
-15.711903
-14.302888
9.072022
5.261697
11.344336
-4.928873
1.653248
3.234308
15.062387
0.397356
20.951332
-3.198422
-12.943545
20.029757
10.432732
5.056924
-4.479366
-9.861539
-10.916396
-2.860390
3.297158
-2.303335
5.764107
3.090843
-1.651880
-13.436335
7.323699
1.059255
0.811933
3.145125
11.305795
0.858227
-11.299281
4.950923
-8.098039
0.237483
1.808217
7.970553
5.380267
-7.621303
11.063697
-5.727374
1.276959
-0.542299
3.821017
6.942635
0.393289
-10.227395
-16.431085
-9.088389
2.040206
2.716670
7.593551
-13.726893
-8.801203
-20.448105
-4.025885
-14.631110
-6.892349
0.956009
4.172022
9.380432
3.635464
-4.874039
13.501258
-4.367643
-1.745898
7.243945
7.174303
-16.067399
-22.941453
-9.073680
12.722333
17.725705
-11.901342
3.004508
0.523602
-0.609520
8.442378
-18.525386
-4.890127
1.396761
0.950661
-1.855705
-17.244749
-2.290952
-13.265547
16.418457
4.045424
-6.179142
-7.026222
-3.423576
0.716693
10.769630
5.673279
1.243220
-2.949758
2.369455
-7.459539
-8.487625
-3.697923
-1.267023
14.223578
3.390186
9.301536
-14.356443
0.689486
12.930409
-0.103512
-12.021643
9.837457
-7.146606
0.749273
-1.498242
0.863987
-8.714556
-7.229214
0.281394
10.730005
-0.091002
-1.217789
-15.602142
-2.337648
3.528734
-13.575489
8.519443
-5.440299
-4.077090
1.994704
13.542149
-7.271571
-0.175649
16.964933
6.465224
8.774271
3.954549
-12.536855
-15.657552
12.122253
-12.698949
-0.800623
-2.324966
-4.721653
7.309424
-2.494496
6.203682
18.638779
-8.192746
-8.568651
-10.473531
-0.227635
-12.808891
-8.516092
4.245759
-1.053278
-5.253644
-6.910213
6.815476
-0.750766
2.533672
-1.956927
6.252898
8.668350
-2.729749
-0.068396
0.610853
-11.892274
-2.505638
8.170869
-2.548814
5.688518
1.138566
3.210408
-0.776276
-1.554317
-15.928514
3.137496
-7.013017
-3.138209
-7.053503
11.369683
-1.313414
-0.171784
-16.959253
-6.675867
2.229039
-19.475658
-11.731878
-2.790931
-3.052226
-10.520548
0.640668
-12.399971
-2.248779
6.304083
10.059612
-18.654974
0.395661
-8.591282
-10.829149
3.532454
3.632793
-19.773669
0.141494
2.014440
-1.585575
9.519222
4.075524
-0.152026
2.018858
-13.562556
4.110787
-8.252175
18.692408
-8.385243
8.333542
20.805296
2.498558
0.008854
6.372987
8.584115
-7.058805
-7.732527
-10.755483
-3.026119
2.745221
-7.139791
-17.403384
-13.511108
-0.566069
11.303794
12.427407
9.404874
-1.227747
1.126449
5.387974
-1.379107
12.191268
-0.423133
5.464423
8.548674
-2.825046
17.001728
-4.861522
-0.086654
-6.109982
-1.854786
1.441493
13.966452
-2.846432
10.634561
4.532966
8.282717
-1.713144
6.479990
-11.179467
-4.472892
-7.067739
0.762141
-5.124754
-16.680809
-2.286774
0.102692
0.140222
10.084205
13.819388
-5.075377
5.517393
1.950191
3.698659
9.119218
-10.427309
-0.232266
-4.568101
13.730129
-6.185828
6.122390
-3.278369
-5.702474
8.825262
1.700240
-0.225423
3.677947
3.406337
-1.619472
3.826120
2.537839
-15.682847
-0.633514
9.003841
-0.613693
18.452122
-3.957066
-1.311935
-4.299871
12.684551
-3.466145
-11.415774
-0.754789
8.626162
-4.784447
-8.585078
5.594020
4.592367
8.490749
2.301500
0.289254
0.861203
-2.886634
17.320782
4.510603
-1.708515
5.552551
11.561340
1.002441
6.210513
0.017311
0.794784
11.651037
-2.797337
8.281979
-11.777444
-3.572799
-12.375906
-13.112265
1.767669
-8.425808
1.601571
-7.802048
-18.547648
16.282426
-2.853503
-7.596516
5.901641
-8.785690
6.611344
14.687079
-9.076249
-6.406604
-12.102566
4.008521
-1.655317
6.609740
-6.606050
-15.157832
12.017684
-2.566817
-3.236097
6.713396
-1.577744
3.020875
12.266129
-3.963635
-18.373193
3.070351
2.608169
5.936965
-8.778965
-11.864181
-4.315017
6.318843
7.804997
4.715899
15.347339
1.619197
11.619037
5.750900
8.205677
1.575386
-3.735442
8.693288
15.606276
-3.592290
1.272255
9.860929
7.274432
8.508939
-3.868056
-2.952631
14.158577
4.833478
3.533248
6.976352
11.173094
11.548011
-1.675199
-14.722188
-16.118039
3.636791
11.294529
-0.710226
-9.668772
-10.981655
-2.196872
3.676541
-1.284474
1.763868
-3.872525
-21.896389
-4.161727
4.160060
-12.574250
-6.368704
10.190285
4.895214
-7.167963
-4.664413
-0.608008
15.842329
11.311110
14.787969
-1.967027
0.038755
-14.617617
-12.865982
4.612108
-12.397509
2.033936
-10.160984
-2.291226
3.121914
-1.244415
3.189110
-8.815115
-0.353961
-6.210924
-3.157712
-10.664575
1.293527
5.225175
-0.625152
10.818394
-3.322464
-6.961121
8.517078
-0.802978
-10.377395
-3.419222
2.323927
1.233614
-4.188976
6.409432
-2.021287
-0.471553
-7.079711
-7.496972
-5.768954
3.774886
-4.079293
-2.817986
3.464835
2.968551
-4.938937
-7.059630
-1.113612
-3.622498
-4.121107
5.706623
4.258593
-6.518105
8.625748
-4.222044
6.629680
-2.651900
6.381851
-1.479797
-6.169232
-2.908576
7.650702
-2.748724
-17.210677
5.500420
-0.291055
-1.888123
-1.885495
8.068068
-13.679267
-0.444134
2.010985
-8.153052
6.398431
-5.318435
-0.270789
-3.778413
-4.620233
0.789253
0.920368
4.408122
11.552674
9.012828
-14.226232
8.831276
4.537972
-3.393597
0.257024
10.920721
-10.679136
-16.857873
-0.550650
-0.853757
-4.495201
2.102220
-17.415188
-9.466514
-3.891817
6.476185
1.634483
5.827952
-0.866435
10.587415
11.015412
13.022777
-12.930526
-6.874148
3.431029
5.778674
-4.287463
0.559782
-12.065023
-14.255828
-4.046650
3.283078
2.710006
0.927533
0.054463
-19.411901
-9.117472
7.318136
-12.075055
-3.682157
8.496966
10.339334
-0.957213
-1.721787
-3.646431
-1.549118
-4.875770
-5.742608
-1.467483
7.807490
-21.217109
2.275704
1.607303
-5.411313
0.164481
13.604926
-11.686767
20.271446
3.455295
-6.598167
5.610639
-5.043843
8.278045
-3.462451
-3.677391
-3.897464
0.320460
-5.655219
5.366669
-8.276676
-1.948627
-18.076030
7.599184
17.878187
6.590795
3.075814
4.992170
3.551368
-7.998193
-9.324771
12.164749
-5.918614
16.670438
-5.479515
12.594378
-5.499191
-5.377631
6.340245
-4.244159
-1.069517
-5.863976
1.966846
-0.136242
3.767851
5.752577
7.849643
-3.018934
8.948741
9.125445
-1.367980
2.933209
-5.185582
5.277406
-0.099521
-8.126025
-2.627023
2.382781
7.767850
-3.041450
6.924868
-3.438136
1.580040
-1.462382
-8.433126
20.149494
19.293215
8.928850
3.021999
-9.454234
3.561429
-5.663952
17.261492
10.815612
-24.775630
-0.922521
-17.546342
14.752404
-3.502621
10.547519
2.598338
4.751188
9.480682
-14.491273
13.050252
2.019984
-3.137746
19.907154
-9.787327
-12.691634
-2.159203
-5.838825
4.140061
-12.125999
10.310326
0.609342
0.902511
-6.091162
3.806752
-6.812087
6.062730
4.200402
-1.209097
10.926629
1.990540
5.437700
7.710742
-4.753192
1.652842
-16.247385
-5.340934
1.413470
-6.159109
8.278460
10.851109
-6.712750
4.700528
12.963616
-10.217922
9.585979
-6.189892
7.461086
2.852241
6.683768
-6.394627
0.771815
-1.212943
13.442763
-17.687021
14.097263
8.437630
-0.157037
-6.537872
-3.476456
18.687530
-11.995431
3.087891
3.395918
-8.739636
8.447341
7.917095
-4.894721
-2.280766
23.292855
14.786628
-7.280834
1.469264
9.682436
-8.208112
5.657128
12.928906
-9.905349
0.337829
5.975132
-9.765913
-15.154980
-3.389984
16.916913
8.377071
-15.162157
1.117363
2.517494
13.362475
13.134632
3.207972
-22.450770
3.024736
4.412008
0.831526
6.515477
5.230819
2.518906
15.912239
-8.255295
-9.093487
-6.239017
-9.861438
-1.030010
-2.309906
0.492922
-8.190769
16.505098
3.261056
8.216701
-6.502120
0.504087
-15.376985
0.859057
0.371890
0.473871
1.204153
-7.312604
2.524733
21.124128
-10.351190
4.198476
9.569235
2.421460
1.840093
7.159203
7.299505
11.279877
4.972235
-5.751273
1.592430
-4.162975
-4.885486
-1.561616
-11.680673
0.835545
6.757418
1.180977
-12.970032
5.776674
16.899514
5.339402
6.264074
3.069798
-12.580620
1.308588
-7.610570
11.741890
-8.737327
0.132778
-8.212032
13.780028
3.866780
9.760583
6.574687
-0.936614
-9.912187
-10.148578
4.270244
-8.456014
5.953854
12.585248
-8.314078
-4.938079
-0.789928
7.385511
12.677737
-2.715410
4.416403
13.024264
9.238589
0.503670
-7.804633
0.718193
-3.412601
-3.472851
10.829876
11.224481
2.735813
-3.128214
4.546007
-4.893871
1.131184
-10.350534
7.238511
8.967050
-5.806574
-21.037919
-5.879404
-4.467738
0.712804
0.174019
4.971729
2.363623
-8.846466
-0.374519
-8.245766
11.255303
-17.859260
-2.159488
6.395609
3.422557
2.358334
1.104654
15.032904
-6.974831
5.117407
0.404152
-2.115284
-7.107490
9.261910
6.971073
2.438618
2.110275
-3.514663
-14.931232
-14.564078
-11.984257
-0.682017
6.166371
-0.024714
-0.138016
5.994192
-4.758827
-16.875797
-2.963674
-4.323276
-6.708144
-3.220787
9.591091
0.154417
-1.234156
-10.447647
-12.205333
-12.082421
9.344978
0.279058
2.429643
6.754630
5.958770
4.371246
8.291476
-10.022307
-2.611535
3.245828
4.875422
-10.035344
-8.120109
-4.010766
22.816975
-0.421444
4.385684
-19.852322
2.091667
-5.526072
-16.282819
-1.532938
-18.398631
11.674116
8.404789
19.392821
-1.844555
7.927391
7.754228
-1.337578
-2.646376
-7.655476
1.296020
-4.248040
11.667304
8.100128
5.031780
9.629572
-2.458158
-14.556111
-4.354804
6.346555
-6.637322
-6.645560
-1.491021
-3.044828
-11.331766
1.255570
-2.527420
-5.328092
4.571574
-6.579265
-4.847065
8.849502
3.053048
-5.661366
-14.565893
-2.707012
4.344769
20.053403
9.374763
4.190204
-7.578445
-3.269927
-0.474424
-15.872590
1.457839
-13.796344
-4.822806
-11.485436
-0.639897
7.432572
11.669403
-7.724780
-7.027832
0.118598
3.037656
-11.400291
4.494053
-11.812682
9.754355
-5.944647
1.182909
6.741940
17.571746
2.437962
-5.214602
-2.786063
2.955700
0.597673
8.889525
16.180879
-3.066736
-16.466647
9.568463
-3.387581
-7.586427
-0.492861
-0.491077
1.038736
10.342820
-1.237281
-2.839964
1.183518
0.362192
-0.199106
0.462132
1.171946
-10.702198
-9.275800
5.128760
-1.534639
0.030106
15.427440
13.516257
7.239886
-2.746767
5.798932
4.124839
3.418976
12.638124
-2.012183
-4.224363
-12.507229
0.654467
5.808672
-6.841812
-6.197820
-9.033091
-0.463759
-3.447271
-1.929997
4.044235
10.115117
11.034062
-0.662047
-8.938772
-3.883636
10.421228
-16.777923
-0.916706
3.121557
-7.174855
1.538302
-11.718281
7.274922
8.549538
8.501288
-10.934935
3.358213
16.712218
-6.947302
10.229802
-7.056404
6.395362
0.983279
5.899082
-3.707782
-5.494756
-2.322893
4.561451
-16.660460
-1.784400
-5.743591
-0.697233
-3.878269
-14.470613
4.036275
-1.181021
-8.243870
-4.423037
-3.193629
3.821130
0.769159
-4.902284
15.122414
-10.099954
-5.000265
10.680101
-4.948804
23.151189
-7.916868
-7.986805
-7.003951
-3.544641
2.365864
0.919520
-9.303894
-6.456041
0.494885
-2.194663
-7.734120
3.653331
2.084992
2.791718
3.615069
-6.913301
-22.459166
0.716160
-3.433110
6.059700
-0.430028
0.105761
-5.777198
-11.940274
-3.429460
7.334617
-2.384787
7.980738
-22.917354
-8.438533
-5.925804
0.320311
0.237391
-14.211621
-0.119131
1.689041
-0.991409
-11.131802
1.810004
6.020763
6.962443
7.036203
-21.638180
20.851418
-8.909179
-1.020260
-2.456541
-9.169783
-5.226646
-19.643854
17.726430
-1.351829
14.207500
2.636637
-8.416076
5.573981
4.475324
16.740559
-14.208796
-3.022535
13.604178
4.212235
10.954765
-2.809834
-1.118505
-20.627586
-16.095883
-2.674981
0.730030
-0.232063
5.439774
15.893061
15.420918
5.964345
3.926775
4.491945
-2.789909
9.322421
2.932353
5.829378
3.614779
3.150510
4.640811
-0.509211
7.824739
0.393486
-4.676306
0.325276
-6.287013
10.946716
2.327081
18.529059
-8.006117
2.382627
-2.825323
19.839419
-5.503438
4.474211
1.314288
-10.839876
4.208752
16.260666
-0.826183
3.899495
1.312887
1.521773
-2.153963
-2.825648
-4.289919
-9.344379
-0.323657
-1.756707
5.004995
-4.340233
8.426398
-19.277161
-2.958255
0.175254
-4.105145
-11.937184
6.326054
-13.392746
1.010899
-5.273886
-5.149362
5.241754
10.610080
4.909573
10.968108
-13.341130
7.380110
5.178025
-1.931717
2.928922
-0.250259
-14.293078
-2.971892
17.604735
16.934749
-10.257956
7.761796
-4.009605
-4.843050
-7.816527
2.616492
3.400163
0.103919
0.188751
-6.430665
-8.844545
8.827543
-0.955338
-10.966503
2.378211
2.046632
4.612280
3.705991
-0.098455
4.727678
1.455314
-6.900716
14.767166
-3.129461
8.370904
-0.481289
-2.212879
20.397577
-0.390661
2.965684
5.560764
-0.294459
-14.591234
11.198759
14.306703
-0.436068
8.722168
4.959846
5.327945
-3.570501
4.301479
-6.342729
17.159179
9.719385
-0.228765
2.222566
-1.020472
-9.283902
-5.478036
4.497435
-5.540578
-0.939212
-8.145347
5.997687
-11.648077
-10.634463
2.716539
0.692079
-3.974401
-7.733414
6.373030
25.370225
15.155199
5.963816
3.308704
-9.777438
11.272725
-8.327502
-8.617435
1.438337
1.112754
3.456546
10.668855
-4.907396
10.818149
1.426325
-2.129046
-1.467838
6.347002
-14.507821
-2.321934
2.590621
-10.391823
-9.296955
4.217841
-3.576708
-6.744603
-7.277893
-6.150988
0.662770
7.649097
3.231118
2.733548
-0.710625
11.022891
-16.410470
-6.094301
8.502865
-1.229263
22.005733
-11.018209
4.042388
9.075029
-7.702561
-12.767745
-9.212341
-10.792312
4.223430
5.820917
-4.384925
1.353487
3.985352
4.463458
-8.860959
-5.169295
-0.965704
-1.346067
4.544393
5.420408
0.005054
8.184156
-0.680067
-7.933306
7.614710
15.197742
-16.804668
-1.004979
7.241418
-7.181839
-0.863712
-4.367356
8.287395
10.283764
-6.120668
-0.004951
-10.714466
2.527355
-12.469052
10.113659
11.619532
11.018316
9.686649
-12.137638
3.839955
8.021937
-6.466400
-14.447788
-0.831023
-1.397195
-11.983965
-17.508991
22.499311
4.224302
-8.427867
-10.485973
5.566533
2.134996
7.097000
2.458145
1.013572
9.196543
-10.867323
-8.182077
0.177875
-4.957722
19.299698
14.380458
2.751773
-3.088679
-10.111760
10.655301
-0.330283
1.445438
-11.756414
5.179521
1.180884
7.218192
-10.629117
-9.755995
-1.411288
-2.624502
-15.303853
12.227179
-4.889860
-17.117059
-6.818787
3.593327
10.750514
1.001646
-11.690689
9.046651
-12.743378
-12.858596
4.570364
-3.849513
-2.942450
6.352759
-13.835155
-0.909669
13.164489
-1.862769
-2.813190
1.209083
9.163120
7.943796
-5.878148
-11.359600
17.830832
6.196635
-7.052198
-3.466669
-1.999294
-0.954671
-1.873331
5.809529
6.370928
4.898505
3.733743
2.007285
-5.305586
5.124345
-7.306965
-10.137379
-5.692891
-9.746623
-11.551976
7.553693
-4.971248
4.085530
8.000065
1.514385
16.945819
-16.158421
7.476042
-8.172581
-11.949400
14.499431
0.253866
2.769891
-2.376797
2.610449
-2.293278
1.572963
-1.808266
-7.862571
-4.992066
-3.608696
3.562285
-6.530732
7.160709
3.929446
8.590476
3.152872
-4.923664
-9.343636
7.131100
-2.745711
-8.355647
10.856270
11.853667
-5.194234
2.140534
11.488269
1.335733
-10.487991
3.280630
-5.101673
17.695606
20.154945
-6.224173
-2.505584
0.203889
-7.246884
3.069958
-4.616351
1.983743
-5.208444
1.417629
-12.817490
-7.323869
12.216270
4.857967
-1.831628
11.595005
1.048538
4.815822
-3.895211
0.080628
2.267217
-6.693897
-0.880547
0.929911
-1.211982
0.450669
-16.173610
-16.101915
-12.871172
3.402363
12.115324
4.657644
3.306476
5.964061
3.460133
-26.554486
-12.713733
1.157845
-7.457833
-9.081236
-4.807910
-9.023617
-18.621254
-4.276182
7.788649
-8.788497
10.742416
12.296306
3.422144
6.856485
-3.805691
10.907756
-2.217249
-5.820835
13.441196
13.685709
-3.061668
30.578317
-2.307249
10.753892
27.108459
4.757573
0.403685
16.917451
-10.962026
-7.729944
-0.217285
-3.550936
-10.585214
-13.528856
5.159997
-0.736620
0.962099
-10.867755
8.733396
-2.893223
12.887570
-7.635171
3.421504
-4.171036
5.630374
-5.854126
8.840288
18.806013
5.340242
1.097059
8.510960
-1.303490
7.387386
3.749654
2.872464
-7.345259
7.269486
7.460179
-5.103149
-9.670680
-2.341808
6.511530
-6.643658
17.100449
5.171225
6.795579
9.722201
3.046222
0.758442
2.455040
14.222061
-6.496386
-2.818707
-12.193051
-7.236510
9.980759
-5.960117
-0.949341
6.537161
8.329590
-6.890037
4.929546
-5.727686
-7.636298
-4.281140
-1.345909
12.891812
9.949605
1.421993
6.179330
-2.258173
-4.819652
-5.336036
-1.261609
-2.925571
6.247501
-19.326967
-2.077823
-10.299940
9.183639
2.019454
8.123619
7.134040
-8.208736
-1.592200
2.657340
-3.880069
25.139685
-5.011210
4.046547
7.497167
4.029020
11.358559
-12.761807
-5.794100
6.157830
-19.832712
-3.426610
-13.176192
-17.437148
12.155170
6.689946
-3.276621
-15.049777
7.280853
2.692751
-4.760258
11.167836
3.907572
4.080470
-3.760602
-8.717041
13.050619
4.281471
12.248784
10.023170
1.195475
5.956275
-4.557105
-8.725408
-7.283514
-0.328859
6.152134
16.159765
2.461184
-6.856655
4.503090
3.993551
-15.212648
-11.330188
5.783983
1.446522
1.172535
2.022102
-19.861085
-3.783934
-16.727344
8.067612
0.208394
-3.636026
-3.849503
8.876370
-7.502923
9.114801
3.389321
2.051002
-6.455037
5.663510
9.148968
7.962514
11.812975
6.671798
-18.894762
4.148165
19.477310
5.210417
0.533391
-8.166867
-7.795367
-10.219253
-3.453579
7.162920
0.391231
-1.824924
1.387901
3.586657
-9.707936
-11.163986
6.676795
1.951034
-7.478655
-3.917964
3.997357
2.173052
6.782980
6.201788
9.715744
-7.743334
-7.549811
-3.716727
-0.312571
5.480877
-11.905458
7.233422
4.457498
4.373054
12.614818
-1.795741
6.578317
-3.810555
5.219199
-3.674532
-0.923528
2.634187
13.082470
-12.117647
2.916521
-1.908357
0.413216
14.515303
24.990374
-9.815247
7.768153
-7.026313
9.859564
-0.172986
-9.610395
0.342989
5.089316
8.784227
10.118808
-9.314385
-17.555178
-1.351912
-7.616447
5.125114
1.749838
0.794427
-8.915883
2.415705
11.626056
-13.988232
-2.000758
1.986263
-6.982502
11.410238
-5.605036
-1.266787
16.033483
2.509975
2.925052
-0.039242
4.622130
6.536829
-1.114307
0.048810
0.280062
2.513071
-3.060911
0.417041
8.780470
-6.286127
1.124749
0.465697
-7.593868
16.026950
-0.203968
-8.984360
5.472908
0.922858
14.726712
11.665583
5.717119
-1.503747
-1.771206
16.720440
-0.893549
3.336014
-2.661255
24.993688
9.332608
0.119363
-2.102944
4.549325
3.122603
3.147147
-17.166751
2.285269
9.292879
7.681586
-10.880898
-0.075861
-9.589343
7.171118
-7.241836
8.438800
2.207566
-3.882249
-4.129636
11.432135
-8.552856
8.958944
-4.611107
-18.911162
1.327805
3.400846
12.891517
16.245876
0.169106
-2.970327
-9.447197
-0.881745
4.018797
8.056234
13.340919
1.819568
12.901212
5.742682
4.158239
2.992209
-4.907362
1.874038
-0.869021
-3.689432
-0.267691
2.733278
9.934517
-6.385559
-3.616687
4.050570
-5.506936
7.748967
-1.349563
-1.171165
-11.930658
-2.943847
11.077017
-6.996754
0.211246
3.857654
-10.253167
3.111864
-4.319420
-16.404114
-9.025469
-3.197570
3.947891
-15.288692
0.211235
-9.525097
-9.791508
12.000390
25.768408
12.227806
-5.940545
11.076691
9.724722
-5.934759
8.350083
6.520706
3.018171
9.982966
-12.171638
7.289349
-2.761823
1.736978
0.173474
9.749607
-8.319167
2.855642
0.036687
-7.558293
7.769884
10.274324
7.267076
-11.431023
-0.569655
-5.118316
-3.381218
-9.981331
5.086883
4.079420
3.514624
-3.063373
11.940431
-5.322495
0.520532
12.821388
1.679159
-0.160047
14.718496
4.186233
-7.913206
-7.453413
20.324155
-26.738376
-1.735594
-16.215571
6.126099
-4.574162
1.513417
11.331021
10.189923
0.132029
8.021056
0.249995
8.776286
8.019313
-1.938824
-3.387803
-12.381102
-5.853101
-0.102844
2.609087
-9.091965
6.543277
-5.037681
1.901086
2.932312
2.503998
4.446476
-13.176032
5.184910
8.417053
12.939389
-9.919017
14.622239
-11.256358
14.503232
-1.065961
-3.813267
-10.875264
-18.070708
-3.824503
-2.808017
-5.835131
-1.986957
-14.156797
0.620140
1.223165
-7.369683
15.066586
-9.086851
7.598339
-6.093350
-12.583308
1.920002
-10.307223
13.159132
-1.652794
8.886504
9.565377
2.436829
-14.684262
2.339638
-6.288069
9.372150
8.539102
8.335445
-8.152462
-12.750649
-2.989859
8.908806
7.532774
0.750583
-5.161573
-3.949650
3.468490
-2.530871
-9.581477
9.272407
6.566387
-3.033876
-3.810217
-3.531736
-9.692596
-10.349332
14.906781
-6.664790
4.425886
7.878913
5.240683
-6.424007
7.077960
-5.383106
-3.895773
1.070262
1.776355
-7.580851
9.244149
2.768761
-12.498527
5.122536
22.195940
4.699691
2.890256
-7.657980
13.166485
-5.380423
2.602689
-19.992716
-9.894138
-6.530329
-0.844149
-4.613451
-9.154815
0.234858
-7.557133
-15.729789
4.101908
13.439908
-14.639749
4.268067
4.987641
-2.175074
3.294584
-8.677410
-0.694018
5.120693
1.229313
13.569306
-5.325857
-1.718820
-3.539109
-8.623387
-3.873390
-9.127908
-6.521467
6.759872
7.311412
-13.730213
0.885144
5.745139
4.366645
-21.811101
-6.438226
2.807936
1.946746
0.113655
12.570840
0.159763
-12.635032
10.267619
7.194906
9.388954
-1.221796
-0.738592
-8.383579
2.519500
-3.949111
18.104399
-2.996946
3.833667
7.240599
-3.906197
-5.788209
-7.254388
3.535951
7.732758
12.790253
-6.485135
12.601191
4.976378
4.651463
3.376672
-9.511761
-18.295466
6.785093
4.674508
1.880269
-21.413697
-4.700491
-1.575397
10.288721
2.417967
-5.593274
10.537019
0.265324
10.987015
9.429335
-2.597788
1.724338
2.665967
3.780763
3.097973
-3.306729
9.393227
4.395939
-7.676350
2.390378
-11.581206
15.680277
-5.106100
-9.316491
-4.905229
12.117688
0.349580
-7.529369
-0.368030
-2.420093
1.915072
-10.195700
16.703233
3.623712
5.657214
-9.102326
-6.698532
-4.833354
-8.427870
-6.490217
-2.673777
0.059966
8.215984
3.017723
1.522057
6.484919
-0.528380
18.244874
0.542565
13.829028
3.722396
-5.508238
-5.649150
-0.370686
-5.866161
6.391942
-8.921093
0.568754
24.103051
-18.949270
-1.453220
-1.921426
21.375580
4.674729
1.669577
-1.612186
-9.408599
-6.690142
-2.711968
-6.751647
-4.731400
7.753261
3.883549
-14.873269
-2.320729
2.261292
21.347499
3.619401
17.438372
-0.618181
15.297077
1.136021
-5.370767
-10.640192
-2.275549
-5.273507
13.743727
8.574558
4.474868
0.380902
-4.622661
10.760086
-1.110130
-1.110987
13.942840
11.601770
3.172483
-7.294848
-1.905292
-6.983638
-6.441849
-6.938966
-6.358577
12.024962
-19.517675
20.427194
-0.898735
-9.099917
4.602691
-6.257563
4.971178
-2.193419
-16.406823
2.717907
14.028544
-0.019714
0.509574
9.306235
4.071119
-5.919537
1.456699
9.447359
-0.399209
10.836790
-0.058059
-11.411164
11.760177
5.293674
2.863370
9.339526
-4.228449
9.513499
-16.352052
18.216087
3.195918
-23.392232
-5.963787
-8.811181
-13.666214
-8.526116
16.779620
-2.148550
0.143706
-7.398491
14.271684
-6.727297
-0.666326
2.772949
-5.703459
12.747081
5.882824
14.991268
-12.083387
2.858673
-11.247360
-0.021552
-4.045190
5.786956
-5.935804
-0.886188
-5.628047
18.117717
-4.305179
-5.737744
-17.069579
-2.957263
-7.112745
-6.966351
-8.748994
-2.194757
3.837258
15.279635
-11.968347
-8.675513
-0.314916
5.234123
-7.537737
-14.611277
-10.244650
1.863457
-3.028752
-10.387354
-12.136625
-0.734718
15.023653
-5.009441
-14.156344
16.819992
7.662159
-2.969793
-7.462823
1.015159
4.148255
-4.077666
2.594419
-7.569758
1.951587
11.751432
-10.381292
-7.051598
-7.337351
-2.163572
-15.771321
8.209688
-8.079814
-7.458410
7.236856
1.686741
13.552987
-0.928566
-3.098111
-0.455783
-5.298556
-6.352852
-12.190249
-8.380781
9.091665
1.017624
11.364624
-0.691838
6.974075
1.416600
-0.552065
-16.373453
12.861304
-5.666902
3.803519
-11.641136
-5.423262
-10.054024
-2.779347
-3.550931
14.730253
-6.474612
4.994680
2.150766
7.653971
-0.809909
3.901458
0.981519
6.230043
-14.506214
0.844227
-4.111008
8.351832
-15.399315
5.049424
5.552483
-5.577438
-1.998398
3.973695
-11.062359
11.176351
5.797964
0.171630
-6.245838
4.310625
13.160241
-6.595754
12.744329
12.783671
-1.550341
-10.996951
-2.105593
11.598883
-2.550017
-1.392283
9.999266
16.344700
-1.320732
-1.985691
-11.094200
11.540939
6.945533
7.741475
-14.370791
-29.691696
-16.615700
-0.821762
6.319701
-2.587771
7.271102
-3.020626
15.637696
-14.203823
1.142685
-17.730161
-5.017310
4.380076
4.536107
-3.817229
8.809040
-2.963380
3.715779
-2.251770
-3.359816
-5.055995
2.746245
4.976370
9.887861
4.876378
13.854072
-5.225448
-0.553730
4.558717
-4.998198
-6.859451
-21.985157
15.944553
14.756716
8.211036
4.402962
-2.482121
-2.073868
-7.962253
-0.682100
10.372755
1.224555
-1.560902
4.180829
-8.911203
1.062715
-6.717043
7.753679
-17.846430
11.461938
-8.634845
-9.589816
-10.400630
-1.790800
-9.446576
-4.442682
7.541295
-13.588138
-1.707490
21.685846
2.545959
1.868169
4.824518
-0.230730
-6.975735
10.177549
9.818893
-11.296855
3.210985
1.379934
5.137182
4.588223
-5.506811
18.210617
-9.612090
14.111812
-2.889536
-4.447674
-5.502242
14.606279
0.962151
6.497701
-14.807944
5.807013
-9.203508
15.535126
4.718190
-5.385531
5.901395
9.944566
-5.676951
-17.411077
-5.479200
6.344057
-1.112738
1.233566
13.263853
17.420605
-7.831432
-8.415123
16.399924
-7.830447
1.407096
10.005916
-2.762010
-8.695953
9.763502
-9.028737
-8.728089
0.852323
-1.564854
6.848671
-1.914496
3.031572
-7.220863
2.473669
-0.505289
-8.495142
-5.501964
-12.193707
1.269336
10.691642
3.941384
2.249836
-3.975519
5.204079
-11.380192
-4.327542
-6.475659
1.069229
1.360077
9.684441
4.652348
5.147783
-11.972625
-6.304147
-9.929318
-10.706061
-0.077548
6.212885
-18.702737
-3.169645
3.291829
4.315336
2.979092
1.162760
7.875456
12.462156
11.754202
-12.679114
9.263983
-5.560008
4.883173
-8.390418
12.222921
-1.945200
-2.153279
8.775566
-10.396440
2.729075
5.017505
-10.195178
9.502199
-3.450194
-17.047239
-10.106304
6.213428
-7.649964
-3.051931
-3.932111
-8.973046
-9.388577
-9.174180
3.933668
0.582471
19.608781
0.020811
-0.150562
5.856618
-3.403551
-16.573402
8.172493
-7.653937
2.372111
19.804703
-13.645554
13.088498
-5.884922
0.275470
-20.410108
3.317902
18.132856
-4.322633
-5.526533
-12.175809
-2.503759
11.199689
-12.951435
2.026706
2.146117
1.291322
1.826464
-3.081346
-15.834879
-7.735473
-7.893012
0.375250
2.469164
-3.863047
-5.007697
-17.773349
3.522420
6.167286
0.820420
6.058636
-5.074601
-13.020020
2.877585
4.589540
-2.985697
-3.985708
-1.095012
5.595642
5.162313
5.487810
-6.525934
-1.230392
4.972798
5.061435
-8.560970
7.733538
4.513344
-14.393664
-10.928500
-3.304416
-15.504009
7.361845
1.655107
2.273593
-14.754389
2.668773
-4.719126
6.347327
-4.214953
-10.134129
18.407073
-1.169916
11.752770
10.536984
1.483095
2.627186
4.262389
11.157662
7.157277
3.286747
2.160323
0.887337
-5.247646
-0.767630
6.251932
-5.029455
-6.878102
8.725604
-7.784323
6.069539
