0.419751
0.065693
-0.386368
0.221296
-0.121184
-0.571496
-0.629692
-0.773392
0.601515
-0.949084
0.598355
0.104531
0.716339
-0.350350
1.653659
0.998902
0.679232
0.345384
-1.215716
-0.573622
0.510468
-0.676667
0.284099
-0.463693
0.050187
0.238143
1.099578
-0.627589
-0.092713
0.960586
0.629167
-1.658413
-0.448807
-0.349242
-0.690790
-1.033973
-0.659493
-0.237985
0.466625
0.568239
-0.128633
1.157852
0.126903
0.147482
-0.706530
1.029195
-0.321430
1.136205
-0.496090
0.118326
0.149626
1.895041
0.957839
0.258650
0.083128
-0.943239
-0.124730
-0.090808
-0.760717
-0.853433
-0.126232
-0.637073
-0.631774
-0.360587
-0.868650
-0.598623
-0.202642
-0.128720
0.169399
-0.477370
-0.069115
-0.499648
0.141121
-0.132968
0.104412
0.284683
1.247867
0.594020
-0.046761
-0.472599
-0.104512
-0.488867
0.143170
-0.227356
0.533051
-0.834010
-1.621843
0.392923
1.635692
1.010188
-0.487713
-0.184629
0.273112
-0.292262
-1.239359
-1.111553
0.753062
-0.229054
0.973975
0.348022
-0.597296
0.524264
-0.651202
-0.099163
0.137976
-0.822351
-0.414382
0.100528
0.089287
-0.520492
-0.296557
0.802856
-1.300513
0.152778
1.596697
-0.545644
0.231158
-0.729424
-0.274148
0.181025
-0.789927
-0.720243
0.203940
0.482686
-0.050444
0.560283
0.000288
-0.751244
-0.404174
-0.039781
0.480208
-1.402171
-0.411816
-0.390714
-0.418994
0.071188
0.132710
-0.251886
0.544550
0.620235
0.523600
-0.332431
-0.645038
-0.369661
-0.288520
-0.606413
-0.043901
0.759775
-0.068792
0.052021
0.420411
0.068562
-2.144449
-0.190165
0.416691
0.153488
-1.294507
1.152099
0.009283
0.591266
-0.089164
-0.334068
0.579838
0.698787
0.588077
-0.567496
-0.132674
0.990255
-0.529140
-0.095311
0.316041
-0.312261
-0.395959
0.076595
-1.678001
-0.092920
0.216513
-0.283160
-0.255873
-0.376746
-0.491415
0.481392
1.088824
-0.256184
1.066971
-0.612638
0.850231
1.546497
-0.796839
1.563000
0.150452
1.376154
-1.098850
-0.073120
0.760314
-1.171191
0.838008
0.277371
-1.119998
0.255350
0.128469
-0.536899
-0.925034
1.958854
-0.521401
-0.199196
-0.564188
-0.143087
-0.262643
-0.471247
2.022714
0.032991
0.205525
0.638691
-0.005318
0.650355
0.067388
1.199408
0.725969
0.340212
-0.562022
-0.113272
-0.356005
-0.517392
-0.843631
0.058057
0.016354
1.144897
1.776472
-0.096160
0.882984
0.172979
0.680683
-0.432855
0.081382
-0.019180
-0.426928
1.279386
0.337839
-1.424862
-0.665711
0.732130
1.171371
0.273405
0.925160
-0.213737
-1.213397
1.149558
-0.043878
1.132175
-1.023078
-0.090987
-0.143765
-1.638515
1.395782
-0.454803
-0.864022
-0.399330
-0.441639
0.364759
0.379808
-0.599501
-0.881717
1.095256
-0.901649
0.483659
0.305391
-0.025235
0.077368
-0.496815
0.927287
-0.809897
0.899036
-0.035366
0.281936
0.664873
2.288320
0.790946
0.253453
-0.470185
-1.670225
-0.230252
0.287834
-0.330663
0.359432
-0.588778
0.069151
-1.112448
0.604812
-0.135598
-0.042745
-0.544961
0.777209
0.199084
-1.008133
-1.041789
0.028202
0.968239
-0.991459
-0.742142
-0.026934
0.145979
0.002360
0.287190
1.502993
0.129861
-0.380723
0.242576
0.632956
0.767035
-0.870111
-0.256617
0.316999
-0.316472
0.626620
-0.442290
0.124554
0.977357
-1.362888
-2.069979
-0.545793
-0.796865
-0.308137
0.697790
0.029360
0.014778
-1.008784
0.465662
0.814332
0.151782
0.437799
-1.133682
-0.210043
1.555103
-0.142144
0.038255
-0.176323
1.045937
-0.136845
-0.985916
1.196942
-0.900940
0.268706
0.160895
-0.004079
-0.377616
0.709849
-0.670728
0.049603
1.383076
0.383814
-0.414419
-0.414525
0.743508
-0.419112
0.223517
0.731856
-0.231255
-0.691424
0.833907
-0.703224
-0.102922
-0.825713
0.756249
0.628523
0.349868
-0.044426
-0.387329
-0.565762
-0.651365
-0.313625
-0.273687
0.040902
-0.027985
-0.541369
-0.283287
-0.125324
-0.010760
0.095976
0.670099
-0.231402
0.578367
-0.963343
0.695256
-0.730726
-0.442087
0.286593
0.124210
1.282639
-0.068902
0.627839
-0.798591
1.142068
0.087911
0.814859
-0.032594
1.055563
-0.603905
-0.061776
-0.062076
-0.996462
1.422003
-0.298742
-0.357760
0.500731
-0.137467
0.266566
-0.837126
0.117871
-0.614288
-0.298177
-1.127409
0.691339
1.548645
0.601342
0.260906
-0.383218
-0.650234
0.542628
1.037577
-0.712738
-0.144819
-0.194929
0.860192
-1.354579
-0.065588
-0.078178
-0.174581
-0.816480
-1.052740
0.155098
-0.307610
-0.250859
0.534515
-0.480593
0.373068
-0.711973
-0.426922
0.376300
1.541214
-0.879252
-1.564331
-1.778146
0.082190
1.723484
0.406291
-1.071072
0.752323
1.020087
-0.240867
0.067159
0.291532
0.056776
-0.080525
-0.718759
-0.247766
0.559675
1.067025
-0.248823
-0.023490
-0.793148
-0.159647
1.188720
-0.408641
0.648886
-0.177234
-0.166981
0.026759
-0.805367
-0.032758
1.487603
-0.345320
0.916387
-1.000564
0.421916
1.058738
0.748312
1.459779
-0.249437
-0.040056
-0.203828
1.095725
-0.709403
-0.590625
-0.904929
-0.120464
0.551683
-0.284821
0.524994
0.004727
0.396225
-1.269396
-0.272494
0.848512
0.549459
0.378817
0.363350
-0.244539
-0.169512
0.074542
-0.168688
-0.112184
0.084201
0.454562
1.816458
-0.497784
-0.236969
0.897253
-0.088372
-0.664755
0.099954
-0.698815
0.015659
-0.835078
0.901591
0.150615
-0.219898
0.028329
-0.949597
-0.449163
0.103501
1.212690
-0.703391
0.589286
0.804368
1.589983
0.930911
-0.381747
0.348471
1.220780
-0.073243
-1.297000
0.086529
-0.027310
-0.759336
-1.067734
-0.592553
0.623316
-0.180422
1.048716
-1.214722
-0.467823
-0.773213
0.596454
-0.434331
0.565851
-0.198784
0.313658
-0.621498
-0.307015
-1.058613
-0.234279
0.422466
-0.256102
-0.008347
0.018008
0.313212
0.624092
-0.239921
0.188644
0.460576
0.189131
0.172644
-0.739678
0.985865
-0.857515
0.663207
0.664194
-0.074713
-1.010792
0.701861
0.611161
0.184513
0.180899
0.096020
-0.540348
-0.848148
-0.080679
-1.428793
0.579980
-0.637233
0.646519
-0.126882
0.231644
-0.460415
-0.162925
-0.363249
-0.235807
-1.063373
0.880160
-0.142848
-0.323628
1.336128
-0.206182
-0.156947
-1.056650
-0.193652
1.194324
0.686995
0.096343
0.179772
0.172614
0.426599
0.508607
-0.694554
0.928793
0.224512
-0.587177
0.774739
0.786175
-0.526346
0.640783
-0.014387
-0.532321
-0.097921
0.203775
0.098857
0.111741
-0.236467
0.116128
0.061713
0.693597
-0.078354
1.135646
-0.775797
-0.137118
0.022698
0.037483
-0.177904
-0.824189
-0.095113
-1.273708
0.409114
-0.333975
-0.727734
0.426220
-0.340440
0.646668
-0.270565
-0.392996
-0.913838
0.811601
-1.312995
0.322285
0.619412
0.342190
-0.229633
-0.111982
-0.007032
1.023093
0.061771
-1.230326
2.154902
0.018911
0.083057
-0.832484
-1.265908
-1.553717
0.534485
0.052270
0.013394
-1.195058
0.199433
0.145407
0.648017
0.132195
0.131821
0.085861
0.390927
-0.017854
0.137409
0.289521
0.017629
0.842172
1.109277
1.187624
-0.053850
-0.010672
-1.078419
-0.157922
-0.502761
-0.134153
-0.955537
0.058039
-0.665460
-0.270371
0.328527
-0.539102
1.358862
-0.069575
-0.572084
0.204201
0.245487
-0.298286
0.512941
0.142212
-0.050181
-0.876391
0.194868
-1.003308
0.176317
1.265381
0.511209
0.746964
-0.188907
-0.853878
0.239625
-0.796706
-0.040871
-1.167053
0.084899
1.186836
-0.367628
1.730613
-0.308955
0.199391
0.381856
-0.058720
-0.756266
-1.220152
-0.583789
-0.052576
-0.130149
-1.533896
1.190732
-0.486400
0.591322
-0.259467
0.651386
0.325438
0.719825
0.467725
0.193741
-0.128589
0.202006
-0.167640
-0.367474
0.116264
0.838151
-0.063108
-0.733458
0.645315
1.037357
-0.204486
0.913429
0.427454
0.725069
0.904407
0.254963
0.013310
0.980557
1.046139
-0.599771
-1.081763
-0.213448
-1.367985
0.831462
0.181542
-0.417885
1.035704
0.673009
0.917911
-1.109227
-0.954337
-0.019236
0.805536
-0.991418
-0.223653
-0.312022
0.333384
-0.095991
-0.655520
1.008599
-0.884354
0.317054
0.495506
-0.483319
0.141310
1.510751
0.448659
0.391196
0.046328
-0.452432
1.672595
0.490291
1.820869
0.239933
1.003671
-0.489224
-0.468798
-0.807134
1.332916
0.682613
0.435109
-1.036872
0.927797
-1.186351
0.992713
-1.442589
-0.726992
-0.774702
0.863346
-0.196027
1.245336
-0.801510
0.200314
0.116462
-0.262079
0.171055
-0.150177
-0.265167
0.174634
0.356012
-0.028548
-0.105719
-0.273315
-0.284525
-0.190486
-1.417855
-0.513967
-0.700549
1.632116
0.408023
-0.442374
-0.518633
-0.746206
-0.583197
0.741119
-0.909957
-0.294034
0.807307
0.606751
0.664628
2.165328
-0.037371
-0.361961
0.490273
0.152834
0.596342
0.702865
0.185683
0.332631
-0.074418
-0.750119
-0.328918
0.464514
1.133106
-0.214317
0.551092
0.082828
0.118329
-0.220317
-0.957491
-0.486803
-0.358087
0.689856
0.240695
0.222681
1.257647
0.920780
0.247388
-1.373099
0.477550
-1.574499
-0.097220
-0.177007
-0.781577
-0.678434
-1.377450
0.725122
-0.049592
1.198979
0.636926
-0.582644
0.189366
0.268235
-0.152977
0.729959
0.765646
-0.576911
-1.305856
0.078645
-0.207467
0.388666
-0.487416
-0.164259
-0.295668
0.020614
1.187755
0.206423
0.377566
-0.428931
-0.321703
0.351659
-0.629536
1.446988
-0.679630
-0.143987
-0.325354
0.032854
0.794530
2.018757
-0.207799
-0.399854
-0.445220
1.100830
-0.982391
0.316221
-0.419357
-0.642843
-0.215549
1.316938
0.346676
-0.607359
-1.075661
-0.188428
0.068819
0.563558
-1.172832
-0.101671
0.340963
-0.638836
-0.175002
0.366217
0.308514
-1.304455
-0.283424
-0.035912
0.141183
-0.401598
0.315052
-1.368154
0.309081
0.216665
0.191610
0.929590
0.141314
0.748868
-0.594327
0.948842
-0.099411
-0.940718
-0.554079
0.291196
1.116118
-0.796604
-0.478904
1.206892
-1.348694
-0.226966
0.267765
-0.021896
-0.469731
-1.104949
0.227156
-0.100479
0.829232
1.229956
0.387414
-1.505333
0.001730
0.808976
0.742508
0.184368
0.073828
-0.325259
0.304052
0.027735
-0.386233
-0.214540
0.856639
0.391206
0.416741
0.467436
0.184308
0.956078
0.179105
0.096533
0.242781
-1.076510
1.094907
-0.695749
0.764180
0.360139
0.342917
-0.177008
0.039195
2.225588
0.779712
-0.267245
0.215020
-0.662449
-0.195153
-1.007927
-0.314081
-0.002216
0.636546
-0.095094
-0.294926
-0.668273
-0.597686
0.114004
0.691404
-0.026756
0.427427
1.145319
0.206470
0.037701
0.013457
1.484333
-0.601239
-0.774956
-0.590919
-0.332174
0.982818
0.573876
-0.466883
0.449696
1.461720
-1.093995
0.173300
-0.197134
-0.594603
-0.109786
-1.186369
0.533126
0.596287
-0.581963
0.371639
0.791424
0.217222
-0.527175
-0.243070
-0.094462
0.481427
-0.468100
-0.273545
-0.574444
-0.789762
0.705077
0.703275
0.110501
-0.662776
-0.268638
-0.070827
-0.299268
-0.181332
-0.224133
-0.508592
0.370540
-1.000672
0.153017
0.707294
0.369662
0.470605
0.724897
-0.220387
0.017509
0.285050
1.240742
-0.032654
-0.655391
-0.534093
1.280055
0.117836
0.668801
0.005142
0.823842
0.493757
-0.730546
-0.013020
0.184869
-0.419397
0.762058
-0.480112
0.578372
-0.035085
-0.864221
1.181069
-0.519197
-0.118573
0.290016
-0.216867
-1.059951
0.243417
0.603594
-0.528083
-0.014250
-0.738019
-0.880115
0.389252
-0.141264
0.163281
0.637288
1.205993
0.150280
0.077931
-0.407150
-0.304750
-0.079585
-0.199836
-0.565515
-0.250515
-0.105159
0.515043
0.829048
-0.880268
-1.112979
0.068116
0.069516
1.012669
-0.218077
-0.450705
-0.275097
0.976215
-0.122986
-0.078650
-0.817693
-0.843857
0.878647
-0.688874
-1.311131
0.030131
-0.973629
1.103573
1.063890
1.025435
-0.722731
-0.926754
-0.404130
0.831445
0.037567
0.036618
-0.626133
-0.458891
-1.047568
0.568046
0.433468
1.925464
1.229715
-0.138218
0.756450
-0.242402
0.250545
0.361671
-0.464809
-0.128444
0.966015
-0.798224
-0.714902
-0.434548
-0.366940
0.149493
-0.915236
0.099556
0.653359
-0.304055
-1.062552
-0.917300
1.421388
0.187666
0.021819
0.326115
1.122484
0.109145
1.116575
0.771526
-0.972987
-0.132303
0.924723
-1.682286
0.737467
0.199160
0.577511
0.628056
0.713233
0.946921
0.690200
0.949233
0.267382
0.385686
0.358470
0.556326
0.256997
0.288224
-0.333282
0.512066
0.269791
-0.590716
1.559419
0.143555
-1.323720
-0.227352
1.235236
-0.688316
-0.240464
0.359243
-0.787062
0.396745
0.513284
0.121582
0.528159
-0.414643
0.102795
-0.210374
-0.613704
0.846381
0.136463
0.563483
-0.448293
-0.736484
0.138045
-0.012791
0.137212
0.913368
0.891243
0.217474
0.655280
0.390235
0.599527
-0.745674
1.410729
-0.276152
-0.006491
0.637719
-0.992065
0.071833
0.118744
-1.900657
-0.089999
0.158898
-0.026669
-0.587077
0.636059
0.503278
-0.603623
-0.566838
0.467226
-0.157110
0.531336
-0.890215
0.153355
0.284035
0.079866
-0.336886
0.798279
0.052317
-0.980261
-0.266293
0.017952
-1.014094
-0.328623
1.290845
0.924765
0.249735
-0.359985
-0.306244
-0.728403
0.553002
-0.182593
-0.778390
-0.029981
0.931337
-0.093488
0.685209
-0.545119
-0.199799
-0.726606
0.616626
0.980798
0.492349
0.180398
-0.969393
-1.231924
0.817514
-0.256300
0.031528
0.293098
-0.783095
-0.480053
0.170074
0.620206
0.794772
-0.074437
-0.131719
-0.252379
0.821426
-0.705039
0.205223
-0.289281
-0.030725
-0.321582
0.420247
0.102364
-1.485643
-0.688119
0.057707
-0.153703
0.072604
-0.529854
-0.827786
1.277651
0.160582
0.281679
-0.005925
0.127744
-0.314395
0.164416
0.250881
-0.911294
0.380550
-0.786873
0.429128
0.363997
0.079936
0.366005
0.163659
-0.141071
-0.455008
-0.116481
-0.226076
0.856773
-0.193284
-0.306888
-0.522672
1.235704
0.178777
-0.225605
-0.120250
0.545610
-0.252942
-0.346933
-0.449063
0.830865
0.170242
-0.915904
1.200663
1.376602
0.777723
0.755047
0.741177
0.329467
0.788775
-0.218938
-0.864095
-0.391730
0.439684
-0.101575
0.510718
0.203418
0.493014
-1.343662
0.916188
1.048855
-0.162949
-0.546354
-0.302170
-0.555312
-0.868603
-0.892391
1.008717
-0.573711
-0.993739
0.196314
-0.719403
0.654489
0.744446
-0.332948
1.141612
0.782597
-0.519433
-1.054924
0.001037
0.961092
-0.717081
1.515083
0.125234
0.913722
0.829552
0.416269
1.076322
-0.376093
0.684663
1.407949
0.543132
-0.384668
-0.230815
0.220731
-1.215220
0.551220
-0.536953
0.803407
-0.496763
-0.734154
1.407354
0.997231
1.412549
-0.087897
-0.815990
-0.669228
-0.282914
0.043598
-0.449310
0.661564
-0.357209
-0.178069
0.860699
1.154013
0.106988
-0.072438
-1.016315
-0.519313
-0.365869
-0.303721
-0.652960
0.724343
-0.341552
0.993477
0.220174
0.331473
0.430839
-0.185812
0.329000
-1.434430
0.298061
0.917622
-0.988317
0.085612
-0.853274
0.950630
0.257793
0.903968
0.333878
0.036543
-0.818387
-0.519993
-0.675707
-0.272598
0.139127
0.446259
-0.560496
0.673857
-0.580680
0.513949
0.348274
-0.367822
-0.150804
0.768076
-0.429559
-0.827191
0.133878
-0.196136
-0.314756
0.063781
-0.197589
-0.246252
-1.034014
0.070712
-0.394510
-0.546660
0.080934
-0.033903
0.995170
0.206798
-0.093134
-0.363279
0.876640
-0.141363
0.841226
1.179490
0.004815
-0.333077
0.482533
0.100462
0.423832
0.312340
0.351508
-0.230132
0.360647
0.482926
0.979525
-0.355437
0.439842
-0.164469
0.307508
-0.530494
1.576041
-0.035159
0.455171
0.189582
-0.330917
0.086602
-0.172976
0.795100
0.153589
-0.498641
0.135451
0.642683
0.482672
-0.194048
-0.344626
-1.387139
0.052879
-1.371330
0.542926
-0.426820
1.012192
-0.007794
0.059683
-0.772220
0.059906
0.717078
-0.406934
0.777338
-0.376058
-0.153968
0.019002
-0.006768
-0.014089
-0.262425
0.415794
0.421280
-0.371897
1.157163
1.360457
-1.482778
-0.646798
-0.472860
-1.071803
0.329715
0.727366
-0.538533
-1.216106
0.701509
0.303686
-0.016737
-1.411709
-0.630751
-0.632556
-0.945246
-0.763712
0.178024
0.789692
-0.519080
-0.029405
0.511745
0.785584
-1.023311
-0.635971
1.340727
-0.798401
0.822957
-1.376757
0.197149
-0.174815
0.111290
-0.346746
0.991908
-0.337300
0.048761
-0.258519
-0.099101
0.185987
0.622374
-0.675791
0.344527
0.226878
-0.016538
0.506668
0.568397
-0.089993
-0.870246
-0.723840
-0.689398
0.486447
-0.333895
-0.561747
-0.197999
0.237332
-0.490274
0.615055
0.339114
-0.090212
-0.884925
-0.257802
0.910537
0.212891
-0.690066
-0.832801
0.673530
-0.054287
-1.204108
0.437433
-0.777421
0.866394
0.356606
-0.800770
-0.828661
0.107255
0.213273
1.488983
0.208123
-0.539749
1.549090
-0.545367
0.185845
0.340311
-0.148665
-1.082355
-1.310282
0.794554
1.437439
-0.235117
-0.750231
-0.068483
0.130949
-0.641698
-0.359893
1.183891
-0.440639
-1.027956
0.719851
0.585329
0.626213
-1.055226
-0.436523
-0.210711
0.441251
-0.024005
-0.016620
-0.196131
0.808256
-0.256624
0.275349
0.480252
-0.392910
-1.589782
-0.448965
0.087084
0.501748
-0.330296
-0.767276
0.954603
0.021718
-0.215020
-0.425175
0.282218
-0.047771
0.505093
-0.982177
0.428649
-0.154845
-0.447998
-0.188879
0.052061
-0.437783
-0.065242
-0.165023
-0.458543
-0.596386
-0.282481
-0.466924
0.225439
0.314191
-1.619000
-0.583676
-0.366459
0.612498
1.099610
0.227177
0.355842
0.131142
-0.364657
-0.112031
-0.274661
0.116970
0.974545
-0.005236
-0.179254
1.020660
0.735718
0.153629
0.301007
-0.625215
0.270638
0.000654
0.220169
0.385994
-0.762773
-0.886998
0.791940
-0.199249
0.487410
0.512170
-0.260948
-0.135520
0.444137
-0.788727
-0.670659
0.230843
0.309884
0.201468
-0.248405
0.340120
-0.044196
-0.521943
0.684614
0.004742
-0.487436
0.128726
-0.364374
-0.639643
0.313840
-1.006360
0.031047
-0.759462
-0.957279
-0.274532
-0.094143
-0.884518
-0.160613
0.292339
-0.070145
-0.039161
-0.525713
1.528369
-2.026191
-0.581109
0.742461
0.080489
0.551305
-0.298578
0.479783
-0.423086
0.764143
-0.230603
-0.720215
0.385926
-0.058689
1.085431
-1.314310
0.978568
-0.083256
-0.875088
0.342129
-0.395347
-0.439262
0.370485
1.667936
-0.357952
0.178822
0.811530
-0.191928
0.570324
-0.576859
0.843758
-0.027202
0.243616
0.489942
-0.764657
-0.436607
0.171374
-0.572677
0.642831
0.071453
-0.034373
-1.295514
-0.714617
-0.065035
-0.121774
-0.709169
0.641640
-0.059935
1.011013
-0.340794
0.598407
-1.064813
-0.322749
-0.623687
0.246260
1.196440
1.114820
-0.954958
0.220315
1.713304
0.297654
-0.699775
0.593058
1.212898
0.457156
-0.154372
-0.938947
0.346536
0.410878
0.129995
0.346466
0.785617
0.743187
1.265758
-0.933525
1.050876
0.573029
0.002082
-0.745878
1.208681
1.236865
-1.250452
1.559573
-0.260009
0.260080
0.640871
0.122042
1.109802
0.769813
-1.079659
-1.463890
0.295894
-1.470200
0.589286
0.703499
-0.541272
-0.852762
0.630204
0.413739
0.288920
-0.084572
-0.920605
-0.472922
0.337734
0.759992
0.066362
-2.244900
-0.515662
0.784842
0.480870
0.705258
-0.192275
0.245020
0.624756
-0.487454
0.204768
-0.045111
0.220235
0.011564
-0.788688
-1.533099
0.001803
-0.079151
0.369917
0.913929
0.419850
-1.557133
-0.216942
0.291747
1.560877
0.606560
-0.044809
0.684328
-0.975781
0.322210
-0.674884
-0.622945
0.224805
0.120418
-0.886535
-0.437439
1.065528
0.601820
-0.260698
0.056357
-0.834294
0.107778
-0.058734
0.517994
0.319762
0.334110
0.538080
0.745162
0.795606
0.643976
0.213895
-0.551575
-1.155794
0.183987
0.147462
-0.656345
1.006249
-0.578616
0.240947
0.296069
-0.940789
-0.255243
-0.815683
1.230419
-0.341685
0.454294
-0.178635
0.438328
0.176687
0.295660
0.476123
-0.147075
0.361630
-0.927591
-1.047089
-0.703859
1.771024
1.567105
0.627508
0.436912
-0.151848
-1.257551
0.180846
-1.239463
0.318997
-0.552949
0.559181
-1.151315
-0.056427
0.578729
0.195268
-0.827912
-0.567585
-0.837333
0.364764
-0.683501
-0.583422
1.617970
0.391211
0.684722
-0.376170
0.181782
-0.798037
-0.052912
0.957311
-0.287837
-0.539706
0.021299
-0.521766
-0.740589
1.074605
-1.132633
-0.922728
0.196588
1.099385
-0.125549
-0.312258
0.414086
-1.448987
-0.150326
0.166266
-1.178217
0.324314
0.162460
-0.093872
-0.543137
1.697247
0.930547
-0.677695
-0.164344
-0.753753
0.800097
-0.983034
-1.255202
0.387690
-0.279205
-0.737273
-1.413926
-0.286191
-0.173198
0.269513
-0.520122
1.383851
-0.174279
-0.461136
0.259926
-0.884565
1.403919
0.416610
0.064207
-0.494710
-0.645867
-0.152646
-0.366533
0.427204
-1.015428
-0.410133
-1.068346
-1.060756
-0.591841
0.650361
-0.959947
-0.722201
0.822970
0.086584
1.039628
0.246750
0.955632
0.737714
-0.500152
0.380103
-1.409677
-0.325465
-0.145943
-0.271107
-0.537945
-0.086977
-0.826056
-0.041614
1.010690
0.142434
-0.053356
0.365528
-0.508203
-1.273504
1.126146
-1.757684
1.034256
0.041526
-1.354121
-1.161617
0.357326
-0.067568
0.215391
-0.408346
1.424248
-0.009087
0.950125
1.399860
0.752382
-1.253607
-0.731709
0.614640
-0.891203
-0.302094
0.026180
-0.764984
0.083092
0.410645
-0.592645
-0.310632
-1.283440
-0.155103
-0.363262
1.318186
-0.844311
-0.557788
0.659431
-0.520780
0.182753
0.158081
-0.322506
-1.394405
0.353303
0.377237
0.212577
0.419380
0.608377
0.121581
-0.472024
0.178653
-0.542337
-0.878537
0.187132
-0.305847
-0.014733
0.471436
0.204196
0.461361
0.022722
0.242653
-0.041295
0.412393
0.632417
0.815260
-0.880884
0.400050
0.453274
-0.230884
0.317954
-1.123939
0.242993
-0.559524
0.209942
0.179788
0.170080
-1.626285
-0.375439
0.140751
-0.116826
-0.465621
-1.385728
0.115272
-0.888386
-0.739965
0.256124
-0.106061
-0.712641
-0.766910
0.239365
0.199504
0.196032
-0.744971
0.271326
-0.814910
0.075759
0.738448
-0.285897
0.748591
0.132514
0.328848
0.009784
-0.455504
0.331114
0.672380
-1.480388
1.162653
0.371574
0.065988
1.377079
0.080009
0.304204
0.472535
-0.473952
-0.278032
-1.409344
0.176679
0.441595
-0.276993
0.960298
0.429717
0.008184
-0.377078
-0.311594
0.011837
-0.683748
-0.107648
-0.755477
-0.365238
0.808701
0.308991
-1.479376
0.498811
-0.839000
0.189905
-1.174185
0.016457
-1.021441
-0.750884
0.652458
-0.215717
-0.443604
1.052431
0.277168
-0.207294
-1.213648
-0.234551
-0.047156
1.507392
-0.281883
0.368871
1.611400
-0.072075
-0.617795
0.153980
0.219555
0.511721
-0.887900
0.220009
-0.544817
-0.501176
-0.510245
-0.322354
-0.030541
-0.284080
-0.159326
-0.272049
0.098984
0.107821
-0.204286
-0.286083
-0.930349
0.015249
-1.991970
-1.263263
-0.703716
0.965409
-0.824704
-0.353939
1.262646
-0.099648
0.743204
-1.343339
0.725059
-0.932031
0.214154
0.404383
-0.305517
-1.081863
0.042931
-0.057929
-0.770602
-0.401245
0.978865
0.146368
0.652725
-0.368506
0.009281
-0.715068
1.646156
0.479545
-0.180455
0.501219
-0.219191
1.129144
-0.765045
-0.065482
0.618606
-0.634811
-1.494717
0.089196
-0.883301
0.219370
-1.296130
0.997120
0.587775
1.313686
0.118372
-0.706709
-0.293412
0.684908
-1.753955
-0.061058
-1.429267
0.614531
-0.772122
-0.262473
-0.810268
-1.227977
0.839612
-0.261451
-0.393148
1.182952
0.478684
-0.217672
1.055289
0.884402
-0.278896
0.788680
-0.135632
-0.420804
-1.128594
-0.037318
1.335191
1.639331
0.663028
-1.194988
1.044735
-0.270472
-0.003028
0.525107
0.404343
-0.016997
-1.182615
0.424692
-0.046504
-0.416338
0.948430
-0.342116
1.440815
-0.317223
-0.507445
0.581388
0.372596
0.408125
0.017977
-0.893901
-0.804392
0.610905
0.348223
-0.156178
0.687577
0.373718
0.682418
0.566490
1.108074
-0.443864
-0.676948
-0.775714
-0.312568
-0.426521
-0.863104
-0.741606
-0.107561
0.373991
0.694984
1.352289
-0.081428
-0.609469
1.060687
-0.359581
0.177686
-0.223771
0.404359
-1.052877
0.428607
-0.678595
1.026431
0.552843
0.540588
0.742335
-0.116017
-1.079905
0.530046
0.063476
1.112791
-0.355313
-1.444637
-0.008390
-0.664274
-0.145633
0.623093
-0.110338
-0.481148
0.634597
0.898856
-1.000749
-0.101902
0.226370
0.316797
-0.267590
-1.953953
-0.419030
1.415106
0.185882
0.391625
-0.190411
0.416139
0.059285
-0.360227
0.414015
1.023377
-0.322411
0.830395
0.038138
-0.813008
0.173613
-0.850053
0.602286
0.479441
0.003539
-0.253850
-0.066255
0.089557
0.308070
0.203318
-0.056177
0.696034
0.488008
-0.027217
-1.166582
-0.938427
-0.684252
0.425859
-0.361595
0.922227
-0.190730
-0.697710
0.038462
0.907620
-0.137833
-0.037181
0.619152
0.759786
1.257098
0.459414
-0.007413
1.084515
0.844590
-0.912009
-1.110899
-0.222802
0.358196
0.822023
0.225203
0.734943
0.450996
0.199833
-0.559269
0.253820
0.158898
0.124462
0.065588
0.128560
-0.184640
0.888918
1.171095
0.105190
-0.343510
0.373290
-0.100424
-0.858230
-0.727147
0.468041
0.589875
0.578320
1.768671
0.439896
0.765950
0.334292
0.247381
-0.812034
0.600746
-0.481544
0.690448
0.160019
0.806571
0.413211
-0.658254
-0.162781
0.237715
-1.173570
-1.252096
-1.806086
0.561155
0.729239
0.378110
-0.531167
-1.090954
-0.100519
-0.242655
0.157274
0.878826
-0.199862
0.555822
-0.003726
1.064119
-0.335381
-0.518244
-0.776463
0.119465
-0.688014
0.572702
-1.495734
-1.016241
-0.460750
-1.129320
-0.666066
0.388339
-0.201222
-0.357390
0.050127
-0.119819
0.138899
1.078917
-1.623242
-0.248064
0.045305
0.721463
-0.681950
0.091939
1.250317
-0.445472
0.525025
0.376697
-1.145456
-0.037239
0.357105
0.279694
-0.641892
-0.744950
0.276754
-0.677781
0.500973
-0.642790
-0.308875
0.380938
0.213576
0.035325
0.084561
0.804035
-1.268077
-1.851112
0.439606
0.656995
0.346241
-1.299804
0.490850
-1.373929
0.517918
1.291395
-0.383351
-0.472213
-0.597018
-0.154564
-0.841974
-0.580068
-0.514280
0.111451
0.815287
-0.507096
0.310851
0.097069
-0.055407
1.121359
-0.074626
-0.581999
-0.718437
0.271038
-0.605535
0.213233
0.582495
0.777623
-0.779717
0.621073
0.529487
0.971677
-0.178368
-0.787465
1.165078
0.077604
-1.440233
0.947038
0.236403
-0.226564
0.226545
0.022988
0.268058
0.176645
0.856606
0.348087
-0.011833
0.319268
-0.172220
-0.166083
0.348159
0.328224
-1.079568
0.097725
1.118103
0.013762
0.300473
1.117738
-0.519357
0.634157
-0.185283
0.474738
0.698511
-0.452250
-0.209085
1.367263
-1.279156
0.132221
-1.263148
-1.380405
-0.144512
1.062484
-0.699707
0.942642
-1.095477
-0.017521
0.111119
0.414365
-0.335703
0.687724
0.542875
-0.028335
0.749006
0.082238
0.075591
0.085376
-1.478293
0.526865
-0.215641
0.962578
0.192304
0.386789
0.700734
-0.568899
-0.038086
0.466519
-0.027019
0.177946
-0.849692
-0.026469
-0.864651
-1.259697
0.923807
0.824276
0.379376
-0.712360
-0.370389
-1.106004
0.236260
-0.455323
0.430229
-0.037831
0.220558
0.398779
-1.053188
-0.960327
-1.569098
0.557259
0.761861
0.669864
0.177581
0.010883
-0.289839
0.429811
0.284533
0.899063
-0.059002
-0.409592
-0.278032
-0.700175
0.283588
0.810740
-0.330391
0.407728
-1.014921
-0.225988
-0.207573
-0.733630
-0.560230
-0.239928
-0.144243
0.129092
-1.122702
-0.761608
0.986099
-0.531528
-0.027804
0.492083
-1.740379
-0.737870
0.800907
-1.157085
1.561268
-0.182120
-0.101279
-0.179880
-1.119045
0.220879
-0.684940
1.041972
-0.434002
-0.035679
-0.237677
-0.033106
0.982426
0.783785
-0.538860
-0.329205
0.222688
-0.113183
-1.436603
0.022008
-0.382876
-0.619729
1.007221
0.390941
0.291519
0.378773
0.412400
-0.464230
-0.125774
-0.376927
0.370655
-0.538233
0.226661
-0.367952
-0.087711
-0.338575
0.397403
0.654025
-1.282970
-0.442262
0.958158
0.399984
0.159807
-0.380672
0.625690
0.213512
-0.243968
-1.070832
0.819077
-0.163207
-0.451934
0.237603
-0.043616
-1.145152
-0.771025
-0.327678
0.409792
-0.052938
1.048937
-1.169874
-0.548936
0.084316
0.695163
0.373503
0.559309
-0.189504
0.304969
0.824986
-0.627839
1.293761
-0.241004
-0.925542
1.082819
-0.834846
0.066296
-0.585496
-0.340967
0.926185
-1.024297
0.624402
-0.698410
0.167581
0.180360
0.544457
0.045933
-1.370807
-0.390611
-0.063254
-0.426191
1.174026
0.846645
0.375651
1.520347
-0.315568
0.075558
-0.089233
0.021362
-0.343580
-1.004676
-1.123834
-1.047324
1.588611
0.166209
0.384488
0.551903
-0.432632
-0.862005
0.000742
-0.428065
0.387912
-0.928071
-0.523532
0.225606
-0.333307
0.859836
-0.367714
-0.200887
-0.288416
-0.532547
0.359920
0.039849
-0.760013
0.241377
-0.135950
-0.095111
1.060274
0.632876
-0.362296
-0.160087
-1.058310
0.719511
0.620332
0.117704
-0.628727
0.129637
-0.758980
-0.325004
0.659091
-0.200193
0.327637
-0.551870
0.210037
-0.739590
-0.022804
0.090845
-1.531268
-0.367721
-1.478123
-0.548789
-0.170321
-0.204375
-0.425428
-0.468493
-1.113033
-0.734749
-1.461131
-0.320103
0.139063
-0.869626
0.851172
0.146662
0.063803
-0.885114
-0.000423
-0.343618
-0.861991
0.341240
0.106497
0.518907
0.303114
-0.435251
-1.043225
-0.342127
-1.238681
-1.976893
1.036494
0.525490
0.044185
0.545798
0.056765
0.796185
0.375529
0.588911
0.074530
0.080930
-0.431619
-0.031673
0.694959
-0.771500
-0.101843
-0.212315
-0.388215
-0.452720
0.187072
0.473006
-0.029332
0.199533
-0.009117
-0.440231
0.252487
0.828569
-0.816509
0.845297
0.278407
-0.118545
-0.776170
-0.550926
0.204729
0.294608
-0.170293
0.606111
1.495488
-0.982539
-1.109686
-0.447369
0.099687
0.271585
-0.545330
-0.106458
-0.279700
1.473220
-1.466637
-0.553700
0.624049
0.082742
-0.675074
-0.224640
-0.559855
-1.117207
-0.235354
-1.026278
-0.612583
-0.853303
0.096028
2.158119
-0.496832
-0.201750
-0.349952
0.252384
-0.920307
0.459086
-0.338528
1.163123
0.079171
-0.690140
0.559131
-0.958769
-0.046619
0.409276
-0.128092
0.938469
-0.185620
-0.143847
0.359767
1.418021
-0.976343
-0.445930
0.810818
0.156265
0.098567
1.404285
0.757482
-0.727747
0.540662
0.108724
-1.448342
-0.136888
-0.745504
1.980824
0.134910
-0.375274
-0.421652
0.687806
-0.627288
-0.042542
0.495626
0.132078
0.965164
-0.532105
0.547858
0.378077
-0.150349
-0.143914
-0.175004
-0.226003
-0.678294
-0.984164
0.218783
0.783537
-1.101667
0.480285
1.759374
-0.269445
-0.675348
-0.087089
0.597229
-0.457730
-0.785425
-0.078709
1.297098
-0.480793
1.424788
-0.281424
-0.322717
-0.629089
-0.082897
-0.389899
-0.256032
-1.104368
0.222992
-0.389310
-0.225478
0.157028
-0.319861
0.848186
0.909822
-1.675968
-0.161779
0.621791
0.372417
0.085007
-1.175647
-0.945677
-0.298633
0.402435
0.787910
0.429104
0.432268
0.558269
0.304313
0.495650
-1.748498
-0.584647
-0.491401
-0.821548
-0.295376
-1.410883
0.832544
-1.202880
-0.624841
0.765931
0.019851
-0.372686
-0.372787
-0.508922
0.178778
0.468192
0.287252
0.173386
-0.458100
0.777393
0.455469
1.111945
-1.003300
0.465108
0.208365
0.657596
0.014742
-0.313768
-1.765832
-0.634280
-0.012363
-0.130487
0.264010
-0.203990
0.785445
-0.479767
-0.799698
-0.766410
-0.201970
0.246911
-1.396030
0.629195
-0.368339
0.172906
0.817772
0.509517
-1.280480
-0.237486
0.768446
2.048589
-0.762394
-0.379726
-0.709322
-1.164492
-0.719224
-0.251039
-1.127029
0.411902
-0.100618
-0.239074
0.490759
0.932001
-0.608693
0.357267
-0.368614
-0.436333
0.694551
-0.339122
0.626763
-0.334930
-0.051241
1.022578
0.679865
1.534171
0.287153
-0.176442
-0.144163
-0.726977
0.376625
0.062008
1.101034
-0.221548
-0.558205
0.725775
0.512794
1.942668
0.949802
1.189094
-0.393998
0.971439
-0.157191
0.240203
-0.228599
1.068806
0.342419
0.257670
-0.540467
0.211869
-0.307934
-0.104484
0.044130
0.327718
-0.474186
0.615776
-0.677208
0.724569
0.237543
0.798055
1.004343
1.173471
0.316441
1.029920
0.885075
-0.269671
0.021445
0.199268
-0.089526
-0.575465
-0.298889
-0.421885
0.349324
0.896033
-0.327866
-0.359479
-0.537893
-0.493426
0.771805
0.635384
0.736076
0.400865
-0.174845
0.308354
0.179799
-1.431913
-1.086519
0.178070
0.164551
0.625167
0.041992
-0.691321
0.420799
-1.358289
0.176454
-0.309730
-0.150705
0.053042
0.746683
-1.597560
0.550695
0.435259
-0.026995
-0.514019
0.000803
-0.674652
-0.119693
-0.800612
-0.231813
0.600384
0.183689
0.189797
0.553112
0.355124
-0.077384
-0.011940
0.133668
0.936073
0.336728
1.071605
0.391775
1.233093
-1.643919
-0.225359
-1.151258
0.543463
0.581117
-0.459537
-0.415918
-0.411826
-0.702725
-0.242518
0.025203
0.216579
-0.516045
0.352358
0.102213
0.268324
1.219399
-0.065401
0.787161
-0.732257
0.092340
-0.599748
-0.366722
0.212643
-0.228811
0.635851
-0.362568
-0.806508
-0.517409
0.489850
0.299573
1.397554
0.422424
-0.142791
0.920841
0.805151
0.410727
0.807094
-0.454157
-0.858972
1.027607
-0.320003
-1.305129
0.046415
0.645883
0.882070
0.286194
0.289109
-1.129902
-0.577142
-1.437130
0.486685
0.074514
0.707253
-0.847460
0.839033
0.535438
-0.280194
0.287285
0.813838
0.189473
-0.344756
-0.321583
0.400977
0.611192
0.516840
-0.436338
1.524568
0.516095
-0.223396
-0.231419
-0.655201
-1.380801
1.734603
0.685195
0.296135
0.120866
0.533734
-0.478458
-1.325705
-0.412842
0.563945
0.402250
-0.410976
0.837978
0.186089
-0.754920
0.423464
0.205878
0.028023
-1.395898
-0.171327
0.733715
0.296115
-0.103063
-0.422787
-0.330747
-0.638176
0.520545
0.266358
-0.759274
1.003422
-0.231812
1.110598
0.091590
0.666069
0.421147
-0.714137
-0.651723
0.112557
0.650996
-0.347239
-0.018059
1.377143
0.155950
2.050200
0.522182
0.774809
0.608294
-0.676683
-0.617042
0.462058
0.318290
0.128752
0.133228
-0.507528
-1.268395
-0.156275
0.483898
0.135222
-0.295076
-0.295311
-0.769847
-1.110840
-1.174807
-0.364586
-0.265666
0.369564
0.606794
0.355806
1.344161
0.157560
0.395161
-0.324209
0.426240
0.374567
-0.447670
0.196523
-0.065389
0.424335
-0.411037
0.393536
0.666602
0.405263
-0.702874
0.299931
-0.468738
-1.323536
0.341087
0.511029
-1.137836
-0.042004
0.225146
-0.014028
-0.535115
-0.215632
-0.331473
-0.106045
-0.242235
0.992911
-0.226601
-0.307891
-1.424296
-0.186807
0.899577
-0.563962
0.012016
-0.590348
-0.242397
0.111400
-1.341735
-0.891071
1.115599
0.190491
-1.374471
0.779491
-0.188048
-1.414527
-0.477507
1.284724
0.039626
0.104761
0.313092
-1.130870
0.223991
-0.292761
-0.747146
-0.300411
0.843974
-0.254860
0.939164
-0.205643
0.212366
-0.886960
0.727037
1.113574
-0.248720
0.291910
-0.363548
-0.344448
-1.018018
0.552791
0.123883
-0.488565
-0.409923
0.672471
-0.212823
-0.018979
1.281536
0.386950
0.298452
-0.786190
0.359728
-0.704437
-0.082321
-0.992236
-0.240884
0.136726
-0.050176
0.432662
0.285640
0.930624
0.943066
0.810136
-0.056732
-0.263475
0.472261
0.165014
1.325907
-0.450887
-1.116085
-0.147446
0.552045
0.493030
0.959612
0.157816
-0.462763
0.246657
-0.385955
0.674093
-0.531842
0.488494
-0.260798
1.323796
-0.652094
0.442524
-0.153418
-0.345364
0.614990
0.404054
1.252064
0.853185
-0.261701
-0.012922
0.565723
-0.527624
-0.220760
0.502309
0.317374
0.076993
-0.763737
-0.304951
0.174665
0.313451
-0.671877
0.787986
-0.637808
-0.433775
-1.003159
-0.914048
-0.809862
-0.217370
-0.033255
0.243637
-0.289530
-1.420325
-0.202248
1.071293
0.733884
0.409423
0.583348
0.417787
-0.816898
-0.327866
-0.594827
-0.228407
-0.013347
-0.084101
-0.415145
-0.529456
0.186680
-0.308381
-0.781000
-0.590058
0.680247
-0.343000
0.178160
0.485560
-0.010915
0.193325
-0.741712
-0.335864
-0.283963
0.044244
-1.104318
0.037008
-0.290170
-0.094238
-0.417026
0.568698
-0.537703
-0.053550
1.078330
-0.283492
0.066891
-0.059286
0.796602
-0.781210
-0.360526
0.929757
-0.566905
0.363851
0.114096
0.318212
-0.259088
0.369834
-0.132240
-0.915753
-0.645966
1.112384
-0.846614
0.315959
0.780167
0.235159
-0.527209
-0.817402
0.329133
0.577805
0.122816
-0.950891
-0.501131
-0.593739
-0.070224
-0.549445
0.204292
0.706191
1.308838
0.612727
-0.502749
-0.536000
0.618071
-0.424795
-0.265045
-0.333487
0.439329
-0.638296
1.490634
0.805355
-0.624794
-0.397447
-0.303053
0.894849
-0.265601
-0.078782
-0.791524
0.531048
0.433653
-0.357686
0.172016
0.720970
-0.029857
0.352172
-0.535317
-1.409742
-1.339425
0.385808
0.325226
0.443559
0.595522
1.136143
-0.182256
-0.095066
-0.716904
0.609182
-0.210916
-0.798527
0.089707
-0.159130
-0.168118
-0.097334
0.141249
0.319806
-1.423570
0.835758
-0.952166
0.229248
1.394407
0.178938
-0.073784
1.154315
0.399790
1.014616
-0.185078
0.273593
1.228099
-0.002959
0.682800
-0.240306
-1.136929
-0.298145
-0.498105
-1.797110
-1.144110
0.544524
1.773890
0.053574
0.242473
0.282820
0.127914
-0.673966
0.021264
-0.854423
0.586292
0.359113
0.324694
1.883941
0.202210
-0.084709
0.558127
0.932773
0.568843
0.781585
-0.015349
-0.004400
-0.267346
0.212730
0.520525
-0.363933
-0.128296
-0.682322
0.045304
0.400759
-0.458229
0.078688
-0.480776
-0.180041
0.196214
0.255467
0.476426
0.337091
-0.067710
-0.167131
0.269897
0.605077
-0.962087
-0.880059
1.454083
-0.003060
-0.558254
-0.101818
0.117382
0.469934
0.862417
1.031255
-0.638910
-1.140701
-0.961401
-0.890851
0.238755
0.063074
-0.365654
-0.181432
-0.298665
-1.461674
0.429351
0.139112
0.882932
0.243927
0.708745
0.383252
0.814643
-0.259450
-0.334638
0.146994
-0.399262
-0.342310
0.783602
0.365795
0.986313
-0.579341
-0.308972
1.481181
0.368806
-0.015570
-0.830585
-0.816111
-0.258978
0.072202
0.623561
-1.551025
1.392171
-0.083473
-0.961937
0.566341
-0.955640
0.900218
0.597041
0.123757
0.411928
0.704214
-1.057095
-1.133825
-0.139163
-0.105739
-0.022709
-0.101891
-0.634870
-0.060688
0.141980
0.701565
-0.878087
-0.239973
-0.903926
-0.259128
-0.231029
0.386168
-0.314065
-0.654202
-0.475020
-1.016346
-0.967441
0.661088
0.751562
-0.714394
0.302031
-0.217731
-0.152698
-0.412705
0.282722
-0.568491
0.279362
-0.214311
0.107870
0.144162
-1.048984
0.560327
-0.317537
-0.095405
0.251079
0.712596
0.516982
-0.585575
0.075725
-0.004162
-0.115007
-0.867909
-0.360136
0.379425
1.110012
-0.860005
0.228745
-0.364908
-0.681016
-0.007130
-1.124499
0.933382
-0.871280
-0.544238
-0.392975
0.828254
-1.421859
0.061412
-0.514904
1.131765
0.142065
-0.368577
-0.105683
-0.226805
0.042882
-0.109242
-0.038706
1.466166
-0.127860
0.370309
0.443173
-0.059180
0.588955
0.142895
0.227175
0.639646
0.404595
-0.027614
-0.648309
-0.139530
-0.328273
0.020853
0.530288
0.416985
0.104755
1.189119
1.034874
-1.219777
0.004362
0.617581
0.862857
-0.165562
-1.303682
0.659916
-0.576050
-0.213165
-1.099002
-0.452213
-0.106661
-0.731403
1.058844
0.029608
0.531822
0.883844
-0.121971
-0.101946
-0.164833
-0.025934
0.396823
0.537222
-0.071809
0.025417
0.289558
-0.233115
0.600431
-0.154916
0.543059
0.828223
-0.144814
-0.746943
0.729562
0.119665
1.309701
0.292192
-0.197892
0.595864
-0.866990
-0.053405
-0.637449
0.336726
0.391287
0.131583
0.043400
0.212971
-1.564864
0.197840
0.398737
0.619784
-1.067604
-0.549919
0.339249
0.643022
0.468163
-0.279581
0.531243
-0.413778
-0.014674
0.420633
0.516653
-0.015980
0.441409
0.371840
1.008381
1.255483
-0.235086
1.684135
-0.802642
-0.732227
-0.096577
0.254895
1.324536
0.347333
-0.229127
-0.152374
-0.424968
-1.179715
-0.117538
-0.016117
-0.210477
0.427818
1.187407
0.720391
-1.037510
-1.007392
-0.089556
-0.153741
0.235398
-0.339127
0.248322
-0.382747
-0.264678
0.393463
-0.020436
-0.094616
-0.998862
0.517343
-0.468972
0.626527
0.754028
-0.103591
-0.237809
0.365563
-0.868027
0.450259
-0.869221
0.499539
-0.635632
1.511895
0.541701
-1.200331
0.154939
-1.050391
1.349494
0.634779
-1.621411
-0.530921
-0.161676
0.239272
-0.385465
-0.376574
-0.796335
-0.372199
0.247612
0.666165
-1.054085
-0.034047
0.840135
0.718316
-0.077025
1.405760
0.126200
1.185710
0.159745
-0.208228
-0.945567
1.690981
-0.609380
0.643459
0.533314
0.957710
-0.373506
-0.455550
-0.167532
-0.274763
-1.228036
-0.034020
1.601303
-0.930643
-0.016422
1.165305
-0.411598
0.116420
1.234482
-0.227889
-1.342904
-0.370749
-0.502640
0.266175
-0.285368
-0.249724
0.529088
1.060049
-0.596418
-0.660991
-0.410487
0.537981
0.103254
-0.599162
-0.464883
0.174760
0.476358
-0.410905
0.210696
-0.516916
0.264076
-0.295708
-0.456803
0.410672
-0.211088
-0.512995
-0.292865
-0.238156
-0.620244
-0.379260
-0.210558
0.373853
-0.786181
0.178206
-0.364040
0.664623
0.147516
0.032879
-0.332548
-1.099797
0.008421
-0.324417
0.045887
-0.151653
0.265105
-1.486081
-1.319646
-0.389934
-1.609265
0.497729
-0.392155
-0.934586
0.003208
0.262069
0.174138
1.024895
-0.741385
0.865089
-0.337640
0.120914
-0.297999
0.880167
-0.561091
0.162570
-0.236408
1.429961
0.530875
1.134579
-0.502756
0.219722
0.317915
-0.171622
0.507388
0.042360
0.112456
0.360477
-1.020647
0.319357
0.033738
0.406589
0.392840
0.780696
0.583638
-0.638769
0.167309
0.261551
0.442673
0.110345
1.090830
-0.427409
-0.206442
-1.458861
-0.655131
-0.960521
-0.150929
-0.486357
0.167439
-0.647598
0.770465
0.213945
-0.207244
-0.254665
0.181309
0.250779
-0.034678
0.434425
1.252608
-1.268819
-0.403550
-0.259240
0.875750
-0.213929
-0.794293
-0.995154
-0.367186
-0.026114
-0.586669
-0.141157
0.768787
-0.918557
-0.663101
0.426532
-0.538063
0.160900
0.637649
0.098030
-0.007613
0.114379
-0.154413
-0.826494
0.244166
0.403820
0.335880
0.189440
0.397920
-0.899468
0.641445
-0.080787
-0.221147
0.446666
-1.511091
0.823515
-0.172649
0.960347
-0.362106
-1.018047
-0.063777
-1.345950
0.331844
0.990749
0.376595
-0.019141
0.275998
-0.306833
-0.114978
1.093392
0.627481
0.605523
0.287609
1.345360
0.041152
0.351592
-0.021759
1.306660
-0.226037
-1.954470
0.277888
-0.120822
-0.738727
-0.587460
-0.056586
-0.538906
0.784910
-0.438577
0.006913
0.374620
1.222192
0.815584
1.032821
0.878441
-0.381464
-0.423843
0.243068
-0.533963
0.287847
1.181368
-0.281916
-0.257623
-0.255397
0.077025
0.252402
0.163695
1.058723
-0.752311
0.068265
0.064661
-1.041235
0.102666
0.867309
-1.866609
0.978259
-0.826407
0.403380
0.679732
0.558303
-0.731311
0.174087
-0.717938
-0.887792
-0.765328
1.459140
-0.660738
0.169142
-0.326433
0.770479
-1.128327
0.526231
-0.360815
0.301319
-0.818972
-0.838285
-1.373306
-0.885776
-0.360607
-0.598498
0.828787
-0.107537
0.481119
0.580276
-0.406995
-0.101391
-0.187104
0.372888
0.158016
1.526536
1.888871
-0.111551
0.074911
-0.773753
0.504601
-0.484359
0.123211
0.470505
-0.624348
0.370857
1.172808
0.645020
-0.316839
-0.139970
-0.158474
1.013602
0.455708
0.476877
1.083573
-0.422026
-0.678170
0.380773
-1.087035
-0.197237
-0.139346
1.382211
-0.039408
-0.480140
0.474635
-0.624803
-0.090934
-0.094901
0.277990
1.232796
-0.733322
-1.046793
-0.609396
0.113151
-0.655531
0.125132
0.154926
0.119369
0.095475
0.895995
0.182331
0.503162
0.943250
0.002558
0.255550
0.549906
0.685195
-0.251584
0.660744
-0.282699
-1.249176
0.698845
0.738394
-0.856350
0.480682
0.266633
0.474990
-0.497408
0.077691
-1.156390
0.173133
0.311882
-0.034663
0.211496
0.326771
-0.108464
0.549271
0.313191
-0.756844
0.446226
0.582046
-0.156664
-0.012746
0.401489
-0.568117
-0.417277
-0.922829
-0.613029
-0.940434
-0.522977
0.225353
-0.153159
-0.363341
0.075190
0.295217
-0.630131
0.264463
1.321614
0.197928
1.466769
-1.293024
-0.262940
-0.874239
-0.711301
0.079954
-0.397714
-0.017891
-0.191599
0.567474
0.383540
0.962559
-1.164690
0.408757
-0.273932
0.668383
-1.064244
0.059798
0.218260
0.699533
-0.717418
0.196302
-0.168075
-1.414951
-0.999799
0.650054
0.080720
-0.322831
0.454638
-0.228415
-0.960040
1.228331
0.422753
-0.523971
-0.561935
0.358759
0.333905
0.346221
0.239218
0.412181
0.004819
-0.605375
0.089785
0.330907
0.812321
1.215437
-0.095150
0.244374
-0.949000
-0.062561
0.672257
0.966472
0.062112
-0.753409
0.796791
-0.426586
-0.055907
-0.133895
-0.059861
0.170923
-0.198368
-0.114617
-0.342840
-0.732358
-0.941312
-0.492778
-0.582026
0.757022
0.303485
0.340657
-0.403280
0.125091
0.033608
-0.604913
0.206851
1.335569
0.811761
-0.060175
0.810039
-0.631851
0.419450
-1.358717
0.067673
0.086091
0.998244
-0.126923
-0.096800
-0.095890
0.470626
0.095063
0.590474
-0.634983
-0.392928
-0.464533
-1.250062
-0.952360
0.799474
0.050801
0.777304
0.573404
0.504252
0.915846
0.622060
-0.642797
-0.429471
-0.298384
-0.281117
-0.082868
0.021092
0.942815
-1.286708
-0.657682
-0.152665
0.024142
-0.629437
1.309483
0.563435
-1.154899
1.542760
-0.640784
-0.470721
1.400749
0.731658
0.037397
0.649054
0.121412
-1.052501
-0.103325
-1.406293
0.136068
-0.762462
0.142847
-0.092845
0.387705
0.040684
-0.090944
0.284722
-0.797472
-0.179174
0.020158
0.273037
-0.351603
-0.824238
0.586795
-1.247463
0.834487
-0.789359
0.366517
0.487056
-0.837871
-0.051248
-0.367272
1.039344
0.427497
-0.097877
-0.053858
-0.428721
-0.633478
0.081306
-0.053486
1.215947
0.260570
-0.233614
0.692995
-0.080191
0.651904
-1.089656
-0.897035
0.325750
0.491606
-0.366885
-1.176764
0.235042
0.018484
-0.146942
0.327156
-1.275508
0.138872
0.289086
0.048749
-0.821899
1.827179
1.325977
-1.181218
0.601685
1.348860
-0.255837
-0.042699
-0.334465
0.776130
0.743066
-0.521757
-0.672349
0.193232
-0.551095
-0.963384
0.924937
0.576510
-0.590409
0.682958
0.377094
-0.164533
0.343993
0.937159
0.027629
-0.487471
-0.564589
0.931691
0.573489
0.254966
1.084138
-0.438375
-0.331583
-0.580162
-0.511622
-1.281582
0.237848
-1.064242
1.643364
0.065725
-0.749311
0.246944
-1.799592
-0.086921
-0.630086
-0.126146
-1.525755
0.328583
0.282144
0.077969
-0.649293
0.852403
-0.836908
0.952983
0.021434
-0.357455
0.082358
-1.094816
-0.341927
-0.193369
-0.077494
-0.017463
-0.985657
-0.067696
-0.421704
0.064145
-0.436092
0.466377
0.128906
-0.007006
1.774753
-0.950616
-0.507761
0.035025
0.162227
0.013612
0.903129
0.562340
-0.141001
-0.447968
0.170014
0.566089
0.791098
-0.776891
0.104140
-0.208875
0.014879
-1.071488
0.315618
-0.019271
1.482057
0.448447
-1.582772
-0.322691
-0.824712
0.339459
0.078569
-0.429563
-0.112812
-0.387089
-1.186600
-0.550249
0.139752
0.392160
-0.335649
-0.016342
-0.150935
-0.723572
0.354550
-1.532249
-0.054697
-1.401872
-0.469177
-0.616799
-0.053969
-0.803971
1.016834
-0.476707
0.254319
0.448414
-1.515868
-0.672712
0.783973
0.558827
0.331783
0.356013
0.224329
-0.770273
-0.728515
-0.962268
0.469777
-1.229475
-0.575111
-1.442859
-0.317908
0.727865
0.450961
0.330810
-0.129302
0.247712
0.129166
0.715008
-0.150104
0.725185
-0.101472
-0.138744
-0.058844
0.043014
0.117862
0.594408
0.743392
0.984518
-0.016615
0.483211
-1.280395
0.082362
-1.154879
2.388011
0.396101
-1.239057
0.295065
0.247335
0.027109
-0.983316
-0.169013
1.837930
0.103070
-0.016646
-0.328059
-0.291712
-0.300622
-0.700766
-1.133121
1.186120
-0.617770
0.786284
-0.285674
-0.874327
-0.480849
-0.348109
0.461497
-0.036918
-0.966298
-0.209614
0.615243
0.814416
-0.605987
-0.380864
0.837061
-0.407958
-0.403558
-1.516281
-0.732666
2.185624
0.764243
-0.637626
-0.626445
-0.282274
0.669235
0.518516
0.132326
-0.676758
-0.377416
-0.946130
0.810049
1.917000
1.152329
0.272409
-0.643706
-0.178372
-0.976686
0.629325
1.139859
-1.061306
-0.423626
-0.408860
0.775211
1.214970
0.199417
0.003723
0.214914
1.525884
-0.085499
0.222925
-0.466594
-0.492400
-0.644535
0.100895
0.251244
-0.163837
-0.566067
0.024702
-0.050080
0.125288
-0.054951
-0.647146
0.445597
-0.460745
-0.119838
1.064407
-0.166498
0.706090
0.741795
-0.939856
0.336224
-0.559555
0.145006
0.711910
1.255695
0.243045
0.116222
-0.801119
-0.139492
-0.434945
-0.232652
-0.310721
0.405889
-0.303354
0.909348
-0.120250
0.042981
-0.086896
-0.578350
0.373460
-0.217687
-0.339448
0.211871
0.068229
-0.618413
0.770214
0.761416
-0.168487
-0.962945
0.796263
-0.382585
0.044101
0.083994
-0.577586
-0.289055
-1.084402
-0.431644
0.379227
-1.369978
-0.633428
-0.018801
0.391182
-0.311471
0.896654
-0.885148
-0.272344
0.668033
0.403553
1.279033
0.041096
-0.482576
0.120591
-0.588565
0.575858
0.853034
0.721819
-0.489792
-0.841506
-0.442778
-0.498931
1.453340
-0.604409
-0.529172
0.138735
0.282128
-0.242838
0.363989
1.878911
0.079352
-0.326521
0.800894
-0.341380
-0.458353
0.267786
0.077791
0.129255
0.163326
-1.347501
-0.011821
-0.473229
-0.663165
1.433442
-1.781786
-0.352406
1.903944
-0.285548
0.439149
0.855667
0.697154
0.413978
0.229741
0.064940
0.276653
-0.128238
-0.966424
-1.091730
-0.213493
0.279514
1.133687
-0.276949
0.782521
-1.272134
-1.580284
1.781435
-0.662979
0.514823
-0.029254
-0.709277
-0.542985
0.955967
-0.481356
0.345518
1.104344
0.452192
0.326418
0.701583
-0.590713
0.537203
-0.448090
0.744888
0.184600
-0.964566
-0.348241
-0.367139
0.405999
0.282511
-0.599096
-0.071621
0.445328
0.035320
-0.370323
0.659110
0.096796
0.221689
0.109117
1.016316
0.960770
0.329659
0.973629
-0.928074
-0.683889
-0.991152
-0.304178
-0.977795
-0.994798
-0.165071
-0.365102
0.258018
0.194678
-0.413816
0.032712
-1.076044
-0.436748
-0.168102
0.136552
-1.025192
-0.211935
-0.980312
0.263622
-0.170413
0.097642
-0.035174
-0.019862
-0.367036
0.386309
-0.693088
-0.364110
1.306358
-0.706882
0.950327
-0.258855
-1.434590
-1.136131
-0.598494
-0.633300
-0.591140
0.421691
0.670233
-0.577295
-0.579929
0.000067
1.312627
0.329890
-0.576480
-0.207894
0.733532
1.408306
0.076978
-0.649725
-0.250931
0.190289
0.546758
-0.369467
0.202495
-0.004799
0.360711
-0.272396
0.197899
0.038180
-0.247959
-0.408447
-0.221758
-0.048025
0.311343
0.633942
-0.526775
0.795597
-0.184772
-1.105013
0.134725
-0.759863
-1.009093
-0.599770
0.705002
0.354609
-0.921197
0.296183
0.861470
0.021259
-0.324142
-0.284394
-0.291511
0.097311
0.966694
-0.597844
0.215930
-0.752188
-1.105892
-0.052443
0.818070
0.282423
-0.239585
0.299247
-0.163406
0.459741
-0.155810
0.738711
0.208210
-0.133352
-0.082820
0.295436
0.117608
0.473465
-1.162461
-0.274950
-1.008459
0.222035
-0.776028
0.548484
0.524930
-0.253454
0.011706
0.395868
0.232586
-1.994413
-0.264220
0.097900
0.436909
0.553959
0.036858
-1.307560
1.109783
-2.326024
-1.696636
-1.903640
0.815276
0.007733
1.306411
0.404521
0.984713
-0.187007
-1.283169
0.133418
0.829278
-0.240605
-1.325813
-0.299372
-0.182948
-0.395423
-1.032365
0.644184
0.112682
-0.215496
-0.102945
-0.127466
-0.382846
1.283785
-0.156155
0.883610
0.754807
-0.624082
-0.938383
-0.692063
-1.719855
-0.011253
-0.122158
-0.430219
0.683515
0.364102
0.412474
-0.042576
-0.488686
-0.145325
-0.396986
-0.106658
-0.413668
-0.291562
-1.474493
0.785686
-0.315323
-0.471944
-0.020692
-0.175564
0.172294
-0.295183
-0.297189
-0.076384
-0.039326
1.080474
0.813670
-0.821675
0.298127
-0.524086
0.137633
-1.298071
-1.041160
-0.081527
0.929325
-0.460998
0.120473
0.321003
0.909815
-0.390324
-0.028946
-0.504864
-0.674053
-0.012031
-1.287068
-0.716534
0.301413
0.695347
-0.336718
1.363041
0.123119
-0.225841
-1.381137
0.196376
-1.327075
-0.473634
0.564607
-0.421895
-0.398667
0.787177
-0.556997
-0.335544
0.667227
-0.654489
-1.162521
-0.005234
1.715519
0.687975
0.308636
-0.258717
0.694636
0.263444
0.338017
-0.796254
-0.352006
-0.064248
1.151821
-0.336679
-0.765442
0.639983
0.061449
0.172235
0.167570
0.484257
-0.510747
0.207310
-1.095496
0.089958
-0.814836
-0.909010
-0.436613
-0.173626
1.914864
0.603559
0.119151
0.538422
0.551492
-0.563612
-0.364644
-1.222108
-0.996751
-0.063174
-0.770291
-0.163582
0.840291
-0.365113
-0.563846
-1.179161
0.945864
-0.647344
-0.842060
0.243806
-0.490905
2.098296
0.681337
0.129615
-0.620458
0.151944
-0.825032
-0.770955
0.064593
0.499896
0.555960
0.920004
0.175905
-1.463766
0.030570
0.057430
1.064882
-1.242629
