-2.804535
9.602836
-6.682303
-9.220649
0.833662
-4.627690
7.884730
-5.471488
2.023030
-6.649745
-3.712719
-10.302401
-2.946320
6.221276
-15.006501
11.558344
13.103527
-15.921106
-5.889011
-11.574931
-13.976086
1.335375
1.157182
3.828014
5.662545
-8.694188
-6.090721
-0.034907
2.436878
-5.313221
12.371947
4.663434
-2.728773
-7.525503
0.071072
1.064054
13.376462
3.248190
-2.177669
-0.936111
5.424631
-6.867810
-3.539681
9.256355
9.443599
-12.792975
-9.889257
-10.496016
-2.172383
9.448063
14.844927
0.667700
-15.196304
12.843576
-0.451790
1.187983
-2.225363
-3.064356
-5.968109
1.949026
1.255066
-8.889287
-0.214140
10.783755
-6.259783
5.124746
-0.905738
6.753358
11.686419
9.270797
5.965981
5.636029
12.886984
-1.550790
0.851874
5.819663
-4.686020
-10.923642
-4.610043
-0.302623
-0.127073
7.118287
-17.180338
4.953879
-7.785198
0.838415
14.471443
10.785007
-7.125873
-1.501882
12.499485
-16.681562
11.890683
19.062680
9.062876
17.155471
-14.531208
6.402536
-3.970670
0.063612
-15.557457
-25.371498
6.469535
-13.884465
-8.866391
-1.486036
-2.611653
6.414115
-8.288454
1.421746
2.426118
-13.546747
-6.896090
-12.426573
-3.250778
5.068855
-9.376733
3.377396
-11.228806
-7.004751
5.111498
-2.907911
6.113042
2.882323
-4.382896
-4.354849
-14.778541
5.407718
7.552562
-2.922242
0.536279
-0.430928
13.218083
32.926541
11.191678
1.755813
3.628215
-11.887131
-4.997240
8.655770
0.801815
-2.304068
0.185260
1.028904
1.315934
-11.115666
12.410009
8.323448
-3.052284
6.795382
1.534954
-10.986012
3.833971
-15.136487
-4.228994
6.569053
-1.008496
3.019860
-10.868196
4.320730
3.654460
5.625433
-1.661623
-5.474820
-3.527994
13.911251
-6.602742
-3.761321
-0.290724
2.647221
-8.778167
-6.628328
-3.403793
-12.186229
18.298121
2.418266
3.825757
0.377010
3.437264
-11.092560
6.133232
-4.321016
17.847784
0.948049
-1.978465
10.495976
14.046549
4.155140
1.776761
6.113142
2.845627
15.407518
9.792928
-5.817069
20.811768
-7.465340
12.478552
0.150776
-4.076971
4.410766
-1.438981
-2.791821
0.493267
-8.381992
-15.069380
4.926186
8.405053
-4.730425
0.761381
6.554414
11.772376
-0.956437
-3.795116
4.169998
-7.942108
4.003756
18.519353
2.550108
-9.561865
2.653936
1.967566
26.549885
9.312298
2.004469
-7.759831
-2.607912
0.464659
5.730049
-1.902636
-7.311054
-2.252702
-4.949217
-8.654436
-2.742761
15.325389
-1.443565
-1.785406
-0.467639
4.609671
-13.925760
-2.538527
-5.880361
-7.059745
13.885637
-1.604675
7.135314
-0.297034
-17.142211
18.099156
4.314011
-2.764540
5.457792
-9.211126
4.980793
-7.752629
7.242418
-6.239153
-5.381542
-4.762977
5.892933
4.392045
-6.045455
1.704364
1.134389
4.868124
3.756298
10.241075
12.033856
-10.021855
-2.545724
3.724587
6.503861
-3.106542
-4.966999
8.295784
1.356276
12.326343
6.670656
9.913626
10.196859
-3.736411
14.686206
7.248005
13.509314
-9.919441
-7.738410
-18.152303
5.339837
-24.523116
6.932599
-13.311918
-1.937634
-5.173489
-10.016774
5.948477
6.375570
-4.066043
-1.620071
-2.636456
9.266836
-11.974501
2.890411
-5.950178
-12.440117
2.866596
-2.928432
-14.631960
15.992862
18.456439
-11.790841
-3.979240
7.132592
7.110459
-2.868221
17.038000
-4.900250
2.391611
5.398004
-3.198887
1.254657
13.624551
0.733470
-4.130738
-7.949095
-0.798942
6.486651
20.773739
-12.163848
5.556744
-4.135712
-0.874917
2.046470
2.139454
2.268333
8.069183
4.474671
12.184736
-0.310856
3.314448
-6.342748
4.699858
8.420171
8.926746
6.009384
7.057846
-13.411786
7.110104
5.320183
3.618703
-11.581464
9.802225
4.325904
-6.180533
4.177808
-1.296045
-8.675621
6.380301
-0.508531
-3.874711
5.852029
12.944220
-9.221167
18.573909
-10.551167
0.659518
6.735424
7.770627
-2.406772
-3.202792
-4.911241
-4.463900
10.842728
8.847883
2.085432
-5.647211
12.490084
-20.876432
-16.306140
-2.664859
-9.522382
13.523455
2.345234
8.108035
-7.538533
-7.307531
-19.067776
5.250104
8.266719
0.856578
8.625631
-3.965437
-10.458616
12.617014
-3.667294
2.661637
-0.195700
-3.483447
-9.125589
-4.006006
4.823853
-5.837595
-7.650620
8.155648
10.821485
-0.600710
-1.831850
-2.258528
-1.179669
-8.856633
-5.147254
-0.991399
9.790571
-14.046277
10.584151
12.855024
3.146603
0.936873
1.949496
-0.052675
-9.173248
-8.991238
-4.222438
18.905888
-11.362406
-2.538607
-12.168759
-7.113320
3.227071
-2.536004
-19.279717
-4.612033
-8.007677
-4.387213
0.737416
-4.368578
-2.638409
-0.452286
-19.229461
-2.427961
-5.876856
-0.041497
-2.089213
0.549633
19.779382
3.868467
-7.164531
3.417154
-9.043571
-3.901579
-12.738327
-0.121981
-4.977393
1.679098
8.794017
-7.356500
2.192309
5.375709
5.657094
6.817733
-1.581913
-2.501909
-5.040186
-7.031141
-3.900836
1.141632
5.615006
-3.097276
11.746959
-14.904904
8.485172
-0.553433
4.614325
0.998888
-12.373424
14.126068
0.115255
0.702765
-19.262285
10.364191
-6.747862
19.124196
-9.543980
1.009969
-0.486195
-1.474507
-9.695911
-10.888191
-4.464617
6.649710
8.090360
8.533713
8.567795
-12.625051
6.766869
5.887599
-8.336674
13.058104
3.688879
-5.350743
-7.354398
9.501306
9.949566
-6.174192
-3.244088
10.735957
-1.676004
-2.368315
28.871145
19.436359
1.159042
-20.878771
10.378692
-3.711591
-7.963701
-10.844471
-1.240693
0.456634
-10.337554
-11.086862
10.124135
-9.272339
-6.320293
-5.191690
2.280053
8.253285
-5.797773
-1.575711
-1.439317
1.657416
-9.374943
11.841216
-5.534158
-6.983475
-4.884764
-8.418304
9.505698
-2.738721
-13.843468
4.418021
-7.752614
2.014913
-4.844419
-16.957312
-12.669174
-20.791111
2.247187
11.983768
6.064736
-3.067956
2.900339
-2.222835
-7.397613
0.941348
0.070598
3.794573
-2.114128
-21.776574
23.286544
-9.079215
10.148335
2.544738
-16.047790
-10.812526
1.354449
-1.520166
-13.557923
15.446207
9.256982
0.538603
-2.544864
9.005276
-20.622460
-7.419633
-2.180598
-9.744443
6.585874
-11.767693
1.648950
8.314276
-7.609278
-3.106444
-4.220215
0.907073
-11.886195
14.980651
3.332343
-3.893170
2.241956
3.031132
-0.920105
15.825823
-2.733583
-1.832933
-8.973598
-1.732702
-7.637384
14.204555
-4.611302
-1.837436
-4.957997
-13.335193
13.076872
-10.497328
-10.363179
-0.784230
4.236258
-4.228037
2.460138
-12.268052
5.997465
-12.530696
-2.154995
-2.828918
-5.925803
4.787476
17.158061
-4.659102
0.283601
-10.222669
-17.755736
-9.998766
-1.228586
-5.203778
16.355117
0.791381
16.114821
12.190043
3.693822
6.248193
-3.532191
11.457813
-7.992738
-1.750208
2.532442
-1.897495
-10.623987
-9.302744
0.649452
-5.951213
14.273976
-16.279685
-2.794220
-16.984062
-8.394946
1.640451
-6.175334
8.257861
17.929738
7.056245
0.728379
7.543676
-3.832319
0.804892
-3.329990
2.743500
-3.698634
-8.817224
-2.137231
0.254518
7.291574
7.636973
5.540150
-6.244415
15.048041
-10.375478
-10.445266
-8.618563
-3.250379
3.369152
-4.813606
5.442178
-3.018447
-1.936527
-0.731483
-10.433063
6.007720
12.110905
-6.379786
-18.103535
-9.514817
-3.953610
6.859241
-6.304498
5.037964
-4.774738
-0.201125
-6.085416
-2.197609
-8.415397
1.348529
7.851243
7.726978
-3.069659
0.728167
2.384722
-17.391659
12.974766
4.180280
-0.466733
3.271221
10.830902
-0.910901
-9.423603
4.422429
15.896499
2.284883
7.233064
-22.023245
-1.118033
-6.834319
6.414632
10.657320
18.292319
3.063993
-9.450730
6.894175
1.902360
-7.452667
-10.043247
-3.127049
0.944729
-1.831658
6.136979
-1.604822
-5.633703
-12.873314
4.246540
8.909411
-14.093970
-12.597040
6.295502
-10.551605
-0.582277
3.793933
-8.267320
-1.422572
-13.061180
-4.796392
10.268548
-16.837275
6.476286
1.393626
1.526310
6.107591
6.609335
2.563899
2.748091
8.440149
-0.399706
-7.350576
-19.564767
15.536545
7.541481
2.775295
-11.186558
-8.067291
-2.474095
3.171742
-2.516682
-2.783553
5.590967
2.223737
23.707914
-4.409876
-4.536760
6.391809
3.208823
-6.575660
6.769816
4.339681
-0.971483
7.181312
8.783401
0.594655
-1.956129
-1.556403
6.055727
-5.020282
-18.834948
9.914033
-12.814882
-24.510031
-9.772145
-5.397254
-3.537552
9.243740
14.044449
12.471966
-6.415884
-7.732366
-2.937165
0.599394
-4.612548
-12.250537
-4.214879
-7.106369
5.742083
-15.563406
7.304963
-16.236898
-2.616327
-8.029771
8.519969
9.512208
-8.229786
4.336374
-5.315361
10.933741
-7.393676
10.849678
12.370718
2.032844
-9.883185
0.546637
3.064142
-3.627167
4.296677
-10.149559
2.221480
8.364242
-7.265838
-22.964138
19.915709
-1.379080
4.190568
-7.781554
1.937780
-1.459934
-10.486245
-10.773034
-2.341104
7.035697
20.184353
-4.791928
-10.527740
2.727730
-1.444233
7.597772
-10.410157
8.317081
0.270150
-2.639204
-6.937576
-11.792266
-14.068433
-5.302245
13.535306
-5.111655
-3.738193
-2.946915
0.733903
-5.243024
3.596000
-0.320391
7.716024
7.062369
-10.954617
-9.617210
-12.722346
8.806724
-15.148511
12.358870
6.007115
-10.982950
-12.108246
12.416892
-7.071037
4.781881
-2.417000
-1.401587
3.951046
-4.267611
10.409731
1.636618
20.800239
-1.261951
-5.686403
-3.213960
0.864969
-2.084795
2.206489
-4.619756
8.252793
8.369917
4.751388
3.196073
11.734373
-6.456639
3.886493
-17.066148
-6.038802
-6.571380
-2.177556
-2.862498
25.866905
-5.799551
-12.982953
4.725384
-11.990796
-9.425931
-13.457473
5.004895
15.561052
-9.212042
-2.977750
0.459263
-15.747329
2.878845
8.063988
5.416171
20.752874
-13.718534
11.643606
6.715148
10.350932
1.241906
0.968505
-6.588995
1.378254
-3.301169
-4.912231
-20.338061
-2.064805
3.656554
1.398790
17.094974
11.625317
-15.027470
-9.680671
13.806888
11.316801
-4.525699
0.935559
-14.254669
6.027716
-1.028457
2.618015
-21.571384
-8.678819
6.847070
13.235795
-5.432589
0.222113
-1.400248
-3.454568
4.136730
3.880644
-9.481810
2.050270
-7.454177
12.690771
2.404512
-6.492908
10.753777
10.227686
0.676552
-3.391584
9.534934
-1.372935
11.763975
11.373053
9.049245
15.986518
1.839447
-16.319197
2.371392
10.203658
-13.588012
10.150710
-10.673630
0.287967
-9.350009
-3.072449
-0.383177
-9.642456
6.161751
19.103362
-16.298372
2.950568
17.149516
2.902016
-4.004412
-6.425234
-7.429394
-15.088675
18.681881
2.759775
-9.829951
-22.334848
-8.637388
-2.245286
6.805992
-6.028036
2.941337
-14.907357
-9.409658
-8.108767
3.229874
4.031919
-11.520550
-1.048611
-7.045649
-5.470680
5.700739
2.223061
-11.434297
11.959826
1.592743
0.331979
4.586069
4.188454
-9.474539
5.644834
-17.313932
5.565388
0.595819
-7.410714
-9.191481
-13.625128
-1.736792
18.820804
-1.728781
6.172404
4.639243
14.636336
-14.367023
-8.396654
-6.062985
-11.267332
3.525779
0.079406
6.295613
-3.055893
11.495529
-17.579683
11.607069
2.097267
-5.094531
8.002230
-6.042310
2.219375
-6.553953
-17.693474
7.667954
-1.907045
1.821245
12.378721
2.937703
8.391672
-10.617765
14.469229
5.697007
0.818185
-9.437072
3.439878
-10.417087
-6.161147
-0.368753
-22.401430
-7.440672
9.819246
3.449546
-1.018444
-8.807742
-3.551313
1.671451
-4.109196
-7.848135
6.608433
-9.307498
7.729016
-3.266597
-3.939564
-8.021101
-5.675893
-0.861330
-12.975766
7.251345
-9.605243
3.973650
-17.675275
-4.688209
5.317495
5.564916
13.718780
-1.160148
-12.430645
4.422655
-3.121600
4.738264
-5.430335
-3.305085
-19.121277
2.402340
-1.683126
1.363903
-3.314020
3.192940
5.755026
-4.716383
5.840653
3.025592
1.004188
5.745520
-8.494038
-3.709933
-9.006470
19.573133
10.984301
-10.586878
3.304844
20.934767
-1.397481
-1.938037
10.582769
-8.937708
15.119941
-1.993188
5.259219
-7.511818
6.617217
1.360128
10.670881
3.532977
12.271578
16.282338
7.171262
10.914746
4.390341
-6.592029
-5.131480
-1.079898
7.395369
-4.169375
2.383351
-15.437817
8.540305
0.485135
-4.852030
-8.456557
-14.747737
-9.658789
0.830360
11.836770
11.442213
-18.271747
-2.324412
-1.535416
-5.524814
-15.874994
-0.485710
10.576717
10.342796
-3.372473
1.738625
16.392997
-1.313571
-9.330309
1.961857
-1.578820
-0.965514
1.756625
-7.597986
-0.953278
1.445847
1.422686
-6.619333
5.049877
-8.574250
6.218098
1.532546
-8.095610
-6.016871
8.263603
-11.428260
-2.587815
3.277162
6.554915
6.454154
9.298223
20.138008
14.697564
6.948860
-10.051079
3.065231
7.143254
-5.003009
-1.659036
-6.046881
1.724199
-11.604322
-7.266966
-0.437915
9.052947
-0.655175
-5.133344
12.160838
-1.841216
-18.084570
8.573917
-1.931648
4.639337
12.519938
-6.724258
-2.799164
-4.077548
-7.691614
-9.374225
-5.998452
-9.617673
-7.473444
11.136276
7.267909
6.257826
-17.905982
-2.489938
3.131734
-1.342890
1.448938
14.379490
11.013293
-9.005640
-13.255526
12.704208
5.463897
6.891520
-6.599023
9.277020
1.060739
5.089109
0.726346
-3.937684
-3.298570
1.037770
1.767850
3.171532
25.705916
-10.320811
9.481808
15.841573
-7.477806
0.888735
-6.609586
18.218080
14.029439
-6.647631
-7.668853
-3.349927
-15.805654
-13.213180
6.918020
6.475938
-4.490065
-4.980782
-2.446445
13.115453
4.437781
-15.518170
2.622122
-3.381781
-20.096418
-1.138841
-12.194239
14.431509
6.910796
13.262103
-15.806863
9.106774
-4.080919
-17.552623
-10.083148
-1.794923
-2.563746
-2.569676
-13.270082
19.575327
8.631536
-1.352278
0.430048
0.432952
-4.411570
12.453876
8.897029
-10.695739
-15.657817
0.791733
3.475725
8.892889
-27.065242
2.675406
3.012619
-11.764396
1.555597
-4.815043
-12.305233
-17.120392
-9.026115
9.568017
-3.486588
14.086688
6.603292
-11.053842
15.769148
-20.629532
7.253960
-6.016151
-1.892025
6.065520
6.472498
12.516560
-4.367677
6.739765
-1.445549
-5.104086
-4.865074
-2.763893
1.083927
-5.377529
2.235099
15.715950
-3.530117
-18.464966
-2.028501
4.739460
-1.581990
-14.642270
-3.831453
5.000236
-1.540482
12.850313
-3.114166
-0.233806
-8.166266
10.503985
-5.568796
8.575562
-6.739286
-3.346783
-9.279117
8.507204
-1.259850
-7.231048
-12.114360
14.316484
-14.453419
-2.145769
11.034583
-6.248805
7.971913
18.951225
-5.909285
7.097453
3.551830
17.975724
2.089384
2.883019
-8.402543
0.699570
14.061014
9.311372
-0.906477
-1.985085
-1.116601
3.873222
-1.828322
-11.934303
-3.958630
15.263871
-3.670212
-0.542732
12.861380
1.164006
12.594467
-9.946616
14.819884
0.747606
17.461133
2.124586
-5.102320
-3.683481
5.895053
7.361760
1.701085
1.247013
-1.643327
0.261394
-11.969091
-1.033227
0.614721
-5.222519
5.706919
-6.073065
0.232435
9.644290
-0.922693
-16.473535
0.081570
-9.984884
13.356203
-7.492025
13.674438
5.319997
-6.353070
5.662501
9.697043
-1.418785
-15.859998
-7.562825
-15.519172
-9.900074
4.394409
1.234265
-1.026832
-18.909082
-10.233843
-0.377175
-5.603788
0.793973
-10.617199
-7.800617
-15.621793
0.425782
2.975042
-11.483475
-3.762015
0.774119
0.172629
-1.011573
-4.355119
-9.081387
-3.231665
-5.686435
-0.501929
0.882688
3.062719
-5.120821
16.038077
-11.015383
-9.694634
-1.278196
-8.823943
3.344395
3.054921
-4.489226
-4.196056
-3.753603
-5.897204
2.077359
12.716416
6.448515
-1.104699
6.401982
-6.603312
-1.710491
-2.821990
9.087714
-3.515253
3.438088
0.228214
-8.983672
12.426638
0.858428
0.012276
-2.608424
-9.750642
-7.056415
-1.658750
-1.452296
-0.289987
-8.719510
5.342844
11.868251
-14.171116
8.957755
0.477501
3.234228
-1.753811
18.749387
-2.131955
7.970048
-21.538990
2.373474
-5.622108
23.117924
-4.094532
0.735099
7.881678
7.587423
-17.745618
-16.442986
-5.564153
-0.032866
8.566062
-6.149849
-8.792280
-4.817609
-8.611410
-1.821491
-5.710343
-6.650499
0.746161
7.950236
3.497159
-6.131837
-8.030905
17.415073
7.270233
0.494624
7.892649
1.496732
-0.169983
-14.733008
-2.995396
0.328867
-2.869634
-1.156315
-9.415106
-4.431727
2.839432
10.758268
12.312980
-0.387497
1.001107
3.618131
-4.208464
-3.946635
10.161361
3.807588
-11.092462
-14.327633
10.184384
-4.181786
-8.172468
4.784512
-3.230868
25.616848
-2.546560
1.344691
-1.901644
3.692094
-4.173140
1.232375
-7.666111
6.468656
3.386938
1.900674
8.998358
6.293893
1.544683
3.223966
-2.968068
-4.832591
1.890347
-2.301057
7.695752
12.034984
8.313451
0.019597
-0.912301
-0.851714
-6.728149
10.357914
3.702801
-4.819294
16.805344
0.992166
2.979760
-3.195109
11.338562
1.400345
18.805807
8.250985
4.965186
2.100260
-1.968864
13.411783
2.366856
-10.161084
-10.304625
4.804446
-7.486471
10.874940
-1.111682
-5.043918
11.243163
-4.805681
-6.063261
6.018750
-4.867569
3.609944
15.933073
-9.954744
2.847917
6.046299
-0.367303
-14.356256
2.027996
-5.430112
-15.120184
3.603853
-4.178577
-7.357464
6.473554
-3.096338
7.920934
-1.812453
-2.948881
3.524355
13.160856
-5.272273
-8.588501
3.722998
9.024302
-1.262078
-17.102465
3.833513
9.190258
-3.755064
4.196369
-1.768825
5.444969
-0.915529
4.297033
0.166120
-10.527392
-2.895702
-2.374935
-2.625659
-2.592906
-2.739602
0.776282
4.515563
-3.060412
-3.342724
-1.532085
-8.546961
13.136798
4.167231
-1.740252
4.658154
1.667790
6.625777
-3.712606
-1.562742
8.788937
-0.360588
6.427621
9.863779
-5.486923
-0.748409
-7.613782
-5.849630
2.249418
8.077075
3.048165
-13.274058
-9.184931
-1.937301
7.086002
-4.568690
3.219400
-10.794251
-8.213456
1.066731
-1.334183
9.309641
2.021346
7.923237
-6.509297
0.906155
1.760972
-13.239393
-1.019011
-15.121905
0.664274
-5.660309
-0.697952
-6.810563
10.543314
0.284878
-11.365315
2.841559
6.148925
-5.002691
11.896653
-2.854485
7.194339
2.375643
-18.315739
1.289859
-23.213063
-5.941061
9.261814
-17.148825
-0.489248
0.914933
-3.264061
-4.085545
5.022044
9.222993
7.206371
4.313151
-5.398665
5.989948
6.232243
-5.155127
5.903618
-16.209815
9.902619
-17.436440
7.661202
-13.342379
2.934354
8.207307
-18.787117
10.990143
5.223018
4.173355
-10.904736
-5.221238
5.641181
-4.159511
-13.740554
-0.039828
3.138282
9.305948
-3.430503
0.734848
-16.048239
0.938229
-0.178833
9.636737
-0.990728
8.467101
-7.438894
-3.220048
5.309224
-4.942377
6.632176
4.182456
7.994604
4.655166
-2.210723
-11.646957
7.748844
0.119656
11.785508
-7.780475
8.579711
2.662938
4.198541
-2.662919
0.436786
3.967768
1.212842
-1.741359
9.219066
-15.485051
-6.299440
-9.260804
2.347186
7.591180
-1.369069
-8.795260
-0.670737
0.137110
-4.459196
3.565672
3.648911
2.274032
4.162456
9.178252
-15.735790
-5.059989
4.842792
-3.693425
-9.588554
-3.695905
-17.154624
0.954303
0.794987
2.274040
1.326972
7.790446
9.651064
-14.917025
-7.588153
19.972473
4.522566
-1.200827
9.400728
19.351206
4.610312
-4.733947
-7.127984
-0.642587
-12.654445
15.852146
1.683339
4.392281
2.239374
12.208496
-2.398778
7.191099
-12.638461
7.571592
-2.704595
-0.154706
-3.470522
7.769935
-3.331014
-9.700698
9.246406
-1.251501
13.431945
13.431638
7.605977
1.591687
0.619400
-11.019619
0.641711
1.278567
-6.504733
-1.817551
-0.679464
5.044800
-13.909130
-5.507882
-8.850410
12.934979
-5.919160
6.648508
3.465949
4.529549
-17.378406
3.077880
3.982108
-7.740264
-2.047165
4.820961
-13.544844
-7.920069
-9.117190
6.543957
7.493573
-0.470287
2.529235
2.395116
10.393637
22.314421
0.671670
17.503758
-3.559227
1.659294
-1.977719
-7.521520
2.519038
-6.005806
2.410645
2.924399
3.160554
-16.147935
-13.291750
16.005248
10.646574
-10.458832
6.289800
7.351892
4.530575
-6.167851
2.155070
5.030574
0.710461
2.091216
-2.784362
4.672344
6.767275
-7.243724
-6.131812
-6.356661
17.152531
-5.018099
-9.495781
-15.137859
-2.314878
9.834187
6.650755
-13.180442
-12.609247
-1.375716
10.415259
10.487188
-3.104863
-6.664377
0.592441
6.784935
-9.669304
3.770910
-4.446499
0.420846
-17.757565
2.539353
11.929172
5.546970
8.073932
16.335806
20.530474
-2.216255
12.992939
1.224699
12.372769
11.409438
1.710048
-9.916702
-6.933533
-3.302533
-5.985618
-4.968689
12.057239
1.829598
-0.607078
-4.775776
-2.345972
4.663956
3.444693
-11.113393
12.126040
-2.186802
13.737624
5.861886
8.051573
-1.078790
4.768991
-1.783095
-8.673988
-0.776522
20.192783
-7.012227
-10.848579
7.125452
4.154603
-8.163759
6.798588
11.911739
3.824985
3.819409
-9.120283
-6.991618
6.720298
-1.991375
4.236996
-0.558365
0.282901
8.286662
-1.742254
2.320541
0.647186
1.289940
3.345287
-1.160172
5.453355
0.742567
-16.734190
4.179252
-4.537383
7.737422
3.465463
-8.364612
-3.847625
-14.014676
6.599510
1.235730
7.421836
8.622902
-8.837418
-2.149533
4.838286
-7.272722
9.716020
-8.348442
4.407112
-1.275286
-3.353868
-11.403441
-14.424561
-2.659962
1.683953
-9.462283
2.187385
-13.453161
-6.509194
-15.196344
5.436163
-2.542062
0.758774
12.124986
-4.240938
8.512027
2.078279
8.274451
-0.288445
-12.441800
-3.646366
7.798480
14.545279
4.184699
-6.973920
3.924634
-9.473583
1.031809
12.087739
-2.016242
3.712902
-4.468750
0.404200
9.451856
-2.445573
7.343702
-10.352311
4.967640
17.396036
12.949464
10.277649
6.347636
-15.959120
-10.330368
-10.212736
-1.552582
-10.494620
-21.616126
11.685290
1.211500
4.093136
-10.014560
-12.911001
2.860988
5.469647
19.554831
3.909867
1.913316
-8.043796
-10.406383
2.351193
-3.694694
-3.828612
0.884390
-2.533817
2.970192
18.391472
-0.886582
-9.468776
-7.876393
4.551348
-2.084264
6.676799
9.194705
-9.955385
-13.546924
8.439598
-4.729222
-7.025021
-16.850931
0.642981
-3.248764
4.491189
8.552546
11.884191
4.876767
11.400609
4.941782
-11.634182
5.526001
10.645063
-3.658593
18.007953
-6.399173
2.614471
-16.943947
7.576912
5.972428
-12.064150
9.975642
-10.671332
7.281716
-16.321112
1.937468
11.304648
20.442820
2.245519
-4.326276
-3.689587
-9.618379
-14.649839
4.856514
-11.656196
1.787355
-8.101862
0.850374
8.691003
14.479720
-1.365931
2.651072
17.070821
12.115867
1.803114
-0.777411
2.489293
-12.228424
-6.724915
4.989889
1.391618
6.787069
9.822960
3.310961
-0.257420
-8.529545
0.359145
-4.384194
-2.549336
15.906831
-8.785927
-2.366627
-8.925170
11.048978
15.240132
3.416624
-1.795499
2.861855
-9.031262
-15.690963
-3.026122
-4.434763
5.968627
-13.502959
7.112666
-17.887099
3.395459
-3.637379
-0.056077
19.330000
6.730802
0.642561
-14.650322
-4.940254
-9.397930
-15.685356
-1.054595
-17.484660
-6.300350
17.355373
-13.529814
-4.587353
-6.032186
12.864421
-9.505068
2.848852
8.042779
-3.381107
8.708308
1.615234
13.461812
14.025974
10.248742
-1.594508
-0.975841
13.227213
-9.870882
-4.873446
7.926418
7.889885
-7.215547
19.146592
7.793313
-9.534814
11.224388
-5.448916
-18.901075
10.192725
6.983500
-7.824279
2.989895
1.426000
1.727201
-2.264378
-4.425159
-7.864294
9.164751
23.255654
7.532806
9.126843
-2.765821
-2.518978
-2.173498
12.710391
-2.927350
1.922050
-17.527123
11.203255
-7.171283
10.570089
1.779926
-2.378126
4.978836
-13.776438
-4.830335
1.371867
-1.247288
-1.260999
15.363932
0.969571
4.141443
-1.164773
4.192761
-8.278377
4.161509
-0.984682
7.210073
-2.706243
-4.647595
-9.590470
-10.298230
-3.774167
-1.486854
6.833580
-6.942231
-1.611257
7.673142
-5.670365
3.531132
0.587103
-1.223796
16.455454
-3.409359
-6.725017
-2.178969
-1.022517
-0.569698
20.646676
1.358973
1.023833
-1.499303
-14.398816
7.759129
6.401785
-3.944011
-1.585741
-5.999871
6.050401
3.703410
9.966465
-6.909994
-15.345094
6.168009
20.600173
6.057923
-11.607128
1.528747
-6.989673
0.027303
7.595201
2.691296
1.742136
-5.871328
-6.392061
13.702317
-4.809611
-1.421474
-0.243005
4.480347
6.446342
-13.101605
3.381146
4.393336
5.808631
-5.618763
-1.055446
4.208274
5.230802
4.222570
10.579320
10.123171
2.230656
-9.067949
13.418730
-10.904851
2.687400
4.481093
-23.242123
-0.846361
9.423231
-7.826818
10.806340
29.202439
0.083740
-23.066294
-11.463698
-8.088610
1.275587
13.529015
-16.173769
11.615537
-4.027466
-3.959409
-3.815934
-14.919707
-7.463239
-6.680967
6.649200
6.592047
2.231307
-19.558814
2.228839
-0.644284
0.871874
-14.449275
8.656294
-9.104670
3.765352
4.514661
-5.675250
-0.092885
5.251832
1.365774
3.802976
-3.347366
0.829603
-2.046503
2.134356
-2.204044
10.523133
5.271149
6.114125
7.519135
0.951111
8.204644
17.705729
-0.102617
-4.323237
-5.827977
2.781306
-0.948117
1.723772
-5.399995
11.287068
-0.742748
11.423903
-6.026025
-2.947357
2.138070
9.375478
-12.142040
2.175886
4.520591
5.535128
10.635003
-0.450721
3.679743
-10.333081
4.859261
-13.499043
-3.915902
-0.798193
-4.270263
-14.577276
-4.321609
1.732798
-6.688689
4.774133
2.531217
3.790711
-3.895159
-12.484729
-9.020404
-10.013793
1.680899
-10.083865
-3.126054
-2.946311
-0.161287
11.817762
-6.196300
-7.546708
-3.892771
-1.798878
-8.044860
7.051559
6.704133
2.787043
-9.774577
7.897343
6.486791
9.344178
-2.689825
-8.054441
-9.800991
-4.804362
0.483394
4.039049
-6.416390
-1.764214
-15.800337
8.245236
-5.781251
9.561972
10.144277
13.926677
-3.035096
2.041481
-4.740082
-7.882967
-15.046816
1.281871
-0.690422
7.348003
-17.983130
2.668413
-1.951323
-13.071365
17.962250
4.578960
-0.130915
0.040108
6.738025
-7.964889
1.357154
9.731048
-3.691229
4.728409
1.922269
1.164959
-14.447861
-4.918542
4.919699
6.949341
-6.433480
-8.422992
-4.284982
-11.316822
3.224077
-5.354210
-3.015747
-9.609042
1.947409
13.497420
5.117235
-6.735525
-19.479728
0.937206
11.044443
-15.951120
9.001886
-3.175700
-3.154009
10.648385
-4.509306
-14.088145
-6.738903
-7.140210
-5.049774
-0.220466
3.386915
-6.900903
9.054664
2.619554
-7.816279
-5.296706
-3.444429
-2.319934
13.130824
5.577935
-2.198216
-4.157673
-13.973259
15.639257
-2.878725
5.351394
8.413542
-2.441870
12.056065
8.757108
1.713851
-4.299872
-7.318946
1.212765
8.399801
7.970745
-12.873237
-2.176198
-10.665718
-1.314710
-5.929559
11.938990
4.017273
-1.822091
-2.858623
12.808958
10.226413
7.108293
-5.210700
-10.319846
-2.401068
6.200700
-6.070468
-10.340475
3.930813
-7.034728
12.841066
-18.894225
-4.955782
9.580370
12.692062
10.694170
0.921216
0.271666
5.117392
1.825548
3.335368
5.476322
10.126899
-7.188342
-7.441276
-9.882843
-3.442382
2.890358
2.498788
-6.457754
2.970640
-5.819679
-1.519876
-2.945316
23.154665
14.417223
9.543802
-10.359661
9.031341
2.154691
11.406777
-3.482527
-2.970583
-12.537471
18.148741
-11.130066
18.484666
-0.108948
3.595572
-17.130388
7.744985
-8.604466
0.130103
-8.452339
-0.103656
-2.015047
-6.822729
-4.507882
-24.251231
0.327779
-1.817637
10.331971
-11.391429
-1.110422
11.049855
5.828590
4.147638
1.555458
0.032340
-4.753891
-8.814766
8.756249
14.244520
-8.315492
2.701088
-14.531965
-3.034365
12.674866
5.140296
4.908186
-4.796491
-0.115517
-10.358105
-16.744432
-2.929798
0.083103
-12.059156
-13.339049
-13.719755
-4.330076
5.581632
-7.680623
-14.454783
-24.424912
1.765347
5.685533
-23.247958
9.843266
-8.021180
-5.688873
-4.663349
4.496320
-9.735624
1.012888
-1.520793
-13.854473
-2.641028
-8.522971
-3.745959
9.975256
12.314444
0.340693
-7.887045
-12.818338
-0.866421
12.333683
3.335102
-11.348343
-13.569439
1.248207
8.672733
4.688285
5.338599
6.875203
12.572323
-6.745532
-0.064740
0.819768
10.250461
1.760386
2.891496
-11.278730
-8.042605
3.393167
-9.393898
2.573064
-15.922337
11.689457
8.010510
-16.298130
11.825597
14.414364
-14.146906
0.573800
-0.229332
3.606187
12.700009
-7.540163
-10.564259
-4.095726
-14.147396
5.177484
-6.236117
-1.133205
-15.043089
1.138632
10.917575
-6.486149
-11.325176
-23.706749
0.225935
-5.188964
-10.771223
4.631120
-5.075008
-0.423849
4.759765
3.372718
4.650337
-7.490311
-9.593264
-2.657011
-6.714746
-3.097798
-5.916219
-0.162733
10.068238
0.922077
0.067478
11.963166
10.990149
-3.247867
16.329540
-4.145454
-8.647135
-1.064333
15.827771
8.168073
-7.156071
-6.267726
20.646354
6.877793
-12.858130
3.741543
10.539522
-3.011398
-13.667139
-2.044219
2.797766
2.553979
12.553165
0.336404
-10.643058
-0.037253
8.316839
-5.199255
-10.941712
-5.951773
-7.748954
-13.459638
6.427755
3.861657
8.274016
0.210114
11.871294
2.715693
1.389770
16.771319
-5.542585
-24.610857
0.858566
-0.770056
-9.142328
4.978496
8.694346
5.341620
-2.060669
2.360249
-10.752030
-9.846794
6.003664
-7.415788
6.503437
13.080218
13.966768
-5.923605
9.084809
-6.787057
-7.555615
-12.718561
4.413145
2.627106
11.198662
5.558056
-2.907458
3.378071
2.050178
13.110574
-3.358474
8.083977
6.083849
16.422501
-8.408046
16.259181
-5.110302
8.150061
9.098332
0.986113
5.473998
-19.228914
2.644970
8.973810
12.502548
1.307433
-8.001948
5.658091
3.810971
-7.700519
16.463198
0.485181
2.721558
-4.169220
-3.419016
-22.590744
3.722195
5.239001
9.192661
4.843354
-3.143430
2.647681
6.973876
-10.081592
4.491287
-7.641496
2.981278
-2.931992
16.171480
-2.588536
-1.384090
6.281901
6.390810
-6.368701
-4.984563
-12.802779
-4.212683
5.117482
18.834072
-4.567972
-3.590818
-4.500947
-1.710986
2.043424
7.917810
14.152390
13.589459
23.078201
-2.413324
2.086064
-4.436469
1.415232
5.961978
-2.359042
-2.185983
-8.492346
-11.547854
4.190494
-2.651158
8.449023
-9.784861
-4.089021
2.859407
-5.357189
6.646609
1.050240
6.582822
7.870936
1.445739
-2.347863
-16.390006
2.185908
1.647578
11.834530
-3.951322
7.834395
-9.989531
3.008345
2.010509
1.024335
-2.542231
8.938817
-1.309340
-10.717538
-0.048445
7.452726
4.891873
9.163333
1.906899
10.520159
-16.581042
-9.480718
13.607783
-2.628561
-9.216256
5.208585
6.772703
-7.797637
6.524162
7.440893
-4.838743
-1.823535
5.848488
-1.181324
-15.037061
8.499681
13.302430
-2.397136
-27.042066
0.078274
2.405536
-10.902854
0.049536
4.920736
4.069119
0.458581
-8.102261
-12.995177
1.325354
-2.321943
13.682420
-0.542136
-4.337401
3.752383
-0.010426
6.103907
16.702387
7.394011
-14.584963
-14.857628
2.565588
-1.360315
1.908966
8.552920
-11.080578
-7.505167
-6.059751
10.080231
6.673859
1.818100
2.126693
2.348879
3.723122
-7.602505
-0.940055
-16.617890
0.313629
-2.891216
6.745660
11.174523
14.895914
11.727410
-12.120807
-11.556597
0.156833
9.512596
15.212630
8.420883
4.352859
6.547461
6.369467
10.098704
-3.047560
4.233875
16.994539
-1.512142
12.258293
14.077086
7.497866
15.892925
6.722113
15.285326
2.378657
12.404617
-0.048686
-9.681373
9.315746
-4.060829
1.324053
-13.451770
-0.205551
-4.012088
-7.871144
-0.402062
0.386092
12.413593
-2.089207
-1.487475
24.547910
-0.859438
10.959595
14.440682
6.299715
7.570363
-2.539705
-13.755231
-1.328314
-1.153002
10.137340
7.558521
-10.417272
0.553118
8.504245
4.793082
-4.849008
8.868199
7.569406
-2.579208
-9.335501
12.253330
-2.224765
5.765784
2.816424
7.860070
2.105388
1.300619
9.571620
6.342521
15.780848
6.224280
-6.032232
-10.474745
8.584636
-9.256183
-1.009027
3.914268
-2.967775
-2.812929
-20.507647
-2.168703
-11.895222
-3.071603
-0.240406
-8.831565
8.425820
10.654658
2.273981
-9.560432
14.609726
-5.193398
14.627016
12.262430
-4.360878
-7.174612
-21.189830
-7.927577
2.900259
6.341613
-13.666666
-3.885624
-5.873322
1.853127
5.541522
14.653813
5.389733
10.781135
6.702076
-7.105511
-0.466551
0.956319
1.373243
4.793564
-6.272918
-12.256433
-7.489291
11.964557
4.706958
-6.428880
-4.144505
-8.154645
3.765685
-19.190173
10.595641
5.907000
-3.366146
10.306429
-13.946569
-2.504992
-2.769977
-21.271680
-5.497518
-1.484908
1.869410
3.787775
3.990775
-1.686811
2.438348
-18.088939
-1.792939
0.703095
-16.581079
5.498498
6.528974
2.745369
7.853584
-7.921878
-0.878618
6.591817
-12.441474
6.525071
-6.086270
2.968204
6.436047
0.980783
4.814179
10.194872
-4.179594
10.841719
-13.556828
-3.837285
10.814592
6.281166
-8.550660
-1.734292
6.270047
-2.819528
4.890747
-11.353785
-0.075625
9.303576
-8.030146
1.541840
1.474538
5.581208
-3.830599
-2.293450
-0.744081
-9.271388
7.374615
0.084885
-2.512506
0.236163
8.808954
-7.761335
-10.614392
-6.593864
3.444501
-7.489050
11.201018
12.603673
-6.390591
-3.106600
16.323386
-6.894518
2.937382
1.190995
-0.398276
4.334327
2.082137
8.471450
15.583418
-0.952840
-5.910592
4.268075
-13.004102
-7.226351
-19.263890
4.286432
-6.967897
3.779537
7.756798
3.517337
-7.794336
-1.945638
2.136127
-6.414493
0.423096
-3.951231
12.408012
17.154727
5.232656
-8.415364
1.239736
-7.066801
9.509305
-5.429682
0.929868
-13.874933
-1.933931
-1.710933
-2.285131
-4.979254
-19.344671
14.161576
-15.525935
7.701405
-9.765962
17.959843
1.392980
-4.148415
13.165445
-2.234668
-5.361279
9.798466
-1.171242
2.663722
-4.190443
-3.262257
21.225564
-9.470938
7.697833
-4.537457
-23.746911
-6.448832
14.213497
-16.062561
-0.428922
-3.721534
-4.758493
10.424062
3.905857
-5.389950
2.111540
-2.273105
3.204084
-4.796067
0.794050
-11.713455
-0.640810
7.970519
8.381325
16.622445
-5.888287
-4.633063
-6.234995
-11.538600
4.378990
-20.084863
-11.366365
21.679121
-4.406097
1.675750
13.247258
13.531831
6.751837
-3.745753
1.770800
-2.352369
1.043587
-19.609454
-0.116442
2.939361
-7.634197
-14.674109
5.422144
-2.693856
6.254662
-17.886312
0.836404
-0.636728
2.518841
3.823083
3.420823
8.799665
-6.747198
-5.586992
-4.333545
-4.169648
-2.646950
11.088749
3.183203
2.578263
14.290291
-5.159853
5.039145
-4.419244
2.615485
1.770137
-11.371826
8.418437
14.431147
9.199458
11.742136
-2.302359
-6.506581
-8.200852
19.980099
5.178161
-3.760521
-2.049506
-7.718592
13.076119
7.097052
4.972485
7.273225
3.828450
-16.566498
5.304127
-7.086429
-4.168090
12.946755
6.472138
0.399848
7.395135
9.006711
2.762854
13.240737
3.947572
-4.098457
1.942017
-9.767505
6.745372
-8.539213
3.868778
-14.043192
5.041717
-15.265142
-14.493531
-0.870079
23.736775
7.584906
-7.573873
-3.905227
-15.177955
1.585874
6.616178
-14.701992
4.737448
6.505994
14.027742
8.457395
10.158700
6.366740
-4.225226
6.117065
-6.263748
-5.221473
2.380340
-4.525040
9.523840
0.740750
-5.502326
0.274693
-3.529958
0.973263
-7.184527
-8.423819
-1.991920
-3.215809
2.072049
-1.761098
7.660389
-3.379654
-2.463792
-2.805541
-9.761433
-8.983338
10.704724
-5.630097
3.301880
4.622306
12.214766
-12.340165
-0.577993
1.558570
6.946362
0.524132
1.772627
17.548650
9.363426
3.605245
1.478803
-6.813065
-10.531166
-7.724481
6.828071
-14.594001
0.023603
-7.709064
10.695043
-10.533945
0.409012
-23.428858
-9.109471
0.312238
-1.858596
-3.327025
-19.281883
7.825887
12.367249
1.784714
-10.873005
-13.723350
-7.237503
-0.013372
0.283205
-11.023194
-5.337063
-3.348919
0.644044
-1.847849
-6.240678
3.829639
16.244241
12.918186
4.795426
-6.827588
3.748078
1.801329
3.338149
0.967849
-8.748773
-9.978659
-0.912854
-5.707987
5.549044
-2.947690
-21.252877
3.789499
-7.348287
2.269391
-5.558059
-6.969789
5.470362
4.343870
-6.878754
-1.478987
21.147889
2.003575
3.521911
1.132074
1.491823
-2.341643
16.118950
2.487343
-2.129242
8.180638
-0.253275
10.666295
-2.600896
-0.071734
5.051063
2.974461
-6.418540
-17.236881
3.958856
3.042630
-0.086959
-4.102832
4.731617
11.170772
4.584005
8.408290
-0.696181
3.800347
-12.393181
3.888506
-3.848767
-9.626332
13.680998
-2.145613
-7.353664
-4.673603
10.135224
-4.043385
-6.003650
-3.742467
-7.561602
3.534691
3.755153
4.948797
-3.987338
6.192345
-7.524852
-12.408178
-6.957339
-6.923239
-14.263668
-2.861347
-12.723772
-7.022312
-1.238098
-7.754597
0.100509
2.484503
-4.092674
-17.093554
3.490059
4.738590
-11.038797
15.481763
-10.445074
-10.532669
-4.090351
-0.182230
-0.395011
-3.396823
-17.945995
-13.388578
0.969759
-3.380115
7.497541
13.296367
2.343542
3.060978
-4.713338
8.611962
-14.414933
7.110578
-2.145376
2.155339
-17.039485
20.553996
0.202648
-10.606671
-9.022380
-2.917016
16.846008
-1.292651
2.102733
4.613977
7.260666
-14.960057
4.778131
3.634210
-3.026637
-4.880017
3.579496
20.480884
6.707304
-1.621790
4.759348
2.666562
-6.690245
-10.952663
8.707147
-7.635337
0.133891
16.634624
13.842865
0.419667
-7.203947
-5.686200
-3.833141
-0.476074
-10.615845
-4.112080
3.326849
7.806429
3.645066
-1.693202
6.448322
-13.234105
4.420895
-6.611616
6.499021
-2.234767
-12.227944
-6.644956
-11.048588
2.331575
-14.886459
-4.617261
-15.661533
-2.221397
9.661376
-0.885874
16.283783
-15.269283
6.651481
6.936257
16.386369
-3.734864
2.030403
-0.505360
1.971447
-5.740251
0.649869
1.601799
-8.553612
7.495510
2.665074
6.065677
-10.769743
6.098393
3.623718
-11.849968
6.418466
4.209491
8.596639
-2.150910
-6.279885
-7.506931
-4.404262
9.328461
-1.123987
1.477457
-7.096450
-15.291126
-10.416322
-5.357797
-5.241931
-9.410673
-9.082023
14.263174
3.282161
-1.992969
-1.733107
-4.042397
15.674797
8.540930
-6.099350
-9.535417
-1.054568
-1.752555
-13.185947
-3.593136
2.236460
-5.238923
-5.722773
3.048135
0.708445
11.909830
-7.712683
10.682678
10.620579
-0.163394
11.889338
1.884280
-10.655507
1.584110
4.526448
-9.020558
-1.477807
-3.696896
-0.819817
-6.373230
-5.631648
-9.245522
-7.504275
9.815864
20.500152
-12.644977
-8.167192
-0.689780
1.850460
1.078013
0.571028
7.235553
-2.699280
2.030208
-13.218885
-11.493573
-17.805625
-4.130697
2.412642
4.203254
-6.653542
-8.396831
-6.110196
3.314844
-15.805516
1.161897
-4.032885
0.390663
-1.673764
-7.510588
2.646810
-2.857166
-17.509574
-2.895107
14.869906
-16.985232
4.979711
0.547320
-13.005984
-9.786162
-7.421933
-7.637654
-7.850099
-0.929113
13.514709
5.526413
5.689764
-6.110747
3.301503
7.896197
3.681326
1.963923
15.291714
0.483748
0.759238
-2.329538
-2.797422
-3.983959
1.870046
6.614844
7.380121
7.349019
1.622551
-3.471830
-2.229436
-9.988001
-7.135561
8.247633
5.573610
9.294588
8.214848
1.937740
-17.094369
-7.776770
-5.102006
16.330297
15.516504
-11.684921
4.120640
4.037463
7.187035
2.417095
-5.123453
-5.947824
0.846803
3.912334
0.515164
-10.060844
-15.508512
-9.090574
13.190277
-9.400435
-15.802091
-4.088134
3.158805
-0.602382
-15.797696
-9.727952
-4.090252
-2.664253
-6.076791
-1.287523
24.145550
1.191502
1.771118
8.247991
-1.083599
-14.509311
10.372507
2.068931
-0.400304
6.057136
-14.708643
5.423791
3.892207
-13.765071
-0.751034
6.175776
5.419966
-1.649119
2.651682
-12.645136
-0.920518
-12.440633
0.216689
5.742430
0.318188
3.562682
-1.557579
1.004677
22.242093
-6.698304
-1.863782
-11.173460
-0.340419
-0.818442
3.323732
-7.283703
13.266009
14.553593
1.616439
1.764392
-2.198435
-6.349289
12.305971
-4.832871
-4.693611
-10.560430
-0.319927
-16.468037
13.780271
-14.689357
-2.838216
-5.750211
2.258816
-10.896807
-0.452822
-9.435486
-14.794423
2.323845
-14.145707
4.392445
2.338648
6.133111
-2.036198
1.059638
9.898129
14.256676
17.348408
-15.339741
3.982534
-0.705216
1.195505
-5.894193
-7.465527
0.033763
5.301687
2.627964
-7.812319
-3.652733
-8.670836
-5.886198
-1.095002
-0.606688
-3.083197
4.943086
9.581647
3.355176
-11.364442
10.132495
-3.380669
6.605369
12.707912
3.159318
9.741849
-3.119342
-6.302715
-10.054276
0.184349
12.425238
8.763526
5.218697
-5.230295
-1.966970
5.614498
12.275271
2.193907
6.299969
-4.423720
6.378873
1.850554
-7.354919
-13.225293
-1.142734
-5.405329
0.300241
-13.988060
5.732426
13.985618
-1.949344
-4.880993
2.027865
-17.965274
-1.529389
-0.715930
-1.207122
3.500840
-1.641540
1.390030
-3.729249
8.005991
10.500927
13.821638
-8.230109
4.360843
-2.374730
3.378815
9.061809
9.533147
-7.445185
2.250492
0.671838
-12.431683
0.834752
-14.246299
-3.898341
7.477928
-3.146139
16.425064
6.613846
5.060424
9.294053
-2.798666
-4.799950
4.046916
1.555171
12.011079
10.215584
-7.016609
-1.360440
7.384528
-3.359738
-4.793940
-9.274875
5.308854
-14.360430
-0.240316
-1.778905
-7.787655
-3.540190
-5.934228
12.766180
-2.081183
-0.551012
-5.262476
-2.062776
3.914576
-6.408024
5.726260
4.539385
8.210164
-0.838510
4.026895
-1.272703
-9.977527
9.863064
-9.122647
-0.595734
4.464214
13.714011
-0.383371
-4.746843
4.351704
19.567528
-8.207803
-0.502752
-7.136750
-3.247179
-2.237131
-0.438089
-8.931809
-5.430563
-2.563586
-10.679065
-10.697509
1.991740
11.878921
-9.496380
0.421684
-7.158793
-0.424114
-5.030822
19.291357
-13.743989
6.992322
4.015453
7.384048
-11.314467
10.948989
-1.982869
5.038359
6.451695
-2.094578
4.542211
16.796797
-5.044353
5.018973
14.109195
-8.310264
18.782297
1.752129
1.182747
-14.672196
-15.272692
-10.610213
3.262900
3.220328
-6.573189
-18.259358
8.193263
-16.074665
-19.003405
9.250614
-14.860515
-14.600327
2.942269
3.385632
6.703712
7.073286
2.774935
2.553884
-5.877780
-4.806669
-12.008461
0.073248
7.069418
-11.136692
-1.285901
-1.342412
5.048685
3.012130
5.803520
10.923460
5.332645
18.096503
-13.071584
4.476487
5.538695
-1.791224
-21.036585
0.131219
6.749261
16.181584
0.299492
-5.644300
3.845670
-18.941629
2.305947
-7.039875
-10.714339
-0.441415
1.931166
2.613749
-4.644211
7.722882
-2.631074
7.804478
16.315021
8.619169
-7.572939
-21.392122
-6.979577
12.970628
3.573161
-8.214010
5.968729
10.817583
0.571451
4.656177
-4.983440
-7.367417
-3.988536
2.369494
-11.848944
-19.609926
7.982462
6.045925
-3.774815
-17.409253
0.288150
5.629152
3.778439
-1.988120
0.416755
2.272438
-1.193599
-2.979659
2.371336
1.386268
9.643280
-8.433370
5.324703
3.329980
0.438394
-3.532610
15.503177
4.198222
-6.528041
12.979400
-2.441719
-14.313266
0.436308
-0.113159
-13.861718
-14.689360
6.737888
1.983799
7.196441
-9.270857
-10.144689
14.160567
-0.855176
7.048168
2.866484
3.831306
0.841171
8.709877
8.636398
-12.434057
17.380567
-6.666796
3.503494
-1.061503
10.994804
4.052486
2.799123
7.749475
10.414763
2.427034
7.363602
-3.666390
-1.659548
-13.202703
12.694118
17.409030
-0.728662
2.837158
-0.235363
-11.310454
-1.470496
5.386406
10.546433
3.024298
-7.119014
-1.937757
-0.182936
0.275262
-13.967248
-2.800985
-7.152412
-0.164125
9.964340
-0.380443
2.003828
9.090899
6.095707
5.025620
-4.258981
-12.998730
8.921990
8.678833
0.740291
-9.017566
1.206275
4.803953
10.704229
18.071218
0.696880
-3.637807
2.961916
-21.085663
8.679523
2.444070
11.623349
7.454771
-12.575314
-10.871901
-4.502451
-9.751465
-6.326580
-3.494436
5.808307
5.675972
9.197234
-7.066517
3.381607
7.533439
14.487130
1.871624
4.665324
2.251012
-6.984057
-7.697984
7.713928
-7.069294
7.890129
2.322902
-11.285255
-13.849725
9.574182
3.922237
6.779083
5.061956
19.036574
-1.321446
-12.899581
10.202187
-18.069565
-5.964443
1.145053
15.537124
5.142046
0.317008
-5.161090
1.554057
-3.351745
3.949358
-8.374529
-4.883813
-4.964617
2.643636
-18.327285
-1.426091
5.945396
6.893005
-25.506603
2.836647
-8.406944
-16.536894
12.531747
-15.535068
-0.740455
2.710371
-1.697537
-2.483580
1.575156
-2.683726
-7.334913
-11.479289
-1.065282
19.052654
23.560413
-11.652434
12.658391
-7.388124
-10.471731
7.014721
2.008913
-2.672659
-6.503135
3.009180
-0.374845
-0.421219
-16.626615
7.544321
-3.894729
-2.322432
-9.372399
-4.478014
2.997741
20.522183
-7.003632
-11.891068
5.279763
5.040599
10.838814
15.574143
8.404049
-8.697536
-1.995708
2.225990
3.336550
-10.437804
-9.872557
-1.558858
-12.404370
-4.660157
0.194234
0.022754
7.966162
9.213131
-10.413156
-0.685749
-17.837566
-6.468082
-0.966893
-5.947990
-10.020826
-7.758373
4.695910
-1.270029
-2.871271
9.118102
-11.207233
-3.186260
-0.243708
6.172958
11.295048
8.920673
10.038162
-7.216264
13.381620
-4.606508
-8.251793
8.842612
-13.392523
6.256769
-8.682922
1.968917
3.008496
-12.468627
4.519349
16.502482
-10.574650
7.591436
12.371414
-11.526582
5.084432
4.732396
-13.994780
1.811414
12.814229
2.977629
5.046530
-4.919530
-1.256185
-14.875304
-4.465471
2.549809
9.676129
-20.350940
-3.992208
17.827016
-11.733527
-4.185180
-21.647335
12.825418
-0.992814
-3.382083
8.865199
-0.517661
6.907387
22.643742
-0.315067
-3.577026
-12.404967
11.424449
3.647729
-4.197781
6.150899
3.746988
-9.387920
8.465181
7.796984
-7.699718
1.524572
-1.099639
-11.107803
-7.230128
4.069131
11.975977
-0.326606
2.095024
4.422589
-2.872873
-4.152725
-7.947315
11.111182
-2.859367
-5.936653
-3.406153
-4.064116
-8.654358
9.561212
6.450541
-16.624743
-3.431829
1.192369
0.139235
0.266712
-13.983385
-1.593268
-3.271566
0.585549
9.438445
-4.787179
3.412557
3.643417
13.299775
-4.531323
1.486531
-10.373442
-2.936131
2.402062
-13.965242
5.453816
7.401537
-6.324789
13.580993
2.856529
-7.659411
-2.082741
7.751564
3.734240
-4.965886
-7.010850
2.016033
-7.301983
0.196884
9.102463
0.703972
2.209236
3.255880
-3.008401
-7.058968
13.039223
6.234947
-4.730369
-1.340836
0.334459
-9.089110
-4.851282
5.608108
-4.967789
-6.023452
-2.914349
5.354581
10.678356
22.810556
-11.241238
-1.813097
1.982256
-2.986669
8.266998
-0.722252
-2.910803
-12.037305
-0.565122
-10.396274
1.958370
-13.657753
-9.927135
5.307028
-11.489302
7.206399
10.666334
-9.182537
-9.199302
1.860031
-1.004552
4.487736
3.547976
0.670961
6.808767
15.625161
-13.350969
-3.799963
11.083086
2.087422
-1.024164
-9.202570
-8.070640
3.921410
1.061505
4.753251
2.523657
-4.813035
1.848918
8.854334
9.425127
5.205365
7.777917
-11.984909
-1.712592
-8.595226
8.151146
-8.112733
-0.407911
-3.654907
-2.496463
12.153301
8.988815
13.911965
18.305706
-5.670320
6.893661
8.742305
-6.555771
1.512103
2.612155
-2.656708
-2.560360
2.837301
-2.585631
-4.306383
-10.284417
3.596986
-0.044257
-0.822738
22.374995
-2.688640
11.930205
-8.274362
-2.934434
0.021068
-5.486046
1.389576
-3.308749
3.809062
-1.284129
-5.951223
1.469243
13.041377
2.961287
-2.605634
-23.436631
-0.786093
4.965163
-18.227836
1.396287
-4.630132
-9.678514
19.184808
-3.572766
5.245325
3.192875
-5.819529
-2.570214
-3.812564
-5.642842
8.027064
-5.656601
-15.623677
9.380576
4.813899
-9.919773
-2.142923
6.191938
-6.856313
-9.072324
12.902844
-7.506644
-0.702669
6.096112
2.130158
-4.251243
3.809096
-3.277392
-6.821319
1.880614
4.107168
7.681959
1.187612
11.886556
3.657558
8.395257
4.053166
-1.483465
-5.209755
15.377671
3.611991
5.480012
-2.791888
8.851537
-9.891796
-0.027993
-16.800622
-0.820169
-3.847060
6.160729
-38.403190
9.779722
0.292840
-0.318884
3.116950
-14.886702
-0.159359
-1.800467
20.930180
-4.075850
8.772957
1.472841
1.909465
-11.411413
0.461444
-2.632820
0.453319
-5.757454
-1.257605
-21.407768
9.885894
-0.695619
3.115957
2.963369
11.498673
-1.657673
-1.120193
12.066288
13.015012
-0.776310
5.142408
0.173330
-10.299709
-6.840022
0.357319
-15.885990
1.212568
11.113686
16.528549
-8.686850
-0.373601
0.491449
8.213605
0.302033
-8.514741
-4.682747
-4.470141
8.607844
3.644172
3.306075
0.145293
10.778543
7.039165
17.833945
-2.570803
-19.105310
0.184667
2.956381
-10.347391
14.967779
1.868475
-0.702391
8.345281
-11.643615
11.033633
12.901795
1.638416
-15.581642
-8.370472
-4.205128
9.589019
0.755499
-11.425266
-1.005270
-12.124911
0.006508
-2.439697
4.777964
-13.205482
1.346949
-18.971233
-4.460536
16.685804
14.409707
2.881893
-6.398298
-1.395765
19.546688
-5.830649
-1.621879
-21.197376
2.585491
-3.343493
-2.757818
-21.323719
-5.070712
4.222849
6.688188
-11.457202
8.283758
-10.616493
3.112389
-11.207804
-5.846175
-1.888809
-1.838413
-0.785216
0.875347
-6.140816
-9.938327
7.554498
-3.756061
-7.271227
-6.641294
-3.755359
-1.179538
-4.207498
4.562142
10.726121
-14.640662
13.533155
7.918288
12.687175
-1.380542
22.070211
-9.162619
-0.979156
2.154700
16.281661
5.303020
-9.023712
-3.098313
-0.410455
-5.242220
4.548325
-2.908106
-2.486677
31.519418
-0.662490
0.735588
-3.629466
4.396202
-7.528546
19.289521
1.514889
7.044962
-0.129619
23.327620
12.865773
15.985260
-6.729639
-2.703546
11.481787
10.737158
-8.097001
4.014283
-7.881367
-5.420573
-8.863050
-6.896963
5.987805
3.474900
-0.815200
1.239039
1.263652
-13.407128
-7.406409
4.866063
-3.768244
-20.149934
-11.707927
29.283081
-2.476400
0.211383
2.067888
-4.232353
0.760699
-9.453006
3.047831
-1.745913
5.704424
2.433077
-6.846671
3.565583
-0.117801
-13.928923
0.772344
-6.079647
-7.419805
-13.546157
14.365268
-3.070949
22.814555
-3.307730
-0.612963
-8.094941
3.692882
-3.480858
0.690283
7.428476
13.453707
15.447802
2.085610
8.919248
-17.047818
-12.345102
-4.744405
7.977437
1.399004
-1.990738
-7.870271
-0.996608
-18.594816
0.160878
8.161758
8.164502
4.142797
0.729628
0.935855
1.140750
-4.189372
-2.737453
0.245297
0.644931
13.697343
2.511022
-2.726292
-10.546122
-2.955880
4.389053
-5.114147
1.911057
7.712845
3.060102
12.265679
-0.012853
-13.236185
-4.518786
-10.021369
-10.354358
-12.155268
21.189656
6.896615
1.848984
7.093714
-7.864400
3.661220
0.361447
-4.012869
-1.580715
2.644496
-0.489034
-11.447286
7.151617
-14.568060
-2.942437
-11.383569
-1.834039
-5.731994
-6.794362
7.016360
-5.231461
-0.065969
-1.141714
-8.387428
-8.428988
3.845692
6.947400
-7.750163
-10.130802
-4.007622
1.887795
12.618318
8.307298
-8.171911
4.170008
10.174281
4.903328
-7.738688
14.452028
0.552725
9.211671
-24.302962
11.405904
-1.770959
-9.052662
-9.987297
-0.647861
15.300608
-3.731327
-1.211889
6.460937
3.027267
12.416263
-13.648031
-1.364079
22.114958
24.670462
3.488535
-15.593303
-7.781864
-4.285102
-16.742067
11.239995
-7.804047
4.575925
5.044637
-14.468215
-3.850905
19.692995
4.411686
-1.992210
-4.521872
8.209471
-1.834747
12.879411
3.968388
-4.960781
-0.568329
2.090723
2.152666
10.839061
-0.867553
-7.788925
5.988405
2.546780
2.946814
3.250407
11.999231
-6.628324
-6.546289
-4.418611
-7.228282
7.387239
12.968954
-8.734431
3.090936
-9.195263
-24.097419
-3.800570
2.308036
0.865480
22.010376
-4.198485
5.291530
-1.385702
6.790554
-20.651055
-6.516108
-3.594527
-3.974411
-6.553531
-4.411584
3.976051
2.094644
-2.829402
-5.492328
-13.349590
2.912258
-2.122567
-1.352215
1.135649
-1.840879
-1.991134
4.530210
16.019128
11.262966
1.717015
0.165970
4.965916
14.228345
8.139905
0.618934
0.023644
2.521974
3.456723
-5.000867
-13.868999
-6.566943
12.946684
6.988568
-2.651826
-3.460003
-0.011721
1.060126
9.413562
-1.740233
16.414940
4.550215
-5.374861
6.671937
10.653466
-12.903698
-1.995155
-11.823332
-13.219769
-5.597072
7.507007
5.884287
-3.099858
5.114621
4.876249
23.226982
-0.778393
4.789947
2.115309
-0.403547
9.693359
9.432087
-16.684976
-6.320629
-5.049003
-1.995218
-8.842828
8.359699
-12.495498
19.210606
-10.701360
-3.671948
7.082699
-9.009736
7.554375
-12.058731
6.115026
8.629655
9.505857
-9.449662
-14.034620
4.025109
5.418184
-7.429265
3.781924
-1.345841
6.485157
2.865281
-9.310929
1.100655
8.491110
9.407525
1.970169
2.532220
16.333214
-7.200789
-7.668446
-0.068220
8.510047
14.915870
-1.684606
6.404255
-7.410670
6.735706
-5.226167
2.285128
-1.961097
1.569067
1.172565
-3.067147
17.875360
-6.344385
6.382960
6.504110
-1.079024
-0.815905
-7.832184
1.095937
12.760687
-5.507671
11.975961
-4.963485
-1.576102
2.897412
-2.378554
-1.533832
7.358439
-8.345410
1.636365
-16.644927
-7.057739
1.672894
2.648499
-2.628361
2.608192
2.185246
14.323389
5.481268
12.063837
-2.866831
10.198403
-0.268451
-8.611225
6.323770
-6.949755
-1.479320
-7.704749
7.116591
4.606534
3.138970
5.295954
-6.076706
-2.678333
-5.461121
-12.000329
-3.404297
-16.289799
-2.049240
-5.948168
-10.970760
2.037350
-5.253657
-3.110497
-0.159047
7.004732
-3.212520
6.293730
5.424323
-6.518923
6.814909
-3.921695
-9.923944
-1.437010
1.867090
-6.522230
-8.263278
13.426392
14.438418
-6.624250
20.357876
11.601571
5.673633
-16.276655
4.765876
10.339408
-6.211017
-1.340610
0.504153
-13.663464
-4.230235
-3.712792
10.671764
-18.258808
-2.331727
-5.104039
13.038592
-4.969459
3.453708
-10.685373
-1.412472
-8.967344
9.467123
-3.110856
4.799939
-7.840682
-0.307995
2.481824
-24.257585
6.339752
11.258932
-3.620155
-1.701971
-15.482399
-2.202851
-10.234943
3.291810
-15.635007
-7.145900
-3.353936
11.844793
2.758217
-6.259547
10.971492
9.505590
13.599860
13.517668
-2.582268
-7.957738
-3.032757
2.521822
-3.791981
-11.721630
-6.346979
-0.309554
1.140589
13.803767
-1.840387
-11.367850
-12.147377
5.644079
-7.681603
-1.818759
-9.164018
15.578284
-8.722779
-2.042974
13.967305
-3.374517
7.521678
0.203494
-5.506598
-12.935457
-4.728555
7.764851
6.483707
0.291142
5.174987
8.932274
2.373618
4.085211
4.104191
5.717384
0.048125
-10.817464
8.849249
-2.883203
8.550838
-12.253302
0.917363
2.453468
-2.803182
-0.076596
-2.618539
-5.059540
-15.820760
0.853873
-7.546048
-0.706495
-0.047172
-0.744886
2.833977
2.865449
-2.314620
1.082605
2.053854
6.412874
-8.539848
-4.670159
3.183444
-8.220127
14.423830
-4.024108
-0.140946
-22.372421
25.781556
-8.482714
-4.909719
9.725372
-5.874877
-8.795521
-7.042753
-2.919493
4.065066
3.257065
6.489745
3.580389
7.206854
-9.729744
1.725894
-11.138865
-12.587888
2.775569
-8.542854
2.165663
7.017717
6.845163
-6.572436
5.896782
-15.220944
-5.317676
13.809061
-15.040776
-1.498905
-2.746485
-2.725760
-6.585157
-6.448730
11.399448
1.076553
9.947364
16.053630
18.281801
1.322562
-17.573952
-6.700326
0.280388
-1.520327
8.526236
-1.000096
-6.941234
5.193943
4.778579
10.275210
13.426634
-1.795216
9.731366
7.235504
14.927018
3.920262
-2.305191
5.289609
9.951689
-9.056886
-1.486152
0.724339
2.665078
-1.533236
2.028937
-16.792732
6.590140
6.804429
6.635240
-7.623099
0.418093
-1.775869
6.763342
-6.366038
-1.285849
-8.216230
-6.361254
-1.918466
0.632568
-8.187028
-4.553641
-13.817878
14.066871
-5.129308
-4.497082
10.279806
-0.818200
5.415239
-11.808785
-2.878242
-2.635013
0.588870
-17.223990
4.495832
11.102857
7.108976
12.590556
-9.416106
4.737272
14.873467
-13.133558
1.613146
-3.092775
15.117303
10.266990
-13.122379
-8.232992
-7.347893
-13.025913
6.748622
0.337508
4.669466
5.458351
8.884267
6.950427
-10.837250
7.570431
-4.069528
-0.677592
2.824922
11.675721
-24.126070
-7.259073
0.780309
4.771943
-5.557116
-7.370400
-8.630991
-17.511210
5.814747
12.094418
-2.161666
-5.016323
-3.072945
8.762231
22.063781
-7.213824
-10.356830
22.873564
-10.914610
-3.406548
-6.020867
-2.399289
3.530440
0.555915
5.928183
-5.163349
1.482470
-13.302022
-3.631566
1.058102
-0.589617
7.831966
-13.730274
5.598148
1.674942
-3.278613
-0.247743
-0.224610
6.307903
-1.393783
-2.226234
1.871498
8.333538
-8.744177
2.072239
-10.797955
-10.426264
6.766930
-11.099673
6.372723
3.561956
3.763466
1.752488
0.576719
-2.334869
4.552628
-1.505877
-7.472213
0.641789
-0.102233
4.598114
11.158624
-4.381836
-0.721023
-8.175965
14.459959
7.294361
8.811681
-1.775227
-9.525357
-9.982046
-1.281636
2.009773
-1.586887
-1.808395
-5.906107
4.048218
4.194424
10.238244
-5.488651
1.283480
14.343708
-2.071894
0.222734
6.372014
-7.209296
-1.496063
-4.551977
-1.407839
7.762400
-2.214448
-0.704571
-4.863352
-2.255979
8.485605
20.517648
-6.520144
6.749731
-12.076424
-9.134693
-8.810636
2.857757
-1.861026
7.409018
5.779078
-8.665111
9.365799
-12.554042
1.029892
-2.858516
4.671859
9.497744
-2.732497
-0.706091
-5.985325
6.793181
-2.785455
1.997295
-6.427933
8.658752
4.556944
4.097676
-0.908952
14.624177
8.849425
8.655724
-13.315903
4.757609
8.513035
3.567755
-10.250091
5.246562
13.037356
19.474199
6.968499
4.210815
7.230675
-6.041040
-5.546724
-2.158189
-9.667253
7.980744
4.574669
2.056342
1.616018
-6.146757
-1.815556
0.195457
-3.648032
-7.661132
7.273221
-7.091817
-9.481504
-4.101597
5.565444
1.530607
-4.191615
7.083673
-7.114618
3.732922
11.660122
13.765981
7.966049
-2.731479
14.116524
4.583998
-3.735788
1.445227
-0.278952
-6.622328
17.268579
-10.326597
-6.893902
7.540445
3.932521
14.173886
-2.019083
12.235086
2.858364
4.338954
12.182498
6.212164
-4.631427
-15.154195
-2.669400
-4.216516
19.636411
-0.441404
-1.144496
2.141669
9.968194
-4.148267
5.369235
5.324883
5.976212
-8.133980
0.959764
3.379411
-2.698984
-4.391483
10.359038
3.997664
2.895416
7.565108
4.389848
-4.463414
-2.887515
-5.155178
-5.588137
-4.777542
7.302970
8.691956
10.878919
-17.203195
-12.515837
-1.162240
-1.619753
-7.487644
18.358504
-2.579298
-4.037947
6.810257
6.457031
15.159738
-3.471764
-2.692532
5.847413
5.926600
5.010301
-12.003065
-7.522503
-7.465318
-1.110818
-9.774072
6.304639
7.033586
-5.144136
-7.426028
1.953937
9.392436
-0.840346
-9.529007
-8.004921
-11.478516
-5.813198
-8.985536
7.739850
4.522469
-10.596321
-10.321503
8.813336
10.544690
-14.048154
-5.980001
18.992257
-0.698499
-4.316051
15.963830
13.804908
5.919295
2.037155
-3.078464
-1.807080
-0.703295
19.669299
-2.695220
-29.537719
-1.841923
6.143146
8.329761
1.938947
-1.247312
-4.661324
17.874084
-1.280211
1.038505
-8.017654
-2.395094
4.647411
0.123989
1.145519
7.376111
-0.270090
-4.993564
-9.403387
14.522822
-0.556166
8.407762
2.287068
9.135205
-24.562329
8.823709
6.742475
9.292576
3.171749
2.215313
11.207261
-5.066143
-10.045704
2.237012
-3.334611
4.977379
15.289863
2.693918
-2.235543
4.245428
-1.053403
-25.300001
-5.331125
-6.596624
-3.504804
3.963370
10.984497
3.920062
6.683856
3.869967
-1.826226
-12.313620
1.552168
3.325468
-17.840323
1.183889
-12.251271
-9.253241
-8.532053
6.536084
-7.369490
-3.043653
2.339910
9.759767
7.656048
4.639305
-12.308736
-12.302343
8.114532
-4.771905
2.438921
-2.076665
0.076316
13.344938
1.558149
-6.974600
-22.649649
3.171131
16.869739
-3.525406
-5.664543
-14.673519
-0.236130
-14.479443
-9.968016
-9.677180
2.083101
3.177401
1.920348
-6.098224
8.633841
1.173419
-0.805347
1.456408
8.342432
8.430311
1.034939
14.828205
10.622680
-12.064509
12.637794
-5.607543
-4.629163
-4.843195
-11.687167
-0.576584
-10.866359
-7.060249
15.034377
1.208263
-23.735482
-6.820997
-5.598222
-3.890841
4.962737
23.082007
10.280724
20.531500
-11.781510
-7.733641
-13.332707
-3.275300
-3.170874
8.795275
-2.341701
6.903610
-0.817978
-0.573231
-7.637712
-2.459482
-19.528715
10.160738
4.977474
8.223957
17.497315
0.864759
4.616533
-9.040647
-15.228105
5.302512
2.815862
1.426896
-1.167660
-3.782168
-4.119678
2.743897
0.231344
-0.990060
-9.572232
9.360288
-6.596816
3.183944
-5.915630
4.056295
-6.735678
-5.131574
14.023523
-5.482982
-3.467394
7.083380
-6.152480
-6.220831
4.708917
10.834685
6.321175
-4.111224
5.133145
21.458611
9.734030
15.655051
-0.960098
-1.697894
6.630573
5.275364
8.778958
-1.556486
-7.738788
-1.961351
-7.567611
3.538205
-14.149465
0.685372
-2.819160
-1.270176
25.260988
3.371992
-13.450587
-16.981279
-7.406169
-2.167265
-0.644873
-5.432011
7.237926
3.576936
1.107355
3.359812
12.850642
7.029892
-1.117354
8.772027
-3.122482
8.189544
-1.039311
10.262837
-0.545137
-11.211064
-8.948223
2.969290
-2.336337
-5.211128
6.511179
7.291603
1.388073
4.119673
-15.406377
-10.514053
8.223415
-19.917161
-3.011846
1.433260
3.420227
-10.102797
-0.215763
2.036267
9.150578
-5.706245
10.994426
-1.028835
4.190498
-1.682474
9.678753
-12.763308
-1.272676
15.851302
5.534827
15.924571
-2.383412
9.479658
-0.141702
3.442334
7.199468
-0.722568
-14.614472
-10.833925
-2.816732
5.652065
8.952283
6.415215
-12.097540
5.810841
-6.199363
1.684937
2.811197
-1.302666
-6.680931
-5.483528
-3.823515
7.898708
1.456022
0.624473
12.507162
2.349559
-9.814275
-2.107281
-4.356217
-4.784862
-0.468280
4.012909
9.827137
-5.699484
8.831652
11.104929
-7.400768
8.114122
-6.831559
-0.103879
-9.412356
-19.960926
-7.674694
-0.848751
2.447210
-12.402187
6.070923
16.455000
4.610239
10.356976
-5.263280
-4.132566
12.976335
2.199201
-6.117322
-0.532869
12.505430
-3.501092
3.096851
9.681908
5.234661
-3.007905
11.892307
-0.845578
5.309844
-0.439306
-4.788132
4.848324
-8.922789
-5.318055
7.273904
16.345975
-9.558790
-8.258112
5.480079
-5.579159
17.195273
2.506122
-1.635896
6.903995
7.464495
-6.277292
8.634349
-5.288021
-11.143170
-13.897676
13.492193
11.833883
9.180877
-2.703385
12.386575
9.360284
5.413860
-3.453328
6.126343
6.800609
7.105231
-0.030551
-4.815996
3.323536
12.487850
-4.504077
10.607782
-8.904954
-1.267064
-0.466180
1.471844
6.876425
-1.857262
1.650031
0.907922
-0.328795
5.020968
10.295666
5.220924
-5.987086
-2.538210
8.120918
13.669212
4.192879
-1.460312
-7.017630
-0.888677
-5.731556
14.257433
-13.440140
9.659004
5.664332
5.541040
16.562105
-11.359985
10.110986
-6.157994
-4.977058
7.903245
-11.629010
-5.822380
5.690378
6.262051
0.831860
5.372753
-0.814093
8.282009
1.980518
-2.683687
4.096109
-0.281447
-5.107737
-5.732468
-14.638024
-4.878448
5.002290
-1.997734
1.452298
-4.839346
-6.617457
-7.303825
0.234668
-2.368097
2.760449
-4.498488
-3.431287
-0.844281
14.802218
1.169744
7.249694
7.551091
-11.224674
9.063830
-14.547692
-5.252837
0.702112
5.642046
14.008618
-10.512632
-3.888925
-13.767085
-1.339493
-6.282971
15.047916
9.212368
8.901924
9.385934
-5.260455
8.499648
14.943882
-5.007067
0.720580
2.437273
2.628650
18.586746
0.661534
10.760014
-11.728916
5.085530
-8.952635
-0.428718
1.194107
-8.637049
-13.915577
2.650440
-3.371385
4.330526
0.781766
3.807489
-3.613409
11.442014
6.330198
-4.106526
-0.301172
14.195850
0.697530
10.803730
-17.527961
7.576408
-6.556718
2.778033
0.679567
-0.466812
-14.092412
-12.039554
-16.923488
-12.212965
10.119961
17.896368
-9.419943
12.088136
-1.823781
-1.652334
0.347638
17.184674
6.611033
-1.193320
5.765005
7.824207
-7.314961
-4.996859
15.502773
-8.043562
7.405421
2.007784
-3.366543
-3.756415
-4.657166
-6.719182
-4.977550
8.621040
-4.016894
4.825180
-2.331656
-1.617431
-4.570594
-7.828021
1.631997
-8.129331
1.090322
0.250723
0.480457
-15.652554
1.768662
-13.687828
12.074743
-1.148321
-12.458248
-3.575623
0.575213
-3.742362
-3.238650
10.651505
6.644734
3.054741
-1.469247
0.644469
-14.036107
3.507756
-2.611281
0.288678
-4.718695
-7.231975
-8.376250
-10.071181
6.559799
-3.935640
-10.499665
11.312906
5.163901
-8.720110
2.504666
-5.604016
8.485383
-4.046359
-18.967363
-8.990787
5.312875
13.120483
-11.169988
23.676346
1.749540
-23.094091
-15.725272
-1.891830
-0.699407
2.862772
13.275549
-4.242475
12.597269
-4.966026
13.304454
13.154347
-14.271648
-0.150059
14.135630
10.037351
-15.666131
4.252241
8.247903
4.571016
-16.972786
-2.153335
3.716080
-3.328697
2.393303
-14.791002
1.416971
-3.916324
9.922877
-6.996081
1.727134
-6.961972
-4.856882
-3.379855
1.535063
6.509302
-2.629613
-0.991708
-17.094318
-14.456790
-16.597230
-1.390499
-7.109925
7.909732
15.063220
-6.092469
11.716485
1.958536
-21.124405
6.075435
-5.431508
2.497356
-6.563491
-6.915862
1.355281
0.974409
13.405735
9.562875
14.091128
5.394993
7.582287
-1.757738
-1.000324
3.781202
-17.049799
-2.895950
0.741841
-5.807929
-8.379787
-1.203365
-3.186137
8.574111
-12.602621
6.623540
5.994977
5.154281
12.052920
-2.948850
-2.167166
10.979799
6.628382
16.429998
-2.981093
-6.666998
3.741596
-0.307333
-9.926976
13.317769
-6.981819
-8.561276
-7.842979
-11.324932
9.370333
-1.032974
-0.233507
-4.272302
-18.911015
-13.072634
2.070505
-7.955190
-9.478682
-12.759354
7.260848
7.068787
-2.349480
-16.330895
-8.929365
21.382802
-11.706704
-9.674762
-1.944609
-6.499087
7.330251
-4.359771
-8.615602
0.771452
-0.627270
15.550977
15.339857
1.179145
6.262141
-0.599608
-4.060254
2.338176
-4.444332
10.986723
-19.232457
-5.318758
5.504640
4.236404
15.068137
2.223205
-5.683676
7.464851
4.752785
-0.855282
-7.862431
-1.422046
-10.121536
8.457333
9.276457
-6.369663
5.018393
-5.895313
9.547422
-3.856718
-12.783306
-1.674033
8.522575
8.687496
-3.132022
-1.986609
-3.224658
-0.075700
-1.291482
-10.292839
15.074216
13.862933
3.472056
-4.595861
-3.428617
0.508082
4.509345
-7.236041
-15.403978
-3.997433
-16.825822
5.638464
-6.794971
0.356696
-0.208186
23.376605
-8.941953
16.292503
-13.836442
-2.014757
-7.101882
15.791286
-10.502019
-19.089435
8.785891
7.585760
-12.807770
-0.530205
1.935274
-6.810776
-5.453936
1.462764
0.353244
-16.178790
-0.388066
-2.789153
-9.937358
-1.659398
3.845909
-5.334666
-18.355703
-1.406909
10.894403
2.509050
10.551843
6.338076
-7.073677
0.076221
10.229258
3.693791
8.076342
-13.626624
5.623118
8.015503
-2.063994
0.570385
-2.400510
-0.803526
5.106942
2.656778
-0.604135
2.375555
2.106455
-1.597900
6.328283
-1.737279
-7.837883
-9.676088
6.297077
-12.474538
12.280309
2.215248
-21.428212
5.611219
2.366690
-21.240062
0.912080
27.757043
-0.379326
-11.776165
5.309874
11.611225
12.300270
-1.445738
3.884388
-8.201949
1.325940
-3.608879
10.000221
-0.152388
0.671261
7.804128
7.210831
-3.652879
-0.808933
3.300470
13.004252
-9.321705
1.149777
-16.804946
0.368616
-5.571535
4.982544
-12.614167
-3.411750
-4.059564
10.147721
1.477695
6.050053
-5.921100
1.098177
-9.853595
10.994412
4.402790
-2.514934
12.728849
-4.600017
3.487838
0.052265
-15.601920
1.271913
0.980740
-9.310137
-1.284554
-0.465529
-2.410213
-1.956882
-9.397248
-4.527331
-0.173875
-14.290081
-13.868359
-3.638793
-0.622548
-11.764088
6.248583
6.671543
-5.640775
-1.455976
-1.585487
-14.733378
-5.142238
8.154993
0.314516
4.403827
7.895471
-5.029047
-3.693891
6.760876
0.918817
-8.047177
-4.352723
-3.367291
-3.189804
-8.817499
3.345866
10.899553
11.129359
-6.506402
-15.027914
-0.915583
15.381169
-5.400752
-3.653406
2.233998
5.318728
-12.618639
-1.214786
4.958893
9.390054
-1.431811
18.585733
-10.193139
-7.493336
-17.576777
13.518964
-1.998259
1.604575
6.348759
-1.562289
9.032513
-6.795386
-10.395034
4.781563
3.167286
12.916008
-5.950824
2.263398
-5.992551
-5.683539
-3.822993
15.650372
11.704152
9.478350
-2.966348
9.626711
5.067799
7.409360
-4.133104
7.123626
0.639161
-6.604245
13.603680
3.744917
-0.968377
-9.736870
-2.987613
11.765403
0.505812
8.046656
-2.002175
-1.789544
7.431801
1.852518
-8.075648
-1.150240
-2.972241
3.339535
-10.060399
-11.159116
2.861818
-3.118936
0.861415
0.954566
-5.121585
12.099949
-2.139313
-13.336618
-13.247324
1.408466
7.534593
-2.422700
-5.393808
9.148612
2.811733
15.259161
7.114676
-1.281208
-5.733212
10.775676
-13.682333
14.080942
-5.879814
-0.400673
-2.936275
-7.524433
-1.057023
17.106138
1.601067
8.422248
9.635392
17.601810
6.001638
18.035542
6.720540
-2.121495
15.753051
-7.354061
0.326839
6.573179
1.372544
10.140175
-2.169011
-10.576813
-9.478507
-10.802221
-16.818471
-4.188069
2.170832
3.522049
-7.924949
-7.260522
-13.280145
-2.624762
8.220124
5.881742
9.513474
0.995776
-8.896448
-12.198703
-1.340112
-15.465228
1.289201
-6.014154
-1.490772
7.441642
-1.715030
-12.125235
-7.887539
-5.307057
-7.210276
-14.502430
4.579057
14.504696
-1.441625
-10.951481
-10.815159
-2.371496
0.081733
3.509036
8.641761
0.989878
6.793192
-1.046513
3.722698
12.325839
-12.868049
12.743709
14.810626
-4.775420
-4.019024
17.203615
13.433763
2.671877
0.275282
6.266013
-5.209978
-0.070792
-9.824053
-16.014144
7.898187
1.640369
-2.194972
8.871175
8.333851
4.263590
-4.947835
-8.653218
-4.364642
-3.511587
-6.203620
0.167539
-6.745973
10.807755
-15.747623
-6.030952
-9.906926
-8.799052
8.084552
-1.349752
18.866179
-9.886066
-6.378984
-2.718827
4.739739
5.009592
5.256815
-5.867681
-4.546973
2.798954
-3.016042
5.486548
-2.119006
-2.320596
-0.542292
3.327945
6.027059
2.678589
0.310028
-4.885629
-1.617469
6.891957
10.846542
-3.937811
-2.168430
-6.592861
-6.342916
-4.017749
5.771645
-5.724750
2.078932
-0.579747
-15.245769
1.305117
9.495518
-5.344169
-5.853974
18.676898
15.905488
-32.447286
1.005398
4.545936
18.179894
-6.281823
4.034296
11.902082
5.892688
-7.974227
-4.166671
-4.419643
14.485019
-14.103494
1.161952
6.557103
1.573506
13.173531
-5.083483
16.535483
-0.181084
-2.035550
11.018329
8.221334
-9.750252
7.733167
-12.696630
-1.485863
10.834098
8.328089
-21.524898
8.256331
5.871614
6.530174
-17.969133
4.136996
10.731167
-4.125499
0.050520
12.510021
1.571546
-11.029750
7.681324
-5.122565
-6.009635
-1.631850
2.788731
6.513667
0.268126
-1.008336
-13.944335
-9.498366
4.579188
-12.262423
-3.562551
-7.951051
-1.890232
1.740380
-3.780842
3.154638
18.484673
12.709799
4.120214
1.778263
-14.023839
-13.347945
-9.021272
4.896674
12.956265
18.581195
-12.395511
-9.465594
-3.175912
22.074377
-12.643679
4.508759
11.215850
-8.184653
-12.429745
-3.292422
-0.681946
17.730210
-14.496696
2.248379
-22.503067
-10.335227
-7.932831
-1.317554
0.002297
-4.511637
-2.045380
17.017317
7.144694
13.233428
1.059643
-4.306780
-4.697012
-4.795417
1.923922
6.546647
6.265087
-7.612309
-0.064407
-0.013634
-3.276249
11.781331
-4.575720
15.323500
2.938930
1.805488
-0.035668
-1.364403
-8.830559
-30.834427
-11.135630
5.139000
8.869250
0.037712
-9.102503
1.300760
-8.007647
2.822626
7.990819
10.833703
5.664647
-12.120222
-2.187323
-1.015561
-5.338757
0.246586
-7.459036
-3.412837
11.243155
-0.709322
-8.910650
-8.701961
-8.718933
14.241538
10.699080
-7.640887
6.875839
-0.819351
1.960331
2.991427
8.044365
-2.220833
-3.841806
1.355733
-0.514707
-3.431118
-5.634651
2.429135
5.784998
-8.887963
4.757978
10.718589
-10.150981
7.868525
-0.669024
13.810589
-5.532345
-6.366249
6.158132
9.810307
3.474990
5.283001
0.683078
-4.551550
6.089472
4.384128
8.392385
-2.239802
6.227613
7.464560
-1.390352
5.717970
-1.565715
1.589177
10.572129
-14.687978
6.858647
26.368347
-6.613339
1.649340
-1.398337
-11.207578
-7.914241
16.504556
-3.732883
10.677564
-0.152448
3.620878
12.971891
4.473285
-17.728896
-0.142167
13.750355
0.623113
-10.056911
-0.875959
-15.953300
-9.589185
-17.150811
-6.281112
0.378239
-6.003441
-1.716346
-13.022542
-0.366591
20.009932
-7.882252
-9.958388
-1.309585
-9.844373
9.618705
-4.249609
8.727612
-9.476533
-11.620780
0.041199
-10.127763
-8.547351
26.287732
5.821433
-8.575098
1.035875
7.858381
-7.749308
2.994557
-1.476868
0.175141
-24.050180
7.717696
5.122566
-1.875590
10.688512
9.802445
-7.903238
-7.299370
2.010712
9.018993
22.999653
7.029195
5.157210
5.833530
1.357302
0.790346
6.478185
7.558976
-10.525257
-14.210465
-9.013364
4.789311
-0.952008
-0.327015
1.827622
-1.259765
2.916347
12.716702
-23.337534
-9.135289
6.641373
-3.624583
3.697818
-4.506151
0.093140
-1.438692
-5.317692
5.632977
-1.652230
7.698522
9.308417
-13.266149
-18.928298
3.441398
-4.311654
-4.086446
5.874756
-11.127882
-5.194538
-14.847583
-18.823556
-11.950565
-4.048403
13.248476
-2.914274
-5.076598
10.522745
17.086517
-6.260209
-1.042119
-14.794395
20.798419
-2.740909
8.799649
-3.975567
1.435217
6.970393
-3.782845
3.472540
-0.980945
-1.023693
-5.716983
-3.496654
4.647760
0.287310
1.638779
2.588271
-7.488127
-3.567470
9.796833
6.109656
7.845247
10.063405
1.979757
-1.272360
9.486551
4.494429
4.390907
8.158780
4.047704
6.647526
-7.831070
5.232132
1.773018
2.159000
5.176618
-2.490816
-1.915736
-8.664460
-4.302176
15.577767
31.449051
-2.682659
11.887647
-15.603816
1.967037
3.220227
-6.446601
6.498116
-6.315839
-1.564666
-1.757157
5.973900
-3.542829
8.169732
1.426127
9.990131
-6.741011
5.848670
11.206568
-11.432358
-12.077410
-1.923454
-4.594685
5.412341
-10.191549
-1.094246
-8.769187
-5.580006
-0.320995
-15.712479
-0.164764
-3.151439
-7.411361
-4.826925
20.159168
7.075584
-15.130051
-5.476740
7.076358
-8.973387
17.448906
-10.009286
2.916972
-3.904882
1.986353
-0.951575
-11.637305
-15.640404
7.747708
6.169311
-3.642257
3.352806
0.085592
1.915052
7.799184
9.039147
5.239674
3.147877
-9.389675
1.666045
-12.858816
-7.553914
-3.509753
-3.278808
-18.047098
-1.022836
9.046539
-21.070637
-2.266383
-9.249921
11.732312
1.570625
-11.881285
-12.301811
-2.826946
16.863722
-4.832045
-23.747009
22.038348
-16.844252
6.370472
5.491251
-10.520766
-2.347296
-1.587470
8.679554
-9.867410
-9.621370
7.909897
-5.368613
-7.345540
3.589690
-4.634282
-7.365646
3.845661
-0.063067
-11.592635
-5.970107
33.287592
2.070606
-10.526064
-11.781761
1.337168
15.444867
-21.161509
11.963658
12.239627
-11.926793
5.338717
19.820699
5.406192
4.453216
-7.057449
10.704810
8.135506
-15.585406
1.711554
9.417668
-15.680083
-9.903343
-0.611676
-6.984823
-1.565726
6.702722
8.946725
-0.317488
-2.159914
4.111363
-12.077130
2.000715
2.142583
6.540344
-3.679590
2.390046
-0.462475
1.979803
3.947016
-8.059522
-1.370097
3.981049
0.113604
-17.332040
1.016514
-8.972724
9.731855
-7.181843
-3.490933
16.894505
-0.257344
0.382405
1.727231
12.921822
-17.561181
-13.685269
-0.754048
-0.471996
12.786169
1.469814
14.763536
-5.623422
1.353680
6.589144
0.624802
9.891376
-2.377664
6.622038
9.127254
-1.244650
-2.768322
-13.193493
9.819417
-9.016290
-13.437390
-4.176214
6.817972
-8.066783
1.683568
8.225301
-15.036891
-8.452617
-14.801575
-1.239330
8.330889
-4.049390
3.259178
-2.612719
4.493534
0.365768
6.363291
2.931430
-7.943590
4.689588
-0.403899
18.309555
1.793856
0.673813
-6.088440
12.439857
5.367344
10.205294
-3.287416
-13.177692
-9.304182
-1.001848
10.587093
6.089512
-9.085308
-4.375267
0.802697
6.602107
-2.181501
5.210856
7.791146
6.837538
5.497980
-19.658861
-1.571747
2.380461
4.568532
-0.742104
0.330315
-12.130356
5.365517
-14.423507
2.290813
5.033606
-5.307471
8.749984
3.787401
13.415551
-2.102877
3.772647
-2.795950
-5.971725
-9.617599
14.782664
6.270500
-8.564354
-7.709180
10.118676
-2.801502
1.314240
-6.441331
0.206567
5.062994
-5.816932
-11.055891
3.028268
1.872785
14.905015
-6.257058
-8.108858
20.023128
11.422611
-11.612085
-2.802373
2.633335
-6.666212
2.530934
-2.427752
-0.979352
-3.566886
3.890743
-2.133371
6.160097
-3.792011
-2.408766
-1.230786
-18.873480
-5.323956
8.629563
-8.112931
4.951508
-4.204120
-12.277288
-7.528285
-6.881600
-6.594104
7.895652
-6.096994
-3.069816
2.243668
-11.198987
4.455072
-5.105938
-6.541816
-16.476392
8.222389
-1.901944
-6.051849
-13.426146
-3.496742
-10.541143
22.545363
10.492963
11.967856
4.025015
-0.002712
-4.904124
11.924016
-15.085872
2.052414
0.058922
-12.397034
-6.055342
-4.213228
-13.682039
4.612064
2.409194
-2.032823
-0.738220
-2.481728
-5.417547
20.473621
-12.964707
-25.805348
-12.376748
9.400147
-5.691789
1.676648
-2.737422
13.564874
13.262016
-2.921408
3.953524
-4.824651
-8.340020
1.179341
-5.921559
-1.773222
11.975013
3.776284
5.384119
4.738207
1.038991
-5.963688
-0.375610
-6.042261
2.711052
1.802881
2.461999
8.178861
16.151476
-0.836338
-0.216337
-0.680262
0.112474
0.928626
-5.833249
7.483573
3.739372
-10.037986
-4.757552
4.419056
-7.292179
2.166686
10.780225
-14.197992
0.864325
-3.783451
-9.057758
-3.279289
4.984646
-9.677781
18.953338
22.782005
-13.105975
17.256047
4.591730
-0.472624
-0.123409
-8.573186
10.949893
-6.901969
-4.679881
12.264956
19.041948
0.742298
-5.931343
10.851996
0.441944
-1.288784
-0.117620
-18.363312
5.104311
3.363941
15.976709
7.958657
1.081412
7.263476
10.235068
-9.609275
6.084778
-0.919190
12.077684
2.035311
3.744333
4.524685
1.312767
-3.652347
-15.513834
8.161536
-5.108086
3.482257
-1.972340
6.172213
13.028851
5.643594
3.416124
6.113553
0.806653
12.446125
-4.083671
-9.979265
19.744990
-1.875602
-9.757480
-3.245386
-5.567187
3.323684
1.043495
-6.002177
7.422485
-7.118358
-10.539351
-8.757740
0.002584
-0.733743
8.891639
6.284426
0.133858
4.521976
0.659769
13.843135
3.105307
0.259344
4.889877
-2.141916
1.071769
6.247455
-15.360859
0.083692
5.692386
-13.007278
-3.447693
13.129873
-3.364897
-3.735634
10.772156
8.926032
4.231306
-8.588482
8.305383
-7.984096
11.671983
3.148099
6.293886
-2.867536
-7.632773
15.700039
1.578956
-1.446103
-9.095895
16.236848
-16.082203
19.831536
-8.339086
-3.919806
4.322675
-12.942076
18.340066
-13.970938
1.909895
-2.490593
-2.219022
-1.407834
-2.969547
9.232646
13.137359
0.811176
1.023470
8.471764
0.885580
-6.357088
-11.086883
13.507765
-6.201482
-15.727299
5.280891
-8.572607
-1.367735
8.494917
-6.525569
-21.392112
-0.935552
-9.413831
11.824412
-12.498712
0.711571
1.846497
14.617528
8.494049
-2.070297
-1.845459
-2.993504
4.292120
0.566547
3.506161
-6.350954
-0.626514
9.176750
-3.436845
4.628656
-7.355932
-6.798223
2.892935
12.202436
0.833527
7.198504
5.693588
-11.275320
5.929116
7.274787
3.406758
6.032173
-4.645804
11.748577
-1.842574
0.086370
2.282271
-7.137458
9.114486
3.219951
-0.576931
-0.930189
12.446783
-6.980220
7.864115
-2.706542
-3.170579
9.195836
-3.357476
4.466515
5.694396
-2.631414
3.023936
-0.562082
-8.158806
2.938090
-2.644625
-2.913003
17.575942
-3.732846
7.639794
-1.404295
-14.125917
5.809401
9.210337
1.376620
-7.359876
3.155078
-9.720578
6.077819
-6.986906
7.581167
7.272076
-5.207095
-3.360526
15.625621
-9.822220
-9.681646
12.419922
1.477321
6.399188
-0.759280
-1.527401
1.092218
10.718369
0.102165
-1.390216
-11.620244
6.407651
1.618254
10.563231
-19.040629
-0.804648
-3.993346
16.343402
1.581262
-10.020141
-6.149220
-1.373680
-1.534014
19.781505
2.613450
12.395886
-3.202056
10.857039
-13.407392
-12.581539
10.453000
1.644043
-14.386112
5.580995
-6.849512
0.849599
-7.045328
7.264251
-13.182838
6.134435
5.014178
0.631154
-7.495652
1.650491
7.154209
-5.930591
-15.890045
-26.351603
-18.739819
13.427029
-3.769835
0.192681
-1.067244
-9.555072
12.897784
-1.703339
8.675492
-0.816816
12.025092
14.728865
-2.837760
-9.928631
-9.700797
-7.852383
14.802462
3.021880
-5.325734
1.592941
-4.925796
-1.294534
12.716393
-5.314260
-9.197738
-6.219793
7.447198
13.089630
-1.264796
-10.826584
-21.075346
-3.349717
9.004761
-15.334106
-8.384843
20.137197
-4.322937
-1.469584
-3.157631
-0.289694
-7.252445
-0.806231
-2.691224
10.706633
-4.295259
-1.677019
-8.952096
-5.469968
10.922168
-1.454883
-5.663075
14.703649
-4.633111
0.434443
0.726908
2.886285
1.521318
-11.147552
3.057811
-2.706872
-4.874679
-0.743907
-18.913858
1.009513
8.114599
-6.068262
6.476525
0.847248
-8.341885
4.881053
6.237205
-4.138328
1.870761
-8.081734
15.438194
0.022510
-8.357083
14.983546
-3.827253
8.336683
0.352235
-7.776321
-23.801240
7.541810
4.214372
-4.977801
-4.566924
0.010713
9.755557
-1.865811
-13.357787
-14.599469
-2.799183
-10.060650
-4.239772
-1.569463
-16.734611
7.616560
3.471445
-1.711542
1.069359
0.369256
-0.012107
-8.056860
12.075797
-4.039816
-18.195628
-1.429589
-7.668020
-2.993594
4.528654
6.602468
5.671053
-11.204217
1.094106
-10.736432
10.995350
2.031683
-14.635036
-0.581797
-15.861266
13.329420
-5.336703
8.198525
-10.628578
-5.313559
4.380623
-15.141825
10.391606
-1.415201
4.984661
-6.366702
8.310076
1.615231
-14.657591
2.543800
-3.067374
-2.904621
-2.427500
2.372852
4.794586
3.555131
3.132390
5.798026
4.977031
-1.724688
-8.718666
12.347761
4.561579
-12.351396
-2.022429
-1.581263
-0.052877
-11.615244
-5.945124
-4.307130
17.744939
19.802577
-9.270522
-1.185752
-2.900681
11.007967
-0.236755
5.556624
-5.313221
17.412066
1.923370
-7.788857
-14.449727
-1.041057
-4.411863
-8.372606
-10.202947
8.745076
11.664148
-13.867269
-4.189098
11.326553
-8.389738
-11.769025
1.526778
6.309787
-2.647522
11.812503
7.004505
5.137195
4.391517
1.187696
-7.911378
-0.354701
14.387585
-9.775927
13.437672
0.578043
-3.673809
0.981163
9.114311
-3.716485
-8.844567
6.172515
5.025512
11.265912
-6.349509
-1.549522
-19.034342
4.676315
11.789390
-2.275118
-9.415451
-8.551251
0.992145
2.793989
14.494255
10.850846
2.913544
2.039517
12.917516
-3.095773
2.280626
2.843244
2.724596
8.609643
2.043135
-0.675730
0.380272
11.023606
-7.050565
-10.369995
13.580286
-3.936973
-2.983277
9.637467
-6.485633
11.329995
3.552791
3.682797
11.562522
0.858824
4.765207
-4.994614
-1.651269
8.756440
10.545117
-4.679082
21.075468
-12.267212
6.808882
0.562827
1.195950
4.316794
5.407644
1.707343
-4.260236
2.909134
2.676534
4.975758
-0.500272
3.428661
4.376777
3.660710
7.006647
-1.744156
2.652148
16.138445
-12.298811
7.445073
-6.537319
11.988631
11.499874
-7.045010
-13.109338
21.203630
-15.753592
-16.069971
8.374494
3.003797
-6.959279
2.581808
6.808362
-0.836084
-9.029611
-0.038822
-19.947755
-1.972770
0.906599
-1.558275
-0.872977
-10.155401
9.983087
-12.411407
-0.351845
-23.775462
-7.797425
0.502054
-7.286217
-23.482461
6.424514
2.819530
6.315870
-0.373651
-0.594982
7.825813
1.829267
8.191992
-5.683617
2.670875
10.201374
-1.856994
2.327657
12.260141
-0.074125
2.909606
-2.306721
0.760051
7.885490
1.049874
0.342873
-7.991802
10.545468
-2.307913
1.154185
5.308903
13.309089
-9.081636
-7.912286
-1.142284
0.236099
-4.424306
2.835279
-11.827681
12.768370
-12.084241
-0.818272
-14.253967
-20.068723
2.031797
2.097796
3.002957
-14.307956
-3.710807
-1.697993
-8.724405
-1.996828
6.370710
4.979352
-3.071995
-13.707079
-5.831343
3.262131
6.067263
8.689516
7.483223
-8.778304
-7.827880
-13.409623
-8.833226
0.225831
2.330628
7.489264
1.030490
4.423590
-8.762258
-7.485815
9.378277
-13.166577
-14.868035
13.620173
-0.137973
-0.861166
2.684818
-2.772985
12.642709
0.680511
-10.300619
1.959633
8.514413
0.028391
5.149810
10.313405
-0.543184
8.434202
5.098268
-1.613993
-8.744153
-6.658437
-4.790204
0.236545
-6.405419
1.972359
7.325462
4.588950
0.133583
-9.131183
6.250503
12.852423
-0.865314
-8.117448
12.315590
-17.135712
15.971642
-11.686992
-21.005726
-4.649085
-4.065077
-5.930587
7.045251
7.687542
3.874979
-3.194968
5.424603
0.151152
-10.549737
-4.577597
-7.306524
-1.865865
1.408044
-6.406488
-9.183719
9.585816
-0.983700
0.886655
-8.755643
-8.853547
3.540027
9.385598
-7.911371
-5.595063
6.157584
-6.262035
2.244821
6.741676
12.722404
-4.590934
-4.081022
4.814036
9.916907
2.145268
5.522476
5.079671
25.433957
2.655878
2.031170
11.991816
2.511848
-1.516899
-9.618456
2.828414
0.540591
4.129071
-6.663405
8.580108
-3.599846
-2.928015
17.957499
-12.361043
-2.119966
3.246536
6.957763
4.624237
16.852333
-1.487512
3.506656
3.899509
-6.406050
-13.023272
-0.016457
17.391453
-4.822895
15.427218
5.681065
-1.940113
2.607410
8.624348
-15.495648
3.467148
-2.084483
-2.517739
-11.809236
-1.507859
-9.295052
3.379701
2.156810
-2.877539
-6.332189
1.750849
-10.375380
-11.907863
-0.595106
5.594315
-8.842426
-0.086456
-9.444545
10.735879
6.141295
-15.318519
2.313855
-6.736866
2.320317
-11.305539
4.803931
11.380179
-0.756523
3.387259
10.772218
2.511397
0.890088
20.643910
3.371733
-10.247581
-4.582755
-4.377340
9.343045
-4.817131
10.666420
5.612871
-11.023986
1.389349
3.086983
-7.548771
-8.862582
2.019702
9.298038
-7.344412
-5.226086
-15.201652
4.368548
-3.794157
-8.047994
12.803768
4.411873
7.555162
-1.583550
-4.382900
-9.907486
10.241638
-6.128013
-7.976198
-5.329818
0.071134
-1.583152
7.548674
-7.723129
7.779173
10.185094
-17.033200
11.827712
1.911878
-13.147257
17.118343
4.585329
-10.332917
-6.177202
13.136919
11.916578
-10.999910
0.801945
-6.270730
7.930851
-5.452539
31.746171
-9.491382
15.693073
3.801987
32.078674
-18.292167
-7.357730
2.106398
7.272818
17.899477
-6.971099
-6.529205
-4.286098
1.016661
0.374196
4.792262
-1.477370
-0.115909
8.683034
3.236575
22.987340
10.531534
-3.920868
-2.166007
-14.685351
3.231792
-5.522198
13.448704
5.346114
16.562847
3.979751
-19.186797
-4.927128
8.172564
3.409075
3.969810
3.174712
-3.310458
-15.887455
-13.627586
8.714689
-8.287441
-4.185788
9.348221
-2.776907
-3.816556
4.504768
0.445301
3.145371
0.361383
-10.547217
-2.500474
-8.270404
8.602977
-15.824877
-3.891709
5.705353
-2.578521
11.555595
6.483995
9.410256
16.144084
0.408175
10.097200
-1.447050
10.416085
-11.624909
15.603870
1.540416
1.772238
4.657954
-14.446813
-7.375323
-10.355766
5.412422
6.580859
-5.061533
-17.211352
0.682240
-17.079493
-5.101620
-0.321489
2.930774
9.932143
2.009687
-3.141376
0.973796
13.532074
-2.375553
-1.544584
-11.109836
6.983660
-4.846587
20.653518
8.035050
12.900101
-7.542381
13.235203
-0.821554
5.313341
0.505633
4.421068
3.416987
8.894152
8.000944
7.103263
1.197561
-2.954238
10.636801
14.419099
2.742516
-3.164424
-6.455896
-9.138588
14.791469
3.653422
9.258657
-4.398190
2.631016
4.454652
7.975012
5.261994
-20.259765
-3.091633
-13.789425
5.947753
9.008238
7.008628
3.300387
-3.005476
1.030823
7.838359
6.918347
-12.701291
-7.138806
3.068986
-4.155804
4.328516
14.985319
-2.753210
-0.674150
-3.271768
-16.061897
-6.479625
-1.040936
-5.971974
20.069335
7.121696
-9.936617
8.192156
1.010270
8.880358
-5.501777
-16.632882
9.889406
-1.206467
-1.816454
4.510767
-14.419935
-5.940314
-6.694466
13.482942
3.685143
7.116635
-0.322111
-0.006062
15.646221
-7.337663
-5.857032
8.551021
-12.889270
-14.133027
3.704870
12.102650
-8.942608
5.804065
4.038086
-11.882104
6.842292
-8.174165
3.690171
1.101722
-4.788830
-16.595544
-7.900666
4.408690
-7.006772
10.927757
3.942503
6.551921
18.150749
13.739468
-9.253582
1.955918
-0.183861
-6.441125
-5.071976
-7.497431
14.191835
1.493451
9.010259
-1.879630
-9.494225
-2.090012
-10.721831
6.784232
3.414155
-11.066628
3.093148
-1.050652
15.249263
-1.567091
4.515798
-1.680724
4.564950
-11.331324
9.861454
-14.822218
0.402662
8.328020
-8.155469
-10.272503
3.855518
1.159040
0.149784
-3.346809
4.433713
-7.696187
5.334924
-9.397344
-13.173868
3.523934
3.015093
-3.190075
1.325441
-3.721433
-2.535716
-5.487683
-11.795459
7.147008
13.411325
-5.211916
-6.469025
-4.691015
7.074164
1.414780
-7.568245
-5.243896
-6.580880
1.604440
-0.645191
5.200112
-8.687184
-3.763772
5.303118
11.432060
3.860513
-6.089970
1.421803
3.229601
15.041429
6.211763
1.233675
0.468864
13.763883
-0.221185
4.630808
-3.138918
8.600167
5.620602
-26.058273
-1.753553
5.034971
-7.043154
-3.191142
-1.262249
10.619196
-10.393596
-15.815642
-10.891998
-6.456150
4.180293
14.707956
-15.798999
22.598484
6.390354
1.761841
1.936210
-5.603705
-11.540427
2.207303
-6.308587
-12.794882
-2.091580
-0.945196
3.118901
-1.277684
-4.937041
-5.965948
7.668359
-13.166939
-4.549982
-2.526990
3.422488
2.051529
7.653419
1.980924
-2.195715
-1.732527
-0.292454
5.380692
3.998483
-17.868508
2.264139
-19.539446
-4.948587
-11.574032
5.364672
15.023296
0.639946
2.938943
-0.499394
-1.702437
2.307747
2.296449
-5.847960
-15.073101
1.640493
-7.060862
2.120798
1.407227
-16.204991
-8.867418
1.479959
15.196062
-7.095777
-15.572283
-6.549075
-2.441792
3.871177
-1.572627
15.424098
-0.756881
-15.248976
12.008145
2.004628
5.482612
-1.754808
18.781188
18.871502
5.564713
2.905459
-4.524659
1.812638
3.007652
-8.359907
12.209318
-9.119640
-6.698797
1.613773
11.403168
10.962569
-12.122008
1.583031
-8.541015
-2.534053
-7.944260
10.745275
8.850287
-12.860793
3.266942
4.232224
5.628029
-4.628883
1.390837
2.414675
14.543158
-7.491973
1.213737
-17.690864
-5.084731
-9.729960
-8.799301
-9.970081
-15.256460
6.424281
6.044848
-14.997299
13.252448
9.913033
-6.870949
6.580406
-8.273699
-5.702275
-12.016021
-6.829976
16.932627
-5.400979
-17.791159
0.484773
-4.440270
0.057419
0.291268
5.469769
-0.524273
-3.827401
-21.454383
10.163520
3.586689
8.564804
-15.466848
1.705933
1.228694
15.311893
4.324589
-10.308692
-11.965339
4.293530
8.532009
8.966210
5.982516
1.887509
4.040213
-9.171147
-2.175305
1.801827
4.812670
-1.933042
2.392874
-2.258625
3.135230
0.216495
-0.949337
-1.722827
-13.785249
6.981989
-7.564584
4.741266
-0.593666
6.062578
1.978011
-10.329968
-4.160184
-8.463973
3.003578
1.324255
-5.768664
-6.634924
-8.870016
-0.877552
7.878233
6.611965
-3.088878
3.662172
6.962222
-10.636770
2.590383
8.565132
22.313943
-8.177452
4.348542
-10.552484
9.240228
0.671276
6.011180
1.606082
-0.289645
-22.029541
-13.608450
-9.459867
-9.248639
14.130797
3.842549
-6.446137
11.990761
-2.495416
-11.748629
-5.337893
-5.088417
4.309873
1.373563
-4.212407
-18.087679
-9.711599
6.383673
-6.142844
-13.063622
0.144416
6.374440
-13.926979
-12.156332
8.954009
1.802342
-5.831763
-11.505062
5.296627
0.057125
19.957018
8.914053
-2.879521
-11.157935
-16.578699
3.366524
-4.553333
-4.539710
14.452317
1.796266
-2.933091
7.898645
-5.838962
8.704389
-1.475487
9.198222
-5.217108
10.569914
9.575006
-7.402937
-2.658616
-17.031365
2.356814
-1.219999
4.246537
19.744065
9.762718
-6.257306
-4.597629
-7.855335
4.126983
-5.711320
-4.876100
0.952045
-1.669461
0.889480
2.017813
15.828616
10.287720
3.943277
-10.019745
-6.944430
3.644845
0.825766
2.684250
-3.421903
1.554683
-12.359979
-0.282575
12.015837
-7.163579
-3.296795
12.275473
2.920218
-11.916417
8.153880
-7.185655
3.317718
8.188977
0.600116
7.384781
6.886543
7.907993
-12.973225
-6.511116
-6.524266
6.456271
-12.229164
6.906766
1.676270
-3.392668
-6.952574
-16.296611
-6.189940
18.548478
3.163612
8.533925
-3.344148
-10.193736
1.019268
-7.369789
0.847384
7.501516
3.642081
-4.955205
9.244028
-1.674504
-1.180447
-10.790305
1.887219
15.951455
2.060731
-3.456447
-10.843171
-6.261993
-1.016080
0.529599
1.595110
-2.119363
16.096500
10.465682
1.208605
-4.508426
8.405754
-2.876255
5.085161
6.934837
-7.363191
7.889926
-0.676566
3.632906
5.979991
-5.215822
2.237660
-5.163834
1.466169
-15.946083
-3.584261
4.613579
4.365725
5.381371
5.089252
0.721735
16.913794
9.807668
-13.366891
1.581727
4.226167
-4.054108
-3.912624
6.991100
1.681311
13.641641
-5.080015
2.699186
15.015292
-11.388736
2.680277
5.296136
7.962682
1.682764
-1.019869
0.943349
-2.831420
3.260263
-7.099112
-14.142952
2.456474
18.718248
-8.259471
-1.643480
9.713963
-1.887920
-9.605158
-13.265263
2.019291
10.534065
-1.491140
-8.317366
3.784456
15.921910
4.813155
7.005735
10.861636
5.395057
-2.295504
7.759056
-2.702590
-0.730724
9.451569
-10.163448
-9.552024
0.936993
-6.833620
1.698199
-4.409004
0.710234
-2.548417
0.974832
4.751863
19.883215
2.116683
-4.484864
-8.775756
-5.955717
-0.344961
9.248713
2.266848
-7.294164
-18.195188
-2.173943
-11.811854
10.520458
-4.623943
2.422135
-3.592631
17.191306
-1.186871
6.364098
2.644654
-13.061579
-10.146336
-7.428744
-4.696228
2.890547
-9.090595
-5.435849
13.568325
7.054950
5.645412
-9.354559
-11.377006
5.049542
7.468361
7.277056
5.466559
1.306579
8.703769
6.535650
14.898113
6.151873
-2.133935
-1.087778
-8.480899
7.023485
16.320150
11.547914
-4.551143
8.441006
3.568772
0.273430
4.784024
-6.941353
-11.798635
0.204637
14.639499
-8.752068
4.716890
2.900903
-2.519443
9.805921
-1.088340
2.154678
-15.239742
2.203771
-1.764713
17.087212
1.673675
2.716395
-5.087932
-7.950352
-6.444213
21.810652
-3.216968
7.528494
-12.639464
2.800438
-1.341652
9.162156
10.307627
0.154957
-6.653278
11.046992
-6.458355
-10.071406
-7.655758
-1.720937
-3.545630
2.043697
7.720454
4.267369
4.515868
-3.238731
6.373378
-2.673620
4.990517
6.309649
-6.933526
5.352130
-4.690299
-12.999825
-6.945931
4.586708
3.365722
-16.447398
-13.534981
8.686207
-3.888766
-1.062238
21.012302
1.023165
-9.220666
2.587587
-1.349204
-14.965212
3.636241
5.444823
-2.032849
6.382361
-8.652488
11.718089
-1.510254
-0.535082
4.953634
7.548252
7.145784
-2.330366
22.212522
6.428470
2.988410
5.166860
1.010183
-23.895109
-4.137601
0.675285
-5.223561
-1.370214
-9.340243
-1.115426
8.316428
6.087358
-7.297939
16.876426
-18.109031
-6.316213
-0.363341
-1.235422
-5.156486
-2.498715
4.233564
1.962719
9.536467
-7.982506
6.277044
0.745041
15.942232
-2.894725
-13.093640
-8.664950
1.104311
14.252986
9.281830
6.259887
-12.534768
-1.043043
8.482640
-3.203715
-2.237655
12.124104
3.943298
12.909283
5.654339
-2.713659
7.971316
5.345315
7.663164
2.824269
5.160642
-9.337210
3.235297
-5.016947
-6.692291
1.083957
14.547230
-0.450051
7.699694
-5.469049
-2.464211
3.127999
-6.899714
4.389014
-0.604590
8.919226
-8.066463
7.614156
-7.160339
4.400630
-14.551918
-1.703954
-18.337475
-8.781034
7.815276
-6.471796
-4.350793
-10.480162
-2.203325
10.328512
3.347586
-10.251193
-11.924670
-16.178619
14.860947
-2.869685
-6.109533
-3.721183
20.867681
-1.537038
-5.840823
-0.517466
-3.868296
-19.533823
-4.805897
15.191551
7.780135
4.705696
2.958809
-7.358523
4.751607
2.294317
1.565301
2.689382
3.435661
13.045213
1.219375
-11.046200
-12.031774
-3.148450
4.019434
-2.842528
-6.380138
7.548091
6.456133
-4.594092
4.920610
-23.620133
-9.217339
2.428813
-4.236166
-11.743762
-0.986484
-3.869677
-8.138010
-10.580903
-11.302061
-1.996300
-4.281616
-7.043577
-7.202653
-10.809716
-9.402156
-10.828299
5.562092
1.269928
2.817965
2.448066
-8.268150
14.695471
-1.010121
4.415246
-13.140795
1.685375
1.650278
-2.493453
3.365563
-1.738515
-10.429766
-11.838834
11.037049
28.506234
8.443255
2.988446
-1.893939
10.086572
6.062723
-3.035595
-4.962294
15.255111
-16.660346
-0.364339
9.217316
-2.755571
14.375264
-6.564880
-12.544608
-6.872203
0.934954
11.139389
5.502731
10.521230
-8.855780
-6.120369
-18.576255
2.755095
11.080288
3.720185
-8.989474
-1.581272
-3.306249
12.240561
5.062331
-8.012182
-11.154949
-3.423016
-16.563889
15.406974
-4.536178
-7.929716
15.551023
2.396389
2.592321
7.198272
-15.299518
13.318430
-3.337338
11.150133
4.098481
4.118351
-11.237923
1.179548
-1.015398
-7.090179
3.096304
-7.133074
12.311012
0.638207
4.315027
-5.358143
-1.358477
-6.014588
4.290858
2.734664
-11.193805
2.576044
7.869470
14.010186
-12.789228
2.928332
-0.891005
9.862875
-8.325655
-13.556657
-1.543023
9.187356
6.252397
11.288290
-13.797765
-0.082339
-1.363476
6.661164
-10.446003
4.963335
-4.691172
-5.759506
-5.867857
-11.006256
-6.049996
-1.016514
0.645419
-2.704962
9.050003
3.427188
3.570515
2.416341
0.055310
-2.831441
5.296222
1.287597
-3.098671
-7.726531
1.586110
1.691641
-5.006606
-3.499393
-5.459615
-0.186603
4.191279
-2.432625
16.234604
3.435811
-10.582892
7.795474
-8.740953
-22.111255
-8.123264
0.827789
10.812285
3.536048
8.724716
-0.018517
10.847612
-10.747755
-11.415770
-6.791369
-5.019379
-0.606622
-0.371226
-4.986146
2.916505
2.619618
-14.249228
2.724852
-6.437649
7.504723
1.914915
-18.891336
-5.730890
-9.683947
6.238003
-5.442027
-18.621105
-8.677041
7.916796
11.913905
1.867454
-0.525330
7.542149
1.120818
-11.827964
24.913813
-2.330460
-8.679501
-1.758679
-3.015459
1.491568
8.322711
1.440199
-29.621024
-7.788268
-1.648212
14.250083
4.789415
20.200289
9.389017
7.173089
8.992009
6.744543
28.112538
1.208278
1.159026
1.088660
4.761175
-0.279910
6.981833
3.676100
-10.804456
-4.275566
-2.660228
5.488833
6.019997
0.423758
-16.315773
9.840996
3.756757
-9.019812
7.074616
-0.219292
5.696576
-5.949749
16.930806
-0.074355
5.207410
-4.470357
10.736683
5.948377
0.299156
8.411228
7.929886
1.694662
5.008377
17.793006
-0.955647
0.587928
-4.364392
11.742944
-8.847288
0.450175
-9.329762
7.650640
16.773234
-2.855276
6.375286
11.585024
-11.677806
-2.808728
-4.779249
-22.651055
-3.690114
9.164862
-12.019763
3.798867
-8.927687
9.914135
2.664223
-24.260094
-0.894298
8.801253
11.371047
-1.121369
-5.701648
8.118248
9.166658
0.527682
3.762040
-1.713233
1.119199
-0.128444
-2.660533
0.214918
23.594770
-8.238004
-7.684950
-7.894539
7.896141
-1.634734
-15.476857
4.698390
6.394767
14.566742
-0.575877
-6.803790
10.024049
6.368207
18.160307
-17.983592
7.794391
0.872512
10.764153
2.533517
15.511676
12.817538
4.902941
-8.166674
-15.905418
6.395046
-8.203083
1.257350
-2.903666
-1.489061
6.452152
10.867220
-0.670793
-2.827695
-12.289854
6.555147
-4.396650
6.113163
-1.229725
9.785130
-22.653950
-5.557084
3.163628
7.471367
-9.916342
6.593538
-11.408430
0.577602
-13.896332
6.042658
2.986899
15.175579
-3.059513
22.095748
-16.922851
-7.951624
-5.634611
5.689480
0.481005
6.745068
-3.320082
-4.992757
10.567983
10.856264
5.896474
-6.962056
-4.937321
-1.653273
-5.799781
-13.402378
5.883103
6.167094
-0.176935
-26.304374
10.769162
-7.915351
-4.806160
7.465400
-11.792217
10.404813
-8.298722
-1.434024
-2.641773
-1.022516
3.092007
0.774434
-1.074988
0.528944
-5.792904
-1.914753
-14.473747
4.674302
-7.977320
2.877517
5.879731
15.964340
0.877831
4.449519
-1.868801
-11.439938
-8.779568
5.223043
-15.849039
-0.381458
-4.160965
7.203672
11.990600
-16.239768
1.490587
-0.151831
6.549411
12.181723
8.633589
-8.229346
12.579571
6.840300
-0.855492
-14.324677
-3.598940
-6.064173
9.193098
-16.891157
0.227785
-4.776262
-4.376730
0.243923
7.601921
-6.025052
5.818152
0.538737
-0.546383
-17.585012
-11.290905
-3.277769
-2.472214
-12.769182
10.156327
22.072202
9.250759
2.465253
0.696012
-4.028760
-2.095577
3.099177
18.485525
2.124568
7.827157
-0.417002
2.772560
-4.930823
1.310030
12.066728
-1.146633
3.656198
-0.983834
9.396714
-11.111635
-4.942654
1.975299
7.278129
8.536597
-0.550017
3.196026
2.458774
-11.444743
2.803252
-5.234042
-3.899754
8.989323
-1.557054
18.908163
0.213137
-19.399776
7.072844
16.056825
5.969823
2.243645
16.969281
-2.956710
-2.183557
5.011083
4.553895
8.025096
9.406143
-5.067832
3.936130
15.607321
1.467057
-5.688810
-1.431449
4.621021
20.859546
14.198704
0.522662
-6.134822
5.377338
6.643198
5.649753
-4.404739
3.098365
-22.290908
-3.774873
-6.187758
18.103153
3.228445
-1.612581
-6.821510
-11.144033
-5.816388
0.977149
20.517373
1.949473
7.631198
-2.479428
9.777730
-4.815418
-4.386087
24.102818
-10.918277
0.131925
-13.478027
0.179081
-16.853744
7.165702
8.395054
-8.886016
-19.237226
10.172456
-4.251108
8.970757
14.158700
-5.175284
1.551013
-14.031478
7.191886
7.452012
13.502151
4.200119
3.461357
0.847163
1.476996
9.533501
0.922216
12.688358
-21.666844
3.033043
-5.243134
-14.356546
-9.644146
-1.324319
-2.914618
-2.097854
9.454946
-0.012662
-4.574788
2.331234
-0.276717
7.461005
-7.591207
2.581852
-10.245830
0.165987
7.657912
-4.293670
-9.483897
5.979611
0.813861
-0.724930
14.156811
2.578415
-20.761119
1.218812
5.756077
9.448809
-6.175245
1.977820
15.824982
12.795028
-4.520279
-5.547977
-4.541237
-0.381990
1.987875
-4.245197
5.873188
-8.426038
-12.023233
-7.622222
-4.457979
14.132607
-7.821498
-2.392066
1.167211
10.970824
-0.463496
3.035437
-3.633838
-2.957044
5.635690
-14.975108
-7.553547
-8.411905
-5.428638
7.261654
-10.801699
-7.040452
13.548735
10.401883
-5.990809
18.161780
22.068225
13.797940
6.162350
-3.857393
-4.231737
14.743581
-9.985699
-4.481917
-4.846951
-13.695518
3.647387
8.598886
11.035194
11.163455
-4.723823
-6.672924
-12.912025
-0.508554
4.468526
4.124898
-3.410752
-6.070398
0.197468
6.683715
-17.908910
-6.309135
-3.736801
3.630201
10.352355
-8.543164
-0.951800
-0.013838
-1.669808
-12.640422
9.063125
9.492033
-0.915500
7.938558
-4.310243
-7.006596
5.263383
2.622091
5.222937
10.429289
9.708400
6.588441
-1.298197
-18.398462
8.938489
-5.211465
0.493663
7.861942
2.924467
8.424178
12.083998
-25.864431
7.506365
-4.918697
0.166957
-8.792148
5.112955
-6.345779
-4.215679
6.662692
3.269030
-21.763884
1.670433
8.565563
-0.891406
9.799606
11.253720
-1.832606
-0.320450
-7.949049
10.705069
1.038591
6.188603
-1.345140
14.275821
29.035206
-9.608896
7.970014
-5.541817
-23.986545
1.395103
-8.582583
-7.612726
-0.351880
5.178302
-1.440872
0.802516
9.286461
9.274978
-2.748950
-0.281580
3.953371
15.054480
-2.294624
-4.509895
-0.708397
9.402983
-4.529104
-2.030447
12.482797
-13.390228
-4.369071
-2.052654
-4.316127
-7.522462
-7.910119
4.199143
6.848375
-4.118264
9.100279
11.856204
-16.827871
-8.659295
-1.838415
5.879034
6.041799
-0.467443
-7.136982
8.991208
-1.441388
0.014025
-1.569761
3.386967
6.339088
3.138390
6.224591
16.573674
-2.966040
7.214936
-28.190739
0.193240
-1.765001
-7.061452
2.681960
7.179497
-7.029624
-7.721390
13.418742
-7.519590
-8.890605
0.099855
-6.772280
-6.011095
-12.975385
-3.033515
-7.830919
4.184698
-14.284915
3.613425
3.018173
-2.311561
19.081621
-16.465867
-2.572378
-8.340833
-10.743592
-8.214773
-2.625107
5.047865
-20.877341
-11.764366
-6.746321
13.167325
12.821212
7.722188
-3.315414
4.721449
4.272439
-3.285953
12.691180
-0.803783
9.924493
11.942962
-10.599561
5.169587
-0.518914
-13.401350
12.442824
-8.379411
12.561813
-11.288186
4.429407
-1.233420
-2.061470
-1.560812
-5.186735
4.193296
8.473811
-5.523807
-0.497224
-2.373025
13.580641
-1.086810
-16.155408
1.383514
-9.599644
-12.693204
14.268114
5.533542
7.166882
-19.579314
-1.322279
4.608362
-5.231625
2.957171
-1.913184
6.224769
-3.321659
-14.435465
2.010072
10.960199
-13.892198
-5.602496
1.189394
1.742276
21.754870
-0.831257
6.968895
9.033529
-0.238875
-10.368352
0.987883
-6.999850
-6.458115
-2.158921
15.110220
2.332929
-1.717034
9.192502
-5.506636
10.254953
-13.707441
15.358146
2.531598
-2.000375
2.710862
1.483348
9.092999
5.928519
8.291170
2.415444
7.423249
0.030661
13.732856
0.726657
-7.476730
-22.699561
-2.678732
-4.095867
11.769419
-2.480188
7.219267
3.130438
-3.500594
1.328403
18.804837
3.778371
-6.762039
-5.849381
-7.837145
-29.455197
-3.770743
4.109675
-2.437789
-3.765177
-18.849748
8.181457
-7.423517
10.839794
-1.347066
-1.079556
4.627642
2.666481
5.834251
-5.672876
-5.388810
-9.467404
-3.932084
7.337666
3.973596
-12.054203
10.698909
-2.803895
-13.027137
-3.286535
-11.193949
-1.260940
10.619544
3.184327
20.068190
5.095662
-14.063856
14.897177
4.065219
1.557766
4.927506
10.010438
-12.089510
7.137561
4.472204
-4.966307
-6.234877
-12.364221
9.879009
0.022674
-2.821182
3.231733
-15.570354
14.857152
-8.260765
-1.814989
0.402393
10.207219
2.265981
-0.176048
9.784023
7.170325
-6.007049
2.421050
-15.616481
1.830688
6.106176
-0.345779
13.351218
-0.570729
0.811942
21.379520
3.722480
-6.443271
9.892605
10.317528
-10.181905
-4.923501
0.510754
3.451404
-13.879852
-15.490499
9.091237
11.802601
-12.499008
-0.683962
-12.522902
-10.009806
-0.007555
-3.011894
6.523677
-6.143534
-0.593130
-3.610645
-0.325661
-3.978475
-11.136225
-2.382145
-12.423680
-2.276909
1.446126
0.960935
9.957889
6.754463
-3.477499
5.573134
-3.017545
11.636839
-8.243288
9.277406
1.488128
6.980729
-3.101013
-7.593310
4.694565
-10.499537
9.606163
1.827882
9.382622
-7.676996
3.834167
-11.962589
1.853945
-24.795444
6.614668
-15.091174
-6.890576
1.808784
-0.321315
-3.453774
4.560065
4.775160
-19.824209
11.312546
5.420108
-3.405012
0.126345
-0.138559
-7.368774
-0.690397
-6.211249
-7.453479
8.036555
11.517606
-0.048071
-18.027480
-3.410722
-3.320577
-5.037950
3.135312
-1.646469
4.956494
14.266077
-11.299389
-3.235235
1.909087
18.677146
-1.776946
1.047131
4.855464
5.247667
-13.156733
1.469553
-1.296974
7.071816
-5.433338
-19.918561
1.622612
-2.894845
-1.240454
6.100543
1.421577
-1.395642
7.875775
-7.596233
-0.238121
-5.297990
1.709022
-4.072140
2.679984
-15.351608
-6.460463
-11.016844
7.490358
7.296505
10.935904
-7.477440
2.814517
3.496245
-2.193383
-11.175106
0.965873
13.404079
18.323196
-13.152015
-9.628019
4.398697
-4.346662
6.528370
-9.780641
8.015417
-0.554336
-4.107275
9.972819
1.705101
-9.243869
2.863652
-12.687295
-3.714183
15.035976
-6.454122
3.296764
-4.875033
5.733732
-5.568280
-7.023544
6.205622
-1.470423
8.191119
-9.254369
-7.488845
-6.366356
4.796272
6.570782
-2.836444
-2.099018
-5.464072
-0.431398
-3.039900
-15.045821
5.625908
1.485155
5.801694
-5.790397
-7.508987
-11.622886
2.001611
5.294003
5.067930
9.096709
-14.249893
-4.570068
3.912083
-5.040225
-4.286256
-3.507170
4.913966
6.390038
1.870957
-20.968207
-0.945687
4.264036
-12.323431
3.933346
-11.304958
-5.314060
21.575388
-2.984561
-2.389661
-7.154902
9.382764
-0.843396
8.519232
-1.406939
-8.550175
0.960654
-9.844719
-4.525431
4.484001
-3.785243
1.814248
10.291893
-3.167692
10.981683
-0.325674
-11.061384
-1.534183
-12.628838
17.826668
-5.442208
-3.369113
7.374213
-2.371806
6.088989
-0.556876
1.211074
12.990081
16.023571
2.407723
12.445515
-12.753830
13.754716
-22.358926
-8.491658
21.834660
3.341552
3.564910
8.618754
0.132996
3.199981
4.813926
-2.823393
1.414046
1.990319
-8.447975
-4.600100
-26.750502
-7.787305
-0.284128
1.066463
1.187389
20.482263
0.684872
-18.582526
-8.600443
16.435219
-1.974116
-3.696853
-9.701733
5.957181
-6.022965
-0.104492
5.875933
9.872551
-6.101448
-4.917496
-9.843402
-17.118644
2.155867
-18.356615
-7.890676
7.103262
-9.279731
-15.409063
-0.225299
0.449737
0.378553
2.084061
-0.416169
2.029408
-4.065516
-3.273381
1.768912
1.754347
4.586178
0.831066
-9.945866
-4.503660
-2.050839
-8.188371
-9.719126
21.201716
-12.615125
-9.522782
-0.777530
0.894399
7.887529
-6.698116
-0.524262
-10.171301
-1.836174
0.650114
4.771791
23.762359
-19.691822
-4.089342
2.360664
-1.054417
1.512886
-12.470151
3.424122
1.728856
-0.414291
0.394366
2.976636
10.105165
-13.579410
4.208604
-5.912901
-9.510320
-8.982910
0.475526
7.423939
9.237088
-0.730650
-10.102011
9.417525
-4.690617
-1.773135
-0.746951
2.569801
-6.570525
-0.675456
4.596609
-15.657525
0.421076
4.050945
-3.207923
-6.493478
4.721626
-0.501715
-14.252769
-4.956970
-1.065974
8.397698
4.136928
-4.478999
14.346607
-4.423171
-4.753793
-12.277947
2.279873
-5.551724
1.838781
13.726579
-15.771474
